// Neural Network File Format by Kyle Julian, Stanford 2016
2,6,4,500,
6,500,4,
0,
0
0
0
0
-2.13945e-01,-3.91498e-01,1.49779e-01,-2.51583e-01,-9.96322e-02,3.72108e-01,
-5.39295e-02,-2.70767e-01,-1.19953e-01,1.11338e-01,-2.99027e-01,-2.68119e-01,
-2.88671e-02,3.93581e-01,-2.84275e-01,8.39474e-02,2.33876e-01,1.11826e-01,
-9.25700e-02,1.26238e-01,6.73099e-02,-6.66068e-02,2.51981e-01,3.53712e-01,
3.63258e-01,-9.66377e-02,1.41654e-01,4.95756e-02,1.67193e-01,-2.63598e-01,
-2.56270e-01,3.97031e-02,-1.46445e-01,-2.81209e-01,2.35170e-01,1.88253e-02,
2.86349e-01,1.68132e-01,-2.39017e-02,3.89364e-01,-1.75823e-01,4.14802e-01,
-1.74790e-01,3.79613e-01,8.76525e-02,4.15275e-02,2.92799e-01,2.80478e-01,
3.42454e-01,-3.35032e-01,-2.12600e-02,3.67662e-02,-4.89627e-02,1.89861e-01,
-2.65221e-01,8.98222e-02,3.28633e-01,3.30340e-02,7.94602e-02,-1.12919e-01,
1.59073e-01,3.81096e-01,4.25149e-01,2.47572e-01,1.55400e-01,1.99765e-02,
1.97204e-01,-3.41685e-01,1.91617e-01,6.87299e-02,3.77319e-01,-2.21310e-01,
1.56397e-01,1.71317e-01,-1.71917e-01,-1.38044e-01,-2.38693e-02,6.78495e-02,
-2.81518e-01,-3.93180e-01,4.04624e-01,-6.92864e-02,2.44548e-01,1.37451e-01,
3.20361e-03,5.36310e-02,-3.38572e-01,-3.52762e-01,3.15280e-01,-7.70318e-02,
9.71744e-02,-2.59421e-01,-1.91769e-01,3.48347e-01,-1.82026e-01,1.04754e-01,
2.16401e-01,-2.24597e-01,-5.84716e-03,-4.88992e-02,1.61442e-01,-4.10153e-01,
3.56132e-01,2.05526e-01,-3.14827e-02,-1.62622e-01,2.91140e-01,4.43400e-02,
2.82981e-01,-1.21235e-01,4.13044e-01,3.90727e-01,6.08377e-02,3.22228e-02,
-3.86000e-01,-3.25559e-01,-3.12668e-02,-2.88715e-01,3.96633e-01,2.19501e-01,
2.82876e-01,2.77327e-01,2.03351e-02,-1.34620e-01,-1.00123e-01,-3.95602e-01,
-1.98581e-02,3.33478e-01,2.55190e-01,-2.47426e-01,-2.88696e-01,3.98650e-01,
-1.65594e-01,-3.18485e-01,-2.19482e-01,-5.53950e-03,2.14693e-01,1.24803e-01,
-3.57550e-01,1.27818e-01,1.48656e-01,-1.78676e-01,-1.36273e-01,2.80470e-01,
2.12203e-01,3.31136e-01,-1.36801e-01,3.04782e-01,-3.62549e-01,-7.34398e-02,
3.30759e-01,-3.55954e-01,2.21658e-01,-3.22384e-01,-1.79920e-01,3.84906e-01,
3.02814e-01,-3.07728e-01,6.68374e-02,-3.90454e-02,3.82378e-01,-3.82809e-01,
1.09275e-01,7.47744e-02,-3.32582e-01,8.62636e-02,6.39122e-03,2.04115e-01,
-1.38725e-01,2.75656e-02,-1.36762e-01,2.03630e-01,1.00905e-01,-3.38336e-01,
-2.01156e-01,-5.58852e-02,3.78803e-01,2.40759e-01,-4.18508e-01,1.19673e-01,
-1.45260e-01,-1.69003e-02,2.84709e-01,1.39431e-01,-2.71902e-01,2.27217e-02,
-2.44074e-02,-3.69625e-01,8.56561e-02,3.44318e-01,1.68986e-01,-3.23104e-01,
2.67143e-01,4.29078e-02,-1.36800e-01,-7.35415e-02,1.83674e-01,-1.81488e-01,
2.95988e-01,1.68140e-01,-2.40190e-01,-1.63215e-01,-2.53125e-01,2.44774e-01,
-2.18358e-01,1.78210e-01,4.18080e-02,-2.89622e-01,-3.27984e-01,-2.42701e-01,
-9.80488e-02,-2.52721e-01,-7.81839e-02,2.49422e-01,3.20700e-01,1.90818e-01,
-2.93381e-01,1.30440e-01,-1.51499e-01,3.70693e-01,5.35520e-02,-2.97542e-01,
-3.68392e-01,-9.02812e-02,-2.28131e-01,-3.54814e-01,-4.31099e-02,-1.20317e-01,
6.07123e-02,-1.50857e-01,2.34414e-01,-3.08030e-01,8.30605e-02,-2.84420e-01,
3.24493e-01,-2.73788e-01,-2.98782e-01,-3.91415e-02,-1.79200e-01,-3.93079e-01,
4.00132e-01,4.96862e-02,4.00659e-01,-9.78582e-02,1.15623e-01,2.71405e-01,
-1.14949e-01,-9.11944e-02,-3.54463e-01,-4.64827e-03,-6.18629e-02,-1.38605e-01,
-3.55642e-01,4.02009e-01,1.69224e-01,-1.34292e-01,-2.46238e-01,2.61717e-01,
-1.52128e-01,3.38918e-03,-8.17035e-02,3.62718e-02,-2.55559e-02,2.22576e-01,
2.29178e-01,1.77200e-01,-2.26035e-01,-3.39692e-01,-3.80200e-01,-1.29398e-01,
3.05377e-01,-1.43453e-01,3.32649e-01,1.49946e-01,-1.12498e-01,-3.64688e-01,
2.90788e-01,-2.25075e-01,-3.13769e-01,2.06136e-01,-3.87867e-01,-2.24136e-01,
1.12402e-01,1.38198e-01,-2.04810e-01,3.53009e-01,-7.73932e-04,-2.06790e-01,
9.37770e-02,7.93640e-02,4.25586e-02,2.29182e-01,-2.17192e-01,3.88964e-01,
-3.88687e-01,-4.09474e-01,3.66534e-01,3.47569e-01,-1.11854e-01,-4.30669e-02,
-2.32781e-01,-2.06057e-01,-3.86698e-02,-2.51355e-01,1.89811e-01,-3.03834e-01,
2.60181e-01,2.38677e-01,-3.41735e-01,9.90297e-02,-9.70291e-02,9.33575e-02,
-1.03173e-01,4.00000e-01,1.20650e-01,2.94890e-01,-3.97819e-01,1.45156e-01,
-7.39212e-02,3.17025e-01,1.58595e-01,2.63042e-01,-2.59704e-01,3.50915e-01,
-1.45446e-01,2.32049e-01,8.37498e-02,-2.19668e-01,1.49391e-01,4.79607e-02,
-3.54806e-01,3.70033e-01,2.19877e-01,-2.73907e-01,2.87959e-02,-4.59118e-02,
-4.03185e-02,3.32315e-01,1.28968e-02,8.93547e-02,-9.38270e-02,-5.17934e-02,
2.06707e-01,9.47901e-03,2.17931e-01,-9.08898e-02,-3.62966e-01,4.02803e-02,
-3.34547e-01,3.71424e-01,-1.12030e-01,-1.79886e-01,1.58235e-01,1.02596e-02,
3.40228e-02,-1.92724e-01,2.32005e-01,2.58046e-01,-4.52752e-02,3.14923e-01,
9.19389e-02,-3.18587e-01,-2.55621e-02,3.86473e-01,3.47992e-02,-2.24531e-02,
3.33468e-01,3.17735e-01,7.39958e-03,1.42644e-01,3.91879e-02,1.47610e-01,
3.77825e-01,-2.84124e-01,2.27457e-02,-2.99035e-01,-9.74743e-02,2.07308e-01,
-1.23736e-01,1.99363e-01,3.84069e-01,2.71957e-01,-3.80864e-02,-3.18555e-01,
1.13661e-01,3.36589e-01,2.04266e-01,3.63800e-01,2.80392e-01,6.93568e-03,
-2.06284e-01,-2.30863e-01,2.32289e-01,4.52991e-02,3.02860e-01,-8.85712e-02,
1.99929e-01,3.38872e-01,2.31113e-02,3.22314e-01,3.25866e-01,1.40031e-01,
2.38325e-01,2.78840e-02,-2.17698e-01,3.60457e-01,1.00766e-01,-2.08734e-01,
1.03406e-01,-3.50431e-01,3.76804e-01,1.24160e-01,-4.68000e-02,-2.86282e-01,
3.74864e-01,-2.05572e-01,-8.23832e-02,-3.22921e-01,1.68826e-01,-3.81850e-01,
3.45517e-01,3.62072e-01,-1.01161e-01,2.74487e-01,4.65601e-02,2.89865e-01,
-1.01783e-01,3.61622e-01,2.68253e-01,3.70530e-01,-3.42178e-01,-8.59701e-02,
-1.69257e-01,3.50866e-02,-1.36748e-01,-1.39432e-01,-2.91396e-01,-2.44825e-01,
2.20850e-01,3.06048e-01,6.36820e-02,-4.68946e-02,3.03496e-01,-3.81120e-01,
-3.04758e-01,-3.31876e-01,-4.03249e-02,2.45543e-02,1.31669e-01,2.62835e-01,
2.38173e-01,1.32129e-01,1.83799e-01,8.84696e-02,-2.74996e-01,-1.85028e-01,
2.28996e-01,1.14822e-01,2.31269e-01,2.96606e-01,-3.08177e-01,-2.14606e-01,
5.57622e-02,-5.34873e-02,2.45185e-01,-2.11947e-01,1.34219e-01,-8.48277e-02,
-1.32232e-01,2.00210e-01,3.21698e-01,6.71392e-02,-2.97151e-01,-3.97229e-01,
-3.84873e-01,2.72764e-01,1.54340e-02,2.48565e-01,3.35804e-01,3.50277e-01,
1.71390e-01,-7.46217e-02,-1.43437e-01,-3.03573e-01,-3.00438e-01,3.74208e-01,
-1.13740e-01,3.71588e-01,1.03400e-01,-3.04540e-01,-1.57811e-01,2.92556e-01,
2.61862e-01,-2.10519e-01,1.19937e-01,-8.89019e-02,-2.99452e-01,-2.25686e-01,
-2.39328e-01,-2.03839e-01,1.29755e-01,2.95723e-03,3.73454e-01,3.06257e-01,
-6.94049e-02,3.25558e-01,-2.43576e-02,-1.56329e-01,-4.58414e-02,5.50043e-03,
-1.06848e-01,-2.87035e-01,-3.04042e-01,2.86818e-01,2.17924e-01,-1.43050e-01,
-1.43590e-01,3.06713e-01,-8.97896e-02,3.33976e-01,2.02206e-01,-1.52265e-01,
-2.37051e-01,1.79920e-01,-2.92896e-01,-2.94847e-01,-5.64463e-02,-7.98563e-02,
6.43279e-02,2.66196e-01,1.47681e-01,3.09253e-01,2.23591e-02,3.97514e-01,
-2.29952e-01,-2.05727e-01,5.12507e-03,-1.56256e-01,-1.79360e-01,1.47935e-01,
8.22179e-03,-2.85662e-01,-3.28847e-01,2.33450e-01,3.86689e-01,-3.45023e-01,
3.86447e-01,7.68355e-02,2.52833e-01,2.91681e-01,1.20043e-01,3.46859e-01,
-3.74776e-01,-6.69478e-03,2.90704e-01,1.13063e-01,2.11339e-01,1.52032e-01,
1.78203e-01,-1.55446e-01,-2.30515e-01,-1.30102e-01,3.58926e-01,3.26928e-01,
-3.75142e-02,-2.13894e-01,2.57094e-01,-4.20291e-01,2.23054e-01,-3.85926e-01,
-1.67094e-01,3.33924e-01,-9.92235e-02,1.68568e-01,-5.02943e-02,1.11042e-01,
-3.13584e-01,-2.68501e-01,-3.13224e-01,2.40989e-01,2.04186e-01,-2.15363e-01,
2.87813e-01,3.54981e-01,-2.91565e-01,1.11197e-01,8.50129e-02,-3.43971e-01,
-3.14077e-01,1.04826e-01,-2.06631e-01,1.49996e-01,2.04424e-01,-3.06140e-01,
-4.02172e-01,-1.21801e-02,3.61825e-01,-3.75093e-01,-3.67115e-01,-1.33074e-01,
2.22370e-01,-2.99883e-01,-3.92201e-01,-2.83343e-02,-4.06996e-01,-1.55149e-01,
1.68014e-01,-2.19257e-01,-1.28555e-01,5.86529e-02,3.21928e-01,-3.05242e-01,
3.69312e-01,2.67746e-01,2.32479e-01,2.68433e-01,8.47119e-02,1.39172e-01,
-2.70254e-01,3.66361e-02,-2.67071e-01,-2.09672e-01,3.78690e-01,-2.48837e-01,
1.37808e-01,-1.28515e-02,1.87166e-01,-2.42627e-01,-3.56961e-01,2.44590e-01,
-6.66385e-02,1.90252e-01,2.30614e-02,2.27014e-01,-2.98730e-01,1.53393e-01,
3.38321e-01,-1.57480e-01,-3.76496e-01,3.77127e-01,-1.56066e-01,2.62299e-01,
-1.12179e-01,1.45056e-01,3.71157e-02,1.50780e-02,1.68540e-01,-1.75564e-01,
2.27019e-01,9.72051e-02,4.73744e-02,3.11107e-01,-2.35777e-02,-5.57850e-02,
3.47238e-01,3.66738e-01,3.64370e-01,-3.62737e-01,1.36072e-02,1.54447e-01,
-2.22015e-01,-3.04671e-01,4.12889e-01,-1.63353e-01,3.42508e-01,-7.82566e-02,
3.72939e-01,1.35991e-02,-1.09657e-01,3.57245e-01,1.43206e-01,-2.35515e-03,
-1.08610e-02,2.14347e-01,1.48681e-01,1.98149e-01,-3.64841e-01,5.21261e-02,
-9.65100e-03,-4.04471e-01,3.37131e-01,-5.71283e-02,-3.94699e-01,-3.90085e-02,
1.60231e-01,3.21995e-02,-9.04349e-02,-3.70960e-01,3.39628e-01,-3.02579e-01,
-2.91236e-01,3.43729e-01,-5.31454e-02,1.28462e-01,3.06721e-02,3.09670e-01,
-5.63538e-02,1.06272e-01,2.80902e-01,-3.50319e-01,1.45466e-01,-3.13014e-01,
3.76614e-01,-2.71467e-01,1.62914e-03,1.07542e-01,7.19786e-02,-3.10279e-01,
8.61422e-02,3.64006e-01,3.12147e-01,1.10295e-01,2.20364e-01,7.93529e-03,
1.16368e-01,4.01897e-01,-1.52145e-01,-4.00534e-02,-2.42841e-01,1.79007e-01,
6.77282e-02,3.07864e-01,5.59426e-02,-2.05340e-01,3.80534e-01,-1.79898e-02,
1.63009e-01,-1.16588e-01,3.66143e-01,1.14843e-02,-1.33371e-01,-2.99251e-01,
-2.41276e-01,-3.62706e-01,-3.78277e-01,1.69411e-01,2.46903e-01,-5.57254e-02,
-2.12747e-01,-3.68151e-01,3.67917e-01,-2.61313e-01,-7.13640e-02,-3.55928e-01,
-2.82491e-01,3.90930e-01,-6.58436e-02,3.15835e-01,1.50454e-01,3.90281e-01,
2.85166e-01,1.75288e-01,2.79925e-01,-3.47994e-01,-8.94307e-02,2.51055e-01,
2.18752e-02,2.64783e-01,-2.66826e-01,3.01007e-01,-1.32562e-01,2.69971e-01,
-2.61763e-01,1.19587e-01,2.75302e-01,2.18666e-02,1.67720e-02,1.93794e-01,
2.28750e-01,-3.21095e-01,-3.50092e-01,-3.24360e-01,-2.87636e-02,-8.63677e-02,
-2.54470e-01,-4.27998e-02,2.73275e-02,-3.84541e-01,1.17252e-01,-3.52946e-01,
3.79980e-02,3.90842e-01,-3.85893e-01,1.68231e-01,2.57461e-01,2.37816e-01,
-2.78940e-01,-1.33866e-01,-2.56658e-01,2.92914e-01,-3.07805e-01,-3.51587e-02,
6.55307e-02,-1.41571e-01,6.02967e-02,-1.37200e-01,-2.24995e-01,-2.87821e-01,
1.37052e-02,-2.22573e-01,-2.30584e-01,-3.73574e-01,6.03032e-02,2.22443e-01,
3.20002e-01,2.56103e-01,-5.43895e-02,3.01298e-02,8.54562e-02,3.83210e-01,
-8.10888e-02,-3.59522e-01,-2.93083e-01,2.37171e-01,-1.31242e-01,-1.92111e-02,
-2.21996e-01,-3.47110e-01,-3.74466e-01,-1.15425e-01,-2.04432e-01,8.73283e-02,
-1.80969e-01,9.78391e-02,1.94389e-02,-1.84531e-01,1.80051e-01,1.65532e-01,
-9.87129e-02,-4.66322e-02,-3.27181e-01,-3.43572e-01,-5.15527e-02,1.94937e-01,
3.57784e-01,3.43839e-01,-3.23728e-01,2.25898e-01,1.42508e-01,5.63982e-02,
2.41034e-01,1.70144e-01,-1.16866e-01,-1.84010e-01,-3.78565e-01,-1.77735e-01,
3.77687e-01,3.58521e-01,-3.15686e-01,3.97469e-01,1.32700e-01,-9.12320e-02,
-3.18250e-01,-3.97646e-01,9.46806e-02,1.75999e-01,-2.91513e-01,2.24195e-01,
-2.02870e-01,2.86057e-01,3.37173e-01,-2.25927e-01,-6.90599e-02,-3.75661e-01,
2.85430e-01,-3.28862e-01,3.68577e-01,-1.63019e-01,-3.11000e-01,-1.49489e-01,
6.36832e-02,-2.14872e-01,-3.40850e-01,3.82823e-01,-3.15610e-01,-3.56520e-01,
1.37375e-01,-8.52272e-02,-3.71608e-03,-3.36593e-01,-1.99229e-02,1.90895e-01,
-3.73148e-01,-1.03627e-01,-3.98557e-01,-3.78485e-02,9.29054e-02,-2.09039e-01,
3.77876e-01,-1.72848e-01,2.86559e-01,1.11118e-01,2.09548e-01,3.34788e-01,
-2.64757e-01,2.86002e-01,-2.43003e-01,3.08808e-01,-1.28753e-01,3.01983e-01,
3.15314e-01,1.03514e-01,3.70213e-01,-3.34172e-01,5.04301e-02,-1.08730e-01,
3.39766e-01,-2.45910e-02,-3.04159e-01,-2.14941e-01,1.33213e-01,3.34447e-01,
-2.82769e-01,-2.92189e-01,7.54458e-02,3.16443e-01,-1.56160e-02,-2.79784e-01,
-3.99053e-01,-3.99440e-01,1.82484e-02,-2.59870e-01,-1.86543e-01,2.16010e-01,
-3.87938e-01,2.88762e-01,1.03522e-01,2.83109e-01,-2.71356e-01,7.90882e-02,
-2.24914e-01,-2.90833e-01,-1.19625e-01,-4.09658e-01,7.46229e-02,3.55158e-01,
-3.81273e-01,2.63456e-01,-2.70732e-01,-1.90834e-01,-9.08588e-02,5.96693e-02,
1.51669e-01,-2.35817e-01,1.92163e-01,3.84090e-01,-3.29526e-01,3.09108e-01,
3.25548e-01,1.24086e-01,8.85295e-02,-1.06822e-01,-6.20627e-02,-1.65164e-01,
1.90267e-01,-3.16389e-01,-3.96731e-02,-6.94650e-02,-2.85495e-01,-2.66687e-01,
-3.45056e-01,2.14156e-01,-2.21052e-01,-1.07267e-01,1.71253e-01,-1.12573e-01,
-3.98615e-01,-3.34005e-01,4.09654e-01,-1.83920e-01,3.67509e-01,3.16091e-02,
-3.81822e-01,-1.85010e-01,7.14615e-02,-1.98669e-01,-3.53478e-01,2.91420e-01,
1.53167e-01,-2.00259e-01,1.83547e-01,-3.37231e-01,-3.56736e-01,2.32457e-01,
4.15227e-02,-4.99909e-03,3.84042e-01,-2.80360e-01,-6.44496e-02,1.86484e-01,
1.11674e-02,7.62962e-02,-3.60588e-01,-3.48441e-01,-1.90585e-01,-3.88415e-01,
-8.69606e-02,-2.85642e-01,1.68300e-01,1.35783e-01,2.56275e-01,1.46763e-01,
2.97181e-01,3.48125e-01,-1.59352e-01,-5.23344e-02,1.84795e-01,-1.58909e-01,
3.40623e-01,-2.00723e-01,1.22083e-02,-1.58086e-01,-3.06268e-01,4.11200e-01,
3.85861e-01,-2.95501e-01,3.24810e-01,-2.88831e-01,-9.40974e-02,-2.42043e-01,
3.41116e-01,8.53861e-02,-4.75333e-02,-6.84619e-02,-7.67134e-02,-1.64559e-01,
3.80270e-01,3.93366e-01,-3.26808e-01,-1.65648e-01,-1.56561e-01,-1.95661e-01,
-2.14445e-01,3.63743e-01,2.49964e-01,1.98746e-01,3.01406e-01,2.03169e-01,
-3.97212e-01,5.53784e-03,-3.09671e-01,7.88032e-02,2.31118e-01,6.70357e-02,
-4.10827e-02,2.70838e-01,1.53455e-01,-1.11389e-02,-9.24722e-02,-9.79089e-02,
7.17532e-02,1.85813e-01,3.45824e-01,3.40730e-02,3.74936e-01,-2.54652e-01,
1.94964e-01,-1.43682e-01,-3.76360e-01,-3.59044e-02,2.13839e-01,1.78650e-01,
-5.49638e-03,-3.75173e-01,-1.19225e-01,-1.26165e-01,2.68841e-01,3.31870e-01,
3.99993e-01,3.87339e-01,1.60555e-01,-4.00011e-02,3.23188e-01,3.22990e-01,
3.57452e-01,1.72590e-01,1.76590e-01,4.70393e-02,3.64527e-01,1.49963e-01,
4.05804e-01,-1.94093e-01,2.55720e-01,-4.37392e-02,3.70191e-01,-2.21237e-01,
-3.05098e-01,3.12880e-01,-2.85707e-01,-1.45869e-01,2.67247e-01,-9.53813e-02,
-1.66183e-01,4.22833e-02,2.70659e-01,3.17321e-01,2.56159e-02,7.56496e-02,
-7.10483e-03,2.85717e-01,2.01004e-01,-3.12411e-02,-3.07489e-01,1.25825e-01,
3.47043e-01,2.97361e-01,1.15513e-01,-3.01488e-02,-3.47267e-01,-3.38548e-01,
6.85573e-02,2.95346e-01,3.39380e-02,-3.89691e-01,3.23087e-01,-1.65183e-01,
5.51194e-02,1.92350e-01,-2.92447e-01,-3.18090e-01,3.79252e-01,-8.92383e-02,
6.52454e-02,-3.06299e-01,-1.97465e-01,-7.84111e-02,-1.58976e-01,-2.55695e-01,
-5.92115e-02,1.52963e-02,-1.88568e-01,1.93271e-01,-3.31086e-01,3.97564e-01,
7.50080e-04,3.78173e-03,-3.54836e-02,-1.12994e-01,5.81724e-02,1.55434e-01,
7.28582e-02,-2.24079e-02,4.36407e-02,1.18082e-01,2.22740e-01,-1.25109e-01,
-1.35047e-01,1.61206e-02,3.76418e-01,-4.02924e-02,7.86946e-02,3.76923e-01,
1.92461e-01,7.88206e-03,3.40530e-01,-4.00008e-01,-1.15972e-01,1.65608e-01,
2.43949e-01,-3.72586e-01,-1.55338e-01,-1.84847e-01,-8.70888e-03,9.13007e-02,
-2.30383e-01,-1.60767e-01,-7.41997e-03,-3.97721e-01,-1.61189e-01,-9.54115e-02,
2.49860e-01,-7.13649e-02,-1.06224e-01,2.28651e-02,-2.64668e-01,6.73330e-02,
3.95318e-01,-1.49202e-01,8.16888e-02,1.96614e-01,7.21254e-02,-1.96985e-01,
-4.00696e-01,-3.85280e-01,-2.25003e-01,2.25039e-01,-3.34581e-01,-2.62830e-01,
-1.46560e-01,-1.11491e-01,-2.04257e-01,-3.33395e-01,-3.41939e-01,-9.93057e-02,
1.80173e-01,2.99619e-01,1.32077e-01,4.20340e-01,-1.74686e-01,-4.26749e-02,
2.11870e-01,-1.86037e-01,-3.17344e-01,-3.33663e-01,-4.59764e-02,2.67645e-01,
2.02969e-01,1.94843e-01,2.56212e-01,-1.43513e-02,3.89386e-01,3.46498e-01,
-3.29765e-01,-3.90124e-01,3.09543e-01,2.68674e-01,-4.57427e-02,5.48103e-02,
2.10841e-01,-1.73474e-01,-3.08501e-01,2.98838e-01,2.28455e-01,-2.07312e-01,
-1.33113e-01,-7.74647e-02,-3.18601e-01,3.07590e-01,2.07798e-01,-1.01542e-01,
3.48195e-01,6.39492e-02,1.26807e-01,-1.77772e-01,2.10577e-01,-1.17104e-01,
7.48722e-02,3.27471e-02,-3.59639e-02,1.51939e-01,-3.95937e-01,-9.34498e-03,
-1.96050e-01,1.49833e-01,9.94891e-03,-3.59304e-01,3.95924e-01,-2.27852e-01,
-1.21636e-01,1.91270e-02,-5.74015e-02,-1.18950e-01,-3.54655e-01,1.86053e-01,
3.52028e-01,-1.27600e-01,-1.32585e-01,-3.40816e-01,5.90767e-03,-4.30325e-01,
-2.21851e-01,1.89877e-01,-9.28384e-02,4.75262e-02,2.99785e-01,3.79159e-01,
4.04280e-02,3.66588e-01,-1.91976e-01,3.19056e-01,1.41261e-01,3.08271e-01,
-1.59482e-01,2.58775e-02,-1.55111e-01,2.98652e-02,-2.59021e-02,-3.50017e-01,
-1.79026e-01,-7.25351e-02,-1.76052e-01,2.62779e-01,-3.42619e-01,-4.00283e-01,
4.01202e-01,2.29956e-01,2.24546e-01,-2.88832e-01,-9.59152e-02,-8.18696e-02,
2.09056e-01,-2.00429e-01,3.18569e-01,-2.39183e-01,3.03223e-01,6.56198e-02,
3.88315e-01,-3.95454e-01,-4.26304e-03,3.00036e-01,3.14176e-01,3.95083e-02,
-1.39030e-01,-8.25394e-02,3.16794e-01,1.40537e-02,-1.89999e-01,-1.42573e-01,
-6.71261e-02,-7.46508e-02,-2.73418e-01,1.45204e-01,-2.25356e-01,-2.25502e-01,
3.30956e-01,1.07173e-01,-3.54587e-01,-3.22842e-01,3.46028e-01,-1.50256e-01,
2.59841e-01,-1.76322e-01,2.74157e-01,3.45664e-01,-1.79253e-01,2.20850e-02,
-2.29156e-01,2.12549e-01,2.95687e-01,-1.74829e-02,-3.88661e-02,2.70993e-01,
-1.40311e-01,-3.87330e-01,1.11553e-01,-1.57190e-01,1.06318e-01,1.97824e-02,
-1.63722e-01,2.88131e-01,7.24909e-03,-2.90675e-01,-1.16956e-01,1.57816e-01,
3.49266e-01,2.40458e-01,-1.75705e-01,-2.90568e-01,-1.99700e-01,-3.61645e-01,
-1.18077e-01,7.99929e-03,-1.06858e-01,3.95057e-01,3.46939e-01,3.70708e-01,
1.25475e-02,2.18415e-02,-2.45039e-02,-3.73922e-01,-3.91525e-01,-3.12005e-01,
8.82669e-02,-8.10473e-02,-1.68549e-01,3.01181e-01,-3.32722e-01,1.02592e-01,
3.48254e-01,-3.79771e-01,3.77675e-02,-1.58906e-01,2.80542e-01,-1.19864e-01,
3.51076e-01,-2.63045e-01,-2.59011e-02,-1.55578e-01,2.90883e-01,2.71720e-01,
2.45891e-01,-1.72940e-01,1.92889e-02,-1.33002e-01,-1.43514e-01,-9.65226e-02,
-4.23858e-04,-2.55196e-01,2.02118e-02,-1.74870e-01,5.60389e-03,2.22115e-01,
-1.51738e-01,-1.43362e-02,3.89977e-01,2.74869e-01,3.10515e-01,-3.25286e-01,
-3.97067e-01,2.65909e-01,-9.48002e-03,5.94951e-02,-2.06799e-01,3.11345e-01,
-3.22679e-01,-1.60303e-01,-7.94116e-02,3.86314e-02,-1.43783e-02,3.00582e-01,
-2.51101e-01,-1.23853e-01,8.19691e-02,3.52829e-01,1.68490e-01,-3.32034e-01,
3.16636e-01,3.03477e-01,-3.67581e-01,-1.87843e-01,-1.66789e-01,-6.46806e-04,
3.87834e-01,-2.91701e-02,9.58164e-02,-8.13685e-02,1.46093e-01,3.16168e-01,
-1.31008e-01,-2.69809e-01,3.38789e-01,1.28320e-01,2.28973e-01,1.05729e-02,
-2.94830e-01,3.71194e-01,-1.84177e-01,-1.52137e-02,-4.30710e-01,-1.37240e-01,
-2.20851e-01,3.35649e-01,1.15291e-01,3.65662e-01,-5.16060e-02,1.70182e-01,
3.63295e-01,3.62718e-01,-2.62049e-01,2.93528e-01,3.78451e-01,-3.15998e-01,
-2.91726e-01,3.76861e-01,3.69078e-01,3.72423e-01,-6.19641e-02,-3.34136e-01,
8.17366e-02,3.67825e-01,-2.22255e-01,1.22524e-01,-8.67725e-03,6.88210e-03,
-3.82682e-01,-2.42325e-01,2.56470e-01,-2.98464e-01,-2.23072e-01,1.43656e-01,
-2.99286e-01,-2.80421e-01,3.05722e-01,-1.26465e-01,2.83244e-01,2.28757e-01,
-2.44980e-03,3.15339e-02,-2.58830e-02,-1.97769e-01,-1.19263e-01,3.67000e-01,
-1.38033e-01,1.39338e-01,4.05520e-01,3.00804e-01,-3.48451e-01,2.16334e-01,
2.39336e-01,1.26619e-01,3.06511e-01,-3.64351e-01,-2.70019e-01,1.46253e-01,
2.54900e-01,-2.94261e-01,-1.37152e-01,-2.39989e-01,9.12161e-02,3.80154e-01,
-1.85964e-01,2.90218e-01,1.07501e-01,3.77910e-01,1.81293e-01,-2.78616e-01,
2.78206e-02,-3.96805e-01,2.18947e-01,1.86437e-01,-1.90468e-01,3.62381e-01,
-3.36682e-01,3.95143e-01,-1.60429e-02,1.98626e-01,3.67999e-01,1.57176e-01,
-5.66706e-03,-4.32522e-02,1.01271e-01,3.74636e-01,3.73535e-01,-3.89755e-01,
-2.02821e-01,4.08047e-01,-8.05004e-02,2.55019e-01,3.30954e-01,2.02608e-02,
3.48187e-01,3.73838e-01,3.01568e-01,-2.64691e-01,1.83935e-01,1.75835e-01,
-4.95621e-03,-1.74407e-01,3.97272e-01,-3.31406e-01,-2.45648e-03,-1.53321e-01,
3.09815e-02,2.41078e-02,2.60580e-01,1.12761e-01,-1.33862e-01,1.28653e-01,
2.93858e-01,-6.84086e-03,-3.31790e-01,1.39751e-01,2.02697e-01,4.02478e-01,
-9.44442e-02,3.50581e-02,-1.70998e-01,1.12901e-01,-1.28662e-01,-1.70671e-01,
-3.05866e-01,2.48453e-01,4.51985e-01,-2.50236e-01,2.28814e-01,-4.11398e-02,
-1.86686e-01,3.45068e-01,-2.99366e-01,-1.18679e-02,2.23063e-01,-3.76528e-01,
1.38488e-01,-8.07200e-02,-1.72677e-01,-2.42648e-01,2.48458e-03,1.89452e-01,
1.32781e-01,-7.68893e-02,1.22763e-01,-2.03881e-01,-4.69828e-02,-4.65603e-02,
-8.18781e-02,3.32599e-01,1.56532e-01,-7.19718e-02,9.04147e-02,-3.17734e-01,
-2.54094e-01,-3.28331e-01,-6.04012e-02,-8.18347e-02,4.02021e-01,1.88714e-03,
-3.22830e-01,7.36487e-02,1.56157e-01,1.30497e-01,-2.00231e-01,-1.29427e-01,
1.87814e-01,-2.58561e-01,-6.47319e-02,-1.72576e-02,3.38618e-02,-3.00828e-01,
3.14594e-01,2.60235e-01,-5.36332e-02,1.59711e-01,1.34785e-01,-2.22731e-01,
6.45871e-02,1.42704e-01,1.12401e-01,-4.99788e-02,4.21478e-01,-3.39776e-01,
2.01544e-01,-9.21262e-02,2.21435e-01,-2.40143e-02,2.46405e-01,1.49786e-01,
-4.65405e-02,-1.20311e-01,2.82426e-01,2.14759e-02,3.87352e-01,-2.60284e-02,
-1.11136e-01,1.64769e-01,4.50761e-01,2.59236e-01,-1.98672e-01,1.57114e-01,
-4.04608e-01,1.09446e-01,-5.28913e-02,-1.01821e-01,1.11752e-01,-1.88392e-01,
3.53374e-01,3.39990e-01,1.05615e-01,3.45815e-01,1.25878e-01,2.49714e-01,
-1.03882e-01,-3.72930e-01,1.95035e-01,5.67833e-02,-1.36307e-01,-2.13108e-01,
2.75492e-01,-3.16350e-01,-1.55473e-01,-1.86306e-01,-3.26678e-02,2.25661e-02,
3.86191e-01,-3.40087e-01,-6.63875e-02,1.86670e-01,-2.14075e-01,-1.56055e-01,
-2.76869e-03,-1.79937e-01,3.32295e-01,-1.59815e-01,-3.68816e-02,1.21477e-01,
-1.75254e-01,-1.80560e-01,1.48266e-01,-2.33256e-01,2.24527e-01,1.40119e-01,
-3.69100e-01,2.62586e-01,2.07818e-01,4.43014e-01,-1.39057e-02,1.08194e-01,
-1.63155e-01,3.49185e-01,8.16844e-02,-1.42042e-01,-1.93105e-02,-1.92975e-02,
1.93020e-01,-1.71371e-01,-2.02555e-01,9.92362e-02,1.76368e-01,-3.18767e-01,
3.06182e-02,3.72533e-01,-1.54925e-01,-9.94217e-02,-1.75365e-01,2.58132e-01,
-2.29531e-01,-2.86350e-01,-1.91560e-01,-3.54645e-01,2.86220e-01,2.30284e-02,
9.34592e-02,-2.82611e-01,4.02706e-01,2.37182e-01,2.37775e-01,-3.63462e-01,
-1.50616e-01,-6.95505e-02,-2.65611e-02,3.71515e-01,3.59842e-01,-2.78645e-01,
-3.45295e-01,2.80473e-01,-4.02156e-01,-2.06209e-01,-2.35891e-01,-5.39015e-02,
-3.74794e-01,-3.91290e-01,3.02075e-01,-3.79207e-01,-2.47478e-01,2.44766e-01,
-2.69448e-01,-3.79483e-01,-2.80075e-01,4.58388e-02,2.74953e-01,-2.47717e-01,
-2.36793e-01,-2.03200e-01,-3.15782e-01,-2.78656e-01,1.22742e-01,2.44915e-01,
2.55216e-01,1.89138e-01,-3.59931e-01,-3.84188e-01,-4.21095e-02,3.16601e-01,
2.56701e-02,1.03332e-01,-3.94446e-01,-1.55544e-01,-3.77628e-01,2.95590e-01,
-8.67243e-02,6.02355e-02,2.11255e-01,-2.70534e-02,-1.32707e-01,4.06379e-01,
2.68505e-01,-3.80990e-01,-3.56236e-01,2.33367e-01,1.36906e-01,-4.34732e-02,
2.78053e-01,1.32987e-01,-1.81103e-01,1.68309e-01,2.74429e-01,2.98969e-01,
-9.02502e-03,-1.21396e-01,2.36802e-01,1.13167e-01,-3.23184e-01,-2.85074e-01,
-1.46876e-01,2.63430e-02,-3.11128e-01,-3.12081e-01,-3.08821e-01,2.11948e-01,
-1.92129e-01,3.21352e-01,2.46273e-01,-3.39842e-02,3.53150e-01,-1.91548e-01,
5.93586e-03,4.09520e-02,6.06247e-02,1.45427e-01,2.58205e-01,3.20832e-01,
-3.40562e-01,-3.31844e-01,-7.21533e-02,-6.95937e-02,2.26514e-01,3.59496e-01,
-3.37098e-01,1.49694e-01,-3.27721e-01,1.98947e-01,-3.19946e-01,3.71449e-01,
-2.10553e-03,-3.90452e-01,-3.66413e-02,2.63107e-01,-2.87350e-01,-2.52327e-01,
-1.08692e-01,1.61078e-02,1.49289e-01,-3.67274e-01,-1.15523e-01,1.64713e-01,
-2.02063e-01,-1.81725e-01,-3.70632e-01,3.88235e-01,2.66184e-01,-1.62400e-02,
-3.97414e-01,-2.09779e-02,-3.00240e-01,-3.38364e-02,-2.12393e-01,3.90849e-01,
3.90409e-01,-3.21666e-01,-2.01431e-01,1.79898e-01,1.82412e-01,-3.94585e-01,
3.83800e-01,-2.67549e-01,2.88268e-01,2.63584e-01,-3.30307e-01,8.81571e-02,
-3.22057e-01,-3.24043e-01,-1.03311e-01,-1.78639e-02,2.18380e-01,8.42319e-02,
-1.22514e-02,-8.55937e-03,-9.57794e-02,-1.64463e-01,-2.70433e-01,-2.34906e-01,
1.67453e-01,2.07086e-01,-3.59674e-01,-2.52798e-01,-3.56060e-01,1.33621e-01,
1.41430e-01,1.62271e-01,3.19329e-01,7.50103e-02,-2.47922e-01,4.04683e-01,
3.99199e-01,-2.32373e-01,-2.47998e-02,-1.19260e-01,-8.28763e-02,-3.70061e-01,
3.82584e-01,-5.60052e-02,-3.43295e-01,3.24984e-01,-3.29992e-01,-1.83245e-01,
-4.01018e-01,-1.40031e-01,3.32949e-01,-1.68661e-01,3.73443e-01,1.23567e-01,
1.51640e-01,3.58608e-01,3.00104e-01,-7.39621e-02,2.95107e-01,2.67555e-01,
-1.21648e-01,2.31926e-01,6.44687e-03,1.67668e-01,-3.92449e-01,-9.52700e-03,
6.70213e-02,2.51967e-02,-5.42382e-02,1.10229e-01,3.93247e-01,-3.13338e-01,
-2.10989e-02,1.14842e-01,2.66039e-01,9.80035e-02,-1.18997e-01,2.77481e-01,
-3.18075e-01,-3.68822e-01,-1.84989e-01,-9.09791e-02,2.45557e-01,-1.04841e-01,
-6.03089e-02,3.24688e-01,-2.90580e-01,-1.12446e-01,-2.05190e-01,3.41286e-02,
2.67822e-01,1.39412e-01,-1.15124e-02,-1.54557e-01,-9.82627e-02,-2.28312e-01,
-1.22752e-01,-3.46086e-01,3.26083e-02,2.10788e-01,1.79248e-01,-2.48621e-01,
1.86955e-01,-4.94348e-02,-2.70719e-01,-2.31503e-01,-1.07146e-01,-1.48461e-01,
-1.02458e-01,8.28321e-02,4.77937e-02,3.40460e-01,1.91746e-01,2.66350e-01,
-1.07074e-02,2.88995e-01,1.71426e-01,-2.85100e-02,3.33032e-01,-3.99623e-01,
3.09243e-01,-7.25624e-02,-2.36957e-01,-2.43334e-01,1.08323e-01,3.63027e-01,
-1.40657e-01,1.48457e-01,-9.29673e-02,1.16855e-01,-8.79647e-02,8.43087e-02,
2.49284e-01,-3.97917e-02,-3.72109e-01,3.31341e-01,1.97184e-01,1.83298e-01,
2.77479e-01,1.47116e-01,4.33491e-02,-2.89076e-02,9.43659e-02,-1.57631e-02,
-1.33940e-01,-3.94551e-01,-6.87934e-02,-1.99364e-01,2.42645e-01,-8.66048e-02,
1.26101e-01,-3.64460e-01,1.71769e-02,-1.90245e-01,1.22983e-01,3.25297e-02,
-1.59447e-01,1.01668e-01,1.67797e-01,-9.82747e-02,7.44173e-02,3.66861e-01,
2.84899e-01,1.02372e-01,-2.18812e-01,1.28067e-01,1.50541e-01,3.85934e-01,
-2.17851e-01,2.66442e-01,3.45095e-01,3.17871e-01,3.83579e-03,2.22591e-01,
-1.92389e-01,-1.60123e-01,1.93791e-01,3.13116e-01,-3.23278e-01,1.76603e-01,
1.22778e-01,-3.15389e-01,3.69193e-01,4.70112e-02,-1.83905e-01,4.07197e-01,
-5.76688e-02,2.28229e-02,3.01573e-01,-2.02108e-01,-9.18660e-02,1.26781e-01,
-1.93802e-01,2.01752e-01,-4.11268e-02,3.44685e-01,-4.00196e-01,-8.57093e-02,
-2.67513e-01,3.89165e-01,-1.89772e-01,9.99555e-02,-3.01989e-01,-3.44314e-01,
-2.49930e-01,-1.60256e-01,2.70178e-01,2.66369e-01,-2.43263e-01,-1.06504e-01,
2.22600e-01,1.50292e-01,1.42460e-01,-3.96476e-01,-1.11691e-01,2.98151e-01,
4.96264e-02,-3.98251e-01,3.28693e-01,9.99919e-02,-4.10555e-01,-1.20849e-01,
-3.85861e-01,-2.47987e-02,-2.27260e-01,1.22904e-01,1.91940e-01,-3.24613e-01,
2.12016e-01,-1.40713e-02,-1.69406e-01,9.87797e-02,1.20216e-01,-1.38069e-01,
1.41548e-01,-2.32856e-01,2.26399e-01,1.09959e-03,-1.16278e-01,-3.58476e-01,
-2.74117e-01,-1.76483e-02,5.36280e-02,-5.15413e-02,-3.91529e-01,3.10846e-02,
-1.89744e-01,-2.45561e-01,1.67668e-01,2.00103e-01,2.96513e-01,3.34230e-01,
1.49174e-02,-6.13758e-02,-1.44886e-02,-1.71404e-01,1.86718e-01,2.59141e-01,
2.42159e-01,-1.86619e-02,-2.50611e-01,2.08483e-01,-3.95271e-01,-2.55620e-01,
-1.21958e-01,2.64608e-01,-2.25067e-01,3.65687e-01,3.03675e-01,-3.61483e-01,
-2.98916e-01,1.86678e-01,-3.27382e-01,-1.44200e-01,-3.37766e-01,1.74687e-01,
3.39952e-01,-2.64502e-01,-1.38358e-01,5.44175e-02,-2.98467e-01,3.70471e-01,
-2.54504e-01,4.00203e-01,-3.73791e-01,1.58295e-01,-5.81765e-02,3.23812e-01,
-2.28920e-01,-1.24237e-01,1.07762e-01,3.28378e-01,9.89987e-02,3.19266e-01,
-2.59519e-02,2.87448e-01,-5.35628e-02,-4.65418e-02,2.20506e-02,1.43838e-01,
-1.28676e-02,3.30652e-01,1.93736e-01,1.59230e-01,-2.88866e-01,9.37016e-02,
3.03386e-01,-3.67125e-01,-3.43132e-02,3.14263e-01,9.75538e-02,3.92432e-02,
2.40637e-01,-3.32673e-01,9.96155e-03,-1.86920e-01,-3.02672e-01,3.25635e-01,
7.17419e-02,-6.02854e-02,-1.37360e-01,2.69150e-02,6.60344e-02,-6.32660e-02,
6.89943e-03,-2.60853e-01,-3.54713e-01,1.04260e-02,3.14516e-02,-1.22546e-01,
1.18389e-01,1.95233e-02,-1.37809e-01,2.20740e-02,2.04740e-01,3.53862e-01,
-2.33186e-01,-1.07527e-01,3.66789e-01,1.39204e-01,-2.18889e-01,1.60441e-01,
6.37130e-02,-9.44761e-02,-3.95928e-01,-1.40617e-01,-3.63103e-01,1.80813e-01,
1.87190e-01,-2.76276e-01,-3.40400e-01,2.85714e-01,-2.69647e-01,3.65502e-02,
3.64051e-01,-1.91498e-02,-9.59462e-02,-2.68795e-01,-2.28842e-01,-3.58087e-03,
3.30278e-01,-9.64867e-02,1.30041e-01,3.29936e-01,-3.67242e-01,-3.18649e-01,
-1.39641e-02,-3.84683e-01,2.49802e-01,-3.37078e-01,-4.03217e-01,1.53334e-01,
-3.88581e-01,-2.89897e-01,2.94628e-01,3.13361e-01,-1.61649e-01,-2.93318e-01,
2.84138e-01,-1.71591e-01,-3.16355e-01,7.51415e-02,-1.45378e-01,3.19985e-01,
-2.82422e-01,3.87821e-01,-1.30383e-01,1.21520e-01,2.33693e-01,3.27434e-01,
1.21451e-01,3.26986e-01,-2.07501e-01,-2.06267e-01,-1.33741e-01,-4.80117e-02,
-3.52095e-02,-3.53507e-01,3.84743e-01,-1.24737e-01,-5.34322e-02,3.07589e-01,
-5.84631e-02,-3.64603e-01,1.08657e-01,-1.07168e-02,-5.91979e-02,3.03932e-01,
-3.56641e-01,-4.09817e-01,-4.94669e-02,6.12554e-02,-2.20007e-01,1.60330e-01,
-7.89819e-02,2.23982e-01,-7.94656e-02,3.10319e-01,-1.86609e-01,3.00557e-01,
-7.07701e-03,-1.78496e-01,-3.67218e-01,1.80088e-01,-2.60601e-01,-1.87502e-01,
8.84779e-02,-2.83884e-01,-3.38659e-01,2.05144e-01,2.46757e-01,-8.19768e-02,
3.70083e-01,2.65267e-01,-1.36903e-01,-3.46146e-01,5.56974e-02,2.24279e-01,
1.59160e-01,2.71219e-02,-2.32381e-01,-1.56355e-01,-2.14811e-01,2.98955e-01,
-3.42794e-01,3.74174e-01,1.70253e-01,2.97366e-02,-2.75775e-01,-2.84488e-01,
-2.11604e-01,3.17645e-01,8.17338e-02,-2.72810e-01,1.51556e-01,3.36288e-01,
3.27314e-01,-2.80566e-01,3.67551e-01,-1.09395e-01,-4.03809e-02,-2.23984e-01,
4.54313e-02,-3.27641e-01,-1.92665e-01,8.05424e-02,-2.35862e-01,2.80945e-01,
-3.76085e-01,-3.43891e-01,-1.18075e-01,3.49950e-01,-2.82552e-01,2.49516e-01,
1.75320e-01,-3.02116e-01,-2.04513e-01,-7.31396e-02,-8.58949e-02,2.98628e-02,
3.69438e-01,2.70542e-01,2.50627e-01,-3.53683e-01,3.30078e-01,-5.94584e-02,
3.44852e-01,2.66086e-01,-2.20702e-01,-1.71932e-01,-1.27958e-01,1.63622e-01,
-2.84899e-01,-3.94919e-01,3.21335e-01,-1.45373e-03,2.87119e-01,-1.84896e-01,
2.16564e-01,-1.74729e-01,-1.01550e-01,-3.21669e-01,2.00890e-01,9.57962e-03,
1.69123e-01,1.09630e-01,-8.11706e-02,1.18270e-01,-2.77022e-01,-1.10626e-01,
7.39953e-02,-3.29018e-01,-1.21137e-01,-1.59626e-03,9.68657e-02,-1.95919e-01,
-8.15398e-02,-5.62434e-03,-3.47384e-01,-3.01289e-01,-1.10701e-01,-3.24343e-01,
-2.92990e-01,-2.18981e-01,-3.69579e-01,-1.62422e-01,-9.25118e-02,-2.92798e-01,
2.82223e-01,2.61156e-01,-9.47125e-02,-1.65111e-02,-3.79380e-01,-3.20990e-01,
-9.23771e-02,3.57972e-02,8.42544e-02,8.10176e-02,1.86046e-01,-3.92917e-02,
2.47902e-01,8.75773e-02,8.21674e-02,1.16487e-01,-3.25037e-02,2.67980e-01,
-7.38646e-02,-3.65435e-01,1.03611e-01,-3.12343e-01,2.30456e-01,-3.80669e-01,
3.28747e-02,-3.34968e-01,-7.64999e-02,1.76956e-01,-5.03894e-02,3.23823e-01,
-1.96842e-01,-2.68333e-02,-4.11514e-01,-1.25680e-01,5.44721e-02,-2.06224e-01,
1.95335e-01,-9.02642e-02,-2.89179e-01,-1.15784e-01,2.80966e-01,-2.46421e-01,
2.14513e-01,-1.34865e-01,-1.01580e-01,-9.13461e-02,2.54850e-01,-4.05101e-01,
-2.32196e-01,-1.56094e-01,1.07790e-01,-1.83165e-02,-3.25732e-01,4.70436e-02,
-5.92024e-02,2.90568e-01,-1.66012e-01,1.66061e-01,2.68186e-02,7.32839e-02,
-2.91976e-01,-2.76128e-01,-3.40563e-01,-9.89555e-02,2.37495e-01,3.34811e-01,
-1.72787e-02,3.49812e-01,2.82436e-01,-3.60001e-01,-2.76075e-02,2.51188e-01,
-3.12097e-01,-4.03767e-01,2.98917e-01,-1.07324e-01,2.91173e-01,-2.67499e-01,
-1.20781e-01,-3.73312e-01,-2.87418e-01,2.57196e-01,-2.55548e-01,2.45497e-01,
4.61813e-03,-2.06634e-01,-3.67538e-01,2.55731e-01,2.81548e-01,-3.14801e-01,
2.52470e-01,3.20265e-01,-1.53603e-01,-3.52889e-01,2.73147e-01,-1.39926e-01,
1.71980e-01,1.89314e-01,-9.40229e-02,3.68682e-03,-3.48227e-01,2.23269e-01,
-3.71081e-02,-5.65128e-03,-3.24932e-02,5.98997e-03,-3.69294e-01,-3.52845e-01,
-3.70467e-01,-1.28384e-01,3.52688e-01,-2.15116e-02,1.17378e-01,-3.47373e-01,
-2.58269e-01,3.91815e-02,-1.66031e-01,-3.57742e-01,2.74104e-01,-2.25469e-01,
-2.21571e-01,-1.40296e-01,-9.18474e-02,-2.08721e-01,3.22471e-01,-7.02091e-02,
-7.05056e-02,-1.87903e-01,6.07676e-02,2.87574e-01,-1.09037e-01,9.79808e-02,
1.20732e-01,2.14531e-01,-2.82132e-01,-5.42498e-02,1.85319e-01,-4.01292e-01,
-1.83849e-01,-1.68376e-01,-1.36473e-01,-8.75675e-02,2.61236e-01,3.46856e-01,
3.20074e-01,3.10391e-01,1.83681e-01,-2.24755e-01,5.36610e-02,8.28668e-02,
3.90688e-01,8.75639e-02,8.42246e-02,-2.33919e-01,1.16612e-02,3.95747e-01,
-2.43420e-01,2.95978e-01,2.02840e-01,-1.71980e-01,2.17130e-01,-3.59781e-01,
-4.02171e-02,-3.48250e-01,-3.21575e-01,4.32808e-01,1.57880e-01,-1.11349e-01,
3.16782e-01,-2.94309e-01,-1.93564e-01,-1.45698e-01,-2.34118e-01,-3.24887e-01,
3.59165e-01,-1.06956e-01,9.75921e-02,2.83120e-01,3.28216e-01,-1.72495e-01,
1.10078e-01,1.31616e-01,6.80152e-02,2.11887e-01,1.87854e-01,1.85605e-01,
4.21534e-02,1.21071e-01,-2.63356e-01,-7.36398e-02,7.46302e-02,-3.82153e-01,
-2.20435e-01,2.11151e-01,-1.45017e-01,-3.23386e-01,-1.49661e-01,1.76662e-01,
-1.21996e-01,2.45166e-01,-2.57791e-01,-9.52637e-02,4.86775e-02,-1.68498e-01,
-7.31024e-02,5.66621e-03,7.04232e-02,1.55530e-01,-5.43987e-02,9.33727e-02,
-3.17839e-01,3.46466e-01,-1.57964e-01,1.94560e-01,-1.16281e-01,-3.33019e-01,
-1.42765e-01,3.42949e-01,-4.03676e-01,4.26277e-01,-1.18614e-01,-2.09561e-01,
3.51943e-01,-8.76780e-02,-5.98179e-03,-3.85331e-01,-2.60271e-02,-2.64152e-01,
-1.98314e-02,-1.19428e-02,-1.08573e-01,3.64859e-01,1.92811e-01,1.25399e-01,
3.69209e-01,1.19055e-01,4.37014e-01,3.50784e-01,-4.09820e-01,2.71296e-01,
5.91063e-02,3.40988e-01,2.87001e-01,-2.97180e-01,-2.17991e-01,7.94776e-02,
1.42372e-01,2.13314e-01,-4.19855e-02,8.71732e-02,-2.78516e-01,-9.83386e-03,
2.57001e-01,2.83154e-01,-4.08027e-02,-3.53787e-01,-4.07497e-01,5.97973e-02,
3.24458e-01,2.27956e-01,-3.98968e-01,6.90803e-02,3.80277e-02,-3.60985e-01,
9.27648e-02,2.64385e-01,-2.88732e-01,3.75417e-01,-2.40956e-01,5.39848e-02,
-1.77606e-01,-5.15033e-02,1.91105e-01,-1.01677e-01,2.16355e-01,-1.81520e-01,
3.15507e-01,-2.20287e-01,2.77712e-01,3.05505e-01,3.63852e-01,2.28864e-01,
-1.21239e-01,-2.16326e-01,-3.51154e-01,1.37803e-01,1.94028e-01,2.51584e-01,
2.24750e-01,3.47622e-01,-3.66269e-01,-1.06746e-01,1.18176e-01,-1.07156e-01,
2.67156e-01,3.11772e-01,-5.22537e-02,2.84173e-01,-9.92113e-02,4.04667e-01,
-2.76435e-01,-2.43482e-02,-3.40115e-02,-2.02636e-01,-3.52247e-01,-9.21124e-02,
1.34986e-01,2.83255e-01,2.84374e-02,-4.38932e-02,-9.17283e-02,-2.00591e-01,
-1.20746e-01,3.12224e-01,-3.00166e-01,3.18194e-01,1.08331e-01,-1.30542e-01,
1.80913e-01,-2.21952e-01,-2.00717e-01,1.46196e-01,-3.75052e-01,-2.49531e-01,
-3.86533e-01,3.49587e-02,2.62663e-01,4.29513e-01,-8.66672e-02,2.79757e-01,
3.53604e-01,2.03241e-01,-1.74355e-01,2.98942e-02,-3.91709e-01,5.37968e-02,
-7.16637e-02,3.37789e-01,-3.47551e-01,3.78821e-01,-3.77838e-01,1.91984e-01,
2.16809e-01,-3.38423e-01,2.95137e-01,-1.85921e-01,9.80349e-02,1.40492e-01,
2.76918e-01,-3.42954e-01,2.90746e-01,6.51675e-02,2.33932e-01,3.21729e-01,
-4.04001e-02,-6.81517e-02,-2.07036e-01,-4.70294e-03,3.22662e-01,1.52490e-01,
-3.92984e-01,3.26476e-01,1.08954e-01,-1.76211e-01,-2.52085e-01,-8.89303e-03,
-3.13264e-01,2.38580e-01,1.15551e-01,2.64551e-01,7.43480e-02,8.02157e-02,
-1.16286e-01,-3.37979e-01,1.78179e-02,3.50020e-01,-1.10017e-02,-3.03766e-01,
2.78244e-01,3.89112e-01,-2.07047e-02,3.76847e-01,1.39531e-01,2.44293e-01,
-1.94661e-01,1.33437e-01,1.04143e-02,3.32970e-01,5.62900e-02,-2.39069e-01,
-8.11400e-02,2.70180e-01,1.40649e-01,9.30401e-02,8.57478e-02,-2.50552e-01,
-1.00044e-01,2.61158e-01,-3.93813e-01,-2.22781e-01,-3.74748e-01,-4.26240e-02,
-3.87580e-01,2.90437e-01,-3.93362e-01,-1.56378e-01,1.74757e-01,-7.78770e-02,
-3.53579e-01,-3.18414e-01,-1.79767e-01,1.21565e-01,4.09486e-01,2.03316e-01,
-2.67073e-01,1.12120e-01,2.13543e-02,2.17229e-01,-3.54773e-01,1.25098e-01,
-1.37248e-01,-2.02867e-02,2.93681e-01,-2.18862e-01,-2.40750e-01,-3.70559e-01,
2.64813e-01,3.76381e-01,-2.52561e-01,3.69670e-01,-1.66257e-01,8.02847e-03,
4.77038e-02,-1.08799e-01,-1.01866e-02,2.16760e-01,6.53566e-02,3.35933e-01,
-1.16975e-02,2.79575e-01,1.24397e-01,-1.41800e-01,3.13456e-01,8.79277e-02,
2.33779e-01,-1.13806e-01,3.44507e-01,1.49395e-01,-1.50080e-01,3.15819e-02,
2.36511e-01,-2.89268e-01,-3.61306e-01,-1.59726e-01,1.22795e-01,-2.78646e-02,
1.08075e-01,7.40983e-02,3.80721e-01,1.86369e-01,-3.83177e-01,2.15480e-02,
-2.82654e-03,2.06348e-01,1.33023e-01,2.16582e-01,-2.23479e-01,3.06277e-01,
-3.96845e-01,-3.75523e-01,-9.49513e-02,-3.65311e-01,-3.77634e-01,3.53564e-01,
-3.73447e-01,-3.82338e-04,-2.62769e-01,-3.07798e-01,-5.70265e-02,-2.78080e-01,
-2.84630e-01,1.80215e-01,3.62949e-01,2.19962e-01,2.03075e-01,2.18724e-03,
1.56819e-01,1.53794e-01,-7.45982e-02,1.09935e-01,-3.73414e-01,-2.90731e-01,
-2.47088e-01,-1.10066e-02,1.21049e-01,3.65645e-01,2.77750e-01,-7.68742e-03,
7.78699e-02,1.42416e-01,-5.08453e-02,-3.50996e-01,1.78732e-01,-4.50119e-02,
-2.68099e-01,-4.01048e-01,-4.26342e-01,2.77296e-01,-4.52643e-01,-1.29116e-01,
-2.07404e-01,-7.06854e-02,-3.11916e-01,1.16515e-01,2.12656e-01,-3.06983e-01,
3.91778e-01,-2.92203e-01,3.17018e-01,7.91449e-02,-6.38757e-02,-3.97494e-01,
2.31135e-01,1.88290e-01,-9.44033e-02,-2.95867e-01,-3.65918e-01,-2.07558e-01,
5.98596e-02,2.25271e-01,-2.24132e-01,3.40787e-01,3.38601e-01,-3.51369e-01,
3.08547e-01,5.52263e-02,3.24414e-01,-7.10481e-03,1.27653e-01,-1.99454e-01,
-1.76668e-01,-3.82736e-01,1.75373e-01,4.34560e-01,-3.47106e-01,-8.90733e-02,
1.29204e-02,-4.00305e-01,-3.27611e-01,3.62872e-01,1.89491e-01,-1.68695e-01,
-3.28371e-01,-1.24646e-03,-1.69439e-01,1.87957e-01,4.50103e-02,3.14933e-01,
-2.49663e-01,-4.20428e-03,-3.38397e-01,-2.19489e-01,-3.36789e-03,2.77293e-02,
2.56366e-01,1.40140e-01,-2.96098e-01,-1.15284e-01,2.37816e-01,3.78425e-01,
2.52819e-01,2.52912e-01,1.75219e-01,7.98985e-02,2.63304e-02,2.11218e-01,
-2.39621e-01,-1.12651e-01,-3.15431e-01,3.87136e-01,1.89497e-02,-2.56673e-01,
-1.76508e-01,-1.93386e-01,-2.43765e-01,-9.69796e-02,-2.57655e-01,-3.14999e-01,
3.66834e-01,1.77768e-01,-1.52562e-01,-2.04093e-02,3.27921e-01,3.37423e-01,
-1.44831e-01,2.36715e-01,9.00342e-02,3.40510e-01,3.86942e-01,4.19407e-02,
3.77941e-01,-2.53168e-01,-3.50851e-01,2.85359e-01,-1.77932e-01,-3.02914e-01,
8.94366e-02,-1.77572e-02,-1.72286e-01,-7.31252e-02,-1.35026e-01,-3.59667e-01,
-5.38946e-02,2.06411e-01,-7.73512e-02,-2.70126e-01,7.18041e-02,1.42549e-01,
-7.18821e-02,-1.91017e-01,3.33374e-01,2.36889e-02,1.29727e-01,1.78933e-01,
1.86073e-01,2.66439e-01,-2.16336e-01,9.68703e-02,-1.13822e-01,-1.42744e-01,
-9.85090e-02,-2.61999e-01,-2.76914e-01,-5.71764e-04,1.24864e-01,1.95611e-01,
-1.66487e-01,
-4.01912e-01,
-3.29897e-01,
-1.85463e-01,
-3.90914e-01,
3.04964e-01,
-3.73334e-01,
-1.05986e-01,
3.84030e-01,
2.71583e-01,
3.34420e-01,
7.66126e-02,
3.18730e-01,
-1.53531e-01,
2.20601e-01,
-2.01173e-01,
-2.91559e-01,
2.75023e-01,
-1.56981e-02,
7.79481e-02,
3.84130e-01,
-1.30672e-01,
-4.39781e-03,
-1.26498e-01,
-3.78072e-01,
1.89171e-02,
-3.64577e-01,
4.97723e-02,
2.88859e-01,
2.69895e-01,
1.65819e-01,
3.61577e-01,
-1.76552e-01,
-2.01451e-02,
2.35155e-02,
8.90911e-02,
-2.82327e-01,
4.88050e-02,
1.27067e-01,
-2.46338e-01,
-2.45134e-01,
-7.21199e-02,
-4.03837e-01,
1.29436e-02,
2.61937e-01,
3.32725e-01,
2.60780e-02,
3.67498e-01,
-8.87659e-02,
-1.06459e-01,
-2.68483e-01,
-1.02501e-01,
-2.63386e-01,
-8.50816e-02,
1.10323e-01,
-4.28200e-02,
1.06462e-02,
9.20878e-02,
8.01811e-02,
-3.33132e-01,
-6.88369e-02,
3.44978e-01,
2.08949e-02,
3.84527e-01,
2.13169e-01,
2.77840e-01,
-1.33842e-01,
-2.83236e-01,
3.37972e-01,
-3.12144e-01,
-2.39754e-01,
-3.51819e-01,
3.21457e-01,
2.16763e-01,
2.13906e-01,
-3.74201e-01,
-4.03866e-01,
-2.57333e-01,
5.80649e-03,
-5.40572e-02,
3.53897e-01,
-1.60641e-03,
3.52656e-01,
-7.74263e-02,
-1.76585e-01,
2.31901e-01,
-1.73563e-01,
-3.92539e-01,
-1.92936e-01,
-2.82671e-01,
2.97644e-01,
-2.00564e-01,
-3.27890e-02,
1.13397e-01,
-3.16444e-01,
2.10140e-02,
6.48105e-02,
-6.76836e-02,
1.49574e-01,
-1.53143e-01,
8.69940e-02,
1.96056e-01,
1.61214e-01,
-8.43732e-02,
2.76362e-01,
-4.04243e-01,
-6.42262e-03,
1.62227e-01,
-2.93359e-01,
-3.33672e-01,
5.80979e-02,
-2.00517e-02,
1.73922e-02,
2.23441e-01,
-3.59577e-01,
3.66090e-01,
-3.17144e-01,
1.08141e-01,
2.01402e-01,
-6.82139e-02,
-9.37570e-02,
-2.80288e-01,
3.98975e-01,
3.17721e-01,
2.42932e-01,
5.56376e-02,
2.97763e-01,
-1.88188e-01,
-3.20427e-02,
-3.58191e-01,
5.44321e-02,
-2.40033e-01,
3.22993e-01,
2.57779e-01,
-3.87821e-01,
1.27508e-01,
-2.82718e-01,
-2.24396e-01,
-2.72603e-01,
-8.03279e-02,
2.37834e-01,
-2.44128e-01,
-1.03530e-01,
-2.58389e-01,
1.43540e-01,
9.87182e-03,
-2.91837e-01,
-4.89842e-02,
-3.69486e-01,
2.35089e-01,
7.73169e-02,
1.92942e-01,
-2.45465e-01,
-1.84001e-01,
7.78740e-02,
3.85900e-01,
-1.84534e-01,
-1.97197e-01,
1.18179e-01,
-3.56769e-01,
4.46870e-02,
-3.64572e-01,
2.62808e-01,
1.55753e-01,
-5.91265e-02,
2.31706e-01,
-2.79330e-02,
9.46277e-02,
-3.58579e-01,
2.25656e-01,
-9.93905e-03,
-1.80236e-01,
-1.15752e-01,
8.06109e-02,
7.16915e-02,
-8.10994e-02,
-1.25604e-01,
2.26053e-01,
-1.98811e-01,
2.80537e-02,
-3.52731e-01,
2.56657e-01,
1.27574e-01,
1.45457e-02,
-4.25664e-02,
2.31565e-01,
-3.89588e-02,
2.61221e-02,
3.90450e-01,
8.31909e-02,
-1.12283e-01,
-5.35287e-02,
-1.15112e-01,
-4.39764e-02,
-3.09479e-01,
9.58827e-03,
7.09524e-04,
9.45062e-02,
2.08910e-01,
-2.46204e-01,
1.99434e-01,
6.97809e-02,
-1.90653e-01,
-3.74601e-01,
1.98970e-02,
-4.14321e-01,
-1.60201e-01,
4.38408e-02,
-2.69760e-01,
2.65599e-01,
-2.36895e-01,
2.27267e-01,
-1.01889e-01,
-1.99137e-01,
2.27489e-01,
-2.08411e-01,
7.01850e-02,
1.21793e-01,
-1.86989e-01,
-3.27189e-01,
-1.57341e-01,
3.85532e-01,
3.91975e-02,
-7.32407e-02,
-6.01640e-03,
-1.11851e-01,
7.89486e-02,
-1.45004e-01,
-2.84889e-01,
2.96103e-01,
-1.08090e-01,
1.91517e-02,
-1.20635e-01,
-1.87172e-01,
-2.38527e-01,
-4.10004e-02,
-1.75314e-01,
2.53919e-01,
3.90534e-01,
4.07621e-01,
2.14410e-01,
-2.05695e-01,
-2.31414e-01,
-7.33570e-02,
1.64868e-01,
-3.43188e-01,
-5.27005e-02,
3.92944e-01,
-3.27065e-01,
-2.39109e-01,
3.31666e-01,
-3.37321e-01,
2.74730e-01,
-3.20203e-01,
6.42934e-02,
2.07457e-01,
-9.45718e-02,
3.95528e-01,
1.36145e-01,
-2.22029e-02,
-1.51340e-01,
-3.04600e-01,
-3.83027e-01,
-2.83887e-02,
2.45687e-01,
1.85108e-01,
-2.89717e-01,
1.11955e-01,
-9.29068e-02,
3.67015e-01,
2.79168e-01,
-2.19096e-01,
3.92640e-01,
3.97259e-01,
2.01584e-01,
-1.46214e-01,
-3.68137e-01,
3.94152e-01,
2.44552e-01,
3.58118e-01,
3.80649e-01,
-6.20136e-02,
9.77782e-02,
-2.58631e-01,
-3.93731e-01,
2.25235e-01,
-1.92609e-01,
-3.05047e-01,
-8.27464e-02,
7.10094e-02,
-2.44691e-01,
1.44924e-01,
2.08104e-01,
-1.65047e-01,
6.21612e-02,
3.27290e-01,
-1.18138e-01,
3.78358e-01,
3.35137e-01,
2.40882e-01,
3.96136e-01,
1.94553e-01,
3.67659e-01,
3.00794e-01,
1.41286e-01,
2.29431e-01,
2.80762e-01,
-1.96032e-01,
-1.94248e-01,
-3.77317e-01,
3.73773e-01,
2.08473e-01,
-2.93314e-01,
3.25930e-01,
3.95807e-01,
3.24322e-01,
1.93312e-02,
-3.57331e-01,
-3.94780e-02,
2.76485e-02,
2.53745e-01,
1.10568e-01,
-1.91940e-01,
2.50954e-01,
-1.03231e-01,
1.78839e-01,
-3.69464e-03,
-3.16910e-02,
-2.13983e-01,
-3.77841e-01,
-1.86467e-01,
4.29623e-02,
2.29701e-01,
1.14728e-01,
-2.02562e-01,
3.71080e-01,
2.34477e-01,
1.42718e-01,
-3.37422e-01,
-2.52344e-01,
3.63997e-02,
-2.47421e-01,
2.20691e-01,
-2.65966e-01,
5.39786e-02,
1.67774e-01,
8.37417e-02,
3.22759e-01,
3.67323e-01,
-2.75120e-02,
9.00792e-02,
-7.24583e-03,
2.28510e-01,
3.00344e-01,
1.30842e-01,
2.36472e-01,
4.02327e-01,
-5.40860e-02,
2.75176e-01,
3.36904e-01,
2.43876e-01,
1.15447e-01,
3.01430e-01,
-1.65009e-01,
2.77054e-01,
-1.24447e-01,
3.62975e-01,
-1.25346e-01,
1.70607e-03,
-3.70748e-01,
9.31691e-02,
-2.45213e-01,
-7.16269e-02,
-3.48564e-02,
-2.83554e-01,
2.67638e-01,
3.78550e-01,
-1.14445e-01,
-1.11134e-01,
2.94758e-01,
1.23398e-01,
-1.54743e-01,
3.73642e-01,
-1.57138e-02,
-2.72842e-01,
-6.54590e-03,
-1.01755e-01,
-8.13498e-02,
3.63570e-01,
2.88879e-02,
-1.98612e-01,
-7.92091e-02,
9.44874e-03,
-3.88417e-01,
-2.32690e-01,
1.07506e-02,
1.13733e-01,
-3.27623e-01,
1.98805e-01,
-4.37277e-02,
1.77823e-01,
-9.04806e-02,
-3.08373e-01,
3.24540e-01,
2.63717e-01,
2.24848e-01,
-3.53107e-02,
6.97208e-02,
1.99707e-01,
-2.22904e-01,
1.19445e-01,
-2.02020e-01,
-2.66783e-01,
2.70977e-01,
1.20168e-01,
9.84478e-02,
1.07982e-02,
-9.46572e-02,
-3.71063e-01,
3.33467e-01,
1.78327e-02,
3.44639e-01,
5.47840e-02,
2.24676e-01,
3.73819e-01,
5.14624e-02,
-1.29165e-01,
2.48789e-01,
-3.47794e-01,
-1.75567e-01,
3.84934e-01,
1.55490e-01,
-1.77120e-01,
-1.39812e-01,
-8.89974e-02,
-3.67060e-01,
3.94800e-01,
-8.89009e-02,
-7.53698e-03,
3.88162e-02,
2.96371e-01,
5.23749e-02,
-2.60866e-01,
4.62324e-02,
2.47572e-01,
-1.88546e-01,
1.53218e-01,
3.52833e-01,
2.08837e-01,
2.19177e-01,
-3.22524e-01,
2.28996e-01,
-9.59074e-02,
2.85876e-01,
3.25329e-01,
-2.66871e-01,
1.77611e-01,
3.02075e-01,
1.73808e-01,
2.89479e-01,
-3.44319e-01,
2.53970e-01,
-4.42996e-02,
-5.37707e-02,
6.87416e-02,
5.21471e-02,
2.17873e-01,
3.37381e-01,
5.50100e-02,
-7.41169e-02,
1.18677e-01,
1.33984e-01,
3.37331e-01,
3.92643e-01,
3.47836e-01,
3.19232e-01,
1.71129e-01,
-2.07688e-01,
2.01165e-01,
3.02685e-01,
1.76308e-01,
3.31674e-01,
-3.45675e-01,
-3.26696e-01,
-2.82510e-01,
5.14470e-02,
3.09375e-01,
-4.06760e-01,
-3.03790e-02,
-1.22917e-01,
-3.98685e-01,
3.45819e-01,
3.22486e-01,
4.07214e-01,
-2.39577e-01,
-7.50804e-02,
6.54012e-02,
3.54009e-01,
3.08646e-01,
2.80620e-01,
-3.62851e-02,-2.66003e-02,-1.88947e-02,3.53761e-02,1.92546e-02,-1.77569e-02,-1.04859e-02,-4.56532e-04,-3.63252e-02,2.16333e-03,3.98779e-02,-3.29281e-02,-2.20623e-02,-2.79411e-02,-3.60937e-02,-3.44331e-02,4.00185e-03,4.29515e-02,-1.88567e-02,-1.33257e-02,-5.15965e-03,-4.47547e-02,-2.66133e-02,-1.68960e-02,3.39038e-02,3.42732e-02,1.64855e-02,4.45112e-02,-3.52327e-02,4.09381e-02,-1.11069e-02,2.09714e-02,9.11242e-03,3.45065e-02,4.16295e-02,-3.90193e-02,4.39265e-02,-2.72926e-02,-3.44419e-02,-3.06143e-02,-2.51989e-02,-1.85230e-02,4.73305e-02,4.68906e-02,-8.58130e-03,4.27922e-02,3.62098e-02,3.42565e-02,-2.79865e-02,2.34268e-02,-3.22816e-02,1.02403e-02,1.00076e-02,9.22243e-03,1.06403e-02,2.28587e-02,-1.84589e-02,-7.58357e-03,2.07956e-02,-1.12375e-02,2.66108e-02,2.37878e-02,1.32075e-02,-2.80290e-02,3.92259e-02,2.62184e-02,-3.66075e-02,-6.13791e-03,-1.85217e-03,-1.85292e-02,-3.73571e-02,3.91824e-02,-3.13896e-02,-6.45028e-03,-3.84228e-02,-2.42875e-02,4.12417e-03,3.21660e-02,2.44510e-03,-1.14196e-02,2.32226e-02,-4.16021e-02,1.86538e-04,1.66052e-02,-1.51195e-02,2.38516e-02,3.83524e-02,1.58877e-03,3.23011e-02,1.52601e-02,7.62684e-03,3.66908e-02,4.55751e-02,3.38020e-02,2.10075e-02,1.42893e-02,-1.93064e-02,1.25324e-02,-3.08439e-02,-1.11614e-02,-2.83945e-02,1.33882e-02,-9.23867e-04,-2.12356e-02,-1.33008e-02,4.42294e-02,-1.56843e-02,-2.97496e-02,-3.74521e-02,2.34952e-02,-1.37882e-02,-1.19006e-02,-7.16159e-03,4.05896e-02,-2.46141e-02,2.68734e-02,2.23002e-02,2.07297e-02,-2.54595e-02,-2.46446e-02,-2.78468e-02,-1.11782e-02,1.48842e-02,4.05438e-02,1.70332e-02,-2.99248e-02,2.86886e-02,3.53769e-02,3.88905e-02,8.94494e-03,-3.16410e-02,-2.53488e-02,-1.49737e-02,3.28945e-02,2.77500e-02,-1.93857e-02,1.43231e-02,1.36209e-02,9.78312e-03,5.91499e-03,3.24646e-02,3.62757e-03,-3.19358e-02,-3.53567e-02,1.37942e-04,-3.26241e-02,3.52788e-02,3.02693e-02,3.31993e-03,-2.55085e-02,1.87306e-02,1.21961e-02,-2.11938e-02,-1.89089e-02,-3.16866e-02,-3.51416e-02,4.90344e-03,2.60097e-02,-3.19292e-02,4.13971e-03,-8.56766e-03,-2.40908e-02,-3.91027e-02,-2.45083e-02,-1.07849e-02,1.51106e-02,-3.01268e-02,3.47873e-02,2.91808e-02,1.23641e-02,2.76229e-02,4.27462e-02,-1.08969e-02,4.21320e-02,-1.16300e-02,2.35172e-03,5.10465e-02,8.08048e-03,-2.70089e-02,-3.65662e-02,-1.25008e-03,-4.07765e-02,-3.61200e-02,-1.74118e-02,3.69304e-03,1.62172e-02,-9.86842e-04,-2.24177e-02,-1.87122e-02,-1.49165e-02,-3.03300e-02,-2.53222e-02,-1.22082e-02,-7.28685e-03,-2.50407e-03,-2.29635e-02,-2.54332e-02,-2.56399e-02,3.78288e-02,2.01888e-02,-2.61435e-02,9.84470e-03,-3.95058e-02,-3.47874e-02,-7.91040e-03,4.57141e-02,-1.55582e-02,-3.26495e-02,-2.86429e-02,-3.67570e-02,4.27187e-03,-3.56296e-03,-1.01886e-02,-3.60216e-02,2.13885e-02,9.81317e-03,-1.55662e-02,1.04597e-02,3.25093e-02,1.82165e-02,4.17845e-02,-2.33878e-02,7.08129e-03,2.48436e-02,-2.29462e-02,-4.04342e-02,-3.93072e-02,-2.85837e-02,-3.19199e-03,4.23241e-02,5.11913e-02,6.69123e-03,4.06345e-02,-2.74013e-02,1.63092e-02,-3.07954e-02,-2.41276e-02,4.35711e-02,3.45539e-02,-8.08412e-03,2.61343e-02,-1.11124e-02,-2.22537e-02,1.29530e-02,3.89503e-02,-1.16529e-02,-3.13932e-03,-2.51792e-02,-1.75020e-02,-3.65879e-02,3.56780e-02,-8.85374e-03,5.87294e-03,1.49291e-02,9.43318e-03,-1.20586e-03,-3.33938e-02,2.05523e-03,2.31095e-02,-2.31686e-02,-6.12558e-03,-3.39618e-02,-2.34002e-02,3.56167e-02,2.38145e-02,-2.89762e-02,-2.62081e-02,-1.33976e-02,-4.13544e-02,-1.95360e-02,-2.71414e-02,2.90324e-02,-3.93016e-02,1.53511e-02,-2.24198e-02,4.53125e-02,-2.47158e-02,-3.61350e-02,1.99777e-02,1.31220e-02,-2.04838e-02,3.58707e-02,4.07778e-02,-5.41381e-03,-2.38434e-02,-3.18172e-02,-3.74682e-03,2.08571e-02,-1.73923e-02,-3.75703e-02,-2.56153e-02,-1.67252e-03,4.46771e-02,-4.07609e-02,-3.33820e-02,-7.58393e-03,2.39326e-02,-1.56231e-02,-2.03071e-02,2.12869e-02,2.31946e-03,8.16955e-03,-2.30489e-02,-6.75110e-03,3.52084e-02,2.36582e-02,2.21386e-02,-1.11453e-02,-9.94848e-03,2.01939e-03,2.15141e-02,3.54208e-02,-1.97086e-02,6.57703e-04,4.26063e-02,-2.42694e-02,-2.34962e-02,1.33802e-02,6.85968e-03,-7.97223e-03,1.03086e-02,1.08593e-02,3.69793e-02,2.15822e-02,1.06462e-02,-3.86781e-02,-1.89586e-02,4.53860e-02,4.51326e-02,4.74927e-03,2.29078e-02,-3.29709e-02,-9.58568e-04,-2.45621e-03,1.70210e-02,-9.40075e-03,4.50037e-02,2.77993e-02,-2.33537e-02,1.59972e-02,2.36115e-02,1.52471e-02,4.43157e-02,4.45017e-02,-7.06898e-03,3.55017e-02,-4.02726e-02,4.52286e-02,4.00665e-02,-2.73132e-02,-3.08900e-02,2.10910e-03,-1.32422e-02,-3.50502e-02,-3.59378e-02,-2.63930e-02,-2.51212e-02,-2.31043e-02,-2.32020e-02,-2.53299e-02,-1.63177e-02,-3.47064e-02,1.65097e-02,3.99944e-02,1.03368e-02,-4.02588e-02,-1.51932e-03,4.40936e-02,-3.05929e-02,2.73340e-03,-3.46470e-02,-2.17554e-02,3.86079e-02,3.21899e-02,1.58707e-02,2.13073e-02,6.29065e-03,1.37887e-02,-1.76690e-02,-3.00531e-02,8.85999e-03,4.53027e-03,-2.48226e-02,1.52278e-02,-3.86807e-03,-3.44492e-02,3.21135e-03,-2.78944e-03,3.73674e-02,2.07134e-02,-2.43682e-02,1.15400e-02,3.57420e-02,4.27374e-02,3.93756e-02,2.61946e-03,2.68424e-03,-1.07792e-02,-3.84867e-02,3.88386e-02,2.89952e-02,-1.94476e-02,4.29861e-02,1.01722e-03,-2.28347e-02,2.95786e-02,5.98162e-03,-3.10984e-02,3.22897e-02,-1.65085e-02,-3.66867e-02,3.21786e-02,-4.07396e-02,4.23415e-02,-1.65884e-02,4.54341e-02,1.44768e-02,2.18654e-03,4.35748e-02,-3.71693e-02,4.22541e-02,-3.50151e-03,-1.46737e-02,-1.90059e-02,-3.03331e-02,2.62490e-03,-1.68839e-03,1.72584e-02,-5.81905e-03,-3.26037e-02,1.89770e-02,7.37907e-03,1.73455e-02,-3.71214e-02,-9.79606e-03,-4.17600e-02,-2.00177e-02,2.14362e-02,3.30793e-02,1.34149e-02,-3.23711e-02,2.85121e-02,-4.13150e-02,2.12442e-02,-1.16859e-02,-7.96506e-03,5.55882e-04,-2.04496e-02,2.90131e-02,4.75700e-03,-2.20372e-02,-2.93175e-02,9.51323e-03,-1.70861e-02,-1.91178e-02,3.17614e-02,1.84815e-03,-4.14118e-02,-3.50804e-02,2.50321e-02,1.25292e-02,1.65408e-02,-1.14044e-03,-6.35506e-03,-1.68915e-02,3.04931e-02,4.53919e-02,2.19251e-02,2.48182e-02,-2.45386e-02,1.86382e-02,3.23877e-02,1.17227e-02,4.59790e-03,-1.87284e-02,-3.78197e-03,9.58019e-03,3.73677e-02,4.31906e-02,-2.33813e-03,-2.00497e-02,-3.53534e-02,-2.27350e-02,3.59016e-02,2.45411e-02,3.35831e-02,-2.21862e-02,2.75833e-02,-3.10671e-03,1.89991e-02,1.59940e-03,-3.41822e-02,-7.93733e-03,-9.21313e-03,5.00756e-02,-4.13721e-03,3.27545e-02,-1.25132e-02,2.05663e-02,-1.21364e-03,
3.34790e-04,-1.87898e-02,-3.14457e-02,2.39322e-02,-3.34864e-02,3.75049e-02,6.30763e-03,1.69818e-03,-2.35499e-02,-2.19166e-02,4.56239e-02,-4.26511e-02,4.26781e-02,-2.67977e-02,3.27750e-02,-1.40890e-02,2.57718e-02,-3.28994e-02,6.78860e-03,3.07158e-02,-7.85536e-03,2.86251e-02,7.56706e-04,1.00112e-02,-1.76408e-02,-1.28132e-02,-3.94786e-03,1.22413e-02,4.21209e-02,-4.32546e-02,5.23310e-03,2.32094e-02,4.15458e-02,-3.40438e-02,7.54775e-03,7.54762e-03,8.92124e-03,-1.84211e-02,-2.80982e-03,-4.22477e-02,-2.85744e-02,-1.67986e-02,2.10672e-02,-2.06903e-02,1.56243e-02,-1.45381e-02,4.21306e-03,1.05049e-02,1.92264e-02,2.59029e-02,1.34684e-02,-3.01084e-02,-3.57039e-02,-5.08629e-02,-2.36795e-02,-1.12700e-02,-3.28405e-02,7.67774e-04,-1.26475e-02,2.44736e-02,2.80420e-02,2.53009e-02,3.10053e-02,-1.63833e-03,-3.27502e-02,2.17040e-03,-3.35181e-02,1.39141e-02,3.97333e-02,1.47441e-02,4.63822e-02,2.39038e-02,3.90570e-02,3.21334e-02,2.01376e-03,3.27731e-02,-7.41490e-03,2.30472e-02,1.86571e-02,2.17259e-02,2.29615e-02,4.21043e-03,3.79650e-02,-2.97083e-03,-3.20711e-02,1.67155e-02,7.66190e-03,3.44458e-02,6.88998e-03,-3.54588e-02,-3.11344e-02,2.80203e-02,1.47829e-02,-2.70503e-02,-1.06385e-02,2.14238e-02,-3.96630e-02,2.66700e-03,8.01540e-03,-1.53898e-02,3.16188e-02,-3.46853e-03,4.61840e-03,-3.38137e-02,1.89905e-02,-9.21212e-03,-1.96914e-02,3.14509e-02,1.16255e-04,2.88693e-02,2.74275e-02,-1.96145e-02,-5.57623e-03,4.02188e-02,-2.82582e-02,-1.55591e-02,-5.39400e-02,-1.27565e-02,4.70747e-02,-3.70203e-02,2.85198e-02,4.57091e-02,-1.96715e-02,-1.88345e-02,2.35433e-02,-3.59054e-02,-4.16171e-02,3.80721e-02,3.02456e-02,3.26469e-02,-3.68258e-02,2.39642e-02,3.67836e-02,1.52096e-02,-2.06244e-02,-4.00340e-02,-6.27002e-04,-1.68340e-02,2.90395e-02,-3.73121e-02,-1.19380e-02,2.31323e-02,-4.23080e-02,-2.56859e-02,-4.27335e-02,-2.98094e-02,1.33815e-02,-3.10014e-02,2.52404e-02,3.19041e-03,3.19865e-02,-3.47079e-02,2.39499e-02,-4.10617e-02,4.15654e-02,4.30763e-02,4.55748e-02,-2.76623e-02,-4.75672e-03,-2.71944e-02,3.01720e-02,1.88545e-02,-2.04063e-02,-2.46158e-02,-3.85492e-02,-1.59784e-02,-3.99758e-02,2.35300e-02,-3.11556e-02,-3.97457e-02,2.25615e-02,-1.92069e-02,-1.46460e-02,-7.52738e-03,-4.32675e-02,-1.42256e-02,-3.97433e-02,-6.92386e-03,1.98554e-03,-6.34336e-03,-1.76965e-02,7.58342e-03,-2.84145e-02,-2.33384e-03,-3.59379e-02,-4.19105e-02,1.44792e-02,3.02951e-02,-8.79634e-03,-2.23896e-03,-2.46574e-02,3.62637e-02,-1.86317e-02,3.34676e-02,4.63960e-02,-4.35761e-02,2.25524e-03,4.31560e-02,-3.20364e-02,3.49360e-02,-8.04817e-03,4.62350e-03,-3.96949e-02,8.60171e-03,2.33125e-02,9.93225e-03,-1.94421e-02,-3.32943e-02,-2.44778e-02,3.41736e-03,3.72613e-02,-1.17229e-02,-4.08044e-02,6.51778e-03,2.83313e-02,-5.06854e-02,3.93358e-02,3.00706e-02,-7.98323e-03,3.49819e-02,4.37914e-03,-3.35403e-02,1.75713e-02,-4.18007e-02,3.14169e-02,-4.21806e-03,-5.07323e-03,4.40654e-04,3.53352e-02,-3.56917e-02,1.26922e-02,-6.48851e-03,-1.85706e-02,1.02738e-02,-3.38888e-02,-1.92852e-02,-3.45147e-02,1.92438e-02,1.66339e-02,-2.24421e-02,-2.67108e-02,-1.40568e-02,3.64336e-03,1.12097e-02,8.44013e-03,-6.21875e-03,-8.96150e-03,-4.93983e-04,-2.49445e-02,3.55021e-02,-3.05404e-02,2.71415e-02,-3.03456e-02,4.82649e-02,-2.17802e-02,-2.41971e-02,2.95387e-02,-3.68176e-02,-3.64006e-03,-4.81113e-02,-2.49235e-02,-7.28082e-03,2.73741e-02,-3.12303e-03,-9.03227e-03,-2.95380e-02,-4.87927e-04,1.84509e-02,2.53924e-02,3.96726e-02,1.18601e-02,3.39242e-02,2.27640e-02,1.92170e-02,-3.72925e-02,4.43934e-02,3.41596e-02,-3.77124e-02,-1.51268e-02,-4.21366e-02,2.51801e-02,-1.54433e-02,-3.87551e-02,-3.66217e-02,-1.59873e-02,-2.37193e-02,7.53232e-03,-2.04881e-02,3.39858e-03,-1.78601e-02,-3.20687e-02,-2.75416e-02,1.16952e-02,2.64538e-02,-2.49107e-02,2.72796e-02,-2.36830e-02,-1.18128e-02,-3.36182e-02,3.49752e-03,3.61468e-02,2.03620e-02,7.43001e-03,-4.22896e-02,3.96924e-02,-8.68006e-04,2.23548e-02,1.81206e-02,-9.34416e-03,-1.55761e-02,8.49743e-03,-2.82185e-02,-2.38773e-02,-4.06517e-02,2.72948e-02,3.26517e-02,1.66744e-02,9.51975e-03,3.26523e-03,-2.60819e-02,1.66187e-02,4.63283e-03,-3.54196e-02,-3.61871e-02,-5.54009e-03,-8.71399e-03,-5.26892e-02,-7.74996e-03,-1.92470e-03,1.35936e-02,5.56188e-03,3.62368e-02,4.54235e-02,2.80530e-02,1.36869e-02,-3.69889e-03,3.20466e-02,-9.58842e-03,-3.22606e-03,3.11818e-02,-2.34313e-02,-6.83528e-03,2.80316e-02,3.67902e-02,2.84207e-02,-1.59371e-02,9.53194e-03,-1.35146e-02,2.82317e-02,2.60110e-02,-1.26341e-02,-2.64278e-02,3.43342e-02,-3.85009e-02,-8.80522e-04,3.84498e-02,-2.67717e-02,-2.96460e-02,1.70324e-02,-3.92255e-02,8.97646e-03,1.77580e-02,2.14236e-02,2.66975e-02,-1.94560e-02,3.63775e-02,-1.83720e-03,9.70508e-03,4.04770e-02,2.11699e-02,2.97949e-02,3.31947e-02,1.72963e-04,-1.65927e-02,3.39859e-02,3.06132e-02,-3.17102e-02,2.81248e-02,1.89059e-02,7.72296e-03,2.64826e-02,-2.58589e-02,6.70199e-03,4.00657e-02,1.30766e-02,2.37773e-03,-4.26620e-02,-4.10545e-02,9.47027e-03,8.66533e-03,1.27566e-02,-1.88338e-02,2.19412e-02,-4.31661e-03,-2.99566e-02,2.00779e-04,-3.52190e-02,8.46815e-03,2.15729e-02,1.53645e-02,-2.99232e-02,3.35411e-02,-3.39411e-02,-1.05651e-02,1.13942e-03,4.70193e-03,-1.45065e-02,-5.70010e-03,1.73050e-02,-2.48594e-02,3.43924e-02,-1.45855e-02,-1.43564e-02,2.99795e-02,4.14415e-02,-1.57263e-02,-3.83155e-02,-1.66891e-02,2.82769e-02,5.20595e-03,3.41439e-02,1.52144e-02,-4.35806e-02,5.62948e-03,3.43362e-02,3.39526e-02,-9.80708e-03,2.76233e-02,3.17454e-02,-2.82051e-02,-1.23221e-02,-2.95366e-02,-1.26351e-02,-8.13362e-03,2.49928e-02,4.07151e-02,1.70929e-02,2.57612e-02,2.32673e-02,-1.71207e-02,2.56371e-03,2.18714e-02,3.90354e-02,-1.31692e-02,5.09229e-03,4.50492e-02,-4.24933e-02,3.08018e-02,-1.09592e-02,-1.08257e-02,2.83960e-02,-3.24270e-02,2.94543e-02,-3.00993e-02,3.53749e-02,1.69879e-03,-1.11027e-02,1.22124e-03,2.10239e-02,-3.15924e-02,-8.34524e-03,-4.22481e-03,-7.55972e-03,3.47329e-02,-4.03266e-02,1.38662e-02,5.41814e-03,1.32883e-02,-9.02861e-03,-3.71959e-03,2.22613e-02,3.83437e-02,-3.62146e-02,-2.12195e-02,-2.42850e-02,-3.85556e-02,-2.56611e-02,3.26444e-02,-1.89509e-02,6.45980e-04,-1.41053e-02,4.19378e-02,-2.44121e-02,-8.71045e-03,-8.42345e-03,-6.94568e-03,-4.01459e-02,2.28817e-02,3.73164e-02,-2.55481e-02,2.85713e-02,2.35754e-02,3.13228e-03,5.75164e-03,2.58772e-02,2.24405e-02,2.24644e-02,-3.05072e-02,3.37843e-02,-3.18663e-02,
-1.48695e-02,5.65571e-03,1.08696e-02,4.34060e-02,2.99735e-02,-2.45057e-02,1.46056e-02,2.18031e-02,-2.38536e-02,2.56136e-02,-3.80626e-02,-3.35960e-03,-2.37005e-02,-7.89899e-05,3.09529e-02,-2.80147e-02,1.49151e-02,-2.01902e-02,-9.05659e-03,1.16979e-02,3.10642e-02,-1.30536e-02,-3.44257e-02,3.14575e-02,4.59376e-03,1.55565e-02,-1.13860e-02,2.50808e-02,1.01483e-02,-3.11296e-02,-2.74134e-02,3.42883e-02,3.59014e-02,-3.16931e-02,-2.76599e-02,-4.30936e-02,3.64095e-02,-3.56768e-02,-2.96862e-03,4.28664e-02,1.16777e-02,-4.11761e-02,1.57807e-03,-1.62590e-03,-1.15023e-02,3.25974e-02,1.64025e-02,-6.29251e-03,-1.06453e-02,3.45187e-02,-3.78587e-02,-4.29270e-03,-3.66681e-02,2.36874e-02,-4.18251e-02,2.39112e-02,1.40297e-02,1.44950e-02,2.36638e-02,-4.08200e-02,1.91523e-02,1.22725e-02,-2.65461e-03,-2.90631e-02,-2.81791e-02,3.12802e-02,3.57000e-02,-2.74235e-02,2.71406e-04,-4.27602e-02,3.53474e-02,3.28461e-02,3.14640e-02,1.00706e-02,2.86737e-02,8.13191e-03,-3.45047e-02,2.96495e-02,3.21810e-02,2.32252e-02,7.58301e-03,-2.78299e-02,8.16181e-03,-3.19918e-02,-4.84048e-02,4.47617e-03,3.29351e-03,-9.08753e-03,3.17104e-02,-3.55642e-02,-4.15495e-02,2.17215e-02,6.86146e-03,-2.09046e-02,7.54545e-03,-1.19947e-02,-2.31655e-02,1.72291e-02,-8.84685e-03,-2.87688e-02,2.92349e-03,2.93630e-02,2.03160e-02,-7.30095e-03,2.99665e-02,-7.37445e-03,-1.04623e-02,-7.56055e-03,4.42541e-03,2.29823e-03,-3.13987e-03,2.99401e-03,-1.56779e-02,-1.82486e-02,1.81073e-02,-4.17455e-02,2.95734e-02,1.97225e-02,5.56555e-03,-2.09478e-02,3.13030e-02,3.18313e-02,2.23201e-02,2.23484e-02,-8.78393e-03,-9.98020e-03,-4.36532e-02,2.87293e-02,-2.76721e-02,-3.78677e-02,-2.87084e-02,1.92410e-02,-3.36084e-02,-3.29689e-02,-8.16491e-03,-1.89217e-02,-1.78696e-02,-2.37078e-02,-2.34482e-02,-1.52697e-02,-3.89474e-02,-1.10561e-02,-3.66656e-03,3.47236e-02,3.12660e-02,-4.27272e-02,2.46218e-02,-1.33231e-02,1.48623e-02,-2.31091e-02,-3.15248e-02,3.22528e-02,-4.36104e-02,2.74770e-02,-4.14929e-02,-6.23535e-03,-2.96587e-02,-1.49717e-02,6.44656e-03,2.51497e-02,-1.07362e-02,2.20953e-02,-3.28575e-02,1.43267e-02,-2.24487e-02,1.81392e-02,2.71804e-02,2.18630e-03,1.85876e-02,-5.45677e-03,2.28901e-02,3.18370e-02,3.54665e-02,3.82295e-02,-4.17148e-02,-3.83092e-02,-4.86496e-03,1.43238e-03,-4.87355e-02,-4.26422e-02,2.26008e-02,1.96633e-02,-1.09085e-02,-7.96660e-03,2.68281e-02,2.10522e-02,1.50469e-02,3.16877e-02,-4.09340e-02,-6.85776e-03,-3.72089e-02,-4.58821e-02,-5.56479e-03,-1.07192e-02,1.46937e-02,-4.08449e-02,1.47854e-02,-2.61832e-02,2.37873e-02,2.31846e-02,-4.30777e-02,4.26793e-02,-2.61385e-02,-3.24889e-02,2.90432e-02,3.59691e-02,-2.70147e-02,2.55705e-02,-2.40203e-03,-1.70765e-02,1.60298e-02,3.04232e-02,-2.26923e-02,-8.19654e-03,-1.72666e-02,-1.46829e-02,4.00334e-02,-4.73808e-02,-3.42946e-02,8.88937e-03,-1.38782e-02,-4.10010e-02,-2.14802e-02,2.19437e-02,-3.09638e-02,3.58948e-02,1.07843e-02,3.90451e-02,-3.76214e-02,-1.47273e-02,-2.84965e-02,-5.90423e-03,-1.98928e-02,-2.39079e-02,-9.61071e-03,2.19476e-02,-3.47840e-02,8.29530e-03,2.86382e-02,-2.19360e-02,1.95547e-03,-7.91905e-03,5.75084e-03,-2.40350e-02,1.63388e-02,1.50360e-02,2.86153e-02,6.73672e-03,3.65223e-03,2.32316e-02,3.34925e-03,2.19974e-02,-2.95294e-02,1.35465e-02,-2.56624e-02,3.57075e-02,-3.22549e-02,-7.45897e-03,2.70481e-02,-3.80006e-02,1.88593e-02,3.51222e-02,3.85992e-02,-1.67103e-02,7.54048e-03,-1.52208e-02,-4.27367e-02,3.22382e-02,2.36418e-02,2.95759e-02,2.14051e-02,9.91588e-03,1.78554e-02,2.76749e-02,-3.86658e-02,2.89998e-02,8.75022e-03,1.99284e-02,-3.15048e-02,2.00551e-02,3.48745e-02,1.14471e-02,-9.15345e-03,8.44519e-03,2.84208e-02,-3.06478e-02,2.55933e-02,2.61597e-02,1.58877e-02,3.65234e-02,3.43327e-02,-4.11821e-02,-5.25372e-03,-9.68444e-03,3.37896e-02,7.20945e-03,1.18305e-02,2.75846e-03,-3.75986e-02,-2.57818e-03,3.29920e-02,3.76479e-02,3.20706e-02,3.43509e-02,-2.94172e-02,-1.63745e-02,-3.52661e-02,-6.06664e-03,2.31746e-02,-1.45297e-02,-2.58293e-02,2.44527e-02,-2.37887e-02,5.23995e-03,-9.29021e-03,2.54573e-02,2.65511e-02,1.96431e-03,3.60966e-02,1.65490e-02,1.05800e-02,-2.74540e-02,2.26868e-02,-1.64036e-02,-1.15695e-02,-2.87746e-02,1.77895e-02,2.80898e-02,2.19380e-02,-5.54316e-03,-1.58266e-03,1.88778e-02,-2.42399e-02,8.61548e-03,-3.43183e-03,-3.03019e-02,2.76822e-02,3.01521e-02,-8.72121e-03,-6.80569e-03,3.15221e-02,-9.56805e-03,-1.06845e-02,-2.48598e-02,-5.19489e-03,4.18354e-03,3.57973e-02,-1.66281e-02,-3.24047e-02,-2.82302e-02,1.21293e-02,-2.33280e-02,2.60830e-02,-1.53225e-02,-4.18123e-02,2.42357e-02,-3.40533e-03,-3.40395e-02,-3.29539e-02,-1.58664e-02,-4.28649e-03,-2.24877e-02,7.79838e-03,2.89685e-03,1.08800e-03,3.78165e-02,-1.06133e-02,-9.46908e-03,1.53961e-03,2.06253e-02,-1.41626e-02,7.04816e-03,-4.12935e-02,-1.96010e-02,-4.32631e-02,3.42138e-02,4.13432e-04,1.81266e-02,-1.92136e-03,-4.38613e-03,-2.11313e-03,-4.36290e-04,3.76792e-02,3.53492e-02,1.44006e-02,-4.42970e-02,-6.02061e-03,1.57984e-02,3.48618e-02,3.28160e-02,-4.78574e-02,3.99635e-02,-1.75425e-02,-1.25650e-02,3.28247e-02,2.98197e-02,2.48871e-03,2.26696e-02,2.00176e-03,-3.58424e-02,-2.39620e-02,-2.03108e-02,-7.59427e-03,1.96041e-02,1.79061e-02,3.52897e-02,-2.35085e-02,-4.65187e-02,8.67424e-03,1.03393e-02,3.41100e-02,-3.63985e-02,-3.34138e-02,-5.23005e-03,-3.47539e-02,-2.01178e-02,2.77386e-02,4.27794e-03,-8.26943e-04,2.08460e-02,-1.27277e-02,8.67708e-03,-2.91740e-02,1.24194e-02,-2.23399e-02,-4.32582e-03,1.25444e-02,4.21865e-03,-4.50817e-02,2.27091e-02,4.13359e-02,2.41284e-03,-2.29308e-02,-2.16248e-02,-3.54755e-02,-5.14608e-02,-2.14777e-02,3.49655e-02,2.01897e-02,1.62969e-02,-1.64087e-03,4.01801e-02,-4.61262e-02,3.57550e-02,2.22022e-02,-2.37597e-03,8.10033e-03,-3.11115e-02,3.71704e-02,-2.55307e-02,1.20743e-02,1.87759e-02,-4.11839e-02,1.42207e-03,2.67688e-02,-1.68169e-02,-9.42525e-03,1.15458e-02,-3.21253e-02,-9.41055e-03,1.35070e-02,-1.35465e-02,2.86234e-02,2.13228e-03,1.38437e-02,-2.15636e-02,3.79177e-02,-1.16108e-02,-4.08697e-02,-4.13901e-02,-8.10634e-03,-2.68700e-03,-3.52676e-03,3.15037e-03,-1.63713e-02,-3.51272e-03,-4.11468e-02,1.25627e-02,3.70254e-02,-2.44825e-02,-5.16577e-03,1.01009e-02,9.50377e-03,-1.20607e-02,-1.55124e-02,7.38616e-03,2.85867e-02,-1.22786e-02,2.24649e-02,-5.13464e-02,4.13508e-02,-7.13196e-03,-1.08768e-02,6.35741e-04,-7.86836e-03,3.11069e-02,1.92769e-02,-2.96998e-02,3.18463e-02,2.19200e-02,
-1.01906e-02,-1.91843e-02,-1.36767e-02,-9.91040e-03,9.48112e-03,3.77247e-04,-1.12824e-03,-2.26393e-02,-5.88126e-03,1.69014e-02,3.48694e-03,2.95450e-02,1.92182e-02,3.01710e-02,1.37502e-02,3.97244e-02,-8.36815e-03,4.33301e-02,-9.27201e-03,-4.29507e-03,-4.17766e-02,-1.17983e-02,-3.32947e-02,-8.85484e-03,4.95618e-04,3.03219e-02,-3.75479e-02,-7.70444e-03,-2.62795e-02,8.24449e-03,-1.27447e-02,-2.58158e-02,-2.83762e-02,1.85385e-02,2.30157e-03,1.78279e-02,7.06655e-03,1.95924e-02,1.23158e-02,3.97993e-02,2.70161e-02,-1.27172e-02,-2.34710e-02,7.14129e-03,4.18530e-02,-3.07307e-02,-1.98073e-02,-6.57350e-03,1.93200e-04,-1.01465e-02,-3.41818e-02,3.18851e-03,1.17784e-02,-3.12818e-03,2.05138e-02,1.66363e-02,-1.55425e-02,-2.78932e-02,2.54391e-02,-3.31006e-02,1.27698e-02,-9.94612e-03,-2.48418e-02,2.10353e-02,-5.02894e-02,3.82309e-02,6.77736e-03,2.32144e-02,2.84308e-02,3.44323e-02,-1.59559e-02,-5.09013e-02,-3.00067e-02,-2.54884e-02,-3.16376e-02,-2.91678e-02,6.60545e-03,4.84630e-02,-1.54024e-03,-4.36481e-02,5.94423e-03,-1.85873e-02,1.96491e-02,-2.36583e-02,3.65641e-02,2.11726e-02,2.59517e-03,1.77827e-03,3.03983e-02,-2.88052e-03,-1.29636e-02,6.42431e-03,-5.51600e-03,-3.59318e-02,2.94391e-02,4.26840e-03,7.29420e-03,2.90871e-02,1.50563e-02,-1.65821e-02,2.41009e-02,3.04237e-02,3.31733e-02,-4.24607e-02,2.94564e-02,2.31863e-02,4.19011e-02,3.88883e-02,-8.48997e-03,-1.53408e-02,-3.92495e-02,6.65495e-03,5.72305e-03,-3.07027e-02,4.13692e-02,3.58359e-02,-2.00638e-03,-1.71974e-02,2.43653e-02,2.96288e-02,3.73987e-02,-3.68868e-02,3.73987e-02,-2.88455e-02,1.85881e-02,2.00221e-02,1.58456e-02,-1.89402e-02,2.14197e-02,-1.74748e-02,6.93797e-03,2.87678e-02,4.07809e-02,-7.75772e-03,-6.82750e-03,-1.83657e-02,-9.74362e-03,-3.12516e-02,2.40457e-03,-2.19537e-02,3.52277e-02,-3.22320e-03,2.48586e-02,2.84200e-02,3.02294e-02,-1.66561e-02,4.01854e-02,-1.81979e-02,-6.01560e-03,-1.09481e-02,-3.46508e-02,2.25543e-02,-8.14769e-03,3.39331e-02,1.18562e-02,3.76173e-03,3.95980e-02,-6.27095e-03,1.66269e-02,1.68037e-02,-2.69340e-03,-2.72172e-02,-2.64675e-02,-9.35708e-03,2.62549e-02,3.67771e-02,2.39914e-02,1.92480e-02,-1.83804e-02,3.74167e-02,-4.58524e-03,-4.18630e-02,2.23483e-02,1.92880e-02,1.37464e-02,3.62957e-02,3.46470e-03,9.94585e-03,-1.48406e-02,-3.99727e-02,4.77558e-02,3.53370e-02,4.94166e-03,-2.47271e-02,3.02472e-02,2.74147e-02,-5.23127e-03,2.87047e-02,1.49731e-03,3.21037e-02,-1.42683e-02,1.19033e-02,4.20766e-02,2.49509e-02,3.79156e-02,-3.29365e-03,-3.84244e-02,6.46644e-03,2.26979e-02,-4.99841e-02,-3.13540e-02,3.90939e-02,-1.64850e-02,3.20514e-02,-3.87170e-02,4.00099e-02,2.02660e-02,-2.17313e-02,-2.14886e-02,-6.76346e-03,3.42077e-02,-1.53660e-02,-6.16173e-03,1.55817e-02,-1.41387e-02,-1.69251e-02,-2.55999e-02,1.68728e-02,-4.64359e-02,-3.49941e-02,2.65855e-02,-2.50828e-02,4.74454e-03,6.86696e-03,-3.96429e-02,-2.66347e-02,3.02812e-02,-3.88942e-02,-2.05812e-02,1.28231e-02,-1.59534e-02,3.37761e-02,1.52311e-02,3.34094e-02,3.56458e-02,2.48470e-02,4.65708e-03,-2.03316e-02,-2.07567e-03,-1.05375e-02,3.45115e-02,-2.17531e-02,-1.56120e-02,2.78864e-02,3.91471e-02,-1.71250e-02,-3.06223e-02,-1.71617e-02,-3.41882e-03,-2.30292e-02,1.71774e-02,-5.75874e-03,-4.33032e-02,5.12797e-03,8.91052e-05,-3.40847e-02,-4.42878e-02,-1.59454e-02,-6.27770e-03,-3.41841e-02,-1.77154e-02,1.79018e-02,-5.76431e-03,-1.91472e-03,2.25111e-02,1.60339e-02,3.21619e-02,3.07508e-02,-2.81339e-03,3.04977e-02,-4.05963e-02,-1.00590e-02,1.16250e-02,-3.54963e-02,-4.54408e-02,8.28639e-03,-3.55888e-02,1.24407e-02,-1.03620e-02,-2.99338e-02,-4.62227e-02,2.86811e-02,-1.41848e-02,3.07738e-02,-1.70686e-03,-6.89186e-03,-3.53901e-02,-2.88451e-02,3.68121e-02,-1.84047e-02,3.63072e-02,1.33229e-02,-3.00352e-02,-4.08666e-02,-3.25344e-02,-2.25916e-02,1.77790e-02,-3.52855e-02,-3.71342e-02,-1.26171e-02,4.11271e-02,-1.85294e-02,-2.19131e-02,2.86686e-02,-1.22383e-02,-5.97415e-03,-1.18443e-02,2.81150e-02,2.21344e-02,-2.94454e-03,1.63416e-02,-3.95347e-02,-9.15812e-03,-3.81766e-02,-1.53833e-02,-3.03695e-02,-7.12851e-03,1.58507e-02,1.32704e-02,-1.66056e-02,4.34010e-03,2.26628e-02,-3.01368e-02,-1.98793e-02,-2.72269e-02,-3.92768e-02,3.44762e-02,6.50451e-03,1.37790e-02,2.13235e-02,2.14462e-02,-3.73661e-02,3.96074e-02,-3.44771e-02,-2.54767e-02,1.26933e-02,-3.05427e-02,2.37570e-03,1.69600e-02,-4.56979e-02,3.84198e-02,1.30566e-02,-2.62843e-02,7.42798e-03,-3.77409e-02,-6.99869e-03,-1.27123e-02,1.68550e-02,3.09323e-02,4.58477e-03,1.93176e-03,-1.05888e-02,1.36658e-02,2.51778e-04,-4.52534e-02,3.91180e-02,2.07630e-02,-2.52956e-02,-2.61036e-02,4.23576e-02,2.82313e-03,1.24413e-02,-1.44115e-02,-5.46418e-03,-4.56119e-02,7.15304e-03,3.04421e-02,1.11153e-02,-1.28715e-03,3.23440e-02,1.05622e-02,-2.69790e-02,-3.79837e-02,8.05976e-03,8.13974e-03,-8.98918e-03,1.51072e-02,2.14854e-03,-1.94214e-02,-1.97719e-02,-2.69669e-02,-3.51510e-03,-3.56077e-02,-3.95688e-02,-1.60589e-02,-1.26203e-02,9.69492e-03,4.32301e-03,1.09148e-02,3.71565e-02,-4.34543e-02,8.21352e-03,-1.25572e-02,3.25521e-02,-3.45264e-02,1.12856e-02,-3.87319e-02,3.45858e-02,4.17148e-02,1.97413e-02,-8.28620e-03,-1.70299e-02,-2.98737e-02,-8.81265e-03,1.42621e-02,-9.24988e-03,-3.29592e-02,1.65908e-02,2.28903e-02,3.37305e-02,1.85878e-02,-2.33727e-02,1.92541e-02,-1.90333e-02,1.90943e-02,1.25947e-02,1.89556e-02,4.04957e-02,-4.23362e-02,1.54502e-02,-6.15731e-03,-3.88736e-02,-2.22037e-02,4.76305e-02,3.62148e-02,-5.76482e-03,3.69187e-03,3.40218e-02,3.50524e-02,2.50842e-02,-2.52976e-02,-2.23302e-02,4.02021e-05,3.57841e-02,4.40290e-02,1.05294e-02,1.63228e-02,-1.44255e-02,1.86204e-03,2.30408e-02,1.96942e-02,-3.46840e-02,-2.46967e-02,3.78381e-02,-3.44684e-03,-1.51517e-02,-1.11041e-02,4.00846e-02,1.45347e-02,2.11393e-03,1.86927e-02,-8.57698e-03,3.47011e-02,-1.11579e-02,3.64017e-02,-2.97827e-03,-1.56073e-02,1.49720e-02,-2.00898e-02,-1.01958e-02,-1.88078e-02,-9.02295e-03,-5.22823e-06,-1.66369e-02,1.18233e-02,-2.04392e-02,-3.36392e-02,1.05078e-02,-2.35720e-02,-8.18319e-03,8.70150e-03,-2.82611e-02,8.90255e-03,1.58312e-02,-1.22547e-03,7.68584e-03,3.62447e-02,-5.97847e-03,3.06110e-03,-2.06479e-02,1.09925e-02,1.09306e-02,2.59940e-02,-1.31635e-02,-3.47738e-02,-7.35782e-03,-3.88963e-02,7.12547e-03,3.35065e-02,1.17200e-02,-8.82206e-03,-2.87545e-02,-2.03483e-02,-1.61991e-02,1.99339e-03,1.33758e-02,-1.80506e-02,2.71776e-02,3.59998e-02,1.95367e-02,
3.07674e-02,
1.69789e-02,
-4.36671e-02,
-8.08994e-03,
