// Neural Network File Format by Kyle Julian, Stanford 2016
1,500,4,500,
500,4,
0,
0
0
0
0
5.49010e-03,-2.67389e-02,-7.01136e-03,-2.05784e-02,1.55268e-03,-9.08731e-03,-3.48766e-02,-1.42899e-02,-1.10999e-03,2.98279e-02,-8.32251e-03,3.21429e-02,-3.37464e-03,1.53565e-02,1.94780e-02,3.44318e-02,4.33899e-03,-7.92285e-03,-2.08838e-02,-3.71017e-02,1.94597e-02,6.37068e-03,1.32855e-02,-3.66716e-02,-3.36880e-02,2.60317e-02,3.15280e-02,-3.70948e-02,-3.38751e-02,1.52205e-02,-1.60326e-02,2.87980e-02,-3.37848e-02,-3.28232e-02,2.03444e-02,-3.10620e-02,1.03129e-02,-3.51141e-02,1.30392e-02,-3.38722e-02,-2.32631e-02,-3.74754e-03,2.24127e-02,1.30875e-02,-1.86345e-02,-7.68707e-03,-3.45380e-02,3.67925e-02,2.15807e-02,-1.92575e-02,2.46830e-02,2.56288e-02,-2.45966e-02,3.44800e-02,-2.39985e-02,-3.02589e-02,-9.52100e-03,3.57525e-02,-3.05230e-03,3.82648e-02,-1.49815e-02,-4.03379e-02,2.66229e-03,-2.24861e-02,7.60238e-03,-1.80466e-02,1.04903e-02,-2.27117e-02,-5.68461e-03,-3.45440e-02,-2.11791e-02,-1.99783e-02,1.41272e-02,3.22404e-02,-9.87097e-03,-3.38252e-02,-3.44285e-02,8.46516e-03,-2.82583e-02,2.74117e-02,-3.38525e-04,5.09719e-03,2.35082e-02,7.05609e-04,2.59635e-02,3.38041e-02,7.69592e-03,8.58083e-03,-2.04004e-02,-1.19545e-02,-1.74867e-02,1.24555e-02,-2.54724e-02,9.09184e-03,3.54977e-02,3.78607e-03,-3.23575e-02,-3.64834e-03,2.54351e-02,4.21677e-02,-3.41080e-02,1.27626e-02,-1.45796e-02,4.11488e-02,-9.82088e-05,-3.41898e-02,-2.16618e-02,-1.60665e-02,-7.38186e-03,-1.84982e-02,4.35282e-02,-3.95871e-02,7.42014e-03,3.70176e-02,-1.11935e-02,-1.00586e-02,-3.94026e-02,-3.73190e-02,-2.57710e-02,-2.85723e-02,-3.66341e-02,-2.63763e-02,2.05640e-03,-2.01340e-02,3.32349e-02,1.89342e-02,4.20440e-02,-2.12748e-02,-2.26486e-02,1.68757e-02,-4.25514e-02,-2.24114e-02,2.17643e-02,2.28402e-02,-1.52600e-02,1.80455e-02,2.16464e-02,5.81116e-03,-1.72148e-02,2.92120e-02,2.35045e-02,-6.59589e-03,-8.11727e-03,-2.82152e-02,-1.84310e-03,3.82824e-02,-3.04104e-02,2.01903e-03,-3.52363e-02,-1.83246e-02,-3.37656e-02,2.04312e-02,-3.61631e-03,7.19003e-03,4.36498e-02,-4.08609e-02,-1.50404e-02,1.42950e-02,-2.17977e-02,4.62089e-03,4.32998e-02,3.50353e-02,3.66265e-02,-3.13131e-04,3.71831e-02,4.18794e-02,-3.55455e-02,1.62646e-02,-3.85912e-02,-2.38057e-02,-2.78584e-02,2.63721e-02,-3.90063e-02,5.54165e-03,3.54228e-02,3.01597e-02,3.32485e-02,1.41540e-02,-1.95324e-02,-1.61189e-02,-2.67499e-03,-3.10278e-02,2.71399e-02,2.67552e-02,-1.37801e-02,-3.54495e-02,2.59055e-03,-2.61382e-02,2.03639e-02,-2.72553e-02,1.23150e-02,-5.36059e-04,6.82107e-03,-1.52960e-02,-6.52571e-03,-2.35612e-02,6.98633e-03,3.65346e-02,2.03821e-02,-1.98030e-02,1.65737e-02,-6.39593e-03,-2.20199e-02,-7.38988e-03,-2.97037e-02,2.65228e-02,3.75989e-02,6.01340e-03,-3.82386e-02,-1.17162e-02,6.97088e-03,1.75288e-02,1.32134e-02,-3.95661e-02,6.56145e-03,-2.06453e-02,-1.81544e-02,-2.64310e-02,-7.80059e-03,-9.49750e-03,-2.09410e-02,-9.99531e-03,-2.14792e-02,-1.50913e-02,-6.30139e-03,8.64383e-03,-1.51154e-02,1.05452e-02,1.70569e-02,-1.01206e-02,2.19223e-02,4.46988e-02,-3.80685e-02,-2.88462e-02,1.53323e-02,-3.61058e-02,3.80864e-02,2.74180e-03,-3.04582e-02,1.55846e-02,-4.09645e-02,1.68639e-02,-1.22347e-03,-1.97203e-02,7.13125e-03,-3.34337e-02,1.17693e-02,-1.56384e-02,-4.03535e-02,-7.77428e-03,3.67942e-02,-2.69619e-02,9.64446e-03,3.37586e-02,-3.04785e-02,-1.14156e-03,-1.71753e-02,-1.82991e-02,2.28897e-02,3.60264e-02,-1.08353e-02,4.47563e-02,4.18892e-02,-1.67029e-02,4.12026e-02,-1.49279e-02,4.37067e-03,3.31241e-02,-3.12766e-02,3.93439e-02,3.36279e-03,-3.46252e-02,-3.36276e-02,1.12425e-02,-2.35488e-02,-7.95496e-03,1.69343e-02,-3.29783e-02,-2.41375e-02,-1.48982e-02,3.36682e-02,8.67870e-03,1.14602e-02,2.10596e-02,8.17622e-03,1.22421e-03,-1.53582e-03,3.56612e-02,-1.10193e-02,4.88007e-03,-1.06328e-02,9.25537e-03,2.25176e-02,5.95272e-03,2.44256e-02,3.29907e-02,-1.93578e-02,1.67668e-02,3.57647e-02,-3.56793e-02,-2.57478e-02,-1.67707e-02,-1.37531e-02,-2.11108e-02,3.63564e-02,-3.61240e-02,1.96963e-02,2.48673e-02,-3.06225e-02,1.06147e-02,1.45068e-02,4.32039e-02,2.54749e-02,-1.58975e-02,-8.69934e-03,3.40209e-02,-3.23363e-02,1.26535e-02,-4.16729e-02,3.88956e-02,3.40881e-02,1.22672e-02,-3.19587e-02,1.93537e-02,-2.31585e-03,-8.60244e-04,-6.58747e-03,-3.31246e-02,2.71335e-02,-3.33534e-02,-2.17626e-02,2.70618e-02,3.87139e-03,1.54374e-02,3.80446e-02,1.14944e-02,-2.87652e-02,-2.52160e-02,-1.10944e-02,1.99642e-02,-1.33371e-02,2.90158e-02,2.92840e-02,1.57212e-02,1.47420e-02,2.15756e-02,-1.01665e-02,1.25322e-02,7.93532e-03,2.29854e-02,-1.51093e-02,-2.83599e-03,-1.56674e-02,-8.10685e-03,-3.55512e-02,1.84667e-02,-2.95065e-02,-3.29124e-02,1.29860e-02,3.52486e-02,7.19934e-03,8.77442e-03,3.13214e-02,2.91142e-02,1.89087e-02,-2.03962e-02,-1.98253e-02,-2.49094e-02,-1.29841e-02,1.60376e-03,-2.54836e-02,3.95707e-03,-3.14267e-02,1.54168e-04,4.05081e-02,-2.19741e-02,-1.77218e-02,-3.15464e-02,-2.08866e-03,2.64900e-02,-7.29535e-03,3.72739e-02,2.12682e-05,2.18789e-02,-1.27869e-02,-3.05438e-02,3.28935e-03,3.88164e-02,-2.87215e-02,-3.53602e-02,-5.92635e-03,-1.60311e-02,-3.56943e-03,-3.56970e-02,1.27310e-02,1.39129e-02,6.67802e-03,4.00724e-02,-1.50538e-02,6.29530e-03,-1.76825e-02,2.86107e-03,-1.11640e-02,-1.77426e-03,3.82107e-02,5.05899e-02,3.28803e-02,-2.78262e-03,-5.09261e-03,5.38134e-03,1.01640e-02,8.70910e-03,1.75792e-02,9.92569e-03,4.09057e-02,-2.16964e-02,-3.46245e-02,6.39455e-03,-2.10989e-02,2.13261e-02,-2.67235e-02,-3.61420e-02,3.19558e-02,-4.42073e-03,2.84769e-02,-1.54735e-02,1.63123e-02,-8.02133e-03,2.82501e-02,1.43597e-02,1.96656e-02,1.81349e-02,4.64816e-03,1.70287e-02,8.67067e-04,2.73262e-02,-2.37158e-02,-1.59155e-02,-2.69414e-02,-6.72061e-04,-1.74422e-02,-2.54192e-02,2.88503e-02,-3.31003e-02,-3.29207e-02,-2.69373e-02,1.30248e-02,-4.41634e-02,-3.38423e-02,3.95142e-02,1.85019e-02,-1.66020e-02,2.83741e-02,4.78750e-02,-2.94208e-02,-2.83529e-02,-2.37996e-02,6.95264e-03,3.31932e-03,3.63457e-02,4.64637e-03,3.05285e-02,3.44232e-02,-2.33386e-02,7.61820e-03,2.38915e-02,-3.73614e-02,2.68619e-03,-3.89760e-02,2.60038e-02,-7.42489e-04,3.02027e-02,1.78007e-02,4.19914e-02,-3.59090e-02,5.94695e-03,1.38993e-02,-7.03269e-03,-1.31201e-02,-1.60508e-02,-1.62599e-02,-4.42823e-02,-7.18071e-03,3.47550e-02,1.88198e-02,-6.75253e-03,-2.71682e-02,7.66332e-03,6.60412e-03,2.74609e-02,-4.13640e-02,-3.83137e-02,-3.95369e-03,2.27045e-02,1.24522e-02,2.04246e-02,3.85193e-02,1.73606e-02,2.74705e-02,-1.12959e-02,
-3.55036e-02,-2.40307e-02,-2.43188e-02,3.56433e-02,4.94893e-02,8.27493e-04,-7.98409e-04,5.09262e-03,1.99481e-02,3.16921e-02,-1.28735e-02,4.78776e-02,-7.96141e-03,1.84909e-02,2.33230e-02,3.34058e-02,2.31437e-03,-3.61008e-02,2.22251e-02,-2.31799e-02,-2.51145e-02,-1.61529e-02,2.01912e-02,-2.35244e-02,-3.18379e-02,-9.81519e-03,-1.08745e-02,1.96134e-02,-1.36594e-02,2.60198e-02,2.09352e-02,-3.34538e-02,1.07723e-02,-1.79255e-02,-1.07847e-02,2.21405e-02,-3.88263e-02,-1.82229e-03,-3.41866e-02,-3.06353e-03,-3.20353e-02,9.95202e-03,-2.47861e-02,4.28225e-03,1.00815e-02,-3.81689e-03,7.54438e-03,-3.11532e-02,5.82033e-04,-3.70301e-02,4.00189e-03,1.93139e-02,-3.61497e-02,7.16868e-03,-3.39262e-02,2.72921e-02,1.37841e-02,1.62409e-02,2.21420e-02,-2.57318e-02,-1.78717e-02,-4.72477e-02,-1.07727e-02,-8.81081e-03,1.30097e-04,-4.13024e-02,-2.26743e-02,4.51112e-02,4.08464e-02,2.02548e-02,2.14986e-03,-3.94829e-02,3.22001e-02,2.02302e-03,1.31745e-02,1.02062e-02,7.88223e-03,3.56625e-02,3.54639e-02,-1.81964e-02,-1.70450e-02,2.87644e-02,-3.20666e-02,8.52866e-03,-1.98116e-02,3.87756e-02,-2.76003e-02,-1.88920e-02,-6.29437e-03,1.00367e-02,-4.05432e-03,-2.54733e-02,1.15861e-02,1.46014e-02,2.76501e-02,4.19301e-02,-1.48740e-02,-5.83405e-03,-2.03925e-02,-2.37684e-02,-1.72732e-02,1.23848e-02,2.64076e-03,-4.03477e-02,-5.66865e-03,-3.07811e-02,1.18328e-02,5.45227e-03,1.09945e-02,-7.72233e-03,-4.35595e-02,3.43008e-02,-6.92926e-03,-1.94250e-02,-1.25362e-02,6.19796e-03,4.62798e-03,-2.71309e-02,-2.59413e-02,-3.29070e-02,9.35573e-03,-3.94425e-03,-1.39719e-02,-1.53668e-02,2.24435e-02,1.95743e-02,1.49302e-02,2.29778e-03,-1.46035e-03,1.19033e-03,-7.26596e-03,-1.37166e-02,1.89040e-02,1.02969e-02,2.11397e-03,-1.09611e-02,-1.81268e-02,-2.15953e-02,-1.79974e-03,5.55283e-03,5.85316e-03,-4.38287e-02,4.74927e-03,-3.08081e-02,6.79362e-03,3.22599e-02,-2.05746e-02,-5.47689e-02,3.80619e-02,6.95667e-03,1.58464e-02,-2.68625e-02,-7.83875e-03,-1.49514e-02,-3.70689e-02,-7.54701e-03,1.05948e-02,-7.95390e-03,-3.66831e-02,-4.23665e-03,3.76220e-02,1.93946e-02,4.00480e-02,4.14413e-02,7.29835e-03,-4.33338e-03,1.03716e-01,1.42650e-02,2.98927e-02,-7.46888e-03,3.38961e-02,-4.90585e-04,4.15524e-02,-1.62033e-02,-1.37554e-02,1.21819e-02,-2.66466e-02,-3.26563e-03,-6.68913e-03,7.17838e-03,-1.18420e-02,-3.49439e-02,1.89277e-02,-3.37902e-02,3.88878e-02,1.05411e-02,9.24777e-03,6.59144e-03,-6.43725e-03,2.54558e-02,4.14691e-02,5.41453e-03,2.58187e-02,-5.01918e-02,-1.74031e-02,-3.74359e-02,-4.67844e-03,2.53880e-02,2.77302e-03,-1.26317e-02,-9.73184e-03,-7.55746e-03,-1.44801e-04,-4.19509e-03,1.05435e-02,-3.25490e-02,1.43427e-02,-9.19082e-03,-4.67017e-03,4.88668e-03,1.74194e-02,4.85442e-02,5.99161e-03,-1.84709e-02,-3.21649e-02,-2.57213e-02,-3.23872e-02,-3.04716e-02,-4.07292e-02,-1.54718e-02,2.15150e-02,-2.10541e-04,1.30101e-02,-2.45899e-02,-2.80860e-02,-3.41965e-02,-1.90983e-02,-4.46563e-02,-1.72134e-02,2.04478e-02,-2.19132e-02,2.69646e-02,-5.46826e-03,-1.57260e-02,7.71890e-03,-7.93267e-03,2.47299e-02,-1.10762e-02,3.42126e-02,-3.19087e-02,2.52267e-02,2.16724e-03,3.61742e-02,-3.86353e-02,-2.84196e-02,8.15780e-03,-1.09089e-03,8.91699e-03,-4.13797e-02,-5.71144e-02,1.07454e-02,9.42037e-03,6.54709e-03,3.96017e-02,-3.33736e-02,3.55501e-02,5.12202e-04,-4.96274e-02,2.27590e-02,-4.34177e-02,-1.25818e-02,-1.93785e-02,-1.33894e-02,1.17205e-02,1.32090e-02,3.05282e-02,3.05381e-02,-6.16309e-03,-6.56027e-04,1.48909e-02,-3.28435e-02,2.62481e-02,-2.95110e-02,8.33886e-03,1.60093e-03,1.52232e-02,1.60864e-02,-2.26520e-02,4.57738e-03,1.21311e-02,-9.91484e-03,1.05834e-02,-8.87920e-03,-3.07534e-02,4.17241e-02,-2.20285e-02,6.44529e-03,2.03024e-02,-3.45359e-02,3.53800e-02,-3.28597e-02,-4.61701e-02,-1.49587e-02,3.75821e-02,6.37523e-03,-4.38525e-02,-2.96533e-02,8.97106e-03,3.11819e-02,-9.10639e-03,-2.36836e-02,2.38006e-02,-1.02327e-02,2.39904e-02,-6.06991e-03,1.23586e-02,8.90857e-03,-2.30953e-02,3.96977e-02,-6.09623e-03,3.75549e-04,2.53925e-02,-6.41081e-03,-4.52808e-02,2.25461e-02,3.69208e-02,-2.23841e-02,-1.32185e-02,1.93048e-02,4.11149e-02,6.49763e-03,-5.88193e-03,5.21553e-03,-4.26068e-02,2.88644e-02,-3.31906e-02,-2.29895e-02,-3.01457e-02,3.46112e-02,2.93858e-02,3.90529e-02,2.91052e-03,1.46152e-03,3.81496e-02,-1.21241e-02,-3.67339e-02,3.69274e-02,-1.73329e-02,-1.95589e-02,-2.06087e-02,3.90933e-02,2.05488e-02,3.29860e-02,-2.74033e-02,1.45271e-02,1.65697e-03,-2.57516e-02,-6.11268e-02,1.97735e-02,-1.00844e-02,3.56775e-03,2.87515e-02,-3.13374e-02,-1.49659e-02,-1.68901e-02,2.06214e-02,-6.33302e-03,2.44322e-02,-6.97534e-03,-1.54918e-02,-2.36317e-02,-1.07006e-02,-4.59385e-02,-4.99411e-03,3.05362e-02,-8.24972e-03,2.29945e-02,-9.41268e-03,-2.30878e-02,-3.89844e-03,1.98274e-02,3.15692e-02,-5.76690e-03,3.93526e-02,3.26809e-02,3.82284e-02,2.26173e-02,4.01689e-03,-2.71356e-02,3.18474e-02,2.33059e-02,-3.54367e-02,-3.61685e-02,-3.72462e-02,-1.38717e-02,4.29973e-02,2.08891e-02,4.18922e-02,-3.51390e-02,3.47060e-02,1.42271e-02,2.58158e-02,-3.85527e-04,1.05548e-02,-1.54306e-02,3.45617e-02,2.54679e-02,-3.57087e-03,3.55408e-02,-3.39175e-02,4.40335e-02,-1.43088e-02,1.88994e-02,5.33853e-03,-1.28087e-02,3.81390e-02,-4.01723e-02,1.96269e-02,1.85058e-02,-2.54358e-02,1.46336e-03,1.79135e-03,4.49395e-04,-1.27867e-02,1.06903e-02,-2.81190e-02,1.12850e-02,-8.24327e-03,-1.56831e-02,-2.92182e-03,-1.69982e-03,2.62171e-03,-3.53143e-02,-1.49692e-02,-1.85949e-02,1.28809e-02,-1.14571e-02,-3.15603e-02,1.21076e-02,1.65667e-02,-5.94761e-03,-1.16343e-02,-3.96352e-03,1.96205e-02,1.58660e-02,-9.54599e-03,2.77225e-02,1.62152e-02,-3.50690e-03,4.00262e-02,-1.39800e-02,1.17987e-02,2.47493e-02,-1.85643e-02,2.81837e-02,1.24986e-02,1.00985e-02,1.25738e-02,3.61027e-02,-7.09971e-03,7.62530e-03,-3.28584e-02,-7.82692e-04,3.67305e-03,-1.98402e-02,1.64181e-03,2.25595e-02,3.54295e-02,2.45442e-02,-4.05446e-03,-1.93118e-03,3.60095e-02,-8.26251e-02,-9.56256e-03,-7.14641e-03,1.47414e-02,-5.45810e-02,1.13570e-02,3.03066e-02,-2.24661e-02,-2.90670e-03,-1.82253e-03,2.14385e-02,2.71097e-02,3.76430e-03,4.44394e-02,-1.92909e-03,4.56551e-02,-2.35174e-02,1.35174e-02,-4.21065e-02,-1.02013e-02,-1.87823e-02,2.13166e-02,9.13961e-03,-3.43933e-02,1.62764e-02,4.52767e-02,-2.74790e-02,-3.70682e-03,8.77797e-03,3.73171e-02,-1.09309e-03,1.69230e-02,-1.69166e-02,1.05641e-02,2.06368e-03,-2.59002e-02,1.83658e-02,-2.67190e-03,
-1.32602e-02,6.38513e-03,-1.18915e-02,1.22253e-02,-2.46787e-02,-2.40103e-03,1.02576e-02,-2.26929e-02,-1.51126e-02,-3.00460e-02,4.01000e-03,7.59013e-04,-1.24254e-02,3.38659e-02,-2.26544e-02,-2.84973e-02,2.18362e-02,-1.41744e-02,1.67856e-02,1.63021e-03,-2.93915e-02,5.70186e-03,-4.07441e-03,3.20981e-02,-1.19711e-02,3.99854e-02,-3.32930e-02,1.53129e-02,-2.07186e-02,-2.58935e-02,3.17330e-04,2.44778e-02,-5.50985e-03,-3.13037e-02,1.55746e-02,6.78133e-03,2.31442e-02,-1.70864e-02,3.22291e-03,3.48146e-02,4.49111e-03,1.87618e-02,-4.42563e-02,-4.43065e-02,2.08258e-02,8.43042e-03,1.41674e-02,-3.25896e-02,1.71529e-02,-3.94907e-02,7.45485e-03,-1.19782e-03,3.46952e-02,-3.32587e-02,1.01759e-02,-5.93335e-03,8.00948e-03,2.36082e-02,3.85101e-02,-1.89173e-02,-1.51396e-02,-2.76039e-02,1.21163e-02,-5.57269e-03,2.87179e-02,1.29070e-02,1.46396e-02,-1.57696e-02,-1.72167e-02,-4.62996e-02,2.34959e-02,2.12548e-03,3.86580e-02,1.29600e-02,-4.42949e-02,4.03672e-02,3.76360e-02,-7.56667e-03,5.62109e-03,-1.36075e-02,2.02460e-02,5.02243e-03,2.82891e-02,7.19320e-03,1.93023e-02,1.59648e-02,-2.29465e-02,-7.37461e-03,2.82229e-02,-9.14167e-03,-2.32752e-02,6.51377e-03,3.65334e-02,3.88565e-03,1.48705e-02,-2.24982e-02,1.79386e-02,2.12333e-02,2.56658e-02,-2.47770e-02,2.34639e-02,-1.40593e-02,-2.22919e-02,1.06244e-02,4.05711e-02,-2.91160e-03,1.17654e-02,6.35832e-03,-2.93808e-02,3.62311e-02,2.31862e-02,6.12762e-03,2.01340e-02,-2.30995e-02,2.90686e-02,7.06744e-03,-3.82086e-02,-3.29021e-02,4.93950e-03,3.47117e-02,-1.36113e-02,8.85252e-03,3.46636e-02,3.81805e-02,-1.65349e-02,3.83193e-02,-4.05233e-02,-1.55267e-02,2.06763e-02,3.89659e-02,1.17659e-02,-3.50240e-02,4.19696e-02,2.32650e-02,2.45321e-02,-2.99083e-02,-2.48331e-02,-4.22728e-02,-1.44225e-02,2.41512e-02,2.15305e-02,2.85617e-02,4.69204e-03,-1.77534e-02,-1.37118e-02,-1.57771e-02,4.00614e-02,-8.68853e-03,-3.94104e-03,-6.11316e-03,1.47178e-02,-4.57416e-02,2.39199e-02,-4.79202e-04,-1.98588e-02,-1.15344e-02,-7.00592e-03,-1.36658e-02,2.08992e-02,1.98790e-02,1.14895e-02,1.68484e-03,1.17568e-02,2.22698e-02,-4.10229e-02,-3.87363e-03,-2.62488e-03,-2.48388e-02,-1.91191e-02,8.91544e-03,-1.32471e-02,-3.17195e-02,-2.71817e-02,-3.12021e-02,3.14352e-02,-2.12776e-03,-2.12897e-02,3.64815e-02,2.25203e-02,-6.88037e-03,-3.44980e-03,-4.47562e-02,1.28205e-02,2.46546e-02,-2.38876e-02,-1.07930e-02,2.67552e-03,2.56381e-02,-4.55100e-03,-1.15134e-02,1.18068e-02,-3.58597e-02,2.34966e-02,-1.20707e-02,1.15454e-02,3.76439e-04,-1.02889e-02,-2.06058e-02,1.81383e-02,-1.25942e-02,3.63884e-02,-3.13617e-02,-1.07389e-02,1.65820e-02,1.40491e-02,6.48181e-03,1.29839e-02,1.01868e-02,2.38683e-02,1.74182e-02,-1.48796e-02,-3.13687e-02,1.83308e-02,4.63675e-03,3.98097e-02,1.83683e-02,8.03831e-03,2.20396e-02,-1.07044e-02,-1.74633e-02,1.76224e-02,-1.62570e-02,8.58624e-03,3.55107e-02,-2.01325e-02,2.62929e-02,8.72713e-04,-2.50354e-02,3.29782e-02,2.42955e-02,3.14924e-02,-3.61645e-04,4.30651e-03,4.34644e-02,-2.04549e-02,-1.27945e-02,1.34381e-02,1.01427e-02,-1.25031e-02,3.40421e-02,2.02465e-02,8.54687e-03,3.15586e-02,-1.07292e-02,-2.35381e-02,-1.77708e-02,-1.77082e-02,2.79201e-02,1.61695e-02,2.29274e-02,1.36367e-02,-4.03048e-02,1.70171e-02,-1.93504e-02,-6.39592e-03,1.36152e-02,3.65514e-02,3.27081e-02,-1.33111e-02,-1.11004e-02,-3.58223e-02,3.01260e-03,2.98163e-02,3.66565e-02,5.80125e-02,-1.99738e-02,7.06198e-03,-1.40738e-02,2.55894e-02,-5.28265e-03,-5.18240e-03,-4.22837e-02,2.59818e-02,1.08458e-02,1.49077e-03,-2.31055e-03,-3.32781e-02,5.62323e-03,-3.81135e-02,-2.89110e-02,-3.24374e-02,-2.63142e-02,-2.65859e-02,-1.08164e-02,-2.37807e-02,-1.15867e-02,3.83297e-02,2.99498e-02,-1.24496e-02,2.04947e-02,-1.26881e-02,-8.61906e-03,-1.30112e-02,-3.86507e-02,-1.37507e-02,-4.19268e-02,2.85329e-02,3.09697e-02,1.06566e-03,-2.60798e-02,4.03550e-02,3.41753e-03,2.36575e-02,-2.29902e-02,-4.50955e-02,-2.24748e-02,1.68616e-02,-1.36723e-03,-1.99114e-02,-2.50939e-02,2.92508e-02,2.09961e-02,1.51783e-02,-1.80395e-02,-4.88934e-03,-4.79365e-04,2.92602e-02,-3.38586e-03,-1.97203e-03,2.89512e-03,5.76437e-03,-8.28453e-03,-3.59148e-02,1.61736e-02,-3.37495e-02,2.70532e-02,3.65623e-02,-4.36149e-02,8.74800e-03,3.84191e-02,-2.74495e-02,3.57428e-02,9.31399e-03,4.89592e-02,3.62547e-02,-2.10275e-02,1.99040e-02,2.25063e-02,1.46330e-02,-1.76498e-02,-4.57586e-02,7.46754e-03,3.90142e-02,-1.24367e-02,3.11909e-02,1.69410e-03,-2.54465e-03,3.06327e-02,-2.68778e-02,-2.06201e-03,-2.62016e-02,-2.01197e-02,2.86455e-02,2.37501e-02,3.68789e-03,3.72355e-02,8.87178e-03,-1.21153e-02,-3.45082e-02,-2.21290e-02,-2.55744e-02,-4.35630e-03,-4.02425e-02,2.44174e-03,1.69699e-02,-3.34562e-03,3.88317e-02,-3.87533e-02,2.71944e-02,-5.49231e-02,-2.43757e-02,-1.19695e-03,-4.70103e-02,2.87381e-02,3.52949e-03,-3.89677e-02,3.31695e-02,-2.38747e-02,-1.11777e-02,-4.28003e-02,3.49552e-02,1.90286e-02,2.08547e-02,-3.64326e-02,4.46924e-03,4.95865e-02,-9.93805e-03,2.74824e-03,2.92637e-02,-1.86467e-02,-8.30166e-03,-2.76782e-02,3.91835e-02,4.08868e-02,7.07847e-03,1.15138e-02,-1.63452e-02,-5.78583e-04,3.13672e-02,-4.23216e-02,-2.26854e-02,-1.11037e-02,-1.19042e-02,7.17357e-03,-4.39952e-03,2.26180e-02,-4.30571e-02,9.92774e-03,3.29319e-02,3.97640e-02,2.19089e-02,3.40077e-02,-3.41980e-02,-2.83871e-02,-3.69570e-02,-1.68354e-02,-5.60465e-03,-7.03203e-03,-3.49412e-02,3.40952e-03,-7.80214e-03,-1.82351e-03,-2.84335e-02,1.86662e-02,-1.93136e-02,-1.11248e-02,-2.09063e-02,1.47783e-03,-2.74407e-02,-3.83981e-02,-3.53362e-02,-4.59113e-02,-3.64623e-02,1.83217e-02,-3.21936e-02,-3.10962e-02,5.83436e-03,1.36167e-02,4.39675e-02,2.26564e-02,2.02856e-02,-2.68097e-02,2.22613e-03,2.07293e-02,1.02896e-02,2.97350e-02,-1.06014e-02,-3.87701e-02,2.83872e-02,-1.10151e-02,-3.31398e-03,4.28805e-03,-1.03502e-03,-3.68064e-02,3.15446e-02,2.46838e-02,-3.73952e-03,-2.09339e-02,1.25839e-02,-7.17433e-03,-7.79822e-03,2.58468e-02,4.39628e-03,-3.25787e-02,1.70010e-02,-5.57563e-03,-1.01109e-02,5.16125e-03,1.32962e-02,1.85171e-03,2.82616e-02,-1.29606e-02,7.29845e-04,4.23908e-02,3.23270e-03,3.80885e-02,1.04603e-02,2.23975e-02,-4.05863e-02,-2.97195e-02,2.33260e-02,-2.11115e-02,2.48618e-02,-7.47629e-03,1.62228e-02,7.74404e-03,-3.93646e-02,-3.10653e-02,-7.68135e-03,-2.80509e-02,1.47788e-02,-2.66973e-02,2.92347e-02,-3.19993e-02,2.42309e-02,-3.80670e-02,-1.44236e-03,-1.28116e-03,-2.07854e-02,6.21647e-03,
3.56458e-02,3.31534e-02,-3.08541e-02,-3.17845e-02,7.21153e-03,8.60488e-03,-4.22754e-02,-2.05431e-03,1.51427e-04,-2.26199e-02,-4.95633e-02,-8.36198e-03,2.04880e-02,1.01417e-02,1.80184e-03,3.58782e-02,-1.73629e-02,3.57658e-02,-3.40451e-02,-2.49527e-02,9.51932e-03,-2.59083e-02,3.79315e-02,-3.93009e-02,1.00036e-02,-9.73255e-03,-3.86600e-03,1.91103e-02,3.66328e-03,6.47552e-03,8.63772e-03,-2.65821e-02,-3.75056e-02,3.07152e-02,1.60638e-02,4.41416e-02,1.31389e-02,1.67224e-02,-2.50654e-03,-9.61298e-03,-1.02243e-03,2.79580e-02,1.55044e-02,4.54374e-02,-2.84496e-02,3.91028e-02,1.11459e-02,4.23134e-02,3.91357e-03,5.57040e-03,4.52252e-03,-2.86677e-02,2.02424e-02,1.59151e-02,-3.18682e-02,-2.39658e-02,6.27508e-03,2.46112e-02,-1.50632e-02,2.13012e-02,1.86087e-02,1.09771e-02,2.49222e-03,8.22213e-03,-3.26374e-02,3.75909e-02,-1.41542e-02,-1.21457e-02,2.38048e-02,-5.76928e-03,1.98929e-02,-8.85759e-03,8.75298e-03,3.09159e-02,-7.44244e-03,-1.12569e-02,-3.07162e-02,3.35664e-02,-1.86859e-02,-1.89577e-02,-1.08490e-02,2.05691e-02,3.88556e-02,2.60039e-02,1.08789e-02,-3.64712e-02,-1.05639e-02,3.39732e-02,-6.97765e-03,-3.51578e-02,1.40420e-02,-3.34744e-02,-8.33419e-03,-2.91099e-03,-1.33831e-02,-2.50072e-02,1.77041e-02,-2.72263e-02,-7.03987e-03,1.65273e-02,2.47085e-02,-4.21638e-02,-1.67656e-02,2.42039e-02,5.37205e-04,-4.63798e-03,1.07955e-02,3.48040e-02,-5.20794e-03,2.71221e-02,-4.74408e-03,1.95475e-02,3.94940e-02,-2.53995e-02,3.75201e-02,3.46585e-02,2.16158e-02,2.95218e-02,1.78967e-03,-3.27317e-02,-2.93820e-02,2.34684e-02,-3.43504e-02,9.26326e-03,3.11154e-02,2.84563e-03,1.38584e-02,2.56228e-02,-3.29366e-03,-3.19331e-02,-2.85312e-02,-4.41246e-02,1.17187e-02,4.02137e-02,-1.35288e-02,-3.45895e-02,7.76622e-03,-2.21706e-03,-1.03519e-02,-3.77224e-02,-5.84975e-03,-3.66417e-03,-1.46552e-02,3.82376e-02,2.19738e-02,-3.73814e-02,-2.44603e-02,-4.57652e-02,1.63403e-02,5.37776e-03,-4.91581e-03,-2.23096e-02,-1.93394e-02,2.01758e-02,-1.37825e-02,2.73972e-02,-1.07327e-02,2.73619e-02,-3.21702e-02,3.50282e-02,-9.69059e-03,3.79277e-02,2.30000e-02,2.89011e-02,2.49155e-02,5.93533e-03,-5.09204e-02,-3.72620e-02,3.31000e-02,3.80454e-02,-1.05204e-02,4.84815e-03,-4.08171e-02,3.78930e-02,3.18279e-02,-1.92020e-02,3.35123e-03,-6.14415e-03,-2.44824e-02,1.27525e-02,-4.22191e-02,4.56898e-02,-1.31419e-02,3.26628e-02,-2.03007e-02,-1.39443e-02,-1.39890e-02,-2.92022e-02,2.08091e-02,-1.90543e-02,3.72936e-02,-7.06279e-03,2.47684e-02,3.39684e-03,-4.13710e-02,4.74793e-02,-3.04549e-02,2.87725e-02,-8.33084e-03,-3.18981e-02,-5.73043e-02,-2.29291e-02,-7.20861e-03,4.31940e-02,3.63284e-02,-3.10869e-02,-3.46220e-02,-2.23687e-02,-6.74847e-04,-3.10964e-02,-2.66333e-02,1.62282e-02,-2.69442e-02,9.74044e-03,-2.18987e-02,-2.77767e-02,-2.34479e-02,3.27518e-02,-2.71834e-02,-2.25144e-02,-1.91293e-02,-2.22015e-02,-3.41560e-02,5.63442e-03,1.39484e-03,-3.38017e-02,4.28417e-02,4.83750e-02,-1.30992e-02,3.77680e-02,-3.72492e-02,3.40872e-02,-1.78883e-02,2.29054e-02,-2.53904e-02,-1.42056e-02,3.37567e-02,3.26856e-02,1.79865e-02,3.90330e-02,2.86758e-02,-1.79636e-02,-4.58025e-02,-8.78775e-03,-2.97362e-02,-1.46995e-02,1.42863e-02,3.67750e-02,-1.89359e-02,2.52122e-02,4.48085e-02,7.15481e-03,-1.97055e-02,3.36837e-02,-1.14935e-02,1.52035e-02,1.02656e-02,1.06819e-03,-3.02905e-02,1.56675e-03,3.05006e-03,-1.07401e-02,-1.85642e-02,4.04585e-02,-1.18687e-02,-2.12468e-02,-3.41583e-02,-4.31524e-02,-2.21982e-02,2.34147e-02,-2.88680e-02,3.77669e-02,3.47905e-02,-3.49720e-04,-3.52097e-02,-4.72031e-02,-4.19891e-02,1.22373e-02,4.69061e-02,-4.60311e-02,7.35709e-03,-2.31922e-03,-3.56252e-02,3.61576e-02,-1.77938e-02,-2.84662e-03,3.05618e-02,1.68976e-03,-3.54446e-02,2.69773e-02,-1.09811e-02,2.19706e-02,3.02024e-02,-1.19989e-02,7.66447e-03,-2.99624e-02,2.78556e-02,-6.60695e-04,1.89905e-03,1.42380e-03,-3.81577e-02,-3.79039e-02,-2.91433e-03,-1.22814e-02,9.63300e-03,-1.11064e-02,1.79830e-02,-1.66750e-02,2.22973e-02,7.49960e-03,-3.35181e-02,3.14466e-02,-2.40095e-02,5.36541e-02,4.40511e-02,-1.35661e-02,-1.68532e-02,-4.93199e-03,1.51481e-02,-1.30304e-02,-2.33027e-03,8.08237e-03,3.08387e-02,6.60349e-03,-1.68350e-02,2.73542e-02,1.19196e-03,4.85583e-03,-2.77240e-02,-2.90304e-02,-1.49521e-02,1.31409e-02,5.67006e-04,4.22242e-02,-2.41453e-02,5.18415e-02,-3.74890e-02,-6.09810e-03,4.31461e-03,3.55646e-02,-2.08718e-02,-3.40990e-02,1.55200e-02,8.46054e-03,1.22515e-02,-2.49242e-02,1.60907e-02,1.43029e-02,-1.04140e-03,-2.57800e-02,3.12719e-02,-3.65452e-02,-2.14952e-02,3.89870e-02,-3.56607e-02,2.07513e-02,3.11422e-02,-2.26523e-02,2.54791e-02,-1.10240e-02,-3.96145e-03,-3.77714e-03,-1.32874e-02,-8.28183e-03,2.02473e-02,-5.56657e-02,1.15305e-02,2.64205e-02,-1.62058e-02,4.24589e-02,2.18528e-03,3.98156e-02,2.36051e-03,-2.80308e-02,-2.06068e-02,3.35480e-03,-2.81648e-02,-1.40805e-02,6.33436e-03,1.77554e-02,1.22110e-02,7.99456e-03,2.73995e-02,1.01424e-02,-2.48095e-02,-1.06141e-02,-1.61697e-02,1.81727e-03,3.39693e-02,-2.61327e-02,2.06943e-03,-3.00609e-02,-1.04408e-02,-3.41154e-02,1.08848e-03,-3.31480e-02,-1.03509e-02,-3.26429e-02,3.10437e-02,1.32439e-02,-4.91663e-02,8.24880e-03,-3.05114e-02,3.98077e-03,2.61857e-02,-1.10551e-02,1.87391e-02,-1.87026e-02,-1.34918e-02,-2.02081e-02,2.66596e-02,-3.66261e-02,1.30722e-02,2.92471e-02,-1.44610e-04,-1.71248e-02,4.12463e-02,2.45071e-02,-4.21121e-03,3.67406e-02,4.05019e-02,3.74666e-02,-3.20850e-02,-1.99542e-02,-3.91492e-02,1.19341e-02,2.13562e-02,8.23704e-04,-2.29916e-02,-1.79388e-02,-2.97206e-02,-1.55336e-02,-2.09630e-02,1.81042e-02,-3.06509e-02,3.56740e-02,-6.44519e-04,-1.75992e-03,1.50037e-02,-3.37998e-02,3.97113e-02,-2.87935e-02,-4.54024e-02,-1.31297e-02,6.81369e-03,-1.30548e-02,2.18594e-02,-8.83606e-03,1.02131e-02,-2.49320e-02,3.19536e-03,-4.22151e-02,1.16985e-02,4.91290e-02,4.41889e-02,-3.64275e-02,7.88640e-03,-1.32902e-02,-2.33297e-02,-2.96281e-02,-3.96374e-03,-4.10754e-02,3.98470e-04,4.38872e-02,3.35103e-02,2.08059e-03,-2.37688e-02,2.42068e-02,2.49890e-02,1.41056e-02,2.38989e-02,3.67867e-02,-4.81123e-02,-1.01877e-02,-2.65915e-02,-1.32363e-02,3.28179e-02,4.73458e-02,-9.68188e-03,-3.58197e-02,3.40160e-02,-1.02022e-02,2.58118e-02,1.23801e-02,-1.59125e-03,-3.88816e-02,4.01149e-02,3.17580e-02,-1.19380e-02,3.20822e-02,5.89347e-02,-7.72306e-04,-2.34255e-02,5.57834e-03,-2.45012e-02,-2.86496e-02,1.35997e-02,2.55345e-02,-1.08076e-02,-1.15809e-02,
3.26705e-03,
9.25144e-03,
-2.13683e-03,
1.62578e-02,
