// Neural Network File Format by Kyle Julian, Stanford 2016
2,6,4,100,
6,100,4,
0,
0
0
0
0
2.30713e-01,1.46360e-01,2.63557e-01,3.87543e-01,4.51835e-01,-1.80674e-01,
-9.65926e-02,-2.24427e-01,-5.23777e-02,-1.25274e-01,3.55389e-02,2.89686e-02,
-1.02887e-01,2.98017e-01,7.65110e-02,3.11288e-01,-1.33995e-01,3.32367e-01,
6.87139e-02,-1.90131e-01,3.85407e-03,-3.11410e-01,2.36522e-01,1.21587e-01,
-1.97438e-01,3.49194e-01,8.24137e-02,-3.31456e-01,2.71098e-01,-2.00206e-01,
-1.43172e-01,-3.53664e-01,2.34294e-01,1.23509e+00,3.97798e-02,7.79370e-02,
1.25011e-02,8.86265e-02,1.46007e+00,-4.38654e-01,8.11687e-02,-4.47884e-02,
2.99994e-01,-7.47574e-02,-6.80758e-02,-3.71032e-01,-3.49339e-01,1.57809e-01,
-2.90916e-02,4.96829e-02,4.97777e-02,3.35403e-01,1.29535e-02,-3.53758e-04,
-3.81246e-01,-1.46297e-01,7.71243e-02,-4.30855e-01,-5.08336e-01,-2.54394e-02,
-3.01490e-02,3.02860e-01,2.52281e-01,-1.77915e-01,-5.44347e-02,-2.25922e-01,
-7.07827e-03,6.60722e-03,6.67982e-01,1.29685e+00,7.45442e-02,6.99777e-02,
-2.45438e-01,-1.31372e-01,1.54878e-01,3.47717e-01,3.96612e-01,-9.28594e-02,
1.45321e-01,-1.94462e-01,-2.73410e-01,-5.73368e-01,-1.95762e-01,6.93914e-02,
2.22292e-01,1.52750e-01,3.09358e-01,-3.59378e-01,-2.77413e-01,1.96762e-01,
-1.09478e-01,3.86588e-01,3.94128e-01,-9.26580e-02,3.83998e-01,-1.53652e-01,
-1.86141e-01,-3.43333e-02,2.31131e-01,-2.97023e-01,3.80548e-01,-5.34365e-01,
-6.04201e-02,1.25504e-01,7.43731e-01,1.50412e+00,5.72494e-02,7.89980e-02,
1.84015e-01,4.97760e-02,-4.04839e-01,5.80696e-01,-3.46409e-01,-2.12120e-01,
-1.09034e-01,-1.03248e-01,-5.34774e-01,-8.77218e-01,-3.58686e-02,-5.42390e-02,
-9.79984e-02,9.09824e-02,-4.08134e-01,8.20616e-02,-8.05301e-03,3.66009e-02,
-2.10699e-01,-2.94301e-01,-3.39272e-01,3.46100e-01,-8.83590e-02,5.30661e-01,
-1.12886e-01,2.09126e-01,-4.26014e-01,1.95912e-01,-1.80484e-01,9.94701e-02,
1.35843e-03,2.10169e-02,-5.00481e-01,1.43528e+00,-6.71585e-02,7.64371e-02,
-1.06855e-01,1.49126e-01,3.68932e-01,-1.33041e+00,7.79664e-03,-3.54086e-02,
-1.52347e-01,-1.05239e-01,-2.00203e-01,-3.15866e-01,3.22865e-01,-7.03483e-01,
2.33930e-01,4.42346e-02,-5.53005e-01,4.03731e-01,4.37437e-01,-3.82946e-01,
1.28187e-01,-2.75587e-01,-2.97622e-02,-4.41545e-01,3.92285e-01,1.84916e-01,
-2.06533e-01,-1.44758e-01,4.33640e-01,-2.70133e-01,-4.60864e-01,3.53379e-01,
-1.75099e-01,1.52311e-01,-7.69452e-01,9.97516e-02,1.16971e-01,5.63892e-02,
4.28303e-03,-2.07420e-02,6.52144e-01,-1.72974e+00,7.78341e-02,-9.67698e-02,
-2.79314e-01,-1.75067e-01,2.05867e-01,4.21941e-01,6.33899e-01,-2.51845e-01,
1.83725e-01,-2.30451e-01,-3.13908e-02,3.01242e-01,-1.65904e-01,1.55495e-01,
1.71749e-01,-9.66232e-02,-9.10256e-01,3.62043e-01,-4.03157e-01,-1.78417e-01,
-6.10291e-02,-1.65414e-02,-5.03182e-01,6.75195e-01,-1.79201e-02,4.01503e-02,
1.07650e-04,-1.34439e-02,-4.64478e-01,-1.48322e+00,-3.09747e-02,-7.17869e-02,
-1.71266e-01,6.09096e-02,7.42022e-01,-3.68819e-01,3.22838e-01,1.54489e-01,
1.79146e-01,-2.71813e-01,2.20256e-01,-1.76565e-01,6.97467e-02,-2.90541e-01,
1.45109e-01,-1.40053e-01,5.81046e-01,-7.72757e-02,6.55319e-01,-2.21424e-01,
2.91627e-01,1.80197e-01,5.84886e-01,3.36444e-01,5.94445e-01,5.10064e-01,
-8.03111e-02,8.96080e-02,-3.17758e-01,7.13468e-02,1.44092e-02,2.58204e-02,
-1.86269e-01,6.91022e-02,5.56391e-01,1.80398e-01,-1.40645e-01,-6.11727e-01,
5.16276e-02,-1.96067e-01,-5.88565e-02,-2.24364e-01,7.45349e-02,-1.78751e-01,
-4.09103e-03,-1.01858e-01,-4.09689e-01,-5.15405e-01,5.46110e-01,9.21135e-01,
-1.89485e-01,2.39136e-02,-1.13067e+00,-6.75688e-01,1.31437e-02,1.10833e-01,
2.02470e-01,1.36630e-01,3.07843e-01,2.32732e-01,-2.67851e-01,1.16034e-01,
-1.00112e-02,6.62733e-02,1.01530e+00,2.75687e-02,4.38364e-02,-1.98275e-02,
1.63597e-01,1.57621e-03,1.04764e+00,6.09199e-01,-6.24911e-03,-1.00850e-01,
6.98826e-02,-4.21800e-02,1.08690e+00,1.05790e+00,1.05500e-01,3.30501e-02,
-3.32417e-01,-2.75151e-01,-6.47977e-01,-4.51234e-01,-6.35483e-01,-1.52018e-02,
-2.43616e-01,2.29176e-01,2.88319e-02,2.66741e-01,3.97961e-01,5.83854e-01,
-1.29925e-01,1.26697e-01,-5.19139e-01,7.07593e-02,-6.02066e-01,1.96235e-01,
1.85254e-01,-2.25948e-01,3.56333e-01,6.20389e-01,1.60493e-01,4.41678e-02,
2.24939e-01,1.23291e-02,-1.35975e-01,3.68476e-02,2.35157e-01,7.62937e-01,
2.62864e-01,2.11832e-01,-8.86349e-01,-9.71211e-01,-1.14248e-02,7.66595e-03,
2.32560e-01,3.22849e-01,3.69505e-01,-3.71585e-01,1.00180e-01,-5.92600e-01,
-1.47593e-01,1.69758e-01,-6.89358e-01,-8.61711e-02,-3.61525e-01,-1.06720e-02,
-2.38147e-01,-1.74109e-01,-1.76438e-01,-1.29056e-01,5.99127e-02,8.52050e-02,
-2.76821e-01,-1.91694e-01,-3.14488e-01,-5.36844e-01,-4.65499e-01,3.37771e-01,
1.97596e-01,3.90449e-02,-2.28607e-01,3.00994e-01,-4.00156e-01,5.61733e-01,
-1.80269e-01,-1.25081e-01,9.72497e-01,7.24910e-01,-4.31358e-03,-7.34816e-03,
2.80662e-01,-3.81496e-01,4.80006e-01,-4.90344e-01,6.46647e-01,7.82329e-02,
1.12922e-01,-2.74817e-01,-1.38698e-01,1.52874e-01,-2.56746e-01,9.46283e-02,
2.71661e-03,-5.08858e-03,2.33652e-01,-1.16912e+00,3.99194e-02,-5.37079e-02,
-6.81098e-02,-3.12956e-01,-6.81987e-01,1.66718e-02,-4.58803e-02,3.41999e-01,
1.61650e-01,-3.83280e-01,-1.64389e-01,2.59973e-01,2.06124e-01,1.21209e-01,
3.06444e-03,-3.29778e-01,-3.37948e-01,-3.49823e-01,9.41342e-02,8.60600e-02,
-2.29334e-01,-9.80363e-02,3.69683e-01,-7.87183e-01,4.33973e-01,2.62347e-01,
-1.92538e-02,3.65068e-02,-4.12715e-01,-1.01081e+00,-6.19259e-02,-5.21437e-02,
2.73229e-01,1.69090e-01,-2.17588e-01,-4.08026e-01,-6.07598e-01,2.29237e-01,
5.89105e-02,1.42636e-01,5.37165e-01,-6.57697e-02,-1.17610e-02,2.59300e-01,
-1.75533e-01,-2.97338e-01,3.78556e-01,3.33478e-01,1.27666e-01,-2.11527e-03,
-6.89321e-02,-1.71968e-01,-5.97317e-01,1.01585e-01,2.44691e-02,-2.33468e-01,
3.70753e-02,-8.51619e-02,8.51942e-01,1.92494e+00,1.04494e-01,9.50362e-02,
-1.09257e-01,8.48337e-02,1.36281e+00,-6.95651e-01,1.09623e-01,7.34584e-04,
2.58095e-02,-5.60032e-02,6.72252e-01,1.46979e+00,5.94476e-02,7.21074e-02,
3.55411e-02,-9.20116e-03,-7.54497e-01,1.34477e+00,-6.95637e-02,7.26936e-02,
-1.64833e-01,1.57391e-01,-6.91305e-02,5.29822e-01,1.64279e-01,-9.22861e-02,
-8.11750e-03,2.54275e-02,6.69744e-01,-1.12089e+00,4.86675e-02,-5.38575e-02,
-1.19123e-01,3.08594e-01,4.36928e-03,5.03947e-01,-3.98123e-01,-1.99887e-01,
1.38983e-01,-8.81848e-02,-6.17255e-01,-2.11358e-01,1.13561e-01,4.96148e-01,
-2.47755e-01,-4.04328e-02,7.71653e-01,-3.25738e-01,-4.73039e-01,3.95110e-01,
2.69211e-01,1.59798e-01,-6.91490e-01,3.19360e-01,5.81683e-01,-4.51724e-01,
1.63793e-03,5.31564e-03,-2.42303e-01,-8.40895e-01,-1.13591e-02,-3.81510e-02,
3.52596e-01,1.05437e-01,-2.53658e-01,3.99882e-01,5.37040e-01,6.10749e-02,
-3.36352e-01,-3.29283e-01,-5.73514e-01,-4.67457e-01,3.84341e-01,-1.84228e-01,
3.49399e-01,-3.25612e-01,-1.22055e-02,-3.78535e-01,-5.68116e-01,-8.29711e-01,
1.60972e-03,6.79990e-02,2.69974e-01,3.36684e-01,-3.55703e-01,-6.05211e-01,
-2.71459e-01,-1.73267e-01,-5.43559e-01,-3.02150e-01,-5.45920e-01,-5.04538e-01,
5.32290e-03,2.84893e-01,3.86337e-01,4.78043e-01,-1.05138e-01,2.63345e-01,
2.35359e-01,3.15708e-02,-7.79964e-01,3.05108e-01,4.48065e-01,-3.71344e-01,
-1.82840e-01,-2.55926e-02,-3.66483e-01,-7.51378e-01,-7.33637e-02,-5.85439e-02,
-1.63867e-01,-1.01715e-01,-3.31648e-01,-2.52871e-01,-3.73397e-01,-1.15565e-01,
1.79548e-01,1.23704e-01,2.32101e-01,3.77531e-01,-3.80842e-01,8.34164e-01,
1.14822e-01,-1.49907e-01,5.29132e-01,4.61097e-01,-8.63324e-02,2.15572e-02,
1.03189e-03,7.26666e-03,-2.37462e-01,-1.16121e+00,-7.51425e-02,-4.28668e-02,
3.76693e-01,-1.93701e-01,2.13836e-02,-1.77398e-01,-2.60581e-01,1.79526e-01,
-2.81920e-01,1.25289e-01,-1.92002e-01,-9.72367e-01,-6.63191e-02,-7.58744e-02,
1.02311e-01,3.82062e-02,-4.37077e-01,-2.36281e-01,-3.15436e-01,4.35305e-02,
4.92347e-02,-2.09458e-01,-2.27084e-01,2.27588e-02,-2.05199e-01,1.38270e-01,
-7.44638e-02,
-1.32491e+00,
-3.64589e-01,
1.26676e-01,
-3.51744e-02,
5.91232e-01,
1.20915e+00,
2.93788e-01,
1.39607e+00,
3.67071e-01,
1.26909e-01,
-1.34293e+00,
1.38811e-02,
-3.17371e-01,
-1.28990e-01,
-3.06856e-01,
5.68656e-02,
7.67584e-01,
-4.18336e-01,
-3.34051e-01,
-1.09121e+00,
6.67944e-02,
1.74527e-01,
1.13682e+00,
-6.63423e-01,
3.74418e-02,
-1.68746e-01,
2.49898e-01,
-1.36685e-01,
1.90429e-01,
5.14218e-01,
-1.90515e-01,
8.61476e-03,
-3.44204e-01,
-5.06536e-01,
-2.90673e+00,
3.34171e-01,
9.33898e-02,
6.99802e-02,
-1.74860e-01,
1.15842e+00,
3.06185e-01,
-5.83512e-01,
-2.93161e-01,
-3.23691e-01,
-4.91902e-02,
-6.16977e-01,
2.67937e-01,
6.83650e-01,
7.85708e-02,
3.04635e-01,
-7.23953e-02,
2.20612e-01,
-2.34786e-01,
-6.24825e-01,
-7.08031e-02,
1.13829e-01,
-3.75500e-01,
-1.09299e-01,
-7.43098e-02,
4.10398e-01,
-1.41702e-02,
1.36148e-01,
-2.48372e+00,
-5.33103e-02,
1.88995e-01,
3.46690e-01,
5.23420e-01,
2.13421e+00,
1.80904e-01,
1.95290e-01,
4.78294e-01,
-1.09928e-01,
-2.74617e-01,
-5.62808e-01,
1.42215e+00,
-1.17594e+00,
2.82715e-01,
2.72105e+00,
-2.17729e-01,
-2.58436e-01,
7.41536e-02,
1.68608e-01,
-2.30953e+00,
-1.82812e-01,
-1.40483e-01,
-4.43987e-01,
1.91934e-01,
1.62462e-01,
-1.24189e-01,
-8.34279e-02,
-1.32537e-01,
6.71625e-02,
-4.04444e-02,
-1.05622e-01,
-4.08353e+00,
1.34308e-01,
4.03536e-02,
2.01090e-01,
1.13862e-01,
-7.72920e-02,-1.01075e-01,1.70306e-01,5.29835e-02,-9.96874e-02,-8.38495e-03,-1.59801e-01,-8.11499e-02,-4.29713e-01,4.17890e-02,9.58944e-02,-7.84898e-01,6.82243e-03,1.26854e-01,2.46341e-02,9.06922e-02,1.37894e-02,2.77183e-01,2.31134e-02,1.36389e-01,-4.99981e-03,7.51439e-03,-1.79810e-02,-8.14760e-01,-9.71536e-02,2.82296e-02,5.03851e-02,2.35631e-02,-2.61743e-01,7.58646e-02,-2.12837e-01,-1.09246e-02,4.99697e-03,1.14765e-01,4.60113e-01,1.25578e+00,-1.57256e-01,-9.98133e-02,-7.27820e-02,-9.63171e-02,-1.02222e-01,-8.65982e-02,8.68702e-02,1.01263e-01,2.38658e-04,9.73645e-03,-2.34160e-01,-7.16174e-03,-7.61392e-02,4.48203e-02,6.55541e-02,8.10837e-02,-8.60047e-02,-3.89429e-03,-4.78517e-02,-5.14014e-03,1.32902e-01,3.38360e-02,6.50394e-02,-7.16963e-02,1.22199e-01,-1.08781e-01,-1.16336e-02,-1.78769e+00,-5.86166e-02,1.77359e-02,-7.75499e-02,-2.78239e-02,-8.91790e-01,1.87763e-02,-1.05765e-02,-6.04000e-02,-4.83063e-02,-3.86871e-02,8.06914e-02,6.23170e-01,8.85778e-01,-1.73396e-01,1.07937e+00,6.69734e-02,8.94426e-02,-1.25683e-01,2.37403e-01,-9.92426e-03,-7.04706e-02,2.88091e-02,-7.24027e-02,-1.37849e-01,1.08218e-01,-1.17426e-01,1.92756e-02,-1.58402e-01,1.47018e-02,2.36539e-02,7.71450e-02,-9.46090e-01,6.72267e-02,8.38421e-02,2.73732e-02,-5.63817e-03,
-1.30570e-01,5.02584e-03,-1.01274e-01,-2.80416e-02,1.20494e-01,-1.06740e-01,-1.19055e-01,2.09251e-02,-5.99484e-01,-7.10212e-02,-1.02807e-01,3.80502e-01,4.85300e-02,-2.31978e-02,-6.91883e-02,-9.46411e-02,9.78675e-02,3.89946e-01,3.27164e-01,1.68588e-01,2.87588e-01,5.06534e-02,1.20444e-01,-7.95134e-01,-1.41690e-01,-7.87229e-03,1.38560e-01,3.60490e-02,-6.93368e-02,6.57153e-02,-4.59605e-01,-9.27429e-02,-1.16539e-01,1.31886e-01,-1.48321e-01,-5.97497e-01,-2.56506e-01,2.15281e-02,-1.27030e-01,-1.46145e-01,3.56294e-01,-1.17529e-01,-1.01540e-01,3.53911e-02,3.80858e-01,-1.36995e-01,-6.51374e-02,-4.55953e-01,-1.72073e-01,9.73335e-02,-2.57273e-02,1.80485e-01,-9.39450e-02,8.88493e-02,1.80526e-01,-1.53074e-02,-3.28044e-03,-4.13394e-02,-6.41494e-03,2.01032e-02,-2.37781e-01,-2.66668e-02,1.08012e-01,1.07080e+00,7.19125e-02,8.84993e-02,-3.16113e-02,-1.72360e-01,-5.92531e-01,1.50209e-01,-5.97099e-02,-2.04965e-03,1.41035e-01,5.65945e-01,1.82993e-01,6.33358e-01,-4.96871e-01,-2.34023e-02,9.74403e-01,-4.51865e-02,6.81213e-02,-1.09433e-01,9.20506e-02,-1.31551e+00,1.28586e-01,6.01846e-02,1.20196e-02,-5.55721e-02,6.81692e-02,7.69888e-02,-5.86663e-02,-8.13100e-02,-1.58140e-02,-6.29765e-02,-9.16801e-02,-1.34334e+00,-3.92958e-02,4.81550e-02,-1.66239e-01,-6.02748e-02,
9.65612e-02,-3.05809e-03,1.53915e-04,2.33725e-01,8.73621e-02,-9.25192e-05,-1.58506e-03,1.13087e-03,8.22612e-02,-4.35357e-02,-5.30427e-03,-4.85010e-03,4.15901e-02,-2.75097e-03,-1.23866e-02,6.59709e-02,3.79169e-02,-4.26384e-03,-5.15391e-02,5.42011e-03,-1.66096e-03,-3.88896e-03,-5.11336e-03,6.07271e-03,-5.05517e-03,1.85823e-01,3.76639e-02,8.41559e-02,-1.14069e-01,5.68573e-03,-6.74885e-04,2.16473e-01,-6.84832e-02,-5.74409e-02,2.22498e-03,-5.92705e-03,7.72883e-02,-1.59748e-03,1.76468e-01,1.64058e-01,-1.63089e-02,-2.80001e-02,-4.34960e-04,1.29672e-01,3.83515e-02,-1.33253e-02,1.64188e-03,-4.24438e-02,3.83464e-03,-1.18231e-03,2.22878e-01,-1.94043e-01,6.92228e-03,5.63102e-03,3.96190e-04,3.02499e-03,-6.80437e-03,9.43416e-03,-3.10077e-02,-3.41109e-02,-4.74566e-03,5.91298e-03,-9.86601e-02,5.59370e-04,-3.93903e-03,-6.35980e-03,2.10848e-02,3.32568e-02,1.00702e-02,-2.49935e-01,-3.27831e-03,2.38160e-03,1.29931e-03,2.16427e-04,-7.03593e-04,5.44608e-03,-9.14695e-04,-1.58796e-03,2.88899e-03,-2.25374e-01,2.52455e-02,-2.26393e-01,1.02041e-01,-5.63997e-03,2.43166e-02,4.93861e-03,-1.55773e-01,-1.98259e-01,-1.36422e-01,-1.07061e-02,1.71744e-01,-9.88738e-03,-9.22776e-02,-1.53952e-01,-6.22307e-03,1.27180e-03,5.32274e-03,3.53490e-03,6.13973e-03,-6.02639e-02,
-2.03617e-02,-5.31127e-03,3.69586e-03,1.23035e-01,-7.03318e-02,2.25343e-03,-9.64201e-04,4.81931e-04,1.63480e-02,6.37286e-03,2.50735e-03,-1.19642e-03,-1.30689e-02,-7.23556e-03,4.20605e-03,-2.50561e-02,-1.85412e-01,-2.52694e-04,-3.75544e-02,5.81024e-03,4.09142e-05,1.71898e-01,-1.81633e-03,9.55355e-04,2.90452e-03,-2.52155e-01,-1.28848e-02,5.03240e-03,3.98220e-02,2.69615e-03,2.08221e-03,-6.77469e-02,6.10418e-02,-4.85941e-02,1.71984e-03,4.81603e-05,5.97735e-02,-4.79985e-03,-7.55793e-02,1.39635e-01,-2.63959e-03,-3.87166e-02,-4.84165e-03,2.46739e-01,3.21955e-02,2.63195e-03,2.03915e-03,-3.63473e-02,6.99108e-03,7.04106e-03,2.36167e-01,8.44802e-02,-6.75874e-03,1.10011e-02,-2.41685e-03,-1.56380e-01,3.46170e-03,1.01661e-03,7.98897e-03,1.78863e-01,5.05022e-03,1.84011e-03,6.42945e-02,3.30116e-03,4.26426e-03,2.35206e-03,-1.52509e-03,2.20756e-02,2.11044e-03,7.61776e-02,6.03969e-02,-1.93834e-03,-5.28202e-02,-2.96758e-03,-1.08734e-03,-5.65203e-03,-2.75882e-03,7.08612e-03,4.52463e-03,-8.16670e-02,3.97166e-02,1.22070e-01,-3.63057e-02,-7.53166e-03,-3.70160e-03,-1.94241e-03,-1.64577e-01,-3.79057e-01,-1.42622e-01,-7.02644e-04,-1.06960e-01,-9.26167e-03,-2.27784e-02,2.09478e-01,-5.64898e-03,5.82469e-03,-5.23716e-03,9.19121e-04,3.13581e-03,2.10782e-02,
-2.74367e-02,
-3.38326e-01,
-1.54686e-01,
-6.40095e-02,
