// Neural Network File Format by Kyle Julian, Stanford 2016
3,6,4,100,
6,100,100,4,
0,
0
0
0
0
-9.51618e-03,4.42609e-03,2.45173e-01,-7.33393e-01,-2.78781e-04,1.40541e-03,
-1.63286e-03,-5.13211e-02,-1.47072e-01,5.80358e-01,2.55473e-02,1.37633e-01,
1.27987e-01,-1.90490e-01,2.45968e-03,8.86899e-02,-3.11779e-01,-2.24729e-01,
-7.83969e-02,2.20159e-01,1.20272e-01,6.30317e-01,2.89569e-01,2.97522e-03,
1.49261e-01,2.76005e-01,1.60266e-01,1.64359e-01,-6.74799e-02,-1.60798e-01,
2.00749e-01,2.76086e-01,-3.07890e-01,-1.86690e-01,2.47532e-01,2.47630e-01,
-2.91284e-03,-1.87356e-03,1.19734e-01,-7.92121e-02,1.31455e-02,2.85687e-01,
-1.26902e-01,-1.10807e-01,-1.81595e-01,3.07702e-01,2.03603e-01,5.92587e-01,
1.50856e-01,-2.70123e-01,6.46733e-01,6.92785e-02,1.81285e-01,3.63141e-01,
-2.53266e-02,1.56337e-01,-2.32079e-01,3.52837e-01,-3.28016e-02,5.01275e-02,
-5.21830e-03,3.33339e-03,2.66457e-01,2.96470e-02,-1.44714e-01,-1.27721e-01,
-9.74283e-02,-3.47198e-02,1.37547e-01,-6.14484e-01,-1.71962e-02,-6.31194e-02,
1.41357e-01,1.26375e-01,2.09210e-01,-3.48706e-01,-2.31849e-01,-6.72933e-01,
-2.95138e-02,-1.62658e-02,-1.94969e-01,-1.00971e-01,4.42247e-02,-3.46638e-01,
8.74327e-02,-2.64680e-01,-3.03627e-01,3.84586e-01,-3.32404e-01,3.48322e-01,
9.87508e-02,-3.59577e-02,2.02920e-02,-7.12117e-01,5.51112e-02,2.31556e-01,
-1.53903e-01,2.75401e-01,-6.56801e-01,-6.75261e-02,-1.84347e-01,-3.71351e-01,
1.20676e-01,7.70875e-02,2.40206e-01,-2.73817e-01,-4.91629e-03,1.60752e-01,
-1.35960e-01,-9.24950e-02,-4.17132e-01,-4.87193e-01,8.66660e-03,1.41681e-02,
1.52175e-01,-1.78200e-01,1.24709e-01,-2.76932e-01,-1.17187e-01,-9.06199e-02,
1.31144e-01,-2.37344e-01,3.99682e-01,-3.44574e-01,1.44555e-01,1.80058e-01,
-3.03989e-03,1.70133e-03,1.30139e-01,5.19877e-01,-3.54517e-02,-4.21436e-01,
4.42008e-02,-2.16894e-02,-6.82633e-04,-4.59141e-01,3.08688e-01,-1.50339e-01,
2.50338e-01,3.67442e-02,-3.77866e-01,6.87957e-01,-2.36500e-02,-1.28638e-01,
-1.84443e-01,-9.74003e-02,-4.50862e-01,-6.28012e-01,-8.13116e-02,-4.13500e-01,
-1.51417e-01,1.69602e-01,-4.67961e-01,8.97310e-01,5.17566e-01,2.00426e-01,
5.13272e-02,-4.62036e-02,4.85937e-01,-4.43461e-01,6.39987e-01,-2.74464e-01,
-3.08760e-01,-1.57137e-02,5.95390e-01,-1.30267e-01,-2.44553e-01,-3.71609e-01,
2.38197e-01,-3.34667e-01,-6.37829e-01,-3.18085e-01,4.80603e-01,-4.39640e-01,
-3.66723e-02,6.75086e-02,-3.40270e-01,8.72839e-01,-1.77714e-03,-1.15378e-02,
-1.04081e-01,1.99934e-01,1.88681e-01,-2.84162e-01,2.50546e-01,9.09047e-02,
-8.07065e-02,1.32727e-01,3.15030e-01,-1.23789e-01,-1.67507e-01,1.81417e-01,
-1.89996e-01,-3.38458e-02,6.17368e-01,5.18014e-01,8.22667e-02,1.11661e-01,
-3.45398e-03,-3.43685e-02,5.97994e-02,2.50821e-01,-7.92338e-02,1.65293e-01,
6.45692e-02,-4.87511e-03,1.72410e-02,-6.61471e-01,-2.32825e-02,3.01484e-01,
6.78867e-02,-2.41499e-02,-3.91754e-01,-8.55156e-01,2.90495e-03,-4.64965e-02,
-1.73361e-02,3.62997e-02,-1.34399e-01,-1.56892e-01,-8.18477e-02,-5.11748e-01,
3.22926e-03,1.02321e-03,-3.09819e-01,-8.22067e-01,-6.12858e-04,4.04278e-03,
-4.35213e-02,3.92840e-02,-4.12125e-01,3.76843e-01,-5.42750e-01,2.33744e-01,
3.51175e-02,-7.91881e-02,-3.19261e-01,7.28910e-01,5.25187e-02,-2.83562e-02,
-5.52861e-03,5.07910e-02,-2.95648e-01,-5.44378e-01,-7.24536e-02,-3.09944e-01,
-2.22432e-02,-2.67164e-02,-3.87314e-01,-9.11586e-01,-1.49136e-02,-3.49803e-02,
-2.06791e-01,2.60362e-01,-5.42688e-02,1.34312e-01,1.00789e-01,1.32581e-01,
-2.46748e-01,3.46257e-01,6.57879e-01,3.30435e-01,-4.96003e-01,4.54389e-01,
-2.18555e-01,-3.34730e-01,-3.09426e-01,6.10378e-01,7.48823e-02,2.20028e-01,
1.29327e-01,-1.44785e-01,3.98748e-01,-7.66611e-01,-4.42439e-01,-1.71266e-01,
-1.74809e-01,2.61680e-01,-3.12936e-03,-1.18602e-01,4.26685e-01,3.05326e-01,
1.84092e-01,1.32700e-01,2.47124e-01,1.52622e-02,-2.19604e-01,-6.89096e-01,
-1.68216e-01,2.16872e-01,2.69151e-02,6.08104e-03,1.90600e-02,1.56489e-01,
-7.93699e-02,2.39693e-01,2.76228e-01,-3.48286e-01,3.01656e-01,-3.15820e-01,
-1.24611e-01,-7.53678e-02,6.80599e-01,8.28289e-01,-1.44866e-03,3.45223e-01,
1.34410e-02,-1.35712e-01,2.89231e-01,-6.38185e-01,-3.10328e-01,-1.84725e-01,
-1.67674e-01,-2.74064e-01,-1.87588e-01,-1.86494e-01,7.14915e-02,1.87705e-01,
8.26397e-03,3.91089e-03,1.00394e+00,8.86519e-01,2.92394e-03,1.50464e-02,
1.53271e-01,-1.26378e-02,1.27873e-01,9.85008e-01,-1.03892e-01,-1.18471e-01,
4.68154e-02,-8.08394e-03,9.83361e-02,-3.41543e-01,-3.75833e-02,-2.10371e-01,
6.45362e-02,-1.68589e-01,2.46023e-01,7.11063e-01,1.07520e-01,-4.73702e-01,
-1.35328e-01,-9.72034e-02,-1.89460e-01,-1.35935e-02,1.60328e-01,5.10235e-01,
1.52696e-01,-2.80950e-01,-2.76122e-01,4.08319e-01,-3.51489e-01,-1.53309e-01,
-2.64554e-03,-2.46992e-04,1.95283e-01,-1.75208e-01,1.94748e-02,1.69711e-01,
2.81685e-01,2.67226e-01,-3.73879e-01,3.56093e-01,-4.05074e-01,3.55977e-01,
-6.76845e-02,1.10779e-02,5.01382e-03,6.03751e-01,1.30118e-02,-2.50859e-01,
-6.28169e-02,7.89260e-02,-2.53664e-01,3.40117e-01,-1.09560e-01,-3.61826e-01,
-4.81559e-03,5.10538e-03,-3.95908e-01,9.93517e-01,1.65335e-04,-3.65503e-03,
9.70937e-02,-1.96857e-01,5.44550e-02,1.17917e-01,1.86194e-01,1.77048e-01,
1.55845e-02,-3.12536e-02,1.17682e-01,1.42243e-01,7.19829e-02,4.49659e-01,
2.95052e-01,1.44812e-02,-5.72239e-01,1.24441e-01,2.34610e-01,3.56097e-01,
-1.57971e-01,1.26662e-02,-1.23715e-01,-1.01507e+00,1.09736e-01,1.25796e-01,
2.40955e-03,-2.18155e-02,1.69844e-01,1.33391e-01,8.38225e-02,9.91867e-02,
1.32927e-01,3.02116e-01,4.50911e-01,3.37672e-02,2.92328e-01,-3.80316e-01,
1.15116e-02,2.28374e-02,-3.85282e-01,-1.26226e-01,4.06613e-02,2.60917e-02,
3.77409e-02,-1.91607e-02,-7.14674e-01,-1.13552e-01,1.37186e-02,7.22864e-02,
-3.49823e-03,3.49764e-03,7.23797e-02,-1.62105e-03,-6.76577e-02,4.00509e-01,
-5.14204e-02,5.27023e-02,-1.86381e-01,1.96597e-01,-3.24217e-02,-3.37210e-01,
1.09103e-01,3.91726e-02,-4.12843e-01,-5.31438e-01,1.80409e-03,-2.30354e-01,
-2.27764e-01,-2.95825e-01,-2.52828e-01,-9.90615e-02,-2.01350e-01,1.38025e-01,
1.22103e-01,-1.56719e-01,2.09149e-01,-5.08447e-01,3.92767e-03,-4.61248e-02,
4.39721e-03,-5.19866e-02,-2.52510e-01,-1.02143e-01,1.59757e-02,6.17089e-02,
7.86109e-02,-2.19946e-01,-1.23860e-01,-6.27832e-01,-2.87775e-01,-2.53889e-03,
-1.24025e-01,2.28642e-01,2.30272e-01,-3.36074e-01,2.82013e-01,1.39741e-01,
-1.21765e-01,-2.73991e-01,-4.12319e-01,-3.42702e-02,-2.63995e-01,3.46577e-01,
-8.57900e-03,1.31098e-02,2.02248e-01,-8.88319e-01,-1.97632e-04,-8.80211e-03,
-2.14863e-01,3.87448e-01,-1.45001e-01,2.51186e-01,-2.07547e-01,-1.47868e-01,
-3.05878e-01,-4.19345e-02,5.04317e-01,-8.62641e-01,3.12005e-02,1.44413e-01,
-3.04591e-02,-4.75743e-03,4.31105e-01,1.01470e+00,-2.21038e-03,-1.06687e-02,
9.65250e-02,-3.36888e-02,-7.78555e-02,-3.35024e-01,7.35611e-02,2.30816e-01,
1.75513e-01,9.09966e-02,4.23245e-01,5.95954e-01,7.82092e-02,3.90847e-01,
1.19005e-03,-2.03111e-02,8.83308e-02,-4.03405e-01,6.76272e-02,6.27450e-01,
-1.55317e-02,-3.13417e-04,-1.56795e-01,7.68903e-02,6.22815e-02,-3.11950e-01,
-6.99983e-02,1.83929e-01,-2.69568e-01,-7.77774e-01,-1.16731e-01,5.15293e-01,
-2.82773e-01,-2.68670e-01,3.77016e-01,-3.57624e-01,4.06366e-01,-3.57333e-01,
-1.27493e-01,-1.07045e-01,5.02377e-01,1.00294e+00,-1.92207e-02,-2.13608e-02,
-1.14887e-01,2.34079e-01,-6.70842e-02,-1.43442e-01,-2.22821e-01,-2.10716e-01,
2.17906e-01,3.34168e-01,3.10675e-01,-6.07598e-01,-7.31015e-02,-2.17882e-01,
8.11112e-04,1.06225e-02,3.63233e-01,-8.51091e-01,-2.33174e-03,-1.09500e-05,
-1.25444e-02,2.26820e-02,1.72801e-01,-1.16804e+00,-1.13455e-03,-9.43343e-03,
8.39764e-02,3.29509e-02,-4.71798e-01,-5.63190e-01,1.04703e-02,1.06612e-01,
1.06194e-01,8.86807e-02,-4.13851e-01,-8.31078e-01,1.44399e-02,1.44855e-02,
1.38023e-01,3.46629e-02,4.44672e-02,4.73548e-01,2.74124e-02,2.60295e-02,
-1.99301e-01,-2.77414e-01,3.06316e-01,1.88744e-01,-2.49110e-01,-2.47112e-01,
-9.81035e-01,
-6.83407e-01,
-6.05280e-01,
9.55297e-01,
1.02175e+00,
-5.63263e-01,
1.34450e+00,
2.51607e-01,
-3.46921e-01,
2.55265e-03,
1.45770e+00,
-1.23918e+00,
-2.83760e-01,
1.32408e+00,
1.74965e-01,
8.10747e-01,
3.52244e-01,
-3.10372e-01,
-1.12956e+00,
-2.82489e-01,
-3.91657e-01,
1.41209e+00,
-8.19326e-01,
1.65882e-01,
6.79224e-01,
-3.24134e-01,
1.27074e-03,
2.03533e-01,
-4.50309e-01,
-1.15308e+00,
-7.32947e-01,
5.44850e-01,
-1.10607e+00,
8.88462e-01,
7.43458e-01,
-6.14899e-01,
-8.13770e-01,
-4.93251e-01,
-1.70549e-03,
5.01159e-01,
-2.63117e-01,
-9.33357e-01,
-3.80768e-01,
4.64991e-01,
7.51079e-01,
2.76867e-01,
8.31994e-01,
6.53274e-01,
-8.06262e-01,
-1.62107e-01,
-1.13624e+00,
-8.52893e-01,
-1.01621e+00,
-3.60219e-01,
-6.09653e-01,
1.24671e+00,
7.40146e-01,
-4.83190e-01,
9.42141e-01,
1.22607e+00,
-7.57020e-01,
-6.86141e-01,
-3.13849e-01,
-8.54499e-01,
-2.92981e-01,
7.11519e-01,
-1.94253e-01,
6.27164e-01,
1.28258e+00,
7.67010e-01,
1.35509e+00,
3.08644e-01,
1.55667e+00,
1.23632e+00,
7.55544e-01,
3.08608e-01,
9.31571e-01,
1.60263e+00,
-9.49069e-01,
-6.97837e-01,
-6.96538e-01,
-2.00103e-01,
3.74915e-01,
-2.04152e-01,
-6.55496e-01,
-1.98446e-01,
-6.42261e-01,
1.16263e+00,
1.65364e+00,
-8.10434e-01,
7.59991e-01,
-7.28409e-01,
3.44034e-01,
-7.52226e-01,
-7.95916e-01,
-1.27448e+00,
2.29891e-02,
6.05221e-01,
9.13347e-01,
5.63169e-01,
2.50272e-01,-3.40462e-01,-1.77016e-01,-1.13726e-01,-3.05192e-01,9.05911e-02,-2.53364e-01,-7.46643e-02,-1.12120e-01,-1.24358e-01,-4.77583e-01,1.91015e-01,1.90084e-01,-1.53193e-01,-1.83828e-01,-9.91345e-02,-5.60702e-02,1.13383e-01,1.54374e-01,5.44334e-03,2.82746e-01,-6.76057e-01,2.24460e-01,-2.31221e-01,-1.65143e-01,-1.44989e-01,6.94463e-02,-7.09903e-02,1.05246e-01,5.34956e-02,1.21874e-03,-6.30375e-02,-1.18733e-01,-1.86764e-01,-1.25807e-01,2.60210e-01,5.75699e-02,9.42118e-02,-1.46714e-01,-2.17116e-01,1.29632e-01,3.69156e-01,-1.00704e-01,-1.40583e-01,-9.49431e-02,2.72539e-02,-1.20261e-01,-1.88368e-01,2.19015e-02,-1.07954e-02,-1.32998e-01,2.14521e-01,1.76738e-01,2.87125e-02,6.38958e-02,-1.51340e-01,-2.43839e-01,1.98892e-01,-2.17538e-01,-1.36707e-01,9.38591e-02,-2.24551e-01,-1.30223e-01,-2.09864e-01,3.74241e-02,-2.97997e-01,-1.04767e-01,-2.62080e-02,-1.93140e-01,-7.99276e-02,-2.20204e-01,-1.08168e-01,-1.47630e-01,-1.36145e-01,-6.24010e-02,-2.07096e-01,7.11419e-02,-3.95400e-01,1.73662e-01,1.47876e-01,1.89171e-01,-1.43190e-02,-1.23076e-01,1.22982e-01,-1.43163e-02,7.49489e-02,2.67832e-02,-4.53908e-01,-4.62687e-01,1.45491e-01,-9.55733e-02,-1.55362e-01,5.26905e-02,2.08680e-01,5.03525e-01,4.09233e-01,2.77897e-01,-1.17065e-01,-1.59282e-01,-5.89249e-02,
3.39471e-02,-4.41633e-02,-2.15518e-02,1.12895e-01,1.54931e-02,7.15339e-02,7.40865e-02,7.56247e-02,1.03885e-01,7.36647e-02,-1.06993e-01,1.02403e-02,5.16748e-02,5.45782e-02,-6.64531e-02,-3.70099e-02,-3.77902e-03,-7.90997e-04,3.36257e-02,6.16525e-02,9.90164e-03,-3.56632e-02,8.67304e-02,3.80170e-02,-9.96645e-02,1.89900e-01,1.45349e-01,-6.86056e-02,9.57864e-02,4.07625e-02,8.92930e-02,8.85522e-02,1.71025e-02,-2.71345e-02,-1.07574e-02,-7.78224e-02,-3.18955e-02,3.33644e-02,-1.28367e-01,6.07806e-03,6.26791e-02,6.86567e-03,-1.58913e-02,-3.69654e-02,1.28354e-02,-8.65618e-02,1.07253e-01,-3.88854e-02,7.01802e-03,1.78924e-02,2.32272e-03,-5.37374e-02,8.42915e-02,1.22637e-01,-9.48040e-02,1.08658e-01,2.82436e-02,3.45868e-02,9.88980e-02,1.25567e-01,-1.20408e-01,1.92903e-02,1.42042e-01,2.20546e-02,3.24742e-02,7.73357e-02,1.64012e-01,1.12837e-01,2.81598e-02,1.28719e-02,-1.26671e-02,7.64544e-02,3.42296e-02,7.50342e-02,-1.66249e-02,1.67509e-02,3.13344e-02,6.33871e-02,-3.78682e-03,-5.54068e-02,-3.02838e-02,-5.46333e-02,-2.08970e-02,3.72809e-02,-9.38359e-02,4.45503e-02,1.42591e-01,8.27562e-03,-6.74374e-02,3.56078e-02,1.01816e-01,5.58033e-02,2.83424e-03,-8.04826e-02,8.14109e-02,5.50205e-02,1.09483e-01,-4.90270e-02,5.68089e-02,-6.71583e-02,
-4.91326e-03,1.31091e-02,2.73116e-03,-8.46468e-02,-5.50785e-02,3.15532e-02,4.94226e-02,-3.74708e-02,-4.95912e-02,-4.35177e-02,2.85454e-02,1.23121e-01,-3.37625e-02,-1.38033e-01,-7.14079e-02,7.20280e-03,4.70009e-02,-1.73908e-03,4.59222e-02,2.63420e-02,-5.63717e-02,8.05226e-02,-7.54002e-02,-8.03658e-02,-2.24389e-03,7.50356e-02,5.18641e-02,4.38517e-02,-4.25062e-02,-1.30041e-02,1.94972e-02,2.17018e-02,-1.28820e-01,7.62837e-02,-9.74085e-02,-1.72308e-02,-8.01423e-02,-9.18377e-02,-8.77045e-02,-8.51508e-02,-1.04294e-01,-1.51481e-02,-7.74707e-02,-9.77905e-02,-4.84645e-02,6.78397e-03,1.47597e-02,6.34136e-02,-7.38413e-02,-5.64052e-02,-5.96035e-02,5.01493e-02,4.70926e-02,6.96221e-02,-1.40284e-02,-6.25350e-02,-8.62693e-02,7.31293e-02,-2.94524e-02,1.40562e-02,7.21054e-04,-4.37939e-02,-9.44281e-02,6.59206e-02,-5.22586e-02,-9.27482e-02,5.13112e-02,-7.57284e-03,-4.89759e-02,-5.68402e-02,-9.12240e-02,8.69592e-03,-1.41709e-02,1.31215e-02,-7.83707e-02,-8.06450e-02,2.18724e-02,6.23718e-02,4.06947e-02,8.77984e-03,-1.01398e-01,4.31268e-02,-6.13264e-03,-3.69629e-02,-2.45246e-02,-5.28266e-02,3.87052e-02,-1.09231e-01,2.24618e-02,-5.29824e-02,-4.02515e-02,6.17204e-02,9.12796e-02,5.50106e-02,3.07669e-02,1.00866e-02,-1.76135e-02,-4.12512e-03,-6.55863e-02,-4.21791e-02,
-5.33755e-03,-6.70142e-02,8.24094e-02,-1.21551e-02,1.16618e-01,-7.73714e-02,3.44568e-02,8.53179e-02,7.63210e-02,7.71177e-02,7.51874e-02,1.66622e-01,-5.70061e-02,9.43857e-02,1.45172e-02,6.04328e-02,4.79139e-02,-3.21757e-02,1.53425e-01,-8.35948e-02,-7.28020e-02,-5.59643e-02,-2.71187e-02,4.99067e-02,-1.25036e-02,2.15941e-03,-1.26526e-01,-1.32805e-04,-4.98368e-02,-1.47995e-01,-5.66030e-02,-8.22266e-02,1.00436e-03,9.15770e-02,1.87251e-02,-4.55292e-02,3.79513e-02,1.31053e-01,8.07040e-02,1.08022e-01,-3.41490e-03,1.12286e-01,-6.31291e-02,3.67336e-02,1.19199e-01,3.05511e-02,3.52259e-02,-6.59690e-03,-1.42509e-01,-2.61135e-02,-5.99519e-02,-1.41967e-01,-1.30841e-02,8.91573e-02,-4.14157e-03,-5.79790e-02,1.34557e-01,1.94275e-01,5.06269e-02,-4.67322e-02,8.05426e-02,2.37596e-02,3.87772e-02,-2.24464e-01,-1.81117e-01,1.12262e-01,-1.33387e-01,-7.32210e-02,8.79325e-02,2.11577e-03,5.21387e-02,4.24003e-02,6.40099e-02,3.84173e-02,-1.52825e-02,4.63623e-03,1.23402e-01,1.11090e-01,-1.00192e-01,1.75354e-02,-9.81290e-02,4.97731e-02,4.53283e-02,6.61812e-03,6.21506e-02,4.39414e-03,-6.73576e-02,1.78887e-01,6.86786e-02,1.04910e-01,-1.74987e-01,7.89428e-02,8.07311e-02,4.62896e-03,1.77810e-01,1.57836e-01,3.70634e-02,7.75233e-02,-4.62483e-02,-1.30188e-02,
1.01845e-02,-3.30470e-02,3.86202e-03,6.97757e-02,7.80092e-02,-6.30223e-02,2.82511e-02,2.46918e-02,-7.90965e-02,-5.78015e-03,6.02787e-02,-3.66469e-01,-5.93558e-02,6.65855e-02,1.70737e-02,6.50840e-02,1.65194e-01,6.91052e-03,-9.84462e-02,-4.93516e-02,-1.05251e-01,-2.52873e-02,-6.46848e-02,4.60879e-02,1.05538e-01,8.06116e-02,-2.49838e-02,-4.64140e-02,-2.44039e-02,2.01962e-01,-3.25052e-02,1.67682e-02,-9.42886e-02,5.06408e-02,9.34658e-03,-4.34830e-04,-3.93799e-02,-2.85230e-01,8.70703e-02,2.70333e-02,-1.36724e-01,-2.44471e-01,8.94647e-03,2.80504e-02,3.39085e-02,-1.88695e-02,5.25360e-02,-5.74243e-02,1.68158e-03,-3.69981e-02,1.23727e-03,-3.92073e-02,-7.85098e-02,1.34712e-01,-1.65745e-01,1.75249e-01,9.08340e-02,1.35331e-01,8.52098e-02,-5.11760e-02,-1.83466e-02,1.28351e-01,-3.75759e-02,-8.76860e-01,-7.23393e-02,1.34847e-01,8.15881e-02,5.27219e-02,5.86564e-02,-2.24839e-02,3.63815e-01,9.75699e-04,1.19816e-01,4.16329e-02,5.64924e-02,4.32496e-02,-8.49955e-02,2.34402e-01,-9.41029e-02,-9.16680e-02,8.35564e-03,-2.80912e-01,5.33669e-02,-5.24082e-02,1.64956e-01,-1.81786e-02,-4.91549e-02,-1.01139e-01,1.36533e-01,-1.27893e-01,3.97682e-02,-1.41406e-01,-2.96956e-02,-3.29334e-02,-1.09827e+00,-1.04486e+00,6.24723e-02,1.20485e-01,1.46276e-01,5.91920e-02,
1.68405e-01,-8.00103e-02,2.59320e-02,2.27701e-02,9.21510e-02,-1.01328e-01,-1.11334e-01,-1.12686e-01,-7.52775e-02,-4.15511e-02,1.14998e-01,-4.45225e-02,1.24508e-01,1.17176e-01,7.15300e-03,1.09244e-01,8.10057e-02,3.59595e-02,-1.01681e-01,-1.97557e-02,-3.54709e-02,2.32579e-01,6.07314e-02,7.28552e-02,4.82057e-02,3.67239e-02,6.15228e-02,5.33064e-02,1.07000e-01,1.09122e-01,-6.61133e-02,5.85094e-02,-6.00225e-02,-4.25826e-02,-9.13715e-02,-1.46989e-02,8.58066e-02,-5.86538e-02,4.13255e-02,7.26168e-02,9.36439e-02,3.44165e-02,4.67415e-02,-5.29839e-02,-2.20002e-02,4.33484e-02,4.73836e-02,8.62832e-02,2.15757e-03,2.61193e-03,-1.00389e-02,5.48809e-02,5.47208e-02,6.69422e-03,8.07733e-02,6.07116e-03,8.37365e-02,-1.66162e-02,-6.22535e-02,-8.40231e-02,-6.24058e-02,-5.61620e-02,1.81696e-01,1.76887e-01,-3.13710e-02,-4.57219e-02,-1.77292e-01,-6.01257e-02,-5.82128e-02,2.75891e-02,1.48381e-01,-4.29221e-02,3.64023e-02,8.35241e-02,3.24087e-02,1.25352e-01,1.00469e-01,9.28876e-02,2.18074e-02,2.70159e-02,-1.20616e-02,9.32127e-03,3.03101e-02,6.05681e-03,-5.86317e-02,1.17534e-01,6.63458e-02,-2.92174e-02,1.33445e-01,-3.41386e-02,-4.81702e-02,-5.07325e-02,4.72308e-02,-6.47793e-03,-4.44916e-03,-3.59902e-02,-1.18195e-01,6.86353e-02,1.26506e-01,9.05409e-02,
2.40494e-01,8.34144e-02,-1.73838e-02,1.51802e-01,-1.19646e-02,1.66167e-01,7.50631e-02,-6.79375e-02,-3.90181e-02,-1.16791e-02,-7.27557e-02,1.09664e-01,-1.61485e-02,-5.19378e-02,6.50098e-02,6.99687e-02,8.31166e-02,-4.91190e-02,-3.23223e-02,6.71808e-02,5.16775e-03,1.70879e-01,-1.99278e-02,6.23264e-02,9.10726e-02,8.76543e-02,2.40236e-01,-5.96686e-02,-5.09008e-02,-4.43682e-02,-4.96779e-02,3.46623e-02,1.03437e-01,-1.29099e-02,6.68094e-02,4.90124e-03,-4.28840e-02,1.15038e-01,-2.07549e-01,1.18643e-02,3.72552e-02,-5.37549e-02,-1.15408e-02,-1.32221e-01,1.21631e-01,-1.23652e-01,8.65523e-02,8.67582e-04,-2.80023e-02,5.42424e-02,2.10640e-02,2.59958e-02,7.37319e-02,1.65603e-02,3.77747e-02,-3.00712e-02,4.69704e-02,6.01366e-02,-8.04696e-02,1.20845e-01,-9.63536e-02,-3.05473e-02,-1.10229e-01,-9.29593e-02,3.35779e-02,7.89813e-02,6.95935e-02,7.84516e-02,1.23649e-01,1.16103e-01,1.15709e-01,-8.42396e-02,-1.49732e-02,-5.26009e-03,3.31753e-02,-2.48407e-03,-2.07704e-02,6.70254e-03,-8.95606e-02,6.35113e-02,-2.78350e-02,6.47990e-02,1.42944e-03,7.25975e-02,4.23663e-02,4.05063e-02,5.35772e-02,6.73832e-02,1.33893e-01,6.05257e-02,8.82967e-02,-2.23908e-02,5.77129e-02,-4.32150e-02,2.73077e-01,1.83924e-01,-4.45519e-02,1.05294e-02,8.39215e-02,-7.31891e-02,
-6.76159e-02,1.45731e-01,5.13855e-02,1.24205e-01,1.01911e-01,-7.41163e-03,-2.31017e-03,-9.87312e-02,-8.61026e-02,4.22189e-02,1.95412e-01,1.67957e-02,6.24304e-02,1.77087e-01,-8.90311e-02,-1.27298e-01,1.37025e-01,-2.69822e-02,2.47659e-02,-7.37757e-03,-4.99383e-02,2.26937e-01,-1.95347e-02,5.78441e-02,8.86480e-02,-2.11987e-02,1.69942e-01,1.87947e-01,8.21587e-02,-1.12652e-01,6.10449e-02,-9.27972e-02,5.69164e-02,-7.21982e-02,-2.58329e-02,-2.64146e-02,1.70010e-01,-4.55943e-02,-1.37037e-01,7.83994e-02,3.22710e-03,-6.71930e-02,-3.03663e-02,-4.91604e-02,2.01112e-02,1.36092e-01,-3.36352e-02,9.51079e-02,6.23674e-02,3.50231e-02,-7.87506e-02,9.45873e-03,-1.60286e-02,-1.11601e-01,5.11528e-02,1.45758e-01,2.00187e-01,-8.81113e-02,1.27467e-01,-6.58366e-02,-7.54661e-02,2.39740e-02,1.14852e-01,-2.95079e-02,5.36108e-02,-5.83652e-02,-4.14810e-02,-4.33378e-02,6.90125e-02,1.95468e-01,1.62980e-01,9.75724e-02,-1.80882e-02,7.18965e-02,-3.70395e-03,1.21926e-01,3.61685e-02,6.15837e-02,1.69101e-02,-2.84012e-02,-8.52303e-02,-1.06801e-04,3.16782e-02,-2.17348e-02,-1.43625e-01,3.06333e-02,-1.66043e-01,1.78309e-01,1.30319e-01,-1.53437e-01,1.69043e-01,-4.94878e-02,3.79991e-02,6.70671e-03,-1.68679e-01,-1.30250e-01,7.33650e-03,4.20319e-02,6.39817e-02,3.49320e-03,
2.76350e-01,-1.32826e-01,5.13022e-02,-1.03336e-01,5.09025e-03,2.55041e-02,-9.64992e-02,-2.98340e-02,-5.93546e-02,-2.17761e-03,-8.74656e-02,1.72626e-01,-5.94223e-03,5.23642e-02,-8.80867e-02,1.79645e-01,1.59912e-02,3.22108e-02,2.85481e-02,2.40886e-03,8.50498e-02,-6.18793e-02,6.25740e-02,-1.50786e-01,8.98554e-03,-5.18127e-02,-4.81336e-02,-8.10108e-02,3.65890e-02,-2.23236e-01,1.49535e-01,-4.65209e-02,-5.86785e-02,-4.98595e-02,1.03454e-01,4.23282e-01,1.23350e-01,2.89021e-01,2.90872e-02,-4.62738e-02,1.17874e-01,3.06107e-01,4.99291e-02,-4.40017e-03,-6.60959e-02,7.59320e-02,-3.95627e-02,-1.07691e-01,-1.01479e-02,7.93718e-02,-8.78471e-02,2.22889e-02,4.88424e-02,-1.58202e+00,-6.72922e-02,5.88817e-02,-2.63357e-01,1.74095e-01,-1.49265e-01,-4.99583e-01,-2.17583e-02,1.63642e-02,-6.43207e-02,-2.96272e+00,2.95527e-02,-8.18017e-02,6.21608e-02,-1.79304e-02,-6.05133e-02,-6.15335e-02,-1.02858e-01,4.35822e-03,-1.68267e-02,-4.02457e-03,9.85124e-02,3.71839e-02,-4.01463e-03,5.49093e-02,9.18267e-02,7.48188e-02,4.50313e-02,1.41635e-01,-8.37773e-02,1.17328e-01,1.57819e+00,4.44983e-02,3.04737e-02,-6.12513e-02,-1.45344e-02,2.18942e-01,7.55590e-03,-3.98390e-01,2.90933e-02,4.63583e-02,-5.38120e-01,2.99216e-01,1.26192e-02,-7.61762e-02,-8.79009e-02,-5.72166e-02,
-2.70104e-02,1.44279e-01,1.22579e-01,-1.31104e-01,1.02397e-01,-8.43585e-02,2.17305e-02,5.11540e-02,1.27934e-02,-5.94078e-02,1.20731e-01,2.84520e-02,4.06035e-02,6.59938e-02,-1.56768e-02,-1.81959e-02,7.58974e-02,-4.22908e-02,4.44459e-02,5.81320e-02,5.93399e-02,7.02000e-03,6.09074e-03,-4.31835e-02,3.84580e-02,-1.28783e-01,-1.31176e-02,2.61824e-02,-8.23955e-02,-8.17498e-02,-6.83068e-02,1.04682e-01,-5.73227e-02,8.77829e-02,3.56918e-02,-1.08399e-01,1.17049e-01,-9.16549e-02,6.56426e-03,-4.60399e-02,-1.76909e-02,6.92051e-02,-4.65435e-02,3.79969e-02,-1.34509e-02,1.35138e-01,-1.62279e-02,7.45813e-02,6.23696e-02,8.75380e-03,3.84846e-02,4.70617e-02,6.15632e-02,1.39354e-01,1.00887e-01,1.03934e-01,-3.17793e-03,5.67395e-02,-4.13451e-02,4.32919e-02,1.09073e-01,9.05035e-02,6.28815e-02,2.59506e-01,-6.28361e-02,-1.41166e-01,-1.81673e-02,-6.16183e-02,8.38822e-02,-1.19183e-02,-4.17967e-03,3.07416e-02,1.08895e-01,1.00502e-02,-5.89827e-02,-8.81794e-03,-9.78251e-03,3.04513e-02,1.54546e-01,5.03181e-02,6.33902e-02,4.40061e-02,1.02554e-01,5.86061e-02,-2.18529e-01,1.09835e-01,-4.28245e-02,-3.32083e-03,9.08031e-02,-3.86057e-02,8.11618e-03,-8.51505e-02,5.09496e-02,7.30657e-02,1.16338e-01,-2.78270e-01,8.56480e-02,2.00843e-02,1.26516e-01,1.48749e-01,
-1.63040e-01,9.75635e-02,7.15336e-02,1.23373e-01,2.10996e-02,1.93200e-02,5.38440e-02,6.46733e-02,6.26516e-02,7.35475e-02,1.02159e-01,1.96326e-02,5.29672e-02,-2.29768e-03,-3.17206e-02,-1.45722e-02,-1.18490e-01,1.04158e-01,-7.73555e-02,6.75180e-02,3.13308e-02,-7.10217e-02,9.05419e-02,8.23196e-02,8.33564e-02,-1.20333e-02,1.43150e-01,4.24587e-02,9.69645e-02,7.30520e-02,6.53520e-02,4.38127e-02,1.83594e-02,1.09370e-02,3.54542e-02,1.38186e-01,2.13490e-02,4.34805e-02,-1.65740e-01,-8.12979e-02,1.95605e-02,-5.44278e-02,-4.01144e-02,-1.04599e-01,5.70541e-02,-2.07178e-02,1.86866e-02,-1.53332e-02,1.31090e-02,1.24705e-02,1.21265e-02,-1.18586e-02,4.87290e-02,1.29721e-01,-1.15707e-01,-7.02441e-02,1.26631e-01,-1.58317e-02,-4.57973e-02,7.42280e-02,-1.07456e-01,1.02666e-01,3.75479e-02,2.56348e-01,-3.58280e-02,-1.09725e-02,2.25305e-02,1.00081e-01,-4.96536e-02,1.72105e-01,1.44989e-01,2.22937e-02,-3.71168e-02,1.00543e-01,-7.20411e-02,1.21463e-02,6.61887e-02,1.20845e-01,-8.52664e-02,6.55853e-02,-9.43153e-02,-8.89020e-02,9.00675e-03,2.54689e-02,-1.94119e-01,-6.63636e-02,9.48976e-03,4.03749e-02,6.15038e-02,4.92298e-02,1.88753e-02,-7.15752e-02,-6.62546e-02,2.32058e-02,-3.98543e-01,-7.80744e-04,4.78502e-03,2.05798e-02,1.44167e-01,1.03411e-02,
1.40819e-01,2.44107e-01,7.61266e-02,1.45184e-01,5.96983e-02,-6.15177e-02,-6.71027e-02,1.00680e-01,2.60318e-01,3.28113e-02,2.87672e-01,-3.88077e-02,-5.62774e-02,7.12398e-03,7.07074e-02,-8.75415e-03,-2.02913e-01,-4.57136e-03,1.37102e-02,-1.07163e-01,-3.77138e-02,2.28134e-01,6.24902e-03,9.00443e-02,-2.49979e-01,7.45674e-02,1.44533e-02,1.15352e-01,-1.68401e-01,2.07426e-01,-4.84790e-02,8.53905e-02,2.44099e-02,3.39566e-02,-9.01097e-02,-1.48455e-01,-4.72527e-02,-4.72821e-01,-2.38366e-02,-5.91673e-04,-2.58321e-01,-3.72978e-01,8.42080e-02,1.64017e-01,5.64216e-02,-1.00607e-01,1.65139e-02,7.12414e-02,6.94920e-03,-4.23325e-02,1.56202e-01,-1.05695e-02,-8.71275e-02,-1.26717e-02,2.98195e-01,1.32091e-03,1.47189e-01,-6.96599e-02,3.23548e-02,1.17809e-02,-4.41947e-02,1.11214e-01,6.82340e-02,3.18938e-01,2.77567e-02,1.13018e-01,-7.79225e-02,-3.89300e-01,1.15980e-01,9.60489e-02,-3.28512e-01,1.83850e-02,-1.48478e-02,1.31423e-01,-1.87511e-01,-5.16328e-03,-4.97935e-02,-3.65185e-02,-2.19708e-01,-1.36427e-02,-1.23583e-01,-3.76937e-01,3.80556e-03,-5.99346e-02,-2.49960e-01,-3.22730e-02,2.27670e-01,2.07188e-02,-9.58399e-02,-1.78075e-01,6.40474e-02,1.01583e-01,-9.60528e-02,-4.88355e-02,-4.39912e-01,8.04680e-03,-1.02301e-01,-1.57264e-01,1.19050e-01,8.79402e-02,
-9.40867e-03,1.02404e-01,1.42862e-01,-4.22103e-02,4.00054e-02,7.88930e-02,1.33562e-01,-9.43501e-02,1.88547e-03,5.56189e-02,1.45145e-01,-6.58545e-02,7.68299e-03,-1.82240e-02,4.67282e-02,1.03419e-01,-8.02757e-02,2.56858e-02,-6.75548e-02,1.42145e-02,-8.57473e-03,2.78635e-01,4.42438e-02,-5.23581e-03,6.07501e-02,-8.39621e-02,4.34876e-02,1.23561e-01,2.82445e-02,-3.45410e-02,-9.81021e-03,-2.10062e-02,8.05759e-02,5.63118e-02,9.50631e-03,2.72592e-03,2.03707e-01,4.15414e-01,9.13132e-02,4.27933e-02,-7.24126e-03,-9.14656e-02,-1.00058e-02,-7.69377e-03,6.94209e-02,1.60092e-01,-6.74741e-02,8.04628e-02,6.20482e-02,7.93055e-03,-2.26074e-02,3.43713e-02,5.19768e-02,5.53632e-03,1.85075e-01,6.19555e-02,1.34053e-01,1.38522e-01,4.82393e-03,-1.96910e-01,6.17839e-02,2.31681e-02,1.79595e-01,7.70054e-02,-1.13157e-01,4.09435e-02,-1.90978e-01,-9.74261e-02,-8.90716e-03,6.61502e-02,-6.71302e-02,1.70994e-01,-1.78727e-02,1.72667e-01,5.63475e-04,8.27845e-03,6.55400e-02,-6.65938e-02,1.00882e-01,-4.73986e-03,5.59439e-02,-8.56013e-02,6.01781e-02,4.47256e-02,1.30240e-01,-2.98133e-02,5.32937e-02,5.50445e-02,9.00481e-02,1.05468e-01,-1.36810e-02,2.64574e-04,2.09788e-02,-1.74510e-02,-3.23196e-01,2.35062e-02,-4.96419e-02,1.63004e-02,9.13364e-02,1.45965e-01,
3.85495e-01,-4.11873e-01,-1.59297e-01,-2.18719e-01,-2.91883e-01,1.16336e-02,-3.53766e-01,-9.81884e-02,-7.38111e-02,-1.92784e-01,-6.59812e-01,2.74016e-01,1.52707e-01,-1.97244e-01,-2.16543e-01,-9.10514e-02,-6.22803e-02,1.25784e-01,1.58981e-01,1.25442e-01,1.29699e-01,-7.66238e-01,1.86463e-01,-2.87993e-01,-8.46722e-02,-5.06066e-02,1.01388e-01,-1.37453e-02,1.72899e-01,-8.69144e-01,8.00362e-02,-5.96988e-02,-1.34077e-01,-7.39588e-02,-2.11600e-01,3.23226e-01,1.31523e-01,2.13637e-01,-3.95475e-01,-1.64775e-01,5.42805e-02,2.81334e-01,-1.66376e-01,-2.21503e-01,-1.86575e-01,7.65468e-02,-4.25044e-02,-1.19324e-01,5.94046e-02,-2.80046e-02,-7.18214e-02,1.08234e-01,1.56499e-01,4.20603e-02,2.14643e-02,-1.74128e-01,-2.07896e-01,2.11645e-01,-2.84213e-01,-1.37128e-01,8.30449e-02,-1.39281e-01,-3.61102e-02,-1.20585e+00,8.46133e-03,-3.41859e-01,-1.96618e-01,2.71440e-02,-1.92741e-01,-1.58492e-01,-2.76048e-01,-6.21942e-02,-2.29752e-01,-1.42091e-01,-1.03060e-01,-1.94782e-01,3.17691e-03,-3.84550e-01,2.66064e-01,6.62824e-02,2.11520e-01,1.07487e-01,-2.01792e-01,8.43631e-02,-8.17893e-02,4.39547e-02,5.28891e-02,-4.72543e-01,-5.47233e-01,1.10860e-01,-1.02857e-01,-9.98357e-02,3.43689e-02,2.86016e-01,4.88279e-01,5.20566e-01,2.85299e-01,-9.37099e-02,-1.73186e-01,-5.07951e-02,
3.21242e-01,-1.88311e-01,-1.65379e-01,-2.29130e-01,-2.48958e-01,5.16904e-03,-1.80368e-01,-1.14231e-01,-1.86266e-04,-8.47496e-02,-5.54062e-01,5.62768e-02,2.33932e-01,-1.74407e-01,-1.58228e-01,-7.85286e-02,-1.57797e-01,9.33190e-02,1.27193e-01,-7.00310e-03,1.03018e-01,-4.97341e-01,3.71650e-02,-1.77902e-01,-6.26061e-02,-6.39797e-02,1.73541e-01,-4.57937e-02,7.59695e-02,-1.55026e-01,8.16041e-02,3.11142e-02,-8.94664e-02,-1.13346e-01,-1.39663e-02,2.27162e-01,1.17406e-01,1.55082e-01,-9.66843e-02,-1.05907e-01,4.42352e-02,3.07731e-01,-6.57440e-02,-9.21916e-02,-1.03535e-01,-4.76962e-02,-1.53205e-01,-1.86472e-01,1.97023e-02,8.88622e-02,3.56658e-02,3.74108e-02,9.92622e-02,-8.80732e-02,1.01926e-01,-6.56087e-02,-4.80970e-02,1.42414e-01,-4.90491e-02,-1.96116e-01,8.35002e-02,-1.53617e-01,-3.49535e-02,-5.38863e-02,5.98531e-02,-2.46192e-01,-5.12318e-02,-1.25899e-01,-7.87924e-02,-9.56023e-02,-2.29205e-01,-8.30347e-02,-1.85572e-01,-1.24498e-01,-6.39662e-02,-9.12960e-02,-1.49345e-02,-1.98402e-01,1.12128e-01,1.57030e-02,8.26222e-02,1.47476e-01,-1.10462e-01,3.68782e-02,-4.58151e-02,5.33255e-02,-3.12451e-02,-2.57762e-01,-1.92705e-01,9.35882e-02,-8.14867e-02,-3.16507e-02,-3.09284e-02,1.67051e-01,3.58191e-01,2.99587e-01,1.46949e-01,-9.01890e-02,-9.09889e-02,-9.61131e-02,
2.49859e-01,-8.22044e-02,1.54826e-01,4.40509e-02,-5.78022e-02,-6.05483e-02,-2.49039e-01,8.84539e-03,6.80839e-02,-1.70123e-02,-2.38322e-01,1.97583e-01,-2.74747e-02,1.23988e-01,-3.85590e-02,2.63510e-01,-1.64114e-02,-1.26567e-01,-4.63873e-02,-1.01909e-01,-4.50073e-02,-9.29153e-02,-8.14998e-02,2.75442e-02,-2.93181e-02,-1.84790e-01,1.71437e-01,4.80768e-02,-1.10922e-01,8.94871e-02,-2.75920e-02,5.57685e-02,2.79543e-02,-1.57163e-01,1.41597e-01,-2.24170e-02,2.04953e-01,-8.31509e-01,-1.83644e-01,7.67659e-02,-5.80932e-02,-6.16691e-01,1.35536e-03,9.89566e-02,-9.35575e-02,1.71430e-01,-1.07611e-01,-5.51661e-03,1.22687e-02,6.71898e-02,1.32380e-01,-8.22235e-03,5.21723e-02,1.12704e-01,8.66627e-03,1.21679e-01,-1.33151e-02,1.45627e-02,-3.53465e-02,2.83671e-02,1.71429e-02,-7.28241e-02,-2.01577e-01,4.09155e-01,4.16969e-02,1.35999e-02,-7.13577e-02,1.26620e-01,-3.12516e-02,7.64205e-02,-2.23410e-01,2.53109e-01,3.36019e-03,-2.02729e-01,-4.13023e-02,1.48289e-02,6.51859e-02,-3.63680e-01,5.26778e-02,1.23353e-02,-5.97101e-02,4.69453e-01,4.93388e-02,4.54195e-03,3.94268e-01,-9.16504e-03,1.31451e-01,-4.35524e-02,-7.45212e-02,4.85547e-02,-1.00803e-02,8.63028e-02,-5.44634e-02,3.89992e-02,2.63709e-01,-6.54391e-01,3.63661e-02,6.36616e-03,-8.66558e-02,5.11415e-02,
-1.51346e-01,2.82643e-01,6.80669e-02,-8.44662e-02,-5.17156e-02,9.01424e-02,-7.71685e-01,5.14261e-02,4.73289e-02,-7.32313e-03,-2.75628e-01,1.26263e-01,1.16360e-01,-2.94060e-01,9.36782e-02,-3.91237e-01,-2.36868e-01,1.81841e-02,-1.72818e-02,4.12677e-02,6.14150e-02,-2.52185e-01,-7.51762e-01,2.04821e-02,-2.13636e-01,1.63091e-01,-4.01294e-02,-8.00455e-02,-4.19355e-03,4.19434e-01,1.13542e-01,-1.38976e-01,1.18050e-01,-1.50305e-01,-2.39714e-01,-8.80140e-01,9.46640e-02,1.08355e-01,-1.54267e-02,-4.54733e-02,-1.38130e-01,1.71110e-01,1.34567e-01,7.56478e-02,-3.22384e-02,-3.01522e-01,-2.04189e-01,-1.68233e-01,1.14542e-01,-5.01190e-02,3.12740e-01,7.49915e-02,4.19573e-02,2.57925e-01,2.41977e-01,-3.09145e-01,-8.71348e-02,5.72248e-03,-2.14469e-01,-4.06065e-01,6.12844e-02,2.65071e-01,1.15545e-01,4.62898e-01,1.04575e-02,-1.02951e-01,7.95366e-02,-1.84428e-01,-1.66809e-01,-1.07971e-01,-2.87751e-01,-1.07706e-01,-2.87647e-01,-1.88780e-01,-1.81823e-01,1.87090e-02,-2.16667e-01,-3.32550e-01,-2.42327e-02,-8.97852e-02,6.08456e-02,-2.07307e-01,-5.75518e-03,-7.63233e-02,3.71610e-01,1.15615e-01,2.73604e-01,-7.40842e-01,-2.94192e-01,1.36775e-01,-1.99643e-01,1.54454e-01,-1.73124e-02,-2.60529e-01,1.39518e-01,-1.04044e-01,-1.30276e-01,-1.12041e-01,-1.51394e-01,-9.03309e-02,
7.38408e-02,1.62266e-01,7.78694e-02,-3.76152e-02,-3.98867e-02,2.54958e-02,-5.07440e-01,7.65996e-02,6.54143e-02,6.21766e-02,-2.59900e-01,2.70898e-02,-9.30293e-04,-1.03116e-01,6.40517e-02,-2.19364e-01,-1.97493e-01,4.70660e-02,-2.23230e-02,5.18767e-02,5.22273e-03,-1.82985e-01,-6.70290e-01,2.74054e-02,-2.27645e-01,1.87568e-01,1.28259e-02,2.92145e-02,-1.19748e-02,2.73826e-01,7.34931e-02,-7.01503e-02,1.18062e-02,-1.64310e-01,-8.24027e-02,9.97313e-03,9.92325e-02,-8.13429e-01,-5.44763e-02,-9.41533e-02,-9.84851e-01,-7.62833e-02,1.20254e-01,-8.45884e-03,-1.55467e-01,-2.21700e-01,-1.92242e-01,-8.92128e-02,1.31117e-01,-9.02697e-02,1.94895e-01,1.14191e-01,-1.73030e-02,2.63625e-02,7.78554e-02,-2.02059e-01,-5.83253e-02,1.15682e-01,-4.13788e-02,-2.91176e-01,1.29684e-01,3.09914e-01,1.93756e-01,2.90963e-01,6.77536e-03,2.20434e-03,1.67996e-02,-1.58443e-01,-5.97595e-02,-2.75538e-02,-1.97151e-01,-1.12182e-01,-2.83881e-01,-1.09573e-01,-1.30142e-01,3.68740e-02,-1.24189e-01,-2.96548e-01,-5.63336e-02,-5.48551e-02,1.16530e-02,-2.79184e-01,-1.01630e-01,-2.65155e-02,3.61667e-01,4.46280e-02,1.59662e-01,-3.43359e-01,-1.88916e-01,7.99769e-02,-2.15667e-01,1.58676e-01,-8.59273e-02,-9.47548e-02,-1.02100e-01,1.02308e-01,-4.50296e-02,-9.93363e-02,-8.79636e-02,-2.55690e-02,
4.17355e-01,1.49354e-01,-2.27596e-02,-5.87269e-02,-4.37134e-02,-8.98817e-02,1.14408e-01,-2.41522e-02,-7.77583e-02,-9.72409e-02,-1.82863e-02,4.83751e-02,2.01175e-02,8.28272e-02,3.53991e-02,-2.88011e-02,-1.11540e-01,5.01407e-02,-3.03837e-02,8.44822e-04,1.04433e-01,-2.72808e-02,-3.05585e-02,-6.98135e-02,-4.78732e-02,-1.23866e-01,1.68232e-01,1.08947e-02,-9.17000e-02,-9.29184e-02,1.33757e-01,4.57761e-02,1.29195e-02,-8.82255e-02,4.05634e-02,-1.56737e-02,1.44909e-01,-4.75100e-03,-1.74785e-01,3.87935e-02,8.11271e-02,-4.99359e-02,-7.10490e-02,6.35616e-02,-1.07242e-01,1.50805e-01,2.45453e-02,1.27810e-02,1.36897e-02,-1.05464e-01,-4.23298e-02,3.27458e-02,-6.18518e-03,-1.40310e-01,-2.05086e-01,8.91819e-02,4.34605e-02,-1.00143e-01,-2.83917e-03,1.25977e-01,1.20720e-02,-1.13650e-02,1.15416e-03,6.43368e-02,-2.03948e-02,-6.95433e-02,7.41498e-03,7.96074e-02,9.65313e-02,4.64905e-02,-7.02577e-02,2.63953e-02,1.65001e-02,-1.09946e-01,6.62536e-02,6.43707e-02,9.75541e-03,-1.09529e-01,-1.27923e-02,8.41897e-02,-6.69407e-02,2.98351e-01,6.80206e-02,1.41619e-01,-8.75571e-01,8.64386e-02,-3.67400e-02,6.13133e-02,-5.32291e-02,-5.72942e-02,-1.10711e-02,1.08857e-01,2.49395e-02,1.10555e-01,4.98281e-01,2.27206e-01,-8.80689e-02,3.56347e-02,-1.80331e-02,4.53840e-02,
-2.14667e-01,1.08943e-01,1.23215e-01,1.13985e-01,4.01152e-02,-9.36353e-02,-3.30453e-01,1.44331e-02,2.02451e-01,-3.13516e-03,-1.35228e-01,-5.17337e-01,9.70091e-04,-8.39961e-02,1.25763e-02,-1.81919e-01,-1.87258e-01,1.36279e-02,-3.04610e-02,-2.23954e-03,-5.27164e-02,1.54327e-01,5.25698e-02,7.95315e-02,-3.37410e-01,2.12106e-01,1.41527e-02,1.13263e-01,-9.20088e-02,1.88051e-01,2.13832e-02,-4.96915e-02,9.51171e-02,4.37333e-02,-1.31833e-01,-3.46747e-01,-1.31960e-01,-2.45134e-01,-8.10054e-03,9.09898e-02,-2.09362e-01,-1.54621e-01,8.32455e-03,1.30524e-01,-6.58477e-03,-2.41999e-01,-6.08291e-02,3.02808e-02,3.91780e-02,-4.09370e-02,1.66798e-01,3.47846e-03,-2.79599e-02,2.51700e-01,3.78901e-01,-1.68320e-01,1.50553e-01,-9.53570e-02,2.49793e-02,-3.84798e-01,2.79339e-02,2.10643e-01,6.48275e-02,-3.17862e-02,3.77676e-02,1.78466e-01,-7.21597e-02,-3.63229e-01,3.23919e-03,-3.30563e-02,-3.40719e-01,2.49364e-02,-1.20143e-01,-4.17864e-02,-1.82166e-01,-3.11445e-02,-1.87885e-01,-2.26466e-01,-1.05417e-01,-7.20374e-02,3.94907e-02,-1.67776e-01,1.16175e-01,-1.06003e-01,6.41989e-01,3.11017e-02,2.97804e-01,1.88666e-02,-1.64550e-01,-1.83647e-01,-4.27673e-02,1.86262e-01,-1.58441e-01,4.37235e-02,-2.23910e+00,-1.07553e-01,5.52994e-02,-3.08957e-01,5.64317e-02,1.14358e-01,
4.46479e-01,2.18368e-01,6.05705e-02,-3.40922e-02,-1.16609e-01,4.26133e-03,-6.64151e-01,7.29536e-03,1.85297e-02,-2.13586e-02,-1.24410e-01,-1.42549e-01,-1.14952e-01,-2.44760e-01,1.15869e-02,-3.48849e-01,-9.69759e-02,-3.62347e-02,-8.59306e-02,1.25760e-01,5.78226e-02,-3.44664e-02,-3.57128e-01,7.33568e-03,-5.23613e-02,4.37752e-02,2.94252e-01,8.98902e-02,1.59539e-02,3.07324e-01,4.06771e-02,-6.62553e-02,1.79722e-02,-1.75030e-02,-5.26625e-01,4.15525e-01,-1.78820e-01,1.95372e-01,-1.38086e-01,9.18368e-03,2.24434e-02,5.82510e-02,-1.56473e-01,4.85141e-02,7.22826e-03,-9.42920e-02,-1.48550e-01,-1.35068e-01,-5.26406e-02,-6.68947e-02,1.88692e-01,-2.99843e-01,1.03232e-01,1.14973e-01,7.83031e-02,-2.78342e-01,-2.31102e-01,-1.11415e-01,-5.29146e-02,-3.15580e-01,1.31054e-01,7.66332e-02,-6.97597e-03,3.81859e-01,1.54207e-02,-1.35323e-01,-2.93104e-02,-5.00896e-02,-7.27925e-02,-5.05926e-02,-1.79058e-01,-6.25236e-02,-2.74484e-01,-1.91543e-01,-1.06062e-01,-8.15495e-02,-3.36053e-02,-1.25068e-01,1.54775e-02,-1.28395e-02,1.07739e-01,6.25616e-02,-2.57317e-02,-7.45093e-03,2.16422e-01,2.68727e-02,-1.62430e-02,-6.42674e-01,-2.95126e-01,-5.13124e-03,-1.30554e-01,2.75484e-03,2.19005e-02,-4.97298e-02,3.84954e-01,5.17970e-01,-1.59017e-01,-5.91039e-02,-9.72544e-03,-1.32687e-01,
2.22980e-01,-1.07723e-01,-6.22170e-02,6.14719e-02,1.03527e-01,7.92907e-02,4.55660e-02,5.92640e-02,1.33571e-01,6.17803e-02,-1.31626e-01,-2.65761e-02,2.45808e-02,4.97620e-02,-1.68256e-03,-1.94675e-02,-1.36499e-01,-9.34720e-03,1.00483e-01,1.78854e-02,-2.28055e-02,5.15035e-02,4.88534e-02,1.63833e-02,-1.11512e-02,-2.31456e-02,3.06843e-02,-9.18712e-02,6.85803e-02,4.44695e-03,7.52372e-02,4.95147e-02,2.95690e-02,1.19899e-01,-6.71057e-03,-4.57904e-02,7.13080e-02,-1.04869e-02,-1.91721e-02,2.62811e-03,-2.52727e-02,-1.10491e-02,3.29742e-02,7.56853e-03,7.45672e-02,-1.74387e-01,7.06610e-02,-9.40221e-02,-3.25278e-02,9.58424e-02,9.26005e-02,1.10572e-01,-1.75046e-02,2.00440e-02,-5.37468e-03,7.45963e-02,3.52659e-02,8.34297e-02,5.85962e-03,1.12821e-01,3.99399e-02,-4.76463e-02,1.13447e-01,-4.80042e-03,9.89449e-02,1.12783e-01,1.09567e-01,1.54019e-01,1.12484e-01,5.14989e-02,-1.13244e-02,5.72295e-02,5.33537e-02,4.55330e-02,6.83024e-02,4.61483e-02,9.89700e-02,-7.92201e-02,-8.12865e-03,6.50878e-02,3.14204e-02,2.91645e-02,-3.67140e-02,-1.20244e-02,-4.06251e-01,5.42151e-02,6.76117e-02,1.34025e-01,9.88716e-02,7.35829e-02,-2.08730e-02,2.12150e-01,-1.39197e-02,-2.24947e-02,3.05948e-01,2.01084e-01,5.24452e-02,-6.65191e-02,-2.37601e-02,-4.98253e-02,
-6.10587e-04,-4.94150e-02,-2.69639e-02,7.36321e-02,3.46274e-02,-1.95876e-02,3.04635e-01,-7.48701e-02,1.74180e-01,-4.86866e-02,9.79173e-02,-9.21235e-02,4.61749e-02,-3.03088e-02,-2.53343e-02,2.09478e-01,-1.15859e-02,-5.56130e-02,3.74931e-02,4.44217e-03,-1.00052e-01,1.86009e-01,-7.89183e-02,-1.53383e-02,-4.77140e-02,4.97991e-02,-9.14666e-04,-9.46543e-03,-5.13871e-02,-2.49137e-01,1.32177e-02,-6.25389e-02,1.90183e-02,1.22314e-01,9.85697e-02,-3.80974e-01,2.22678e-02,-1.03611e-01,1.06817e-01,1.05514e-01,5.52114e-02,-2.00270e-01,-2.93064e-03,1.66271e-02,1.90242e-01,2.81856e-02,6.76168e-02,8.38787e-02,-4.98540e-02,5.08618e-02,-1.78089e-01,-5.95089e-02,5.26556e-02,-8.35050e-02,-1.61280e-01,7.71645e-02,-1.25002e-01,2.01191e-02,2.69379e-03,1.26272e-01,8.38525e-02,-2.29286e-01,9.13015e-02,-2.13383e-01,6.78257e-02,2.53922e-01,4.78118e-02,1.41084e-01,6.57148e-02,3.76676e-02,2.04020e-01,2.92657e-02,2.31629e-01,1.26101e-01,-3.09454e-02,1.02959e-01,3.18192e-02,1.67918e-01,-6.58827e-03,1.16085e-02,2.70526e-02,-5.51968e-03,1.31015e-01,4.44168e-03,-3.27311e-01,3.89871e-02,-9.67494e-03,1.80954e-01,6.81446e-02,-8.54155e-02,-2.24187e-02,-1.04531e-01,1.56458e-02,-1.10590e-01,-4.67329e-01,-4.13732e-01,-6.25306e-02,1.25293e-01,1.06229e-01,-4.04652e-02,
-1.03718e-01,-9.72420e-04,-5.32625e-02,4.76826e-02,1.19689e-01,-1.47536e-03,3.10067e-01,7.89316e-03,6.97345e-02,2.81286e-02,2.62050e-01,-5.01907e-02,-1.07577e-01,4.07049e-02,3.66621e-02,3.99673e-02,3.74113e-02,5.02340e-02,-2.29566e-02,-8.32467e-03,-4.20173e-02,3.07246e-01,-4.46578e-02,1.36566e-02,-2.89510e-02,3.71655e-02,-6.11861e-02,2.84542e-02,-1.01026e-01,-1.07536e-01,-8.74194e-02,1.27096e-01,9.56077e-03,1.22646e-01,5.79743e-02,-1.91158e-01,-4.91260e-02,-1.33017e-01,7.79241e-02,5.81626e-02,-1.48004e-01,-2.62135e-01,8.84602e-02,7.27125e-02,7.36326e-03,-8.39553e-02,8.45756e-02,6.20373e-02,1.83055e-02,-8.99290e-02,5.10138e-02,-9.98324e-02,-5.45325e-02,-2.26562e-03,4.02133e-02,1.79600e-01,1.11304e-01,9.28471e-02,1.50251e-01,1.68654e-01,-6.06928e-03,-1.88221e-02,1.03629e-01,5.98816e-02,6.26107e-02,6.76060e-02,2.65909e-02,4.63659e-02,9.06233e-03,6.96190e-02,1.74072e-01,3.64444e-02,1.68084e-01,1.49788e-01,-3.89639e-02,8.78636e-02,1.33954e-01,1.82261e-01,8.80418e-04,1.85158e-02,1.58274e-01,-2.14608e-03,-4.01712e-02,1.61100e-02,-2.36904e-01,-5.99482e-02,-1.35664e-02,2.51741e-01,4.29732e-02,-5.36125e-02,4.84250e-02,-1.01036e-02,2.08231e-02,-1.04791e-01,-5.15436e-01,-4.39154e-01,-3.33465e-03,1.80483e-01,4.91170e-02,1.33349e-02,
-8.03741e-02,1.07099e-01,4.06722e-02,1.30073e-01,4.39154e-02,-4.91913e-03,6.67820e-02,5.04245e-02,9.52726e-03,-5.42532e-02,1.85836e-01,-1.07743e-01,-2.49437e-02,2.24653e-02,3.30499e-02,8.56835e-02,-6.17765e-03,-5.87685e-02,-4.38684e-02,4.32575e-02,-1.10000e-01,8.71566e-02,2.93351e-02,-9.93003e-04,-7.50303e-02,1.48147e-02,7.70354e-02,5.84049e-02,-6.82068e-02,2.14077e-01,-1.03077e-02,3.50092e-02,2.60049e-03,-7.76376e-02,-3.75833e-02,2.81909e-02,-6.19771e-02,3.49302e-02,-9.90361e-02,-6.84120e-02,4.58799e-02,1.14525e-02,7.91248e-03,2.94503e-02,5.90633e-02,4.03428e-02,-1.58905e-04,6.74453e-02,8.02947e-02,-1.72698e-02,2.48145e-02,-2.17727e-02,-6.97383e-02,8.96327e-02,1.37780e-01,1.11384e-01,1.36856e-01,-1.12571e-01,-3.08164e-02,1.39713e-02,-1.94431e-02,1.18490e-02,3.93835e-02,-8.00438e-03,3.02448e-02,-6.69800e-02,-4.51623e-02,-2.20785e-02,-2.82980e-02,2.21640e-02,-1.82168e-02,-6.34816e-03,3.46366e-02,8.38882e-04,7.35070e-02,8.55621e-03,1.79764e-02,-2.47843e-02,-4.09163e-02,-1.44604e-01,2.91873e-03,-2.80817e-03,3.56654e-02,-2.54622e-02,3.00273e-01,-2.26055e-02,1.07621e-01,-3.67167e-02,1.27559e-02,-1.75465e-01,3.80061e-02,1.36602e-02,8.12972e-02,-8.48782e-02,-3.10357e-01,4.03261e-02,-1.26758e-01,-6.96182e-03,8.64185e-03,2.71748e-02,
-5.81418e-01,1.49010e-01,-2.37410e-02,1.59636e-01,1.26392e-01,-1.77003e-01,1.45734e-01,2.34313e-02,1.78666e-01,4.26710e-02,4.46649e-01,-4.04426e-01,-4.01948e-02,7.34279e-03,-1.70661e-02,9.02585e-02,-1.60183e-01,-2.21164e-02,-1.54524e-01,-2.82022e-02,-1.05348e-01,1.03013e-01,-1.13321e-01,3.34893e-02,-3.23934e-02,4.18952e-02,1.51774e-01,1.73054e-01,-1.55614e-01,1.89538e-01,-3.55305e-02,3.94286e-02,-5.38169e-02,1.15707e-01,1.00816e-01,-2.09116e-01,-1.90219e-01,-5.03002e-01,-8.67864e-02,1.24003e-02,-1.79010e-01,-2.01254e-01,-2.57561e-03,1.65276e-01,1.90128e-03,1.88207e-02,8.64673e-02,9.03573e-02,-2.78531e-02,-3.70858e-02,1.18667e-01,-2.70871e-02,-8.57619e-02,1.58253e-01,5.64722e-02,1.55429e-01,1.37131e-01,-1.51697e-01,8.64345e-02,4.07586e-01,-1.08012e-01,6.45718e-02,-4.86537e-02,5.24504e-01,-2.32887e-02,1.78963e-01,-1.12174e-01,-1.27606e-01,1.24992e-01,1.27530e-01,-1.11815e-01,3.49243e-02,1.66106e-01,7.05118e-02,-6.53471e-02,2.71484e-02,3.16908e-02,7.48620e-02,-1.64917e-01,-8.99940e-02,-1.77904e-01,-2.20360e-01,4.46625e-02,-1.67037e-02,-2.05340e-01,-5.40135e-02,4.81956e-02,3.05248e-02,1.79240e-01,-2.39832e-01,1.25117e-01,9.76962e-02,1.31352e-02,5.59419e-02,-2.88409e-01,-5.94427e-01,-4.93510e-02,2.07242e-02,1.49655e-01,1.72555e-01,
-1.34570e-01,-1.72562e-01,3.09950e-02,1.23524e-01,8.13975e-02,-1.40739e-01,2.41724e-01,-1.04102e-01,-3.61125e-03,1.57703e-02,2.82262e-01,-6.41945e-02,6.46152e-02,3.42814e-02,-1.77640e-01,1.19745e-01,1.94701e-01,2.58855e-02,5.26616e-02,2.58767e-02,-1.36438e-01,2.55346e-01,-1.61680e-01,4.44606e-02,1.11131e-01,-3.81336e-03,-2.04032e-02,3.06598e-02,7.39405e-02,-2.79887e-01,-1.29203e-02,2.78679e-02,1.83453e-03,2.01188e-01,5.12851e-02,-3.90953e-01,9.02851e-02,-1.29095e-01,-2.24732e-02,9.04758e-02,-1.50445e-02,-2.12505e-01,4.48396e-02,-8.15471e-02,4.27889e-02,3.80353e-02,-8.19563e-03,1.28451e-01,-1.11120e-01,1.47489e-01,-1.17529e-01,-4.73573e-02,-5.34314e-02,-1.42833e-02,-7.47619e-02,8.81390e-02,6.09789e-02,-7.38244e-02,1.52525e-01,5.80773e-02,-1.35829e-01,-7.83610e-02,2.96927e-02,-2.13453e-01,8.57949e-03,2.23208e-02,1.60538e-02,5.50820e-02,2.39054e-02,9.96743e-02,6.33086e-02,6.72406e-02,1.03185e-01,1.14067e-01,2.37731e-04,4.15284e-02,9.37955e-02,1.31622e-01,-8.52582e-02,2.85557e-03,-1.05818e-01,1.68132e-02,-1.87235e-02,-1.94779e-02,-5.05902e-01,-9.91955e-02,-1.38341e-01,2.18715e-01,2.20886e-01,-1.09886e-01,6.22115e-02,-3.34917e-02,5.40442e-02,2.93724e-04,-3.73377e-01,-4.53804e-01,-9.27904e-03,6.02751e-02,2.41337e-02,1.04349e-01,
1.68763e-01,3.21422e-02,1.23489e-01,-2.98236e-03,9.82431e-02,-1.15761e-01,9.45094e-02,-2.76846e-03,-5.41908e-02,7.65623e-02,1.06766e-01,-3.45211e-02,5.03780e-02,-4.33139e-02,1.12827e-01,-8.74887e-03,1.76401e-02,5.81295e-02,-1.07957e-03,5.33162e-03,-4.88504e-02,1.64218e-01,1.25399e-02,5.81149e-02,1.10331e-01,-9.35242e-02,-1.70432e-01,1.12542e-01,-1.15404e-01,-6.16485e-02,-4.56389e-02,3.49978e-02,-6.80043e-03,1.03234e-01,2.90260e-02,4.46140e-02,7.52394e-02,-9.63058e-02,4.18781e-01,1.72718e-02,1.68158e-02,3.57585e-02,1.09123e-02,1.85526e-01,-4.59240e-02,2.15040e-01,-8.73407e-02,4.87071e-02,1.78229e-02,-1.56192e-01,5.70099e-02,-2.05587e-03,-2.56737e-02,-5.13305e-03,7.35139e-02,-4.25244e-02,2.67452e-02,-3.98175e-02,7.73383e-02,2.55399e-02,1.32356e-01,1.65861e-03,4.83921e-02,-1.72388e-01,-1.93939e-02,5.39687e-02,-1.11678e-01,2.53218e-02,3.81694e-02,-7.81364e-02,-5.70282e-02,-3.59261e-02,9.24934e-02,1.39378e-01,1.96765e-02,8.83625e-02,5.19184e-04,1.12305e-01,1.44931e-01,-1.71151e-02,1.00508e-02,8.47297e-02,-6.11209e-03,-5.25549e-04,1.35730e-01,9.51518e-02,1.94905e-02,2.87022e-02,9.90445e-02,-2.92618e-02,-8.76182e-02,-9.63752e-02,1.58240e-01,8.86370e-02,4.19365e-01,2.49568e-01,8.63135e-02,1.44454e-01,3.98814e-02,1.40345e-01,
1.29897e-01,3.47883e-02,-6.46853e-02,-4.25259e-02,-5.23324e-02,-3.76426e-02,9.77971e-02,5.87829e-02,2.56502e-02,3.31829e-02,1.65651e-01,6.45819e-02,3.34601e-02,4.89870e-02,-1.41394e-02,1.59395e-02,2.63820e-02,7.65832e-02,8.22994e-02,4.30848e-02,3.63629e-02,2.08361e-02,1.08397e-01,3.21572e-02,6.99538e-02,-7.06006e-02,-1.84644e-01,1.51713e-01,-6.22610e-02,-6.68775e-02,8.79206e-02,3.39883e-03,3.17631e-02,4.65426e-04,4.65245e-02,6.38058e-02,-6.13731e-02,-9.03400e-02,2.19376e-01,8.59471e-02,1.66191e-02,-2.48304e-02,-5.83600e-02,1.03839e-01,2.71092e-02,1.59958e-01,-6.86250e-02,4.26620e-02,6.14667e-03,-4.49055e-02,1.19788e-02,1.56282e-02,8.54990e-02,1.06675e-01,9.47378e-02,1.11999e-01,2.77289e-02,3.01345e-02,-2.46410e-02,1.93969e-01,3.75200e-02,1.41551e-02,-6.92796e-03,1.08224e-01,7.90538e-02,1.44676e-01,-3.62865e-02,-3.72210e-02,9.87506e-02,-2.55057e-02,3.15626e-02,-4.16926e-02,1.06025e-01,2.43118e-02,4.76709e-02,-1.73446e-02,-1.06574e-01,2.73396e-02,4.12670e-02,7.01479e-04,9.32365e-02,3.84372e-02,6.35583e-02,2.56702e-02,-1.46328e-01,4.27569e-02,9.84155e-02,1.55397e-02,-1.01674e-01,2.09827e-01,-1.00982e-01,-7.03182e-02,1.31044e-01,5.16139e-02,3.24028e-01,1.47672e-01,9.29589e-04,3.73496e-02,7.34849e-02,5.77119e-02,
6.00302e-02,1.98960e-01,2.20465e-02,9.37784e-03,-8.60179e-02,2.52681e-02,-5.36328e-01,8.15867e-02,-3.20052e-02,6.22369e-02,-1.75677e-01,1.30276e-02,3.53606e-02,-2.74031e-02,1.08563e-01,-2.73728e-01,-2.08489e-01,-2.34593e-02,-1.09697e-01,1.26076e-01,5.52670e-02,-2.00084e-01,-4.74569e-01,8.61532e-02,-1.02230e-01,1.21620e-01,-9.82081e-02,2.17154e-02,-2.30525e-02,3.08906e-01,1.29384e-01,-1.36229e-01,8.55401e-02,-2.07226e-01,-1.89200e-01,-1.10521e-01,4.67399e-02,-9.02026e-01,7.89169e-02,-9.09521e-02,-8.54706e-01,-1.87185e-01,8.49868e-02,1.25656e-02,-1.55678e-01,-2.14861e-01,-1.76752e-01,-9.49176e-02,1.91195e-01,-5.46948e-02,2.70399e-01,9.21388e-02,5.24356e-02,1.53547e-01,1.13117e-01,-2.63702e-01,-3.79267e-02,8.19879e-02,-1.32198e-01,-2.89729e-01,5.55424e-02,1.65106e-01,1.75150e-01,2.48696e-01,1.25042e-02,-2.69856e-03,-5.60226e-02,-2.16210e-01,-2.29611e-02,-8.02917e-03,-1.63693e-01,-8.86037e-02,-2.84094e-01,-1.24918e-01,-2.37925e-02,-7.28683e-02,-1.20475e-01,-1.70857e-01,-5.03122e-02,-4.12231e-02,1.34414e-02,-5.14990e-01,-1.04227e-01,-6.35343e-02,2.77345e-01,6.26021e-02,1.86293e-01,-5.11489e-01,-3.41066e-01,1.48457e-01,-1.62295e-01,1.93994e-01,-8.39601e-02,-1.13000e-01,7.68102e-02,8.00698e-02,-6.63909e-02,-1.39628e-01,-8.55913e-02,3.66162e-03,
1.64131e-01,-6.56497e-02,1.05390e-01,-1.76160e-01,-8.40091e-02,5.45361e-02,-1.55325e-01,-9.52942e-02,4.38121e-02,-2.88066e-02,-2.74475e-01,2.67957e-01,-5.93248e-02,-6.09604e-02,-3.41636e-02,-1.35718e-01,-1.03989e-01,4.93888e-02,8.90931e-02,9.86783e-03,1.03956e-01,-7.63088e-02,1.77842e-02,-2.28409e-01,-4.04636e-02,-1.25526e-02,1.44836e-01,-3.48304e-04,-6.56757e-03,-1.56767e+00,1.10785e-01,1.73570e-02,4.48423e-02,5.44695e-02,-6.56438e-02,-8.65366e-02,5.90319e-02,3.55299e-01,-1.69272e-01,-4.96701e-03,8.58304e-02,2.35428e-01,-9.34705e-03,4.86676e-03,-2.30494e-01,1.18541e-01,-1.16484e-01,1.16529e-01,5.72165e-02,4.32575e-02,-2.58522e-01,1.15129e-02,1.18681e-01,9.41517e-01,-1.39068e-01,-1.90319e-01,-1.09761e-01,4.54568e-02,-1.12293e-01,4.80848e-02,2.95546e-02,-4.15147e-01,-1.87594e-02,-3.00132e-02,-6.56613e-02,5.31209e-02,-5.14385e-02,7.77539e-02,1.09558e-01,4.15747e-03,-3.51775e-01,7.84586e-02,-1.80355e-01,-1.44932e-02,-4.69708e-02,2.46113e-02,2.94046e-01,-5.24698e-01,1.22788e-01,8.60545e-02,2.04526e-04,1.16836e-01,-3.70862e-03,1.47147e-01,-3.00495e+00,1.00519e-01,2.20910e-02,-9.76841e-02,-4.01018e-01,1.09271e-01,-3.03148e-02,-1.80716e-01,6.37688e-02,1.37823e-01,4.87155e-01,4.93687e-01,1.53280e-02,1.60100e-02,-1.14137e-01,-5.22635e-02,
-3.62390e-02,-2.21429e-01,-7.22452e-02,-1.77083e-01,-4.51903e-02,5.47233e-02,1.25655e-01,-1.29222e-01,1.10451e-01,-8.71993e-02,2.17635e-01,1.11662e-01,1.21802e-01,-3.33501e-02,-6.72734e-02,1.04402e-01,-8.04663e-02,4.89778e-02,1.28126e-01,1.14640e-01,9.25951e-02,-1.63289e-01,3.69430e-02,-1.91262e-01,6.56943e-02,-1.64951e-01,2.08190e-01,1.07833e-01,-5.75128e-02,-1.36108e-01,2.79273e-02,4.19820e-03,4.43428e-02,-7.28133e-02,1.70984e-01,1.57077e-01,-7.35460e-02,6.85010e-02,-2.51769e-01,-2.12028e-01,4.80813e-02,1.46135e-01,5.45425e-02,6.38340e-02,-1.39105e-01,2.05724e-01,-1.48603e-02,1.91655e-02,-1.88756e-02,9.93599e-02,-7.56326e-02,8.15282e-03,2.43671e-02,2.59471e-01,-9.73318e-02,1.40985e-01,-1.19230e-01,3.37612e-02,-1.27462e-01,1.88209e-01,-1.37506e-01,-1.87454e-01,-5.05593e-02,-1.18825e+00,-3.66538e-02,-5.84029e-02,-1.70247e-01,6.41995e-02,-2.33189e-02,6.05415e-02,-1.87945e-01,6.18116e-02,-4.93284e-02,1.97546e-02,1.35581e-01,-1.58729e-02,1.13283e-01,-2.09105e-01,2.03190e-01,2.61533e-02,-5.37319e-02,4.77342e-02,-8.74032e-02,1.09432e-01,-2.74101e-01,7.99540e-02,-4.92025e-02,4.84423e-02,-2.73912e-01,1.58661e-01,1.42022e-01,-8.69909e-02,5.80138e-02,1.10335e-01,-3.91569e-01,2.98216e-01,8.57880e-02,8.82216e-02,-1.04766e-01,1.22135e-03,
-1.65382e-01,-6.41838e-02,-6.51936e-03,-2.47096e-02,7.80130e-02,5.10392e-02,2.61586e-01,5.57972e-03,1.07821e-01,3.75072e-03,3.52599e-02,-1.43079e-01,2.86168e-02,1.25012e-01,-2.92538e-03,5.44132e-03,-2.86628e-02,8.94041e-02,-7.63434e-02,6.46992e-03,-7.31761e-02,1.28584e-01,-1.87092e-01,-8.60168e-02,-1.24663e-02,5.54755e-03,1.65522e-02,-4.55327e-02,-7.24895e-02,4.75485e-02,1.54779e-04,-1.69205e-03,3.28930e-02,6.08452e-02,4.76083e-02,-1.47601e-01,-1.11621e-01,1.72325e-01,7.69640e-02,6.41573e-02,2.89276e-02,-1.39706e-01,3.65406e-02,1.31794e-01,1.40623e-01,6.86332e-02,1.21959e-01,-3.76741e-02,-2.94773e-02,5.86800e-03,4.01759e-03,4.82271e-03,-1.60612e-02,-9.76578e-03,-1.44881e-01,6.38478e-02,3.36717e-02,4.14525e-03,-7.29824e-04,1.24078e-01,3.46697e-02,-1.06023e-01,-1.18064e-01,-1.94262e-01,1.23551e-01,1.05248e-01,1.01489e-01,9.63567e-02,1.60595e-01,-4.33320e-03,8.51406e-02,1.29109e-01,1.37351e-01,-6.14543e-02,1.75173e-03,2.43157e-02,1.36622e-01,8.75366e-02,1.67588e-02,-4.14504e-02,-8.18471e-02,3.37726e-02,4.19890e-02,9.31893e-02,-1.59942e-02,6.50260e-02,1.14483e-01,6.28969e-02,3.46699e-02,9.10725e-02,-7.03973e-02,-5.72757e-02,-1.26989e-01,-4.60146e-02,-5.03779e-01,-2.39937e-01,-1.16213e-02,4.23881e-02,9.73489e-03,5.81935e-02,
2.70894e-01,6.30318e-02,-3.78060e-02,1.34266e-01,-4.44515e-02,1.02037e-01,9.94857e-02,8.18496e-02,2.39716e-02,8.18882e-02,-1.06678e-01,1.57010e-02,-3.29712e-03,-2.89796e-02,-8.44189e-02,2.84853e-02,1.89745e-03,-2.83554e-02,3.65678e-02,6.45321e-02,6.77502e-02,1.18050e-01,4.63949e-02,1.31742e-01,6.12953e-02,6.75016e-02,3.59244e-02,-1.67634e-01,2.84090e-02,-9.55217e-02,4.80390e-03,1.49647e-02,1.78152e-02,-7.08473e-02,-2.43040e-05,7.68495e-02,-1.26317e-01,-7.52131e-02,-6.91822e-02,5.15079e-02,1.06257e-01,-4.19682e-02,-1.06857e-02,-6.75622e-03,6.18054e-02,-5.09593e-02,5.03116e-02,4.17837e-02,7.08947e-02,1.00252e-01,2.61274e-02,8.64907e-02,-3.76317e-02,-3.31164e-02,-3.04838e-02,-6.60983e-02,8.31119e-02,1.00274e-01,-8.13571e-02,4.69523e-02,-8.30318e-02,-8.32486e-02,1.49374e-01,-2.18709e-01,8.62084e-02,7.62806e-02,1.34942e-01,-9.57272e-03,4.16368e-02,-2.35624e-02,6.60343e-02,3.76606e-02,1.84932e-02,2.92562e-02,-5.75000e-03,9.14263e-02,7.09664e-02,2.50317e-02,-1.11078e-01,1.51530e-02,-2.65053e-02,4.28240e-02,-1.17072e-02,-5.14551e-02,2.12838e-01,-4.84197e-03,-2.72286e-02,1.34961e-01,4.61519e-02,1.35101e-01,6.71190e-02,1.18145e-01,-7.02873e-02,-2.71483e-02,5.49516e-01,1.76613e-01,1.69474e-02,-4.74137e-02,1.07146e-01,-1.36389e-02,
2.77033e-01,-4.73832e-01,-1.82588e-01,-1.67466e-01,-2.89529e-01,2.97417e-02,-4.40265e-01,-1.32175e-01,-1.00608e-01,-6.50200e-02,-6.58539e-01,1.80965e-01,2.21773e-01,-1.96389e-01,-2.30476e-01,-4.12745e-02,-1.23275e-01,1.83607e-01,1.80484e-01,4.03981e-02,2.15609e-01,-6.94287e-01,7.25445e-02,-2.89762e-01,-4.82167e-02,-1.24843e-01,1.00557e-01,5.21480e-03,9.54243e-02,-5.21210e-01,7.63714e-02,-4.17656e-02,-1.98528e-03,-1.40394e-01,-7.88948e-02,3.34214e-01,1.79459e-01,1.87262e-01,-1.05545e-01,-6.84823e-02,1.09598e-01,3.78677e-01,-1.15650e-01,-7.40818e-02,-1.81018e-01,4.02891e-02,-6.26816e-02,-1.94570e-01,-5.56868e-02,-2.65572e-02,-1.64684e-01,1.12046e-01,1.51777e-01,2.71692e-02,1.50247e-01,-6.06557e-02,-8.94374e-02,1.56766e-01,-2.29205e-01,-1.00438e-01,6.34242e-02,-3.50052e-01,-9.86425e-02,-4.72453e-01,4.16186e-02,-2.79102e-01,-1.41899e-01,-5.91057e-02,-2.65727e-02,-8.16086e-02,-2.18090e-01,-7.29816e-02,-2.35524e-01,-2.14892e-01,-1.18247e-02,-6.31848e-02,2.53848e-02,-2.66321e-01,1.54273e-01,2.99327e-02,1.89316e-01,1.32517e-01,-2.00592e-01,5.27902e-02,-1.09642e-02,6.22081e-02,1.88063e-02,-4.25702e-01,-6.10668e-01,1.04320e-01,-1.03691e-01,-1.40607e-01,3.83212e-03,2.67386e-01,4.67607e-01,4.80566e-01,1.20506e-01,-1.68966e-01,-2.48754e-01,-1.85282e-01,
-3.13100e-01,-2.27226e-02,1.35512e-02,-1.09677e-01,-1.29266e-01,6.10472e-02,-2.16877e-01,-3.07377e-02,-3.04735e-03,9.96097e-02,-2.90763e-01,-5.61151e-02,4.38494e-02,-4.70202e-02,-2.90110e-02,-7.88621e-02,-8.29111e-02,2.40925e-02,3.18510e-02,3.01154e-02,2.34267e-02,-8.59906e-02,-1.68294e-01,-3.68286e-02,-1.36241e-01,8.39367e-02,1.11433e-02,-2.49624e-02,-2.98378e-02,2.42020e-01,-3.74955e-03,-9.91167e-03,3.19090e-02,-2.28616e-01,-1.20118e-01,-1.54569e-01,6.86542e-02,5.63272e-02,-2.24152e-02,8.84709e-03,-2.07229e-01,1.28820e-02,3.50042e-02,9.28647e-03,-8.27529e-02,-1.50217e-01,-1.43127e-01,-7.06035e-02,9.36848e-02,5.04972e-02,4.53562e-02,9.76947e-02,5.71304e-02,2.07539e-01,1.06266e-01,-1.47116e-01,-9.79218e-02,3.04144e-02,-7.87074e-02,-4.15430e-01,1.08233e-01,1.42315e-01,1.17134e-01,2.78666e-01,1.40611e-02,-1.81763e-01,4.08510e-02,-9.81040e-02,-1.69744e-01,-6.55146e-02,-2.66406e-01,-9.88151e-02,-2.04135e-02,-1.25545e-01,-9.35212e-02,7.08443e-02,-8.94012e-02,-1.25677e-01,1.35614e-02,-3.03103e-02,-6.06786e-02,-1.76850e-01,-4.52691e-02,-3.98654e-03,5.91457e-01,3.33731e-02,1.04346e-01,-2.49795e-01,-7.47032e-02,5.53776e-02,-1.28598e-01,-2.74001e-02,-1.06787e-01,-6.43260e-02,-6.24954e-03,-2.59111e-02,4.50908e-03,-7.63858e-02,-8.46870e-02,-4.38479e-02,
-9.85266e-02,-8.67477e-02,-1.18442e-01,1.59859e-02,-1.19359e-01,-3.84570e-03,-5.95670e-02,-3.36061e-02,-4.55072e-02,-8.40662e-02,-9.13554e-02,-6.25513e-02,-2.23076e-02,-4.96229e-03,-2.24812e-02,-8.04872e-02,-2.86750e-02,-1.13760e-01,-1.03060e-01,-3.97214e-02,4.36833e-02,-2.90020e-02,-3.78311e-02,-7.74871e-02,-2.03175e-02,9.67491e-02,8.92872e-03,-5.35661e-02,-1.15569e-01,5.37506e-02,-6.92935e-02,-3.58578e-02,6.27129e-02,-1.19723e-01,-1.71365e-02,-6.41899e-02,2.03187e-02,7.70271e-02,-1.10347e-01,-9.59294e-02,-9.83794e-02,5.64725e-03,-8.43935e-02,-2.36465e-02,-6.59544e-02,2.99401e-02,-5.81996e-02,-1.11948e-01,3.18007e-02,-1.12939e-02,-7.95879e-02,-3.61342e-02,-8.93859e-02,1.62672e-02,-2.75229e-02,4.10608e-02,-9.22144e-02,-3.15246e-02,5.65067e-02,4.76556e-02,-9.91027e-02,-9.68337e-02,1.25898e-02,5.86337e-02,-7.55637e-03,-6.70410e-03,-2.41473e-02,3.30293e-02,-1.18254e-01,-9.41443e-02,3.05713e-02,-9.90202e-02,6.40713e-02,-4.53083e-02,3.01207e-02,-7.80186e-02,7.08702e-03,-3.87496e-02,-5.83581e-02,-5.34325e-02,-6.89695e-02,-1.53872e-02,7.58766e-02,-6.23489e-02,-5.02581e-02,-6.16717e-02,-5.20584e-02,-1.13797e-04,-9.38628e-04,5.52982e-02,-5.77718e-02,1.62975e-02,-5.43806e-02,1.94145e-02,-3.67444e-02,-9.54520e-02,-1.06055e-01,-2.81548e-04,4.78511e-02,6.68198e-02,
1.17840e-01,8.81042e-02,6.58828e-02,-9.61467e-02,9.26837e-02,-1.09220e-01,2.10570e-02,-6.92572e-02,-6.79557e-02,9.47781e-02,1.15204e-01,-1.26775e-01,5.91013e-02,5.33315e-02,1.60800e-02,4.99186e-02,-5.32976e-02,6.41047e-02,-1.58930e-01,3.68148e-03,-4.33941e-02,4.86854e-02,1.26927e-01,-7.78264e-02,-5.43593e-02,9.09617e-02,-5.32384e-02,5.77575e-02,-6.98813e-02,1.64312e-01,-1.61005e-02,1.12627e-01,-3.02822e-02,4.34460e-03,5.66383e-03,1.01783e-01,1.39091e-02,-2.86337e-03,1.65180e-02,1.31674e-01,8.47587e-02,-5.73096e-02,-4.10980e-02,3.05706e-02,4.48425e-02,2.09268e-02,-7.55703e-03,-4.82864e-02,8.16983e-02,-3.90915e-02,4.03571e-02,-5.39820e-02,-4.20274e-02,6.55997e-02,4.05040e-02,-5.12009e-02,4.26294e-03,-4.01851e-02,6.90311e-02,-2.80846e-02,9.40600e-02,4.37544e-02,1.82071e-02,4.17184e-01,-1.16726e-01,1.06358e-01,-6.95940e-02,-2.16001e-02,3.99464e-02,-7.67465e-02,-1.45062e-01,-1.26786e-02,7.87653e-02,4.53895e-03,-9.12556e-04,5.73044e-02,-9.14987e-02,1.15849e-01,1.92990e-02,-5.67432e-02,8.91630e-02,-2.95326e-02,5.23600e-02,1.15237e-01,-6.70669e-02,4.54645e-02,4.17928e-02,4.70575e-02,-7.53378e-02,-6.85369e-02,-1.13911e-01,-1.09856e-01,1.28530e-01,-4.13129e-02,-3.55823e-01,-3.56840e-03,-1.81272e-02,-9.43172e-03,1.05925e-01,9.84793e-02,
-1.28865e-02,8.72767e-02,-5.23934e-02,-7.16155e-02,-6.63475e-02,3.35559e-02,-2.70937e-02,3.02537e-02,-1.39542e-01,8.65683e-02,5.01377e-03,9.86727e-02,2.94990e-02,4.78374e-02,-1.71056e-02,8.58112e-02,5.91680e-02,-6.29773e-02,3.60154e-02,-1.85277e-02,-7.49766e-02,-6.50863e-02,5.06228e-03,7.97113e-02,6.49446e-02,2.27633e-03,-2.58470e-02,-1.15615e-01,3.99298e-02,1.14056e-01,-6.67556e-02,-5.31179e-02,5.76719e-02,1.07679e-02,3.68254e-02,1.51805e-01,4.83011e-02,9.07637e-02,7.09054e-02,4.80350e-02,8.52981e-02,1.89854e-01,1.03389e-01,-6.64414e-02,1.05079e-01,2.98789e-02,6.11716e-02,-1.22341e-01,3.48675e-02,-8.01378e-02,-1.41896e-01,3.55742e-02,4.91422e-04,-2.05575e-01,1.36284e-02,8.42244e-03,-8.38872e-02,3.29337e-02,6.17775e-02,-1.31439e-02,1.30851e-02,5.85500e-02,1.05072e-01,-2.72126e-01,4.91921e-02,3.52067e-02,-2.64240e-03,1.43093e-01,-1.95626e-02,-1.18069e-02,1.53276e-01,-5.88870e-02,1.32968e-02,7.96169e-02,1.21321e-01,5.60909e-03,-1.68155e-02,-1.13782e-02,4.09940e-02,-6.07898e-02,3.72870e-02,-3.00692e-04,-6.73645e-02,3.00103e-02,3.47948e-01,5.95919e-02,-3.05489e-02,7.55138e-03,1.64591e-01,-4.22682e-02,-5.00739e-02,-6.75699e-02,1.07491e-01,8.39863e-02,-1.96065e-01,-2.01084e-01,-1.01506e-01,6.59904e-02,7.72507e-02,-2.72331e-02,
1.93420e-01,-6.11182e-02,-6.37231e-02,2.86043e-02,8.45737e-03,1.37013e-01,-3.84201e-02,-1.03980e-02,9.02672e-03,-1.01248e-01,-7.87435e-02,-1.27615e-01,-8.69212e-02,-5.05073e-02,-8.94618e-03,1.96931e-02,8.23338e-02,3.36521e-02,4.62084e-02,-7.47559e-02,-2.11488e-03,1.30705e-01,9.21050e-02,-1.30060e-02,5.80461e-02,1.25336e-01,-3.59310e-02,-1.21977e-02,6.71374e-02,7.06589e-02,6.77964e-02,1.62393e-01,-6.30078e-02,1.07111e-02,4.78006e-02,4.89000e-02,2.88471e-03,1.43561e-01,-2.53495e-02,1.04221e-01,8.13623e-02,-1.55155e-02,1.12922e-02,-3.04775e-02,1.02371e-01,-1.14540e-01,2.64074e-02,6.72014e-03,5.84680e-02,1.00172e-01,3.69968e-02,-5.70773e-02,4.71470e-02,6.70737e-02,1.85514e-02,-3.38092e-02,1.57923e-01,2.12035e-02,2.20585e-02,-1.03887e-02,-8.75068e-02,5.07136e-03,6.22039e-02,-2.82589e-01,6.54938e-02,-1.87117e-02,-3.15042e-02,-1.21368e-01,7.59177e-02,-2.14117e-02,8.03059e-02,8.06049e-02,-3.41797e-02,5.97576e-04,9.68527e-02,-2.37506e-02,1.46690e-01,-5.36277e-02,-2.29717e-02,6.01969e-02,1.74976e-02,4.20081e-02,-4.81960e-02,-2.60405e-02,7.86057e-02,3.79729e-02,1.43617e-01,5.76883e-02,2.39710e-01,-9.85258e-02,1.15409e-01,1.80778e-01,3.19722e-03,-7.62319e-02,1.17006e-01,3.25547e-01,2.05280e-02,-4.44258e-02,5.33877e-02,-1.24969e-01,
-8.69930e-02,-1.04923e-01,4.30586e-02,1.45455e-01,3.03388e-02,1.14969e-02,9.26806e-02,7.05884e-02,1.69658e-01,4.75282e-02,-3.44929e-02,-6.10071e-02,-8.87725e-03,-1.40749e-02,-2.25343e-02,1.07428e-01,8.50684e-03,-5.26850e-02,1.01558e-01,-8.62505e-02,-1.61353e-01,5.26313e-02,-1.17875e-01,1.00664e-01,-2.89461e-02,1.24766e-01,1.88417e-01,-1.27276e-01,6.61005e-02,1.03934e-02,5.96790e-02,1.10738e-02,1.28401e-01,1.04299e-01,7.01101e-02,1.13593e-01,7.60162e-02,6.58671e-02,-1.32609e-01,1.49816e-01,-6.49986e-03,1.35989e-03,-3.41031e-02,-3.94075e-02,5.74517e-03,-7.82090e-02,1.08213e-01,-9.19264e-02,-1.29604e-01,7.88596e-02,-2.95178e-03,2.37211e-01,-1.03605e-01,-5.66476e-03,-1.91547e-01,-5.43403e-02,8.07638e-02,2.12699e-02,9.78012e-02,1.00260e-01,-1.14118e-01,1.05568e-01,7.44189e-02,1.97004e-02,3.87213e-02,1.51533e-01,1.36891e-01,5.07005e-02,2.70209e-02,7.56585e-02,8.94347e-03,1.33889e-01,5.03941e-04,1.56243e-02,7.81904e-02,-2.25386e-02,-2.22456e-02,1.05199e-01,-3.70707e-02,1.12024e-01,-1.16197e-02,3.17304e-02,5.04994e-02,7.03071e-03,-7.84832e-02,-1.37836e-01,-8.41016e-02,2.89076e-02,3.04616e-02,1.05328e-01,3.31481e-02,-3.61034e-03,-8.13947e-03,-4.91071e-02,-1.12150e-01,1.70367e-01,-4.92585e-02,-1.10562e-01,5.18242e-02,-7.19721e-02,
5.35198e-02,1.27395e-01,-1.67466e-01,1.75513e-01,1.57472e-01,3.54101e-02,7.17009e-02,5.40510e-02,6.05787e-02,-2.01253e-02,-4.99535e-02,-9.82875e-02,8.77883e-02,6.11656e-02,1.45620e-02,3.46761e-02,-7.04495e-02,1.19033e-01,-5.10023e-02,-1.31875e-02,-5.05591e-02,-1.00152e-02,3.39910e-02,3.13505e-02,-7.29460e-02,1.21423e-01,1.85213e-02,-4.43481e-02,6.05928e-02,-1.26197e-01,3.36925e-02,-5.64225e-02,-1.10740e-02,9.15005e-02,-3.29862e-02,-1.92128e-01,-8.42865e-02,-2.10737e-03,-2.36970e-02,3.05065e-02,1.33465e-01,5.06310e-02,-6.82850e-02,-3.59480e-02,1.15819e-01,-1.00303e-01,7.78186e-02,-6.45953e-02,5.15335e-03,-6.04745e-02,-4.80833e-02,4.72552e-02,3.48165e-02,-1.08130e-01,-5.02829e-02,1.07476e-01,4.87768e-02,1.18509e-01,3.34776e-02,1.85335e-01,-1.80700e-01,-1.12996e-01,1.12224e-01,7.67542e-03,1.79276e-01,1.37983e-01,1.85094e-01,8.59766e-02,2.01916e-02,1.22209e-02,-1.45599e-01,4.25268e-02,-3.66224e-02,5.31487e-03,4.28420e-02,2.11082e-02,2.41667e-02,1.07516e-01,-8.49166e-02,-5.05837e-02,-7.04024e-02,1.57022e-01,4.63541e-02,3.06708e-02,2.32008e-01,-3.12845e-02,1.70181e-02,2.47996e-02,4.69645e-02,1.39367e-02,1.28236e-01,-1.05268e-01,-1.02483e-01,2.66104e-02,1.13881e-01,-1.81598e-02,8.80692e-02,-1.23506e-01,-4.28771e-02,-6.36043e-02,
-8.59777e-02,1.98194e-01,5.58607e-03,-2.45592e-02,-1.22751e-01,2.00553e-02,-6.38273e-01,3.21497e-02,3.70975e-03,-3.44531e-02,-2.20671e-01,1.54397e-01,8.39371e-02,-1.81632e-01,5.69036e-02,-3.36384e-01,-8.56466e-02,5.42304e-03,8.47511e-03,3.58565e-02,5.85536e-02,-2.14669e-01,-5.60402e-01,-9.62961e-03,-1.61572e-01,2.95243e-02,-6.51029e-02,-1.45020e-02,-1.88332e-02,4.07337e-01,1.18007e-01,-5.62565e-02,-1.29519e-02,-1.22155e-01,-2.25120e-01,-7.13010e-01,7.43549e-02,4.35810e-02,3.07904e-03,-5.00759e-02,-2.13376e-01,7.82856e-02,1.32549e-01,-2.21577e-02,-4.27064e-02,-1.47311e-01,-1.49081e-01,-8.40772e-02,8.83599e-02,-4.76491e-02,2.22030e-01,8.29418e-02,-1.64523e-02,3.00214e-01,1.67290e-01,-2.80101e-01,-1.01303e-01,7.31357e-02,-1.44497e-01,-3.62364e-01,4.44111e-02,2.45714e-01,8.45229e-02,3.98794e-01,5.12615e-02,-1.51602e-01,4.89876e-02,-1.80266e-01,-1.63352e-01,-3.01901e-02,-2.52407e-01,-9.00747e-02,-2.22779e-01,-1.24156e-01,-1.39208e-01,-2.05666e-02,-2.65034e-01,-2.39969e-01,2.47451e-02,-6.00397e-02,1.67034e-02,-2.47783e-01,-3.35097e-02,-4.96849e-02,4.12865e-01,1.83863e-01,1.51590e-01,-5.39342e-01,-2.72166e-01,1.03051e-01,-1.30760e-01,2.14455e-01,-1.19337e-02,-2.10970e-01,-1.98799e-02,-6.28210e-02,-1.11401e-01,-8.01855e-02,-3.38527e-02,-4.38738e-02,
4.56538e-01,1.33823e-02,4.10601e-02,8.85007e-02,-8.08658e-02,5.18519e-03,-1.76431e-01,1.63954e-01,-1.08684e-01,7.99778e-02,-1.43811e-01,1.49014e-01,-9.84049e-02,-1.52635e-02,8.17104e-02,-1.57118e-01,1.30589e-01,-5.95356e-02,3.47732e-02,-4.91554e-02,-1.21499e-01,1.15356e-01,5.74213e-02,1.85057e-01,-4.65347e-02,3.05822e-01,-2.38955e-01,-1.26459e-01,1.43330e-02,1.41690e-01,-3.66028e-03,-1.23399e-01,2.93696e-02,-1.02805e-01,-1.48313e-01,1.24005e-01,4.19031e-02,-1.46201e+00,2.74475e-01,2.13433e-01,-2.34636e-01,-6.00363e-01,1.22694e-01,2.46124e-02,1.26694e-01,-3.78390e-01,3.03294e-03,-3.06599e-02,7.50613e-02,-6.63451e-02,8.43880e-02,-3.22441e-02,9.41374e-03,9.49779e-02,1.74251e-01,-9.83840e-02,1.08369e-01,8.97875e-02,1.62662e-01,-3.96682e-01,1.37022e-01,2.92257e-01,1.52629e-01,1.50055e-01,1.14055e-01,1.76865e-01,1.28042e-01,-1.62228e-01,-6.75918e-02,-4.18322e-02,1.35719e-01,3.37574e-02,-1.61595e-02,4.52226e-02,-7.86371e-02,3.25841e-02,-1.76214e-01,9.85463e-02,-1.16018e-01,-2.37125e-01,3.41138e-02,-7.72232e-01,9.28460e-03,-1.75930e-01,5.07951e-02,-6.06057e-02,1.46508e-01,-1.97979e-01,1.05394e-01,-6.54911e-02,-1.22605e-01,3.42687e-02,-6.28459e-02,-1.74131e-01,9.26405e-01,-1.58600e+00,-1.98193e-02,-9.80338e-03,1.37917e-01,1.13783e-02,
9.52010e-02,3.09961e-02,-1.22424e-01,-2.72452e-02,1.24747e-02,-3.18636e-02,2.12555e-01,7.95718e-02,4.21927e-02,1.46594e-01,-1.57673e-01,3.20605e-02,-5.21372e-03,-1.83931e-02,-1.18506e-01,3.47786e-02,-4.09238e-03,2.96286e-02,4.12507e-02,4.68827e-02,-1.28396e-02,2.12305e-02,2.36244e-02,-1.47055e-01,9.09458e-03,2.84417e-01,-3.49298e-03,-2.74270e-02,2.05940e-01,-5.40262e-02,-2.69896e-01,1.40216e-01,-2.38627e-02,1.89882e-01,3.35336e-03,-1.01543e-01,7.56318e-02,-1.12744e-01,2.61693e-02,1.43292e-01,5.46999e-02,-3.77832e-02,9.49841e-02,-1.67270e-01,1.06883e-01,-1.46674e-01,-4.27860e-02,8.60809e-02,-3.21605e-02,2.98500e-01,-5.00299e-02,-2.65146e-02,-3.29319e-03,6.85957e-02,-2.67279e-03,4.70434e-02,1.39023e-01,-1.15950e-01,-9.15603e-02,-3.08461e-02,7.24411e-02,-7.75823e-02,5.26243e-02,-6.54860e-02,5.55661e-02,4.41397e-02,5.34999e-03,-1.23268e-03,1.18036e-01,-4.87871e-02,-6.54254e-02,-1.26826e-01,-5.18123e-02,7.57388e-02,9.30538e-02,2.60697e-02,7.17872e-02,8.63319e-02,-3.55957e-02,3.46562e-03,-6.05510e-02,1.38516e-01,2.68652e-02,1.42327e-01,-4.77408e-02,3.47760e-03,5.92758e-02,5.28468e-02,8.11177e-02,-1.90799e-01,6.71189e-02,-1.93824e-02,-1.27595e-01,3.94538e-02,-4.07444e-02,7.43789e-02,1.19862e-01,6.31297e-02,-5.33082e-02,2.19733e-04,
2.32804e-02,2.00293e-01,3.52059e-02,-1.20591e-01,-1.90573e-01,-6.75466e-03,-4.12855e-01,-9.13579e-02,1.62237e-01,-1.15284e-01,-1.75047e-01,-4.43739e-02,-8.08872e-02,-1.82351e-01,2.78280e-02,-1.39904e-01,-1.37941e-02,-5.30447e-02,-4.93021e-02,-6.59037e-02,8.69015e-02,-8.71346e-02,3.58030e-02,-8.97228e-03,-2.35005e-01,-8.50326e-02,6.03975e-02,5.70505e-02,-2.44517e-01,3.47622e-01,-6.33107e-02,-3.91703e-02,1.43318e-02,-4.40480e-02,-2.94940e-01,5.49586e-01,-1.24815e-01,5.08755e-02,-1.00621e-02,-4.56577e-02,-5.95897e-02,2.45108e-01,-2.30787e-02,-4.87827e-02,1.58961e-02,-2.50009e-01,-3.41803e-02,-6.84140e-02,1.52103e-01,3.39373e-02,1.39005e-01,-2.83872e-01,2.77011e-02,7.62806e-02,4.74627e-02,-6.13313e-02,5.16636e-02,-2.12766e-01,-4.53828e-02,-9.85869e-02,4.21517e-02,1.50855e-01,-5.64807e-02,3.11192e-01,1.98691e-02,-2.20895e-01,-5.48917e-02,6.48749e-03,-1.71395e-01,1.71887e-02,-1.25743e-01,7.28422e-02,-2.57678e-01,-9.41997e-02,-6.47697e-02,-1.02903e-02,-9.33078e-03,-9.15542e-02,-4.89861e-02,-3.43552e-02,-2.15674e-02,-1.10978e-01,-1.26067e-01,-1.08710e-01,8.85520e-02,6.70163e-02,6.03593e-02,-4.49359e-01,-1.74836e-01,1.25734e-01,-8.90841e-02,1.68786e-01,8.96421e-03,-1.89698e-02,1.84304e-01,3.14783e-01,1.33745e-01,-1.18776e-01,9.82379e-03,-1.76962e-01,
-2.12794e-01,2.08575e-01,3.80329e-02,2.54219e-02,-7.61777e-02,4.94963e-02,-5.98768e-01,5.57739e-02,2.03143e-02,1.61175e-02,-3.72611e-01,-7.30715e-02,1.13260e-01,-1.27682e-01,1.10172e-01,-2.85635e-01,-1.81687e-01,-7.58312e-02,-1.28511e-01,-6.04647e-03,1.05378e-01,-2.33718e-01,-5.06626e-01,1.24826e-01,-1.30036e-01,1.26837e-01,-8.78502e-02,2.45159e-02,-6.00780e-02,3.61199e-01,1.82817e-01,-7.31371e-02,7.31934e-02,-2.64975e-01,-1.53793e-01,-8.21879e-02,1.42926e-02,-7.51926e-01,-8.57670e-03,-1.16443e-01,-1.18337e+00,-7.20811e-02,1.31485e-01,3.61090e-02,-1.53759e-01,-2.07893e-01,-2.12067e-01,-1.13411e-01,1.34136e-01,-1.28338e-01,1.99488e-01,1.32678e-01,5.24151e-02,1.94269e-01,1.31004e-01,-2.50886e-01,-2.52796e-02,-6.48232e-03,-1.83292e-01,-6.21947e-01,1.38592e-01,2.23531e-01,1.26032e-01,4.11401e-01,5.62733e-02,-8.93716e-02,5.89048e-02,-1.76876e-01,-7.68319e-02,-5.21300e-02,-2.92418e-01,-9.88056e-02,-2.14591e-01,-7.72165e-02,-1.25248e-01,5.92267e-02,-1.76876e-01,-2.50607e-01,-6.72475e-02,-2.21672e-02,-2.26827e-02,-2.69884e-01,-9.81606e-02,-1.81716e-01,3.96392e-01,6.49975e-02,1.20161e-01,-3.34203e-01,-2.69745e-01,1.07802e-01,-1.14986e-01,4.82540e-02,-7.41435e-02,-1.26037e-01,-2.32569e-03,-4.01264e-02,-1.03310e-01,-1.49748e-01,-4.21676e-02,-4.09246e-02,
-9.25260e-02,-1.04565e-01,-1.16247e-01,7.77600e-02,8.88053e-02,-3.41659e-02,1.47950e-01,-1.70981e-02,1.52772e-01,7.43503e-02,1.71424e-03,5.15529e-02,3.80865e-02,1.19759e-02,-4.51428e-02,-2.62000e-02,-1.57698e-01,2.06116e-03,-1.92570e-02,5.49443e-02,-8.62479e-03,1.55038e-01,8.90792e-02,-7.76647e-02,2.14476e-02,1.84090e-01,2.35663e-01,-1.16954e-01,1.61702e-01,3.14432e-02,-3.25027e-03,-5.95293e-02,1.51988e-02,-5.11751e-02,-3.47809e-02,2.47308e-02,-9.70815e-02,-5.10096e-02,-1.14073e-01,7.05197e-02,5.09751e-02,4.95849e-02,-1.43442e-04,-9.87106e-02,9.51904e-02,-5.32964e-02,1.76498e-01,9.20305e-02,-2.00395e-02,-3.42550e-02,2.88047e-02,-8.18029e-02,1.92279e-02,1.87460e-02,-1.02036e-01,-1.33074e-02,7.92841e-02,7.26241e-02,-6.89277e-02,2.36068e-02,3.24674e-02,6.13038e-02,-8.59651e-02,1.66083e-01,1.42715e-01,1.84865e-01,6.36432e-02,1.45244e-01,6.02208e-02,9.16450e-02,1.43772e-01,-2.31469e-02,-1.20555e-01,3.41011e-02,-7.74649e-02,8.72036e-02,1.66457e-03,2.67454e-02,-3.93285e-02,-4.52091e-02,-1.42460e-01,-2.38644e-02,8.60013e-02,6.20817e-02,1.01991e-01,5.48114e-03,6.83055e-02,1.23226e-01,1.21320e-01,5.12669e-02,1.46602e-01,8.56253e-02,-1.35226e-02,-6.60945e-02,-5.38261e-02,3.57938e-02,8.45809e-02,-4.84000e-02,-1.59834e-02,-5.79682e-02,
1.18639e-02,1.26326e-01,9.13128e-03,8.03123e-02,-9.45707e-02,2.05586e-01,-5.39887e-01,-8.29204e-02,8.80179e-02,4.65430e-02,-2.06753e-01,-7.18574e-02,-2.07197e-01,-5.30356e-01,-4.84455e-02,-1.52075e-01,-1.66607e-01,-2.36376e-03,-3.16663e-01,5.68731e-02,-8.59310e-03,-2.28671e-03,-3.00232e-01,-2.71674e-03,2.25439e-01,1.30854e-01,-1.29008e-01,4.34407e-02,7.29408e-02,2.02853e-01,8.76719e-02,-1.01261e-01,1.75629e-01,-2.53033e-01,-2.24346e-01,5.54831e-02,-3.72759e-01,-1.22704e+00,-8.40066e-02,-4.06559e-02,-3.62739e-01,4.65632e-02,-2.30439e-02,5.07978e-02,2.23896e-02,-2.80800e-01,-6.92367e-02,-1.84129e-01,1.70616e-01,1.34325e-01,2.40714e-01,2.70498e-01,-2.23365e-02,2.44373e-02,1.67390e-02,-2.05837e-01,2.58062e-03,5.59191e-02,1.29746e-01,-4.14352e-01,2.29702e-01,1.15720e-01,9.49938e-02,1.69477e-01,2.41381e-02,-7.11806e-02,1.01021e-01,-4.11743e-01,-6.56788e-02,-6.38583e-02,-2.55675e-01,-2.04823e-01,-1.26743e-01,-1.76784e-01,-1.23515e-02,8.64824e-02,-6.67232e-02,-1.08255e-01,-7.68223e-01,4.48094e-02,-1.07700e-02,-6.62248e-01,-1.37789e-01,-2.31703e-02,2.01261e-01,7.98162e-03,3.74082e-02,-7.58974e-01,-1.92372e-01,3.97017e-01,-1.83344e-01,1.06971e-01,-1.60127e-01,3.48624e-02,-3.58921e-02,7.98204e-02,7.88250e-02,-2.58209e-01,-1.98215e-02,-1.63034e-01,
2.97314e-01,3.93706e-02,1.59862e-01,-8.28319e-02,-8.39453e-03,4.18361e-02,-1.31777e-02,4.47397e-02,9.53645e-02,-4.57224e-01,-7.80800e-02,1.27305e-01,2.45980e-02,5.21124e-02,-1.27412e-02,-1.41182e-01,-1.00977e-01,2.21708e-02,-8.56428e-02,2.12163e-01,3.79884e-02,4.51988e-02,4.52392e-02,1.49173e-02,-8.52520e-02,-3.56925e-01,2.67604e-01,9.47193e-02,3.32564e-02,-3.23753e-01,1.07450e-01,5.13758e-02,-6.22463e-03,-1.05588e-01,4.72940e-02,2.91535e-01,1.10213e-01,3.05743e-01,-3.93233e-01,-1.02944e-01,-7.84076e-02,1.17063e-01,-3.21132e-01,-1.47793e-02,-2.47086e-02,6.86416e-02,-1.11754e-01,-6.78394e-02,1.52112e-01,1.36298e-02,2.62807e-01,3.18663e-02,3.58681e-02,-3.44028e-02,-7.58059e-02,-9.85617e-02,-2.89716e-01,1.36821e-02,-1.73622e-01,-2.23540e-01,8.63003e-02,5.19723e-01,-2.00157e-01,1.04923e-01,-1.83063e-02,-1.46286e-01,-1.33860e-01,1.35858e-01,-1.36134e-01,-2.56563e-02,-6.38368e-01,3.88258e-02,-1.09075e-01,-1.28506e-02,-7.14765e-02,-6.07531e-02,-2.30572e-01,-9.46934e-02,1.76001e-01,7.81614e-02,8.19414e-02,-1.34568e-02,4.22647e-02,4.66408e-02,-1.89712e+00,-3.32166e-02,1.28619e-01,-7.34069e-02,-3.26750e-01,2.39680e-01,-8.94054e-02,-4.56756e-02,-2.07158e-02,2.17500e-02,5.42275e-01,8.46145e-02,1.29727e-02,2.36170e-02,4.86878e-02,-2.94106e-02,
-2.41101e-01,-3.13121e-01,6.30403e-02,-4.28351e-03,9.35565e-02,2.22012e-04,1.32736e-01,2.23139e-03,6.65640e-02,-2.91403e-02,2.72208e-01,-2.02221e-01,2.84190e-03,7.33899e-02,-4.15865e-02,-3.54503e-02,-3.04539e-02,-3.39237e-02,4.22895e-02,1.79950e-02,1.19378e-01,-3.55258e-02,4.73590e-02,4.51499e-02,1.29170e-01,-1.25958e-01,4.89689e-02,7.40277e-02,-8.53957e-02,-3.97293e-01,2.45360e-02,2.06314e-02,3.48258e-02,4.29074e-02,5.86494e-02,5.08949e-02,-2.87205e-02,8.52445e-02,-6.93179e-02,-6.07529e-02,1.97382e-02,2.52091e-01,7.57868e-03,8.09029e-02,6.09635e-02,1.64035e-01,-3.47167e-02,-1.27405e-02,-1.97476e-02,5.33595e-02,-4.45603e-02,1.66056e-02,-3.98257e-02,1.48076e-02,-2.27503e-01,6.81476e-02,3.70971e-02,-3.63400e-02,-5.59251e-02,1.98308e-01,-9.00038e-02,-1.97066e-01,-2.69788e-02,-1.26782e+00,-1.05607e-01,1.11810e-01,-1.02804e-01,1.02858e-01,2.67934e-01,1.51222e-01,-8.32441e-02,1.70984e-01,1.03479e-01,-2.34747e-03,3.23043e-02,-5.33798e-02,2.11444e-02,6.38944e-02,9.47121e-03,4.12554e-03,-1.27105e-01,-6.66792e-02,-2.49839e-02,9.55053e-03,-2.52512e-01,9.96344e-02,-1.17526e-01,6.06284e-02,3.54837e-02,6.11370e-02,8.44246e-02,-5.67464e-02,4.94101e-02,-8.60213e-03,-4.34431e-01,-2.00544e-01,1.35181e-01,-2.72682e-02,9.97974e-02,5.12400e-03,
6.16859e-02,1.40593e-01,2.14852e-01,2.56463e-02,5.86414e-02,1.73123e-02,-1.63862e-01,6.44567e-02,-1.65611e-01,-3.76629e-02,-1.20660e-01,2.45470e-03,-1.97263e-01,-4.69265e-01,-3.60310e-02,-9.52957e-02,-5.26318e-02,-9.56094e-02,-7.37898e-02,-3.57020e-01,2.67132e-02,-3.46503e-01,4.60820e-02,-1.94928e-02,-6.92916e-02,1.02624e-02,-4.40231e-02,-1.09254e-01,-9.98530e-03,2.21729e-01,-1.35329e-01,-1.30386e-01,-3.97142e-02,-3.91969e-02,-1.43379e-01,2.19696e-01,5.35889e-02,1.33890e-01,-4.56437e-02,-1.14084e-02,3.46158e-04,1.26031e-01,1.62901e-02,2.46863e-02,3.03874e-02,2.82953e-03,-1.35123e-01,-1.63872e-01,6.18336e-02,-5.63262e-02,1.46244e-01,-4.82106e-02,1.37143e-01,3.23348e-02,1.02918e-01,8.52016e-02,5.97746e-02,-1.55998e-01,3.12725e-02,-1.16700e-01,3.11126e-02,2.50782e-01,-3.41172e-02,4.30246e-01,-1.02600e-01,-4.30533e-01,-1.15491e-01,-1.75627e-02,-2.78890e-02,-9.74368e-02,-4.49986e-02,1.44602e-01,-3.82025e-02,-2.83799e-01,-1.48948e-01,-2.18857e-01,-3.94600e-02,-5.98786e-02,3.15136e-01,7.33409e-02,-1.94777e-01,3.59454e-02,1.04821e-02,9.86041e-02,2.10015e-01,4.74923e-02,-2.93265e-03,-1.38055e-01,-4.28512e-02,9.06794e-02,-6.67004e-02,1.98672e-01,-4.82501e-02,3.55129e-02,2.64634e-01,3.95180e-01,-4.12044e-02,-1.56013e-02,-7.88414e-02,1.21929e-01,
-7.64574e-01,-7.43745e-02,2.90085e-02,1.50513e-01,3.66804e-03,-1.80586e-01,-6.16057e-02,6.87101e-02,1.26476e-01,3.54595e-02,2.60736e-01,-2.26112e-01,-1.00797e-01,-8.40596e-02,-2.55438e-04,-1.49050e-01,-1.38327e-01,-9.18032e-02,-6.74721e-02,6.58668e-02,-2.78170e-02,8.33580e-02,-3.29437e-02,1.13961e-01,-9.62390e-02,2.04559e-01,3.70217e-04,4.40088e-02,-1.48668e-01,1.42169e-01,2.63809e-02,-4.14780e-02,2.47629e-02,8.32865e-02,-1.04963e-01,9.79710e-02,-4.76106e-02,-2.26354e-02,-6.35197e-03,1.14477e-02,-4.29389e-02,1.28781e-01,-5.79007e-02,1.45806e-01,-7.23749e-03,-2.53164e-01,-4.62264e-02,7.42425e-02,-4.44468e-03,1.57002e-03,9.46474e-02,-1.50022e-02,-2.53884e-03,2.64309e-01,3.85370e-01,-1.25274e-01,2.03252e-01,-5.97877e-02,2.83864e-02,7.61587e-02,6.58754e-02,1.80843e-01,-1.17045e-02,-1.45147e-02,8.58755e-02,2.06649e-01,9.91606e-04,-3.09990e-01,8.31467e-02,7.97602e-02,-1.41772e-01,-9.05804e-02,-3.81593e-02,-4.22864e-02,-2.30867e-01,5.09383e-02,-2.86694e-02,-2.19243e-01,-1.56602e-01,-4.51669e-03,-9.99308e-02,3.07050e-02,-1.38356e-02,-7.07068e-02,4.71751e-01,-8.68300e-02,1.55605e-01,-4.23870e-02,-5.16013e-03,-1.84357e-01,-4.89137e-02,1.51007e-01,-5.04351e-03,1.91824e-02,-1.15101e+00,-3.21569e-01,-1.51574e-01,-2.42550e-01,1.06390e-01,1.36445e-01,
3.31544e-01,-3.74303e-01,-1.74678e-01,-3.75257e-01,-1.95547e-01,-5.37023e-02,-4.16631e-01,-9.77468e-02,-8.09198e-02,-2.23976e-01,-6.81038e-01,2.08062e-01,2.33820e-01,-1.68109e-01,-2.14246e-01,-1.20335e-01,-1.83921e-01,1.18751e-01,1.46899e-01,5.00868e-02,2.24014e-01,-6.71729e-01,1.80045e-01,-2.72103e-01,-1.46748e-01,-6.48872e-02,1.19929e-01,-4.52812e-02,1.40269e-01,-7.31627e-01,7.83152e-02,5.32076e-02,-6.16600e-02,-6.48459e-02,-1.44362e-01,2.89928e-01,2.03987e-01,2.16030e-01,-4.08031e-01,-2.41114e-01,1.47987e-01,3.18394e-01,-6.11675e-02,-1.74793e-01,-2.02933e-01,3.05066e-02,-1.21564e-01,-1.59081e-01,2.67070e-02,7.29932e-02,-1.84525e-01,9.16427e-02,1.42514e-01,6.00015e-02,9.55995e-02,-1.70134e-01,-1.26944e-01,1.77881e-01,-2.21685e-01,-7.91610e-02,1.12135e-01,-1.38034e-01,-5.54603e-02,-1.14099e+00,9.45511e-02,-3.82871e-01,-1.02242e-01,1.59239e-02,-1.73702e-01,-1.66858e-01,-2.38637e-01,-3.19032e-02,-2.11325e-01,-1.92085e-01,-2.82417e-02,-7.05684e-02,5.16354e-02,-2.63685e-01,2.48156e-01,5.13128e-02,1.30174e-01,4.39439e-02,-1.52517e-01,6.97164e-03,-7.14561e-02,3.97774e-02,9.60059e-02,-4.52049e-01,-5.40159e-01,1.23104e-01,-1.24345e-01,-1.28433e-01,2.57512e-02,2.37098e-01,4.42640e-01,5.16529e-01,2.45471e-01,-1.38756e-01,-1.97936e-01,-6.03285e-02,
1.80370e-01,1.90510e-02,-3.47075e-02,2.89571e-01,1.06138e-01,-8.09726e-02,6.28971e-02,-6.33637e-02,3.89159e-03,-3.40941e-02,9.88518e-02,5.69324e-02,1.31723e-01,4.55029e-03,6.70829e-02,5.86881e-02,-9.95266e-02,3.18075e-02,4.59196e-03,3.20171e-02,6.23813e-02,-4.30653e-02,2.11873e-03,8.94528e-02,-2.56576e-02,-1.31333e-02,-1.94336e-01,-7.34677e-03,-1.92481e-03,1.36876e-02,8.61417e-02,-1.10076e-01,-2.85887e-02,2.17912e-02,1.10036e-01,3.14866e-02,1.15715e-01,-1.72207e-02,2.67137e-01,6.04783e-02,-8.11124e-03,1.66787e-01,1.74940e-02,2.61941e-02,-2.99272e-02,8.44412e-02,-1.11905e-01,7.50441e-02,6.71621e-04,-7.09798e-02,-7.74598e-02,1.11819e-01,8.60218e-03,5.34128e-02,9.93684e-02,-3.74380e-02,-6.79650e-02,2.16273e-02,1.44815e-01,-5.68454e-03,4.31612e-02,-6.42898e-03,1.60829e-01,-1.85023e-01,9.04694e-02,6.19872e-03,-3.96722e-02,-4.22746e-02,6.62218e-02,-1.24152e-01,-1.52979e-01,3.03706e-02,8.42945e-02,3.88204e-02,1.08831e-01,5.54349e-02,9.55210e-02,2.19260e-01,6.60291e-02,8.42497e-02,3.63909e-02,8.83995e-02,-6.32579e-02,8.04088e-03,-4.99591e-02,-1.06340e-01,-6.03936e-04,7.24070e-02,-2.80819e-02,8.59612e-02,1.57435e-02,-7.75634e-02,1.58416e-02,7.43715e-02,1.34925e-01,1.31716e-01,9.30090e-02,1.35023e-02,8.55686e-03,1.01542e-01,
-3.70693e-02,8.30418e-02,-6.69383e-02,4.88323e-02,-9.30717e-02,3.55952e-02,-4.36970e-02,-7.27178e-02,2.67628e-02,-9.15449e-02,-5.11835e-02,6.76242e-02,7.12831e-02,-3.14025e-02,-3.01239e-02,-6.63999e-02,9.46651e-02,-2.98027e-02,-1.03835e-01,1.96075e-02,9.74633e-03,-2.91295e-02,1.07059e-02,4.94945e-02,-3.99720e-02,-6.84228e-03,-2.57052e-02,2.14705e-02,-6.46902e-02,-2.59398e-02,-2.53354e-02,-9.41829e-02,-1.77758e-02,-1.55671e-02,-5.32656e-02,2.04244e-02,2.87545e-02,-5.43836e-02,3.82764e-02,-9.22593e-02,4.56258e-02,-8.74218e-02,-4.73855e-02,-4.95022e-02,6.46596e-02,-8.98809e-02,-6.52745e-02,-7.70910e-02,9.45208e-02,-2.62056e-02,-9.25172e-02,4.67058e-02,8.51168e-02,-9.57451e-02,4.69270e-02,5.33248e-02,-8.46689e-02,-1.43382e-02,5.61154e-02,-8.40613e-02,-9.34062e-02,-7.69503e-02,4.79371e-02,-1.47269e-02,-8.40543e-02,2.02160e-03,2.24854e-02,-8.82353e-02,-5.23966e-02,7.11508e-03,-1.54930e-02,-5.57954e-02,-2.83939e-02,-6.72926e-02,1.82213e-02,5.49452e-02,-8.22694e-02,-9.96974e-02,6.76762e-02,6.15402e-02,-9.95548e-02,-7.81878e-02,1.97815e-02,3.56790e-02,-7.69151e-02,-3.19007e-02,-9.03153e-02,-7.94442e-03,-1.11744e-01,-6.48676e-02,-1.36108e-02,1.08465e-02,-9.03256e-02,-9.65731e-02,3.91336e-02,6.16787e-02,-8.67201e-02,3.18873e-04,-9.51433e-03,-9.10030e-02,
-1.25162e-01,9.55237e-02,1.54609e-02,-9.11971e-02,-9.64751e-02,8.79493e-02,-6.06992e-01,1.08438e-01,2.91837e-02,-2.36437e-02,-1.99931e-01,1.30227e-01,5.00578e-02,-7.28770e-02,1.28517e-01,-1.70182e-01,-1.42308e-01,4.99376e-03,-1.18943e-01,9.45352e-02,-1.77380e-02,-2.60082e-01,-4.36938e-01,8.13333e-02,-9.47907e-02,1.32534e-01,-9.20056e-02,4.88326e-02,9.31151e-03,4.29408e-01,1.31670e-01,-1.11402e-01,5.04437e-02,-6.23901e-02,-2.09886e-01,-7.75118e-01,1.24108e-01,3.80401e-02,-1.53297e-02,-8.58629e-02,-1.53706e-01,1.24829e-01,4.06125e-02,-3.31784e-02,-1.12916e-01,-2.91277e-01,-7.70623e-02,-8.79471e-02,4.40203e-02,-9.41415e-02,2.12372e-01,1.05895e-01,3.47352e-02,1.75973e-01,1.17091e-01,-1.29040e-01,-7.28885e-03,6.86238e-02,-1.14920e-01,-2.42348e-01,8.86361e-02,1.21701e-01,8.83870e-02,2.62585e-01,-5.35347e-02,-7.07022e-02,-6.06240e-02,-1.86195e-01,-9.91411e-02,-1.54009e-02,-6.67530e-02,-1.62129e-01,-3.07897e-01,-6.32438e-02,-1.09212e-01,2.38322e-02,-1.76050e-01,-2.17917e-01,-2.70224e-02,-5.81901e-02,6.60623e-02,-2.04953e-01,-1.86543e-02,-5.89555e-02,3.34847e-01,3.53257e-02,2.42614e-01,-4.70735e-01,-2.24699e-01,7.08509e-02,-1.02880e-01,1.35123e-01,2.04869e-02,-1.26600e-01,3.86815e-02,-9.27007e-02,-5.38233e-02,-1.01708e-01,-9.76607e-02,-8.19845e-02,
-2.70859e-01,1.85281e-02,5.91795e-02,-1.20243e-02,1.05069e-01,2.89213e-02,2.08050e-02,3.35534e-02,-4.28263e-02,7.00983e-02,4.70523e-02,-2.45327e-01,6.92537e-02,1.43097e-03,-5.61709e-02,1.89235e-01,2.65017e-02,-7.52721e-03,-5.40942e-02,2.64416e-02,-2.87009e-02,1.41760e-01,9.58723e-02,-1.40306e-02,1.53331e-02,-3.58611e-03,2.07984e-02,4.12407e-02,4.99691e-02,1.70379e-01,-2.87586e-02,5.06236e-02,-3.99593e-02,9.40047e-02,1.41862e-01,4.66124e-02,-5.67314e-02,-7.75734e-02,6.25617e-02,1.00312e-01,-1.98981e-01,-2.24844e-01,3.01904e-02,1.68511e-02,8.28506e-02,-2.10735e-02,1.25917e-01,-5.10095e-02,6.16098e-03,3.08929e-04,6.58542e-02,5.33951e-02,-5.32622e-02,-9.27972e-02,1.14504e-01,2.08062e-01,1.13963e-01,-4.01439e-02,7.05145e-02,-8.71663e-03,1.23347e-01,-1.55772e-02,5.48799e-02,-1.09748e-01,4.82282e-02,-7.63306e-02,-1.31061e-01,-6.65658e-02,-8.31256e-02,1.63555e-02,8.87631e-02,9.19547e-02,6.90336e-02,1.87283e-02,1.06691e-01,1.40280e-02,1.14810e-02,4.20271e-02,8.64149e-02,-2.19015e-02,1.34510e-01,-1.13814e-02,-1.75413e-02,2.56758e-02,3.31303e-01,-8.52651e-02,-4.96074e-02,5.13362e-02,1.41888e-01,-1.16793e-01,-4.95709e-02,1.34836e-02,8.85412e-02,-1.53214e-03,-2.57522e-01,-2.33375e-01,9.88950e-02,5.08458e-02,4.10674e-02,1.80742e-02,
-3.21188e-01,9.47072e-02,1.58377e-02,-1.24605e-01,-1.19118e-02,-6.93499e-02,4.23701e-02,5.97891e-02,6.03521e-02,1.60208e-01,1.72051e-01,8.82513e-02,7.10090e-02,-8.22657e-02,1.43405e-01,6.82808e-02,1.02052e-01,1.15246e-01,-3.63517e-03,-3.29511e-02,-7.37961e-02,1.87432e-01,4.16866e-02,9.27050e-02,1.65915e-02,-9.30666e-02,-1.37085e-01,1.13584e-01,-7.97722e-02,8.38028e-02,1.60234e-02,1.44967e-01,1.13537e-03,5.67610e-02,9.13307e-02,1.49799e-02,-2.42024e-02,2.28028e-01,2.44217e-01,2.64788e-02,-1.18560e-02,-1.20193e-01,2.76969e-02,8.44637e-02,-1.04610e-01,9.75468e-02,-1.97459e-02,-6.50929e-02,-3.33286e-02,-7.82316e-02,1.20587e-02,-5.63011e-03,4.53153e-02,-5.22575e-02,1.79185e-02,4.14824e-02,-6.06143e-02,3.18465e-02,1.12071e-01,1.96657e-01,1.50070e-01,1.06383e-01,1.20437e-01,7.77951e-02,-7.79203e-02,-7.14427e-02,-1.55197e-01,-1.01846e-01,5.91033e-02,-5.38171e-02,4.79478e-02,4.34602e-02,-1.19372e-02,1.23137e-01,8.37838e-02,3.35476e-02,7.21102e-02,1.06932e-01,1.45330e-01,1.68242e-04,1.09149e-01,9.89296e-03,1.03746e-03,2.12250e-02,5.65356e-02,6.26431e-02,-2.80955e-02,-3.87911e-02,4.82843e-02,3.77491e-02,-4.00686e-02,4.58571e-02,3.66474e-03,-8.81922e-03,-2.33589e-01,1.75342e-01,6.28525e-02,-1.32578e-02,2.20785e-02,-8.28471e-02,
-1.25079e+00,3.04552e-01,3.21860e-02,-8.03544e-02,-1.25407e-01,9.71959e-02,-4.64818e-01,2.41171e-02,-1.60871e-02,7.66881e-02,-4.59654e-01,2.56579e-01,-1.34381e-02,-1.99706e-02,4.17332e-02,-1.76292e-01,4.51484e-02,5.42361e-03,4.74072e-02,8.99876e-02,-3.78399e-02,-8.90071e-02,5.67801e-03,-1.95977e-02,1.64572e-05,1.60509e-01,-9.56608e-02,-9.43598e-02,4.92696e-02,8.20394e-02,4.88117e-02,2.11703e-02,8.72887e-03,-1.38888e-01,-3.01903e-01,-1.00820e+00,9.64146e-02,5.97972e-01,1.25145e-01,8.55488e-02,1.08667e-01,2.10391e-01,5.98193e-02,-5.30528e-02,-4.58109e-02,-1.85296e-01,-6.58427e-02,-4.88642e-02,-1.73301e-04,-6.17047e-02,-1.66103e-02,-1.50986e-02,6.84352e-02,4.00252e-01,1.78855e-01,-1.65483e-01,8.65415e-02,1.12979e-01,-4.35807e-02,-2.36701e-01,1.12747e-01,3.00810e-01,1.19490e-01,6.65361e-01,1.46559e-02,-1.02299e-01,7.53687e-02,-6.06143e-02,-2.09599e-01,-1.60171e-01,-2.44887e-02,1.27509e-01,-9.96384e-02,1.31714e-02,1.92085e-02,-4.05616e-03,-9.90519e-02,-2.29571e-01,2.12343e-02,3.78127e-02,1.98110e-01,2.86825e-01,-6.35024e-03,-1.04185e-01,4.05999e-01,-9.28540e-02,2.84099e-02,-2.66059e-03,-1.75832e-01,6.23749e-02,-1.17629e-01,-1.27828e-01,-5.19867e-02,4.13227e-02,-4.94143e-01,8.49336e-02,1.07867e-01,1.23443e-01,-1.90595e-01,-7.87411e-02,
2.20978e-01,2.28715e-02,4.58739e-02,1.65466e-01,4.16770e-04,-2.64122e-02,9.01862e-02,-1.47453e-02,-4.07898e-02,3.56169e-03,-4.30842e-03,-7.02096e-02,1.82498e-01,-5.04476e-02,-4.97122e-02,3.44664e-02,1.21871e-02,7.43927e-02,2.65747e-03,-4.37726e-02,2.30731e-02,5.55330e-02,6.48588e-02,8.71076e-02,1.99434e-02,1.51738e-01,3.08146e-02,-5.52341e-02,9.75667e-02,2.68100e-02,-1.05883e-02,-2.98003e-03,6.66409e-03,1.24672e-01,1.62556e-01,-6.82230e-02,1.10268e-01,-7.48508e-02,-9.38171e-02,-8.90161e-02,3.42806e-03,2.68032e-02,9.01059e-03,-1.41840e-02,6.37088e-02,-1.03625e-01,9.76312e-03,3.07594e-02,-5.34343e-02,2.19926e-02,2.35086e-02,8.91619e-02,-2.90194e-02,-6.89774e-03,7.81519e-02,-1.07481e-01,4.95614e-02,2.81324e-02,-6.70759e-02,-1.54160e-01,-3.81195e-02,2.75157e-02,6.64341e-02,-1.65344e-01,1.25011e-01,-4.96113e-02,4.73784e-02,-3.95780e-02,-8.68840e-02,1.52863e-01,1.58823e-01,3.26432e-02,2.15941e-02,1.39463e-01,2.09417e-02,7.74428e-02,1.25855e-01,-4.24226e-04,-7.46391e-02,-6.54145e-02,-9.87052e-02,4.94070e-02,5.89279e-02,-1.32454e-02,8.27474e-02,3.77393e-02,-4.14834e-02,-1.82968e-02,1.25592e-01,-3.74705e-02,1.59167e-01,3.78000e-02,-8.15247e-02,-1.01012e-01,1.85150e-01,1.02392e-01,1.49808e-02,-2.16724e-02,4.14595e-02,7.52380e-02,
-2.57890e-01,1.65255e-01,-7.17950e-02,9.46990e-02,1.87223e-02,1.07352e-01,5.73666e-02,6.65303e-02,-9.07525e-03,-6.17828e-02,-7.53929e-02,1.18130e-01,6.63960e-03,4.76634e-02,-1.21084e-01,-7.37296e-03,3.05953e-02,1.72342e-01,-9.93289e-03,7.95706e-02,5.58257e-02,5.41435e-02,-2.64682e-03,4.55885e-02,1.29903e-01,-7.49256e-03,2.23256e-01,-1.51934e-02,8.18974e-03,-9.32730e-02,-1.59499e-02,5.98662e-02,-3.86271e-02,1.31967e-01,1.14244e-01,1.15399e-01,9.62341e-02,1.31635e-01,-1.88575e-01,8.47061e-02,-1.20556e-01,5.56948e-03,-3.54589e-02,-4.95185e-02,6.73497e-02,-1.35471e-01,-4.88840e-03,1.01008e-01,-4.36183e-03,1.40345e-01,-5.18400e-02,1.20024e-01,1.15967e-01,7.35712e-02,9.06475e-03,3.06545e-03,1.23626e-01,-4.39922e-03,5.04677e-03,1.36402e-03,-9.89812e-02,9.00600e-02,-6.45869e-03,2.09344e-02,1.36625e-01,-7.10638e-02,5.23167e-02,1.18165e-01,1.26686e-02,1.18690e-01,6.37090e-02,-9.12718e-02,3.68249e-02,3.08170e-02,1.36935e-01,-2.85220e-02,4.50096e-02,-4.37660e-02,-3.01929e-02,2.47148e-04,-2.20427e-02,2.61904e-02,1.40447e-01,-1.94600e-02,2.46030e-01,1.05736e-01,-9.59600e-02,7.00899e-02,6.44025e-02,-2.57909e-02,3.96666e-03,7.44396e-02,-6.42304e-02,5.17585e-03,-3.72797e-01,-1.50981e-01,1.78925e-01,-2.57018e-02,1.06536e-01,3.35919e-02,
2.77676e-01,-1.85674e-01,-1.92198e-01,-1.36683e-01,-1.87531e-01,2.46531e-02,-2.79308e-01,-8.16026e-02,-9.26500e-02,-1.56345e-01,-3.39806e-01,1.64167e-01,9.68132e-02,-1.54980e-01,-1.30591e-01,-2.42567e-02,2.78315e-02,1.81703e-01,3.16301e-02,-6.88447e-03,1.86709e-01,-4.13292e-01,1.38372e-01,-8.74977e-02,-6.49362e-02,4.69285e-02,1.35613e-01,-2.74663e-02,1.18288e-01,1.98995e-01,1.20750e-01,9.23558e-02,-5.33101e-02,-7.68733e-02,-1.42189e-01,2.04131e-01,6.10642e-02,1.90496e-01,-2.68726e-01,-1.70280e-01,2.45534e-02,2.71682e-01,-1.22368e-01,-1.16248e-01,2.53668e-02,-7.89635e-02,-8.95059e-02,-1.76655e-01,-6.43790e-03,-3.27715e-02,5.15215e-02,1.14903e-01,8.44412e-03,-3.44137e-02,1.52360e-01,-2.01500e-01,-4.51198e-02,1.15138e-02,-1.24754e-01,-1.96343e-01,1.28717e-01,1.40756e-02,4.41831e-02,4.65894e-01,3.26118e-02,-2.09871e-01,-8.27048e-02,-6.27798e-02,-1.26131e-02,-1.75651e-01,-2.74565e-01,-1.37066e-01,-9.42179e-02,-6.66122e-02,2.25338e-02,-1.67821e-02,-8.37496e-02,-1.07226e-01,7.57904e-02,3.64103e-02,1.38077e-01,1.80427e-02,-1.45371e-01,-1.49704e-02,5.01236e-03,5.69458e-02,9.57765e-02,-1.79669e-01,-2.22349e-01,7.58610e-02,-1.27325e-01,-6.71105e-02,-3.48491e-02,2.09164e-01,4.43197e-01,4.73061e-01,1.77164e-01,-1.44869e-01,-2.01650e-01,-1.06208e-01,
-8.35329e-02,3.05090e-01,1.24178e-02,-9.69794e-02,-9.22758e-02,4.91207e-03,-7.35624e-01,7.51258e-02,9.20537e-02,1.30453e-02,-4.12783e-01,-1.95862e-03,5.55463e-02,-1.58790e-01,1.09432e-01,-4.56217e-01,-2.21514e-01,7.42593e-02,-1.37563e-01,2.56942e-02,8.59544e-02,-2.75256e-01,-6.48050e-01,1.19149e-01,-2.07256e-01,1.57277e-01,-1.38137e-01,4.98597e-02,-3.47162e-02,3.85506e-01,6.03510e-02,-8.76357e-02,1.01011e-01,-1.17945e-01,-3.55130e-01,-9.43394e-02,1.29395e-01,-5.37231e-01,5.58401e-02,-7.63268e-02,-9.84183e-01,-1.78252e-02,1.19411e-01,-4.78561e-02,-1.29564e-01,-3.33291e-01,-1.89336e-01,-1.65981e-01,2.02209e-01,1.45870e-02,3.10014e-01,9.27069e-02,5.63578e-02,1.43162e-01,1.23133e-01,-3.79515e-01,-5.69979e-02,7.31742e-02,-1.37931e-01,-3.75623e-01,1.51429e-01,2.37629e-01,1.44984e-01,3.77536e-01,-1.26834e-04,1.66193e-02,6.05393e-03,-1.58856e-01,-7.59475e-02,1.31779e-02,-3.22627e-01,-1.42518e-01,-2.71258e-01,-1.71042e-01,-2.01636e-01,1.17718e-03,-2.39857e-01,-2.36756e-01,3.51680e-02,-9.97188e-02,-1.41339e-02,-4.88039e-01,4.47750e-02,-1.43570e-01,3.79786e-01,1.01909e-01,2.07015e-01,-7.82564e-01,-3.73572e-01,9.92267e-02,-2.97058e-01,2.66745e-01,-1.00266e-01,-2.04508e-01,-9.41963e-03,-7.41512e-03,-1.35709e-01,-1.31203e-01,-6.18126e-02,-7.06829e-02,
-1.04607e-01,1.39485e-02,-5.82232e-02,7.99137e-02,5.19992e-02,8.55276e-02,1.08857e-01,6.78695e-02,9.27874e-02,1.69198e-02,-1.08788e-01,5.16598e-02,-4.51644e-02,3.98466e-02,-6.81521e-02,-4.65260e-03,-7.37645e-02,5.43936e-02,1.07905e-01,2.30946e-02,-1.01993e-02,1.62248e-02,-2.16132e-02,7.40549e-02,-4.96599e-03,1.25466e-01,1.44532e-01,3.69161e-02,1.34619e-01,4.55427e-02,9.10710e-02,1.95299e-02,-5.45871e-02,3.42914e-03,2.43471e-03,7.22054e-02,-6.30545e-02,8.04259e-02,-1.32502e-01,1.06276e-01,-2.15309e-04,2.12252e-02,-8.61220e-02,-7.93883e-02,-1.27312e-01,-1.65269e-01,1.06975e-01,9.11598e-03,4.87250e-02,7.12431e-02,-2.80210e-03,2.92781e-02,2.59909e-02,-5.92044e-03,-8.63733e-02,7.68138e-02,3.56113e-04,4.66475e-02,-3.74092e-02,1.40785e-01,-6.99337e-02,4.65598e-02,6.12972e-02,3.69147e-03,1.22247e-01,6.55519e-02,1.06721e-01,-3.07029e-02,6.96785e-02,1.43534e-01,1.28943e-01,1.24745e-01,-4.20547e-02,9.84096e-02,4.01344e-02,1.32601e-01,1.79522e-02,1.12353e-01,-1.02827e-01,1.22353e-01,-1.02838e-01,-4.40519e-02,-1.90476e-02,2.98927e-02,5.30988e-02,3.71990e-02,5.27588e-02,2.06906e-02,-9.17269e-03,2.12152e-02,-7.10353e-02,8.03156e-02,-1.36333e-01,4.99519e-02,-6.98648e-03,-1.60773e-02,-8.84344e-03,-4.73985e-02,1.34885e-01,9.79227e-02,
1.33071e-01,1.39473e-02,-2.73812e-02,7.41666e-02,-3.30588e-02,-6.29868e-03,-6.21875e-02,8.85383e-02,-8.48435e-02,1.55123e-01,-9.51394e-02,-8.92966e-02,-6.67450e-02,2.44444e-02,9.07014e-02,-8.05435e-03,1.19975e-01,-6.69982e-02,-5.46861e-02,-1.41347e-01,-1.08786e-01,8.88001e-02,-9.48892e-02,1.26530e-01,7.06344e-03,1.37994e-01,-1.41021e-01,-9.13478e-02,3.55461e-02,9.36639e-02,2.53602e-02,-4.36224e-02,4.29454e-02,-1.56218e-02,-1.03080e-02,-1.43800e-01,-3.98621e-02,-1.60796e-01,2.05087e-01,1.77484e-01,-6.60888e-02,-1.67852e-03,7.46959e-02,-2.11748e-02,1.55061e-01,-1.34152e-01,5.38325e-02,8.03418e-03,2.14602e-02,-2.34092e-02,5.20854e-03,-3.53462e-02,-1.62136e-02,1.75567e-01,1.93725e-01,8.06361e-03,1.18867e-02,-5.50203e-02,8.65299e-02,-5.19882e-01,1.14973e-01,1.00195e-01,4.96675e-02,-5.67683e-01,1.49446e-02,3.69902e-02,1.34600e-01,-1.56448e-01,9.35085e-02,-1.62928e-02,2.54633e-01,-6.03000e-02,5.77200e-02,3.96354e-02,5.01210e-03,6.55647e-03,-3.05488e-03,1.61351e-01,-1.87306e-01,-9.37520e-02,1.55635e-02,-5.04349e-02,5.16750e-02,-7.54548e-02,3.53840e-01,-2.94883e-02,-1.12763e-02,3.69232e-02,2.25562e-01,-2.63813e-02,-9.97712e-02,6.56186e-02,-5.28768e-02,-1.55023e-01,6.68553e-01,-1.36086e-01,-1.44740e-01,-4.68576e-02,1.36832e-01,2.14498e-02,
-2.92987e-01,2.39532e-01,1.32966e-01,1.45328e-03,8.37003e-03,5.05102e-02,-2.91025e-01,3.32175e-02,-1.91355e-01,-5.13150e-04,-2.10476e-01,7.38838e-02,3.45821e-03,-3.77682e-02,2.20281e-02,-5.09560e-02,2.12766e-01,7.29387e-02,2.72913e-02,-2.48442e-02,-4.52691e-03,-1.13628e-01,-2.16167e-02,8.79684e-02,-7.08002e-02,1.78069e-01,-1.06474e-01,-5.78737e-02,1.37202e-01,2.67129e-01,-6.77799e-02,-2.30426e-01,4.20506e-02,-2.11740e-01,-2.28674e-01,6.58094e-03,-6.63765e-03,2.26866e-01,1.02071e-01,1.16400e-01,7.23597e-03,7.15639e-02,-4.14743e-02,-4.95012e-02,3.58141e-02,-2.07274e-01,-8.07380e-02,-4.41639e-02,1.57878e-01,3.36557e-02,1.15848e-01,-1.58327e-02,-1.92083e-02,7.11202e-02,1.90721e-01,-9.00676e-02,-1.39652e-02,4.70226e-02,-6.22585e-03,-2.33308e-01,7.76196e-02,2.37496e-01,-6.75862e-03,5.07408e-01,-4.72917e-02,-7.55882e-02,4.09790e-02,-3.06655e-02,-2.02189e-01,-1.85100e-01,-1.52536e-01,8.42824e-02,-2.20880e-01,-2.51502e-01,-1.61793e-01,-1.04681e-02,-1.04753e-01,-7.16150e-02,2.91266e-02,-4.78042e-02,2.09651e-01,1.29490e-01,2.86016e-02,2.23613e-03,1.84907e-01,5.39749e-02,1.30566e-01,6.32283e-03,-1.48678e-02,3.60332e-02,-7.34382e-02,1.25412e-01,1.60041e-02,-5.58915e-02,-8.00206e-01,8.49833e-02,7.20761e-02,-2.07883e-01,8.03727e-02,-4.43225e-02,
9.21115e-02,6.65269e-02,-9.77844e-02,5.87561e-02,2.50434e-03,-3.34298e-03,9.45101e-02,2.24734e-02,-6.48262e-02,5.93847e-02,2.42410e-02,6.29910e-03,3.67471e-02,4.78635e-02,-1.03277e-02,5.23881e-02,-3.42509e-02,5.74678e-02,5.13824e-02,1.29635e-01,2.20618e-02,5.49519e-03,-2.20300e-02,7.07226e-02,-5.36146e-02,1.86537e-01,3.33109e-02,-4.53337e-02,1.15947e-01,-9.22844e-02,-1.03312e-02,2.29520e-02,-9.03573e-02,1.02333e-01,1.44470e-01,2.22938e-02,-2.94596e-02,-1.51256e-01,-7.13205e-02,5.23219e-02,8.50803e-02,1.00594e-01,-7.57975e-03,-1.23558e-02,7.84228e-02,-1.44786e-01,2.21217e-02,-5.70785e-02,8.00580e-02,9.87364e-02,7.21859e-02,3.29183e-02,2.06530e-02,2.22826e-02,-3.60284e-03,-4.15912e-02,-3.90947e-03,1.94114e-01,6.32497e-02,8.53183e-02,3.70709e-02,3.94500e-02,1.23990e-01,-7.45041e-02,1.40035e-02,1.28408e-01,1.71648e-01,2.09948e-02,-9.54865e-03,3.23695e-02,4.80598e-02,2.63879e-02,6.08961e-03,-4.60874e-02,-6.98238e-02,9.65863e-03,-3.12388e-03,1.45860e-01,-2.08835e-02,1.43291e-01,-3.82062e-02,6.22850e-02,-1.29066e-02,5.32979e-02,-1.28580e-01,1.26884e-01,7.23838e-04,1.54192e-01,2.25227e-02,-3.93426e-03,4.33212e-02,3.91350e-02,-2.03735e-02,4.79412e-02,1.25264e-01,1.54397e-03,3.69722e-02,-1.37957e-02,-3.16193e-02,-3.18855e-02,
-1.02324e-01,-1.39675e-01,-3.85121e-02,-9.68750e-02,-5.70197e-02,7.14343e-02,2.00910e-02,-3.48807e-02,-2.03151e-01,-6.11692e-02,-3.55527e-01,2.66393e-02,8.16177e-02,-4.67086e-02,-4.63557e-02,2.16257e-01,1.47601e-01,8.18806e-02,1.34389e-01,6.21068e-02,8.61356e-02,-1.27425e-01,2.56818e-02,-4.27666e-02,1.29107e-01,-1.05906e-01,-2.54109e-02,-5.87991e-05,1.44317e-01,-1.73826e-01,9.47983e-03,3.68935e-02,1.09102e-02,-6.38434e-02,-4.35891e-03,2.00782e-01,1.90915e-02,1.84355e-01,1.60939e-02,-1.60541e-02,7.91871e-02,1.67668e-01,3.67141e-02,-1.29013e-01,-1.03357e-01,8.75365e-02,1.34797e-02,-8.63068e-02,-1.32323e-02,5.71962e-02,5.38168e-03,2.31905e-02,1.45959e-02,-6.91113e-01,-8.80494e-02,6.96776e-02,-2.04994e-01,1.12492e-01,-8.58905e-02,-1.88112e-01,-1.44383e-02,1.37255e-02,2.68647e-02,-3.27515e+00,-5.35086e-02,-1.83661e-01,2.63403e-02,1.07068e-01,-1.93469e-01,-9.52574e-02,8.94811e-02,-1.09455e-02,-5.26653e-02,3.28010e-02,1.00355e-01,-2.67541e-02,2.52927e-02,1.23825e-01,1.25877e-01,7.03292e-02,1.17184e-01,1.75733e-01,-4.93287e-02,5.58722e-02,1.31277e+00,4.85865e-02,-2.77572e-01,4.94700e-02,-1.47012e-01,1.78253e-01,3.51746e-02,-1.05587e-01,6.10032e-02,8.29998e-02,7.87055e-02,7.89613e-02,1.18469e-01,1.05123e-01,-1.73017e-01,-3.68336e-02,
2.27713e-01,1.90620e-01,8.75133e-02,-6.10902e-02,-2.27457e-01,-6.64234e-02,6.71311e-02,-1.13905e-02,-1.52274e-01,6.81188e-02,-4.17679e-01,1.21144e-01,-3.32591e-02,4.32990e-03,-1.34965e-01,-2.22995e-02,2.20365e-01,-4.82434e-02,9.31789e-02,1.10458e-01,-1.74642e-01,-4.63587e-02,6.97013e-02,4.99792e-02,2.10226e-02,-1.62901e-01,2.30335e-01,-2.32726e-01,7.44695e-02,2.74528e-01,5.32956e-02,-3.21069e-02,9.60181e-02,1.06836e-01,6.90904e-02,1.58127e-01,1.00990e-01,3.21359e-01,-2.85962e-01,8.73228e-02,1.32194e-03,3.10177e-01,-2.82829e-01,-1.19980e-01,-3.27438e-02,1.81958e-01,-5.06518e-02,-7.21299e-02,2.93857e-01,1.49774e-01,-4.41156e-01,1.42053e-02,8.91173e-02,-3.76182e-01,-6.26596e-02,1.49735e-01,-3.87590e-01,1.48738e-01,4.64171e-02,-1.20834e-01,9.78558e-02,-1.90123e-01,5.75644e-02,-1.67199e+00,6.13778e-03,-1.13254e-01,2.38450e-01,2.69794e-02,7.88503e-02,-1.43688e-01,-3.00164e-01,1.74151e-02,-1.30516e-01,-6.66245e-02,7.86993e-02,-4.15683e-03,-7.41865e-02,-2.79605e-01,9.11545e-03,-8.52407e-02,1.13994e-01,4.99100e-02,1.30139e-01,-4.02003e-02,1.86945e-01,-3.00596e-02,2.82245e-02,-1.28422e-01,-3.18600e-01,3.70593e-01,-1.02810e-01,-9.36593e-01,-3.57356e-02,1.38709e-01,-1.89715e-01,3.75248e-01,-7.23483e-02,-2.83584e-01,-1.14105e-01,8.47661e-02,
7.10901e-03,2.41267e-01,3.19523e-02,-1.96303e-02,-1.06824e-01,9.76058e-02,-5.44436e-01,9.17330e-02,-4.94308e-02,1.17005e-02,-3.02788e-01,2.09680e-01,1.25447e-01,-1.88146e-01,1.48838e-01,-3.05208e-01,-1.50102e-01,-8.04691e-03,2.18277e-02,9.46227e-02,6.79912e-02,-2.42264e-01,-1.01658e+00,7.92079e-02,-8.66421e-02,4.38824e-02,-1.85607e-01,5.61804e-03,-4.80666e-02,3.88586e-01,5.01544e-02,-7.92308e-02,1.02005e-01,-1.83230e-01,-2.45896e-01,-1.24427e+00,2.18636e-02,-8.87584e-03,8.21444e-02,-8.88631e-02,-9.27918e-02,1.62701e-01,7.13187e-02,4.45034e-02,-3.30609e-02,-2.48796e-01,-1.22095e-01,-1.18866e-01,2.74868e-02,-4.62685e-02,1.71773e-01,6.67894e-02,6.04764e-02,2.21312e-01,1.08314e-01,-2.21407e-01,-1.98734e-02,-2.93746e-02,-1.54653e-01,-2.77046e-01,9.35889e-02,2.18356e-01,1.63367e-01,3.70290e-01,1.93657e-02,-4.64707e-02,3.03048e-02,-1.16494e-01,-1.14572e-01,-1.41753e-02,-1.78563e-01,-7.73342e-02,-2.94714e-01,-2.05381e-01,-1.25701e-01,-8.47944e-03,-1.39601e-01,-3.85809e-01,9.49133e-03,-6.84736e-02,4.70720e-02,-2.54221e-01,-2.97385e-02,-2.93359e-02,4.38506e-01,6.62363e-02,1.55847e-01,-5.22166e-01,-1.97560e-01,1.01469e-01,-7.96931e-02,8.26648e-02,8.42654e-03,-1.86729e-01,-1.50611e-02,-1.01732e-01,-1.00104e-01,-9.71659e-02,-1.66223e-01,-1.05141e-01,
5.94547e-02,-2.01198e-01,-2.58218e-02,-4.02812e-02,-1.51873e-02,1.38658e-02,1.21651e-02,7.00040e-02,-4.57112e-04,-3.74817e-02,-3.42892e-01,4.41965e-03,-7.07014e-02,4.31091e-02,4.42127e-02,4.39610e-02,-9.16925e-03,9.05588e-02,1.49148e-02,3.98849e-02,5.81831e-02,3.88809e-01,1.41905e-02,-7.26708e-02,1.79194e-02,-3.30998e-02,-3.91901e-03,-1.14653e-01,-2.05707e-02,7.49135e-02,7.29144e-02,6.33247e-02,-6.11676e-02,1.84770e-01,-3.98302e-03,-3.09160e-03,-1.75371e-01,7.06446e-02,-4.24647e-03,-4.31580e-02,1.30506e-02,6.74178e-02,-2.82633e-02,1.93174e-02,-3.91020e-02,7.52321e-03,4.44712e-02,-2.72072e-02,-5.74108e-02,-2.49435e-03,-7.20876e-02,-1.12969e-02,7.03205e-02,1.05810e-01,-2.25814e-02,-7.99951e-02,-5.74185e-02,2.22774e-02,-6.25967e-02,-4.67469e-02,4.38001e-02,5.63412e-02,-4.42900e-02,3.81321e-02,-2.93998e-02,1.84347e-01,1.25593e-01,4.31349e-02,-6.64118e-02,-1.16040e-01,-1.24391e-01,-2.62453e-02,-4.46793e-02,6.76566e-02,3.22026e-02,-1.96429e-02,2.48020e-02,-7.32797e-02,1.91641e-02,2.85276e-02,8.60836e-02,-3.53389e-02,-2.38081e-02,7.56959e-02,1.19894e-01,3.23903e-02,-1.42557e-02,5.23592e-02,-1.54501e-01,9.54902e-02,-5.12582e-02,-2.15539e-02,1.67389e-02,2.53314e-02,1.19003e-01,9.22279e-02,9.12064e-02,1.44724e-02,-5.08610e-02,-2.14345e-03,
