// Neural Network File Format by Kyle Julian, Stanford 2016
2,6,4,400,
6,400,4,
0,
0
0
0
0
2.59249e-01,-1.36394e-01,7.17695e-02,2.67447e-01,-1.25159e-01,-5.67195e-01,
-2.53460e-01,-1.91265e-01,-1.85233e-01,3.87348e-01,3.38045e-01,1.96477e-01,
-8.10709e-02,-6.43345e-02,4.66102e-01,-6.91325e-01,1.69585e-02,-1.20739e-02,
3.05045e-01,-3.18045e-01,-1.13266e-01,1.97134e-01,-2.35842e-02,7.38136e-02,
-1.04576e-01,1.12965e-01,2.15700e-01,-5.94669e-01,2.25783e-01,-2.53270e-01,
2.97958e-01,-4.14448e-02,5.73465e-02,5.91287e-01,5.08511e-02,-8.93954e-02,
2.21561e-02,2.32695e-01,1.20557e-01,-5.30669e-01,-1.27562e-01,2.07802e-01,
2.27060e-01,1.86262e-01,-2.65370e-01,3.84332e-01,-8.16852e-02,2.77427e-01,
-1.01403e-02,-2.24864e-01,1.75424e-01,7.33656e-01,2.36822e-02,-2.17197e-01,
2.36618e-01,-1.82961e-01,-6.22921e-02,-2.08264e-01,1.95582e-01,3.44365e-01,
1.81288e-01,2.21680e-01,1.37554e-01,1.48243e-01,2.35020e-01,-3.51944e-01,
-3.68466e-03,-1.68364e-01,-1.18205e-01,1.75700e-01,8.48680e-02,1.32627e-01,
3.03010e-01,2.74216e-01,1.24923e-01,9.93548e-02,-3.00938e-01,-3.97061e-01,
-3.02836e-01,-2.27634e-01,2.14008e-02,5.55237e-01,2.55296e-02,-2.88222e-01,
4.78212e-03,5.40364e-02,-4.09620e-01,-9.18696e-01,-5.21347e-02,-1.38933e-01,
-2.23998e-01,-3.49978e-01,-2.23318e-01,7.00572e-01,4.31185e-01,-1.11250e-01,
6.74234e-03,1.28581e-02,-2.01766e-01,-5.87048e-01,-5.25603e-03,4.20896e-01,
2.69814e-02,-2.51427e-02,2.65996e-01,-3.45363e-01,-1.37154e-01,4.02686e-01,
-1.42520e-01,-9.43071e-02,2.79524e-01,-4.97424e-01,-1.40118e-01,2.83822e-01,
2.01052e-01,2.70983e-01,-3.48316e-01,5.27093e-02,1.51770e-01,3.58512e-01,
2.06448e-01,2.39925e-01,3.84576e-01,1.77971e-01,4.06242e-01,2.45288e-02,
8.58603e-02,1.08188e-02,8.84802e-01,-1.05930e+00,4.03073e-02,-4.14022e-02,
3.32486e-01,3.37330e-01,3.93409e-01,3.23130e-01,3.26863e-02,4.05922e-02,
1.03001e-01,-3.56740e-01,4.58099e-02,4.29338e-01,-2.41569e-01,7.95301e-02,
1.79860e-01,-1.91938e-01,1.90616e-01,4.43149e-02,-4.69498e-01,-2.72352e-02,
-7.07602e-02,-1.90087e-02,-6.94832e-01,8.87397e-01,1.38414e-02,-7.26310e-04,
-1.01897e-01,-3.17488e-01,-1.71192e-01,-2.20899e-01,-8.07263e-02,4.61329e-01,
-3.92360e-01,-1.81503e-01,-1.13752e-01,1.51271e-01,4.10885e-01,-3.73978e-01,
1.08207e-01,-1.13367e-01,7.84064e-02,-9.99579e-02,-3.54851e-01,2.68084e-01,
1.80841e-02,2.97552e-01,1.71330e-01,5.09215e-01,-2.54742e-01,-5.85748e-03,
-4.71494e-03,8.03769e-04,4.92168e-01,1.01278e+00,4.99318e-02,5.52061e-02,
-3.07436e-01,3.68025e-01,2.85857e-01,-2.38671e-01,9.13475e-03,-8.97440e-02,
-1.78014e-01,-5.63689e-02,-3.26238e-04,-4.69292e-01,2.59315e-01,2.75921e-01,
-2.99064e-01,-1.60034e-01,4.43082e-01,-9.42931e-02,-5.17507e-01,2.61010e-01,
-1.46167e-02,4.30730e-02,-4.65430e-01,-1.15195e+00,-3.54881e-02,-6.11031e-02,
1.61599e-01,-8.87556e-02,-3.82759e-01,-1.20041e-01,-2.79673e-01,-3.91757e-01,
3.35676e-01,5.31478e-02,-2.73526e-01,2.64952e-01,1.68214e-01,-2.97356e-01,
2.19413e-01,-1.28497e-01,-6.10527e-03,-2.94571e-01,-2.54528e-01,-7.85095e-02,
9.46965e-02,-2.15279e-01,1.90742e-01,-1.62609e-01,1.33862e-01,-7.09159e-02,
1.05097e-01,-1.49518e-01,2.87307e-01,-2.59686e-01,2.85174e-01,2.87902e-01,
-1.50052e-01,-1.84644e-01,-1.11332e-01,-1.61844e-01,-1.92842e-01,2.97537e-01,
-3.63571e-01,1.34500e-01,-5.44565e-01,-3.92966e-01,-1.06368e-01,2.90058e-01,
1.01470e-01,-1.41879e-01,-9.80126e-02,-4.70861e-01,-3.97763e-02,1.70100e-01,
-1.16639e-01,2.44221e-01,-1.05407e-01,6.21043e-01,5.67478e-02,-6.22128e-02,
2.86939e-01,-1.18052e-01,3.46503e-01,-2.64851e-01,3.15710e-01,-4.06227e-01,
-1.68538e-01,-3.33048e-01,-2.00927e-01,-1.43756e-01,5.52047e-01,5.46938e-01,
2.88618e-01,7.56369e-02,-3.44157e-02,7.78370e-01,-4.32187e-01,-4.54287e-01,
-1.91532e-01,2.62273e-01,1.34062e-01,-8.07682e-01,-2.68309e-01,1.56410e-01,
2.10381e-01,2.83083e-01,-5.18691e-02,2.47489e-01,-2.58595e-01,2.40517e-01,
-1.34126e-01,-1.85769e-01,3.46685e-01,1.78991e-01,3.29573e-02,7.57314e-02,
-1.20503e-01,-2.62108e-01,-2.69994e-01,3.24132e-01,4.64411e-01,-7.40276e-02,
-3.49379e-01,2.77965e-01,-1.85362e-01,-2.74578e-02,1.37121e-01,4.97918e-02,
-3.01638e-01,-1.59521e-01,-7.78815e-02,8.46369e-01,4.60047e-01,8.42558e-02,
-4.77467e-02,3.25198e-01,-7.77675e-03,1.64986e-01,4.03338e-01,3.46931e-01,
2.99734e-01,-2.45938e-01,1.37887e-01,-3.33633e-01,3.47586e-02,-1.13799e-01,
5.60866e-03,-2.89933e-03,1.46047e-01,-7.85235e-01,1.79944e-02,-2.59568e-02,
-4.10040e-03,-2.60480e-01,-2.06652e-02,-1.81810e-01,-3.73690e-01,3.68658e-01,
2.20741e-02,2.70277e-02,-1.49626e-01,5.37807e-01,2.08765e-01,-4.53867e-01,
1.12717e-01,-1.73268e-01,-1.84471e-01,-5.19550e-01,3.18746e-01,1.33162e-01,
-2.24954e-01,2.08430e-01,-8.58958e-01,-4.70281e-01,2.01828e-01,-3.69939e-01,
2.40821e-01,-2.81407e-01,1.37471e-01,1.70597e-02,3.36999e-01,1.82868e-02,
-1.02477e-03,-3.82678e-04,-4.17100e-01,-5.87422e-01,-5.06859e-02,-2.29534e-02,
2.00531e-01,-8.90287e-04,8.02120e-01,3.70272e-01,-1.62646e-01,3.72550e-01,
-1.28479e-02,-2.41420e-01,9.69084e-02,-1.95350e-01,2.38222e-01,2.54465e-01,
-2.02383e-01,-1.43168e-01,1.51800e-02,5.69951e-01,2.65114e-01,9.89716e-02,
-1.76827e-01,3.22995e-01,2.96062e-01,-1.99720e-01,-4.06482e-01,-1.22408e-01,
-4.26813e-02,-2.98993e-02,-2.69705e-01,8.44743e-01,1.12242e-01,-1.10594e-02,
-1.34822e-01,-8.52215e-02,5.83889e-01,6.07663e-01,4.41669e-02,-2.28152e-01,
3.94459e-02,2.77947e-01,5.04485e-02,1.91579e-01,3.50449e-01,-3.80300e-01,
-1.37924e-01,3.15793e-02,1.05321e-01,-5.04670e-01,3.13042e-01,2.67078e-01,
3.75648e-01,2.50597e-01,-3.43161e-01,1.89190e-01,5.54605e-01,-2.81548e-01,
3.92620e-01,1.90471e-01,6.72344e-02,-7.67572e-01,4.36920e-02,1.72840e-01,
1.26015e-01,-8.60214e-02,-2.56115e-01,4.63304e-01,-2.85741e-01,-3.10952e-01,
3.45977e-01,1.01670e-01,-1.67686e-01,9.56602e-01,-3.35401e-01,3.53899e-01,
1.20896e-02,-6.17643e-03,-2.14921e-01,5.16011e-02,-5.15160e-01,-4.01107e-01,
2.56777e-01,-3.41371e-01,2.47985e-01,-5.70357e-01,-1.96750e-01,3.76672e-01,
-2.87225e-01,-2.10953e-01,-3.14766e-01,-2.35798e-01,-3.51827e-01,1.93948e-01,
-2.16006e-01,-1.46340e-01,3.36799e-02,1.02120e+00,8.25607e-03,-1.07215e-01,
-2.72364e-01,-2.00158e-01,1.44835e-01,1.01363e+00,-1.21047e-01,3.06843e-01,
2.68998e-02,1.05888e-01,1.31668e+00,-6.47257e-01,-2.02177e-01,2.71355e-02,
-1.30900e-01,-1.71293e-02,5.73281e-01,-1.07883e+00,7.87096e-03,-5.65848e-02,
2.89313e-01,2.35577e-01,-1.39398e-01,5.60888e-01,4.00332e-01,2.00324e-01,
-1.25479e-01,-7.04081e-02,1.51113e-01,4.17081e-01,1.43907e-01,-3.74899e-01,
4.71732e-02,-1.50608e-01,-1.86459e-01,1.82572e-02,-2.39797e-01,-2.26114e-01,
-2.89460e-01,3.24352e-01,-3.39225e-02,-1.56202e-02,-1.08837e-02,2.54333e-01,
2.08722e-01,-3.02495e-01,-4.44999e-01,-2.69093e-01,1.51281e-01,1.75759e-01,
2.14655e-01,6.91146e-02,1.14108e+00,4.28662e-01,-1.28896e-01,5.82364e-01,
9.26516e-02,1.44230e-01,1.46535e-02,-2.28951e-01,1.77812e-01,2.61659e-01,
2.51838e-02,-1.95757e-01,1.09105e-01,3.09540e-01,-2.27879e-01,2.58690e-01,
1.03692e-01,-2.38378e-01,-1.72538e-01,-5.66162e-01,3.80423e-01,-3.26606e-01,
2.73383e-01,7.29220e-02,3.97020e-01,7.40439e-01,6.80508e-02,3.78875e-01,
-3.94107e-01,-3.55989e-01,-1.69249e-01,-1.41857e-01,3.96301e-01,5.35542e-01,
1.15798e-01,2.33160e-01,-1.42960e-02,2.23357e-01,-6.55629e-03,-4.36953e-02,
2.95776e-01,1.51780e-01,-3.77581e-01,8.96260e-02,4.94077e-01,-2.45954e-01,
6.74042e-02,-2.90306e-01,-7.59553e-02,7.61993e-01,-8.24502e-03,-3.78897e-01,
-7.66101e-03,4.17140e-02,-4.85926e-01,-1.13469e+00,-2.62440e-02,-6.31934e-02,
-3.11932e-01,2.12727e-01,-4.13830e-01,-1.52681e-01,4.56426e-02,5.06250e-02,
1.66889e-01,2.23443e-02,-2.31822e-01,6.38381e-02,5.91100e-01,-3.76894e-01,
-2.93295e-01,-2.31460e-01,8.45530e-02,1.77004e-01,2.42094e-01,3.41397e-01,
1.92525e-01,-5.68594e-02,4.21263e-01,-2.21521e-01,1.79080e-01,-1.54184e-01,
-1.95368e-01,-6.69617e-02,-4.94716e-01,-4.18163e-01,2.53379e-01,-4.27443e-01,
2.44399e-01,1.77578e-01,-4.49730e-01,-1.61393e-01,3.41158e-01,-3.32423e-01,
-1.62641e-01,-2.14281e-01,4.56868e-01,6.15682e-02,-1.56680e-01,-2.95380e-01,
7.37331e-02,-2.76854e-01,8.36428e-02,-5.54682e-01,-2.53862e-02,5.44486e-02,
5.64683e-02,-1.49281e-01,-3.56679e-02,-1.66845e-01,-9.49991e-02,1.36508e-01,
1.15067e-01,-2.88812e-01,-4.25016e-01,-3.62364e-01,2.39866e-01,6.97102e-02,
1.00025e-01,5.28649e-02,6.59279e-01,-3.59064e-01,1.23874e-01,3.47134e-01,
2.81073e-02,-3.68417e-01,-5.31172e-02,2.76765e-01,1.16391e-01,-1.95819e-01,
3.36952e-01,2.10276e-01,-3.86239e-01,7.89970e-01,4.74152e-01,3.55406e-01,
1.00526e-01,-1.11350e-01,1.70294e-01,7.88256e-01,2.10798e-02,-6.20005e-01,
2.29641e-01,4.20216e-02,-3.12873e-02,-3.56230e-01,-5.27837e-01,3.27668e-01,
-2.22298e-01,2.41459e-01,8.47945e-01,-5.69573e-01,1.50256e-01,-5.17180e-02,
-6.00380e-02,-1.25907e-02,2.27517e-03,-5.61034e-01,-1.84891e-02,-3.51320e-01,
2.05064e-01,7.47053e-03,-1.35891e-01,-3.73440e-01,-3.74831e-01,2.18949e-01,
1.28865e-01,2.47524e-01,7.44398e-02,-1.11639e+00,4.84228e-02,5.37942e-02,
-8.55126e-04,-1.82252e-04,-4.05312e-01,1.30565e+00,-4.19398e-02,-1.06011e-01,
2.99943e-02,-8.59929e-02,-6.55703e-01,-1.26809e+00,-7.45641e-02,-2.21974e-01,
2.04891e-01,-5.04776e-02,2.63021e-02,4.74115e-02,-3.60082e-01,-3.56629e-01,
4.98801e-02,3.72125e-01,1.62658e-01,6.07398e-01,1.79331e-01,2.11982e-01,
2.85172e-01,-1.85688e-01,-1.31797e-02,-4.69815e-01,4.11053e-02,-2.37993e-02,
3.17274e-03,6.58307e-03,-4.68638e-01,1.60254e+00,-2.81326e-02,9.30313e-02,
-2.92724e-02,5.53888e-02,5.45578e-01,1.08338e+00,4.91438e-02,-2.18054e-01,
3.04267e-01,-1.43432e-01,-6.50265e-02,5.68036e-01,9.17006e-02,4.41412e-01,
2.32734e-02,-9.04034e-04,-4.90050e-01,-8.56713e-01,-3.05811e-02,-4.18614e-02,
-8.71423e-02,1.27598e-01,2.46907e-02,3.43669e-01,-5.42903e-03,-1.41243e-02,
-2.33483e-01,-2.68565e-01,3.30243e-01,-9.60536e-02,-6.47062e-02,-2.77859e-01,
-3.25242e-01,2.19248e-01,-5.76537e-01,-1.36243e-01,2.47466e-01,-3.16960e-01,
1.85008e-01,-3.69132e-01,3.75017e-01,2.46527e-01,-9.47330e-02,4.15363e-01,
-2.04929e-01,-3.16255e-01,-2.17342e-01,-8.01353e-03,9.79900e-02,1.82624e-02,
-1.51516e-01,3.93190e-03,2.19160e-01,-5.77805e-01,3.68088e-01,-2.59224e-01,
-1.12929e-01,3.69642e-02,-3.16681e-02,-1.64530e-01,2.57096e-01,4.80991e-01,
2.29171e-01,-1.02720e-01,1.41284e-01,1.13246e-01,1.50550e-01,-2.31044e-01,
-1.40836e-01,1.01656e-01,-9.21544e-02,2.48702e-01,-2.89719e-02,-2.68613e-02,
1.04808e-01,-2.52533e-01,-1.59337e-01,-6.67300e-01,4.00965e-01,9.12590e-02,
-7.12969e-02,-2.72477e-01,-2.03454e-01,-6.74033e-02,-3.74695e-01,3.80821e-01,
3.58524e-01,1.16195e-01,5.15576e-02,6.40328e-03,-4.04082e-01,3.57283e-01,
7.40811e-02,-2.83564e-01,2.57049e-02,-3.72028e-01,-2.58722e-01,-2.50060e-01,
-6.27757e-02,1.95415e-01,1.11626e+00,5.57249e-01,-2.49753e-01,3.59080e-02,
-7.61593e-02,-5.63344e-03,7.42700e-01,-1.03577e+00,1.04802e-01,-5.14952e-02,
1.48665e-01,-9.23422e-03,-4.02272e-01,9.86322e-01,2.61917e-03,6.31670e-01,
1.29119e-01,-1.24755e-01,-1.99704e-01,6.95102e-01,4.84086e-01,2.12640e-01,
2.05982e-01,-3.64969e-01,-4.55593e-02,-2.15389e-01,-2.81109e-01,1.73075e-01,
7.85467e-02,-1.07917e-03,-6.97964e-01,8.07925e-01,7.52905e-02,-8.87244e-03,
-2.90476e-01,2.53770e-01,-1.87021e-01,-1.68648e-01,-7.52269e-02,-4.63955e-01,
-1.85382e-01,6.71828e-02,2.94404e-01,-4.73137e-01,-2.01321e-01,-1.00017e-02,
-2.24268e-01,-2.56215e-02,-2.77078e-01,-6.03858e-01,-2.08452e-02,-7.94823e-02,
-2.35098e-01,-4.84632e-02,8.84864e-02,2.36651e-01,6.14364e-01,-1.67889e-01,
-3.92124e-01,-1.48123e-01,-6.92232e-03,-8.10690e-02,1.40007e-01,1.05088e-01,
2.10766e-01,-2.61796e-01,1.23201e-01,-5.79048e-01,2.90204e-01,-5.87398e-01,
-2.36514e-01,-3.34918e-01,1.93658e-01,-2.26753e-01,-2.45967e-01,-6.12168e-02,
-2.46659e-01,1.23999e-01,6.19216e-01,2.12412e-01,4.23498e-01,-2.95286e-01,
-1.86713e-01,6.59792e-02,-3.49314e-01,1.37642e-01,-2.92522e-01,2.81145e-01,
3.33044e-01,2.69790e-01,-1.13709e-01,-1.19432e-01,-1.57899e-01,2.66582e-01,
2.12144e-01,-2.67232e-02,6.82962e-01,-1.31807e-01,-3.15499e-01,1.50845e-01,
3.57223e-02,8.00776e-02,5.92644e-01,-3.64108e-01,4.82165e-02,-5.67243e-02,
2.91044e-01,-3.22029e-01,-1.89676e-02,6.42667e-02,3.22247e-02,-2.92346e-01,
-4.67854e-01,-3.64195e-01,-2.42638e-02,-3.45595e-01,-6.49770e-01,3.56007e-01,
2.36545e-01,7.09933e-02,-1.06494e-01,3.43750e-01,2.67517e-01,2.41447e-01,
3.00425e-01,8.95783e-02,6.58680e-01,-9.56069e-01,3.58455e-01,-4.56786e-01,
-1.23595e-03,-6.02828e-03,-1.53216e-01,-9.57078e-01,-1.43205e-02,-3.66664e-02,
-2.63813e-01,2.73612e-01,-6.65336e-02,3.05010e-02,-2.71173e-01,-3.53424e-01,
1.30591e-01,2.05070e-01,-1.71570e-02,9.75296e-02,-3.04223e-01,2.35208e-01,
2.17348e-03,-2.90975e-01,-2.44300e-01,2.90234e-01,1.90637e-01,1.91154e-01,
-1.11303e-01,2.83762e-02,6.49972e-01,-7.73317e-01,-1.12482e-02,-4.09103e-01,
9.69549e-02,-1.09976e-02,3.89327e-03,3.39269e-02,-4.24019e-03,1.33365e-02,
-2.07389e-02,3.27343e-01,4.96435e-02,3.70752e-03,-1.83675e-01,1.51324e-02,
-1.34466e-01,-3.55140e-01,-2.01079e-01,3.73852e-02,-3.88033e-01,-5.21171e-01,
-2.04523e-01,3.62580e-01,5.94774e-02,-5.11154e-02,9.78019e-02,3.17196e-01,
-2.59518e-02,1.00411e-02,4.24114e-01,-7.47069e-01,2.81814e-02,-4.93733e-02,
6.98133e-02,-3.45816e-02,6.77553e-03,3.84302e-01,2.04835e-01,3.63398e-01,
-2.56723e-01,2.58616e-01,-1.21587e-01,7.44366e-01,1.49990e-01,1.15220e-01,
-6.81358e-02,-3.47871e-01,7.22684e-02,-2.12025e-02,-3.21290e-01,3.35696e-01,
-9.28067e-02,1.75175e-02,-7.58184e-01,6.55941e-01,-3.87517e-02,1.34860e-02,
-6.02265e-02,1.21368e-01,-1.34648e-01,-1.17151e-01,3.74752e-01,3.68248e-01,
-5.04073e-02,-1.24350e-01,-1.44838e-01,5.15648e-01,6.52323e-02,-8.14957e-02,
1.63534e-01,-3.51693e-01,2.19366e-01,2.87216e-01,3.81190e-02,-1.16117e-01,
-2.18357e-01,-2.95127e-01,6.04535e-01,3.07199e-01,1.43945e-01,-6.15700e-02,
3.70192e-02,-2.33629e-01,1.14237e-01,-1.02323e-01,-3.13174e-01,-2.47731e-01,
1.93223e-03,-1.79443e-02,3.61907e-01,-1.11225e+00,3.85320e-02,-5.49301e-02,
1.25653e-01,-5.34623e-03,6.16500e-01,1.00127e+00,6.45890e-01,8.33680e-02,
3.75527e-03,-2.12402e-01,-1.24090e-01,4.98870e-01,6.58325e-02,-5.24039e-02,
2.99624e-01,-1.55346e-01,4.12708e-03,-3.26956e-01,-4.64071e-01,-7.01354e-01,
-1.13590e-01,1.62419e-01,2.04227e-01,-8.05267e-01,-4.09603e-02,5.45328e-01,
-1.46680e-01,-1.65012e-01,-2.51739e-01,-5.11137e-01,2.55523e-01,-4.11945e-02,
3.32814e-01,1.56357e-01,-5.78409e-01,1.05824e-01,3.08606e-01,-9.14022e-02,
-3.44149e-01,-2.69454e-01,3.96070e-01,2.06055e-01,-4.55858e-01,4.53765e-01,
4.43020e-03,1.42834e-01,-1.10808e+00,-5.20770e-01,2.06672e-02,-4.31475e-02,
3.65191e-02,3.64500e-01,6.49204e-01,-9.72489e-03,-2.72282e-01,4.79873e-02,
1.69359e-01,-5.10732e-02,-2.77283e-01,6.19899e-01,-4.06651e-01,2.85373e-01,
-3.17220e-01,8.38923e-02,-5.60812e-01,1.65644e-01,1.65722e-02,4.65592e-01,
3.41385e-01,2.28984e-02,-1.48743e-01,6.25869e-02,-1.82190e-01,-3.65801e-01,
-3.28355e-01,-2.15061e-01,1.98152e-01,-2.83944e-01,-4.19405e-01,6.02048e-02,
-4.17708e-01,-1.34518e-01,1.18893e-01,-1.31325e-01,8.38332e-02,1.50043e-01,
3.26619e-01,-3.96089e-02,4.05935e-01,-1.55517e-01,-1.84885e-01,1.10455e-01,
1.81003e-01,1.53385e-01,-9.15538e-02,-9.17295e-02,1.69467e-01,1.74726e-01,
-8.88263e-02,-3.55559e-01,-1.60816e-01,-3.22331e-01,-2.05999e-01,1.99182e-01,
-1.78191e-01,2.44978e-01,4.97086e-01,2.99601e-01,4.47240e-01,-2.35103e-01,
-3.80535e-01,1.48821e-01,-5.38758e-01,-5.94468e-01,-2.37151e-02,-2.53927e-01,
3.25578e-01,1.12085e-01,1.35743e-01,3.05229e-01,3.80612e-02,-1.65420e-01,
1.89545e-01,-1.92894e-01,-1.92140e-01,-2.63464e-03,4.04718e-01,-4.50687e-01,
-2.63891e-01,-1.99764e-01,-2.95313e-01,9.12667e-01,1.96838e-01,5.38345e-02,
-8.66568e-02,2.03465e-01,-2.48624e-02,7.26974e-01,2.23626e-02,1.63819e-01,
-1.31867e-02,-2.77662e-02,-4.71577e-01,1.70656e-01,-3.66204e-02,1.51057e-02,
-1.88653e-01,2.49822e-01,-4.46117e-01,-3.94763e-01,2.49367e-01,-3.73471e-01,
3.53267e-01,1.17774e-01,-3.73447e-02,4.04363e-02,-3.01519e-01,4.05108e-01,
-2.25830e-01,-2.91621e-01,4.00936e-02,-3.31816e-01,1.87472e-01,-4.05180e-01,
-1.67524e-01,1.53386e-01,-2.61061e-01,-3.53237e-01,-8.12703e-02,-2.59894e-01,
1.96221e-01,-1.32484e-03,5.76397e-01,7.76213e-01,1.05039e-02,3.02493e-02,
-1.61036e-01,-1.00716e-01,-3.41779e-01,-3.67445e-01,-1.66630e-01,-2.66200e-01,
-1.72885e-01,-2.70874e-01,3.00728e-01,-2.34987e-01,4.94521e-02,-4.17338e-01,
2.75118e-01,7.87745e-02,-6.05982e-01,7.47881e-01,-3.65718e-01,2.77688e-01,
9.25396e-02,1.29454e-03,-3.62940e-01,6.86653e-02,-9.05621e-03,-1.32811e-02,
2.13592e-01,1.08281e-01,7.68090e-01,-6.92372e-01,3.21596e-01,-3.94543e-01,
-1.73067e-01,-2.54700e-02,9.32617e-01,7.93632e-01,2.89270e-03,-1.34707e-01,
-1.53218e-01,-5.69133e-02,2.08294e-02,9.25268e-01,6.86557e-02,-1.32506e-01,
1.03442e-01,-1.60172e-01,-3.90220e-01,-3.45132e-02,2.50870e-01,-3.75672e-01,
-7.14091e-02,-8.68727e-03,5.26024e-02,-7.22398e-01,-8.25075e-02,-2.26045e-02,
-2.83434e-01,2.52891e-01,-2.32067e-02,2.21937e-01,4.29400e-01,-3.73755e-01,
1.79584e-01,2.26436e-01,1.65088e-02,8.19038e-01,1.25754e-01,1.85408e-01,
1.96013e-01,-2.09747e-01,-3.50090e-01,2.84942e-01,-2.53021e-02,4.36838e-02,
-2.23475e-01,-1.60235e-01,-7.14387e-02,-3.52052e-01,2.26297e-01,3.85366e-01,
-2.01173e-03,-4.79125e-03,8.14229e-01,-1.28619e-01,6.61511e-02,-1.10734e-01,
3.30001e-02,3.10450e-01,-1.58936e-01,1.34792e-01,-1.46160e-01,2.39052e-01,
1.91252e-01,-1.39590e-01,-3.31138e-01,7.81548e-01,-5.04624e-01,-5.18282e-01,
-1.30932e-01,-8.62601e-02,7.30116e-01,1.84005e-01,-3.30442e-01,2.74141e-01,
-7.93347e-02,-1.90740e-01,-3.33998e-01,7.07144e-02,-1.95622e-01,1.81736e-01,
-1.28957e-01,-1.63064e-01,3.35305e-01,-1.48177e-01,-8.04664e-02,8.16572e-02,
-5.11883e-03,3.83416e-03,1.72857e-01,-2.50225e-02,3.94153e-01,3.04191e-01,
1.72156e-01,5.52822e-03,9.69730e-01,8.52599e-01,3.92751e-03,-9.09265e-02,
-3.43002e-01,1.42502e-01,6.31439e-03,-7.09139e-01,1.60344e-01,-2.51051e-01,
3.18116e-01,-1.71665e-01,-2.57672e-01,4.38412e-01,1.37699e-01,2.63868e-01,
2.77724e-01,-2.34985e-01,3.13442e-01,-3.32011e-01,-2.38912e-02,3.66332e-01,
-1.03462e-01,7.15096e-02,3.58307e-02,-6.23099e-01,-4.30130e-01,-1.90123e-01,
-2.16179e-01,-1.54528e-01,3.23691e-01,9.58553e-02,1.81021e-01,4.00309e-01,
-3.17725e-01,4.79515e-02,-6.13545e-01,-5.00047e-01,-2.19850e-01,-3.96352e-01,
-2.67224e-01,1.70041e-01,-8.32126e-01,-1.25621e-01,3.25969e-01,-2.33529e-01,
-2.23011e-01,2.72605e-01,-2.81631e-01,4.76354e-01,1.70416e-01,-2.84370e-01,
-2.98227e-02,-2.89856e-02,-2.22089e-01,5.73692e-01,-9.05655e-02,-3.62564e-01,
-5.11701e-02,3.26643e-05,9.31890e-01,-4.34860e-01,7.51084e-02,-1.30349e-02,
2.81396e-01,3.27995e-01,-3.81866e-02,8.31124e-01,-1.63570e-02,-4.51434e-01,
-4.30089e-03,-1.79903e-01,-4.70107e-02,-3.02094e-01,2.22864e-01,1.93219e-01,
3.74469e-01,-2.97589e-02,6.74528e-01,2.06394e-01,8.87012e-02,-4.03152e-02,
-1.16066e-01,-1.01505e-01,-1.50484e-01,4.39722e-01,1.59442e-02,-3.86562e-02,
-3.21511e-01,3.66387e-01,5.52408e-02,-1.76818e-01,1.41703e-02,5.28768e-02,
5.27494e-02,4.35064e-02,1.49100e-01,-5.95705e-01,1.68713e-01,-3.77650e-01,
2.13449e-01,9.14347e-02,6.29663e-01,1.96430e-01,4.32576e-01,1.16615e-01,
-2.19347e-01,-3.49932e-01,3.74138e-02,-1.78285e-01,5.12646e-01,-3.95130e-01,
-1.61621e-01,-2.13119e-01,-1.38038e-01,3.22605e-01,-2.63358e-01,-3.77171e-01,
3.28938e-01,-2.36534e-01,3.47072e-01,7.65472e-02,4.85743e-03,-3.20546e-01,
2.76024e-02,2.22820e-01,-2.29390e-01,-3.21806e-01,1.38774e-02,4.76631e-02,
-2.03946e-01,-2.86172e-01,-6.51808e-02,2.94024e-01,4.24006e-01,-1.48519e-02,
7.99121e-02,-7.97397e-02,-4.10316e-01,1.80960e-01,3.29647e-01,-2.06487e-01,
-2.02165e-01,-1.04666e-03,1.79580e-01,-3.87946e-01,-1.83430e-02,-4.75825e-01,
-2.34513e-02,4.14273e-02,-4.73058e-01,-1.01569e+00,-3.21026e-02,2.37066e-02,
1.04331e-01,5.85828e-02,-5.28176e-01,-1.97781e-01,-3.59015e-01,1.37410e-01,
1.64608e-01,1.26001e-01,2.69023e-01,-6.61218e-01,-1.95344e-01,3.00233e-01,
2.81643e-01,2.81683e-01,9.16192e-01,-4.89485e-01,-3.22083e-01,3.31434e-02,
-2.88307e-02,-2.96299e-03,-3.06865e-01,-1.06139e-01,-5.06904e-01,-3.41282e-01,
-1.86471e-01,-1.76755e-01,-3.83855e-01,-4.10264e-02,-1.98282e-01,-2.98493e-01,
3.02042e-01,2.27411e-01,2.81509e-01,-7.44039e-01,-4.14893e-01,-1.86790e-01,
-2.08371e-01,2.01452e-02,7.85957e-01,-7.64251e-01,5.15765e-01,-2.75848e-01,
-5.26054e-03,-1.08808e-02,-5.65264e-01,7.85962e-01,-5.02432e-02,3.49134e-02,
1.40709e-01,1.17051e-01,6.53954e-01,1.00445e+00,1.67536e-02,7.47816e-02,
-1.56865e-01,-1.08878e-01,-3.15819e-01,1.83697e-01,5.14499e-01,-2.56792e-01,
2.78153e-01,-7.21180e-02,4.92822e-01,-2.12854e-01,-2.68226e-01,-4.94875e-02,
-2.53037e-01,1.21654e-01,1.55925e-01,2.66368e-01,3.99805e-01,6.00548e-01,
-1.62564e-01,1.76561e-01,1.25552e-02,-4.32956e-02,-1.91598e-01,-2.53627e-01,
2.78760e-01,2.29294e-01,-7.22413e-01,-9.27802e-01,-1.06657e-02,3.55859e-01,
-2.31190e-02,7.74644e-02,4.43188e-01,1.11763e+00,5.30253e-02,6.55018e-02,
-2.31692e-01,1.04511e-01,-3.46051e-01,-3.22858e-01,-2.74213e-01,-2.20156e-01,
-5.81553e-02,-1.28037e-01,-2.88910e-01,7.10200e-01,-1.27564e-01,3.55859e-01,
2.17204e-01,-1.98348e-01,2.30707e-02,1.91042e-01,8.49421e-02,-7.09355e-02,
-1.16903e-01,-2.96383e-01,2.51253e-01,-3.70594e-01,1.21334e-02,1.64660e-01,
1.21732e-01,-1.29089e-01,-1.62815e-01,1.47510e-01,1.49959e-01,-3.37313e-01,
8.38046e-02,2.07171e-01,7.68242e-01,-5.51881e-01,8.71854e-02,-2.10067e-01,
3.28873e-01,-2.82487e-01,1.65652e-01,-2.33170e-01,-4.85601e-01,4.02730e-01,
-2.32760e-01,3.07898e-01,-2.49675e-01,3.47125e-01,-4.98914e-01,1.27470e-01,
-7.75135e-02,-2.20170e-01,-8.57505e-02,1.02252e-01,-8.30996e-02,8.38460e-02,
-3.63231e-02,-2.16527e-01,-9.58126e-02,3.61543e-01,-2.63131e-01,-1.79123e-01,
1.32988e-01,-8.00579e-02,1.17020e-02,-8.64546e-02,1.50889e-01,-2.84491e-01,
1.26804e-01,1.73660e-02,-1.89468e-01,9.36083e-01,2.97430e-01,-4.49129e-01,
1.36193e-01,2.31559e-02,-1.97999e-01,-4.03116e-01,-8.80576e-03,5.40317e-02,
-2.19608e-01,1.01193e-01,-9.39921e-01,-4.00933e-01,1.90377e-01,-2.60229e-01,
2.12826e-01,2.41317e-01,5.53907e-01,-5.15211e-01,8.28328e-02,4.23004e-02,
5.54028e-02,5.50026e-03,-6.48686e-01,1.08143e+00,-3.52140e-02,4.64836e-02,
-1.50009e-01,-9.26687e-02,9.11695e-01,1.48698e-01,2.68610e-01,4.24896e-01,
1.14355e-01,-2.94612e-02,-1.41072e-01,3.66920e-01,-2.44308e-01,2.06607e-01,
3.35720e-01,-2.70546e-01,3.21939e-02,3.96343e-01,1.61311e-02,3.48550e-02,
-1.64094e-02,6.89055e-02,-5.61908e-01,4.36798e-01,-1.30537e-01,7.64938e-02,
-8.57065e-02,2.33137e-02,1.59026e-01,-4.95168e-01,-1.27723e-01,1.20105e-01,
1.91592e-01,-2.02681e-01,1.17899e-01,-5.05402e-01,2.39307e-01,-1.80376e-01,
-1.06951e-01,1.97002e-01,2.10511e-01,5.84863e-01,-3.75266e-01,-1.32752e-01,
3.03253e-01,1.30777e-01,3.98231e-01,-3.61897e-01,-6.85739e-01,2.72331e-01,
-1.93359e-01,1.94325e-01,-5.42937e-02,5.38459e-01,-2.43935e-01,-4.53023e-02,
-1.64302e-01,-1.01337e-01,-2.09693e-01,-4.24128e-01,4.86179e-01,4.06806e-01,
9.01890e-02,-1.20416e-02,3.51819e-01,6.88264e-01,4.19989e-01,6.23668e-02,
-1.00029e-01,1.40271e-01,-1.94681e-01,1.08375e-02,3.56694e-01,-2.92558e-01,
1.14093e-03,3.24633e-01,1.66931e-01,-6.68126e-01,5.62520e-02,-1.07669e-01,
-2.24856e-01,1.96122e-01,5.62330e-01,-4.64975e-01,8.88361e-02,-1.98424e-02,
8.27827e-02,6.42543e-02,4.06507e-02,-1.35036e-01,-4.48980e-01,1.98457e-01,
1.99264e-02,-2.95878e-01,-1.88146e-01,3.06707e-01,-2.74931e-01,3.84867e-01,
-5.18207e-02,-2.82431e-01,-7.25723e-02,-3.87220e-01,2.52011e-01,-8.65883e-02,
3.65980e-03,1.04175e-03,3.13975e-01,-8.48107e-01,3.81228e-02,-3.75000e-02,
2.53074e-02,-1.57666e-01,1.24164e-02,3.42277e-01,2.46112e-01,-5.45228e-02,
2.16016e-02,-1.93078e-01,8.16551e-02,4.96697e-01,-2.31420e-01,-8.76256e-03,
-2.97324e-01,3.23272e-01,-4.47135e-01,1.29165e-01,4.16167e-01,2.87823e-01,
-5.08895e-02,2.95745e-01,1.25843e-01,-4.58728e-02,2.26932e-01,-3.48337e-01,
-2.70185e-01,-3.24973e-01,3.68625e-01,-1.25504e-01,-6.68280e-02,-3.83309e-01,
-3.89360e-02,1.07212e-02,1.23228e+00,-8.40692e-01,7.32136e-02,-4.29848e-02,
2.30371e-01,-4.45476e-02,-1.81767e-01,6.60977e-01,3.52190e-01,-1.83790e-02,
2.68897e-01,2.15554e-01,1.25204e-01,-8.09893e-01,1.14841e-01,-1.17068e-01,
2.51525e-01,3.40286e-01,-3.39403e-02,3.64141e-01,-2.04971e-01,6.01798e-01,
-1.24467e-01,-1.75184e-02,7.99158e-02,1.43104e-01,2.67764e-01,-8.80841e-02,
-2.84931e-01,3.09978e-01,4.46566e-02,-1.01457e-01,-1.25772e-01,2.05828e-01,
1.80211e-01,3.14896e-01,-6.44543e-01,-3.33672e-01,3.41425e-01,-1.15518e-01,
1.21248e-01,3.27587e-01,2.13687e-01,-2.98093e-02,3.52819e-01,4.72689e-01,
-6.97900e-02,-8.57208e-02,1.27008e-01,-1.15344e-01,-3.39320e-02,-6.94622e-03,
-1.36786e-02,-1.96630e-01,1.52030e-01,-1.94344e-01,-1.76935e-01,2.59507e-01,
-1.18294e-01,-2.58046e-01,1.13482e-01,-9.55847e-04,-3.53199e-01,1.55381e-01,
2.17206e-03,-4.27609e-04,-2.22808e-01,-4.62785e-01,-2.36678e-02,-2.63551e-02,
-1.34349e-01,-1.81138e-02,5.85977e-01,-9.57187e-01,-3.13990e-02,-5.30152e-02,
-3.62804e-01,1.71373e-01,5.01544e-01,-2.96324e-01,-1.25192e-01,-2.74162e-01,
3.96921e-02,2.44763e-01,1.39840e-01,-6.88620e-01,-2.69288e-01,-1.43783e-01,
1.79975e-01,1.13224e-01,-1.91667e-01,6.62969e-01,-2.76515e-01,2.63353e-01,
-6.31668e-02,4.98288e-02,-2.69647e-01,3.49170e-02,-4.25339e-03,1.49951e-03,
3.79814e-02,-1.41649e-02,-2.11616e-01,6.82724e-01,1.14713e-02,2.76216e-01,
1.35728e-02,-7.76641e-02,-1.03962e-01,9.78014e-01,-7.96187e-02,1.38887e-02,
-4.09852e-02,1.70580e-01,-5.34676e-01,-6.12467e-01,-8.40823e-02,-9.34242e-03,
-1.01025e-01,8.93684e-02,2.12704e-01,-4.79982e-01,-2.51474e-01,-3.30776e-01,
-1.96901e-01,-5.28208e-02,-2.41645e-01,-8.18398e-01,-3.05003e-02,3.32511e-02,
-2.27897e-01,-1.36087e-01,-1.49866e-01,1.04578e+00,2.41939e-01,-3.76618e-01,
2.83211e-02,-1.03169e-01,3.76393e-01,2.08303e-01,-3.95588e-01,-3.35385e-01,
7.90380e-02,-8.82399e-02,2.72099e-01,-4.08677e-01,3.81810e-01,-6.19047e-02,
-3.31533e-02,2.59549e-01,-1.57509e-01,3.30956e-01,-3.26943e-01,-3.09060e-01,
9.71290e-02,1.85176e-01,1.27009e-01,1.07281e-01,-3.00402e-01,-3.04725e-01,
2.70232e-01,-2.73731e-01,-8.69475e-02,-2.40382e-01,-4.47488e-01,3.59159e-01,
-4.06032e-01,-2.61671e-01,-6.39353e-02,9.85284e-02,3.05247e-01,-1.58969e-01,
3.16172e-01,-2.31490e-01,3.19535e-01,-2.95604e-01,1.07128e-01,6.41704e-02,
1.90482e-02,2.73606e-01,1.76362e-01,-3.93790e-01,3.19157e-01,1.70562e-01,
1.10715e-01,3.61662e-01,-7.60850e-01,-4.26998e-01,1.17440e-01,-1.83975e-01,
-2.47595e-01,2.22587e-01,-9.47486e-02,5.41210e-01,-3.47033e-02,-4.80694e-01,
-2.71979e-01,5.34123e-02,-5.52584e-01,-5.35179e-01,-1.09224e-01,-1.17047e-01,
3.13579e-01,-2.73423e-02,-3.82693e-01,1.76605e-01,-8.06133e-03,-3.85125e-02,
8.21221e-02,-2.31961e-01,-1.18626e-01,-4.77006e-01,-2.83420e-02,-2.78854e-02,
5.15733e-02,-3.42849e-01,-2.28359e-01,7.44651e-02,2.31002e-01,-1.37315e-01,
1.57677e-01,-1.51968e-01,3.79191e-01,7.16339e-01,-2.44809e-01,1.28956e-01,
-2.26732e-03,3.46039e-01,1.28323e-01,-4.38463e-01,3.30951e-01,-4.47771e-01,
1.13294e-01,-3.02559e-01,-6.74464e-02,7.99704e-02,2.93564e-01,-6.98217e-02,
2.56694e-01,7.94979e-02,-9.28298e-02,-6.69109e-01,-4.58819e-01,-7.40700e-02,
2.51739e-01,-7.82597e-03,3.26957e-01,-1.76115e-01,4.44771e-01,3.36727e-01,
-2.97431e-01,1.57257e-01,-4.71397e-02,-3.39160e-01,1.45321e-01,6.13189e-01,
-6.36399e-02,2.60752e-01,3.70036e-01,-1.99673e-01,-2.07993e-01,2.19409e-01,
1.45790e-01,-5.04694e-02,4.07695e-02,2.14041e-01,-3.52425e-01,-6.45196e-01,
-2.35604e-01,-3.14499e-01,-7.09795e-05,9.00178e-01,-5.04776e-02,-1.72113e-02,
-8.03086e-02,2.15427e-01,1.24201e+00,5.50774e-01,3.55253e-01,4.34039e-02,
9.24570e-02,-1.78818e-01,1.53989e-01,2.31582e-02,-3.71706e-01,-3.18947e-01,
1.21978e-01,-1.76481e-01,-2.62231e-01,9.57199e-01,-1.09752e-01,-9.22825e-03,
-1.12217e-01,1.43024e-01,2.70092e-01,6.14292e-01,9.74772e-02,-2.12988e-01,
9.82255e-02,-3.06149e-01,-4.00714e-01,-1.76313e-01,2.61361e-01,1.69461e-01,
-1.34930e-01,1.89754e-01,1.63844e-01,5.30076e-01,-2.61403e-01,4.51475e-01,
-5.87356e-03,2.62035e-01,-1.77667e-01,-7.29606e-01,-5.05108e-02,-1.58870e-01,
-4.38606e-01,-1.85538e-01,-3.51148e-01,-6.76666e-01,6.26037e-01,-2.15050e-01,
3.83795e-01,2.14497e-01,-6.63990e-01,-4.20676e-02,-6.00063e-02,4.13481e-02,
5.55710e-02,-1.90865e-01,-4.14775e-01,2.59402e-01,2.73388e-01,2.46959e-01,
7.96794e-03,-7.52937e-02,3.19659e-01,2.01877e-01,4.21651e-01,1.54995e-01,
-4.99253e-02,-3.35753e-03,-6.01607e-01,8.52216e-01,-3.71295e-02,2.65888e-02,
4.20026e-03,-1.52800e-03,-3.55853e-01,-1.09897e+00,-2.83730e-02,-4.22062e-02,
2.49574e-02,2.04923e-01,5.97269e-02,-2.27751e-01,-4.44283e-01,-1.86349e-02,
-1.06005e-01,4.34592e-01,-1.82723e-01,-3.55763e-01,-1.37511e-01,1.74169e-01,
-3.70746e-02,2.50095e-02,-2.51252e-01,7.22414e-01,-1.07354e-01,-5.97331e-03,
-2.71876e-02,-1.36028e-01,4.18347e-01,-1.40158e-01,-7.62319e-03,2.38247e-02,
-2.34471e-02,3.99176e-02,-1.32965e-01,-8.43208e-01,-2.00452e-02,8.65933e-02,
-1.48665e-01,-3.47100e-02,-3.46848e-02,7.70541e-01,-1.76053e-01,4.53414e-01,
-1.80441e-01,3.08689e-01,-3.43959e-01,1.00686e-01,4.71200e-01,3.08674e-01,
1.64053e-01,-2.12506e-01,6.83361e-02,-1.23821e-01,3.89482e-01,-9.14661e-02,
3.45220e-01,-3.71596e-02,-2.21525e-01,2.08887e-01,-1.30265e-01,8.92955e-02,
-1.93369e-01,2.29450e-01,-4.02544e-01,1.29523e-01,-2.14711e-01,7.34860e-03,
-2.99114e-01,5.94840e-02,-4.93427e-01,2.91668e-01,-4.92324e-01,-3.86970e-01,
-3.29215e-01,2.91583e-01,-2.62376e-01,4.06934e-03,-5.53413e-02,3.88198e-01,
1.66376e-01,-2.46344e-01,2.22548e-02,3.35403e-02,-7.77116e-02,-2.16530e-01,
3.80748e-02,8.47520e-02,5.34956e-01,-2.79111e-01,1.05743e-01,1.84699e-01,
1.39282e-01,2.32388e-01,-5.16851e-01,1.20825e-01,-3.36608e-01,-3.63813e-01,
3.80835e-01,2.78923e-01,-5.97971e-01,5.76738e-02,6.64687e-02,-8.76979e-03,
-1.21065e-01,1.76861e-01,4.08169e-01,-1.24597e-02,-2.98907e-01,3.80566e-01,
1.26900e-01,-2.03913e-01,-1.49874e-01,8.18287e-01,-1.61774e-01,-2.22417e-01,
-7.95975e-03,-1.91329e-02,5.38365e-01,-1.27089e+00,6.66618e-02,-2.07088e-01,
-4.07121e-01,-3.34213e-01,9.61280e-02,-1.34485e-01,-4.47900e-01,1.16488e-01,
-6.67773e-02,-9.69903e-02,2.44622e-01,1.06224e-01,-8.14269e-02,2.40343e-02,
-9.59194e-02,-2.70087e-01,-1.78536e-02,-7.03968e-02,2.18622e-01,-3.05863e-01,
2.67822e-01,-2.68502e-01,3.73618e-01,4.24244e-01,6.06326e-02,4.55807e-01,
-3.46094e-01,-1.27897e-01,4.01699e-01,9.34988e-01,1.79328e-02,-1.69657e-01,
1.27540e-01,3.05935e-01,-1.13625e+00,-4.60563e-01,1.29529e-01,-1.19069e-01,
-2.59283e-01,-2.50385e-02,-4.99919e-01,7.32627e-01,-2.43385e-01,2.70473e-01,
-2.39478e-01,-1.41054e-02,-6.99157e-01,-4.17553e-01,-1.02471e-01,-1.97385e-01,
-1.23692e-01,8.30459e-02,4.85072e-01,-2.56828e-01,-4.46556e-01,3.06472e-01,
1.23885e-01,7.21662e-02,-3.57567e-01,-6.76864e-01,7.15505e-02,-2.49672e-01,
6.06257e-03,-1.74450e-01,-8.34911e-02,-4.35764e-02,-2.05857e-01,-2.24768e-01,
2.80897e-01,-3.20107e-01,1.42709e-01,-2.62927e-01,-2.18852e-01,-3.63748e-01,
9.06082e-02,-8.98840e-02,-2.48695e-01,-2.53512e-01,-1.95565e-01,-2.42761e-01,
2.73213e-01,-5.42845e-02,4.60871e-01,-1.00938e-01,-1.49118e-01,2.34296e-01,
3.98361e-01,
-4.53525e-01,
1.22885e-01,
3.06046e-01,
2.62665e-02,
4.48585e-01,
-4.22395e-03,
-4.71959e-02,
2.70116e-01,
-3.80665e-01,
1.96327e-01,
-1.48830e-01,
-4.71074e-02,
-1.40979e-01,
5.10375e-01,
1.17703e-01,
2.56348e-01,
-1.36561e-01,
-1.96938e-01,
-4.83087e-03,
1.75781e-01,
1.22902e+00,
2.90547e-01,
-3.96133e-02,
3.28622e-02,
1.73187e-02,
-6.73535e-02,
-4.72908e-02,
1.31484e-01,
-1.66367e-02,
-1.67284e+00,
-2.67253e-01,
-4.70766e-02,
-2.31969e-01,
-4.77544e-01,
-5.95601e-02,
3.23806e-01,
2.96300e-01,
-3.63890e-01,
-8.75069e-03,
-1.65669e-01,
-4.94196e-02,
2.11901e-01,
-5.44524e-01,
-6.68774e-01,
-3.58078e-01,
7.18988e-02,
-5.08624e-01,
2.69166e-01,
-3.33899e-01,
1.73296e-01,
1.97280e-01,
2.40746e-01,
1.23747e-01,
3.88969e-01,
-2.20473e+00,
6.83652e-02,
1.71889e-01,
2.34246e-01,
-3.57548e-02,
1.52659e-01,
1.67381e+00,
1.24551e-01,
1.44784e-01,
-3.88031e-01,
-3.57940e-01,
5.13451e-01,
-5.29623e-02,
-5.42579e-02,
-8.66427e-02,
-9.64391e-02,
1.43909e-01,
3.63368e-02,
-2.94443e-01,
2.64688e-01,
1.40204e-01,
-1.14767e+00,
1.71219e-01,
-1.20981e-02,
1.06929e-01,
-3.82753e-01,
1.65040e-01,
-2.93425e-02,
3.44547e-01,
3.23702e-01,
-1.79030e-01,
1.69148e-01,
1.14041e-01,
-1.45410e-01,
5.84373e-02,
-5.23898e-01,
1.16458e-02,
-1.95929e-01,
4.11160e-01,
-4.46392e-02,
-1.56428e+00,
3.01221e-01,
3.72312e-02,
1.60310e-02,
3.80833e-02,
-1.63575e-01,
-2.21595e-01,
6.71147e-02,
-6.85744e-01,
-1.18169e-01,
-9.30964e-01,
2.43688e-01,
-2.52782e-01,
3.86994e-01,
-1.03621e-01,
5.79706e-02,
-1.16400e-01,
2.04103e-01,
7.97622e-02,
-3.45962e-01,
-2.70848e-01,
4.09757e-01,
2.62267e-01,
-5.70215e-02,
-1.92593e-01,
7.97714e-01,
-3.25834e-01,
1.61910e-02,
-3.32114e+00,
-9.90293e-01,
1.57955e-01,
8.36657e-02,
2.47120e-01,
-7.81571e-02,
-8.75136e-02,
1.19464e-01,
-1.46732e-01,
-1.00974e+00,
-7.73079e-01,
2.22924e-01,
1.10405e-01,
-3.82763e-01,
-1.00484e-01,
-4.11746e-01,
-2.65009e-01,
-1.75776e-02,
1.27308e-01,
6.55434e-03,
1.26509e-01,
2.07440e-01,
6.32801e-01,
-3.92847e-01,
2.78023e-01,
-3.64069e-01,
-1.99840e-01,
2.88576e-01,
3.51798e-01,
2.16052e-01,
3.01185e-02,
5.79583e-01,
-3.94484e-01,
2.26187e-01,
1.59464e-01,
-1.26763e-01,
-2.94392e+00,
-2.90071e-01,
-1.96038e-01,
-1.57525e-01,
4.28794e-03,
-9.19977e-01,
-5.49708e-01,
1.65625e-01,
-2.40058e-01,
1.15067e+00,
2.17077e-02,
2.46217e-01,
1.57528e-01,
-6.59404e-01,
5.02746e-02,
-3.43819e-01,
-8.67929e-02,
-1.36551e-01,
1.17173e-02,
-1.46340e+00,
-5.10323e-02,
1.18422e-01,
-2.75240e-01,
1.25221e-01,
2.27753e-01,
7.73561e-02,
1.02516e-01,
1.34461e-02,
-2.69759e-01,
-1.74377e-01,
1.03940e-01,
-3.67343e-01,
5.77256e-02,
2.80319e-01,
-7.81754e-03,
-7.28135e-02,
-3.13410e-02,
2.97253e-02,
2.52761e-01,
-2.81044e-01,
-4.82271e-01,
-4.77716e-02,
7.16223e-03,
-7.36412e-01,
3.80205e-01,
-4.11105e-01,
-3.07431e-01,
-8.74157e-02,
-8.25662e-03,
-6.84707e-01,
-6.45444e-01,
3.15555e-01,
4.07335e-01,
1.09401e-01,
1.30425e-01,
-1.25346e-01,
-2.13726e-01,
6.10753e-01,
3.89948e-02,
3.85198e-02,
-9.06790e-02,
-1.44639e-01,
3.10371e-01,
4.00607e-01,
2.31544e-01,
1.75078e-02,
-3.29455e-01,
3.23564e-02,
-1.78275e-01,
-2.42317e-01,
1.28542e-01,
1.28773e-02,
-3.49545e-02,
-4.03919e-02,
2.52901e-01,
9.91873e-02,
2.53860e-01,
-1.86414e-01,
-1.59720e-01,
-7.15944e-01,
1.27553e-01,
8.22538e-02,
-1.00630e-01,
3.86703e-02,
2.70923e-01,
2.28222e-01,
-4.73749e-01,
2.42470e-01,
-2.88372e-01,
-2.95479e-01,
-2.56230e-01,
-5.33426e-01,
6.26244e-03,
2.65967e-01,
8.20954e-01,
6.24395e-02,
7.38996e-02,
3.35631e-01,
6.87210e-02,
2.93494e-02,
1.69318e-01,
-2.92443e-01,
-2.17786e+00,
9.62111e-03,
-3.47658e-01,
6.68770e-02,
1.57383e-01,
8.01619e-01,
5.87661e-02,
1.26765e+00,
1.97776e-01,
-2.64641e-02,
-8.86409e-02,
-2.68165e-01,
-7.41489e-01,
-3.69911e-02,
1.58770e-01,
1.91177e-01,
4.21790e-01,
-1.19386e-01,
5.99783e-01,
3.79306e-01,
-5.75526e-01,
9.71430e-02,
-3.34929e-01,
-7.89741e-01,
2.15686e-01,
3.07121e-01,
3.28437e-02,
-1.34959e-03,
6.94851e-01,
-1.22772e-01,
-2.84620e-01,
-5.62590e-02,
2.42069e-01,
9.14682e-02,
2.31398e-02,
-5.01835e-02,
-4.25592e-01,
3.27311e-02,
4.88233e-01,
-9.36222e-02,
-6.12703e-02,
-1.79077e+00,
5.19224e-02,
8.32634e-02,
1.05798e-01,
1.06128e-01,
2.51851e-01,
3.47397e-01,
-3.05639e-01,
-1.39612e-01,
3.70755e-01,
5.02484e-01,
-1.32950e-01,
3.52265e-01,
-1.50641e-01,
-1.02647e+00,
-6.44456e-02,
-1.21107e-01,
1.17104e+00,
4.21405e-01,
-1.37889e-01,
-7.77333e-02,
4.24363e-01,
1.07989e+00,
-1.32077e-01,
-5.51691e-01,
5.72983e-02,
-7.46232e-02,
1.67907e-01,
-3.45785e-01,
-7.94553e-02,
-1.69824e-02,
5.64456e-03,
1.96953e-01,
-4.38101e-01,
-1.86543e-01,
2.47496e-01,
-9.20855e-03,
6.54194e-02,
1.48433e-01,
2.67264e-01,
8.22068e-02,
-7.93066e-01,
-4.80059e-01,
-6.64878e-01,
1.12983e-01,
1.01751e-01,
-3.35783e-02,
-2.38405e-01,
-4.66744e-01,
-5.12631e-01,
-1.84667e-01,
2.86613e-01,
1.20505e-02,
-1.85604e-01,
3.25694e-01,
4.04297e-01,
2.09433e-01,
2.39312e-02,
-1.69889e-01,
9.06469e-02,
2.14922e-01,
1.53824e-01,
7.21180e-02,
2.65021e-02,
-2.56876e+00,
-1.17159e-01,
2.60822e-01,
6.79198e-01,
4.56622e-01,
8.94113e-02,
-2.33291e-02,
2.36541e-01,
-8.64163e-02,
-4.97669e-03,
2.71487e-02,
2.31924e-01,
2.24350e-01,
7.65099e-02,
7.76882e-02,
-2.85384e-01,
1.40326e-01,
2.31563e-01,
-4.29881e-01,
4.71439e-01,
2.93470e-01,
-1.28690e-01,
-3.29533e-01,
-7.02899e-02,
-1.67678e-01,
2.32208e-01,
-5.86042e-02,
1.86499e-01,
-2.05696e-02,
3.21890e-01,
-8.76782e-02,
-1.40365e-01,
-6.28782e-02,
4.14429e-01,
1.16492e-02,7.40430e-03,-1.49175e-01,-3.30428e-02,-7.29364e-02,3.11511e-02,1.65919e-02,2.50288e-02,-5.01128e-02,-1.52416e-02,2.03728e-02,5.04797e-02,-4.42399e-02,-2.95419e-02,-1.70674e-01,-2.18524e-02,1.68867e-02,1.35649e-02,-8.82239e-02,2.30239e-02,3.61097e-03,6.17086e-01,-2.55772e-02,-3.22802e-02,-3.15169e-03,7.09745e-02,-3.28982e-02,9.96829e-02,-6.07920e-03,-6.26312e-02,-9.89270e-01,4.80863e-02,-2.94914e-02,5.98514e-02,2.67401e-01,2.36309e-02,3.32129e-03,-1.55813e-03,-3.84459e-02,-5.33339e-02,-1.78957e-03,7.15937e-02,4.29710e-02,8.27491e-02,-4.64168e-02,-2.90218e-02,-4.58410e-02,-4.52723e-02,-1.33857e-02,-5.12506e-02,-3.94011e-02,1.68993e-02,7.09507e-02,5.92086e-02,-2.40615e-02,-1.01642e+00,4.02223e-02,-3.26971e-02,3.46313e-02,1.58040e-01,-1.95427e-02,-5.17436e-01,4.34507e-02,6.87588e-03,6.76216e-03,-1.13318e-02,1.67936e-01,1.31124e-02,-4.28607e-02,6.83198e-02,-1.00558e-01,9.58003e-02,-3.80014e-02,-1.02688e-01,2.89069e-02,-1.40003e-02,1.28791e-02,1.37766e-01,3.42195e-02,-8.18875e-02,2.10654e-01,7.15582e-02,-2.37452e-02,5.54736e-02,-3.32827e-02,5.90782e-03,-2.45437e-02,-3.05526e-02,-3.27141e-02,3.38914e-02,-1.32911e-02,5.13737e-02,2.23834e-02,-3.50515e-03,-8.13394e-03,9.61824e-01,-4.90922e-02,4.99117e-03,3.81341e-02,4.43301e-02,4.27607e-02,-4.21132e-03,-4.42796e-02,4.73772e-02,1.81682e-02,2.79112e-02,-1.91632e-02,3.73433e-02,-7.48861e-02,5.77130e-02,-4.76854e-02,1.52425e-02,-1.33988e-01,-1.09512e-02,-6.71506e-02,-3.08824e-01,-1.16711e-02,1.66765e-02,-8.11596e-02,4.03172e-02,-4.43958e-01,-3.62487e-02,-1.08414e-02,-2.82032e-01,3.11662e-01,4.41573e-03,-3.74815e-02,-3.46992e-02,5.15234e-02,5.91920e-02,2.26072e-02,-2.19342e-02,-2.95699e-01,4.55514e-02,-1.37097e-02,-6.86711e-02,3.61662e-02,-9.27656e-02,5.21407e-02,7.33434e-02,-5.38728e-02,-3.44654e-02,-7.89400e-02,1.15263e-02,-6.96147e-02,6.24811e-02,-6.43884e-02,2.20406e-02,-4.31629e-02,1.75515e-02,1.69133e-02,4.65813e-02,3.18839e-02,-8.73494e-02,-7.20061e-02,-3.46500e-03,5.42192e-02,1.31164e-02,1.41485e-01,-3.50070e-01,-3.54262e-02,-8.91140e-03,2.19338e-02,-6.14969e-02,-4.00255e-02,4.85509e-02,-2.00562e-02,-4.42724e-02,7.99942e-01,1.36438e-02,-6.27264e-02,3.08636e-02,-3.01332e-01,-4.95107e-02,7.98542e-03,3.86564e-02,-4.87264e-02,-2.03956e-02,-1.16737e+00,-1.01717e-01,4.90579e-02,3.42336e-03,-5.15508e-02,4.47828e-02,8.67494e-02,-2.34896e-02,-1.44456e-01,-5.27478e-02,-1.23892e-02,4.03174e-02,1.08463e-02,-6.48606e-02,-5.97399e-02,3.81183e-02,8.11959e-03,-3.38871e-02,6.28114e-02,1.14221e-01,3.42325e-02,-3.46238e-02,2.40048e-03,7.58665e-02,-5.99601e-02,-6.14688e-02,-4.81471e-02,4.32874e-02,-4.88030e-02,7.70199e-02,2.78713e-02,-3.12582e-02,5.38924e-02,-6.00891e-02,-7.22393e-02,4.88601e-02,-2.13733e-01,4.30898e-02,-3.70919e-01,-2.77384e-02,5.36654e-02,2.09374e-02,2.01158e-02,-8.87664e-02,5.97283e-02,-1.53929e-02,7.78340e-03,-1.82961e-02,3.56547e-03,2.53410e-03,-5.42478e-02,-4.06074e-02,-5.95648e-05,2.26679e-02,1.45915e-01,-4.41955e-02,-7.24077e-02,1.28021e-01,-2.66608e-02,6.20384e-02,1.42183e-01,2.22123e-02,-2.11512e-02,-9.56380e-02,-2.95280e-02,-1.72131e-02,1.45856e-01,3.12318e-03,-9.55923e-03,3.24396e-04,-1.59387e-02,-6.12359e-03,-2.58424e-02,5.06203e-02,4.04668e-02,-3.08741e-01,7.35246e-02,-1.38756e-02,-2.87686e-02,-2.21767e-02,2.65708e-02,-2.31573e-03,-2.39064e-02,9.34249e-01,2.02887e-02,-1.58658e-02,1.29282e-02,-5.14709e-02,-7.45176e-02,5.29647e-02,6.42345e-01,1.04674e-01,-7.32255e-03,2.43717e-02,-1.73054e-02,-3.91734e-02,-6.76776e-02,3.30240e-02,-4.94349e-02,-2.83703e-02,1.00518e-03,-6.28283e-02,5.63655e-02,-7.36915e-02,-2.02193e-01,3.26193e-02,6.06263e-01,3.33835e-02,-2.26179e-02,2.65622e-03,1.07996e-01,8.47759e-02,-2.62851e-02,5.80697e-02,9.36570e-02,-6.49122e-02,3.95179e-03,4.54835e-02,-3.01250e-02,8.77621e-02,-1.38489e-03,5.58567e-02,4.04871e-02,-2.37595e-02,-8.66727e-01,-4.64995e-02,-4.54044e-02,2.96619e-02,4.59686e-02,-7.65562e-03,-1.10913e-01,1.05328e-02,-7.29959e-03,-1.17416e-02,-5.91111e-02,3.96197e-03,-6.00351e-02,-1.92283e-02,-1.87320e-01,1.72097e-02,-1.54710e-02,-2.12042e-01,1.28453e-01,1.81357e-02,3.13891e-03,-7.62227e-02,-1.51744e-01,1.09775e-01,3.37288e-01,1.48052e-01,-4.83341e-02,-4.08647e-02,7.10318e-02,4.18176e-02,-4.18086e-02,5.49046e-02,1.80612e-02,-3.31095e-02,-4.70478e-02,2.97768e-02,6.07029e-02,-8.67650e-02,-4.91879e-02,-1.28723e-01,9.58837e-03,3.54888e-02,5.17868e-02,6.54666e-02,7.87113e-03,-3.31193e-02,-7.15647e-02,-8.23209e-02,-2.37898e-02,6.18229e-02,-5.14175e-03,-3.32283e-02,-7.94634e-02,1.11582e-02,-5.53905e-02,9.93487e-02,2.85576e-02,8.28873e-02,-1.31580e-01,4.65985e-02,6.99875e-02,3.81280e-02,1.67846e-02,3.49037e-01,7.52656e-01,2.91429e-02,-7.57264e-02,-1.56365e-01,1.14692e-03,7.34647e-02,-1.26190e-01,-6.94564e-02,2.01736e-02,-1.41561e-02,6.45832e-02,8.74906e-02,3.72343e-02,3.58828e-02,-5.83573e-02,-2.53136e-02,-7.85877e-02,1.17712e-02,-2.15979e-02,-3.04720e-01,2.59822e-02,-6.04729e-03,-1.74618e-02,-8.67406e-03,-1.52661e-01,2.10726e-01,-8.63506e-02,1.26946e-01,-3.30099e-02,1.62659e-02,2.28299e-02,-2.13559e-02,8.75617e-02,3.04375e-02,
3.10192e-02,-6.64338e-03,-5.94004e-02,-2.77083e-02,-4.32176e-02,5.90656e-02,-7.03667e-02,-7.92421e-02,1.37458e-02,-3.93235e-02,3.68202e-02,-3.57937e-02,-1.21274e-02,-5.58678e-02,4.48347e-01,4.73606e-02,-1.61803e-01,8.05239e-02,-2.74094e-02,4.35245e-03,5.78046e-02,1.43765e-01,4.77875e-02,3.02765e-02,-2.46880e-02,-1.92958e-01,-1.16793e-02,-1.38778e-03,3.65909e-03,-8.47381e-03,-2.98497e-01,1.03359e-02,-1.24966e-01,3.28402e-02,6.82693e-01,-6.10567e-02,4.79816e-02,-1.08903e-02,-2.99389e-02,7.62935e-03,9.27017e-03,-5.32396e-02,-9.11060e-03,1.00317e-02,-2.04812e-02,-3.42363e-03,8.44984e-02,-2.64460e-02,2.31092e-02,3.81238e-02,3.76354e-02,4.91914e-02,8.37206e-02,-6.64455e-03,7.11660e-03,1.66509e+00,-1.53499e-02,-1.22600e-01,-2.89257e-02,-2.29568e-02,-8.57580e-03,-4.63218e-01,1.04943e-01,1.99306e-02,1.29519e-01,4.56374e-02,2.01260e-01,-2.55469e-01,-1.51589e-02,8.86872e-02,-1.10728e-02,7.14710e-02,-1.54677e-02,-1.35215e-02,2.23141e-02,-3.76100e-02,-7.77122e-02,1.47082e-01,1.18592e-01,1.80787e-02,2.82807e-01,-5.32237e-03,8.09189e-02,3.18658e-02,3.47337e-02,5.22890e-02,-5.50152e-02,-8.77851e-03,3.03696e-02,3.53320e-03,-1.03204e-01,1.15354e-02,-5.13873e-02,3.91347e-02,5.07354e-02,2.89910e-01,-3.78411e-02,4.56842e-02,-4.69743e-02,3.47960e-03,-4.44649e-02,1.10674e-01,1.06037e-02,-1.75816e-02,1.40867e-02,6.35801e-03,-1.04249e-01,-3.22035e-02,-2.11618e-02,6.20472e-02,4.21421e-02,9.07935e-02,-1.39635e-01,-2.09844e-02,-1.11080e-01,-3.85757e-01,3.57977e-01,2.61927e-02,-2.78130e-02,-4.04913e-02,-4.50902e-01,2.49869e-01,2.47158e-03,-7.65398e-01,4.67344e-02,7.28136e-03,-2.22917e-02,5.23048e-02,-3.07195e-02,1.06896e-01,5.31211e-02,-1.94844e-03,-6.48914e-02,-4.66240e-03,6.59078e-03,2.69522e-02,-1.33133e-02,-2.64722e-02,-4.19672e-01,1.37730e-01,-5.56501e-02,-1.01363e-02,-3.98489e-01,3.07162e-02,-4.55207e-02,1.32365e-01,4.40683e-02,-7.37432e-02,-8.81634e-03,2.22545e-02,-4.63703e-02,5.86640e-02,-4.74997e-02,-2.86777e-02,-8.00374e-02,-2.53590e-02,-4.92185e-02,8.28733e-02,-1.20548e-02,-7.56563e-01,-2.50766e-02,-2.60382e-02,-2.50187e-03,-1.70501e-01,7.18779e-02,-4.67016e-02,1.22236e-02,1.12508e-02,-2.84346e-01,5.46051e-02,7.39696e-03,2.92065e-02,-7.81298e-02,-4.38548e-02,-4.61119e-02,-2.55020e-02,-2.21975e-03,-2.57294e-02,-4.65617e-01,-1.96188e-01,5.09519e-02,-7.69812e-03,-5.55772e-02,5.00335e-02,-4.06297e-02,-6.04018e-02,-1.19856e-02,2.43122e-02,2.37797e-02,1.70770e-02,4.77769e-02,-7.41029e-05,6.29178e-02,3.49351e-02,-5.26138e-02,5.79940e-03,3.40822e-02,1.00685e-02,-8.04193e-02,1.64905e-03,-5.20176e-02,3.02312e-02,-1.59085e-01,-3.12515e-03,-7.71222e-03,1.22327e-02,-6.33620e-02,1.04848e-01,-7.33004e-02,-3.00763e-02,9.65237e-02,-1.22960e-01,-3.01117e-02,1.03093e-01,-7.72301e-02,-1.79956e-02,3.25602e-02,-2.97994e-02,6.75679e-02,1.79982e-02,-3.46930e-02,-9.20230e-02,3.81426e-02,-2.77980e-02,-1.00174e-01,2.74934e-02,1.66931e-02,1.41394e-02,-1.14157e-01,-5.74700e-02,3.25913e-02,-7.66655e-03,9.26920e-02,7.80850e-02,-2.24215e-02,2.01046e-02,2.99090e-02,9.57995e-02,1.99338e-01,1.79819e-02,1.16199e-02,2.28094e-05,-1.34185e-02,-4.48908e-02,7.87795e-02,-5.54211e-02,2.89229e-02,9.89536e-03,3.85458e-03,-4.12318e-02,-1.78965e-03,3.65799e-02,6.77095e-02,4.77745e-01,-8.56242e-02,-1.24706e-01,3.04547e-02,-4.49243e-02,1.81609e-02,-1.08831e-01,-1.00069e-01,1.27319e+00,1.09882e-01,-7.22532e-02,-3.03071e-02,4.81014e-03,-1.97609e-03,9.86218e-02,2.02867e-01,8.26942e-04,-5.65805e-02,4.70976e-03,-1.58607e-02,-2.78207e-02,5.99897e-02,6.33457e-03,2.08062e-02,3.49626e-02,-3.16560e-02,1.02221e-02,1.04537e-01,-4.43277e-02,-4.54845e-02,3.32521e-02,-3.53588e-01,-9.59453e-02,3.06876e-02,5.54813e-02,9.73028e-02,1.07378e-01,-3.16720e-02,3.29354e-02,-2.87041e-02,5.74546e-03,-5.09251e-02,2.61853e-01,2.53586e-02,-4.85777e-02,-7.58402e-02,6.03030e-02,1.13712e-02,-2.31968e-03,7.60171e-01,6.69021e-02,1.27284e-02,-5.18081e-03,-2.65861e-02,8.39806e-03,3.45754e-01,8.27824e-03,-1.22307e-01,2.73360e-02,7.54270e-02,-3.71245e-02,5.56302e-02,2.87800e-03,4.63133e-02,2.16857e-02,-3.98200e-02,-4.34685e-01,2.46616e-01,-2.77641e-02,-9.21969e-02,-7.71986e-02,2.39604e-01,1.03022e-01,-2.41079e-02,-7.83531e-02,-4.34707e-02,-1.68726e-01,7.32594e-02,2.48839e-02,-3.01473e-02,-2.43653e-02,3.87447e-02,1.24828e-02,4.97037e-03,6.93497e-03,-3.05854e-02,3.14178e-02,9.90282e-03,8.29974e-03,-2.56873e-02,1.02553e-02,-3.65861e-02,1.71484e-02,-5.05867e-02,4.57126e-02,-3.75455e-02,7.96731e-03,-4.05257e-02,-3.08250e-02,-2.81701e-03,4.18282e-02,-3.29891e-02,1.81137e-02,-4.09904e-02,7.44626e-03,-2.56815e-02,6.83893e-03,5.09546e-02,-2.07492e-02,5.53809e-02,8.79731e-03,3.42201e-02,7.77155e-02,-1.16309e+00,-5.96531e-02,5.44142e-02,1.57323e-01,2.83465e-02,1.40584e-01,-4.51967e-04,2.78257e-02,-3.26210e-02,1.70604e-02,1.62989e-02,2.95662e-02,2.33756e-02,4.96157e-02,5.97235e-02,2.07443e-02,2.60269e-03,4.91741e-02,-3.94889e-02,-5.91691e-01,1.22235e-02,-4.04398e-02,-2.89827e-02,-6.28645e-03,-9.77813e-02,-8.06861e-02,-9.30360e-03,5.65093e-02,-6.93036e-02,-1.18114e-01,2.59679e-02,-2.99766e-02,4.94533e-02,3.87328e-02,
-2.83721e-02,5.97546e-03,6.67059e-03,-2.77206e-02,2.37898e-02,5.36416e-03,-5.01827e-02,6.86350e-03,7.10411e-03,3.72529e-02,3.49511e-02,-4.92546e-02,-6.20880e-02,-2.72901e-03,8.26259e-04,2.96214e-03,-8.46515e-03,-1.20880e-02,-1.08358e-02,3.20113e-04,2.79749e-02,-5.79982e-03,6.07663e-03,2.49374e-03,2.05202e-03,-6.78956e-03,-2.79925e-03,4.79433e-02,-4.26571e-02,-4.16661e-02,6.43383e-03,3.26570e-02,8.46588e-02,-1.10293e-01,-2.68623e-03,-1.40383e-02,-1.76888e-03,-5.75296e-03,2.65035e-02,3.57501e-02,-1.36493e-02,-1.40734e-02,-2.60799e-02,9.97660e-03,3.81645e-02,4.63234e-02,-5.42599e-02,-7.93162e-03,-3.26660e-02,2.70082e-03,3.37384e-02,1.55213e-02,1.10969e-02,7.17370e-02,2.57502e-02,4.85723e-03,-4.95150e-02,1.51867e-02,6.04905e-02,3.82726e-03,3.83871e-02,1.11437e-02,-2.09135e-02,1.42022e-02,1.76364e-02,-4.48544e-02,-2.97973e-04,2.52728e-04,8.74620e-02,2.13844e-02,8.37366e-02,-8.60126e-03,1.14588e-02,2.19762e-03,-8.11195e-02,1.19695e-03,-1.61549e-02,-6.01373e-03,-5.37574e-03,-3.45596e-03,-4.43392e-03,3.19104e-02,1.07572e-02,-1.60139e-02,3.36740e-02,-3.40917e-03,2.31433e-03,4.34264e-02,-4.17088e-02,3.70948e-02,-1.77119e-03,4.59264e-02,3.43030e-03,8.32539e-02,1.21999e-02,-2.41276e-03,-1.42733e-02,1.08312e-02,1.27502e-02,2.68279e-02,1.60521e-02,2.23230e-02,-1.93400e-02,2.59794e-02,2.03002e-02,9.86927e-03,5.49917e-03,3.19279e-02,-1.06876e-02,7.67229e-03,-2.92121e-02,-1.13127e-02,-3.25916e-03,1.25462e-02,4.50642e-03,-9.42633e-04,-6.09221e-03,-2.25073e-02,1.15433e-02,-2.11864e-02,-6.49237e-04,6.07979e-03,-1.17077e-02,1.07434e-02,1.19738e-02,-3.60014e-02,-7.22783e-03,4.27138e-03,1.21428e-02,3.90549e-02,6.29400e-02,2.67512e-02,-1.49803e-02,-3.75121e-03,-2.13959e-02,-3.37148e-02,-1.75047e-02,8.74578e-04,2.84457e-03,2.15155e-03,3.64257e-02,-2.59211e-02,1.09783e-02,-1.10372e-03,-5.09802e-02,4.71945e-03,4.66850e-02,-2.23400e-02,1.32450e-02,-3.35007e-03,3.35164e-03,-5.96759e-02,-2.71422e-03,4.82445e-03,9.91980e-04,-2.80348e-02,-3.00514e-02,8.25012e-03,1.01083e-02,-6.92860e-03,-3.30601e-02,-9.46231e-02,2.98643e-02,-9.79694e-04,-3.01580e-02,-1.75814e-02,-5.20103e-02,1.08879e-02,2.41592e-02,2.37268e-02,9.88879e-03,7.35631e-03,1.31314e-03,5.25222e-02,1.63262e-02,1.54775e-02,1.42398e-02,-5.42965e-02,1.20032e-02,-2.99673e-03,2.78927e-02,-3.43626e-02,-1.26523e-02,2.60484e-04,1.03884e-02,-2.37088e-02,4.40773e-03,-7.93631e-03,-3.96265e-02,-1.10315e-02,-1.29861e-02,-6.35058e-02,3.45970e-02,-1.75765e-02,2.16981e-02,-3.15157e-02,2.08272e-02,1.28240e-02,-1.27731e-04,-6.34456e-03,1.41468e-02,-1.86203e-03,1.08834e-02,-5.24711e-04,-1.03657e-02,1.59981e-02,-1.97194e-02,1.76224e-02,1.20181e-03,1.05067e-02,-2.41941e-03,1.12196e-02,2.32742e-03,3.97325e-04,-1.06286e-03,3.28817e-02,-6.51446e-03,7.93685e-02,-1.00393e-02,-3.67339e-02,-9.19174e-03,3.86491e-03,-2.29282e-02,-1.89847e-02,-3.40015e-03,-1.44945e-02,-4.63275e-04,1.17870e-01,-8.73682e-03,-3.30259e-03,3.55410e-02,1.61105e-03,-4.55233e-02,-7.24807e-03,-7.78003e-03,3.64723e-03,9.36050e-03,8.39426e-04,-1.24148e-03,5.46522e-03,4.19473e-02,5.37385e-03,1.15979e-02,-6.27029e-04,3.46969e-03,4.08927e-03,5.44114e-02,-1.10799e-02,1.26488e-02,6.19423e-03,-1.81040e-02,5.91425e-02,1.87833e-03,-1.63097e-03,-2.30440e-02,-1.93073e-02,9.54671e-04,-3.05591e-02,-2.70701e-02,-2.04629e-02,1.24989e-02,-1.45924e-02,4.52962e-03,2.17609e-02,1.51550e-02,5.41796e-02,-3.77791e-02,-4.96484e-03,2.21727e-03,-2.12592e-03,-3.80492e-03,2.54734e-02,1.83204e-02,1.48369e-02,-3.22250e-03,-5.01573e-02,-3.01547e-02,-8.94895e-03,-5.63768e-02,1.10628e-02,-2.10712e-03,-2.79576e-04,4.00838e-03,4.14154e-03,-1.17900e-02,1.55362e-03,-4.14336e-02,-1.66872e-02,-2.37645e-02,-6.82935e-03,3.98984e-03,-6.75218e-02,-3.06589e-02,-7.61447e-03,7.41738e-03,1.65298e-02,4.60888e-02,-1.11876e-02,3.54059e-02,-2.02688e-02,-2.87206e-02,3.14055e-02,-1.57309e-03,5.50234e-02,-1.56913e-02,2.40691e-03,1.00957e-02,3.46377e-02,-2.75177e-03,3.56566e-02,-1.43873e-03,-1.02580e-02,5.22390e-02,-1.53445e-02,3.20186e-02,5.73217e-02,-8.50398e-04,-3.68215e-02,-2.92597e-02,-4.04519e-02,3.45004e-03,-1.40421e-02,-2.14242e-02,-1.27477e-02,2.04877e-02,-1.12498e-02,-1.17422e-02,-9.40411e-03,-1.81729e-02,-1.10934e-02,6.98735e-03,-1.84686e-02,1.81623e-02,-3.38860e-02,-8.67246e-02,-4.19365e-02,-2.55796e-03,-6.22839e-03,5.28987e-02,-2.56028e-03,-1.87790e-03,-1.43941e-02,-8.49769e-03,-2.30471e-02,-1.34072e-02,2.94109e-03,4.52855e-02,3.91685e-02,-1.94515e-02,2.69835e-02,3.25887e-02,-1.91105e-03,-4.56692e-02,-4.35218e-03,2.07145e-04,-4.43747e-02,2.77642e-03,-1.41945e-03,2.35093e-02,-3.90117e-02,2.51121e-03,1.05621e-03,-1.15580e-02,2.25187e-02,2.39824e-02,8.69287e-03,-3.92427e-03,-4.31443e-02,-3.35229e-02,-1.60384e-02,1.28865e-02,3.30013e-03,-2.25856e-03,2.61017e-02,2.18785e-02,8.77120e-03,-3.35844e-02,-2.96854e-02,-1.63989e-02,-9.08909e-03,5.47944e-03,-8.01275e-03,8.28553e-04,-4.05370e-02,5.78672e-03,1.47964e-02,1.99673e-04,-5.92834e-02,8.35278e-03,2.81830e-02,4.67663e-03,8.25281e-04,-1.51585e-02,8.06908e-03,-4.42213e-02,6.82564e-03,-5.24817e-02,-1.46851e-02,-2.81160e-03,1.61451e-02,
-5.80250e-02,9.06365e-03,1.17162e-03,-7.98196e-03,-3.20764e-02,-2.06451e-03,3.77571e-02,6.48173e-03,-4.06231e-03,3.41669e-02,-7.74700e-02,5.08624e-02,-5.03349e-02,-1.65067e-02,-1.42449e-02,-2.05729e-02,2.70890e-02,1.66168e-02,1.98871e-02,4.19864e-02,-2.77445e-03,5.11243e-03,-5.92835e-03,2.19723e-02,-1.80747e-03,-5.14244e-03,1.71326e-02,-1.76648e-02,7.48973e-03,-1.87582e-02,2.01340e-03,1.29516e-02,7.33239e-02,2.95323e-02,-5.68011e-03,-3.10772e-02,-1.19539e-03,6.02293e-03,-1.80849e-02,2.17078e-02,6.04936e-02,2.97120e-04,2.07392e-02,-1.11653e-02,-1.41018e-02,3.10995e-02,-5.35927e-02,5.03721e-03,3.15831e-02,-1.54295e-02,2.49241e-02,-1.21767e-02,1.38452e-02,3.83509e-02,9.70775e-03,-4.80946e-03,4.63890e-02,-2.29150e-02,5.25400e-02,4.86511e-03,6.95615e-03,4.01719e-02,3.17226e-02,-1.59277e-03,1.44274e-02,-8.17097e-03,-7.88633e-03,-1.31204e-02,-6.40790e-02,2.99653e-02,-2.51818e-02,8.50618e-03,1.59023e-02,4.90290e-03,-5.64112e-02,5.39401e-02,6.21729e-03,-1.41736e-02,3.78875e-03,-3.11965e-03,-1.61341e-02,-7.06157e-03,-1.57094e-02,-1.17494e-02,5.30896e-02,-4.66313e-03,5.09406e-03,4.32513e-02,4.75235e-02,-1.62845e-02,1.12079e-02,3.20097e-02,-1.43671e-02,-2.29969e-02,-8.31535e-03,-4.75994e-03,2.92193e-02,-3.22762e-03,5.71082e-03,-3.36667e-02,-3.40229e-02,-3.63564e-02,-3.52880e-02,-1.15163e-02,7.32338e-03,-3.41389e-04,2.35490e-03,-4.18361e-02,9.35322e-03,-1.64062e-02,-3.10437e-03,8.10719e-04,-4.51227e-02,1.97507e-02,1.28634e-02,-9.25391e-03,1.25788e-02,-1.27319e-02,7.66805e-03,-9.76857e-03,1.15094e-02,-1.38756e-02,3.71014e-02,9.66055e-03,-4.94275e-03,2.64888e-02,-3.25271e-02,9.40220e-04,1.40762e-02,-4.34081e-02,1.01736e-01,-1.04208e-02,8.00552e-03,1.04844e-03,1.58231e-02,7.67515e-03,-2.16654e-02,-1.97877e-03,5.82602e-03,2.81541e-02,3.93498e-02,-1.75661e-02,7.21818e-03,-3.56334e-02,1.60622e-02,-2.10940e-03,9.24605e-05,-1.32358e-03,-8.76937e-03,7.69994e-03,-6.57436e-03,3.18654e-02,2.10664e-02,6.07654e-03,-4.52432e-03,-3.03596e-02,1.73338e-02,8.24717e-03,-1.69636e-02,7.92262e-03,-1.97878e-02,9.29724e-02,-2.45051e-02,-1.86646e-02,-8.11184e-04,4.89860e-03,-6.54085e-02,4.07324e-02,1.81640e-03,3.73569e-02,2.68600e-04,6.81376e-03,-1.05736e-02,4.46148e-02,-1.47130e-02,-3.11884e-02,4.88984e-03,-2.10518e-03,-6.86931e-03,-2.53283e-03,-3.74229e-02,-3.69376e-02,1.39229e-02,1.05905e-02,5.92510e-03,2.94432e-02,1.18619e-03,-8.42531e-03,3.94445e-02,2.61145e-02,-1.07564e-02,-6.52474e-03,1.02696e-02,1.57825e-02,1.42153e-02,-2.00427e-02,-7.59679e-03,-2.57093e-03,-1.05008e-02,-1.54797e-02,6.78093e-03,8.94001e-03,-8.24797e-04,-2.51039e-02,7.38463e-03,-6.32203e-02,-6.79493e-02,-1.02046e-02,-4.35776e-03,-1.80584e-02,-2.15690e-03,-9.00453e-03,3.27813e-05,4.48076e-03,1.03897e-02,-4.87008e-02,-1.09085e-02,-5.80042e-02,2.83147e-03,1.44386e-02,7.33115e-03,-2.20983e-03,1.66872e-02,-2.18557e-02,6.56914e-03,2.58089e-02,-7.13427e-03,9.43268e-02,4.39748e-03,-1.22403e-02,-3.22118e-03,4.56190e-02,-3.28106e-02,9.96402e-03,-1.81611e-02,1.46507e-02,-5.82102e-02,-1.60290e-02,6.31018e-03,-8.52310e-03,4.58964e-02,2.88500e-03,1.39287e-02,-5.65526e-03,-2.28908e-02,5.68759e-03,-6.52260e-02,-1.37308e-02,-4.59979e-02,1.22099e-02,1.97659e-03,-3.62977e-02,-2.10820e-02,3.93242e-04,5.70745e-03,2.42707e-02,2.01960e-03,-1.97787e-02,-2.78470e-02,-2.28001e-02,-1.42643e-02,4.39882e-03,-6.28666e-04,-2.15262e-02,-3.42374e-02,6.90440e-02,-2.34517e-02,2.02643e-02,2.91552e-03,4.65083e-03,2.29776e-02,-2.16206e-02,6.02277e-03,2.10921e-03,-6.09714e-03,4.10645e-02,-1.05112e-03,1.91644e-02,-2.20439e-02,-1.50658e-02,2.90510e-03,4.81169e-03,-1.62181e-02,2.97816e-03,1.16423e-02,2.46847e-03,5.96971e-02,2.63290e-02,7.72309e-03,8.20012e-03,-1.66379e-02,-4.53760e-02,1.01984e-02,5.48028e-03,4.90762e-04,1.48300e-02,-2.97826e-02,3.93604e-03,-1.43460e-02,1.21759e-02,5.46821e-02,1.36051e-02,4.08722e-03,-2.51160e-02,-1.67847e-02,4.83181e-03,-3.34011e-02,-4.36659e-02,4.21212e-03,-2.03985e-02,-7.61046e-03,4.47211e-02,-9.68066e-05,-7.58240e-03,-1.39396e-03,7.14719e-02,-1.84216e-02,2.91881e-02,-9.45719e-03,-4.66987e-02,-1.26463e-02,-1.18870e-02,1.12563e-03,1.84808e-02,2.62361e-03,1.95512e-02,3.63027e-03,1.12388e-02,-4.06503e-02,2.78631e-03,-1.15166e-02,-1.87008e-02,6.96402e-04,-2.66624e-02,-7.13568e-02,3.80584e-02,-2.28037e-03,-5.26055e-03,1.47733e-02,-8.33660e-03,-4.09724e-02,1.20158e-02,4.35905e-03,1.74798e-02,1.64490e-02,1.12786e-02,-6.25219e-02,-2.90924e-03,-1.75491e-02,1.33279e-02,5.59402e-02,3.56647e-03,-7.44190e-02,-1.32592e-02,4.88004e-03,-2.74678e-02,1.20318e-02,-1.02940e-02,5.33293e-03,3.01148e-02,-1.07304e-03,-3.53686e-03,-5.62387e-03,1.47153e-02,-1.79198e-03,3.29814e-03,1.27711e-03,-2.77849e-03,3.43987e-02,-2.13575e-03,2.84046e-03,1.41824e-02,1.01641e-02,5.89367e-03,2.12314e-02,5.36104e-03,6.28460e-04,-1.24478e-02,3.94134e-02,-7.29524e-02,5.75169e-03,-7.60459e-03,-6.17283e-03,5.36780e-02,-3.81434e-04,-7.75119e-03,5.03166e-03,3.03465e-02,-3.78709e-03,6.22077e-02,-5.99564e-03,-5.24948e-04,2.12371e-02,-7.17475e-03,2.49741e-02,-7.80563e-03,-4.09063e-02,6.75236e-03,-2.44117e-02,4.11553e-03,
-3.76904e-02,
1.26471e-01,
1.61653e-02,
-3.63858e-02,
