// Neural Network File Format by Kyle Julian, Stanford 2016
3,6,4,100,
6,100,100,4,
0,
0
0
0
0
-5.12901e-02,1.84258e-01,1.74661e-01,-8.54170e-02,2.38231e-01,-1.58543e-01,
5.49938e-03,-1.56196e-01,9.91105e-03,-7.70391e-01,-1.71413e-01,3.41632e-02,
2.34903e-01,-2.35219e-01,3.54038e-02,3.45981e-01,-4.12545e-01,4.32334e-01,
1.76466e-01,-1.41134e-01,-5.99801e-01,-4.09586e-01,-3.37603e-01,-1.75327e-01,
2.47139e-01,1.32324e-02,7.95287e-01,4.94361e-01,-6.25175e-02,1.06011e-01,
1.52710e-01,-1.07719e-01,2.68943e-01,2.98046e-01,-3.23480e-01,-5.08130e-01,
-1.42522e-01,-2.13107e-01,-2.89280e-01,2.44647e-01,-4.93557e-01,2.97635e-01,
4.57106e-01,1.33691e-01,7.74706e-01,6.80889e-02,1.06426e-01,7.74755e-02,
1.63309e-03,-1.17207e-03,-2.29442e-01,-4.47400e-01,-2.16592e-02,-2.31768e-02,
-5.06849e-02,-3.26965e-01,2.28985e-02,2.57815e-01,3.56010e-01,-2.17807e-02,
-4.18147e-03,-1.49707e-03,1.27353e-01,5.15056e-01,1.34117e-02,2.49335e-02,
2.05984e-01,-1.79610e-01,2.51150e-01,2.81537e-01,2.15707e-01,1.55838e-02,
2.83126e-01,-4.57574e-03,5.70010e-01,-7.36170e-01,-6.95634e-02,-8.82003e-03,
-2.36713e-01,-3.17418e-03,-2.09895e-01,-5.07001e-01,-4.30481e-01,8.67566e-02,
6.41975e-02,-2.60100e-02,-4.38630e-01,-6.29210e-01,1.24965e-01,5.95239e-03,
2.57440e-01,1.50921e-01,-4.87143e-01,7.89659e-02,-2.45584e-01,2.81916e-01,
-1.04358e-01,1.39196e-02,-7.49706e-03,-8.91839e-02,-1.82725e-02,-6.62904e-03,
-1.08245e-01,-1.81151e-01,-6.42893e-02,-8.94116e-02,-3.36255e-01,1.23610e-01,
1.62477e-01,-1.66567e-01,6.47998e-01,3.77000e-01,-2.71308e-01,3.36836e-01,
1.07008e-01,-8.66200e-02,-5.85802e-01,1.41794e-01,-4.22657e-02,2.58488e-02,
-2.56182e-01,4.87561e-02,-3.09001e-01,1.75019e-01,5.61213e-01,2.27167e-01,
9.48673e-02,-2.50924e-01,8.35737e-02,1.06297e+00,-8.41565e-02,7.46996e-02,
-2.88901e-01,-1.19307e-01,-6.29243e-01,-8.09547e-01,-1.81540e-02,-2.33376e-01,
-3.12898e-03,1.02388e-03,4.53691e-02,3.49825e-01,8.80996e-03,8.90002e-03,
-1.06517e-01,-1.35257e-02,4.70999e-01,-7.51868e-01,2.11434e-02,2.35935e-01,
2.04001e-01,1.68042e-01,-3.98590e-01,1.02959e-01,-3.32756e-01,4.46343e-01,
1.27893e-01,-1.72853e-01,-4.27833e-01,-2.81905e-01,2.17227e-02,1.57273e-01,
-9.05297e-03,1.42253e-01,-3.14959e-02,6.64240e-01,1.53322e-01,-2.43622e-02,
8.48142e-02,1.81748e-01,1.79667e-01,-3.65748e-01,-2.14226e-02,-8.46037e-02,
-1.36396e-01,9.05178e-02,3.15461e-01,2.60439e-01,2.28791e-01,1.51468e-01,
-1.71136e-01,-1.57835e-01,7.20937e-02,6.98550e-01,-2.75698e-01,1.24015e-01,
3.18198e-01,-2.90028e-03,5.03025e-01,-6.42405e-01,5.44504e-01,-1.00754e-02,
-2.52542e-01,-2.17399e-01,1.50682e-02,-8.98208e-01,2.74745e-01,-1.92205e-01,
1.78898e-01,1.10997e-01,1.37528e-01,5.15642e-01,3.50023e-01,-6.91720e-02,
3.18648e-01,1.42694e-01,7.33503e-01,8.89848e-01,1.79236e-02,2.60815e-01,
-1.41977e-01,-2.96493e-01,8.26894e-02,-1.15683e-01,1.31486e-01,-1.73185e-01,
-1.10637e-02,1.97777e-02,-2.54121e-01,-6.34387e-01,-2.67580e-02,-2.48720e-02,
-5.46097e-02,-2.44877e-02,-1.87540e-01,1.56714e+00,6.04520e-03,4.72065e-02,
8.87168e-02,9.50321e-02,1.98892e-01,-1.77083e-01,5.93435e-02,-1.27447e-02,
-3.81466e-01,-2.90665e-01,5.87551e-01,7.02631e-01,8.58996e-02,-1.00788e-02,
-3.61555e-01,-1.17401e-01,8.95653e-02,-8.49514e-01,1.74295e-01,-2.65998e-01,
1.29475e-01,-2.06917e-01,6.02135e-02,5.05546e-01,9.01871e-02,-5.10876e-01,
1.51808e-01,1.28289e-01,3.88058e-03,5.21078e-01,-1.73409e-01,1.10053e-01,
2.07913e-01,-1.43970e-01,-2.31006e-01,-1.24145e-01,-1.58607e-01,7.66339e-02,
2.89182e-01,-2.23598e-02,7.56467e-01,-3.91641e-01,-2.30053e-01,6.44994e-03,
-3.91310e-02,-2.69186e-01,7.38880e-01,-3.33508e-01,7.32967e-02,-9.61622e-02,
-2.20232e-01,2.19988e-01,-2.54591e-02,-3.26605e-01,3.88516e-01,-4.01236e-01,
-1.99426e-01,-1.63877e-01,4.01479e-01,-1.00377e-01,3.28738e-01,-4.33239e-01,
4.28694e-02,1.98689e-01,-3.98104e-01,-2.96256e-01,-4.29289e-02,2.51118e-01,
-3.01330e-01,-2.58696e-01,5.36480e-01,-6.50699e-02,2.15282e-01,-4.74730e-02,
1.62839e-01,-6.98511e-02,-1.74593e-01,-6.36560e-01,-1.72387e-02,-2.07614e-02,
-2.80441e-01,-8.61522e-02,4.84790e-02,-1.42830e-01,1.75974e-01,-3.25388e-01,
2.58369e-02,-2.89357e-01,8.72474e-02,1.81367e-01,3.77293e-01,-1.13776e-02,
-6.00872e-03,3.40184e-01,-8.69479e-02,-2.12714e-01,-4.14306e-01,1.00423e-02,
3.00477e-01,-1.94828e-02,2.69050e-01,1.91187e-01,-5.90862e-02,2.01888e-01,
-1.34842e-01,1.35576e-01,-5.94825e-01,-3.36838e-01,2.30766e-01,-2.82433e-01,
2.57003e-01,-1.74225e-01,-3.29719e-01,-7.74988e-02,3.44013e-01,-3.64455e-01,
2.66739e-01,1.23362e-01,-4.01321e-01,1.12615e-01,6.20372e-02,3.75495e-03,
-5.14014e-02,-2.23255e-01,4.24198e-01,3.24212e-01,4.44927e-02,-2.76319e-01,
-1.06602e-01,2.44698e-01,-2.47102e-01,-3.72748e-02,-5.65371e-01,-3.39011e-01,
-1.55639e-02,-2.03645e-02,3.92768e-01,-1.12685e+00,3.69268e-02,-6.11382e-02,
-2.86373e-01,1.92640e-01,3.61587e-01,8.91623e-02,-3.85943e-01,4.07733e-01,
1.21921e-01,1.41209e-02,-5.47147e-01,8.60630e-01,-2.71091e-02,-2.72341e-01,
-2.51582e-01,1.46282e-01,3.43129e-01,4.33211e-01,6.85971e-02,-6.09263e-02,
2.18321e-01,-1.53141e-02,1.03712e-01,-7.03299e-02,3.11929e-01,-1.44981e-01,
2.95037e-02,-1.17006e-02,6.22363e-01,-9.46125e-01,2.72851e-02,-3.02497e-02,
-8.76605e-02,3.67622e-03,-8.03622e-02,-1.19380e+00,-6.28046e-02,-3.92312e-02,
2.16260e-01,-1.39009e-01,-4.05459e-01,1.71479e-01,4.80418e-01,3.70301e-01,
2.51982e-01,-4.98832e-02,2.98268e-01,-1.81106e-01,-5.51234e-01,-2.20247e-01,
2.03349e-01,1.86242e-01,-2.34422e-01,-6.27453e-02,-1.33737e-01,1.51330e-02,
-3.19369e-01,-3.23336e-01,-3.90955e-01,3.71855e-01,-5.07174e-01,2.15879e-01,
-2.06846e-02,1.10100e-01,4.96795e-01,6.34799e-01,8.84251e-02,1.57916e-01,
1.95668e-01,7.86930e-02,8.24719e-02,-8.15317e-01,-7.65010e-03,-7.57252e-02,
6.37737e-03,-2.22669e-01,6.41813e-02,1.24764e-01,2.64949e-01,-7.88589e-03,
-9.07286e-02,2.11256e-01,8.85046e-01,-3.56782e-01,5.57064e-02,1.25864e-01,
-2.14680e-01,1.37827e-01,3.98654e-01,-1.71853e-01,-4.73107e-01,-3.64504e-01,
-1.06268e-02,-2.78258e-03,2.25323e-01,-1.01267e+00,1.79209e-02,-5.23561e-02,
-8.99527e-02,-5.38222e-02,-7.28059e-01,6.71084e-01,-3.49073e-02,3.35774e-02,
1.34498e-02,-9.40235e-02,-4.49644e-01,-5.81505e-01,-7.11528e-02,-1.46136e-01,
-2.92524e-01,-2.02260e-01,3.27388e-01,-1.18602e-01,-1.57523e-01,-6.19577e-02,
1.17093e-01,-6.80103e-02,2.91795e-01,2.39665e-01,-2.40421e-01,-4.21845e-01,
-2.94628e-01,8.01409e-03,-4.50499e-01,6.00448e-01,-4.99387e-01,1.71878e-02,
-1.93252e-01,-8.94719e-02,-7.39499e-02,6.64496e-01,3.92900e-02,6.13160e-02,
-8.65421e-02,1.49441e-01,5.72766e-01,4.80232e-01,-3.48676e-02,-4.88498e-02,
-2.97713e-01,2.15084e-02,-7.70431e-01,4.16620e-01,2.35462e-01,-8.31698e-03,
-1.30569e-01,-2.64116e-01,2.04599e-01,-1.79958e-01,8.35207e-02,-1.22878e-02,
-1.63174e-01,1.05096e-01,-3.41796e-01,-3.25104e-01,3.37960e-01,5.65777e-01,
-1.45924e-01,-8.21029e-02,-5.37619e-01,4.37035e-01,-3.15257e-02,4.13668e-02,
-9.04533e-02,1.45974e-01,-4.25146e-02,-3.56655e-01,-6.52824e-02,3.55982e-01,
1.92534e-01,-1.98908e-01,-5.95259e-01,-4.51950e-01,-5.52343e-03,1.62792e-02,
-3.32642e-04,-5.47192e-02,-4.93146e-01,1.18243e+00,-1.28596e-02,4.58828e-02,
-1.78276e-01,-1.29506e-01,-1.79242e-01,-6.94983e-01,-1.09932e-01,-8.82438e-02,
1.19885e-01,-2.74340e-01,2.93184e-01,5.02602e-02,6.36323e-01,3.83454e-01,
-2.02978e-01,-1.59551e-01,-4.47407e-03,1.10077e+00,-9.58328e-02,1.49808e-01,
-2.05612e-01,-1.36059e-01,-1.59001e-01,-6.02757e-01,-4.00900e-01,8.37906e-02,
1.40228e-01,-1.17262e-01,3.63195e-01,1.83809e-01,1.32388e-01,2.30447e-02,
1.40395e-01,2.09924e-01,2.68516e-01,-2.27518e-01,4.81938e-01,-2.88195e-01,
-1.24464e-01,1.09914e-01,-4.11085e-01,-2.80499e-01,-1.48500e-01,-4.45787e-02,
-3.44426e-02,5.43866e-02,2.29050e-01,-6.71054e-01,-3.92850e-02,-1.97737e-02,
-3.36341e-02,-1.07926e-01,-9.22720e-01,7.79697e-01,-5.37381e-02,5.65582e-02,
2.96120e-02,
-6.48649e-01,
-3.74072e-01,
-6.87889e-01,
6.43604e-01,
2.96690e-01,
3.18049e-01,
4.94665e-01,
1.17632e+00,
5.27021e-01,
1.52742e+00,
1.13526e+00,
-1.41711e+00,
-4.26043e-01,
-8.22661e-01,
2.20304e-01,
1.22677e+00,
6.06979e-01,
9.48760e-01,
-2.36858e+00,
3.70344e-01,
-1.86989e+00,
1.54131e-01,
1.15065e+00,
6.66950e-01,
-4.80886e-01,
1.87712e-01,
4.94292e-01,
2.66467e-01,
4.69726e-01,
8.40608e-01,
4.59043e-01,
-5.09709e-01,
5.28940e-01,
-1.77185e-01,
3.89357e-02,
1.23237e+00,
6.73449e-01,
1.18973e+00,
3.40654e-01,
-1.52229e+00,
-6.12911e-01,
2.47817e-01,
5.80044e-01,
-2.78606e-01,
-1.37625e+00,
3.36480e-01,
4.56580e-01,
-5.94552e-01,
-8.27489e-01,
3.26195e-01,
9.57172e-02,
4.20213e-01,
-5.81798e-01,
1.51896e-01,
-7.90425e-01,
4.90262e-01,
1.02903e+00,
6.61364e-01,
4.76886e-01,
1.90004e-01,
-5.60814e-01,
-7.65214e-01,
-6.75791e-01,
-5.11900e-01,
2.28568e-01,
-1.60717e-01,
-2.92656e-01,
-3.60807e-01,
6.99922e-01,
-1.05212e+00,
-2.52151e-01,
7.68311e-01,
4.48554e-01,
3.36538e-01,
2.85534e-01,
-8.49516e-01,
1.65334e-01,
2.07035e-01,
1.05764e+00,
2.39150e-01,
-4.09293e-01,
-4.44025e-01,
1.34867e-01,
3.24809e-01,
2.10077e-01,
-3.24815e-01,
-1.23404e+00,
4.33898e-01,
5.68045e-01,
-8.91930e-02,
-7.97078e-01,
-5.24789e-01,
-1.22778e+00,
-6.29374e-01,
1.18210e-01,
-3.06738e-01,
-3.08988e-01,
5.95324e-01,
-1.78028e+00,
-3.42450e-02,2.18808e-02,-1.00801e-01,-1.37061e-02,-1.01482e-02,-7.42572e-02,5.86953e-02,2.55033e-02,1.63031e-01,-9.29471e-02,-8.44619e-05,-8.30883e-02,5.08718e-03,1.25252e-01,-7.47494e-02,-4.31939e-02,4.11520e-02,4.20507e-02,-7.73093e-02,1.38132e-02,1.11347e-01,-8.99539e-02,-8.01525e-02,1.01282e-01,4.53319e-02,6.96260e-02,6.15354e-02,5.19838e-02,2.15693e-02,1.06556e-01,-1.12204e-02,7.13170e-02,7.36797e-02,2.31344e-02,1.26383e-01,6.69047e-02,4.50490e-02,1.75165e-01,1.24401e-01,-3.93648e-02,9.77818e-02,8.00382e-02,5.71035e-02,-2.94026e-02,6.42427e-02,5.30481e-02,1.48570e-01,6.84520e-02,2.29813e-02,5.51573e-02,-8.96658e-03,2.60669e-02,-7.03216e-02,-9.58628e-02,6.71722e-02,6.57141e-02,9.59814e-02,-5.68918e-02,9.81822e-02,-9.30360e-02,3.12653e-02,-4.92486e-02,-9.90338e-02,-2.54384e-02,-2.81657e-04,7.30114e-02,3.02681e-02,-2.06649e-02,4.09685e-02,2.62854e-02,3.89206e-02,3.31799e-02,-1.21551e-02,7.18869e-02,-2.57282e-02,-6.88392e-02,2.41556e-01,-7.94432e-02,-9.71504e-02,-2.39578e-02,-3.77895e-02,1.28325e-01,-3.48602e-03,-4.91773e-02,1.30801e-01,3.03611e-03,1.46644e-01,5.10892e-02,-4.53971e-02,2.38298e-02,-1.69850e-01,4.98232e-02,7.13628e-02,7.27509e-02,-7.59049e-02,-5.29929e-02,1.44907e-01,-4.85011e-03,3.17131e-02,-2.06578e-02,
-3.84439e-02,-6.12259e-02,-4.64813e-02,1.63120e-02,1.32966e-01,1.03913e-01,-5.01920e-02,5.77518e-02,-1.51560e-01,2.24057e-02,-1.73007e-01,7.49471e-03,8.30873e-02,-3.66221e-02,-5.37217e-02,1.02242e-01,-4.54665e-02,1.70107e-03,-1.12622e-01,3.14863e-02,6.40129e-02,5.47992e-02,9.42821e-02,-6.37929e-03,-4.26680e-02,-5.87461e-02,1.67664e-02,1.23947e-01,-2.51938e-02,9.60092e-02,7.31838e-02,1.29265e-01,3.44894e-02,1.41998e-01,3.01355e-02,8.65387e-02,-9.75112e-03,-7.16170e-02,1.31880e-01,4.11403e-02,-7.67224e-02,4.82036e-02,-2.71474e-02,-5.99668e-02,-5.84612e-02,-3.36665e-02,-4.68075e-02,1.80694e-01,-9.82587e-02,6.06954e-02,4.59183e-02,1.05151e-01,-6.18958e-02,-4.94235e-02,-3.77877e-02,-6.40081e-03,-3.24417e-02,1.15466e-01,-3.15857e-02,4.30811e-02,-2.03449e-02,1.26171e-02,1.75830e-01,8.29914e-02,4.41053e-02,2.05772e-01,-1.00886e-02,-4.32448e-02,-5.99521e-02,1.17864e-01,2.35442e-02,3.13247e-02,1.50020e-01,1.14546e-01,-6.88484e-02,3.18022e-02,-2.09767e-01,4.54778e-02,-6.85905e-02,-9.22603e-03,3.21944e-02,2.29743e-02,7.20559e-02,4.95427e-02,6.42346e-03,6.19811e-02,-1.50445e-01,-3.36212e-02,6.87306e-02,5.82416e-02,5.34932e-02,-7.97142e-02,-1.62074e-02,1.10462e-01,4.41207e-02,1.13118e-02,1.67796e-01,-2.19012e-02,1.30972e-01,5.15650e-02,
-1.05765e-01,3.64838e-02,1.11251e-01,4.63644e-02,5.46612e-02,-6.82609e-02,1.11206e-02,-2.96262e-02,2.07802e-01,6.03781e-02,9.78190e-02,8.32072e-02,6.59247e-03,1.30714e-01,-8.31993e-02,1.06461e-01,-1.95207e-02,1.13964e-01,6.22913e-02,2.99612e-02,-4.77864e-02,-3.13776e-02,-9.54862e-02,1.53041e-01,-7.44093e-02,8.59369e-02,7.73831e-02,-3.92767e-02,2.91588e-02,1.28959e-01,7.76423e-02,8.65499e-03,-2.38509e-02,-3.47408e-02,-4.59103e-02,6.80256e-02,-8.16715e-04,1.48757e-01,8.04158e-02,-1.02661e-01,3.13124e-02,2.08293e-02,6.13656e-02,5.52334e-02,-4.29277e-03,3.19576e-03,1.35687e-02,4.58041e-02,3.21677e-02,-4.33722e-02,-3.89768e-02,4.13083e-02,-2.36583e-02,6.16022e-02,-3.59255e-02,-5.14926e-02,6.51237e-03,-2.73775e-02,-2.00824e-02,7.48135e-02,3.94622e-02,8.83722e-02,-1.05274e-01,3.57263e-02,-1.38696e-03,-6.47953e-02,1.89718e-01,-8.41529e-02,6.59627e-02,-1.84704e-03,4.35999e-02,1.11661e-01,-1.75076e-02,4.72973e-02,-4.12004e-02,-6.91619e-02,2.23273e-01,-8.49183e-02,-7.22650e-02,7.59420e-02,1.14889e-01,1.25059e-01,-5.20575e-02,-4.15187e-02,6.99172e-02,8.86790e-02,6.79401e-03,-5.54209e-02,1.21296e-01,-6.20600e-02,-1.09195e-01,5.01410e-02,-2.78679e-02,-1.22854e-01,1.41888e-01,-9.72392e-02,-4.67380e-02,-7.90186e-02,2.59244e-02,-2.55499e-02,
3.15839e-02,9.48097e-03,7.73676e-02,8.58956e-02,3.87675e-02,-6.18131e-02,8.74981e-03,-9.87868e-02,-9.46260e-03,-4.29293e-02,-3.45622e-02,-1.34827e-02,-1.45331e-03,-2.31446e-02,-4.43983e-02,-3.14896e-02,-1.45085e-02,1.21907e-01,1.17041e-01,-7.28048e-02,-2.95708e-02,5.11779e-02,-3.36932e-02,-1.12275e-02,-1.52487e-01,-1.59763e-02,-1.02870e-02,4.27351e-02,-4.57501e-02,6.15630e-03,2.83311e-02,-7.89277e-02,8.16316e-03,2.96438e-03,5.93814e-02,3.61454e-02,-1.02934e-02,6.71408e-02,1.00752e-01,1.21787e-02,-5.20885e-02,-1.39489e-02,-2.06881e-02,7.80717e-02,6.52768e-02,-7.63615e-02,-7.74150e-02,5.86278e-02,2.24389e-02,9.88220e-02,-2.42080e-02,-2.17815e-02,4.73500e-02,3.79379e-02,-5.72881e-02,-7.48350e-02,-1.03275e-01,5.62403e-02,1.83158e-02,-3.14045e-02,-9.81782e-02,-2.23532e-02,-6.04651e-02,-5.46874e-02,6.14973e-02,7.20557e-02,2.14050e-01,-6.17475e-02,-5.44090e-02,1.22552e-01,-7.95172e-03,6.62434e-02,-1.80087e-01,7.18107e-02,-3.92302e-02,8.44226e-02,1.82691e-01,1.65385e-02,8.01131e-02,2.71168e-02,3.73488e-02,8.68393e-02,-1.08956e-02,1.38221e-01,-7.62360e-03,-3.93201e-02,4.50151e-02,-5.85098e-02,2.40927e-02,-1.23575e-01,-6.22793e-02,8.57369e-03,7.09113e-02,1.71821e-02,8.69956e-02,1.63021e-02,7.03892e-02,-2.26054e-02,-1.68798e-01,-1.33654e-02,
2.29400e-03,3.39148e-01,-1.12241e-02,1.07873e-01,-1.50888e-01,-5.94667e-02,-6.85026e-02,-1.65451e-01,-1.75070e-01,-7.92584e-02,-8.18044e-01,-7.20998e-02,3.52123e-01,-6.39855e-02,1.32196e-01,6.93358e-03,-2.54406e-01,-8.27190e-02,-1.07525e-01,1.29638e-01,-2.70879e-02,-1.81737e-01,5.08661e-02,-9.37786e-02,-3.15681e-02,1.38383e-01,-5.30835e-02,-1.99439e-01,1.06323e-01,-1.31749e-01,-2.74499e-01,9.62115e-02,2.06988e-01,-3.84390e-02,-7.68692e-02,1.14292e-01,-2.11352e-01,-1.59978e-01,5.14189e-02,-4.34910e-02,6.53195e-02,2.45680e-02,-4.48569e-01,2.77558e-02,9.51147e-02,1.73140e-01,-7.29418e-02,-8.17414e-02,3.44881e-02,4.96647e-02,-3.95595e-01,-7.00750e-02,-3.02213e-02,1.17771e-01,2.11408e-01,1.80263e-01,-1.25383e-01,3.23268e-02,-1.69428e-01,-7.94519e-02,3.29956e-01,9.05997e-02,-6.06212e-02,-2.65540e-03,1.20914e-01,8.93403e-02,-3.14206e-02,4.16913e-03,-8.13769e-03,-6.77853e-02,1.14210e-01,1.96382e-01,-9.39059e-02,-5.95144e-02,3.44147e-02,1.99378e-02,3.01409e-01,2.01898e-01,-2.08008e-02,-7.54538e-02,7.47660e-02,-1.13589e-01,-1.33675e-01,2.13445e-01,-1.76458e-01,-2.51163e-02,5.29933e-02,4.15056e-01,-9.80263e-02,-1.48912e-01,-5.39175e-02,8.46257e-02,3.59242e-02,-2.24339e-02,9.85433e-02,6.92321e-02,1.37488e-01,-4.93587e-02,4.33162e-03,-1.24702e+00,
-6.59305e-02,-1.18348e-01,-3.92779e-02,6.45070e-02,1.79651e-01,-4.98746e-02,-5.23813e-02,-3.77589e-02,1.53183e-01,5.46084e-02,2.19997e-01,1.48361e-01,2.61119e-02,7.69162e-02,-2.18615e-01,2.87901e-02,-1.53032e-02,-4.88252e-02,6.11789e-02,-1.18532e-01,7.84752e-02,9.83401e-02,-2.76151e-02,1.35963e-02,-8.20039e-02,3.27319e-02,4.83204e-02,-5.12350e-02,-1.20709e-02,1.14175e-01,1.25636e-01,-1.23169e-01,-1.27262e-01,1.81277e-03,7.55960e-03,2.35145e-02,5.92899e-02,-2.15226e-03,6.02515e-02,5.75216e-02,-3.27210e-02,-1.22067e-02,-2.07633e-02,-5.14052e-02,-3.43479e-03,-1.87517e-01,1.20595e-01,-1.38872e-02,9.26639e-02,4.46207e-02,-1.20087e-01,6.70176e-02,7.34913e-02,-6.74147e-02,6.45102e-02,1.06620e-01,-4.59822e-02,3.01626e-02,2.94926e-02,-1.03904e-01,1.04537e-01,6.77401e-02,2.22361e-01,9.95245e-02,-4.00891e-02,-1.34393e-01,-1.54038e-02,8.21630e-04,9.93939e-03,-1.04532e-01,-5.37714e-02,2.49432e-02,2.83682e-02,3.39187e-02,5.26729e-02,-1.81769e-02,1.09063e-01,8.38896e-02,-1.14794e-01,1.12405e-01,3.12283e-02,7.88636e-02,2.68792e-02,8.39229e-03,5.40952e-02,1.00422e-02,-3.24718e-02,-1.52734e-02,-7.67232e-02,-1.65549e-01,4.15806e-01,-5.24050e-02,7.13737e-02,7.17128e-02,-4.21971e-02,1.21077e-02,1.10480e-01,8.21338e-02,5.37254e-02,-2.00471e-02,
1.38826e-01,-5.85231e-02,-3.35178e-02,6.91641e-02,3.79748e-02,-3.53380e-02,3.94439e-02,-8.68740e-04,1.10853e-02,-2.13904e-03,1.37098e-01,-4.78043e-02,-8.04246e-02,-4.18426e-02,-1.78255e-01,-1.57013e-01,-7.90032e-03,-5.46108e-02,4.25158e-02,-1.23724e-02,-9.31528e-02,1.88904e-01,1.29171e-02,-1.28644e-01,3.84150e-02,-3.38075e-02,-9.85637e-02,3.20148e-02,1.34684e-01,5.62099e-04,4.47276e-02,-8.87325e-02,-1.03329e-01,2.81428e-02,1.01076e-01,6.44639e-02,-4.24803e-02,2.18934e-02,-8.04429e-02,1.25827e-01,6.64973e-02,-1.48150e-02,-1.42813e-02,-7.52336e-02,-1.17228e-01,4.24717e-02,4.04209e-02,5.40730e-02,4.58170e-04,8.77344e-02,3.71292e-03,4.63629e-02,-6.53195e-02,8.89344e-02,4.85482e-02,-2.75827e-02,-1.44801e-02,-1.96637e-01,2.76514e-03,-8.79989e-02,9.65322e-02,-2.89596e-03,-1.88870e-01,9.88922e-02,2.65469e-01,-1.62002e-01,1.19544e-01,-5.29183e-02,3.77592e-02,1.49751e-01,-8.78218e-03,7.49911e-02,-7.42071e-02,9.06357e-02,8.03106e-03,-7.41285e-02,1.88724e-01,-1.33240e-01,-4.24724e-02,-5.71115e-05,2.38615e-02,2.62442e-02,5.95305e-02,9.49155e-03,-3.84730e-02,-3.53558e-02,7.14357e-02,1.36464e-02,-6.38874e-02,-1.32274e-01,1.16912e-01,-8.75732e-02,8.28380e-02,6.30803e-02,-6.42128e-02,1.79504e-01,-6.12404e-02,9.07601e-04,2.89206e-02,-9.87482e-02,
7.02414e-02,-6.38844e-02,-4.70655e-02,-3.73057e-02,1.98980e-02,6.29801e-02,-9.15839e-02,-2.18013e-02,3.08001e-02,3.73770e-02,-2.83912e-02,-6.24476e-02,2.82695e-02,2.97031e-02,-5.01705e-03,-8.56784e-02,2.50824e-02,-3.85714e-03,-3.67950e-02,6.44637e-02,-9.73099e-02,-2.30501e-02,-1.09371e-01,-6.41269e-02,-1.15954e-01,1.82125e-02,6.07188e-02,-1.00342e-01,1.68856e-02,6.33132e-02,-6.67287e-02,-1.05883e-01,-1.14537e-02,-4.95583e-02,6.87617e-02,1.12527e-02,-2.31338e-02,6.86046e-03,-8.27716e-02,-4.82730e-02,-9.04149e-02,-7.58703e-02,-6.74245e-02,6.83722e-03,3.53381e-02,-6.88666e-02,-6.30974e-03,-1.11741e-02,5.20009e-02,6.11777e-02,-9.88058e-02,2.31335e-02,6.71130e-02,4.37824e-02,3.34796e-02,-2.96426e-02,-6.14967e-02,-9.27567e-02,-8.94978e-02,-1.22208e-02,3.36908e-02,5.82318e-02,4.12436e-02,5.11810e-02,3.81429e-02,-4.31323e-02,-6.65351e-03,-8.35795e-03,9.32857e-03,-2.23031e-02,7.89470e-02,-3.56036e-02,-4.55412e-03,-1.43956e-02,2.98750e-02,-6.71397e-02,1.94666e-02,-2.66892e-02,3.13347e-02,-1.00026e-01,-9.11807e-02,-2.63302e-02,-8.97754e-02,-6.87854e-02,-1.20829e-03,4.96070e-02,-3.50945e-02,1.05612e-03,3.87759e-02,9.53892e-02,8.04892e-02,-5.35828e-02,-1.00720e-01,7.20464e-02,7.87582e-03,7.91293e-02,7.49397e-02,-9.05172e-02,-4.85456e-02,-9.47668e-02,
3.58797e-02,4.10351e-02,-6.91514e-02,3.07838e-02,1.62454e-02,9.13376e-03,4.02966e-02,-3.89196e-02,-2.45338e-01,4.28053e-02,-1.15262e-01,1.03486e-01,5.02660e-02,-1.76647e-02,9.55164e-02,1.03137e-02,-1.40970e-01,-6.00214e-02,-4.46522e-02,-6.44017e-04,6.85034e-03,9.22526e-02,6.28096e-02,2.15511e-02,1.90220e-01,1.56311e-01,3.69764e-02,5.18612e-02,-1.32766e-01,-5.96621e-02,-9.84470e-02,5.83912e-02,1.09400e-01,1.18841e-01,-2.66723e-02,1.01652e-01,-1.49805e-01,-2.79749e-02,-5.75058e-02,-7.19642e-02,-1.41498e-01,-6.60922e-04,-1.41807e-01,-2.67537e-02,-1.06350e-01,-2.85495e-02,-8.44869e-02,-3.79873e-02,-3.27067e-02,-2.83066e-02,5.58096e-02,-3.91729e-02,-5.81323e-02,-3.89875e-02,6.36650e-02,2.56804e-01,1.13932e-01,-3.49307e-02,2.57567e-02,8.59579e-02,6.39152e-02,-2.43834e-01,1.29291e-01,-3.96826e-02,-3.46106e-02,1.96123e-01,-2.00928e-01,1.15025e-01,-3.35673e-02,6.13561e-02,1.08326e-01,1.26385e-01,6.86605e-02,-1.78796e-02,-1.43297e-01,-1.96333e-01,-3.39000e-01,-6.30634e-02,-5.74973e-02,2.29935e-02,-2.50427e-03,-6.26784e-02,-6.75750e-02,2.19959e-01,3.99853e-02,9.38713e-03,3.17904e-02,9.72918e-02,-2.10784e-02,-3.60579e-02,2.35200e-02,-1.99806e-03,-4.89995e-02,1.47206e-01,1.56572e-01,1.13614e-01,-4.70277e-02,4.80539e-03,2.74136e-01,-7.42768e-02,
-2.58896e-02,-1.07225e-01,-1.00429e-01,-2.64250e-02,-3.03370e-02,8.96408e-03,1.31729e-02,-2.61612e-01,-1.67973e-01,1.10139e-01,-1.72489e-01,1.06750e-02,-2.28504e-01,-1.17739e-01,4.05515e-02,3.58743e-02,-1.64755e-02,-6.36758e-02,-4.99697e-02,3.46190e-02,8.87740e-02,2.88134e-02,1.37017e-01,1.87422e-02,6.25959e-02,5.89662e-02,1.16182e-01,-4.26407e-03,-1.53727e-01,-3.25675e-02,7.79441e-02,-2.30101e-01,2.92493e-02,2.27645e-02,4.29805e-02,4.27399e-02,-1.27453e-01,-7.55021e-02,-1.45578e-01,-2.44987e-02,-1.13081e-01,6.21123e-02,-6.58202e-02,-1.37202e-02,-2.55091e-01,-4.65684e-02,1.02670e-01,-1.76733e-02,6.85349e-02,-3.43687e-02,4.05712e-02,-4.23905e-02,1.86013e-03,7.55329e-02,4.28653e-02,2.05654e-01,-2.82258e-02,8.14548e-02,3.04682e-02,1.05470e-01,-3.53524e-01,6.08387e-02,1.74025e-01,-4.48243e-02,5.32947e-02,-1.15833e-02,-1.63581e-01,6.71019e-02,-6.98853e-02,-1.05796e-01,1.30767e-01,-1.76457e-02,-1.76140e-02,-4.82197e-02,-2.66721e-02,1.63254e-02,-9.09538e-01,1.62053e-01,-4.56774e-02,-3.01971e-02,-5.91322e-03,1.88738e-03,1.58612e-02,1.50494e-02,-4.83116e-02,1.02639e-02,2.58908e-02,2.26524e-01,3.69906e-02,5.06872e-02,1.07621e-01,7.14593e-02,-5.78726e-03,6.53362e-02,-1.30035e-02,-3.46453e-02,-6.47155e-02,1.26440e-01,1.66277e-01,8.34195e-02,
-2.29065e-02,-4.23968e-02,4.20009e-02,5.48104e-02,-3.34603e-02,8.84325e-02,-5.41193e-02,-1.02569e-01,7.38285e-02,4.33827e-02,-5.10494e-01,3.94916e-02,1.22943e-02,4.12190e-02,-6.24307e-02,8.33914e-02,1.87583e-01,-4.19881e-02,3.92587e-02,-9.61384e-02,1.18232e-01,-1.05473e-01,3.58399e-02,-1.90533e-01,1.50625e-01,5.50474e-02,-7.32624e-02,1.28560e-01,5.55584e-02,2.19749e-02,-1.97963e-02,1.56670e-02,4.77191e-02,-9.96368e-02,-1.58713e-03,2.06016e-02,-6.23353e-02,-6.97553e-02,-2.82293e-02,6.80164e-02,4.59234e-02,3.96349e-02,-2.49282e-01,-2.04103e-02,-5.11713e-02,8.40860e-02,6.77614e-02,7.92164e-02,-1.75251e-01,-6.24221e-02,1.15381e-01,7.89239e-02,-1.48668e-02,-3.49932e-02,3.03084e-02,-1.00365e-01,-4.58452e-02,-8.45612e-02,1.08187e-01,3.90502e-03,-8.62798e-02,4.00211e-02,-1.18001e-02,3.31827e-02,-5.74839e-02,3.96528e-02,-1.16108e-01,1.06009e-01,1.22888e-02,-3.29314e-02,1.12828e-01,-7.47399e-02,2.74799e-02,-6.49526e-02,-1.25828e-02,-6.57020e-02,-3.45914e-01,-8.36437e-02,8.01988e-02,1.57198e-02,-4.00160e-02,1.88351e-02,-2.16902e-03,7.73022e-02,-1.95496e-02,-3.23952e-02,-3.51915e-02,-5.82544e-02,6.58550e-02,9.01772e-02,1.22589e-01,6.57240e-02,-7.37574e-02,3.22658e-02,-6.34606e-02,-6.20404e-02,2.11637e-01,1.07676e-01,-8.44528e-03,-4.70478e-02,
1.15011e-02,-1.46751e-02,4.70779e-02,6.74896e-02,1.26134e-01,1.21554e-02,3.91597e-02,4.72108e-02,-1.19766e-02,3.31646e-02,-5.73971e-02,1.14533e-02,6.60923e-02,-4.60057e-02,-2.24620e-02,-3.20938e-02,9.56347e-02,3.89809e-02,-2.53860e-02,-2.65517e-02,-3.79679e-02,9.90570e-03,-8.33305e-02,-3.15384e-02,-1.98462e-02,1.33604e-01,4.50853e-02,-4.85771e-02,-2.83714e-02,-6.33297e-04,-3.13548e-02,2.54341e-02,-2.31381e-02,-2.18983e-02,4.88275e-02,5.05469e-02,3.71956e-02,2.09574e-02,9.91625e-02,-3.76468e-02,4.91246e-02,4.56249e-02,6.62806e-02,3.79386e-02,1.21045e-01,7.69156e-02,-7.42072e-03,-8.80160e-02,4.85914e-02,-1.95140e-02,-4.94501e-02,7.34612e-02,7.52284e-02,3.78519e-02,-2.98376e-02,7.25092e-02,2.73625e-02,2.13396e-02,2.89588e-02,1.49717e-01,-1.23501e-01,1.28654e-01,1.14001e-02,2.34372e-02,-9.20611e-02,8.89654e-02,3.54734e-02,-9.53643e-04,5.23265e-02,6.86716e-03,-3.94080e-02,-9.38509e-02,-4.54333e-02,-7.42528e-02,-1.97789e-02,3.21436e-02,6.24689e-03,5.00214e-02,-5.50646e-02,7.25368e-02,3.22780e-03,5.01772e-02,1.44742e-02,-5.03819e-02,-8.04858e-02,-4.47701e-02,1.07636e-01,-7.42944e-02,7.69852e-02,-1.06587e-01,4.78862e-02,-2.17544e-02,-5.02184e-02,6.39332e-02,2.46709e-02,6.06913e-02,1.36140e-03,7.43927e-02,-9.30638e-02,-3.55802e-02,
1.18496e-01,6.27158e-02,1.16683e-02,8.68335e-02,8.10878e-02,-3.93545e-03,6.59789e-03,1.29934e-03,-1.55832e-01,-5.20054e-02,-3.77223e-01,4.98921e-02,1.13206e-02,-1.26759e-03,3.47377e-02,6.29312e-02,-4.68850e-02,4.42380e-02,-2.79325e-03,4.76439e-02,-1.38599e-02,7.43356e-02,3.06365e-02,-8.92269e-02,1.35128e-01,1.01348e-01,1.44386e-02,2.64229e-02,-2.80173e-02,-8.28909e-03,-6.42809e-02,3.30781e-02,1.25174e-02,6.23665e-02,-2.51815e-02,8.70403e-02,-6.93176e-02,-8.71008e-02,2.98219e-04,9.77767e-02,-1.78577e-02,4.16040e-02,1.03195e-01,5.01464e-02,5.35801e-02,5.62146e-02,-2.19151e-02,-3.80208e-02,-5.11814e-02,-8.50423e-02,-2.83846e-02,3.11071e-02,8.02702e-02,9.47969e-02,-9.91732e-03,3.87278e-02,5.73797e-02,2.67409e-02,-3.30185e-03,-4.08735e-02,-1.08754e-01,-2.20595e-02,1.69445e-01,-6.60703e-03,1.35977e-02,7.88627e-02,-3.87970e-02,-2.93871e-02,5.62485e-02,8.14046e-02,5.46442e-03,1.41476e-01,9.98847e-02,-2.24820e-02,3.19917e-02,7.76922e-02,-2.69366e-01,-9.54637e-03,-1.07930e-01,-2.45517e-03,-9.71105e-03,4.43218e-02,1.04456e-01,-5.24569e-02,-3.02945e-02,7.74397e-02,-1.07869e-02,3.00539e-02,-7.45925e-02,1.45732e-02,3.48788e-02,-1.24882e-02,-3.78796e-02,1.12253e-01,8.67962e-02,6.50018e-02,-6.07143e-02,2.42632e-02,1.52154e-01,-4.15911e-03,
5.32434e-02,8.22986e-03,2.06991e-02,4.88809e-02,2.54862e-01,-2.38964e-02,-8.91535e-02,-1.64480e-01,1.53550e-01,2.74123e-02,-4.75899e-01,1.38556e-02,-5.94148e-02,4.76705e-02,-5.08453e-02,2.70782e-02,8.23397e-02,-5.68320e-02,-1.62371e-03,4.08030e-02,3.85732e-02,1.00244e-01,-5.91268e-02,-8.40264e-02,9.83832e-02,2.97224e-02,7.76902e-03,-1.48644e-01,-2.06744e-02,2.06502e-02,9.22021e-02,-2.44624e-02,2.94942e-02,-7.31869e-02,-3.19372e-02,-4.68705e-02,1.09739e-01,-6.32866e-02,-1.00689e-01,1.04966e-01,-5.38057e-03,-1.07032e-01,1.40150e-01,-7.85882e-02,-3.85931e-02,4.39473e-02,-3.66694e-02,3.34927e-02,8.68739e-02,8.58439e-03,1.97413e-02,-1.65945e-02,4.16832e-02,-1.18836e-01,9.51635e-02,-5.55637e-02,7.69642e-02,-6.59317e-02,5.19472e-02,-8.64643e-03,-2.50299e-02,-1.08053e-02,3.43294e-02,-1.85917e-02,-3.52628e-02,-4.10165e-02,-1.18698e-01,-4.14470e-02,-5.30387e-02,1.85444e-01,-9.49218e-02,-2.65829e-01,-9.99984e-02,7.35297e-02,-1.91702e-03,2.58838e-02,-8.54553e-02,-1.19172e-02,-7.53028e-02,7.25800e-02,7.69460e-02,2.58807e-02,-7.01015e-02,1.38824e-01,8.77795e-02,4.30234e-03,-3.22944e-02,-2.25297e-03,-2.94646e-02,2.67288e-02,-1.62395e-02,4.27487e-02,2.01742e-02,-1.31074e-02,-2.91183e-02,6.96049e-02,6.23534e-02,9.56344e-02,6.17064e-04,-1.32918e-02,
-2.30061e-03,5.19047e-02,-8.74122e-02,1.96553e-02,2.08533e-01,-5.71919e-02,-2.28942e-02,-8.22537e-02,9.59904e-03,8.20045e-02,-8.46820e-02,1.03029e-01,3.44162e-02,4.38941e-02,-4.49572e-02,1.29005e-01,1.06310e-01,1.83455e-02,6.67077e-02,-7.19495e-02,1.04726e-02,8.31062e-02,5.73348e-02,-8.24212e-02,-4.06187e-02,-5.84512e-02,2.31619e-02,1.00153e-01,-9.07514e-04,4.16001e-02,2.32072e-02,9.40889e-02,1.10705e-01,2.63386e-02,-1.26977e-02,-3.70037e-02,-8.09931e-02,-1.71436e-02,1.11380e-01,4.64422e-02,-5.54082e-02,1.55219e-02,-6.75535e-02,-2.65081e-03,-9.64434e-02,4.24028e-03,4.37082e-02,7.79821e-02,3.60758e-02,-5.64163e-02,-1.62307e-02,1.06963e-01,9.90258e-02,-1.21137e-02,3.39525e-02,1.53611e-01,4.98786e-02,-2.72139e-02,-2.30706e-02,4.29220e-02,-1.12781e-01,-8.05727e-03,2.56127e-02,-4.99204e-02,-6.32597e-02,6.65955e-02,9.84548e-03,-2.14864e-02,-8.33966e-02,-8.04214e-02,-7.79420e-03,7.47055e-03,9.94579e-02,1.25118e-01,-4.36859e-02,6.81157e-02,-1.44027e-01,3.45429e-02,8.88957e-02,6.86587e-03,5.39851e-02,-5.00580e-02,6.23984e-03,8.35961e-02,7.12252e-02,-3.49733e-03,5.17161e-02,-9.90843e-03,-7.77308e-02,-9.60882e-02,6.56068e-02,-8.66590e-02,-1.37988e-02,-6.53448e-02,-6.62782e-02,-3.25076e-02,1.45670e-01,4.31096e-02,2.35599e-02,7.05118e-02,
-4.61854e-02,4.34488e-02,1.02610e-01,-9.57104e-02,1.22113e-01,-1.38792e-02,-5.11134e-02,-2.25353e-02,-1.03471e+00,4.89827e-02,2.69240e-01,1.04961e-01,-4.26054e-02,1.40947e-01,-6.83821e-02,-7.02686e-02,1.06958e-01,-5.07809e-03,9.92785e-02,2.97814e-02,-1.43249e-02,8.28080e-02,-1.97948e-01,1.95039e-01,3.76935e-02,2.47555e-02,1.64431e-02,7.76632e-02,-8.95820e-02,1.45416e-01,3.94793e-02,3.05657e-02,-8.19093e-02,7.19478e-04,2.58827e-02,-1.99647e-02,-5.93350e-01,1.81905e-01,2.87246e-01,1.81740e-02,-5.22036e-02,-6.85872e-02,6.27230e-02,-8.38420e-02,7.45013e-02,7.60678e-02,3.76802e-02,1.03369e-01,-7.96916e-02,-1.83521e-02,-1.62433e-01,1.35453e-01,-3.98366e-03,-5.17794e-02,1.16478e-02,-1.49852e-01,-4.65984e-02,-9.19771e-02,1.31719e-01,5.23098e-02,-2.49347e-01,-1.04080e-02,1.04363e-01,1.06577e-01,9.32998e-02,-4.04740e-01,-2.91669e-02,1.81993e-03,-5.69069e-02,1.81917e-01,3.33153e-02,8.46708e-02,-6.24852e-02,2.40326e-02,5.44127e-02,4.89194e-02,-7.02434e-01,7.19877e-02,-3.85737e-02,5.17060e-02,7.60709e-02,-8.07416e-02,-3.98418e-02,8.31390e-02,-3.22664e-02,2.70621e-02,1.80019e-02,2.99893e-02,4.61639e-02,-1.11039e-01,1.38278e-01,-1.22889e-01,-3.10802e-02,5.14161e-02,-6.38731e-02,1.19178e-01,2.87796e-02,-1.68236e-01,8.42642e-02,2.47966e-02,
-9.13750e-03,-1.46929e-02,-8.68306e-02,-2.47127e-02,2.36216e-02,-6.13812e-02,-1.07711e-01,-7.62384e-02,1.75092e-01,-8.19001e-02,2.47690e-01,6.67637e-02,1.35242e-01,3.34055e-02,7.10242e-02,-3.92741e-02,-1.00537e-02,-4.11133e-02,-1.32747e-02,6.30918e-02,-1.40715e-02,1.50080e-02,6.09382e-02,8.91525e-02,-1.70910e-01,-9.00874e-02,6.94454e-02,3.69440e-02,1.35588e-01,3.77777e-02,-8.53437e-02,6.04701e-02,1.37563e-02,1.01265e-01,6.41524e-02,-4.00246e-02,1.50504e-01,1.64760e-02,1.41022e-01,-1.00418e-01,6.69822e-02,-8.21449e-02,-2.24219e-02,8.93480e-02,8.91083e-02,6.41770e-04,1.78471e-02,9.51352e-02,3.00789e-02,-5.56792e-02,9.33088e-02,4.69280e-02,2.99758e-03,3.03659e-02,-3.43144e-02,9.79871e-02,3.92037e-03,7.16769e-03,-8.02874e-02,-5.87974e-03,3.17761e-01,6.48605e-02,4.17218e-03,1.43409e-01,-2.17062e-03,-2.36257e-02,7.43722e-02,-8.43639e-02,1.40664e-02,4.70821e-02,-3.83569e-03,-3.86793e-03,8.19039e-02,-5.97996e-02,2.84898e-02,1.29123e-02,4.53829e-01,3.60143e-02,9.53143e-02,7.79793e-02,-4.09290e-02,1.38072e-02,8.63353e-02,7.33995e-03,-2.45370e-02,7.61827e-02,-3.54129e-02,-6.34194e-02,-7.71156e-02,1.07729e-02,-4.66170e-02,1.14157e-01,-5.15243e-02,-2.49227e-02,7.73020e-02,2.90924e-02,8.94785e-02,-9.70462e-02,-4.27750e-02,-8.56754e-03,
-3.52834e-02,5.06568e-02,4.39752e-02,-2.31463e-03,-1.93570e-01,3.24863e-02,4.79747e-02,-5.94830e-03,2.72672e-01,-6.87389e-02,-7.26819e-02,-1.51611e-02,1.19155e-01,-2.09392e-02,8.30661e-02,6.65995e-02,4.78936e-02,7.79726e-02,2.13542e-02,-1.96579e-01,6.43000e-02,-4.79451e-02,3.57816e-02,6.41236e-02,-2.17034e-02,-7.28367e-02,-3.13998e-02,9.54706e-03,-2.76059e-02,-3.13733e-02,-6.89317e-03,7.26336e-02,-4.92536e-02,-1.40135e-02,-3.13441e-03,1.13946e-01,1.07836e-01,1.00362e-01,-6.58764e-02,8.75131e-02,1.17199e-01,-2.70144e-04,-5.93358e-02,1.07610e-01,4.50149e-02,-8.96667e-02,-9.63928e-03,4.20978e-02,-7.28947e-02,-1.27581e-02,8.24668e-02,3.22714e-02,-7.60166e-02,-7.60239e-02,1.76087e-02,-7.45741e-02,-8.17764e-02,1.86581e-01,-6.67546e-02,6.18952e-02,1.35969e-01,-7.40381e-02,-1.52031e-01,-1.17728e-02,-3.63250e-03,2.11641e-01,1.90806e-01,-1.33841e-01,1.27139e-01,3.38133e-02,5.32030e-03,-1.36289e-01,1.39975e-01,5.33986e-02,1.27726e-02,9.46250e-02,2.12906e-01,1.40885e-02,-2.80206e-03,-1.76587e-02,5.91824e-03,4.41740e-02,1.25114e-01,-6.30639e-02,1.81842e-02,1.34919e-01,-3.84623e-02,-5.48999e-02,7.96779e-02,2.85719e-02,-3.49854e-01,1.27859e-01,-5.69458e-02,-7.71694e-02,8.88950e-02,-1.16690e-01,-1.37252e-01,-5.37681e-03,4.94469e-03,-8.35752e-02,
8.56832e-02,8.12326e-02,-5.05483e-02,-6.20283e-02,-6.01533e-02,-9.26617e-02,1.71357e-02,5.86669e-02,-1.41112e-01,-4.37036e-02,2.99507e-01,9.19542e-03,-9.44149e-03,-6.22988e-02,5.44000e-02,-3.38028e-02,-1.27351e-01,4.47824e-02,-9.90117e-02,3.42172e-02,1.55075e-02,-5.05302e-02,1.37823e-01,4.22755e-02,-7.17195e-02,1.92255e-02,-5.88532e-02,-7.75118e-02,1.21331e-02,2.49588e-02,-2.73858e-02,-6.00433e-02,1.23116e-01,1.17107e-01,6.29707e-02,2.86678e-02,-6.49373e-02,-1.49490e-01,5.76811e-02,-1.30378e-02,-7.45144e-02,7.12927e-02,-6.54295e-02,8.51271e-03,1.17351e-01,1.24349e-02,9.23156e-02,9.06335e-02,8.90212e-02,4.20034e-02,8.34062e-02,-3.88957e-02,5.08169e-02,6.13820e-02,-8.44240e-03,1.26924e-01,2.77844e-02,-1.91153e-02,-8.33865e-02,2.08973e-02,1.73824e-01,9.54491e-02,4.28526e-03,9.13317e-02,7.66698e-02,-2.08424e-02,1.11852e-01,5.96156e-02,-5.78374e-02,1.04096e-01,6.53774e-02,9.42238e-02,-3.62399e-02,4.08885e-02,-6.63680e-03,-8.54791e-03,-5.17259e-02,-1.75278e-01,-4.40972e-02,-1.45928e-01,6.74452e-02,-6.73153e-02,9.54687e-02,3.72078e-02,-1.24453e-01,-2.54015e-02,-4.25378e-02,6.32436e-02,-2.06298e-02,9.51169e-02,-1.53340e-02,5.35689e-02,-9.77322e-02,3.02488e-02,-2.38628e-02,-4.88819e-02,1.66906e-01,-5.27151e-02,1.82769e-02,5.24250e-02,
1.75293e-02,7.24419e-02,1.29973e-01,7.49504e-02,3.91250e-02,-5.74026e-02,8.93732e-02,5.71391e-02,-7.51767e-02,3.93522e-02,4.48961e-02,4.11632e-02,-1.89752e-02,5.13576e-03,1.02720e-01,6.44253e-02,3.80521e-02,1.03562e-01,3.42170e-02,7.00325e-02,1.04928e-01,8.87177e-02,5.50354e-02,-7.33420e-02,2.56634e-02,1.59212e-01,8.03988e-02,2.17233e-02,1.14311e-02,-2.20660e-02,-2.46778e-02,-3.53678e-02,2.95273e-03,-1.34396e-01,5.63305e-02,2.18527e-02,6.39106e-02,8.03243e-02,5.10834e-03,-4.96179e-02,-9.59070e-02,-9.73536e-02,-1.13208e-02,-7.47442e-02,-6.13613e-02,9.59211e-03,-4.79914e-02,1.03411e-02,1.11698e-02,-9.87383e-03,1.11412e-01,-4.74519e-02,2.39125e-04,8.84248e-02,2.00254e-02,-2.17401e-02,-1.93937e-02,2.48155e-02,-5.52668e-02,4.01266e-02,5.76801e-02,-2.22554e-02,-8.21495e-02,5.13486e-02,2.16005e-02,9.60125e-02,-9.95929e-03,1.03279e-01,-6.89760e-02,8.92474e-02,-7.38512e-02,7.17847e-02,1.32117e-02,5.55946e-02,1.75485e-02,-6.48253e-02,-1.03868e-01,1.75582e-02,6.69902e-02,-1.17706e-02,4.19588e-02,1.49543e-02,7.63453e-02,-5.39714e-02,-1.37936e-03,6.07213e-02,1.18093e-01,4.66028e-02,1.21373e-01,-9.32347e-02,1.26792e-02,4.22113e-02,3.76453e-02,3.69047e-02,1.36836e-01,-1.59922e-02,-1.56384e-02,-5.66972e-02,1.24414e-01,-5.60155e-02,
-3.79313e-02,-5.76551e-02,2.23181e-02,4.54311e-02,5.13944e-02,-7.27646e-02,4.97403e-02,-1.28547e-01,-7.18814e-02,-9.59660e-02,-1.83062e-02,-5.65591e-02,-1.46002e-02,1.07299e-01,4.15958e-02,7.72328e-02,2.97124e-02,-6.47484e-02,-6.20058e-02,-6.64758e-02,8.05763e-02,7.97211e-02,2.02258e-02,1.25516e-01,1.27615e-01,3.40203e-02,8.29198e-03,7.02820e-02,4.20818e-03,-9.46246e-03,8.90296e-02,2.80422e-02,1.68010e-02,1.08694e-01,4.02339e-02,5.09204e-02,-6.01831e-02,1.45239e-01,3.23115e-02,-2.78207e-02,5.56172e-03,5.95707e-02,5.30220e-02,-5.29908e-02,1.25894e-01,1.57781e-02,4.52838e-02,5.72830e-02,-1.08186e-01,-6.88697e-02,-7.85066e-02,1.48048e-02,9.45710e-02,-9.41147e-02,1.22687e-01,-3.50044e-02,8.38321e-02,-7.70977e-02,9.48726e-02,-9.27888e-03,8.83211e-02,8.54956e-03,2.75948e-02,-9.77521e-02,6.42730e-03,1.20319e-01,2.15154e-01,9.55615e-02,-8.53046e-02,-2.61772e-02,-2.06887e-02,-8.38050e-02,-7.47695e-02,3.09158e-02,5.30385e-02,-1.28665e-02,3.63826e-01,-1.48672e-02,-1.17531e-01,6.97196e-03,2.56399e-02,-1.23006e-01,-5.85416e-02,1.24254e-01,-5.67395e-02,5.96173e-02,-2.76770e-02,2.81769e-03,2.53427e-02,-8.03092e-02,8.82961e-02,-7.07976e-02,1.03102e-01,-8.40315e-02,-1.45075e-01,6.21403e-02,5.80607e-02,-2.51064e-02,1.16473e-01,-9.04303e-02,
6.04215e-02,-1.17550e-02,-1.62633e-01,1.27818e-02,-1.81068e-01,7.65144e-03,1.77247e-02,-1.20781e-01,1.57354e-01,2.91011e-02,-1.78683e+00,8.93721e-02,-2.37977e-02,7.29250e-02,-3.53080e-02,9.12284e-02,1.40625e-01,9.27356e-02,-3.81519e-02,-5.52796e-01,7.67915e-02,-1.17248e+00,-4.71489e-02,-6.13382e-01,1.98932e-02,-8.28291e-02,7.70691e-02,-4.70966e-02,2.80282e-02,-9.30856e-02,-2.55183e-02,5.86464e-02,9.17824e-02,-3.05998e-02,3.47510e-02,-2.40763e-02,8.62600e-02,-1.04552e+00,-2.75940e-01,-1.03619e-01,5.15360e-02,-6.29213e-02,6.49938e-02,8.12761e-02,9.88230e-02,-9.75284e-03,8.52148e-02,-2.93495e-02,8.12001e-02,1.10561e-02,1.64496e-01,5.44114e-02,3.29209e-02,3.37832e-02,6.88992e-02,1.02083e-01,-1.36893e-02,1.44440e-01,-1.30399e-01,-2.76865e-02,-7.37559e-02,-9.16512e-02,3.87896e-03,-2.23024e-01,6.41715e-02,3.20341e-01,2.39135e-01,-6.02369e-02,-1.17439e-01,-3.96355e-02,-8.26058e-02,7.22754e-02,2.12331e-01,-1.68329e-02,5.35237e-02,7.42879e-03,-1.60500e-01,-2.31696e-02,1.47452e-01,-4.66905e-03,1.25611e-01,9.29661e-02,1.62895e-01,-5.66484e-02,9.20585e-02,-1.90825e-02,-3.55221e-02,-1.74212e-01,1.01838e-01,1.22311e-01,4.76621e-01,6.67958e-02,-2.26234e-02,-7.45071e-02,9.48933e-02,-2.02208e-01,-8.88331e-02,1.00458e-01,1.10085e-02,2.05361e-02,
1.30546e-01,-1.59410e-01,-2.56551e-02,6.05682e-02,1.75895e-01,1.29994e-02,5.81704e-02,1.06822e-01,5.07675e-01,8.30691e-02,-3.44013e-02,-8.41319e-02,4.79728e-02,8.97745e-02,-2.00468e-02,-5.35202e-03,-8.37490e-02,4.94129e-02,-9.44990e-02,-6.05588e-02,-5.66682e-03,-2.58467e-01,7.43404e-02,6.95454e-02,3.39666e-02,-6.77299e-02,9.46818e-02,2.90939e-02,-4.58563e-02,-2.61378e-02,-3.37706e-02,-7.89773e-02,-1.01071e-01,9.42904e-02,1.31224e-02,-7.83497e-02,2.00388e-01,4.98943e-02,7.30089e-02,-2.78002e-03,-8.53353e-02,7.32825e-03,-3.95072e-02,2.02625e-02,-3.91806e-02,-6.84318e-02,-7.06872e-02,2.09890e-02,-1.63448e-02,-6.43747e-02,3.45969e-02,1.74184e-02,3.48887e-02,6.07593e-02,-1.19276e-01,-2.11115e-01,-1.31932e-01,4.19269e-02,1.14344e-01,-4.57031e-02,9.75844e-03,-9.06816e-02,1.51756e-01,-4.94360e-02,-1.08482e-01,-5.42140e-04,1.77697e-01,-5.25546e-02,-1.05546e-01,4.63561e-02,2.70789e-03,1.45145e-01,-5.87433e-02,1.21045e-01,1.45964e-01,-8.93215e-02,-5.68671e-03,1.12328e-01,4.74314e-03,3.31511e-02,-4.74310e-02,-1.47368e-02,6.72992e-02,-4.69833e-02,-1.43514e-02,-1.64848e-02,-1.11679e-01,-5.87652e-02,-1.52052e-01,1.21622e-01,1.47423e-01,-5.59266e-02,-8.75018e-03,-1.03320e-02,-1.42437e-01,3.41365e-02,-2.12733e-02,-1.40416e-01,-9.28889e-02,1.75909e-02,
-2.25064e-02,-1.71939e-01,1.02346e-01,4.46856e-02,-1.99952e-02,-4.03049e-02,-2.32660e-02,-1.27393e-02,-3.51287e-01,-2.18583e-02,-3.60466e-01,-1.23802e-01,4.43166e-02,1.13427e-01,-1.70739e-01,-2.84550e-02,-3.35344e-01,-8.12981e-02,-1.65225e-01,2.58514e-01,-3.71072e-02,1.73144e-01,-1.96215e-01,-1.89351e-01,-7.06366e-01,1.61771e-01,-3.86142e-02,7.16563e-02,-1.90957e-01,2.75977e-02,-9.58189e-02,-6.33885e-02,-8.54698e-02,3.28162e-02,1.87482e-01,3.86719e-02,-5.27497e-01,4.99981e-02,-2.96754e-01,1.01540e-01,-5.22694e-02,2.06840e-02,9.68853e-02,-2.46722e-02,1.17961e-02,5.36436e-02,-1.69047e-01,-1.10149e-01,2.22095e-01,6.23573e-02,3.77954e-02,-6.77757e-02,8.55444e-02,1.44427e-02,2.23365e-02,2.68220e-01,-8.69355e-03,-7.58675e-02,-1.84010e-01,-5.71462e-02,-3.67089e-01,1.86223e-02,4.67769e-01,1.27823e-01,1.52909e-03,-2.14713e-01,-5.66600e-01,-2.47933e-02,2.67427e-02,-1.82457e-02,-3.08248e-02,-2.02616e-02,-2.74451e-01,-1.32106e-01,-1.05206e-04,-1.16941e-01,3.95326e-02,1.93062e-01,-2.04592e-01,-8.79302e-02,1.67767e-02,1.91892e-01,1.94801e-01,6.58135e-02,1.93316e-02,4.49630e-02,5.53492e-02,1.18173e-01,-1.64133e-01,-1.15809e-01,4.03929e-01,-9.46832e-02,8.65838e-02,9.96471e-02,3.38500e-02,-9.04913e-02,6.94669e-02,1.68669e-01,9.50883e-02,3.35551e-01,
1.03239e-01,4.34259e-02,3.43151e-02,2.52563e-02,1.38678e-01,-1.13253e-01,7.99667e-02,1.29430e-02,2.54019e-03,8.07131e-02,3.95882e-02,-9.19477e-02,-5.79126e-02,1.23747e-01,8.00715e-02,1.17582e-01,-1.91747e-02,6.34971e-02,6.62338e-02,-4.90211e-02,9.23117e-02,-8.01088e-04,-4.08254e-02,7.41708e-02,1.87867e-01,5.03920e-02,8.06128e-02,1.60851e-02,1.15574e-02,-3.12622e-02,-3.36380e-02,1.08346e-02,-4.59879e-03,3.92768e-02,-1.47012e-02,4.33210e-03,-1.75296e-02,-4.98008e-02,-1.43574e-02,1.01562e-01,-3.21348e-02,2.49615e-02,1.69475e-02,5.71850e-02,-3.60654e-02,7.51732e-02,-6.07574e-02,3.95195e-03,1.52675e-01,-5.34231e-02,9.96561e-02,6.98884e-02,4.14592e-02,6.99268e-02,-8.71174e-06,-4.18956e-02,-1.06076e-01,8.91403e-02,-5.43628e-02,-2.80226e-02,5.52696e-03,1.54231e-01,-6.78408e-02,-7.20602e-02,-1.01902e-01,-7.72342e-02,3.81611e-02,1.64213e-01,-6.14864e-02,9.47062e-02,-5.11704e-02,1.20505e-01,9.30805e-02,1.14844e-02,-5.62130e-02,-7.55083e-02,-1.10947e-01,3.39528e-02,-2.78517e-02,1.69873e-02,-3.23941e-02,1.84579e-02,-2.18792e-02,9.47435e-02,-3.25140e-03,3.05539e-02,6.12884e-02,8.60128e-02,1.03607e-01,-7.35114e-02,7.24814e-02,-6.06999e-02,3.67460e-02,6.92363e-02,9.53394e-02,5.83214e-02,-3.54550e-02,1.70412e-02,3.71434e-02,9.00211e-03,
-1.23030e-01,3.49511e-03,8.71203e-03,8.37975e-02,-5.34972e-02,3.81133e-02,1.62570e-01,1.53976e-01,-4.45424e-02,-3.57281e-02,-1.03044e-01,2.84095e-02,-7.77573e-02,4.56017e-02,-6.79130e-02,6.49715e-02,-1.48373e-02,7.53685e-02,5.47168e-04,-8.43395e-02,6.73008e-02,7.05394e-02,1.88470e-02,-8.26546e-02,1.91385e-01,8.82677e-02,1.59368e-02,6.67887e-02,-9.46987e-03,7.81222e-02,4.89475e-02,-6.61356e-02,-3.13716e-02,-1.22443e-01,8.35210e-02,-2.16791e-02,-7.52338e-03,-5.12720e-02,3.62175e-03,4.53568e-02,5.70189e-02,7.45239e-02,-2.22629e-02,6.19987e-02,2.61094e-03,-7.98046e-02,-6.84792e-02,4.50026e-04,2.24027e-02,-6.11302e-02,1.89030e-02,4.27641e-02,5.75380e-02,-2.27415e-02,1.26088e-02,1.87460e-02,5.81584e-02,6.17580e-02,5.95521e-02,1.65396e-01,-2.14175e-02,6.02804e-02,8.97798e-02,9.27787e-04,6.17586e-02,5.27705e-02,4.90838e-02,-1.15165e-01,8.51212e-02,3.46236e-02,6.49070e-02,5.90015e-03,8.77960e-02,-3.57839e-02,-3.02560e-02,8.55820e-02,-2.92471e-01,3.22777e-02,5.44162e-03,8.57268e-02,8.54436e-02,9.19308e-02,-6.42068e-02,1.36382e-01,5.74382e-02,-6.52015e-02,-7.43507e-02,-6.60774e-03,6.68785e-02,9.67180e-03,9.51721e-02,4.58987e-02,-1.14836e-01,1.13258e-01,-3.52216e-02,-7.83687e-03,-6.91879e-02,-1.33741e-02,1.48012e-01,-5.52106e-02,
-7.77394e-02,3.94387e-02,5.19827e-02,-2.55910e-02,8.74077e-02,1.17462e-01,1.72253e-02,4.40813e-02,-4.89053e-02,-8.26761e-02,-1.93814e-02,-1.88498e-03,4.28078e-02,5.13610e-02,4.62139e-02,5.91092e-03,5.72680e-02,6.96190e-02,1.63820e-01,9.08811e-02,-4.53532e-03,-7.26426e-03,-1.15612e-01,5.99939e-02,-9.75614e-03,6.45874e-02,-5.04545e-03,-4.53781e-02,-1.16207e-02,1.64751e-02,4.50558e-02,4.82961e-02,-1.64582e-02,-3.44613e-02,-3.67894e-02,-1.14192e-02,-7.46221e-02,5.19733e-02,1.32867e-01,3.82880e-03,8.82851e-02,-9.30660e-02,2.51287e-03,2.17846e-02,9.29070e-02,4.55022e-02,-1.13440e-01,5.28314e-03,6.88805e-02,2.79954e-02,5.16187e-02,1.10138e-01,9.18406e-02,1.94607e-02,6.80242e-02,5.78221e-02,-1.22310e-01,5.93500e-02,7.80371e-02,1.07490e-01,-1.13718e-01,9.62372e-02,3.88946e-03,2.40941e-02,7.43816e-02,7.87315e-02,6.40813e-02,8.57164e-02,1.16230e-01,8.43865e-02,-8.16310e-02,-5.80502e-02,-5.22679e-02,6.98701e-02,6.87872e-02,7.67650e-02,8.92957e-02,-6.54971e-02,8.91470e-03,2.43075e-02,2.98272e-03,1.13950e-01,5.84194e-03,6.50302e-02,8.43899e-02,1.89079e-03,-1.71089e-02,8.15055e-02,-2.75135e-02,-9.91528e-02,-1.22979e-01,-1.30754e-01,-5.91089e-02,1.08714e-02,-1.82808e-02,6.32253e-02,-9.79284e-03,8.06798e-02,9.19735e-02,5.03748e-02,
1.10975e-02,5.91272e-03,8.38605e-02,-3.90215e-03,-3.57312e-02,-1.07690e-02,1.56621e-02,2.61056e-02,7.48718e-03,-1.95423e-02,1.41346e-01,3.00321e-02,-4.84225e-02,-5.75476e-02,1.03811e-01,-4.93743e-02,1.20628e-01,2.99598e-02,-8.39277e-02,-3.87256e-02,-8.43669e-02,3.83611e-02,1.48195e-01,5.27720e-03,-1.03731e-01,2.73046e-02,8.01990e-02,-1.86382e-02,-6.37080e-03,-3.35685e-02,5.51769e-03,-6.47916e-02,4.87065e-04,-7.11012e-02,5.87449e-02,-4.78217e-02,1.06456e-01,1.05692e-01,8.57689e-02,6.95379e-02,2.93926e-03,1.08280e-01,-5.19151e-02,7.23516e-02,7.24083e-02,1.25551e-03,7.49366e-02,6.98304e-02,-6.37591e-02,-6.52112e-02,2.11328e-02,-2.86745e-02,-9.65382e-02,8.52338e-02,-1.92466e-02,1.15851e-02,2.22511e-02,8.00888e-02,8.94617e-03,1.87905e-01,3.71571e-02,1.50394e-02,1.55600e-01,-5.22615e-02,-1.01678e-01,3.77175e-02,-3.17060e-02,-1.07520e-01,9.08712e-02,1.46810e-02,6.49573e-02,7.52774e-02,2.82325e-02,5.28484e-02,-2.42519e-02,1.12362e-01,-9.61884e-02,4.18286e-02,3.51517e-02,6.06586e-02,8.63908e-02,4.02262e-02,9.92218e-02,4.72853e-02,-6.96003e-02,-1.85348e-03,1.04363e-02,2.00055e-02,-8.18767e-02,2.11949e-02,1.25127e-03,-5.92430e-02,-1.51466e-02,-5.73797e-02,9.73153e-02,-7.83871e-02,6.24165e-02,-5.44108e-02,1.81415e-02,3.73362e-02,
5.57101e-02,2.13571e-02,3.66657e-02,3.12576e-02,4.84462e-02,-5.96971e-02,8.49835e-02,4.14220e-02,1.07508e-01,-2.46024e-02,2.18834e-01,2.31430e-02,4.64914e-02,4.47451e-04,7.32402e-02,1.17880e-01,1.27514e-01,6.71956e-02,-3.79627e-02,8.72784e-02,7.65106e-03,2.08324e-02,1.14514e-01,4.23437e-02,1.03124e-01,1.88361e-01,4.06108e-02,-1.53968e-02,7.86794e-02,-4.12005e-02,1.25832e-02,1.65784e-02,-2.35116e-03,-6.67505e-02,1.04948e-01,-4.03247e-02,-7.54067e-02,9.64389e-02,-6.26475e-02,-4.21976e-03,4.76774e-02,3.98507e-03,1.08855e-01,-3.36159e-03,9.17848e-02,-2.08871e-02,-7.44165e-02,-4.66227e-02,8.30814e-02,8.22078e-02,-1.52931e-02,1.47628e-02,1.03309e-01,3.54051e-03,8.34861e-04,-6.46743e-02,-8.67978e-02,3.96005e-02,-7.52728e-02,-4.46468e-02,7.96781e-02,6.48631e-03,-7.32627e-02,3.13762e-02,-3.85860e-02,6.38837e-02,3.73729e-04,4.57709e-02,-2.73986e-03,8.18369e-02,4.78454e-03,-5.32347e-02,7.85855e-03,-1.03814e-01,-5.07995e-02,6.02144e-02,-1.15727e-01,1.35179e-02,8.97488e-02,-4.30077e-02,-7.19176e-02,-9.89540e-03,9.92948e-02,-3.11913e-02,2.76904e-02,4.25689e-02,6.21067e-02,1.06083e-01,1.67320e-01,1.21136e-02,1.17035e-01,-1.11860e-02,-4.49562e-02,3.41337e-02,1.33690e-01,9.09351e-02,-5.29780e-02,1.05916e-01,8.07658e-02,9.93939e-02,
5.20056e-02,5.70583e-03,-8.91614e-02,4.08307e-03,6.80274e-03,-3.35731e-03,-1.11896e-01,1.89985e-02,-1.68767e-01,4.05296e-02,-6.97862e-02,-3.95889e-02,-9.72852e-02,1.04042e-01,4.38094e-02,9.31567e-02,7.36116e-02,-5.29925e-02,-8.09893e-02,9.28160e-02,-5.14494e-02,-1.08616e-02,-2.23489e-02,6.65673e-04,6.40007e-02,4.48283e-02,7.16325e-02,9.65905e-02,3.32517e-02,-2.18836e-02,1.13187e-01,1.02476e-02,-2.05481e-02,1.20314e-01,2.88100e-02,-6.74363e-02,2.50397e-02,4.82134e-02,1.87927e-02,-2.17798e-02,8.82884e-02,8.83297e-02,-7.98649e-02,-7.08568e-02,5.17780e-02,3.24305e-02,1.25441e-01,1.00618e-01,-3.63597e-02,8.06804e-02,8.87032e-02,5.10377e-02,2.86051e-02,-1.81190e-02,-4.06879e-02,9.19726e-02,6.76464e-02,-5.27442e-02,1.32299e-02,-7.33793e-03,-4.92004e-02,-3.63135e-02,1.83958e-01,6.87394e-02,1.38940e-02,6.24387e-02,2.04150e-02,-7.46016e-02,8.39589e-02,5.52182e-02,3.59292e-03,-3.44044e-02,9.53124e-02,6.16769e-02,-4.28559e-02,-3.97929e-02,-2.87719e-01,8.66114e-02,5.80295e-02,2.25311e-02,1.09527e-01,7.33112e-03,-3.83527e-02,7.92473e-02,6.61692e-02,-1.93331e-02,-5.04154e-02,5.00872e-02,-1.78562e-02,3.30228e-02,1.75253e-01,-5.10251e-02,1.05958e-02,-1.32061e-02,6.86517e-02,8.12327e-02,9.84226e-03,8.40197e-02,-8.28592e-03,3.56780e-02,
-3.55902e-02,-5.31578e-03,2.31997e-02,2.39296e-02,-2.90263e-02,1.91678e-02,4.41580e-03,8.56863e-02,1.81726e-01,1.11094e-01,1.06794e-01,7.11141e-03,7.07312e-02,-6.49899e-02,1.18139e-01,-4.52740e-02,-1.00387e-01,1.92345e-02,-5.22554e-02,1.15282e-01,1.65667e-01,-5.77896e-02,1.03831e-01,1.18620e-01,1.29642e-02,-5.21168e-02,-5.67861e-02,5.84826e-02,4.91959e-02,6.65274e-02,4.42238e-02,1.73135e-02,9.18503e-02,1.26394e-01,-4.27441e-02,2.64654e-02,1.69781e-02,6.82682e-02,8.41247e-02,7.14047e-02,6.27159e-02,-4.28905e-02,9.56295e-02,3.01972e-02,-1.48650e-02,5.29063e-02,-5.66385e-02,-4.34179e-03,1.46345e-02,-5.47266e-02,5.71947e-02,3.65151e-02,7.18313e-02,7.64561e-02,-5.13540e-02,1.19429e-01,1.07744e-01,-2.40344e-02,-6.11999e-02,-8.06290e-02,1.43084e-01,-2.58110e-03,-1.02669e-01,-6.39674e-02,2.63388e-02,-8.33192e-02,-3.75752e-02,1.49382e-01,-1.26770e-01,3.55738e-02,-8.05966e-02,4.16055e-02,9.25334e-04,-4.68366e-02,4.76952e-03,-2.84024e-02,1.29776e-01,1.15603e-01,-3.22448e-02,-2.16209e-02,-7.84464e-02,9.56089e-03,3.98179e-02,3.14691e-02,1.65050e-01,6.59981e-02,1.75659e-01,-6.56379e-02,1.20639e-01,-4.95013e-02,-3.41996e-02,7.21041e-02,1.43380e-01,-5.91940e-02,-8.60660e-02,-2.43450e-02,7.66599e-02,-4.54267e-02,4.15173e-02,-1.90978e-02,
-4.31136e-02,-1.21610e-02,-2.79429e-02,-7.80936e-02,5.00877e-02,5.18853e-02,5.13772e-02,-6.60165e-02,8.05278e-02,3.67888e-02,-2.26435e-02,8.49307e-02,3.67984e-02,2.13475e-02,8.76569e-02,8.81362e-02,1.02968e-01,-3.64388e-02,-1.35586e-02,3.32587e-03,7.04508e-02,1.01986e-01,-7.64472e-02,9.60617e-02,5.57847e-02,-1.91113e-02,8.93070e-02,6.13185e-02,4.65252e-02,1.18704e-01,-9.06625e-03,-3.57745e-02,-1.07626e-01,6.45061e-02,7.04366e-02,-3.02310e-02,2.15402e-02,-2.09806e-02,1.39079e-01,6.25181e-02,-2.78420e-02,6.75740e-02,4.26853e-02,4.20842e-02,6.70082e-03,-9.08120e-03,1.17496e-01,6.45289e-02,2.01659e-02,-2.70317e-02,-8.81668e-02,8.80576e-02,7.63336e-02,-2.29885e-02,4.79435e-03,1.28130e-01,-7.65088e-02,5.20004e-02,1.16144e-01,4.03831e-03,-4.34907e-01,1.79832e-02,4.80311e-02,-1.80832e-02,6.21181e-02,8.05293e-02,-1.13277e-01,9.38679e-02,4.32839e-02,6.76512e-03,1.59417e-02,1.25289e-01,-1.08560e-02,-6.06698e-02,6.58037e-02,-3.90199e-02,-2.74468e-01,1.95756e-02,-8.64685e-02,-2.37287e-02,-5.39857e-03,2.17564e-01,1.10446e-01,3.07724e-02,7.79181e-02,-4.32884e-02,-3.56645e-02,9.81579e-02,2.76483e-02,7.85959e-02,3.56762e-02,-1.18459e-01,-5.86441e-02,6.66949e-03,-1.36895e-01,1.32594e-02,1.90215e-02,2.12754e-02,-2.26899e-01,9.08550e-02,
-3.85503e-02,-4.32894e-03,1.04231e-01,2.03880e-02,6.33748e-02,-5.07792e-02,1.09211e-01,3.79539e-02,-1.25364e-01,4.80786e-02,-1.81553e-01,7.53990e-03,2.05785e-03,1.32988e-02,-1.09118e-01,1.18820e-02,1.19080e-01,2.57034e-02,-5.17342e-02,-6.76154e-02,1.70818e-01,6.51715e-02,2.98640e-02,-1.43418e-03,1.38092e-01,1.44668e-01,6.02033e-02,7.62847e-02,4.35591e-02,4.01271e-02,8.91160e-02,1.19626e-01,-2.46253e-02,1.50217e-02,9.86633e-02,9.12860e-02,-1.99723e-02,-3.05171e-02,2.24556e-02,1.01530e-02,-6.30385e-02,-2.86904e-02,-4.62817e-02,2.55569e-02,-5.00602e-02,7.26136e-03,6.88144e-02,-5.01020e-02,1.35957e-01,6.22783e-03,-5.72483e-02,9.47319e-02,-1.13571e-02,5.70871e-02,1.07778e-01,1.11324e-01,-4.68855e-02,1.01726e-01,-7.03587e-02,-3.83432e-02,-5.81685e-02,1.30077e-01,-2.13072e-02,5.56073e-02,-4.90666e-02,-4.24591e-02,1.20759e-02,1.60445e-01,-7.85835e-02,5.84198e-03,-6.76854e-02,2.95791e-02,5.02943e-02,-4.13119e-02,-2.13933e-02,-2.22320e-02,-1.94191e-01,-3.54024e-02,-6.07237e-02,2.10036e-02,1.97278e-02,-6.89830e-02,2.08608e-02,7.46962e-02,5.67652e-02,-2.91909e-03,5.22412e-02,-8.81139e-02,8.37973e-02,8.93448e-02,5.10103e-02,-3.42030e-02,1.39891e-01,9.95175e-02,1.94638e-02,6.88638e-03,-3.02459e-02,8.26397e-02,1.22696e-01,7.05606e-02,
2.51489e-02,-6.41807e-02,-9.79660e-02,1.28336e-01,2.03998e-01,-2.58352e-02,1.25883e-02,6.66443e-02,-2.56782e-02,-7.59371e-02,5.80569e-03,1.32212e-02,-1.26229e-01,-1.06103e-01,6.04066e-02,2.31051e-02,-8.51242e-02,-3.67300e-03,-1.15603e-01,-1.20467e-01,3.70206e-02,-3.78970e-02,1.20581e-01,2.19823e-02,2.00329e-01,-2.89034e-03,-4.57026e-02,1.03857e-01,-5.81569e-02,-7.86573e-02,-1.05313e-02,-5.28473e-02,4.38612e-02,1.80527e-01,5.17429e-02,-2.20818e-02,1.67870e-01,8.29795e-02,-2.43744e-02,-5.29830e-02,8.28949e-02,-3.49206e-02,8.41350e-02,-3.72039e-02,-1.03812e-01,-1.06422e-01,4.60018e-02,-4.28679e-04,4.33501e-02,-8.82903e-02,1.44089e-01,-4.04862e-03,1.22446e-01,-1.32268e-01,1.63958e-02,1.11552e-01,5.40977e-02,1.49315e-01,1.07289e-01,-1.31344e-01,-1.81450e-01,3.17757e-02,3.80154e-02,-3.64548e-02,-1.46373e-01,-3.48092e-02,1.64057e-01,2.45654e-02,-1.03747e-01,9.62343e-02,4.37299e-02,1.77061e-01,8.10868e-02,-6.94753e-03,6.59318e-02,-1.32571e-02,-1.34380e-01,1.48742e-01,-1.77545e-02,1.17146e-01,-1.56984e-02,-4.75137e-02,1.01051e-01,-2.30319e-02,2.49958e-02,6.78821e-02,3.93579e-02,2.37659e-02,2.17183e-02,4.97803e-03,1.02702e-01,9.64311e-02,4.88973e-02,-1.38544e-02,5.74891e-02,-8.04799e-02,-4.12235e-02,2.90522e-02,3.45622e-02,-1.73013e-02,
-1.77183e-02,9.66941e-02,-9.24651e-02,6.34658e-02,3.99668e-02,-4.38679e-02,4.39447e-02,7.53100e-02,1.87773e-01,7.19974e-02,1.64952e-01,-3.92302e-02,6.44275e-02,-3.19451e-02,2.31498e-02,1.12351e-02,3.89694e-02,4.19248e-02,1.01472e-01,-3.98946e-02,-1.25027e-02,-6.41750e-02,5.50149e-02,5.66349e-04,-8.09092e-02,9.14824e-02,4.73878e-02,-5.55390e-03,-1.59434e-03,1.53647e-02,-7.72724e-02,-7.05339e-02,3.86551e-02,-1.07729e-01,-9.12116e-02,7.52528e-02,1.13162e-01,5.64191e-02,-6.46656e-02,-3.36662e-02,-7.04312e-03,6.26483e-02,1.94658e-02,-3.43726e-02,8.27881e-02,8.80745e-02,3.85836e-02,8.87551e-02,2.98144e-02,8.56968e-03,4.33274e-03,9.14607e-02,-3.21107e-02,1.15228e-01,-4.72742e-02,-2.41109e-03,1.91964e-02,-6.39694e-03,8.40133e-02,1.01428e-01,2.14820e-01,1.13942e-01,1.50409e-01,2.88782e-02,-5.22674e-02,-6.48267e-02,1.31794e-02,3.16907e-02,-1.75557e-02,-2.64159e-03,-5.20053e-02,9.42719e-02,2.34164e-02,-1.24076e-01,4.08507e-02,1.51525e-01,2.09002e-01,6.16673e-02,2.64891e-02,1.48271e-02,1.46049e-01,1.14576e-01,4.34272e-02,2.26608e-02,-5.95391e-02,-9.25773e-02,-1.35235e-01,1.12480e-02,-3.41684e-02,-2.68678e-03,-1.32614e-02,2.44672e-02,4.84710e-02,-9.27586e-02,7.47601e-02,2.42694e-02,-1.94826e-02,8.10747e-02,1.09573e-01,-1.60030e-02,
1.18290e-01,4.08173e-02,1.08715e-01,9.56947e-02,7.76594e-02,9.05546e-02,1.39517e-01,-4.62180e-02,-2.02472e-03,-7.82268e-02,2.26871e-01,6.35123e-02,4.15224e-02,1.90395e-02,-5.13784e-02,7.32781e-02,-1.34416e-03,5.43167e-02,-2.14368e-02,-2.81292e-02,-3.66990e-02,2.19595e-02,8.64330e-02,-1.38458e-02,-4.34719e-02,6.74239e-02,5.57107e-02,-1.95283e-02,-2.96333e-02,7.28330e-03,6.16232e-02,5.05383e-03,9.83544e-02,-7.71847e-02,-4.10504e-02,-3.91999e-02,2.88422e-02,7.60574e-02,4.60252e-02,1.21454e-01,-1.93266e-02,-4.22939e-02,-2.69496e-02,-5.16078e-02,1.79443e-02,-9.28340e-03,-4.40185e-03,-5.13422e-02,1.30435e-01,-7.33390e-02,1.22454e-01,-2.12671e-02,-3.55234e-02,1.16579e-01,-6.67307e-02,-6.65411e-03,-6.58588e-02,5.07117e-02,2.53859e-02,1.38113e-01,4.81220e-02,-3.93671e-02,6.08239e-03,-3.82049e-02,-5.37167e-02,-9.62793e-02,-7.22310e-02,9.85721e-02,5.94453e-02,5.23229e-03,7.94549e-02,3.23766e-02,-1.76852e-03,2.80209e-02,-1.97451e-02,-1.32730e-02,7.13949e-02,2.75854e-02,7.02752e-02,2.10685e-02,-2.63547e-02,5.04105e-02,-3.61370e-02,-5.02613e-02,-1.54068e-02,8.50765e-02,1.48838e-02,9.55752e-02,1.03167e-02,1.47045e-01,6.80632e-02,1.21165e-01,-1.11986e-01,-2.80305e-02,3.82593e-02,-2.54055e-03,-5.02766e-02,5.11425e-02,5.96413e-02,4.83736e-02,
-1.98306e-02,-1.01083e-01,-9.62783e-02,2.20251e-02,2.59327e-02,4.50653e-03,-1.70913e-01,6.75585e-02,2.10856e-01,6.06014e-02,1.40610e-01,1.21069e-01,-7.15861e-02,3.49733e-02,1.09288e-01,8.46522e-02,-1.09082e-02,8.85280e-02,-1.24305e-01,6.03793e-02,1.11840e-01,1.86968e-02,1.15227e-01,-4.69823e-02,-5.73674e-02,-1.09261e-01,1.12172e-02,6.27649e-02,1.64204e-02,2.31446e-02,-8.84099e-02,6.87044e-02,-3.12579e-02,1.35931e-02,-8.08535e-02,9.42847e-02,7.88473e-02,1.26084e-01,-8.69919e-04,7.43455e-02,-3.87969e-02,1.27250e-01,-9.00297e-02,7.37069e-02,6.31794e-02,-4.19448e-02,1.81203e-01,1.25852e-01,2.45245e-02,-9.17646e-03,1.48021e-02,-4.01450e-02,9.34875e-02,4.11495e-02,8.75554e-02,4.97492e-02,3.55171e-03,3.58101e-02,4.19713e-02,9.04257e-02,5.94282e-02,-5.96879e-02,4.21499e-02,-4.72720e-02,5.22614e-02,-6.05634e-02,-9.46596e-02,2.27143e-03,-4.82150e-03,1.50366e-03,-3.80420e-02,4.88722e-02,6.67197e-02,1.26804e-02,-7.18730e-02,8.34448e-02,4.88715e-02,9.19433e-02,-3.97629e-02,9.05384e-02,2.71037e-02,-1.84340e-02,-6.21084e-02,3.46726e-02,1.44372e-02,3.89825e-02,-1.67771e-02,-2.75436e-03,-9.85666e-02,-7.84995e-02,-6.18417e-03,-5.37072e-02,-8.38411e-02,1.28303e-01,2.58389e-02,5.81683e-02,1.85242e-01,5.53646e-02,1.24925e-01,5.02466e-02,
-5.56233e-02,-4.67734e-02,-7.18777e-02,1.71182e-02,3.52427e-02,4.24555e-02,1.41892e-02,1.06811e-01,1.92325e-01,-5.40359e-02,1.09919e-01,9.45933e-02,4.78307e-02,-3.80882e-02,5.04625e-03,1.16448e-01,-2.59490e-02,5.75776e-02,1.38477e-02,-2.77639e-02,1.89982e-02,-3.12869e-03,6.88342e-02,-4.32407e-02,-1.10693e-01,-9.85321e-02,-1.38273e-02,3.95590e-02,2.85478e-02,6.24356e-02,3.76034e-03,-3.98487e-02,2.39916e-03,-1.19311e-01,-1.22623e-01,-6.28907e-02,-2.91506e-02,-2.29226e-02,3.80688e-02,6.05630e-02,7.86390e-02,3.89039e-02,5.19782e-02,-4.29055e-02,8.67245e-02,2.42284e-02,5.00248e-02,2.90188e-02,-2.89363e-02,-1.52530e-02,9.88135e-03,-7.63071e-02,6.92063e-02,1.63970e-01,7.01447e-02,1.70771e-02,4.24995e-02,-1.08129e-02,5.54036e-02,1.19760e-01,7.87238e-03,6.54309e-03,1.08857e-01,7.20195e-02,-7.41921e-02,9.32236e-03,4.43831e-02,-9.04424e-02,1.26210e-01,9.89600e-02,-7.09582e-02,-8.50963e-02,6.20397e-02,-4.86471e-02,3.24136e-02,1.52250e-01,1.30910e-01,4.78398e-02,3.30993e-02,2.37075e-02,8.73601e-02,1.13583e-01,-3.24050e-02,1.61323e-03,4.36148e-02,9.66760e-03,-1.32467e-01,1.33651e-01,-5.16483e-02,-6.95982e-03,3.95252e-02,-6.10300e-02,-6.62331e-02,2.68342e-02,7.53171e-02,5.23777e-02,6.28957e-02,-1.19909e-01,1.87784e-02,2.05223e-02,
-3.94089e-02,-2.56998e-02,6.93948e-02,-2.12341e-02,-6.71813e-02,3.71087e-02,6.04823e-02,-6.58824e-02,-9.02290e-01,-2.97545e-02,1.67760e-01,-6.67106e-04,1.20963e-01,-7.20791e-02,-5.73691e-02,-2.17866e-01,-2.23658e-01,-3.62172e-02,5.69637e-02,1.35240e-01,-3.10131e-02,6.43122e-02,-2.66838e-01,-3.27772e-02,-1.53111e-01,9.56707e-02,-3.55609e-02,2.89533e-01,-1.32812e-01,1.73629e-01,-6.12191e-02,-5.89922e-02,-3.59718e-02,1.12688e-02,1.98760e-01,5.42012e-02,-1.72236e-01,1.15403e-01,1.40024e-01,7.66150e-02,1.47500e-01,1.07125e-01,1.99271e-01,-1.12904e-01,7.85054e-02,9.33060e-02,-4.93025e-02,-5.34014e-02,-9.81351e-02,9.54821e-03,7.43960e-03,2.09518e-02,-5.54024e-02,1.07874e-02,8.31116e-02,-9.59301e-02,8.81848e-03,-2.09887e-01,7.06462e-02,2.56043e-02,-4.46016e-01,5.65281e-02,4.26698e-02,1.31143e-01,7.94749e-02,-1.95550e-01,1.53241e+00,8.50294e-02,6.89954e-03,4.50439e-02,1.94980e-02,2.84847e-01,-2.37808e-01,1.10220e-02,-4.27468e-02,-1.25851e-01,1.05432e+00,-1.04689e-01,-1.65462e-01,-3.69937e-02,3.27334e-02,7.83634e-02,9.64045e-02,1.59093e-01,-6.53794e-02,3.20399e-02,-1.09423e-01,1.25279e-01,-1.88807e-01,-1.55854e-02,-8.20599e-02,-3.52506e-02,1.91566e-02,1.54658e-01,-1.08409e-01,1.40318e-03,-3.16905e-03,-1.45278e-01,-3.19456e-01,9.41985e-02,
-7.16316e-02,8.09324e-02,7.21819e-02,9.69079e-02,1.17254e-02,-9.79630e-02,-1.80686e-02,1.05471e-02,-2.87306e-02,-8.50119e-02,3.63533e-02,7.02976e-02,3.77613e-03,1.23338e-01,1.04354e-01,-2.09790e-02,-2.53387e-01,-3.32264e-02,-1.01944e-01,1.36497e-01,-9.02226e-02,1.23791e-01,5.11620e-02,-6.19465e-02,-1.35596e-01,4.00622e-02,2.17878e-03,9.89024e-02,-4.18048e-02,2.36968e-02,5.20106e-02,-6.37287e-02,8.93075e-02,-2.76069e-03,2.17262e-02,-9.01894e-02,-3.60462e-02,2.59264e-02,-2.34106e-01,-4.45595e-02,-4.99649e-02,5.93279e-02,1.11676e-01,-8.58007e-02,1.38296e-02,-5.24590e-02,4.07920e-02,7.07042e-02,2.08178e-01,1.33744e-01,2.07206e-02,-5.72653e-02,-8.01748e-02,3.89235e-02,-1.56081e-02,1.13789e-01,8.41092e-02,6.46791e-02,-5.78327e-02,1.42317e-02,3.24617e-01,3.48123e-02,6.83494e-03,-1.73918e-02,3.40817e-02,-1.90146e-01,-2.17376e-01,-3.31306e-02,1.88188e-02,-1.02152e-01,-1.90343e-02,1.50277e-01,3.72102e-02,6.44149e-02,-3.92284e-02,-1.18108e-02,2.53697e-01,3.71821e-02,-7.07751e-02,-3.75028e-02,3.65379e-02,1.50057e-02,8.22579e-02,3.06793e-02,8.08650e-02,7.00338e-02,1.24713e-01,6.52151e-02,-1.23661e-01,-9.42289e-03,7.81267e-02,9.67311e-02,1.16959e-01,2.71798e-02,5.68543e-02,-5.81417e-02,4.32718e-02,5.41164e-02,5.80787e-02,9.20979e-02,
-2.27118e-02,-8.05523e-02,-5.95514e-02,-5.48590e-03,2.37770e-02,1.63338e-02,3.50203e-02,6.25024e-02,7.64422e-02,-2.22333e-02,1.44864e-01,1.39182e-01,6.93319e-02,-2.42632e-02,-5.77663e-02,2.52616e-02,1.43493e-01,7.74929e-02,1.35101e-01,-3.08822e-01,-4.34550e-02,-1.65637e-01,9.75173e-02,1.85958e-01,1.04709e-01,-1.91634e-01,6.30204e-03,-2.30934e-02,-1.14757e-03,-4.61788e-02,1.31307e-01,1.00027e-01,6.37658e-02,-6.62799e-03,-1.27953e-01,3.08296e-02,2.62231e-01,1.17970e-02,1.32573e-01,5.88950e-02,-2.90856e-02,-1.09171e-01,-3.78217e-02,5.17209e-03,8.26176e-02,-2.07978e-01,4.95128e-03,-3.34849e-03,-4.59499e-02,-1.62274e-02,8.45849e-02,3.65627e-02,8.21745e-02,-4.59462e-02,3.85894e-02,7.09434e-03,4.72849e-02,1.62042e-01,7.03094e-02,4.39548e-02,-1.48431e-01,7.32751e-03,-3.45832e-01,-4.44751e-02,-6.96155e-02,2.50542e-01,2.06401e-01,-1.22990e-01,6.94113e-02,-7.76518e-02,-1.41918e-01,-7.91977e-02,1.83251e-01,1.20779e-01,-3.02987e-02,-1.08108e-02,2.61095e-02,-1.06486e-01,1.42907e-01,2.68961e-02,-2.57580e-02,-1.39997e-02,-8.10097e-02,3.31569e-02,1.11083e-01,5.43142e-02,2.16656e-02,-2.67172e-01,5.28953e-02,5.13846e-02,-1.74493e-01,2.33379e-02,-5.78028e-02,-1.64562e-01,5.43473e-03,2.20710e-02,-9.74174e-03,-2.62135e-02,9.07997e-02,-3.05843e-01,
9.09900e-03,-3.36376e-02,-2.17163e-02,-9.87852e-03,1.10456e-01,8.49490e-02,-7.05625e-02,2.64819e-02,-1.29074e-02,1.06657e-01,-1.76638e-02,9.49589e-02,-6.25870e-02,7.91559e-02,-7.07686e-02,7.06621e-02,6.12236e-02,-1.28945e-03,-2.07935e-02,3.85397e-02,6.60221e-03,-3.87730e-02,6.37551e-02,-1.48184e-01,-8.19843e-02,-1.43308e-02,-6.88127e-02,1.14081e-01,7.50381e-02,1.62079e-02,5.59234e-02,-5.05196e-02,-7.56596e-04,-1.29232e-02,4.01001e-02,-7.72354e-02,5.13975e-02,9.02067e-02,3.70150e-02,-2.96158e-02,8.21392e-02,8.65559e-02,3.36228e-02,-4.82704e-02,-6.66919e-02,-3.34168e-02,1.53931e-01,5.27490e-02,-6.29460e-02,-5.06227e-02,-5.70253e-02,-4.51772e-02,1.15143e-02,1.03796e-01,1.17159e-01,1.33889e-01,9.42977e-02,1.64447e-02,1.30999e-01,1.01430e-01,-4.36510e-02,-5.81413e-02,2.14169e-01,3.64753e-02,4.88541e-02,1.48800e-01,7.82707e-03,1.07259e-02,7.95178e-03,6.41210e-02,-1.39598e-02,-5.50777e-02,1.57312e-03,-4.69666e-02,-4.85664e-02,1.31499e-01,-1.23661e-01,1.40994e-01,9.85462e-02,-1.62690e-02,1.44810e-01,-6.02233e-03,-3.91594e-02,4.72908e-02,-4.67477e-02,9.08759e-02,-9.24676e-02,4.28280e-02,-8.54841e-02,-4.41156e-03,1.19155e-01,9.64561e-02,-1.11892e-01,-7.97351e-03,-2.65930e-02,6.84437e-02,5.52859e-04,7.09216e-02,1.36656e-01,-7.87665e-03,
-2.85541e-02,3.30375e-01,-1.05085e-01,2.64196e-02,-1.23657e-01,-9.23236e-02,-1.46647e-01,-8.88433e-02,-1.98841e-01,-5.78675e-02,-4.71108e-01,8.28873e-03,1.46894e-01,1.14841e-01,7.22300e-02,1.89559e-02,-2.26260e-01,-3.79053e-02,-5.44786e-02,-1.78674e-01,-3.03923e-02,-1.66903e-01,4.08261e-02,-2.62524e-02,8.13977e-02,-1.69734e-02,7.87808e-02,-2.07343e-01,1.15917e-01,-1.02835e-01,-1.09207e-01,1.13041e-01,2.12648e-01,-2.39676e-01,-1.51467e-01,3.69507e-02,-1.69796e-01,-3.65091e-01,1.37804e-01,-4.24904e-02,9.98906e-02,-4.50784e-02,-1.71177e-01,9.11579e-02,1.69754e-01,2.90673e-02,-7.79654e-03,-1.37522e-02,1.04619e-01,6.32902e-02,-3.02731e-01,3.12244e-02,-5.51015e-04,1.14836e-01,1.24239e-01,1.63527e-01,-1.07769e-01,5.36841e-02,-2.08683e-01,-1.28904e-01,3.34564e-01,3.73542e-02,9.58709e-02,1.15435e-02,9.07661e-02,1.74728e-01,-1.28058e-01,-1.36561e-01,-3.76977e-02,-1.95266e-01,-1.82740e-02,7.92969e-02,1.36495e-01,1.97812e-02,6.42346e-02,3.28152e-02,2.58885e-01,-2.02607e-01,8.77593e-02,-4.39557e-02,1.62503e-01,-7.21900e-03,-1.30226e-01,-4.48701e-02,-1.87586e-01,-5.63273e-02,7.96402e-02,5.30723e-02,-7.01677e-02,-7.50299e-02,-1.05712e-01,1.09102e-01,2.64041e-02,-2.45310e-01,1.45084e-01,1.53814e-01,1.27841e-01,-1.15998e-01,2.20136e-01,-1.14276e+00,
-3.43761e-02,6.38397e-02,1.05033e-01,7.16123e-02,3.74890e-02,4.26229e-02,-1.23487e-03,9.96989e-03,1.59569e-01,-7.73437e-02,2.62135e-01,-1.68333e-02,-4.62208e-02,8.43281e-03,1.50571e-01,1.20989e-01,-1.77181e-02,1.13744e-02,-6.21979e-02,-6.86008e-02,7.19789e-02,8.88500e-02,4.73243e-02,9.69470e-02,6.88110e-02,1.54384e-01,1.09068e-01,7.45559e-02,-1.16472e-01,1.30150e-01,-4.54667e-02,2.62935e-02,3.47313e-02,3.50958e-03,1.82664e-03,-5.13846e-02,4.22964e-02,-2.74898e-02,7.97225e-02,-1.21654e-02,9.21143e-02,-9.14009e-02,4.55063e-02,8.82800e-02,-3.01415e-02,6.98375e-02,3.79538e-02,2.16143e-03,9.30898e-02,6.01639e-02,-4.25631e-02,3.16303e-02,3.88446e-02,3.48301e-02,2.75242e-02,1.19787e-01,-8.71800e-02,9.50342e-03,-6.83791e-02,-7.31265e-02,1.23601e-01,-1.79675e-02,-1.46062e-01,1.75429e-02,-5.19770e-02,-6.73489e-02,1.02675e-01,4.14597e-03,1.37912e-02,-3.41671e-02,3.69312e-02,-1.29069e-02,8.47096e-02,-6.03773e-02,-7.62723e-02,-6.24928e-02,-9.81134e-03,3.73041e-02,-5.78569e-02,-7.80902e-03,-1.40791e-02,1.05203e-02,3.35020e-02,2.80378e-02,-1.21220e-02,-1.80385e-03,9.60336e-02,6.75809e-02,1.73720e-01,5.50041e-02,1.26393e-01,6.14918e-03,4.91971e-02,9.47963e-02,-3.50595e-02,-6.58344e-02,-1.04384e-01,-2.31202e-02,2.12623e-02,-5.15354e-02,
1.22265e-01,8.05190e-02,-1.02948e-01,2.94704e-01,-3.91700e-02,-2.01411e-01,-1.17656e-01,-1.66667e-01,-6.74038e-02,-5.57982e-02,6.94277e-02,-1.41866e-01,1.72040e-01,3.43850e-02,-1.99580e-02,5.41489e-02,-7.42752e-02,-1.17012e-01,-1.83581e-01,-2.53364e-01,4.73546e-02,-1.79627e+00,-6.43155e-02,-6.35400e-01,-5.42958e-02,8.29034e-02,2.54368e-01,-8.45907e-02,2.54674e-02,-2.46618e-01,-5.17187e-02,8.47120e-02,1.17691e-01,-2.71771e-01,-9.89139e-02,-5.70538e-02,1.03792e-01,-1.37886e+00,-3.52643e-01,1.56949e-02,1.54101e-01,-1.06074e-01,-2.59644e-01,-1.41883e-01,1.18004e-01,1.48533e-01,-1.03784e-01,-8.99246e-02,1.08770e-01,-1.26879e-02,3.24498e-01,-6.32964e-02,-6.93896e-02,2.36496e-01,1.54491e-01,3.18897e-01,-1.03954e-01,3.85770e-02,-1.17384e-01,-3.81716e-02,-1.97984e-01,-3.51607e-03,3.71965e-01,-2.89297e-01,2.42692e-01,1.48518e-01,1.56666e-01,-8.00520e-02,-1.21113e-01,-1.87356e-01,-8.03393e-02,-1.26206e-02,-1.67146e-02,-3.31394e-03,1.66835e-01,1.74853e-03,1.83479e-01,-1.37710e-01,-1.46733e-01,1.23251e-02,2.36130e-01,2.38947e-02,2.05493e-02,-1.68980e-01,1.50283e-02,-9.61167e-03,5.05082e-02,-1.93075e-01,-1.29559e-01,1.36452e-01,-2.76936e-02,1.35412e-01,-6.92900e-03,-4.53026e-01,1.98036e-01,-1.07418e-01,1.81144e-01,8.45924e-02,-1.20414e-01,8.03749e-01,
-2.36049e-01,5.17492e-02,7.66155e-03,-9.78821e-02,3.54587e-02,4.02625e-02,9.35865e-02,-1.58718e-01,1.32322e-01,6.39250e-02,-3.62747e-01,4.03184e-02,-3.92397e-02,-5.64365e-02,-6.16640e-02,-1.54556e-01,1.52738e-01,9.61400e-02,9.97091e-02,-4.25989e-02,3.81039e-02,7.07006e-02,-7.44008e-03,1.17691e-01,3.09455e-02,1.41889e-01,-8.63401e-02,-6.81132e-02,-3.10534e-02,-5.57806e-02,8.54736e-02,6.23153e-02,2.59747e-02,2.17587e-01,-1.23757e-01,-4.97670e-02,4.32690e-02,1.68908e-02,-1.10551e-02,-1.84991e-02,8.03729e-02,-7.73263e-02,-8.25512e-02,4.04597e-02,1.13457e-01,5.30895e-02,-9.69024e-02,-3.58227e-02,1.34688e-01,-3.93674e-02,-3.24653e-02,2.90020e-02,-2.39372e-02,-3.03719e-02,4.06874e-02,2.08319e-01,-5.35078e-04,-2.29984e-01,5.47765e-02,8.13521e-03,-1.16987e-01,-1.23812e-01,-1.18294e-01,-4.30533e-02,-2.77294e-02,6.17211e-02,4.14948e-02,-1.92117e-02,4.74581e-02,3.21452e-01,-8.68997e-02,-5.58936e-02,-2.42586e-01,-7.17518e-02,-1.49068e-02,-1.37900e-01,8.21443e-02,-2.30492e-02,2.39070e-02,-8.09907e-02,7.14613e-02,9.53858e-02,9.47307e-02,2.40336e-01,-5.39447e-02,2.28026e-02,-7.55410e-02,1.05307e-01,5.14154e-02,7.69487e-02,-2.53127e-01,-9.29850e-02,-1.49849e-02,1.11656e-02,1.00925e-01,-6.59156e-02,-5.84293e-02,1.51435e-04,-1.45654e-01,6.49509e-02,
-1.74059e-02,-6.20937e-02,-3.87450e-02,-6.69661e-02,2.41858e-02,-2.59499e-02,1.02774e-02,1.07584e-01,7.67669e-03,4.85522e-02,-1.04583e-01,5.26782e-02,1.78711e-02,1.03934e-01,8.86689e-02,5.15392e-02,4.13087e-02,3.17828e-02,-3.86288e-02,-3.00616e-02,1.90116e-01,-2.71021e-02,-8.20657e-02,9.09989e-02,1.51164e-01,-1.33830e-02,7.44903e-02,1.15865e-01,6.86966e-02,6.63272e-02,-3.24028e-02,2.95643e-02,-1.10896e-01,-6.01035e-03,9.08994e-02,-8.20234e-02,1.24204e-01,3.55419e-03,8.23389e-02,4.83397e-02,4.89714e-02,-5.20342e-02,2.42489e-02,9.81515e-02,9.02198e-02,7.59550e-02,-1.41590e-02,-6.72996e-02,8.44933e-03,1.18454e-01,-7.50664e-02,5.80948e-02,1.05956e-01,-5.52937e-02,5.23456e-03,-4.87263e-02,-4.63600e-02,8.87698e-02,-5.81432e-02,3.41554e-02,7.51702e-02,4.34055e-02,-1.17620e-01,6.38010e-03,4.30671e-03,4.17479e-02,-2.24013e-02,-4.55045e-02,-3.71794e-02,-4.18605e-02,2.51818e-02,-4.20470e-02,-5.96521e-02,1.06963e-01,-2.07803e-02,-6.61104e-02,2.57424e-01,2.75237e-02,-2.02534e-02,-3.18687e-02,2.54745e-02,6.99471e-03,-2.31580e-02,1.23333e-02,-5.10681e-02,-1.57583e-02,8.30588e-02,-2.56640e-03,1.47345e-01,-3.90411e-02,5.39751e-02,4.43238e-02,1.33624e-01,1.96811e-02,3.68069e-02,4.43915e-02,9.39933e-02,5.50236e-03,3.36475e-02,-1.16037e-02,
-1.84913e-02,-8.11547e-03,-3.74150e-03,-5.24082e-02,-8.97880e-02,6.50068e-02,-1.01428e-01,-3.77330e-02,1.69228e-01,-2.73511e-04,1.48727e-01,-3.17235e-02,1.36237e-01,-3.57391e-02,1.12080e-01,-8.22934e-02,-6.49415e-02,-4.14265e-02,-6.18921e-02,9.21830e-02,7.47299e-02,8.63702e-02,-7.65627e-03,-3.15639e-02,-6.93377e-02,3.93595e-02,-8.14632e-02,-2.28422e-02,-4.76721e-03,4.73419e-02,-7.07294e-02,-2.53917e-02,9.14408e-02,4.35076e-02,4.69993e-02,1.03242e-01,1.64625e-02,1.37723e-01,1.93696e-02,5.69102e-02,-5.92129e-02,2.82304e-02,-7.97417e-02,6.14685e-03,6.40371e-02,9.12600e-02,-3.33052e-02,6.06843e-03,7.43093e-02,-3.71596e-02,4.75808e-02,1.50880e-01,1.07730e-01,-3.85613e-02,-4.32605e-02,-4.36198e-02,1.03649e-01,6.20848e-02,-6.50863e-02,-9.38177e-02,1.82445e-01,-1.03395e-02,-9.82207e-02,3.29945e-02,-4.48144e-02,-5.43815e-02,1.77101e-02,3.74745e-02,-1.78598e-02,3.44755e-02,4.39900e-02,4.06629e-02,-7.35210e-02,2.65146e-02,6.38569e-03,7.16379e-02,3.80561e-01,-4.99278e-02,9.87649e-03,1.09877e-01,-6.44670e-02,-2.00317e-02,-8.64413e-02,4.35821e-02,6.11510e-02,6.12606e-02,1.90076e-02,-2.54044e-02,-5.16757e-02,-2.89567e-02,1.12750e-02,6.40109e-03,-3.66360e-03,-2.87677e-02,-1.26307e-03,8.22793e-02,5.92528e-04,-1.23078e-01,7.70171e-02,3.21489e-03,
-2.16279e-02,9.72913e-04,-3.51711e-02,1.38303e-02,-5.11286e-02,-1.05274e-02,-5.99585e-02,-4.11461e-02,-1.71480e-01,1.02801e-01,1.91138e-02,3.24292e-02,-7.90649e-02,-1.04367e-02,1.00017e-01,9.83291e-02,5.11422e-02,3.38225e-02,-2.35548e-02,9.45623e-02,1.51937e-01,3.65415e-02,5.13870e-02,4.22835e-02,1.98315e-02,1.39466e-01,-3.65854e-02,3.58555e-03,-3.00914e-02,9.44157e-02,-6.21749e-02,7.88419e-02,-5.14811e-02,1.51160e-01,6.62728e-02,-8.93364e-03,-3.82579e-02,1.97369e-04,5.68620e-02,-2.43743e-02,3.29943e-02,7.83470e-03,-9.07319e-02,4.54134e-02,3.67090e-02,-5.72519e-02,1.02307e-01,4.09141e-02,9.06918e-02,-1.39479e-02,-7.70134e-03,-5.16636e-03,-1.83523e-02,-8.32143e-02,4.33422e-02,5.23895e-02,-3.91964e-02,8.02568e-02,1.35184e-02,2.12368e-02,6.33103e-02,-4.97836e-02,-7.86463e-02,6.09440e-02,-2.73123e-02,3.03014e-02,-1.58008e-01,1.74216e-02,2.19144e-02,-4.59099e-02,8.16519e-02,1.23951e-01,8.19132e-02,-5.66342e-02,4.43939e-03,1.74069e-02,-1.72741e-01,-7.42758e-03,1.28076e-02,-4.01869e-02,-3.91764e-02,-5.31725e-02,2.53411e-02,4.53085e-02,-4.30013e-02,7.46567e-02,6.98426e-02,8.35252e-03,8.33447e-02,-4.49736e-02,4.06970e-02,1.65153e-03,1.05056e-01,9.52801e-02,-5.42256e-03,3.96008e-02,1.26269e-03,5.70091e-02,1.20791e-01,4.45461e-02,
5.01749e-02,4.17620e-02,-9.45325e-02,-4.93679e-02,-7.64775e-02,2.52891e-02,-1.04851e-01,7.78671e-02,1.79338e-01,-4.59004e-02,2.99991e-01,8.80404e-03,8.92643e-02,-9.20402e-03,-3.60300e-02,5.43171e-02,-3.14281e-02,8.66130e-02,7.81274e-02,1.09761e-01,1.20362e-01,5.38055e-02,4.60218e-02,4.05037e-02,3.78153e-02,-3.59445e-02,4.24154e-02,-6.78421e-02,5.60014e-02,1.49388e-01,8.05974e-03,1.37331e-01,2.22340e-02,6.64169e-02,5.64921e-02,4.46406e-02,-3.46400e-02,-4.29103e-02,2.71835e-02,-6.05059e-03,7.25994e-02,8.62254e-02,-4.34142e-02,-3.80507e-02,-7.20981e-02,9.78828e-02,8.00769e-02,7.37830e-02,-2.38836e-02,-3.81335e-02,-3.69904e-02,7.19445e-02,7.49674e-03,-7.65341e-02,5.10372e-02,1.76382e-01,5.12459e-02,9.49247e-02,6.70304e-02,1.18219e-02,2.31394e-01,-5.15180e-02,-3.03812e-02,2.14475e-02,7.99115e-02,6.36966e-02,1.08009e-01,8.66164e-02,-1.15069e-01,3.59923e-03,-6.35591e-02,7.39631e-02,1.35813e-02,-4.84255e-02,9.41638e-02,-4.81267e-02,1.48027e-01,-6.32603e-03,-6.60923e-02,5.40045e-02,-4.11939e-02,-2.89210e-02,2.96491e-02,3.13028e-02,1.38025e-01,-7.38948e-03,5.68880e-02,1.13002e-02,-2.12936e-02,-4.53141e-02,-1.00077e-01,1.04315e-01,9.70151e-02,-8.24774e-02,4.71791e-02,-2.13141e-02,-1.54565e-03,-3.14263e-02,-6.35340e-02,6.97765e-02,
-3.00355e-02,-8.28701e-03,4.22963e-02,8.33433e-03,-1.27532e-02,5.77040e-03,1.11670e-01,1.08382e-02,-3.85287e-02,-9.73270e-03,-2.71794e-02,4.02854e-02,-1.31575e-01,-8.06123e-02,-5.74956e-02,-1.08538e-02,3.58887e-02,3.36014e-02,4.46350e-02,-3.04324e-02,3.09377e-02,-2.81744e-02,3.97362e-02,-4.26563e-02,4.98109e-02,7.06918e-02,4.57069e-02,-4.21240e-02,-4.14935e-02,1.33839e-02,4.30333e-02,-2.49245e-02,-1.39904e-01,-2.47995e-02,1.08410e-01,6.51618e-02,-2.92929e-02,-1.01549e-01,5.03274e-02,-8.49375e-02,3.60646e-02,-7.17184e-02,-3.04671e-02,3.51196e-02,-5.70225e-02,-8.63951e-02,-5.69768e-02,3.37774e-02,1.22494e-01,-1.30766e-01,1.13956e-02,2.87349e-02,2.54038e-02,1.32662e-01,-3.55936e-02,-3.26848e-02,3.58726e-02,3.28358e-02,3.41931e-02,1.34439e-01,-1.33528e-01,9.80397e-02,-6.03535e-02,1.29399e-02,6.51898e-03,8.02570e-02,5.14884e-02,-2.94365e-02,-8.10768e-02,-8.76946e-02,1.51600e-02,-6.37109e-02,9.30268e-02,-1.67366e-02,1.01372e-01,-1.08202e-01,-2.21695e-01,1.31932e-02,-5.62019e-02,-2.18169e-02,3.34706e-02,-1.74351e-02,1.06823e-01,7.01285e-02,8.04621e-02,4.44532e-02,-6.75292e-02,-7.09001e-03,9.84533e-02,1.80350e-02,9.30293e-02,2.67548e-02,-2.63041e-02,1.28675e-01,2.69071e-02,-1.23049e-01,-1.60858e-02,-4.10558e-02,-2.67128e-04,6.16404e-02,
-1.31263e-01,3.23515e-01,-1.08152e-01,2.36835e-02,-9.90946e-02,-5.35049e-02,-1.52107e-01,-1.47994e-01,-1.70363e-01,-5.38551e-02,3.62458e-01,1.45199e-01,-4.48587e-02,5.55632e-02,-2.14321e-02,1.59291e-02,-9.31953e-02,-2.08102e-02,5.35904e-02,-1.78564e-01,-1.47656e-02,-7.05604e-01,-2.13443e-02,-1.00644e-01,1.14783e-01,-3.11854e-02,-7.26893e-02,-5.68768e-02,1.15278e-01,-2.29905e-01,-2.87764e-02,1.63059e-01,1.51993e-01,-6.58919e-02,-1.58970e-02,6.83754e-02,-1.15124e-01,-2.18244e+00,-4.91646e-02,1.32569e-02,1.58313e-01,8.12544e-02,-1.37086e-01,-4.86875e-02,2.05212e-01,-1.33638e-01,-8.28271e-04,-8.42926e-02,1.13362e-01,6.97414e-02,-5.32536e-02,4.36577e-02,-1.14212e-01,1.31712e-01,-8.22498e-04,1.08123e-01,-8.14304e-02,3.28038e-02,-1.66890e-01,-1.53144e-01,1.15359e-01,8.16003e-03,-1.32793e-02,3.15955e-02,-9.73418e-02,-4.74983e-02,1.02655e-01,-1.20900e-01,6.68012e-03,-1.01025e-01,-6.73064e-03,8.26875e-02,1.58132e-01,-3.34769e-02,-1.77451e-02,3.16714e-02,2.43726e-01,-3.06960e-01,1.54308e-01,-7.82965e-02,3.44489e-02,-3.82323e-02,-9.15553e-03,2.04908e-01,-1.65384e-01,-5.75188e-02,9.26489e-02,3.94267e-01,-1.29240e-01,-2.69904e-03,-2.09787e+00,6.06440e-02,9.62205e-02,8.87452e-02,1.12338e-01,6.09196e-02,9.19437e-02,7.60669e-02,-2.49560e-03,4.59401e-01,
1.94579e-01,-2.43218e-03,-4.43931e-02,-6.51167e-02,1.34441e-01,-2.31796e-03,-4.70034e-02,-4.07803e-02,1.64772e-01,2.29486e-02,-3.73530e-02,-4.45939e-02,4.82520e-02,1.19813e-01,3.75628e-02,6.31403e-02,-3.65508e-02,4.92108e-02,5.25237e-02,1.42482e-01,-2.87133e-02,-2.90176e-02,-9.46317e-02,7.39890e-02,-1.36419e-01,1.46655e-02,7.79977e-02,2.52841e-02,2.40330e-02,8.65225e-03,4.24324e-02,1.40811e-01,9.34181e-02,1.10622e-01,-5.57094e-02,-7.34332e-02,-2.70072e-02,1.28826e-01,1.78999e-02,-4.36772e-02,3.06308e-01,-4.96116e-03,1.62789e-01,-3.93274e-02,3.86595e-02,6.82460e-02,7.60890e-02,-5.09418e-02,4.33754e-02,-2.19087e-02,-2.45073e-02,2.03785e-02,-6.56149e-02,8.70465e-02,-9.02128e-03,4.99170e-02,5.05838e-02,-8.34556e-02,1.59169e-02,-3.73185e-02,1.14781e-01,-8.42362e-02,-1.40978e-01,-1.12760e-01,1.31229e-01,-5.67300e-02,2.08755e-01,-8.96579e-02,1.37666e-01,4.38532e-02,-1.81542e-02,4.18130e-02,-2.90404e-02,5.85931e-02,-2.76151e-02,-4.50638e-03,2.72082e-01,-1.18318e-01,5.53431e-02,-6.88871e-02,-1.25625e-02,-5.98906e-04,-7.44784e-02,4.24796e-02,-1.77561e-01,-8.46506e-02,1.05088e-01,-3.47195e-02,-1.04223e-01,3.36209e-03,-2.09681e-01,-7.22813e-02,7.84378e-02,1.45720e-02,-2.19022e-02,9.33526e-02,1.14702e-01,-7.66533e-02,-1.93450e-01,6.64107e-02,
1.77360e-02,-7.92109e-03,-5.87710e-02,1.10605e-01,-8.86195e-02,1.11418e-01,5.37017e-02,8.60004e-03,1.97897e-01,-1.02310e-01,1.21889e-01,1.20411e-02,-2.61189e-02,8.31497e-02,-5.90659e-03,-2.33017e-02,6.09281e-02,1.65072e-02,-4.61719e-02,1.98358e-02,-5.72451e-03,-7.30115e-02,9.23114e-02,-5.61703e-03,-1.38274e-01,-8.57795e-03,3.32184e-02,3.91745e-02,-3.48135e-02,8.48575e-02,4.41598e-02,-1.34292e-02,4.53474e-02,8.86830e-02,1.26644e-02,9.39301e-02,6.92567e-02,-1.83007e-02,2.47447e-02,1.85281e-02,8.29068e-03,1.18654e-01,1.00918e-01,6.56676e-02,1.22671e-01,5.07301e-02,1.50226e-02,-1.16055e-02,1.17036e-01,7.24337e-02,8.17740e-02,5.50773e-02,3.94663e-02,2.75018e-02,8.45227e-02,2.87285e-02,4.28574e-02,1.56800e-01,2.95640e-02,-1.07129e-02,1.59263e-01,-5.93261e-02,1.85556e-02,-6.64716e-02,-1.05086e-01,1.18906e-01,5.16502e-02,-9.65623e-02,1.11308e-01,-4.27464e-02,-8.28364e-02,-1.21646e-01,-3.51524e-02,-1.11232e-01,-3.12116e-02,1.15426e-01,2.79216e-01,-7.96961e-02,9.17631e-02,2.81234e-02,1.40756e-01,1.02134e-01,3.31741e-02,6.23796e-02,9.47775e-03,3.65849e-02,-1.12807e-01,-6.70244e-02,-6.86971e-02,-4.31907e-02,-3.98296e-02,9.23889e-04,4.71254e-02,4.67188e-02,1.02528e-01,-5.24385e-02,-6.52097e-04,5.44992e-02,1.55017e-02,-3.50599e-02,
-3.24397e-02,5.81152e-02,4.22556e-02,8.50179e-02,-7.80436e-02,-6.49903e-02,3.33478e-02,-1.87344e-01,4.02159e-01,-2.53436e-02,-7.53673e-01,-6.72202e-02,7.02949e-02,1.20284e-01,-4.73635e-02,4.49748e-02,2.58743e-01,4.28351e-02,2.17286e-02,9.78118e-02,7.98659e-02,-2.53621e-02,7.11369e-02,6.63365e-02,1.13100e-01,7.88951e-02,1.05894e-01,-1.21165e-01,2.36890e-01,-1.38134e-01,-2.80461e-02,1.52167e-01,1.14679e-02,-4.14540e-02,-1.53032e-01,9.21175e-02,1.58868e-01,-1.42686e-01,8.33897e-02,-7.67978e-02,1.24677e-01,2.02896e-02,-1.05284e-01,6.93236e-02,-1.29273e-02,1.47455e-02,4.99068e-02,-1.54889e-02,9.01969e-02,-6.22365e-02,5.88352e-02,-1.19309e-02,-2.48332e-02,-1.19018e-02,1.02548e-01,-9.25579e-03,1.11971e-01,-2.55676e-02,8.01417e-02,1.04648e-01,-2.57163e-02,-1.16053e-01,4.93832e-02,-3.11216e-01,-1.41904e-02,1.45477e-01,1.80299e-01,-1.48393e-02,-2.11182e-02,9.44873e-02,-1.44949e-02,-3.08335e-01,1.22467e-01,-4.83774e-02,9.46094e-02,3.39483e-02,2.78989e-01,-3.09472e-02,1.66180e-02,1.48074e-02,-6.21091e-02,-6.52663e-02,-7.02511e-02,-9.92975e-02,1.42265e-01,-6.42278e-02,9.50113e-02,-3.29063e-02,2.79079e-02,9.05170e-02,1.21988e-01,9.74167e-02,-6.99963e-02,3.39575e-02,-1.09909e-01,-1.39456e-02,6.46763e-02,1.66351e-01,-4.34817e-03,-5.06897e-02,
2.11712e-03,1.43746e-02,2.40537e-02,9.38655e-02,5.80985e-02,1.75044e-03,8.29947e-02,-7.50808e-02,-6.27490e-01,3.20820e-02,6.58599e-02,3.29469e-02,8.23872e-03,-4.67828e-02,4.18395e-02,4.90079e-02,1.20341e-01,-2.31475e-02,4.86080e-02,1.32400e-01,1.63958e-02,5.29632e-02,-1.96508e-01,8.86308e-02,2.43705e-02,4.88812e-02,2.10910e-02,-1.11748e-03,7.99830e-03,-1.22805e-01,-7.69721e-02,7.17171e-02,-3.54246e-02,5.62726e-02,-1.12054e-01,5.10926e-02,-1.90874e-01,5.76091e-03,1.10031e-01,5.46517e-02,-8.22545e-01,-1.80130e-02,-6.43809e-02,-2.60078e-02,-4.91100e-02,1.13113e-01,3.59858e-02,-1.50339e-02,4.61719e-02,5.93705e-02,-1.53925e-02,-1.70054e-01,-3.29231e-02,1.03324e-02,4.57163e-02,-2.86469e-02,-1.39886e-02,7.36139e-02,-8.30572e-02,1.90849e-02,3.28030e-02,5.12295e-02,-3.88799e-02,-7.01537e-02,1.06503e-01,3.87275e-02,-2.61524e+00,-3.06304e-02,4.26648e-02,6.67004e-02,-1.13713e-02,6.30658e-02,-1.24253e-01,-1.55457e-02,-5.64072e-02,5.10000e-02,-1.29960e+00,-1.05993e-01,6.31139e-02,-1.09334e-02,2.97820e-02,-1.32282e-01,-5.61353e-01,7.38709e-02,7.69622e-02,-7.72694e-02,-4.95123e-03,-1.14906e-01,4.17457e-02,-4.39338e-02,-4.17548e-02,3.14481e-03,7.52303e-03,7.53018e-02,-5.30562e-02,1.02464e-01,4.94176e-02,-1.17889e-01,-8.82443e-02,1.16916e-01,
-1.41029e-02,-4.89199e-02,6.71876e-02,1.94051e-03,9.19012e-02,-4.02534e-02,8.09590e-02,2.22613e-02,-1.08334e-02,-3.15409e-02,-4.27240e-02,1.02706e-01,2.42503e-02,-5.88752e-03,7.49229e-02,-1.17408e-02,1.41258e-01,1.18735e-01,1.03063e-01,1.84143e-02,-8.53195e-03,-1.33121e-02,-3.33303e-02,-8.44417e-02,2.50280e-02,2.25329e-02,6.34387e-02,2.30971e-02,9.09967e-02,-5.11282e-02,1.33399e-01,-5.39457e-02,9.38798e-03,-4.68353e-02,-1.21262e-03,9.19819e-02,6.95332e-02,-2.75818e-02,6.48930e-02,-1.61968e-02,6.39027e-02,2.73662e-02,8.67539e-03,-6.01332e-02,-5.84856e-02,-6.44093e-03,-1.90024e-02,1.31356e-02,3.55058e-02,-4.33463e-02,7.72691e-02,-1.59582e-02,-2.02321e-02,1.08416e-01,7.80053e-02,-4.90586e-02,-4.68389e-02,5.61187e-02,-2.67581e-02,1.59790e-01,7.57314e-03,-1.83675e-02,1.61029e-01,-8.91025e-02,8.63117e-02,-2.16652e-02,-6.03525e-02,-1.43072e-01,3.61645e-02,-2.15123e-02,-7.89804e-02,2.23486e-02,9.36193e-04,1.04172e-02,3.60229e-02,1.19320e-01,-1.45970e-01,1.09618e-01,-3.14920e-02,1.16523e-02,7.11619e-02,7.76997e-02,-2.20782e-02,-1.48695e-02,4.47998e-02,-5.65197e-02,5.61925e-02,-3.38952e-02,1.34120e-01,-3.25132e-02,7.56640e-02,9.86628e-02,-8.10263e-02,6.23099e-02,1.08495e-01,-3.04911e-02,-8.76680e-02,1.84830e-02,5.35783e-02,-3.13240e-02,
-4.54259e-02,-4.79602e-02,-1.81619e-03,5.73707e-02,1.13683e-01,1.21193e-01,4.53499e-02,-6.43539e-02,1.77694e-01,5.29088e-02,3.86319e-02,-3.32371e-02,1.04712e-01,1.13185e-01,-8.54755e-02,9.17736e-02,-2.97147e-04,-2.59086e-02,1.40653e-01,-2.57193e-02,-1.71148e-03,-3.84495e-02,-5.44355e-02,6.25232e-02,5.46027e-02,-6.72214e-02,4.23201e-02,2.10563e-02,4.14739e-02,-3.11113e-02,1.29740e-01,1.39951e-01,-1.07861e-02,8.61118e-02,1.14304e-01,-2.57711e-02,1.58043e-01,6.38336e-02,4.83345e-03,5.76298e-02,-6.50785e-02,-3.02588e-02,-3.37218e-03,3.70707e-02,1.42462e-01,-3.64641e-02,-1.06467e-01,1.92185e-03,-3.54986e-02,1.09195e-01,-2.74861e-02,7.44771e-02,-4.56209e-02,1.28500e-01,8.83528e-02,-1.32824e-01,-3.10926e-02,-2.63759e-02,8.50176e-02,4.19695e-02,5.93317e-02,1.53363e-01,-5.89749e-02,6.64865e-02,-4.54762e-02,1.27821e-01,1.36544e-01,-3.97461e-03,1.30010e-01,-3.52744e-02,1.58677e-02,-7.37562e-02,7.85602e-03,-9.34574e-02,-7.39819e-03,1.03923e-01,2.45833e-01,-9.50025e-02,3.02386e-02,3.71368e-02,-3.43937e-02,1.03155e-01,3.99116e-02,9.46309e-03,8.52544e-02,1.26690e-02,-7.00433e-02,-9.24767e-02,1.27135e-01,-7.36715e-02,-5.67807e-02,5.40662e-03,-3.96523e-02,-8.38483e-02,-3.40586e-02,2.01845e-02,-4.07985e-02,7.77280e-02,-4.09119e-02,1.02680e-02,
-7.70022e-02,-1.54653e-02,-9.08543e-02,8.44163e-02,-1.38759e-01,3.41475e-02,4.14225e-02,-4.05791e-02,6.33067e-02,1.98521e-02,1.20975e-01,3.02285e-02,1.04945e-02,-8.12713e-02,7.90358e-02,7.96865e-02,-1.03439e-01,9.16633e-02,-6.81066e-02,4.40690e-02,4.55649e-02,-4.02252e-03,-4.70914e-02,-1.29514e-02,-5.60300e-02,6.51005e-02,1.05353e-01,-6.47817e-02,5.47693e-02,-3.00416e-02,1.84221e-02,1.08323e-01,1.05788e-01,-1.95041e-02,6.68436e-02,5.82308e-02,5.71969e-02,2.88684e-02,-3.93535e-02,-6.35464e-02,-8.29988e-02,-1.55281e-02,-4.85605e-02,9.52734e-03,6.27348e-03,-5.95098e-02,4.27148e-02,5.43721e-02,9.70490e-03,-6.89833e-02,-5.27066e-02,-8.97980e-02,6.58788e-02,-5.75162e-02,3.25245e-03,1.26656e-01,3.81846e-02,1.43707e-01,-5.31001e-02,-3.75666e-03,1.43936e-01,2.58946e-03,-3.03259e-02,-1.37955e-01,7.67002e-02,5.15732e-02,2.14947e-02,1.19416e-01,-7.41531e-02,1.00981e-01,4.11083e-02,2.18750e-02,1.92286e-02,-2.41483e-02,-5.23380e-02,-5.79429e-02,1.81400e-01,-4.24800e-02,-1.01322e-01,-1.09274e-03,-9.14124e-02,-7.02113e-02,-7.31472e-02,1.47922e-01,9.47437e-02,6.39299e-02,-4.76509e-02,1.37421e-01,6.07869e-02,7.88347e-02,-2.09346e-03,9.38672e-02,2.39122e-02,1.41176e-02,2.60916e-02,4.21975e-02,5.55413e-02,5.31821e-02,-2.33913e-02,-8.34368e-02,
-1.16432e-01,5.79308e-02,8.60246e-03,5.39723e-02,-4.58210e-02,1.01471e-02,4.92737e-03,5.89436e-02,-6.95304e-02,-8.73459e-02,2.07836e-02,-7.18372e-02,-4.02530e-02,4.99075e-02,-9.44079e-02,6.16128e-02,-9.99851e-02,3.95267e-02,-4.96759e-02,-6.99973e-02,-8.12510e-02,-4.00197e-02,-9.85157e-02,7.79142e-02,-3.56595e-02,-6.86123e-02,-3.30596e-02,-3.11085e-02,7.26573e-02,6.14739e-02,-2.30382e-02,-4.81466e-02,-2.88386e-02,-5.02970e-02,-3.02397e-02,1.35454e-02,-8.98980e-02,8.08827e-03,-5.34948e-02,-9.38433e-02,4.62976e-02,-7.54577e-03,-9.68921e-02,-3.22665e-02,7.61300e-02,8.95519e-02,8.00657e-02,-6.95133e-02,5.93380e-02,-1.28218e-02,-1.86770e-02,6.91950e-02,6.02385e-02,-5.32846e-02,8.45342e-02,7.35952e-02,-9.40020e-02,-7.15961e-02,6.86579e-03,-2.06933e-02,-3.39666e-02,3.38908e-02,-9.76842e-02,-6.28562e-02,5.40913e-02,-1.20156e-02,2.10373e-02,-2.36112e-02,2.37839e-03,1.38572e-02,5.02852e-02,1.92155e-02,-7.18786e-02,2.56145e-02,-5.70767e-02,-4.48980e-02,-5.99175e-02,-6.25831e-02,-5.76135e-02,-2.21385e-02,-2.83498e-02,7.77793e-02,-5.70959e-02,6.20273e-02,4.88046e-02,-4.15552e-02,-1.14333e-02,-1.94160e-02,5.80282e-02,-1.22121e-02,-4.63575e-02,-5.94488e-02,5.73294e-02,3.36613e-02,-2.44759e-02,-8.60324e-02,-1.15108e-01,-1.14379e-01,-1.31784e-02,8.26832e-02,
8.97644e-02,-1.82624e-01,6.63070e-02,-1.48356e-01,-4.57982e-02,4.29523e-02,4.17762e-02,1.03085e-01,-3.76660e-01,4.50023e-02,1.45929e-01,4.64480e-02,-5.82354e-02,5.76805e-02,-1.46680e-01,-1.98530e-02,1.08151e-01,2.92633e-02,5.34407e-02,-4.76622e-02,-6.33400e-02,3.58411e-02,1.03807e-01,6.25577e-02,2.66042e-02,-5.03084e-02,-7.94423e-02,-1.39692e-01,2.08499e-02,9.35550e-02,-3.77738e-02,5.15420e-02,2.29716e-02,1.21600e-01,4.64065e-03,-1.13507e-02,-7.64266e-02,4.74761e-02,7.73480e-02,-5.26773e-02,4.29828e-02,3.29603e-02,4.62773e-02,6.72055e-02,-4.36622e-02,-8.47435e-02,2.43429e-02,2.01338e-02,2.92622e-02,-8.96112e-03,-1.38820e-01,4.38990e-03,3.64983e-02,-2.76688e-02,1.06374e-02,-8.03020e-02,5.77166e-02,5.53482e-02,2.47511e-03,-2.01436e-03,-1.13591e-01,6.24824e-02,-4.46590e-02,-1.97091e-02,-1.84616e-01,-1.43657e-01,-1.42810e-02,3.98874e-02,1.41938e-03,5.35851e-02,5.14911e-03,-1.39465e-01,5.61859e-02,4.20616e-02,-9.57034e-02,1.15263e-01,1.31053e-01,7.09770e-02,4.23358e-02,7.05979e-02,-4.81121e-02,-1.73550e-01,-6.62059e-02,-1.73812e-01,6.94701e-02,6.52952e-02,1.69002e-02,-1.61855e-01,9.87824e-02,-1.50539e-01,-8.34961e-02,-1.82245e-01,-1.44188e-01,4.54305e-02,3.78944e-02,-6.67989e-02,-2.75625e-02,-1.99350e-02,-8.13450e-03,-1.58351e-01,
-1.66920e-02,1.83236e-01,7.48402e-02,7.90821e-02,-1.91049e-02,3.08325e-02,-9.84718e-02,8.74518e-02,5.31186e-02,1.98145e-02,3.60631e-01,2.96355e-03,-4.07945e-02,9.39759e-02,4.95988e-03,3.25638e-02,-9.07430e-02,1.72434e-02,6.20669e-02,-5.57927e-02,-5.04466e-02,1.92863e-02,-5.21252e-02,1.77718e-01,6.32335e-02,-1.62605e-01,-8.52208e-02,4.00135e-02,-8.80897e-02,-4.54135e-02,-4.13646e-02,1.36944e-01,1.63281e-01,-2.85648e-03,9.85604e-02,1.25845e-02,-4.61110e-03,-3.33570e-02,-1.09756e-02,-3.35223e-02,6.71867e-02,-9.80519e-02,1.07557e-01,-4.33784e-02,1.22989e-01,-2.17855e-02,6.72137e-03,6.03011e-02,-2.15958e-02,5.98840e-03,8.37180e-02,-1.23883e-01,-4.65845e-02,-1.08026e-01,3.25506e-02,1.04650e-01,-5.37143e-02,-2.63782e-02,-4.66104e-02,4.23660e-02,1.60948e-01,3.34576e-02,-8.57942e-02,-1.64719e-01,-3.00452e-02,-1.60520e-02,2.22713e-01,-3.22985e-02,-6.64722e-02,-3.46231e-02,-4.15395e-02,1.31841e-01,8.84050e-02,4.06788e-02,-3.79392e-02,3.35141e-02,4.33856e-01,-2.20292e-01,3.25287e-02,6.40498e-02,1.46485e-02,-1.63751e-01,-1.44085e-01,1.71407e-02,-1.00845e-01,6.88085e-02,6.53959e-02,1.71460e-01,3.44543e-02,-2.17527e-02,-1.54104e-01,4.28856e-02,-7.31719e-02,-1.34627e-01,1.12714e-01,1.07847e-01,4.25654e-02,-1.93127e-01,1.41656e-02,-8.47257e-02,
-3.27960e-03,1.14390e-01,1.35010e-01,5.43986e-02,1.18612e-01,3.57165e-02,1.41894e-01,-2.49153e-03,-5.85996e-02,-1.79141e-02,-1.15803e-01,7.05923e-02,-1.34641e-02,-5.32076e-02,3.99819e-03,5.08467e-02,8.64091e-02,2.39971e-02,1.18394e-01,-9.83187e-02,-1.28217e-01,-5.87483e-02,9.96450e-02,-3.25608e-02,4.10153e-02,1.68841e-01,1.01299e-01,-5.72661e-02,-4.48786e-02,7.13718e-02,5.37222e-02,-3.29524e-02,7.96971e-03,1.68565e-02,-6.34765e-02,5.81452e-02,-3.45935e-02,1.02822e-01,1.03069e-01,1.05780e-01,-4.75922e-02,-7.25169e-02,1.35448e-01,3.85101e-02,-3.41511e-02,-9.31448e-02,3.39157e-02,6.10547e-02,-1.95402e-02,-9.14430e-02,-3.79260e-03,-7.25181e-02,-6.86512e-02,5.80349e-02,-1.26440e-02,5.63391e-02,-1.00986e-01,6.92532e-02,-5.52061e-02,-3.85960e-02,-7.94840e-02,1.02075e-01,8.74686e-03,-1.29917e-02,1.37937e-02,-1.91954e-02,-7.09787e-02,3.29501e-02,1.63048e-04,3.84069e-02,2.80555e-02,2.55774e-02,1.54763e-01,-2.37357e-02,3.05798e-02,-3.83980e-02,-2.73411e-01,8.32898e-02,2.36238e-02,-8.35746e-03,2.66980e-02,1.14540e-01,5.52100e-02,8.13529e-02,-1.06305e-01,1.05848e-01,4.17122e-03,-5.97147e-04,-2.51619e-02,-2.66647e-02,1.00848e-02,8.36493e-02,-3.25956e-02,-1.20896e-02,2.75885e-02,-4.41075e-02,-3.03111e-02,1.05360e-01,1.00038e-01,5.40900e-02,
-1.57450e-01,1.92601e-02,5.98219e-02,7.92898e-02,5.14480e-02,3.24139e-02,2.24547e-02,1.15730e-01,-8.83816e-03,4.54519e-02,1.40614e-01,-1.18361e-01,-5.90906e-02,-4.01349e-02,4.52694e-02,-1.02468e-01,-1.93618e-01,-7.77306e-02,-1.17791e-01,-2.06061e-02,-1.46041e-01,6.17536e-02,8.48190e-02,1.60492e-01,-9.09385e-02,1.15276e-01,5.36415e-02,1.07951e-01,-1.73718e-02,1.62741e-01,-5.16215e-02,-7.16623e-02,2.72975e-02,2.91913e-02,5.96411e-02,2.06317e-02,-6.25256e-02,7.41595e-02,1.95841e-01,-6.21716e-02,-5.54893e-02,5.37299e-02,6.91199e-02,5.79869e-02,-5.82443e-03,9.51172e-02,-1.70981e-01,-2.14826e-02,-1.85317e-02,3.31055e-02,2.50285e-02,-2.73818e-02,1.06722e-02,6.72627e-03,-9.30925e-02,3.06781e-01,-8.83576e-02,-1.42652e-01,-1.11154e-01,-1.94601e-02,4.33114e-01,7.03538e-03,-2.92702e-02,-3.99510e-02,-2.57810e-03,1.57724e-02,-3.13313e-01,6.74769e-02,-9.51779e-02,-4.21581e-03,1.57955e-02,2.12778e-01,2.15552e-03,-8.27507e-02,-3.41869e-02,2.09838e-03,-1.83645e-01,1.28015e-01,-7.29124e-03,-1.19189e-01,-1.12770e-02,-1.21490e-03,2.45277e-03,1.10899e-01,6.80007e-02,-5.88185e-02,-6.73415e-04,4.11391e-02,-1.28833e-01,1.49922e-02,1.10043e-01,3.37480e-02,5.19703e-02,6.74426e-02,1.25809e-01,6.89341e-02,1.61195e-02,7.04770e-02,1.77600e-01,6.58604e-02,
-4.91362e-02,-2.53009e-02,-8.11881e-03,-7.95154e-02,-7.29957e-02,1.22137e-03,-1.09448e-01,5.15444e-03,-1.20063e-03,-1.02071e-01,3.58538e-02,7.01371e-02,-9.35009e-02,1.48966e-02,2.30301e-02,-9.21317e-02,-1.37807e-02,-2.52892e-02,-3.21358e-02,-7.32725e-02,2.76251e-02,2.82913e-02,7.02442e-02,2.37837e-02,-5.88917e-02,3.00223e-02,-7.76501e-02,3.44095e-02,9.55481e-03,2.10900e-02,5.47353e-02,-1.09619e-01,-3.36319e-02,-1.14526e-01,-6.37212e-02,-2.48595e-02,-1.15073e-01,-8.31568e-02,-8.70795e-02,-4.46999e-02,-5.98158e-02,8.33316e-02,8.11377e-02,-6.80118e-02,7.58040e-04,-8.30765e-02,5.87884e-02,3.34155e-02,-1.64309e-02,6.93071e-02,8.13402e-02,-8.48545e-02,-7.92638e-02,-3.72530e-02,2.01931e-02,4.12448e-02,-4.91687e-02,9.26149e-03,-4.58059e-02,4.21269e-02,-9.93535e-02,-2.50574e-02,8.13703e-02,-3.57140e-02,-1.08485e-01,-3.12328e-03,-4.54117e-02,7.73165e-02,-9.16778e-02,-1.37571e-02,-7.28106e-02,-9.74209e-02,-9.49356e-02,-7.59271e-02,-2.42742e-02,-2.40361e-02,2.45357e-02,-6.39276e-02,3.97589e-02,-1.06514e-01,-2.57114e-02,1.06121e-02,1.67558e-03,-4.63054e-02,1.22738e-02,-4.51669e-02,-3.52009e-02,-9.61409e-02,-1.00214e-01,-5.91232e-02,-6.81129e-03,-2.70233e-03,9.27447e-03,-3.21427e-02,-1.14634e-02,-3.24499e-02,1.20307e-02,-7.89751e-03,-7.57802e-02,2.47079e-03,
1.11661e-01,4.41057e-02,1.84990e-03,7.13727e-02,-4.03926e-02,9.39278e-02,-9.10621e-02,-3.41174e-02,1.43289e-01,-2.12125e-02,-1.15614e-01,3.71052e-02,1.33086e-01,-1.97862e-02,-2.06636e-02,7.46180e-02,-2.55296e-02,6.07154e-02,3.26190e-02,9.54375e-02,-1.32710e-02,2.19565e-02,-2.83833e-02,1.15516e-02,-9.54550e-02,3.08271e-02,1.96092e-02,-2.22096e-02,-3.06995e-02,7.12593e-02,6.25904e-02,1.16708e-01,5.58613e-02,8.26176e-02,-8.69962e-02,1.56944e-02,-4.63460e-03,1.60955e-03,5.84056e-02,-3.06542e-03,1.21798e-01,-3.40439e-02,7.41408e-02,-2.77488e-02,8.59613e-02,-2.19582e-02,1.65668e-01,1.36413e-01,1.31482e-01,9.73605e-02,-7.36207e-02,1.66651e-02,5.46547e-02,6.95680e-02,-5.89176e-02,9.09815e-02,1.56859e-02,-1.90584e-02,6.43328e-02,-2.66587e-02,7.76529e-03,-1.77602e-03,9.78520e-02,1.33550e-01,1.11908e-01,1.24120e-01,1.57967e-01,-1.36030e-01,8.13678e-02,-5.08764e-02,-6.37859e-02,6.97818e-03,1.22841e-02,-2.05836e-02,-2.22083e-02,1.08595e-02,1.65812e-01,2.39650e-02,1.80882e-02,3.62668e-02,1.31327e-02,3.42995e-02,6.60447e-02,-6.65609e-02,1.44217e-01,-6.62479e-02,-3.83608e-02,-3.40911e-02,-6.28565e-03,-2.38926e-02,-1.38120e-01,3.31537e-02,7.03894e-02,2.68701e-03,-1.43292e-01,2.21229e-02,1.80572e-01,7.99076e-02,-7.97624e-03,-2.54413e-02,
1.10760e-01,1.40400e-03,-4.70863e-02,-7.95333e-02,-3.08821e-02,-2.65347e-02,-5.62885e-02,5.80673e-02,5.69041e-02,-5.06256e-02,4.11495e-02,1.04789e-01,-2.20702e-02,6.75534e-02,7.88434e-02,-3.98228e-02,-2.87293e-02,1.55869e-02,1.94783e-02,2.70106e-02,1.68086e-01,1.96727e-02,1.09119e-01,-1.24416e-02,1.34642e-01,1.01491e-01,3.68292e-02,-6.35430e-02,3.36800e-02,-5.08547e-02,-7.86766e-03,2.78724e-02,-8.54561e-03,8.64207e-02,-6.14382e-03,3.01003e-02,8.13307e-02,-5.41943e-02,-8.04691e-02,7.13445e-02,5.27457e-03,-1.92359e-02,6.01816e-03,-1.32400e-02,-1.63326e-02,1.87232e-02,7.43836e-02,-6.09773e-02,1.36343e-01,-1.00064e-02,9.98761e-02,-1.07529e-01,5.30951e-02,-5.90257e-02,-1.23350e-02,1.22631e-01,9.15762e-02,1.26347e-01,-2.23491e-02,-3.66044e-02,1.82509e-02,-7.67549e-02,-1.99833e-02,1.11039e-01,-7.66327e-02,-2.41362e-02,-4.64671e-02,1.59746e-01,-1.14578e-01,4.23372e-02,5.41433e-02,9.16697e-02,5.84329e-02,1.31798e-01,-6.85801e-03,2.22966e-02,1.32028e-01,-2.23563e-02,8.70413e-04,-9.77974e-02,5.32094e-02,7.60605e-02,5.33589e-02,3.72932e-02,1.48508e-01,-1.09679e-02,1.17522e-01,2.86593e-02,-3.19175e-02,1.82689e-02,6.44207e-02,-3.83948e-02,8.46368e-03,-4.46418e-02,2.39346e-02,4.16561e-02,4.11628e-02,6.63191e-02,-6.75486e-02,-9.56891e-03,
-4.09560e-02,3.31480e-02,6.15839e-02,-7.68377e-03,-5.25365e-02,-2.13766e-02,4.05917e-02,6.83797e-02,1.55602e-01,3.20198e-05,2.58548e-01,4.95233e-02,-6.14346e-02,-2.98089e-02,6.81159e-02,1.99904e-02,-1.03548e-02,3.31424e-03,-6.88453e-02,4.90838e-02,5.67860e-02,9.03706e-02,9.21422e-02,1.24647e-01,1.42914e-01,7.20600e-02,8.80424e-02,4.52585e-02,9.14349e-02,1.03525e-01,7.88152e-02,-2.61388e-02,8.62763e-02,1.87996e-02,7.21250e-02,-7.94219e-02,5.73318e-02,2.74219e-02,1.09021e-01,-4.70254e-02,-7.36134e-03,-4.35519e-02,9.07601e-02,-6.70678e-02,-8.63066e-02,-6.66034e-02,-3.28382e-02,-5.30062e-02,1.37872e-01,1.26314e-02,1.31063e-01,4.84202e-02,-4.66440e-02,-5.38502e-02,1.99802e-02,-7.21817e-03,8.05340e-02,3.38218e-02,-5.00936e-03,-7.84275e-02,2.25304e-01,-2.59404e-02,-3.47526e-03,-5.62181e-02,-7.19345e-02,5.87299e-02,-8.68964e-02,2.28269e-02,-6.14579e-02,-9.33715e-03,-4.58777e-03,1.12464e-01,-6.59476e-03,7.97666e-02,6.82039e-02,-3.50235e-02,-2.33407e-02,-4.96511e-02,-3.04226e-02,-9.32502e-03,-1.04260e-01,3.80260e-02,7.89307e-02,1.30462e-02,-1.66581e-02,-7.00669e-03,-2.58089e-02,5.18777e-02,9.11718e-02,2.38322e-02,8.49675e-02,1.21518e-01,1.33833e-01,1.04743e-02,7.65235e-02,-8.99016e-02,3.40099e-03,5.87661e-02,-5.81959e-02,8.12883e-02,
-5.23453e-03,2.83612e-02,4.11196e-02,7.78875e-02,-6.35634e-03,3.58524e-02,6.75741e-02,-5.91009e-02,-2.62722e-02,7.34657e-02,-5.75862e-02,-1.10451e-01,-8.93126e-02,-5.56859e-03,-8.12654e-02,7.10308e-02,4.50231e-02,7.84076e-02,-2.40709e-02,-4.67511e-04,-8.63668e-02,-7.54276e-02,8.42981e-02,7.80188e-03,-5.78437e-02,5.06403e-02,-1.15081e-01,-5.34271e-02,-4.96436e-02,-9.21947e-03,-6.36763e-02,-8.90314e-02,-3.66765e-02,-1.22914e-01,3.79159e-02,-9.73948e-04,-3.33407e-02,-8.95238e-02,2.68353e-02,-1.68265e-02,-1.09301e-01,2.80184e-02,-7.85560e-02,-1.15251e-01,-4.34887e-02,-1.03419e-01,4.34091e-02,2.35576e-02,3.94131e-02,-4.42068e-02,3.53548e-03,9.67938e-03,-7.64985e-02,4.54737e-03,-8.89288e-03,-3.58057e-02,6.23655e-02,5.95694e-02,6.11267e-02,-5.36544e-02,2.24866e-02,-5.83793e-02,-4.87876e-02,5.63935e-02,-6.32060e-02,-5.64007e-02,-4.27754e-02,-1.19563e-01,-2.43186e-04,5.74630e-02,8.92098e-04,7.29870e-02,-1.06765e-01,-7.97842e-02,6.58550e-02,-8.67648e-02,-7.43652e-02,-8.90624e-02,-5.00276e-02,-8.26676e-02,5.96757e-02,1.37645e-02,1.43815e-02,-2.90788e-02,-6.87339e-02,-5.00000e-02,-7.35573e-02,-2.11173e-03,5.70386e-02,-7.80239e-02,-2.03636e-02,-2.98279e-02,-4.71520e-02,-2.05257e-02,5.29311e-02,6.65891e-02,7.06591e-02,-1.16654e-01,-8.96943e-03,-9.26365e-02,
2.61792e-02,-9.23185e-02,6.35360e-02,1.77976e-02,3.07401e-03,1.17441e-02,1.03379e-01,5.22253e-02,-2.10652e-01,-5.82968e-02,-1.46460e-01,-2.40731e-02,-4.12674e-02,-4.63775e-02,7.20851e-02,1.14971e-01,1.15849e-01,3.17078e-02,-1.16996e-01,-2.61535e-02,8.47646e-02,8.04622e-02,1.81052e-02,-3.21740e-02,-5.41431e-02,1.21290e-01,-3.96607e-02,5.79194e-02,-1.83658e-01,-2.43635e-02,1.16405e-02,-5.12592e-02,-3.73980e-02,1.04089e-01,6.55411e-04,-4.91097e-02,4.09344e-02,-3.81718e-03,-2.04801e-02,-5.51471e-03,-1.18756e-01,-4.76813e-02,1.79227e-02,8.38560e-02,-3.87147e-02,1.18896e-02,5.83772e-02,-5.20208e-02,9.64675e-02,-6.54442e-02,6.08176e-02,4.42959e-02,-3.25495e-02,7.17991e-02,-7.60524e-02,1.61086e-01,3.81209e-02,4.12137e-02,-4.40719e-02,8.46771e-02,-1.41195e-01,-3.15580e-02,1.05103e-01,-9.46048e-02,6.13031e-02,1.48903e-01,-3.82408e-02,2.64662e-02,2.05487e-03,-6.32591e-03,5.36204e-02,-8.21444e-02,2.28728e-02,6.30855e-02,-1.37065e-01,-3.62895e-02,-5.92438e-01,1.97800e-01,6.38727e-03,4.83486e-02,-5.31143e-04,1.06319e-01,3.36020e-02,-9.50762e-02,3.88001e-02,-1.65211e-02,3.21133e-02,3.35459e-02,-1.59949e-02,-3.34627e-02,2.56206e-01,-1.02530e-02,3.57612e-02,-3.76130e-02,-5.61860e-04,-8.91259e-02,-7.50674e-02,8.64740e-02,4.16614e-02,3.62957e-02,
4.72698e-02,1.49221e-01,-8.01024e-03,-4.73102e-02,-1.31865e-02,9.83567e-02,1.67640e-01,3.58393e-02,1.82209e-01,-6.97355e-02,2.71921e-01,-3.33224e-02,-3.89598e-02,8.61317e-02,-7.85468e-03,7.43306e-02,1.12937e-01,-2.97922e-02,2.70011e-02,8.25333e-02,-8.87420e-02,7.54298e-02,5.23557e-02,3.47945e-02,5.44889e-02,3.95749e-02,8.01750e-02,-7.00048e-02,2.98447e-02,3.00454e-02,1.33681e-01,-5.25491e-02,-5.04296e-02,2.40940e-02,8.85611e-02,4.41756e-02,9.89516e-02,1.43640e-01,-4.36888e-02,4.63783e-02,9.87345e-02,-8.48771e-03,1.44064e-01,-1.43556e-02,1.57113e-01,3.24023e-02,-1.02914e-01,-9.48898e-02,1.27295e-01,-1.07607e-02,-7.05658e-03,4.87511e-02,-3.41334e-02,1.25246e-01,1.11937e-01,-1.61150e-02,-7.79417e-02,-3.70967e-02,-7.73854e-02,1.46890e-01,1.61682e-01,1.55137e-01,-6.50722e-03,8.05032e-02,5.41408e-02,1.44391e-02,1.41215e-01,5.67103e-03,1.30994e-01,-3.86429e-02,8.01464e-02,-5.10053e-02,9.64034e-02,-9.14443e-03,1.67425e-02,3.24463e-02,2.46312e-01,4.04809e-02,5.04400e-02,-4.87641e-02,4.09233e-02,7.25924e-02,-2.75203e-02,7.91599e-02,5.61564e-02,-1.28893e-02,-3.69846e-02,-3.88815e-02,8.45475e-03,-4.38883e-02,-9.38854e-02,4.39534e-02,2.09698e-02,3.66315e-02,1.56891e-01,1.86217e-02,-1.13279e-01,2.87004e-02,1.11757e-02,5.00590e-02,
6.82014e-02,-7.82715e-02,-6.16323e-02,-7.17966e-02,2.52417e-02,-5.55594e-02,-1.03371e-01,-8.41699e-03,-6.48033e-02,-8.17630e-02,3.75036e-02,-5.86119e-02,-2.30616e-02,1.15014e-02,6.05106e-02,-4.96588e-03,-5.00179e-02,-6.12323e-02,6.54997e-02,-6.83823e-02,1.86713e-02,-6.96515e-02,-5.56366e-02,3.41291e-02,-1.15533e-02,-9.57874e-02,-9.13954e-02,-7.91806e-02,4.99143e-02,2.62982e-02,-4.91305e-02,-6.91535e-02,-4.35461e-02,-6.99237e-02,1.06005e-02,-8.68258e-02,4.41204e-03,-1.89579e-02,-3.30770e-02,-8.27646e-02,7.16654e-02,6.21461e-02,6.93955e-03,8.14666e-02,-8.27571e-02,6.62242e-03,-6.26834e-02,-7.55207e-02,-7.31748e-02,-8.55591e-02,-1.56530e-02,1.57310e-02,4.58494e-02,-3.79221e-02,6.86876e-02,-1.06247e-01,-6.44781e-02,-2.51847e-02,-6.59628e-02,2.27609e-02,-1.35399e-02,3.32843e-04,2.54569e-02,-1.27812e-02,-1.22466e-02,-6.58053e-03,5.59543e-02,6.32684e-02,-1.20135e-02,-8.88570e-02,-5.85640e-02,-1.68585e-02,-3.37379e-02,-8.90415e-03,-9.31688e-02,-2.45414e-02,-6.39108e-02,7.15807e-02,6.08156e-02,4.22094e-02,-2.07902e-02,5.31067e-02,4.11580e-02,4.96725e-02,-9.59499e-02,-6.49958e-02,-8.52307e-02,-2.89427e-02,6.23154e-02,1.72327e-02,-6.79298e-02,-2.68393e-02,2.61257e-02,-4.29704e-02,-2.88405e-02,-6.54681e-02,4.13287e-02,-8.13537e-02,5.69265e-02,-1.78606e-02,
