// Neural Network File Format by Kyle Julian, Stanford 2016
5,6,4,100,
6,100,100,100,100,4,
0,
0
0
0
0
1.59943e-01,-6.24213e-02,-3.02576e-01,-7.72213e-01,3.11329e-01,-3.18311e-02,
4.13633e-02,1.44207e-01,1.17350e-01,3.21236e-01,3.54818e-01,2.34450e-01,
-2.71760e-01,-1.43976e-01,-6.23032e-01,-3.63112e-02,3.88211e-02,2.46882e-01,
-8.14001e-02,-5.47328e-02,1.42872e-02,2.76386e-01,1.27540e-01,-2.33573e-01,
-1.97223e-01,1.72775e-01,-9.34055e-02,-3.13775e-01,3.37728e-01,1.08815e-01,
-2.68125e-01,-5.32429e-03,3.91393e-01,-7.40788e-01,1.05873e-01,3.59837e-01,
-4.71156e-02,-1.63716e-01,3.73594e-01,-1.20935e-01,-1.19408e-01,-1.11148e-01,
-1.95069e-01,1.30540e-01,1.57623e-01,-2.00814e-01,-2.12820e-01,-3.91829e-01,
2.07453e-01,-2.33556e-01,9.12738e-03,-8.18428e-01,-9.96995e-02,2.00769e-01,
-1.18715e-01,-3.60223e-02,-5.37266e-01,-3.29927e-01,-2.87539e-01,-3.58854e-01,
-1.12801e-01,2.18588e-01,-3.90440e-01,-4.01602e-01,1.08682e-01,2.58142e-04,
2.95305e-01,-3.07838e-01,-4.44796e-01,-1.13341e-01,5.50595e-01,3.98120e-01,
-2.67832e-01,3.11009e-02,1.57924e-01,6.26598e-01,-1.18106e-01,5.63732e-01,
1.41423e-01,8.65963e-02,-3.25995e-01,-4.37829e-01,-1.75722e-01,2.56989e-01,
1.91581e-01,-8.83497e-02,-2.81802e-01,-7.29291e-01,-2.76722e-01,-4.54527e-02,
8.46323e-02,9.90051e-02,-1.52278e-01,9.53354e-02,2.95272e-01,-2.03277e-01,
1.71209e-01,-1.95482e-03,1.04493e-01,9.34395e-01,-3.19495e-01,2.66427e-01,
-6.92136e-02,-3.40265e-01,2.63633e-01,7.54147e-01,4.31251e-01,-4.86494e-01,
-2.85274e-01,-2.69724e-01,-3.57785e-01,7.20633e-01,4.06007e-01,-4.71253e-01,
-2.14598e-01,1.63532e-01,2.34719e-01,-2.21395e-01,-1.93752e-01,-3.70138e-01,
-2.38069e-01,-2.97813e-01,5.69123e-01,-5.67764e-01,2.88109e-01,3.95803e-01,
-2.58676e-01,-1.15106e-01,4.09532e-01,-4.77218e-01,4.49209e-01,-2.63704e-01,
2.50243e-01,-3.12762e-01,-2.79500e-01,4.58632e-01,-4.23648e-01,-7.39561e-02,
-8.89539e-02,7.63544e-02,-1.66894e-01,5.22492e-01,-1.88771e-01,-5.66694e-02,
2.52931e-01,-1.27599e-02,2.90815e-01,1.66474e-01,-3.02428e-01,-3.03158e-01,
1.75466e-01,1.16509e-01,-7.38275e-01,2.99078e-01,1.75934e-02,-1.22349e-01,
-1.58645e-01,1.28788e-01,-1.05961e-01,6.61465e-01,1.36649e-01,2.41434e-01,
2.83736e-01,-2.58188e-01,6.62077e-02,4.69704e-01,-4.77518e-01,-1.52507e-01,
2.87148e-01,1.35809e-01,-4.20270e-01,4.72925e-01,-3.90936e-01,1.34051e-01,
9.12108e-02,2.15722e-01,-6.06292e-01,-4.35098e-01,2.34626e-01,-1.24193e-01,
3.06574e-01,4.14019e-02,3.37260e-01,6.70318e-01,4.75889e-01,3.67809e-01,
1.45386e-01,6.44284e-03,-2.10351e-01,-3.46536e-01,9.87113e-02,-3.07387e-01,
2.14587e-01,1.23200e-01,5.92907e-01,-1.71212e-02,-8.13046e-02,-2.57738e-01,
1.62584e-01,1.14920e-01,-3.91390e-02,-3.60596e-01,2.93718e-01,-2.15960e-01,
2.51598e-02,1.58993e-01,9.27792e-02,-4.82050e-01,1.48760e-01,-9.44652e-02,
-1.85313e-01,-6.63676e-02,-4.73573e-01,5.78137e-01,2.41070e-01,-1.55365e-01,
-1.20168e-01,1.05682e-01,2.24098e-01,6.09088e-01,-2.11190e-01,7.03488e-02,
-2.77287e-01,-9.02217e-02,-1.90303e-01,7.34543e-01,-1.27879e-01,2.27971e-01,
-4.42847e-03,1.23022e-02,-2.37092e-01,1.03039e-01,1.21955e-01,5.46781e-02,
2.70764e-01,-1.19489e-03,-3.76986e-01,7.57683e-01,-1.07286e-01,-3.68791e-01,
2.17605e-01,-1.39630e-01,4.19941e-03,5.38622e-02,-6.15206e-01,2.49309e-01,
-2.06621e-01,-1.43923e-02,-1.94774e-01,-4.28895e-01,4.97386e-01,-2.32353e-01,
2.07161e-01,7.63863e-02,-2.77932e-01,4.09075e-01,-4.03268e-01,2.58111e-01,
-1.20280e-01,-2.79905e-01,7.59204e-01,5.60879e-01,-2.94266e-01,1.69495e-01,
7.21675e-02,-2.76378e-01,4.89447e-01,-3.44980e-01,-1.41999e-01,-1.95704e-01,
5.35595e-02,-7.81339e-02,6.25383e-02,-2.01740e-01,-4.23622e-02,1.24015e-01,
1.45884e-01,-1.94793e-01,-3.33242e-01,-7.23570e-01,1.33108e-01,-1.47398e-02,
-1.21522e-02,1.88902e-02,-4.56926e-01,5.64429e-01,-2.34912e-02,3.80924e-02,
2.23664e-01,-1.07339e-01,4.72865e-01,2.14511e-01,3.76115e-01,-3.06349e-01,
1.11242e-01,-2.28452e-02,5.30178e-01,-2.58981e-02,-2.94504e-01,1.35610e-01,
1.83582e-01,1.74968e-01,2.57709e-01,-4.68019e-01,-2.64402e-01,3.21068e-01,
-1.87470e-01,9.37366e-02,-4.00502e-01,-1.04191e-01,-4.16933e-01,2.90959e-01,
-2.35072e-01,1.87302e-01,-2.59824e-02,-1.61282e-01,-1.79905e-01,-3.42744e-01,
2.83806e-01,-1.90955e-01,-2.62434e-01,2.95238e-01,3.08784e-01,5.55572e-01,
-2.73953e-01,-1.94280e-01,-2.46401e-01,-2.98028e-01,-5.42632e-02,2.03062e-01,
-2.45837e-01,1.10796e-01,-5.74481e-01,-2.30113e-01,-3.95505e-01,3.30429e-01,
3.02032e-01,9.45272e-02,-1.74880e-02,-7.44901e-01,-3.15864e-01,4.46764e-02,
2.16132e-01,-1.56471e-01,-3.13999e-01,7.15756e-02,4.16070e-01,4.45094e-01,
2.47295e-01,-1.73416e-01,3.66932e-01,9.03381e-01,1.76009e-01,-3.40568e-03,
2.44389e-01,7.84823e-02,2.89913e-01,-7.18936e-02,3.12317e-01,1.46292e-01,
-1.20307e-01,1.44197e-01,-5.58441e-02,7.94543e-02,1.08482e-01,8.15612e-02,
1.50459e-01,-1.39486e-01,7.57595e-01,-8.04270e-01,8.50744e-02,-1.25904e-01,
1.22483e-01,4.28086e-02,6.10538e-01,3.61653e-01,3.19267e-01,3.99025e-01,
-1.89441e-01,-2.25973e-02,-2.03750e-01,-3.98510e-01,-2.98123e-01,-2.35441e-01,
-1.36840e-01,-1.77047e-01,3.79704e-01,-2.46614e-02,-1.80922e-01,2.03523e-01,
1.64396e-01,-5.28233e-02,5.23004e-01,7.40919e-02,2.32883e-01,-1.83707e-01,
-1.89753e-01,2.10679e-01,-5.86407e-03,7.36508e-01,9.40123e-02,-1.60186e-01,
-5.83523e-03,1.61459e-01,-2.66336e-01,-8.48937e-02,-3.08570e-01,3.23824e-01,
-1.61679e-01,1.01609e-01,-2.98567e-02,-3.45247e-02,4.55143e-01,-1.86476e-01,
-2.09427e-01,9.92711e-02,-2.39389e-01,-5.88725e-01,-1.55919e-01,-4.67668e-01,
-2.09586e-01,1.42725e-01,-3.24956e-01,-7.91735e-01,-1.48964e-01,3.84668e-02,
-1.77741e-02,-3.36801e-01,-4.05387e-01,6.60713e-02,-3.99736e-01,-3.77456e-01,
8.24519e-02,6.14213e-02,1.04219e+00,-7.85392e-01,-2.04030e-02,-2.67792e-01,
1.28309e-01,-5.63502e-02,4.94107e-01,-6.07407e-02,7.71757e-02,2.39291e-01,
-2.04044e-01,2.12175e-01,3.03346e-01,8.50965e-02,-3.83740e-01,-2.78147e-01,
-3.02825e-01,2.83504e-01,3.67000e-03,-5.08548e-01,5.05121e-01,1.56132e-01,
-2.25595e-01,-1.40675e-01,-3.18401e-01,-7.09792e-01,2.06127e-02,1.01215e-01,
-6.25115e-02,-1.64468e-04,-2.97017e-01,-6.42951e-01,1.36876e-01,-1.39932e-01,
-1.64873e-01,7.41630e-02,2.26354e-01,6.09767e-01,2.57767e-01,4.83472e-02,
-1.26649e-03,-8.05351e-04,-3.17829e-01,7.56633e-01,-6.14416e-02,1.02622e-01,
-2.22434e-01,-1.07897e-01,5.14565e-01,6.65749e-01,2.62510e-01,-3.72635e-01,
2.70336e-01,-1.24160e-01,1.65282e-01,5.54611e-01,2.11283e-01,5.82973e-01,
-1.60724e-01,1.08696e-01,3.96249e-02,-5.29804e-02,4.58919e-01,-1.78219e-01,
-4.82948e-02,-2.59921e-01,-1.44714e-01,7.75872e-01,-2.45071e-01,1.55374e-01,
2.43144e-01,1.11956e-01,1.30116e-01,-7.24504e-01,1.00074e-01,-1.89833e-01,
-2.60018e-01,1.10592e-01,-2.80210e-02,-4.88771e-01,-1.97759e-01,-5.34172e-01,
-7.22494e-02,2.77569e-01,-5.13943e-01,3.48797e-01,1.42040e-01,2.00495e-01,
-1.76261e-02,-2.47871e-01,1.26729e-01,9.16023e-02,4.31298e-01,-4.24711e-01,
1.46131e-02,3.23583e-01,3.96497e-01,-6.60263e-02,3.80413e-01,3.66032e-01,
2.30848e-03,-1.91760e-01,2.95121e-01,1.60739e-01,3.59759e-01,-3.67043e-01,
-1.24348e-02,4.92339e-03,4.80739e-01,-7.85136e-01,4.57132e-02,-5.93703e-02,
2.85513e-01,-3.75329e-02,-1.31571e-01,-6.54093e-01,1.09145e-01,-5.97928e-01,
1.21465e-02,2.06620e-01,-2.27433e-01,-2.64193e-01,-3.36269e-01,3.56106e-01,
-2.62738e-01,1.89370e-01,3.88487e-01,-8.24297e-02,-5.10373e-01,-5.45162e-01,
4.79161e-02,2.28927e-01,-1.78755e-01,-5.23816e-01,-2.91502e-01,3.36442e-01,
3.43062e-01,2.31033e-01,3.63923e-01,4.42545e-01,3.87523e-02,-2.53453e-01,
-5.11053e-02,-2.35846e-02,3.29050e-01,-1.10200e-01,2.65846e-03,9.85850e-03,
1.11731e-02,2.14438e-01,-1.37831e-01,-9.21623e-02,-3.87187e-01,3.87644e-01,
1.92905e-01,2.41101e-01,-4.61931e-01,4.61193e-01,-2.43675e-01,-3.23548e-01,
-8.26716e-02,1.56247e-02,3.22865e-01,4.84775e-01,3.50797e-02,3.92284e-02,
3.44586e-01,
-4.03434e-01,
4.60831e-01,
2.45708e-01,
-4.51995e-02,
3.12987e-01,
6.34370e-01,
3.95184e-01,
-1.57115e-01,
3.29463e-01,
-3.98387e-01,
-1.45704e-01,
-3.92386e-01,
1.19237e-01,
-7.34968e-01,
-2.16961e-02,
-5.86470e-01,
-1.75189e-01,
4.80935e-02,
-3.23082e-02,
-1.08332e-01,
-6.60903e-01,
4.63707e-02,
2.56903e-01,
3.49810e-01,
-2.84844e-01,
-8.84089e-02,
1.34519e-02,
5.90692e-01,
4.13750e-01,
-5.69468e-01,
4.49566e-01,
-3.13467e-01,
4.66401e-01,
5.46803e-01,
-4.71914e-01,
1.22813e-01,
8.64832e-01,
1.25457e+00,
-3.42623e-01,
7.40591e-03,
1.63394e-01,
5.53330e-01,
-5.54467e-01,
1.21930e-01,
1.02986e+00,
-5.34308e-01,
5.42403e-01,
5.34608e-01,
3.77586e-01,
-3.11887e-02,
-1.11055e-01,
-3.92103e-01,
-4.95201e-01,
-3.36047e-01,
-6.82798e-01,
2.32294e-01,
3.29896e-01,
-1.27013e-01,
7.71315e-01,
6.60614e-01,
-8.87493e-01,
-2.83530e-01,
3.49569e-01,
6.18653e-01,
6.44395e-01,
2.54519e-01,
-3.90098e-02,
-3.06462e-02,
-6.32578e-01,
1.33661e-01,
3.26193e-01,
-5.02948e-03,
2.21068e-01,
1.07731e-01,
7.70509e-03,
-1.03521e+00,
1.06634e-02,
6.44298e-01,
6.12860e-01,
-1.99657e-01,
2.80521e-01,
5.81098e-02,
-8.68119e-01,
-9.01817e-01,
-1.43371e-01,
-1.30551e-01,
-5.58853e-01,
-2.89268e-01,
-1.07189e-01,
3.63600e-01,
3.69364e-01,
8.20635e-03,
-3.69241e-01,
1.06094e-01,
2.09648e-01,
6.44754e-01,
5.03285e-01,
9.15953e-02,
4.87492e-01,
-2.23190e-02,1.12474e-03,5.23377e-02,3.50597e-02,-9.72362e-02,-9.17875e-02,-6.16076e-02,-9.13016e-02,-7.73745e-02,-5.57239e-02,7.05428e-02,-3.18379e-02,-1.53827e-02,1.22970e-01,7.82968e-02,-8.52592e-02,-8.02840e-02,-9.81743e-02,-5.88140e-02,-6.84268e-02,-1.12226e-01,4.68690e-02,5.54302e-02,1.21317e-02,-8.97022e-02,1.98056e-01,-9.13832e-02,8.04543e-02,-3.89769e-01,-2.05895e-01,-7.67186e-02,9.17360e-02,3.35161e-02,-1.76862e-01,-1.35309e-01,2.37902e-01,-3.48390e-01,-4.54236e-02,2.98636e-02,1.78714e-01,-3.37625e-02,1.23411e-02,-9.73243e-02,-7.15977e-01,-8.72150e-02,-1.22727e-01,1.03642e-01,2.88075e-01,-3.12318e-02,-1.57304e-01,4.19810e-02,-6.66232e-02,-1.60618e-02,9.74398e-02,6.99750e-02,3.12812e-01,1.06402e-01,7.44149e-02,3.84161e-01,-2.89590e-01,-1.32846e-01,5.89052e-02,2.90511e-02,-6.44945e-02,-1.00242e-01,-4.69812e-01,2.14906e-02,6.68942e-02,1.81606e-01,9.95868e-02,-5.30888e-02,-3.50855e-02,1.31614e-02,-9.96169e-03,-2.00119e-01,-4.44300e-03,-7.18160e-02,8.70501e-03,2.15702e-02,-5.18347e-02,-6.07734e-02,-2.77941e-02,1.82628e-02,4.03230e-02,2.28048e-01,4.01352e-02,-7.09505e-02,2.13281e-02,-1.46272e-01,-1.58325e-01,1.67583e-01,1.16613e-01,1.19739e-01,1.21774e-01,7.56970e-03,1.79354e-01,-9.56765e-02,-7.96811e-02,-3.36122e-02,-3.92453e-01,
-1.13867e-02,8.56202e-02,4.19906e-02,-3.70620e-02,4.93295e-02,1.42927e-01,1.10575e-01,1.43117e-01,-3.38726e-02,7.16246e-02,4.40995e-03,1.11029e-02,-1.00208e-01,3.75723e-02,-4.25666e-02,-7.05631e-02,8.20503e-03,2.19684e-02,-1.37154e-02,4.78617e-02,-1.01100e-01,-7.06339e-02,-1.13146e-02,-3.61755e-02,1.00862e-01,1.04237e-01,-4.81361e-02,1.41232e-01,-1.51605e-03,-2.52133e-05,-1.83266e-02,7.32704e-02,2.11722e-02,-4.82638e-03,-5.92675e-02,6.28937e-02,3.80596e-02,-9.08241e-04,-1.69694e-02,-1.77528e-02,2.13745e-03,9.50033e-02,1.16598e-01,1.49143e-02,7.96113e-02,-7.59953e-02,-6.95498e-02,9.95050e-02,-4.77190e-02,-2.05169e-02,3.41757e-02,7.83924e-02,4.81305e-02,-1.15968e-01,3.23605e-02,-3.43236e-02,1.30598e-02,-4.46636e-02,1.79653e-02,4.58715e-02,-4.49482e-02,5.14291e-02,5.35281e-02,1.06070e-01,6.32424e-02,-3.60084e-02,-3.83974e-02,4.77197e-02,-4.58412e-02,6.31619e-02,6.76872e-02,1.51186e-02,1.11852e-01,-1.79006e-02,1.26603e-01,-4.94606e-02,-1.02159e-01,8.17674e-04,-2.17957e-03,-4.15393e-03,-6.12594e-02,4.51228e-02,3.30423e-03,8.53445e-02,7.42148e-02,1.51810e-02,2.47522e-02,2.98005e-02,-2.64178e-02,6.30514e-02,-2.34269e-02,1.04678e-01,-7.46090e-02,1.59176e-01,4.97372e-02,9.14993e-02,8.50334e-02,-6.09893e-02,1.60605e-01,-1.86251e-03,
-8.91901e-03,-3.02933e-02,-2.44040e-02,6.73775e-02,-5.31966e-02,1.24444e-01,-5.00112e-02,-6.18654e-02,-1.22273e-01,8.79771e-02,5.03776e-02,4.89808e-03,9.00370e-02,-1.57293e-01,7.01615e-03,4.96419e-03,1.36008e-01,8.87686e-02,1.29241e-01,-6.83758e-02,1.44810e-02,1.49810e-02,4.65162e-02,-1.97279e-02,-8.60714e-02,6.94382e-02,3.29592e-02,1.09854e-01,1.31025e-01,-6.39003e-02,1.49801e-01,3.82041e-03,7.67278e-02,9.72783e-02,-6.02087e-03,2.75725e-01,9.11655e-02,1.24992e-01,-2.45759e-02,8.40193e-02,-7.45017e-02,-9.92307e-03,1.69906e-01,-5.17434e-02,7.46920e-02,-3.92593e-02,-5.98080e-02,1.76801e-03,6.56937e-02,-9.40769e-03,-2.96578e-02,2.40405e-03,-3.83915e-02,-2.76290e-02,-7.01030e-02,-5.90052e-02,-1.09575e-01,1.86604e-02,-2.53481e-02,-3.72843e-02,2.78102e-02,-1.00734e-01,9.66147e-02,2.89356e-03,-7.92887e-02,-4.03454e-02,1.25691e-01,6.56946e-02,-6.95286e-02,-1.35852e-01,-1.97524e-02,2.31514e-02,1.45664e-01,2.79141e-02,9.36635e-02,9.81873e-03,-1.09263e-01,-1.44101e-01,1.19521e-01,-8.57020e-02,5.19955e-02,7.45538e-02,-8.47008e-02,1.84774e-02,-1.73224e-01,-1.02393e-01,1.97975e-02,-2.89305e-03,6.22238e-02,-9.88458e-02,3.92093e-02,1.01981e-03,-6.96187e-02,5.96302e-02,-1.04148e-01,1.00437e-01,9.09024e-02,-3.00006e-02,3.82014e-02,3.23223e-01,
-5.05233e-02,-6.42424e-03,4.24485e-02,-1.28442e-03,-6.66837e-02,-9.74826e-02,4.94641e-02,6.25720e-02,8.02473e-02,1.39476e-01,6.02153e-02,-3.75422e-02,1.93558e-02,-6.05044e-03,5.55392e-02,7.51613e-02,-1.04992e-01,4.78619e-02,-5.57799e-02,-9.20942e-02,6.18825e-02,1.56157e-02,7.85200e-02,1.66449e-03,-1.04504e-01,4.95163e-02,6.71321e-03,-6.72357e-02,9.88504e-02,-5.90559e-02,-5.26035e-02,7.47136e-02,-6.86355e-02,-4.53146e-04,7.63057e-02,-5.08716e-02,6.25535e-02,-8.35353e-02,-2.95801e-02,5.98169e-02,-2.93144e-03,-4.77150e-02,-4.18437e-02,-4.07618e-03,4.13218e-02,1.24225e-02,-2.16193e-02,9.83072e-02,-8.56103e-02,7.56261e-03,6.94800e-02,-3.63150e-02,1.02155e-02,6.32249e-02,8.54368e-02,5.00663e-02,-1.89637e-02,-2.33903e-02,4.39207e-02,-2.81646e-03,5.15967e-02,5.35849e-02,1.64147e-02,4.50749e-02,-3.38017e-02,-5.19501e-02,4.01991e-02,4.27997e-02,6.87555e-02,-2.45745e-02,1.03916e-01,1.66308e-02,1.27084e-01,7.90059e-02,-5.10172e-02,4.83846e-02,1.25639e-01,1.27163e-01,-5.42589e-02,1.21455e-01,-1.81003e-01,-1.06538e-01,-2.82116e-02,4.48709e-02,3.89402e-02,6.03145e-02,-8.59367e-04,5.80640e-02,-6.11397e-02,-1.06782e-02,9.25220e-02,7.61547e-02,-6.79219e-02,5.76052e-02,1.11598e-01,-8.06594e-02,-7.00563e-02,-6.87807e-02,-7.26837e-02,-3.83761e-02,
-8.45976e-02,-2.41418e-02,-7.76682e-04,1.45034e-01,4.40880e-02,-4.20146e-02,3.34499e-03,8.04089e-02,-9.33868e-02,5.85026e-02,6.23739e-02,6.21308e-02,-4.12412e-02,-9.25802e-03,3.20280e-02,3.38967e-02,-2.48629e-02,2.04044e-02,1.01789e-01,-1.89181e-02,-5.81098e-02,-5.08258e-02,-2.17615e-04,3.94668e-02,8.99807e-02,3.76294e-03,-8.38330e-02,-6.77590e-02,-2.62515e-02,3.30209e-02,-5.67348e-02,1.04546e-01,1.02455e-01,7.83972e-02,-1.50969e-02,2.35680e-02,-8.52769e-03,7.68025e-02,1.05591e-01,-1.55211e-02,-9.34602e-02,1.66783e-03,-8.83486e-02,-9.70248e-02,-4.31429e-03,5.75893e-02,-9.97640e-02,9.73326e-02,9.25930e-02,7.49839e-02,-6.84192e-03,-7.40736e-03,2.85769e-02,2.34623e-02,9.30432e-02,1.42157e-06,6.76618e-02,4.54326e-02,-6.79322e-02,6.12415e-02,-5.80826e-02,-8.93463e-02,8.90223e-02,6.33361e-02,1.06802e-01,4.50812e-02,8.62120e-02,-7.24584e-02,5.96261e-02,6.83961e-02,-8.50899e-02,5.06226e-02,2.32959e-02,-8.35905e-03,9.41312e-02,5.27876e-02,-1.06885e-01,-1.25737e-01,1.22633e-02,3.51680e-02,6.49782e-02,8.01006e-02,-2.48316e-02,-1.06937e-01,-8.57740e-02,5.80237e-02,4.07946e-02,7.46918e-02,-4.69195e-02,-5.25947e-02,2.09437e-01,1.56098e-02,-1.40302e-02,-2.74216e-02,-4.19168e-02,2.06044e-02,-2.64288e-02,5.17343e-02,3.82819e-02,1.39120e-01,
2.81519e-03,7.26611e-02,4.49047e-02,-3.55675e-03,6.04910e-02,-1.18731e-01,-5.69564e-02,5.88004e-02,-4.45015e-02,9.26787e-02,-2.00965e-02,8.00985e-02,5.19581e-02,-1.03165e-01,-3.94334e-02,3.17268e-02,1.44894e-02,8.03773e-02,1.95819e-02,-9.55107e-02,-9.44644e-02,-1.34194e-01,4.08926e-02,6.04902e-02,-3.23302e-02,-9.73533e-03,4.71238e-02,4.84791e-02,5.25453e-02,-1.27730e-02,2.58331e-03,3.05451e-02,4.43726e-02,-4.34521e-02,-3.53469e-02,1.32467e-02,-7.07201e-03,2.70857e-02,1.25819e-01,1.22517e-01,7.11522e-02,2.86244e-02,1.15286e-01,5.63704e-02,-4.78249e-02,-2.71826e-02,1.94939e-02,2.07766e-01,-6.26112e-02,-9.25907e-04,-1.12647e-01,1.83992e-02,3.33141e-02,-2.33249e-02,1.09838e-02,2.81482e-02,-7.84391e-02,8.58475e-02,5.85485e-03,-4.15871e-02,1.49160e-02,-2.05289e-02,7.89239e-03,-2.79008e-02,-1.75478e-02,-3.27948e-02,5.78354e-02,1.07868e-01,1.57665e-02,-4.41366e-02,3.48955e-02,6.83318e-03,-1.09467e-01,-8.62520e-03,-8.65776e-03,-1.16907e-01,7.99071e-02,-1.61155e-02,7.24987e-02,1.88761e-01,1.10004e-01,-1.72413e-02,-7.50706e-02,-7.72795e-03,-8.41629e-02,-2.83923e-02,7.96965e-02,7.19980e-02,1.36086e-02,-6.09651e-02,-1.54809e-01,-4.26307e-02,1.68687e-03,-3.67244e-02,-6.79011e-02,4.31033e-02,7.81631e-03,-7.79815e-02,1.56221e-01,7.69994e-02,
5.41735e-02,4.48457e-02,-7.48289e-02,5.47936e-03,5.95817e-02,7.89758e-02,1.23129e-01,-6.13769e-02,2.58486e-02,-2.06696e-02,2.69196e-02,5.30794e-02,-7.48769e-02,7.71039e-02,3.52408e-02,4.20482e-02,-1.44827e-01,-4.77162e-02,-1.21013e-01,1.22821e-01,1.39324e-01,1.95775e-01,-9.87486e-02,-1.39307e-01,9.99943e-02,-8.11281e-02,-3.06122e-02,-5.54336e-02,-4.04908e-02,-1.20077e-01,-6.13985e-02,-1.61057e-03,-3.04423e-02,4.16619e-02,5.19826e-02,-1.30990e-01,1.27981e-02,-1.49703e-01,-1.14001e-01,-1.32993e-01,3.07487e-02,2.91970e-02,3.93799e-02,8.58505e-02,5.90114e-02,1.04570e-01,7.88612e-03,-2.69717e-01,1.91118e-03,4.10611e-02,1.84489e-01,9.20019e-02,-3.88867e-02,-1.18033e-01,-9.67250e-02,1.30694e-01,-2.30402e-03,1.47240e-02,1.90817e-03,8.33887e-02,-7.33411e-02,1.01918e-01,7.04862e-02,3.46240e-02,1.22012e-01,-1.56454e-02,-3.66313e-02,-1.21485e-01,3.33050e-02,1.05734e-01,-1.46740e-02,-6.06763e-02,9.65272e-02,2.34907e-03,6.08419e-02,6.14144e-02,9.65124e-02,1.16696e-01,3.02969e-02,-3.72909e-01,-6.95208e-02,-2.42496e-02,-6.37401e-03,2.40156e-02,1.15427e-01,1.20853e-01,-1.01801e-01,2.05201e-02,4.03537e-02,3.75287e-02,2.88538e-01,6.55243e-02,8.89215e-02,-5.04598e-02,1.17220e-02,3.78291e-02,-3.34646e-02,-8.78868e-02,-1.96295e-01,-7.38131e-02,
6.17050e-02,-8.66771e-02,-2.56482e-02,5.49729e-02,-7.47641e-02,5.27252e-03,-9.62033e-02,-7.92074e-02,5.55411e-02,-5.91255e-02,3.89382e-02,5.80278e-02,1.40653e-01,1.27231e-01,-4.29019e-02,-7.46739e-02,-1.26473e-02,-1.25990e-01,2.52002e-02,-7.46391e-02,4.97569e-02,-9.03503e-02,8.28308e-02,-4.11671e-02,6.81477e-02,-5.98599e-02,6.30519e-02,9.26010e-02,5.78107e-02,3.23495e-02,-6.05588e-03,4.40682e-02,-4.91187e-02,-9.90052e-04,-4.80377e-02,-6.04668e-02,-2.54531e-02,2.54754e-02,2.15007e-02,-6.33640e-03,1.56165e-02,8.60122e-02,7.57461e-02,-7.58068e-03,5.08786e-02,5.00806e-02,7.27614e-02,1.59795e-01,-2.97428e-02,8.59591e-02,1.51661e-02,1.18323e-01,-4.64102e-04,-3.10921e-02,8.93265e-02,1.36277e-01,1.02935e-01,-1.45105e-02,3.50908e-02,-2.90977e-02,7.00439e-02,-3.85734e-02,-8.25016e-02,1.39943e-02,3.42441e-02,5.47612e-02,5.48456e-02,1.53742e-01,-1.20571e-03,-1.30175e-02,1.23265e-01,8.80607e-04,-9.78139e-03,-4.95860e-02,-1.32181e-02,-1.13349e-01,8.98665e-02,-2.98599e-02,7.08003e-02,1.26841e-01,-4.36428e-02,-4.14932e-03,4.89325e-03,2.63594e-02,-9.72194e-02,3.56415e-02,3.42947e-02,-8.59537e-03,1.08253e-01,-8.96710e-02,1.04891e-01,1.70892e-02,1.81554e-02,4.08759e-02,8.05058e-02,-8.40373e-03,2.06649e-03,1.55111e-01,-3.06061e-03,1.35417e-01,
5.78085e-02,1.05681e-02,2.36430e-01,4.13396e-02,7.97097e-02,-1.14876e-01,2.92614e-02,-2.99026e-02,-5.11616e-02,-6.44027e-02,-2.46809e-02,3.57852e-02,1.69024e-02,-1.62190e-03,-1.10252e-01,-3.24733e-03,1.00283e-01,4.78235e-03,1.60834e-02,4.97694e-02,-1.21251e-02,-1.22576e-01,4.95824e-02,3.37072e-03,-8.11195e-03,9.84546e-02,4.44669e-02,6.19952e-02,7.55079e-02,-7.16474e-02,4.90327e-02,-7.25536e-02,5.99215e-04,2.06592e-02,-1.20934e-01,-1.58811e-01,1.18770e-02,-1.04963e-01,-1.08482e-01,1.12562e-01,2.13373e-02,8.44426e-02,-1.81852e-03,2.08685e-02,-4.96739e-02,-2.19723e-01,-2.42618e-02,9.92062e-02,-7.94688e-03,-1.10235e-01,-9.64223e-03,1.16520e-02,-5.05561e-02,-5.68931e-02,1.81196e-02,-5.23492e-02,-1.02312e-01,1.62046e-02,-1.00299e-02,-1.28575e-01,6.34297e-02,-5.79923e-02,8.43709e-02,-1.31228e-01,5.68755e-02,-8.77194e-02,9.10662e-02,8.90810e-02,5.11339e-02,5.40386e-02,6.62467e-02,-1.05312e-01,-1.46282e-01,-3.24813e-02,-1.37615e-01,-1.20535e-01,-1.09052e-03,-8.39266e-02,-1.16708e-01,4.57911e-02,6.61078e-02,-2.30175e-02,-5.60507e-02,-4.70338e-02,-2.87818e-02,4.66247e-02,-1.22548e-03,-1.21048e-01,1.25715e-01,8.14988e-02,-9.39636e-02,-6.51770e-02,-7.80118e-02,7.76813e-03,-1.05480e-01,3.71633e-02,2.52258e-02,4.35797e-02,2.37200e-02,-7.41679e-02,
-3.09876e-02,-3.79956e-02,5.66964e-02,-1.13113e-01,-2.04382e-02,1.20634e-01,-4.31836e-02,-1.10242e-01,7.28367e-02,-3.43079e-02,-9.54803e-02,-4.19118e-02,6.94174e-02,6.85572e-02,-8.18194e-02,1.07750e-01,-3.88569e-02,7.44444e-03,-1.27979e-02,6.46107e-02,2.26341e-02,-2.90391e-02,8.51803e-02,1.40453e-02,-7.11530e-02,1.30467e-01,9.53335e-02,-3.59837e-02,3.77968e-02,7.65627e-04,9.71516e-02,7.79854e-02,-1.53474e-02,1.23941e-01,5.41964e-02,3.27969e-02,4.06850e-04,3.24144e-02,2.09227e-01,-1.10655e-01,-7.46950e-02,4.68105e-02,9.44883e-02,1.89997e-02,-5.26240e-02,3.81703e-02,-4.43826e-02,3.76616e-02,4.09342e-02,4.81686e-02,-2.17490e-02,-5.42885e-02,-5.55787e-03,1.19797e-01,1.57662e-02,-5.36046e-02,-3.43120e-02,1.06827e-01,6.89254e-02,6.23268e-02,1.00163e-01,-1.31744e-01,1.00636e-01,2.66033e-02,2.34447e-02,2.92189e-02,4.26087e-02,-9.25451e-03,-1.42825e-02,-1.14419e-01,1.17370e-01,5.81280e-02,-8.24283e-03,2.57332e-02,4.72077e-02,1.10247e-01,-1.12247e-01,-5.91012e-02,4.39558e-03,8.15714e-03,-4.38621e-02,-1.48666e-02,1.15751e-02,-5.93860e-02,3.49687e-02,-4.78106e-02,-2.79227e-02,2.86294e-02,7.58239e-02,4.06686e-02,1.94062e-01,-7.93062e-02,-3.62892e-02,7.93774e-03,7.36107e-03,-5.85390e-02,8.12766e-02,-4.56181e-02,-9.39942e-03,-7.79413e-02,
-1.08996e-01,-5.02372e-02,7.99144e-02,-1.93514e-03,1.06718e-01,3.37329e-02,5.97983e-02,3.61724e-02,-8.23091e-02,9.56143e-02,6.95591e-02,5.85313e-02,1.18395e-01,1.91684e-02,-4.72350e-02,3.78423e-02,9.71602e-02,-5.36149e-02,5.30748e-02,-9.63704e-02,7.92191e-02,7.41071e-02,-1.05098e-01,-2.10942e-02,4.13204e-02,8.27174e-02,-5.25918e-03,-2.32843e-02,-3.25081e-02,-9.09029e-02,8.32093e-02,-4.72256e-02,-1.56270e-03,2.85853e-02,-4.07774e-02,7.73601e-02,1.40321e-02,2.50010e-02,-1.99048e-02,9.42723e-02,7.19110e-03,4.79633e-02,5.10518e-03,6.12439e-02,-8.97129e-02,2.02735e-02,6.67657e-02,-2.78684e-03,-3.74837e-02,-5.16178e-02,2.18908e-02,5.73703e-02,4.79646e-02,8.54217e-02,-6.09811e-02,5.02491e-02,-2.50290e-02,1.11254e-01,8.05519e-02,-1.22954e-01,-1.12784e-01,-9.18305e-02,4.42460e-02,4.64642e-02,-6.63427e-02,-9.24372e-02,5.34482e-02,2.32898e-02,8.71320e-02,2.44218e-02,2.33022e-02,6.02933e-02,7.70702e-02,6.78528e-03,-9.71561e-02,6.04057e-02,-5.51769e-02,6.71528e-02,5.87386e-02,7.70300e-02,-6.50880e-02,8.18858e-02,-1.27876e-03,-5.34954e-02,-2.68096e-02,-9.68134e-02,7.41831e-02,-5.54772e-03,5.22929e-02,-5.64946e-03,1.04446e-01,-5.19402e-02,-3.58653e-02,-8.07373e-02,7.87035e-02,-1.05953e-02,-1.43475e-01,-9.21998e-02,-7.16807e-02,-7.33685e-02,
-5.07983e-02,-4.14939e-02,2.11660e-02,7.68387e-02,7.05316e-02,-1.35500e-01,-6.87267e-02,-5.08979e-02,5.48364e-02,7.25434e-02,6.11200e-02,4.40441e-02,6.21053e-02,1.15165e-01,-5.58930e-02,1.41830e-01,3.01227e-02,4.76891e-02,7.53437e-02,5.38593e-02,1.20262e-01,-1.98599e-02,-1.04180e-01,2.20401e-02,-2.37932e-02,-1.86631e-02,-6.17470e-02,-7.53240e-02,1.85054e-03,1.76372e-03,-3.06036e-02,7.46250e-02,2.14280e-02,1.74210e-03,5.10799e-02,-1.19316e-01,3.90089e-02,2.53136e-02,-5.17269e-02,-9.39853e-02,-7.70901e-02,-1.33525e-02,1.35659e-02,3.32676e-02,-7.87473e-02,-1.51417e-02,5.17525e-03,1.06943e-01,9.21586e-02,5.11836e-02,7.37453e-02,1.04238e-02,-8.71707e-02,1.80627e-02,6.19788e-02,9.44382e-03,-2.17665e-03,-2.56524e-02,-9.98424e-02,-1.64123e-02,1.14366e-02,1.20359e-01,8.70010e-03,9.04893e-02,4.30503e-02,9.08430e-02,4.84296e-03,8.00013e-02,1.59335e-01,-4.36910e-02,3.02598e-02,9.17469e-03,6.50226e-02,-2.04970e-02,2.28192e-02,-2.31216e-02,1.48793e-01,7.23451e-02,-7.17054e-02,-6.40616e-02,-8.16193e-02,-5.52275e-02,4.04217e-02,-3.42855e-02,4.00717e-02,7.21686e-02,-2.25903e-02,1.11569e-01,4.28142e-02,2.92127e-02,-1.42951e-01,1.23538e-01,2.64310e-02,4.93526e-02,3.03681e-02,8.96526e-03,-2.63207e-02,-9.22309e-02,1.38574e-01,3.55701e-02,
4.62160e-02,-7.34207e-02,-7.00684e-02,3.13276e-02,8.06294e-02,1.10324e-01,8.67960e-02,1.02346e-03,-2.91278e-02,-5.42990e-02,5.86269e-02,8.74736e-02,1.04682e-01,1.82434e-01,-6.95559e-02,-8.09540e-02,-1.22072e-01,3.55347e-02,7.40971e-02,-1.45797e-02,1.43115e-01,5.24892e-02,-3.00806e-02,3.98381e-02,1.10048e-01,-4.80810e-03,4.40119e-02,-1.43233e-02,-1.49862e-03,-7.45074e-03,-5.89645e-02,-2.22826e-02,6.06654e-02,-5.15924e-03,8.02914e-03,-3.54618e-02,-7.79833e-02,-8.38770e-02,9.07644e-03,-5.92789e-02,3.82599e-02,-7.16732e-02,1.43950e-02,-4.11275e-02,-4.94879e-02,-2.76482e-02,-6.13510e-02,1.44598e-01,2.74860e-02,-3.63583e-02,1.46262e-01,3.02909e-03,-2.32632e-02,8.30403e-02,3.72255e-02,-4.82008e-02,-4.21926e-02,4.02301e-02,-4.03221e-02,7.15706e-02,3.00590e-02,2.36684e-03,-3.54557e-03,4.35963e-02,1.08652e-01,4.33532e-02,7.47528e-02,4.37298e-02,-8.62707e-02,1.21452e-02,4.35325e-02,-9.02056e-02,2.16011e-02,-1.65379e-02,-8.77448e-02,2.42764e-02,1.13895e-01,-5.23389e-02,-6.44019e-02,-1.10324e-02,1.79256e-02,-6.74892e-02,-6.43300e-02,-1.98274e-02,1.12237e-01,3.36327e-02,1.40817e-02,1.83316e-02,9.74908e-02,-2.15074e-02,1.55547e-01,-1.42881e-02,4.11496e-02,-4.76773e-03,5.28476e-02,-4.54305e-02,6.63387e-02,1.00801e-01,2.57154e-02,-4.66181e-02,
1.18206e-02,-1.17559e-02,6.23258e-02,-1.36953e-01,-1.83820e-02,-6.22090e-02,9.63339e-02,-9.13624e-03,-8.32904e-02,-2.44551e-02,-1.25265e-01,-6.05593e-02,9.12200e-02,1.16255e-01,6.55464e-03,6.12668e-02,-1.21082e-01,3.51552e-02,-1.15899e-01,7.81879e-02,4.28734e-02,-6.65988e-02,-1.20900e-02,-8.11213e-03,-8.39470e-02,-1.33405e-01,4.82351e-03,-2.02950e-02,3.56725e-02,8.93605e-02,-1.27863e-01,-7.68085e-02,-5.38000e-02,7.38753e-02,7.58671e-02,-8.40198e-02,-8.31423e-03,8.52099e-02,1.11975e-01,-5.05505e-02,6.02339e-02,7.45730e-02,5.30499e-02,4.18322e-02,-3.46090e-03,1.39568e-01,3.06073e-02,1.87668e-04,6.96793e-02,5.73647e-02,1.27413e-01,-1.03085e-03,-5.92259e-02,6.88713e-02,-6.06937e-02,-1.56121e-01,1.33790e-03,-1.69817e-02,-1.31438e-01,5.26443e-03,3.98138e-02,8.71394e-02,4.20955e-02,1.20951e-01,8.54695e-02,4.71484e-02,-2.30936e-02,-7.77993e-02,-2.92138e-03,-5.30724e-02,-1.07320e-01,7.64030e-02,-1.25018e-01,4.34363e-02,3.65354e-02,1.71879e-02,3.60912e-02,1.06724e-01,-4.12823e-02,1.00832e-01,7.94816e-02,7.64743e-02,7.45312e-02,-5.76009e-02,-1.37684e-01,2.38545e-03,-7.93911e-02,-7.29310e-02,-4.36728e-02,3.67443e-02,-2.70472e-01,-3.80387e-02,-9.66848e-02,7.78318e-02,5.06082e-02,7.04748e-02,-3.13701e-02,9.42471e-02,2.43050e-02,1.24584e-01,
-3.41090e-02,1.70870e-01,1.05533e-01,-1.18520e-02,4.09108e-03,-2.50283e-01,-2.12394e-02,-9.24276e-02,-5.34488e-02,-8.67462e-02,-2.57463e-02,2.07933e-02,1.05878e-01,1.36544e-02,3.89441e-02,1.01484e-01,-8.44052e-03,7.05726e-02,5.11278e-02,3.68443e-02,-4.76275e-02,-9.12559e-02,2.03222e-02,1.67238e-01,-3.43572e-02,-6.35151e-02,2.01815e-01,4.25212e-02,9.52661e-02,1.04748e-01,1.11843e-01,-5.41138e-03,-1.15352e-01,-8.57939e-02,-2.36036e-01,4.84725e-02,4.83160e-02,-1.77409e-02,-9.61497e-02,2.90838e-02,3.45447e-02,-9.69112e-03,2.33545e-02,6.78401e-02,-1.37717e-01,-1.03615e-01,3.45641e-02,3.23876e-01,4.58367e-02,8.26012e-02,-2.52380e-01,4.54648e-02,-7.33556e-02,5.33531e-02,7.83957e-03,6.64502e-02,-3.38326e-02,-5.98852e-02,1.20881e-02,-1.29157e-01,-1.69179e-02,1.48346e-01,6.40627e-02,-4.96224e-02,-2.13234e-02,1.78710e-02,1.65779e-01,5.23225e-02,1.15315e-01,2.54949e-03,-7.30391e-02,1.35175e-02,-1.66825e-01,-6.21123e-03,-6.68293e-02,-1.45727e-01,2.80944e-02,-4.48011e-02,6.96814e-02,1.91146e-01,1.15594e-01,-4.06046e-02,-7.43274e-02,1.33438e-01,-8.92749e-02,-2.87282e-02,1.10193e-01,3.71351e-02,-1.03501e-01,-7.26084e-02,-4.25492e-01,2.02453e-03,-1.28850e-02,8.39971e-02,-3.23484e-02,4.64501e-02,-1.70122e-01,3.43990e-03,1.78988e-01,-4.52371e-02,
7.08029e-02,5.03160e-02,3.57092e-05,1.24011e-02,1.07234e-01,1.09789e-01,1.99626e-02,-9.67597e-02,1.00569e-03,7.76723e-02,-1.26961e-01,1.58258e-02,1.53809e-02,1.19550e-01,1.24657e-01,1.27007e-01,9.40601e-02,6.26811e-02,-8.75051e-02,3.61928e-02,-3.18942e-02,8.25103e-02,1.79796e-02,3.66684e-02,-3.46904e-04,8.66353e-02,-2.48877e-02,-7.78302e-02,-3.78511e-02,4.63828e-02,-1.06472e-01,-6.40392e-02,9.02350e-02,-1.15313e-01,7.16271e-03,3.84190e-02,-1.70658e-02,1.24523e-02,2.52833e-02,-3.34699e-03,-3.34178e-02,-4.69781e-02,-6.16706e-02,4.46912e-02,3.88931e-02,-1.53530e-02,-6.39397e-02,-1.38294e-01,-1.01140e-01,-6.27284e-02,-1.48430e-03,7.43127e-02,-1.13422e-02,6.11792e-02,-3.34480e-02,7.48437e-02,8.59711e-02,2.49650e-02,-2.58745e-02,-4.81100e-02,-1.26631e-01,-3.72038e-02,1.41702e-02,3.97374e-02,5.45611e-02,-2.96427e-02,2.13098e-02,-7.39605e-02,-3.42393e-02,-4.84054e-02,3.15360e-02,-6.57756e-03,3.32660e-02,6.41244e-02,7.14613e-02,-4.80238e-02,-4.12067e-02,6.73986e-02,-2.66319e-02,-2.21922e-03,5.80056e-02,6.77153e-02,1.28601e-01,-3.85708e-02,-3.93409e-02,-6.92428e-02,-2.14136e-02,-2.84552e-02,4.12234e-02,3.89932e-02,-1.72868e-01,7.79141e-02,-6.14182e-03,-6.79784e-02,2.28360e-02,-1.08170e-02,8.49049e-02,4.35771e-02,-3.63634e-02,1.70746e-01,
6.63302e-02,-5.52767e-02,1.28947e-01,-1.25372e-02,-5.10761e-02,-1.19308e-02,-4.52838e-02,5.61911e-02,4.88648e-02,-7.06562e-02,4.92554e-02,3.20422e-02,-1.44750e-01,-5.76101e-02,3.43143e-02,1.47342e-02,-4.74764e-02,-9.52750e-02,7.69034e-02,7.41029e-02,-4.17826e-02,-3.95232e-02,4.09552e-02,-1.21038e-01,9.61362e-02,-2.12708e-02,8.58669e-02,-1.26692e-01,-5.51906e-03,-4.21467e-02,5.03267e-02,6.91809e-02,3.02909e-02,-2.07924e-02,6.71547e-02,3.23337e-03,1.41806e-02,7.01850e-02,1.47139e-01,-1.15596e-01,-9.63036e-02,1.14891e-01,1.54909e-01,3.45297e-02,9.06388e-03,-5.33461e-02,-6.47272e-02,-2.14717e-02,8.61988e-02,6.83050e-02,-7.51669e-02,5.22822e-02,-5.73502e-02,-1.18083e-01,-7.54658e-02,-2.90633e-02,-5.62996e-02,5.75227e-02,-5.72385e-03,5.59160e-03,-5.60934e-02,-7.24001e-03,-7.50110e-03,1.98523e-02,3.54228e-02,7.00709e-03,5.80877e-02,9.80321e-02,5.28625e-02,2.99069e-02,-1.38299e-02,6.48988e-02,-2.72616e-02,-3.45570e-02,-1.46006e-02,1.26190e-01,3.49454e-04,5.64248e-02,-2.19629e-02,1.36439e-02,3.76640e-02,8.54560e-02,1.23548e-02,-1.30708e-01,1.11487e-02,-1.04900e-02,7.51642e-03,9.61678e-02,-1.11267e-01,5.19915e-02,-4.49891e-02,5.32788e-02,-2.30855e-02,-1.63312e-02,-1.02524e-01,-9.55912e-03,1.50569e-01,1.92925e-02,-1.79902e-02,1.74005e-02,
1.11647e-01,3.13426e-02,3.26658e-02,6.99511e-02,-7.26668e-02,1.41850e-02,-7.40587e-02,8.12974e-02,2.68551e-02,1.16315e-01,-2.26357e-02,-9.13144e-02,-6.16101e-04,9.25206e-03,8.28429e-02,4.00671e-02,-2.38685e-02,-7.25285e-02,-1.96317e-02,3.96242e-02,8.07831e-02,-6.52918e-02,3.84199e-02,-3.70229e-02,-8.12720e-03,-3.95611e-02,-1.05558e-01,4.45073e-02,5.97120e-02,-5.73943e-02,-1.14163e-02,-6.70820e-02,-4.93149e-02,-7.55705e-02,-2.51572e-02,-2.32157e-02,-5.40255e-03,1.06330e-01,1.50007e-01,-1.17408e-01,-3.46887e-02,-3.91317e-02,-5.82290e-02,-6.48476e-02,2.61739e-02,6.60426e-02,-6.36504e-03,5.75355e-02,3.42767e-02,8.11534e-02,1.09573e-01,4.96346e-02,2.69371e-02,1.30519e-02,4.30997e-03,2.77182e-02,9.40594e-02,8.37384e-02,-4.72325e-03,8.66252e-02,-3.31070e-02,5.88026e-02,4.79044e-02,6.51542e-02,-8.57440e-02,3.25162e-03,2.52202e-02,2.94845e-02,-6.24097e-02,1.15829e-02,1.35832e-01,1.05456e-01,4.31090e-02,-8.87666e-02,-8.76510e-02,-6.66534e-02,1.07254e-02,8.85988e-02,4.12701e-02,-2.59434e-02,2.55661e-02,-8.20478e-02,3.66850e-02,-2.77550e-02,5.16768e-02,6.11642e-02,7.85252e-02,2.28333e-02,-1.25509e-01,-4.86083e-02,-6.13324e-02,3.73536e-02,-5.73161e-02,-3.87054e-02,-4.02434e-02,-5.21678e-02,-4.96047e-02,-2.06959e-02,5.31516e-02,1.47778e-01,
8.92220e-02,5.08748e-02,6.51751e-02,1.28638e-01,-2.06527e-02,-4.07670e-02,6.72494e-03,-6.94366e-02,5.63546e-02,-2.65720e-02,1.76310e-02,1.05510e-01,-8.89419e-02,-7.20205e-02,-3.65736e-02,7.97642e-03,5.04126e-02,8.16043e-02,-5.43360e-02,-3.95819e-02,3.55449e-02,-3.93183e-02,-3.27783e-02,7.34544e-02,-4.61713e-02,-3.21031e-02,-3.65005e-02,-4.32349e-03,-6.51593e-02,-5.81502e-02,4.96099e-02,3.87400e-02,-7.55211e-02,-8.82716e-02,8.29445e-02,1.89183e-02,5.59495e-02,1.31796e-01,1.56545e-01,1.61622e-02,-7.28865e-02,-2.20935e-02,-1.96184e-02,-5.32720e-02,-2.81973e-02,-5.86007e-02,4.83853e-02,1.95175e-01,7.57112e-02,5.29416e-02,-2.53241e-02,3.62228e-03,6.00836e-02,2.35092e-02,-6.59503e-02,-5.49541e-02,2.18593e-02,2.18546e-02,-8.42470e-02,8.61228e-02,-1.35935e-02,-1.13516e-02,7.83166e-02,5.84397e-02,1.03129e-02,-4.58866e-02,-4.62385e-02,-1.24535e-01,6.58126e-02,-8.91680e-02,2.70226e-02,-5.88273e-02,5.20257e-02,-2.63602e-03,1.03759e-03,-5.12441e-02,-4.63499e-02,8.23777e-02,7.98501e-02,2.07444e-01,4.68894e-02,-4.41465e-02,4.93955e-02,2.47367e-02,6.36128e-03,8.91978e-02,6.09611e-02,5.83890e-02,2.45283e-03,7.68500e-02,2.52846e-01,1.11974e-01,2.93419e-02,-2.81263e-02,8.06448e-02,1.02002e-01,-1.45586e-02,-6.15940e-02,7.00663e-02,-5.82969e-02,
3.63848e-02,1.44804e-02,-2.78358e-02,-9.61455e-02,-5.34994e-02,-6.60198e-02,-3.86052e-02,3.28253e-02,-5.30962e-02,-6.20602e-02,-7.99088e-03,1.12081e-03,3.16937e-02,-1.09278e-03,9.06900e-02,1.96286e-01,2.94199e-02,5.97913e-02,-4.25465e-03,8.40721e-02,-9.58251e-03,3.28187e-02,3.94719e-02,8.66203e-02,-2.70000e-02,-1.72679e-01,-1.08005e-01,2.85135e-02,1.61106e-01,9.14154e-03,-6.68383e-02,8.41393e-02,-5.04966e-02,-1.33021e-01,5.50663e-02,-2.25798e-02,-1.44192e-02,1.07649e-01,-1.30340e-01,2.25146e-02,-6.92907e-03,-4.15029e-02,-9.39992e-02,2.10502e-02,-1.96173e-02,-3.88648e-02,9.00652e-02,-1.23998e-01,-4.41226e-02,-8.13831e-02,-7.61074e-03,2.72127e-02,-5.66352e-02,-4.80810e-02,8.40908e-02,-1.97247e-03,8.09191e-02,1.39354e-01,-1.00527e-02,-1.39496e-01,3.48058e-02,1.07336e-01,-6.36021e-02,-2.31904e-02,-1.70265e-02,-5.22411e-03,7.71750e-02,-3.89542e-02,-6.24897e-02,5.36602e-03,2.87827e-02,-7.77145e-02,-1.07316e-01,9.81690e-03,-2.97004e-03,4.23322e-02,1.65131e-02,1.10856e-01,1.09937e-01,-1.75550e-02,5.58607e-03,-7.88530e-02,5.82108e-02,6.05658e-02,3.32927e-01,-7.45325e-02,2.44356e-02,-5.05216e-02,-9.59947e-02,-4.84124e-03,-9.25229e-02,5.51509e-02,3.28423e-02,-4.70193e-03,-6.20653e-02,-3.17882e-01,9.47013e-02,5.11958e-02,-6.84223e-04,1.01903e-01,
-1.05818e-01,-6.10226e-02,2.79904e-02,1.09404e-01,-4.99236e-02,-3.29535e-02,1.21537e-01,9.83568e-03,6.60243e-02,-7.25757e-02,-5.23002e-02,-2.23127e-03,1.38594e-01,1.68873e-02,-9.07744e-02,5.70455e-02,1.52262e-01,-6.60698e-02,-3.65292e-02,3.05377e-02,-7.63853e-02,8.42861e-02,-5.42069e-02,-1.74996e-02,8.48250e-02,-2.14984e-02,-5.31060e-02,-1.01781e-02,3.76083e-02,-1.17963e-01,6.60988e-02,-1.13105e-01,7.79591e-02,-5.21223e-02,3.49045e-02,-6.08453e-02,7.33127e-02,8.96429e-02,-1.38439e-01,-1.88519e-02,6.61087e-02,-1.56672e-02,-1.57803e-02,-5.02085e-02,7.76087e-02,-3.30571e-02,3.20611e-02,2.23744e-02,6.79898e-02,4.37867e-03,4.28700e-02,-1.98637e-02,5.80857e-02,-4.59704e-02,2.12917e-02,1.03799e-01,-5.06521e-02,5.47654e-02,4.10190e-02,7.95983e-02,5.43664e-03,6.16156e-03,2.84430e-02,-2.39427e-02,8.16597e-03,6.82381e-02,4.59983e-02,-6.21803e-02,-6.71083e-02,1.44775e-02,7.98170e-03,1.86210e-02,4.81179e-02,8.06310e-02,1.13275e-01,-1.92251e-02,-6.46224e-02,3.10278e-02,9.31313e-03,4.84414e-02,9.25013e-02,-1.22813e-02,-8.45525e-02,6.57101e-02,-8.98650e-02,-8.51044e-02,-1.26847e-02,2.76651e-02,2.33537e-02,8.37926e-02,-2.85496e-01,-4.22338e-02,-4.26097e-02,7.58025e-02,9.44266e-02,-2.89894e-02,3.93931e-02,8.67244e-02,2.52067e-02,2.09463e-01,
-2.74414e-02,-8.38601e-02,2.06191e-02,-3.70814e-02,3.51080e-02,1.07788e-01,-5.31160e-02,-4.94321e-02,-7.51301e-02,-5.50834e-02,1.06641e-01,6.22300e-02,5.84111e-02,-1.92945e-01,2.81441e-02,8.11282e-02,7.63103e-02,2.73316e-02,1.14909e-01,1.10764e-01,-8.83964e-02,-1.48865e-01,9.37062e-02,5.46958e-02,8.18144e-03,1.66065e-02,-4.12912e-02,-9.72073e-02,-6.52521e-03,-1.74109e-01,9.22381e-02,9.65326e-02,4.10758e-02,2.37242e-02,1.05339e-01,1.23431e-01,-4.18790e-03,1.04880e-01,3.48928e-02,6.46596e-02,4.39571e-02,6.33211e-02,-6.40200e-02,3.94657e-02,4.70950e-02,-1.63126e-02,-3.14219e-02,-9.50759e-03,-8.89639e-02,-1.11677e-01,-3.74706e-03,-1.09366e-02,3.05569e-02,5.60295e-02,-4.65257e-02,5.78135e-02,-3.64277e-02,-6.23162e-02,4.31599e-02,1.16506e-02,-3.92084e-02,-1.36813e-01,8.54015e-02,2.57167e-02,-7.04248e-03,5.48059e-02,1.04805e-02,4.04695e-02,-1.02257e-01,-7.08833e-02,-6.69061e-02,5.03487e-02,8.99419e-02,-1.18079e-01,-1.71785e-02,9.17358e-02,-8.87247e-02,-1.42078e-01,1.04198e-01,2.91841e-02,-7.47992e-02,1.03554e-01,-3.02234e-02,-4.89006e-02,6.08113e-02,-5.23202e-02,4.43992e-02,6.92463e-02,-5.11411e-02,-7.96121e-02,2.07557e-01,-1.06565e-01,-1.33291e-02,2.10911e-02,-9.04738e-02,-9.05260e-02,4.68806e-02,3.06628e-02,-3.05559e-02,-3.90008e-02,
-4.28182e-02,-1.38079e-01,-3.50986e-02,1.40074e-01,-4.62852e-02,4.96233e-02,6.15261e-02,-6.55204e-02,-3.70887e-02,1.43667e-01,1.74823e-02,1.92937e-02,1.94792e-02,5.65182e-02,-9.46105e-02,-6.56504e-02,6.87608e-02,-8.87360e-02,4.29356e-02,-2.08098e-03,-7.80547e-02,-6.80466e-02,8.77345e-03,8.05929e-02,-7.51877e-02,-5.53998e-02,-7.53691e-02,2.49964e-02,1.39823e-01,-8.57762e-02,-9.38748e-02,5.95633e-02,4.53381e-02,-4.86026e-02,-7.73658e-02,-1.31811e-02,-2.43742e-03,8.85669e-02,7.16390e-02,4.87472e-02,-2.84657e-02,5.88539e-02,1.55862e-01,9.91790e-03,3.38866e-02,8.95620e-02,-3.56789e-02,1.41384e-01,3.12609e-02,4.61031e-02,-4.43951e-02,5.74376e-02,3.95762e-02,6.76880e-02,3.75899e-02,-3.81274e-02,4.97990e-02,-4.86941e-02,-2.85472e-02,1.03975e-01,8.82960e-02,-7.99250e-02,4.31070e-02,5.09333e-02,1.12688e-01,4.55653e-02,2.04176e-02,4.73764e-03,-3.24292e-02,-1.10338e-01,5.51343e-02,6.70422e-02,-1.58946e-02,7.38007e-02,-3.87209e-02,1.82926e-02,-3.83914e-03,1.55112e-02,4.91028e-03,5.51183e-02,-3.68655e-02,7.25023e-02,8.64370e-02,2.46513e-03,-6.82456e-02,-6.73346e-02,5.09633e-02,-8.42318e-02,6.30106e-02,-8.06170e-02,2.12639e-01,7.68852e-03,1.05711e-01,-1.03892e-01,-3.54768e-03,-2.87777e-02,7.06332e-02,-4.98589e-02,-2.10986e-03,-1.10336e-01,
-5.74521e-02,4.51489e-02,6.39708e-02,3.90764e-03,5.23513e-02,-2.79016e-02,-4.55936e-02,-1.37079e-02,-5.13423e-02,-2.75275e-02,5.31439e-03,1.68495e-02,-3.10805e-02,8.46770e-02,-1.64174e-02,6.99447e-02,2.08280e-02,-8.75763e-02,1.07507e-02,5.25678e-02,6.46169e-02,1.92478e-02,-1.51403e-02,-6.21585e-02,-3.67750e-02,-5.81953e-03,-3.44353e-02,7.68017e-02,2.05428e-02,2.63135e-02,1.41998e-02,-8.22901e-02,2.51418e-02,8.14751e-03,1.78071e-02,3.57188e-02,-2.10585e-02,7.92478e-02,9.34194e-02,3.57298e-02,1.33240e-01,-1.69452e-02,-3.67648e-02,4.53499e-02,-7.77840e-02,1.33098e-01,7.83767e-02,-1.13197e-01,-1.93107e-02,9.86679e-02,7.48720e-02,1.14437e-02,2.18434e-02,-5.82006e-02,-8.55510e-02,-3.17159e-02,-2.96963e-02,-3.48917e-02,-1.74404e-02,9.22360e-02,5.48604e-02,-1.89829e-02,1.42090e-01,-5.13041e-02,5.99390e-02,5.45443e-02,1.53135e-02,-3.83545e-02,3.79466e-03,-2.87161e-02,7.46070e-02,8.25651e-02,9.20085e-02,7.51188e-02,-6.69254e-02,-5.78758e-02,4.75350e-02,-6.73059e-02,1.31700e-01,3.81748e-02,-1.42982e-02,7.46910e-02,-3.24102e-02,1.10348e-01,-4.75120e-02,-6.67897e-02,9.00035e-02,-3.91058e-02,-5.90892e-02,3.24843e-02,6.82946e-02,-5.39895e-02,-6.08534e-03,-4.55248e-03,1.70137e-02,-6.50606e-02,8.94074e-02,1.08267e-01,-2.88098e-02,1.18164e-01,
8.60793e-02,-2.33831e-03,3.01305e-02,5.05793e-02,4.83818e-02,2.01087e-02,4.57608e-02,-5.18895e-02,-6.97931e-02,-7.50291e-02,4.42194e-02,-3.94066e-02,-4.82308e-02,4.46281e-02,8.32164e-02,3.06634e-02,3.24462e-02,-2.88221e-02,-4.64653e-02,-4.47046e-02,-6.17688e-03,-3.88125e-02,4.38577e-02,3.54498e-02,5.31571e-02,-1.17463e-01,-9.73386e-02,-4.60360e-02,3.17076e-02,6.51875e-02,1.85039e-02,-4.30421e-02,-5.79052e-02,-7.66631e-02,-6.77684e-02,4.84190e-03,-5.66894e-02,-1.03790e-02,5.50308e-03,-3.96376e-02,5.63775e-02,1.87042e-02,-2.64855e-02,-2.98443e-02,1.77876e-02,1.00382e-01,-4.34548e-02,1.29840e-01,4.93223e-02,1.30912e-01,4.51439e-03,2.13835e-04,-2.12076e-03,9.04601e-02,-1.26293e-02,-5.59001e-02,-5.99079e-02,6.17407e-02,-2.73082e-02,3.13844e-02,-7.60652e-02,5.15001e-02,9.22356e-02,6.26481e-02,9.67149e-02,9.34227e-02,-1.06655e-01,1.90435e-02,7.15434e-02,-5.11117e-02,2.90662e-02,-4.69059e-02,8.55971e-02,5.33039e-02,9.97453e-02,4.55927e-02,1.69276e-02,-3.00822e-02,5.35006e-02,2.21725e-02,-1.52315e-02,-2.99420e-02,5.20224e-02,4.90774e-02,3.76201e-02,4.98126e-02,9.02811e-03,-4.83048e-02,-3.16322e-02,1.45630e-02,1.83286e-02,-5.88776e-02,-1.92913e-02,-5.72132e-02,8.24439e-02,-3.44901e-02,1.11659e-01,-1.05187e-02,2.99667e-02,8.73137e-02,
-9.03033e-02,-3.18538e-02,4.94823e-02,3.21545e-02,-7.30646e-02,6.11227e-02,6.28396e-02,1.56967e-01,-2.07100e-04,-9.19953e-03,9.34850e-03,3.43611e-03,-9.55269e-02,-1.38287e-02,-1.83787e-01,-1.82152e-02,-7.17576e-02,-5.42022e-03,2.58216e-02,2.76084e-02,3.54480e-02,-1.00082e-01,-7.06288e-02,4.18863e-03,-7.76603e-04,-1.30033e-01,-3.28385e-02,6.28595e-02,4.39143e-02,-2.76703e-02,-7.71730e-02,-3.37424e-02,-1.35659e-02,9.75270e-03,1.19238e-01,-5.23741e-02,1.99497e-02,7.30794e-02,1.57748e-01,-1.74648e-01,5.99295e-02,2.15745e-02,1.61031e-02,-6.25988e-02,1.02903e-01,1.57873e-01,-5.51298e-02,2.22657e-02,1.21200e-01,-3.19878e-02,5.85413e-03,-9.30267e-02,-2.17974e-03,-8.87405e-02,-1.00611e-01,-1.49113e-01,-3.56211e-02,9.01972e-02,2.93570e-02,4.31352e-02,7.67363e-02,-2.53618e-02,4.51151e-02,-9.35339e-03,6.31617e-02,7.15896e-02,1.59691e-02,-5.82225e-03,-4.60617e-02,-6.79699e-02,-8.20467e-02,4.92688e-02,-2.76128e-02,-1.19243e-01,3.71620e-02,-5.54984e-02,4.71764e-02,-2.92029e-02,1.75600e-01,1.31800e-01,-8.05116e-02,7.28381e-02,2.60004e-02,-1.51228e-01,-1.41230e-01,-7.99575e-02,-8.17718e-02,-7.36916e-02,2.58344e-02,-1.14590e-02,-6.93079e-02,9.75252e-02,1.29087e-01,-4.15939e-02,1.91278e-02,2.39270e-02,2.51868e-01,3.81428e-02,-4.53216e-02,7.51841e-02,
3.42221e-02,9.70856e-02,-1.01289e-01,8.94401e-02,-2.47579e-02,-9.32363e-02,2.53800e-02,-4.21430e-02,-2.42576e-02,-4.55077e-02,-5.20078e-03,-1.04228e-01,1.03052e-01,-4.57870e-02,7.24928e-02,-5.56331e-02,7.50750e-02,-2.65200e-02,-1.60686e-02,-9.91553e-02,6.20225e-02,-6.28994e-02,-2.55144e-02,1.45279e-01,-6.93538e-02,1.18611e-01,4.37011e-02,-2.49453e-02,7.16534e-02,-6.31307e-02,5.79397e-02,-3.79748e-02,1.01369e-01,-6.71850e-02,-7.03450e-03,7.98885e-02,1.16850e-01,7.07675e-02,7.33078e-02,-3.85613e-02,3.51508e-02,-8.44128e-02,3.32701e-02,-6.40873e-02,-9.63677e-02,-2.63454e-03,1.35516e-02,3.74390e-02,3.39071e-03,2.01097e-02,-5.50338e-02,-2.17736e-02,-7.22198e-02,2.59520e-02,-2.07807e-01,-1.24234e-01,2.56339e-02,1.27601e-02,6.40176e-02,1.55195e-02,-3.65716e-02,-5.03753e-02,1.50320e-02,-6.13275e-02,2.23126e-02,8.12380e-02,4.39663e-02,-3.26292e-02,1.91920e-02,-1.05444e-01,-2.32240e-01,-5.47089e-02,5.17672e-02,-1.09706e-02,6.62341e-02,-9.11081e-02,-1.05760e-01,8.83161e-02,7.04578e-02,-4.88482e-02,1.41887e-01,-3.97082e-02,-8.09991e-02,-1.87232e-02,4.04969e-02,-7.36836e-02,-5.96271e-02,1.36964e-02,7.96219e-02,5.69236e-03,-1.52346e-01,3.75907e-02,2.84004e-02,5.47792e-02,6.13853e-03,-1.67760e-02,1.31570e-01,-4.50542e-03,-2.56954e-02,2.30644e-01,
1.89394e-02,5.52561e-02,-1.04327e-01,-9.52007e-02,1.02217e-01,-5.75655e-02,5.93304e-02,-5.79755e-03,4.73662e-02,-5.59559e-02,9.61424e-02,-2.31296e-03,2.94841e-02,-5.36530e-02,-9.16793e-02,-3.26480e-04,1.23694e-01,-4.28388e-02,1.06974e-01,-7.83373e-02,6.42311e-02,8.19280e-02,-1.79880e-02,7.51585e-02,2.96915e-02,-9.42855e-02,2.21136e-02,-8.52937e-02,-7.16135e-02,1.15335e-01,4.96060e-02,-3.14744e-02,-2.55529e-02,5.80696e-02,2.78752e-02,3.62853e-02,1.64267e-04,-5.77903e-03,6.57083e-02,1.15561e-02,3.70324e-02,-4.49764e-02,1.78294e-02,-5.08843e-02,5.72598e-03,-8.70928e-02,-7.28035e-02,3.93893e-02,4.14890e-02,5.69425e-02,-4.33997e-03,2.94989e-02,1.92049e-02,6.61879e-02,-1.09423e-02,-8.80219e-02,-6.20345e-02,5.97818e-03,6.53604e-02,3.32951e-02,3.53852e-02,1.34134e-03,-3.50134e-02,7.33197e-02,7.09534e-02,4.43680e-02,5.38554e-03,9.23581e-03,1.10385e-01,-6.71317e-02,5.17190e-02,-2.23149e-02,8.85261e-03,1.06903e-01,5.47989e-03,-4.72916e-02,-2.25033e-02,2.97768e-02,-8.17792e-02,-8.27838e-02,5.29582e-02,5.95660e-02,1.14818e-01,-2.25322e-02,1.37715e-02,-8.34520e-02,3.90012e-02,-4.44018e-02,-2.26875e-02,-3.48921e-02,-6.59017e-02,3.07996e-02,4.29757e-02,-6.04539e-03,3.81968e-02,-6.84576e-02,8.77142e-02,3.34420e-02,2.44926e-02,5.78786e-02,
-5.39889e-02,-5.49904e-02,2.94000e-02,7.45431e-02,-5.14765e-02,1.06510e-01,5.04075e-03,-3.24317e-02,3.00039e-02,-4.48159e-02,-1.81106e-02,5.80717e-02,1.34389e-01,-3.24485e-04,-5.48363e-02,-2.50159e-02,1.06792e-02,5.98918e-02,-6.46819e-02,-1.69461e-02,3.34001e-02,3.85651e-02,-5.92406e-02,1.00402e-02,9.64833e-03,1.47147e-02,7.03844e-02,-7.26319e-02,1.43351e-02,-1.14307e-02,-6.33420e-02,-5.30572e-02,-2.06005e-02,-6.20410e-02,7.34139e-02,-5.06304e-02,-4.37737e-02,7.88113e-02,-7.28065e-02,-7.90550e-02,4.00714e-02,1.38363e-01,-7.12094e-04,-4.87161e-02,8.73020e-02,-7.92783e-02,7.38427e-02,3.93731e-02,6.65599e-02,7.72341e-02,4.75769e-02,1.35782e-01,8.91945e-02,-3.04823e-02,-1.87197e-02,7.75338e-02,1.02597e-01,4.20232e-02,-5.17813e-02,1.22050e-01,-4.25540e-02,1.13817e-01,1.05621e-01,2.71887e-03,-1.11909e-02,-7.98542e-02,8.72655e-02,1.99310e-02,-3.99118e-02,-5.10334e-02,-7.23673e-03,-1.84393e-02,9.01360e-02,3.81023e-02,3.64274e-02,6.06158e-02,7.17877e-02,-2.37943e-02,-4.30129e-02,3.14482e-02,-3.60671e-02,7.74215e-05,-9.45381e-02,4.57720e-02,-2.46794e-02,-8.69095e-03,-1.05424e-01,8.73492e-03,6.33912e-02,-3.62790e-02,2.43142e-01,5.76528e-02,-9.91613e-02,-6.42744e-02,1.16951e-01,-2.49871e-03,1.22833e-01,-6.00100e-02,8.57849e-02,9.34173e-02,
4.47038e-02,-2.05426e-02,-8.88495e-02,8.21160e-04,5.13857e-02,-4.51522e-02,5.30300e-02,-9.98745e-02,-7.39333e-02,-4.45538e-02,8.85810e-03,1.20993e-03,-9.51432e-02,5.44934e-02,3.22836e-02,7.29540e-02,-2.69317e-02,-8.92724e-03,2.24029e-02,-1.82219e-02,1.17958e-02,7.27437e-02,3.41182e-02,-6.31221e-02,2.46154e-02,9.14189e-02,-1.04771e-01,7.80420e-02,7.36515e-02,1.62104e-02,-2.62586e-02,-4.77190e-02,3.57115e-02,-8.33790e-02,-3.96754e-02,-4.09702e-02,1.39095e-03,1.05637e-03,-5.49251e-02,-1.55295e-02,-1.26519e-01,1.11584e-01,-4.94537e-02,-2.24024e-02,3.15433e-02,-5.14090e-02,-4.77123e-05,-1.37642e-01,9.50447e-02,-7.86500e-02,-9.72137e-02,2.75400e-02,3.24529e-03,-2.10482e-02,6.76702e-02,2.74933e-02,-2.08876e-02,8.08371e-03,-4.65757e-02,7.24382e-02,5.00532e-02,4.33119e-02,8.25422e-02,1.72291e-02,5.85672e-02,4.16026e-02,6.73425e-02,8.74516e-02,5.54917e-02,-1.90868e-02,3.55381e-02,-5.81095e-02,-5.71563e-02,-5.46726e-02,1.33567e-02,3.06612e-02,1.63574e-01,6.80914e-02,8.52695e-02,-6.98584e-02,-2.08419e-02,8.23467e-02,7.94652e-02,1.12723e-02,9.95518e-02,8.50431e-02,4.63407e-02,3.89053e-02,-6.90197e-03,-2.39959e-02,1.83173e-02,1.24555e-01,-1.19420e-02,-5.23456e-02,2.60667e-02,5.26731e-02,8.55705e-02,8.34475e-02,4.41826e-02,8.52508e-02,
8.86182e-02,1.24283e-02,-4.00697e-02,3.65316e-02,1.75837e-03,2.46784e-02,5.96237e-02,-6.17219e-03,1.09598e-01,-2.02950e-02,-8.67721e-02,7.98167e-03,9.18662e-02,5.11176e-02,-4.35075e-03,9.34389e-02,-6.04893e-02,-5.51971e-02,-7.52054e-02,4.76629e-02,5.60179e-02,-6.20518e-02,9.41131e-02,8.93085e-02,7.44500e-02,4.15726e-02,-2.89573e-02,8.65917e-02,8.72066e-02,2.22012e-02,5.07305e-02,1.05708e-02,1.08880e-01,-5.20042e-02,-9.03287e-02,-5.63539e-02,3.38071e-02,7.59963e-02,-1.99640e-02,-5.82546e-02,1.31561e-01,5.21861e-02,1.26188e-01,7.73293e-02,3.61373e-02,-3.33370e-02,-2.32835e-02,9.94766e-02,-5.80899e-02,1.04247e-01,6.28462e-02,1.25354e-01,3.97927e-02,-1.04438e-02,3.29071e-02,2.35411e-03,-4.73289e-02,-5.36989e-02,2.11463e-02,4.12114e-02,8.30723e-02,-8.22340e-02,1.31032e-02,5.07225e-05,-1.62382e-03,1.56870e-02,-3.49710e-02,8.26257e-02,5.02629e-02,2.18667e-02,1.79837e-03,-2.68729e-02,-4.60469e-02,-2.61270e-02,8.88760e-02,5.99971e-03,-6.44928e-02,-7.42043e-03,9.60885e-02,1.20990e-01,5.97947e-02,-5.39674e-02,-5.66986e-02,-2.51572e-02,-4.91691e-03,-7.88008e-03,-8.30762e-02,-3.09112e-02,-1.23448e-01,-3.20727e-02,5.89679e-02,-4.42031e-02,1.14931e-01,1.03489e-01,4.06005e-02,1.74098e-03,-1.48847e-02,9.47230e-02,-8.84734e-03,7.76971e-02,
2.93284e-03,-6.12027e-02,-2.99078e-02,7.05982e-02,-4.67047e-02,3.82100e-02,7.15857e-02,5.56948e-02,-9.69461e-02,-5.31009e-02,-7.72483e-02,4.55054e-02,-2.79981e-02,-1.49535e-02,-3.13105e-02,-3.44597e-02,-2.47828e-03,1.68677e-02,8.72586e-02,3.31811e-02,5.89125e-02,4.71693e-02,6.74159e-02,5.39337e-02,2.70430e-02,-1.51635e-02,4.17844e-02,-6.82129e-02,-7.24386e-02,1.23796e-01,1.84664e-02,9.15884e-03,-5.28312e-02,9.65342e-02,1.13982e-01,8.05157e-02,7.19919e-02,3.89625e-02,-5.68297e-02,-1.62555e-02,5.16412e-02,1.33835e-01,6.39068e-02,6.18121e-02,-3.10484e-02,-5.44788e-02,5.93322e-02,-1.18987e-01,-3.57062e-02,-3.37760e-02,-2.51972e-02,-6.81696e-02,-7.58516e-02,-1.75511e-02,-1.83080e-02,4.18141e-02,7.89446e-02,-9.37634e-02,-2.01319e-02,3.11706e-02,8.08834e-03,-1.15675e-01,2.97535e-03,3.17560e-02,-3.04881e-02,2.41061e-02,4.82124e-02,-4.49505e-02,1.53333e-02,5.51894e-02,-1.85471e-02,-4.34972e-03,-1.17333e-03,-7.88751e-02,6.98658e-03,-3.44647e-03,-7.26340e-02,-1.21031e-01,2.71879e-03,-4.32225e-02,4.73507e-02,9.13190e-02,4.97225e-02,8.77963e-02,2.25765e-02,7.90941e-02,4.33749e-02,-9.17184e-02,-8.52832e-02,7.78785e-02,2.56028e-02,1.17388e-01,-7.17485e-02,-1.22680e-02,4.58727e-02,1.06142e-01,-7.69311e-03,4.04589e-02,3.99542e-02,1.19514e-02,
1.55879e-02,-5.78362e-02,8.60628e-03,1.82820e-02,1.02963e-02,7.67825e-03,7.16305e-02,-1.97742e-02,4.61256e-02,6.02300e-02,-6.65078e-02,4.04685e-02,-8.77981e-02,-2.52955e-02,-4.36082e-03,2.21132e-02,7.83371e-02,4.64941e-02,-5.50973e-02,-1.05347e-01,-8.43660e-03,-1.03887e-01,-7.61315e-02,-4.56245e-02,2.10401e-02,3.21522e-02,-7.01638e-02,6.34119e-02,1.05707e-01,1.56758e-01,1.05080e-01,-7.49364e-02,6.55024e-03,1.10532e-01,-3.38395e-02,-1.19623e-02,-8.39499e-02,1.52811e-01,2.74744e-01,3.88831e-02,-2.56325e-02,-7.83071e-03,7.95867e-02,6.76863e-02,-3.62820e-02,5.85226e-02,-4.90492e-03,8.68647e-02,2.68541e-02,5.70883e-02,-9.62953e-02,4.69209e-02,6.42504e-02,-4.77840e-02,-6.55326e-02,-1.22435e-02,6.23512e-02,-6.28653e-02,7.39525e-02,-2.25459e-02,7.32074e-02,-7.29842e-02,-4.33396e-02,3.02203e-02,9.68600e-02,6.56308e-02,9.93677e-02,-5.00425e-02,8.38539e-02,2.93012e-03,6.53032e-02,1.09325e-01,4.87843e-02,8.47093e-02,6.98243e-02,-8.15347e-02,-1.38351e-01,-9.07001e-02,-6.73092e-03,1.36653e-02,9.81901e-02,-3.39164e-03,1.50819e-02,-9.67351e-02,-7.45979e-02,4.96467e-02,5.26735e-02,5.91006e-02,5.84387e-03,9.25112e-02,-2.30193e-01,-9.36828e-03,-4.52677e-02,-8.47315e-02,-8.58062e-02,-6.04567e-02,6.41254e-02,7.30289e-02,7.80321e-02,8.02121e-02,
-5.90693e-02,9.81312e-03,2.60318e-02,5.94721e-02,6.05744e-02,6.77765e-02,-3.88348e-02,-2.95091e-02,-6.13311e-02,6.06686e-02,-1.50766e-01,3.39327e-02,-5.88706e-02,-6.68724e-02,-5.85575e-02,-1.54518e-02,-7.07215e-04,6.87025e-02,3.53077e-02,-7.34802e-02,-1.04893e-01,5.28297e-02,-9.91974e-03,-1.69872e-01,2.87677e-02,6.54647e-02,-1.68321e-01,-5.43171e-02,-9.82916e-02,-8.21927e-02,9.83306e-02,8.10642e-02,-6.20945e-03,1.80590e-03,2.51289e-02,1.15613e-01,-2.70579e-02,1.36111e-01,1.76061e-02,-5.14546e-02,-1.04654e-02,-3.63784e-02,1.77820e-02,1.43992e-02,-5.14573e-02,4.59331e-02,-2.14935e-02,-2.27588e-01,2.55126e-02,3.68972e-03,7.30426e-02,-1.25111e-01,-4.76403e-02,6.15460e-02,-2.76147e-02,1.29846e-01,3.69552e-02,-4.78879e-02,8.51340e-02,5.43125e-02,1.68663e-02,-1.31851e-01,4.26203e-02,7.84398e-02,-9.49285e-02,6.64147e-03,-3.97126e-02,-3.48081e-02,1.24151e-01,-3.55955e-02,3.29613e-02,7.91622e-02,9.17038e-02,-3.53692e-02,2.47687e-02,-1.37064e-02,-6.76673e-02,1.69186e-02,-7.68253e-02,-2.56669e-02,7.95625e-02,-7.28320e-03,-4.78128e-02,1.65256e-02,-2.08336e-02,-1.05947e-01,-1.51670e-01,8.42732e-02,5.69901e-02,6.72829e-02,9.56021e-02,4.51578e-02,-1.03281e-01,-4.84820e-02,-2.81562e-02,4.23469e-02,2.12931e-01,4.22726e-02,-7.62780e-02,9.38170e-02,
-2.93831e-02,7.60326e-03,1.15558e-01,-1.06965e-01,4.28339e-02,2.65100e-02,-4.72569e-02,-2.19969e-01,-5.95095e-03,-4.70283e-02,-7.18058e-02,-7.80855e-03,5.23184e-02,5.60400e-03,-9.30115e-03,1.08392e-01,9.69071e-02,-6.19745e-02,-5.96268e-02,4.16696e-02,-3.46396e-02,1.41702e-02,4.23603e-03,1.32282e-01,-6.25073e-02,-5.35140e-03,-1.18430e-01,3.81144e-03,-6.50681e-02,3.66777e-02,-1.44718e-03,4.97106e-02,2.19768e-02,-8.69616e-02,-4.24951e-04,1.53106e-01,-8.27698e-02,-4.05164e-02,1.08421e-01,6.89507e-02,-5.93008e-02,-5.75796e-02,-1.78546e-02,-6.71853e-03,9.07810e-02,-1.13101e-02,8.96198e-02,-1.14992e-01,7.33781e-02,3.67646e-02,6.45793e-02,-5.50313e-02,-1.19530e-01,1.18914e-01,-2.94321e-02,8.45594e-02,-9.03353e-02,9.88951e-02,7.93727e-02,-6.76991e-02,-1.67107e-01,-5.58837e-03,1.09045e-01,4.00806e-03,1.97295e-03,-2.14202e-02,-6.18585e-03,4.77355e-02,5.54099e-02,9.21464e-02,-5.85052e-02,-6.19144e-02,8.61860e-02,5.05774e-02,-1.45140e-01,-4.52852e-02,1.12669e-01,-8.95371e-02,-1.50450e-02,2.54403e-02,-4.11173e-02,2.78721e-02,4.23421e-02,-2.35344e-02,2.26259e-02,9.35974e-02,-6.22722e-02,1.71708e-02,5.23241e-02,-1.64055e-02,2.75732e-02,-2.05125e-02,1.01725e-01,9.95051e-02,5.30784e-02,-1.90286e-02,-7.15995e-02,-1.11819e-02,-6.77721e-03,1.98097e-01,
-1.64282e-01,-7.76873e-02,8.87586e-02,-1.22100e-02,-3.96209e-02,-3.32338e-02,-6.64619e-02,3.76271e-02,-7.28343e-02,1.05698e-01,1.32953e-02,4.70697e-03,-6.24482e-02,-8.57353e-02,-2.31902e-01,-2.67301e-03,-7.21292e-02,-4.92888e-02,1.79451e-02,2.51432e-02,-2.15082e-02,-8.09529e-02,-5.78040e-02,2.32895e-02,2.14727e-02,1.06821e-02,-4.96866e-02,7.42744e-02,7.83061e-02,-8.26600e-02,4.27270e-02,-1.73830e-02,-5.44031e-02,4.25652e-02,6.29702e-02,-5.94620e-04,5.23561e-02,8.10531e-02,-5.24766e-03,3.22857e-03,6.48122e-02,9.31857e-02,9.85994e-02,-4.57157e-03,2.10805e-02,3.75097e-02,1.28937e-02,1.14152e-02,1.31226e-01,1.04842e-01,-4.96032e-02,-3.46011e-02,-4.42079e-02,-1.03346e-01,-3.82342e-02,9.58463e-02,-2.32469e-02,-4.73822e-02,1.00341e-01,5.34410e-02,1.50286e-02,2.06827e-02,8.76923e-02,-6.65494e-02,4.67402e-02,8.37028e-02,-6.43073e-02,-8.37971e-03,-6.39460e-02,4.54430e-02,2.35971e-02,-8.70934e-02,-7.20869e-02,4.20874e-02,5.20060e-02,3.31293e-02,8.39093e-02,3.23735e-02,1.08613e-03,-2.56935e-02,7.38498e-02,6.56793e-02,7.71911e-02,-1.62605e-01,-1.33192e-01,-1.75280e-02,-8.85721e-02,-1.02521e-01,3.09354e-02,-3.41400e-02,-8.53154e-02,-1.18226e-02,-7.40101e-03,-7.05464e-02,2.29910e-03,7.57616e-02,-5.69319e-02,6.15383e-02,-8.54922e-04,8.19609e-02,
2.40416e-02,1.81333e-01,3.44257e-02,1.12395e-01,-8.69885e-02,-5.65892e-02,-1.68086e-02,1.94533e-02,5.71250e-02,1.51237e-01,-5.75290e-02,5.94778e-02,4.15868e-02,1.35630e-01,9.69130e-03,2.87998e-02,-3.75020e-02,-9.92040e-02,2.15683e-02,2.20325e-02,-4.81751e-02,9.38077e-02,-1.58274e-02,-1.17063e-01,7.46125e-02,-2.95610e-03,-4.42711e-02,6.87528e-02,-5.22964e-02,-5.20122e-02,-8.53861e-02,9.13935e-02,1.52366e-02,9.74897e-02,4.71920e-02,-3.06539e-02,-3.62623e-02,-3.98638e-02,1.10769e-01,-4.58660e-02,-3.01056e-02,9.95538e-02,-5.37926e-02,-4.32054e-02,8.60421e-02,-4.64555e-02,3.74480e-02,-2.90446e-02,7.40142e-02,8.46941e-02,2.94210e-02,3.52373e-02,-9.26813e-03,-1.27025e-01,-1.18473e-02,-6.73980e-03,3.07041e-02,-4.23856e-02,-1.15670e-01,2.81806e-03,6.10190e-02,4.23860e-02,9.15819e-02,1.67568e-01,7.90723e-02,1.53319e-02,-7.47888e-02,-4.45014e-02,-3.87401e-02,-8.01070e-03,1.01723e-01,5.30622e-02,8.27430e-02,6.27119e-02,-6.38611e-04,-9.03659e-02,-3.73836e-02,1.46613e-01,-6.72135e-03,1.28283e-01,-9.83195e-03,-8.91390e-02,1.22318e-01,-2.03073e-02,1.38099e-01,-8.80152e-03,8.48782e-03,-4.59846e-02,-3.05447e-02,1.49461e-02,-1.33281e-01,9.65510e-02,5.67773e-04,1.01328e-01,-3.93443e-02,-6.68243e-03,6.13776e-03,1.15715e-01,1.18217e-02,-5.19030e-02,
-1.33938e-02,-9.59989e-03,-2.36139e-02,6.83652e-02,-6.04257e-04,4.77840e-02,-1.63046e-02,8.46827e-02,-1.13862e-02,1.05531e-01,6.14216e-02,5.34273e-02,-1.99236e-02,2.97606e-02,4.43866e-02,-3.46057e-02,-4.78131e-03,-6.00994e-02,1.30896e-02,5.08359e-02,-3.39150e-02,1.30190e-01,-8.46308e-03,1.23933e-01,7.05755e-02,-1.87362e-01,-1.98510e-03,1.88048e-02,-3.20675e-02,3.51812e-02,-7.63169e-02,-6.71831e-02,5.44082e-02,-7.60722e-03,-1.18367e-02,7.23869e-02,1.73386e-02,5.15280e-02,8.55950e-02,9.46446e-02,4.45042e-03,-2.59996e-02,-3.89496e-02,7.88916e-02,9.42777e-02,2.09851e-02,-6.18582e-02,-2.25480e-02,-8.64325e-02,-8.45462e-02,3.92469e-02,2.76973e-02,7.30092e-02,-3.34110e-02,-5.98967e-02,7.09714e-03,-8.35479e-03,-8.47319e-02,1.78025e-02,1.32750e-01,-1.86142e-02,-2.35926e-02,4.65247e-02,2.71562e-02,-3.99380e-02,-8.51295e-02,2.04677e-02,2.09506e-02,5.13642e-02,-4.30664e-02,-8.14922e-02,-1.78553e-02,4.26446e-02,-6.80257e-02,1.18968e-01,-3.08452e-02,4.88158e-02,-2.50023e-02,-6.13452e-02,-4.91842e-02,-4.18302e-02,-1.00932e-02,-3.89775e-02,7.24240e-02,5.71402e-03,3.15610e-02,1.93039e-02,1.27804e-02,-2.32561e-02,-2.56703e-02,-1.08644e-01,2.58272e-02,-5.06841e-02,1.47043e-01,5.26600e-02,-1.21216e-01,-2.99409e-02,-3.51145e-02,1.26842e-01,8.20610e-03,
-3.76718e-02,-8.50710e-02,-1.97526e-02,1.52626e-01,6.41012e-02,2.34896e-02,-2.03318e-03,5.49557e-02,4.75046e-02,5.63977e-02,6.81160e-02,-4.66383e-02,-1.00317e-01,-3.50591e-02,-9.43704e-02,4.47433e-02,9.14847e-02,8.30956e-02,5.61857e-03,-1.82351e-02,-7.15481e-02,1.96764e-02,7.90836e-02,6.38197e-03,8.90048e-02,1.03760e-01,-2.76846e-02,-5.07256e-02,5.26164e-02,1.13394e-01,-9.68667e-02,-6.82618e-02,7.88172e-02,6.52965e-02,8.80666e-02,1.46131e-01,3.43526e-02,-3.31681e-03,1.56689e-02,8.67480e-02,1.19690e-02,6.83115e-02,-3.10663e-02,-6.18328e-02,1.60167e-03,-8.09916e-02,4.18805e-02,4.71223e-03,8.81056e-02,-7.43191e-02,3.17050e-02,7.90186e-02,-4.78029e-04,-8.31187e-02,1.25747e-02,-6.67540e-02,-2.55288e-02,4.75312e-02,5.16327e-02,1.89847e-02,7.19396e-03,-9.60183e-02,2.91799e-02,1.11248e-01,1.13921e-01,3.62343e-02,4.47497e-02,-9.95034e-03,-1.93304e-02,4.58162e-02,-1.43691e-02,4.79188e-02,7.39432e-02,-5.11675e-02,-7.48049e-02,8.50972e-02,-3.30718e-02,-9.17381e-02,1.27851e-03,-3.93613e-02,-8.06353e-04,8.81466e-03,4.40601e-02,-6.05769e-02,5.72753e-03,-3.91195e-02,3.50443e-02,5.21795e-02,-1.41773e-02,1.18351e-01,7.51746e-02,8.81613e-02,-6.23345e-02,-2.18808e-03,-6.87896e-03,9.92554e-02,6.54574e-02,-7.61004e-02,5.50976e-02,3.06675e-02,
4.59557e-02,2.49672e-03,-2.13736e-02,2.11978e-02,2.59043e-02,-3.91235e-02,5.96335e-02,1.98728e-02,3.26432e-03,-1.38258e-02,-7.60132e-04,2.09733e-02,3.80073e-02,-1.34344e-02,-9.78462e-03,1.17496e-01,-6.81776e-02,4.97957e-03,-6.08545e-02,-1.53232e-02,4.50513e-02,1.56447e-01,1.27122e-02,-2.87923e-02,1.23412e-01,-6.73343e-02,-4.38612e-02,-4.71066e-02,3.32418e-02,4.63133e-02,-5.88379e-02,4.92620e-02,7.53401e-02,3.99320e-02,1.19293e-01,7.34264e-03,7.38785e-03,8.98441e-02,-5.40912e-02,-3.26134e-02,-3.89835e-02,-2.55591e-02,1.06927e-01,-6.95050e-02,9.46591e-02,-3.53484e-02,-2.97488e-02,9.51844e-02,1.28900e-01,1.04974e-01,-1.42252e-01,-1.83500e-02,-3.00471e-02,4.09486e-03,-5.36416e-02,7.85475e-03,-5.20911e-02,-1.15519e-01,8.83824e-02,3.55852e-02,-4.05914e-02,2.22516e-02,-5.36976e-02,-1.79055e-02,-3.72787e-02,9.32511e-03,3.80158e-02,-5.41997e-02,3.83621e-02,-3.45402e-02,7.98543e-02,9.30071e-02,-1.39994e-02,1.31430e-02,3.94872e-02,3.28177e-02,3.05957e-02,-8.21576e-02,4.61185e-02,6.59270e-02,6.21991e-02,-6.96283e-02,1.59591e-02,-5.49180e-02,-6.60528e-02,6.61619e-02,-7.85475e-02,-6.60098e-02,5.70756e-02,-2.09241e-02,5.59721e-02,1.35691e-01,5.65340e-02,1.42825e-01,-6.57261e-02,3.45897e-02,3.28182e-02,3.55747e-02,9.86494e-03,-6.55045e-02,
-2.11404e-02,-8.51423e-02,-7.91095e-02,1.24145e-01,2.36150e-02,3.20715e-02,2.21618e-02,1.80162e-01,2.35786e-02,1.65042e-01,-1.22794e-01,-7.36385e-02,-1.77806e-01,7.41389e-02,4.04057e-02,-2.96959e-02,-1.49687e-01,2.29385e-02,4.59593e-02,-2.60697e-02,7.99174e-02,4.88907e-02,-4.80615e-02,5.22499e-02,7.02040e-02,-7.78795e-02,5.04968e-02,-4.03017e-02,4.38569e-02,-1.28378e-02,-3.81342e-02,4.26340e-02,-7.40585e-02,6.01352e-02,8.51106e-02,-4.29217e-02,-1.88086e-01,6.05733e-02,2.42313e-01,-2.62143e-02,2.29342e-02,4.06924e-02,9.18174e-02,7.82494e-02,-9.75545e-03,1.15269e-01,5.86604e-02,1.26253e-01,1.43017e-01,4.42680e-02,-7.07836e-02,-4.10092e-04,-3.83335e-02,1.32271e-02,-1.30063e-01,-2.14687e-01,-4.80656e-02,-1.02294e-01,3.86132e-02,4.84200e-02,1.35918e-01,8.56606e-02,-8.79374e-02,7.26402e-02,8.84892e-02,1.27387e-01,3.08489e-02,-5.71726e-03,4.08743e-02,-1.06635e-01,-2.74318e-04,2.01026e-02,-1.16211e-01,7.24669e-02,1.08597e-01,1.02987e-01,-8.43717e-02,-6.12987e-03,1.04113e-01,1.22326e-01,-7.63181e-02,-1.25828e-01,1.15925e-01,-1.10873e-01,-1.49991e-01,2.32148e-02,-1.60776e-01,-4.21176e-02,-1.13189e-01,-1.99534e-02,1.54330e-01,9.19006e-02,-1.08581e-01,2.35442e-02,-3.84817e-02,1.11190e-02,1.49882e-01,3.49837e-02,6.86910e-02,2.36364e-02,
2.05453e-02,5.58349e-02,3.79561e-02,5.58423e-02,5.26290e-02,6.98611e-02,-1.54447e-02,1.85411e-02,-6.57013e-03,1.20149e-01,6.32371e-02,2.20476e-02,-5.64479e-02,-7.62291e-02,-5.37218e-02,-1.96942e-02,7.80074e-02,-3.37792e-03,2.89482e-02,-5.55863e-02,-1.39833e-02,-6.47902e-02,6.25458e-02,6.24199e-02,1.32360e-02,1.74663e-02,2.45353e-02,-6.56441e-02,-8.12478e-02,-1.85310e-02,4.29758e-02,-2.77836e-03,7.84540e-02,-7.61573e-02,1.05497e-01,8.97637e-02,6.48826e-02,-8.91096e-03,5.90463e-02,-4.91818e-02,6.80045e-02,2.86232e-04,-6.22622e-03,-1.00197e-01,5.41316e-02,5.43725e-02,1.69972e-02,1.87616e-01,-5.88068e-02,7.24145e-02,-5.44392e-02,2.02607e-03,-9.55077e-02,7.18265e-02,-3.02722e-02,-6.95652e-02,5.59309e-02,-5.80404e-02,-2.23825e-02,-5.73533e-02,8.69908e-03,-4.35800e-02,-5.80035e-02,-1.87942e-02,-4.28180e-02,6.50126e-02,5.81382e-02,-1.59069e-03,-7.37996e-02,3.39926e-02,2.39022e-02,-6.00054e-02,1.43241e-02,-7.56695e-02,4.46353e-02,-4.69566e-02,-1.13446e-01,1.07836e-02,-7.77751e-02,-5.06800e-02,-1.04334e-02,6.05375e-02,4.91203e-02,6.42969e-02,-1.29353e-01,6.23311e-02,-7.64175e-02,-1.24256e-02,1.01612e-01,-1.12879e-02,1.34732e-01,6.80740e-02,1.55592e-02,5.43727e-02,-7.79212e-02,-3.21148e-03,6.37725e-02,9.03252e-03,3.42384e-02,-4.01996e-02,
4.13349e-02,-3.63911e-02,7.23960e-02,-6.57325e-02,-2.49605e-02,-9.65247e-02,1.65347e-03,-4.38394e-02,-3.81783e-02,-4.59464e-02,7.32610e-02,-3.14932e-02,5.41247e-02,1.12544e-01,8.76577e-02,3.11504e-02,3.16183e-02,-9.69751e-02,-6.93557e-02,3.79812e-02,6.87250e-02,-1.27014e-01,-2.05956e-02,-1.57855e-02,-4.91638e-02,-1.38018e-02,4.23863e-02,-6.12274e-02,7.53928e-02,-2.25229e-02,2.09070e-02,-3.82509e-02,8.34231e-02,-4.17652e-02,3.75663e-02,-1.78031e-02,-6.00165e-02,7.83146e-02,7.67986e-02,-6.94406e-02,-4.22235e-02,9.39160e-02,-7.83423e-02,2.60880e-02,-6.57880e-02,5.86480e-02,1.29627e-02,-1.06903e-02,6.01695e-02,1.43004e-01,-1.29489e-03,1.48893e-01,-2.57720e-02,6.67841e-02,6.88335e-02,1.10949e-01,-5.04595e-02,4.60064e-02,-4.27166e-02,-9.32162e-02,-8.66664e-02,5.59875e-02,-4.38728e-02,-3.98357e-02,3.54777e-02,-4.71655e-02,-4.64632e-02,-6.94150e-03,2.91832e-02,3.84910e-02,-2.36170e-03,3.07410e-02,2.00565e-02,-1.95649e-02,1.39914e-02,7.01201e-02,3.80351e-02,1.26811e-01,5.19656e-02,-1.36063e-02,-9.50354e-02,7.13239e-02,-6.16904e-02,1.02254e-01,-2.26309e-01,2.60009e-02,-3.56588e-02,-9.05566e-02,5.18247e-02,5.67876e-02,-1.06674e-01,-2.56729e-02,-2.98652e-02,3.68715e-02,7.06182e-02,-2.92815e-02,-8.30490e-03,1.04519e-02,1.75549e-02,6.10191e-02,
2.01459e-02,1.66763e-01,-2.88530e-02,-3.28373e-02,4.71526e-02,1.10018e-01,-5.28678e-02,-4.93433e-02,3.77944e-02,-4.51983e-02,-7.93662e-02,9.84962e-02,-5.49021e-02,-4.85091e-02,-3.04713e-02,5.35635e-02,2.55257e-03,1.26438e-02,6.29871e-02,-9.74688e-02,-5.13475e-02,-6.33584e-02,9.69124e-02,-8.09601e-02,-4.88781e-02,7.13882e-02,2.15836e-02,-6.40730e-02,-1.37437e-01,-5.99920e-02,5.27770e-02,3.94210e-02,1.81641e-01,3.21617e-02,6.51136e-02,7.83794e-02,1.48879e-02,2.75968e-02,-1.27829e-03,-1.49822e-02,1.03890e-02,4.79529e-02,-1.59447e-02,4.56807e-02,-3.38069e-02,-8.67617e-02,-5.69000e-02,1.74475e-02,6.39073e-02,-1.65038e-01,-9.69211e-02,-8.74887e-02,2.94306e-02,-6.16166e-02,2.67172e-02,1.32264e-02,-1.01045e-01,8.53557e-02,9.75803e-02,2.17813e-02,-1.15060e-01,-5.79526e-02,4.31382e-02,8.90431e-02,-1.02369e-01,-2.26512e-02,-1.07900e-02,-6.17701e-02,7.64800e-02,2.97279e-02,-3.02561e-02,-6.84170e-02,-8.25555e-02,-1.18780e-01,-6.86851e-02,-4.09929e-02,-2.55592e-02,-2.85257e-02,-5.13468e-02,-1.29422e-01,7.30853e-03,1.04948e-01,-4.37843e-03,2.29482e-02,-1.41995e-01,-1.48859e-02,9.48960e-02,-1.02073e-02,6.17645e-02,6.89122e-02,-1.63925e-02,3.01485e-02,-8.17462e-02,3.20308e-02,-5.05612e-02,-2.19554e-02,-8.07184e-02,1.19472e-01,8.52939e-02,1.14146e-01,
-7.51871e-02,8.40287e-02,-1.63560e-02,1.26221e-01,-1.21178e-01,6.30785e-02,6.58007e-03,-3.70494e-02,-8.76574e-02,2.19110e-02,-1.36287e-02,9.10176e-02,-7.51303e-02,-1.12854e-01,8.60884e-02,-6.47170e-03,6.42532e-03,-7.95712e-02,-3.23176e-03,3.83294e-02,-4.75000e-02,-8.77817e-03,-1.58116e-02,4.79155e-02,1.76305e-02,-1.43780e-03,-2.57062e-02,4.15218e-02,-4.01549e-02,1.26288e-02,-5.41269e-02,-4.31089e-02,-5.30301e-02,-5.53366e-02,1.04100e-01,2.29943e-02,-8.40088e-02,2.54902e-03,-2.34289e-02,2.23187e-02,2.39467e-02,1.48221e-02,-3.08046e-02,-1.03939e-02,5.03853e-02,-3.24623e-03,-4.52104e-02,1.62486e-01,7.82546e-02,-3.15931e-02,-2.92566e-02,2.99201e-02,-6.37090e-02,-6.05293e-02,-5.72504e-02,3.49385e-02,-6.68943e-02,5.31829e-02,-1.57881e-02,-9.12054e-02,5.09618e-02,7.14896e-02,-5.08216e-02,1.13318e-01,5.55400e-03,5.06473e-02,-3.42420e-02,-1.60978e-02,5.31327e-02,1.94354e-02,-3.48641e-02,-4.02250e-02,1.09819e-02,-5.83950e-02,-1.85097e-02,5.04808e-02,-5.74265e-02,1.40743e-02,1.49372e-02,-3.40958e-02,-3.16877e-02,2.66720e-02,8.26557e-02,5.24388e-02,6.80887e-02,3.33339e-02,-3.79199e-02,6.09603e-02,7.27303e-02,4.18744e-02,1.79010e-01,1.07978e-01,-1.73878e-02,-6.99936e-03,6.86261e-03,4.71160e-03,2.17362e-02,-9.12746e-03,-6.86988e-02,1.73359e-02,
6.43454e-02,-9.54049e-02,-1.90790e-02,-9.26973e-02,-1.16937e-01,-7.48972e-02,2.77893e-02,6.68306e-02,-7.17918e-02,1.24716e-02,-5.66070e-02,-1.00371e-01,-1.61434e-01,5.08896e-02,2.31307e-02,-6.94060e-02,-1.81612e-02,-1.73385e-02,-2.69240e-02,-1.07202e-01,2.30744e-02,-1.99407e-02,6.02784e-02,-1.50963e-02,2.17174e-02,-1.19237e-01,1.09060e-01,-6.36373e-02,3.77006e-02,-3.33559e-04,-9.04959e-02,1.14777e-01,3.19376e-02,3.05654e-02,8.52320e-02,-1.49938e-01,7.92717e-02,7.10930e-02,1.95436e-01,1.33792e-02,5.02557e-02,6.59908e-02,6.44479e-02,-3.11164e-02,9.08855e-02,6.79722e-02,5.29595e-02,3.00309e-01,5.31082e-02,1.04244e-02,-4.66461e-02,3.21746e-02,4.04073e-02,-1.17894e-01,-2.44602e-03,-7.68943e-02,-1.00608e-01,-8.90203e-02,-8.56965e-02,1.03305e-01,3.67428e-02,4.18775e-02,5.18734e-02,7.08523e-02,5.52482e-02,4.64656e-02,6.43555e-02,-2.39050e-02,-5.84770e-02,-9.42419e-02,1.01638e-01,4.82388e-02,-1.11319e-02,-2.12287e-02,-3.02431e-02,-7.69089e-02,-9.82007e-03,9.71396e-02,1.25355e-01,1.01355e-01,-1.94165e-02,-4.31669e-03,4.35658e-02,4.66668e-02,-1.11604e-01,-7.22241e-02,-3.59838e-02,9.61321e-02,-4.53288e-02,-1.86578e-02,6.22957e-02,1.04331e-01,-9.25440e-03,5.36199e-02,6.33512e-02,6.11169e-04,-5.67489e-02,1.68880e-02,1.05013e-01,-1.57503e-02,
8.31652e-02,8.29782e-02,-1.42070e-01,-3.12788e-02,-7.89179e-03,2.96205e-02,8.54689e-02,2.15112e-02,-3.33143e-03,-1.20219e-01,-8.14839e-03,6.68465e-02,3.19813e-02,7.93653e-02,9.52385e-02,1.36868e-03,-1.50810e-01,-2.49146e-02,-7.59417e-02,-8.79887e-02,-5.49661e-02,1.26684e-01,2.83562e-02,2.83095e-02,-5.61104e-02,9.28375e-02,-5.11354e-02,-7.50347e-02,-4.91916e-02,-7.95345e-03,1.06185e-01,3.05344e-02,1.02683e-01,-7.34350e-02,-5.58337e-02,9.06102e-02,5.43435e-02,-1.31406e-01,-1.09670e-02,-1.29863e-01,-1.13198e-02,6.45134e-02,2.06535e-02,-2.15213e-02,-4.74313e-02,2.14131e-02,6.84577e-02,-4.21981e-02,4.72537e-02,-1.38016e-02,3.26548e-02,5.55657e-02,4.76939e-02,4.16532e-02,-4.10102e-02,7.91518e-02,-5.29498e-02,-7.77309e-02,9.72114e-03,6.60997e-02,-5.85105e-02,5.36082e-02,1.70091e-01,-4.85127e-03,3.44144e-02,-5.10085e-02,7.90831e-02,-2.31537e-04,1.13746e-01,1.03851e-01,6.34097e-02,-5.11070e-02,7.18449e-02,3.82613e-04,-2.53483e-02,7.13660e-02,8.54453e-02,1.41866e-01,-6.57269e-02,-1.49491e-01,8.80934e-02,4.43596e-02,-6.14967e-02,-7.80208e-03,1.57857e-02,-6.14191e-03,-1.08424e-02,9.25381e-02,8.41466e-02,2.56746e-02,-2.03825e-02,1.58139e-02,-7.67926e-02,-5.63645e-02,1.25956e-02,3.83111e-02,-2.33937e-02,-2.11728e-02,-4.96435e-02,-1.28194e-02,
8.01251e-02,1.16294e-01,1.36941e-02,7.37098e-02,9.14835e-03,1.16413e-01,-4.26882e-02,-7.03644e-02,-3.39512e-02,8.58863e-02,-4.42598e-02,-6.19276e-02,-1.15402e-02,-5.08345e-03,-1.41836e-02,3.47773e-02,4.73549e-02,-4.15019e-02,-1.25606e-01,5.75017e-02,6.21527e-02,8.66081e-02,1.30623e-02,-5.91349e-02,1.49854e-02,5.58490e-02,8.46577e-02,-7.14048e-02,-6.95566e-02,8.11697e-02,-7.79005e-02,-2.76387e-02,4.62116e-02,-2.95220e-02,-8.01241e-02,-5.85211e-02,-9.31710e-02,-3.81551e-02,4.74462e-02,3.27838e-02,3.72586e-02,-4.57113e-02,7.28012e-02,6.17301e-02,7.10239e-02,8.92556e-02,-2.19914e-02,1.20917e-01,6.89148e-02,3.29741e-02,-1.37455e-01,1.32946e-01,-8.29693e-02,-9.58394e-02,2.19745e-02,-4.82878e-02,-6.72349e-02,6.15513e-02,-4.89165e-02,-1.11588e-01,4.09997e-04,3.90920e-02,-1.34133e-02,9.13618e-02,9.33783e-02,4.36957e-02,5.71619e-02,1.16886e-01,3.81228e-02,7.75482e-03,-6.87205e-02,-3.49720e-02,-1.44694e-01,-7.36851e-02,7.78726e-02,-7.54963e-02,-6.23331e-03,-8.00778e-02,-2.35811e-02,1.04674e-01,1.83174e-02,9.47770e-02,3.70565e-03,-1.10173e-01,1.50462e-01,-4.03947e-02,-1.30517e-01,-6.67980e-02,4.52966e-02,8.82190e-02,3.32902e-01,-1.63404e-02,6.61468e-03,-8.76801e-02,-6.86116e-02,-1.41706e-02,1.44214e-01,-1.90118e-02,4.06463e-02,3.80974e-02,
-1.08191e-01,6.03900e-02,6.00891e-02,-6.04862e-02,1.33980e-01,-3.45192e-02,3.21813e-02,-5.38735e-02,-6.21341e-02,1.02157e-01,1.19068e-01,1.02505e-01,-8.26808e-02,-1.01567e-01,-5.25370e-02,-8.04682e-02,6.96665e-02,8.65202e-02,-1.67378e-02,-1.10447e-01,3.67686e-02,-1.62558e-01,1.90282e-02,-8.08121e-02,1.61294e-02,-4.37918e-02,-1.96887e-02,6.32876e-02,1.04555e-01,8.58140e-02,6.02686e-02,-8.99066e-02,4.91803e-02,-7.63815e-03,-1.32010e-02,1.96089e-01,-1.96280e-02,5.43374e-02,1.73373e-01,4.79122e-02,-5.81653e-02,5.25408e-02,1.95025e-02,-8.08600e-02,-9.19639e-02,-9.03650e-02,-1.57332e-02,-1.87072e-01,2.53293e-02,-9.88421e-02,1.52278e-02,-1.07857e-01,-5.39695e-02,8.31807e-02,8.12918e-06,-1.20418e-01,-2.08429e-01,-4.77667e-02,9.62436e-02,-1.18011e-01,2.80492e-03,-7.52074e-02,-6.13679e-02,7.86976e-02,9.32959e-02,-7.55820e-02,-5.35049e-02,-7.23661e-02,-2.59546e-03,3.35590e-02,1.18825e-04,9.36996e-02,5.75525e-03,-1.08358e-02,1.33531e-02,-1.10036e-01,-1.25550e-02,-1.72318e-01,3.09836e-03,2.09012e-01,-1.77210e-01,-2.31495e-02,1.27062e-01,1.18123e-01,-2.53932e-01,-2.79195e-02,9.24116e-03,-5.40904e-03,-4.36330e-02,-4.84215e-02,-6.14487e-01,-1.31083e-01,3.15213e-02,4.67391e-02,7.62893e-02,3.32796e-02,-2.62687e-01,-4.77071e-02,2.84571e-02,-1.90130e-01,
-2.94036e-02,3.87736e-02,-1.86260e-02,2.19500e-02,4.75027e-02,-3.71084e-02,2.40873e-02,1.55662e-01,4.03639e-02,6.37319e-02,-5.29249e-02,-7.18968e-03,-4.80765e-03,-2.67558e-02,-2.99970e-02,2.47024e-02,1.21657e-01,4.65228e-02,6.29590e-02,-6.25545e-02,-1.84797e-02,-1.07234e-01,-6.39542e-02,1.34312e-01,6.17633e-02,8.99219e-02,1.08800e-02,-7.75103e-02,1.54844e-01,-2.99353e-02,7.89928e-02,-2.96932e-03,-5.44435e-02,4.32682e-02,1.40493e-01,1.48061e-01,3.96244e-02,1.19851e-01,2.03483e-01,4.73493e-02,9.73725e-02,-7.52080e-02,1.08495e-01,-4.20794e-03,-1.97646e-02,2.29239e-02,1.61386e-02,4.21343e-01,-6.45557e-02,-6.11787e-02,-1.19691e-01,9.73092e-03,-4.42747e-02,5.60582e-02,-9.07746e-02,-2.30245e-03,-2.65437e-02,-5.96745e-02,-6.27688e-02,5.25129e-03,4.40664e-02,-7.78093e-02,-1.16439e-02,8.71622e-02,5.40260e-03,2.37882e-04,2.62047e-02,1.36653e-01,-1.23913e-03,-1.68362e-01,-7.09713e-02,3.08401e-02,-2.10111e-02,-7.10254e-02,8.56738e-02,-2.02707e-02,6.26006e-03,4.00506e-02,1.82549e-02,6.74503e-02,3.80945e-02,8.31391e-02,1.49183e-01,6.38771e-02,-5.60471e-03,-1.62997e-01,-4.05471e-02,1.29140e-02,-1.49461e-01,-9.64941e-02,3.02342e-01,1.56766e-02,5.87951e-03,1.52324e-02,1.27195e-02,-6.39580e-02,1.34549e-01,7.76943e-02,-6.05916e-02,-1.05316e-01,
5.63091e-02,-5.93052e-02,-2.69127e-02,3.19715e-02,-6.55213e-02,1.37358e-01,1.24009e-01,1.31837e-01,-2.97294e-02,-2.36521e-02,-4.94501e-03,2.17735e-02,2.28738e-02,3.68014e-02,-8.86358e-02,3.19450e-02,8.26592e-02,-1.47282e-02,3.61455e-02,9.12799e-02,8.47200e-02,2.71937e-02,9.30125e-03,-6.94756e-02,5.28651e-03,2.65498e-02,2.07212e-02,1.23602e-01,-3.71994e-02,-6.60882e-02,5.50972e-02,4.14489e-03,-2.41603e-02,6.28480e-02,6.14984e-02,-1.06455e-01,1.25451e-01,-1.60046e-02,1.14992e-01,-8.98511e-02,1.33217e-02,7.37235e-02,1.47361e-01,1.54328e-02,-4.56041e-02,3.29966e-02,-8.09328e-02,2.42939e-01,-4.37933e-02,1.14757e-01,-6.67934e-02,-4.63826e-02,5.78473e-02,1.57481e-02,6.90385e-02,-7.28157e-02,1.08674e-01,-1.17584e-01,-8.65676e-02,-3.72261e-03,1.06790e-01,-2.27166e-02,-1.03170e-01,1.48146e-01,1.23298e-01,9.47538e-02,-6.04866e-02,-5.05675e-02,-9.91729e-02,-1.41741e-02,-2.01897e-02,6.13047e-02,5.24218e-02,7.71504e-02,3.19392e-02,-1.18541e-01,-1.38861e-01,-4.40865e-02,-6.83297e-02,1.98373e-01,-1.57176e-02,-7.00272e-02,-2.09523e-02,-5.88428e-02,-1.41410e-01,1.04731e-01,1.90343e-02,-6.90493e-02,-4.41421e-02,6.03565e-02,3.01490e-01,4.52765e-02,3.19399e-03,-5.60753e-02,7.88103e-02,5.70529e-02,3.48005e-02,1.14628e-01,5.11532e-03,-8.23759e-02,
7.66852e-02,4.35390e-02,-1.50030e-02,7.10109e-02,7.24723e-02,3.52722e-02,-7.89327e-02,9.46796e-02,4.95349e-02,1.15087e-01,-3.14001e-02,-6.39741e-02,-7.46510e-02,7.89900e-04,1.05901e-01,2.35510e-02,-1.09486e-01,-2.13889e-02,8.03306e-02,9.42988e-02,1.67224e-02,2.16336e-02,-1.92548e-02,7.62865e-02,-4.63731e-02,2.41198e-02,8.00665e-02,1.05868e-01,2.43227e-02,2.68538e-02,-7.86881e-02,1.06607e-01,6.40948e-02,-4.83387e-02,6.34785e-03,1.14469e-01,-3.27125e-02,-4.75394e-02,-7.98073e-02,-4.45453e-02,3.13655e-02,3.08904e-02,2.99505e-02,-2.37474e-02,1.77040e-02,-2.45416e-02,3.99173e-02,1.39693e-01,7.18983e-02,3.95634e-02,6.63781e-02,1.82026e-02,-6.27071e-02,3.34041e-02,-2.87920e-02,-2.28642e-02,-8.93257e-02,-3.38554e-02,-7.82307e-02,3.58450e-02,1.97036e-02,7.13012e-02,1.76002e-01,7.70574e-02,-7.17438e-02,-3.95856e-02,-8.99885e-02,3.65716e-02,1.04895e-02,-5.09889e-02,9.70706e-02,-1.29067e-02,4.20232e-02,6.62185e-02,-8.09185e-02,-2.73682e-02,1.25717e-01,1.55547e-01,-2.76285e-03,9.23446e-02,4.42563e-02,-3.38378e-02,2.69169e-02,-2.58439e-03,5.61544e-02,4.91519e-02,-2.99667e-02,9.43098e-02,-1.05177e-01,6.17853e-02,1.61743e-03,1.55524e-02,1.12029e-01,1.04965e-01,-5.09628e-02,-7.21347e-02,-4.36699e-02,-1.08730e-01,4.47936e-02,2.06607e-02,
8.99670e-02,7.36758e-02,6.57586e-02,6.47931e-02,1.42586e-01,-4.51219e-03,1.02247e-01,4.62498e-02,-5.81253e-02,1.78611e-02,-7.96301e-02,-3.16202e-02,5.45743e-02,1.31728e-01,2.36812e-02,8.71326e-02,-6.61994e-02,7.31461e-02,-7.21178e-03,4.12530e-02,2.93784e-02,-4.07959e-03,-1.75318e-02,3.47098e-02,-1.29195e-02,4.61514e-04,3.58152e-02,-8.96878e-02,-1.28802e-02,-4.48446e-02,3.35833e-02,-6.99003e-02,-2.82439e-02,-5.87155e-03,3.14396e-02,-6.88148e-02,-1.13794e-01,8.48517e-02,2.55329e-01,-7.38994e-02,-8.41120e-02,-2.25308e-02,1.19545e-01,-7.99631e-04,3.87804e-02,1.52974e-01,-3.14750e-02,2.78133e-01,1.19311e-01,1.16417e-01,2.86114e-03,9.81741e-02,-3.99225e-04,-2.74317e-02,-7.56147e-03,-1.39706e-01,5.07949e-02,1.31051e-01,-2.31519e-02,7.01218e-02,8.70514e-02,-9.10501e-02,1.31403e-01,7.68717e-02,2.76806e-02,2.80199e-02,6.14536e-02,4.81536e-02,3.20605e-02,-1.01916e-01,-4.50681e-02,-3.14173e-02,5.81071e-02,1.31641e-01,-4.71293e-02,3.87985e-02,-3.39371e-02,-1.33569e-01,-1.28625e-02,9.88596e-02,-8.25835e-02,1.01829e-01,3.72702e-02,-1.75526e-02,-1.76248e-01,-1.16203e-01,-8.95990e-02,-6.33661e-02,-6.77694e-03,4.99100e-02,-3.47528e-02,-5.97030e-02,-1.30731e-02,-4.19181e-02,8.18770e-02,4.53711e-03,1.59013e-01,5.00893e-02,6.75036e-03,2.32936e-03,
3.44797e-02,2.87477e-02,7.16558e-02,8.31597e-02,-7.37125e-02,-1.61926e-01,-8.52631e-02,-1.62432e-02,9.35782e-02,1.64450e-01,3.15528e-02,-1.01636e-01,7.01521e-02,1.25520e-01,2.54044e-01,2.89589e-01,-3.67179e-02,-8.67996e-02,1.69411e-02,-7.92633e-02,-1.57581e-01,-6.23229e-02,8.24594e-02,6.27071e-02,-5.11321e-02,2.99323e-01,-3.97115e-02,-4.73624e-03,9.49227e-02,-3.53665e-02,2.00091e-01,7.26659e-02,-1.62213e-01,-1.37838e-01,-2.92146e-01,1.46907e-01,-1.41907e-01,4.87422e-02,-2.02822e-02,1.65874e-01,3.88308e-02,8.57389e-02,1.12341e-01,-1.64114e-01,-2.76106e-02,-1.00618e-01,1.67318e-01,2.52489e-01,-3.52725e-02,-1.57169e-01,-6.45464e-02,1.10023e-01,1.25839e-01,1.42356e-01,1.18260e-01,2.62269e-01,-4.32793e-02,6.86747e-02,-4.83405e-01,3.10983e-01,-5.14417e-02,1.06307e-01,-2.79857e-01,-2.50162e-02,-4.05683e-02,-4.68232e-01,-1.85987e-01,1.40242e-01,7.23344e-02,1.34049e-01,4.42489e-02,2.63919e-02,-8.27537e-02,1.01842e-02,-2.10060e-01,-6.45366e-02,1.18762e-01,5.36739e-02,-3.65028e-02,-1.11666e-01,-1.18228e-02,-3.15151e-01,-2.83581e-02,-8.19676e-02,-1.23502e-01,-7.37090e-02,1.64154e-01,-1.30155e-02,-1.72646e-02,-1.81115e-01,-3.87764e-01,4.77065e-02,3.58475e-02,-1.91360e-02,-3.27526e-02,-4.68756e-02,-4.49280e-01,-1.83781e-01,-1.32370e-02,-4.19559e-01,
6.90933e-02,2.55035e-02,1.01489e-01,-3.10191e-02,3.46861e-02,5.39973e-02,8.88282e-04,5.18262e-02,-2.56428e-03,1.25208e-01,-5.15510e-02,-2.87305e-02,-8.19685e-02,-5.56124e-02,8.63492e-02,-4.27809e-02,3.80751e-02,4.51699e-02,8.39371e-02,8.95305e-02,-7.71411e-02,-3.11703e-02,8.10502e-02,6.59051e-02,-5.56981e-02,8.23795e-02,4.16210e-02,2.33998e-03,1.13575e-01,-7.20519e-02,-1.70620e-02,-6.19454e-02,-5.31361e-02,1.12930e-03,5.89941e-02,3.05120e-02,8.32513e-03,2.66396e-02,3.21644e-02,2.56764e-02,7.46545e-02,-4.50983e-02,5.32889e-02,8.90542e-02,-9.20924e-03,-1.20530e-04,-1.57693e-02,2.63421e-02,3.59713e-02,9.07850e-02,9.02343e-03,-8.77786e-03,5.65281e-02,3.05333e-02,-8.14089e-02,9.73538e-02,-8.68962e-02,-7.67886e-02,-6.15157e-02,8.69477e-02,-1.06951e-02,-1.30280e-01,-1.01103e-03,5.89755e-02,-4.74989e-03,-8.15041e-02,2.79442e-02,-5.25239e-02,-7.28406e-02,7.35052e-02,1.07046e-01,-2.44223e-03,3.20927e-02,-2.54594e-02,1.13770e-01,-8.12548e-02,9.13784e-02,8.27153e-02,-5.91111e-02,1.75120e-02,1.55713e-02,5.29835e-02,7.46814e-02,-3.92767e-02,2.37964e-03,-6.88938e-02,-3.66420e-02,-8.33157e-02,-6.63103e-03,-1.20058e-02,1.51236e-01,6.07253e-02,-5.65600e-02,3.90098e-02,3.43178e-02,2.40562e-02,5.52542e-02,9.69484e-02,8.99239e-02,-9.74593e-03,
7.76844e-02,1.15617e-01,3.95234e-02,-7.28441e-03,-1.12453e-01,5.10411e-02,-6.64559e-02,1.88976e-03,-9.06652e-02,7.81506e-03,5.71056e-03,-1.59910e-02,-4.71659e-02,2.45181e-02,-1.04469e-02,3.77001e-02,-4.72719e-02,4.89790e-02,6.68393e-02,8.37392e-02,3.39415e-03,9.43915e-02,-3.70927e-02,1.06421e-01,-2.64826e-03,-3.07706e-02,-1.85688e-02,6.82408e-02,-4.00779e-02,3.40981e-02,-2.07446e-02,9.97831e-02,-6.46317e-03,-2.69977e-02,3.69187e-02,-2.37457e-02,-2.55371e-02,-3.09737e-02,6.12836e-02,1.03612e-01,-1.60377e-02,-9.98308e-02,4.38364e-02,-2.69787e-02,4.49258e-02,-2.21014e-02,1.01941e-01,3.58795e-03,-7.40474e-02,1.61650e-01,8.05798e-02,3.36903e-02,-7.33667e-02,-8.82176e-02,1.07948e-01,-4.22683e-02,8.40702e-02,6.03440e-02,-9.92018e-02,7.29706e-03,1.53167e-03,2.35653e-02,5.23594e-02,1.90256e-02,-6.89203e-03,-4.43680e-02,1.02147e-01,-9.76044e-03,-4.97172e-03,3.58878e-02,9.27362e-03,9.85526e-02,-8.07184e-03,3.95027e-02,1.28979e-01,-2.72389e-03,2.35285e-02,1.03287e-01,-3.34656e-02,-1.55185e-02,-7.30597e-02,4.01081e-02,-1.46751e-02,-7.17292e-02,1.26525e-01,5.37787e-02,-8.65242e-02,-6.38332e-02,-4.99472e-02,7.46373e-02,-1.85939e-01,5.54215e-02,-3.90234e-02,2.03532e-02,-1.62498e-02,2.40066e-02,3.31685e-03,-4.24306e-02,-1.32359e-02,1.26106e-01,
-4.20512e-02,8.15907e-03,-1.41797e-01,-7.45103e-02,-1.60216e-02,6.79373e-02,-1.49589e-02,1.15504e-02,-7.79118e-03,6.27439e-02,-1.69254e-01,2.09132e-02,-4.51353e-02,1.58707e-02,-1.80347e-02,-8.58834e-02,9.92936e-02,3.77164e-02,3.65806e-02,2.99643e-02,-3.22100e-02,6.80333e-02,-5.33168e-02,1.02034e-01,-3.07530e-02,-1.00427e-03,-2.72909e-02,1.01584e-01,-7.16493e-02,8.76549e-02,-6.25711e-02,-1.80115e-03,1.09671e-01,3.96318e-02,1.48248e-01,-1.15401e-01,-1.18175e-02,4.38520e-02,5.29062e-02,-6.03001e-02,-8.03686e-02,3.55069e-02,1.07412e-01,7.86079e-02,8.90620e-02,-5.26531e-02,2.47390e-02,9.28077e-02,9.00293e-02,6.66084e-02,6.11188e-02,1.09810e-02,1.59409e-02,-3.84906e-02,4.28628e-02,-2.90402e-02,4.27733e-02,8.06330e-02,-4.42615e-02,9.92158e-03,-6.37488e-02,-5.76192e-03,1.00384e-01,9.59469e-03,-8.29189e-02,5.27649e-02,-7.95000e-03,-4.73030e-02,3.43912e-02,3.33319e-03,2.97516e-02,-2.56615e-02,6.79347e-02,1.43676e-02,-6.71449e-02,7.98280e-02,-3.68526e-02,-1.65585e-02,4.15778e-02,6.70882e-02,6.62759e-02,-4.55763e-02,5.82271e-02,-6.88746e-02,5.30101e-02,-7.28513e-02,-8.67042e-02,-4.76299e-02,-3.70206e-02,-7.53245e-02,-1.49912e-02,-4.82343e-02,3.48574e-02,7.60330e-02,3.23673e-02,-5.94890e-02,-3.42884e-02,-4.47856e-02,-6.07886e-02,3.06164e-02,
-1.05086e-02,1.65642e-02,9.14464e-05,-2.39090e-03,4.63937e-02,1.02190e-02,-5.46105e-02,2.04895e-02,-5.90170e-02,2.28391e-03,2.50284e-02,2.39392e-02,2.75211e-02,1.09461e-01,4.88145e-02,2.00438e-01,-2.37747e-02,4.43356e-04,-1.17081e-01,-1.51421e-02,5.06176e-02,6.27173e-02,7.92417e-02,-2.28326e-02,9.52581e-02,-2.63298e-02,7.12935e-02,7.60609e-02,-2.61747e-02,6.71111e-02,-1.19299e-01,-2.55612e-02,-5.96441e-02,-1.94323e-02,2.89128e-02,2.83073e-02,-3.94387e-02,5.00327e-02,-5.15285e-02,2.18526e-02,5.62142e-03,1.24661e-02,4.77168e-02,9.45125e-02,3.13404e-04,1.15711e-02,6.82021e-02,-7.74060e-02,-3.70353e-02,1.18319e-01,9.66207e-02,-1.73869e-02,-9.57106e-02,-1.96128e-03,8.56238e-02,1.36194e-01,4.50187e-02,-7.44322e-02,-2.57023e-02,5.26123e-03,-6.02059e-02,1.13247e-01,3.77609e-03,1.08513e-01,7.22151e-02,-8.84356e-02,-1.59986e-02,7.76903e-02,1.09073e-02,6.15135e-02,5.70099e-02,6.61938e-03,1.88772e-02,-5.81983e-03,8.31358e-03,-8.56813e-02,-1.83088e-02,1.80541e-02,7.94334e-02,-4.17423e-02,1.51987e-02,-2.90533e-02,-4.27184e-02,1.68695e-02,-2.98548e-02,9.79844e-03,-5.03216e-02,7.18260e-02,8.79552e-03,-2.31393e-02,-1.20329e-01,2.08531e-04,7.15907e-04,1.15488e-01,-2.26345e-02,-4.51762e-02,-8.23112e-02,6.36322e-02,-4.85964e-02,-2.99870e-02,
-1.93598e-03,1.24180e-02,5.72874e-02,8.09306e-02,1.04341e-01,1.63315e-01,5.92558e-02,9.66530e-02,-6.97752e-02,5.13441e-02,5.47284e-02,1.06553e-01,-7.92376e-02,-5.72895e-02,-1.18944e-01,8.92311e-02,-7.66977e-02,-7.11523e-02,5.20720e-02,4.50401e-02,-5.27889e-02,6.95918e-02,9.99598e-02,-1.52160e-01,-9.62333e-03,6.66017e-02,8.08810e-02,-3.94319e-02,1.90332e-02,8.80329e-02,-7.79570e-02,1.19489e-01,-1.91491e-02,1.63272e-02,1.43024e-01,1.74053e-02,-9.44791e-02,1.10186e-01,1.44521e-01,3.12188e-02,-3.28862e-02,3.43268e-02,1.01690e-01,-1.40840e-01,-4.74336e-02,9.25486e-02,-1.32355e-02,2.11748e-01,1.39577e-01,8.67391e-02,-1.04067e-01,-1.59865e-02,-8.30110e-03,-1.89377e-02,-3.23786e-02,-1.34026e-01,-3.02911e-02,8.87677e-02,-8.03596e-02,9.32066e-02,4.83414e-02,-1.71044e-01,-5.51799e-02,-3.70871e-02,8.03221e-02,1.32821e-01,-2.13560e-02,-9.25949e-03,5.41042e-02,-6.27782e-02,1.38934e-02,-2.22694e-02,1.20031e-01,-5.90631e-02,-9.38484e-02,5.49208e-03,-9.05596e-02,1.55270e-02,1.37722e-01,1.62388e-01,-1.09003e-02,4.32604e-02,-4.74828e-04,-2.14830e-02,-1.68847e-01,3.76441e-02,-1.24056e-01,-8.94014e-02,2.61093e-02,9.72689e-02,9.98907e-03,-2.23967e-02,-1.75383e-02,-5.13474e-02,-4.48244e-04,1.51534e-02,7.35072e-02,-9.03869e-02,-7.82382e-04,-1.11663e-01,
4.96563e-02,6.27255e-02,5.30558e-02,2.79406e-02,1.06804e-01,7.83765e-02,-1.79835e-02,-4.56228e-02,3.55453e-02,5.72589e-02,2.52873e-02,1.14236e-01,-3.74082e-02,5.52220e-02,-9.23022e-02,-8.01303e-02,-1.41266e-01,2.23529e-02,-6.91120e-02,-9.29526e-02,-6.60906e-02,1.14485e-01,5.55243e-02,1.23457e-02,7.50062e-02,-2.62888e-02,-2.24327e-02,-7.39771e-02,-1.19347e-02,-3.03476e-02,-1.04474e-01,1.48054e-03,3.88940e-02,-1.22660e-02,-4.79606e-02,5.47768e-02,4.79783e-02,9.85525e-02,1.66223e-02,-7.06151e-02,6.91565e-02,-1.96810e-02,-1.25895e-02,3.27752e-02,2.59508e-02,-4.74669e-02,-4.04779e-02,5.76334e-02,2.46478e-02,-2.65092e-02,-3.96881e-02,1.37698e-02,-8.55496e-02,8.39542e-02,5.05322e-02,5.16991e-02,1.45708e-03,1.24562e-01,-4.25959e-02,1.04319e-02,9.21667e-03,5.35577e-02,4.25393e-02,-4.25527e-02,6.18151e-02,-2.92753e-02,-9.58202e-03,-2.41163e-02,7.02253e-02,1.27280e-01,-2.79025e-02,-1.14577e-01,-5.06745e-02,7.32043e-02,2.54744e-02,-1.23477e-02,-6.64164e-02,5.85673e-02,-1.91503e-02,7.73996e-02,8.64041e-03,-3.14901e-02,-8.27500e-02,-1.14472e-02,-6.72840e-02,5.28316e-02,-8.99320e-02,3.66046e-02,3.09485e-02,-5.40540e-02,-1.31325e-01,4.86738e-02,-6.31332e-02,-2.17268e-02,3.59868e-02,8.28233e-02,-6.62856e-02,4.54698e-03,1.06785e-02,-1.95145e-02,
-5.88157e-02,5.64955e-02,1.16412e-01,4.25755e-02,2.85377e-02,-2.40631e-02,5.68362e-02,6.39037e-03,3.48706e-02,4.37825e-02,4.89072e-02,3.36797e-02,-5.12653e-02,9.95128e-02,9.22189e-02,5.37477e-03,-6.13522e-02,-8.80244e-02,-2.68040e-02,8.88118e-02,-6.81738e-02,-3.83209e-02,-5.38459e-02,-4.36183e-02,6.18044e-02,4.30366e-02,6.08980e-02,2.47073e-02,-3.08367e-02,7.20137e-04,-3.39379e-02,-8.85778e-03,7.37565e-02,-2.12091e-02,-3.45301e-02,-5.09160e-02,5.60525e-03,2.49565e-03,6.27539e-02,7.28304e-02,1.33508e-01,1.09409e-01,-2.53566e-02,7.17674e-02,7.65687e-02,-5.49450e-02,5.60890e-02,7.62360e-02,2.07505e-03,-1.41716e-03,2.46340e-02,-3.35173e-02,-7.43615e-02,-8.78358e-02,3.30810e-02,7.77178e-02,4.76418e-02,-7.18123e-03,6.05091e-02,-1.08635e-02,-3.90014e-02,-7.55316e-02,6.44139e-02,9.95130e-02,8.68855e-02,-2.44119e-02,-2.02719e-02,1.12288e-02,4.53604e-02,4.29273e-02,2.36726e-02,7.54605e-02,2.58523e-02,-7.53377e-02,9.58048e-02,-1.84155e-02,9.35190e-02,-1.77675e-02,-7.80285e-02,7.63515e-02,-4.63751e-02,-1.15518e-02,-5.92960e-02,3.09230e-02,-4.00460e-02,5.70850e-02,-8.89814e-02,4.43948e-02,2.60674e-02,-5.20044e-02,6.95073e-02,5.43371e-02,2.07058e-02,-3.91125e-02,1.04122e-01,4.27192e-03,8.81926e-03,7.29118e-02,1.18037e-01,2.53858e-02,
1.04099e-01,-3.13589e-03,1.38971e-01,9.20419e-02,-1.32698e-01,6.30109e-02,1.50309e-01,1.14554e-01,7.89218e-02,9.46800e-02,4.45958e-02,-7.75170e-02,1.96806e-02,-1.01630e-02,-1.82170e-01,-3.35551e-02,-9.99570e-02,-9.16675e-02,-1.39142e-02,-3.23602e-02,1.12255e-02,-1.03129e-01,8.88027e-02,-1.17921e-01,2.32586e-02,1.01519e-02,-1.97090e-04,1.38877e-01,8.23373e-02,-1.21920e-01,-2.87285e-02,9.03900e-02,-3.92281e-02,-6.51832e-02,9.51243e-02,-5.33497e-02,-2.81552e-02,5.77365e-02,2.98245e-01,-6.97987e-02,-1.93783e-02,8.16870e-02,-2.89599e-02,-9.42710e-02,4.69349e-02,1.76459e-01,-9.26748e-02,5.26296e-02,7.39088e-02,8.72418e-02,4.80540e-02,-1.33076e-02,-7.88220e-02,-1.31479e-01,-9.51047e-02,-1.22055e-01,1.04215e-01,-3.33133e-02,-8.37028e-02,4.24090e-02,-2.66802e-02,-5.77051e-02,-5.42057e-02,1.27288e-01,1.25224e-01,1.33172e-01,6.47193e-02,-4.92525e-02,-6.64955e-02,-1.20166e-01,6.40648e-02,9.10352e-02,3.65662e-02,-9.43654e-03,1.52079e-01,-3.29706e-02,-1.54512e-01,-3.66432e-02,3.97262e-02,1.34724e-01,4.35691e-02,1.95319e-02,-1.32224e-01,-1.65984e-01,-1.06977e-01,4.99918e-02,-2.85987e-02,-9.38569e-02,-1.27735e-01,-6.32949e-02,9.97975e-02,4.20139e-02,5.57147e-02,6.37117e-02,-4.43197e-02,1.24577e-02,9.91668e-02,1.38955e-01,-6.08982e-02,5.14653e-02,
7.69036e-02,-3.74819e-03,9.60934e-02,-3.39876e-02,9.47066e-02,9.15232e-02,-5.07303e-02,-1.34250e-02,5.45982e-02,1.16370e-01,-2.49696e-02,6.10497e-02,5.88098e-02,1.20300e-01,-2.79404e-02,8.82729e-02,-1.26490e-01,-1.12215e-02,7.36781e-02,3.63375e-02,4.55232e-02,5.92939e-02,1.96933e-02,-1.41670e-02,1.41499e-02,-2.71835e-02,4.50925e-02,-1.87650e-02,-2.24611e-02,9.71435e-02,-1.05074e-01,9.49721e-02,-9.42587e-02,-7.70951e-02,4.02350e-02,-3.93555e-03,-2.05336e-02,6.91258e-02,-2.43248e-02,-1.07486e-01,5.56389e-02,7.33116e-02,3.23323e-02,-9.12174e-02,6.80194e-02,9.87523e-02,9.54595e-02,3.91514e-02,2.06680e-03,-6.13222e-02,6.66365e-02,-6.44319e-02,3.60623e-02,-2.45135e-02,8.07977e-02,3.37195e-02,2.07932e-02,7.64096e-02,-6.04919e-02,1.86626e-02,-2.03782e-02,-5.35595e-02,-5.92718e-02,-4.52819e-02,-1.49091e-02,2.72131e-02,-8.72418e-02,-1.96499e-02,-1.00392e-02,-5.89605e-02,5.51182e-02,-4.92510e-02,-4.14209e-03,-7.33972e-02,1.38652e-02,7.86693e-03,5.72915e-03,1.32461e-01,1.25768e-02,6.42777e-02,-6.35437e-02,2.64602e-02,-3.93036e-02,-7.75071e-02,6.76139e-02,7.33738e-02,-7.45918e-03,-9.38097e-02,7.03923e-02,-4.78856e-02,-3.99678e-02,9.49419e-02,-2.82241e-02,4.07113e-03,-2.68434e-02,2.11605e-02,7.13477e-02,-5.32918e-02,-3.15588e-03,-9.99942e-02,
1.24273e-01,6.39658e-03,2.23053e-02,-6.66041e-02,-2.29986e-02,3.59587e-02,-2.61016e-02,2.69426e-02,-1.16596e-02,-3.01889e-03,5.69038e-04,6.82736e-02,6.82388e-02,2.11378e-02,-5.70491e-02,7.58968e-02,-1.05590e-01,-7.23172e-02,2.12031e-02,6.03361e-02,9.50545e-03,2.67377e-02,-2.24408e-02,-1.79288e-02,1.24068e-02,-6.49637e-02,4.13320e-02,-9.59936e-02,8.39536e-02,8.69866e-02,8.16231e-02,2.38793e-02,3.95879e-02,2.41863e-02,-5.56437e-03,3.15678e-02,-1.63019e-02,9.13659e-02,2.46388e-02,8.41305e-02,1.46737e-02,6.57091e-02,1.81860e-02,8.04223e-02,-5.32569e-02,4.14465e-02,-6.82611e-02,2.17243e-01,1.20880e-01,1.03544e-01,-2.65183e-02,-1.96515e-02,-5.28421e-02,-4.77092e-03,-4.35638e-02,-5.88493e-02,-3.47569e-02,1.19282e-01,-5.98861e-02,6.27596e-02,5.83679e-02,-7.96354e-02,-3.18724e-02,5.62881e-02,-1.61603e-02,-4.73937e-02,-4.61537e-02,-6.37778e-02,6.76240e-02,9.36315e-03,-3.02411e-02,-4.64968e-02,-5.21497e-03,4.28739e-02,-6.52489e-02,6.77878e-02,4.40226e-03,-4.71517e-02,6.75542e-02,1.13878e-01,9.81044e-02,2.26122e-02,3.40129e-02,4.75223e-02,-1.72371e-02,-4.73761e-02,8.75282e-02,8.88706e-02,3.04489e-02,-4.02867e-02,2.31953e-01,2.93632e-02,-6.93837e-02,2.33194e-02,4.18143e-03,-4.95857e-02,5.30382e-02,-7.39269e-02,4.98855e-02,-6.18522e-02,
6.55971e-03,-6.50136e-02,-2.24327e-02,9.62553e-02,-2.86554e-02,8.35000e-02,9.73397e-02,2.86319e-02,-3.78030e-02,-4.18373e-02,-8.18416e-02,4.97303e-02,-3.94589e-02,1.25982e-01,4.48427e-02,4.93539e-03,-1.48844e-01,-8.65751e-02,1.31517e-03,1.49153e-02,5.40642e-02,1.33141e-01,1.05837e-01,-2.29622e-02,-6.18082e-02,6.12446e-02,7.08496e-02,2.67825e-02,3.82211e-02,-5.02234e-02,-1.58415e-02,5.96721e-02,-2.80506e-02,9.94664e-02,8.84834e-02,-1.49119e-01,3.21750e-02,1.31963e-02,1.64752e-01,-7.58408e-02,3.57307e-02,7.77018e-02,-7.49705e-04,-1.16888e-01,-4.15409e-02,9.42326e-02,-2.50469e-02,6.29320e-02,1.32106e-01,-4.94517e-02,-2.23779e-03,6.38930e-02,5.68470e-02,-8.04668e-02,-1.31615e-01,-9.13130e-02,-6.46482e-02,1.23924e-01,-1.22318e-01,2.24148e-02,1.12153e-01,-6.48817e-02,6.51629e-02,-9.49556e-02,-1.69580e-02,8.63399e-02,3.42264e-03,8.85456e-03,9.26213e-02,-7.35376e-02,1.64556e-02,-6.69089e-02,5.09837e-02,-1.09314e-01,7.91688e-02,1.02319e-01,-1.28941e-01,5.33486e-02,-2.78116e-02,1.79063e-01,1.26427e-02,-1.25702e-02,-3.99169e-02,-2.87513e-02,3.63846e-02,-4.13054e-02,8.46170e-03,-2.84597e-02,-1.26894e-01,-6.11600e-02,1.79009e-01,1.12557e-01,-7.59557e-02,6.37443e-02,5.31720e-02,3.31758e-02,9.53321e-02,-8.04844e-02,-1.13402e-01,1.60742e-03,
-1.57583e-01,6.67041e-02,-1.13706e-01,-4.07392e-02,7.25033e-02,3.71364e-02,-6.86485e-02,-3.93195e-02,-2.00625e-02,-1.16104e-01,2.96311e-02,3.48645e-03,1.73751e-02,-2.03382e-02,1.57729e-01,9.58585e-02,5.03167e-03,-1.17024e-01,3.56627e-02,1.12766e-02,8.30578e-02,1.52975e-01,-1.37766e-01,-2.61718e-01,2.55440e-02,-5.18263e-02,-1.80925e-01,2.05153e-02,-3.07345e-02,-1.35593e-01,7.42459e-02,-3.56436e-02,1.81319e-01,1.45286e-02,-9.66953e-02,2.84318e-02,-1.07190e-02,-8.90103e-02,-3.10336e-01,-1.08447e-01,1.96834e-02,-2.74906e-02,-6.73329e-02,4.59323e-02,-4.42024e-02,-2.46880e-01,1.07255e-02,-4.57486e-01,-5.03002e-02,6.42837e-02,7.98861e-02,-1.93372e-02,1.09210e-01,1.33652e-01,-1.85321e-02,1.32975e-01,-9.06268e-03,-4.17331e-02,3.74499e-02,6.85032e-02,-4.34136e-02,2.55051e-01,1.01584e-01,-2.60043e-02,8.72645e-02,1.39144e-03,-1.12035e-01,-6.50079e-02,3.84853e-02,5.66924e-03,9.21617e-02,-1.21596e-02,1.26604e-01,7.64011e-02,-4.25945e-02,-7.75304e-03,1.22533e-01,3.72862e-02,-1.83963e-01,-2.57986e-01,5.67886e-03,-2.05302e-01,1.32689e-02,-2.01511e-02,4.15836e-02,4.03297e-02,-1.01793e-01,8.28303e-02,1.61290e-01,4.74240e-02,8.50153e-02,4.71811e-02,3.28465e-02,-4.63718e-03,7.94169e-03,-1.61206e-01,-8.44747e-02,-7.95173e-02,-4.01579e-02,3.10862e-02,
-7.45845e-02,-6.61443e-02,4.37585e-02,1.76982e-01,2.75978e-02,4.07536e-02,-2.49766e-02,-4.24742e-02,1.48894e-02,5.74632e-02,-1.10245e-01,2.31441e-03,1.29279e-01,-4.05610e-03,-1.24976e-01,1.23883e-01,9.95854e-02,-3.01930e-02,2.21327e-02,-8.24021e-02,-8.27165e-02,-7.66612e-02,-1.87373e-02,-4.65176e-02,5.55491e-02,-4.25309e-02,5.74524e-03,-2.81840e-02,1.28564e-02,-4.27704e-02,1.84697e-01,1.06992e-01,3.65287e-02,2.91699e-02,3.03191e-03,1.29215e-01,8.93293e-02,1.21828e-01,1.41026e-01,6.71238e-02,9.57258e-04,1.11517e-01,1.42198e-01,5.11092e-02,-7.20971e-02,1.13050e-01,-2.17842e-02,2.40707e-01,-3.83383e-03,2.88044e-02,-3.72023e-02,-1.41195e-02,2.10663e-03,-1.90964e-02,-5.52808e-02,3.95251e-02,-1.14839e-02,2.30241e-03,1.07323e-01,-3.26424e-02,-2.92428e-02,-5.64918e-02,-3.31369e-02,-6.76194e-03,1.05824e-01,3.86758e-02,9.88657e-02,-5.01585e-02,2.50928e-02,7.46991e-03,-4.21288e-02,-1.98066e-03,6.96904e-02,-6.63379e-03,-7.06603e-02,1.99790e-02,-1.57019e-01,-6.38429e-02,3.52662e-02,3.17011e-01,-7.86464e-02,7.18836e-02,-5.21231e-02,-1.83233e-02,-6.04456e-02,8.03196e-03,5.20345e-02,8.34256e-02,9.61902e-02,9.66376e-03,1.67562e-01,-5.15916e-02,-1.49044e-02,3.70771e-02,-7.67562e-02,-1.25212e-01,9.01545e-02,2.32542e-02,3.03010e-02,6.01733e-02,
-1.17762e-02,1.42303e-02,-1.04635e-01,-4.52277e-02,5.45070e-02,-1.05643e-01,-6.72939e-02,7.80356e-02,-1.06378e-01,-2.05300e-02,-1.58681e-01,-9.26570e-02,-5.70847e-02,-1.36159e-01,-9.62224e-02,9.34426e-03,2.04362e-01,1.29512e-01,9.09867e-02,1.07629e-01,-9.92554e-02,-2.69173e-01,-7.82620e-02,-1.20589e-01,-1.33706e-02,-6.19372e-02,7.73078e-02,7.89950e-02,1.59171e-01,8.56895e-02,5.86155e-02,-1.72215e-02,-6.31904e-02,2.11755e-01,6.34805e-02,1.36568e-01,-1.92799e-02,-1.57537e-01,1.61227e-01,1.86893e-01,9.53396e-02,-1.77320e-01,1.35248e-01,3.20388e-02,3.98719e-02,3.28078e-02,5.85675e-02,-1.59560e-01,7.35362e-02,1.47797e-02,1.02745e-01,1.05799e-01,1.13018e-02,-2.14854e-02,1.28631e-02,-2.38865e-02,-1.05392e-01,-9.93177e-03,1.96454e-01,4.80874e-02,1.24879e-01,-3.03524e-02,2.77299e-02,-1.11623e-01,-1.18789e-01,1.18266e-01,6.03639e-02,5.47792e-02,5.64995e-03,-4.46785e-02,2.60812e-02,-6.78228e-02,1.27971e-01,-2.43322e-02,3.95244e-02,1.76513e-02,-4.42599e-02,-2.09871e-01,-3.69912e-02,9.06260e-02,3.82464e-02,6.99550e-02,3.92993e-02,3.45316e-02,-2.35866e-01,-5.05861e-02,-4.85758e-02,-7.66598e-02,-2.94004e-02,8.22281e-02,7.53376e-02,4.04466e-02,-1.08081e-01,-3.81647e-02,-8.73073e-02,-1.10678e-01,8.58197e-02,3.57415e-02,1.21466e-01,7.61978e-02,
-4.91768e-02,-8.30386e-02,6.47905e-02,1.16244e-01,9.69582e-02,1.21550e-01,3.19721e-02,-2.51564e-02,4.42754e-02,4.87105e-02,1.05990e-01,7.76547e-02,-4.86250e-02,1.38468e-01,-1.72959e-02,-2.62974e-02,-4.50236e-02,1.96713e-02,-5.72465e-02,3.29270e-02,4.66562e-02,1.25373e-02,1.04610e-01,-5.82716e-02,4.78599e-02,4.70842e-03,5.67447e-02,-6.30621e-02,2.13246e-02,-3.32423e-02,1.71173e-02,-7.42751e-02,-2.43395e-02,1.06899e-01,-1.11504e-01,-3.10342e-02,-2.72719e-03,9.32543e-02,-1.45865e-02,-7.15990e-02,-5.39888e-02,3.65380e-02,5.49936e-02,8.36839e-02,2.34175e-02,6.63092e-02,2.31175e-03,-1.42395e-02,2.10275e-02,7.98613e-02,-2.97834e-02,1.00096e-01,3.54626e-03,5.46805e-02,5.87605e-02,4.52483e-02,6.77276e-02,-4.06275e-02,-6.78945e-02,4.23964e-02,8.58573e-02,3.04759e-03,5.09232e-02,1.22648e-01,1.15853e-02,4.01169e-02,1.78133e-02,1.67281e-02,4.96701e-02,-8.22036e-02,4.11374e-02,1.32588e-02,-7.99753e-02,5.34294e-02,-1.96105e-02,4.72483e-02,-7.14228e-02,1.74217e-02,5.41039e-02,-4.09934e-03,-6.65264e-02,5.93340e-02,-1.70845e-02,-3.43438e-02,6.21695e-02,-9.83988e-02,-4.92682e-02,-1.23911e-01,-4.76094e-02,-6.27851e-02,-8.96586e-02,-1.13303e-02,-1.43577e-02,-1.45775e-02,3.32118e-02,4.88641e-02,-7.22666e-02,1.20993e-01,-4.43990e-02,4.55362e-02,
-7.81356e-02,9.15546e-02,3.12937e-02,6.66108e-02,-2.59717e-02,1.51517e-01,1.03396e-02,-2.50268e-02,-5.11849e-02,4.94994e-02,-6.36707e-02,-4.43293e-02,-5.86024e-02,4.23270e-02,5.06162e-02,-4.67489e-02,8.50284e-02,6.99448e-02,-6.27577e-02,-8.03855e-02,-1.34276e-02,-6.14275e-02,1.03469e-01,-5.88851e-02,1.42311e-02,3.37734e-02,5.41740e-02,5.42007e-03,-2.37063e-02,-1.80571e-02,-5.13192e-02,3.17607e-02,-2.37627e-02,7.65999e-02,9.58913e-02,1.48784e-01,8.59179e-02,6.70922e-02,2.19110e-01,-1.05865e-01,-3.17404e-02,7.94283e-02,1.05217e-01,-7.94395e-02,6.95849e-03,9.66716e-02,-2.95752e-04,8.59420e-02,-2.87497e-02,-1.98525e-02,6.05864e-02,3.55620e-02,-1.15219e-01,7.29979e-03,7.12663e-02,-3.39614e-02,4.19817e-02,1.22691e-01,7.15961e-02,1.02449e-03,3.80592e-02,-4.07086e-02,6.95460e-02,-2.14993e-02,4.99443e-02,-2.01889e-02,-6.32342e-02,-1.55346e-02,-3.54947e-02,-1.70459e-02,1.86824e-03,-7.98639e-02,2.12966e-02,-6.44352e-02,2.55902e-02,2.74232e-02,-1.28992e-01,-5.29515e-02,9.12235e-02,1.21078e-01,-5.16880e-02,1.04295e-01,-3.08108e-02,-8.34536e-02,-1.00062e-01,3.93925e-02,3.87860e-02,-4.93812e-03,9.98976e-02,-8.34042e-02,4.19384e-02,-5.66831e-02,-8.38428e-02,-2.78119e-02,1.50388e-03,-2.62382e-02,1.26941e-01,1.10062e-01,-1.26860e-01,-1.00791e-02,
-3.42457e-02,-7.56471e-02,-2.22694e-02,3.82571e-02,4.95325e-02,-1.77271e-01,-1.28705e-01,-4.55623e-02,2.08426e-02,-1.69450e-03,2.24439e-02,-8.47284e-03,8.66849e-03,7.74977e-02,-4.81217e-02,7.64760e-02,1.91829e-01,-1.86748e-02,1.28073e-01,-6.81672e-02,-2.15323e-02,-8.65134e-02,3.93608e-02,-1.50483e-02,-5.22070e-02,5.90824e-02,8.20185e-02,6.96955e-02,-5.90955e-02,3.20295e-02,-2.53036e-02,-1.00537e-01,-9.93811e-02,-3.64292e-02,1.40811e-02,1.77485e-01,4.12413e-02,1.06261e-01,-1.65634e-02,1.26194e-01,-4.79955e-02,6.06524e-02,1.56571e-01,2.49702e-02,-5.67845e-02,-3.40403e-02,-2.93709e-02,1.88700e-01,1.61747e-02,2.60771e-02,-1.13935e-01,5.41862e-02,-5.53068e-02,7.27342e-02,-5.92928e-02,1.70543e-01,4.59794e-02,9.40154e-02,4.84258e-02,2.40603e-02,-8.71074e-02,-4.55325e-02,-7.26928e-02,9.55627e-02,-6.82256e-02,-9.79978e-02,-1.34950e-02,-4.96827e-04,-2.07395e-02,1.42321e-01,-1.26518e-01,-3.38532e-02,1.58095e-01,-2.41781e-02,-4.90415e-02,-5.43651e-02,2.23841e-03,-8.69425e-02,3.49139e-02,6.90386e-02,-4.34222e-02,1.18198e-01,-2.42711e-02,6.70119e-02,1.63315e-02,2.27215e-02,1.48472e-02,-8.20593e-02,8.51175e-02,-5.91500e-03,2.97941e-01,-7.63414e-02,-6.27477e-02,-2.72569e-02,-4.47212e-02,3.75117e-02,-1.40711e-02,4.56050e-02,-2.28513e-02,7.32265e-02,
-8.00036e-02,-1.36159e-01,6.52438e-03,-4.21665e-02,3.24840e-03,7.81442e-02,-5.46829e-02,-8.84554e-02,-1.15769e-02,1.26368e-01,-1.19428e-02,-2.97572e-02,-7.38570e-02,1.37485e-03,9.32905e-02,-3.49487e-02,-3.60344e-02,4.36909e-02,-5.20728e-02,-3.44100e-02,-9.35767e-02,7.96406e-02,2.28009e-02,-6.43728e-02,4.04834e-02,1.16211e-01,-8.41752e-02,-3.85759e-02,-2.44945e-03,1.87900e-02,3.68749e-03,-3.36937e-02,9.23898e-02,-7.90519e-02,1.24258e-01,1.30093e-01,-1.45751e-01,2.88710e-02,7.32919e-02,-1.19647e-04,-6.39854e-02,-5.33180e-02,3.61554e-02,6.31839e-02,-6.47795e-03,-1.15020e-01,1.15342e-01,-2.10810e-01,2.35331e-02,-3.77454e-02,-5.41871e-03,-5.02459e-02,-8.58469e-02,-5.47260e-02,7.01324e-02,1.13941e-01,7.48555e-02,5.72761e-02,9.14900e-02,-1.39457e-02,-5.43731e-02,2.21340e-02,-6.65766e-02,5.54498e-02,-4.35730e-02,-8.74020e-02,-1.38744e-01,-3.00159e-02,4.68998e-02,6.69475e-02,6.92404e-02,1.25372e-01,-2.41847e-02,5.57578e-02,3.95878e-02,-2.31180e-02,-7.09474e-02,2.25318e-02,-1.67618e-01,-1.09933e-01,-7.76031e-02,9.22886e-02,-4.22305e-02,-2.48848e-03,1.01325e-01,-1.02459e-01,-1.15915e-01,7.65151e-02,-7.34088e-02,-2.06311e-02,-5.53913e-02,3.85388e-02,-8.35628e-02,1.07143e-01,-1.52655e-02,-5.06626e-02,-2.95360e-03,5.61200e-02,8.89197e-02,1.93596e-01,
