// Neural Network File Format by Kyle Julian, Stanford 2016
2,6,4,100,
6,100,4,
0,
0
0
0
0
-1.45384e-01,-2.94028e-01,3.40817e-01,4.51841e-02,-1.61495e-01,2.25795e-01,
1.50547e-01,1.02920e-01,-8.82514e-01,-6.58386e-01,-7.35534e-02,-2.64075e-02,
-2.09726e-02,5.51387e-02,-5.94889e-01,-1.44191e+00,-6.75109e-02,-7.66128e-02,
-2.44169e-01,3.06520e-03,1.37706e-01,-6.89075e-02,-4.23954e-01,6.48959e-01,
1.36146e-01,2.05641e-02,6.51902e-01,1.55522e-01,2.82442e-01,4.60883e-01,
6.37517e-04,6.92590e-03,-4.04728e-01,1.53941e+00,-5.47305e-02,7.58480e-02,
-1.94523e-01,-1.41459e-01,-3.46385e-01,-2.34464e-01,-5.16135e-01,5.92304e-01,
2.82813e-01,-6.93710e-02,7.80608e-01,3.26757e-01,2.60858e-01,-1.23184e-01,
1.02113e-01,3.65820e-01,1.54726e-01,9.16964e-02,2.75814e-01,5.27268e-01,
-8.95435e-02,-3.12651e-01,-1.41909e-01,-7.70675e-02,-2.34871e-01,-4.57264e-01,
-4.61731e-03,-8.18326e-04,1.07751e+00,-1.59936e+00,8.44294e-02,-8.66826e-02,
3.38042e-01,-3.19138e-01,2.86719e-01,9.29540e-02,7.81883e-01,9.22551e-01,
-3.23919e-01,2.35218e-01,-1.03781e+00,-4.47085e-01,-7.35556e-02,-4.87369e-02,
3.20669e-01,-5.93894e-02,-7.14969e-01,1.83924e-01,-1.89242e-01,1.08462e-01,
-1.58899e-01,8.02564e-02,-3.16475e-01,-6.24014e-02,-3.37508e-01,-3.92036e-01,
-2.24275e-01,-9.06043e-02,-6.01997e-01,-2.94368e-01,3.53274e-01,2.37270e-01,
1.46426e-01,3.75039e-01,-3.31961e-01,3.86120e-01,-3.66605e-01,3.61486e-02,
-1.12191e-01,-2.22289e-01,6.00945e-01,-1.24534e-03,3.42680e-01,1.69042e-02,
-2.54611e-01,7.23021e-02,-3.79747e-01,-1.63605e-01,2.99755e-01,2.62149e-01,
2.85160e-01,2.81445e-01,1.99974e-01,7.24980e-01,-7.50198e-02,1.95767e-01,
1.79923e-01,7.68500e-02,3.40157e-01,-4.24344e-01,-5.83879e-01,5.18638e-01,
-2.16872e-01,2.24784e-02,5.67277e-01,-2.55625e-02,-3.66873e-01,5.58851e-01,
-2.44293e-01,2.15353e-01,-2.03753e-01,-8.39561e-02,-5.62264e-01,-6.53625e-01,
-2.64350e-01,2.79330e-01,2.20672e-02,1.38371e-01,3.79132e-01,5.19939e-01,
2.54505e-01,1.24158e-01,6.03171e-01,2.69747e-01,-3.85473e-01,-2.59197e-01,
-3.58855e-01,-1.32230e-01,-7.10126e-01,-2.82814e-01,4.54224e-01,3.27817e-01,
1.65720e-01,1.05522e-01,-6.52062e-01,6.06645e-01,-4.78010e-02,3.46651e-02,
-1.09851e-01,1.44702e-01,8.09226e-02,-1.66726e-01,-4.10813e-02,7.93633e-02,
1.46254e-01,-6.20019e-02,-2.86143e-01,1.30781e+00,-5.28986e-02,4.63092e-02,
-1.91381e-01,-8.16998e-02,-3.55797e-01,4.45981e-01,6.27195e-01,-5.50431e-01,
1.04473e-02,1.81153e-02,1.20744e+00,-4.63637e-01,7.53627e-02,-3.38993e-02,
1.48983e-01,-3.15219e-01,-5.20034e-01,-1.53147e-01,-1.36050e-01,5.85551e-01,
5.35800e-03,1.59988e-01,9.24594e-02,-2.41981e-02,1.09794e-01,3.78107e-01,
-3.04796e-01,-1.33767e-01,4.76248e-01,6.62139e-01,8.58555e-02,4.43030e-03,
1.39829e-02,-7.79991e-03,-4.70512e-01,-1.40286e+00,-4.07479e-02,-5.89523e-02,
3.10730e-01,-2.30337e-01,2.64477e-01,1.32835e-01,7.13548e-01,8.06898e-01,
3.28376e-03,-2.15714e-01,-1.08419e-01,4.48494e-02,-1.40096e-01,-4.96662e-01,
-1.69388e-01,7.26802e-02,-3.50883e-01,-7.35133e-02,-3.19924e-01,-4.38357e-01,
1.99461e-01,-1.96385e-01,-2.00541e-01,-9.39309e-01,-1.06550e-01,1.82019e-01,
-1.75808e-01,-2.95745e-01,-3.06754e-01,1.37949e+00,3.27301e-02,7.84008e-02,
2.89244e-01,6.00890e-03,4.79501e-01,2.43617e-01,-3.93650e-01,-2.96957e-01,
2.31934e-01,-1.59839e-02,-6.58149e-02,8.46342e-02,3.93273e-01,-5.83072e-01,
2.05078e-01,1.24521e-02,1.30448e-01,1.43428e+00,2.60142e-01,2.43029e-01,
-2.99398e-03,1.23564e-02,5.40316e-01,1.27185e+00,4.49880e-02,5.96386e-02,
-2.03630e-01,1.70751e-01,-1.28104e-01,7.81181e-01,1.49230e-01,-1.82164e-01,
2.42471e-01,-2.49821e-02,-6.65807e-01,2.38079e-02,4.14663e-01,-6.35192e-01,
-7.79334e-02,-3.06841e-01,3.60095e-01,3.17858e-01,-1.86608e-02,1.02766e-01,
-1.24639e-01,6.75751e-02,-5.69930e-01,9.07623e-01,-2.45081e-01,6.12311e-02,
-3.14837e-01,-3.89851e-02,9.55410e-02,-8.61070e-02,1.01863e-01,-1.03423e-01,
1.70635e-01,1.27911e-01,2.89872e-01,2.07935e-01,4.57692e-01,-5.22054e-01,
1.01962e-01,-5.47387e-02,4.76281e-01,-7.38333e-01,1.98405e-01,-5.06499e-02,
-1.29166e-01,-1.58349e-02,-1.03019e-01,-1.08948e+00,-2.33811e-01,-1.70468e-01,
7.71622e-02,-1.67725e-01,-5.71553e-01,6.26895e-01,-6.15718e-02,-1.79873e-02,
-2.96599e-03,1.05943e-03,3.27578e-01,-9.35533e-01,3.66608e-02,-3.74061e-02,
4.04799e-02,-6.82641e-02,1.41012e+00,9.68242e-01,2.03724e-01,3.55636e-02,
-8.60040e-02,3.85640e-01,3.13727e-01,-7.43020e-03,1.00109e-01,1.16658e-01,
1.63012e-01,-2.81325e-01,3.89659e-01,-9.30416e-02,3.20433e-01,3.97801e-03,
-2.28099e-03,4.96673e-03,-5.89792e-01,-9.80195e-01,-7.29175e-02,-5.00146e-02,
3.29340e-03,1.61855e-03,6.14847e-01,1.25453e+00,6.62733e-02,6.89483e-02,
2.56637e-02,-9.12865e-02,-5.32782e-01,-1.25802e+00,-4.59160e-02,-6.70638e-02,
-1.57429e-01,1.62025e-01,1.19314e-01,-1.56986e-02,-2.98364e-01,2.40122e-01,
8.15329e-02,6.76208e-02,-5.48597e-01,8.42450e-01,1.26406e-02,7.28386e-03,
3.27827e-01,2.33708e-01,-1.14780e-01,-9.16378e-01,-1.04015e-01,-2.48537e-02,
2.06474e-01,5.78534e-02,2.27805e-01,-4.67609e-01,-6.71974e-01,5.82994e-01,
2.49890e-03,3.78865e-02,1.49846e+00,-6.25698e-01,4.47269e-02,4.61730e-03,
9.97313e-02,2.50230e-01,-1.03559e+00,-1.13057e-01,-4.64283e-01,-1.92512e-02,
-2.27224e-03,-7.52905e-03,-5.88829e-01,8.02952e-01,-4.64680e-02,4.14384e-02,
8.63887e-02,2.11588e-01,-8.35602e-01,-2.46206e-01,1.46192e-01,-1.01991e-01,
2.60158e-01,-2.45730e-01,5.99904e-01,4.50946e-01,8.84178e-02,2.70225e-02,
1.66416e-01,-2.77782e-01,-5.88959e-01,-1.96657e-01,4.95409e-01,-3.96079e-01,
1.59670e-02,-3.83383e-02,4.21004e-01,1.10080e+00,4.48334e-02,5.65817e-02,
2.80587e-02,-8.62700e-02,-5.45595e-01,-1.44926e+00,-4.94146e-02,-7.15924e-02,
-3.68516e-02,4.92596e-02,-4.46755e-01,3.55595e-01,-4.37941e-02,4.07092e-02,
-5.67838e-04,-1.06691e-02,6.28397e-01,-1.57201e+00,6.38031e-02,-8.56726e-02,
1.23862e-03,9.55317e-03,-4.62531e-01,1.53974e+00,-5.38471e-02,8.14797e-02,
7.70571e-02,-2.67331e-01,-5.62693e-01,-6.02985e-02,-1.05768e-01,1.00379e-01,
-2.37463e-02,3.96779e-01,1.26153e+00,3.63015e-01,3.55146e-02,-6.97990e-02,
-8.50071e-02,2.51475e-01,7.66198e-02,2.66245e-01,-3.79960e-01,-9.45385e-02,
-6.37700e-02,7.36030e-02,-2.96377e-02,-4.41389e-01,2.13348e-02,4.67453e-02,
-2.31713e-01,-1.72894e-01,7.73729e-01,-8.70646e-01,8.37645e-02,-6.50250e-02,
-9.96437e-02,1.56130e-01,3.13914e-01,2.19296e-01,1.73271e-01,3.45891e-01,
-2.98043e-01,1.34328e-01,-5.95553e-01,-2.78206e-01,-3.39499e-01,2.07145e-01,
-5.65436e-02,-2.23121e-03,-7.18942e-01,9.41753e-01,-6.40232e-02,5.43873e-02,
1.71813e-01,-4.38776e-01,8.76932e-02,1.22716e-01,-1.32902e-01,-1.24824e-01,
-2.18022e-01,2.26812e-01,-1.47531e-01,-3.42166e-01,4.85076e-01,4.66640e-01,
-1.58041e-01,-2.90918e-02,-1.38258e-01,-1.08030e+00,-1.68284e-01,-1.87971e-01,
1.28920e-02,-4.87882e-02,4.26114e-01,1.13760e+00,3.88764e-02,5.66460e-02,
2.18763e-01,5.43630e-02,-4.52289e-01,6.55648e-01,-3.86166e-01,2.95904e-01,
-1.85109e-01,-7.83586e-02,5.27333e-01,4.98828e-01,5.77127e-02,2.08109e-02,
-1.63504e-01,1.75816e-01,5.39256e-01,-1.50877e+00,2.29381e-02,-7.44077e-02,
-2.72091e-01,3.22357e-01,-1.35149e-02,-1.89246e-01,4.17824e-01,-6.48468e-01,
2.75867e-01,-3.25669e-01,6.23405e-03,1.93998e-01,-4.18105e-01,6.55933e-01,
-3.06072e-01,-1.91582e-01,4.56744e-02,-5.95458e-01,1.38978e-01,-2.35824e-01,
1.52543e-01,9.51621e-02,4.33906e-01,-3.55448e-01,-5.10650e-01,4.41076e-01,
1.07519e-01,-2.23939e-01,-1.86802e-01,-2.55276e-01,-4.19013e-01,2.69791e-02,
-1.96194e-01,-1.19749e-01,-5.12090e-01,-2.57772e-01,-3.08673e-01,2.20568e-01,
1.99356e-01,-2.03095e-01,1.49230e-01,3.00729e-01,-4.39928e-01,-4.32451e-01,
-8.99812e-02,-3.39913e-02,8.30946e-01,-1.25510e+00,2.33256e-02,-5.90324e-02,
-4.02404e-01,-3.06753e-01,-2.00728e-01,9.05599e-01,1.24426e-01,-3.76231e-03,
-2.85462e-01,-1.55910e-02,-4.52797e-01,-2.31499e-01,4.01895e-01,3.02883e-01,
4.01568e-03,
-1.03544e+00,
7.43099e-01,
2.37978e-01,
-3.72390e-02,
1.71550e+00,
-3.67891e-01,
-1.51614e-01,
7.09938e-03,
-8.53445e-03,
2.17206e+00,
1.41700e-01,
-1.26143e-01,
-1.80959e-01,
-3.81984e-01,
-1.39179e-01,
-6.90380e-02,
3.34036e-01,
1.46694e-01,
1.32704e-02,
-4.63496e-02,
3.41812e-01,
-9.43209e-02,
1.49609e-01,
1.14552e-01,
-4.50839e-02,
2.91499e-01,
1.09997e+00,
3.88395e-01,
6.19525e-02,
9.08622e-01,
2.92244e-01,
1.86522e-01,
-9.07952e-01,
-4.51874e+00,
1.22520e-01,
-2.37381e-01,
5.97876e-01,
-2.99883e-01,
-3.45302e-01,
-3.76315e-02,
-2.38558e-01,
-3.88564e-02,
2.27957e+00,
2.09562e-01,
-3.81842e-01,
-3.81945e-01,
4.51406e-01,
-2.08399e-01,
3.34394e-01,
-3.62315e-01,
1.98912e-01,
4.28936e-01,
-2.32322e+00,
2.70270e-01,
-3.97045e-01,
4.13880e-01,
2.43403e+00,
-1.58988e+00,
7.36617e-01,
-7.25516e-02,
5.60632e-02,
4.81708e-01,
-4.75136e-02,
-5.46499e-01,
-2.89552e-01,
-2.24325e+00,
5.07678e-02,
1.26265e-01,
-1.50151e-01,
1.12124e+00,
-6.53764e-01,
1.94699e+00,
1.43510e+00,
1.47172e-01,
-9.43804e-01,
1.94600e-01,
-4.25321e-01,
1.35776e+00,
-3.75938e-01,
1.39865e-01,
1.96866e-01,
-6.62861e-02,
2.40844e-01,
-1.77043e-01,
-6.00768e-02,
3.61413e-01,
1.43760e-01,
1.05086e+00,
-5.17503e-01,
1.44870e-01,
-1.39809e-01,
-2.37158e-01,
-8.02484e-02,
4.09348e-01,
-6.66190e-02,
1.56888e-01,
6.90564e-02,
-2.35851e-01,
2.71740e-02,
-8.97406e-02,2.06013e-01,-2.09714e-02,-2.41751e-02,9.02008e-03,-1.12625e+00,1.13106e-01,-2.16742e-01,-7.41287e-02,1.02410e-02,8.41730e-01,-8.37112e-02,1.60620e-01,1.30769e-03,7.50321e-02,5.91369e-02,-1.23354e-02,-1.71508e-01,1.35070e-01,1.02475e-01,2.02666e-01,-5.92736e-02,8.98629e-02,-1.01808e-01,-1.37030e-01,1.59697e-01,2.96148e-01,-1.58356e-01,1.65331e-01,1.09296e-01,-3.58965e-01,9.95802e-02,-6.63310e-02,-9.29203e-02,-4.07708e-01,-5.05081e-02,8.66831e-02,5.01274e-02,1.21458e-01,-1.66427e-02,-1.50813e-01,3.02806e-02,2.67850e-01,1.19929e+00,-1.49322e-01,4.46445e-02,-2.20766e-02,-7.09942e-02,2.89342e-02,-1.72205e-01,-2.98290e-02,-2.29366e-01,6.99572e-02,-1.27923e+00,-1.57390e-01,1.31797e-01,-1.12346e-01,-6.49171e-01,-8.68639e-01,1.05476e-03,-1.65603e-01,-2.33274e-01,-1.36722e-02,-1.51972e-01,-1.12345e-01,1.79209e-01,1.07443e+00,1.65389e-01,-6.80199e-02,8.91969e-02,6.23880e-01,2.86494e-01,-2.84350e-01,-1.76594e-01,-4.30149e-01,1.28773e-01,-1.26393e-01,1.24092e-01,1.99848e-01,-2.41936e-01,1.57219e-01,1.78887e-01,6.11206e-01,-8.31402e-02,-7.18490e-02,-1.91081e-01,2.18640e-01,1.74943e-02,-2.40119e-01,-1.55266e-01,-4.71704e-02,-4.32056e-02,-5.52950e-02,-1.58332e-01,7.77257e-02,1.05103e-01,6.26495e-02,3.70212e-01,4.19154e-02,-2.91569e-02,
6.84923e-02,-2.40342e-01,6.79480e-01,1.88700e-01,-1.09434e-01,-5.12996e-01,-6.71887e-02,-4.52411e-02,3.88153e-02,2.91022e-02,1.70025e-01,2.39686e-02,-4.31615e-02,-6.58410e-02,1.42150e-01,-4.72245e-02,4.26343e-02,2.43997e-02,1.60142e-02,-4.36629e-03,5.16323e-02,2.92822e-02,-9.44541e-02,-1.14184e-02,1.59384e-02,-4.26010e-02,1.22338e-01,-1.77561e-02,1.70626e-01,7.38381e-02,-5.20184e-02,1.09185e-02,-4.59462e-02,-4.16826e-02,-1.67910e+00,-2.06458e-02,-3.12439e-02,1.11318e-01,-4.96841e-02,-1.00765e-01,-4.39407e-02,-1.00461e-01,1.42291e-01,-3.16483e-01,1.73251e-02,-9.44206e-02,-5.59675e-02,2.48130e-02,5.50578e-02,5.10017e-02,1.28487e-02,2.05853e-02,9.44947e-02,1.27886e+00,-1.51692e-01,-1.13927e-01,7.36431e-02,-7.18666e-01,1.35918e-01,2.79243e-01,-6.59411e-02,-1.74039e-02,2.21210e-01,-9.23880e-03,1.48296e-01,-4.47458e-02,1.05192e+00,-6.50828e-02,-3.44615e-02,1.17610e-02,5.98909e-01,4.41575e-01,7.40448e-01,-6.94250e-01,-9.50753e-01,-6.74027e-02,3.50802e-02,-3.40041e-02,1.83787e-01,-6.57610e-02,1.10168e-02,5.21960e-02,-4.04490e-02,1.00058e-01,-4.48805e-02,-1.63920e-01,6.24739e-01,5.05123e-02,2.23648e-01,-2.40551e-01,6.36811e-02,-6.68376e-02,-3.39745e-02,-1.38989e-01,-1.29339e-02,-4.33695e-02,5.07590e-02,-7.50305e-02,-1.16951e-01,1.05782e-01,
-5.05537e-03,-8.87853e-03,-5.48733e-03,-9.71657e-02,9.74673e-03,4.66715e-03,-1.50284e-01,1.35100e-02,1.25764e-01,-1.49553e-01,-7.84886e-03,1.67292e-01,-6.65324e-03,-5.12493e-04,-3.39490e-02,9.99336e-02,-1.37422e-02,5.70181e-02,2.82291e-02,9.71438e-03,-1.45731e-01,-1.82430e-01,-3.61441e-01,3.59756e-03,-1.18794e-01,2.42805e-02,-9.83374e-02,-1.37108e-02,-2.46370e-03,2.34364e-01,1.10998e-02,3.11653e-03,3.72992e-02,8.85210e-03,-6.21717e-03,1.19908e-01,-2.64227e-02,-1.53243e-02,9.39266e-04,3.74269e-03,-2.47642e-01,1.13328e-01,9.35865e-02,1.67653e-03,4.33733e-04,1.59322e-01,3.52776e-03,-1.57496e-01,7.11548e-03,1.77964e-01,1.90013e-01,-4.46405e-02,-3.57357e-03,1.22988e-03,9.31098e-03,9.08021e-03,3.05483e-02,-6.26249e-03,-3.17172e-03,5.38863e-03,-2.57301e-02,2.31800e-02,-2.10659e-02,-5.62551e-02,4.45579e-03,-3.40758e-02,-1.03552e-02,2.37767e-04,6.90197e-03,1.25099e-02,-1.19247e-03,-1.36278e-03,-1.15419e-02,1.81863e-02,1.27255e-02,-3.91632e-04,4.58112e-05,-2.14966e-02,2.06003e-02,6.83432e-02,8.34771e-05,-1.40115e-02,-2.26697e-02,-1.48108e-02,1.26021e-01,-8.75666e-02,-9.29508e-03,3.97933e-04,9.81531e-03,6.02521e-03,1.89264e-01,-1.87131e-01,-1.15890e-02,-5.25053e-02,-3.64840e-03,-1.07933e-02,-1.43639e-01,-2.12881e-02,1.22713e-02,2.19591e-01,
5.33139e-04,8.81903e-04,-7.12125e-03,4.03993e-02,6.66095e-03,2.89013e-03,2.08529e-01,-1.03076e-02,1.85114e-01,-2.22150e-01,-2.43323e-03,1.41236e-01,3.76764e-03,-2.06347e-03,-1.35856e-02,6.81362e-02,-4.13182e-04,2.42383e-03,2.76499e-02,5.79896e-04,1.21398e-01,1.62125e-01,-2.76661e-01,4.46759e-03,-8.47820e-02,3.25044e-02,8.43611e-03,5.22181e-04,-2.21444e-04,-2.16241e-01,5.75548e-04,-1.75230e-04,1.54218e-01,-4.07955e-03,4.90065e-05,7.03873e-02,-1.13952e-01,-8.80058e-03,2.94643e-03,-1.16784e-03,-1.59440e-01,-5.28344e-02,6.90856e-02,1.69998e-03,-5.16061e-03,-1.39138e-01,7.35172e-04,7.04145e-02,-9.79320e-04,-2.36120e-01,-8.98739e-02,-3.86244e-02,1.06202e-03,-1.81979e-03,6.82308e-04,6.60760e-03,2.33772e-03,-7.15824e-03,6.68709e-03,3.11388e-04,2.09669e-03,1.51563e-02,7.12639e-03,5.53493e-02,-1.50046e-03,-1.00540e-03,-3.95534e-04,2.74638e-03,-2.28722e-03,2.96701e-04,-7.22943e-03,1.24729e-03,1.66074e-02,5.48273e-03,5.90917e-03,1.73310e-03,-2.14895e-03,-4.84990e-03,-6.20310e-04,-6.26736e-03,-2.17451e-03,9.00833e-03,1.90588e-03,-5.47009e-03,1.53229e-01,-5.52032e-02,4.31067e-03,-9.43770e-04,-2.61517e-03,-3.12099e-03,-1.86058e-01,1.82646e-01,4.16530e-03,5.86553e-02,1.09725e-03,3.05282e-03,-1.71759e-01,-1.55862e-02,-3.56123e-03,1.22342e-01,
-4.83436e-01,
4.00617e-01,
5.38901e-02,
-2.14614e-02,
