// Neural Network File Format by Kyle Julian, Stanford 2016
2,6,4,500,
6,500,4,
0,
0
0
0
0
-2.23662e-01,-1.02273e-01,-1.67258e-01,2.49375e-01,4.15013e-01,-3.27022e-01,
8.92665e-02,3.68139e-02,4.29018e-01,-3.79734e-01,1.72667e-01,3.05132e-01,
2.43075e-01,1.94171e-01,1.33669e-01,-5.41914e-01,-1.61143e-01,1.03233e-01,
3.15047e-01,1.14668e-01,-5.19257e-01,8.97169e-01,-4.04575e-01,1.40798e-01,
5.39880e-02,-2.04012e-01,3.62691e-01,8.40402e-02,-2.39281e-02,1.22218e-01,
-9.46092e-04,2.85410e-04,4.31378e-01,7.65516e-01,4.26370e-02,3.51493e-02,
2.45400e-01,-2.53677e-01,-1.00120e-01,9.43206e-02,1.52168e-01,2.17378e-01,
3.64666e-01,2.84086e-01,-3.02076e-02,-1.75884e-01,-2.09410e-01,-5.31609e-02,
4.96500e-02,-6.05693e-02,-1.09812e-01,8.61605e-01,-7.63069e-02,1.58180e-02,
-1.98065e-01,-1.21706e-01,1.82861e-01,4.45276e-03,-2.61418e-02,-2.32888e-02,
-3.41166e-01,-4.48731e-02,2.37550e-01,-1.97858e-01,1.58733e-01,4.69705e-01,
-3.73022e-01,-1.86195e-01,3.36768e-01,-2.43308e-01,-9.29967e-02,-1.31356e-03,
7.95874e-02,1.93712e-01,-7.14320e-01,-2.06974e-01,1.91849e-02,-1.38827e-01,
2.24902e-01,1.76245e-01,1.37213e-01,-5.35587e-01,-1.68622e-01,7.40863e-02,
-9.49215e-02,2.38100e-01,8.61904e-02,-6.27484e-02,4.04993e-02,4.44944e-02,
3.06492e-01,2.31272e-01,9.34183e-02,5.35203e-02,1.29267e-01,5.18308e-01,
-2.65768e-02,5.76411e-02,6.45239e-01,1.30233e+00,5.10914e-02,7.10045e-02,
-2.89766e-01,2.63786e-01,-3.41061e-01,2.87413e-01,3.12603e-01,-2.96270e-01,
2.72142e-01,-1.16611e-01,5.77655e-01,1.13699e-01,2.82347e-01,1.54442e-02,
-2.20497e-01,4.24543e-02,-1.30838e-01,-2.64870e-01,7.12800e-02,9.53304e-02,
-1.30107e-01,-2.32837e-01,-1.17514e-02,3.04695e-01,-2.12770e-01,2.20409e-01,
2.62176e-01,-2.19112e-01,-2.89875e-01,-2.17954e-01,2.55531e-02,1.61796e-01,
-1.53281e-01,3.53557e-02,3.37812e-01,3.68264e-01,4.32031e-01,-2.38034e-01,
1.02549e-01,2.01716e-01,6.05940e-01,-3.55088e-01,-2.90738e-01,-3.22662e-01,
2.51479e-02,3.09339e-01,-3.32096e-01,1.41566e-01,-2.84568e-01,2.77333e-01,
2.13315e-01,-2.32733e-01,-3.34448e-01,4.34618e-01,1.17687e-02,-3.62917e-01,
-1.49963e-01,-8.21085e-02,-1.87338e-01,7.45197e-01,8.00820e-02,-1.82828e-01,
-3.29129e-01,-1.05412e-01,-1.05275e-01,-6.57377e-01,2.37184e-01,3.08734e-01,
-4.12994e-01,-2.83910e-01,2.92278e-01,-1.45919e-01,-1.19897e-01,2.93646e-01,
-3.22140e-02,-1.56218e-01,-8.04739e-02,-3.09507e-02,7.44297e-02,2.34872e-02,
2.19327e-02,-1.73012e-01,-2.19335e-01,-1.28987e-01,2.28497e-01,-2.58035e-01,
2.80102e-01,8.64845e-03,1.08552e+00,1.41440e-01,1.61521e-01,-5.55705e-02,
8.50701e-02,-1.73902e-01,-1.54466e-01,-3.42066e-01,1.46890e-01,-3.90793e-01,
-2.71685e-01,-2.82634e-02,1.58480e-01,1.79753e-01,-4.88244e-01,-3.51068e-01,
2.07995e-01,-1.06816e-01,-6.74818e-02,3.02655e-01,2.72620e-01,1.96294e-01,
-4.32600e-03,-1.34688e-01,4.58912e-01,4.10070e-01,8.63329e-02,-3.95321e-01,
-2.49512e-02,-3.58943e-01,9.47221e-02,-4.53554e-02,3.42129e-01,2.93610e-01,
6.88935e-02,-2.20840e-01,-2.11917e-01,-2.21787e-02,-3.15534e-01,3.16923e-01,
2.91443e-01,-3.13830e-01,-3.19898e-01,-1.07063e-02,-1.91669e-01,-3.65536e-01,
-2.36844e-01,2.13424e-01,-1.75839e-01,1.37021e-02,1.97944e-01,2.82618e-01,
-3.54762e-04,-4.40750e-03,-5.33564e-01,6.56199e-01,-4.58713e-02,3.30047e-02,
1.45447e-01,3.02748e-01,-4.64100e-01,-8.27509e-01,-1.25512e-03,-5.99557e-02,
-3.85900e-02,3.97630e-01,-2.82891e-01,-8.01008e-01,1.50336e-01,-1.17548e-01,
1.82415e-01,1.62545e-01,2.26591e-01,1.05820e+00,1.01798e-01,7.74399e-02,
-1.29589e-01,2.60159e-01,2.09343e-01,-1.90128e-01,2.47477e-01,2.90899e-01,
1.06228e-01,-1.99388e-01,-4.07364e-01,4.07515e-01,1.15087e-01,2.58484e-01,
-2.26280e-01,2.63667e-01,8.82067e-03,-7.44033e-01,-4.08480e-01,-4.53141e-01,
1.73468e-01,-1.05074e-01,2.07828e-01,1.59310e-01,7.09377e-03,2.36456e-01,
3.38073e-01,1.03450e-01,-1.08349e-01,4.41879e-01,-2.22936e-01,-3.37600e-01,
-4.97760e-02,2.26199e-01,7.82151e-02,1.40742e-01,-2.52575e-01,4.30446e-01,
-8.53218e-02,-1.71216e-01,2.34114e-01,-1.20464e-02,-1.11858e-02,-2.13327e-01,
5.73181e-02,-5.08334e-02,1.89744e-01,-2.29598e-01,3.14210e-01,1.66967e-01,
-2.18260e-01,2.14445e-01,1.39386e-01,2.21285e-01,-3.44198e-01,2.70507e-01,
1.64866e-01,2.46795e-01,-4.09713e-01,-9.44156e-03,-2.80138e-01,-5.73300e-01,
3.44838e-02,-1.39066e-01,2.24307e-02,-2.35486e-01,2.08142e-01,1.90778e-01,
-7.40990e-03,-1.68377e-01,-2.11851e-02,3.18124e-01,-6.77928e-02,1.32968e-01,
-1.17810e-01,-2.88110e-01,1.91482e-01,4.30297e-04,-1.38250e-01,1.50500e-01,
-1.37976e-01,1.97660e-01,3.66476e-01,-2.15659e-02,-2.65283e-02,-2.96660e-01,
1.71957e-01,3.15601e-01,-2.00393e-01,1.12071e-01,-3.67295e-01,1.13911e-01,
-3.13586e-01,2.79234e-01,-1.03015e-02,-3.15695e-01,-1.12256e-01,-3.83744e-01,
-3.06223e-01,1.27351e-01,-4.06991e-01,-3.93178e-01,-3.78530e-01,-2.85224e-01,
1.65935e-01,3.57194e-02,-1.58422e-01,6.62422e-01,4.00932e-01,4.59578e-01,
3.12304e-01,2.53695e-01,-3.07257e-01,2.91564e-01,3.21302e-03,2.97985e-01,
3.39007e-01,-7.18932e-02,1.89397e-01,4.37290e-01,2.26662e-01,1.56152e-01,
3.36653e-02,-4.60988e-02,1.01379e+00,6.90401e-01,1.24637e-01,1.06082e-02,
8.10814e-02,-7.50998e-02,3.51742e-02,-2.65728e-01,3.16313e-01,-5.51765e-02,
2.30133e-01,3.03829e-04,-7.00711e-02,2.27856e-01,-4.27529e-01,-3.19071e-01,
-1.20484e-01,4.71503e-03,-3.78912e-02,2.09627e-01,3.06771e-01,-1.88410e-01,
2.35955e-02,-3.31700e-01,3.98010e-01,4.84001e-02,1.86909e-01,-1.37867e-01,
-2.79843e-01,-5.64132e-02,3.15728e-01,2.36062e-01,-3.40601e-01,8.52621e-02,
-8.26555e-02,1.73722e-01,2.12561e-01,4.33130e-01,-4.00361e-01,-1.41947e-01,
6.57077e-03,-1.06702e-03,1.14815e-01,-9.06338e-01,1.02309e-02,-2.68945e-02,
-2.50814e-01,9.87377e-02,-5.14707e-01,-3.53744e-02,-1.33099e-02,-3.11792e-01,
-6.44948e-02,-3.14374e-01,3.06103e-01,-4.31122e-01,-3.13395e-02,3.77473e-02,
1.02626e-02,4.37353e-02,-4.73137e-01,-1.01219e+00,-2.81220e-02,-5.75367e-02,
3.45825e-01,2.36425e-01,-1.90833e-01,-4.07927e-01,4.49407e-01,-2.72831e-01,
-2.27665e-01,8.97082e-02,-4.08596e-01,-1.33218e-01,-3.58217e-02,1.23493e-01,
5.44431e-03,-9.77871e-03,-2.00550e-01,-9.57010e-01,-3.43431e-02,-2.97577e-02,
1.92791e-01,-1.70040e-01,-1.10569e-01,8.58425e-02,-1.85027e-01,-2.61880e-02,
-3.70546e-01,1.56631e-01,-9.35931e-02,-5.70910e-01,-1.37759e-01,-2.42681e-01,
8.30130e-02,1.16548e-01,1.01679e-01,-1.66197e-01,1.84890e-01,1.84273e-01,
2.31109e-02,4.28212e-01,-1.32926e-01,-7.60999e-01,1.25454e-01,-8.27204e-02,
-1.80942e-01,2.71647e-01,-3.30911e-01,2.54298e-01,-4.36829e-01,-3.03239e-01,
-2.29256e-01,-1.64437e-01,-8.58140e-02,-2.63318e-01,-3.15637e-01,-4.48020e-01,
-2.01785e-01,1.48120e-01,3.82784e-01,6.00107e-03,-1.97122e-01,7.02502e-02,
3.97710e-01,1.57554e-01,-1.63451e-01,4.39693e-01,3.36698e-01,-7.04012e-02,
-3.49584e-03,1.46830e-03,-2.86070e-01,1.23948e+00,-2.89090e-02,1.15759e-01,
-2.09546e-01,-2.32024e-01,-1.41203e-01,-1.79168e-01,3.76236e-01,4.15935e-01,
-2.37842e-01,-2.35328e-01,-3.40629e-01,-2.99771e-01,2.31721e-01,-1.23180e-01,
2.22860e-01,-5.35938e-02,-1.28862e-01,1.77975e-01,-3.32534e-01,-3.58005e-01,
2.00617e-01,5.49918e-02,-2.77037e-01,1.93863e-01,3.04873e-01,-2.82835e-01,
-1.64055e-01,-2.17643e-01,-2.48529e-01,4.01584e-01,3.46281e-01,-2.87295e-01,
2.68248e-01,-9.07076e-02,-1.60434e-01,1.03646e-01,-3.81430e-01,4.21156e-02,
-6.43259e-02,2.10766e-01,2.45027e-01,2.69465e-01,-4.77537e-01,2.21602e-01,
2.30559e-01,1.64976e-01,-3.84484e-01,2.27130e-01,-3.33751e-01,2.28910e-01,
-1.14884e-01,-2.94037e-01,1.94839e-01,-6.37176e-02,-1.61577e-02,6.70102e-02,
-1.18923e-01,2.59673e-01,1.02525e-01,3.87222e-01,5.18136e-02,-4.27939e-01,
-3.11479e-01,-2.43155e-01,-4.57169e-02,1.56103e-01,2.24589e-01,-6.29962e-02,
-2.67737e-01,-2.19700e-01,2.96556e-01,-6.52887e-02,5.37352e-03,-7.60446e-02,
2.52501e-02,1.46820e-01,5.54606e-01,-1.55617e-01,8.09064e-02,-2.17585e-01,
8.00053e-02,-8.09107e-02,2.72433e-01,-2.12646e-01,-2.91922e-01,3.05894e-01,
2.89281e-01,-1.52745e-01,-7.57499e-02,-2.33121e-01,-3.29052e-01,-2.92669e-01,
3.22094e-01,-3.64228e-01,2.18079e-02,1.55544e-01,-1.60323e-01,-1.32601e-01,
2.78789e-01,2.31498e-01,-1.88162e-01,-3.02864e-01,9.96425e-03,2.81218e-01,
-1.96475e-01,1.17332e-01,3.15988e-01,-4.44025e-01,1.36162e-01,-3.78259e-01,
-2.51020e-02,2.62741e-01,1.87918e-01,-3.06869e-01,4.28803e-02,-3.18101e-01,
3.37795e-01,2.12961e-01,2.59423e-01,-1.49727e-01,1.24155e-01,-1.84433e-02,
3.60386e-01,-3.38603e-01,-7.88072e-02,9.07763e-02,-1.84765e-01,-7.94812e-02,
1.13064e-01,-3.40173e-02,1.79713e-01,9.13871e-02,1.26856e-02,-1.16669e-01,
-1.05709e-01,-2.90761e-01,8.97722e-03,-1.27696e-01,2.19933e-01,-3.67287e-01,
7.48215e-02,-5.66218e-02,1.38643e-01,5.38467e-01,4.54225e-01,-1.02562e-02,
2.43371e-01,3.52517e-01,-2.00129e-02,-3.59824e-01,1.21738e-01,-9.98669e-02,
2.92554e-02,-1.67625e-01,-1.04791e-01,6.18089e-01,2.65535e-02,5.11705e-02,
3.15850e-01,2.55644e-01,-1.92181e-01,-5.44260e-01,-1.57672e-01,-2.68384e-01,
-9.19523e-02,2.97878e-01,1.17006e-01,1.89600e-01,1.47995e-01,2.35037e-01,
1.62905e-01,3.04686e-03,7.37092e-02,1.67356e-02,-3.31900e-01,-4.35082e-01,
-3.53675e-01,3.09886e-01,-4.33234e-01,2.26275e-01,-1.43061e-01,1.91443e-01,
3.39776e-01,-6.41304e-02,-1.44321e-01,5.06145e-01,7.27484e-02,3.03421e-01,
-3.28430e-01,1.58717e-01,-1.72802e-02,2.10189e-01,1.21653e-02,-2.44457e-01,
3.44367e-01,7.20729e-02,9.29659e-01,7.96154e-01,1.82009e-01,2.32917e-01,
-2.69708e-01,-2.15438e-01,1.85995e-01,-1.46547e-01,-1.23092e-02,3.79884e-01,
-1.39728e-01,-5.71774e-02,-4.12469e-01,5.01930e-01,5.56430e-01,-2.51242e-01,
-2.11851e-01,-1.20201e-01,4.09395e-01,-4.32532e-02,-1.64646e-02,4.92689e-02,
1.51705e-01,1.66652e-01,3.40186e-02,-1.57204e-01,3.27794e-02,-1.49618e-01,
3.59184e-02,-2.41958e-01,2.25926e-01,1.88902e-01,1.61506e-01,3.23574e-01,
-1.46172e-01,-2.28250e-01,-2.94271e-01,5.91962e-03,1.82437e-01,8.39820e-02,
3.19720e-01,2.58704e-01,-1.31406e-01,-3.39569e-01,4.25064e-01,-2.82014e-01,
2.73513e-01,3.09459e-01,3.51608e-01,3.22889e-01,-3.16682e-01,1.66529e-01,
-2.30371e-01,-1.26152e-01,-1.98323e-01,-1.38493e-01,1.21898e-01,-1.24456e-01,
-1.76383e-01,-1.11366e-01,1.60804e-01,-1.79039e-01,-3.09563e-01,1.99798e-01,
-4.10184e-02,-2.75087e-01,1.11701e-01,4.95747e-01,-3.06620e-01,3.06634e-01,
1.77444e-01,-3.86112e-01,1.03045e-01,-9.36204e-02,9.91385e-02,4.42989e-02,
-1.28922e-02,-7.74742e-02,1.88057e-01,4.04533e-01,-3.31488e-01,-1.32101e-01,
-1.44058e-01,1.63888e-01,2.88102e-01,3.99686e-01,-1.89264e-01,5.95815e-01,
6.00029e-02,-1.73656e-01,-3.15262e-01,-2.82420e-01,3.85673e-01,-1.49453e-01,
-3.09747e-01,-3.66808e-01,3.53644e-01,3.21579e-01,-8.63099e-02,8.95500e-02,
1.12852e-01,-3.09666e-01,-1.80502e-01,3.80087e-01,-2.29561e-01,-3.48495e-01,
-2.47860e-02,7.58572e-02,1.47094e-02,-8.84154e-01,8.54734e-03,-4.61174e-02,
-1.51628e-01,3.60930e-02,2.02954e-01,-7.07292e-01,2.48835e-01,3.99775e-01,
-1.55945e-01,5.47659e-02,-7.00685e-01,5.85534e-02,-1.78267e-01,2.29401e-02,
2.05269e-01,-2.61546e-01,1.75096e-01,3.47487e-02,-5.12571e-03,4.38757e-01,
2.60119e-01,7.71793e-02,-1.51246e-01,4.08894e-01,1.54769e-01,-1.56624e-01,
-1.97580e-01,2.42387e-01,-4.14913e-02,-3.32592e-02,-8.08010e-02,-1.72101e-02,
3.79457e-01,2.37448e-01,2.62471e-01,-1.09612e-01,-4.66887e-02,1.50487e-01,
-2.76212e-02,-1.67132e-01,-1.25407e-01,-3.48846e-01,9.48874e-02,2.16221e-02,
-1.57501e-01,2.01844e-01,5.14235e-01,-2.63713e-01,-1.37165e-01,2.51000e-01,
9.62580e-02,5.46287e-02,3.20406e-01,2.19962e-01,-5.69821e-02,7.55290e-02,
2.29263e-01,-3.15456e-01,2.19637e-01,-3.63111e-01,4.27816e-01,2.90860e-01,
-5.41379e-02,-1.02219e-01,-2.56296e-01,7.81317e-02,-1.51004e-01,7.78032e-02,
-1.16011e-01,2.96292e-01,-1.36201e-01,-5.49765e-02,4.44121e-01,-3.16498e-01,
-3.09296e-03,1.06261e-02,2.51538e-01,-7.12608e-01,2.71060e-02,-2.99522e-02,
-1.80869e-01,-1.26868e-01,9.42342e-02,6.73398e-01,-8.87255e-02,1.86665e-01,
1.07734e-01,6.72365e-02,-6.11975e-01,-2.30669e-01,-7.51123e-02,-4.74257e-01,
2.99642e-02,1.75251e-02,4.05587e-01,-8.91462e-01,-1.50308e-02,-3.21605e-02,
-1.05406e-01,-1.97368e-02,1.35229e+00,-5.41078e-01,1.38317e-01,-3.12714e-02,
-1.29653e-01,-2.16089e-01,4.17952e-01,-2.86657e-01,3.07810e-01,-2.15249e-01,
2.76765e-01,3.26242e-01,-2.56642e-01,2.40823e-01,-8.59319e-02,1.58633e-01,
-5.15777e-02,-8.76665e-02,-2.79725e-01,4.93850e-01,1.38924e-01,-1.72013e-01,
2.56188e-01,-1.17852e-01,3.02815e-01,-5.29258e-01,2.58129e-01,4.91272e-01,
2.59676e-01,-2.06109e-01,3.56280e-01,-3.72357e-01,-7.83511e-03,-7.92178e-02,
-1.43531e-01,-6.76128e-03,-4.16151e-01,-2.92940e-01,2.56705e-01,3.42947e-02,
1.34770e-01,2.76037e-02,-5.08061e-01,-7.68403e-02,-5.55121e-01,-8.17949e-02,
-1.62968e-01,-1.09156e-01,7.58682e-01,6.38697e-01,-3.20303e-01,-5.14924e-02,
-2.19798e-01,-3.84817e-01,-2.82985e-01,1.15655e-01,4.41014e-01,-3.00569e-01,
2.96384e-01,1.78684e-01,2.17491e-01,9.59047e-02,3.95061e-01,4.66680e-01,
3.67064e-01,3.09611e-01,-3.31397e-01,-1.32800e-02,6.13497e-02,-2.08827e-01,
1.42852e-01,-3.35555e-01,2.41576e-01,-3.83307e-01,2.47706e-01,-3.40561e-01,
6.48147e-02,1.86095e-01,-2.43815e-02,-4.05055e-01,3.94625e-01,2.33177e-01,
3.77805e-01,-2.22374e-01,3.21096e-01,1.88949e-01,1.75521e-01,-2.02115e-02,
4.08990e-03,-1.50094e-02,2.81027e-01,-8.61138e-01,4.23337e-02,3.33210e-02,
-2.87322e-01,-3.19629e-01,3.90956e-01,-1.63842e-01,3.24537e-02,-2.21132e-01,
-3.67889e-01,-2.09702e-01,5.07165e-01,4.70123e-01,-3.64453e-01,2.63275e-01,
2.07703e-01,1.66541e-01,-4.74921e-01,-6.32267e-01,1.87959e-01,2.37615e-02,
3.44543e-01,2.00550e-01,1.03882e-01,-9.99831e-01,-3.05366e-01,-1.36830e-01,
-2.59437e-01,1.37179e-01,-6.91137e-01,-1.22165e-01,-1.79794e-01,2.31973e-01,
-2.24932e-01,-7.12009e-02,5.14935e-02,-2.47877e-02,2.95155e-01,3.64673e-01,
-4.23299e-01,-2.73201e-01,-2.01293e-01,4.27543e-01,-3.50118e-01,4.63303e-01,
-1.66315e-01,-3.26069e-01,-5.33377e-02,-1.08567e-01,-2.33657e-01,2.01276e-01,
1.22288e-03,5.65161e-03,-1.44546e-01,-3.19460e-01,-1.95481e-03,-1.59662e-02,
-1.16481e-01,-2.14898e-01,-2.00130e-01,1.76174e-01,4.88656e-01,-2.67619e-02,
-1.09987e-01,7.94084e-04,1.99555e-01,-3.65402e-01,-5.92544e-02,-9.11125e-02,
-4.53002e-01,-2.12641e-01,-1.67820e-02,9.18197e-02,2.23033e-01,-1.58387e-01,
1.52638e-02,-1.84490e-01,9.74085e-02,-1.08022e-01,2.62132e-01,1.91084e-01,
-3.49478e-01,-1.48610e-01,-3.48758e-01,-3.93939e-02,-7.83467e-02,6.09779e-03,
-2.42129e-01,-5.61099e-02,-3.75972e-01,-4.36234e-01,-3.38682e-01,2.12918e-01,
-1.45681e-01,-7.16601e-03,-1.03617e-01,2.60393e-01,3.39680e-01,-1.76231e-01,
-2.83340e-01,3.88440e-01,-2.85129e-01,5.80102e-01,2.46543e-01,-1.36853e-01,
3.26762e-01,5.90426e-02,-2.31144e-01,1.13804e-01,3.39860e-01,3.30129e-01,
2.90741e-01,-3.01743e-01,4.33240e-03,-3.95677e-02,7.83168e-02,1.44654e-01,
4.66758e-02,1.56862e-02,-4.13071e-01,-2.61564e-01,-5.72989e-03,-4.35422e-02,
-1.94494e-06,4.28974e-03,1.29141e-01,5.33134e-01,1.13012e-01,2.68256e-02,
1.55574e-02,3.56925e-01,-2.14668e-01,1.95225e-01,-3.55073e-02,4.04701e-02,
1.31956e-01,-3.21363e-01,3.94866e-01,5.41837e-01,-1.08423e-01,-5.49838e-02,
3.31850e-01,2.86543e-01,-3.23995e-01,2.15528e-01,4.05197e-01,4.06103e-02,
-3.06788e-01,-3.01261e-01,6.66403e-02,-4.72485e-01,3.71431e-01,-2.18425e-01,
9.42587e-02,-1.12008e-01,3.65315e-01,-5.34551e-01,-2.92227e-01,-9.31488e-02,
1.88052e-01,2.40426e-02,-6.82293e-02,2.43225e-01,-4.80093e-01,2.64964e-01,
8.38705e-02,2.46533e-01,-5.29474e-01,-2.55198e-01,5.85621e-02,-2.12437e-01,
1.45141e-01,-2.12483e-01,-2.70435e-01,-3.47744e-02,3.49713e-03,4.03788e-01,
-2.63593e-01,-2.41517e-01,-1.05511e-01,9.80901e-02,1.64396e-01,-1.03878e-01,
2.12126e-01,1.14257e-01,-1.54490e-01,4.43851e-02,-5.12013e-01,2.08586e-01,
6.70691e-02,3.11167e-02,5.59385e-01,-7.12953e-01,4.03813e-02,-8.97467e-02,
-3.30465e-01,1.72525e-01,-6.46852e-01,1.43645e-01,-8.97739e-02,-1.12078e-01,
-3.00263e-01,1.14156e-01,3.92841e-02,1.39236e-01,-2.58772e-01,4.25956e-01,
-4.07021e-01,-2.98238e-01,-2.13493e-01,-7.10001e-01,1.69969e-01,3.09685e-01,
2.57837e-01,1.75669e-02,-2.28353e-01,-3.40852e-01,-1.71360e-01,4.00890e-01,
-7.05437e-02,1.37356e-01,-1.03350e-01,-6.33131e-02,2.14373e-01,-1.19475e-01,
-1.79825e-01,2.84593e-01,-3.48224e-01,2.53694e-01,2.61193e-01,3.83984e-01,
-2.69488e-01,-3.09564e-01,3.10469e-01,5.86342e-01,1.54247e-01,-2.39640e-01,
1.13026e-01,2.19626e-01,1.57977e-02,-8.81790e-01,-1.30616e-02,-1.38662e-01,
-8.98213e-03,3.74990e-02,3.50410e-01,9.26739e-01,2.94803e-02,3.48884e-02,
3.57636e-01,2.90313e-01,-1.10394e-01,-1.09622e-01,-2.44194e-01,1.67569e-01,
-3.44936e-01,-1.08554e-01,3.66800e-01,1.30024e-01,-2.25217e-01,-2.72906e-01,
1.80433e-01,-3.19756e-01,8.68947e-02,3.72061e-01,5.35954e-02,4.83442e-02,
1.42194e-02,-1.87759e-01,7.95757e-02,1.93329e-01,1.59785e-01,2.22362e-01,
-2.30907e-02,3.02697e-02,-3.64087e-01,-7.35533e-01,-5.65391e-02,-3.45761e-02,
2.88005e-01,2.22054e-01,2.09335e-01,-1.38062e-01,8.66619e-02,2.65427e-01,
9.23747e-02,-2.10349e-01,-1.50944e-01,1.65717e-02,-3.36087e-01,1.53665e-01,
1.33657e-01,1.83894e-01,-2.89484e-01,-2.83196e-01,1.94893e-01,-1.13880e-01,
2.22747e-01,-3.46136e-01,3.51119e-01,-2.47211e-01,-1.34998e-01,7.26838e-01,
-4.38281e-02,3.46048e-01,3.36358e-01,-4.86595e-01,1.65835e-01,2.92219e-01,
1.85508e-01,3.01639e-01,-7.63956e-01,3.66464e-01,2.59119e-01,-1.03692e-02,
1.56027e-01,-7.32185e-02,2.03274e-01,6.72383e-02,7.71529e-02,-1.34393e-01,
3.73236e-03,-9.25777e-04,-2.11593e-01,-9.07037e-01,-2.35655e-02,-3.56137e-02,
-2.18894e-01,-3.37329e-01,1.34989e-02,-1.60264e-01,-2.04602e-01,-4.41048e-01,
9.88883e-02,-6.71381e-02,-4.00474e-01,-4.76149e-01,-3.45192e-01,1.73735e-01,
-2.47460e-01,-2.03237e-01,1.94720e-01,9.54150e-02,2.73006e-01,-1.38537e-01,
-8.18084e-02,2.84792e-02,-8.12941e-01,6.33599e-01,-5.97043e-02,-2.00681e-02,
-1.37440e-01,-9.34671e-02,1.72523e-01,-2.00229e-01,1.66962e-01,-1.47812e-01,
1.63410e-01,-1.50920e-01,2.44824e-02,-1.30938e-01,-2.23289e-01,-2.16969e-01,
1.05185e-01,3.82734e-02,-2.17486e-01,5.93590e-01,2.65702e-01,6.90137e-02,
-2.30416e-02,-3.01459e-01,8.68084e-02,3.29510e-01,1.47145e-01,-1.77772e-01,
1.34436e-01,-7.85428e-03,7.59547e-02,-7.04414e-02,2.51136e-01,2.54932e-01,
-3.11768e-01,2.85188e-01,-1.71492e-01,-3.10891e-01,-9.24221e-03,-2.50014e-02,
-8.33741e-02,-5.44844e-02,-1.02267e-01,-9.87455e-02,-3.46831e-01,-3.25892e-01,
2.40136e-01,-6.96559e-02,1.52720e-01,4.89234e-01,-7.86696e-02,4.69948e-01,
1.20988e-01,-1.24846e-01,5.37752e-02,-1.67515e-01,-2.09738e-01,-2.85735e-01,
3.29669e-02,5.28170e-02,1.06647e+00,-3.75226e-01,6.63034e-02,-2.56631e-02,
-3.87396e-01,1.66781e-01,-5.74914e-01,-7.16517e-01,-2.74915e-02,-1.55328e-01,
1.10010e-01,5.73794e-02,-4.14573e-01,-4.02785e-01,1.30652e-02,3.92556e-01,
-2.07597e-01,-3.15062e-02,6.89235e-01,-1.14220e+00,-4.29555e-02,-1.27491e-01,
1.64678e-01,-3.92887e-02,-2.59169e-01,-2.89916e-01,3.66491e-01,3.58421e-01,
3.19126e-01,1.02883e-01,4.48560e-01,-5.41952e-01,3.98965e-01,-3.27977e-01,
-5.02855e-02,2.33220e-01,-2.16464e-01,3.61315e-03,1.24276e-01,-2.00308e-01,
3.50350e-01,2.71414e-01,1.87463e-01,6.26203e-01,4.76701e-01,-3.05478e-01,
-4.21617e-02,1.64664e-02,-2.73652e-01,-4.90296e-01,-3.69932e-01,-1.72128e-02,
2.62256e-01,-2.91438e-01,9.99939e-02,1.77189e-01,2.41062e-01,2.17590e-01,
-1.44542e-01,-7.86247e-02,1.01675e+00,-4.66515e-01,1.41647e-01,-3.06783e-02,
8.93866e-02,-5.70506e-02,3.94176e-01,-1.00816e-01,7.41073e-02,-3.37648e-02,
8.54642e-03,-6.52353e-03,1.05188e-01,-4.15040e-01,1.60950e-02,-1.94296e-02,
2.91355e-01,-9.11319e-02,-9.82357e-03,-1.66586e-01,2.92557e-01,-4.30478e-01,
-9.20975e-02,-2.25124e-01,1.15562e-01,-1.24944e-01,7.39479e-02,-3.28869e-01,
-1.48861e-01,7.68105e-02,3.26594e-01,-7.06452e-01,2.59260e-01,3.76885e-01,
1.47052e-01,-2.40525e-02,-2.87186e-01,3.96981e-01,-9.75716e-02,2.93335e-01,
-1.90983e-01,-2.37370e-02,-6.36286e-02,4.52835e-01,4.93993e-01,-2.88406e-01,
-2.27873e-02,-1.79224e-01,-1.88018e-01,2.28461e-01,2.94942e-01,2.93680e-01,
4.27198e-03,-2.78012e-01,-4.07971e-01,-2.61983e-01,-3.88661e-01,3.70119e-01,
2.71293e-01,-2.66019e-02,-1.13650e-01,-1.86914e-01,2.89510e-01,-3.85214e-01,
-2.65913e-01,-9.83429e-03,-8.34536e-01,-5.82222e-01,-1.28283e-01,-1.52038e-01,
-6.68268e-02,6.93556e-02,-4.33383e-01,1.03104e-01,-2.38831e-01,1.98780e-01,
4.09528e-01,3.07524e-01,-4.50770e-01,-7.04778e-01,-2.86982e-01,-3.03495e-01,
-7.14598e-02,-1.91991e-01,1.17706e-01,3.74960e-01,-3.11228e-01,-2.00391e-01,
1.02871e-01,2.15325e-01,2.34293e-01,-1.37347e-01,2.81199e-01,-2.26168e-01,
3.43131e-02,2.23161e-01,-2.49515e-01,-3.82435e-01,2.65652e-01,1.86710e-01,
-4.65147e-02,4.60493e-02,-3.28001e-01,-1.02840e+00,-5.31225e-02,-4.86095e-02,
-8.97233e-02,-2.57979e-02,-4.49762e-01,-3.55938e-01,3.14075e-01,-1.34247e-02,
-3.08652e-01,-2.21205e-01,-3.34140e-01,1.26741e-01,-1.35299e-01,-1.06859e-01,
-3.07479e-01,-8.32523e-02,3.02485e-01,-1.52757e-01,-2.83567e-01,-2.48892e-01,
4.87835e-02,-1.61589e-01,3.36384e-01,9.20861e-01,5.33157e-02,2.34529e-02,
-2.03506e-01,-3.28958e-01,3.23621e-01,4.58559e-01,-4.54626e-01,-3.84167e-01,
5.21699e-03,-2.40038e-01,-2.03906e-01,2.99849e-01,-6.68769e-02,2.68395e-01,
-1.37101e-02,1.78946e-02,-2.32589e-01,8.07170e-01,-3.25849e-02,4.57746e-02,
-5.15229e-02,-1.94608e-01,-9.84007e-02,4.24423e-01,-3.79096e-01,-2.22712e-01,
8.52232e-02,-2.15068e-01,-2.37968e-01,-2.14756e-01,-1.63884e-01,-3.56298e-01,
-4.96075e-03,2.55631e-04,-4.29019e-01,1.31071e+00,-9.75628e-02,5.47085e-02,
-3.69114e-01,-3.49623e-01,-2.02155e-01,-3.05351e-01,2.91910e-01,-1.52541e-01,
-4.34457e-01,-3.70477e-01,1.30114e-03,3.93869e-01,-1.85433e-01,6.46974e-01,
1.56797e-01,-1.83346e-01,1.01118e-01,4.27544e-01,1.81069e-01,2.60812e-01,
1.26927e-01,-1.73109e-01,1.22103e-01,1.41283e-01,-3.59292e-01,-2.61285e-01,
-2.78412e-01,2.63714e-01,-1.69201e-02,2.44101e-01,3.79782e-01,5.57749e-01,
1.35506e-01,2.63700e-01,-4.68255e-02,1.49639e-01,9.72891e-02,3.46816e-01,
-4.78827e-03,-1.89145e-01,1.59386e-01,4.98299e-01,-3.12443e-01,2.06348e-01,
-3.23166e-01,9.11189e-02,1.55929e-01,2.20925e-01,-3.44621e-01,4.72044e-01,
2.99422e-01,1.15293e-01,-9.67394e-02,1.25710e+00,1.66704e-01,3.77659e-02,
-2.45877e-01,-1.20101e-02,1.07055e-01,-3.09326e-01,-3.85098e-01,4.61421e-01,
1.43826e-01,-9.17864e-04,-5.84830e-02,1.62796e-01,-1.40918e-01,-3.01524e-01,
-5.78793e-02,-1.82540e-01,1.21681e-01,-1.81237e-01,3.14776e-01,-3.00430e-02,
2.28098e-01,-2.89475e-01,1.64447e-01,-1.68159e-03,4.06667e-02,4.25640e-01,
-5.65971e-02,-4.22390e-03,-7.73239e-01,9.02411e-01,-4.20627e-02,1.51325e-02,
-2.86484e-01,-1.50749e-01,-3.10204e-02,-3.57702e-01,-3.38743e-01,-4.09995e-01,
9.57130e-02,2.79997e-02,1.18279e-01,-6.63518e-01,-4.44339e-02,-5.76808e-02,
-3.81211e-02,3.87414e-01,-2.26561e-01,-6.88019e-01,2.01637e-01,-2.96807e-01,
3.44695e-01,1.45887e-02,1.17981e-01,-2.90274e-01,-2.34554e-01,-3.93299e-01,
2.71893e-01,-1.62795e-01,-3.42930e-01,-2.21495e-01,2.40734e-01,-4.19807e-01,
-6.39218e-02,-1.23097e-01,3.61161e-01,3.63579e-01,-2.61507e-01,7.67824e-02,
-2.76181e-01,3.19106e-01,-5.54092e-02,-1.87278e-01,-1.63700e-01,4.10068e-02,
-2.66933e-01,3.21287e-01,2.43965e-02,-2.71524e-01,1.35588e-01,8.35143e-02,
1.59765e-01,6.31523e-02,-2.40470e-01,1.02764e+00,-1.09233e-01,1.52803e-01,
-1.26421e-01,-1.08531e-01,-3.32865e-01,-1.18036e-01,4.03177e-01,4.47444e-01,
5.03630e-02,3.36442e-01,-5.52034e-02,-6.85432e-01,4.00882e-01,-3.97499e-01,
-1.65245e-01,1.17298e-01,3.24338e-01,-4.84677e-01,-4.22136e-01,7.49392e-02,
3.21538e-01,2.52075e-02,-3.56041e-02,-1.92356e-01,-2.65563e-01,4.39162e-01,
4.93927e-02,8.62167e-02,6.32048e-01,-3.50836e-01,-2.07497e-01,1.69248e-01,
-1.04550e-01,-2.11014e-01,-7.82528e-02,3.50257e-01,-2.34315e-01,2.59201e-01,
-1.90572e-01,-3.11981e-01,-2.10973e-01,-1.12580e-01,3.20334e-01,-7.49363e-02,
4.13331e-02,-1.75970e-01,2.62408e-01,-3.83085e-01,-2.09444e-01,-1.98413e-01,
-1.55683e-01,-1.20047e-01,2.66990e-02,-2.96737e-01,3.89867e-01,-2.12596e-01,
2.78321e-01,-3.77611e-01,-9.79545e-02,2.32439e-01,1.06087e-01,-3.41633e-02,
3.23049e-02,1.33909e-01,-8.74845e-01,2.16120e-01,-1.61080e-02,4.89266e-03,
-1.42779e-01,1.67072e-01,-5.04569e-02,-2.83672e-01,7.15570e-02,-6.03863e-02,
-1.24413e-01,-2.84913e-01,-4.52978e-01,-3.84359e-02,5.23044e-01,3.17651e-01,
7.73048e-02,-3.02374e-01,1.34979e-01,1.56154e-01,2.15817e-01,-3.45168e-01,
-2.12574e-01,-9.63471e-02,2.80905e-01,-1.62886e-01,4.81124e-01,1.11195e-01,
1.43814e-01,2.64210e-01,1.98786e-01,-9.18315e-02,-3.19088e-01,2.11358e-01,
3.10048e-01,2.74056e-01,2.91565e-02,-2.44070e-01,1.68487e-01,-4.80765e-01,
-1.10772e-01,-3.57570e-01,-1.02150e-01,9.90766e-02,1.32947e-01,6.60097e-02,
-1.14486e-01,3.72934e-01,4.57418e-01,7.05137e-02,-8.95454e-02,2.93877e-01,
3.09618e-01,-2.84563e-01,3.26193e-01,-1.00463e-01,-2.93132e-01,-3.75553e-01,
-9.26885e-02,6.87067e-02,-4.14334e-03,-6.43870e-01,-4.62394e-01,-9.82134e-03,
3.11040e-01,-1.12413e-02,-1.72161e-01,-1.47479e-01,2.13590e-01,-5.29221e-01,
-7.03207e-02,2.80114e-01,-1.65707e-01,-2.98912e-01,-3.00189e-01,-2.62566e-01,
1.62934e-01,-2.13939e-01,-5.73683e-02,4.01219e-01,6.97825e-02,-1.15139e-01,
1.50682e-01,-1.31060e-01,-3.73240e-01,1.75020e-01,1.81607e-01,-2.76440e-01,
3.49436e-01,2.63431e-01,4.71751e-02,4.77629e-01,-4.59722e-01,2.63434e-01,
1.36437e-01,-1.17333e-01,1.26011e-01,-8.96933e-02,2.09068e-01,-1.22822e-01,
2.39918e-01,1.07961e-01,1.94814e-01,-3.42566e-01,1.03692e-01,3.91399e-01,
-2.71136e-01,-2.43605e-02,8.49071e-02,-1.08809e-01,1.38034e-01,-1.91669e-01,
1.28556e-01,-1.41447e-01,9.94759e-02,-1.17827e-01,-1.31854e-01,-2.33592e-01,
-1.85515e-02,5.04455e-02,-5.05579e-01,-1.04474e+00,-4.47967e-02,-1.00972e-01,
4.07484e-01,1.25383e-01,-1.06593e-01,3.12743e-01,2.76750e-01,7.31484e-02,
-2.12971e-01,5.28948e-02,1.70061e-01,-6.41050e-02,-2.90343e-01,-3.35667e-01,
8.40529e-02,-2.63657e-01,2.03618e-01,1.31187e-01,2.75178e-01,-2.62587e-01,
-3.45194e-01,-1.56099e-01,3.43540e-01,4.21636e-01,-4.25733e-01,1.86732e-01,
-3.94118e-01,-3.60978e-01,-2.13126e-01,1.91737e-01,-3.15238e-01,4.44851e-01,
-1.68675e-01,-2.13671e-01,1.25678e-01,1.08314e-01,-3.18075e-01,3.12772e-01,
-3.98216e-02,3.55101e-01,-4.58635e-02,-6.73011e-02,-2.37769e-01,-1.79239e-02,
-1.95963e-01,-3.15130e-01,-1.20633e-01,-3.27738e-01,1.30263e-01,-3.79626e-01,
-1.21613e-01,-3.35293e-01,-3.01779e-01,-7.67130e-02,2.66030e-01,1.83077e-01,
4.01168e-01,5.47585e-02,-2.91055e-02,3.08123e-01,1.99925e-01,1.06988e-01,
3.33879e-01,2.14740e-01,-3.99816e-01,1.49297e-01,3.05381e-01,1.51291e-02,
-1.39873e-01,-3.28572e-02,4.50448e-01,-7.34277e-01,-5.64350e-02,-7.70910e-02,
-6.37011e-05,-1.34145e-01,1.36603e-01,-9.15355e-02,-3.20654e-01,2.54546e-01,
-1.02762e-01,-1.51626e-01,3.36791e-01,4.98162e-02,3.54845e-02,6.18443e-02,
-2.71423e-01,-2.04431e-01,4.92032e-01,8.49035e-01,2.08638e-01,-3.62036e-01,
-9.71273e-03,-2.36055e-03,-3.05323e-01,1.02082e+00,-1.19366e-02,4.51129e-02,
-1.88511e-01,-3.30680e-01,4.39318e-01,2.25729e-01,1.46822e-01,-1.02372e-01,
3.90673e-01,2.10052e-01,-2.72510e-01,-2.98681e-01,-1.49973e-01,5.09848e-01,
2.27330e-01,1.62546e-01,-3.44784e-01,9.49670e-02,3.74492e-02,-2.66592e-01,
1.76591e-01,-1.36083e-01,-2.85115e-01,-2.18475e-01,2.41929e-01,-2.96973e-01,
-2.96536e-01,-1.44353e-01,7.37540e-01,4.90127e-01,-2.30342e-01,1.24241e-01,
1.13375e-02,3.00039e-02,7.29297e-01,-2.20149e-01,4.75291e-02,-1.78529e-02,
-3.09948e-03,-1.57264e-02,5.21684e-01,-1.27713e+00,-1.32841e-01,-5.82211e-02,
3.28338e-01,-1.95889e-01,-2.15976e-01,-1.56180e-02,-2.46017e-01,-2.34658e-01,
1.19623e-01,1.72308e-01,-2.95778e-01,8.77644e-02,3.40116e-01,-3.80899e-01,
-8.87110e-02,3.71779e-01,-1.29416e-01,-2.88486e-01,-2.34444e-01,6.13856e-02,
4.22867e-02,-1.84623e-01,-7.69543e-02,-1.24667e-01,3.60670e-01,-1.98672e-01,
-3.38012e-01,-4.54289e-02,3.00040e-01,-4.13145e-01,-1.14884e-01,5.37396e-02,
1.74132e-01,-1.74664e-01,1.84047e-01,-3.24805e-01,2.70638e-01,-6.66920e-01,
2.75926e-01,3.80858e-02,8.41027e-03,-6.02269e-01,-7.49323e-01,3.91498e-01,
-2.35468e-01,2.76754e-01,-2.77010e-01,3.44786e-01,-2.80985e-01,-2.09669e-01,
-1.72739e-01,-1.27929e-01,-2.93911e-01,3.83064e-01,4.36355e-01,-3.03613e-01,
2.99901e-01,-3.11830e-01,-1.43355e-02,-2.10568e-01,-3.82366e-01,2.44705e-01,
1.38153e-01,3.45209e-01,6.20375e-01,-5.76753e-01,1.21720e-01,-5.17614e-02,
-1.75160e-01,-5.01326e-02,1.85615e-01,5.23628e-01,3.48629e-01,1.51139e-01,
2.57032e-01,6.95311e-02,-2.43470e-01,-5.81097e-01,3.89228e-01,-1.41964e-01,
-3.69068e-01,-2.42008e-01,1.95001e-02,2.08604e-01,1.03191e-01,-3.20293e-01,
-2.18521e-02,5.81650e-02,4.38899e-01,1.13703e+00,4.15916e-02,5.26218e-02,
3.77975e-01,-2.82455e-01,-3.97801e-01,3.91324e-02,-8.25719e-02,-1.85697e-01,
-9.41779e-02,1.78841e-01,-3.50731e-01,-4.83640e-01,8.66675e-02,-4.18791e-02,
2.79699e-01,1.01536e-01,-9.68378e-02,-2.05101e-02,-2.82488e-01,3.07906e-01,
3.68041e-01,1.01826e-01,5.17047e-01,6.34361e-01,5.03103e-01,-3.47628e-01,
-1.03848e-01,1.44805e-01,1.66478e-01,2.85182e-01,3.29078e-01,3.07380e-01,
-2.02949e-01,1.37201e-01,-8.50142e-01,2.42132e-01,-2.40095e-01,-1.11509e-01,
5.70655e-03,1.17670e-01,5.98764e-02,-8.89353e-02,-2.33208e-01,-1.41312e-01,
-5.60277e-02,3.24199e-02,1.46043e-01,-7.92507e-01,-9.06498e-02,-4.25919e-02,
-1.91425e-01,-3.22747e-01,5.84704e-02,-2.29518e-01,6.99317e-02,-5.30288e-02,
2.44825e-01,-1.62079e-01,1.11810e-01,-2.95783e-01,-3.37063e-01,-1.17486e-01,
-2.68257e-02,-7.90432e-02,1.79768e-01,6.07920e-01,1.49416e-01,2.00736e-01,
1.67096e-01,-2.85981e-01,2.24727e-01,-4.53769e-01,-2.10445e-01,-1.25814e-01,
3.74473e-02,-2.29187e-02,2.00843e-01,-7.47214e-02,-4.58153e-02,4.48018e-01,
1.39412e-01,1.36270e-01,4.52538e-01,1.45874e-01,-4.14544e-01,-5.00288e-01,
1.80598e-01,-6.28835e-02,-5.55893e-02,1.12521e-01,-3.18914e-01,1.92877e-02,
-1.92017e-01,2.81049e-01,-2.04287e-01,9.04674e-02,-2.21670e-03,-4.61888e-01,
-1.65636e-01,-2.18531e-01,-2.98303e-01,4.39295e-01,1.30657e-01,-1.77911e-01,
2.68463e-01,1.96968e-01,-4.96620e-01,2.73337e-01,1.80800e-01,3.67342e-01,
-3.35405e-01,1.74090e-01,-4.15931e-01,-1.40763e-01,-1.75618e-01,1.19791e-01,
1.40790e-02,8.64556e-02,-8.12484e-01,1.48243e-01,-2.09526e-02,1.43726e-03,
-3.16510e-01,8.42837e-02,-1.00213e+00,-3.16400e-01,-1.31432e-01,1.90628e-01,
-1.76415e-02,-1.24164e-01,2.48890e-01,6.64928e-01,4.59431e-02,6.92132e-02,
8.30025e-02,7.45559e-03,9.57834e-01,-1.26534e+00,6.34907e-02,-5.05109e-02,
-6.14153e-02,1.05132e-02,-3.72268e-01,-6.49123e-01,-4.96101e-01,-5.40801e-03,
-1.18633e-01,-5.64639e-02,-4.42516e-01,4.23250e-02,2.50121e-01,4.24774e-01,
-3.20839e-01,-1.16062e-01,3.06876e-01,1.00702e+00,4.34653e-02,1.50529e-01,
-2.20673e-01,5.62474e-02,6.31222e-01,6.53735e-01,-8.01457e-02,-1.39219e-01,
3.22210e-01,6.98904e-02,-1.35578e-01,1.10075e-02,-2.53557e-01,-4.26116e-01,
-9.14318e-02,-1.37155e-02,6.09185e-01,-7.90019e-01,-6.61081e-02,-5.83255e-02,
-3.21583e-01,-2.28812e-01,4.13841e-01,-1.49050e-01,1.05622e-01,-1.16255e-01,
5.45920e-02,-1.45376e-03,-5.76333e-01,1.04807e+00,-7.44973e-02,6.76003e-02,
-8.22398e-03,1.90029e-01,4.94570e-01,4.53399e-01,1.11610e-01,-1.87767e-01,
-3.01805e-01,-2.10164e-01,2.55381e-01,9.47724e-04,-7.22783e-03,-1.06605e-01,
-2.39086e-01,-1.50344e-01,6.41361e-02,-2.41848e-01,3.18583e-01,-2.07384e-01,
-6.13502e-05,2.66832e-02,-2.95501e-01,-7.73104e-01,-1.47514e-02,-4.42697e-02,
2.62315e-02,-1.24909e-02,-4.30307e-01,7.63798e-01,-5.07025e-02,6.25655e-02,
-7.25467e-02,2.99862e-01,1.34938e-01,2.42750e-01,5.79854e-01,-4.80937e-01,
-3.56347e-01,6.66785e-02,-8.15046e-01,-6.34871e-01,-8.91202e-02,-2.92194e-01,
1.68640e-01,5.35220e-02,-2.45716e-01,1.35967e-01,-1.13306e-01,-1.10663e-01,
-2.90027e-01,-2.66607e-01,-1.11794e-01,-2.13726e-01,-3.75565e-02,-6.61458e-02,
-3.19854e-01,1.07867e-01,-6.39739e-01,-2.87471e-02,-1.02363e-01,-5.94376e-03,
2.84157e-01,1.74830e-02,-1.27824e-01,4.62111e-01,8.22973e-02,2.83565e-01,
7.44030e-02,3.45393e-01,-2.40909e-01,-1.58121e-01,1.03201e-01,-1.97598e-01,
1.87681e-01,5.81325e-02,-1.77835e-01,-5.71190e-01,-5.96829e-02,1.09237e-02,
-3.40072e-01,2.59138e-02,-6.84083e-01,7.41757e-02,-1.30582e-01,-7.24050e-02,
2.04344e-01,-1.90429e-01,2.70928e-01,-3.51586e-01,9.65638e-02,3.09708e-01,
-3.42020e-01,-2.97526e-01,3.77302e-01,1.34792e-01,-2.63644e-01,3.07257e-01,
-2.25983e-01,-6.38344e-03,1.79446e-01,1.34086e-01,1.88482e-01,-3.29220e-01,
-9.28906e-02,2.32735e-01,-1.64700e-01,-4.50439e-01,-1.56939e-01,4.87832e-01,
-1.88059e-02,-7.67082e-02,1.44603e-01,1.62307e-01,8.74163e-03,1.13414e-02,
3.23209e-01,-2.33708e-01,-3.38460e-01,-4.61911e-02,2.63903e-01,-1.78484e-01,
-1.75661e-01,-2.60199e-01,5.44810e-01,2.72696e-01,-1.72452e-02,3.10767e-01,
6.81024e-02,-2.66425e-01,-1.74242e-01,-7.96134e-02,-2.95684e-01,-3.59052e-01,
-1.19195e-01,-1.54140e-01,-5.42853e-02,2.47539e-01,-2.14141e-01,-2.15800e-01,
-3.04976e-01,-3.98654e-02,6.28890e-01,-6.67690e-02,-6.49609e-02,-1.67756e-01,
-3.49159e-01,-2.08875e-01,-1.86288e-01,1.97689e-01,-6.27640e-02,-4.58122e-01,
3.19856e-01,2.07269e-01,-4.39680e-01,4.65914e-01,2.52358e-01,-5.88853e-02,
1.08397e-01,2.28645e-01,2.53359e-01,4.15111e-02,-4.04264e-01,-1.98774e-01,
5.75692e-02,-3.54492e-02,9.80781e-03,-2.08098e-02,-3.60767e-02,9.17271e-03,
3.76098e-01,6.71806e-02,6.41346e-01,6.14671e-01,5.00009e-01,-3.70159e-01,
-1.54941e-02,3.69888e-01,2.09713e-01,-3.67314e-01,-4.34869e-01,-1.63464e-01,
-2.20134e-01,-1.70788e-01,1.50618e-01,-1.76418e-01,-2.84991e-01,-9.06307e-02,
1.11954e-01,-2.35431e-01,-9.19126e-02,-4.61759e-02,1.37530e-01,-2.48330e-01,
2.23389e-01,1.04801e-01,1.82958e-01,-5.02224e-02,-3.79375e-01,-3.94576e-01,
-7.84380e-02,-1.12594e-01,-5.54023e-02,1.95256e-01,-8.60743e-02,-2.92894e-01,
-1.73009e-03,-4.84883e-03,3.41042e-01,-1.19478e+00,3.92178e-02,-5.11196e-02,
2.48215e-02,-5.93301e-02,5.47833e-01,1.10728e+00,5.91532e-02,4.64944e-02,
-1.44101e-01,-6.37610e-02,1.20420e-01,-6.51759e-01,-3.43385e-01,-4.12846e-01,
-9.83386e-02,1.07872e-01,-4.30028e-01,5.63733e-01,2.92097e-01,1.06466e-01,
1.89234e-01,-3.64461e-01,-3.22427e-01,-3.14716e-02,-9.04598e-02,-1.44051e-01,
-1.09817e-01,-3.79199e-01,2.11652e-01,2.95949e-01,-2.36724e-01,-2.72755e-01,
-1.85009e-01,1.86509e-01,-1.01269e-01,3.58440e-01,-2.87274e-01,3.84627e-01,
1.57623e-01,9.78873e-02,-3.36551e-01,7.46552e-01,2.52835e-01,2.32692e-01,
2.62421e-04,6.68953e-03,-1.91122e-01,-5.59105e-01,-1.74891e-02,-4.07355e-02,
-6.33023e-03,-3.50152e-01,4.71432e-01,1.00431e-01,-1.17728e-01,1.74495e-01,
-2.97450e-01,1.66965e-01,-4.43558e-02,2.32443e-01,3.46500e-01,2.93715e-01,
1.56938e-01,1.35582e-01,-2.59043e-01,3.26318e-01,-2.94828e-01,1.67545e-01,
2.02941e-01,2.37744e-01,-3.45319e-01,-5.08011e-01,3.43989e-01,-4.75488e-02,
3.61933e-01,3.88611e-02,4.56257e-02,-1.12577e-01,2.99872e-01,7.76724e-02,
-2.25261e-01,-1.31270e-01,3.86548e-01,2.75600e-01,-2.55177e-01,1.81765e-01,
-3.37720e-01,9.23093e-02,4.00348e-01,-4.23214e-01,-1.45185e-01,3.87928e-01,
-2.44118e-01,-3.11755e-01,-8.82514e-02,-3.74905e-01,-1.57940e-01,2.14486e-01,
2.79162e-01,-2.08208e-01,6.76769e-02,3.17486e-01,6.88116e-02,2.99209e-01,
3.81506e-01,2.21056e-01,6.39385e-02,4.20181e-01,1.74019e-01,-2.20154e-01,
-2.26587e-01,-1.84153e-01,-8.16902e-02,4.23593e-01,-2.96612e-01,-4.94427e-02,
1.24670e-01,-2.19731e-01,8.61666e-02,3.32315e-01,1.18898e-01,1.87284e-01,
2.73814e-01,-2.89872e-01,-3.54017e-01,8.49126e-02,1.53139e-01,1.63391e-01,
1.68634e-02,-4.30489e-02,3.96101e-01,9.71033e-01,5.17053e-02,-6.42584e-02,
-7.25500e-02,2.96351e-01,8.43609e-01,4.57799e-01,2.64667e-01,3.81975e-01,
-1.03385e-01,-1.38108e-01,-7.81049e-02,3.31356e-01,-8.12135e-02,-2.67882e-01,
2.42379e-02,1.58445e-01,1.33375e-02,3.81503e-01,3.24724e-03,2.75486e-01,
-6.96828e-02,-2.14349e-01,2.39553e-01,2.56912e-01,-1.90836e-01,-1.99920e-01,
3.20929e-01,2.98616e-01,2.86855e-01,2.72895e-01,3.86368e-01,4.50343e-01,
-6.77572e-03,1.73254e-02,4.42384e-01,9.17568e-01,3.60533e-02,5.23626e-02,
-1.07707e-01,2.31523e-01,1.36010e-01,8.10494e-01,1.26420e-01,-1.29438e-01,
2.20229e-01,1.87813e-01,-2.56383e-01,-4.92665e-02,-2.61809e-01,1.01291e-01,
2.02945e-01,-2.21417e-01,2.76358e-01,2.05985e-01,1.48179e-03,2.17561e-01,
1.35611e-01,-2.72497e-01,2.06137e-01,-2.00787e-01,9.27884e-02,1.73688e-01,
3.44235e-01,-3.38380e-01,4.38688e-01,-2.48192e-01,1.62948e-01,3.26868e-01,
-2.87054e-01,1.42869e-02,8.64263e-02,-2.64327e-01,5.08848e-01,4.11293e-01,
-1.35785e-01,-8.94017e-03,-3.97078e-01,5.52405e-01,-2.48804e-01,-4.28656e-01,
-4.99585e-02,2.95211e-01,8.13189e-01,5.02563e-01,-4.57778e-01,2.33538e-01,
-3.92915e-02,1.61811e-01,4.79359e-02,-8.33920e-01,-9.92948e-02,-5.56767e-02,
-1.69440e-01,-1.10553e-01,-3.40822e-01,9.10974e-02,-1.58570e-01,-3.84234e-01,
2.43199e-01,1.90369e-01,-5.65319e-02,4.13861e-01,-1.83466e-01,2.27347e-01,
5.23558e-02,-3.97424e-01,1.41879e-01,-7.21580e-02,-2.93314e-01,3.89928e-01,
-1.60372e-01,2.02739e-02,7.06644e-01,4.74449e-01,-5.36843e-02,-1.12415e-01,
-1.31985e-01,-8.40378e-02,6.21319e-01,5.49346e-01,1.67187e-01,-9.95549e-02,
-3.32619e-01,-5.96662e-02,-1.61129e-01,-6.72751e-01,-1.59480e-01,-1.54677e-02,
-1.73072e-01,1.04317e-01,-5.33083e-01,1.48139e-02,2.72950e-01,-1.34594e-01,
-2.41006e-01,-7.98091e-02,3.50608e-01,5.68920e-01,4.87018e-02,-4.24182e-01,
1.95780e-01,-3.03048e-02,2.22974e-01,-4.06285e-01,-3.66000e-01,-4.00655e-01,
-2.49929e-01,-1.11362e-01,2.56154e-01,2.05031e-03,5.95917e-01,-2.43158e-01,
-1.18055e-01,2.33426e-01,1.33817e-01,7.35179e-01,-2.13029e-01,2.91808e-01,
3.28362e-01,-2.69879e-01,4.17237e-01,-1.96076e-01,1.10489e-01,-1.46881e-01,
2.41723e-02,2.86934e-02,1.06047e+00,-6.39128e-01,9.95828e-02,-2.74195e-02,
-5.45762e-02,-2.62955e-02,-1.04810e-01,-4.08825e-01,1.30333e-01,3.03285e-01,
-1.03846e-01,-3.58046e-01,3.88318e-02,-2.14614e-01,1.26486e-01,1.03434e-01,
1.34800e-01,2.02844e-01,5.07918e-02,-3.54930e-01,1.41993e-01,4.83216e-01,
-6.92187e-02,-1.30113e-01,-1.98901e-01,-2.95061e-01,6.08494e-02,3.22368e-01,
-1.41961e-01,-1.13867e-02,5.14949e-01,-9.59040e-01,1.82539e-01,-1.76997e-01,
-6.71364e-02,1.51497e-01,3.70780e-02,5.64507e-01,5.48538e-02,-3.06865e-02,
3.09624e-01,-3.44211e-01,2.55179e-01,-4.67242e-01,-3.10565e-01,3.96873e-01,
-7.27949e-03,-1.94659e-01,8.03944e-02,1.73137e-01,1.32779e-01,-2.60816e-01,
-6.18916e-02,1.17775e-01,1.63076e-01,-9.04167e-01,-1.52341e-02,-4.21936e-02,
-2.91599e-02,-9.88030e-03,3.80435e-01,-4.81699e-01,1.16530e-02,2.34147e-02,
2.19354e-01,1.14453e-01,3.15582e-01,2.36699e-01,-3.57139e-01,2.34253e-01,
-1.21038e-01,5.64617e-02,4.10871e-01,-5.97861e-01,5.03811e-02,-6.79781e-02,
2.50486e-01,-2.33596e-01,1.89628e-01,-1.58041e-01,1.08637e-01,-1.84158e-01,
-4.08679e-01,-2.73529e-01,2.53378e-02,1.67336e-01,1.92320e-01,5.38075e-02,
-2.10007e-01,2.75526e-01,-1.90782e-01,1.99130e-02,-2.13869e-02,-4.29668e-01,
3.12103e-01,-1.12837e-01,1.34866e-01,2.10059e-01,-2.38259e-02,1.74145e-02,
-1.13918e-01,7.51743e-03,6.76174e-01,-8.87703e-01,1.20984e-01,-1.60208e-01,
2.81672e-02,
1.49667e-01,
3.95111e-01,
2.60685e-01,
3.11275e-01,
-2.11953e+00,
-1.88272e-01,
2.38633e-01,
-3.04243e-01,
-3.37087e-02,
-1.26925e-01,
1.97832e-01,
8.01722e-02,
-4.12493e-01,
-1.19629e-01,
5.85022e-03,
-4.46337e-01,
-1.54492e-02,
1.01019e-01,
-9.28701e-02,
-2.41130e-01,
2.10559e-01,
7.51406e-02,
1.31992e-01,
-2.45478e-01,
1.25922e-01,
4.15060e-01,
-2.41129e-01,
-3.52076e-01,
2.00237e-01,
-1.47717e-01,
8.87105e-02,
1.71483e-01,
2.30447e-01,
-1.48814e-01,
-3.62329e-02,
-3.42209e-01,
-1.70113e-01,
-1.34302e-01,
1.56527e-01,
-2.06199e+00,
-2.58256e-01,
-5.00946e-01,
1.14339e-01,
1.14700e-01,
2.09667e-01,
-2.01093e-01,
-4.57381e-01,
1.25834e-01,
1.37750e-01,
3.73357e-01,
1.10521e-01,
1.10408e-01,
7.71110e-03,
-1.93490e-01,
3.97049e-02,
3.90138e-01,
-1.09684e-01,
1.00839e-01,
-2.64049e-03,
2.19728e-01,
3.31205e-01,
-3.96868e-01,
-1.83636e-01,
-1.48369e-01,
-3.19919e-01,
-6.61393e-02,
5.25511e-01,
5.86956e-02,
-3.70052e-01,
1.01010e-01,
-2.59918e+00,
2.80799e-01,
6.63200e-02,
-8.26466e-01,
4.97946e-02,
4.77889e-01,
-3.23279e+00,
1.63997e-01,
3.08988e-01,
3.79883e-01,
-3.37834e-01,
3.83032e-01,
1.00794e-01,
-6.61842e-02,
-1.44449e-02,
1.35143e+00,
-3.73525e-02,
-1.69790e-01,
-1.57316e-01,
1.28670e-01,
-7.04561e-02,
-8.35080e-02,
4.68436e-02,
3.25706e-01,
1.64093e-01,
-4.57775e-01,
1.47113e-01,
1.06530e-01,
4.23118e-02,
-1.87708e-01,
1.30164e-01,
-1.25506e-01,
-3.20700e-02,
-7.62947e-02,
-1.52865e-01,
1.94960e-01,
1.68613e-01,
3.10149e-01,
-9.36548e-02,
1.85620e-01,
-1.15542e-01,
-6.04047e-01,
-2.05772e-01,
-4.47614e-01,
-1.76466e-01,
-1.67495e-01,
-2.44518e-01,
6.98340e-02,
7.74386e-02,
1.77183e-01,
5.26093e-02,
-8.73591e-02,
1.33304e-01,
-3.40145e-01,
-4.61500e-03,
-1.28001e-01,
1.83519e-01,
8.63175e-02,
1.20104e-01,
-2.30269e-01,
-3.71266e-01,
2.08591e-02,
-1.45700e-02,
-1.43299e-01,
5.11488e-02,
-1.55115e-01,
-2.39952e-01,
-1.40697e-01,
-2.22361e-01,
1.31636e-01,
-1.65695e-01,
6.28540e-01,
5.64636e-02,
8.94826e-02,
-6.68540e-02,
8.31616e-01,
-3.84713e-01,
-6.25164e-01,
3.28855e-01,
-1.41650e+00,
-1.12682e-01,
-1.14256e-01,
5.09037e-02,
-4.73247e-01,
2.25434e-01,
4.61336e-02,
-2.80570e-01,
4.53330e-01,
-1.10151e-01,
-2.61901e-01,
3.16852e-01,
3.16535e-01,
-1.26953e-01,
-2.97489e-01,
1.53640e-02,
-2.97235e-01,
-1.14733e-01,
-1.46333e-02,
-9.96351e-01,
4.12601e-02,
-3.76570e-01,
-1.50523e-01,
-8.30289e-02,
-5.25869e-03,
-1.84527e-01,
-9.87189e-02,
1.79790e-01,
-1.13717e+00,
1.65990e-01,
7.80639e-01,
-3.19356e-02,
4.40618e-01,
-1.54359e-01,
-2.81872e-02,
-6.62609e-01,
-3.02671e-01,
2.31440e-01,
2.51842e-01,
-1.60414e+00,
7.66491e-01,
5.21555e-01,
3.60650e-01,
-1.29058e-01,
1.51824e-01,
-3.48357e-01,
-2.81275e-01,
1.87214e-01,
2.34658e-01,
-3.01152e-02,
1.90839e-01,
4.07519e-02,
-2.33939e-01,
-3.46550e-01,
-1.28852e-01,
8.97778e-02,
1.97634e-01,
1.24667e-02,
-4.06136e-01,
2.94027e-01,
1.63520e+00,
2.46976e-01,
8.47375e-02,
1.87030e-01,
4.38709e-01,
1.22752e+00,
1.89730e-01,
-4.28310e-02,
3.17619e-01,
7.67329e-02,
-1.40174e-02,
4.21253e-01,
-1.09581e-01,
-2.36222e+00,
-4.27778e-02,
-1.58944e-01,
-1.63063e-01,
-9.64297e-01,
-2.21624e-01,
-6.69224e-01,
3.86888e-01,
-4.46765e-01,
-5.20728e-02,
-1.58076e-01,
-9.16962e-02,
3.62677e-02,
2.03325e-02,
-4.28361e-01,
2.51036e-01,
2.35265e-01,
1.00952e-01,
-1.58022e-01,
-2.17478e-01,
1.43269e-01,
-7.43139e-02,
2.95527e-04,
-2.22698e-01,
-3.69398e-01,
2.96042e-01,
-8.76455e-01,
-5.78649e-02,
-1.57358e-01,
-1.73251e-01,
2.44526e-01,
4.18845e-03,
-4.10600e-01,
2.93730e-01,
-3.35692e-01,
5.13605e-02,
4.23539e-01,
-1.19579e-01,
2.21609e-01,
2.57666e-01,
-6.24950e-02,
-1.10695e+00,
-3.20285e-01,
-2.73722e-01,
-2.16454e-01,
-2.71629e-01,
4.29788e-01,
-5.18729e-01,
1.47068e+00,
-1.41739e-02,
1.44386e-01,
-5.03755e-01,
-3.03505e-01,
-3.11988e-01,
2.09951e-01,
-1.56458e-01,
-7.51490e-02,
2.21173e-02,
-2.02825e-01,
3.25477e-01,
2.35770e-01,
-1.31064e-01,
1.11762e-01,
6.60008e-02,
4.26071e-01,
-1.48682e+00,
-2.24955e-01,
2.83280e-01,
2.59905e-01,
1.24916e-01,
-5.43345e-01,
-3.69284e-01,
-4.88887e-01,
1.31638e-01,
-2.84851e-01,
1.79228e-01,
1.96574e-01,
-1.17091e-01,
-3.01615e-01,
8.45260e-02,
4.13322e-01,
-1.71990e-01,
-3.84796e-01,
-1.64896e-02,
4.19862e-01,
-6.59975e-01,
-4.87762e-01,
9.70844e-02,
-2.72346e-01,
1.38206e-01,
9.95514e-02,
2.07576e-01,
1.40696e-01,
1.94741e-01,
-1.88557e-01,
-2.84346e-01,
4.07822e-01,
-3.69447e-01,
-6.02158e-01,
4.02502e-02,
-2.27729e-01,
2.45784e-02,
-1.18230e-02,
1.43300e-01,
1.78890e-01,
-4.21505e-03,
4.58231e-01,
-1.66985e-01,
-4.75979e-01,
-2.90851e-01,
-1.36267e-01,
7.40109e-02,
-5.10233e-01,
-1.53065e-02,
-5.28819e-01,
-4.00706e-01,
-4.29444e-01,
-6.39681e-01,
-3.59675e-02,
-2.46828e-01,
-2.01810e-01,
1.77469e-01,
1.47848e-01,
2.99199e-03,
-4.31268e-01,
4.41405e-02,
-7.11518e-02,
9.47751e-01,
6.26483e-01,
-1.14698e-02,
-1.15585e-01,
1.47217e-01,
1.62570e-01,
1.76853e-01,
-1.97537e-01,
-4.55308e-01,
-5.10046e-01,
-4.82990e-02,
-3.73080e-01,
-2.09119e-01,
-1.98593e-01,
-8.66458e-02,
1.33105e-01,
8.22356e-01,
-1.55810e-01,
-1.76457e-01,
1.79712e-01,
5.78244e-02,
1.07467e-02,
-2.63488e-01,
-3.79286e-01,
2.78179e-01,
2.14796e-02,
4.92442e-01,
3.13672e-01,
-3.18001e-02,
1.12911e-01,
-9.46446e-02,
-2.10418e-01,
3.32200e-01,
-2.25775e-02,
-1.53463e-01,
1.01137e-01,
-5.19945e-01,
8.50600e-02,
-6.67518e-01,
4.93884e-01,
-8.76514e-02,
-1.19441e-01,
-3.57930e-01,
-1.23046e-01,
2.19848e-01,
-4.90439e-01,
6.30483e-02,
-5.86968e-01,
7.88960e-02,
1.67381e-01,
5.77617e-02,
-1.45393e+00,
-1.26283e+00,
-2.99660e-02,
1.22753e-01,
-7.94934e-02,
-1.11652e-01,
-1.10160e-01,
1.60480e-01,
-2.83043e-02,
-4.74748e-01,
1.41113e-01,
-7.81072e-01,
-6.00997e-01,
2.72480e-02,
-3.33543e-01,
2.65742e-01,
1.45812e-01,
1.10273e-01,
1.95251e-02,
-5.85965e-01,
6.15191e-02,
-1.67905e-01,
8.00037e-02,
-2.15621e-02,
-7.97961e-01,
5.04155e-03,
-7.78442e-02,
9.01661e-02,
3.46539e-02,
-1.37391e-03,
-3.57282e-02,
-5.64222e-01,
-9.40612e-01,
-2.41444e-01,
3.89390e-01,
1.34451e-01,
2.54695e-01,
-3.57139e-01,
3.62306e-01,
-1.84128e+00,
-1.86676e-01,
-1.06241e-01,
-1.32072e-01,
-3.33444e-01,
2.21096e-01,
4.23118e-01,
-2.09524e-01,
-1.86633e-01,
1.23861e-02,
7.71094e-02,
3.27847e-02,
-4.10009e-01,
1.88056e-01,
1.42984e-02,
-1.59418e-01,
2.50400e-01,
1.22051e-01,
2.64448e-01,
-1.48800e-01,
-1.36901e+00,
5.26968e-01,
6.68272e-02,
8.38335e-02,
-7.72536e-02,
1.07908e-01,
9.12444e-02,
-1.02250e-01,
1.56096e-01,
-4.83631e-01,
4.48827e-02,
3.93977e-01,
-3.71773e-01,
-1.04287e-01,
-3.21991e-02,
-1.55329e-01,
2.48496e-02,
-1.80378e-01,
3.57314e-01,
-2.45816e-01,
-2.29082e-01,
1.32089e-01,
6.06649e-01,
-8.43669e-02,
-4.54094e-01,
5.83029e-03,
-1.95306e-01,
1.42994e-01,
-7.31029e-01,
3.24239e-01,
2.45292e-01,
1.56515e-01,
8.58527e-01,
-3.35138e-01,
4.79231e-01,
1.02497e-01,
-8.21678e-02,
-3.45040e-01,
-3.73975e-01,
-1.16806e-01,
1.09034e-01,2.84086e-02,-2.28530e-02,-5.41465e-02,1.41231e-02,-6.43230e-01,-1.77289e-02,4.23373e-02,9.13501e-02,-1.08882e-03,4.26229e-02,4.01995e-02,2.24220e-01,-3.13623e-02,-5.77221e-02,1.80322e-02,-8.20656e-02,5.65061e-02,3.57374e-02,4.09936e-02,-4.44700e-03,-1.63797e-02,5.04842e-02,-5.63470e-02,3.91497e-02,3.07590e-02,9.33720e-02,-1.87025e-02,-5.60808e-02,-3.43414e-02,6.01090e-04,5.93988e-02,1.64906e-02,1.00787e-02,-1.96687e-02,3.73854e-02,3.31980e-02,2.61851e-02,1.08614e-02,2.55021e-02,8.95072e-01,-9.28239e-02,-7.38498e-02,9.43823e-02,-8.97127e-03,1.11413e-02,-4.12200e-02,-3.30526e-02,-4.09322e-02,4.99073e-02,-2.26196e-02,-3.01947e-02,-3.19168e-02,-3.26680e-02,2.22147e-02,3.61443e-02,-3.27763e-02,1.26856e-03,-1.33108e-02,5.96530e-03,4.81704e-02,4.86826e-02,2.87300e-02,3.87125e-02,-7.94826e-02,-4.62727e-02,-4.53868e-03,-4.76102e-02,-1.55040e-02,-7.13484e-02,1.01178e-01,-1.75653e+00,6.25542e-02,-2.42308e-02,3.84683e-01,-1.05794e-01,8.33051e-02,-5.42454e-01,2.88317e-02,-4.73989e-02,-3.48292e-02,8.51905e-02,-2.01216e-02,4.14409e-02,3.15311e-02,6.30121e-02,-6.48457e-01,2.91741e-02,-1.83023e-02,-3.32147e-02,2.11803e-02,-3.49220e-02,9.44962e-03,3.99439e-02,-1.02027e-02,-3.72261e-02,7.47551e-02,3.23377e-02,3.60024e-02,-6.39466e-02,-2.68453e-02,-1.51622e-02,1.99064e-02,1.73152e-02,-2.95342e-02,8.73567e-02,-3.31374e-02,-2.51693e-02,4.99453e-02,-2.92055e-02,1.41379e-02,5.35650e-02,-4.13580e-02,-9.98305e-03,4.75721e-02,-3.99227e-02,3.33431e-02,5.41601e-03,1.67033e-02,-2.29722e-02,3.66926e-02,1.14124e-01,9.02459e-02,9.10590e-03,-8.49018e-03,3.77990e-02,1.95474e-02,1.55658e-03,-2.13934e-02,-4.20053e-02,-3.42718e-03,2.58773e-02,6.36375e-02,6.43516e-02,1.36477e-02,-1.80709e-02,-3.79394e-02,2.04784e-01,8.24134e-02,-1.15169e-01,4.33526e-02,-6.42139e-02,-5.81061e-02,-3.87700e-02,-8.39869e-03,-2.53534e-02,-2.71089e-02,-3.38963e-02,-4.64051e-02,-3.59308e-02,-6.90218e-01,4.39104e-02,2.66342e-02,1.77525e-01,4.34842e-04,-1.82974e-02,2.74147e-02,1.26023e-02,-2.77001e-02,1.61070e-02,1.06543e-02,5.40294e-02,1.04805e-02,3.78956e-02,-4.09090e-02,3.62583e-02,-4.46191e-02,-2.59523e-02,-2.72681e-02,-5.23023e-01,7.38642e-03,9.41240e-02,1.22597e-01,9.03212e-02,1.08809e-01,-6.35815e-02,-2.84913e-02,6.53465e-04,-1.07511e-02,-3.08891e-02,5.16376e-02,5.57453e-02,4.52387e-02,4.44514e-02,-3.90875e-02,-8.73355e-02,-2.98069e-02,-7.85384e-03,-7.60266e-03,3.86522e-02,2.07261e-01,8.21373e-02,4.20056e-02,6.61081e-02,-3.06060e-03,-2.81902e-02,5.90018e-05,-9.09885e-02,1.77189e-03,-1.60953e-02,1.24470e-01,-5.46279e-02,-2.03855e-02,-1.42139e-02,4.21738e-02,1.31995e-02,-1.24587e-02,-3.57358e-02,-1.95449e-02,-2.19964e-02,7.19340e-01,3.63484e-02,3.53622e-02,2.70880e-02,2.63579e-03,-3.41464e-01,1.29794e-02,2.74509e-02,-4.80143e-02,-3.23151e-02,6.89959e-02,-2.47088e-02,-1.80035e-02,4.78026e-01,5.10590e-03,1.43571e-02,-2.39480e-02,-2.95269e-01,-3.07568e-02,-2.83534e-02,-2.73691e-02,1.83725e-02,1.78957e-02,1.09411e-03,1.94831e-03,4.02384e-02,-1.20626e-02,-2.15215e-02,9.68829e-02,1.52045e-02,7.69767e-02,-1.39128e-02,7.27548e-02,-5.73540e-02,4.78971e-02,-2.03541e-02,4.03729e-02,4.87048e-02,6.46238e-02,-3.82190e-01,1.47920e-02,-3.57071e-02,-7.66012e-02,-1.38716e-02,-5.37352e-02,2.35764e-02,-2.22114e-02,-1.38797e-02,9.36136e-02,6.67066e-03,6.90682e-03,3.32632e-02,-3.02826e-02,-4.59906e-02,3.10885e-01,-8.85117e-03,3.36195e-02,4.60976e-02,7.25944e-02,-3.28923e-02,1.60319e-02,-4.73970e-01,1.63405e-02,4.05274e-02,-3.96277e-01,-2.27680e-02,-2.12958e-02,1.56898e-02,-2.36350e-02,-4.27867e-02,-1.83132e-02,-1.98915e-02,1.09190e-02,-8.38272e-02,2.96883e-02,3.01391e-02,-3.70753e-02,-1.51859e-02,7.11797e-01,-1.72173e-02,-1.15990e-01,-4.63388e-02,1.98489e-02,-2.59238e-02,6.87813e-02,-7.79905e-02,-1.92269e-02,-1.35132e-01,1.14539e-02,2.52620e-02,-3.57932e-02,-2.19971e-02,-9.75232e-02,-2.03041e-02,1.54830e-02,3.22359e-02,3.01299e-02,4.01072e-02,2.88956e-01,-7.33060e-02,-6.97468e-03,-1.11842e-02,-3.22828e-02,-4.55572e-02,4.26714e-02,-2.45144e-02,5.14200e-02,9.84099e-03,8.00615e-02,-2.44434e-02,-4.38323e-02,-1.78396e-02,6.68905e-03,4.28209e-02,4.20921e-02,7.25206e-02,1.77877e-02,2.28665e-03,-3.10119e-02,-5.67693e-02,-3.12076e-02,-1.71037e-02,8.80268e-02,2.90921e-02,1.49918e-02,-2.92082e-03,1.59101e-02,-2.35493e-02,-5.53020e-02,-7.72178e-02,1.26352e-01,1.27780e-02,-6.65750e-02,1.99590e-02,-3.12086e-01,-2.38751e-02,4.62151e-02,-7.52521e-02,1.98366e-02,-1.08637e-01,-1.39155e-01,-1.08746e-01,-1.72263e-02,-3.65674e-02,-4.95625e-02,2.91400e-02,5.42594e-02,-3.90871e-02,-5.95013e-02,-6.68613e-02,-8.10076e-03,-2.11030e-02,-3.74016e-02,-4.79886e-02,-7.36872e-02,-3.72874e-02,4.51380e-01,2.84132e-02,-4.55088e-02,-5.09458e-02,-2.00009e-02,9.17005e-02,7.38722e-02,-2.41313e-03,9.66628e-02,2.69665e-02,-2.09494e-02,9.60781e-02,-2.07403e-02,1.19896e-02,-3.04085e-02,-2.21354e-02,-1.88625e-02,3.88346e-03,-6.46539e-02,-4.00928e-02,-3.82221e-01,-1.24195e-01,1.15809e-01,4.65232e-01,-8.33342e-02,1.82803e-02,-7.50227e-02,3.19148e-02,-1.46298e-02,-4.28444e-02,-4.90403e-02,6.11959e-01,-5.39032e-02,-4.67207e-02,-2.93330e-02,9.97010e-01,8.50814e-01,3.33904e-02,-1.21736e-01,1.34010e-02,-1.55848e-02,6.68613e-02,-2.75241e-04,7.94813e-02,-1.03279e-01,-1.00530e-01,-1.44800e-02,-1.42292e-02,2.31992e-02,-4.67043e-02,-1.07838e-02,1.85290e-02,-5.60516e-02,2.52499e-02,-3.95460e-02,-2.72104e-02,-3.65154e-02,-3.88193e-02,-1.67210e-02,-8.90208e-02,2.99511e-02,7.60827e-02,9.28423e-03,-1.24138e-02,7.95509e-02,-7.66240e-03,-3.10211e-01,-2.68327e-01,-5.24719e-02,-1.38391e-02,-7.56310e-03,1.64849e-02,-7.39274e-02,-2.74149e-02,-1.64335e-02,-3.46071e-02,4.60671e-02,2.48042e-04,-6.27340e-02,2.54173e-02,1.07530e-01,-5.10401e-02,-7.16209e-03,-5.04667e-03,-3.20365e-02,9.86957e-03,-2.59303e-02,4.14050e-02,-1.39389e-02,-6.96747e-02,-2.45321e-02,-2.69728e-02,2.99581e-02,1.07146e-02,-9.17312e-01,7.51492e-02,-5.09437e-03,5.74671e-03,-2.83269e-03,4.48499e-02,3.43324e-02,-8.36630e-03,-6.91099e-02,-1.45867e-01,1.69919e-02,5.35557e-02,4.49386e-02,1.69325e-02,5.66994e-02,4.28920e-02,4.26283e-02,-8.59158e-02,-1.34775e-02,-1.04015e-01,4.94462e-02,-1.58799e-03,-2.14713e-01,-1.02970e-02,-3.85715e-02,-7.53965e-03,-2.56067e-02,1.06742e-01,1.15218e-01,-4.10155e-02,2.70287e-02,-4.25459e-02,1.69179e-01,-2.53923e-02,-1.25972e-01,-1.85559e-03,-4.28148e-02,-2.44832e-02,-3.81392e-02,-4.46965e-02,
-3.02174e-02,-9.81004e-02,-7.07883e-02,4.02590e-02,3.89350e-02,-1.45390e+00,2.97116e-03,-1.64649e-02,7.88408e-02,-1.08273e-02,3.51121e-02,-1.97696e-02,-5.54365e-02,-8.26963e-02,2.06319e-02,-2.14120e-02,4.87306e-01,2.34364e-02,-5.71697e-04,-2.03505e-02,4.22640e-02,-2.61094e-02,-6.84882e-02,1.33002e-02,-1.62433e-03,-3.65226e-02,2.96278e-02,-7.37899e-02,3.23556e-02,2.50579e-02,-1.15851e-02,6.03934e-02,-1.91583e-04,3.12197e-02,2.76140e-03,3.09218e-02,-3.51232e-02,-4.28267e-03,-2.51383e-02,2.28279e-02,1.41168e+00,-2.52039e-02,8.90075e-02,9.46379e-02,7.21702e-02,4.36584e-02,-3.40746e-02,-7.58742e-03,3.36717e-02,-1.27241e-02,-1.17849e-03,2.66975e-02,4.45194e-03,3.69396e-02,-4.25930e-02,-2.81595e-02,3.73614e-02,4.24822e-02,-7.80055e-03,-1.63398e-02,4.92612e-03,7.69209e-02,-5.70392e-02,-2.58646e-03,-2.84644e-01,-4.05987e-02,9.20305e-03,3.47146e-02,-1.23872e-02,9.97688e-03,1.73006e-02,2.06809e+00,7.91305e-03,9.21878e-03,4.07773e-01,3.08330e-02,5.96050e-02,-1.40335e+00,2.58809e-02,5.02125e-03,2.04967e-02,-7.73341e-02,3.71886e-02,-1.89361e-02,-4.59261e-02,-2.52486e-02,-3.08826e-01,-7.28951e-03,2.28884e-02,-2.63704e-02,8.40776e-03,2.53090e-02,-2.80393e-02,1.89634e-02,6.94515e-02,-3.01899e-02,-2.74243e-02,-1.14160e-03,-2.38627e-02,6.46652e-03,-7.55296e-03,-1.52911e-02,-1.53186e-02,-5.15544e-02,-4.31243e-02,-4.56484e-02,2.12234e-02,3.27437e-03,4.61551e-02,-1.14087e-02,3.33009e-02,2.05878e-02,8.82483e-03,-5.80175e-02,-4.08718e-02,5.59116e-02,2.39207e-02,-2.88703e-02,1.19423e-02,-9.30032e-02,-3.29085e-02,-2.77148e-02,2.58287e-02,1.28643e-02,8.28412e-03,-1.25634e-02,-5.99925e-02,3.61758e-02,5.41255e-03,-3.66405e-02,-2.23044e-02,3.92489e-02,8.13199e-02,8.28166e-03,4.81376e-03,-2.87953e-02,2.34805e-02,-1.76819e-02,1.01638e-01,-2.70171e-02,-5.65935e-03,4.45900e-02,-1.56572e-02,4.69273e-02,-1.64019e-02,8.52810e-02,-8.88667e-02,-2.92186e-02,-1.55349e-02,2.43875e-02,4.87774e-01,6.10777e-02,-7.31374e-02,2.85306e-01,1.62849e-01,3.35735e-02,2.39493e-02,-4.93557e-02,1.33906e-02,-2.48412e-02,8.34929e-02,-1.72282e-02,-8.57627e-02,2.46630e-02,-2.72460e-02,-2.30237e-02,-2.37744e-02,-8.99780e-03,2.21997e-02,-1.94461e-01,5.98458e-03,9.24562e-02,8.28827e-02,5.62804e-02,-1.41083e-02,1.47960e-02,-1.82056e-02,-1.72894e-02,-2.74649e-01,1.41422e-02,1.40213e-01,-1.84419e-02,1.55722e-02,-1.29827e-02,8.46627e-02,7.36110e-02,2.03559e-02,5.01539e-02,-2.43970e-02,-2.54476e-01,-1.27167e-01,-2.31837e-02,3.50090e-02,-6.42430e-03,2.17996e-02,-2.26085e-02,6.16690e-02,1.21408e-02,4.06271e-04,3.48415e-02,4.83990e-02,-1.50107e-01,-3.99268e-02,-1.09265e-02,-8.94027e-03,-7.16104e-03,-1.25107e-02,3.94601e-02,1.26858e-02,-7.61962e-02,-1.81427e-01,-3.19388e-02,1.62855e-02,-1.46604e-02,-2.77438e-02,-9.75281e-03,5.21554e-03,2.60153e-02,2.66186e-02,8.73272e-03,-3.60982e-02,1.80373e-02,-2.58455e-02,-1.59335e+00,1.05482e-02,2.88163e-02,-4.46575e-02,-9.90187e-02,-2.85618e-02,-2.18869e-02,6.76551e-02,-5.13101e-02,1.98466e-02,2.64731e-02,-1.31187e-02,2.67076e-02,1.36150e-02,7.77282e-02,3.01544e-02,-5.29533e-02,1.75151e-01,-1.46764e-02,-1.52656e-02,1.53595e-02,2.68244e-02,1.09682e-01,-2.13358e-02,-1.18482e-01,5.82100e-02,3.37863e-01,1.65715e-02,3.24437e-02,-8.73651e-02,2.89109e-02,2.25702e-02,-4.24283e-02,-4.20431e-03,1.86375e-02,1.18472e-01,4.63482e-02,7.44125e-02,-1.47338e-02,-3.13654e-04,-5.13347e-02,3.25419e-01,-6.10219e-02,-2.51932e-02,-3.74274e-02,-7.56018e-02,4.00218e-02,-1.42269e-02,2.21104e-01,-3.17843e-02,2.09931e-02,-7.04425e-01,-8.15299e-03,-4.41752e-02,4.90920e-03,-1.98792e-02,-2.67247e-02,-2.56107e-02,6.10897e-02,-2.03448e-02,-8.47607e-02,4.06365e-02,9.13395e-03,2.94730e-02,6.87655e-03,2.41238e-01,-1.89000e-02,-6.02359e-02,6.70137e-02,3.85362e-03,1.63836e-02,-2.69072e-02,-4.72586e-02,-5.67713e-02,-1.04672e-01,-3.56063e-02,-6.03356e-02,-4.45916e-02,3.32827e-02,-1.21099e-02,-1.56121e-02,-3.49227e-02,-2.91622e-02,-5.27122e-02,3.12778e-02,3.71972e-02,-3.03743e-02,1.91339e-02,3.99458e-02,-1.29364e-04,-2.00832e-04,4.08444e-02,2.26587e-02,-4.33689e-02,1.70375e-02,2.95242e-02,5.57901e-03,7.17143e-02,-2.28240e-02,-3.83250e-02,-1.40420e-03,3.02734e-02,2.64397e-02,4.56468e-02,-2.53174e-02,4.81831e-01,4.24528e-02,-2.87647e-02,-2.04411e-02,-5.56116e-02,9.37965e-03,4.15513e-02,-5.41330e-02,3.75554e-04,3.83791e-03,-1.00754e-03,1.74459e-02,2.38762e-01,-2.49264e-02,3.12778e-02,6.31001e-02,-1.83756e-01,3.36805e-02,5.41384e-02,1.86318e-02,-3.62776e-02,-9.26635e-02,-1.01240e-01,-3.49513e-01,3.36834e-02,4.54185e-03,5.51950e-02,-1.47213e-02,-1.56110e-02,1.47809e-03,4.01460e-02,-3.28526e-03,-4.33290e-02,-9.68739e-03,5.05407e-02,-8.12560e-03,1.76954e-02,-4.41525e-03,4.20910e-01,1.08079e-02,-1.13963e-01,5.53545e-04,-1.44715e-01,8.52673e-03,-2.36551e-02,-8.50021e-02,1.57951e-01,-2.71296e-02,-1.90353e-02,7.23121e-02,-1.70135e-02,2.54972e-02,3.73820e-02,-1.01929e-02,-8.77306e-03,2.42234e-02,3.30429e-02,-2.84998e-02,-9.17151e-02,-4.63943e-02,8.74089e-02,-1.31108e-02,-1.16611e-01,-5.22676e-02,-2.45102e-02,-5.53045e-02,-2.57081e-02,-3.08264e-01,4.14095e-02,-2.48132e-01,-2.19922e-02,2.75207e-02,-5.74505e-03,-1.78262e-01,-1.57253e-01,-1.69686e-03,-5.37168e-02,-9.28635e-03,4.16725e-03,3.96548e-02,3.48626e-02,-2.50414e-02,2.36319e-03,-2.87175e-02,8.82103e-03,-2.79409e-02,-3.35217e-02,-4.54147e-03,-2.80773e-02,4.03751e-02,2.46307e-02,-3.38896e-02,1.44138e-02,-5.13679e-02,-2.55755e-02,-2.07833e-02,2.01478e-02,5.98641e-02,4.84901e-02,-2.39343e-02,-3.23914e-02,5.20175e-02,-4.10176e-02,1.89816e-02,-5.34111e-01,4.65100e-01,-5.29777e-02,6.42948e-02,2.10717e-02,3.65038e-02,-2.95589e-03,-4.91309e-02,-4.70818e-01,-2.49637e-02,-8.49824e-03,-5.30107e-02,4.23082e-03,-6.67443e-03,8.27195e-02,-1.87958e-02,2.37498e-02,9.96623e-03,-2.73092e-02,-3.84377e-02,1.82632e-02,1.35516e-02,3.01221e-01,-8.81620e-03,-5.35502e-03,3.32851e-02,-2.42562e-02,5.20057e-02,1.27131e-01,2.30426e-02,-2.44030e-02,3.37593e-03,1.88670e-03,1.91365e-02,2.41289e-02,4.94232e-02,7.08142e-03,-4.11339e-02,-2.96563e-02,-5.30846e-02,-8.89496e-03,8.77486e-02,-1.50269e-01,5.99407e-02,-3.70455e-02,-2.46312e-03,2.29918e-02,-2.74308e-02,5.99609e-03,1.67258e-02,9.45528e-02,-5.76789e-02,4.27878e-02,2.19621e-03,2.39513e-02,1.71948e-01,4.82522e-02,-2.19620e-02,-1.77466e-02,-1.60476e-01,5.11428e-02,-6.40719e-02,-2.09132e-02,-3.12081e-02,8.10161e-03,1.79076e-04,-3.05691e-02,-3.06229e-01,
3.86340e-02,1.50744e-02,3.20319e-03,-7.22563e-03,-1.37741e-02,6.11117e-03,-2.55123e-02,-4.23684e-02,-8.34326e-03,5.05329e-03,2.15356e-02,-2.75291e-02,-1.86310e-02,-6.14262e-03,2.66093e-02,7.61638e-03,-6.01373e-04,2.07801e-02,3.41858e-02,3.18720e-05,-2.74524e-02,2.09094e-02,2.52349e-02,-2.19540e-03,-3.05093e-02,-6.74340e-03,2.92087e-03,7.04480e-03,-1.02563e-02,1.63284e-02,1.13681e-02,2.53688e-03,1.66026e-02,-1.64269e-02,4.19091e-02,-2.69731e-03,-1.21089e-02,-1.22711e-02,-1.99562e-03,3.52838e-02,-3.61447e-03,-7.34531e-03,1.15643e-02,4.46605e-04,5.05941e-02,-1.12303e-02,3.17630e-03,1.62347e-02,-7.02049e-03,-2.54454e-02,-3.61290e-03,2.02112e-02,-4.18000e-02,-1.81214e-02,4.44217e-02,-2.52445e-02,2.56895e-02,1.28066e-02,-3.33655e-02,-2.35477e-02,-3.56301e-02,2.73240e-02,-8.59665e-03,2.55241e-02,-5.57634e-04,2.95491e-02,-5.75675e-02,4.37513e-02,2.71143e-02,1.37716e-03,-3.63898e-02,-3.13761e-03,1.18884e-02,4.35543e-03,1.99430e-03,1.62252e-04,1.03225e-02,8.29473e-04,-3.68223e-02,-3.07797e-02,5.95912e-02,-1.11720e-02,-3.84504e-02,-2.49337e-04,-3.89138e-02,2.18573e-02,-6.40285e-03,3.20147e-02,3.03345e-02,-7.33078e-03,2.30443e-02,7.31115e-03,1.07029e-02,-5.98346e-02,-2.87354e-02,-2.65114e-02,1.06607e-02,8.04056e-04,1.67596e-02,5.25171e-03,-1.19569e-02,-4.74766e-02,-3.26730e-02,1.13541e-02,1.49269e-02,7.11116e-03,4.38865e-02,2.48752e-02,2.05222e-03,1.18563e-02,5.35271e-02,2.30317e-04,5.04665e-03,1.29807e-02,4.16052e-03,-1.12520e-02,-8.82672e-04,-4.62100e-04,-1.12597e-02,1.02606e-02,1.01184e-02,8.36849e-03,2.09569e-02,2.73938e-02,3.26823e-02,-5.10832e-03,2.38129e-02,-4.95992e-02,4.13843e-02,-5.53179e-02,-1.49815e-02,1.10533e-02,-1.57783e-02,-1.14195e-02,5.63070e-02,-2.14573e-02,-4.06011e-02,-9.03449e-03,4.57960e-04,-1.42299e-02,7.92114e-03,1.66786e-02,-1.00887e-02,-1.81013e-02,-2.19053e-02,-9.96041e-03,-7.84088e-03,2.60519e-02,-1.62530e-02,3.24373e-02,1.30494e-02,7.84748e-05,-2.12048e-03,-2.67241e-02,3.34326e-03,1.41103e-02,-2.17451e-02,1.05080e-02,5.43512e-03,-4.50690e-03,1.13815e-02,-1.31485e-02,-6.15188e-03,4.52169e-02,-2.50777e-04,-2.17222e-03,9.69095e-03,8.57422e-02,-1.02391e-02,-2.70785e-03,2.54604e-03,5.45073e-03,1.28586e-02,-7.59171e-03,-1.50793e-02,4.82627e-02,-7.62675e-03,-3.03142e-02,1.81381e-02,2.66985e-02,3.55568e-03,3.31030e-03,2.59220e-02,-3.02083e-02,-6.00510e-02,-4.03756e-04,2.73197e-02,5.02866e-02,-2.55934e-02,-1.38670e-03,2.60777e-02,7.58153e-03,-1.61454e-02,3.87912e-02,2.51926e-02,-3.00295e-02,2.70488e-04,-5.54169e-03,-2.30867e-02,-8.30382e-03,-7.63639e-02,1.17291e-02,-5.89802e-03,-1.23285e-02,-1.02357e-02,-7.26331e-03,-1.59803e-02,3.54906e-02,-7.76958e-04,-6.42413e-05,-9.45274e-03,-4.25796e-03,-2.07996e-03,1.90387e-03,2.34800e-02,-1.66690e-02,3.35596e-02,-2.64518e-02,1.99995e-02,-4.41320e-03,1.36996e-02,2.19256e-03,3.30893e-03,8.04890e-03,-2.53310e-02,-3.07280e-02,5.92714e-02,-2.62177e-03,6.11774e-02,1.80317e-03,1.06493e-02,1.81084e-02,1.30278e-02,8.36744e-03,-1.18979e-02,-1.04974e-02,-4.72956e-02,1.04810e-03,4.67072e-03,-1.63346e-04,1.50728e-03,1.64820e-02,-3.35811e-03,5.07093e-02,5.74926e-03,1.25199e-02,3.23276e-02,-1.94615e-03,4.17799e-02,-7.57888e-03,5.35124e-03,-6.37491e-03,7.15595e-03,-1.05718e-02,2.93903e-02,-8.12463e-03,-1.54219e-02,4.05109e-02,-1.08433e-02,-5.90526e-03,-3.81015e-03,-5.19949e-02,3.13140e-02,3.01939e-02,-4.41634e-03,1.12993e-03,-2.38611e-02,-5.84376e-02,-1.10003e-03,-1.30695e-02,-3.90476e-03,-8.48737e-03,-5.00305e-02,1.00722e-02,-5.49119e-03,1.60006e-02,-2.09369e-02,-3.70505e-03,-7.10323e-03,2.40002e-02,3.11984e-02,-1.62069e-02,-4.93630e-02,8.38116e-03,-1.50267e-02,-2.83187e-02,2.49277e-02,1.52054e-02,6.67321e-03,-5.01540e-03,-1.05576e-02,-2.87590e-03,1.04825e-02,1.65266e-02,4.76286e-03,-3.09723e-02,2.76811e-02,-5.92804e-03,5.63575e-02,2.50699e-02,-7.13757e-03,-2.76952e-02,-9.52206e-03,-1.86910e-02,5.07748e-02,-1.54666e-02,5.18900e-02,2.29716e-02,-2.08535e-03,5.36428e-03,3.77652e-02,-1.51014e-02,1.18218e-02,-9.69304e-02,2.85020e-02,-5.66384e-03,-4.81432e-03,-3.51391e-02,-4.27187e-02,9.29946e-03,-8.52571e-03,9.82066e-03,2.50388e-02,-2.98008e-02,3.28824e-02,2.31299e-02,2.03375e-02,-2.91919e-02,-1.17416e-02,1.06116e-02,-2.49370e-02,5.72564e-03,-8.01048e-03,4.05800e-04,-2.35452e-02,-1.54575e-02,4.53907e-03,6.56731e-03,3.48150e-03,2.72799e-02,-6.47001e-03,-4.43224e-02,3.90745e-02,-8.32658e-03,2.76177e-02,1.24161e-02,5.00957e-03,-1.70558e-02,3.05734e-02,-1.54001e-02,4.30664e-03,6.66495e-03,1.57247e-02,3.13218e-02,-1.95283e-02,4.77529e-02,-2.08990e-02,4.40606e-03,-4.33406e-02,-1.42047e-02,-2.10405e-02,2.08511e-03,7.62427e-03,1.60290e-02,5.68170e-03,-5.75619e-03,1.23717e-03,-1.87479e-02,1.51394e-02,-4.37483e-02,2.66579e-02,2.46268e-02,-1.17966e-02,-3.58579e-02,-1.49060e-02,8.90562e-03,3.26521e-04,6.49037e-03,-3.49398e-02,8.36194e-04,-6.00589e-02,-3.17517e-02,-1.60310e-03,-2.64452e-03,6.73956e-03,-7.65817e-03,5.03645e-03,2.84115e-03,4.22679e-03,1.90849e-03,-2.21643e-02,2.01625e-02,3.97505e-03,-4.07222e-03,-3.76576e-02,-3.27023e-03,2.88099e-02,-2.32538e-03,1.56018e-02,-3.66372e-02,4.59420e-02,2.83680e-03,-5.61229e-03,3.60440e-02,1.67265e-03,-1.69738e-03,-1.03605e-02,-5.11516e-03,2.26513e-02,3.44253e-02,2.94741e-03,-6.77868e-03,-1.71445e-03,-1.57909e-02,3.25238e-02,2.46166e-04,-3.29051e-03,3.13019e-02,2.10221e-02,-2.26216e-02,-3.96167e-02,8.53847e-04,-1.94600e-02,9.32837e-04,-7.19920e-02,-2.16655e-02,1.88491e-02,3.46539e-03,-6.07351e-02,2.15330e-02,-3.08467e-02,-3.13713e-02,-3.49005e-03,6.78969e-03,-2.62310e-02,3.64448e-02,-2.29605e-02,-1.07676e-03,-8.69230e-03,9.90136e-04,-2.42076e-03,-3.42759e-02,4.21077e-02,-4.33590e-02,2.18458e-02,3.04851e-03,-1.41756e-02,-2.97622e-05,1.65496e-02,2.97065e-02,-2.15604e-03,-2.59580e-02,-1.86640e-02,2.19983e-02,1.45013e-02,1.03096e-03,9.54269e-03,2.32121e-03,3.92910e-03,1.41856e-02,9.52095e-03,8.05482e-03,-5.71259e-02,-1.11802e-02,-1.76414e-02,6.84071e-03,6.15213e-02,-2.05803e-02,-8.41084e-03,2.47659e-03,-8.91121e-03,-2.25144e-02,-2.89282e-02,4.74982e-03,2.27877e-03,-2.83344e-02,-3.18281e-03,1.46153e-03,-1.07160e-02,5.25645e-02,-3.50760e-03,2.10426e-02,-3.50443e-03,-3.32187e-03,-5.61412e-03,1.02432e-02,-1.39759e-02,1.55506e-02,2.29219e-04,-3.27879e-02,2.01911e-02,1.38592e-02,-2.98710e-03,-2.67895e-02,2.49452e-05,-9.44535e-03,3.86116e-02,-2.42981e-03,2.10100e-03,-6.36017e-03,
-1.30721e-02,3.35757e-02,2.35405e-02,-4.98341e-03,3.38633e-04,4.55871e-04,1.76178e-02,-2.78224e-02,-2.18302e-02,4.50370e-03,3.99039e-02,-5.08343e-03,-4.65297e-03,1.21493e-02,-1.75281e-02,2.01063e-02,9.37677e-04,-3.07849e-02,-1.42778e-02,8.23415e-03,2.11638e-02,2.83249e-03,-9.74064e-03,-1.06926e-02,-3.92980e-03,-3.27124e-02,-2.42097e-03,7.42465e-03,1.51786e-02,4.25658e-03,-4.97646e-02,3.22666e-03,-3.23921e-02,-1.35241e-02,4.45574e-03,-1.23079e-02,-4.02778e-03,3.74260e-02,-3.22294e-02,4.92114e-02,-4.51822e-03,-4.99972e-04,-1.60114e-03,1.98223e-03,4.61426e-02,9.97436e-03,-1.57286e-02,3.00851e-02,-2.48350e-02,3.18913e-02,-1.68938e-02,8.75439e-03,8.94058e-03,-1.48798e-02,2.76045e-02,3.38283e-02,-1.29478e-02,-4.34902e-02,7.01224e-03,-5.80653e-02,-3.96634e-03,4.60414e-02,4.02043e-03,1.71643e-02,-3.62750e-04,-8.05564e-03,-5.00108e-02,-4.46581e-02,1.13680e-02,5.28463e-03,-1.17263e-02,1.84446e-03,-1.66980e-02,7.17035e-03,2.64199e-03,-5.53987e-03,1.04192e-02,8.99916e-03,-8.42805e-03,-1.68423e-02,5.44370e-02,2.64709e-03,-2.19828e-02,-8.43233e-03,-1.44777e-02,1.93021e-03,-5.01315e-03,6.32135e-03,-3.68209e-03,-1.83376e-02,-2.62151e-02,-5.30561e-04,-5.78791e-03,7.45820e-03,1.52645e-02,-3.52839e-03,-9.91999e-03,2.21720e-02,-4.40264e-04,-7.24879e-03,2.16009e-02,-4.41827e-02,-9.98566e-03,9.37419e-03,-2.29577e-02,-1.71329e-02,-2.86084e-02,2.26847e-02,-2.34872e-02,3.16794e-02,-1.86765e-03,-8.84542e-03,9.76342e-03,-9.64691e-03,1.20508e-02,-1.11511e-02,4.32529e-02,1.85777e-03,-4.57466e-03,3.00696e-03,3.26062e-02,-1.84621e-04,1.69137e-02,-1.23210e-02,3.67553e-02,2.40609e-02,-2.21168e-02,2.48255e-02,-8.73014e-03,2.23273e-02,5.28096e-02,-1.13690e-02,-1.08415e-02,2.27047e-02,2.76216e-03,1.03622e-02,-2.73079e-02,1.04336e-02,6.59610e-03,1.04111e-03,4.51564e-02,-9.14310e-03,-1.29365e-02,2.54508e-02,-1.01786e-02,2.97630e-02,7.34944e-03,6.46489e-03,1.01891e-02,-2.76858e-02,2.34520e-04,-2.01645e-03,-5.55552e-03,6.16111e-03,-8.00498e-04,-1.26850e-02,4.36323e-02,-1.34262e-02,8.96653e-03,9.60361e-03,3.70110e-03,-1.29501e-03,-2.27580e-03,-3.61512e-02,1.43642e-02,-3.95112e-02,1.35010e-03,6.07610e-02,-3.58093e-02,8.12895e-03,-3.39686e-02,5.67292e-03,3.73588e-04,-1.11073e-02,4.90514e-03,4.83133e-02,1.58992e-02,1.56979e-02,-6.40787e-03,5.53262e-03,-3.31725e-03,-8.54365e-03,3.87997e-03,7.54029e-03,6.86093e-02,-8.65615e-03,-6.98870e-03,2.98695e-02,-2.25507e-02,2.26894e-02,-1.11341e-02,-1.82706e-03,7.92305e-03,1.37454e-02,-1.26391e-02,-2.66225e-02,8.31447e-03,-2.45379e-02,3.02625e-02,-2.24206e-02,8.63719e-03,3.36496e-03,-3.69790e-04,2.88942e-02,-2.79819e-03,3.08923e-02,2.88135e-02,1.61855e-02,-1.76408e-02,4.56003e-03,-1.11246e-03,4.51739e-02,-1.63397e-02,1.37410e-02,4.27591e-02,-1.17951e-03,1.82153e-02,-1.19122e-02,-5.15630e-03,2.09499e-02,9.66853e-03,-2.05764e-03,-5.63423e-02,-8.71957e-03,-3.07282e-02,5.24434e-03,-3.10220e-02,3.03153e-03,-1.61504e-02,-1.47679e-03,-1.37385e-02,-9.41971e-03,2.96223e-02,-8.01253e-03,-1.63115e-03,1.06921e-02,-2.91473e-02,-2.06543e-03,-6.96561e-03,2.88065e-02,-2.65938e-04,1.21402e-02,-1.99874e-03,-3.24352e-02,-5.83329e-03,-1.01721e-02,2.72465e-02,-2.94458e-03,1.56705e-02,-4.91175e-03,-2.99217e-02,-3.79977e-02,3.98978e-03,1.90823e-02,-2.96461e-02,2.95602e-04,1.82384e-02,-2.47134e-02,3.64390e-03,1.57641e-02,-6.17944e-04,-2.95344e-02,-1.26659e-02,6.42784e-03,-1.71117e-03,-6.67298e-03,-6.80011e-03,-3.08668e-02,-3.16580e-03,-2.41716e-02,3.97236e-04,2.57179e-03,-3.69610e-02,2.55510e-03,9.02761e-03,-1.56532e-02,4.77413e-02,2.68707e-02,-8.10701e-03,4.02215e-02,5.94769e-02,2.77451e-02,4.20828e-02,-6.64013e-03,2.07359e-02,-3.18877e-02,1.51819e-02,4.23298e-02,7.01090e-04,-2.03879e-02,-9.60326e-03,-1.75775e-02,1.75644e-03,4.39257e-03,2.06224e-03,2.58055e-02,1.62052e-02,7.52303e-03,4.45997e-02,-5.66878e-02,-5.97718e-03,1.93374e-02,8.63461e-03,1.25822e-02,-1.90499e-02,-4.87173e-03,-2.72370e-02,-3.62238e-02,-1.47880e-03,7.08220e-03,2.46141e-02,-8.51939e-03,4.33539e-03,5.23114e-02,-9.70632e-02,-1.22683e-02,4.29633e-03,-4.13591e-02,2.20788e-03,-1.81052e-02,-3.29437e-02,8.75918e-03,-1.78897e-02,1.86936e-02,-3.47352e-02,2.93615e-02,-2.70844e-03,-4.82476e-02,-2.92176e-04,2.16273e-04,-2.38618e-02,5.06848e-03,3.48222e-03,2.48589e-02,7.02954e-03,2.87525e-03,-2.37158e-02,2.31736e-02,2.93145e-03,-1.12085e-03,-6.27966e-03,2.40245e-02,1.08128e-04,3.54128e-03,-8.99931e-03,2.56918e-02,1.51036e-02,-8.64016e-03,-1.93902e-02,-1.16592e-03,-6.98157e-03,-2.72345e-04,7.75335e-03,-1.99312e-02,3.95669e-03,-2.68003e-03,1.53996e-03,-2.04756e-02,3.14585e-02,-1.20231e-02,1.65452e-03,2.67706e-02,1.94742e-04,1.90129e-02,-4.06486e-03,-4.09680e-02,1.64436e-05,-1.99836e-03,-8.56652e-03,1.10330e-02,-2.86146e-02,4.88054e-03,-9.66982e-03,-7.30367e-03,-2.18178e-03,-3.44273e-03,2.05388e-02,3.95182e-04,6.78461e-03,2.52034e-03,-5.40056e-02,4.46565e-03,-4.87115e-02,-2.73589e-03,9.73790e-03,5.08922e-02,-1.54621e-03,8.48247e-03,-4.22518e-04,-4.16641e-03,1.38938e-02,2.59674e-02,7.62167e-03,-8.61762e-03,-3.92203e-02,3.72250e-03,-1.03845e-02,5.29928e-04,-1.32297e-02,1.61822e-02,-1.94324e-02,6.49154e-03,-3.27807e-03,-2.97824e-02,-9.25937e-03,-8.97293e-03,1.05856e-03,7.33923e-03,8.12815e-03,-2.14520e-02,9.52287e-03,-6.49019e-03,1.01773e-03,1.31928e-02,-4.51521e-02,2.19653e-02,-2.36458e-02,4.43580e-03,2.17334e-02,-2.99613e-02,-5.29864e-02,3.12623e-03,-2.25698e-02,9.50889e-04,-4.63531e-02,1.49234e-03,-2.48857e-02,2.74829e-03,-1.73117e-02,-7.90776e-04,-1.84345e-02,-8.63557e-02,3.55370e-03,2.44025e-03,-5.69722e-02,2.83880e-02,1.31556e-02,6.10865e-03,1.89825e-02,2.87430e-02,5.30777e-03,2.94586e-02,2.74690e-02,2.39584e-02,1.46915e-02,8.95610e-03,1.10932e-02,1.07206e-02,-8.12748e-03,4.99508e-02,-5.52430e-03,-3.53002e-03,-1.22589e-02,2.86078e-02,-3.13840e-03,3.21388e-03,-2.90029e-02,1.46570e-02,1.69376e-02,1.39161e-02,-8.45982e-04,-2.18178e-03,-4.27460e-03,3.78068e-03,1.75572e-02,2.62083e-02,6.24313e-02,-3.04985e-02,9.39446e-03,-1.25391e-03,-3.97084e-02,3.28814e-03,1.55087e-02,5.23789e-03,-5.12672e-03,5.12270e-03,-4.63579e-03,-2.93539e-02,-1.30809e-02,-2.90986e-03,2.00805e-03,-4.29310e-02,-2.75532e-03,-1.04724e-03,-2.15892e-02,8.21239e-02,1.08470e-02,-1.20189e-02,-2.76543e-03,7.65027e-03,-3.63239e-02,8.34834e-03,1.42989e-02,5.70401e-03,6.00184e-03,-1.36961e-02,1.62549e-02,-9.17377e-02,-8.54713e-03,1.53751e-03,
3.88597e-02,
4.91368e-02,
-3.20833e-02,
3.13061e-03,
