// Neural Network File Format by Kyle Julian, Stanford 2016
6,6,4,100,
6,100,100,100,100,100,4,
0,
0
0
0
0
-3.87896e-02,-9.99703e-02,1.86253e-01,-5.99953e-01,2.07602e-01,7.61328e-02,
3.62011e-01,2.64777e-01,1.99487e-01,1.85207e-01,2.35103e-01,-1.05607e-01,
-3.89182e-01,-1.88235e-01,-1.49397e-02,4.07357e-01,1.28226e-02,-2.35468e-01,
-3.02756e-02,-2.73171e-01,1.71999e-01,-4.03737e-01,-4.91761e-01,5.30984e-01,
2.46889e-01,-3.20608e-01,-3.46408e-01,-7.62977e-01,2.06510e-01,-4.68457e-01,
-1.42611e-02,-5.06854e-02,2.22921e-01,1.90816e-01,-1.09561e-01,3.46720e-01,
-2.00052e-01,-1.61275e-01,3.80291e-01,4.47523e-01,3.05109e-01,2.74995e-01,
-1.64484e-02,2.49852e-01,-2.13987e-04,-3.53906e-01,3.20817e-01,-3.26372e-02,
2.01326e-01,-2.44772e-01,4.70962e-01,7.03067e-01,1.66069e-01,-5.61206e-02,
-8.81403e-02,1.68282e-01,1.31261e-01,3.37710e-01,-1.27804e-01,-4.64230e-01,
-2.16384e-01,1.26065e-02,-1.97914e-01,-3.38949e-01,-2.05489e-01,1.28875e-01,
1.70583e-01,-1.81284e-01,1.28392e-01,9.95020e-04,8.78287e-02,-9.30761e-02,
-3.48921e-01,-2.44018e-01,4.10187e-01,-1.83706e-01,1.81477e-01,-3.58537e-01,
6.79837e-02,5.19177e-02,-1.75586e-02,-4.56412e-01,-1.78285e-01,4.10514e-01,
-3.85198e-01,-3.08262e-01,-2.27705e-02,-3.01873e-01,-2.04077e-02,-3.18760e-02,
-3.70180e-01,-2.90986e-01,4.18303e-01,-4.05660e-01,2.06690e-01,-4.12244e-01,
-2.67043e-01,-3.11773e-01,2.55550e-01,5.87049e-01,5.93968e-01,-9.23589e-02,
-9.48205e-02,-3.46732e-02,-3.45408e-01,-8.04407e-01,-1.29244e-02,-1.28340e-01,
-2.63401e-01,-1.85492e-01,1.04711e-01,2.63466e-02,-2.00953e-01,2.11082e-01,
-2.53307e-01,1.86860e-02,-2.58771e-01,8.31224e-02,-4.33057e-01,3.51942e-01,
9.20609e-02,8.48708e-02,6.11521e-01,-2.66857e-01,2.02656e-01,-1.13860e-01,
-9.21752e-02,-9.55822e-02,2.00633e-01,-3.82621e-02,1.35878e-01,8.26860e-02,
1.10605e-01,7.38045e-02,-1.18013e-01,5.24571e-01,2.97259e-01,3.30076e-01,
2.32871e-01,-2.30515e-01,1.90237e-01,-5.09765e-01,1.26640e-02,-9.31811e-02,
-2.41750e-02,2.26468e-03,-2.69814e-01,2.17782e-01,-4.31337e-01,5.12649e-02,
-1.64594e-01,-2.74286e-01,-6.41060e-01,4.19313e-01,-4.28124e-01,1.48262e-01,
3.05584e-02,2.67471e-01,-1.70273e-01,3.97583e-01,4.87254e-01,-5.29914e-01,
6.66729e-02,-2.39942e-02,2.73958e-01,5.19779e-01,-1.23238e-01,-2.47517e-01,
3.93914e-01,1.34210e-01,-3.07794e-01,2.69600e-01,-3.67136e-01,2.51133e-01,
-1.54861e-01,1.96715e-01,-2.73488e-01,8.30954e-02,-1.68594e-01,1.57442e-01,
2.28009e-01,1.73185e-01,-2.67564e-01,2.16581e-01,-1.25363e-01,2.57617e-01,
-1.03009e-01,-3.29114e-02,-4.55159e-01,3.87525e-01,5.79171e-02,-2.96076e-04,
3.08831e-01,1.46492e-01,3.67439e-01,3.22392e-01,-2.36551e-01,9.27577e-02,
-7.30195e-02,6.29629e-02,-3.03103e-01,6.94255e-01,-7.39805e-02,8.99896e-02,
1.14561e-01,2.93007e-01,-3.99212e-01,5.07120e-01,1.61049e-01,-1.08895e-01,
1.15511e-01,3.01421e-03,3.22499e-01,-7.85199e-01,-5.08690e-02,9.24236e-02,
2.56767e-02,4.70969e-02,7.23527e-01,-4.82223e-01,1.21943e-01,-6.28176e-02,
-1.37315e-01,-2.89183e-01,3.08769e-01,-1.51740e-01,-2.74878e-01,1.11047e-01,
-7.68640e-02,1.02619e-01,-1.94316e-01,-8.49540e-01,-1.91669e-02,-3.14483e-02,
1.87030e-01,1.81860e-01,3.78254e-01,6.43308e-01,-1.00518e-01,9.70908e-02,
-2.72031e-01,-3.18699e-01,3.82281e-01,-6.92851e-01,2.82244e-01,-1.71992e-01,
-2.19238e-01,-1.74529e-01,-1.96133e-01,3.42916e-01,4.38327e-01,3.15975e-01,
-1.29344e-01,-1.77921e-02,5.68416e-01,-6.63715e-01,1.38245e-01,-6.48847e-02,
-8.11782e-02,-6.95686e-02,1.19338e-02,5.70793e-01,2.18475e-01,-5.09013e-01,
-2.71962e-01,-2.79363e-02,7.45968e-02,1.07044e-01,-2.66731e-01,4.27461e-01,
1.20434e-01,1.92729e-01,-8.44736e-02,-6.69312e-01,3.09148e-01,-8.73249e-02,
-7.51197e-02,1.07999e-02,1.01311e-01,4.14304e-01,1.42079e-02,-1.41435e-01,
5.08124e-02,1.60193e-02,-6.58943e-02,-2.61709e-01,1.61542e-01,4.96159e-01,
-5.51787e-03,2.32385e-03,3.77715e-01,-4.96302e-01,1.54216e-02,-2.00215e-02,
2.01251e-02,7.04928e-02,-3.62701e-01,-2.67472e-01,1.59529e-01,-5.23414e-01,
1.22640e-02,-3.89823e-02,6.61703e-01,7.19892e-01,4.66659e-02,3.45389e-02,
4.27100e-02,-1.53731e-01,1.91249e-01,4.58708e-01,4.16725e-01,5.21274e-01,
-2.26731e-01,-9.70970e-02,6.52914e-01,4.03285e-01,-1.82374e-02,-2.23362e-01,
-1.46842e-01,1.85706e-01,1.76973e-01,4.46134e-01,-1.15542e-01,2.71649e-01,
2.34297e-01,1.83711e-01,-4.48536e-01,-5.24665e-01,-3.53193e-01,-3.07305e-01,
-1.22430e-01,-9.36592e-02,-4.66834e-01,4.46697e-02,-2.72855e-01,3.83077e-02,
-2.48666e-01,1.48200e-01,4.17265e-01,2.96514e-01,-5.33336e-01,2.37909e-01,
2.79564e-01,-2.26975e-01,7.78475e-02,5.43470e-01,1.32567e-01,-5.67127e-02,
5.32286e-02,5.25210e-04,1.40456e-01,-4.64113e-01,4.53279e-01,-1.03824e-01,
-1.20588e-01,-9.01738e-02,-4.21922e-01,4.89163e-01,-3.42785e-01,1.78129e-01,
7.46754e-02,6.98574e-02,-3.17087e-01,4.18085e-01,3.40847e-01,3.19955e-01,
1.85033e-01,-4.74412e-02,1.97468e-01,7.19084e-01,-4.39574e-02,6.66707e-02,
1.55688e-01,-2.40571e-01,6.08384e-01,3.68570e-01,1.19797e-01,8.95037e-02,
-7.53702e-02,-7.49176e-02,3.11747e-01,-4.36187e-01,-3.52354e-01,-3.30358e-01,
-3.88604e-01,-2.40684e-01,-4.16354e-01,-4.52217e-02,2.62909e-01,-6.98099e-02,
-1.89614e-01,-1.66659e-02,1.13345e-01,-9.22318e-02,-7.87874e-02,-4.22762e-01,
-1.87340e-01,1.95670e-03,3.69607e-01,2.62814e-01,-2.64886e-01,3.52162e-01,
1.71956e-01,1.42757e-01,-1.78399e-01,-1.50537e-01,-2.83512e-01,-3.68386e-01,
7.41456e-02,2.89751e-02,-4.17235e-01,5.54616e-01,-9.19072e-02,1.95022e-02,
2.16821e-01,-1.28173e-01,-3.63903e-01,-2.55126e-01,4.62919e-01,-2.04948e-01,
1.21907e-01,-2.34688e-01,-1.86514e-01,-4.70063e-01,1.71382e-01,6.37476e-01,
2.54498e-01,5.24657e-02,3.39009e-02,-2.23943e-02,2.45629e-01,-3.74131e-01,
1.57332e-02,4.95630e-02,-1.30402e-01,-1.53247e-01,2.24222e-02,-4.01292e-02,
-2.06688e-01,-2.70564e-01,-4.40657e-01,3.68716e-01,2.00232e-01,-2.94706e-02,
-1.56670e-01,1.12649e-01,-2.81698e-01,3.16351e-01,-2.74532e-01,2.31651e-01,
1.52917e-01,9.83515e-02,3.99738e-01,-1.88389e-01,-1.14315e-01,1.85402e-01,
-2.89216e-01,-3.21556e-01,3.55687e-02,-5.23789e-01,1.69251e-01,-1.40932e-01,
2.35149e-01,-3.13515e-01,-2.14533e-01,2.21290e-02,-1.81252e-02,-7.24446e-02,
1.26649e-01,-3.11134e-02,6.02111e-01,-5.23758e-01,-1.40447e-01,-2.26526e-01,
-5.31949e-02,2.87632e-01,7.92536e-02,-2.99730e-01,4.04845e-01,2.09208e-01,
-4.09758e-02,1.48758e-01,-1.98095e-01,-4.48998e-01,-4.08376e-01,-5.11702e-01,
-1.72034e-01,-1.50819e-01,4.80524e-01,-2.88087e-01,8.94242e-02,1.14523e-02,
-3.32873e-01,-1.50124e-01,-1.59917e-01,-6.77482e-01,2.50006e-01,-2.14893e-01,
2.81816e-01,1.44067e-03,-3.05992e-01,-2.20793e-01,3.51927e-01,-5.02482e-01,
-1.49210e-02,-5.79757e-04,-2.78652e-01,1.83104e-01,3.84401e-01,2.43510e-02,
-1.93595e-01,-1.62711e-01,1.87342e-01,1.57637e-01,3.11715e-01,4.14113e-01,
1.42446e-02,2.41150e-03,5.74220e-01,2.76551e-01,3.58249e-01,1.47381e-02,
-9.38414e-02,3.33498e-02,-4.12461e-01,-7.32015e-01,1.66367e-01,3.41624e-01,
6.11912e-02,-3.31062e-01,-8.19239e-02,3.46822e-01,-4.59715e-01,-2.29181e-01,
2.59409e-01,-1.87168e-01,4.48042e-01,-5.13485e-01,4.37530e-01,-3.70941e-01,
1.59056e-01,1.86984e-01,-1.39460e-01,-3.55823e-01,-3.61776e-01,4.96744e-02,
-2.82418e-01,-3.80918e-02,4.70182e-02,-2.27561e-01,3.06570e-01,-1.91098e-01,
-8.50378e-02,-2.11540e-01,1.25668e-01,2.72587e-01,-2.61709e-01,2.76732e-01,
-1.72541e-01,-7.47182e-02,8.02653e-01,8.78312e-02,3.52516e-01,-2.00279e-01,
-3.38180e-01,-1.34455e-01,8.36690e-02,-3.33138e-02,-2.40386e-01,4.09984e-01,
2.00606e-01,-2.70032e-01,-3.20753e-01,1.85971e-01,8.11832e-02,-1.17960e-01,
-1.58766e-01,9.93961e-03,1.91763e-01,3.48805e-01,2.64299e-02,-1.73922e-01,
-1.47669e-01,-2.33425e-01,1.35889e-01,8.49183e-01,-3.71924e-01,1.05270e-01,
7.37888e-02,3.12162e-02,-5.96274e-01,3.36549e-01,-1.06012e-01,5.74256e-02,
2.39680e-01,1.94252e-01,2.81250e-01,-3.88087e-01,-4.81176e-01,-3.41403e-01,
-4.67329e-01,
-3.46864e-01,
-2.59398e-02,
1.27150e-01,
-7.75000e-01,
8.31713e-02,
2.69905e-02,
-4.78608e-02,
7.20194e-01,
-2.04975e-02,
7.86753e-02,
3.55003e-01,
2.67431e-01,
2.26611e-01,
-3.61161e-01,
4.79485e-01,
-6.14099e-02,
-6.26839e-01,
2.21898e-01,
-4.00699e-01,
5.69230e-01,
6.06363e-01,
-1.47517e-01,
-1.05961e+00,
4.55925e-01,
-8.85166e-01,
-1.21183e-01,
-8.41248e-02,
-6.17638e-02,
6.88934e-02,
-2.61798e-01,
6.16764e-01,
5.85884e-01,
-3.83218e-01,
-3.19170e-01,
-2.28444e-01,
5.20091e-01,
-4.29499e-01,
-9.26818e-01,
-2.27248e-01,
-4.49511e-01,
1.48794e-01,
-6.11837e-01,
-2.85965e-01,
1.50600e-02,
1.70218e-01,
5.28562e-01,
3.56149e-02,
8.53361e-01,
-1.04412e-01,
-1.14809e-02,
-3.54465e-01,
4.21064e-01,
4.31096e-01,
-2.71525e-02,
-3.12086e-02,
-2.28291e-01,
6.16169e-01,
-2.09918e-01,
1.55070e-01,
2.50621e-01,
-1.17720e-01,
-6.43924e-01,
-2.43544e-01,
-2.43705e-01,
1.31074e-01,
8.85690e-02,
2.22239e-01,
5.56473e-01,
2.06989e-01,
1.79657e-02,
-6.57415e-02,
8.55417e-01,
4.92711e-01,
-5.83453e-02,
5.87741e-01,
-2.79333e-01,
2.36929e-01,
-6.55634e-02,
-1.45716e-01,
3.37123e-01,
-2.80523e-01,
-9.61864e-01,
2.81459e-02,
2.30450e-01,
-2.79716e-01,
4.65454e-01,
1.12647e-01,
1.61755e-01,
9.97733e-02,
5.22063e-02,
5.38485e-02,
-4.25646e-02,
-3.30685e-01,
1.32969e-01,
3.34194e-02,
-1.94454e-01,
-2.24982e-01,
-4.39549e-01,
-8.41584e-02,
-2.84684e-02,5.08200e-02,-1.08119e-02,5.71634e-03,1.31279e-02,4.41645e-02,1.38296e-02,4.99558e-02,7.27082e-02,-9.35190e-02,-9.88982e-02,7.55700e-02,-5.39375e-02,1.42934e-01,-4.43492e-02,2.90030e-02,1.90143e-02,-3.41688e-02,-6.05775e-02,-3.79605e-02,-8.12389e-02,7.84511e-02,-7.45110e-03,-9.80010e-02,3.20566e-02,-5.81318e-02,4.24949e-03,-9.62539e-04,8.82782e-02,4.08584e-02,-1.02215e-02,4.06190e-02,-2.18346e-02,7.70780e-02,-2.76852e-02,-2.02327e-02,-8.87330e-02,4.08248e-02,-6.83281e-02,7.87439e-02,-2.42613e-02,-1.34236e-03,4.40545e-02,-1.19493e-01,9.88664e-03,1.42196e-02,-4.57412e-02,3.95069e-02,-9.30877e-02,5.09810e-02,6.50172e-03,1.39727e-01,3.32254e-02,-1.14013e-01,6.67004e-02,2.77778e-02,-6.23523e-02,4.89185e-02,2.69746e-02,-2.90568e-02,-3.03691e-02,1.82977e-02,1.82150e-02,1.22292e-02,8.77765e-05,2.13398e-01,4.27248e-03,-3.31467e-02,1.87866e-02,5.99321e-02,6.13541e-02,-3.72726e-02,3.91240e-02,-8.56120e-02,-8.54537e-04,9.36439e-02,-1.00128e-01,-6.48046e-02,8.47137e-03,9.93882e-02,-4.92104e-03,6.27335e-02,-5.89425e-02,6.33241e-02,-7.50754e-02,8.95596e-02,-7.31187e-02,6.40830e-02,2.47846e-02,5.98385e-02,5.02538e-02,-1.48935e-01,-1.44201e-02,-8.28508e-02,-1.65080e-02,-5.36572e-02,3.69150e-02,5.72978e-03,-1.00490e-01,-8.01391e-02,
1.01600e-01,-8.44882e-02,-1.00429e-01,6.98109e-02,8.18288e-02,-1.02238e-01,1.10075e-02,-4.26475e-02,-6.03547e-02,7.18401e-02,-1.36224e-01,-2.06283e-02,-5.35134e-02,4.50987e-02,7.44191e-02,7.10872e-02,2.59777e-02,1.91149e-01,8.98873e-02,3.56434e-02,1.38308e-01,-7.39156e-02,1.12160e-01,6.78945e-02,6.24918e-02,2.22346e-02,-2.24657e-02,-5.33752e-02,-1.22507e-01,3.79822e-02,7.93527e-03,-7.61198e-02,8.31127e-02,-5.84012e-02,-1.22506e-02,1.56776e-01,1.04917e-01,2.31621e-02,8.33334e-02,-5.84371e-02,3.33060e-02,-3.74370e-02,9.46141e-02,-6.83560e-02,-8.77688e-05,2.99175e-02,4.35555e-02,1.62793e-01,-2.97914e-03,4.43040e-03,-3.17068e-02,-6.03192e-02,1.16103e-02,1.86606e-02,-2.92582e-02,1.00985e-01,4.95287e-02,-8.12837e-02,6.08379e-02,4.38918e-02,7.36188e-02,4.36952e-02,3.90129e-02,1.77019e-01,-6.37542e-02,3.71804e-02,3.93202e-02,1.32008e-01,-3.50726e-02,-5.59074e-02,-4.67838e-02,1.49344e-02,-1.11960e-01,-8.64830e-02,-5.40052e-04,8.02625e-02,7.63545e-02,-1.90596e-02,-2.49278e-02,3.54222e-02,9.36180e-02,-7.49375e-02,1.13950e-01,7.13327e-02,1.41473e-01,4.13854e-02,2.11172e-01,8.12023e-02,2.96438e-02,6.66854e-02,5.26881e-02,1.57729e-02,-6.85273e-02,1.20230e-01,-8.66256e-02,7.64442e-02,-7.58482e-02,3.93936e-02,-8.41679e-02,5.47902e-02,
-7.79173e-02,-1.39663e-02,3.28464e-02,-3.63122e-02,-4.95792e-02,1.02418e-01,3.15297e-02,4.54402e-02,-1.32777e-02,-1.24941e-02,7.94490e-02,-1.36946e-02,1.15329e-01,5.12070e-02,-1.65984e-02,5.69403e-02,-3.09048e-02,-3.65291e-02,3.50341e-02,-1.31466e-02,5.16527e-02,8.86032e-02,3.04595e-02,-1.05338e-01,7.40858e-02,-3.93712e-02,-6.60734e-02,7.91104e-03,2.84532e-02,-2.25260e-02,9.08399e-02,8.22041e-02,-2.83552e-02,-3.86629e-02,8.90782e-02,2.78585e-02,1.33684e-02,-4.78772e-02,-1.66448e-02,-2.59180e-02,6.73469e-03,6.43412e-03,3.28779e-02,-8.82477e-02,6.83949e-02,-7.69441e-03,-2.36134e-02,6.32006e-02,-4.00519e-02,-1.01871e-01,-2.34704e-02,-1.12094e-01,2.43885e-03,8.04887e-02,2.79593e-03,-8.43149e-02,-9.46583e-02,-7.01352e-03,1.61610e-01,-7.47529e-03,-2.21354e-04,3.13965e-03,-1.16624e-02,-1.28271e-01,-4.21317e-02,-4.69587e-02,7.48984e-02,-5.90410e-02,-2.64021e-02,1.07780e-01,1.01022e-01,-1.34581e-02,3.90558e-02,8.21813e-02,-4.89749e-02,4.50461e-02,-1.39495e-02,-3.76129e-03,1.75671e-04,-8.40998e-04,3.86958e-02,-3.80440e-02,-7.40875e-02,1.24183e-01,7.07878e-03,4.31109e-02,-3.13050e-02,1.43936e-01,-2.20015e-02,-1.04474e-02,-3.56543e-02,9.70401e-03,-6.63708e-03,-9.60636e-02,1.77399e-02,9.09628e-02,5.20190e-02,-4.11247e-02,-1.21531e-01,1.20136e-01,
-4.58392e-02,3.55991e-02,4.40228e-02,-4.92622e-02,4.51826e-02,6.99787e-02,5.00934e-02,-1.33705e-02,2.38634e-02,2.06021e-02,1.33659e-01,-2.21370e-02,9.18271e-02,9.60580e-02,1.29929e-02,-4.01835e-03,2.73120e-02,-5.15200e-02,6.52870e-02,4.27852e-02,-3.44938e-02,4.72102e-02,-3.45525e-03,-6.90471e-02,-1.22372e-02,-7.03268e-02,1.88354e-02,-1.36096e-01,7.72801e-02,9.69244e-02,5.18502e-02,-5.73331e-02,2.88471e-02,1.74349e-02,-7.06246e-02,1.06028e-01,1.71087e-02,-1.18960e-02,5.69300e-03,-3.62695e-02,-9.39014e-02,1.80081e-02,6.13478e-02,-4.97094e-02,-3.08393e-02,6.66944e-02,8.73574e-02,-1.37071e-02,-1.34929e-01,7.44348e-02,5.03160e-03,8.31099e-02,-7.36331e-03,3.29881e-02,6.90386e-02,-5.53924e-02,-7.09106e-02,-6.51940e-03,-6.54325e-02,4.15050e-02,-3.04173e-02,6.85195e-02,-6.18453e-02,-6.73323e-02,-1.12040e-01,-7.84254e-03,-5.02383e-02,-2.12482e-02,-7.72867e-02,1.41339e-02,4.65757e-02,-1.29416e-02,-3.86837e-02,-8.08086e-02,6.17069e-02,-2.63305e-02,-5.52513e-02,4.85835e-02,1.23556e-02,2.25012e-02,4.20243e-03,1.27013e-02,1.86459e-02,3.29105e-02,-4.81493e-02,-1.11372e-01,-8.47687e-02,1.49156e-01,3.99827e-02,1.22613e-02,4.35678e-02,-3.10687e-02,5.07666e-03,-6.78916e-03,-2.84064e-02,-4.62097e-02,1.09108e-01,1.66592e-02,-7.08632e-02,6.32931e-03,
-4.79998e-02,8.27883e-03,-1.57402e-02,-4.67612e-02,-1.76457e-02,1.03947e-01,-5.71192e-02,5.41360e-04,-6.67842e-02,1.06651e-01,5.91145e-02,-3.98109e-02,8.46385e-02,4.83620e-02,8.89373e-02,-2.39242e-02,-1.30084e-02,7.06506e-02,9.43367e-03,1.10281e-01,-3.32926e-02,-3.16282e-02,2.66923e-02,1.99865e-02,1.05007e-01,3.63751e-02,-1.04173e-01,6.41300e-02,8.61279e-02,-2.65714e-02,4.87108e-02,3.09194e-02,8.91613e-02,1.39713e-01,-5.69959e-02,-8.48419e-03,9.68825e-02,6.03125e-02,-2.69833e-02,3.62645e-02,-1.97904e-02,-3.81759e-02,4.12396e-02,-1.63334e-02,4.49037e-02,-2.95033e-02,1.29260e-01,8.36559e-02,2.04262e-01,2.55144e-02,-4.88170e-02,-1.07016e-01,2.57421e-02,1.44477e-01,7.42546e-02,-1.97778e-02,1.26974e-01,8.49526e-02,-9.76389e-03,-6.85950e-02,-5.45204e-02,-6.15799e-02,4.05897e-02,1.16567e-01,-6.90128e-02,-6.57166e-02,8.81320e-02,8.40864e-02,4.06616e-02,6.65656e-02,8.63966e-03,-5.39292e-02,1.93766e-02,9.32381e-02,4.25590e-02,-7.03940e-03,4.40393e-02,-7.66677e-02,-7.46350e-03,-7.23573e-02,8.13213e-02,3.26663e-02,-3.78116e-02,9.72816e-03,9.19742e-02,-9.43092e-02,6.91353e-02,-4.44091e-02,1.09569e-01,-8.85109e-02,1.63062e-01,-5.16193e-02,-1.11789e-02,8.00681e-02,-7.60400e-02,8.27198e-02,-6.85652e-02,9.92423e-02,5.82526e-02,1.15378e-01,
-5.37398e-02,7.47368e-02,4.72632e-02,9.76348e-02,-6.33323e-02,1.12267e-01,3.79800e-02,3.92746e-02,-6.54161e-02,-2.24529e-02,6.67175e-03,-9.12577e-02,8.56447e-02,6.41244e-02,4.82287e-02,-8.14752e-02,-6.83246e-02,-1.26820e-01,3.86957e-02,2.67900e-02,-1.35340e-03,-3.48529e-02,9.60791e-02,-9.20366e-02,1.58245e-01,7.20045e-02,-7.35941e-02,-3.87410e-02,9.21952e-03,8.62979e-02,1.02581e-02,9.53421e-02,-1.87288e-02,-7.79173e-03,1.97514e-03,-3.03529e-02,-9.87674e-02,4.21244e-02,-5.45408e-02,-8.53174e-02,-1.32384e-02,-5.49930e-02,-9.69030e-02,7.50177e-02,-8.43225e-02,8.23654e-02,2.05000e-02,-2.01618e-02,-5.91768e-02,8.10250e-02,1.41897e-01,-1.99772e-02,-4.95371e-02,3.05366e-02,6.25898e-02,-4.70204e-02,3.89142e-02,2.38979e-02,-3.58184e-02,8.74318e-02,5.56221e-02,5.64314e-02,7.22024e-02,1.02110e-02,-2.07835e-02,9.53896e-02,5.25537e-02,-2.53419e-02,1.49687e-01,-2.88049e-02,9.18991e-02,3.10311e-02,1.51631e-01,9.78739e-02,-1.07274e-02,5.41033e-02,9.63469e-02,1.83009e-02,4.63871e-03,3.66800e-02,-2.32216e-02,3.21622e-02,-3.04989e-02,-5.78808e-02,-1.63190e-02,-7.14555e-02,7.12023e-02,7.45904e-02,1.58647e-02,6.72586e-02,8.85186e-02,-8.86875e-02,-5.92779e-02,-6.39071e-03,5.76983e-02,2.69192e-02,8.70142e-03,2.22399e-02,-1.27406e-02,6.59803e-02,
-1.81726e-01,-9.63691e-03,5.71378e-02,-7.23660e-02,-1.06219e-01,1.42321e-01,-6.78310e-02,-3.96692e-02,1.15407e-01,5.81373e-02,-2.92161e-03,-9.94609e-03,-9.51336e-02,-8.67614e-02,-2.84138e-02,-1.06854e-02,1.12055e-01,-2.62495e-01,-5.45797e-03,2.93546e-02,-9.89813e-02,-9.78438e-02,1.06517e-01,-1.35325e-01,1.49624e-01,2.84106e-02,9.11608e-02,6.41349e-02,1.07430e-02,3.09624e-02,1.62655e-01,2.53221e-01,-7.74422e-04,1.47531e-01,1.29218e-01,-1.90012e-01,-2.13526e-01,-1.14074e-01,-3.08223e-01,5.51449e-03,6.67876e-03,1.35660e-01,-5.20714e-02,1.44795e-01,-4.35315e-02,-1.63816e-01,1.35951e-01,4.15483e-02,-3.68084e-01,-6.17242e-02,-3.27827e-02,7.35766e-02,2.43098e-02,1.12782e-01,5.84557e-02,4.97249e-02,-6.76386e-02,1.33593e-02,-9.74091e-02,1.59264e-01,1.01892e-01,1.15878e-01,-5.43412e-02,-2.27135e-01,4.54268e-02,-2.54388e-02,1.26243e-02,1.12821e-01,1.61937e-01,6.16285e-02,-6.91803e-02,-1.33930e-02,3.04771e-02,6.78493e-02,9.84111e-02,-5.73503e-02,-8.58824e-02,2.41040e-02,-1.55338e-02,-1.22331e-01,-4.72160e-02,-1.30229e-01,-8.02948e-02,6.75466e-02,1.13646e-01,-2.58652e-02,-5.31874e-02,-3.92698e-02,1.36080e-01,-1.25434e-01,-9.08489e-02,2.17621e-02,-5.76953e-02,-5.37491e-02,-3.87033e-02,5.77489e-02,6.63319e-02,1.91810e-01,2.01498e-01,-1.06381e-01,
-4.52936e-02,1.46837e-02,-4.24512e-02,6.86973e-02,8.13695e-02,-2.65057e-02,1.24146e-02,6.71123e-02,-3.45176e-03,1.00427e-02,1.42488e-02,-2.18115e-02,7.56704e-02,-7.23994e-03,-8.05596e-02,3.80295e-02,-9.54325e-02,7.85901e-02,7.43459e-02,5.91849e-02,8.70612e-02,1.07389e-01,5.07659e-02,-6.65899e-02,1.58358e-01,-5.09555e-02,-7.80756e-02,1.01896e-02,4.61351e-02,3.22838e-02,-8.53119e-02,9.34116e-03,5.74326e-02,-1.26210e-02,-1.87043e-02,-4.57767e-02,5.14586e-02,3.17541e-02,-9.27857e-02,3.23479e-02,8.56592e-02,-5.48355e-02,-4.73754e-02,6.71733e-02,-2.31288e-02,7.13647e-02,1.64105e-02,-2.34917e-02,-4.92943e-02,5.21490e-02,3.95828e-02,2.34538e-02,8.84436e-02,1.14130e-02,8.50190e-02,3.80396e-02,-2.44159e-02,5.11529e-02,-7.02930e-02,4.76085e-02,5.26462e-03,-4.22299e-03,-1.40255e-02,6.70625e-02,-2.47432e-02,-4.37729e-02,-1.92706e-02,1.71910e-01,8.81563e-02,-1.07344e-01,-5.56353e-02,-6.32555e-02,1.33506e-01,3.34767e-02,1.33709e-01,2.67672e-02,-4.49545e-02,6.91626e-02,-5.28387e-03,-3.81830e-02,9.78529e-02,-4.41824e-02,-2.95934e-02,-8.74136e-02,-6.61511e-02,-5.89417e-02,-6.10467e-03,4.37703e-02,1.66342e-02,-3.82086e-02,-2.30761e-03,2.44049e-02,7.24765e-02,-7.68883e-02,6.89937e-02,6.86507e-02,-2.11558e-02,8.24618e-02,6.09840e-02,-4.63698e-02,
-2.24422e-02,-9.07782e-03,-8.67348e-02,-1.16860e-01,6.68540e-03,-6.78139e-02,-8.05874e-02,-3.03361e-02,-2.45268e-02,1.29299e-01,3.10485e-02,8.61217e-02,1.08120e-01,2.00262e-02,-2.29587e-02,1.37127e-01,-2.64283e-02,1.09243e-01,6.88209e-02,-3.31353e-02,1.82879e-02,9.09170e-02,-9.26053e-02,-5.94851e-02,8.08404e-02,-3.71113e-02,8.90956e-02,-1.29608e-02,-2.47817e-02,-1.96372e-02,-1.44715e-01,1.00361e-01,8.23737e-02,-1.15650e-03,-1.13928e-01,4.27754e-02,-7.28469e-02,-4.99130e-02,-1.21549e-01,-2.06751e-02,-5.03208e-02,5.06408e-02,-8.01692e-02,-1.06341e-01,-2.18636e-02,-3.94721e-02,-5.50381e-02,1.30831e-01,1.97763e-01,3.89241e-02,2.36305e-02,-4.24856e-02,-2.56649e-03,6.44295e-02,-5.40081e-02,-3.85211e-02,-9.16589e-02,-1.89891e-02,1.31701e-01,1.35302e-01,-2.11566e-02,-8.15497e-02,8.46599e-02,7.09463e-02,-1.51859e-02,6.90392e-02,1.45020e-01,9.24409e-02,1.36765e-01,-9.22907e-03,6.88476e-02,8.49804e-02,1.42064e-01,-3.34136e-02,2.72635e-02,-2.33256e-02,-9.10656e-02,-3.81755e-02,1.07361e-01,2.56495e-02,-7.67027e-03,-1.08103e-01,-2.16275e-02,1.06024e-01,5.19060e-02,-8.61635e-02,1.71346e-01,3.46132e-02,-2.80425e-02,7.35688e-02,-5.69641e-02,5.20719e-02,-1.10053e-02,9.31152e-02,-5.80537e-02,2.34602e-02,-1.39019e-01,1.01536e-02,5.33850e-02,-6.91986e-02,
1.75370e-02,-3.55122e-02,-7.10940e-02,6.55929e-03,-3.83632e-02,3.61443e-02,5.81214e-03,-1.30702e-02,4.82874e-02,1.54661e-02,-5.33726e-02,-1.36613e-02,-1.50547e-02,2.05699e-04,-7.45559e-02,-9.54477e-02,3.54984e-02,4.63922e-02,3.28636e-02,-1.07178e-02,-5.72063e-03,-6.31238e-02,2.37255e-02,-2.80562e-02,-1.70541e-02,-4.87739e-02,5.97996e-02,-3.81734e-02,1.03716e-01,-1.05650e-01,6.61745e-02,-2.74135e-02,-3.58658e-02,-4.20495e-02,-1.10671e-02,4.17574e-02,-9.30564e-02,2.91178e-02,-1.25693e-02,6.45411e-03,2.94543e-02,-1.03381e-01,-3.93546e-02,-3.76076e-02,1.87182e-02,-6.69620e-02,-6.13631e-02,4.60274e-03,-2.19109e-02,-1.56489e-02,-6.78604e-02,-3.14910e-02,5.50334e-03,-4.69309e-03,4.64141e-02,-1.56325e-03,9.38879e-02,1.57525e-02,1.41304e-01,1.22376e-01,-4.10695e-03,-1.97522e-02,1.97609e-02,1.19592e-01,-3.74738e-02,8.32664e-02,1.05682e-02,7.57959e-02,1.01460e-01,-7.30266e-02,-1.99663e-02,-2.39898e-02,-5.54954e-02,-5.78165e-02,1.02879e-01,6.85984e-02,1.16872e-02,-5.93788e-02,1.36914e-02,-1.95532e-02,-6.08177e-02,-9.02340e-03,9.10916e-02,-8.70645e-02,1.10412e-01,9.13106e-02,4.58339e-02,-1.58015e-02,2.14983e-02,6.95745e-02,4.08568e-02,1.02031e-01,-4.69089e-03,1.41359e-02,-3.97236e-02,1.00696e-01,-6.89858e-02,1.10182e-01,1.03867e-01,8.29257e-02,
-2.24149e-02,6.74635e-02,-1.36054e-02,-1.45443e-02,5.68478e-02,3.36577e-02,7.22370e-02,-5.96930e-02,-2.14508e-02,1.31217e-02,5.47074e-02,3.70039e-02,3.42633e-02,3.62869e-02,-2.37454e-02,8.59401e-02,-2.65978e-02,-1.60760e-02,-8.88566e-02,2.50266e-02,6.51268e-02,1.00770e-01,9.89408e-02,3.88638e-02,1.03368e-01,-2.36952e-02,8.74669e-02,1.32349e-01,-6.02564e-02,2.20372e-02,6.07563e-02,-2.92621e-02,1.00863e-01,-7.41602e-02,-3.93401e-02,3.22706e-02,-1.21319e-02,2.66462e-02,-9.62058e-02,2.76927e-02,-1.04345e-01,1.27340e-02,-6.11741e-02,-4.07681e-02,-2.69796e-02,6.23744e-02,8.19869e-02,8.20947e-02,7.66965e-02,1.04106e-01,1.73098e-01,9.80617e-02,-3.03135e-02,5.16682e-02,-9.57823e-02,4.25898e-02,-2.92891e-03,-6.75686e-02,5.18428e-02,-1.63081e-02,1.72767e-01,-4.91440e-03,1.32240e-02,-2.38328e-02,-7.34953e-02,2.45060e-02,6.80395e-02,2.12200e-02,-5.87385e-02,5.43469e-02,-2.06396e-02,-4.97782e-03,-1.45874e-02,1.24954e-01,-4.38856e-02,-6.75591e-02,-4.92587e-03,3.90156e-02,3.70586e-02,1.01245e-01,-9.53467e-02,-5.22326e-02,1.58049e-02,3.62243e-02,1.43475e-01,1.23471e-01,8.97523e-02,-7.71665e-02,-4.67793e-02,-4.02986e-02,-3.46130e-02,-5.57467e-02,-1.05020e-01,4.08440e-02,2.31692e-02,-6.25044e-02,-4.84101e-02,-3.94095e-02,-4.48693e-02,-4.69433e-03,
-5.67112e-02,-4.32774e-02,1.22571e-02,3.34018e-02,3.71722e-02,1.27329e-01,-4.93021e-02,1.58570e-02,1.14994e-02,-8.75569e-02,3.74974e-02,-3.76807e-02,-2.42902e-02,1.08337e-02,5.82508e-02,-5.99096e-02,-3.38320e-02,-9.32483e-02,4.95659e-02,3.53643e-02,8.70456e-02,1.24724e-01,-1.38893e-02,3.92785e-02,6.87802e-02,4.99498e-03,5.59314e-03,-2.20988e-02,-7.72029e-03,9.19440e-02,-5.16760e-02,-4.84206e-02,5.04525e-02,4.27968e-02,1.72404e-02,3.73003e-02,3.00228e-02,-7.65017e-02,-5.80142e-02,1.21373e-03,2.11506e-02,-9.57173e-02,7.49730e-03,-3.07499e-02,-2.93705e-02,-4.43566e-02,5.83044e-03,9.91232e-03,7.57820e-02,-1.70967e-02,9.37229e-02,7.81909e-03,-2.28277e-02,1.34827e-01,-3.13141e-02,3.22225e-02,5.57224e-02,3.64358e-02,5.12151e-02,6.44756e-02,-8.58496e-02,6.24934e-02,-5.39984e-02,5.06959e-02,1.08233e-01,-4.84260e-02,7.11904e-02,8.00252e-02,1.12133e-01,-8.79901e-03,-4.18497e-02,-2.69747e-02,5.80583e-02,5.44763e-02,-2.35379e-03,1.05573e-01,-6.36019e-02,7.91384e-02,5.27827e-02,-5.09717e-02,1.20838e-01,-8.20432e-02,1.19358e-02,-1.04558e-01,3.04912e-02,-7.62204e-02,2.12516e-02,3.71434e-02,1.06658e-01,3.61094e-02,-8.79138e-03,7.83488e-02,1.03727e-01,-3.98680e-02,-7.05032e-02,1.15086e-02,1.47540e-02,1.19598e-01,-4.60837e-03,1.30922e-02,
5.85035e-02,2.23459e-02,5.99881e-02,9.31932e-02,-7.99493e-02,-2.93348e-02,-3.88120e-02,1.03853e-01,-2.08310e-02,-1.36680e-01,7.33295e-03,5.45379e-02,-4.83492e-02,2.12333e-01,-2.57364e-02,-6.36526e-02,6.28508e-02,2.01512e-02,-5.18872e-02,-1.25899e-02,-7.83073e-02,-3.03963e-02,9.15245e-02,-5.65124e-02,1.78072e-01,-1.44538e-02,-4.34598e-02,5.25232e-02,4.43417e-02,6.32585e-02,1.90828e-02,9.31366e-02,1.82742e-02,-3.71789e-02,-1.05673e-01,9.71410e-02,8.09502e-02,-2.29638e-02,7.06211e-02,2.65863e-02,-6.29336e-03,7.67443e-02,-3.20491e-02,-5.55159e-02,8.23855e-02,-2.39224e-02,-7.76721e-02,4.32085e-02,1.58218e-02,7.96059e-02,-3.15280e-03,4.05185e-02,-5.35292e-03,3.19281e-02,-5.52315e-02,-8.99821e-02,5.25127e-02,5.06392e-02,-1.55170e-02,6.74588e-02,1.17880e-01,2.93023e-02,2.59417e-02,1.30753e-02,-1.36532e-02,6.88297e-02,6.71455e-02,4.73967e-02,-1.40924e-02,1.29816e-02,5.97078e-02,-2.77829e-02,3.02293e-02,4.04595e-02,-4.98236e-02,-4.59675e-02,6.02934e-02,-1.06459e-01,1.02580e-01,1.43401e-01,2.78715e-02,6.29283e-02,3.28704e-03,7.72950e-02,7.46806e-02,-2.49359e-02,6.18013e-03,1.71641e-01,-9.43548e-02,-1.31824e-02,8.45723e-02,3.37831e-02,5.33754e-02,3.24124e-02,-9.60946e-03,2.95106e-02,-3.05933e-02,-7.10153e-02,-1.32687e-01,-8.23285e-02,
4.33317e-02,-1.70545e-02,9.10176e-02,-1.20960e-01,2.32985e-02,5.94825e-02,1.98949e-02,8.86676e-02,7.89773e-03,-2.14713e-02,3.42477e-02,7.06553e-02,-2.86428e-02,-9.42915e-02,1.33316e-02,3.20149e-02,6.14619e-02,3.09585e-02,-7.06983e-02,1.09727e-01,-5.85992e-02,1.24492e-02,-2.31402e-02,-1.11341e-04,-3.66863e-02,2.01328e-02,2.01238e-01,-6.42264e-02,6.73774e-02,-7.49144e-02,-1.09232e-01,1.51343e-01,6.31805e-02,6.40863e-02,-5.33536e-02,9.90230e-03,-1.73510e-02,1.93976e-02,-8.93207e-02,1.05523e-02,-8.54702e-02,8.03028e-02,6.22838e-03,1.52600e-01,-9.26736e-03,6.06300e-02,5.38568e-02,7.39237e-02,1.43786e-01,1.46574e-01,2.13424e-02,-1.03142e-02,8.79494e-03,-5.53229e-02,3.33765e-02,1.73710e-02,-2.55821e-02,-1.10768e-02,2.58240e-02,1.43261e-02,3.57364e-02,-2.39060e-02,-5.09546e-02,-9.52709e-02,-1.10730e-02,7.19062e-02,-1.00749e-02,-6.63070e-02,8.94100e-02,1.21467e-01,-1.30701e-02,7.65453e-02,8.19145e-02,7.09973e-02,2.51119e-03,3.11418e-02,5.06673e-02,7.94329e-02,-9.44465e-03,7.91727e-02,2.09260e-02,7.32944e-02,3.69551e-02,-3.32484e-02,8.84121e-02,-4.78190e-02,5.58666e-02,-3.89864e-02,-9.55791e-02,4.91077e-02,-8.75293e-03,7.55422e-02,1.51552e-02,-6.96224e-02,-3.81847e-02,8.71928e-02,-3.76098e-02,-5.79673e-02,7.82255e-02,3.30991e-02,
-1.12555e-01,-7.65552e-03,7.67377e-02,-9.24838e-02,-4.45987e-02,6.52395e-02,6.25909e-03,-7.63407e-03,-3.30157e-02,2.10620e-02,1.29895e-03,-4.09167e-02,4.79069e-02,1.32664e-02,4.24289e-02,-3.97529e-02,4.17049e-02,5.73702e-02,-7.15824e-03,4.21880e-02,9.82150e-02,-9.57049e-02,1.65574e-03,6.55795e-03,1.42549e-02,1.09288e-01,-5.79145e-02,-4.75309e-02,-1.64732e-02,8.57856e-02,9.92096e-04,9.37121e-02,1.00380e-01,-1.55111e-01,2.92620e-02,-2.00705e-01,-7.94133e-02,-7.77074e-02,-5.17669e-03,-6.50896e-02,-7.58307e-03,6.91491e-02,-1.74501e-01,1.02241e-01,-1.94016e-02,5.85329e-02,-6.55765e-02,9.06833e-04,2.74259e-02,5.95236e-02,5.82915e-02,-8.12677e-02,-1.81288e-02,2.63670e-02,-1.53900e-02,-5.15002e-02,-6.45405e-03,7.07801e-02,-1.01449e-01,-3.03383e-02,-6.30720e-02,-1.40500e-02,-7.27424e-02,2.58478e-02,-4.61094e-03,-1.42826e-02,9.64251e-02,-6.76925e-03,-5.72768e-03,1.13171e-01,9.83123e-02,-9.13844e-02,3.16418e-02,7.72434e-02,-8.73500e-02,9.07750e-02,6.58479e-02,-1.02941e-02,-1.21445e-01,4.68080e-02,2.44538e-03,-9.83959e-02,4.37243e-02,-5.56499e-02,7.83847e-02,-7.38222e-02,8.29208e-02,3.78889e-02,-6.05906e-02,1.21586e-02,-4.42533e-02,-6.41897e-02,-8.36458e-02,1.47511e-02,-7.85272e-03,5.57600e-02,-9.00036e-02,-7.06457e-03,6.79103e-02,3.68541e-02,
-3.83990e-02,1.00789e-01,-6.62900e-02,-1.87280e-02,-2.98966e-02,4.31929e-02,1.17087e-01,-8.11627e-02,-3.58809e-02,-2.50972e-02,1.22731e-02,4.39547e-02,4.52185e-02,-9.75600e-02,1.77829e-02,5.92962e-02,6.97016e-02,1.10722e-01,1.49748e-02,5.00807e-02,1.43619e-01,-6.08287e-02,6.48521e-02,-2.19136e-02,5.96378e-02,8.06775e-02,1.84071e-02,-1.78414e-04,-3.61673e-02,-8.15554e-02,-9.33631e-02,3.74539e-02,5.42611e-02,9.60051e-02,2.36297e-02,-5.41325e-02,-2.64729e-02,-1.04009e-02,7.18412e-02,6.83524e-02,-2.47382e-02,-7.45775e-02,-8.29454e-02,-9.13971e-02,-8.73179e-02,-6.46744e-02,7.25742e-02,8.43379e-02,1.61936e-01,-1.73997e-01,-6.73874e-02,5.03543e-02,8.93539e-02,8.21332e-02,-1.15497e-01,1.20120e-01,1.95405e-02,-4.57155e-02,-1.24145e-01,-3.20074e-02,-2.46674e-03,4.09714e-02,-3.22234e-02,-7.45187e-02,-7.22708e-02,-7.43505e-02,-5.53694e-02,8.87073e-03,-5.42742e-02,4.48512e-02,3.68069e-02,4.54729e-02,-6.87771e-02,-7.05425e-02,-7.52641e-02,1.00658e-01,4.12823e-02,-4.01479e-02,-7.54256e-02,5.05285e-02,1.36042e-02,-5.96857e-02,-4.75378e-02,6.78029e-02,1.03574e-01,-2.13209e-02,8.68527e-02,-8.65662e-03,-8.38835e-02,7.98378e-02,3.91470e-02,3.16314e-02,9.95249e-02,8.32067e-02,-1.01755e-01,6.66962e-02,1.20314e-01,1.02037e-02,5.34926e-04,9.62014e-02,
2.00561e-02,8.26098e-02,-1.28503e-02,1.92590e-02,9.37013e-02,-9.46248e-02,-7.55805e-02,7.21935e-02,-6.32319e-02,-5.83586e-02,4.92460e-02,4.17416e-02,-8.66554e-03,-2.64233e-01,-1.27344e-02,-8.58902e-02,-2.16316e-02,1.44725e-01,-8.12233e-02,9.94110e-03,8.02906e-03,-9.16325e-02,7.60007e-03,-3.85621e-02,-2.02589e-01,3.58863e-02,-3.54048e-02,-1.12455e-01,7.08614e-02,5.37145e-02,1.98162e-01,-1.04213e-02,-3.61349e-02,8.93331e-02,8.80843e-02,-3.31309e-01,-9.34705e-02,-7.88972e-02,2.35036e-01,-7.67992e-02,4.10407e-02,9.50052e-02,-2.56347e-03,1.46676e-01,-4.38977e-02,-1.75791e-01,-7.34054e-02,4.74641e-02,-1.47128e-01,3.66005e-02,-5.25587e-02,-7.38155e-02,-2.47650e-02,-6.05272e-02,-7.52280e-03,1.90273e-02,3.05817e-02,-7.76885e-02,-8.56802e-02,5.09444e-02,-8.97414e-02,-4.45857e-02,-1.73938e-02,-2.61838e-02,1.12608e-01,-1.84937e-02,7.09922e-02,-2.87512e-02,8.56245e-02,-7.52416e-04,2.80900e-02,-4.71096e-02,-3.42115e-01,-1.71045e-02,3.35872e-02,-1.35859e-01,2.24131e-02,1.87044e-03,-2.07325e-01,-1.01330e-01,7.20919e-02,-5.67544e-02,1.69481e-02,2.47146e-02,-7.85820e-03,6.81987e-02,4.88108e-02,1.14653e-01,3.02697e-02,-9.45174e-02,2.40716e-02,-1.53136e-02,7.11827e-02,-1.24563e-02,-4.84167e-02,8.11132e-02,8.81733e-02,5.69753e-02,4.45069e-01,-7.37640e-02,
7.42533e-02,1.00422e-02,-1.78080e-02,8.54670e-02,4.37920e-02,2.50331e-02,-5.49986e-02,-8.66417e-03,-1.74846e-02,-1.19700e-01,8.00669e-02,-7.77309e-02,-9.65174e-02,1.34144e-01,5.14024e-02,8.97540e-02,6.73441e-02,2.80564e-01,2.85475e-02,1.02830e-01,6.96339e-02,-1.20513e-01,-8.85229e-02,9.30593e-02,4.32107e-02,-9.51234e-02,-1.39144e-02,-2.92352e-01,-8.36730e-02,6.38129e-02,-8.44249e-02,-2.68563e-01,-1.65579e-02,-3.21644e-01,2.90193e-02,2.67731e-01,-4.34593e-03,-3.90342e-02,3.96457e-01,-5.21084e-02,7.62976e-03,-4.52526e-02,3.06597e-01,-1.97336e-01,-9.21987e-02,3.24512e-03,-2.96819e-02,4.20150e-02,-2.31259e-01,4.11511e-02,-4.98479e-01,-4.47668e-02,-1.69334e-01,-1.04913e-01,1.20303e-01,-8.36160e-02,-7.74763e-02,-9.33367e-02,4.06780e-02,-1.84827e-02,-1.45678e-01,-6.92542e-02,5.60060e-02,2.11332e-01,-4.83388e-02,-1.09815e-03,-3.85124e-02,-6.19224e-02,-3.75630e-01,2.29045e-02,8.20763e-02,3.64747e-03,-3.98551e-01,-1.76729e-02,-3.57613e-02,3.27318e-02,4.18182e-03,2.09626e-02,1.75909e-01,9.79217e-02,6.08089e-02,9.19994e-02,1.19063e-01,5.78628e-02,-1.23545e-01,-2.15515e-02,-8.77051e-02,1.48774e-01,-1.09111e-01,1.26001e-01,3.15006e-02,1.15951e-01,-4.54682e-02,-2.40815e-02,-1.64454e-02,-6.84171e-02,2.88456e-02,-1.89930e-02,-2.70286e-02,6.96598e-02,
6.83437e-02,2.96456e-02,5.79263e-02,7.69588e-02,-4.53061e-02,-5.01211e-02,6.99389e-02,3.92033e-02,5.33495e-02,6.79016e-02,8.78659e-03,5.31463e-02,6.50345e-02,-7.43017e-02,5.39242e-02,6.98400e-02,-5.33509e-02,-6.53308e-02,9.43729e-02,-5.55255e-02,5.39993e-02,1.04306e-01,-9.31533e-02,-6.68683e-02,-1.86778e-02,-2.96581e-02,1.06707e-01,-1.26938e-01,2.09164e-02,3.06329e-02,-1.71866e-02,7.92633e-02,2.67621e-03,-1.97552e-01,-4.96819e-03,-2.90639e-02,2.05074e-02,1.19655e-02,3.44849e-02,-3.74892e-02,-4.63692e-02,7.47703e-02,8.87506e-02,-4.47575e-02,-1.67962e-02,7.61787e-02,2.35133e-02,7.41418e-02,9.09160e-02,6.21413e-02,4.40578e-03,-1.17338e-03,-1.48052e-02,1.12853e-02,-1.34818e-01,5.17564e-02,5.99591e-02,4.52107e-03,5.27867e-02,-4.46741e-02,-5.32192e-02,3.61783e-02,-6.04211e-02,5.54859e-02,-3.25303e-02,-4.46534e-02,4.41552e-02,-1.81870e-02,9.47412e-02,-2.78228e-02,-7.04668e-02,1.28448e-02,-3.07716e-02,-8.96836e-02,-7.97966e-02,1.86405e-03,-9.45237e-03,7.77522e-02,-3.42617e-02,1.16312e-02,-2.70741e-02,-6.53420e-03,-6.38081e-02,7.67392e-02,6.92859e-02,-6.95578e-02,-1.44748e-02,-7.56594e-02,-9.78897e-02,7.29633e-02,1.12157e-01,3.62621e-02,-1.35654e-02,6.08812e-02,3.26436e-02,4.79573e-02,-9.37183e-02,-9.25046e-02,1.76680e-01,-6.72128e-02,
1.14941e-02,-1.20593e-02,7.55567e-02,-2.37288e-02,-5.90077e-02,1.26218e-01,3.48284e-02,-5.03715e-02,2.85186e-02,6.00245e-02,-1.27733e-02,-3.52607e-02,1.32853e-01,1.47762e-01,-1.07133e-01,4.10434e-02,6.53947e-02,-1.50451e-01,9.34542e-02,-5.46023e-02,6.75151e-02,1.27253e-01,-6.53817e-02,-2.90093e-02,1.48495e-01,-1.03449e-01,4.35876e-02,2.23244e-01,1.18907e-01,-3.05120e-03,-6.85418e-02,-3.04021e-02,1.06962e-01,7.76307e-02,2.10957e-02,1.38624e-01,4.51657e-02,-9.18027e-02,-1.89648e-01,-2.21222e-02,-9.00350e-03,8.74723e-02,-1.27773e-01,6.33901e-02,-1.94384e-02,-1.54143e-01,-1.78721e-02,1.32029e-01,2.68361e-01,6.10353e-02,1.56241e-01,-9.59543e-02,6.68632e-03,-2.70163e-02,-2.60101e-02,-5.93625e-02,2.36858e-02,-3.45226e-02,1.02365e-01,2.55592e-02,-6.16374e-02,7.51784e-02,-3.63704e-02,-1.36045e-02,-7.05660e-02,1.27142e-01,9.21026e-02,5.28444e-02,8.25784e-02,2.32707e-03,-3.90775e-02,5.33705e-03,1.67887e-01,8.22377e-02,8.93846e-02,8.93248e-03,-4.63899e-02,3.49619e-02,1.37622e-01,5.39072e-02,7.14147e-02,-8.98080e-02,-7.05102e-02,-5.33632e-02,8.66693e-02,-6.76091e-02,-3.08807e-02,-5.84152e-02,5.46392e-02,-3.52439e-02,-6.36129e-02,-3.99670e-02,-7.32021e-03,-1.68866e-03,5.50613e-02,-5.15151e-02,1.87906e-02,2.91759e-02,-1.62547e-01,-5.35862e-02,
-4.35007e-02,1.05709e-02,3.73818e-02,-9.60418e-02,-1.66789e-01,2.05000e-01,1.23912e-01,-7.95921e-02,1.47301e-01,9.51992e-02,-7.37163e-02,3.32832e-02,8.54261e-02,-1.35988e-01,5.65426e-03,-3.78162e-02,6.52718e-02,-2.11129e-01,8.25101e-02,-1.74354e-02,5.55852e-02,-3.90686e-02,5.64446e-02,-1.46580e-01,7.87515e-02,-7.40675e-02,7.58512e-02,3.00730e-01,-1.26208e-03,-6.64814e-02,-1.37595e-01,-7.62305e-02,1.23093e-01,9.07769e-03,9.64123e-02,3.18785e-02,-2.66166e-02,-3.94344e-02,-1.53758e-02,2.36039e-01,-7.52133e-04,-1.64136e-02,-1.28917e-01,1.81837e-01,5.22867e-02,-1.54583e-01,1.44111e-01,4.29172e-03,-2.35512e-01,-8.59204e-02,3.40493e-01,1.85393e-01,1.66697e-01,2.00173e-01,-1.42283e-01,-2.98450e-02,5.23400e-02,2.57248e-02,5.30127e-02,-1.61274e-02,1.19363e-01,1.46647e-01,-5.90534e-02,-8.98752e-02,-8.81114e-02,-1.18447e-01,1.14204e-01,-4.73648e-02,-1.19121e-01,-1.14977e-01,-1.48836e-01,3.57550e-02,-2.57456e-01,-2.28283e-02,-9.12725e-03,6.99619e-03,-1.81784e-01,-3.88943e-02,1.26393e-01,4.74231e-02,-1.28232e-01,-1.92455e-02,-6.26595e-02,-7.37341e-02,-1.69892e-02,1.22782e-01,1.99636e-01,-2.87401e-01,-2.79040e-03,-1.95571e-02,-5.22931e-02,-4.11782e-02,-7.42521e-03,5.43903e-02,-6.19813e-02,6.57177e-03,8.55559e-02,1.74478e-01,2.81502e-03,3.16111e-02,
-6.03491e-03,-4.73835e-02,8.24582e-02,4.88684e-02,2.31346e-02,-9.70456e-02,-7.60106e-02,6.38714e-02,7.97985e-02,8.85036e-02,8.16473e-02,-7.54315e-02,1.01584e-01,-4.76430e-02,-8.89825e-02,9.83689e-02,-6.65642e-02,1.82054e-05,-2.41331e-02,-8.68697e-02,-7.01201e-02,-6.37568e-02,-1.66560e-03,-6.06463e-02,9.96739e-02,-9.17670e-02,8.06594e-02,-1.71572e-02,5.07002e-02,4.64555e-02,-1.61998e-01,-3.44234e-02,3.67558e-03,-5.27517e-05,2.00244e-02,2.53500e-02,4.96159e-02,1.73804e-02,5.92729e-03,2.34164e-02,4.91095e-02,2.89545e-02,-1.04869e-03,1.74004e-01,-4.06660e-02,3.83078e-02,-6.74334e-02,-2.45474e-02,-6.45432e-02,1.61977e-01,-5.11043e-02,5.58668e-02,8.80267e-02,8.46916e-02,1.19432e-01,3.83112e-02,-6.82689e-03,9.89522e-02,6.66297e-02,2.22931e-03,-3.91009e-02,-7.54113e-02,3.63695e-03,1.61793e-01,-9.10675e-03,8.60353e-02,-5.08581e-02,1.15972e-01,6.22770e-03,-6.61780e-02,-3.90447e-02,1.03139e-01,8.37689e-02,7.94040e-02,3.99383e-02,2.17587e-02,3.54063e-02,-2.50958e-02,1.09400e-01,-2.28882e-02,4.15310e-02,-6.10264e-02,1.24676e-02,7.73927e-02,9.25111e-02,-6.09074e-02,8.11463e-02,5.46540e-02,8.69041e-02,5.51278e-02,7.78200e-02,1.00421e-01,-3.01732e-02,7.33089e-02,-1.80469e-02,-6.97703e-02,7.34248e-02,4.41039e-02,-7.15692e-02,-6.35634e-02,
7.89242e-02,-8.40738e-02,-2.38356e-02,7.45711e-02,-4.45489e-02,6.09593e-02,-2.13108e-02,-8.92476e-03,9.27049e-02,-9.89730e-02,3.07907e-02,-6.09266e-02,-2.99066e-02,1.81450e-01,2.54332e-02,7.10624e-02,5.37781e-02,-1.45954e-01,5.02764e-02,5.95374e-02,4.70896e-02,1.04662e-02,-7.24155e-02,-6.60784e-02,1.39257e-01,5.07459e-02,4.17139e-03,-3.57463e-02,5.38123e-02,-4.51101e-02,1.37826e-01,4.90571e-02,-1.62840e-02,2.53919e-02,2.09778e-02,-6.59951e-02,-5.94585e-02,4.90985e-02,5.85805e-03,5.05377e-02,9.52354e-03,-6.65334e-02,-1.00588e-01,-1.50409e-01,1.74350e-02,5.70104e-03,-7.93056e-02,1.25906e-01,1.72707e-01,5.47557e-02,-6.23455e-02,6.62506e-02,-5.77371e-02,1.13507e-01,-3.67392e-03,-1.98427e-02,-9.52869e-03,-1.95485e-02,-6.16494e-02,9.59769e-02,3.05318e-02,2.09800e-02,7.07065e-03,-4.95179e-02,-5.57956e-02,7.33471e-02,2.91020e-03,8.88942e-03,1.03300e-01,1.02334e-01,4.87937e-02,6.47093e-02,1.14384e-01,-7.36944e-02,-2.94275e-03,2.99285e-02,6.74078e-02,-4.48527e-02,-1.92591e-02,8.63152e-02,-9.64091e-02,-1.12412e-01,-3.58299e-02,1.79544e-02,-5.83245e-02,-4.30142e-02,4.62697e-02,9.62971e-03,-2.86956e-02,9.05395e-03,2.91436e-02,3.52447e-02,5.86761e-02,1.14168e-01,-2.58460e-02,-8.98869e-02,3.05800e-02,1.59655e-02,1.45615e-01,-2.61283e-02,
-2.54684e-02,1.05551e-01,-3.64016e-02,3.18169e-02,9.66326e-02,8.76637e-02,-1.15922e-01,-8.22075e-02,8.14030e-02,-1.67133e-02,-4.83904e-02,1.90963e-02,-8.07142e-03,2.25016e-02,2.01746e-02,2.10632e-03,-4.30208e-02,1.00553e-01,4.67162e-02,6.15994e-02,-9.27963e-02,7.85037e-03,-6.77177e-02,-9.38682e-02,5.89313e-02,-6.43430e-02,-3.36226e-02,1.05786e-01,-7.41301e-03,-2.62596e-02,8.60126e-02,1.58602e-03,1.09469e-02,-1.01294e-01,-5.89296e-02,8.10852e-02,-1.34509e-02,7.59738e-02,3.43045e-02,2.84105e-02,2.24252e-02,-6.05420e-02,7.03226e-03,5.55053e-02,1.28291e-02,7.85120e-02,2.40359e-02,-6.48592e-02,-1.25693e-01,-1.09717e-02,2.01897e-01,5.80737e-03,-3.44923e-02,-2.14075e-02,9.41344e-02,3.59572e-02,3.11206e-02,-4.56403e-02,1.38153e-01,7.74431e-02,-1.32062e-01,-4.12217e-02,-2.56717e-02,5.62373e-02,-2.76860e-02,7.78939e-02,3.10698e-02,6.33713e-02,-4.21123e-02,-5.93968e-02,5.17610e-02,5.12723e-02,4.92293e-02,1.76249e-03,-5.99564e-02,8.38724e-02,-1.42429e-03,-1.13127e-01,7.25137e-02,6.18633e-02,1.73073e-02,1.50009e-03,3.16907e-02,-3.10730e-02,1.67744e-01,-3.09135e-03,1.01344e-01,-5.18712e-02,2.21489e-02,-5.20793e-02,1.03037e-01,4.82319e-02,-8.03880e-02,7.10685e-02,6.33097e-02,2.28053e-03,4.81302e-02,-4.94174e-03,-2.37085e-02,1.00754e-02,
-1.05578e-01,-4.34152e-02,-8.05052e-02,3.36048e-02,-7.15980e-02,-6.53703e-02,7.66223e-02,7.61916e-02,1.08090e-01,-9.72818e-03,6.74305e-02,-5.77797e-02,-2.31139e-02,-8.56450e-02,-6.61124e-02,-1.18896e-02,6.75823e-02,6.02138e-02,3.81444e-02,1.81213e-02,7.54469e-02,1.10891e-01,1.97635e-03,-8.32822e-02,3.73240e-03,-9.39643e-02,4.46820e-02,-5.34756e-02,1.18505e-01,-6.20878e-02,5.69015e-02,1.65402e-01,-6.71593e-02,9.30659e-02,-9.06112e-02,-8.48237e-02,1.12379e-01,-3.46252e-02,-9.69981e-02,-1.94176e-02,-4.04806e-03,-2.53685e-02,-5.99583e-02,5.66058e-02,-4.76845e-02,1.24589e-02,5.99820e-02,-3.96922e-02,2.47153e-01,-6.47047e-02,2.22619e-02,-9.07363e-03,-5.33132e-02,6.25598e-02,-7.60390e-02,5.38539e-02,-9.51881e-02,-6.42891e-03,-5.87903e-02,1.19437e-01,1.52872e-01,4.34583e-02,-9.20556e-02,-1.40177e-01,8.45813e-03,5.18445e-02,-1.19145e-01,-7.09020e-03,3.26263e-02,1.01236e-01,3.76248e-02,7.28296e-02,1.87101e-01,6.91580e-02,2.17504e-02,1.24366e-02,1.16506e-02,-4.27053e-02,-9.86415e-02,9.81173e-02,1.47171e-02,1.73172e-02,-5.06815e-02,-4.78561e-02,1.53336e-01,7.50351e-02,1.14349e-01,9.78916e-02,3.99471e-02,8.83092e-02,3.24548e-02,1.04575e-01,-4.36624e-02,-3.22867e-02,3.18994e-02,3.21507e-02,6.71723e-02,8.73284e-02,3.08264e-02,1.60662e-02,
1.13873e-01,-1.68794e-02,-9.40387e-02,1.75044e-03,8.28241e-02,1.50327e-02,-1.34664e-01,-5.11993e-02,-9.12191e-02,-2.49152e-02,5.39665e-02,-6.20071e-02,4.67526e-02,3.37298e-02,-4.99030e-02,-2.79756e-02,-4.13383e-02,2.10892e-01,-5.52643e-02,1.78167e-02,1.07603e-01,5.93410e-02,-9.93617e-02,5.68573e-02,3.06451e-02,8.09572e-02,-3.24414e-04,-1.71190e-01,1.21387e-02,-5.83454e-03,-2.01723e-02,-2.57103e-01,-1.72395e-02,-4.69541e-01,-4.51764e-02,1.99731e-01,2.07581e-01,-3.81642e-02,6.76383e-02,-7.43872e-02,7.10220e-02,-1.19506e-01,1.59662e-01,-7.58190e-02,-4.77901e-02,1.13367e-01,-1.12158e-01,3.63139e-02,-4.44261e-02,-1.53847e-02,-1.00816e-01,-6.10497e-02,6.42506e-02,-6.46285e-02,1.62329e-02,7.34395e-02,-1.32450e-02,-9.92919e-02,1.28957e-01,-1.16770e-01,-1.45579e-01,-7.42208e-02,-5.25253e-02,1.38562e-01,7.82082e-02,6.60178e-03,-8.67845e-03,5.18936e-03,-4.35530e-01,4.50424e-02,8.47477e-02,-9.30951e-03,-2.24663e-01,-3.09692e-03,-1.14985e-01,4.04577e-02,4.84454e-02,-9.25674e-02,1.41185e-01,1.06934e-01,3.85353e-02,-4.72199e-02,1.40520e-01,3.97907e-02,-1.79127e-01,8.75314e-02,4.96073e-02,1.50430e-01,-1.25457e-02,5.54221e-02,5.13550e-03,-2.06635e-02,3.38286e-02,-2.76561e-02,-3.59139e-02,5.52432e-02,-1.05164e-02,-4.29689e-02,-4.06205e-02,7.77327e-02,
1.09007e-01,2.70256e-02,-7.17852e-02,1.04205e-01,-8.18914e-03,3.93429e-02,-1.05285e-01,-4.28597e-02,6.68740e-02,-1.70382e-02,9.35778e-02,-7.38015e-02,-1.08721e-01,2.00836e-01,-5.85019e-03,-1.30149e-02,-4.98910e-02,-1.47911e-02,-4.32532e-02,-1.16013e-02,-7.06968e-02,6.77964e-02,2.47128e-03,-8.01173e-02,1.70501e-01,9.05222e-03,-5.61810e-02,4.84495e-02,8.69564e-03,2.77647e-03,1.19252e-02,-1.46165e-01,-9.57163e-02,-1.32598e-01,2.15592e-02,1.03525e-01,-2.49444e-02,8.89625e-03,-1.77669e-01,-2.00172e-03,-1.75970e-02,-6.14697e-02,3.96304e-02,5.19190e-02,-5.26958e-02,-5.91795e-02,-7.52969e-02,5.02312e-02,2.55926e-02,-3.36909e-02,1.39709e-01,-1.07709e-01,2.85747e-02,2.25947e-02,1.45859e-02,1.00219e-01,1.16252e-01,1.45992e-03,9.68002e-02,4.42863e-02,-1.07581e-02,-9.38207e-02,3.00146e-03,9.72571e-02,8.80368e-02,1.25788e-01,6.17242e-02,6.38126e-02,-1.35307e-01,-1.02053e-01,-7.85453e-02,2.12950e-02,-2.77428e-02,-5.00865e-02,9.39567e-03,-8.07083e-02,-5.80495e-02,1.32936e-02,7.48707e-02,-8.27067e-02,2.98927e-03,-1.60404e-02,-3.03858e-02,3.99451e-02,3.44203e-01,-1.77426e-02,-1.00458e-01,-5.19172e-02,2.75724e-02,-1.18232e-02,9.63175e-02,6.13091e-02,1.28123e-01,1.21342e-01,-1.34212e-02,9.07635e-02,-6.08932e-03,-2.03532e-02,-9.18621e-02,1.16803e-01,
-4.35339e-02,-4.91828e-02,3.60147e-02,8.02346e-02,-8.06779e-02,-3.91398e-02,1.01864e-01,1.15276e-01,1.00293e-01,-7.67477e-02,3.51509e-02,2.08419e-02,-3.18560e-02,3.29934e-02,-4.56336e-02,1.19092e-01,-5.39978e-03,-1.22199e-01,2.04222e-02,-7.33889e-02,4.17495e-02,1.37761e-01,-9.25765e-03,-1.29703e-01,-2.92385e-02,-1.14020e-01,-1.01867e-01,-6.45979e-02,-5.39998e-02,-1.96935e-02,-5.73062e-02,9.52900e-02,6.16953e-02,-1.17704e-01,4.49157e-02,-2.51939e-02,1.82036e-01,-4.97951e-03,4.46835e-02,8.33755e-03,-3.99675e-02,-7.16501e-02,1.47326e-01,7.18343e-02,5.61216e-02,7.21560e-02,-6.22879e-02,-1.61076e-02,3.56369e-01,-4.73967e-03,-4.53252e-02,-5.10608e-02,5.57603e-02,-4.82898e-02,-1.21394e-02,-5.98330e-02,5.71272e-02,4.44737e-02,3.88994e-02,-1.87886e-02,-4.61313e-02,5.77584e-02,5.70737e-02,5.82711e-02,-8.20541e-02,5.87068e-02,2.26869e-02,1.66448e-03,1.07569e-01,-3.66229e-02,1.20463e-02,-2.46175e-02,-1.80801e-02,-4.81330e-02,-9.59084e-03,2.80639e-02,1.72560e-03,-6.84201e-02,7.54374e-02,-1.82224e-02,6.03663e-02,4.43490e-02,2.48954e-02,-4.46569e-03,-1.21938e-02,7.46509e-02,-5.64507e-04,8.56826e-02,6.31555e-02,5.55154e-02,5.74947e-03,8.50193e-03,3.52162e-02,-1.31632e-02,2.16114e-02,-8.54429e-03,-3.11600e-02,-1.86213e-02,-1.67989e-01,1.16623e-02,
6.44346e-02,-5.28206e-02,-2.00052e-02,1.02405e-01,1.71302e-02,6.20113e-02,9.88846e-02,-5.05920e-03,6.15773e-02,-1.07233e-01,8.16476e-02,-9.32408e-02,-5.75203e-02,3.07267e-02,8.16255e-02,-9.25745e-02,-5.47527e-02,9.09098e-02,-2.41604e-02,-1.17263e-02,-6.68849e-03,4.72743e-02,-2.70830e-02,-5.52500e-02,2.45719e-03,-1.22587e-01,6.49810e-02,-4.46064e-02,3.89759e-02,6.33971e-04,9.85009e-02,9.37963e-02,1.46164e-02,-5.79331e-02,-5.57968e-02,4.42507e-02,3.80622e-02,3.31256e-02,-1.26873e-02,-5.40363e-02,-6.85958e-02,1.20279e-01,3.08967e-02,-4.25970e-02,7.52978e-02,-3.47999e-02,8.85174e-02,7.53297e-02,8.27602e-02,6.86249e-02,-1.27810e-02,4.89764e-02,2.57970e-02,-8.79338e-03,1.52266e-02,-5.09532e-02,2.88533e-02,4.36654e-02,7.60809e-02,2.65326e-02,-1.17651e-02,-7.88149e-03,-3.55488e-02,4.48228e-02,3.02867e-02,8.49696e-02,-7.56381e-02,2.88216e-02,2.38481e-02,2.66836e-02,-5.19337e-02,-4.14650e-02,-3.09894e-02,-3.87694e-02,-7.41731e-02,8.19740e-02,9.89893e-04,7.20641e-02,-9.13620e-02,9.81175e-02,-1.06838e-01,3.39258e-02,-1.05595e-01,-5.72062e-02,2.32459e-02,9.02665e-02,6.36665e-03,-5.74858e-04,-6.00899e-02,4.58934e-02,1.21053e-01,3.80707e-02,-5.29804e-02,6.00895e-02,1.04286e-01,6.40402e-02,2.81278e-02,6.01678e-02,5.59294e-02,2.71256e-02,
6.84135e-02,5.64717e-03,7.44502e-02,2.00336e-02,4.10460e-02,-6.03140e-02,-7.52952e-03,-2.84831e-03,6.43397e-02,1.04144e-01,1.90077e-02,-3.29927e-02,1.19773e-01,-9.04985e-02,-1.87735e-02,7.23860e-02,-5.77579e-03,6.97425e-02,3.08400e-02,3.54397e-02,3.31220e-02,3.54856e-02,5.61051e-03,-4.25665e-02,-1.46648e-01,-6.07284e-02,-5.18554e-02,4.00570e-02,-4.01843e-02,8.42430e-02,-6.16643e-02,-2.28658e-03,-3.85301e-02,1.20559e-02,-3.44696e-05,1.24069e-01,8.08250e-02,2.84345e-02,9.17565e-02,-1.26184e-01,-3.36257e-02,-6.23427e-02,9.60586e-02,1.13112e-01,-2.25020e-02,-4.07231e-02,5.27035e-03,-2.95718e-03,1.47396e-01,4.90562e-02,-1.70823e-02,-6.28373e-02,-5.35017e-02,-1.28519e-02,7.72733e-03,2.18661e-02,4.81385e-02,5.59497e-02,-1.04553e-02,-3.62376e-02,2.17225e-02,1.78565e-02,-2.01461e-02,-1.13248e-02,9.63780e-02,9.91481e-02,-2.60357e-02,2.77709e-02,-9.14526e-03,-9.35082e-02,-6.20827e-02,1.04172e-01,-1.17673e-01,-4.59971e-02,-2.81145e-02,7.92051e-02,7.93810e-02,-1.68981e-02,5.16843e-02,-4.04721e-02,-1.72797e-03,-3.67453e-02,-7.97887e-02,-3.83765e-02,6.50720e-02,2.37326e-02,6.47331e-02,1.04965e-02,8.79997e-04,-3.14141e-02,3.52412e-02,9.62729e-02,2.82012e-02,-5.99973e-02,-1.07367e-02,2.92639e-02,-3.82761e-02,5.32445e-02,1.31388e-01,6.68531e-03,
-7.16006e-02,-8.02886e-02,-8.78294e-02,-6.13447e-02,-2.36257e-02,-1.29457e-02,-1.55110e-03,-7.79813e-02,4.75081e-02,6.87066e-02,-6.56391e-02,-4.43845e-02,8.08428e-02,-6.29635e-03,-4.51816e-02,4.19293e-02,8.42259e-02,1.15877e-02,8.96136e-02,-7.53039e-02,5.90966e-02,-5.17638e-03,-6.59971e-02,-1.24182e-01,1.12501e-01,-1.60864e-02,1.15297e-01,-6.92335e-03,3.34594e-02,-1.85239e-02,-3.49678e-02,1.72023e-01,2.02808e-02,7.54056e-04,-4.31317e-02,-1.01548e-01,-6.32134e-02,1.09277e-02,-2.33983e-02,-1.57701e-02,-6.90482e-02,2.66059e-03,-5.72025e-04,1.56760e-01,-9.32119e-02,-4.32474e-02,2.70954e-02,-4.30475e-02,1.14932e-01,5.18410e-02,1.50172e-01,3.70681e-02,-6.57071e-02,1.19776e-02,7.80886e-02,4.82787e-02,4.13938e-02,-5.73244e-02,6.20643e-02,-2.97074e-02,1.26557e-01,4.99149e-03,8.38048e-03,2.21036e-03,-3.44085e-03,8.48243e-02,7.09156e-02,2.14487e-02,6.20354e-02,9.39013e-02,-8.53041e-02,6.96312e-02,1.28263e-01,4.77484e-02,-9.07224e-02,3.22371e-02,2.78594e-02,8.52896e-03,5.34269e-02,6.30462e-02,-3.10026e-03,-1.57039e-02,-5.43323e-02,7.50900e-02,1.14552e-01,-3.29063e-03,5.63628e-02,9.31528e-02,4.78751e-02,3.49486e-02,-1.02503e-01,3.37067e-04,2.43137e-02,-3.69405e-02,5.03430e-02,1.42576e-02,-1.51667e-01,9.10334e-02,-1.08496e-02,2.78355e-03,
6.96447e-03,-7.20098e-02,-4.15494e-01,4.87505e-03,7.23966e-02,-5.19673e-02,-3.13992e-01,4.05908e-02,1.47604e-03,-5.52285e-02,-3.21680e-03,4.13892e-02,-1.93616e-02,1.55466e-02,6.82986e-02,-1.05356e-01,-9.65055e-02,5.91845e-02,-5.46845e-02,-1.71089e-01,-8.28039e-02,-2.63580e-03,4.09359e-02,2.51392e-02,-4.57681e-02,8.15116e-02,-5.62321e-02,-1.79544e-01,-2.81189e-02,-2.19319e-02,2.88838e-02,9.32078e-02,-2.97801e-02,-6.35318e-02,1.13266e-01,1.89091e-02,-5.14824e-03,-1.05059e-01,-9.13150e-02,-6.27401e-02,7.89138e-02,6.02965e-02,9.35182e-02,-1.37776e-01,1.09931e-02,-2.47769e-02,1.12906e-01,2.37543e-02,-1.18884e-01,-2.84587e-02,-7.16625e-02,-4.83580e-02,2.48467e-01,1.03050e-02,7.24674e-02,-1.52316e-02,-3.91391e-02,6.60900e-02,4.51452e-02,-1.66478e-02,4.40099e-02,3.79573e-02,-2.56277e-02,-9.02833e-02,-4.16002e-02,-6.21870e-02,1.42953e-02,-1.66526e-03,-2.74604e-02,5.59343e-02,6.50771e-02,1.38684e-02,7.75253e-02,-4.08161e-02,-4.05197e-02,5.75816e-02,1.81632e-02,5.50659e-02,-8.08131e-02,7.93556e-02,1.01031e-01,-1.56977e-01,-1.79736e-01,4.08816e-02,2.50497e-02,-1.30309e-02,-9.20456e-02,1.34719e-01,-9.84911e-02,4.36376e-02,7.23524e-02,-9.50098e-02,-4.51951e-02,1.14568e-01,5.94177e-02,-1.83301e-02,2.28471e-03,-1.14938e-01,-1.98896e-02,5.85917e-02,
6.54678e-02,-1.91401e-03,-8.50577e-02,1.09864e-01,-1.10060e-03,1.08067e-01,2.50108e-03,7.74581e-04,-7.06754e-02,-3.78698e-02,6.29101e-02,5.60568e-02,3.08675e-02,1.88507e-01,7.78797e-02,4.90502e-02,4.99578e-04,1.05284e-02,3.01854e-02,9.52237e-02,-2.56067e-02,-1.04170e-01,1.01131e-02,-1.01258e-01,1.06849e-01,-8.42485e-02,-1.64084e-02,2.18892e-02,-5.92608e-02,4.87855e-02,6.62996e-02,8.71836e-02,7.90336e-02,-3.03751e-02,-3.71436e-03,2.79994e-02,1.95693e-02,8.49750e-03,-1.10719e-01,-2.67946e-02,-4.32164e-02,1.71869e-02,-1.07341e-01,-1.07629e-01,-1.14212e-02,-1.44230e-02,7.43782e-02,2.13677e-01,-3.91403e-03,1.33666e-01,3.76086e-02,4.20343e-02,-1.58074e-02,6.48777e-02,1.24105e-01,-2.04515e-02,1.34443e-01,5.46989e-03,4.56381e-03,5.30111e-02,-7.61188e-02,9.27343e-02,8.12484e-02,1.12374e-01,-1.96097e-02,3.74397e-02,-8.81207e-03,2.50188e-02,1.18296e-02,-3.56287e-02,9.52863e-02,3.88425e-02,-1.25052e-01,-5.92059e-02,1.24347e-01,-7.56606e-02,8.39836e-02,9.14690e-03,2.11575e-02,4.42506e-03,7.26524e-02,1.06695e-02,-4.81095e-02,4.22745e-02,6.74433e-02,-6.55388e-02,-2.72229e-02,4.63747e-02,4.19303e-02,-3.36587e-02,5.69506e-02,1.13579e-02,4.05588e-02,3.62711e-02,-3.71261e-02,-7.66849e-02,-2.24573e-02,8.95787e-02,-2.74233e-02,-8.21623e-02,
-9.82144e-02,-9.38552e-03,3.10349e-02,6.33146e-02,-2.55055e-02,-4.25552e-02,-8.25412e-02,-2.71975e-02,-3.63357e-02,-1.82113e-02,-1.17779e-01,3.10848e-02,-9.95387e-02,-1.01611e-01,-2.04064e-02,-7.23890e-02,5.55090e-03,6.37860e-04,4.85013e-02,3.45606e-02,6.91975e-02,1.88532e-02,1.15207e-02,-3.82705e-02,8.84749e-02,-1.44686e-02,6.75737e-03,-1.05628e-01,3.24105e-02,-1.29516e-01,9.60313e-02,1.39310e-01,6.22566e-02,5.96849e-02,6.89438e-02,8.14776e-03,4.36275e-03,-1.04152e-01,-4.79438e-03,-8.99453e-02,-6.85281e-02,5.04159e-02,1.91536e-01,5.36918e-02,-1.04474e-01,8.45160e-03,-4.33559e-02,1.05781e-02,1.08688e-02,-5.99136e-02,-1.27652e-01,7.24529e-02,6.86288e-02,1.19499e-01,-8.81676e-02,4.62407e-02,-6.63643e-03,6.37820e-02,-3.81250e-02,1.20813e-01,1.06337e-01,5.79373e-02,-7.75768e-02,-2.72060e-02,5.58154e-02,-5.92608e-02,8.29362e-02,4.63865e-02,1.04281e-01,6.05566e-02,3.30649e-02,2.47739e-02,-1.11688e-01,2.88417e-02,1.07524e-01,6.66376e-02,7.95929e-02,8.40988e-02,-1.21338e-01,-6.24430e-02,-4.86928e-02,5.10260e-02,-7.93186e-03,5.31894e-02,-9.64934e-03,-1.59713e-02,1.42414e-01,-8.17442e-02,4.55079e-02,-1.01171e-01,1.93289e-02,-1.22994e-02,-5.01391e-02,7.94805e-02,-4.20813e-02,1.72890e-02,-2.22419e-02,-3.11030e-02,2.26661e-01,4.89122e-03,
1.88407e-01,-3.27400e-02,3.94139e-03,8.62827e-02,8.70308e-02,-8.95255e-02,1.11000e-02,-8.22371e-03,-3.56217e-02,-1.56502e-02,-2.73430e-02,8.56117e-02,8.54371e-02,1.94620e-01,6.29189e-03,3.92323e-02,-5.38798e-02,-8.82892e-04,5.15855e-02,-8.56660e-02,-1.01008e-01,9.82018e-02,-8.20166e-02,2.21628e-02,-1.36260e-02,-8.57640e-02,6.20433e-02,-2.28259e-01,-9.43314e-02,-4.63441e-02,-3.81430e-02,5.26696e-03,3.66899e-02,9.70463e-02,-4.03871e-02,6.05085e-02,3.93109e-02,-3.32064e-02,3.08527e-02,-3.84541e-02,5.07549e-02,-4.13320e-02,1.98815e-01,-2.23961e-01,1.07208e-02,6.32746e-02,-5.51365e-02,8.29887e-02,1.54381e-01,-7.91077e-02,-3.09692e-01,-1.52921e-01,7.91278e-02,-6.61266e-02,1.04313e-01,-8.09572e-02,3.17220e-02,2.28690e-02,5.64966e-02,-8.35917e-02,2.13160e-02,-7.41848e-02,-1.05955e-01,2.40281e-01,-1.71951e-01,-1.58121e-03,1.04017e-01,6.67279e-02,1.79002e-01,2.27565e-02,8.02373e-02,-3.86173e-02,1.41139e-01,-9.69057e-02,1.30734e-02,-5.68500e-02,-5.16022e-02,-6.40362e-02,-3.40916e-02,-1.63138e-02,3.93204e-03,1.18806e-01,1.08744e-01,7.12065e-02,1.17671e-02,-3.49692e-04,-8.97368e-02,-4.44289e-02,-5.65168e-04,7.18418e-02,7.44422e-02,7.63961e-02,6.59158e-02,8.31108e-02,-3.48217e-03,-8.54894e-02,-4.05642e-02,-2.00202e-01,-1.03303e-02,-5.22886e-03,
-8.51439e-02,6.27593e-04,-6.07039e-02,-5.77386e-02,-2.28302e-02,-3.14248e-02,2.71577e-02,-4.80535e-02,1.61745e-02,7.81918e-03,2.78010e-02,-8.41967e-02,-3.96698e-02,2.01541e-01,-5.38146e-02,1.40302e-02,8.22623e-03,5.79698e-02,-3.06437e-02,5.15933e-02,-5.05410e-02,3.05134e-02,-7.96446e-02,-6.79863e-02,6.53534e-02,-6.97759e-02,-4.96989e-02,2.81529e-02,5.70756e-02,-6.32677e-02,9.47605e-02,-5.61421e-05,-6.94045e-05,7.76446e-02,6.96777e-03,7.21195e-02,-5.09956e-02,-2.72970e-02,1.04269e-01,-7.51645e-03,4.74165e-02,1.08991e-01,-1.28251e-02,-8.66351e-02,7.43964e-03,1.07581e-01,3.42915e-02,4.20404e-02,5.94481e-02,-5.92663e-02,-1.55155e-02,1.77105e-01,5.49176e-02,1.01776e-01,-3.71252e-03,6.56945e-02,5.16814e-02,5.08044e-02,8.40731e-02,-5.29170e-02,1.25595e-01,-6.45618e-03,1.00955e-01,-8.19589e-02,2.73557e-02,6.09704e-02,4.95138e-03,1.94001e-02,4.73008e-03,-7.80915e-02,-3.60609e-02,-6.55270e-02,1.89892e-02,7.98129e-02,-4.67712e-02,5.85241e-03,5.38917e-02,6.96269e-02,-2.77747e-02,1.15391e-01,-2.67933e-02,8.98401e-02,7.00864e-02,5.83089e-02,6.43949e-02,1.09510e-01,-1.82930e-02,1.28765e-01,-5.07548e-02,2.80531e-03,-9.22326e-03,7.59325e-02,6.63052e-02,3.94265e-02,2.96284e-02,6.09650e-02,-4.59972e-02,-7.47872e-02,1.42675e-03,6.84969e-03,
-9.74503e-02,5.15480e-02,8.75785e-02,5.67529e-02,-5.56459e-03,-2.10106e-02,-6.74502e-02,-8.38178e-03,3.47634e-02,-8.93831e-02,2.58766e-02,1.73950e-02,-5.18111e-02,-9.18824e-02,-4.92135e-02,-1.00559e-01,-1.00178e-01,8.53070e-02,-6.42209e-02,-3.67985e-02,6.91370e-03,-7.07500e-02,3.47144e-02,-6.25224e-03,8.11124e-02,1.88466e-03,-6.02647e-02,-8.08175e-02,2.29163e-02,-9.59924e-02,7.10326e-02,1.03250e-01,1.37175e-01,-2.37672e-02,3.22533e-02,-5.23142e-02,-4.39278e-02,8.58645e-02,-4.98035e-02,-1.23164e-01,-4.61273e-02,1.89090e-02,3.69306e-03,-5.81710e-02,-1.60770e-02,-6.28967e-02,5.65064e-02,1.01560e-01,1.00069e-01,4.10782e-02,-1.54352e-01,6.79102e-02,3.47884e-02,1.30083e-01,-4.83213e-02,-2.32141e-02,-7.00123e-02,1.37730e-02,-1.72554e-02,-1.56277e-04,-5.90409e-02,-5.90367e-02,-4.79337e-02,-6.83518e-02,-3.55663e-02,-2.00574e-03,9.71532e-02,-3.10102e-02,-8.41795e-02,1.00105e-02,2.73869e-02,-2.02523e-03,-3.00542e-02,3.40112e-02,8.47315e-02,6.60796e-02,-4.93301e-02,-1.66014e-03,-8.32271e-02,-8.44692e-02,2.25424e-05,8.25534e-02,6.24058e-02,4.39540e-02,5.19899e-02,2.81696e-02,1.33947e-02,-4.75033e-02,5.35205e-02,2.93241e-02,9.20632e-02,5.64981e-02,6.23652e-02,1.39497e-01,-3.00706e-02,-4.32378e-04,4.63800e-02,8.01666e-02,-1.06655e-02,3.49341e-02,
-2.59835e-02,3.82040e-02,7.12242e-02,-4.78405e-02,7.28090e-02,-1.85043e-02,-8.67462e-02,-7.62990e-02,-7.31025e-02,1.38726e-02,1.20590e-02,5.70885e-02,2.35451e-02,-4.79542e-02,7.43889e-02,-4.38736e-02,-6.31362e-02,1.79558e-01,-6.36747e-02,6.39675e-03,5.08930e-02,7.78515e-02,5.74202e-02,-2.40290e-02,-7.72763e-02,9.73177e-02,1.11042e-01,-8.87566e-03,-7.72944e-02,-8.54151e-02,3.92034e-02,9.12931e-02,-6.11265e-02,1.17440e-01,-1.85786e-02,-1.42560e-02,4.54444e-02,1.13747e-01,4.91733e-02,-6.79885e-02,-4.35131e-02,-4.47360e-02,6.63387e-03,9.95510e-02,-6.88448e-02,-1.39763e-01,-7.32625e-02,3.10538e-02,3.11204e-02,1.34696e-01,-2.57728e-02,-6.00903e-02,4.95309e-02,-5.94893e-02,-3.18879e-02,-3.49775e-04,-3.06574e-02,-7.31906e-02,5.27961e-02,-3.04538e-02,-1.93752e-02,6.44375e-02,-3.64306e-02,3.75450e-02,8.21823e-02,-3.80032e-02,7.84494e-02,1.17854e-01,-2.74826e-02,-4.13832e-02,8.41907e-02,3.95464e-02,1.16160e-02,-2.08314e-02,6.45435e-02,3.09466e-02,-5.22868e-02,6.48709e-02,-4.15328e-02,3.14481e-02,3.45990e-02,1.01601e-01,1.14061e-01,5.20239e-03,-7.33257e-02,-9.38174e-02,4.39290e-02,1.01467e-01,-2.76809e-02,-3.09903e-02,8.65548e-02,-5.70642e-02,-8.91886e-03,8.49994e-02,-8.49252e-02,2.48476e-02,2.18402e-02,3.80863e-02,1.35413e-01,2.14914e-02,
-3.02606e-02,-4.60856e-02,-6.78235e-02,-7.43264e-03,1.13786e-02,-1.97493e-02,-8.71056e-02,6.03851e-02,3.12028e-02,-4.28940e-02,9.46285e-03,5.33479e-02,1.10766e-02,-7.51644e-02,6.93346e-03,3.59679e-02,-6.33690e-02,9.56427e-02,-2.28399e-02,9.78214e-03,-5.67928e-02,-3.25955e-02,-1.57550e-01,1.94601e-02,-8.57496e-02,1.06468e-01,-3.40216e-02,1.40757e-01,-1.09706e-01,-2.86028e-02,9.93482e-02,5.31971e-03,9.78141e-02,1.23085e-01,2.23857e-02,4.52621e-02,8.00116e-02,6.23904e-02,3.27617e-03,-6.29084e-03,-1.28378e-02,-1.18839e-02,1.79713e-02,1.18742e-01,7.73878e-02,-4.51157e-02,1.65536e-03,3.00208e-02,-1.20367e-01,7.56714e-02,-9.64411e-02,-9.84290e-02,-3.50846e-02,-2.77942e-02,-2.15380e-02,4.52178e-02,6.13701e-03,-3.24983e-02,5.07898e-02,5.33840e-02,8.01018e-02,-7.25356e-02,-2.08954e-02,6.37822e-02,-6.07629e-02,1.60938e-02,-7.81567e-02,1.48820e-01,1.87151e-02,-4.85666e-02,3.24217e-02,6.15513e-03,-2.27838e-01,-9.29567e-02,7.34105e-02,-7.64709e-02,-6.01453e-02,-9.10667e-02,1.49031e-02,-2.51881e-02,-8.16367e-04,-7.34487e-02,6.50146e-02,8.70623e-03,-8.53653e-02,4.66157e-02,7.85394e-02,-6.83053e-02,8.91139e-02,-1.52187e-02,5.94809e-02,1.12615e-01,5.57984e-02,5.39626e-02,1.54295e-02,7.58894e-02,4.15685e-03,-3.12153e-02,1.05199e-01,8.82337e-02,
2.45572e-02,4.01018e-02,3.76961e-02,1.45671e-01,-4.82508e-02,-5.72494e-02,-4.56487e-02,2.96068e-02,5.94408e-02,-2.29118e-03,2.97952e-02,1.65770e-02,1.47681e-02,1.82811e-01,-8.98506e-02,-1.44221e-02,1.85985e-02,2.89700e-02,3.64392e-02,1.58896e-02,7.74206e-02,-6.75390e-02,7.06621e-02,6.65696e-02,2.26370e-02,-5.43465e-02,-6.67515e-02,8.60397e-02,6.98230e-02,2.65563e-02,5.02410e-02,8.08996e-02,1.22068e-01,-1.77156e-02,1.54852e-03,-7.22152e-02,9.43816e-02,-6.57173e-02,4.11685e-02,-6.93478e-02,-5.32091e-02,-8.86939e-03,9.37187e-02,-1.21624e-01,1.05695e-01,-8.18876e-02,5.07271e-02,3.50122e-02,4.42178e-02,-3.38973e-03,7.05121e-02,-2.90147e-03,1.44581e-03,1.04581e-01,1.15967e-02,8.41537e-02,9.12852e-02,-1.92711e-02,-6.06038e-03,3.90590e-02,1.17741e-02,1.21273e-02,-1.14560e-02,6.29221e-02,-9.45582e-03,1.09446e-01,3.11387e-02,3.72045e-02,4.74684e-02,-4.79580e-02,6.15111e-02,6.08919e-02,-4.60329e-02,7.23490e-03,1.44125e-01,6.49415e-02,-3.17181e-02,6.80619e-02,-1.04661e-02,2.10230e-02,-8.46060e-02,2.04228e-02,-4.77968e-02,7.24098e-02,-1.85539e-02,2.88930e-02,-4.85881e-02,-3.79370e-02,4.91443e-03,-9.70585e-02,8.05749e-03,6.11615e-02,7.19172e-02,-1.13137e-02,9.19842e-02,6.20987e-02,2.40355e-02,1.02234e-01,-4.25579e-02,9.42521e-03,
6.58915e-02,-3.00180e-02,-1.75421e-02,1.51973e-02,-4.28101e-02,3.77420e-02,2.74134e-02,-5.09947e-02,5.60690e-02,3.79875e-02,-9.24795e-03,8.79597e-02,3.72774e-02,1.80091e-01,-3.07199e-02,2.94824e-02,5.28044e-02,-9.71169e-03,-6.50589e-03,3.25033e-02,5.89574e-02,7.43060e-02,-4.04175e-02,-6.06794e-02,3.17954e-02,-9.83210e-03,-7.80588e-02,3.68110e-03,-7.77391e-02,-1.28525e-03,-1.34785e-02,8.26550e-02,6.12195e-02,1.02367e-01,9.29466e-03,-5.99207e-02,-4.56752e-03,-5.15894e-02,-1.38219e-01,4.15018e-02,-5.29553e-02,1.02102e-01,-4.16827e-02,-1.40267e-01,-1.63705e-02,-4.78050e-02,-1.67411e-02,-2.45103e-02,1.16942e-01,3.36020e-02,-4.57149e-02,5.72313e-02,-2.20585e-02,1.50526e-01,6.94776e-02,-6.26022e-02,-1.89962e-02,3.93138e-02,8.13419e-02,2.73747e-02,1.31889e-01,-4.04894e-02,-6.99699e-04,-1.51345e-01,4.50437e-02,-6.75499e-02,4.94017e-02,6.90400e-02,-2.05096e-02,-6.39093e-02,-3.98315e-02,-1.00412e-01,6.25538e-02,-4.04975e-02,6.71349e-02,9.88520e-02,-5.50072e-02,6.59537e-02,-9.98847e-03,3.75678e-03,7.06076e-02,1.01052e-01,9.14614e-03,3.43851e-02,-2.00961e-02,-6.85050e-02,-3.10764e-02,1.37503e-01,4.88107e-02,-6.97662e-02,2.41642e-02,-1.57151e-02,3.97674e-02,-6.39455e-03,6.87161e-02,-1.41637e-02,-8.05749e-02,8.68432e-02,1.65044e-01,-4.68349e-02,
4.25435e-02,-1.26819e-02,-1.16212e-01,-2.94089e-02,3.55422e-03,7.47196e-02,-7.49660e-02,-2.59471e-04,-1.80148e-02,6.98438e-02,2.86571e-02,1.03185e-01,-6.51467e-02,1.11526e-01,5.53205e-02,1.33577e-02,4.53894e-02,1.29025e-01,-7.18859e-02,2.26150e-02,1.32955e-01,-1.52684e-03,-4.18197e-03,1.53645e-02,8.92727e-02,1.60567e-02,1.31210e-01,-3.02407e-02,-2.96484e-02,-6.18000e-02,1.50400e-02,-5.58087e-02,3.14071e-02,7.76108e-02,7.10897e-02,7.01663e-02,1.65761e-01,8.63736e-03,-6.75660e-02,-1.06902e-01,1.15579e-01,-7.55760e-02,-9.77619e-02,-5.92548e-02,5.87933e-02,7.52059e-02,1.16497e-01,-4.29685e-02,2.01038e-01,-3.29075e-02,-2.01892e-01,1.78218e-02,1.80851e-01,1.07326e-01,3.45017e-02,-1.46264e-01,-1.30578e-01,-3.28953e-02,1.23592e-01,4.95112e-02,9.54859e-02,-5.09777e-02,1.24872e-02,3.52894e-02,1.22343e-02,1.04897e-01,9.95927e-02,7.63673e-02,-1.35324e-01,1.24188e-01,-2.66525e-02,2.14949e-02,-7.10421e-02,-7.33786e-02,-1.65127e-01,-1.67206e-02,4.88480e-02,-7.21210e-02,8.94072e-02,-1.35681e-02,2.99457e-02,4.90964e-02,-6.08461e-02,3.36418e-02,-4.71221e-02,4.48160e-02,1.80965e-01,-4.02725e-02,-5.79012e-02,1.35054e-01,-6.89882e-02,-5.49801e-02,6.16768e-02,8.84454e-03,-8.88356e-03,-2.14996e-02,-4.18903e-02,-1.02347e-01,1.65114e-02,3.38786e-02,
-7.66650e-02,-8.43978e-03,2.42561e-02,1.22074e-01,7.15327e-02,-7.43794e-02,-5.53282e-02,4.74618e-03,-1.45166e-02,9.96176e-03,6.85875e-02,-4.11920e-02,-4.09223e-02,1.25946e-01,-5.67691e-02,-7.72012e-02,3.14518e-02,6.58505e-02,2.88553e-02,-7.75645e-02,-6.39791e-02,2.74329e-02,-7.91470e-02,1.79135e-02,-4.02724e-02,4.05985e-02,-2.53293e-02,1.88100e-02,6.75418e-02,-1.97405e-02,9.15338e-02,1.51909e-04,4.87135e-02,2.66620e-02,2.98876e-02,-6.94026e-02,4.91158e-02,3.80306e-03,5.80776e-02,2.94847e-02,3.15729e-02,6.53152e-02,2.88042e-02,-1.81029e-02,4.63287e-02,4.35711e-02,3.88053e-02,-4.03181e-02,3.22980e-02,-1.67670e-03,6.82454e-02,-4.41830e-03,8.41176e-03,1.67969e-02,-3.51692e-02,5.24713e-02,9.18911e-05,-7.04549e-02,2.25500e-02,-5.16752e-02,2.20797e-02,5.01107e-02,4.28693e-02,-5.00090e-02,-6.18037e-03,-9.59260e-02,8.50182e-02,6.43241e-02,-9.55179e-02,-2.72401e-02,1.77192e-02,-7.09585e-02,-3.58238e-02,-5.32014e-02,6.14542e-02,6.47953e-02,7.87855e-02,-5.95761e-02,7.09654e-02,-3.39370e-02,7.67524e-02,-9.83247e-03,-1.39149e-02,-8.98613e-02,1.77914e-02,-9.66877e-02,8.18561e-02,-5.08253e-02,3.31467e-02,5.73856e-02,3.35941e-02,5.36071e-02,1.19888e-02,-1.09965e-02,4.48970e-03,1.62579e-02,4.23861e-02,7.66037e-02,-2.61347e-02,1.00492e-01,
-4.27678e-02,1.68962e-02,-3.23737e-02,5.94274e-02,-6.39748e-02,-5.22452e-02,-2.66917e-02,2.93842e-02,5.49053e-02,7.90805e-02,-2.22037e-02,9.59699e-02,-5.24524e-03,-1.03812e-01,-5.89261e-02,-3.97592e-03,1.05618e-01,-2.65295e-02,2.53746e-04,-4.52991e-02,-5.27409e-02,4.70827e-02,-2.22901e-02,9.66167e-02,1.05758e-01,-3.99511e-02,-2.66361e-02,6.22715e-02,3.92103e-02,6.71667e-02,-7.36620e-03,5.80736e-02,3.77105e-02,-2.47650e-02,-6.05760e-02,-8.44988e-02,3.36520e-02,5.25952e-02,-7.24046e-02,-5.19189e-02,-2.81627e-02,-1.12104e-02,1.06588e-02,1.69193e-01,2.57955e-02,2.51351e-02,4.67704e-02,4.44701e-02,1.94433e-01,4.24403e-02,3.78292e-02,3.96961e-02,-2.63598e-02,1.42543e-01,1.32182e-01,8.90702e-02,2.75555e-02,6.95432e-02,-1.07265e-01,-4.61274e-02,-6.74615e-02,4.23572e-02,-3.58447e-02,-3.11520e-02,-3.25013e-02,3.36877e-02,1.12827e-01,1.26026e-01,-2.39732e-02,2.36942e-02,-1.21500e-01,-2.43314e-02,1.24652e-01,-5.20143e-02,-4.00276e-02,-4.12270e-02,4.89878e-02,-4.28063e-02,-1.10400e-01,-6.60777e-03,1.27778e-01,4.88575e-02,-5.35290e-02,4.87345e-02,6.71062e-03,4.74078e-02,-3.90357e-02,1.17003e-02,7.51043e-02,1.29433e-02,-1.73782e-02,-3.73682e-02,-7.88198e-02,1.26369e-01,2.09518e-02,3.19507e-02,1.16886e-01,-3.32443e-02,2.24265e-02,-2.98372e-02,
-7.94910e-02,6.22095e-02,-5.55326e-04,-8.53396e-02,-2.27130e-02,-1.46354e-02,5.58933e-02,-3.92794e-02,-6.18750e-02,1.10104e-01,-3.63427e-02,-6.59122e-02,9.82827e-02,-9.02479e-02,-4.73590e-02,-1.05993e-02,6.02493e-02,-1.21456e-02,2.45733e-02,6.98462e-02,3.47147e-02,-5.48816e-02,7.72720e-02,3.32436e-02,1.52377e-01,-2.19598e-02,6.56763e-02,-5.49291e-02,2.37398e-02,-7.51637e-02,4.44604e-02,1.13248e-01,7.16864e-02,4.61343e-02,4.72751e-02,-1.33221e-01,3.43976e-02,-1.19195e-02,-7.92013e-02,-7.81510e-02,2.28616e-02,-6.68108e-02,-7.25291e-02,8.99567e-02,5.29053e-02,-8.03746e-03,6.45058e-02,-1.65533e-02,-1.78809e-01,1.85275e-02,3.03589e-02,2.45197e-02,-9.67564e-02,-6.82026e-03,6.21604e-02,-3.61760e-02,3.86919e-02,-1.29841e-02,-3.96916e-02,-2.60696e-02,-3.18887e-02,5.67809e-02,-1.96043e-02,-7.91349e-02,8.17253e-02,-6.19968e-02,-1.47937e-03,-7.14162e-02,2.90834e-02,1.19938e-01,-2.67084e-02,6.16228e-02,1.20017e-01,2.66966e-02,5.39609e-02,-2.47997e-02,-6.55150e-03,-7.96493e-03,8.19858e-02,4.33371e-02,-6.45110e-02,2.96310e-02,5.75389e-02,-5.74069e-02,9.84473e-02,-7.68038e-03,1.76374e-02,2.36908e-02,1.00811e-01,7.23149e-02,-1.19898e-01,4.68571e-02,-4.34011e-02,1.82797e-02,-8.16865e-02,-6.06406e-02,-4.67692e-02,2.36959e-02,-5.87187e-02,3.49947e-02,
-5.03265e-02,-5.42152e-02,-5.52972e-02,1.53612e-02,8.41877e-02,-1.00317e-02,-7.11072e-02,9.87403e-02,-7.03591e-02,-3.32549e-02,4.33336e-02,-5.37609e-02,-4.56331e-02,-7.05150e-02,-2.69279e-02,-1.87282e-02,5.05843e-02,-1.74995e-02,2.39952e-02,5.90069e-02,8.54215e-02,-2.12589e-02,6.30883e-02,-3.34652e-02,7.26912e-03,-1.35865e-02,2.33801e-02,-1.14013e-02,-7.07951e-02,3.79560e-02,-1.90024e-02,-1.35966e-02,2.23595e-02,2.54198e-02,2.46088e-02,2.52811e-03,4.22428e-02,5.88206e-03,1.53829e-01,1.15215e-01,-4.20108e-02,-1.02097e-01,7.93094e-03,2.50624e-03,-1.08789e-01,4.07405e-02,4.13993e-02,-5.76482e-02,3.81938e-02,-7.03945e-03,4.05306e-02,1.50954e-02,4.20674e-02,-3.82591e-02,4.54823e-02,-6.75224e-02,-1.06006e-01,-5.81298e-02,-8.46299e-02,2.60590e-02,6.72645e-02,-1.29141e-02,-2.41399e-02,-3.55472e-02,6.89584e-02,2.15243e-02,2.46006e-02,-1.65962e-02,3.24661e-02,8.46512e-02,-9.81263e-03,1.05345e-01,2.03923e-02,6.76791e-02,-6.09238e-02,3.86086e-02,6.63365e-02,-1.84206e-02,-5.91356e-03,-4.05776e-03,9.35959e-02,-9.48714e-02,3.62240e-02,1.12541e-01,1.15931e-01,2.97806e-02,8.00101e-02,1.24931e-02,-6.62692e-02,-5.14784e-02,-8.33771e-02,4.29006e-02,3.78664e-02,-1.72360e-02,-1.83516e-03,2.25460e-02,5.92163e-02,-5.72535e-02,1.92881e-01,1.51782e-02,
3.47429e-02,-7.50622e-02,-2.61893e-02,1.04516e-01,1.97473e-02,4.06561e-02,-1.44061e-01,-7.67888e-02,-3.60638e-02,-6.26182e-02,2.99398e-02,-2.99159e-02,6.95433e-02,8.12172e-02,7.15392e-02,9.52945e-02,-4.95715e-02,-9.43639e-02,-5.56854e-02,7.90511e-02,4.93977e-02,3.73258e-02,-4.20236e-03,6.25980e-02,-5.06595e-02,-2.82013e-02,5.23588e-03,5.21472e-02,-7.32231e-02,6.35071e-02,4.10912e-02,5.29644e-04,5.12221e-02,1.46281e-02,6.88113e-03,1.56042e-01,-4.99431e-02,3.02257e-02,7.51057e-02,-7.80648e-02,-4.22668e-02,-8.58902e-02,1.52105e-01,9.49054e-02,3.54632e-02,5.64741e-02,-4.76858e-02,2.73201e-02,-1.60456e-02,4.29827e-02,-1.11116e-01,-8.70687e-02,1.02252e-02,-1.63667e-02,7.80896e-02,3.46987e-02,-1.26923e-02,-6.54305e-02,1.56044e-01,3.52126e-03,-1.32497e-02,1.01412e-01,9.89452e-02,1.98680e-01,5.85105e-02,5.09099e-02,-2.22879e-02,6.43396e-03,2.94723e-02,-6.84137e-02,4.75111e-02,6.64754e-02,-9.15871e-02,-5.80882e-02,-2.58923e-03,4.57091e-02,-1.38646e-02,-9.92287e-02,1.02643e-01,4.64851e-02,8.44571e-02,8.75551e-02,-4.60718e-02,-7.09352e-02,-2.12474e-03,-5.27267e-02,1.65166e-01,-2.18874e-02,-5.75355e-03,-3.57234e-02,4.01396e-02,-8.07784e-02,-3.98300e-02,-4.08927e-02,5.96871e-02,9.26047e-02,4.01968e-04,4.86266e-02,-9.38107e-02,9.52678e-02,
1.02851e-01,-3.86506e-02,-1.22159e-02,-1.20106e-02,-5.58188e-02,5.86154e-02,-4.90933e-02,3.04412e-02,-1.27825e-02,8.53172e-03,8.78223e-02,-1.09184e-01,3.38651e-02,5.32503e-02,-2.54557e-02,1.81400e-02,5.95360e-02,1.44373e-01,8.57915e-02,4.81956e-02,-3.95274e-02,-5.93960e-02,6.92770e-02,7.84602e-02,1.57677e-01,-5.75221e-02,1.11624e-01,6.09594e-02,3.12795e-02,-1.24680e-01,-9.88243e-02,-4.18875e-02,-9.94305e-02,-1.46614e-01,-7.57479e-02,6.01114e-02,-4.59059e-02,-9.91816e-02,1.16591e-01,1.37184e-01,-1.92851e-02,1.00461e-01,2.30684e-01,3.96166e-02,-4.63209e-02,7.71454e-02,-1.01118e-01,6.63348e-02,-1.04015e-01,1.25735e-01,3.83100e-02,-8.02178e-03,3.83185e-02,-6.84383e-02,6.78155e-02,-6.83870e-02,4.13062e-02,-1.94579e-02,1.11183e-01,-6.06351e-02,2.02989e-02,9.06318e-03,7.30100e-02,7.81813e-02,3.67347e-02,-2.74309e-02,-5.50815e-02,-9.58928e-02,3.67065e-03,5.55839e-02,-2.76125e-02,2.31250e-02,-1.26225e-01,2.66133e-02,-4.61336e-02,6.41717e-02,4.92630e-02,-1.22521e-02,-5.54728e-02,1.61593e-01,8.13722e-03,6.39898e-02,9.91905e-02,4.02842e-02,-9.38455e-04,2.29858e-02,1.00604e-01,5.09566e-03,-1.01579e-01,7.82151e-03,3.55684e-02,-4.96113e-02,4.38568e-02,6.87096e-02,-6.77693e-02,5.94702e-02,-5.10752e-02,-7.83531e-02,-4.54498e-02,-4.85999e-02,
-4.34559e-02,-8.52292e-02,8.07229e-02,-9.58983e-03,-2.80846e-02,-2.02988e-03,1.63761e-01,-4.97741e-02,5.16602e-02,8.79724e-02,5.90903e-02,1.42616e-02,1.19852e-01,-1.26619e-02,2.48261e-02,-5.17854e-02,9.08242e-02,-1.15328e-01,6.63182e-02,5.45099e-02,1.97994e-02,6.95604e-02,-4.59404e-02,-1.01954e-01,9.46246e-02,-1.00092e-01,4.97126e-02,3.16007e-02,1.36687e-03,-6.20976e-02,-2.57438e-02,2.99476e-02,9.19341e-02,-4.44007e-02,3.96941e-02,-8.38195e-03,-2.67646e-02,2.11025e-03,-1.41727e-01,9.45863e-02,-2.04964e-02,3.62824e-02,6.60950e-02,8.84459e-03,-1.08239e-02,5.63084e-02,1.27365e-01,5.16929e-03,2.92908e-01,-7.54799e-03,-4.09696e-02,-1.78435e-04,1.55398e-01,1.07371e-01,7.91284e-03,-1.13798e-01,2.86648e-03,8.20754e-02,2.34016e-02,6.98019e-02,8.47866e-02,-2.02571e-02,-5.95038e-02,6.97626e-02,-1.07533e-01,-5.64678e-02,6.21485e-02,-5.25057e-02,1.40059e-02,-3.22971e-02,-6.47008e-02,4.64286e-02,2.50299e-02,-4.53999e-02,1.49982e-02,-1.11127e-02,-8.66547e-03,5.60486e-02,-6.19487e-02,7.57370e-02,-1.52519e-01,5.43493e-02,-1.59244e-01,-5.39740e-02,7.61013e-02,2.34380e-02,5.39690e-02,-1.67078e-01,-2.19719e-02,-4.23717e-03,2.27713e-02,6.59727e-02,4.66298e-02,4.21362e-03,3.53833e-02,-8.04601e-02,-4.62799e-02,3.22736e-03,-1.33342e-02,4.08174e-02,
-4.49249e-02,1.03230e-01,7.92712e-02,-3.38210e-02,-7.56943e-02,3.78562e-02,-1.98229e-02,-1.50900e-02,4.31905e-02,-4.15000e-02,3.45541e-02,-4.55129e-02,6.60222e-02,-8.53926e-03,-4.50293e-02,-7.28443e-02,1.07932e-01,-8.20586e-02,-8.65598e-02,-6.90858e-02,8.78389e-02,5.19253e-02,-2.81362e-03,3.08678e-02,1.27586e-01,7.75003e-02,1.41996e-01,-6.44813e-02,-6.85336e-02,-4.36982e-02,1.08852e-01,3.12324e-02,-5.21742e-03,2.02485e-02,2.50122e-02,-5.87965e-02,-4.46620e-02,-6.98212e-02,-2.37787e-03,-5.89616e-02,8.79878e-02,-1.30907e-02,3.73402e-02,7.99312e-02,1.67598e-02,9.72615e-02,2.77130e-02,4.44728e-02,-1.78655e-01,1.18568e-01,9.99239e-02,-6.01714e-02,-5.76254e-02,-5.70295e-02,-2.34404e-02,-7.71597e-02,-6.82562e-02,-7.06849e-03,-8.92477e-03,-5.45705e-02,-2.62935e-02,-5.68455e-02,4.58271e-02,5.95064e-02,3.96597e-02,5.07923e-02,9.97564e-02,5.70315e-02,-3.22091e-03,-1.65174e-02,9.64888e-02,7.84807e-02,9.02839e-02,4.10250e-02,6.44885e-03,-4.69732e-02,1.69749e-02,-2.65160e-02,2.69906e-02,-1.06926e-02,5.22140e-02,1.16084e-03,-4.61346e-02,2.92881e-02,3.13501e-02,5.86284e-02,-1.02331e-01,-1.10647e-02,-8.83699e-02,5.40714e-02,4.98126e-02,7.43917e-02,8.19671e-03,-5.38360e-02,1.07875e-02,1.97314e-02,-1.03877e-01,9.51823e-02,1.58553e-02,-3.62967e-03,
1.29861e-02,9.73443e-02,-3.44341e-02,-8.55802e-02,4.20310e-02,-7.42501e-02,9.26844e-02,-3.30938e-02,2.42736e-02,1.18502e-02,-1.21026e-01,4.39831e-02,7.52414e-02,2.44354e-02,-6.34775e-02,-6.04415e-02,6.23180e-02,-5.18807e-02,-1.07492e-02,9.70447e-02,-4.75379e-02,-4.74729e-02,-3.36748e-02,-1.12462e-02,7.49956e-02,9.05813e-02,4.90212e-02,-5.56378e-02,3.61070e-02,3.26698e-02,-8.61105e-02,6.27723e-02,5.95896e-03,-4.46073e-02,-9.65852e-02,-9.73572e-02,8.39247e-02,2.15359e-02,4.24538e-02,-3.94897e-02,4.12291e-02,2.14366e-02,7.90227e-02,5.98486e-02,-9.40760e-02,1.03706e-01,-1.25204e-01,3.42955e-02,6.46200e-02,8.02896e-02,9.91745e-02,-5.64727e-02,-1.68455e-02,-4.90982e-02,-8.43897e-02,3.00297e-02,5.54453e-04,1.83207e-04,8.76075e-02,2.82085e-02,8.68292e-02,9.50289e-03,2.93179e-02,-9.55945e-02,-1.74065e-02,-6.45154e-03,7.30276e-02,-5.49870e-02,-4.61142e-03,7.84028e-02,-4.89072e-02,-5.81816e-02,-7.34495e-02,-4.15269e-02,-6.61443e-02,6.81255e-02,-7.87095e-02,-7.44824e-02,6.11769e-02,3.97057e-02,3.31366e-02,5.32004e-02,-3.32942e-03,2.73189e-03,-4.26925e-02,-3.35460e-02,-7.19912e-02,6.27717e-04,-5.44192e-03,7.77332e-02,-4.83089e-02,5.77008e-02,5.97751e-02,3.39513e-02,-1.28835e-02,5.42214e-02,-4.64046e-02,-7.70789e-02,1.13446e-01,6.09240e-02,
-1.13205e-01,-1.14119e-01,-2.08141e-02,4.13424e-02,-8.31879e-03,-5.99464e-02,-7.61167e-02,-4.96058e-02,1.14293e-01,2.79375e-02,7.20349e-02,-5.43039e-02,-9.94944e-02,4.98552e-02,8.19087e-02,-2.96818e-02,-9.66849e-02,6.73891e-02,-8.63991e-02,-3.52223e-02,1.88563e-02,2.49230e-02,2.36717e-02,-8.51111e-02,1.20478e-01,-2.02868e-01,-5.05804e-03,-3.78272e-02,-4.47325e-02,-7.94819e-03,-3.18499e-02,7.65787e-02,6.28059e-02,2.20294e-02,-6.44833e-03,-1.06676e-02,-1.04825e-01,-1.24529e-01,2.53714e-02,2.03648e-02,6.55589e-02,4.55105e-02,-1.12079e-01,-6.43145e-02,2.03402e-02,6.62417e-02,2.77659e-02,-3.37244e-02,8.10886e-02,8.01168e-02,1.12226e-01,9.73330e-02,-4.23402e-03,-7.80630e-02,5.46895e-02,4.23192e-02,-1.20436e-01,-1.87019e-01,4.59712e-02,-1.22190e-01,-2.71493e-02,-3.56776e-02,4.23104e-02,4.06451e-02,3.10609e-02,-2.80467e-02,-6.95657e-02,1.49816e-02,-1.37386e-02,2.27823e-02,-7.14996e-02,-2.60589e-02,1.61449e-01,-2.19827e-01,1.91355e-01,4.85143e-02,2.03066e-01,-9.28230e-02,-4.51913e-02,7.69998e-02,-2.34859e-02,-1.37575e-01,1.77650e-01,2.36729e-02,-8.14801e-02,1.86222e-02,1.03523e-01,8.97401e-02,2.39759e-02,8.10805e-02,2.61243e-02,-5.92051e-02,-1.38032e-02,1.71213e-02,4.05264e-03,-9.27364e-02,-4.43471e-02,-3.37928e-01,2.40629e-01,6.29827e-02,
6.53661e-02,-5.00230e-02,-3.35335e-02,-6.94577e-02,9.11913e-02,5.89465e-02,-1.06565e-01,4.71004e-04,-2.71031e-02,-6.41088e-03,6.48515e-02,1.62792e-02,-5.04525e-02,-1.27335e-01,2.29973e-02,1.69600e-02,7.47706e-02,7.13445e-02,4.24068e-02,4.75190e-02,-4.01671e-02,-5.33487e-02,9.35211e-02,-5.55637e-02,9.24377e-02,-5.75891e-02,4.48888e-02,1.36315e-01,8.08037e-02,-8.74074e-02,-5.51893e-02,-4.30152e-02,4.93504e-03,-9.45767e-02,7.63658e-02,-1.40162e-02,-2.78942e-02,4.97045e-02,-5.37643e-02,2.21263e-02,8.87518e-02,-1.48119e-02,5.98953e-02,1.29327e-01,-4.07561e-02,2.00670e-02,-1.77873e-02,-5.41833e-02,-2.08002e-02,1.82020e-02,5.47836e-02,-7.51020e-03,5.12711e-02,-8.50829e-02,6.01191e-02,-6.44424e-02,1.09350e-01,-3.34037e-02,-1.69679e-02,1.78002e-02,7.05537e-03,4.56562e-02,4.86183e-02,2.03448e-01,1.62387e-02,1.25865e-01,-6.14383e-02,9.24766e-03,-1.90963e-02,-3.68902e-02,-2.33467e-02,2.12403e-02,-3.09848e-03,3.25370e-03,3.97613e-03,4.77092e-03,5.22809e-03,-1.13198e-01,8.58858e-02,-1.34647e-02,1.58640e-02,7.78273e-02,-3.93679e-02,5.43076e-02,-6.79530e-02,-5.02871e-02,-9.57148e-02,-1.17415e-02,2.89552e-02,1.87403e-02,1.06343e-01,2.51156e-02,6.65684e-02,-6.55995e-02,-1.10279e-01,-3.64599e-02,-4.84704e-02,-3.19013e-02,2.14495e-02,1.06841e-01,
7.91906e-02,3.15477e-02,5.77928e-03,8.28489e-02,-2.55154e-03,-1.37981e-01,-1.86911e-01,6.25392e-02,-3.67614e-02,-1.14208e-01,1.41853e-01,6.16992e-02,9.36866e-02,5.46700e-02,-2.55103e-02,-9.40314e-03,-7.66112e-02,1.72960e-01,7.20034e-02,4.42454e-02,-9.28090e-03,-7.30070e-02,-9.80706e-02,-3.38686e-02,3.75580e-02,-1.16693e-02,-1.58572e-01,-3.28711e-01,3.68747e-02,3.88896e-02,2.17568e-02,2.06514e-02,-1.71613e-02,-7.70475e-02,-2.14416e-02,1.23722e-01,-9.52434e-02,-4.10518e-03,-1.28016e-04,-2.01825e-01,2.80869e-02,-4.21865e-02,2.17064e-02,-3.35097e-02,5.14826e-02,9.35477e-02,-6.43017e-02,9.37019e-02,4.63347e-02,1.11614e-01,7.25652e-02,-1.96094e-01,-8.76863e-02,-1.96700e-01,9.63709e-02,1.47271e-01,-2.88471e-02,5.58840e-02,1.79766e-01,-9.52084e-03,-3.61674e-02,-9.01668e-02,-1.00638e-01,-6.73908e-03,8.68949e-02,2.97174e-02,-1.50481e-01,7.37723e-02,9.68704e-02,1.82611e-02,1.04472e-01,-1.05544e-01,3.36556e-02,1.18914e-01,7.30930e-02,-1.05943e-01,-1.41918e-02,8.88166e-03,3.24991e-02,5.58482e-02,1.37098e-01,2.33315e-04,-2.37086e-02,-6.33721e-03,1.08442e-01,2.68766e-02,-4.20392e-02,9.53030e-02,2.57455e-03,-1.03133e-02,6.70265e-02,1.27485e-01,-6.50472e-02,-5.41394e-02,-1.23413e-02,-3.71764e-02,-9.79112e-02,-9.70764e-02,8.45766e-02,-1.79963e-02,
-6.13295e-02,5.76745e-02,2.37421e-03,-6.23675e-02,-3.46179e-02,-7.78130e-02,-5.60562e-03,1.93973e-02,6.50245e-02,3.05895e-02,3.82889e-02,8.65107e-02,2.49599e-02,1.89711e-02,4.10650e-02,2.19770e-02,1.06556e-01,8.81458e-03,6.19462e-02,-8.16291e-03,-5.57602e-03,1.11412e-01,-3.36563e-02,-1.30247e-02,3.90163e-02,-1.75901e-02,8.02223e-02,4.81960e-02,5.60149e-02,-6.14767e-03,-2.54756e-02,8.15032e-02,-3.06513e-02,7.76870e-02,2.86348e-02,-4.97882e-02,1.59884e-02,-8.69678e-02,-4.53423e-02,-1.75433e-02,4.09961e-02,-3.48029e-02,-2.52199e-02,-1.57245e-02,-7.61310e-02,1.35744e-01,-8.84355e-02,4.68390e-02,-8.35352e-02,-4.33169e-02,4.29588e-02,-6.50436e-02,-8.01547e-02,-5.81065e-02,3.02552e-02,-6.90152e-02,5.30005e-02,-7.32673e-02,-6.07820e-02,-4.42412e-02,-1.44178e-02,-4.45015e-02,9.13062e-02,1.09177e-02,-2.48227e-02,5.47281e-03,4.24343e-02,6.17597e-02,8.10302e-02,1.09678e-01,-2.93043e-02,7.83394e-02,9.81721e-02,-1.76107e-02,-1.45913e-02,1.01132e-01,-1.76570e-03,5.65824e-02,-2.65173e-02,1.19163e-01,5.34235e-02,6.42973e-02,-1.47287e-02,5.43772e-02,9.92591e-02,6.84539e-02,-4.47488e-02,1.63979e-01,-7.77750e-02,1.10894e-02,-4.00823e-02,6.18801e-02,1.46410e-02,9.28660e-02,5.18393e-02,6.68908e-02,8.26160e-02,3.02597e-02,-7.79997e-02,-5.81029e-02,
3.23556e-02,-7.48641e-02,2.97480e-02,6.55849e-02,-9.23370e-02,-1.98063e-02,8.40533e-02,-9.40995e-02,-3.68928e-02,2.32851e-02,-4.19287e-02,-4.24072e-02,-4.54961e-02,1.00408e-01,-5.50074e-02,-3.70072e-02,-8.14272e-02,5.92295e-02,-1.99077e-02,-3.22398e-02,5.19415e-02,5.68796e-03,3.97842e-02,-5.35532e-03,8.23396e-02,6.11091e-02,2.49450e-02,-1.07480e-01,7.26041e-02,2.74563e-02,9.00739e-02,1.90950e-02,1.30367e-02,1.07271e-01,9.34641e-03,1.09349e-01,2.67962e-02,1.07574e-02,-7.01517e-02,2.91737e-02,-2.14338e-02,-1.91989e-02,6.38972e-02,1.98590e-02,1.09356e-01,1.89845e-02,-6.87282e-02,9.71625e-02,6.67871e-02,9.84637e-02,-6.42144e-02,2.63128e-02,2.27898e-02,7.58117e-02,-1.10420e-01,5.52511e-02,6.64696e-02,-1.89754e-02,6.10380e-02,-1.16983e-01,6.41823e-02,1.69846e-03,7.78314e-02,5.10095e-02,3.32299e-02,3.15568e-02,5.79160e-02,-6.45032e-02,9.29475e-02,-1.51012e-02,5.58227e-02,-8.81616e-02,1.72087e-02,1.60180e-02,-1.90783e-02,2.29920e-02,-1.91049e-03,3.08281e-02,7.54499e-02,4.26526e-02,-8.22290e-02,-1.39709e-02,3.50234e-02,7.69064e-02,7.83892e-02,1.22926e-01,7.51623e-02,3.73040e-02,-5.14100e-02,8.03409e-02,8.95678e-02,-4.68103e-02,2.36979e-02,7.76641e-02,-1.41944e-02,5.04123e-02,4.91079e-02,4.72931e-02,-2.95152e-02,-1.31470e-02,
-1.36177e-01,-5.97902e-02,2.50133e-02,-7.44744e-02,-3.31522e-02,-5.53166e-02,-1.67917e-02,4.56312e-02,3.04623e-02,-4.77655e-02,-4.81429e-03,8.13951e-02,-5.20542e-02,-2.74599e-02,-4.47891e-02,-1.48257e-02,7.52626e-02,1.49537e-02,8.94173e-02,-2.37385e-02,-5.98920e-02,4.75875e-02,-1.33946e-04,-9.95847e-02,1.13041e-01,6.01813e-02,3.10371e-02,-4.89655e-02,2.24739e-02,3.43377e-02,6.66732e-02,3.17385e-02,-2.43003e-02,-7.30533e-02,1.01228e-01,-1.29541e-02,-6.51044e-02,4.42675e-02,-6.06766e-02,-5.48273e-02,7.51086e-04,4.52256e-02,6.06387e-02,-5.62630e-02,7.14753e-02,3.95872e-02,1.09505e-01,1.32804e-02,-5.58883e-02,8.59035e-03,-8.14690e-02,9.50503e-02,4.56154e-02,2.41703e-02,-4.87350e-02,2.45775e-02,2.10120e-02,-4.32605e-02,-5.17140e-02,9.10771e-02,1.49957e-01,5.94304e-02,-8.30679e-02,-1.01314e-01,4.77768e-02,-4.47854e-02,-4.84154e-02,4.74629e-02,-7.58677e-02,5.07040e-02,7.34883e-02,-8.07661e-03,1.28214e-01,-3.15260e-02,-4.91524e-02,2.07638e-02,-2.74359e-02,7.18260e-04,2.89563e-01,-1.86796e-02,-4.55093e-02,5.13922e-02,-2.08152e-02,-1.09523e-01,8.92377e-02,1.88469e-02,5.63353e-02,8.84071e-02,3.81637e-02,-7.78781e-02,-8.35252e-02,-1.76702e-02,-4.99950e-02,1.44318e-02,3.58915e-02,-1.76074e-03,-3.99217e-02,4.42469e-02,-2.45342e-02,-6.85600e-02,
-1.61022e-02,-1.32773e-01,-1.32744e-02,1.45699e-01,3.84535e-02,1.13497e-01,-1.39786e-03,-9.13872e-02,5.97505e-02,-1.28379e-01,-7.01678e-02,-4.93593e-02,1.05447e-02,1.19802e-01,-1.11077e-02,3.92434e-02,-9.30362e-02,3.19521e-02,-7.04586e-02,-3.28788e-02,-1.30514e-02,5.50042e-02,1.74707e-03,8.73297e-03,1.46678e-01,-4.24160e-02,-9.27393e-02,-1.14482e-01,-4.56877e-02,-3.49048e-02,-1.02012e-01,8.13652e-02,7.65802e-02,-1.16026e-01,9.13317e-02,-5.62985e-03,-1.23003e-01,-1.32487e-02,-2.94614e-02,3.15203e-02,-4.13904e-02,1.26475e-01,3.65254e-02,-2.04835e-02,5.59396e-02,-2.27781e-02,-3.84207e-02,5.14411e-02,8.26153e-02,1.02564e-01,2.05255e-01,-9.68634e-02,1.78214e-01,9.42210e-04,-8.37929e-03,7.57354e-02,-8.34510e-02,4.70185e-02,2.27666e-02,4.38631e-02,9.37376e-02,-5.38179e-02,-4.28413e-02,-1.04345e-01,3.73928e-03,8.58045e-02,-1.10370e-02,5.50078e-02,2.01546e-01,8.55432e-02,2.45810e-02,-8.58477e-02,1.62325e-01,2.13611e-02,-5.05003e-02,-1.94130e-02,-4.39923e-02,-1.50507e-02,1.18538e-01,-4.79290e-03,8.26610e-02,-1.14507e-01,-9.96004e-02,2.00573e-02,4.61867e-02,-1.18391e-01,1.14611e-01,7.91063e-02,-1.76129e-02,-2.14072e-02,8.09098e-03,-1.90242e-02,-9.56493e-02,2.88007e-02,-6.95599e-02,-7.97842e-02,-4.83149e-02,-5.02809e-02,-3.45620e-02,-6.46310e-02,
-4.33089e-02,-4.37693e-02,-3.37432e-02,-7.49439e-02,-4.94279e-02,-7.76839e-02,-1.00463e-01,-2.83674e-02,7.52465e-02,8.77071e-02,4.95862e-02,-3.35705e-02,2.34894e-03,-1.11304e-01,5.29326e-02,1.01442e-01,-3.90017e-02,6.29139e-03,-4.88857e-02,-4.05316e-02,1.28503e-01,-1.39292e-02,6.42262e-02,-5.70089e-02,7.69005e-02,6.73695e-02,-2.10423e-02,9.97493e-02,-1.02292e-02,1.44211e-02,-1.71679e-01,1.88119e-03,-3.01277e-02,-6.30220e-02,-3.93412e-02,-4.62565e-02,-1.95806e-02,-7.03144e-02,4.70483e-02,2.66461e-02,3.21900e-02,-2.31921e-02,-3.16980e-02,4.86934e-02,4.21067e-02,3.14002e-02,1.31622e-01,1.15978e-02,2.42799e-01,8.05943e-02,6.38976e-02,-8.13313e-02,-6.75985e-02,-9.77222e-03,-8.36011e-02,1.14822e-01,1.00125e-03,7.73619e-02,3.44147e-02,2.94911e-02,5.64650e-02,-6.65569e-02,2.83152e-02,-3.92624e-02,1.36475e-04,-4.92709e-02,-5.44252e-02,1.33209e-01,1.37940e-01,1.66839e-02,-5.31621e-02,3.88592e-02,2.26901e-02,-5.34581e-02,-6.51470e-02,8.99269e-02,-1.19171e-02,4.42598e-02,-2.16462e-02,-6.19651e-02,1.54187e-01,7.87582e-02,3.60176e-02,2.16130e-02,-7.36866e-04,1.15159e-02,9.39437e-02,4.42902e-03,8.01391e-02,-3.81051e-02,4.38212e-02,3.86453e-02,-5.02209e-03,2.71216e-02,1.69357e-03,4.65992e-02,4.02421e-02,8.43006e-02,3.72231e-02,1.24391e-01,
-2.76266e-02,5.86244e-02,9.58388e-02,8.93680e-02,6.23653e-02,1.47678e-01,-1.15077e-01,-3.01690e-02,4.90974e-02,6.35927e-02,-8.70150e-02,1.57182e-02,-7.78567e-02,-1.30252e-01,-8.01848e-03,-7.41823e-02,-5.30370e-02,4.97802e-02,-5.44382e-03,-3.29468e-02,-7.43344e-03,-6.22576e-02,-7.98938e-02,4.26902e-02,1.72944e-02,-1.17968e-02,-7.97228e-02,8.59513e-02,-4.54834e-02,-6.34583e-02,-2.56778e-02,2.77436e-01,1.13242e-02,7.16958e-03,8.89458e-02,-2.35524e-01,2.20591e-02,-6.42512e-02,-8.81763e-02,-2.18167e-02,-8.83420e-02,7.82153e-04,-2.05621e-02,1.16167e-01,8.96207e-02,2.22403e-03,5.41764e-02,7.00530e-02,2.92902e-01,-3.91125e-02,-1.41998e-02,-3.50160e-02,6.02194e-02,-2.87746e-02,-8.33566e-02,2.99344e-02,-5.58169e-02,-3.69230e-02,6.08071e-02,9.04626e-02,-6.94599e-02,-9.74557e-02,-1.98996e-02,-7.30243e-02,4.25145e-02,7.76039e-02,-7.43960e-02,1.00023e-01,2.90701e-01,-2.81109e-02,-3.65627e-02,-6.90960e-02,1.07982e-01,1.15496e-01,7.69695e-02,-4.79932e-02,-6.41972e-02,-3.69117e-02,-8.98330e-02,-4.41741e-02,1.06401e-02,-1.13113e-01,1.53808e-02,6.50275e-02,1.62073e-01,4.14003e-02,2.34794e-02,-7.83364e-02,-1.16904e-02,1.47752e-02,5.24503e-02,-3.39174e-02,-9.13057e-02,-2.83592e-03,-3.32489e-03,8.30875e-02,4.64919e-02,1.33662e-01,3.05485e-01,-2.83245e-02,
-2.69746e-02,1.31019e-01,1.17810e-02,1.16773e-01,-1.29465e-01,1.49084e-01,2.87512e-02,2.56072e-02,-4.41341e-02,-6.55890e-02,-4.01608e-02,-4.22876e-02,1.79400e-02,1.77539e-01,-5.50748e-02,1.85660e-01,1.34810e-02,-4.86163e-02,1.18181e-01,-5.43549e-02,-2.68704e-02,2.30959e-01,4.48326e-02,-1.54756e-01,7.28260e-02,-1.72960e-01,-5.99542e-02,-3.66355e-02,-5.88057e-02,-3.52962e-02,-1.17681e-01,1.39986e-02,8.43517e-02,5.43980e-02,-1.67700e-03,-8.65312e-02,2.73779e-02,-7.38845e-03,-5.26288e-02,-2.11179e-02,7.98415e-02,8.71704e-02,-1.43101e-01,-1.91076e-01,-5.78313e-02,-9.53552e-02,6.68113e-02,-1.62469e-01,2.01221e-01,1.63642e-02,6.56088e-02,-2.27801e-01,-6.04937e-02,1.52813e-01,-9.54501e-02,5.56121e-02,1.47052e-02,-1.11751e-01,4.05150e-02,-7.19596e-02,-3.42920e-02,1.50762e-01,-1.10706e-01,6.62174e-02,2.84656e-03,7.93652e-02,-4.91914e-02,7.93013e-02,1.22965e-01,-4.72103e-03,1.52918e-01,9.15126e-02,2.66022e-01,5.33313e-02,6.61178e-02,-1.23819e-01,-1.73650e-02,1.35198e-01,1.78315e-01,-4.14320e-02,1.65997e-01,-2.72222e-03,-9.35587e-02,-1.37780e-01,-6.28269e-02,-1.42009e-01,-2.62122e-02,-1.26896e-02,3.33396e-02,1.17613e-01,3.71128e-02,-2.48591e-02,8.28266e-02,-4.22800e-02,8.37184e-02,-1.73385e-02,-9.89283e-02,-2.30732e-02,-5.95717e-01,-8.73604e-02,
2.63993e-02,-8.68356e-03,-2.94439e-02,-1.18466e-01,7.04340e-02,9.78622e-03,-6.17595e-02,-4.11887e-02,-1.27181e-02,-6.19219e-02,-3.75478e-02,-6.67792e-03,-2.91210e-02,-1.24055e-01,1.57181e-02,7.96628e-03,1.59118e-02,3.04037e-03,-3.96783e-02,4.54633e-02,-4.59789e-03,5.35613e-02,-3.74172e-02,-4.65723e-02,7.56275e-03,-4.48528e-03,4.37464e-02,3.97916e-02,7.42400e-02,5.37762e-02,-1.93485e-01,8.09364e-02,2.90856e-02,-3.34527e-02,7.85768e-03,1.00649e-01,8.32906e-02,-8.44223e-03,6.16313e-02,-9.16214e-02,7.66113e-02,6.31066e-02,2.90746e-02,-4.59142e-02,7.04361e-02,1.12294e-01,3.56093e-02,-5.97726e-02,2.38339e-01,1.11253e-01,-2.23684e-02,-1.54017e-01,1.23872e-01,-3.65178e-02,1.30562e-01,8.12923e-03,-1.27384e-02,3.85241e-03,1.05367e-01,4.56598e-02,5.38983e-02,2.99723e-02,4.68101e-02,8.40273e-02,-9.70362e-02,2.29258e-02,2.07208e-02,9.17146e-02,6.95430e-02,-2.78520e-02,9.96898e-03,1.33501e-01,1.15482e-01,-1.74820e-02,-2.38692e-02,-7.45820e-02,-2.78310e-02,3.22801e-02,-4.27802e-02,-4.61642e-02,1.79259e-01,3.14102e-02,-5.45865e-02,6.74994e-02,7.41449e-03,3.68803e-02,8.41570e-02,5.26904e-02,7.08391e-02,-8.22824e-02,-4.31978e-03,5.53875e-02,9.63942e-03,1.03460e-02,-6.09351e-02,-6.06524e-03,-8.58356e-02,-6.36483e-02,-4.71179e-02,-3.18047e-02,
-7.06071e-02,-6.55074e-02,-1.50306e-02,6.90152e-02,-3.50646e-02,-6.14879e-02,3.82772e-02,-3.20682e-02,4.12776e-02,1.32655e-01,6.06108e-02,-9.42172e-02,7.99356e-02,-1.36242e-01,-4.77091e-02,-9.59508e-02,3.66313e-03,-2.96397e-01,-1.14320e-01,-2.61056e-02,5.20010e-02,2.78448e-02,1.33116e-01,6.50555e-02,7.79945e-02,3.96904e-02,-7.93997e-02,1.27771e-01,-1.26238e-01,-5.02704e-03,-4.20354e-02,-3.91191e-02,-1.69053e-01,-1.56782e-01,-7.81848e-02,-2.26712e-02,8.28033e-02,6.19807e-02,-1.06742e-01,-4.88819e-01,-9.13393e-02,-1.57759e-02,1.23099e-01,-7.10531e-03,-2.44761e-02,-8.12745e-02,1.48258e-01,-7.33558e-02,-2.29044e-01,7.63586e-04,9.32365e-02,-7.01980e-02,1.30913e-01,-3.72834e-02,2.49184e-01,-4.05817e-02,2.72631e-02,4.53537e-02,-8.37483e-03,-4.19920e-02,-8.55661e-02,1.38580e-01,6.43250e-02,-1.30905e-01,-7.52641e-02,1.63469e-01,5.88068e-02,-2.04199e-01,-1.60074e-01,-3.56140e-02,3.65205e-02,1.00310e-01,1.21616e-01,-2.21134e-02,1.30031e-01,-9.89784e-02,4.86738e-02,2.27636e-03,-4.92452e-02,-1.86487e-02,-5.76160e-02,2.88377e-02,-2.82093e-01,4.70929e-02,1.04203e-01,1.46762e-01,-1.16913e-01,-6.50318e-02,1.04331e-01,-3.63812e-02,-6.04573e-02,1.03257e-01,6.40132e-03,2.21994e-01,7.78040e-02,2.70144e-02,1.48796e-01,-8.63154e-02,1.53176e-02,4.36822e-02,
-2.09064e-02,-4.97294e-02,-5.30368e-02,-7.78831e-02,2.99355e-02,6.07059e-02,1.12044e-01,1.14537e-02,1.25805e-01,6.67046e-02,8.24260e-02,4.68155e-02,-6.71066e-02,-6.75514e-02,5.52823e-02,1.21233e-01,5.37603e-03,-8.19182e-02,6.03074e-02,2.91512e-02,1.36229e-01,9.88324e-03,3.41992e-02,3.93857e-02,1.17026e-02,-2.57352e-02,3.67930e-02,-2.19428e-02,4.51202e-02,7.45616e-02,1.06783e-01,4.04725e-02,9.34979e-02,1.09257e-01,-2.99185e-02,-5.15211e-02,1.03044e-01,-4.62315e-02,-1.20276e-01,-9.31001e-02,-9.14451e-02,-1.60250e-02,6.43312e-02,1.04207e-02,5.77529e-02,5.31983e-03,1.37146e-01,-1.32088e-02,3.41903e-02,2.37597e-02,-1.71622e-02,8.47193e-02,8.99663e-02,4.86691e-02,-6.69162e-02,1.05256e-02,-4.39508e-02,-4.77061e-02,-3.40236e-02,-5.35085e-03,1.22871e-01,6.18303e-02,2.50845e-02,9.70444e-02,-1.06361e-01,-3.78329e-02,2.22254e-01,1.98078e-02,2.81327e-01,1.99723e-02,1.68854e-02,3.36677e-02,5.35054e-02,7.80359e-02,8.26271e-02,1.50404e-02,6.10777e-02,-1.10023e-01,-3.08548e-02,-2.17966e-02,-9.69811e-02,-8.44407e-03,-1.36282e-01,2.48100e-02,1.06617e-01,9.43187e-03,1.35116e-01,-7.43308e-02,1.50515e-02,-6.54903e-02,-4.89761e-02,5.75887e-02,2.35826e-02,5.65298e-02,-6.54539e-02,-8.64163e-02,1.11231e-02,-2.31813e-02,2.18063e-01,2.92440e-02,
1.07773e-01,6.57138e-02,6.49608e-02,-3.21435e-02,-5.96370e-02,2.54972e-02,-4.43809e-02,-9.56789e-02,-1.16613e-01,1.24030e-01,2.25145e-02,6.39133e-02,7.09383e-03,-2.23257e-02,-4.25071e-02,-5.35985e-02,-5.45347e-03,6.89585e-02,-2.16950e-02,-2.07587e-02,-3.75280e-02,9.92218e-02,1.21541e-01,-2.10828e-02,5.61252e-02,4.58089e-02,1.17137e-01,-8.83434e-02,-4.82059e-03,-4.18522e-02,3.42206e-02,-8.04092e-02,6.54548e-02,1.30372e-02,-1.02152e-01,-3.60322e-02,7.48263e-03,-2.03287e-02,-8.63398e-02,1.88330e-02,4.02653e-02,-5.46760e-02,4.32891e-02,-3.96292e-02,-8.37322e-03,1.03161e-01,1.21918e-01,1.16896e-01,1.31439e-01,1.74178e-02,5.63629e-02,-2.33181e-02,-1.65810e-02,-7.44348e-02,-3.75245e-02,-4.00821e-02,1.57225e-02,-4.52196e-02,-8.51553e-03,-1.42187e-02,5.59677e-02,-1.71970e-01,8.36820e-02,-4.82394e-02,7.12246e-02,2.20169e-02,3.14018e-02,2.87510e-02,1.18640e-02,2.54460e-02,-2.16404e-02,-4.92857e-03,-1.06015e-01,-2.81674e-02,6.85935e-02,3.92670e-02,-4.86322e-02,3.82656e-02,8.56700e-02,4.83429e-02,-4.60103e-02,5.39821e-02,-2.08410e-02,9.00634e-03,2.24247e-02,1.03296e-01,1.69085e-01,-9.98958e-03,5.94933e-02,-3.96776e-02,2.41641e-02,1.62675e-02,-2.07721e-02,1.26481e-01,-6.34936e-02,8.73899e-02,3.59884e-02,-2.17870e-02,2.05924e-02,1.53744e-03,
1.76998e-02,5.98509e-03,1.74520e-02,5.31558e-02,-6.25887e-02,4.45664e-02,-2.14934e-03,-8.14822e-03,7.61482e-02,-2.40212e-02,6.62780e-02,1.05747e-01,-4.83984e-02,4.67422e-02,8.05718e-02,-7.23841e-02,-6.06652e-02,1.21714e-01,-2.86471e-02,8.23560e-02,-4.89706e-02,-5.77581e-02,-2.74749e-02,-7.29643e-02,1.13192e-01,9.49063e-02,1.42875e-02,5.98174e-02,5.29445e-02,-7.92651e-02,1.61974e-02,1.09816e-01,3.66268e-03,4.61011e-03,-1.05913e-01,5.54009e-02,7.31767e-02,-4.15556e-02,-1.34358e-02,4.66895e-02,1.29753e-02,2.32006e-03,-2.25432e-02,1.72933e-02,-2.28900e-02,2.75285e-02,-5.98483e-02,-5.79311e-02,4.78321e-02,-3.22989e-02,-5.83934e-02,-1.02137e-01,6.60464e-02,3.43945e-02,1.15241e-01,9.66464e-02,-1.70979e-02,-7.44457e-02,2.51491e-02,6.36585e-02,1.09969e-02,7.58237e-02,-5.73211e-03,7.61919e-02,-5.64571e-02,1.01635e-01,9.18153e-02,3.45854e-02,1.09672e-01,-1.05208e-01,-2.20075e-02,-2.09402e-02,-2.08932e-02,9.59046e-02,1.03225e-01,1.05612e-01,3.16299e-02,6.49323e-02,1.04722e-01,1.17012e-03,1.01764e-01,5.62917e-02,-4.33182e-02,-2.40122e-02,2.52502e-02,2.51200e-02,-6.98780e-03,3.73228e-02,5.74000e-02,2.78804e-02,1.07340e-01,-2.82001e-02,6.86614e-02,-1.66935e-02,2.61463e-02,2.39891e-02,3.96581e-02,-7.88901e-02,3.85514e-02,4.63140e-02,
-5.67683e-02,4.31457e-02,-2.31921e-02,-5.76478e-02,1.72850e-02,1.19424e-01,-2.09304e-02,-7.57610e-03,2.41108e-04,-2.86447e-02,-1.78385e-02,-7.85504e-02,6.52594e-02,-3.09884e-02,-9.79677e-02,4.18414e-02,4.60307e-02,-1.88440e-02,-1.03465e-01,-7.79476e-02,-1.97441e-02,-6.59502e-02,8.15316e-03,2.27135e-02,4.49809e-02,4.25236e-02,1.20902e-03,7.20614e-02,-2.76623e-02,-2.27083e-02,-1.06337e-01,3.39859e-02,8.69917e-02,3.45362e-02,-2.76364e-02,2.32851e-02,9.37603e-03,5.67045e-02,-2.34880e-03,1.31425e-03,5.47946e-03,5.33813e-02,1.88372e-02,7.54245e-02,1.37900e-02,-4.27088e-03,6.42653e-02,1.32367e-01,6.72144e-02,3.49923e-02,-3.45336e-02,-2.85842e-02,6.00236e-02,1.53829e-02,1.69788e-02,-4.13117e-02,2.83955e-02,-6.04690e-02,3.68426e-03,1.75941e-02,-7.90095e-02,1.23559e-01,-2.63720e-02,2.72444e-03,-5.28835e-02,9.19217e-02,-3.71954e-02,-1.58620e-02,-2.46491e-02,2.44487e-02,-1.84035e-02,1.05691e-02,1.32490e-01,9.11594e-02,2.33316e-02,-8.91167e-02,-7.30723e-02,1.28218e-02,-3.17198e-02,-3.70444e-02,1.03547e-01,-6.21149e-02,1.21456e-01,6.16774e-03,3.80498e-02,-7.41711e-02,-1.36972e-02,1.32369e-02,7.53677e-02,-5.38606e-02,-6.00596e-02,1.08910e-01,6.49797e-02,-3.57595e-02,-9.34846e-02,-6.57053e-02,3.14850e-02,6.76558e-02,5.83701e-03,-2.65793e-02,
8.35488e-02,3.88401e-02,-1.54535e-01,-5.74093e-02,7.09597e-02,-3.18359e-02,-8.84500e-02,-7.85512e-02,-3.48131e-02,-3.51148e-02,3.93399e-02,9.78523e-02,-5.35875e-02,-3.16947e-02,-1.14031e-01,-3.93938e-02,-2.03853e-02,1.60108e-01,6.94587e-03,-1.32362e-01,-3.68737e-02,3.10770e-02,6.81750e-02,-1.03814e-02,-5.82929e-02,-7.19329e-02,5.69924e-02,4.40119e-02,8.66084e-03,2.59709e-03,8.54264e-03,-7.07918e-02,-9.60468e-02,-6.47302e-02,9.82940e-02,6.55276e-03,-6.25864e-02,-9.18966e-02,-2.76485e-02,-1.96111e-03,-8.13192e-02,3.62022e-02,-7.45604e-04,6.58990e-02,-1.71725e-01,3.18207e-02,8.04654e-02,1.50106e-01,-1.65924e-02,4.33884e-02,-4.12920e-02,-7.97350e-02,5.22939e-02,1.24180e-02,3.77310e-02,1.18809e-02,2.77690e-02,9.19578e-03,1.66059e-03,-2.58493e-02,7.73324e-02,8.27661e-02,-2.07254e-02,-1.36192e-01,-3.47168e-02,3.97258e-02,1.64109e-01,5.12666e-02,-2.63357e-02,3.81026e-03,2.28242e-02,3.73782e-02,-2.74552e-02,1.61996e-03,-1.37071e-01,-1.54436e-02,2.90350e-02,-3.01950e-02,2.97373e-02,-3.08769e-02,6.58870e-02,-6.82194e-02,-1.18203e-01,1.12210e-01,1.36125e-02,-1.06863e-01,4.60681e-02,-1.15282e-01,9.76390e-02,3.16964e-02,6.20650e-02,5.89635e-02,-4.87891e-02,1.83178e-01,1.36027e-01,3.00108e-02,-1.23893e-01,1.48613e-02,1.74677e-01,1.44094e-02,
2.87552e-02,7.46081e-02,-7.90000e-02,5.06882e-02,1.61335e-02,6.84545e-02,-3.91202e-03,7.28139e-02,-2.97621e-02,-4.29359e-02,9.46572e-02,3.48279e-02,-8.03875e-02,2.22908e-01,-7.48559e-02,-2.91765e-02,7.92090e-02,5.35165e-02,-5.85991e-02,-2.40665e-02,-1.78425e-02,8.95794e-02,3.51271e-02,-7.05902e-03,6.43900e-02,2.29781e-02,-1.75418e-02,-6.95243e-03,1.29715e-02,-6.04699e-02,5.81737e-02,-5.83552e-02,6.67403e-02,6.03798e-02,-1.68824e-02,3.37230e-02,-7.85842e-02,4.13992e-02,-7.47429e-02,-3.34590e-03,6.15712e-02,6.63268e-02,3.82598e-02,3.96132e-02,-4.94210e-02,7.46117e-02,-1.87463e-02,9.26568e-02,-6.24909e-03,-5.87981e-02,1.43440e-01,3.50855e-02,-4.56434e-02,6.39130e-03,7.18771e-02,-5.55233e-03,1.28437e-01,7.11970e-04,-2.08700e-04,7.83579e-02,2.17905e-02,-1.59227e-02,6.54381e-03,-1.42525e-02,8.95982e-02,-2.60066e-02,1.46217e-01,-4.30950e-02,7.36411e-02,-5.01081e-02,-2.88750e-03,-2.67816e-02,6.86014e-02,-5.60763e-02,9.12054e-02,1.14967e-02,8.65330e-02,-3.13189e-03,-3.19412e-02,9.19972e-02,9.22031e-02,-1.77560e-02,1.26062e-03,-8.75056e-02,3.39375e-03,8.54838e-02,1.50045e-01,4.60510e-02,-5.51677e-02,-4.49210e-02,7.15003e-02,6.19615e-02,-4.99343e-02,-3.04138e-02,8.95556e-02,7.96993e-02,-5.02580e-02,6.11613e-03,-9.83859e-02,4.05711e-02,
-2.39984e-02,3.25856e-02,8.41588e-02,1.18511e-01,-4.37937e-02,6.93273e-02,7.32947e-02,3.83039e-02,-8.89379e-02,3.20201e-02,3.70869e-02,5.59319e-03,-8.74030e-02,1.73680e-02,3.52275e-02,-1.23531e-01,-1.09577e-02,1.24199e-01,-3.44219e-02,1.05279e-01,7.73818e-02,-6.93068e-02,-4.13319e-02,-2.97687e-02,6.36059e-02,9.48036e-02,-1.02237e-01,-5.26960e-02,7.77714e-02,-7.53036e-02,-2.33753e-02,-1.03289e-02,5.09283e-02,1.24953e-01,-3.20906e-02,5.92123e-02,1.06798e-02,7.00691e-02,5.28238e-02,7.63393e-02,3.88046e-02,-1.33821e-03,-3.55622e-02,8.31313e-02,6.18348e-02,-4.72625e-02,-7.45055e-02,-3.12633e-02,6.12565e-02,1.30588e-01,9.84557e-02,-4.11913e-02,4.15145e-02,-4.80446e-03,1.68619e-02,3.81271e-02,6.35990e-02,1.72341e-02,5.37600e-03,4.66135e-02,2.38795e-02,-2.11852e-02,-5.57973e-02,8.15115e-02,-4.21797e-02,-4.81500e-02,-3.55808e-02,1.79027e-02,-8.84954e-02,-1.33169e-02,7.00360e-02,8.52668e-02,2.70848e-03,-1.05580e-02,6.84969e-02,2.15821e-02,-2.41836e-02,-3.43214e-02,-2.40185e-02,-7.93504e-02,-5.01126e-02,-4.72566e-02,4.16885e-03,-4.40480e-02,1.05771e-01,-3.82836e-02,3.68549e-02,1.27838e-02,6.81349e-02,5.28081e-02,1.62348e-02,-1.13898e-02,-5.99207e-02,7.03549e-02,-6.75618e-03,-9.24376e-03,6.65669e-02,2.85524e-02,1.67641e-01,-8.25762e-02,
1.30095e-01,-4.39701e-02,-9.87513e-02,1.04245e-02,2.86822e-02,1.16264e-02,-7.34625e-02,-1.92160e-03,-2.58841e-02,-1.93752e-03,6.32083e-02,-7.13915e-02,3.31151e-02,-1.14033e-01,5.14246e-03,-1.12562e-02,-4.27562e-02,-3.40071e-03,-9.82831e-02,3.62426e-02,1.35982e-01,7.31955e-02,6.67501e-03,7.63673e-02,-6.23499e-02,-6.50815e-02,1.74547e-02,5.24776e-02,3.53243e-02,7.79304e-03,4.83555e-03,1.62220e-02,-1.99358e-02,-4.67513e-02,3.43873e-03,1.05498e-01,1.47909e-01,6.74911e-03,-4.60854e-02,-4.28243e-02,4.65056e-02,2.42684e-02,8.84616e-02,-5.03307e-02,4.95777e-02,-1.68247e-02,-6.31200e-03,3.45391e-02,8.57535e-03,-1.41009e-02,6.01732e-02,9.01247e-02,8.77271e-02,2.26049e-02,6.48314e-02,7.66200e-02,1.34067e-02,-1.02832e-02,1.07903e-01,8.23579e-02,1.97849e-02,-5.22056e-02,-8.64037e-02,1.87662e-01,3.92197e-02,8.22316e-03,7.02864e-02,-4.12131e-02,-8.68031e-03,-6.31316e-02,-3.87127e-02,-5.51220e-02,-6.58075e-02,6.90597e-02,-2.68595e-02,1.03075e-01,-7.74616e-02,-4.27443e-02,1.00861e-01,-1.18377e-01,7.00838e-02,-2.14126e-02,5.67563e-03,8.49675e-02,4.94603e-02,-1.16705e-01,2.47602e-02,1.07778e-02,6.88015e-02,4.28127e-02,-6.35903e-02,-7.77398e-02,-6.91966e-02,1.72899e-01,-5.92414e-02,4.12124e-02,-4.33555e-02,-3.01314e-03,1.25259e-01,8.91538e-02,
-5.10521e-02,-9.50363e-02,-7.49056e-02,2.08526e-02,-4.74124e-02,7.75540e-02,1.11426e-01,1.05726e-01,1.75969e-01,-2.75534e-02,-2.76963e-02,-6.44843e-02,1.21691e-02,-3.58236e-02,-2.39758e-02,1.03008e-01,-4.08062e-02,4.09052e-02,1.95812e-03,-9.98134e-03,4.52593e-02,1.33839e-01,1.28639e-01,-5.44143e-02,4.30561e-02,-3.56917e-03,2.96219e-02,1.80380e-01,6.38266e-03,-3.88387e-03,5.81822e-03,1.01036e-01,-4.20865e-02,1.07021e-01,6.39136e-02,-2.21585e-02,-3.73044e-02,-1.03093e-01,9.86288e-02,-2.96673e-02,4.42746e-02,-1.84004e-02,5.86171e-02,2.00250e-02,6.78899e-02,-1.70579e-02,8.73463e-02,1.04407e-01,2.51609e-01,-6.57420e-03,2.34075e-01,8.28754e-02,1.61196e-01,1.26873e-01,-2.52831e-02,-6.50820e-02,-4.29437e-02,3.53808e-02,2.10774e-02,4.55621e-02,8.00699e-02,1.16571e-01,9.68054e-02,-3.14892e-02,-1.97096e-02,-4.22275e-02,1.18648e-01,4.96461e-02,-5.22734e-02,-5.30851e-02,-4.33761e-02,1.18884e-01,-1.08525e-02,-9.72898e-02,-6.84422e-02,1.04291e-03,3.20469e-02,-4.39416e-02,-1.78193e-02,-2.08216e-02,-9.33693e-02,-4.97005e-02,-1.26634e-01,6.27042e-02,-6.86752e-02,-7.84979e-02,-4.59464e-04,-5.63222e-02,1.17916e-02,-3.51156e-02,5.49515e-02,1.10512e-01,-5.61712e-02,-2.39853e-02,-2.38831e-02,5.59450e-02,5.67019e-02,1.01427e-01,-1.74496e-02,6.62318e-02,
