// Neural Network File Format by Kyle Julian, Stanford 2016
3,6,4,50,
6,50,50,4,
0,
0
0
0
0
3.34730e-01,1.84447e-01,-1.21973e-01,-6.77518e-01,5.80812e-01,4.32299e-01,
1.65148e-01,7.22432e-02,3.85577e-01,-3.87734e-01,-1.17911e-01,8.38003e-04,
1.81793e-01,-5.43851e-02,1.67085e-01,2.57924e-01,5.34993e-02,7.79396e-02,
-4.92265e-02,1.45718e-01,1.93209e-01,9.97239e-02,-3.52071e-01,3.62311e-01,
1.26730e-01,-1.26769e-01,-5.19168e-01,7.07176e-01,-1.07329e-01,1.25994e-01,
6.60926e-02,-1.90334e-01,-2.56649e-01,-1.32061e-01,4.60178e-01,-4.73745e-01,
2.84673e-01,1.89663e-01,-8.64469e-02,5.18694e-01,2.32103e-01,-3.43049e-01,
2.70985e-01,2.26311e-01,1.47344e-01,-2.29677e-01,-5.52031e-01,-4.03570e-01,
-1.76446e-01,-3.18523e-02,6.06654e-01,-1.49901e+00,3.98063e-02,-9.52144e-02,
3.89793e-01,1.19302e-01,9.14208e-03,1.24892e+00,-8.40386e-02,3.70791e-01,
-8.90398e-04,5.29179e-02,5.08964e-01,1.39313e+00,5.91193e-02,7.03738e-02,
1.41655e-01,-2.07609e-01,-8.50090e-02,-6.02493e-02,3.81135e-01,-2.96647e-01,
-8.68702e-02,9.48294e-02,-5.86322e-01,-9.43749e-01,-1.15517e-01,-2.21523e-03,
-1.85217e-01,-3.37793e-02,-6.78082e-01,-5.12380e-01,-3.36252e-02,-1.19982e-01,
-3.39631e-01,2.68898e-01,-6.21113e-02,6.49409e-01,3.04343e-01,-1.16047e-01,
1.67048e-01,1.63747e-01,-1.59299e-01,-1.74716e-01,4.41431e-02,1.84727e-02,
1.01419e-01,-2.77672e-01,-3.97384e-01,-2.41290e-01,-7.41237e-02,1.95048e-02,
-5.16848e-02,5.34495e-02,4.42407e-01,2.04405e-01,2.36457e-02,1.21927e-02,
-5.47668e-03,-1.39238e-05,-4.58276e-01,1.38473e+00,-3.13830e-02,6.36891e-02,
6.85890e-02,1.16990e-01,-4.85349e-01,-6.75824e-01,-1.27311e-02,-7.04097e-03,
-4.17627e-02,-4.25982e-02,-3.94497e-01,1.00454e+00,4.94949e-02,4.41379e-02,
-2.21115e-01,-1.83130e-01,-1.37011e-01,1.88994e-01,4.46630e-01,3.28473e-01,
-1.44402e-01,-8.21425e-02,-6.59058e-02,6.63165e-01,-1.02198e-01,-1.13711e-01,
3.63899e-01,-2.88551e-01,7.12448e-02,-6.98590e-01,-3.26031e-01,1.21155e-01,
2.24353e-01,-7.21444e-02,7.82312e-02,-8.32503e-02,-1.13614e-01,1.36218e-01,
1.51146e-01,-1.64278e-02,6.49329e-01,7.82162e-01,6.72435e-02,6.60808e-02,
9.49107e-03,7.52854e-02,-3.36453e-02,-1.43165e-01,-2.70033e-02,4.74935e-02,
-7.37875e-03,-1.14400e-02,-3.25608e-01,4.83312e-01,-1.11150e-02,1.55756e-02,
-4.61454e-02,1.27724e-01,-1.03395e+00,-1.33082e-01,-1.18547e-01,-4.11315e-02,
6.50459e-02,-1.43213e-01,2.77822e-01,-1.06205e-02,6.78241e-02,-6.40147e-02,
-2.89386e-01,-1.93264e-01,8.70762e-02,-5.26479e-01,-2.36268e-01,3.49694e-01,
-2.10808e-02,8.59080e-03,4.71252e-01,-8.81818e-01,2.44624e-02,-3.50993e-02,
-3.26954e-01,-1.02492e-01,-1.05929e-02,-1.05374e+00,7.35491e-02,-3.12807e-01,
-3.97017e-01,-2.21941e-01,-7.29781e-01,8.87611e-01,2.47251e-01,-6.26616e-04,
-1.98696e-01,3.59126e-01,3.41833e-01,-1.59522e-01,6.92507e-02,-7.16138e-02,
-2.07612e-01,-1.74997e-01,-9.76049e-02,1.73819e-01,4.26493e-01,3.08131e-01,
-2.99152e-01,1.68552e-02,-2.74824e-01,4.27080e-01,9.29280e-02,-9.65410e-02,
6.61112e-02,-2.11995e-02,7.64651e-01,-1.19105e+00,3.69160e-02,-4.35974e-02,
8.02017e-02,1.78464e-01,4.87817e-01,-1.07055e+00,1.77530e-02,-7.24291e-02,
1.65686e-01,-7.54632e-02,-4.73621e-01,1.75856e+00,-1.12258e-01,1.99506e-01,
-1.28728e-01,1.25229e-01,5.22942e-01,-6.82013e-01,1.02165e-01,-1.21827e-01,
2.60282e-01,-1.62697e-01,-6.01226e-01,-3.75489e-01,-1.28344e-01,8.19084e-02,
-4.01308e-01,-2.20038e-01,1.49532e-01,8.12859e-01,-6.93077e-01,-5.15464e-01,
9.32394e-02,-1.00668e-01,6.41321e-01,9.91870e-01,1.24934e-01,4.79829e-05,
-1.79603e-01,-1.85542e-01,2.26962e-01,6.45794e-01,2.68935e-02,6.39203e-03,
4.48704e-03,3.95934e-02,-4.40387e-01,-9.58316e-01,-3.55974e-02,-5.07475e-02,
-1.27518e-01,1.85341e-01,8.67025e-02,5.58223e-02,-3.40213e-01,2.67736e-01,
8.53324e-02,1.69668e-03,-1.79642e-01,-2.05137e-01,1.25351e-02,-8.91324e-02,
2.62730e-02,-6.64018e-02,2.98938e-01,-1.30315e+00,9.62404e-03,-1.38540e-01,
3.13517e-02,3.34500e-02,-3.26085e-01,6.88323e-01,-2.50613e-02,1.29509e-02,
-3.80544e-02,
3.73486e-01,
-1.08779e+00,
-1.11313e-01,
-1.03084e+00,
1.47545e-01,
-3.25193e-01,
3.78033e-02,
-2.14515e+00,
-3.84538e-03,
-7.73057e-02,
-2.05683e-01,
1.21245e+00,
-1.15048e+00,
3.46544e-01,
1.15647e+00,
-1.32239e+00,
1.53618e+00,
9.83969e-01,
1.06901e+00,
-3.72499e-01,
-3.02225e-02,
1.85007e+00,
-3.77522e-01,
3.65912e-01,
1.79118e+00,
1.20222e+00,
1.27648e+00,
-1.77961e+00,
1.91774e+00,
3.29002e-01,
6.91023e-01,
6.57225e-03,
-1.00985e+00,
5.33551e-01,
-2.99298e-02,
6.69699e-01,
1.07645e+00,
-1.53791e-01,
8.11192e-02,
9.95227e-01,
-7.34101e-01,
4.22909e-02,
-1.27883e+00,
1.05077e-01,
1.78843e-02,
1.75542e-01,
1.65117e+00,
-1.49137e+00,
8.98317e-01,
-1.57163e-01,-6.38992e-02,-1.01007e-01,8.33274e-02,4.14878e-01,-1.01153e-01,3.24685e-01,-1.24947e-01,-8.36813e-02,1.04526e-01,-1.38822e-02,-9.51147e-02,-3.85455e-01,-7.24728e-02,5.42102e-02,-5.73653e-02,-1.05615e-01,-1.63145e-01,1.06061e-01,-6.60651e-02,1.65221e-01,1.76987e-02,-1.98000e-01,-2.07078e-02,-6.73554e-02,-2.92017e-01,9.41207e-04,6.08077e-02,1.93018e-01,-1.29283e-01,-3.21713e-01,7.57024e-02,-6.83228e-03,1.55925e-02,7.96169e-03,1.31818e-01,6.94344e-02,-2.10023e-01,3.68309e-03,1.48039e-02,-3.69810e-01,4.82910e-02,1.33645e-01,2.70758e-01,5.51602e-02,-5.07646e-01,1.72305e-01,-1.66235e-01,-2.75364e-01,5.03034e-02,
-1.46622e-02,9.59743e-02,6.80344e-02,1.73657e-02,1.45879e-01,3.93655e-02,-5.97555e-02,1.56623e-01,3.02424e-01,5.13973e-04,1.00301e-01,9.68726e-02,1.87841e-01,1.03505e-01,-1.71697e-02,3.93836e-04,-8.55954e-02,-1.23152e-01,7.69011e-02,1.80555e-01,-1.13691e-01,-1.06570e-01,-7.95451e-03,1.54458e-01,1.02884e-01,4.04486e-02,-2.73044e-03,-1.24785e-01,-4.57656e-02,-9.26170e-02,1.69831e-01,-2.68029e-01,5.64335e-03,-3.52528e-02,1.16130e-01,4.16687e-02,1.38108e-01,1.12411e-01,1.57454e-01,-6.03332e-02,1.03955e-02,4.52187e-02,1.43821e-01,3.99553e-02,5.32285e-02,2.31172e-01,9.70535e-02,1.87866e-03,2.30999e-01,8.93837e-02,
3.13344e-01,-4.69654e-02,-5.41554e-02,-1.33898e-01,-9.65024e-02,1.74181e-01,9.87557e-02,-7.93755e-02,2.78689e-01,-9.43603e-02,6.83437e-02,3.58453e-02,-1.03589e-01,1.53527e-01,1.03480e-01,-7.34881e-02,5.67179e-02,3.93911e-02,2.00695e-01,-1.54888e-02,-7.56379e-02,1.22140e-01,-5.59345e-02,-5.38411e-02,2.47445e-01,-3.99575e-02,9.14449e-03,6.35764e-02,1.15047e-02,-1.61578e-02,-1.36263e-01,1.00428e-01,2.18749e-01,-6.06540e-02,1.70051e-01,9.67284e-03,-9.30065e-02,1.51185e-02,2.46109e-03,-1.63911e-03,5.70403e-02,6.61425e-02,7.76051e-03,-6.71529e-02,1.43399e-01,1.71821e-01,4.66897e-02,1.56806e-01,6.96886e-02,5.80214e-02,
-6.66741e-02,9.45471e-02,1.61530e-01,-4.70764e-03,8.84192e-02,-4.29850e-02,2.04098e-02,-1.68494e-02,2.53332e-02,1.17425e-01,1.45657e-01,-2.30808e-02,1.93057e-02,5.65603e-02,-7.50972e-02,-3.72055e-02,1.25773e-02,8.97104e-02,3.38568e-02,-7.08322e-02,8.41601e-03,-2.12888e-02,1.77896e-01,9.02152e-02,1.46427e-01,4.27316e-02,1.03974e-01,7.42167e-02,1.74709e-01,7.84891e-03,1.06114e-01,5.48765e-02,3.57792e-02,7.59197e-02,8.39351e-02,-1.85126e-01,3.20028e-02,-4.60461e-03,2.30060e-01,1.73115e-01,-1.59661e-01,2.61044e-02,1.86045e-01,-2.19387e-02,1.61516e-01,-5.21205e-02,7.91928e-03,1.44043e-01,-1.26355e-01,7.49134e-02,
1.30941e-01,9.38891e-02,-1.39119e-01,1.28119e-02,-1.51299e-01,1.14069e-01,-1.31806e-01,2.05664e-02,1.55949e-01,-1.91797e-01,-9.88340e-01,-1.02655e-01,2.71746e-01,1.20257e-01,-1.61922e-01,1.08098e-01,8.09437e-02,-3.17278e-01,6.15229e-01,1.76786e-01,-2.61399e-01,1.73049e-02,1.05526e-01,1.46168e-01,1.91618e-02,1.14062e-01,4.45569e-01,6.41843e-04,5.68984e-02,2.11580e-01,7.17519e-02,4.59333e-01,1.30827e-01,-1.50334e-01,2.06839e-02,1.66147e-02,1.80305e-01,3.69080e-01,2.43063e-01,-1.32912e-01,2.76365e-01,-4.94881e-03,-1.07318e-01,-2.67167e-01,1.02125e-02,-4.26083e-01,-2.04442e-02,2.69248e-01,1.01554e-01,2.60467e-01,
-1.49834e-01,5.40937e-02,-8.18056e-02,-1.55504e-01,-1.44366e-01,1.56167e-01,2.03668e-01,2.34127e-01,1.38879e-01,-5.89970e-02,-9.65742e-03,1.37875e-01,2.79011e-02,8.41403e-02,-2.17799e-02,3.17923e-02,1.03344e-01,2.30216e-01,-1.47111e-01,-2.32348e-02,1.19275e-01,-1.23108e-01,-2.87021e-02,5.15480e-02,-4.77532e-03,8.08287e-02,1.64189e-01,4.66381e-02,-2.30196e-02,1.59226e-02,-1.64919e-02,2.64264e-02,3.37659e-02,-7.89546e-02,-5.62855e-02,-1.06722e-01,1.65903e-01,-6.29844e-02,2.11998e-02,1.26232e-01,2.11777e-01,4.06037e-02,6.78314e-02,-1.69610e-01,-7.86282e-03,2.77534e-01,8.91910e-04,1.74938e-01,-7.30437e-02,3.86420e-02,
-2.57297e-01,-1.00316e-01,6.96681e-02,-1.79191e-01,-3.96572e-02,1.16842e-01,7.25984e-02,2.09719e-01,-1.75889e-01,-3.86583e-02,7.42954e-02,-2.22358e-02,-4.25305e-02,-1.30051e-01,1.81795e-01,-1.47433e-02,-8.15039e-02,2.31167e-01,-5.94856e-02,2.20341e-01,-8.83841e-02,-1.61973e-03,-4.35504e-02,5.93519e-02,7.73822e-03,1.80843e-01,-6.52355e-02,5.40479e-02,1.92040e-01,6.24938e-02,-1.50689e-01,2.27688e-01,2.73594e-01,1.63276e-01,1.14673e-01,-1.27982e-01,-9.03909e-02,1.31571e-01,-6.36242e-03,1.77776e-01,-2.46651e-02,-6.02924e-02,2.10809e-01,1.23190e-01,-6.95648e-02,-1.26512e-01,-4.75491e-02,1.19360e-01,6.52397e-02,1.75675e-01,
3.56783e-02,1.65024e-02,-2.52846e-02,-7.15689e-02,-5.06124e-03,-1.87763e-02,-4.09458e-03,8.89365e-03,-3.48090e-02,3.49454e-02,1.33254e-01,4.20353e-02,1.67937e-01,-3.55530e-03,-6.85153e-04,-8.74346e-02,2.32912e-02,2.44526e-02,1.43099e-02,-1.65850e-02,2.74941e-02,1.21541e-01,-6.75262e-02,-1.51124e-02,3.41936e-02,8.73832e-02,3.47511e-02,8.38071e-02,5.45750e-02,-7.44374e-02,-2.15549e-02,-3.24778e-02,-2.34236e-01,1.57178e-01,-2.27860e-02,-5.79645e-02,1.33991e-02,-7.86381e-02,-2.83896e-02,-4.03835e-02,6.65697e-02,6.35547e-02,9.13541e-02,-9.29629e-03,3.68812e-02,5.37470e-02,-8.64818e-02,-1.27797e-01,2.28471e-01,-1.68956e-01,
2.98803e-01,-1.29714e-02,-2.25785e-02,-5.67182e-03,-5.23548e-02,1.27432e-01,1.33974e-01,-1.83776e-01,6.99070e-02,-5.42365e-02,-6.65966e-03,5.79869e-02,2.03342e-03,8.29051e-02,2.58308e-02,1.05045e-01,-2.39706e-02,1.98306e-02,2.73465e-02,6.38207e-02,-1.57940e-03,1.96771e-01,2.11684e-02,-2.19245e-02,1.16883e-01,-7.82209e-03,1.65393e-01,-7.64440e-02,6.50190e-02,1.37975e-01,-1.58534e-01,-6.22300e-02,6.95624e-02,7.35127e-02,-4.46265e-02,1.31114e-01,1.23718e-01,1.24602e-01,1.64513e-01,8.81819e-03,1.30716e-01,1.46199e-01,-8.72901e-02,2.04449e-01,1.42902e-01,3.99032e-02,1.79215e-02,6.80515e-02,-4.24743e-03,6.87611e-03,
1.71066e-01,-1.46339e-01,1.05064e-01,2.58564e-01,9.28798e-02,-1.65793e-01,-7.60759e-02,-1.81989e-01,9.33280e-03,2.01824e-01,3.14361e-01,-1.26346e-01,1.61398e-01,1.03768e-01,2.67833e-02,5.61647e-02,-8.63539e-02,1.68511e-01,1.89924e-01,1.02392e-01,-1.70423e-02,5.55133e-03,-2.21404e-02,1.96896e-01,4.77471e-02,9.68867e-02,3.82503e-03,-5.16601e-02,1.99186e-02,-3.20257e-02,2.41259e-01,-5.54939e-02,6.50606e-02,2.64768e-03,4.19473e-02,6.67543e-02,7.86659e-02,1.45344e-01,-7.82422e-02,6.84627e-02,-1.36119e-01,1.30717e-01,-6.41036e-02,1.49976e-02,-4.12727e-02,-2.68624e-01,1.35550e-01,3.85901e-02,9.10818e-02,1.73436e-01,
4.60258e-02,1.06814e-01,9.08599e-02,-1.13167e-01,-2.41765e-02,1.64619e-01,2.78464e-01,9.12691e-02,-1.48503e-01,-3.06178e-02,-4.08372e-03,9.57688e-02,-6.63232e-02,-1.56693e-02,2.50048e-01,1.00543e-01,6.42486e-02,7.70617e-02,-5.25364e-02,-1.41654e-02,1.18264e-01,-2.26498e-02,1.83556e-01,-8.21895e-02,9.18349e-03,9.04144e-02,-4.91689e-02,7.82863e-02,5.97705e-02,6.56683e-02,-1.66302e-01,1.92731e-01,3.20356e-01,-4.30044e-02,8.32063e-02,-3.50527e-02,1.30120e-01,3.18203e-02,-1.32251e-01,-9.17956e-03,1.87405e-02,4.10178e-02,6.61539e-02,2.47136e-01,6.52843e-05,2.75438e-02,-1.36170e-01,1.07121e-02,-7.61937e-02,1.28445e-02,
7.36494e-02,2.86088e-01,-1.72633e-01,-7.09754e-02,-8.11589e-02,-1.19499e-01,1.76618e-01,-2.51451e-02,1.56941e-01,-1.05667e-02,4.05718e-01,-5.94780e-02,1.43847e-01,1.37610e-01,6.94584e-03,1.33994e-01,-2.67198e-01,-9.59329e-02,3.80579e-01,8.94946e-02,-3.38781e-02,1.64080e-02,1.10305e-01,-5.87144e-02,6.50916e-02,1.03875e-01,-1.88737e-01,1.95266e-01,-7.27016e-02,3.20136e-02,-2.14391e-02,2.34146e-02,-7.44304e-02,1.01730e-01,5.04626e-02,-3.08062e-02,-5.49526e-02,-4.83739e-01,2.74614e-01,7.37947e-03,1.19044e-01,1.09531e-01,-6.10746e-03,6.81775e-02,1.35928e-01,4.83045e-01,-5.08621e-02,2.66512e-01,-5.28289e-02,2.13050e-02,
9.67683e-02,-1.95533e-02,-1.07702e-01,-2.95011e-02,8.10867e-03,7.89053e-02,-1.12781e-01,1.94145e-02,7.71072e-02,-1.13015e-01,-8.37344e-01,1.12285e-01,2.08635e-01,5.18305e-02,-1.05804e-01,2.46362e-01,-9.95971e-03,7.31014e-02,5.22893e-01,-6.79879e-03,-3.01596e-01,1.31765e-02,1.94981e-01,1.25815e-01,7.80692e-02,1.93263e-01,3.50259e-01,1.66999e-01,1.04456e-01,1.24723e-01,8.31182e-02,3.11964e-01,3.85087e-02,-7.50817e-02,-1.52446e-02,2.02299e-02,1.08429e-02,2.29616e-01,5.30539e-02,-1.81266e-01,2.17690e-01,-1.18921e-01,-5.24730e-02,-4.77414e-01,-2.11913e-02,-2.13857e-01,-1.29262e-01,1.91110e-01,-1.03923e-01,1.96183e-01,
-9.13555e-02,7.79731e-02,1.50246e-01,-1.44981e-01,5.55446e-02,5.98134e-02,-5.69139e-02,-2.25045e-02,-1.71440e-01,5.96604e-02,9.13373e-02,2.43877e-02,1.15465e-01,1.21782e-01,-7.81545e-02,1.07366e-01,2.52038e-02,-2.23275e-03,7.07687e-02,-1.81063e-02,-4.06493e-02,-8.88589e-02,4.84947e-02,1.47029e-02,4.14488e-03,2.38657e-01,2.08213e-01,1.15523e-01,-5.17340e-03,5.47097e-02,-3.70907e-03,-2.43817e-01,1.80549e-02,-8.88868e-03,1.92475e-01,5.51718e-02,-1.77117e-02,-1.09806e-01,-3.13574e-01,4.16923e-02,1.30976e-01,9.12111e-02,-3.84426e-02,-8.56572e-02,1.22127e-01,4.44673e-02,9.45901e-02,8.79635e-03,-2.04594e-01,1.13657e-01,
1.96405e-01,-1.11448e-02,2.99789e-02,-1.44681e-02,-5.70158e-02,9.84429e-02,1.44367e-02,-1.21489e-01,-2.20835e-01,1.85469e-02,1.83468e-01,1.74197e-01,-4.64945e-02,1.32539e-01,2.20460e-01,9.32168e-02,3.90093e-02,1.15538e-02,1.96163e-01,8.45313e-03,-1.47990e-01,2.90383e-02,1.16399e-01,-3.23359e-02,1.41905e-02,7.61481e-02,8.04977e-02,-7.20743e-02,9.21218e-02,8.76347e-02,-3.20976e-02,1.96726e-01,7.95005e-03,1.76941e-01,1.63109e-02,2.37318e-01,2.25691e-02,1.31737e-01,3.48555e-02,1.01499e-01,8.92627e-02,-3.74520e-02,-1.52013e-01,1.63016e-01,2.00420e-02,-1.72025e-01,-9.88617e-02,1.15478e-01,1.36574e-01,-1.68354e-02,
-2.38509e-01,-2.37968e-01,-3.08044e-02,2.57480e-02,-3.51455e-02,1.37758e-01,-1.03928e-01,-1.60450e-01,-7.46558e-01,5.45071e-02,8.83541e-02,-1.63493e-01,2.10395e-01,-1.20622e-01,-3.91619e-02,1.06458e-01,1.49554e-01,4.51867e-01,-1.11555e-01,1.58048e-01,-1.69150e-02,1.34977e-01,2.72527e-01,9.86426e-02,1.04888e-01,1.39508e-01,1.37592e-01,1.65819e-01,-1.25882e-02,1.30593e-01,1.39127e-01,-4.86831e-01,-1.24585e-01,-3.51407e-02,2.71531e-02,4.68094e-02,1.34604e-02,5.25450e-02,-1.42459e-01,5.10374e-02,3.14651e-01,-9.52925e-02,1.32459e-01,-6.24429e-02,-3.26277e-02,1.45579e-01,1.22922e-02,3.86918e-01,-3.50578e-01,8.56592e-02,
-3.42193e-02,2.61592e-01,1.69789e-02,-7.72084e-03,-6.72330e-02,4.01405e-02,2.37386e-02,-7.56043e-02,2.65820e-02,-9.64613e-02,-2.08100e-01,-6.19544e-02,-2.06333e-01,-5.96802e-03,9.10529e-02,-1.36107e-02,1.20849e-01,4.36515e-01,-2.48213e-01,-1.15384e-01,-3.88458e-03,4.65062e-02,1.12094e-01,-5.83583e-02,5.78878e-02,8.96351e-02,1.69428e-01,7.56811e-03,2.05183e-01,9.15244e-02,-5.58271e-02,7.67999e-02,-9.06317e-02,8.39067e-02,-3.94675e-03,9.37241e-02,3.42441e-02,-1.19231e-01,4.43368e-02,-1.23310e-01,-1.84460e-02,5.32979e-02,5.16742e-02,-6.10669e-02,-2.42492e-02,-1.89196e-01,7.11721e-02,7.52756e-02,-2.96808e-01,1.06071e-01,
2.36392e-02,1.42855e-01,1.29252e-01,2.90629e-01,1.24650e-01,-1.74971e-01,-1.59388e-01,4.28525e-02,-1.18130e-01,1.79015e-01,1.83532e-01,-2.39785e-02,1.34547e-01,8.57836e-02,-7.13919e-02,-1.33257e-01,2.64461e-02,1.84212e-01,1.97898e-01,7.63789e-02,-5.94303e-02,-1.67588e-02,1.09039e-01,-3.73554e-02,-7.01852e-02,2.91075e-02,1.33184e-02,1.72882e-01,-7.13361e-02,5.04984e-02,1.65767e-01,3.38901e-01,4.83427e-02,-9.03642e-02,4.91500e-02,8.56009e-02,1.23509e-01,1.25069e-01,6.41629e-03,8.78778e-02,-1.42992e-01,1.18536e-01,5.46439e-03,9.02395e-02,9.02227e-02,-3.29165e-01,1.01225e-01,1.11800e-01,9.10424e-02,7.00692e-02,
-1.73623e-01,7.34404e-02,-8.99020e-02,1.93794e-01,-1.37815e-03,-6.98237e-02,-8.11540e-02,1.82500e-01,-2.01214e-01,9.10941e-02,-1.67440e-02,-9.40677e-02,7.58826e-04,6.08938e-02,1.11059e-01,1.27391e-01,5.58677e-02,1.22394e-01,-1.17121e-01,1.88764e-01,2.26384e-01,-1.61965e-01,6.77539e-02,-4.04283e-02,1.01251e-01,1.41952e-01,9.96803e-02,1.96396e-01,-4.33676e-02,1.19226e-01,1.30155e-01,1.90973e-01,2.18638e-04,-2.42121e-02,2.43601e-02,-3.85307e-02,1.99922e-02,6.55861e-02,-1.14937e-01,3.17372e-04,-7.87062e-02,4.87270e-02,3.03175e-01,-1.23948e-01,1.28745e-01,-7.89073e-02,4.19320e-02,3.42028e-02,-1.09665e-02,-6.14648e-02,
8.75033e-02,-5.85596e-03,-1.76775e-04,1.14411e-01,1.65612e-01,-8.86054e-02,-3.83110e-02,-1.19712e-01,1.15253e-02,4.26626e-02,6.57791e-02,1.33011e-01,-1.45512e-01,-7.72024e-02,8.09161e-02,8.11068e-02,-2.46577e-02,2.92284e-01,-3.99418e-02,-1.97912e-01,-1.04811e-02,-8.05270e-02,2.11916e-01,-2.36099e-03,1.15174e-01,2.17173e-01,1.65286e-01,1.31909e-01,-2.41679e-01,1.52142e-01,-1.79216e-02,3.26489e-01,-1.03408e-01,7.41464e-03,1.58409e-01,1.53733e-01,-1.34524e-02,8.24901e-02,1.88456e-01,1.53795e-01,2.80640e-01,-1.41240e-02,-4.14564e-02,1.22514e-01,4.93960e-02,-5.69941e-02,1.35879e-01,-5.43791e-02,1.03893e-01,6.80054e-02,
-1.67959e-01,-2.59177e-01,1.17514e-01,4.97522e-02,4.85384e-02,1.34868e-02,1.59641e-01,-6.82495e-02,-3.75270e-01,2.16887e-01,6.02542e-01,-7.81161e-02,-4.33525e-01,-1.34698e-01,5.62353e-02,-2.70878e-02,1.10668e-01,4.40596e-01,-2.63542e-01,-1.25391e-03,8.88993e-02,-5.83280e-02,-2.15328e-02,-2.11749e-02,-9.05823e-02,1.41558e-01,-3.63392e-02,-2.53140e-01,-1.29171e-01,-1.84516e-01,-1.64527e-01,-2.28586e-01,-2.54907e-01,1.08002e-01,-4.40754e-02,1.52898e-01,-1.31945e-03,3.18915e-02,-9.59556e-02,1.33817e-01,2.70654e-02,-2.31876e-02,1.33026e-01,4.42627e-01,3.62219e-02,-8.53263e-02,8.37898e-03,-4.06522e-01,-1.39336e-01,-4.63147e-02,
4.58827e-02,7.53101e-02,5.92186e-02,-5.63405e-02,-1.22591e-01,-2.96329e-02,1.78707e-01,-1.60798e-01,-6.63053e-02,9.99659e-02,9.82486e-02,1.49148e-02,-1.83053e-01,6.87850e-02,7.40832e-02,2.37958e-02,-6.97867e-02,1.91135e-01,1.54275e-01,8.17274e-02,-4.02330e-02,4.71014e-02,-8.71401e-02,-2.72099e-02,-1.50136e-02,1.89188e-01,-6.57100e-03,1.56053e-01,4.49946e-02,1.25200e-02,8.95020e-02,1.32834e-01,1.54179e-01,8.41818e-03,3.38759e-02,5.00897e-02,6.41011e-02,6.70384e-02,-6.02206e-02,1.41183e-01,-3.72713e-02,7.51146e-02,-1.16357e-02,8.71551e-02,-1.85053e-02,-8.17105e-02,5.58592e-02,1.83466e-01,-1.57019e-01,9.75299e-02,
-2.04627e-02,1.33642e-01,1.84907e-01,1.32716e-01,-1.67213e-02,-3.04365e-03,1.07031e-01,-1.04091e-02,4.19236e-01,-1.21770e-01,-3.47871e-01,2.05626e-02,4.04729e-01,-2.33464e-01,-7.02245e-02,-3.60473e-01,7.99334e-02,-5.53431e-01,-2.57632e-01,6.34015e-01,-2.70813e-03,-6.79649e-02,-4.28225e-02,-3.34171e-02,-6.41478e-02,2.67254e-02,-1.24711e-01,-1.53700e-01,2.80472e-01,-5.20952e-03,-1.24686e-01,-1.04599e-01,-8.34130e-02,-9.04109e-02,-5.41646e-02,5.57210e-02,4.01882e-01,2.45379e-01,3.74548e-02,3.20350e-01,-3.23928e-01,-4.57711e-02,4.29833e-02,1.91932e-01,1.29236e-01,6.13984e-01,-2.21529e-01,-2.51752e-01,-1.43504e-01,-6.69445e-01,
7.17911e-02,-3.63712e-02,-9.33377e-02,4.56660e-02,9.76827e-02,6.24439e-03,-1.95488e-02,1.24825e-02,1.83668e-01,-2.31333e-01,7.26502e-03,-3.40219e-02,1.43096e-02,3.48236e-01,-1.14634e-01,7.15223e-02,2.72509e-01,5.31571e-01,-3.22384e+00,2.39406e-02,-1.22049e-01,1.43916e-01,-1.02242e-01,6.59867e-02,-7.93198e-02,-1.54767e-01,-2.31020e-01,-3.49074e-01,3.76331e-01,-1.59358e-01,2.00475e-02,1.83512e-02,9.42773e-02,1.36383e-01,-2.98735e-01,-1.63043e-01,-5.85333e-02,-4.26295e-01,3.88172e-01,-2.12256e-02,-1.30328e-02,2.16993e-01,-2.87513e-02,-3.33169e-01,-4.27429e-01,2.98426e-01,-4.38778e-02,1.25607e-01,4.38247e-02,-6.64267e-01,
-2.85624e-02,5.82576e-02,1.45902e-02,3.78334e-02,7.88738e-02,4.69409e-02,3.89258e-02,-9.38808e-02,2.96696e-02,-1.66952e-01,2.01921e-02,1.42880e-01,-3.59539e-02,-2.16903e-01,2.09782e-01,1.37611e-01,-3.81699e-02,2.80680e-01,-1.19647e-01,-1.73262e-01,1.30542e-01,-2.92779e-02,1.45401e-01,-8.10158e-02,1.39402e-01,2.28601e-02,2.17130e-01,7.67124e-03,-3.39299e-01,8.28505e-02,-4.09370e-02,2.02621e-01,1.01868e-01,-2.34869e-02,1.49339e-01,-5.18024e-02,-5.88251e-02,2.48459e-02,1.18375e-01,9.58578e-02,1.79526e-01,1.18363e-01,3.29038e-02,2.03171e-01,2.14045e-01,-2.71882e-01,-3.88605e-03,1.16247e-01,2.02348e-02,6.36875e-02,
1.15394e-02,7.03001e-02,-4.53393e-02,1.58084e-02,1.58016e-01,-3.69805e-02,3.01829e-02,-1.65868e-02,4.64454e-01,1.64368e-01,-9.61244e-02,-2.23829e-02,-2.42019e-01,5.50923e-02,-8.22468e-02,1.71477e-01,-1.23731e-01,-2.75524e-01,-1.46146e-01,-1.14917e-01,-2.68973e-02,7.52583e-03,2.72174e-02,7.87862e-02,6.49938e-02,-6.31990e-02,-3.83237e-02,-6.71949e-02,-3.51630e-01,1.93017e-03,-5.06092e-02,1.44597e-01,-1.16414e-01,1.09419e-01,3.93929e-03,-5.08391e-02,-4.18243e-02,-4.11733e-02,-4.41253e-02,1.67846e-02,2.29684e-01,2.68301e-02,2.96365e-02,1.80579e-01,-7.22279e-02,7.82709e-02,7.16665e-02,6.11693e-02,8.51717e-03,1.28161e-01,
-8.81870e-02,1.40265e-01,-1.83162e-02,1.46729e-01,1.66781e-01,-1.13448e-01,-3.71429e-02,5.82612e-02,2.61109e-01,-4.29595e-02,-1.91179e-02,3.44835e-02,1.52663e-01,9.93373e-02,-1.04839e-02,5.58871e-02,6.99704e-02,6.83387e-02,3.67927e-03,2.35611e-02,1.70685e-02,3.56014e-02,3.59946e-02,2.12001e-01,3.05347e-02,2.65618e-02,1.21797e-01,2.28142e-01,1.11700e-01,-5.60457e-02,6.33705e-02,8.93986e-02,-1.20892e-01,3.89683e-02,-4.38054e-02,-8.12220e-02,-6.27237e-02,9.78493e-02,-2.14809e-02,-6.79706e-02,1.34483e-02,1.17639e-01,1.64766e-01,6.55334e-02,-1.37223e-01,3.01788e-01,1.33147e-01,8.29211e-02,8.90671e-02,2.17352e-02,
-4.08608e-02,1.69126e-01,1.32168e-01,1.57720e-01,1.54889e-01,-2.98541e-02,-6.36778e-02,2.07840e-01,3.14826e-01,7.52637e-02,2.20302e-01,7.10044e-02,9.86276e-03,2.85284e-02,-1.50587e-01,-7.17960e-02,-2.60737e-03,-3.75646e-03,1.91948e-01,8.73132e-02,-6.51410e-02,-1.79711e-01,3.23659e-02,2.08164e-01,-4.28590e-02,-1.15152e-01,-3.60361e-02,4.31774e-02,-5.06408e-02,1.77482e-02,5.07024e-05,-1.27254e-01,1.17416e-01,-2.38284e-02,1.41006e-01,1.31017e-02,1.20869e-01,1.33286e-01,-1.68863e-02,-3.59240e-02,4.82715e-02,8.63683e-02,7.11392e-02,-1.40613e-01,1.00908e-01,1.45721e-01,1.49752e-01,1.16471e-01,3.23966e-02,8.87544e-02,
-3.04435e-01,1.57721e-01,6.53782e-02,-7.58584e-02,4.30080e-02,1.15809e-02,1.89483e-01,1.67056e-01,-2.56295e-01,3.77410e-02,7.96656e-04,9.60338e-02,1.44598e-01,4.42063e-02,3.71812e-03,1.68699e-01,-2.68752e-02,1.46517e-01,1.61918e-01,6.18491e-02,1.42673e-01,-4.41081e-03,1.40583e-01,-5.38414e-02,-2.56543e-02,9.51324e-02,7.51552e-02,5.12846e-02,5.73273e-02,1.11170e-01,-1.87520e-01,1.76421e-01,2.73425e-01,4.49935e-02,7.37260e-03,6.14348e-02,9.81640e-02,5.69743e-02,-4.91230e-02,1.28094e-01,2.04593e-02,7.93740e-02,1.22013e-01,5.98295e-03,-8.74273e-02,-1.89302e-01,-1.19407e-01,3.43020e-02,-7.59480e-02,1.03536e-01,
-1.07402e-01,1.36904e-02,-3.20151e-02,-2.84036e-02,3.98241e-01,2.51753e-02,7.94278e-02,-3.32433e-02,3.88747e-01,9.90662e-02,1.85999e-01,1.54800e-02,1.35132e-02,1.82044e-01,9.56912e-02,-1.01432e-01,7.91546e-02,2.06338e-01,-7.82387e-02,1.24085e-01,1.81820e-01,5.00899e-02,-9.87516e-02,-1.03400e-01,-1.11064e-01,-2.18856e-01,-3.02974e-02,1.29338e-01,1.85586e-01,-1.48310e-01,-9.63537e-02,1.79408e-01,-1.84690e-01,1.03851e-01,-1.75952e-02,-6.51496e-02,-1.01921e-01,-8.57337e-01,1.85743e-01,1.69674e-01,-3.08469e-01,2.87868e-02,9.46731e-02,-3.15342e-02,-4.62546e-02,-5.38833e-02,-1.35574e-02,-7.59718e-02,-2.58077e-01,-1.89229e-02,
2.26799e-01,2.54744e-01,-5.17530e-02,-4.50197e-02,1.31431e-01,2.19865e-03,-6.75683e-02,-1.38607e-01,2.02747e-02,-6.54154e-02,-2.29026e-01,4.38098e-02,-2.00873e-01,-7.59169e-02,-3.71898e-02,-2.64399e-02,-2.76397e-02,2.80791e-01,-2.28429e-01,8.45434e-02,2.58258e-01,2.57590e-01,2.82595e-01,-1.22222e-01,-4.59369e-04,4.52186e-02,1.01679e-01,2.94279e-01,-1.58837e-02,-3.60076e-03,4.57789e-02,1.54084e-01,-1.19709e-01,-7.21450e-02,-2.99007e-02,2.20051e-01,-1.05674e-01,4.96432e-02,1.53843e-01,2.41996e-02,4.03739e-02,-8.95071e-02,-7.13953e-02,8.12978e-02,2.30968e-02,4.18443e-01,-5.94030e-02,7.35677e-02,-9.57335e-02,7.24377e-02,
-5.85960e-02,-6.61570e-02,-3.37727e-02,-1.38635e-02,1.93665e-01,1.74269e-02,3.41741e-02,-1.41083e-02,-1.83575e+00,1.91247e-02,3.37711e-01,-1.36981e-02,7.42421e-02,6.24977e-02,5.19957e-04,9.90266e-02,1.28780e-02,1.72757e-01,7.04670e-01,1.06867e-01,2.13762e-01,-4.07153e-02,-1.75690e-02,3.38713e-02,-1.55086e-02,-2.63952e-01,1.82196e-02,-1.20149e-01,-7.91130e-02,-7.30499e-02,-5.94743e-02,-7.89283e-01,-5.78689e-02,9.53717e-02,2.49708e-03,1.09985e-01,2.26785e-02,2.49643e-01,-6.20846e-02,-4.19213e-02,-2.24699e-01,-2.47567e-02,5.93331e-02,7.55899e-02,1.27297e-03,-1.67537e-01,3.36052e-02,-9.97098e-02,7.99343e-03,2.07529e-01,
2.79125e-01,2.38985e-01,2.05714e-01,2.18279e-02,-8.20680e-02,8.75231e-02,-1.34417e-01,1.91160e-01,4.75301e-01,-4.07203e-01,-7.12967e-01,-8.50807e-02,-7.19165e-02,5.66053e-02,-1.03601e-01,2.21183e-02,8.11406e-02,-9.44252e-02,-5.85058e-01,-2.58104e-01,-1.65325e-01,-1.06252e-01,-1.19834e-01,-5.25020e-02,-5.09853e-02,2.49757e-02,6.88370e-03,1.09338e-01,4.70226e-01,-1.05351e-01,9.16381e-02,4.24768e-01,2.60325e-01,-4.93221e-02,-9.35419e-02,-1.87588e-01,2.02522e-01,1.11061e-01,2.26167e-01,1.22256e-01,1.88014e-02,1.79469e-01,-2.11137e-01,-1.79989e-01,-1.83880e-01,-1.71109e-01,-1.39298e-01,-3.06946e-01,3.24471e-01,-5.87415e-01,
1.76208e-02,1.29119e-01,2.26130e-02,1.95318e-01,2.04530e-02,-1.69763e-01,-1.45553e-01,-1.95669e-01,-1.28997e-01,1.52654e-01,-1.20012e-02,5.62242e-02,1.60756e-01,-8.25388e-02,1.52501e-01,1.43719e-01,9.39752e-02,3.83502e-01,-8.09773e-02,1.42977e-02,2.10101e-01,1.18169e-01,1.39128e-01,2.92971e-02,-1.83494e-01,1.05237e-01,1.94450e-02,1.68842e-01,1.65591e-02,-8.95503e-02,5.50917e-02,1.85894e-01,2.94462e-03,-7.64425e-02,-8.04795e-02,2.04769e-01,1.43201e-01,1.09706e-01,-2.22649e-02,1.75058e-01,7.13935e-02,6.86714e-03,-1.36286e-01,7.66226e-02,1.04186e-02,-1.54923e-01,9.34215e-02,5.08755e-02,-1.34192e-01,1.29296e-01,
-9.31058e-02,-1.21869e-01,8.70064e-02,-4.95321e-02,-4.48859e-02,1.16067e-01,1.10502e-01,1.44001e-01,6.46757e-02,-1.57517e-01,1.09980e-01,1.72101e-01,7.87504e-02,1.09733e-01,-1.65758e-02,-3.92019e-02,4.49216e-02,-8.61650e-02,3.29027e-01,7.31507e-02,5.03778e-02,-1.71007e-01,1.26227e-01,7.83139e-03,7.85595e-02,1.03549e-01,-3.75145e-03,-1.48585e-01,1.27583e-01,-2.82135e-02,-1.38653e-01,-1.24292e-02,1.17798e-01,5.00908e-02,5.74301e-02,-3.30223e-02,7.44976e-02,1.24903e-01,3.76531e-02,-1.25046e-01,1.61162e-01,4.08567e-02,2.03755e-01,1.05849e-01,6.60156e-02,-1.01659e-01,-1.35106e-02,1.27376e-01,4.42737e-02,3.88066e-02,
-1.38609e-01,-4.81165e-02,9.02049e-02,-6.82687e-02,-4.55144e-02,-5.83821e-03,-3.21357e-02,-6.01541e-02,-4.74273e-01,-2.36297e-02,5.06370e-01,4.64020e-02,3.50395e-01,-2.79654e-01,3.72258e-02,-2.04843e-02,-6.10514e-02,1.03062e-01,-4.04652e-01,1.94101e-01,5.20815e-02,-5.39808e-02,-7.18200e-03,-4.92353e-02,-1.25887e-02,2.27688e-01,2.62196e-01,1.06513e-01,4.79929e-02,7.61167e-02,2.80310e-03,-2.50325e-01,6.52113e-02,1.16545e-01,-1.74227e-02,1.27409e-01,-1.08197e-02,9.14806e-02,-1.51925e-01,1.19118e-01,-9.30378e-02,-6.10331e-03,1.50379e-01,1.11157e-01,2.68145e-02,-2.73969e-01,7.41422e-03,7.62431e-02,-3.33743e-01,5.43012e-02,
-5.37985e-02,-2.19028e-02,1.26183e-01,1.59008e-01,9.50397e-03,-1.52053e-02,-1.34932e-01,2.84155e-01,-2.78181e-02,2.65569e-02,8.12418e-02,-1.35901e-01,1.05326e-01,-1.67741e-02,-6.44560e-02,8.93522e-02,-4.20904e-02,3.46966e-02,2.45638e-01,-1.50564e-02,-6.97480e-03,6.65957e-02,5.00316e-02,1.24468e-01,5.93535e-02,5.76314e-02,1.46516e-02,-1.64507e-01,2.12347e-02,1.34053e-01,2.80480e-01,6.52972e-02,-5.31866e-02,-2.24427e-02,1.20294e-02,-9.54135e-02,1.07620e-01,9.94419e-02,5.91871e-02,-4.08875e-02,-1.24513e-01,6.79908e-02,1.73580e-01,-6.40497e-02,8.60125e-02,-1.64948e-02,2.64421e-01,4.61543e-03,1.85757e-02,-3.12564e-02,
8.22548e-02,1.73042e-01,-1.65812e-01,1.00163e-02,1.57414e-01,6.52574e-02,1.10287e-02,1.28233e-01,3.21841e-01,-6.80502e-03,-1.00425e-01,-1.28536e-01,1.84056e-01,8.28258e-02,-4.93596e-02,2.05190e-01,4.83153e-02,1.85148e-02,-1.78810e-01,1.10729e-01,1.04366e-01,-5.92446e-02,1.43860e-01,7.61746e-02,3.08863e-02,2.21017e-02,-1.27537e-01,3.25315e-01,2.87527e-02,-4.86671e-02,-2.72826e-02,-1.15466e-01,-4.14403e-02,6.93232e-02,-3.89800e-02,3.20015e-03,-1.55675e-02,1.04391e-01,5.59964e-02,1.53263e-01,-3.30372e-02,1.64764e-01,1.28764e-01,-2.13431e-01,-1.20435e-01,2.21466e-01,5.23282e-02,6.21042e-02,-1.12718e-01,8.39906e-02,
3.25248e-02,1.53689e-01,-1.62384e-01,-1.09712e-01,-6.91432e-02,1.18728e-01,-4.98966e-02,-4.70256e-02,2.34726e-02,-9.96425e-02,7.60564e-02,8.07880e-02,1.41819e-01,2.29780e-01,-1.44962e-01,2.72426e-02,1.17015e-01,3.59588e-01,-5.93580e-01,1.95259e-01,-3.15462e-01,-3.57255e-02,-5.31209e-02,8.66610e-03,9.03221e-03,9.88135e-02,5.04997e-02,-3.15988e-02,-1.93315e-01,5.80430e-02,3.62270e-02,2.79035e-01,1.30979e-01,1.65507e-02,-2.36423e-02,7.18108e-02,-1.32545e-01,1.74895e-01,-6.70999e-02,-9.24561e-02,2.41459e-01,7.55740e-02,-4.98076e-02,-9.89691e-02,-4.00267e-03,1.25352e-01,-9.05904e-02,2.64861e-02,6.16668e-02,-3.03421e-02,
2.38033e-02,1.12357e-01,-4.31721e-02,1.79516e-01,-8.84302e-03,-2.17030e-01,-2.05506e-01,1.61280e-01,-1.12125e-01,1.56069e-01,1.18072e-03,-7.79119e-02,5.39864e-02,4.19178e-02,-8.15507e-03,5.18109e-02,1.46086e-01,3.95139e-02,4.18766e-03,-3.45498e-03,3.66966e-02,-8.60278e-02,-3.29385e-02,1.02383e-01,9.43719e-02,5.00242e-02,5.54237e-02,7.48469e-02,1.39008e-01,-3.19620e-03,1.30571e-01,1.11255e-01,-1.47054e-02,1.01949e-01,1.52407e-01,8.71605e-02,-2.49978e-02,4.26680e-02,1.01927e-01,1.21362e-01,-5.22194e-02,-2.96398e-02,1.61216e-02,-4.14695e-02,1.10913e-01,2.61266e-01,3.06757e-02,1.62232e-01,6.50055e-02,5.31235e-02,
8.45376e-02,5.15723e-02,9.04510e-02,-1.76524e-01,-3.54356e-01,1.25125e-01,-6.51601e-02,1.36916e-01,2.16580e-01,5.35463e-02,-1.41309e-01,-1.17169e-01,1.85888e-01,-1.73496e-01,-5.17239e-02,1.92837e-01,-7.17664e-02,2.50174e-01,6.74547e-04,2.21554e-01,-7.10662e-02,-1.22941e-01,9.95061e-02,-3.97181e-02,7.74678e-02,2.02107e-01,-5.19939e-03,2.39965e-01,-1.00615e-02,3.41009e-01,1.89357e-01,-1.35170e-01,1.55292e-01,-1.58947e-01,8.54719e-02,1.68428e-02,8.69774e-02,5.20339e-01,8.12485e-02,-1.07149e-01,-2.14662e-02,-2.18470e-01,-1.56339e-01,-9.55661e-02,-4.62361e-03,2.84965e-01,-6.90288e-02,1.27142e-01,6.09036e-02,3.22003e-02,
-2.54053e-02,1.94661e-01,-1.72346e-01,-6.16758e-02,-1.31651e-01,6.30570e-02,-2.13525e-02,-6.91837e-02,2.97253e-01,9.62221e-02,2.33622e-01,3.26942e-02,-1.72832e-01,4.07519e-01,9.25538e-03,7.69164e-02,7.10647e-02,9.83624e-02,1.30432e-01,-2.87384e-01,2.07719e-01,-4.74997e-02,9.47417e-02,-2.33659e-02,-5.68890e-02,-1.26021e-01,8.57892e-02,1.43981e-01,-1.17688e-01,1.09012e-01,1.03554e-02,-8.17348e-02,2.39646e-01,4.90342e-02,-2.70291e-02,5.19488e-03,-9.25336e-02,3.49296e-01,1.91524e-01,-1.08669e-01,2.03839e-01,-4.57400e-02,-6.05662e-02,-3.43579e-01,-4.21431e-02,9.52526e-02,9.03142e-02,-8.07958e-02,3.15540e-01,4.61331e-02,
2.09295e-01,3.63990e-02,3.36828e-02,2.01005e-01,-8.23865e-02,-4.29662e-02,-1.67653e-01,-1.62832e-01,1.04083e-01,1.31370e-01,-1.92929e-01,-1.26451e-01,9.10042e-02,-1.14883e-02,-3.52873e-02,1.53118e-01,-5.71677e-02,2.09341e-02,-2.64113e-02,2.68303e-02,2.56517e-01,2.37755e-01,4.25438e-02,1.50637e-01,1.11984e-01,4.87515e-02,5.06427e-02,1.58193e-01,6.38250e-02,1.34660e-01,1.72163e-01,5.86802e-02,-1.38300e-01,5.17287e-02,1.07449e-01,1.12046e-01,1.28624e-02,-7.32000e-02,2.90541e-02,-2.78371e-02,4.59665e-02,1.13751e-01,-1.04932e-01,-1.13607e-01,-1.35578e-02,2.76365e-01,1.42815e-01,-1.62056e-03,5.11483e-04,5.40074e-02,
3.19657e-01,1.19689e-01,1.11824e-01,6.34800e-02,1.99734e-02,-3.46526e-02,1.02490e-01,-2.53473e-01,2.04435e-01,-7.84938e-02,1.93424e-01,1.15289e-02,-7.38321e-02,1.86416e-02,9.26489e-02,1.29718e-01,7.12004e-02,-7.89576e-02,1.26153e-01,9.58522e-02,1.35247e-01,2.03780e-01,1.14999e-01,5.35262e-02,-5.81533e-02,4.15191e-02,6.57721e-02,1.22891e-01,3.78892e-02,1.18912e-01,4.55279e-02,-1.74094e-02,1.46251e-01,4.48393e-02,1.41226e-01,1.27630e-01,3.79582e-02,1.11082e-01,-3.60401e-02,7.43315e-02,-1.38758e-02,1.47418e-01,-1.94167e-01,-1.34308e-03,-5.79809e-02,1.00602e-01,-6.69093e-02,7.94534e-03,5.05357e-02,6.54532e-02,
1.57881e-01,6.19370e-02,1.17672e-01,1.30191e-01,7.15940e-02,-6.01400e-02,-7.80635e-02,-1.19748e-01,-1.04015e-01,7.64138e-02,3.79202e-02,-5.42795e-02,-1.33249e-02,1.20767e-02,3.45593e-02,-1.29442e-02,1.43652e-01,1.58186e-02,-1.30367e-01,2.46583e-01,2.05133e-02,2.61777e-01,1.30960e-01,-2.09865e-02,5.27414e-02,8.57023e-02,-5.23912e-02,-5.96856e-02,1.54095e-01,-6.34623e-02,2.70351e-01,1.33868e-01,-5.75639e-03,4.56374e-02,-1.01650e-02,1.41255e-01,1.30026e-01,-5.73034e-03,-1.12816e-01,-2.35858e-02,-4.63777e-03,-4.05636e-02,-7.01463e-02,3.16364e-02,2.51082e-02,7.12169e-02,-2.99523e-02,4.73702e-02,-3.26416e-02,1.58676e-01,
3.75388e-02,4.75401e-02,1.29031e-01,-7.04092e-02,5.84828e-02,1.26906e-01,7.23632e-02,1.17653e-01,-1.42818e-01,-2.15567e-01,-9.15615e-02,-9.30457e-02,1.48847e-01,-9.86544e-02,5.69262e-04,1.71980e-01,2.97101e-02,2.02526e-01,4.47600e-02,-3.68144e-02,1.91796e-01,-1.60501e-01,9.47221e-02,8.07617e-02,-1.28293e-01,7.00787e-02,-3.55626e-02,2.72946e-01,-8.96273e-02,-1.03914e-03,1.50618e-02,3.62891e-01,-3.30259e-02,3.97675e-02,-3.13141e-02,7.19387e-02,-3.55720e-02,-6.57801e-02,4.29171e-02,4.65384e-02,-1.15834e-01,1.00969e-02,2.57156e-01,-6.28482e-02,-3.40883e-02,1.17422e-01,-1.44487e-01,6.86616e-02,8.10755e-02,-3.51914e-02,
1.09064e-01,1.18822e-01,1.65729e-01,-8.15433e-02,-1.76297e-01,8.06893e-02,-4.35307e-02,1.12933e-01,-3.11902e-02,-3.68111e-02,4.71500e-02,-5.97937e-02,4.60727e-02,-4.86672e-01,-7.01331e-02,-4.88389e-02,4.28858e-02,2.91456e-01,-6.61388e-01,-1.06365e-01,4.65143e-01,-6.94637e-02,1.36173e-01,3.45364e-02,-2.08231e-02,-1.25993e-01,2.51146e-02,4.01142e-01,-2.20267e-01,8.82327e-02,1.16091e-01,-6.87823e-02,1.53173e-01,-6.10140e-02,5.54664e-02,-2.78002e-02,7.05138e-02,5.22838e-02,-4.62661e-02,3.33735e-01,1.09880e-01,-2.19112e-01,-9.86946e-02,-2.54867e-01,-6.66049e-02,-7.80790e-02,1.44963e-02,4.81022e-02,-2.17105e-01,-2.96137e-01,
7.01579e-02,-3.65672e-01,1.99555e-01,1.77332e-01,1.76925e-02,-1.11208e-01,9.21829e-02,8.18898e-02,-5.87533e-02,-6.29590e-01,-2.97588e-02,9.26504e-02,-1.37872e-01,3.23180e-01,-1.12781e-01,5.32815e-01,-3.23336e-02,-6.22245e-01,-2.91683e-01,-1.01040e-01,-3.96556e-01,-3.11423e-02,-7.93967e-01,2.16644e-01,-3.64599e-02,-9.64096e-01,7.38534e-02,-5.05752e-01,5.48404e-01,-1.50974e-02,9.65165e-02,-8.95827e-01,4.23604e-01,-2.79950e-02,5.58903e-02,-4.11542e-02,1.79854e-01,1.65197e-01,4.95496e-01,-4.25300e-01,-2.77526e-01,1.05392e-01,-2.16768e-02,1.42179e-02,-1.91824e-01,-2.05881e-01,-8.70963e-02,-4.91775e-01,6.42636e-01,-1.28425e+00,
8.54281e-03,1.46858e-01,1.08460e-01,-2.28777e-01,-1.52737e-02,2.01031e-01,1.77535e-01,2.76743e-01,1.22862e-01,-9.29891e-02,8.07130e-02,1.74975e-01,7.75650e-02,6.32755e-02,2.30997e-01,4.33084e-02,6.90459e-02,-2.24379e-02,7.52284e-02,1.76897e-01,5.87100e-02,5.55255e-02,2.40899e-02,-6.68505e-02,-5.27184e-02,-3.11021e-02,5.60402e-02,2.17166e-01,2.89076e-02,-4.54786e-02,-9.97877e-02,-2.80581e-02,9.91878e-02,-7.64864e-02,-7.13886e-03,4.95097e-03,1.69755e-01,1.32362e-01,1.04946e-01,2.30122e-02,1.04553e-02,1.76384e-01,-6.96252e-03,1.02707e-01,8.12602e-02,2.20124e-01,-8.08336e-02,1.24555e-02,1.93432e-01,6.13906e-02,
2.24083e-01,1.15767e-01,9.65904e-02,-6.15177e-02,-1.09704e-01,3.03822e-02,1.40096e-01,-1.78008e-01,2.50134e-01,-4.53238e-02,2.62380e-02,-3.23636e-02,6.98291e-02,-6.16463e-02,5.89679e-02,4.78617e-03,-2.57011e-02,9.45370e-02,-9.56105e-02,1.42770e-01,1.26210e-01,8.62902e-02,-1.29329e-01,4.41367e-02,-5.70377e-02,3.31637e-02,1.61751e-01,2.13449e-01,-1.03410e-01,4.89937e-02,-1.21724e-01,-2.25930e-02,1.22019e-01,2.39059e-02,-3.55560e-02,1.67131e-01,1.42247e-01,4.09041e-02,9.46878e-02,-2.35522e-03,6.94832e-02,-1.31118e-02,9.62487e-04,-6.03659e-02,-1.09797e-02,1.49124e-01,-6.67275e-02,2.70349e-01,8.03888e-02,-4.46465e-02,
-5.59264e-01,
-9.54842e-02,
-3.54751e-02,
8.90603e-02,
4.33727e-01,
1.50444e-01,
1.26208e-01,
1.94614e-01,
2.84093e-03,
1.12566e-01,
2.01770e-01,
1.40806e-01,
4.27548e-01,
1.23727e-01,
9.29376e-03,
5.47961e-01,
2.43687e-01,
-3.89419e-03,
7.87832e-02,
1.97519e-01,
-6.68485e-01,
1.83912e-01,
-4.41896e-01,
-8.47125e-01,
2.94933e-01,
-1.18240e-01,
-6.00414e-02,
-3.54713e-02,
7.89465e-02,
-4.99404e-01,
1.85571e-01,
-9.89251e-02,
-8.96881e-01,
1.03470e-01,
-3.84971e-02,
3.99227e-01,
-4.88227e-02,
1.47755e-01,
4.24394e-01,
2.86709e-01,
4.20937e-01,
6.41581e-02,
1.71671e-01,
5.75002e-02,
-3.64594e-02,
5.03188e-02,
1.46747e-01,
-1.36742e+00,
1.39110e-01,
7.63464e-02,
4.40681e-01,-1.51005e-01,-7.06435e-02,3.03732e-02,-3.73263e-01,9.62558e-02,8.43237e-02,-4.83639e-02,-3.91295e-02,-5.35147e-02,9.55007e-02,-3.22096e-01,-1.99840e-01,-1.58223e-01,5.42427e-03,-1.02814e-01,2.34515e-01,9.45189e-02,1.65686e-01,2.46433e-01,-5.81614e-01,1.03646e-01,7.64096e-01,8.27844e-01,2.15820e-01,9.79701e-02,-4.96813e-02,-1.02766e-01,7.60109e-02,1.05682e+00,1.71677e-01,-5.99565e-02,-5.26766e-01,1.42947e-01,-7.54727e-02,-3.35693e-01,-2.81947e-02,2.39157e-02,2.49392e-01,6.24475e-02,3.26438e-01,-1.69118e-01,1.36697e-02,-7.06550e-02,1.65461e-02,1.44803e-01,-5.07583e-01,-1.79627e+00,-1.03535e-01,1.15566e-02,
9.95380e-01,7.73263e-02,7.99913e-02,-4.63360e-02,-2.98151e-01,8.48665e-02,-1.05233e-01,1.02829e-01,3.10942e-02,-1.22838e-01,-8.96574e-02,-1.11930e-01,-4.24012e-01,1.12272e-01,-1.62059e-01,4.23182e-01,-2.97465e-02,-1.72177e-01,-2.65762e-02,3.09410e-02,2.20416e-01,-1.11394e-01,3.14216e-01,-1.05288e+00,-1.06403e-01,1.85785e-01,1.50227e-01,1.71058e-02,-1.18704e-01,1.01178e-01,9.67093e-02,-5.55124e-01,-9.80323e-02,-5.04554e-02,-5.20380e-02,3.55266e-01,-5.55445e-02,1.58669e-01,-1.80844e-01,1.81948e-02,3.50222e-01,3.93678e-01,1.38704e-01,4.82675e-02,-3.57687e-02,1.82905e-02,-3.46173e-01,-1.32284e-01,1.47784e-01,1.18485e-01,
5.82050e-03,-1.33539e-01,2.76705e-01,-1.81657e-01,-7.45217e-04,-9.68014e-02,-6.66657e-02,2.17637e-02,2.51481e-01,-8.33688e-02,1.82433e-01,2.51950e-03,2.93992e-03,-2.56781e-03,2.56439e-01,4.67842e-03,4.94560e-03,-1.57139e-01,-2.43299e-01,5.29501e-02,7.12434e-04,1.92044e-01,-8.07977e-03,6.71858e-03,2.53462e-02,-1.12476e-02,-2.11308e-01,-2.15584e-01,-1.90523e-02,-1.25377e-03,1.39712e-01,-9.49738e-04,-4.72656e-03,1.73871e-02,-1.54610e-03,1.57219e-02,-2.74258e-01,-1.72900e-01,2.75349e-03,-2.10533e-01,-2.11614e-02,9.41023e-03,4.25924e-02,2.48069e-01,5.74686e-02,-1.20974e-01,-6.40081e-03,-9.29707e-03,1.98213e-01,1.75812e-01,
1.80584e-03,-2.87707e-02,-1.18990e-01,-9.38883e-02,1.13503e-03,-2.40322e-01,-2.79378e-01,2.39699e-04,8.63695e-02,2.45285e-01,-2.87592e-01,-6.40513e-03,-7.80472e-04,-6.25017e-03,5.01430e-02,1.98041e-02,-1.99596e-03,2.40759e-01,-3.83009e-02,1.31152e-01,6.50019e-04,4.23197e-02,4.17707e-03,-1.89152e-03,-1.40566e-01,4.87533e-03,6.63342e-02,-3.82218e-02,-2.96103e-01,-1.86919e-03,8.92610e-02,5.78835e-03,6.38689e-03,2.17448e-01,-2.28080e-01,-1.62712e-02,1.38377e-01,-3.85013e-02,-2.93237e-03,2.26171e-01,-1.16428e-02,-5.58745e-02,3.26660e-01,1.38755e-01,1.79208e-01,-1.47412e-01,4.37776e-03,-8.20786e-03,-2.60372e-01,5.77429e-03,
6.83683e-02,
1.36048e-01,
2.68794e-04,
6.02954e-02,
