// Neural Network File Format by Kyle Julian, Stanford 2016
3,6,4,100,
6,100,100,4,
0,
0
0
0
0
-1.33139e-01,-2.53300e-01,7.55847e-01,8.87875e-02,-4.52661e-03,1.93427e-01,
-1.52441e-01,-2.33614e-01,-4.58854e-01,3.26765e-03,-5.17843e-02,3.66379e-02,
-1.84801e-01,7.12641e-02,-6.83513e-02,8.85358e-02,2.22909e-01,2.54384e-01,
-3.19684e-01,1.58768e-01,5.63017e-01,6.39895e-01,3.58676e-02,5.80881e-02,
6.87094e-02,1.72261e-01,-2.49792e-01,-5.55480e-01,-9.61346e-02,-1.38187e-01,
-2.35607e-01,-1.07108e-01,5.11063e-01,5.66538e-01,7.85692e-02,-8.02402e-02,
1.09856e-01,-2.40921e-01,-1.09445e-01,-1.02704e+00,9.69723e-02,-6.91457e-02,
-5.41279e-02,4.72233e-02,2.78181e-01,-5.09135e-01,2.00689e-02,-2.67950e-02,
2.44477e-01,2.04181e-02,8.81872e-01,3.50162e-02,1.37217e-01,-2.72976e-02,
-1.52295e-01,-2.17181e-01,-1.84183e-01,2.65244e-02,1.55160e-01,4.59984e-01,
-2.69269e-01,-1.67481e-01,-5.69559e-01,8.57346e-01,-3.42420e-01,-3.35274e-01,
1.87772e-01,8.25124e-02,-3.72325e-01,-1.06831e+00,-6.37517e-02,-1.76944e-01,
1.83994e-01,1.35100e-01,-3.04013e-01,2.02340e-01,1.05254e-01,1.23019e-01,
-1.66178e-01,2.10647e-01,-1.69826e-01,-6.27690e-01,-2.25982e-01,1.23442e-03,
-2.30625e-01,7.33408e-02,-4.80703e-01,2.15009e-02,9.97322e-02,2.21443e-02,
1.90876e-01,2.30104e-01,-5.11086e-01,4.78326e-01,2.90250e-01,3.79224e-01,
-1.25363e-01,1.64504e-01,-5.75401e-01,1.56422e-01,2.29520e-01,-2.79774e-01,
-1.61638e-04,-3.17639e-03,-2.31577e-01,-6.84406e-01,-2.00985e-02,-3.72942e-02,
1.53684e-01,4.76364e-02,-4.63757e-01,8.12965e-01,-1.11351e-01,8.73447e-02,
-3.55037e-01,-1.67197e-01,-9.75480e-02,5.06876e-01,1.65497e-03,1.87948e-02,
4.14160e-02,-8.67874e-03,-4.51631e-01,8.65021e-01,-4.50875e-02,4.43533e-02,
1.70548e-01,-6.65686e-02,6.72317e-02,-8.17158e-02,-2.04325e-01,-2.32706e-01,
1.31189e-01,-2.55070e-01,7.33084e-02,5.23223e-02,2.80031e-01,-2.37088e-02,
3.18713e-01,1.88024e-01,-6.73410e-01,-7.86133e-01,-1.08220e-01,1.13419e-01,
-2.48013e-01,-2.14317e-01,2.23336e-01,-1.94858e-01,4.44110e-01,-5.31716e-01,
-1.33382e-01,-2.75165e-01,-1.39088e-03,3.95016e-01,-3.51773e-01,-5.61428e-01,
2.80205e-01,7.16094e-02,-1.14202e-01,-8.73711e-01,1.77549e-01,9.92622e-02,
-4.40776e-01,-8.28896e-02,-3.67478e-01,-4.22019e-01,-8.53144e-03,1.02478e-01,
2.03365e-01,-2.54645e-01,-4.15421e-01,-6.38895e-01,-2.93934e-01,-1.25647e-01,
-3.49078e-01,-2.63998e-01,-5.18449e-03,-5.36256e-01,5.57718e-01,-1.26062e-01,
7.60467e-02,-1.16563e-01,2.54616e-01,7.02225e-01,2.54360e-01,-2.03397e-01,
7.45120e-02,-2.16528e-01,2.49480e-01,-5.41942e-01,-1.36972e-01,-1.21364e-01,
3.00067e-01,1.22918e-02,1.54303e-01,-4.79776e-01,6.50197e-02,9.76717e-03,
3.89661e-02,4.73863e-02,3.51488e-01,-7.32423e-02,4.77532e-02,1.64395e-02,
-1.35365e-01,4.41325e-02,-3.72154e-01,1.46997e+00,-2.44348e-02,4.69369e-02,
7.64555e-02,3.14719e-02,-8.36181e-01,1.33955e+00,-6.28888e-02,2.93705e-02,
2.02592e-01,-1.97919e-01,5.13887e-02,-4.16805e-01,3.29370e-01,-1.33144e-01,
-1.12456e-01,2.27229e-01,8.41547e-01,-2.69475e-01,1.03790e-01,-4.76594e-02,
-1.80225e-01,-1.74368e-01,-3.89257e-02,-4.48125e-01,-1.79374e-01,-1.20318e-01,
3.05176e-01,5.86005e-02,-4.55982e-01,7.69329e-01,3.29572e-01,2.04612e-01,
1.07941e-01,2.24373e-01,2.56179e-04,-3.22410e-01,2.86297e-01,4.54037e-01,
9.13029e-02,-2.94298e-03,-5.56025e-01,5.44554e-01,3.63664e-02,-5.07022e-02,
8.46737e-02,-2.10081e-01,-4.24369e-02,-3.66708e-01,6.79057e-02,-9.19652e-02,
-1.44421e-01,-1.24959e-01,4.98205e-01,4.23934e-01,-1.34197e-01,-7.27810e-02,
-1.14771e-01,1.43412e-01,-5.44348e-01,7.23231e-01,-1.22750e-01,-1.49073e-02,
1.87235e-01,-2.39831e-01,1.74908e-01,7.12466e-01,2.58185e-01,5.34439e-03,
2.58925e-01,4.68923e-02,1.56793e-01,9.38859e-01,1.74749e-01,-8.98949e-02,
-1.77549e-02,3.20631e-02,-2.30601e-01,-4.93511e-01,-2.58697e-02,-3.11783e-02,
-1.72978e-01,1.68822e-01,-5.91914e-02,3.62128e-01,-2.86476e-01,1.15582e-01,
-4.04400e-01,-2.50901e-01,-4.61711e-01,-9.31994e-01,-1.70610e-01,3.38055e-01,
-2.42339e-01,-2.93259e-01,3.29583e-01,2.71908e-01,1.13115e-01,4.18858e-01,
1.89965e-01,-2.30885e-01,-1.12907e-01,3.19891e-01,-1.70746e-01,1.32072e-01,
-2.69058e-01,-3.28515e-01,4.93441e-01,-5.22419e-01,-1.99657e-01,-2.82915e-01,
2.45417e-01,-8.56479e-02,-5.26829e-01,-6.89123e-01,-8.11452e-02,-5.50149e-02,
-6.50127e-02,-9.64662e-02,-9.35065e-01,2.62037e-01,-1.36419e-01,-3.60188e-02,
5.86543e-02,-1.30818e-01,-3.31940e-02,-9.31145e-02,4.73387e-02,7.05543e-02,
1.49531e-01,7.94616e-02,3.45427e-01,8.83214e-01,8.00338e-02,1.51351e-01,
2.76188e-02,1.52962e-01,-5.83500e-02,-6.71325e-01,-4.99365e-02,-1.58459e-02,
-2.10069e-01,-1.62186e-01,-5.26984e-01,1.14343e+00,-7.55327e-02,6.13164e-03,
1.45440e-01,2.08508e-01,1.76528e-01,-2.62057e-02,-1.49816e-01,-4.39336e-01,
-5.89179e-03,1.48346e-02,5.43318e-01,6.01783e-01,4.20880e-02,1.64333e-02,
2.73103e-01,-2.44654e-01,2.83166e-01,-4.43016e-01,2.26440e-01,-2.83217e-01,
-6.68903e-02,1.92279e-01,-2.08758e-01,5.05653e-01,1.27348e-01,1.14332e-01,
2.04761e-01,1.29011e-01,4.35430e-01,-6.52572e-01,2.63790e-01,2.59693e-01,
3.33346e-02,-2.08844e-01,-2.72401e-01,2.75946e-01,-1.18072e-01,1.32173e-02,
-2.84667e-01,-3.93272e-02,9.67882e-01,-4.63362e-02,6.52948e-02,4.35326e-02,
1.30358e-01,-6.33904e-02,1.67849e-01,4.72350e-01,-2.03996e-01,1.81482e-01,
1.51312e-01,2.69884e-03,-4.89309e-03,1.60445e-01,-4.33300e-02,6.54614e-02,
-1.24658e-01,1.83179e-02,-4.72691e-01,-6.93882e-01,1.85963e-02,-8.70351e-02,
8.89955e-03,-2.45278e-01,4.28366e-01,9.12164e-01,1.51234e-01,2.20577e-01,
-2.10949e-01,-2.54475e-01,5.64659e-01,-5.32796e-01,-3.27469e-01,-4.18787e-01,
-1.66419e-01,-1.71903e-01,2.15599e-01,1.25769e+00,1.38604e-02,-1.17097e-01,
1.67205e-01,-2.16434e-01,7.64699e-01,-2.00649e-01,-2.99126e-01,3.69935e-01,
-1.63219e-01,-1.22954e-01,-2.92606e-01,7.69090e-01,4.99247e-02,1.95893e-01,
-4.12893e-02,-6.34293e-02,-3.83554e-01,-5.32975e-01,-2.56804e-02,-4.67195e-02,
-7.43668e-03,-3.09683e-01,1.86243e-01,6.95131e-01,2.32091e-02,5.09274e-02,
-4.67965e-02,5.84428e-02,-3.86514e-01,-7.11697e-01,-4.63450e-02,-3.30144e-02,
-1.26622e-01,-1.14306e-01,-7.66879e-02,1.16315e+00,6.99289e-02,2.29414e-01,
9.89633e-02,-1.62298e-01,-3.27471e-01,5.60061e-01,1.65741e-01,1.32649e-01,
-2.61743e-02,-3.03622e-02,2.94364e-01,-8.46197e-01,1.93005e-02,-4.70673e-02,
2.65674e-01,1.72837e-01,2.41526e-01,7.03477e-01,-9.98204e-02,7.26126e-02,
-3.48386e-01,-2.37813e-01,-3.26648e-01,-4.87758e-01,-2.66305e-01,-4.04136e-01,
-2.74747e-01,-1.71789e-01,5.91693e-01,-7.56903e-01,4.63301e-02,1.55478e-01,
-2.06055e-01,1.83327e-01,-2.08880e-01,3.28065e-01,-1.68999e-01,2.07342e-01,
-1.16846e-01,-6.92185e-02,5.90663e-01,7.40890e-01,4.84475e-02,2.03539e-02,
-3.19412e-01,-5.73463e-02,4.76722e-01,-8.01771e-01,-3.39292e-01,-2.10064e-01,
-8.96933e-02,2.16405e-01,-7.17676e-01,-7.95991e-01,-1.21907e-02,-1.04135e-01,
2.76543e-01,2.09078e-01,-1.72021e-03,4.23436e-01,-4.43431e-01,9.78713e-02,
-1.54872e-01,1.47771e-01,6.33840e-02,-7.13279e-01,4.12833e-01,-3.11763e-01,
2.25481e-01,1.94337e-01,-2.04309e-01,1.77799e-01,-4.02263e-01,4.84225e-01,
-2.39181e-01,1.06578e-01,7.22281e-01,7.60002e-01,7.14961e-02,7.73793e-02,
1.64320e-01,-1.60132e-01,-8.17015e-02,7.58142e-01,-4.41230e-01,3.33277e-01,
-2.98235e-01,-2.82319e-01,1.97765e-01,3.76405e-01,7.51961e-02,1.05401e-01,
2.80803e-01,5.66506e-03,3.22511e-01,9.05844e-01,-2.15192e-02,6.83315e-02,
1.66632e-01,2.02318e-01,-2.38385e-01,-1.81640e-01,-8.11588e-02,-2.90565e-01,
2.52067e-01,1.56827e-01,2.95060e-01,5.80198e-01,1.09984e-01,-2.17018e-01,
2.47106e-01,-1.60187e-01,-2.68579e-01,-9.25698e-02,1.75004e-01,-1.34880e-01,
1.95767e-01,-1.33902e-01,2.63395e-02,-3.36476e-01,-1.25105e-01,2.21181e-01,
2.11064e-01,1.49354e-01,2.20502e-01,2.91289e-01,1.66251e-01,2.47102e-01,
-1.90146e-01,-8.33218e-02,-1.61632e-01,-5.66377e-01,-1.42125e-01,1.41809e-01,
-4.63143e-03,
-1.74275e+00,
-4.37306e-02,
-4.42050e-01,
-2.06303e-01,
7.46232e-02,
-6.07434e-01,
1.22817e+00,
8.53314e-01,
-2.16819e-01,
1.91576e-01,
-3.52795e-01,
6.38339e-01,
-6.07900e-01,
5.65768e-01,
-2.87612e-01,
3.55628e-01,
-1.23266e+00,
7.98577e-01,
5.23689e-02,
-6.54424e-01,
4.54789e-02,
3.90178e-01,
-1.49338e-01,
2.05380e-01,
1.77337e-02,
1.38204e-01,
-6.21847e-02,
-8.09759e-01,
-2.30518e-01,
-1.32553e-01,
-4.65347e-01,
-1.67060e-01,
1.00791e+00,
-2.81094e-01,
1.00944e-01,
-3.54303e-01,
1.53839e-01,
-1.71727e+00,
6.95457e-01,
-1.44326e-02,
1.02353e+00,
5.93618e-01,
8.69596e-01,
-3.33789e-01,
6.87287e-01,
-7.94378e-01,
1.47051e+00,
3.14383e-01,
-5.82924e-01,
1.08544e-01,
-8.08171e-01,
-1.49076e-01,
-7.65817e-02,
-2.29333e+00,
9.82908e-01,
-4.52722e-01,
9.81467e-01,
-1.24069e+00,
2.09208e-01,
1.20108e+00,
6.26693e-01,
4.06394e-01,
-1.40068e-01,
-3.48155e-02,
-1.26577e+00,
6.85978e-01,
1.29649e+00,
4.15141e-02,
-3.64154e-01,
3.27062e-01,
-8.35299e-01,
-4.74173e-01,
1.08332e+00,
1.31051e+00,
-1.00239e+00,
1.44164e+00,
-5.57718e-01,
-1.15578e+00,
-9.10301e-01,
7.01308e-02,
-9.85073e-02,
-3.06399e-02,
-4.80154e-01,
9.28159e-01,
-7.24827e-01,
-6.12845e-01,
1.81575e-01,
-5.23972e-01,
-1.85013e-01,
1.16997e-01,
5.52010e-01,
1.86297e+00,
-1.27260e+00,
-8.03373e-02,
3.46612e-01,
-1.06563e+00,
-2.01446e-02,
4.71202e-02,
3.97640e-01,
7.62081e-02,3.24498e-03,-4.84252e-02,3.23818e-02,-2.70052e-02,8.45206e-03,1.10074e-01,-7.38990e-02,-8.96348e-02,2.85758e-02,-4.15484e-02,5.96137e-02,9.05213e-02,-2.35013e-02,4.91893e-02,5.05629e-02,1.70213e-01,-1.03835e-01,-1.02587e-01,-4.89450e-02,-3.83609e-01,-3.44032e-03,-2.60413e-02,1.13195e-01,9.27433e-02,7.17101e-02,1.59896e-01,-4.33508e-03,-2.00637e-02,1.04564e-01,-4.51190e-02,-3.02015e-02,6.19528e-02,-9.72956e-03,3.52647e-01,-2.96818e-01,-6.99167e-02,7.74543e-02,5.98173e-02,-3.37331e-02,-2.41730e-02,5.69509e-02,1.15780e-01,-1.86371e-02,1.11959e-01,-4.77858e-02,-1.83082e-01,1.61842e-01,-6.07751e-02,-8.61739e-02,-9.43759e-06,1.51860e-02,3.16558e-02,-7.86073e-03,2.41442e-03,-5.66980e-02,1.77035e-01,-8.45765e-02,-9.25494e-02,-3.29064e-02,-5.48003e-02,5.01929e-02,-2.08395e-02,-8.77203e-02,8.96843e-02,1.00321e-01,4.84977e-02,-2.12546e-02,4.96986e-02,4.23207e-02,-4.74213e-02,-1.45420e-01,-6.96986e-02,-8.88768e-02,1.46846e-01,-9.53754e-02,5.62070e-02,-1.52635e-01,-1.25781e-01,3.49994e-01,1.02680e-01,2.73436e-02,-3.50683e-02,1.11266e-01,-1.30719e-01,4.66036e-02,1.15728e-01,-5.34978e-03,-5.37667e-02,4.31489e-02,-8.12891e-02,-8.26323e-02,3.97368e-02,-1.89922e-01,-2.38564e-02,4.83416e-02,2.66635e-02,-1.36844e-02,7.68406e-02,1.03690e-01,
9.60361e-02,1.68046e-03,1.96250e-01,-1.20978e-03,-3.49668e-02,8.52318e-02,3.19103e-02,1.57730e-03,-7.37386e-02,1.28965e-01,3.91038e-02,7.16697e-02,1.23810e-01,-6.50222e-02,4.28352e-02,2.74656e-02,9.43553e-03,-1.62037e-02,-6.45785e-02,7.01447e-02,1.81234e-02,-4.28716e-02,-9.21936e-02,9.73159e-02,-1.25951e-01,-1.15679e-01,3.14043e-02,7.74684e-02,5.73901e-04,6.53164e-02,3.17069e-02,-5.66468e-02,5.30426e-02,1.45525e-03,-5.45613e-02,-3.07533e-02,-7.89540e-02,1.22644e-02,-1.00794e-01,3.59198e-02,2.53126e-02,-3.69187e-02,4.99238e-03,6.91734e-02,6.34141e-03,7.59089e-02,-8.60623e-02,8.97348e-02,-1.90499e-02,1.08251e-01,5.87405e-02,8.85720e-02,6.89981e-02,-7.60326e-02,-1.52710e-02,7.02622e-02,1.62915e-01,-7.31095e-02,2.67443e-02,-1.64323e-02,9.54420e-02,-2.07530e-02,-1.30783e-02,2.06201e-01,-9.01894e-02,4.89646e-02,3.57026e-03,-6.75764e-03,-1.65037e-02,8.57204e-02,1.46009e-02,-7.71778e-02,1.25972e-01,4.09517e-02,8.31639e-02,-3.16971e-02,3.48327e-03,1.13273e-01,-1.81512e-03,9.32063e-02,9.40071e-02,-6.67236e-02,-3.73426e-02,-3.91778e-03,1.69666e-01,-1.16424e-01,5.54592e-02,-3.17213e-02,8.66542e-02,-8.15946e-03,4.33432e-02,1.51878e-03,-6.78303e-04,-5.47143e-02,-6.40805e-02,3.24345e-02,3.65530e-02,9.79762e-02,1.48585e-02,7.30315e-02,
-3.55250e-02,-5.42037e-02,1.08085e-01,5.43075e-02,1.79390e-02,9.14056e-02,1.47495e-02,5.34639e-02,-2.07445e-02,9.88988e-02,-1.01147e-01,-5.32440e-03,6.98216e-02,-4.66779e-02,1.30539e-01,3.54133e-02,3.06828e-02,-2.93704e-01,-5.42924e-02,-1.53548e-03,-2.82370e-01,1.04295e-02,7.07758e-02,-3.50610e-02,-3.98800e-02,-9.90224e-02,3.14283e-02,-5.78354e-02,6.31772e-02,9.32681e-02,-9.73702e-03,-1.11740e-01,1.36254e-02,1.11652e-01,9.40061e-02,5.29973e-02,-6.10358e-02,-7.25780e-02,6.19180e-02,1.38671e-01,6.75379e-02,-1.39223e-02,5.62722e-02,6.79474e-02,-1.07687e-02,-4.50964e-02,-2.29651e-02,6.36242e-02,-4.33186e-02,5.23403e-02,-8.52931e-02,5.31418e-02,4.35873e-02,2.44817e-02,6.27476e-02,-2.48668e-02,5.07291e-02,-1.61487e-02,1.02195e-03,-1.23637e-01,-5.21646e-02,8.09161e-03,4.41624e-02,9.38864e-02,-1.12706e-01,1.47354e-02,1.58526e-02,-8.07648e-02,-3.68342e-03,-3.81260e-02,-3.40278e-03,8.46262e-02,1.01191e-03,5.55816e-02,1.89955e-02,8.44439e-02,7.18174e-02,7.06554e-02,9.35064e-02,4.19217e-02,1.23520e-01,1.36362e-02,-4.89939e-02,3.73680e-02,-3.70280e-03,-5.23915e-03,6.15690e-02,1.12103e-02,-2.35293e-02,-3.36135e-02,6.55580e-02,5.66101e-02,6.10874e-02,-7.61921e-02,-4.33057e-02,1.38148e-01,3.83057e-02,-1.42320e-02,4.33676e-02,6.52565e-02,
-5.33876e-03,-1.06608e-01,-3.31478e-02,3.64446e-02,3.50245e-02,2.46229e-03,1.14638e-01,-9.58525e-02,-2.91727e-01,-4.65275e-02,-1.14632e-01,9.14137e-02,7.21628e-02,1.11309e-02,9.13216e-02,-2.05372e-01,7.26008e-03,4.16594e-01,7.95573e-02,3.31562e-02,-6.04365e-01,4.51770e-02,5.22314e-02,2.32409e-01,-3.18760e-02,-3.03243e-02,2.88611e-01,3.02219e-02,-2.36948e-04,6.21868e-02,3.81941e-02,-1.51620e-01,1.42471e-01,-1.62878e-01,-8.95128e-04,1.11787e-01,-4.73034e-02,1.37543e-01,-1.76599e-02,4.47929e-02,5.25793e-02,-6.26666e-02,8.62568e-02,9.87132e-02,-1.30104e-01,-6.04362e-02,-1.20897e-01,2.47543e-01,-2.17362e-02,-8.46953e-02,-7.41332e-02,-9.45769e-02,8.50302e-02,3.80595e-02,-2.37240e-01,-5.50722e-04,-4.78085e-02,-6.35913e-02,-1.25194e-01,-3.60108e-02,5.61086e-02,5.26640e-02,1.78603e-03,-7.10862e-02,-6.64080e-02,1.03422e-02,8.66834e-02,1.35819e-01,1.34904e-01,-7.24032e-02,-1.08745e-02,-1.67797e-02,-5.15006e-02,-1.93339e-02,1.43374e-01,-2.00262e-01,1.94216e-01,1.35480e-01,-1.05947e-01,1.91797e-02,-1.09723e-01,6.07719e-02,1.05071e-01,-7.08673e-02,1.61659e-02,1.17324e-01,8.85130e-02,2.65833e-02,-8.17446e-03,-1.19926e-01,8.16740e-02,3.15723e-02,4.34511e-04,-1.74481e-01,2.06575e-02,-1.16034e-01,-2.17973e-02,7.49862e-02,-4.32804e-02,1.23618e-01,
-7.00523e-02,-1.35770e-01,1.05699e-01,1.79881e-01,-2.36524e-02,6.45361e-02,-8.23479e-02,1.32984e-01,1.09604e-01,5.84547e-02,-9.55767e-02,-2.49600e-02,9.93313e-02,3.30751e-02,-1.45402e-02,7.71753e-03,2.12837e-02,-1.26492e-02,4.41157e-02,-2.27576e-02,1.37804e-02,5.23649e-02,9.11241e-02,1.06352e-01,-1.04969e-01,5.63703e-02,5.34013e-02,6.70772e-02,6.40509e-02,-1.13146e-02,-4.64238e-02,6.67116e-02,4.97170e-02,-7.39715e-02,1.03258e-01,1.00495e-01,-8.79829e-02,-1.20552e-02,4.40473e-02,1.48656e-02,9.55187e-02,-2.46345e-02,-4.30932e-02,8.82205e-03,-8.43927e-03,-8.82561e-03,1.10991e-01,1.83112e-01,1.37841e-01,-3.67162e-02,-9.80685e-02,4.15703e-02,-7.45997e-02,1.05092e-01,-1.78329e-01,2.68836e-02,3.64837e-02,-2.86431e-02,-9.51077e-02,2.08929e-02,1.79884e-02,1.65126e-03,5.79623e-02,-2.33074e-02,9.20762e-02,4.76995e-02,-5.02732e-02,-3.21921e-02,4.70894e-02,-8.57732e-03,4.10922e-02,7.05830e-02,1.21430e-01,7.95128e-02,3.81489e-02,-6.36870e-02,1.63286e-01,6.19888e-02,-4.41057e-02,9.92822e-02,-4.82296e-02,-8.41934e-02,-3.50516e-03,-3.95715e-02,-3.41221e-02,5.14626e-02,-9.55090e-02,1.15752e-01,-9.30722e-03,9.42453e-03,-1.06448e-01,-5.18729e-02,4.57689e-02,-7.18124e-02,1.83879e-02,-1.04842e-01,-3.28868e-02,-1.35108e-02,-9.87865e-02,1.36791e-02,
-4.95322e-02,-8.01070e-02,1.34542e-02,-1.38633e-01,2.55710e-02,-8.64355e-02,-6.13574e-02,-6.27361e-02,8.14231e-02,-1.40018e-02,6.35836e-02,8.82903e-02,8.52695e-02,-4.01431e-02,1.75750e-01,-1.32476e-01,8.27752e-02,6.32037e-02,8.45137e-02,-3.02313e-02,-6.70720e-01,4.33236e-02,8.38938e-02,-2.28775e-02,1.42234e-01,5.70787e-02,1.06087e-01,4.15475e-02,-4.36369e-02,-1.56034e-02,3.05810e-04,5.79244e-02,7.39063e-02,1.78779e-01,-7.42232e-02,-1.36138e-01,-2.84205e-02,-4.11326e-02,2.18912e-02,1.76687e-01,-8.56181e-02,-5.95370e-02,7.70115e-02,6.67090e-02,5.07922e-02,1.10522e-01,-1.09565e-01,7.41686e-02,3.76686e-02,-1.50372e-02,1.16399e-02,-1.85170e-02,7.31152e-02,-9.26537e-02,-4.23212e-01,1.21529e-01,7.03018e-03,-9.77548e-02,-3.04267e-01,6.11045e-03,4.18887e-01,1.84176e-02,-4.88152e-03,4.61277e-02,-3.89934e-02,-1.51406e-03,1.46061e-01,1.17051e-01,-1.25846e-01,9.82912e-03,1.35466e-01,-2.69871e-01,5.78324e-02,1.71871e-01,-1.07471e-02,-5.05853e-02,9.48803e-02,-5.62533e-02,-2.28378e-01,1.04814e-01,8.26750e-03,1.96845e-02,5.59830e-02,-3.92542e-02,3.92765e-02,1.04075e-01,1.01844e-01,-1.75221e-02,3.73877e-02,-1.12456e-02,-3.65431e-02,6.27985e-03,1.70941e-01,-1.87319e-01,7.36096e-02,-3.29447e-02,-9.10198e-02,-1.78092e-02,-1.17706e-01,-9.12750e-03,
-6.27386e-02,1.03029e-02,6.74281e-02,-8.65078e-03,-4.59796e-02,8.39040e-02,-2.37905e-02,-1.07417e-01,6.06623e-02,-7.33092e-02,1.72709e-01,-1.28515e-01,2.27328e-02,6.84781e-02,2.70636e-02,-3.39179e-04,-6.24300e-03,-9.51980e-01,6.57424e-02,2.69718e-02,4.14680e-01,-5.58940e-03,6.86383e-02,5.23692e-02,3.87051e-02,4.76036e-03,-4.68853e-02,1.12988e-02,-5.58512e-02,-1.54623e-02,1.77372e-01,-7.80837e-02,-3.74436e-02,-1.17657e-01,-4.88137e-04,2.08295e-01,-3.56596e-02,1.22490e-02,-8.86507e-02,1.21120e-01,4.75703e-02,3.61711e-02,-8.44652e-02,-4.59463e-02,9.71131e-03,-1.89674e-02,1.22428e-01,-1.43480e-02,7.74652e-02,1.58682e-02,7.77173e-02,-5.88125e-02,-4.60274e-02,-5.29786e-02,2.20410e-01,3.41904e-02,-4.15047e-02,-1.14302e-01,1.07354e-01,-1.07370e-02,-5.84063e-02,-9.54110e-02,5.44673e-02,-9.83059e-02,3.10555e-02,1.81159e-01,1.12204e-01,5.14228e-02,1.65748e-01,-3.07528e-02,-6.30094e-02,8.95829e-02,-9.29276e-03,1.67572e-01,-2.32931e-02,4.65323e-02,-2.27504e-02,1.47132e-01,2.69638e-02,6.16325e-02,-2.45546e-02,3.12160e-03,-1.61824e-01,-3.20859e-02,9.34212e-03,1.30879e-01,1.18548e-02,5.21801e-02,-8.37210e-02,-3.66425e-02,4.95137e-02,2.13768e-01,1.19783e-02,1.69309e-01,-1.01556e-02,4.75683e-02,2.12661e-02,-1.03740e-01,-1.80407e-03,-1.76817e-01,
-2.50895e-02,9.23616e-02,-2.34374e-02,7.62644e-03,9.98645e-02,5.55106e-02,-9.45973e-02,7.28939e-02,7.42034e-02,-4.72122e-02,1.33480e-02,2.50242e-03,4.18791e-02,1.35681e-01,-9.08644e-03,-7.78003e-02,9.99283e-03,-2.32305e-02,1.19435e-01,1.24938e-01,1.56517e-01,7.12411e-02,6.40897e-02,-4.71779e-02,3.81821e-03,2.69762e-02,7.24126e-02,2.76110e-02,7.58527e-03,-1.15657e-01,1.00493e-01,9.28322e-02,1.04600e-02,6.35914e-02,8.51243e-02,5.05721e-02,1.68802e-02,8.55956e-03,-6.52395e-02,-7.58500e-02,-1.39796e-01,1.89461e-02,9.94939e-02,2.58274e-03,-6.40593e-02,-4.25663e-02,6.67971e-02,-1.96300e-02,-2.83552e-02,-6.34847e-02,-8.43961e-03,-7.97158e-02,-7.01779e-02,8.16159e-02,5.07671e-02,4.37438e-02,-4.37624e-02,1.46240e-01,2.42056e-02,4.16417e-02,-3.05333e-02,1.69800e-02,5.68548e-02,-2.16679e-02,-3.39322e-02,5.97816e-02,6.01403e-03,6.32356e-02,1.87755e-01,-7.46071e-02,1.19065e-01,6.35541e-02,-8.59699e-02,6.91249e-03,-8.40082e-03,4.50385e-02,-3.64529e-02,-8.13246e-02,-4.15241e-02,-1.68818e-01,5.82034e-02,7.61995e-02,-3.77292e-03,-1.15054e-01,-1.16044e-02,7.62564e-02,1.10858e-01,1.85975e-01,4.56017e-02,-4.13927e-02,-3.65350e-02,5.85283e-02,1.13462e-01,3.33910e-02,1.47699e-01,1.65503e-01,1.08735e-01,-8.66727e-02,-1.37404e-01,-5.00055e-02,
-5.41888e-02,-6.85378e-02,1.19386e-01,-1.36395e-02,-2.05759e-02,8.16399e-02,-8.21874e-02,-6.66738e-02,-9.06942e-03,5.24823e-02,-8.25580e-02,-4.89336e-02,6.74629e-02,1.02239e-01,1.33427e-01,-7.08937e-03,-1.57895e-02,-1.01824e-01,-9.40541e-02,3.32396e-02,-3.16986e-01,-5.26666e-02,6.47969e-02,2.18548e-02,5.90250e-03,1.04337e-01,3.77417e-02,3.49501e-02,-3.06063e-02,4.81370e-03,6.78068e-02,6.73239e-02,5.64163e-02,2.93740e-02,-3.18580e-02,-2.94030e-02,-8.50952e-02,5.47397e-02,1.98299e-02,-6.21913e-02,-2.62192e-02,1.65667e-02,-8.50460e-02,4.35694e-02,7.26728e-02,3.67314e-02,-2.10575e-02,4.59586e-02,-1.39811e-02,-8.68990e-02,-7.35642e-02,1.14382e-01,7.62391e-02,-2.18153e-02,1.07198e-01,-7.95521e-02,4.52682e-02,4.48425e-02,4.67668e-02,-6.15948e-03,-6.20733e-02,1.93541e-03,1.19069e-03,1.76405e-02,3.22955e-03,-6.19567e-02,1.65534e-02,1.55640e-02,2.16760e-03,8.38863e-02,7.15446e-02,-5.47671e-02,5.68588e-02,-1.11370e-01,-4.22642e-02,-6.92190e-02,3.75892e-03,5.05820e-02,-5.94043e-02,-1.11973e-01,2.70606e-02,-5.19202e-02,4.53153e-02,3.56222e-02,-1.05477e-02,3.47722e-02,1.09875e-01,8.76829e-02,-9.76450e-02,-6.13497e-02,-3.42162e-02,1.07875e-01,5.93232e-02,6.56532e-02,4.25158e-02,5.61814e-02,-4.58907e-02,1.00544e-01,-5.22227e-02,6.90735e-03,
9.80107e-02,-9.74895e-03,-1.01387e-01,1.50335e-02,-3.63341e-02,3.23678e-02,9.67287e-02,-6.86716e-02,-2.43561e-02,3.84520e-02,1.07806e-01,-1.63211e-02,2.06406e-02,1.11445e-01,3.18675e-02,6.91742e-02,3.57715e-02,1.35356e-01,-3.48618e-02,5.01562e-02,1.50092e-01,7.02201e-02,-4.81433e-02,-5.94723e-02,4.99558e-02,2.94215e-02,2.26020e-02,3.37235e-02,-3.15652e-02,-5.45943e-02,-5.34533e-02,-3.10153e-02,6.09164e-02,6.02961e-02,-8.65320e-02,1.48630e-02,-1.07197e-01,-2.50066e-02,2.25594e-02,-2.01608e-02,-8.76395e-02,-4.66543e-02,-8.41516e-02,9.84542e-02,-2.00872e-02,-2.25862e-02,7.88027e-02,-3.09166e-03,9.46062e-02,7.40206e-02,-2.28418e-02,6.49718e-02,1.55831e-02,9.09446e-02,-7.37286e-02,7.88639e-02,-3.10520e-02,-6.68266e-02,5.64523e-02,5.01805e-02,4.86506e-02,-8.03655e-02,-6.83394e-02,-1.65164e-02,2.03322e-03,-5.46862e-02,5.58926e-02,6.83351e-02,-7.93927e-02,3.27312e-02,6.87817e-02,-6.73546e-02,8.52260e-02,2.54387e-02,1.06946e-01,-8.61767e-03,5.27395e-02,7.17658e-02,-3.88313e-02,1.52139e-01,1.30459e-02,9.50637e-03,3.84456e-02,8.59502e-02,5.77125e-02,-2.59985e-03,-1.20832e-02,-5.45237e-02,-2.74418e-02,1.41623e-02,2.76516e-02,8.92413e-02,-9.03893e-02,8.64913e-03,-6.28800e-02,-4.27882e-03,7.96947e-02,6.36610e-02,-1.19887e-02,3.58659e-02,
3.06863e-02,2.45242e-02,1.67385e-02,2.59080e-02,9.10965e-02,4.66494e-02,5.60777e-03,2.34918e-02,6.05113e-02,-6.27248e-02,-5.15402e-03,5.11490e-02,6.09033e-02,1.99388e-01,6.19400e-02,-6.68892e-02,-1.31237e-01,-1.90490e-02,8.49717e-02,-4.77124e-02,-1.23178e-01,1.22348e-01,-1.95787e-02,6.24551e-02,-8.25171e-02,-2.11315e-02,-7.17337e-03,-3.02263e-02,8.56677e-02,-7.09521e-02,-2.12036e-02,3.55690e-02,7.18307e-02,1.53990e-02,6.52349e-02,1.11987e-01,-5.09780e-02,4.31655e-02,3.25960e-02,-2.94252e-02,-2.74743e-02,5.84674e-02,8.93689e-02,-3.15804e-02,5.95459e-02,-5.99174e-02,7.40852e-03,3.64844e-02,1.36739e-02,9.82649e-02,4.48988e-02,-2.97194e-02,1.10726e-01,1.04459e-01,4.45920e-02,1.54288e-02,-6.39503e-02,-4.31283e-02,-1.10304e-03,-1.45652e-02,6.16486e-02,-6.99746e-02,-5.28462e-02,5.82333e-02,8.66513e-02,8.58699e-02,-1.23420e-02,6.40099e-02,6.55817e-02,-4.55064e-02,-2.17954e-02,-7.40929e-02,1.38382e-01,8.22939e-02,7.10123e-02,-8.45130e-02,-3.84075e-02,-8.58361e-02,3.36282e-02,-1.42615e-01,1.27273e-01,2.74900e-02,2.10626e-02,5.26699e-02,-4.32631e-03,1.05777e-01,-9.83477e-03,2.73453e-02,-5.97207e-02,1.33115e-01,-1.59285e-02,1.20144e-01,1.07767e-01,1.03596e-01,6.17758e-02,-5.34685e-02,-6.96690e-02,1.87417e-02,-8.56380e-02,-1.85855e-03,
-6.75073e-02,4.86061e-02,-5.54731e-02,3.40256e-03,-3.99018e-02,4.58113e-02,-6.75016e-03,9.50451e-03,-1.70408e-03,-7.26730e-03,-1.76851e-03,-2.96452e-02,2.11811e-02,8.32505e-02,-6.54625e-02,-8.00576e-03,-4.31120e-02,6.03384e-01,-2.60092e-02,-6.61380e-02,3.27727e-01,8.68407e-05,5.74558e-02,3.66079e-02,-2.54670e-02,1.77617e-02,4.91672e-02,5.74234e-02,-2.19882e-02,-3.24713e-02,1.04640e-02,7.07563e-02,-1.02734e-01,-5.06380e-02,-3.71313e-02,1.05291e-01,3.08308e-02,6.14960e-02,1.75366e-02,-5.93103e-02,9.34934e-03,3.57506e-04,5.62178e-02,5.35958e-02,-2.42308e-02,-1.08557e-01,-6.74044e-02,1.06614e-01,6.15731e-02,3.47863e-02,-5.16571e-02,-5.74943e-02,2.00258e-03,-1.07605e-01,3.60158e-02,4.21478e-02,7.55791e-02,8.37683e-04,5.45121e-02,9.51779e-02,1.45363e-01,2.44646e-02,-3.12487e-02,-3.24230e-02,-1.51671e-02,1.41839e-01,-2.47078e-02,-5.49497e-02,-1.12329e-02,-5.93768e-02,-4.52049e-02,-6.93414e-02,5.00471e-02,3.25372e-02,5.19456e-02,3.63131e-02,-9.30447e-02,-6.49864e-03,-7.27158e-02,8.75158e-02,-2.83727e-02,-4.65329e-02,6.00994e-03,6.37524e-02,1.36028e-01,-4.23771e-02,3.15511e-02,8.62805e-02,1.72405e-02,4.10143e-02,-3.56899e-03,-1.04540e-02,2.94675e-03,-3.57985e-02,-5.52826e-02,1.94226e-02,1.35560e-02,2.65938e-02,-1.60050e-02,-5.98707e-02,
5.23578e-02,3.68571e-02,9.33324e-02,-1.03826e-02,1.05642e-01,-3.87973e-02,1.12461e-01,1.28453e-01,3.74305e-02,9.29991e-02,-2.00911e-01,1.52735e-01,-9.64718e-02,9.17432e-02,-3.47544e-02,-5.91336e-02,-5.85097e-02,5.20658e-01,-3.00023e-01,-1.16264e-01,-2.60047e-01,-5.65916e-02,-6.90595e-02,1.15122e-01,8.29248e-02,-6.34114e-02,9.38076e-02,4.39060e-02,1.08866e-01,5.98509e-02,-6.87245e-02,6.29404e-03,1.21221e-01,1.29588e-01,-4.43539e-01,-5.66831e-01,1.06519e-01,9.84483e-03,1.52286e-01,-1.52717e-01,5.12118e-03,-1.92319e-01,3.01602e-02,5.68496e-02,-6.36254e-02,1.27354e-02,-8.46947e-02,-7.97619e-02,-5.08653e-02,4.71738e-02,-4.58329e-02,-4.61968e-02,-1.24961e-02,-1.82008e-02,-5.34231e-02,5.20235e-02,-3.43001e-02,-8.98500e-03,-1.79343e-02,8.16211e-02,1.31383e-01,1.03194e-01,-1.40804e-01,2.46047e-01,-5.69736e-02,1.85431e-01,-5.72486e-02,2.12617e-02,-3.06463e-02,-3.34892e-02,1.51075e-01,-1.96741e-01,-3.66589e-02,-1.19181e-01,-1.07126e-01,-3.59010e-02,-5.32617e-02,-2.89229e-01,-6.12737e-02,2.44544e-01,7.99128e-02,5.52045e-02,1.33906e-01,-2.59691e-02,-7.79589e-02,1.08696e-01,1.73208e-01,-7.08320e-03,1.68676e-01,1.40600e-03,-2.90321e-02,-1.88668e-02,-1.02984e-01,-5.20050e-03,-9.75216e-02,-4.57304e-03,-4.96446e-02,6.60825e-02,2.73583e-02,1.02835e-01,
-3.27095e-02,2.26401e-01,7.95976e-02,1.02204e-01,-1.12710e-02,-1.03744e-01,1.68514e-01,-1.03101e-01,-1.06725e-01,-1.36626e-02,-1.67370e-01,6.65565e-02,1.10088e-01,1.48303e-01,9.23154e-02,-7.34230e-02,-8.46828e-02,2.10326e-01,-5.13415e-01,-1.40165e-01,-3.69434e-01,4.45717e-02,-2.92062e-02,2.00005e-01,-3.02643e-02,-5.71922e-02,1.22122e-01,-7.80228e-02,-6.98128e-02,1.12732e-01,8.51241e-03,1.61992e-01,9.04618e-02,3.89939e-02,-4.09003e-01,-7.58286e-01,8.92207e-02,-7.03989e-02,1.76652e-01,-1.72399e-01,6.88412e-02,-3.89397e-02,-9.27241e-02,-2.04409e-01,-1.91385e-01,-1.62626e-01,-3.82160e-01,-2.00294e-01,-6.31734e-02,1.20239e-01,-1.74100e-02,9.04631e-02,2.11259e-01,7.59721e-03,2.54835e-01,-1.32145e-01,9.52470e-02,4.21221e-02,-1.25283e-02,8.38080e-02,6.39703e-01,-9.56576e-02,-2.58094e-01,6.61376e-02,-1.97011e-01,1.97194e-02,-9.98699e-02,-2.35791e-03,-9.03011e-02,-9.03761e-02,-4.90175e-02,-2.77152e-01,1.06455e-01,-1.92995e-01,-2.72300e-01,2.48146e-01,-4.01360e-01,-4.70300e-01,-6.21777e-02,4.58523e-01,-7.58459e-02,-9.79797e-03,-1.19380e-02,1.37019e-01,2.79763e-02,2.07629e-01,7.18732e-02,-1.02604e-01,2.12692e-01,-8.29654e-03,-2.02092e-01,-1.07294e-01,-3.54345e-02,-9.04316e-03,-8.46882e-03,-1.47727e-01,6.77072e-02,7.34577e-03,-8.37288e-02,-6.76021e-02,
-4.16651e-02,-7.83226e-02,-2.32050e-02,4.91722e-02,3.04629e-02,3.56114e-03,-7.62698e-02,1.23434e-03,-3.12385e-02,-9.77264e-02,2.10945e-02,1.22802e-01,-8.67618e-03,-5.51946e-02,3.34234e-02,-3.27250e-04,3.08008e-02,1.09002e-01,-1.15684e-01,4.81738e-02,2.52602e-02,7.13584e-02,6.10549e-02,1.54741e-02,1.37175e-01,7.50980e-02,1.68826e-01,-3.06234e-03,-2.75767e-02,1.15034e-01,-7.72278e-02,-6.72508e-02,3.70381e-02,-3.47720e-03,1.71591e-01,-1.68013e-01,-5.37646e-02,4.90346e-02,-6.62356e-02,-5.36798e-02,1.73720e-02,-4.38155e-02,9.84732e-02,1.07960e-01,9.15018e-02,2.38851e-02,9.46941e-02,2.93650e-02,4.59026e-02,5.16743e-02,-6.87439e-03,-5.19386e-02,8.52037e-02,6.87889e-02,-5.52473e-04,1.77839e-02,1.30218e-01,3.43425e-02,-2.57605e-02,5.13551e-02,1.54381e-02,4.28447e-02,-4.05218e-02,3.31794e-03,-2.68047e-02,4.40730e-02,-7.77340e-02,-7.82270e-02,-5.00679e-02,-5.53015e-03,1.14986e-01,1.00242e-01,5.02345e-02,2.21797e-02,-6.97428e-03,-5.07378e-02,-8.53117e-02,-2.33947e-02,2.92678e-02,1.25328e-01,-1.30221e-01,9.66393e-02,-3.47539e-02,-2.65161e-02,-3.57344e-02,1.00326e-02,-2.26907e-02,-1.41746e-02,3.44584e-02,7.67500e-02,-7.22673e-02,-9.55041e-02,8.91283e-02,-4.30587e-02,9.80545e-02,5.16583e-02,5.85540e-03,2.81195e-02,-3.60128e-02,-4.79706e-02,
-2.87003e-02,-1.91837e-02,1.41150e-01,-2.53255e-02,5.77437e-02,2.47057e-02,-2.23708e-01,2.22912e-01,1.71445e-01,-2.88301e-02,-3.16673e-03,5.02986e-02,1.27811e-01,6.43332e-02,1.00160e-01,-6.36914e-02,1.80933e-01,-8.61884e-01,1.40080e-01,3.85489e-02,-3.32444e-01,-1.97724e-02,2.82924e-02,-2.16038e-02,3.82394e-04,-1.39329e-02,7.23576e-02,4.08825e-02,-1.00903e-01,-1.75215e-03,-1.41296e-01,-7.79337e-03,-9.90146e-02,2.70064e-01,-1.57456e-01,1.14396e-01,-2.77924e-02,-5.67419e-02,-1.41845e-01,1.04183e-01,6.91351e-02,3.67309e-01,-1.79266e-02,1.16020e-01,-6.64799e-02,1.84059e-01,-2.00015e-01,3.47490e-01,-4.01865e-02,4.58866e-02,-8.08134e-02,-1.41456e-02,2.92827e-02,5.73534e-02,1.37649e-01,1.07173e-01,-4.05596e-01,1.77194e-01,-2.03394e-01,3.70744e-02,-1.58331e-01,-1.54827e-04,1.08198e-03,2.16601e-02,-4.13375e-02,-7.46015e-02,1.76285e-02,1.76823e-01,8.26967e-02,-6.65826e-02,-3.94375e-02,-2.87844e-01,-1.39386e-01,1.48126e-01,1.73446e-01,-2.19652e-02,2.34778e-01,-3.05955e-01,-5.42318e-02,-2.98597e-03,-1.11794e-01,7.81039e-02,3.38838e-02,-6.86802e-02,1.63414e-01,-3.93596e-03,1.51058e-01,6.60049e-02,-4.27752e-02,-5.74059e-02,-2.22409e-01,2.39741e-01,1.16336e-01,-3.54229e-01,1.60680e-01,-1.86083e-01,6.41738e-02,7.52672e-02,-1.00238e-01,1.31998e-01,
7.84379e-02,-2.94067e-02,1.40132e-01,1.01978e-01,2.53415e-02,2.63168e-02,5.34860e-02,-9.28783e-03,1.05715e-01,1.34495e-01,-4.38843e-03,5.42091e-02,1.22194e-02,-2.62917e-02,8.26362e-02,8.32813e-02,-3.84691e-02,-2.49557e-01,1.35182e-01,1.07345e-01,-1.69104e-01,-6.25139e-02,7.75142e-02,3.69589e-02,-1.09595e-01,-1.06047e-01,-7.26381e-02,-6.97648e-02,-5.71182e-02,-2.33734e-02,-3.76073e-02,-8.92573e-02,8.08464e-02,1.33971e-02,1.27566e-02,-3.46221e-02,2.50001e-02,4.97695e-02,1.08288e-02,2.40233e-03,6.39697e-02,-6.70516e-05,1.16280e-03,-7.32201e-02,2.79814e-02,-3.65269e-02,2.76820e-02,1.95609e-02,1.51553e-02,1.45991e-02,1.11518e-01,-3.65176e-02,1.47743e-02,3.86059e-02,2.95398e-02,-3.19005e-02,6.53381e-02,4.89175e-03,3.94456e-02,-5.07371e-02,2.17302e-02,-5.15436e-02,-4.97564e-02,1.32019e-01,-1.94977e-02,-2.98054e-02,6.73442e-03,1.40159e-01,-7.92839e-02,9.13853e-02,6.56064e-02,-7.20915e-02,1.12888e-01,-2.56709e-02,1.29196e-01,6.83366e-02,7.48163e-02,6.13400e-02,2.94817e-02,-7.57150e-02,1.05769e-01,7.06883e-02,1.20582e-02,8.34410e-02,1.03505e-01,-2.04008e-02,5.92729e-02,3.98806e-03,-1.40444e-01,1.86003e-01,-4.81592e-02,6.40719e-03,-1.16666e-02,5.15413e-02,-6.03709e-02,-9.87476e-02,-8.69544e-02,8.48777e-02,1.36932e-01,8.75635e-02,
1.60626e-02,3.32113e-02,1.25563e-02,3.00870e-02,2.27111e-03,-8.19214e-02,6.76080e-02,1.28086e-01,9.69616e-02,-8.74312e-02,1.62459e-01,6.00792e-02,7.52142e-03,9.73181e-02,1.16223e-01,4.56558e-02,-4.83967e-02,9.78697e-02,3.60194e-02,8.38462e-02,9.97049e-02,4.83314e-02,-4.50869e-02,1.00126e-01,-2.77087e-02,1.87686e-01,4.83347e-02,-2.86875e-02,-5.82061e-02,-1.31253e-01,-3.24810e-02,4.87099e-02,1.17965e-02,-4.05587e-02,-2.79279e-02,1.53433e-01,1.10438e-02,-3.81332e-02,6.45631e-02,-7.89298e-02,-1.16623e-01,4.73195e-02,-4.77202e-02,2.53235e-02,8.34961e-02,-3.33632e-02,-3.22959e-02,5.51667e-02,3.70394e-03,5.32623e-02,-8.04433e-03,4.85467e-02,-4.42246e-04,3.02174e-02,4.83827e-02,-1.99252e-02,4.24673e-02,1.12152e-01,-4.98056e-02,2.29598e-01,7.70476e-02,7.06218e-02,-9.92395e-02,-6.94061e-02,-6.30933e-02,-1.00306e-01,1.04134e-01,4.47718e-02,8.36803e-02,1.01920e-03,3.77051e-02,3.50023e-02,1.00709e-01,9.78525e-02,-4.04738e-02,2.42736e-02,-3.44519e-02,-7.82371e-03,8.42367e-02,-7.55216e-02,1.25573e-02,1.29134e-01,8.61341e-02,2.32946e-03,-9.52226e-03,4.89026e-02,1.11358e-01,2.32336e-01,1.77133e-02,4.97325e-03,1.86239e-02,-7.28146e-03,-4.44622e-02,1.82668e-02,1.41308e-01,-1.63504e-02,-1.01708e-01,-3.62987e-02,-6.35225e-02,1.18855e-01,
1.89493e-02,-3.81783e-02,-3.80564e-03,9.26687e-02,6.99862e-02,1.31577e-02,-5.22682e-02,8.97041e-02,1.08679e-01,6.71424e-02,-4.63390e-03,4.23516e-02,-2.71057e-02,2.47427e-02,1.27172e-02,1.79783e-02,8.08052e-03,-1.98820e-01,-7.70168e-03,-7.93070e-02,-2.68544e-01,-5.73121e-02,-4.11477e-03,-6.94602e-02,-4.60453e-02,-8.19011e-02,-1.07313e-03,1.86084e-03,-7.70783e-02,1.06906e-01,-6.09717e-02,-3.12915e-02,-1.04461e-01,-5.62615e-02,-6.80712e-02,-1.31334e-01,6.91952e-02,1.20159e-01,7.99609e-02,5.15937e-02,-2.11432e-02,-8.82836e-02,-1.01824e-01,2.11129e-01,1.35998e-01,4.44903e-02,1.29283e-01,7.70012e-03,9.82121e-04,1.32846e-02,-2.70991e-02,2.75055e-02,6.16744e-02,5.21134e-03,1.65284e-02,5.92809e-02,1.59388e-02,-1.45377e-02,2.60411e-02,5.41937e-02,-1.28052e-01,7.83181e-02,8.21497e-02,8.27424e-02,-9.32708e-02,-3.14368e-02,6.79576e-02,-5.66597e-02,1.55690e-01,8.34563e-02,-9.51732e-02,7.34735e-02,8.41451e-02,3.19875e-02,-4.67639e-02,7.21986e-02,1.46692e-01,1.67766e-02,-3.88216e-02,2.24582e-02,2.02508e-02,3.43932e-02,-3.19094e-02,-6.05391e-02,-1.42062e-01,-6.69085e-02,1.13347e-01,7.18629e-02,2.10720e-02,5.27103e-03,-5.80732e-03,-6.63225e-02,-4.17663e-02,-5.55014e-02,-1.99688e-02,2.78706e-02,8.12146e-02,-6.92263e-03,-8.15302e-02,-9.12739e-02,
2.97585e-02,-6.45726e-02,1.60382e-02,4.94294e-02,6.31984e-03,2.50746e-02,-6.41554e-02,-9.41933e-03,6.43744e-02,-9.75220e-02,9.80083e-02,-4.63863e-02,-5.31044e-02,-2.00267e-02,5.41951e-02,-5.89582e-02,1.58574e-01,-5.10664e-01,6.10088e-02,-1.82588e-02,2.95614e-01,9.85407e-02,6.11790e-03,6.23490e-02,7.61840e-02,8.02166e-02,9.71810e-02,5.73145e-02,-6.15650e-02,4.45080e-02,5.16709e-02,-9.12862e-02,-4.01883e-02,3.32816e-02,1.42766e-02,2.24383e-01,-5.39131e-02,-5.30234e-02,-6.20231e-03,9.43960e-02,7.15077e-03,-5.39163e-03,1.76047e-02,1.04260e-01,-6.67254e-02,-7.65737e-02,1.25200e-01,8.28429e-02,5.21027e-02,-1.38030e-01,-7.38940e-02,-2.57341e-02,-9.88213e-02,1.78877e-02,-2.12160e-03,6.23978e-03,1.65971e-01,2.68833e-02,6.08001e-02,1.10532e-03,-1.45198e-01,9.19329e-02,-6.47701e-02,1.00678e-02,4.98614e-02,4.65150e-02,1.31664e-01,-1.22857e-02,9.12372e-02,1.01807e-01,2.94777e-02,4.46472e-02,-7.67499e-02,2.36190e-02,5.05986e-02,-2.35732e-02,1.33823e-01,1.67071e-01,-5.94997e-02,-5.88495e-02,4.27251e-03,-9.14248e-02,7.76051e-02,4.52253e-02,1.06516e-01,5.68878e-02,-1.48907e-03,-9.18314e-02,5.39271e-02,-1.17570e-01,-1.15574e-03,-8.23860e-03,9.58542e-02,3.97448e-02,1.40220e-01,1.95955e-01,3.42864e-02,6.89512e-02,-5.55282e-02,9.39015e-02,
7.20919e-02,9.68415e-02,1.90059e-01,-1.78972e-02,4.10388e-02,2.53121e-02,8.60708e-02,-9.40539e-03,5.32481e-02,2.00260e-01,-1.17411e-01,-5.20802e-03,1.03416e-01,-8.09722e-02,-4.88598e-02,1.73870e-01,3.47609e-02,-2.16747e-01,1.43293e-01,-3.45452e-03,-2.14092e-01,-1.23063e-01,6.04198e-02,9.80409e-02,-5.08665e-02,-1.07848e-02,-6.08396e-04,-3.68415e-02,-4.80513e-02,1.30674e-01,4.84952e-02,4.35257e-03,1.17627e-01,-5.17253e-02,6.87560e-02,-4.11552e-02,-3.84202e-02,7.60632e-02,-3.41826e-02,5.35610e-02,8.05379e-02,9.07764e-02,-4.07599e-02,1.12965e-01,2.37178e-02,9.94046e-02,1.63915e-02,2.63739e-02,9.31809e-03,-2.94513e-03,6.51062e-02,-5.19092e-02,7.60488e-02,-1.59663e-02,8.52434e-02,5.50521e-02,2.86836e-02,1.44973e-02,-1.75902e-04,-1.40930e-02,-2.05506e-02,-1.00610e-02,1.10835e-01,1.44664e-01,-4.61352e-02,-4.96243e-02,2.04760e-02,-1.37348e-02,6.98205e-02,-6.03975e-02,-8.61941e-02,8.81471e-02,9.56648e-03,1.94416e-02,3.87551e-02,-4.69988e-02,1.44406e-01,-7.23951e-03,1.52894e-02,-6.14786e-02,-1.18857e-03,-1.67390e-02,1.04154e-01,9.44460e-02,-5.56638e-02,-6.52398e-02,-3.80919e-02,-7.22505e-02,1.56681e-03,3.83388e-02,-3.13192e-02,6.37946e-02,-5.56589e-02,-4.99446e-02,-1.18036e-01,5.16500e-02,-4.02511e-02,-2.70831e-02,1.34335e-01,8.23316e-02,
8.15943e-02,-1.69153e-01,1.20525e-02,3.64733e-03,-9.05525e-02,-6.95788e-02,-1.19036e-02,-1.19522e-01,1.40284e-01,2.01470e-01,3.49930e-02,1.65343e-01,1.61294e-04,-4.66578e-02,-5.56941e-02,4.10999e-02,1.20669e-01,6.67633e-02,-2.48320e-01,4.65933e-02,2.51117e-01,-3.60317e-02,-1.26178e-02,3.79789e-02,-6.65191e-02,3.58324e-02,4.20661e-03,-1.46578e-02,5.64805e-02,4.97704e-02,1.65031e-02,-5.80032e-02,-4.82985e-02,-1.40916e-01,-3.18165e-01,2.30095e-01,2.96296e-02,-5.32708e-02,-6.54747e-02,-1.12366e-01,1.04092e-03,-3.88639e-03,9.31364e-03,3.53519e-02,4.73230e-02,-1.29404e-01,-2.74183e-01,7.84181e-02,-5.66168e-03,3.51952e-02,-1.22463e-01,-1.11153e-01,-1.03653e-01,8.17645e-02,-5.28720e-02,3.34289e-02,-1.26976e-02,-1.38166e-01,-2.49654e-01,-1.20753e-01,1.94756e-02,-1.19290e-01,-6.31426e-02,-1.05293e-01,-6.84887e-03,5.78970e-02,6.04093e-02,-1.64305e-04,1.12150e-01,7.89990e-02,-2.40380e-02,2.49001e-02,-1.14072e-01,-5.49245e-02,1.48689e-01,-3.56699e-01,1.04761e-01,-7.93318e-02,2.25971e-02,-2.10933e-01,-8.55423e-02,7.35353e-02,-1.40171e-01,4.85720e-02,3.63535e-01,-5.71885e-03,9.45247e-02,6.39363e-02,-3.56118e-02,2.81713e-02,-1.57569e-03,-4.52387e-03,-7.14052e-02,7.28356e-02,6.10712e-03,4.47947e-02,5.02715e-02,-2.33715e-02,-1.44885e-03,3.22359e-02,
-4.78061e-02,-5.34298e-02,-1.84349e-02,7.35544e-02,-1.14795e-01,4.57712e-02,3.37384e-02,-4.14759e-02,5.32794e-02,-4.28157e-03,5.99011e-02,-1.62064e-02,2.81508e-02,-2.00129e-02,-2.86237e-02,6.01857e-02,-3.44928e-02,3.37144e-01,1.02885e-01,7.41903e-02,3.49196e-01,-1.17818e-01,-7.97108e-02,2.29347e-02,6.03531e-02,-6.44296e-02,-8.79226e-02,-1.04064e-02,2.12308e-02,2.26484e-02,-1.39623e-03,1.02431e-02,-6.00268e-02,8.01827e-02,-2.18510e-02,9.88878e-02,-9.43281e-03,4.83172e-02,-2.64745e-02,3.87198e-02,1.85368e-03,1.12334e-01,-4.36455e-02,-1.69938e-02,1.05863e-01,1.59658e-03,-1.38665e-01,-5.72753e-02,3.39858e-02,2.20129e-02,1.32098e-02,8.45777e-02,1.28335e-02,-6.39813e-02,8.78649e-02,4.93124e-02,-1.27246e-01,-2.63672e-02,1.17363e-01,2.21466e-02,1.23801e-01,3.70747e-02,7.03720e-02,-4.37497e-02,-2.73714e-02,1.52444e-01,-6.15779e-02,-3.94870e-03,-6.52719e-02,1.06560e-01,-7.48622e-02,9.36747e-02,-1.29438e-01,8.71263e-02,-4.29038e-02,-4.82004e-02,-8.30418e-02,-1.32879e-02,-3.80048e-02,1.86534e-01,6.93934e-03,-2.46146e-02,-1.17257e-01,-2.85633e-02,8.89907e-02,4.89471e-02,2.04639e-02,7.11142e-02,-4.53707e-02,-5.79265e-03,6.96458e-02,7.93669e-02,8.67616e-04,-4.67717e-03,-1.34151e-01,1.28726e-02,-1.13033e-02,-1.87276e-02,-1.48490e-01,3.86872e-02,
-2.59245e-02,1.63085e-01,-7.52552e-02,8.20210e-02,-3.79866e-01,6.23645e-02,-1.93195e-02,-3.00603e-02,4.35282e-03,9.46067e-02,7.14958e-02,-1.54319e-01,-1.20454e-02,-2.29891e-01,1.16143e-01,-6.93194e-02,3.63425e-03,-1.48677e-01,1.60473e-02,-1.07130e-01,-1.06121e-01,8.55820e-03,4.29862e-02,-9.80220e-02,-6.37846e-02,4.29339e-02,-1.21897e-01,-1.83491e-04,-2.75718e-02,1.12788e-01,6.83042e-02,4.20189e-02,-1.26213e-01,6.58778e-03,5.45465e-02,-8.53586e-02,-7.29033e-02,1.92106e-02,1.06038e-01,-2.26604e-04,-5.29857e-02,-6.02038e-02,4.28477e-02,-5.98317e-02,3.97133e-02,1.04323e-01,1.44714e-02,-2.04579e-01,6.83322e-02,1.23689e-01,1.52645e-02,3.85765e-02,1.01514e-01,-1.04562e-01,1.39276e-01,-7.62179e-02,3.17945e-01,1.27139e-02,1.02088e-01,9.49976e-02,1.71176e-01,-9.82833e-02,1.54042e-01,-1.60265e-01,4.60912e-02,3.00869e-02,-6.53362e-02,-6.99521e-02,4.33682e-02,7.13733e-02,-5.21634e-02,-8.00327e-02,4.55505e-02,-8.75485e-02,1.16082e-02,5.38351e-02,7.05397e-02,3.72763e-02,-1.57923e-02,-3.94273e-01,5.33889e-02,3.75624e-02,-4.68650e-02,5.03075e-02,-6.02372e-02,-5.29084e-02,-1.17515e-01,2.10110e-02,-7.58301e-02,3.22251e-02,1.53321e-01,5.84719e-02,-1.71973e-02,1.15398e-01,-1.46868e-01,2.54973e-01,-6.86468e-02,-5.62118e-02,1.23496e-01,-9.48907e-02,
1.17640e-01,1.07644e-02,1.02175e-01,7.15143e-02,1.58517e-01,3.80442e-02,1.54476e-01,2.44825e-01,3.38810e-01,-3.76032e-02,-2.13970e-01,-1.02109e-01,-9.33904e-02,1.45576e-01,1.71096e-02,-2.53977e-01,-8.31895e-02,2.59655e-01,2.51472e-02,-1.02799e-01,-4.32017e-01,1.20001e-02,6.43162e-02,9.81770e-03,3.55710e-02,-9.40782e-02,1.54524e-01,1.71039e-01,-9.76126e-02,1.28311e-01,9.01603e-02,-7.43681e-03,9.76529e-02,1.95262e-01,-8.56321e-02,-4.95644e-02,-2.78270e-04,1.58811e-01,1.27958e-01,-8.45290e-02,1.98370e-01,-1.20554e-01,5.05302e-02,-1.21693e-01,-9.59599e-02,-5.22272e-02,-5.05179e-03,-4.67487e-02,-6.63342e-02,-3.74918e-02,1.06920e-02,-4.35276e-02,1.23325e-01,5.43747e-02,-2.02761e-01,-9.45359e-02,-2.51965e-01,1.90523e-01,-2.21587e-01,1.19719e-01,-1.06588e-02,9.00059e-02,-1.99160e-01,2.28609e-01,3.99909e-03,1.13341e-01,1.54312e-01,2.40935e-01,-9.15212e-03,-9.25644e-02,1.87001e-01,-6.99740e-02,1.52213e-01,-1.52516e-01,-6.59646e-02,-9.49201e-03,8.78228e-02,-1.67911e-02,-2.07869e-01,3.39449e-02,-7.67299e-02,-1.82426e-02,1.13052e-01,-8.65107e-02,-5.92068e-02,2.45703e-01,3.65792e-02,-6.46663e-02,9.52704e-02,-7.54481e-02,-1.38960e-01,-9.61345e-02,-4.29007e-02,-8.39240e-02,-3.97553e-02,-1.12268e-01,-7.18444e-02,3.71699e-02,7.41037e-02,-5.17645e-02,
1.87577e-02,3.56640e-03,-2.73821e-02,-1.27625e-02,-2.22099e-02,1.61823e-01,1.19195e-01,-2.18452e-01,-1.74696e-02,-1.29418e-01,1.05827e-02,8.34672e-02,-7.70603e-02,-2.04130e-01,-1.23747e-01,1.26532e-01,-1.11144e-01,5.75169e-02,-2.58255e-02,9.55230e-02,-9.31545e-02,-5.53351e-02,-9.40582e-02,-1.34369e-01,1.59706e-02,-2.60162e-02,-1.88323e-01,-5.01277e-02,4.39116e-02,-5.47685e-03,5.67411e-02,-6.89929e-03,-7.38841e-02,-2.12489e-01,1.50205e-01,1.60402e-02,-1.28457e-02,1.11979e-01,-6.57900e-03,-8.02558e-02,-1.59849e-02,-7.97856e-02,-8.55943e-02,2.97147e-02,-5.16880e-04,-8.35886e-03,1.17541e-01,-7.50390e-01,1.12946e-01,-5.63597e-02,2.06596e-02,4.82223e-03,1.51302e-02,-1.88077e-01,1.13296e-01,-4.67008e-02,2.27140e-01,-1.35822e-01,8.64189e-03,5.95370e-02,2.45823e-01,-1.43223e-03,6.03612e-03,8.06380e-02,-1.77174e-03,9.02338e-02,-2.31477e-02,-6.50290e-02,6.63042e-02,1.10213e-01,-7.76982e-02,5.00068e-02,8.69963e-02,-2.77817e-02,-1.60662e-01,3.21626e-02,-3.72452e-01,2.13737e-01,1.11373e-01,-1.16901e-01,3.94732e-02,-6.83439e-02,-4.28145e-02,1.32539e-01,1.06120e-01,6.62967e-02,1.57853e-01,5.99393e-02,1.36399e-02,1.17713e-04,2.08860e-01,-4.45563e-02,-5.12353e-02,1.53558e-01,-5.93096e-02,1.63473e-01,-6.52141e-03,-1.51971e-02,8.08789e-02,-1.83182e-01,
-7.70218e-02,1.97913e-01,7.65836e-02,6.85762e-02,7.28694e-02,1.35168e-01,7.24062e-02,-2.84595e-01,-1.27574e-01,9.56543e-02,-9.19168e-02,3.22810e-01,-5.53570e-03,4.50922e-02,-3.65177e-03,9.35083e-02,-2.83238e-02,8.34157e-01,-2.27771e-01,-1.32298e-02,-1.24269e-01,-1.98720e-02,-4.83704e-02,1.08834e-01,-8.32899e-02,4.42870e-03,8.81762e-02,-6.68326e-02,3.06411e-02,1.16375e-01,-9.68235e-02,1.24199e-02,4.18575e-02,-6.66540e-02,-1.09123e+00,-4.23504e-01,-3.65911e-02,-1.47745e-01,2.52663e-01,-2.29552e-02,-5.04700e-02,-8.35869e-02,-9.43112e-02,-3.03255e-01,5.36094e-02,1.53093e-02,-3.06447e-02,-4.00074e-01,-4.41154e-03,1.24575e-01,-1.31660e-02,-3.83043e-02,-2.92567e-02,1.11823e-03,1.84296e-01,-5.86264e-02,-7.61689e-03,-1.75009e-01,-8.24435e-02,-9.59812e-02,1.40534e-01,-9.14632e-03,-1.05993e-01,5.03630e-02,7.26905e-02,2.62645e-01,-4.90956e-02,-1.43198e-01,-5.63905e-02,-9.62502e-02,-4.90160e-02,-3.25599e-02,5.25865e-02,-1.32287e-01,-1.43039e-01,1.16455e-02,-1.50320e-01,-2.69415e-01,6.48595e-02,6.88319e-01,-1.11794e-02,9.30188e-02,-3.45985e-04,1.61676e-01,-1.63263e-01,1.51047e-01,2.65848e-01,-9.42917e-03,1.56503e-01,3.10735e-02,-4.79858e-01,-8.61153e-02,-1.55101e-01,-7.12172e-02,9.64480e-02,-6.91657e-02,1.04982e-01,1.10543e-01,-1.14945e-01,1.09852e-02,
6.34454e-02,7.47816e-02,5.74932e-02,7.29342e-02,6.87805e-02,-5.60268e-02,2.74155e-02,5.38764e-02,-4.87018e-02,6.05325e-02,-6.76065e-02,1.21940e-01,9.13833e-02,1.22411e-01,1.33648e-01,9.67927e-03,-4.53900e-02,-2.23842e-01,6.98273e-02,2.64773e-02,-1.12572e-01,1.11434e-01,9.33456e-02,1.43742e-01,3.42895e-02,6.36790e-02,1.92993e-02,7.17710e-02,-5.40393e-02,8.29627e-02,7.96816e-02,-4.37424e-02,1.18275e-01,-3.92704e-02,-1.60930e-01,9.69029e-02,9.36083e-02,-2.13824e-02,7.70131e-02,-6.77107e-02,-2.86516e-02,-3.51620e-02,8.79720e-02,-1.30908e-01,1.40088e-01,-3.67809e-02,6.74980e-02,1.85404e-01,7.80097e-02,-2.07704e-02,3.77916e-02,5.37326e-03,5.45508e-02,1.20656e-01,1.85452e-02,3.87172e-02,-3.14788e-01,1.77132e-01,7.51588e-02,-4.07023e-02,-4.15762e-01,-1.73096e-02,3.10584e-03,1.07482e-01,3.87705e-02,1.58616e-01,7.56150e-02,7.80867e-02,-5.98737e-02,-3.70428e-02,-2.84540e-03,-9.90267e-02,1.05624e-01,3.82649e-02,5.16010e-03,4.14939e-02,1.25280e-01,-1.04183e-01,-7.39021e-02,7.81706e-02,-1.89584e-01,7.28654e-02,-2.62271e-02,6.41698e-02,-3.23247e-01,1.33077e-01,1.08837e-02,5.12644e-03,1.09800e-01,-6.17365e-02,-3.85289e-01,-6.07964e-03,-3.50853e-02,-5.69075e-02,7.91459e-03,-5.05180e-02,-3.86793e-02,-5.76492e-02,-1.22263e-01,2.31867e-02,
2.28080e-02,2.82724e-02,4.83859e-02,2.51035e-01,2.26485e-02,-3.82865e-02,-2.19851e-02,-6.68308e-01,6.54507e-03,4.31426e-02,1.21877e-01,1.35636e-01,2.19499e-01,6.39067e-02,-3.27665e-02,1.25285e-01,9.26857e-03,-4.48189e-01,1.17779e-01,6.91828e-02,-3.54672e-01,3.36312e-02,-4.91172e-03,-2.46678e-02,-3.52100e-02,7.03417e-02,-7.74262e-03,1.30824e-01,-9.02349e-02,-5.06668e-03,4.44227e-03,3.83584e-02,-1.43096e-01,-2.39774e-01,5.37633e-02,5.49757e-02,-9.87837e-03,-2.34735e-01,-8.82923e-02,4.51592e-02,-3.89373e-02,-2.48332e-02,-1.91765e-02,-3.64275e-01,4.80588e-02,-1.69013e-02,-8.53902e-02,4.80252e-01,-1.94102e-01,5.54445e-02,-4.62577e-02,-1.04388e-02,3.40971e-02,1.20630e-02,4.05324e-02,-2.00272e-02,-1.79907e-01,-3.37733e-01,1.42926e-02,-3.45027e-02,-3.38401e-01,1.52031e-02,-2.47994e-01,-1.56194e-01,4.08465e-03,1.65460e-01,2.11778e-02,1.65069e-01,-6.16096e-02,-8.42204e-02,-1.08179e-01,-5.51960e-03,-2.17023e-02,-7.70484e-02,-6.21927e-02,5.97490e-02,1.52488e-01,2.49761e-02,-1.04989e-01,-1.94336e-01,-1.44015e-01,6.17100e-02,-1.57561e-01,2.08964e-01,-2.23984e-01,-1.76462e-03,6.45555e-02,-1.24619e-02,5.28061e-02,1.00763e-02,-8.33307e-01,-2.24258e-02,-1.67482e-03,7.18536e-02,7.23810e-02,-4.13854e-02,-3.43873e-02,1.60163e-02,3.86496e-02,1.02962e-01,
5.09258e-02,9.71296e-02,-1.39365e-02,-9.39766e-02,1.59459e-01,-4.34396e-02,1.08301e-01,-4.12868e-02,6.77007e-02,-6.43766e-02,-2.80231e-02,1.42862e-01,-8.70665e-02,-3.08481e-02,-8.31859e-02,1.08863e-01,7.95366e-03,5.76595e-01,-5.09938e-02,-1.07707e-02,1.83152e-01,7.75816e-02,-4.08950e-02,8.06953e-02,-7.57058e-02,-3.99770e-02,-3.84002e-02,-4.00538e-02,5.40413e-02,9.40332e-02,5.06392e-02,-1.83413e-02,-8.92388e-03,-2.02385e-01,-1.71710e-01,-3.63484e-02,3.25643e-02,1.00946e-01,1.25310e-01,-1.12702e-01,-1.59011e-02,-5.74539e-02,4.31006e-02,-1.40027e-01,-2.98952e-02,-9.45095e-02,-1.55331e-02,-3.10236e-01,-8.12767e-02,1.07040e-01,-1.74692e-02,8.48207e-03,3.15559e-02,8.05875e-02,7.97148e-02,2.08261e-02,-7.64496e-03,-1.72518e-01,-5.43468e-03,4.69027e-02,-2.44821e-02,-7.07763e-02,6.62098e-02,5.02358e-02,6.90169e-02,8.78785e-02,-5.04319e-02,-2.82105e-03,1.00428e-01,4.16312e-02,-7.00554e-02,2.54337e-02,-7.04319e-02,1.33835e-02,3.28232e-03,-2.16963e-02,-7.81505e-02,-1.32338e-01,-1.01532e-01,1.18522e-01,-3.66870e-03,2.42085e-02,8.29335e-02,5.42864e-02,-7.27410e-02,1.41749e-01,1.59643e-01,9.70903e-03,2.92527e-02,4.04816e-02,-5.00851e-02,4.43254e-02,-1.23313e-01,4.97481e-03,-2.92128e-04,-1.56268e-01,5.08950e-02,-1.76145e-02,-8.47723e-02,4.98110e-02,
6.68029e-02,-3.97035e-02,6.43548e-02,-3.78349e-02,4.47137e-02,-1.75795e-02,7.94337e-02,4.88536e-03,-2.54771e-02,1.71664e-02,5.61980e-02,8.00628e-02,3.72195e-02,-7.44192e-03,-5.93312e-02,-2.84006e-02,1.97924e-02,2.68298e-01,1.02284e-01,1.12690e-01,1.64342e-01,3.83468e-02,-6.62913e-02,-5.25134e-02,-3.16608e-02,1.00464e-02,-4.59760e-02,-5.42367e-02,-4.65972e-02,5.15682e-02,1.08079e-01,1.04370e-01,-2.59410e-07,6.81346e-02,5.14100e-02,7.28574e-02,3.62627e-02,7.70027e-02,2.08688e-02,-1.44288e-02,-1.28051e-01,1.08059e-01,2.19019e-02,1.51750e-01,3.49424e-02,-8.58586e-02,5.69843e-02,7.17859e-04,-5.06390e-02,6.69532e-02,-1.09553e-01,-5.62107e-02,3.64880e-02,4.15342e-03,4.91821e-02,5.88435e-02,-3.62605e-02,4.28134e-02,3.70107e-03,1.19443e-01,3.25651e-02,9.42735e-02,8.00700e-03,-1.71789e-03,-6.20178e-02,-4.87771e-03,6.64015e-03,6.59421e-02,-6.48661e-02,-2.58460e-02,7.06695e-02,-6.76098e-02,1.01608e-02,-1.20933e-02,-4.08829e-03,9.78131e-02,-3.63761e-02,-6.42770e-03,4.03442e-02,1.74996e-02,3.92036e-02,-1.36891e-02,2.16274e-02,2.35330e-02,5.83866e-02,7.12815e-02,7.39356e-02,-2.75189e-02,1.24142e-01,-1.20073e-01,7.56314e-02,-7.63173e-02,1.04418e-01,-8.56169e-02,9.97272e-02,1.32520e-01,-5.77477e-02,5.84374e-02,1.27454e-02,5.20694e-02,
-1.50716e-01,2.66433e-02,1.84305e-02,-4.51640e-02,6.02096e-02,1.11793e-01,3.84646e-02,-7.65192e-02,-3.39842e-02,-3.66178e-02,2.80275e-02,-5.06736e-02,-6.84799e-02,4.40652e-02,1.04101e-01,-6.88634e-02,3.83324e-02,-3.24829e-01,1.24528e-01,-7.60054e-02,-6.82310e-02,-8.98267e-02,-6.65255e-02,-4.52002e-02,1.24474e-01,-1.00539e-02,6.98677e-02,7.42656e-02,-6.84393e-02,-1.14952e-02,-1.72094e-02,4.00245e-02,-6.94122e-02,4.97029e-03,1.69338e-02,-1.92680e-02,2.04275e-02,-4.43857e-02,6.50695e-02,1.40414e-01,-5.97601e-03,-1.18207e-01,-3.07488e-02,-8.11944e-02,3.14265e-03,-1.26426e-01,-3.10931e-02,8.58552e-02,-6.32941e-02,9.39198e-02,-4.08598e-03,-1.92077e-02,-2.24440e-03,3.74218e-02,8.31141e-02,-7.96126e-02,1.58383e-01,2.68209e-03,-5.09478e-02,4.54613e-02,9.34835e-02,7.67068e-02,-6.39800e-02,5.11388e-02,-1.15546e-01,7.42030e-02,1.35860e-01,-6.49346e-02,3.91097e-02,-5.93232e-02,3.41284e-02,2.04297e-03,-1.42513e-01,-4.90024e-02,-5.92998e-02,-6.58247e-02,5.66638e-03,6.19259e-02,-6.91463e-03,2.94499e-02,-6.52008e-02,1.96346e-02,1.01937e-02,4.32649e-02,-1.08656e-01,-6.55122e-02,1.48640e-01,-1.19864e-02,9.17482e-02,-4.53366e-02,-3.04607e-02,3.44942e-02,8.80787e-03,-9.79181e-02,-8.31033e-02,1.07634e-01,-3.32572e-02,4.70741e-02,6.91524e-02,1.97667e-02,
7.91163e-02,3.93693e-02,-3.64419e-03,6.41777e-02,-1.76330e-01,-2.51459e-02,2.09151e-02,7.02603e-02,1.19619e-01,-2.79879e-02,7.40394e-02,-4.29141e-01,2.03782e-02,1.04041e-01,-7.65458e-02,1.15694e-02,2.97880e-02,3.05078e-01,1.16646e-01,7.14980e-02,1.78078e-01,-5.89049e-04,-8.50964e-02,-2.39797e-01,3.97297e-02,5.80181e-02,-1.92990e-01,1.56545e-01,-8.12164e-02,5.84661e-02,5.46824e-02,-9.63543e-02,-2.28173e-02,4.65745e-02,-9.88966e-02,7.34468e-02,-9.33134e-02,5.76035e-02,1.37133e-01,6.26338e-02,-8.97542e-03,7.80022e-02,9.84248e-02,-4.05050e-02,1.80903e-02,6.35764e-02,-3.87916e-02,-5.97914e-01,-2.15537e-03,3.61025e-02,-1.75093e-02,-8.08706e-02,-5.32516e-02,1.67821e-02,2.05028e-01,8.91472e-02,6.44163e-02,-3.37487e-02,9.95130e-02,7.94221e-02,1.41081e-01,-6.00870e-03,-7.89116e-03,1.78143e-01,8.16788e-02,1.91484e-02,1.29140e-01,-3.35621e-02,1.45574e-01,9.87523e-02,-6.46617e-02,3.58214e-02,-6.17053e-02,-4.23240e-04,-1.18755e-01,-6.05307e-02,-2.69835e-01,1.05517e-01,4.09252e-02,-6.45055e-01,1.15359e-01,1.14273e-01,2.64238e-02,-6.20887e-02,-1.72161e-01,6.45205e-02,5.05512e-02,-1.52057e-02,-2.87822e-02,1.15432e-01,1.31590e-01,7.46384e-02,-1.70350e-02,1.01204e-01,1.12360e-01,1.81474e-01,5.98815e-02,-6.27481e-02,9.64908e-02,-6.82263e-02,
3.02051e-02,-4.38661e-02,-1.44426e-03,-2.51857e-02,6.66421e-02,-7.52669e-03,3.54433e-02,1.15090e-01,-2.79583e-02,-2.49596e-02,3.88169e-02,-1.36757e-02,1.28647e-01,-8.82024e-02,2.52388e-02,8.27133e-03,7.43790e-02,8.66771e-02,7.80674e-02,4.15743e-02,9.00980e-02,-1.05942e-01,3.85438e-02,-2.33404e-02,1.62368e-02,-2.16684e-02,1.22987e-01,4.21354e-02,8.10344e-02,2.23457e-02,1.99505e-02,3.86280e-02,8.67538e-02,7.81877e-02,1.59884e-02,-3.99087e-02,-4.50822e-02,3.71783e-02,3.29107e-02,-3.96598e-02,-6.08645e-02,-3.35745e-02,-6.95521e-02,3.09703e-02,-2.05696e-02,6.07399e-02,-4.15931e-02,-2.18466e-01,6.48452e-03,3.05481e-02,-1.24175e-01,-6.50033e-02,-3.75241e-02,-3.37649e-02,1.24457e-01,-4.84760e-03,-4.61095e-02,-5.74793e-02,7.21849e-02,-3.26038e-02,9.48346e-02,9.23102e-02,-1.02893e-02,9.23701e-02,3.54672e-02,2.72062e-02,4.40469e-02,1.51720e-02,1.11003e-01,9.07624e-03,1.90712e-02,-1.13240e-02,-1.80038e-02,5.47194e-03,-5.11817e-02,4.46286e-02,-8.17644e-02,7.10312e-02,5.32675e-02,-3.72283e-01,3.09526e-02,-1.20319e-01,4.14441e-03,5.09396e-02,-1.46819e-02,5.82471e-02,1.17198e-01,2.22444e-02,2.80790e-02,-7.64946e-02,1.75964e-02,-2.73100e-02,-7.18585e-02,8.44484e-02,-1.03425e-01,3.52316e-03,-3.37889e-02,1.95836e-02,-7.74422e-02,-1.00549e-04,
-3.46859e-02,3.11878e-02,7.92256e-02,1.50653e-02,-9.25134e-02,-5.85316e-02,-8.11400e-03,4.38633e-02,5.69953e-02,-7.32557e-02,8.48409e-02,-8.25573e-02,-1.79370e-02,9.18889e-02,6.39421e-02,-2.83968e-02,-9.30051e-02,-8.06950e-02,4.24502e-02,-2.09524e-02,-1.42744e-01,8.24128e-02,1.34419e-02,1.01764e-01,1.60105e-02,4.16176e-02,-4.65042e-02,1.28425e-01,4.37282e-02,-8.78564e-02,-6.34785e-02,3.23267e-02,-8.07651e-02,6.47479e-02,-8.87560e-02,1.51832e-01,-9.21485e-02,8.59100e-02,-6.64648e-02,5.20412e-02,-4.31050e-02,9.54075e-02,3.44188e-04,3.14295e-02,-3.94257e-02,-3.87139e-02,2.28143e-02,1.18619e-01,8.52687e-02,1.39620e-02,-5.04701e-02,3.86389e-02,2.08762e-02,9.06257e-02,7.25942e-02,2.83607e-02,-2.10006e-02,-2.79394e-04,-4.21155e-02,-8.68387e-02,4.46804e-02,-2.27440e-02,5.40561e-02,7.50670e-02,-6.91199e-02,-9.06494e-02,5.54624e-02,5.23954e-03,-3.91190e-02,-9.07580e-03,9.02125e-02,4.89288e-02,4.18277e-02,2.99360e-03,-1.58296e-02,5.26418e-02,1.09475e-01,3.22197e-02,-5.79573e-02,-1.79536e-01,-5.55501e-02,4.41139e-02,3.08031e-02,1.15202e-01,-5.56004e-02,5.87305e-02,1.14166e-01,2.51494e-02,-1.08946e-01,-2.63714e-03,2.55114e-02,1.38664e-01,-2.76081e-02,6.55037e-02,-1.34191e-02,-6.02278e-02,-7.68486e-02,5.28304e-02,2.84630e-02,6.26118e-02,
3.40045e-02,-3.53266e-02,6.45132e-03,1.42185e-02,2.38031e-03,2.30922e-02,8.44729e-02,3.73599e-02,5.91037e-02,5.73775e-02,5.76876e-02,3.78014e-02,-1.12750e-01,1.29443e-01,-9.65102e-03,1.37365e-01,-2.29304e-02,-2.25507e-01,4.98430e-02,-5.54939e-03,-1.43050e-01,-2.46960e-02,-5.03175e-02,-1.74570e-02,-8.78958e-03,-4.56390e-02,-8.33566e-02,1.32109e-01,8.23712e-02,-5.47044e-02,-4.60436e-02,-6.63111e-02,-1.10531e-01,1.10372e-01,9.22499e-02,3.71270e-02,-9.56570e-02,1.45442e-02,8.71759e-02,-1.31221e-01,7.59190e-02,-6.25616e-02,2.35044e-02,-1.48156e-01,-1.33901e-02,3.72019e-02,1.58025e-01,-9.13880e-03,2.80007e-02,-1.66619e-02,6.86292e-02,-3.88001e-02,-1.43820e-02,2.63856e-02,4.34399e-02,-5.85532e-02,1.44764e-01,9.59806e-02,1.01008e-01,7.86509e-02,-1.51600e-01,-2.16711e-02,-5.42518e-02,5.20783e-02,-3.14922e-02,-1.09207e-01,-2.11043e-02,4.89332e-02,9.15018e-02,6.43369e-02,-1.19862e-02,2.53027e-02,-1.14038e-02,-5.96194e-02,2.34105e-02,-2.73358e-02,4.70529e-02,1.32979e-01,9.62343e-02,-1.65309e-01,-9.51357e-02,6.40011e-02,-4.64697e-03,5.95931e-02,-2.15335e-01,6.03737e-02,2.74250e-02,2.71770e-03,9.08726e-02,-1.23248e-02,1.63415e-04,8.88025e-02,-3.69576e-02,5.17092e-02,-4.88416e-02,-1.12513e-02,-6.71025e-02,9.72139e-02,-1.46633e-01,1.43559e-01,
-4.56767e-03,-2.40553e-02,2.83835e-02,-3.54421e-02,-7.23430e-02,4.11677e-02,-1.35576e-02,3.88835e-02,1.39514e-02,3.31769e-02,3.64154e-02,-1.17458e-01,-4.31937e-02,7.68299e-03,9.15787e-03,3.96290e-03,-3.56758e-02,-6.54701e-01,1.16021e-01,-3.15657e-02,7.64830e-02,4.88361e-02,4.40870e-02,2.14974e-02,1.27576e-02,-2.61361e-02,5.21143e-02,1.14310e-01,-4.44556e-02,-7.95090e-02,-2.10332e-02,-2.87996e-02,-5.85771e-03,-1.02863e-01,1.50359e-01,8.65358e-02,4.98656e-02,2.33891e-02,-7.17903e-02,-2.21479e-02,2.37354e-02,-8.96666e-03,3.99406e-02,7.29620e-02,7.14687e-03,-6.69061e-02,6.66665e-02,1.37324e-01,-7.22417e-02,-1.53377e-01,7.97632e-02,1.62941e-02,-5.63008e-02,9.48148e-03,-8.43863e-02,1.15454e-01,1.76055e-01,1.07536e-01,9.38264e-02,1.34523e-02,6.41239e-02,7.74347e-02,3.79493e-02,-3.78394e-03,-6.85685e-02,-9.39288e-03,4.44808e-02,-1.76605e-02,6.57896e-02,-2.08416e-02,8.32118e-03,4.72934e-02,9.08813e-02,3.36318e-02,-3.94794e-02,-7.36742e-02,5.40898e-02,2.67345e-01,-1.31995e-02,3.07760e-01,4.99138e-02,3.96159e-02,-1.65631e-01,5.55815e-02,1.03082e-02,1.57573e-01,-3.36353e-03,1.31465e-01,-7.25639e-02,6.49915e-02,8.02483e-02,8.44061e-02,7.83667e-02,1.12891e-01,-1.55688e-02,-6.84055e-02,-2.85138e-02,-8.44363e-02,5.16025e-02,-1.07521e-01,
1.65776e-02,6.74208e-02,-4.55272e-02,9.16616e-02,8.22809e-02,-9.07802e-02,-4.74269e-02,1.08676e-01,1.10813e-01,-9.33906e-02,3.33389e-02,-5.21766e-02,2.54682e-02,-1.62789e-02,1.03524e-01,4.54071e-03,2.38262e-01,-3.12847e-02,1.82421e-01,3.52977e-02,-4.52511e-02,2.63920e-02,1.21864e-01,6.74432e-02,2.03249e-01,9.38848e-02,-5.47215e-03,6.75820e-02,-2.76252e-04,-1.52465e-02,-3.78005e-02,6.87889e-02,-8.28383e-02,8.40384e-04,-7.43062e-02,1.61947e-01,6.79142e-02,-1.94824e-02,-5.82982e-02,1.21998e-01,4.86828e-02,3.25741e-02,-5.10050e-02,1.24816e-01,-7.75073e-03,1.35572e-01,8.45740e-02,2.43389e-02,-5.89222e-02,-4.36856e-02,3.78038e-02,-5.06855e-02,5.75400e-02,-1.17364e-02,-7.16598e-02,5.86289e-02,-1.04743e-01,6.17874e-02,-1.04660e-03,1.36829e-01,5.97145e-02,1.43309e-01,4.37439e-02,8.62315e-04,-1.48876e-02,-2.18590e-02,-2.51199e-02,-8.02036e-04,1.21971e-03,-1.25844e-02,6.17460e-03,-4.55949e-02,-1.28789e-01,2.82365e-02,8.25977e-02,-3.47151e-02,8.45611e-02,4.04353e-02,-7.91816e-03,-1.78997e-01,-3.98488e-03,4.58389e-02,-7.78574e-02,-1.54374e-01,-8.66784e-02,-4.15101e-02,9.26690e-02,-4.42372e-03,2.48835e-01,-1.66966e-01,6.49083e-02,-1.37407e-01,-3.67519e-02,1.25863e-01,1.35578e-01,1.26237e-01,3.49091e-02,-4.04325e-02,-1.15463e-02,8.63547e-02,
2.54012e-02,4.90568e-03,1.55403e-01,1.19054e-02,7.41392e-02,8.60090e-02,5.11366e-02,1.60465e-01,1.18956e-01,-1.56971e-02,-3.98477e-02,-7.78315e-03,5.68804e-02,-1.02086e-01,6.31427e-02,3.21123e-02,8.31718e-02,2.42613e-01,9.73196e-02,9.52464e-02,1.96374e-01,1.12847e-02,6.75096e-02,2.38876e-02,2.77984e-02,-1.07353e-01,9.47103e-03,1.88555e-02,-7.34750e-02,1.55123e-02,5.29911e-02,-4.09476e-03,4.27159e-02,-3.99741e-02,-6.99853e-02,1.54424e-01,1.15150e-03,8.25075e-02,1.48600e-02,1.32294e-01,1.74090e-01,1.45466e-02,-2.78151e-02,7.54538e-02,-4.30018e-02,8.99053e-02,4.87961e-02,-4.50365e-02,-5.35132e-02,4.13566e-02,4.66054e-02,1.47983e-02,9.34239e-03,5.56310e-02,6.56751e-03,-6.36325e-03,-1.55116e-03,7.26243e-02,9.34825e-02,-1.38782e-01,3.26163e-02,-4.21387e-02,1.04954e-01,1.33143e-01,5.01808e-02,-1.05129e-01,1.41922e-02,4.78544e-02,1.41557e-01,6.17285e-02,-3.34899e-02,4.04620e-02,-9.76971e-02,-2.34938e-02,7.11678e-02,-4.07183e-03,-7.53166e-03,-1.00334e-02,-5.71282e-02,3.56665e-02,7.28552e-04,4.02744e-03,3.21246e-02,-4.10792e-02,1.52617e-02,1.64863e-02,-3.81075e-02,-8.94309e-02,1.60661e-01,-1.13727e-01,-1.09476e-02,-1.08156e-01,1.75325e-02,-4.64557e-03,1.05375e-01,-3.70465e-02,-2.13452e-02,9.25342e-02,-6.22841e-02,3.53707e-02,
1.00604e-01,-1.22463e-01,-6.49909e-02,8.90964e-02,8.23717e-02,7.45068e-02,-1.03449e-01,9.47631e-02,6.59197e-02,5.19268e-02,1.87564e-02,8.78409e-03,-1.03412e-01,3.48942e-02,5.92743e-03,1.23294e-01,-6.87999e-03,-3.75102e-01,1.76836e-02,2.85484e-02,4.62087e-01,-2.36110e-02,7.44147e-03,-7.53448e-02,3.75951e-02,6.22316e-02,-1.50093e-02,-3.01553e-02,7.25326e-02,2.55694e-02,-2.14204e-02,-5.29672e-02,1.99353e-02,-2.55916e-01,1.53482e-01,1.04780e-01,-2.60662e-03,-1.40271e-01,-3.48252e-02,-3.17904e-02,-8.41951e-02,-1.38142e-01,-1.00998e-02,-7.30188e-02,1.05919e-01,-9.92253e-02,1.88217e-01,-4.89064e-01,4.51961e-02,-6.92733e-02,-1.60067e-02,1.12716e-01,2.01839e-02,1.77483e-01,2.13047e-01,-1.95303e-01,2.90938e-02,-3.52779e-01,1.81148e-01,-7.29782e-02,-1.99028e-01,-1.80447e-01,6.01254e-02,-1.04802e-01,-3.56071e-02,-1.73765e-01,-6.36772e-02,-1.74957e-01,-2.23912e-01,7.81666e-02,-4.72030e-02,1.11253e-01,2.06100e-02,-1.10432e-02,-2.34733e-01,8.34817e-02,-1.34141e-02,1.00446e-01,6.07587e-02,-1.93466e-02,1.02535e-01,-3.79451e-02,5.75729e-02,2.19573e-01,-2.40244e-01,-2.67898e-02,-1.46274e-01,-7.94974e-02,7.29929e-03,1.59750e-02,-1.29522e-01,-4.87089e-02,-7.25844e-02,2.28838e-01,2.85355e-02,2.46149e-03,2.09067e-02,-7.39559e-02,7.94286e-03,-9.54845e-02,
2.64727e-02,-2.36786e-01,6.02772e-02,-6.32003e-02,-3.65116e-02,1.90392e-01,-1.28537e-01,7.59323e-02,4.42518e-02,-1.17107e-01,2.15296e-02,2.38105e-01,-2.84433e-02,-1.29098e-01,6.72506e-02,9.10896e-02,-9.45609e-03,1.54689e-01,-8.55288e-02,1.12844e-01,-3.62561e-02,4.85594e-02,-7.77241e-02,1.19432e-01,-1.90816e-02,4.32725e-02,1.45576e-01,-1.74641e-01,-1.42517e-01,1.17101e-03,-3.76497e-02,1.76239e-02,4.11248e-03,1.45884e-02,5.78465e-02,9.04690e-03,-2.32748e-02,-2.00964e-02,-1.37981e-01,-1.69264e-02,-2.27291e-02,3.41934e-02,-3.83350e-02,2.73229e-01,7.99180e-02,3.54847e-02,-4.08818e-02,-2.62745e-01,1.53787e-01,-2.23560e-01,1.31573e-02,4.36122e-02,-1.71686e-01,1.40764e-02,-1.92135e-01,-3.37109e-03,-1.59028e-02,1.60263e-02,1.10534e-01,7.95194e-02,1.22503e-01,1.83275e-02,-2.16099e-03,-8.26158e-02,-9.28757e-02,-9.91670e-02,2.80613e-02,-3.38009e-02,-3.46370e-01,5.88956e-03,-3.86701e-02,9.84161e-02,1.50431e-02,8.86392e-02,-1.32190e-01,-1.59767e-03,-1.32656e-02,1.01896e-01,-1.51458e-02,5.84196e-02,-8.37376e-03,-1.12188e-01,1.39322e-02,7.56125e-03,1.47587e-01,-1.01523e-01,-4.13312e-02,2.65478e-02,-1.39158e-01,2.60743e-02,-3.63512e-02,5.42925e-02,1.74482e-01,-1.40626e-01,4.73745e-02,1.11300e-01,-1.22937e-02,-6.25918e-02,3.25958e-02,2.99768e-02,
3.64856e-02,-2.90377e-02,-1.17181e-02,-1.84440e-03,-2.28318e-02,8.48313e-02,-7.34676e-02,5.03335e-02,-1.03906e-02,-4.10121e-02,-2.20920e-02,4.00198e-02,-6.19006e-02,-1.68632e-02,-4.34459e-02,3.89244e-02,3.01718e-02,-1.72194e-01,5.49863e-02,-3.66330e-02,-2.13268e-01,-2.23008e-02,1.90420e-02,-1.24847e-02,-1.18396e-01,-2.22479e-02,8.08881e-02,-2.53434e-02,-4.20891e-02,-5.84017e-02,-4.17632e-02,2.78669e-02,8.24543e-02,-3.59952e-02,8.22984e-02,8.79536e-03,-7.32449e-02,5.36572e-02,-1.32386e-03,-4.50288e-02,-4.40808e-02,-1.70922e-02,-4.65966e-03,4.19275e-02,4.19395e-02,-2.33623e-02,9.49793e-02,1.59427e-01,1.35662e-01,4.05593e-02,1.15690e-02,-3.13262e-02,1.72249e-02,6.66882e-02,1.09532e-01,6.22708e-02,6.52352e-03,1.17969e-01,1.06538e-01,-1.54904e-02,1.07967e-01,-6.33069e-02,-3.30973e-02,2.63730e-02,-1.69608e-02,2.33563e-02,5.94758e-02,-4.53241e-02,-2.15163e-03,9.97267e-02,5.07918e-02,-2.92753e-02,-5.29670e-02,1.13796e-01,9.39899e-02,-1.25274e-02,-3.18154e-02,-3.14549e-02,1.03323e-01,-8.79257e-02,-2.87881e-02,3.54096e-03,-9.01373e-02,7.62551e-02,3.50196e-03,1.05235e-01,2.23547e-02,1.38134e-01,-1.01032e-01,2.61281e-02,-2.88863e-02,1.47970e-01,7.62696e-02,4.29868e-02,7.12292e-02,1.12580e-02,4.41537e-02,5.82469e-02,-2.84789e-02,1.03469e-01,
-5.02666e-03,4.88946e-03,-1.62238e-02,6.72611e-02,-1.03873e-02,9.21499e-02,9.51664e-02,7.38916e-02,-3.91352e-02,-1.15990e-01,1.70920e-01,7.74510e-02,5.28007e-02,-6.25942e-03,9.04566e-02,-1.38659e-02,2.75314e-02,-7.77246e-02,6.64490e-02,-8.42056e-02,-2.35031e-02,2.01905e-01,-2.86514e-02,-6.95355e-03,3.97694e-02,1.25424e-01,-1.89062e-02,-3.47395e-02,3.43425e-02,-1.54435e-02,5.37527e-02,-4.82540e-03,1.36242e-01,-8.89267e-02,-3.70460e-02,-7.86056e-02,4.98329e-02,1.02967e-01,-4.38447e-02,2.19646e-02,-1.57467e-01,2.68049e-02,6.93114e-02,-3.38939e-03,6.51797e-02,-3.61729e-02,-4.05047e-02,1.31268e-01,4.99723e-02,-1.52965e-01,-4.45226e-02,2.07556e-02,1.33131e-01,-1.21620e-02,3.14909e-02,-5.36290e-02,2.23592e-02,-2.23083e-02,8.14816e-02,2.28742e-01,1.39534e-01,-5.02568e-03,5.49376e-02,-8.88177e-02,4.76876e-02,5.08750e-02,8.00611e-02,-8.44774e-02,-5.96628e-02,-6.30687e-02,1.37657e-02,-8.05662e-02,-7.08241e-02,4.97760e-02,6.07664e-02,-8.14047e-02,9.23340e-02,7.38496e-02,8.20909e-02,1.10488e-01,-1.29908e-02,-3.55638e-02,1.16676e-01,-1.31460e-01,1.37368e-01,1.57340e-01,-6.09872e-04,8.82227e-02,2.11959e-02,-2.36937e-02,-3.91908e-02,-2.80851e-02,-6.09707e-02,2.97450e-03,2.19311e-01,1.77652e-01,-3.22833e-02,1.64718e-02,-4.82682e-02,9.68072e-02,
1.23002e-01,7.64834e-02,-4.05824e-02,-1.82773e-01,7.49222e-02,-5.01874e-02,1.47509e-01,9.19685e-02,1.72499e-02,9.92005e-02,1.83549e-02,1.18665e-02,1.31898e-01,4.42441e-02,-7.19199e-02,3.25788e-02,-4.28189e-02,-4.15214e-01,9.17586e-02,-2.41981e-02,6.18873e-02,-2.78490e-02,-3.41612e-02,8.48031e-02,4.24894e-02,-1.57597e-01,1.19866e-01,3.47126e-02,1.14307e-02,3.00142e-02,-1.78503e-01,-6.55542e-02,1.32153e-01,-1.16423e-01,-2.05741e-01,5.15944e-02,1.03770e-01,7.28202e-02,1.98973e-02,-9.93557e-02,7.71110e-02,8.13937e-02,4.24747e-02,8.47934e-02,-3.40963e-02,-3.55276e-02,-2.16890e-01,-7.84882e-02,-1.07420e-01,2.48923e-02,-1.35772e-01,1.55777e-02,5.48121e-02,-1.95633e-02,-5.75220e-02,2.62409e-02,-3.83699e-01,1.18257e-01,1.35597e-02,-3.00221e-02,-2.35203e-01,8.37913e-02,5.04131e-02,1.48765e-02,6.57956e-02,1.26729e-01,-6.49302e-02,8.62938e-02,-1.45416e-02,-1.57650e-01,5.43189e-02,-4.03926e-01,-1.11462e-01,-5.93597e-02,-8.93235e-02,-1.12307e-01,-1.96044e-01,-4.44938e-01,-4.87273e-02,2.26242e-01,5.40645e-03,-2.25671e-02,2.44486e-01,-1.84222e-02,-4.73865e-02,2.28136e-01,7.29008e-02,-4.55499e-02,1.22623e-01,-6.86682e-03,-5.02288e-02,3.00766e-02,-1.37311e-01,-9.41788e-02,5.87060e-02,-6.97415e-02,2.29078e-02,9.63587e-02,-8.44134e-02,-4.12537e-03,
-4.49127e-02,7.83647e-03,1.91545e-02,-8.35728e-02,2.64571e-02,-1.21995e-01,5.85777e-02,9.22169e-02,6.70984e-03,-6.04193e-02,-2.94981e-02,-1.01291e-01,3.54451e-02,-2.31517e-02,7.50330e-03,3.56344e-02,-1.68900e-02,-2.76016e-01,-3.93519e-02,-8.43148e-02,1.99815e-02,-7.69682e-02,1.44562e-03,6.91506e-02,-5.00791e-02,-1.03492e-01,9.70314e-03,1.81845e-01,-1.46360e-02,3.05404e-02,-2.01745e-02,-6.32700e-02,-2.42944e-02,-4.82455e-02,1.32629e-02,-2.74810e-02,-1.25069e-03,-9.64910e-02,-5.84138e-02,1.12835e-01,2.43069e-02,3.02210e-02,-2.54136e-02,7.44282e-02,-1.47754e-01,1.91884e-03,1.01320e-01,6.08021e-02,5.47365e-02,-5.60392e-02,5.82726e-02,7.01946e-02,-1.22767e-01,7.72095e-02,6.96865e-02,-1.82917e-02,-5.79318e-02,-8.37880e-02,1.19341e-02,7.15990e-02,3.29533e-02,-5.67706e-02,1.92809e-02,-2.71569e-03,3.75276e-03,1.67860e-02,4.06241e-02,1.05038e-01,2.45410e-01,-1.81343e-02,-1.52330e-01,-5.68250e-03,6.69577e-02,-5.16525e-02,-1.09109e-01,7.58421e-02,3.91469e-02,1.38062e-01,7.76592e-02,-3.22541e-01,-1.87148e-03,-7.12843e-03,-1.30098e-01,4.57761e-03,7.19071e-02,3.97847e-03,1.41670e-02,8.23134e-02,8.50054e-02,1.77343e-02,-1.88333e-01,1.13011e-01,-4.17706e-02,-3.40225e-03,-5.31088e-02,-9.24268e-02,1.19276e-01,8.69415e-02,6.60906e-02,-8.81256e-02,
2.38757e-02,-5.78106e-02,-3.87594e-03,-3.77504e-03,-3.20261e-02,1.17236e-02,5.16166e-02,1.05199e-01,4.54180e-02,-1.44776e-02,-8.56203e-02,1.58157e-01,-3.52219e-02,1.06996e-01,1.98828e-02,-4.97449e-02,1.10278e-01,4.07473e-01,8.75789e-02,5.04682e-03,-2.13114e-01,1.08772e-01,4.36970e-04,1.56722e-01,-4.88714e-03,-7.74323e-02,5.05865e-02,-4.09985e-02,-5.33460e-03,2.90182e-02,-9.80308e-03,-1.03854e-01,1.67106e-01,1.45188e-01,-9.80080e-02,-3.73125e-03,2.11085e-02,-3.40354e-02,-1.12001e-01,-6.06994e-02,1.24414e-02,-2.99736e-02,1.50047e-02,5.69830e-02,-6.41720e-02,1.25791e-01,-1.15523e-01,1.06756e-01,7.92933e-02,5.45630e-02,5.24438e-02,-1.78652e-01,7.06942e-02,-1.64853e-02,-2.64499e-01,7.16503e-02,-1.82338e-01,-1.17483e-03,-4.00198e-02,3.02147e-02,1.39840e-01,-2.46423e-02,-5.42815e-02,1.22846e-01,1.18972e-02,-9.10415e-03,1.13527e-01,1.25140e-01,-2.06083e-03,-3.22861e-02,-7.49106e-02,-7.71852e-02,9.38093e-02,6.69086e-02,7.76637e-02,-1.05161e-01,4.78496e-02,-1.13225e-01,-2.00794e-01,8.51356e-02,-4.83725e-02,8.81205e-02,-1.15094e-03,-7.99433e-02,1.37377e-01,1.00148e-01,4.90663e-02,-1.22128e-01,-8.33776e-03,1.20666e-02,5.80893e-02,-4.45109e-03,5.85114e-02,-1.40050e-01,-5.73513e-02,7.14912e-02,2.63953e-02,-5.78167e-02,1.50320e-02,8.90767e-02,
7.59579e-02,9.21404e-04,1.03763e-01,6.08307e-03,-1.32173e-01,1.15217e-01,-1.04187e-01,-3.40460e-01,-2.08485e-01,4.93964e-02,7.28647e-02,2.91204e-02,1.17660e-01,-8.63084e-02,7.07912e-02,8.51326e-02,1.34446e-01,-3.01653e-01,-8.91327e-02,1.50107e-02,-8.23239e-02,-8.97064e-02,1.06605e-01,-1.30503e-01,1.48302e-02,8.54193e-02,2.73040e-02,-1.12141e-01,-2.81099e-03,-6.65373e-02,-4.87449e-02,-5.36052e-02,-6.50986e-02,-1.16227e-01,2.95268e-01,2.77077e-02,-7.43698e-02,-1.62827e-02,-4.00536e-02,1.36899e-01,-1.17665e-01,1.10874e-01,-1.05634e-02,1.24528e-01,1.70969e-01,-1.14810e-02,1.79561e-02,3.42650e-01,1.58320e-01,-7.35813e-02,9.09684e-03,5.07597e-02,-7.27783e-02,-2.51649e-02,-5.54344e-02,8.34213e-02,2.35140e-01,-1.95980e-01,-6.40849e-02,-6.88914e-02,-7.14106e-02,-3.19642e-02,1.74395e-01,-2.24617e-01,-1.32806e-02,-1.39798e-01,-5.61545e-03,-2.15606e-02,-3.11821e-01,9.11348e-02,-3.44913e-02,7.62843e-02,-4.18844e-02,3.69057e-02,9.95867e-02,6.49449e-02,1.69398e-01,3.30088e-02,4.66768e-02,6.50750e-01,1.06930e-01,9.46188e-02,2.06922e-02,1.16253e-01,7.29148e-02,-2.40476e-01,-7.34591e-02,9.06249e-02,-1.54470e-01,3.51939e-02,1.29598e-01,5.37229e-02,3.61039e-03,6.72974e-02,9.32831e-02,2.21244e-01,-2.34119e-02,-4.22875e-02,1.63174e-02,-3.42318e-02,
-8.20716e-02,-5.71764e-02,1.56107e-02,5.85862e-02,1.25844e-01,3.99811e-02,5.30101e-02,7.78574e-02,-1.37430e-02,7.93728e-02,4.41880e-02,7.49273e-02,7.34536e-02,-4.48345e-04,-5.01499e-02,2.00336e-03,-1.30228e-02,-2.92298e-01,1.26824e-01,-8.86715e-02,-3.42081e-01,-2.11640e-02,-6.42501e-02,5.38610e-02,-5.68108e-02,7.29180e-03,8.01520e-02,4.12904e-02,-1.50503e-02,-4.15245e-02,6.81051e-02,1.09779e-01,-2.02870e-02,-5.26197e-02,-3.10242e-02,5.26023e-03,3.07530e-02,-9.50019e-03,8.16921e-02,8.29335e-02,-8.38366e-02,3.95150e-03,-5.46916e-02,-5.64355e-02,2.42870e-02,8.05881e-02,8.69014e-02,1.52739e-01,-1.43074e-02,6.87939e-02,-1.16095e-02,-5.46361e-02,1.07332e-01,4.84065e-03,1.08726e-01,-8.28935e-02,-9.41583e-02,1.76786e-02,-1.02914e-01,1.15534e-01,8.85420e-03,-6.08618e-02,1.21624e-02,-1.08346e-01,-8.60809e-02,2.20695e-02,5.09482e-02,1.12977e-01,7.45078e-02,1.73958e-02,2.96385e-02,9.28881e-02,1.43981e-02,7.19260e-02,-2.94840e-03,9.68424e-02,1.67320e-01,-4.02804e-02,-4.45424e-03,3.92887e-02,-8.52179e-02,-3.63433e-02,-4.67000e-02,5.21866e-02,-1.85603e-02,1.39752e-01,8.33339e-02,-3.63574e-03,-8.90635e-02,-8.21257e-02,-9.40645e-03,-4.14789e-02,-2.41688e-03,1.12251e-02,2.45219e-02,3.43157e-02,-5.04983e-02,6.45510e-02,7.71878e-02,1.12105e-01,
-6.60132e-02,-6.05641e-02,-5.81481e-02,-2.33115e-02,6.66376e-02,-5.24125e-02,2.73514e-02,1.69098e-02,3.42315e-02,-1.98535e-02,8.43943e-03,9.49601e-02,-4.82740e-03,4.86424e-02,1.34538e-03,2.20902e-02,-1.01437e-01,3.37165e-01,5.45343e-02,5.32976e-02,3.08798e-01,5.11163e-02,5.27030e-02,8.03723e-02,-2.91199e-02,-2.75203e-04,9.09740e-02,2.29254e-02,9.97232e-02,9.07893e-03,-4.16336e-02,-1.03460e-01,-9.45186e-02,-6.43928e-02,1.36452e-02,5.44903e-02,3.76621e-02,3.70384e-02,8.95554e-02,-6.53747e-03,-7.35643e-02,9.09921e-02,-2.22696e-02,1.51265e-02,6.41460e-02,-5.04899e-02,-7.19162e-02,-4.12301e-02,4.46932e-02,1.91483e-02,-1.46717e-02,2.28794e-03,7.59499e-02,-1.12893e-01,-7.63422e-03,-7.03448e-03,-3.43007e-02,8.57817e-02,1.09492e-02,-3.59353e-02,-3.80023e-02,-1.25699e-01,3.26431e-02,-3.05393e-02,-6.50084e-02,3.28956e-02,9.73282e-02,1.05358e-02,-7.68233e-02,2.01253e-02,5.19067e-02,-1.18373e-01,-1.81280e-02,-2.24656e-02,9.38080e-02,-2.06598e-04,9.03110e-02,-2.20540e-03,1.76369e-02,4.48641e-02,2.99428e-03,6.48331e-02,3.12272e-02,-2.05938e-02,1.77461e-01,1.35481e-01,-3.06817e-02,1.60301e-01,-6.87482e-02,1.17155e-01,4.12050e-02,1.50177e-01,3.43734e-02,3.68894e-02,2.22289e-02,1.94851e-02,3.12941e-02,6.67910e-02,3.88228e-02,-5.33991e-03,
-6.16075e-02,-1.05019e-02,8.32356e-02,4.86749e-02,-2.97254e-02,1.99327e-02,1.41246e-02,1.91837e-02,3.69100e-02,9.47455e-03,-1.01757e-01,-4.33087e-02,6.99627e-02,-7.31877e-02,4.89138e-02,7.76613e-02,1.39575e-01,-1.14204e-01,3.78607e-02,1.37515e-01,-9.53502e-02,-1.49668e-03,-6.61014e-02,2.61002e-03,1.24121e-01,-1.32890e-01,-7.11759e-03,1.05269e-02,7.20757e-02,4.19038e-02,-2.27662e-02,-5.14688e-02,4.25833e-02,4.60317e-02,-1.60676e-02,8.56165e-02,1.80374e-01,4.88899e-02,-1.52736e-02,6.10414e-02,1.96532e-01,1.09819e-01,1.93857e-02,-3.42613e-02,5.82643e-03,9.29207e-02,8.10055e-02,7.01361e-02,5.95461e-03,2.97894e-02,-6.03399e-02,1.40989e-03,5.94329e-02,4.15525e-02,2.24559e-02,1.26215e-01,9.67866e-02,1.52420e-01,4.94867e-02,6.37359e-02,-3.13036e-02,9.54644e-02,1.98105e-03,2.66647e-02,4.26936e-02,-4.71626e-02,1.68745e-02,-5.32411e-03,-8.06544e-03,5.40394e-02,-8.65466e-02,-3.25987e-02,-8.94378e-02,6.88803e-02,6.55111e-02,-3.24001e-02,8.02189e-03,4.88071e-02,2.45196e-02,5.74707e-02,-5.69340e-02,2.04686e-02,4.77951e-02,-4.14480e-02,1.28236e-01,-9.15422e-03,-5.66962e-03,-1.00715e-01,8.68564e-02,-1.64295e-01,4.82798e-02,-7.97548e-02,5.77281e-03,4.02207e-02,-1.91139e-02,5.98706e-02,-3.19086e-02,-1.29309e-02,-4.16451e-02,-3.47962e-02,
-4.59719e-02,-9.57758e-02,1.72316e-01,-7.83966e-03,-1.30538e-02,-1.04487e-02,-8.63500e-02,1.32627e-02,4.04690e-02,1.51883e-01,3.63711e-02,9.30129e-03,-5.03507e-03,-1.24857e-02,9.65568e-02,1.37450e-01,1.77508e-01,-1.75427e-01,4.36131e-02,-4.35233e-02,-1.52940e-01,-6.02152e-02,8.75337e-02,6.87731e-02,1.33767e-01,-1.09827e-01,1.00859e-01,3.15148e-02,6.11072e-02,1.89662e-01,1.01900e-01,2.73662e-02,3.30062e-02,1.08945e-01,6.97792e-02,-5.95647e-02,1.00985e-01,2.11790e-02,-9.60111e-02,1.67425e-01,1.85925e-01,1.59015e-02,3.86424e-02,-1.13110e-02,1.20461e-01,4.63812e-02,1.31584e-01,-2.28609e-02,-7.76267e-02,1.67398e-02,-5.46292e-02,7.73824e-02,2.24713e-02,5.04809e-02,-9.74406e-02,-1.12352e-02,6.29115e-02,3.45373e-03,-5.97321e-02,2.34950e-02,-1.10301e-02,-1.27925e-02,6.66810e-02,8.07524e-02,5.89139e-02,5.55159e-02,-4.95777e-05,1.15923e-01,-7.34885e-02,2.81944e-02,-6.05920e-02,1.71633e-02,-4.68123e-02,8.95103e-02,-2.57124e-02,-5.35562e-02,1.11395e-01,-7.51505e-02,6.92923e-02,-1.88438e-03,5.68717e-02,-1.24595e-02,1.13446e-01,1.12355e-02,1.11872e-01,-2.51816e-03,-4.78525e-02,-1.74969e-01,1.87606e-01,-7.88944e-02,1.31737e-01,-1.28224e-01,9.25427e-02,9.68842e-02,-3.94201e-02,1.19308e-01,-7.35191e-02,1.12740e-02,1.65753e-01,-2.18005e-02,
-2.90326e-02,7.09267e-03,1.86124e-02,-6.95117e-03,1.02068e-01,4.47331e-02,6.82058e-02,1.31365e-01,8.47651e-02,-4.46191e-03,8.56109e-02,-2.63334e-02,2.71807e-02,5.86555e-02,5.89674e-02,-5.86060e-02,1.48511e-02,1.14174e-02,-5.62207e-02,5.80196e-02,-7.03983e-02,1.43680e-01,-3.90540e-03,8.42268e-02,-5.82111e-02,1.61778e-01,-3.91855e-02,-7.21461e-02,-7.07654e-02,-1.32505e-01,-2.16761e-02,8.31235e-02,1.02919e-01,-2.76230e-03,5.27268e-02,-4.53749e-02,-3.82304e-02,-4.13687e-02,-1.77212e-03,-5.05305e-02,-1.01650e-01,-3.92380e-02,-3.63173e-02,1.23555e-01,1.32912e-02,1.81961e-02,6.73565e-02,8.50242e-02,4.81097e-02,3.23876e-03,-5.60054e-02,6.01053e-02,-1.04175e-02,1.83305e-02,5.58151e-02,5.96114e-02,-1.65696e-02,-3.87072e-02,7.03000e-02,1.69136e-01,6.35368e-03,-8.16383e-02,5.66255e-03,-5.59122e-02,7.16582e-02,-3.33343e-02,4.68785e-02,4.97906e-02,-1.50506e-01,6.83185e-02,1.43373e-01,8.85608e-02,9.45179e-02,1.44084e-02,8.00183e-02,-6.25807e-02,7.62740e-02,-2.38114e-02,-1.05030e-01,1.66712e-01,7.15308e-02,1.28512e-01,-5.39603e-02,2.11379e-02,8.01070e-02,1.74883e-01,1.16722e-01,6.90582e-02,-2.86202e-02,-2.56884e-02,4.55558e-02,7.26408e-02,1.05990e-01,-8.21723e-02,3.40858e-02,1.68973e-01,1.25293e-03,2.83247e-02,-9.39660e-03,2.88509e-03,
2.96707e-03,9.17111e-02,4.40737e-03,7.03527e-02,-7.65419e-02,3.86045e-03,3.83257e-02,1.09474e-01,1.40681e-01,1.55556e-02,-5.06603e-02,5.41933e-02,7.22172e-03,5.59586e-03,-4.60534e-02,4.85802e-04,7.01452e-02,2.10129e-01,-4.07137e-02,3.75142e-02,1.42674e-01,-8.27391e-02,1.18115e-01,-7.88636e-02,1.84388e-02,-3.79200e-02,5.13389e-02,1.30311e-01,5.73840e-02,6.14713e-02,8.07949e-02,5.96968e-02,6.66540e-02,1.25844e-01,2.62878e-02,8.36630e-02,9.87835e-02,9.98009e-02,4.66024e-02,3.25205e-02,1.41935e-01,1.57108e-01,-5.35183e-02,-7.01704e-02,-3.24060e-02,-9.18835e-03,4.97765e-02,3.26078e-02,-8.07730e-02,5.19526e-02,8.16041e-02,-3.96783e-02,-5.09205e-02,-1.83954e-02,-7.03958e-02,-4.65446e-02,5.68676e-02,-1.40716e-02,-4.62666e-02,3.03029e-02,5.28881e-02,9.57879e-02,8.02241e-02,1.62116e-02,-1.09399e-01,-4.39967e-02,-7.19472e-03,6.76782e-02,5.76669e-04,-3.31432e-02,-8.75278e-02,1.05648e-01,-2.61820e-02,-9.22062e-03,-6.56615e-02,-6.71732e-02,-6.12523e-02,-5.42646e-02,1.21375e-01,-2.33636e-01,3.11045e-02,1.15243e-01,9.36655e-02,9.51663e-04,-3.21170e-02,-6.49118e-02,5.08381e-02,-8.16939e-02,1.57722e-01,1.02496e-02,-2.00418e-02,1.24361e-02,5.66974e-02,1.07778e-02,6.03558e-02,8.42802e-02,5.78021e-02,4.23545e-02,8.82890e-03,-4.07881e-02,
-8.67191e-03,8.00439e-02,1.55702e-01,-7.89488e-02,1.17458e-01,-9.25338e-02,1.60001e-01,-1.69375e-01,-1.38132e-01,8.22548e-02,-3.03788e-02,1.35003e-01,-1.30086e-01,3.05091e-02,5.63531e-02,8.06547e-04,1.32547e-01,5.63911e-01,8.95669e-02,-4.39708e-03,3.00568e-01,-2.27153e-01,2.15537e-02,1.35816e-01,-1.39139e-01,-8.58353e-02,2.40314e-02,-1.04832e-01,2.45601e-01,-2.79824e-02,5.80480e-02,1.61280e-01,-2.88953e-02,-2.78204e-01,-1.89722e-02,-8.83696e-02,8.57361e-02,-5.48754e-02,4.67373e-01,-3.99498e-02,5.53223e-02,-6.52087e-02,-1.25268e-02,-1.32022e-01,4.97196e-02,-1.50197e-01,2.51106e-02,-2.25597e-01,7.00642e-02,1.15843e-01,-1.01213e-01,-4.09213e-01,-5.70110e-02,1.32737e-01,4.03749e-02,-8.65720e-02,-4.22278e-02,-2.09030e-01,-1.32103e-01,5.16342e-02,-7.97614e-02,-2.09676e-01,-7.77313e-02,2.97760e-02,-4.94939e-01,-4.23722e-02,-2.70659e-01,-8.26403e-01,-7.17833e-02,-1.05455e-01,-1.23684e-01,2.03295e-02,-3.94194e-02,-2.01136e-01,-8.17205e-02,-1.20179e-01,-7.43321e-02,3.35622e-02,9.10764e-03,2.94568e-01,-2.62838e-02,7.79199e-02,-1.61531e-01,1.65033e-02,8.14607e-02,-9.90275e-02,7.70846e-02,1.14788e-02,-2.51937e-02,-2.56999e-01,-4.75765e-03,-9.92561e-02,-2.83531e-01,7.92008e-03,-4.83925e-02,2.35178e-02,2.24388e-01,7.59784e-02,-7.50461e-02,-9.37021e-02,
1.34015e-03,-1.51252e-01,-2.89792e-02,9.54890e-02,-2.98199e-02,6.17217e-04,1.13600e-01,-1.78392e-01,2.36692e-01,-1.22230e-01,-8.79441e-02,-2.36190e-01,-1.16017e-02,-1.62042e-02,-9.98465e-02,4.41023e-02,-2.35907e-02,-7.33134e-01,6.76421e-02,1.55506e-02,2.27753e-01,-2.97073e-02,6.22633e-02,6.67694e-02,-9.56609e-02,-7.82341e-02,1.27188e-02,1.93012e-01,5.14169e-02,-1.24315e-01,1.90476e-01,1.01998e-01,1.58079e-02,5.14988e-02,1.12272e-02,-5.69062e-03,9.13692e-02,1.13054e-01,-1.08887e-01,1.28076e-01,-8.42078e-03,-7.09971e-02,8.52245e-02,-9.75801e-02,-7.66490e-02,7.82072e-02,2.08289e-01,2.39032e-01,-4.84228e-02,-2.10750e-01,-5.36508e-03,2.62483e-02,-5.99669e-02,-1.30884e-01,-2.00112e-01,7.57136e-02,1.48572e-01,-1.13524e-01,3.64887e-02,3.96076e-02,-8.43876e-02,4.24046e-02,-3.89957e-02,-9.74909e-03,-2.39560e-02,1.42112e-01,1.32350e-01,3.50351e-02,1.06005e-01,5.37963e-02,-3.64051e-02,3.53465e-02,1.96368e-02,3.18351e-02,8.43565e-02,-6.58381e-02,1.53963e-01,1.49417e-01,2.22839e-02,-1.27725e-01,-5.90212e-03,1.12202e-02,-5.31131e-02,-4.02684e-02,-8.59014e-02,1.59822e-01,6.71252e-02,-7.80594e-02,2.56132e-02,5.40081e-02,2.34776e-01,-7.62061e-02,3.85874e-02,6.62416e-02,4.33993e-02,1.00629e-01,-8.64151e-02,-6.31051e-02,-3.85669e-02,6.98537e-02,
-5.64116e-02,7.11742e-02,1.15257e-01,5.41050e-02,8.13976e-02,-1.05815e-01,8.54817e-02,2.53649e-01,5.05337e-02,1.07889e-01,-2.88207e-02,-5.76032e-02,4.04691e-02,-7.82082e-02,9.46169e-02,1.34462e-01,-4.25057e-02,4.58880e-02,5.31729e-03,-5.51511e-03,1.48965e-01,-6.38844e-02,4.47954e-03,4.59745e-02,7.62010e-02,5.41925e-02,2.83784e-02,1.37525e-01,-1.29047e-02,8.94034e-02,-1.00872e-01,-1.01406e-01,1.19103e-02,8.41978e-02,-5.11275e-02,9.86511e-02,2.24407e-03,4.60385e-02,-3.46272e-02,1.65026e-01,5.77348e-02,-8.73505e-02,-2.88292e-02,1.60584e-01,7.12264e-02,5.83234e-02,9.02754e-02,2.40761e-02,1.04771e-01,2.02820e-02,1.10486e-01,6.53193e-02,-9.62776e-02,-5.05267e-02,-5.38607e-02,6.10416e-02,-4.58585e-02,1.18319e-01,1.65635e-02,-3.76502e-02,5.38364e-02,-6.95922e-02,7.88723e-02,7.33085e-02,4.66340e-02,-5.71218e-02,3.57959e-02,-6.80389e-03,3.06842e-02,6.93811e-02,-1.09313e-01,1.65430e-03,2.07594e-02,3.65439e-02,-1.62552e-02,-6.17622e-02,1.06638e-01,-2.90965e-02,5.38278e-02,-1.87922e-01,-9.23802e-02,-8.37518e-02,5.50084e-02,1.51768e-02,-3.48163e-02,-4.91466e-02,3.28963e-02,-5.28167e-02,-8.84077e-03,7.94701e-02,-9.48685e-03,2.07802e-02,3.67071e-02,3.53519e-02,-1.19831e-01,-1.20625e-01,3.89600e-02,8.93099e-02,9.64157e-02,-5.87053e-02,
-6.89691e-03,-4.91394e-02,-6.36609e-02,-2.47438e-02,-5.24875e-02,9.07657e-02,6.61770e-02,4.80883e-02,3.00693e-02,6.43411e-02,1.16137e-01,8.08020e-02,5.88540e-02,-2.90176e-02,9.49777e-02,1.79703e-02,1.36154e-01,8.25160e-02,-2.61598e-02,8.70008e-02,1.10907e-01,-1.25059e-02,9.31322e-02,-4.66380e-02,1.83664e-01,7.11009e-02,9.89245e-02,-8.37012e-02,-3.81220e-02,5.86753e-02,1.58519e-02,-8.68709e-03,5.94928e-03,-6.41556e-02,1.08608e-01,-1.19617e-01,-2.07601e-02,4.88859e-02,5.02583e-02,-1.01631e-02,-5.40252e-02,4.03914e-02,-1.10152e-03,3.03859e-02,4.05002e-02,3.54317e-02,3.31880e-02,1.52641e-01,1.00834e-02,2.36929e-02,-3.76008e-02,2.06659e-02,1.16801e-01,1.01575e-01,-6.47899e-02,2.21694e-02,2.08753e-02,-4.11564e-02,-9.28803e-02,7.49985e-03,3.40196e-02,-4.29972e-03,-6.60173e-02,-3.57105e-02,-6.35208e-02,-5.69843e-02,-5.82417e-02,8.01265e-02,-7.66701e-02,-5.09992e-02,8.40765e-02,9.04824e-02,2.04796e-02,-1.08893e-01,-2.68244e-02,7.61852e-02,-1.72162e-02,1.28513e-01,-8.84233e-02,1.85785e-01,6.48952e-02,-2.09835e-02,-3.53184e-02,5.66875e-02,1.73791e-01,-8.42253e-02,1.02465e-01,2.83598e-02,7.78211e-02,-4.97326e-02,6.08946e-03,-8.01382e-02,-3.94203e-02,1.28080e-01,3.26763e-02,1.30560e-01,-6.45673e-02,-5.37080e-02,1.15288e-01,-1.86590e-02,
1.13953e-01,-3.84493e-02,3.77581e-02,-4.28228e-02,7.32100e-03,-3.05056e-03,-3.69837e-02,3.25244e-02,7.73134e-02,9.73179e-02,3.13234e-02,7.14705e-02,-1.25448e-02,3.72653e-02,1.32146e-01,3.04835e-03,-5.39587e-02,-2.89776e-02,5.73914e-02,3.32543e-02,1.57161e-01,8.01574e-02,3.42470e-02,7.01639e-04,-9.46966e-02,7.40698e-02,1.80712e-02,7.69855e-02,-8.53763e-04,-8.32445e-02,-8.41385e-02,-5.33638e-02,1.07263e-01,6.66304e-02,9.78656e-02,-1.85440e-02,-1.19511e-02,-7.08722e-02,-1.75985e-02,-9.47290e-02,7.90802e-02,-3.41765e-02,4.95886e-02,1.33701e-01,-6.49102e-03,-1.38901e-02,-4.54756e-02,1.35113e-01,6.58158e-02,1.40482e-01,4.50617e-02,-5.00200e-03,-1.65730e-02,-2.70835e-02,-7.21553e-02,5.95499e-02,1.18346e-01,4.14517e-02,-5.88421e-02,5.09253e-02,-5.61901e-03,-6.00649e-02,-3.39985e-02,-8.47120e-03,7.39480e-02,1.55540e-02,2.30298e-02,-2.93219e-02,1.22283e-02,-1.96682e-02,1.96436e-02,-7.00969e-02,7.53827e-02,7.46875e-02,-3.49861e-02,-7.57237e-02,2.47242e-02,-5.71609e-02,4.32276e-02,1.27653e-01,9.46178e-02,-7.29972e-02,9.02200e-02,7.65529e-02,1.65344e-01,1.13995e-01,-4.04527e-02,1.35896e-02,-9.94207e-02,1.46052e-01,1.04651e-01,1.74352e-01,3.95492e-02,7.84223e-03,1.59667e-02,-9.66713e-02,6.60803e-03,1.01704e-01,1.22141e-01,-4.29549e-02,
-8.33962e-02,8.29482e-02,-2.60346e-02,3.99276e-03,-1.05208e-01,-1.60360e-02,8.73375e-02,-5.55285e-02,7.88443e-02,2.38703e-02,7.95558e-02,8.95210e-03,1.03735e-02,-5.83422e-02,4.82809e-02,4.47596e-02,-7.37580e-02,9.85615e-01,-5.41524e-02,-1.00196e-01,3.53037e-01,5.41109e-03,3.59383e-02,1.33781e-01,8.83264e-02,7.48316e-03,4.46089e-02,4.82273e-02,3.78672e-02,-1.53344e-02,1.21248e-02,-1.02951e-01,6.99114e-02,7.69231e-02,-1.40247e-01,1.10337e-01,-2.98334e-02,5.42239e-02,-3.94475e-02,-6.25532e-02,-3.37019e-02,1.44657e-01,-2.37962e-03,6.64259e-02,5.41245e-02,9.56703e-03,9.21747e-03,-8.67153e-02,-5.55199e-03,1.97312e-02,1.63202e-02,3.47280e-02,5.54673e-02,-2.08012e-01,1.12089e-01,-9.62899e-02,-1.96264e-01,-3.35436e-02,6.15816e-02,2.60859e-02,-1.40684e-01,-5.21952e-02,3.30760e-02,-7.08553e-02,1.53315e-01,1.15035e-01,-3.00328e-03,-9.40448e-02,-1.02064e-01,5.06938e-02,-6.22616e-02,-2.26818e-01,-1.09493e+00,4.50700e-02,-1.07621e-01,-2.58528e-01,-1.38902e-02,-1.09066e-01,1.33330e-01,2.16360e-01,-9.84460e-02,-3.59857e-02,2.02588e-03,-4.25208e-02,-4.37663e-02,2.46539e-02,-1.14358e-03,-4.21043e-02,-4.42510e-02,1.94680e-02,1.56308e-01,7.99374e-03,-4.31341e-02,-1.00443e-01,7.52704e-02,-6.83262e-02,6.53327e-02,-1.80700e-01,6.83969e-02,-4.92179e-02,
-4.34044e-02,-7.73145e-03,7.16751e-02,1.01072e-02,9.37272e-02,-4.44844e-03,-1.74309e-02,-9.98658e-03,-1.72542e-02,1.91842e-01,-6.52493e-02,6.94608e-02,-4.59363e-02,-1.19967e-01,4.10541e-02,1.70029e-01,-3.43890e-02,2.30120e-01,7.89115e-02,6.10213e-03,2.36893e-01,-1.04581e-01,-1.71818e-02,7.05871e-02,-5.87508e-02,4.03445e-02,-4.43517e-02,-5.78825e-03,9.39671e-02,8.05735e-02,2.97649e-02,-7.90249e-02,-3.23547e-02,1.44732e-01,-4.33656e-02,-7.22707e-03,3.47687e-02,2.74142e-03,-5.21062e-02,4.12898e-02,1.28126e-01,-4.82310e-05,1.60995e-02,-1.06579e-02,3.25086e-03,9.65578e-02,4.13414e-02,-6.62156e-02,-5.76068e-02,9.30939e-02,1.79566e-01,-1.46401e-03,9.77800e-02,-3.27363e-02,4.90364e-02,2.95392e-04,-1.10088e-01,-2.82430e-02,-5.93539e-02,1.59860e-02,1.03122e-01,-4.64344e-02,9.40547e-02,1.56316e-01,-2.71234e-02,-8.24060e-02,6.71027e-02,4.71718e-02,-6.44539e-02,-5.02248e-02,7.38580e-02,-7.13022e-02,6.54199e-02,7.41894e-02,-7.32169e-02,5.80078e-02,-8.11586e-02,1.09054e-02,2.40819e-02,-1.44573e-02,-4.85319e-02,-2.73816e-02,-3.68009e-02,4.58881e-02,1.39560e-01,-2.12251e-02,9.72985e-02,-1.03277e-02,-2.14632e-02,1.17014e-01,1.21447e-01,-2.75752e-02,-4.36066e-03,-1.00844e-01,7.32500e-02,-1.12644e-01,3.05976e-02,-2.68605e-02,1.13428e-01,-5.38476e-02,
3.69600e-02,-8.26881e-02,-5.03296e-03,-1.73004e-01,-9.25589e-02,-3.40976e-02,6.73655e-02,1.46662e-01,-5.68352e-02,-5.80901e-02,1.39909e-02,2.83174e-02,1.10343e-01,6.89279e-03,9.18001e-02,-9.06706e-02,-5.26428e-02,-7.04088e-02,1.22047e-01,3.45391e-02,-1.96984e-01,-4.71053e-02,3.57273e-02,-7.94729e-02,9.09555e-02,2.15374e-02,2.45315e-02,1.30305e-02,8.15803e-02,3.01259e-02,-7.19880e-02,-3.27559e-02,-8.46044e-03,9.66305e-02,2.45128e-03,-5.83914e-02,8.75611e-02,5.59491e-02,9.81945e-03,1.24954e-01,-8.23046e-02,9.39062e-02,-1.34897e-02,6.40383e-02,1.73629e-02,-8.54577e-02,3.47292e-03,4.01173e-02,5.63969e-02,-5.32757e-02,-4.50947e-02,-2.77056e-02,-2.76891e-03,1.44803e-02,-1.59937e-02,-2.13223e-02,-3.97773e-01,-1.67539e-02,-2.81159e-02,-9.87199e-02,-1.49907e-01,-7.99036e-03,-9.12039e-04,8.52173e-02,4.45852e-02,3.60621e-03,4.34152e-02,7.97097e-02,-1.28204e-01,5.66875e-02,-5.66105e-02,-1.07751e-01,-6.85310e-02,5.93417e-02,6.47024e-02,4.58602e-02,1.30391e-01,-8.61363e-02,4.34299e-02,2.36132e-01,-5.05067e-02,-3.30263e-02,1.16442e-01,-2.93636e-02,7.81401e-02,-1.01067e-01,5.07538e-03,-9.93482e-03,4.87385e-02,-5.89373e-02,1.61523e-01,6.09421e-02,-8.20231e-02,4.45757e-02,1.96858e-02,-1.01921e-01,8.56736e-02,3.46869e-02,-9.71804e-02,-6.71146e-02,
2.76429e-02,4.17078e-03,5.38095e-02,7.61631e-02,3.57817e-02,5.96432e-02,9.13575e-02,-1.25494e-03,3.64891e-02,-2.97242e-02,-6.86142e-02,4.42555e-03,-9.84057e-02,5.07287e-02,3.40092e-02,2.08596e-02,3.81511e-02,-5.29519e-01,-3.76892e-02,5.17127e-02,-3.75592e-01,-5.85196e-02,-1.02842e-02,-3.78118e-02,-1.16003e-02,3.54224e-02,9.18979e-02,-9.74912e-03,-1.05879e-01,2.21653e-02,1.58213e-01,2.73927e-02,-4.52817e-02,-3.15771e-02,-3.67359e-02,-7.97131e-03,1.14303e-01,-5.33292e-03,4.70474e-03,2.51498e-02,-1.48908e-02,-1.42289e-01,-5.66976e-02,1.68984e-01,7.14104e-02,-1.25426e-03,1.45238e-01,-2.10598e-02,-4.04354e-02,4.42542e-02,-2.72176e-02,-1.66905e-02,6.89997e-02,-4.68327e-02,-1.48628e-02,-3.74726e-02,-1.36779e-03,-5.50582e-02,-3.90342e-02,-3.33905e-02,-7.48979e-02,5.94374e-02,-3.61689e-02,8.07454e-02,-1.28833e-03,2.63762e-02,-7.29991e-02,1.22712e-01,1.58209e-01,6.09555e-02,-1.47603e-03,1.15286e-01,5.08120e-02,-5.42900e-02,-3.13771e-02,-4.75752e-02,1.26169e-01,1.05109e-01,-7.69242e-02,-1.22477e-01,3.42155e-02,-5.98192e-02,3.40488e-02,4.24007e-02,-2.11668e-01,2.18563e-02,5.57714e-02,2.63985e-02,3.77120e-02,1.98735e-02,-4.11402e-02,4.44963e-02,-7.63287e-02,3.14603e-02,3.80326e-02,-5.80897e-02,-7.50374e-02,1.20931e-01,6.46286e-02,-5.00476e-02,
2.12186e-02,6.10260e-02,1.29043e-01,2.68319e-02,-5.34365e-02,-9.55269e-03,1.07544e-01,3.37168e-02,9.08501e-02,1.43870e-01,-1.00783e-01,6.88556e-03,-8.83050e-03,-7.45446e-02,2.15445e-02,1.63139e-01,1.36402e-02,5.48910e-02,-2.47432e-02,7.60784e-03,9.54319e-02,-6.03688e-02,-3.13504e-02,7.00983e-02,5.77494e-02,-1.09167e-02,6.44919e-02,3.22856e-02,-1.15435e-02,1.56626e-01,7.87573e-03,-6.85139e-02,-4.36802e-02,9.66038e-02,5.23009e-02,6.72771e-02,1.39707e-01,6.84398e-02,-6.47504e-02,6.85420e-02,5.89582e-02,2.49803e-02,-7.72089e-05,-5.59127e-02,1.05232e-01,1.22882e-01,-4.23932e-02,3.66338e-02,-6.26731e-02,-6.10423e-02,4.15179e-02,-3.99992e-02,-2.21255e-02,-2.48405e-02,3.54468e-02,7.71656e-02,2.47322e-02,1.89108e-02,-1.02765e-01,-1.32969e-01,1.25331e-01,5.23524e-03,6.22879e-02,2.40755e-01,7.13764e-02,-5.29012e-02,8.39360e-02,8.48233e-02,-5.13169e-02,4.20043e-03,6.39398e-02,1.52659e-02,-7.08229e-02,-2.61869e-02,1.39880e-01,3.53103e-02,1.67895e-02,-1.85758e-02,9.36217e-02,5.46761e-02,-2.28559e-02,-5.08482e-02,-6.08135e-02,9.21117e-03,1.14623e-02,-9.37198e-02,1.00068e-01,-1.48865e-01,1.31032e-01,-5.57292e-03,5.77429e-03,-1.32999e-01,8.51671e-02,4.44556e-02,5.13333e-02,3.80628e-02,-3.96748e-02,-8.02161e-02,9.54207e-02,6.72821e-04,
-1.65075e-02,7.66385e-02,4.45873e-02,-7.45486e-03,5.08068e-02,4.62043e-02,-1.88112e-03,2.80161e-03,1.79974e-03,-1.46105e-02,-3.09547e-02,-6.96548e-02,1.38666e-01,-5.30308e-02,-4.21386e-02,1.54299e-02,6.91106e-02,1.49699e-01,2.72995e-02,1.50376e-02,1.00751e-01,8.53622e-02,1.01058e-01,5.92850e-02,6.69287e-02,-4.79773e-02,-6.40503e-02,1.27579e-01,-7.28073e-02,1.02824e-01,3.36782e-02,-1.87825e-02,-1.24446e-02,1.46909e-02,-1.15306e-01,1.89205e-01,-2.74806e-02,1.09655e-01,-1.00924e-02,6.41278e-03,-6.84763e-02,1.53437e-01,3.26996e-02,3.69882e-02,1.09045e-01,8.59999e-02,-3.91606e-02,2.14643e-02,-3.08187e-02,-9.23254e-02,1.35629e-02,-1.20722e-02,3.61665e-02,2.46917e-02,4.59569e-02,-5.45637e-02,-7.14791e-02,1.38942e-02,-2.37892e-02,5.88377e-02,5.47516e-02,1.07751e-01,-1.11332e-02,-7.46073e-02,-2.31329e-02,1.09712e-01,-2.96030e-02,-1.54615e-02,1.41969e-01,5.11915e-02,1.09232e-01,-3.28095e-02,1.45204e-02,1.92464e-02,-9.81100e-03,9.19764e-02,8.23726e-02,-5.50223e-02,-3.67617e-02,-3.57419e-02,4.34471e-02,1.16502e-01,-7.58927e-02,-5.19334e-02,-8.72601e-02,-1.02042e-02,1.48660e-02,6.31201e-02,1.73671e-01,-1.31523e-01,9.33209e-02,-9.24374e-02,-5.44728e-02,-2.19121e-02,8.81616e-02,1.01264e-01,9.62346e-02,9.00590e-02,8.65210e-02,-2.81031e-02,
3.56351e-02,-5.79275e-03,-2.61982e-02,-3.06804e-02,3.46931e-02,1.15730e-02,9.40673e-02,-1.82768e-02,-4.11700e-02,-4.36371e-02,5.57423e-02,1.45895e-02,5.15735e-02,4.40842e-02,5.61338e-02,3.39924e-02,7.57211e-02,1.31532e-01,-3.98944e-02,-6.52620e-02,-1.42686e-01,1.57650e-01,8.87346e-02,-2.25809e-02,3.35214e-02,3.35370e-02,6.51812e-02,-6.11889e-02,-8.17643e-02,-9.75128e-02,-3.79748e-02,2.19180e-02,-9.29869e-03,-5.19653e-02,6.49992e-02,-1.23655e-01,-6.80578e-02,1.48137e-01,2.07542e-02,-1.20005e-01,4.25260e-03,-5.27236e-02,-8.09926e-02,4.75556e-02,1.34543e-01,2.47845e-02,-5.31036e-03,4.45478e-02,1.00083e-01,-5.04402e-02,4.71178e-03,-2.21507e-01,-4.62120e-02,-2.03689e-03,-7.72929e-02,1.04093e-01,-9.92486e-03,1.17648e-01,-3.94622e-02,2.05310e-01,1.40202e-01,-1.02867e-02,-1.89881e-02,-1.89822e-02,-4.88289e-02,1.24686e-02,4.30448e-02,1.37227e-02,5.89871e-03,8.15691e-02,5.10566e-03,-1.20281e-01,7.34617e-02,5.01828e-03,2.36396e-02,-9.70177e-02,-4.35876e-02,7.68673e-02,2.34296e-01,3.31079e-02,-2.19098e-02,1.41322e-01,6.04570e-04,1.03221e-01,-7.20605e-02,2.49165e-02,4.24310e-02,3.43312e-02,1.03784e-01,8.54936e-02,2.60662e-02,-2.72185e-02,-8.48617e-02,-8.13367e-02,2.64442e-02,-1.58908e-02,1.15061e-02,1.17507e-02,-6.51563e-02,1.56238e-01,
-1.61666e-02,-6.05248e-02,4.72090e-03,8.04161e-02,1.48577e-01,-5.40217e-03,9.04609e-02,2.27525e-01,1.96917e-01,2.58821e-02,-1.45073e-01,-2.04812e-02,4.33080e-04,1.63641e-01,-6.29917e-02,-1.99880e-01,-1.67403e-01,-5.27765e-01,2.02932e-01,2.84182e-02,-3.47129e-01,8.97200e-02,-4.40777e-02,1.03121e-02,1.16516e-01,-6.03812e-02,4.56734e-02,1.15790e-01,-6.71808e-02,2.26521e-02,2.30504e-02,7.78050e-02,6.45986e-02,1.10449e-01,-2.79266e-01,2.79057e-01,1.32226e-01,1.87784e-01,7.12704e-02,-6.43002e-02,1.46058e-01,-4.05875e-03,9.30093e-03,-2.36038e-02,-6.10841e-03,-2.19646e-03,2.80394e-02,-8.42078e-02,-8.44137e-02,-4.24333e-02,2.67794e-02,-7.61844e-02,1.15334e-01,-4.71224e-02,-1.18698e-01,3.02096e-02,-2.08972e-01,2.07299e-01,-3.51987e-02,2.06477e-02,-1.03529e-01,-1.62008e-02,-1.96505e-02,1.87305e-01,-1.07453e-02,2.60377e-02,2.27605e-01,2.30033e-01,3.41868e-02,-8.82099e-02,6.19241e-02,-1.83163e-01,1.36143e-01,1.24140e-02,-1.08730e-01,-1.32842e-01,-8.71419e-02,-1.15047e-01,-2.10803e-01,3.85983e-02,-1.06361e-01,-3.09360e-02,1.05975e-01,-8.76149e-03,-8.61183e-02,2.09207e-01,-1.86991e-02,-9.63915e-02,1.65066e-01,-1.50512e-01,-1.86050e-01,-1.48459e-01,8.55768e-02,2.01061e-02,-2.76191e-02,-1.15668e-01,-1.95939e-01,-4.66748e-04,-1.24928e-01,-1.06737e-01,
-2.87577e-02,-2.64449e-02,7.43909e-02,8.45288e-02,-1.51176e-02,5.76641e-02,2.42801e-02,8.43356e-02,-2.49001e-02,8.00654e-03,2.10904e-02,-8.95383e-02,-9.65669e-02,3.27063e-02,4.07284e-02,-6.27838e-03,5.62397e-02,-6.14474e-01,1.15823e-01,7.96594e-02,2.43115e-01,4.10082e-02,-3.27615e-03,-2.43585e-03,3.01384e-02,-1.73527e-02,-6.13718e-02,7.96382e-02,3.75256e-02,-3.51810e-02,6.72241e-02,-8.57906e-02,-4.34928e-02,3.09529e-02,1.01574e-01,1.24963e-01,-1.73532e-04,1.89376e-02,-1.09417e-01,3.89949e-02,5.49600e-02,-1.77787e-02,5.98700e-02,2.59675e-02,-4.09992e-02,1.25606e-01,1.21634e-01,1.79296e-02,9.06448e-02,-9.34411e-04,1.13282e-01,9.53194e-02,-6.60100e-02,-1.23358e-01,8.20879e-02,-9.16277e-02,-2.46568e-02,4.43450e-02,-1.03099e-02,3.47375e-02,5.70406e-02,-1.12129e-01,3.66751e-02,9.80821e-02,-5.77313e-02,9.31376e-02,6.78845e-02,-7.01544e-02,8.70374e-02,7.51119e-02,1.74471e-02,7.22245e-02,-6.55417e-02,-3.46997e-02,-5.77228e-02,-1.65734e-02,1.06900e-01,1.92492e-01,1.46280e-01,-4.83235e-02,-3.73624e-02,-8.47715e-02,-1.04431e-01,-5.24601e-02,1.06284e-01,9.23802e-02,5.73245e-02,-6.43142e-02,1.51980e-01,4.30734e-02,6.42058e-02,-4.79805e-02,-3.51551e-02,1.64645e-01,-8.40700e-02,-7.58293e-02,9.00301e-02,-2.78939e-02,9.95052e-02,-1.54948e-01,
3.30202e-02,-1.40646e-01,2.95227e-02,3.88087e-02,6.93106e-02,-4.78776e-02,-8.72077e-02,3.20288e-02,1.29606e-01,1.55115e-02,-1.01090e-02,-7.56468e-02,-3.85965e-03,-2.28195e-02,3.89994e-02,-7.28196e-02,2.86710e-02,-2.68315e-01,-1.14905e-01,-5.93608e-02,-1.53874e-01,-4.19603e-02,2.80940e-02,-1.16184e-01,-1.85167e-02,6.65210e-02,-5.92700e-02,-1.03965e-02,6.95174e-02,-5.26237e-03,3.39285e-03,-7.27772e-02,-1.00946e-01,3.77168e-02,-2.82377e-01,-8.10905e-02,-7.37862e-02,7.65629e-02,-6.77663e-02,-5.81490e-02,-7.05279e-03,1.04477e-01,7.15165e-02,-3.98153e-02,1.28681e-01,3.78398e-02,1.64083e-01,4.12456e-01,-4.02153e-02,-4.60597e-02,1.69631e-03,1.89998e-02,-2.29859e-03,-6.35014e-02,7.14019e-02,8.67189e-02,-3.62879e-02,1.07726e-01,5.11207e-02,4.55801e-03,-4.74312e-01,3.54613e-03,9.70450e-02,-1.44364e-02,1.03529e-01,-7.26501e-02,-3.47601e-02,4.02794e-02,6.60766e-02,-5.05809e-02,9.49974e-02,7.84910e-02,3.14040e-02,-3.04013e-03,1.61573e-01,7.32623e-02,7.36092e-02,1.99785e-01,-5.49640e-02,-1.42433e-01,-1.14350e-01,-8.01080e-02,3.62170e-02,-5.35972e-02,-2.76403e-01,2.50316e-03,-1.24782e-01,1.87865e-02,-1.03291e-01,1.29576e-01,3.19534e-02,1.07996e-02,2.00243e-02,-1.11308e-03,1.11961e-01,-9.93730e-02,-2.59994e-02,-4.17830e-02,1.53880e-02,-4.40910e-02,
1.95416e-02,-7.28452e-03,1.54259e-02,-4.77667e-02,3.61122e-02,1.77546e-03,1.22056e-01,5.77299e-02,-5.14298e-02,3.71792e-02,5.92626e-02,1.56333e-02,1.10670e-01,1.45366e-02,6.87639e-02,1.22104e-02,-2.96298e-02,-2.84406e-01,1.46521e-01,1.96531e-02,-1.24189e-01,5.55997e-02,1.00203e-01,2.07296e-02,-2.28051e-02,-5.68256e-02,-3.11806e-03,3.66250e-02,-6.89275e-02,1.25725e-01,5.94358e-02,-1.16575e-02,6.30043e-02,1.02474e-01,9.81944e-03,4.06418e-02,1.66626e-02,7.60509e-02,5.12485e-02,-6.11927e-02,1.93279e-02,7.80657e-02,1.96794e-02,1.62422e-01,-3.34851e-02,1.66537e-02,-4.12764e-02,2.04639e-01,6.71716e-02,-2.50966e-02,7.62395e-02,-2.87427e-02,-5.75891e-02,4.62211e-02,9.04700e-02,1.25471e-01,-2.75809e-01,2.48753e-02,-1.02946e-01,-6.90736e-02,-1.23037e-01,-6.77169e-02,-9.22778e-02,1.13625e-01,-5.15975e-02,-1.04001e-01,-3.79274e-02,1.97550e-02,-4.37361e-02,-1.17829e-01,3.76486e-02,-6.39556e-02,1.23116e-01,3.69268e-02,-9.17246e-03,-2.11917e-02,1.20163e-01,-1.44661e-01,-7.24152e-02,1.91580e-01,-1.26191e-02,-7.38482e-02,-7.08382e-03,8.62556e-03,-9.49531e-02,7.18094e-02,-5.75178e-02,-5.29885e-02,2.96758e-02,-2.11302e-02,-1.31490e-01,3.00883e-02,-7.39758e-04,-4.48986e-02,3.77324e-02,2.83719e-02,7.36395e-02,1.82242e-02,6.70282e-02,2.10138e-03,
-2.70787e-02,7.47215e-02,3.20649e-02,-7.88361e-03,2.75940e-02,3.48495e-02,-5.92448e-02,8.24401e-02,4.74903e-02,2.21135e-02,6.66589e-02,-3.43850e-02,4.63528e-02,5.43026e-02,-3.96819e-03,-1.90691e-02,-7.72538e-02,2.61021e-01,-9.26954e-02,4.73384e-02,2.85618e-01,-9.58566e-02,-1.14067e-02,-1.78314e-02,-1.11686e-01,-7.05729e-02,-5.35697e-02,-2.92288e-02,2.52696e-02,3.56380e-02,3.05561e-02,7.87286e-02,-5.89811e-02,7.15978e-02,-4.36673e-02,6.13756e-02,6.12407e-02,5.19888e-02,8.75068e-02,-9.92576e-02,3.47774e-02,1.05087e-01,1.07424e-02,7.20204e-02,6.90575e-02,-2.92977e-02,-1.91202e-02,2.08939e-02,9.12454e-02,1.62970e-01,-5.08478e-02,3.73708e-02,7.49270e-02,6.04974e-02,5.56384e-02,7.32916e-03,7.99029e-02,8.53126e-02,5.05254e-02,-1.44663e-01,4.18625e-02,-5.24326e-02,2.36686e-02,1.25058e-01,-7.37530e-03,-8.46716e-02,1.33252e-01,8.58947e-02,2.44116e-02,4.49717e-02,-1.37330e-03,-5.79452e-02,9.74442e-02,-2.35965e-02,4.79081e-02,-1.27987e-02,-1.54561e-02,7.66290e-02,-5.94573e-02,1.50840e-02,-2.54802e-02,-6.65460e-02,-3.17463e-02,1.53747e-01,7.76084e-02,-4.68232e-02,4.17787e-02,1.26306e-01,-6.93093e-02,1.38930e-01,2.30568e-02,1.21248e-01,1.88192e-02,5.18226e-02,6.96357e-02,-2.06026e-02,4.20381e-02,5.02093e-02,-1.65818e-02,4.95671e-02,
-2.48284e-02,4.73454e-02,-1.64023e-02,5.91550e-02,-3.17622e-02,2.03743e-02,5.89952e-03,6.29780e-02,1.33449e-02,7.32909e-02,3.74975e-02,-3.80733e-02,1.64930e-01,-8.01032e-03,-3.66372e-02,6.65064e-03,-1.34370e-01,2.34035e-01,-6.88319e-02,8.59374e-02,3.40559e-01,6.86171e-02,2.92781e-02,-6.92798e-02,-2.29325e-02,3.76632e-02,-1.19187e-02,7.86481e-02,-6.54835e-02,-1.16752e-01,-6.57844e-02,7.10735e-02,2.76689e-02,5.44452e-04,-1.97225e-02,-1.03507e-02,-7.68669e-02,-1.86594e-02,-5.23776e-02,-2.83071e-02,1.33821e-01,-3.68799e-03,-4.37409e-03,1.21333e-01,5.53646e-02,-7.63050e-02,-4.11653e-02,-3.64752e-02,1.03891e-01,1.36228e-01,6.12572e-03,-2.63573e-02,3.61905e-02,-6.48585e-02,-9.45935e-02,6.93134e-02,5.93354e-02,1.54129e-03,-6.58000e-02,-9.50737e-02,1.41226e-01,7.01119e-02,5.36421e-02,1.40016e-03,8.64351e-03,3.24763e-02,1.02076e-01,1.38024e-01,4.93584e-02,1.04162e-02,-4.19411e-02,-8.47227e-02,6.17889e-02,-5.79217e-02,9.22941e-03,8.88385e-02,1.25552e-01,-2.80383e-02,2.91512e-02,2.95823e-02,-4.89925e-02,2.78983e-02,7.73382e-03,5.68794e-02,1.12598e-02,9.98769e-02,9.51444e-02,8.36087e-02,-5.81632e-02,2.02612e-01,-2.29881e-02,1.37804e-01,-3.00154e-02,-7.72911e-02,4.54085e-02,-4.30122e-02,3.78327e-02,-1.56150e-02,2.21752e-02,9.69405e-02,
-2.35523e-02,7.83559e-02,-5.89902e-02,9.00271e-02,-2.31289e-02,5.15151e-02,3.60498e-02,-5.38041e-03,1.07275e-01,-1.50625e-01,1.88138e-01,1.33800e-02,1.61345e-01,1.83660e-02,6.86502e-02,-1.73957e-02,1.94245e-01,9.59920e-02,-1.85697e-02,3.05495e-02,3.65829e-02,5.91139e-02,3.68883e-02,8.34294e-02,9.79772e-02,1.77160e-01,3.03812e-02,5.12500e-02,4.34372e-02,3.05267e-03,6.71512e-02,5.12315e-02,-3.18728e-02,7.81488e-02,4.27212e-02,1.86570e-02,1.10378e-02,9.82194e-02,-7.72707e-02,-8.27108e-02,-4.77337e-02,-2.37898e-02,-3.87223e-02,-4.59593e-02,8.75259e-02,-1.16282e-01,-7.45199e-02,2.73545e-03,-1.07331e-03,-1.07552e-01,-6.88326e-02,1.83249e-02,-4.51942e-02,-4.95191e-02,-5.01023e-03,-8.35771e-02,5.76169e-02,1.12448e-02,-9.10353e-02,2.49910e-01,-3.99369e-02,7.92068e-02,-1.54410e-02,-5.98153e-02,8.81063e-02,3.89377e-03,5.50972e-02,-4.07781e-02,-6.61693e-03,6.69044e-02,1.25694e-01,3.86720e-02,-6.87175e-02,6.98240e-02,1.17223e-01,2.87552e-02,-8.41859e-02,-9.81542e-02,4.16656e-02,1.32623e-01,7.06323e-02,9.43569e-02,8.41681e-02,-3.41939e-02,3.45759e-02,1.38001e-01,-6.11996e-02,1.74766e-01,2.24493e-02,-6.34067e-02,1.89534e-02,6.65937e-02,9.93017e-02,-1.28273e-04,1.95500e-01,1.92936e-01,4.07004e-02,2.60859e-02,-4.54096e-02,-3.47855e-02,
