// Neural Network File Format by Kyle Julian, Stanford 2016
2,6,4,200,
6,200,4,
0,
0
0
0
0
5.02743e-01,3.22108e-01,1.63306e-01,1.40474e-01,4.80533e-01,-2.26602e-01,
-2.29595e-02,3.86903e-02,5.76207e-01,1.24240e+00,4.52885e-02,7.04346e-02,
-3.60326e-03,-9.89370e-03,4.74369e-01,-1.48203e+00,7.97177e-02,-7.38629e-02,
3.51781e-01,8.82058e-02,-2.99953e-01,-7.40723e-01,1.82283e-01,-6.67151e-02,
4.28742e-02,-2.55200e-01,1.53981e-02,-2.86230e-01,-4.09835e-02,-1.36660e-01,
-3.83886e-02,3.64195e-02,9.76387e-02,-7.38669e-01,-3.06358e-01,-1.79123e-01,
-1.93269e-01,1.62469e-01,1.22081e-01,1.96402e-01,-4.68473e-01,-2.68845e-02,
-1.74746e-01,2.73247e-01,-1.88288e-01,-8.90219e-01,-3.40927e-02,-1.67062e-01,
1.26598e-01,-7.45001e-02,-2.23448e-01,4.09090e-01,5.06383e-01,-3.23363e-01,
2.11358e-01,6.96670e-02,3.85593e-02,-9.20099e-01,-4.26101e-01,-1.58147e-01,
2.00205e-01,1.01310e-01,9.82575e-04,4.95242e-02,-2.64922e-01,-3.26394e-01,
3.22820e-01,5.01863e-02,7.09342e-01,2.87050e-01,1.47677e-01,-2.41345e-01,
9.74131e-02,-1.77732e-01,2.00184e-01,1.57720e-01,3.70286e-01,-9.12896e-02,
2.70360e-01,-2.63985e-01,-1.14331e-01,5.01932e-01,-3.17675e-01,-1.83612e-01,
2.99470e-01,3.41248e-02,-1.25102e-01,2.14785e-01,-2.62230e-01,2.28319e-01,
2.40691e-01,-4.45837e-03,9.49331e-01,4.46802e-01,5.51922e-02,9.61811e-02,
4.35709e-01,2.63477e-01,5.30506e-01,-2.01790e-02,3.58706e-03,1.61633e-03,
1.27249e-01,7.36515e-02,-5.12383e-01,-4.54784e-01,-3.38223e-01,-8.05797e-02,
-5.10312e-02,2.09785e-02,-3.57054e-01,8.36882e-01,-3.51971e-02,3.73199e-02,
-1.13221e-03,3.52337e-03,4.19021e-01,7.10411e-01,3.98465e-02,3.16788e-02,
-7.22376e-02,-3.60433e-01,1.17306e-01,-3.62601e-01,-1.37192e-02,-2.16080e-01,
7.73740e-02,2.47136e-01,-1.08020e+00,1.35317e-01,1.98934e-01,4.46758e-01,
2.07718e-01,7.19205e-02,7.86430e-02,-1.37395e+00,1.23727e-01,3.75954e-03,
-2.88732e-01,9.28448e-02,-1.04219e+00,-4.61268e-01,-1.14885e-01,-7.56040e-02,
2.39913e-03,-5.23735e-03,2.37767e-01,-9.71207e-01,3.44828e-02,-4.73086e-02,
9.22318e-03,-3.30692e-04,-2.50495e-01,-8.30356e-01,-1.97503e-02,-3.83732e-02,
-1.60182e-01,-2.53499e-01,5.33673e-01,2.90709e-01,-1.04664e-01,-2.69772e-01,
-1.26760e-01,-1.84060e-01,4.53801e-01,-1.93285e-01,3.01105e-01,-2.31563e-01,
-1.50303e-01,-1.25136e-02,3.93275e-01,-8.37860e-01,-4.56347e-03,2.97957e-02,
-3.57919e-01,-2.67634e-01,2.74301e-02,-1.26449e-01,-3.08404e-01,9.85413e-02,
2.08043e-01,-1.71704e-01,-3.12782e-01,-7.30612e-02,-3.99553e-01,-3.77883e-01,
-2.97037e-01,-1.11004e-01,4.91330e-01,7.51167e-01,4.81608e-01,9.22893e-02,
7.45399e-03,5.48583e-02,1.72477e+00,-6.04352e-01,6.31108e-02,-5.72030e-02,
3.48072e-03,-2.16506e-01,2.30279e-01,5.88066e-01,-3.69977e-02,5.72406e-02,
-1.19499e-02,-2.59086e-01,-1.43498e-01,-1.49814e-01,-3.41181e-01,-2.33119e-02,
-2.00151e-01,1.62251e-01,2.30575e-01,9.98425e-02,3.68571e-01,3.43852e-01,
-1.93159e-01,-2.98369e-01,4.76309e-01,1.24624e-01,-5.68130e-01,2.31988e-01,
7.24384e-02,1.72778e-01,-6.29575e-01,-4.97077e-01,3.41169e-02,-6.34776e-02,
-1.97353e-01,1.20496e-01,-1.64243e-01,1.45398e-01,-3.33097e-01,4.81176e-02,
-3.15312e-01,-1.38688e-01,-2.84723e-01,2.84152e-01,8.86595e-02,-9.51872e-03,
-3.44034e-01,-1.58162e-01,-1.16074e-01,1.44834e-01,3.37777e-01,-4.20649e-01,
-3.27262e-01,-2.45495e-01,5.74777e-01,-3.99764e-02,-2.03792e-01,-1.63361e-01,
7.55405e-02,3.78307e-01,1.00242e+00,-6.29585e-02,1.55564e-01,1.97880e-01,
1.12766e-01,2.04484e-01,2.55183e-01,-1.08908e+00,1.33644e-01,-6.37172e-03,
-4.12980e-01,-3.04442e-01,-3.49041e-01,-2.18852e-01,-4.66218e-01,2.04935e-01,
-7.05788e-03,1.60851e-03,1.53038e-01,-8.19421e-01,-3.40149e-01,-1.88141e-01,
-2.76035e-01,1.45952e-01,-7.35425e-01,-1.59069e-01,-3.11151e-02,1.06357e-02,
-3.82332e-02,4.00319e-01,-2.47253e-01,3.70268e-01,5.73239e-02,2.50493e-01,
4.08746e-01,-2.82237e-01,6.81992e-02,-1.75852e-01,-2.48600e-01,-1.59140e-01,
5.08688e-02,4.76782e-02,2.61191e-01,4.98647e-02,3.17193e-02,-2.35337e-03,
-1.49441e-02,-2.38689e-01,-4.70764e-01,-1.41137e-01,-3.82810e-02,3.61747e-01,
-2.73556e-01,-1.78126e-01,-5.14640e-01,-5.10966e-01,3.14684e-01,-1.56848e-01,
-1.26887e-01,2.46579e-01,-3.09884e-01,3.04501e-01,-2.74914e-01,2.47495e-01,
-2.31078e-01,1.56736e-01,-5.33638e-01,-4.60045e-01,-1.07531e-01,-2.65689e-02,
-1.39364e-01,-1.93991e-01,8.38859e-02,-3.39564e-01,-5.09336e-02,6.57662e-01,
-2.02817e-01,2.42455e-01,-3.32483e-01,-3.90876e-01,-7.38123e-04,-3.58228e-02,
1.67789e-01,-8.10588e-03,-2.58765e-01,-4.41139e-03,-8.27905e-02,8.30605e-02,
-2.23344e-01,-3.28995e-01,-7.94898e-02,-3.78597e-01,5.23596e-01,6.22477e-01,
-3.05055e-01,-5.21969e-02,8.28326e-01,-3.83284e-01,-4.50288e-02,-1.47459e-01,
3.19551e-01,-1.83605e-01,-2.52367e-01,1.20855e-01,2.99300e-02,7.78791e-02,
1.19491e-01,-4.11969e-02,2.10062e-01,-3.19904e-01,7.48786e-02,4.58581e-01,
4.76709e-03,-1.71898e-01,-1.03943e-01,2.23764e-01,-4.90042e-02,-7.26414e-02,
-4.25064e-02,3.82390e-01,3.08004e-01,-2.67278e-01,-3.38313e-01,-6.37899e-02,
-2.35334e-01,1.63719e-01,-6.19103e-01,-6.19931e-01,2.32085e-01,-7.14346e-02,
1.77045e-01,3.72777e-01,-6.94660e-01,-7.52913e-01,1.42706e-01,-1.58890e-01,
2.24037e-02,1.25135e-01,-5.42509e-01,8.12743e-02,-3.81621e-01,5.86610e-02,
-3.13015e-01,2.21198e-01,-8.35149e-01,-7.82208e-01,-2.32442e-01,-5.14754e-02,
2.75829e-03,8.47755e-03,-4.53351e-01,1.53728e+00,-6.79103e-02,8.04364e-02,
1.56897e-01,2.30630e-01,-5.26073e-01,2.33284e-01,-3.68704e-01,2.86004e-01,
1.65575e-01,2.50860e-01,-3.75658e-01,-9.91637e-02,4.68097e-01,-1.92363e-01,
9.30120e-02,2.17582e-02,1.02303e-01,4.02959e-01,4.47630e-01,-2.29057e-01,
-2.85285e-01,2.42752e-01,1.69257e-01,2.98026e-01,-6.67773e-01,-8.80250e-02,
1.24936e-01,-2.01658e-01,2.51025e-01,1.58845e-01,-2.82861e-02,2.37571e-02,
1.14449e-01,2.13050e-01,2.12361e-01,-1.63135e-02,-4.10998e-01,3.39944e-01,
-1.07887e-01,8.38936e-02,3.00734e-01,-2.91085e-01,2.77078e-01,-3.50473e-01,
-2.55765e-01,-9.93901e-02,-4.50620e-01,-3.57024e-01,1.97892e-01,4.46136e-01,
1.20446e-01,-1.50441e-01,-3.66230e-01,-2.50918e-01,3.94148e-01,5.10258e-02,
-1.66209e-01,1.92021e-01,1.63289e-01,-4.78651e-01,-5.30971e-01,2.75591e-01,
-1.28742e-01,4.18714e-02,-2.37627e-01,3.43356e-01,-8.07058e-02,-4.96693e-01,
-2.59272e-01,-1.74535e-01,-1.03998e-01,1.27672e+00,5.75120e-01,2.09552e-01,
-1.07908e-01,-2.83256e-03,7.78859e-01,-1.02864e+00,-3.09871e-02,-1.00245e-01,
4.58868e-02,-1.64393e-01,-7.47412e-02,-1.28008e-01,-3.66823e-02,2.85091e-01,
-1.21340e-01,1.53781e-01,2.10561e-01,4.79771e-01,2.95929e-01,2.17254e-01,
1.45476e-01,2.36184e-01,4.23656e-02,3.93666e-01,7.43472e-02,-6.13426e-01,
2.25536e-01,-1.39263e-01,1.16688e-01,-1.77326e-01,4.10912e-01,-2.64917e-02,
-2.57333e-02,-2.57243e-01,-2.15182e-01,-5.17932e-01,1.66616e-02,-8.45118e-02,
-5.09098e-03,4.35513e-03,1.88980e-01,7.37131e-01,2.38677e-02,2.52332e-02,
-2.47559e-03,5.83022e-03,-3.90056e-01,-7.11135e-01,-5.45153e-02,-3.99301e-02,
4.65675e-02,-3.22329e-01,-1.64302e-01,1.14285e-02,-4.34975e-01,-6.85782e-02,
1.53289e-01,-1.61004e-01,-5.52495e-02,-3.79886e-01,-3.00276e-01,-2.10433e-01,
-1.06432e-01,-2.31605e-01,-4.02194e-01,4.43037e-01,1.02992e-01,-1.01274e-01,
3.57168e-02,4.47050e-03,6.34201e-01,-6.73745e-01,3.86625e-02,-2.67681e-02,
-2.83668e-01,7.90184e-02,-3.59216e-01,-1.16644e-01,-2.93515e-01,-3.75976e-01,
-8.37223e-02,-3.61441e-01,-1.94190e-02,-3.96465e-01,1.78264e-01,1.33987e-01,
1.06201e-01,1.99116e-01,2.62377e-01,-8.14372e-01,-3.32546e-01,-1.24847e-01,
-1.34226e-01,-2.63252e-01,-2.44511e-01,1.26801e-02,4.89832e-01,-4.07422e-01,
-2.33209e-02,-3.42018e-01,-6.67870e-01,3.00682e-01,-1.80209e-01,-3.32625e-01,
-1.99887e-01,-9.54525e-02,5.46405e-01,1.39647e-01,-1.80115e-01,5.83339e-02,
-3.89628e-01,2.68719e-02,-5.90143e-02,-3.33617e-01,3.05978e-01,-2.52294e-01,
-3.55531e-01,7.49681e-02,1.57990e-01,-3.35966e-01,2.26008e-01,-1.93256e-01,
4.34313e-02,-2.65553e-01,4.35495e-01,-2.10046e-02,-2.29720e-01,-4.95514e-01,
-2.61450e-02,6.02999e-02,-4.62400e-01,-1.09849e+00,-3.78828e-02,-6.09590e-02,
-1.85719e-01,-3.09458e-01,-7.33005e-02,-5.45279e-01,-1.12415e-01,7.71819e-01,
2.10040e-01,5.69058e-02,-9.80405e-02,1.58181e+00,7.60989e-02,1.52535e-01,
2.34561e-01,2.36467e-01,3.67913e-01,1.20255e-01,-4.12676e-01,2.89733e-01,
-2.91343e-01,-2.96261e-01,-3.16772e-01,6.16539e-01,8.15159e-02,-4.31747e-01,
-4.51720e-02,1.20936e-02,4.16606e-01,-6.19932e-01,4.00440e-02,-3.13244e-02,
3.34422e-01,3.09202e-01,-2.56670e-01,3.53135e-01,1.52017e-01,5.05262e-01,
-1.04056e-01,-5.29134e-02,-1.94675e-01,-5.28964e-01,2.53905e-01,-4.67387e-01,
1.45035e-03,-5.34791e-03,-1.33959e-01,3.66010e-01,-1.91408e-02,2.61982e-02,
2.28404e-01,-1.89131e-01,-1.05212e-01,-2.34132e-01,5.20309e-01,8.37316e-02,
-2.93640e-01,-2.27612e-01,1.19255e-01,-4.48670e-01,-8.03120e-02,-4.49565e-01,
5.19525e-02,-3.88802e-01,-2.35734e-01,2.65041e-01,-2.07989e-01,1.64391e-01,
-3.10165e-03,4.53685e-03,3.15960e-01,8.89662e-01,2.86299e-02,4.06025e-02,
-1.46846e-01,3.21796e-01,3.66727e-01,-3.14954e-01,-2.63507e-01,-3.11238e-02,
3.36891e-01,1.93171e-01,-5.73218e-01,-2.14085e-01,3.06331e-01,-5.82008e-02,
-1.91984e-01,-1.27913e-01,-1.37076e-01,1.23466e+00,-1.28887e-01,-1.12813e-02,
2.13328e-01,-5.44302e-02,-1.66757e-04,7.34915e-01,-4.55527e-01,6.62552e-01,
-3.14811e-01,-3.15052e-01,-1.27145e-01,-9.84138e-02,-1.78018e-01,-1.17032e-01,
-1.84522e-01,2.51174e-01,5.91483e-01,-1.83570e-01,3.27631e-01,2.84979e-01,
1.03806e-02,-9.58634e-03,-7.28291e-01,1.19407e+00,-5.47351e-02,5.68570e-02,
-2.98464e-02,3.29685e-01,1.24030e-01,2.41672e-02,4.19552e-01,1.82615e-02,
2.93325e-01,8.93793e-02,-8.98575e-02,3.05528e-01,1.80919e-03,-3.43962e-01,
1.03707e-01,-2.64551e-01,6.15161e-01,-6.09974e-02,-8.27190e-02,-4.10039e-01,
-1.94744e-02,4.04507e-02,-4.77995e-01,-1.07631e+00,-2.75360e-02,-2.01913e-01,
3.95399e-01,-7.43328e-04,6.51688e-01,1.80131e-01,1.35019e-01,-2.28032e-01,
-2.45196e-01,-3.55895e-01,6.88503e-01,6.82522e-01,-1.38832e-01,1.61797e-01,
2.91392e-01,2.88117e-01,-2.44477e-01,8.77053e-01,8.78905e-02,2.03984e-01,
-1.14831e-01,-2.07377e-02,6.04525e-01,-9.89599e-01,-4.26327e-02,-1.22270e-01,
2.21270e-01,3.25864e-01,8.91995e-02,3.64782e-01,-4.95937e-01,-5.81581e-01,
2.71944e-01,-7.73434e-02,9.27929e-01,5.42302e-01,-2.93261e-01,5.24726e-02,
8.64442e-02,1.16945e-01,1.50523e-02,1.06845e-01,-6.93707e-02,-1.80287e-01,
-1.02946e-01,1.31081e-01,1.97725e-01,-2.82460e-01,3.26416e-02,-1.74443e-02,
2.59639e-01,1.76936e-02,6.21877e-02,3.41132e-01,3.30726e-01,4.47033e-02,
-4.69049e-02,1.69948e-01,-5.20841e-02,-1.08743e-01,2.53301e-01,8.67475e-03,
4.43637e-02,-4.03307e-02,-1.19064e-01,1.01052e+00,4.42386e-01,2.53084e-01,
2.06741e-01,-1.64853e-02,4.50868e-02,1.83294e-01,-3.14409e-01,-4.22163e-01,
2.41361e-01,8.30302e-02,7.40681e-01,5.72220e-01,8.30432e-02,1.43998e-01,
-1.39712e-01,4.68431e-02,7.64900e-02,-4.75974e-01,-5.66638e-01,3.38544e-01,
-2.26002e-01,-1.58128e-01,-1.38370e-01,-2.06840e-01,4.43107e-01,1.74645e-01,
8.33924e-02,1.00910e-01,3.26730e-01,5.24223e-01,-1.77212e-01,3.35391e-01,
2.14367e-01,1.48498e-01,1.05247e-01,-1.05194e+00,-4.76520e-01,-1.69494e-01,
-2.14019e-01,2.36957e-01,-1.92163e-02,3.49483e-01,-9.80321e-03,-2.88785e-02,
-2.00507e-01,2.19284e-01,1.20431e-01,-3.65303e-01,2.04449e-01,-3.98180e-02,
-6.37726e-03,1.02593e-02,-1.60000e-01,7.43078e-01,-1.71514e-02,3.29532e-02,
3.18377e-01,-2.42316e-01,4.90568e-02,6.07812e-01,1.03856e-01,1.13961e-01,
-1.32997e-03,3.43026e-03,5.10993e-01,1.06884e+00,4.91298e-02,5.99920e-02,
9.19126e-02,-1.08819e-01,-4.94490e-01,2.54428e-01,-3.05688e-01,3.25503e-01,
-4.17827e-01,-2.47076e-01,-1.75405e-01,-9.52347e-02,-4.18414e-01,2.14512e-01,
-7.95785e-02,2.83054e-01,1.48212e-01,2.13922e-01,5.94401e-02,-4.93492e-01,
3.23192e-01,2.89807e-01,7.67783e-01,6.25837e-01,-3.03691e-01,1.49900e-01,
2.12044e-01,2.55001e-02,-1.14666e-01,1.65586e+00,7.68657e-02,1.63975e-01,
2.77485e-01,-6.65197e-02,3.65826e-01,1.31736e-01,2.91049e-01,3.88519e-01,
-3.71700e-01,-2.67561e-01,-3.13139e-01,1.08675e-01,-8.18860e-02,-4.69031e-02,
1.09461e-01,-1.25526e-01,4.00095e-01,-4.44909e-01,-1.53221e-01,-5.78620e-02,
-1.96439e-01,2.07660e-01,2.70968e-01,-4.46629e-01,2.17885e-01,3.50565e-01,
-2.74144e-01,-2.72692e-01,-4.55441e-01,-1.23775e-01,5.08173e-01,-3.64715e-01,
-1.85387e-01,-2.51661e-01,5.26863e-02,-2.07585e-01,1.94233e-01,4.60719e-01,
-1.15654e-01,-2.33049e-01,5.99151e-02,-1.39481e-01,5.66115e-02,-1.44762e-01,
3.36126e-01,1.13166e-01,2.89295e-01,-1.60818e-03,2.23432e-01,-2.31612e-01,
4.91253e-02,-9.83847e-02,-1.81261e-02,9.62741e-01,-1.19301e-01,7.59280e-02,
2.28195e-01,1.59557e-01,-4.64871e-01,5.21246e-01,6.08924e-02,3.17199e-01,
4.16569e-01,9.42658e-02,1.15990e+00,8.62659e-01,1.90917e-01,1.74377e-01,
4.72018e-02,-2.10124e-01,-4.23285e-01,2.38835e-01,-8.58945e-02,7.58941e-02,
1.18182e-02,-4.25818e-02,7.97154e-01,4.95062e-01,8.00962e-02,3.25100e-02,
-1.83195e-01,-2.77308e-01,1.37742e-01,5.04495e-01,4.07075e-01,1.58792e-01,
9.38580e-02,-3.21154e-03,-4.40091e-01,9.36105e-01,-7.81333e-02,-2.74513e-02,
3.33770e-01,3.48267e-01,4.07921e-01,-7.26229e-01,-1.05454e-01,5.11368e-01,
-8.15549e-02,-1.85224e-01,6.20866e-01,-1.44867e-01,-1.51206e-01,-3.19662e-01,
-1.20080e-01,3.62015e-01,-5.55961e-02,5.95831e-01,-4.03737e-01,2.66167e-01,
4.65432e-01,1.61188e-01,2.79093e-01,-1.06842e-01,-4.04301e-01,4.78819e-01,
-3.12269e-01,-3.31525e-02,2.17457e-01,8.15500e-02,2.04925e-02,9.68756e-02,
-3.19755e-01,-5.24096e-02,-6.89598e-01,-2.69739e-01,-1.50361e-01,2.32543e-01,
-4.08890e-01,-2.82575e-01,-4.62126e-01,-1.56391e-01,9.73200e-03,4.83542e-02,
1.13391e-01,-2.41146e-01,-2.47205e-01,-5.54436e-01,1.13402e-01,-4.85259e-02,
6.05431e-02,1.36387e-01,2.67653e-01,9.41717e-01,1.00695e-01,4.50198e-02,
3.23054e-01,-2.95783e-01,-5.76511e-01,2.62862e-01,8.25989e-02,7.89790e-03,
9.57097e-03,-1.84396e-01,-7.03278e-02,7.28099e-02,2.25188e-01,-3.30319e-01,
-1.75191e-01,1.79680e-01,2.61198e-01,8.57733e-01,-5.59226e-02,-4.55599e-02,
-3.84338e-01,-7.91342e-02,-3.11167e-01,1.28398e-01,-2.93773e-01,3.31163e-01,
5.88828e-02,-3.01586e-01,1.81273e-01,4.74974e-01,-5.78786e-02,1.71464e-01,
-1.97900e-02,2.38371e-01,-2.31567e-01,5.52329e-02,2.04774e-01,4.37376e-01,
-1.80996e-02,3.47045e-02,4.71543e-01,1.19466e+00,4.72575e-02,3.25790e-02,
-1.43556e-01,4.31869e-01,-7.24009e-02,-1.85593e-01,1.75164e-01,-1.56689e-01,
4.15541e-01,-3.65031e-01,9.29887e-03,-8.47585e-01,1.37659e-02,2.36391e-02,
-2.87763e-01,-3.25595e-01,-1.75389e-01,-2.65279e-01,3.61057e-01,-1.49844e-01,
2.55954e-02,-3.63199e-02,4.46701e-01,1.00320e+00,2.45938e-02,-8.28431e-02,
6.59900e-02,-6.11632e-04,9.05823e-01,-1.06599e+00,3.64546e-02,-5.53547e-02,
2.61790e-01,-2.63797e-01,-2.54926e-01,4.85856e-01,2.90082e-01,2.28718e-01,
1.02078e-02,1.15070e-02,1.00758e+00,-2.20275e-01,4.84521e-02,-1.68423e-02,
-4.20963e-01,-1.19614e-01,-2.11212e-01,7.83664e-02,3.60614e-01,-4.30398e-01,
-1.23359e-01,4.51042e-02,-8.40037e-02,1.05087e-01,2.36692e-02,-4.32080e-02,
-2.40870e-01,-1.49646e-01,2.72207e-02,-8.35538e-02,3.13809e-01,3.98881e-01,
-1.52129e-01,-8.65127e-02,-4.51221e-01,-5.60360e-01,-5.63819e-02,-1.24467e-01,
3.65536e-01,5.41559e-03,5.56837e-02,1.61201e-02,9.87351e-02,-2.46456e-01,
1.50101e-01,3.09734e-01,-9.60431e-01,-7.44439e-01,1.14816e-01,-1.24867e-01,
-3.40029e-01,-2.22655e-01,4.96958e-01,-7.93350e-01,-5.91283e-02,2.40385e-02,
3.16378e-01,1.03740e-01,-6.87522e-01,5.41350e-01,5.62295e-02,1.59826e-01,
-6.45827e-03,-1.53592e-01,3.68551e-02,1.61917e-01,-2.03013e-01,7.44469e-02,
-3.27353e-02,4.47369e-02,-3.43862e-01,-7.85146e-01,-3.33809e-02,-4.68133e-02,
6.92363e-02,
-3.94430e-02,
4.49208e-01,
9.28778e-02,
-4.52607e-01,
-1.52371e-01,
5.20086e-01,
-3.64744e-01,
1.66255e-01,
1.57917e-01,
-3.69966e-01,
1.01790e-01,
1.10700e-01,
7.69552e-02,
7.57123e-01,
-8.59779e-02,
4.72955e-01,
1.87758e-01,
1.23226e-01,
-1.99559e+00,
3.34819e-01,
-2.39665e-01,
-4.85230e-02,
1.53739e-01,
-1.89932e+00,
-2.25342e+00,
1.78788e-01,
-2.78110e-01,
2.98629e-01,
-7.46747e-02,
-1.80950e-01,
-2.29622e-01,
-9.21454e-02,
4.71153e-01,
-6.41025e-02,
1.86811e-01,
-1.03751e-01,
-9.84704e-01,
1.54688e-01,
-7.88561e-02,
6.94638e-02,
-2.64656e-01,
3.74064e-01,
-6.05049e-02,
-1.94958e-02,
-5.03276e-02,
1.20781e-01,
-3.37718e-01,
-3.77422e-01,
9.21661e-01,
1.34793e-01,
-3.23436e-01,
2.13403e-01,
7.06916e-01,
7.01129e-02,
6.06728e-01,
-7.44344e-02,
-3.38511e-04,
7.53957e-02,
-2.30119e-01,
2.37809e-02,
-6.48770e-02,
-1.34232e-01,
-8.00808e-02,
-1.57156e-01,
2.04514e-01,
-3.34629e-01,
1.26783e+00,
3.37331e-01,
9.34300e-02,
8.16543e-02,
-4.07015e-01,
8.27011e-01,
-1.52304e-01,
-1.27187e-01,
-2.90696e-01,
-2.14367e-02,
-2.87074e-01,
-2.23953e-02,
-1.09006e-01,
1.36114e-01,
3.45908e-02,
6.30617e-02,
-5.12190e-02,
-2.23947e-01,
-1.66553e-01,
2.37503e+00,
1.36363e+00,
-3.63820e-01,
-9.72359e-02,
8.13959e-02,
2.13596e+00,
6.46106e-02,
-1.35171e-02,
7.70226e-02,
1.55142e-01,
-4.22548e-01,
-3.44856e-02,
3.54422e-01,
2.23033e-01,
4.32303e-01,
1.41935e-02,
4.38964e-02,
6.49255e-02,
1.29016e-01,
-1.72133e-02,
1.75024e+00,
-1.83412e-01,
-4.90375e-02,
9.73139e-01,
2.81266e-01,
1.17916e-01,
1.65222e-01,
1.82498e+00,
3.88983e-02,
1.36013e-01,
6.37593e-02,
-2.82861e-02,
-7.38274e-02,
1.02042e-03,
-1.69682e+00,
2.28223e-01,
3.29027e-01,
-1.59577e-01,
-1.27495e+00,
-1.39375e-01,
1.33115e-01,
-1.43239e-01,
2.07032e-01,
-3.82709e-03,
6.35383e-03,
7.41845e-01,
1.06573e+00,
1.55465e-01,
2.91564e-01,
1.31073e-01,
8.16084e-02,
-1.06937e+00,
-1.33817e-01,
3.63277e-01,
5.58392e-02,
8.71965e-02,
8.61307e-01,
-1.82142e-01,
2.03961e+00,
3.07726e-01,
-1.36003e+00,
2.19273e-01,
7.74202e-03,
-6.90366e-02,
3.08226e-01,
2.67631e-01,
-5.47874e-02,
-3.71438e-01,
-2.24079e-01,
-1.80398e-01,
-8.74167e-02,
-6.68504e-01,
1.72017e-01,
-1.20818e-01,
-3.43697e-01,
-1.02057e-01,
3.90610e-01,
-2.19334e-01,
2.36662e-01,
2.38172e-01,
-2.35327e-02,
3.70578e-02,
1.97526e-01,
-6.29815e-02,
-1.33930e-01,
5.59844e-01,
-7.02948e-02,
-7.99931e-01,
-1.34170e+00,
1.80908e-01,
-2.18837e-01,
-3.92727e-02,
-6.33949e-01,
1.03105e-01,
1.35882e-01,
-3.75717e-01,
1.49149e+00,
7.40435e-02,
1.00385e+00,
-3.45570e-01,
1.05456e+00,
1.19115e-01,
-9.30135e-02,
1.27983e+00,
1.31410e-01,
1.40624e+00,
5.04879e-01,
-1.00526e+00,
-3.81697e-01,
3.12953e-01,
1.76358e-01,
1.37606e-02,
-2.41041e-01,
7.59399e-01,
-8.32178e-02,7.94546e-02,-9.88939e-02,-8.64443e-02,4.30648e-02,1.61222e-01,-9.85373e-02,-7.41835e-02,-6.29356e-02,-1.04795e-01,1.72137e-01,-1.00987e-02,-4.47160e-02,4.52503e-02,-4.87207e-03,1.80586e-01,-1.23244e-01,1.23141e-01,-9.78853e-02,-8.02532e-01,-7.41215e-02,1.39880e-01,-1.91369e-01,-3.29856e-01,-1.50811e+00,1.20835e-01,-6.81335e-02,-3.67714e-02,-3.26795e-02,1.27218e-02,6.06749e-02,-7.93970e-02,-1.31364e-01,-9.69641e-02,-4.57871e-02,-1.09012e-01,2.91487e-04,2.40111e-01,4.02497e-02,1.25563e-01,1.00686e-01,-8.03254e-02,-8.58116e-02,-6.15310e-02,8.85567e-02,-2.47332e-01,2.30892e-01,1.09748e-01,5.11200e-02,-2.64090e-01,-3.82629e-02,5.19975e-02,-9.36881e-02,1.12901e-01,-3.88550e-02,-1.00207e-01,4.31968e-02,-3.02967e-02,-7.21166e-02,7.24752e-03,-7.63972e-02,8.31794e-02,7.70172e-02,1.62825e-01,-1.24410e-01,8.10546e-02,1.49729e-01,-9.19720e-01,-3.25836e-02,-4.81134e-02,-1.25729e-01,-5.97149e-02,-1.18216e-01,-1.99568e-02,-7.73891e-02,4.18866e-02,1.12695e-01,-4.41200e-02,3.20025e-02,6.14517e-02,7.48126e-02,5.16154e-02,1.00795e-01,3.03357e-03,5.80188e-02,-8.37821e-02,-2.91380e-01,-4.29528e-01,3.20956e-02,-2.19785e-02,1.65972e-03,7.87144e-01,7.88669e-02,-3.57714e-02,-5.41270e-02,-2.04242e-02,1.93754e-02,-8.41172e-02,7.77178e-02,-8.39494e-02,-8.93950e-02,-1.49958e-01,2.65737e-02,-2.01391e-01,-8.17774e-02,5.63782e-02,6.63429e-01,4.65054e-02,-2.02952e-02,2.43065e-02,5.43236e-03,-2.13836e-03,4.48707e-02,9.43702e-01,-2.15114e-02,1.57776e-01,2.65773e-01,2.80507e-02,1.22150e-02,4.02056e-02,9.48304e-01,7.68093e-02,-1.80412e-02,-4.13083e-02,4.31463e-01,-1.40384e-01,-5.94871e-02,1.03876e-01,1.16184e-01,1.63831e-02,-1.22619e-01,-1.41306e-01,-2.25706e-01,-3.66841e-02,-7.54221e-02,5.38862e-02,-3.51732e-03,1.05446e-02,1.57234e-01,4.82173e-03,2.79906e-02,7.98293e-02,-1.33781e-01,-9.42965e-02,-7.62623e-01,-6.49590e-02,-9.88849e-01,4.64642e-02,-3.64313e-02,6.95655e-02,-3.89990e-02,1.24252e-01,-2.78203e-02,4.21319e-02,-3.33696e-02,-8.30293e-02,4.55832e-02,1.63461e-02,3.62833e-02,8.94746e-02,1.60045e-01,-1.47515e-01,-5.47939e-03,9.43738e-02,-2.19110e-01,-5.59141e-02,1.61181e-01,-6.56645e-02,-1.66440e-01,8.66999e-02,3.91894e-02,-2.84624e-02,8.58718e-02,4.35645e-02,9.62231e-02,6.66965e-02,4.49895e-02,6.53109e-02,1.37541e-01,-2.18317e-02,1.13381e-02,1.06249e-01,8.59210e-01,-8.74739e-02,-6.33604e-02,5.09608e-02,3.28944e-01,3.62715e-01,-1.75856e-02,-2.53862e-01,-1.34408e-01,-2.01983e-01,-1.50341e-01,3.92263e-02,6.28870e-02,2.31481e-01,-8.18074e-02,1.59887e-01,8.04867e-03,-8.78849e-02,
6.87544e-02,6.94572e-01,-1.01970e+00,-1.38741e-02,5.58533e-03,1.00772e-02,-3.75206e-02,-9.61352e-02,-6.24018e-02,-8.07806e-02,-5.86703e-02,8.01946e-02,4.18229e-02,3.64262e-02,7.76757e-02,2.28414e-01,8.11029e-02,-1.01371e-01,2.18050e-01,-1.54830e+00,-4.98326e-03,-2.69860e-02,-1.67296e-01,-1.62659e-01,6.92810e-01,-1.06099e+00,2.19273e-02,-4.99145e-02,8.43192e-02,-1.01986e-01,-5.03778e-02,2.31503e-02,1.28548e-01,2.38499e-02,-1.14618e-02,-4.14139e-02,5.50374e-02,-8.50372e-02,4.05139e-03,3.57412e-03,7.49137e-02,3.63541e-02,4.28807e-02,-1.98850e-01,8.91999e-03,-1.97616e-01,1.42293e-02,-4.58574e-03,2.16262e-02,-2.85288e-01,5.05751e-03,-1.14394e-01,6.69288e-03,3.96377e-02,-5.08658e-02,-2.70862e-02,-4.34825e-02,-7.38132e-02,-6.25645e-02,2.54804e-02,5.38086e-03,8.28955e-03,-8.18007e-02,-2.53817e-03,-1.82345e-02,3.77908e-02,-2.77207e-03,-6.58346e-01,5.74297e-02,-5.22993e-02,-7.85300e-02,-4.52734e-02,2.51341e-02,-3.05701e-02,-1.26680e-01,-6.67053e-02,4.15605e-02,-3.80032e-02,2.06339e-03,7.47126e-02,-5.18645e-01,1.27947e-03,8.35757e-02,5.32976e-02,3.52345e-02,-7.18843e-03,-1.39205e+00,-2.09981e-01,-6.15749e-02,-6.37579e-02,6.20124e-02,9.59955e-01,-5.01834e-02,-3.34689e-02,-1.67550e-01,4.90902e-02,-1.53954e-02,-8.16346e-02,7.91566e-02,-6.16521e-02,4.65199e-02,6.37239e-01,-6.85059e-04,-2.15565e-01,5.05399e-03,-2.11740e-02,5.96926e-01,-5.24545e-03,-9.60389e-02,4.48135e-01,2.72372e-02,-4.25176e-02,-7.74735e-02,-8.82608e-01,1.20200e-01,6.48467e-02,2.92981e-01,6.55989e-02,3.59937e-02,1.23925e-01,-8.77622e-02,1.93419e-02,5.97193e-02,4.03658e-02,3.49370e-01,-3.88448e-03,8.20318e-02,4.91772e-02,3.52786e-01,9.28515e-02,-1.64287e-02,-2.45771e-03,-1.32440e-01,5.55608e-02,9.69072e-02,1.60286e-01,9.34201e-02,-1.09189e-01,1.14833e-01,-3.79832e-02,8.13686e-02,8.57856e-02,-2.79660e-02,-1.10360e-01,7.57568e-01,2.88942e-02,2.51218e-01,9.04826e-02,-1.98471e-02,-1.35249e-03,1.06763e-01,1.93543e-01,9.12899e-02,-5.40472e-02,4.34884e-02,-1.09234e-01,-1.40243e-02,1.56350e-02,4.24366e-02,-1.86207e-01,3.08798e-02,1.94553e-03,-1.01676e-01,9.26937e-03,-1.79597e-01,2.97775e-02,6.39107e-02,-1.45180e-02,9.00171e-03,-2.66749e-03,-1.75244e-01,8.55376e-02,-1.41722e-02,-5.71483e-02,-3.28989e-02,1.67076e-01,-1.51272e-02,-5.32353e-02,4.52970e-02,8.63228e-02,8.41051e-02,-5.92298e-02,9.05955e-02,6.42507e-02,-3.46544e-02,-1.49108e-02,3.75596e-01,-1.80845e-01,-5.43266e-02,-2.15894e-01,1.07220e-01,2.49795e-01,2.99214e-02,-9.18856e-02,-4.04675e-02,-9.78602e-02,-5.88328e-02,8.15339e-02,-4.40010e-02,5.05117e-01,
1.03690e-01,-7.46418e-03,1.50037e-02,5.23046e-03,-1.67606e-02,-1.09995e-01,-5.87589e-02,2.90431e-03,8.82463e-02,-1.21430e-02,-6.97204e-02,3.29288e-02,5.73268e-02,-5.65983e-02,-5.40890e-03,2.02880e-03,1.19450e-02,-2.13824e-02,-1.62938e-02,-7.61067e-04,-4.00667e-03,2.10965e-02,3.31284e-02,-4.38859e-03,1.47221e-02,3.20537e-03,-3.37404e-03,1.62085e-01,-8.65901e-04,-6.77870e-02,-1.13635e-01,1.43915e-02,-1.28509e-03,-1.36703e-02,-6.52766e-02,1.39292e-01,-8.45140e-02,5.46659e-03,-9.45558e-02,3.30230e-03,3.15525e-02,-2.47036e-03,2.79135e-02,2.65681e-02,-1.26066e-02,-6.22128e-02,1.34865e-02,7.76346e-03,1.96478e-04,3.51003e-02,1.46467e-02,2.58254e-02,-6.20311e-03,-1.84549e-03,-5.35698e-03,-1.65067e-02,-3.95074e-02,7.86922e-02,5.36759e-03,-1.32228e-03,7.12827e-02,1.49986e-02,-8.86292e-03,1.89531e-02,3.36360e-02,-8.85217e-03,-2.98707e-03,3.56200e-03,-1.35248e-01,1.19503e-01,4.18740e-02,-1.30171e-01,-1.79526e-02,-1.07209e-01,3.37906e-02,5.94099e-03,4.60474e-02,-3.21086e-02,-6.89056e-02,1.25129e-01,-3.12942e-05,-3.91345e-02,4.70289e-02,4.51310e-02,1.25132e-01,-1.31747e-02,-1.05809e-02,6.35232e-03,-6.71932e-02,-6.77015e-02,-3.87137e-03,1.30849e-03,-7.10032e-02,1.98347e-02,-5.48458e-03,8.04373e-02,-2.52471e-02,-3.35457e-02,-2.36673e-03,1.12860e-02,-5.91539e-02,6.18894e-03,-3.55666e-02,5.49263e-03,-1.50122e-01,-1.02934e-02,2.11427e-02,8.73221e-03,2.12243e-02,-1.17798e-02,1.33844e-01,-3.82085e-03,-2.45258e-02,-1.03760e-02,2.32257e-03,2.80346e-02,-5.09436e-02,-1.74093e-02,1.60968e-02,8.45407e-03,-5.04845e-03,1.13690e-01,-1.47347e-03,8.10668e-03,-1.65509e-03,-3.38953e-04,-3.38889e-02,1.14071e-02,2.09170e-03,-1.08206e-01,-1.40595e-02,-4.14453e-02,7.98022e-03,5.50659e-03,4.83692e-02,1.19386e-01,3.84236e-03,6.25381e-04,-8.81595e-02,1.16029e-02,-1.74842e-02,-1.40780e-01,1.91573e-03,4.74362e-02,-1.18554e-02,-3.98687e-03,-5.98020e-03,-2.53716e-02,-7.75826e-02,1.74167e-02,-1.94144e-02,-6.29126e-03,6.27250e-02,-2.14926e-02,2.57200e-03,3.27480e-02,1.08582e-01,2.99433e-02,-1.65489e-02,3.31359e-02,-7.69871e-03,-9.53551e-03,1.11486e-03,-4.78884e-03,1.76749e-03,6.57841e-03,-3.90433e-03,1.27660e-02,-2.41596e-02,3.85490e-05,-8.54509e-02,-5.02755e-04,-3.68609e-02,-4.28742e-03,6.61881e-03,8.69212e-03,-6.51943e-03,-1.30074e-03,-6.28435e-03,-2.50551e-02,3.41362e-03,6.42115e-02,4.11530e-05,4.27104e-03,7.56590e-03,3.72339e-02,-3.01231e-03,4.45885e-03,1.20399e-02,-9.40993e-03,6.99737e-02,1.61008e-03,4.93408e-02,-2.25676e-05,1.04041e-02,1.30980e-03,-1.07679e-02,2.36549e-03,-5.73124e-02,-3.49895e-03,
-3.94065e-02,5.74246e-03,1.56945e-02,-1.19780e-02,-9.58815e-03,-1.29488e-01,-1.02889e-02,-9.54950e-03,-6.00463e-02,4.13565e-03,-1.18728e-01,-1.74584e-01,-1.68016e-02,-3.34333e-02,9.51848e-03,8.81462e-03,-1.08519e-02,-3.78851e-03,-1.51802e-02,-7.14494e-03,-1.40649e-03,4.75989e-02,1.12086e-03,-1.47294e-02,-1.89011e-03,2.12503e-02,6.73686e-04,-1.07140e-01,4.71235e-02,2.78019e-02,-5.97787e-02,-2.34951e-04,-3.40765e-03,3.07787e-02,-7.26717e-03,9.13951e-02,4.45015e-02,-1.15253e-02,-2.70106e-02,3.80127e-03,-4.48336e-02,-1.06570e-02,1.13471e-02,-9.11449e-04,-6.56818e-03,-3.45265e-02,1.42672e-02,1.11120e-02,-5.63638e-03,-4.71992e-04,2.16956e-02,-1.98804e-02,1.71711e-02,-5.24325e-04,4.45324e-02,3.60248e-03,3.57016e-02,9.61633e-02,-3.19795e-02,1.56443e-02,2.47534e-01,3.32006e-02,5.50790e-03,-1.52169e-03,-4.59341e-02,-1.85591e-03,-2.62860e-03,1.08960e-02,9.47832e-02,-5.34795e-02,-2.20367e-02,1.30376e-02,1.20670e-03,1.11832e-01,-5.77899e-02,2.03147e-02,1.12231e-02,2.06168e-02,-2.28677e-01,8.35819e-02,2.06822e-02,1.10657e-01,2.53906e-02,-1.96105e-01,3.49161e-02,-2.35536e-02,2.37560e-03,8.43481e-03,-1.21185e-02,-4.96425e-02,-2.12518e-02,1.79272e-03,-1.20907e-01,2.03690e-02,6.78964e-03,-7.81410e-02,-1.79547e-02,-9.68728e-04,3.58290e-03,-1.33103e-02,-6.37111e-02,-9.69582e-03,1.09670e-01,-1.43501e-02,6.78976e-02,-1.29380e-01,-9.18246e-03,6.09706e-02,-4.87992e-02,-4.78087e-02,-2.17692e-02,-6.85269e-02,-1.94587e-02,-1.38968e-02,-4.97191e-03,2.44827e-03,-1.18882e-03,2.82219e-02,-2.68589e-02,-8.20054e-03,-2.92374e-03,2.15155e-02,-4.68781e-03,-1.18266e-02,-1.86786e-03,-7.44953e-03,4.80165e-02,9.51192e-03,-3.01732e-02,-1.26628e-01,2.14140e-04,-5.09003e-02,1.74030e-02,-9.84352e-03,1.19504e-02,1.13472e-01,-5.09042e-03,1.77622e-03,5.69863e-02,1.05751e-03,4.16542e-02,-1.05156e-01,-3.13306e-03,2.32344e-02,2.62940e-02,1.04730e-02,1.75995e-03,3.85420e-02,4.76542e-02,-7.30123e-02,9.38259e-03,1.87120e-02,1.17568e-01,1.25218e-02,1.55286e-02,2.49430e-02,-6.27381e-02,3.41040e-02,-3.42599e-02,-4.28690e-02,7.41172e-03,2.09140e-02,2.34507e-03,-1.12411e-02,3.12558e-03,-5.58777e-04,-5.63569e-02,1.17818e-01,-7.72583e-02,-5.78941e-03,1.07698e-01,1.67782e-02,1.89845e-01,4.55515e-03,3.72789e-03,-5.44203e-03,-7.30899e-03,-1.39550e-02,-4.35803e-04,2.51012e-02,1.30658e-02,8.04254e-02,1.90832e-03,5.48739e-04,1.03074e-03,3.76542e-03,-1.16901e-03,5.67535e-03,-1.35319e-03,-2.53528e-04,-8.58068e-02,-1.29624e-02,9.85883e-02,1.49505e-03,-1.92417e-02,-5.65013e-03,-1.15033e-02,2.58575e-02,-9.55086e-04,-1.79821e-02,
-3.23168e-01,
2.38780e-01,
-1.98374e-03,
-5.11051e-03,
