// Neural Network File Format by Kyle Julian, Stanford 2016
4,6,4,50,
6,50,50,50,4,
0,
0
0
0
0
1.05617e-01,-3.83407e-02,-3.80157e-01,-2.69201e-01,-1.22340e-01,2.30858e-03,
3.19682e-02,-3.54860e-02,2.04864e-01,1.41805e-03,4.73306e-01,-4.46733e-01,
1.93121e-01,3.52477e-02,6.39665e-01,3.47571e-01,1.15616e-01,8.92163e-02,
-3.41686e-02,-1.87500e-01,-3.69512e-01,5.18312e-01,7.08375e-02,2.08514e-01,
-1.57979e-01,1.41314e-02,-1.50331e-01,1.18311e-01,3.94697e-02,1.46325e-01,
-1.34044e-01,-7.44196e-02,3.94289e-02,-6.62500e-02,-1.91835e-01,-3.80385e-02,
9.97323e-02,1.36700e-01,6.80881e-01,3.51383e-01,1.10138e-02,-3.25762e-03,
-2.98750e-01,-2.58384e-01,7.66074e-01,-4.59244e-01,-8.67765e-04,-1.14622e-01,
-1.64071e-02,2.94959e-01,-6.44676e-01,-3.31038e-01,3.51618e-01,3.06927e-01,
1.86462e-01,2.51497e-01,-9.92073e-02,-4.72447e-01,4.44475e-01,-4.57254e-01,
3.28086e-01,2.33890e-01,-5.74234e-01,9.00246e-01,-3.79157e-01,-1.09315e-01,
-1.11720e-01,1.89443e-01,-6.22644e-02,3.25982e-01,1.58725e-01,-2.24847e-01,
4.51811e-01,2.50797e-01,-7.25532e-01,-4.62541e-01,1.34788e-02,4.41439e-02,
2.53659e-01,-2.71770e-01,-4.97824e-01,1.98228e-02,-2.96387e-01,9.93089e-02,
-2.86214e-01,5.23359e-02,4.50198e-01,3.97079e-02,-2.29352e-02,5.66475e-01,
2.90367e-01,4.24440e-02,2.87021e-01,3.60395e-01,3.77337e-01,4.50124e-01,
2.88224e-01,-2.70184e-01,-2.34589e-01,4.63243e-01,-3.05574e-01,9.39722e-02,
-1.83520e-01,1.12923e-01,-1.70813e-01,1.18596e+00,-4.67826e-02,7.10498e-02,
-3.58999e-02,-3.14516e-01,-2.47576e-01,8.36285e-01,2.44406e-01,3.79729e-01,
2.33194e-02,-3.01296e-02,3.98262e-01,1.02794e+00,2.23713e-02,4.31118e-02,
-2.53471e-01,2.26304e-01,2.31041e-01,-1.74633e-01,2.39014e-01,-9.60908e-02,
1.03403e-02,8.12397e-02,-3.02925e-01,7.92969e-01,-3.55151e-03,1.43380e-02,
-1.67360e-01,4.24136e-02,5.91621e-01,3.91250e-01,1.94050e-01,-1.81976e-02,
1.12428e-01,-2.96501e-02,3.81160e-01,4.59944e-01,5.66913e-03,-3.06696e-02,
-5.82026e-02,8.16913e-02,1.01734e-02,-9.66390e-02,-1.63845e-01,1.01426e-01,
1.83756e-01,-1.15562e-01,-4.75320e-01,6.55211e-01,7.67227e-02,1.52154e-01,
7.18510e-02,-1.21346e-01,-4.43150e-02,1.05600e-01,2.18959e-01,-1.44988e-01,
-3.20640e-02,3.55495e-02,-2.08470e-01,-2.89983e-03,-4.75738e-01,4.47777e-01,
3.05237e-01,-2.28007e-01,9.16549e-03,1.83509e-02,-2.55008e-01,7.94726e-02,
-1.67531e-01,-1.99759e-01,-6.12036e-01,-9.96582e-01,-3.42489e-02,-3.74207e-02,
-3.13330e-01,-2.21663e-01,5.42804e-01,-8.63140e-01,3.62529e-01,1.06183e-01,
-6.46681e-02,-6.97911e-02,-5.44740e-01,-1.27255e+00,-4.08700e-03,-7.85352e-02,
-1.42172e-01,1.72638e-01,5.78359e-02,2.94939e-01,1.47244e-01,-3.11532e-02,
2.40999e-01,-4.35700e-02,-3.81254e-01,-3.47674e-02,1.92128e-02,-4.74902e-01,
2.78346e-01,1.72050e-01,-4.73145e-01,-8.34018e-01,-9.45180e-02,4.24989e-02,
5.82766e-03,-2.54633e-01,5.33189e-01,2.83533e-01,-2.97008e-01,-2.61398e-01,
2.87644e-01,2.29881e-01,-2.23754e-02,-8.93735e-01,-1.22330e-01,2.94004e-01,
2.82504e-02,2.40026e-01,1.97854e-01,-6.37420e-01,-1.84228e-01,-2.89624e-01,
-1.30553e-01,8.06271e-02,3.39288e-01,-4.64936e-01,-5.17450e-02,-1.09577e-01,
3.91922e-04,-1.00798e-03,4.23671e-01,9.64494e-01,4.28445e-02,5.00820e-02,
-2.49712e-01,-3.64876e-02,-2.48946e-01,-3.11277e-01,-3.25377e-01,-3.87447e-01,
-3.57554e-01,-2.76925e-01,-5.79147e-02,1.10105e+00,1.48137e-01,-3.53394e-01,
5.42425e-03,-4.22065e-03,-4.27581e-01,1.01686e+00,-4.43496e-02,5.17462e-02,
2.09373e-03,-7.27559e-04,-4.27112e-01,8.84954e-01,-4.06960e-02,4.98804e-02,
-2.03334e-01,-2.74745e-01,1.11009e-01,5.18039e-01,-4.85706e-01,5.02180e-01,
1.15430e-01,-3.30973e-02,7.47648e-01,-1.00262e+00,4.69864e-02,-2.30561e-02,
1.92061e-02,-2.34744e-01,5.23239e-01,2.62989e-01,-2.87370e-01,-2.51214e-01,
-2.76393e-01,-2.31841e-01,1.41989e-01,8.64639e-01,1.25250e-01,-2.80967e-01,
-1.10354e-01,-2.55770e-02,2.36384e-01,8.65811e-01,4.88165e-02,3.48868e-02,
-2.49156e-01,-7.32096e-02,-7.79826e-01,-2.42010e-01,-1.44442e-01,-1.10300e-01,
3.09029e-01,
6.25780e-01,
1.48744e+00,
-4.17482e-01,
1.12136e+00,
2.39884e+00,
5.42165e-01,
-4.02633e-01,
-1.40500e-01,
2.12669e-02,
-2.69064e-01,
-9.06184e-02,
-2.82200e-01,
6.03300e-01,
-8.04154e-03,
5.51038e-01,
-3.54418e-01,
-3.64143e-01,
-8.96956e-02,
-1.63826e-01,
-8.42194e-01,
-3.35490e-01,
-4.92099e-01,
1.15814e+00,
8.28306e-01,
-1.22069e+00,
-1.09947e+00,
-6.28738e-01,
6.87630e-01,
-1.07058e+00,
2.52255e-01,
-2.68869e-01,
1.13393e+00,
1.00460e-02,
7.83068e-01,
1.22909e-01,
1.89565e-01,
7.49774e-02,
8.57525e-01,
1.09127e+00,
-4.75289e-01,
-2.44648e-01,
5.66350e-01,
1.32055e+00,
-2.51353e-02,
-4.17203e-01,
1.16290e-01,
-1.90612e-01,
7.29409e-01,
-1.71891e+00,
2.05439e-01,1.16129e-01,-1.83637e-02,-1.18345e-01,-6.17959e-02,-2.87319e-02,-2.64698e-02,6.72126e-02,-1.80296e-01,1.40672e-01,1.48463e-01,-3.70205e-02,-5.01323e-02,-6.70803e-02,-8.93953e-02,-1.03370e-02,3.27987e-02,6.65891e-02,-1.57116e-02,-1.03189e-01,6.94919e-02,1.71925e-02,5.66076e-02,1.72460e-01,2.80159e-02,-5.97780e-02,5.21966e-02,-9.59720e-02,2.32367e-02,-2.75617e-02,7.57399e-02,-5.31341e-02,1.81681e-01,1.71517e-01,9.52152e-02,1.02715e-01,-1.66268e-01,2.70851e-01,1.06135e-01,4.17144e-02,1.50457e-01,-3.68520e-03,1.95117e-01,3.23949e-01,-2.93552e-02,4.43170e-02,1.18161e-01,1.47322e-01,-3.72995e-02,3.38029e-02,
-5.74958e-02,1.91242e-01,-1.71426e-01,6.02181e-02,7.68498e-02,-6.56535e-02,8.24428e-02,1.72919e-01,2.18305e-01,1.01887e-01,-6.87438e-02,1.90887e-01,2.57567e-02,1.26298e-01,1.11646e-01,3.97551e-02,-1.58114e-02,1.53844e-01,7.28781e-02,4.47483e-01,4.36032e-02,1.48929e-01,1.90422e-01,1.21784e-01,6.03991e-02,5.33539e-02,-4.65227e-02,2.43123e-02,7.67099e-02,1.88237e-02,1.48278e-01,1.21999e-01,-2.37870e-02,1.20105e-01,1.73412e-01,2.00254e-02,1.09151e-01,8.55763e-02,7.81347e-02,8.37140e-02,4.29860e-02,2.17540e-02,-2.58941e-02,-2.23792e-01,-1.28501e-01,5.71977e-02,-1.35022e-01,1.10512e-01,1.32434e-01,8.48415e-02,
-2.75558e-02,2.75690e-01,5.87036e-02,-9.93437e-02,-1.18026e-01,1.33092e-01,1.61370e-01,-1.39543e-02,7.14092e-02,9.70595e-02,7.44222e-02,-2.64530e-03,3.88203e-02,2.21302e-02,1.79045e-01,1.19027e-01,3.85895e-03,2.23348e-01,-6.85001e-02,8.47647e-02,2.37976e-01,-1.34299e-02,2.23946e-01,-2.03924e-02,1.30577e-01,-3.28297e-02,5.94246e-02,-4.70706e-02,1.59337e-01,5.72357e-02,-5.90350e-02,-1.13753e-01,-4.26048e-02,9.66197e-02,8.51567e-02,-6.81460e-02,-7.49279e-02,-1.42001e-01,1.75167e-01,3.56700e-01,-7.34980e-02,4.90438e-02,1.78864e-01,-2.43810e-02,-7.79234e-02,-1.60038e-01,8.13965e-02,1.06722e-01,-2.19571e-02,-1.79100e-01,
-3.16544e-02,2.14009e-01,3.83770e-02,-1.26795e-01,1.16364e-03,3.92126e-02,6.20371e-02,1.48601e-01,-2.45939e-02,5.90544e-02,-6.33463e-02,-6.97467e-02,9.10274e-02,-9.72377e-02,-2.44527e-02,-4.26611e-02,-6.78705e-04,1.04870e-01,-1.21717e-01,-1.48427e-01,4.97621e-02,9.17722e-02,1.08133e-01,7.84296e-02,-4.47397e-02,-1.11045e-01,-2.45671e-02,-1.79578e-01,1.37431e-01,-1.47636e-02,2.22850e-01,-2.36503e-02,1.40741e-03,8.45954e-02,8.31622e-02,9.30980e-02,-4.48669e-03,1.44240e-01,8.23471e-02,-2.62885e-01,4.61776e-02,5.73783e-02,1.12626e-01,3.33142e-01,6.86203e-02,4.01254e-01,4.80999e-03,1.22253e-01,-2.35083e-02,-4.38669e-02,
7.27683e-02,1.66351e-01,2.17116e-01,-1.62359e-02,1.58848e-04,2.36683e-02,1.45818e-01,-1.43109e-02,1.99388e-01,1.45743e-01,-3.43578e-02,1.43205e-02,2.43282e-02,-7.01343e-02,1.12734e-01,1.14594e-01,2.66065e-02,1.31181e-02,-1.07095e-02,-3.02011e-01,1.16319e-01,-2.28727e-02,5.90505e-02,-2.98406e-02,1.87060e-01,1.01063e-01,3.30754e-02,-1.65581e-01,7.11657e-02,6.61671e-02,1.34398e-01,1.25712e-01,-3.01642e-03,3.24137e-02,-8.53277e-02,-1.50587e-02,3.19318e-03,-4.07327e-02,1.45570e-01,4.72143e-02,-2.24643e-01,3.78407e-02,1.23197e-01,1.92242e-02,1.27383e-02,1.86376e-01,-1.15552e-01,7.79691e-02,3.85048e-02,-1.29594e-01,
8.55479e-02,7.03171e-02,8.74942e-02,9.87626e-02,-5.44144e-02,5.71746e-02,1.78837e-01,-2.83874e-02,1.15016e-01,1.01708e-01,2.64837e-01,1.35007e-01,-8.64146e-03,9.54563e-03,3.26723e-02,-9.68797e-03,-3.25742e-02,-9.58595e-02,-2.05062e-02,5.89384e-02,-2.50005e-01,8.41493e-02,-8.99533e-03,-1.00953e-02,-3.64708e-02,4.39899e-03,9.15100e-02,-6.40311e-02,1.01212e-01,6.12293e-02,-1.25274e-01,1.83335e-01,9.22376e-02,5.32330e-02,-3.38443e-02,-6.66284e-02,2.66923e-02,1.62924e-02,6.73041e-02,3.44870e-01,2.39152e-01,4.07037e-02,-1.59089e-01,-3.94026e-01,1.30416e-01,-1.10151e-01,-8.17253e-02,1.39801e-01,1.38403e-01,8.91703e-02,
3.43670e-02,-9.20101e-02,1.28990e-01,-9.09354e-02,9.68995e-02,5.78798e-02,1.07478e-01,1.28691e-01,6.61127e-02,1.02132e-01,-4.59872e-02,2.92859e-02,-5.35890e-02,8.46421e-02,2.07010e-01,7.55946e-02,-9.21967e-02,-6.71717e-02,5.72916e-02,-1.77929e-01,3.74065e-02,1.30482e-01,3.59952e-02,-3.08739e-03,-2.55281e-02,-1.86444e-02,8.17584e-02,9.20490e-02,4.13835e-02,-1.01596e-01,-7.15615e-03,-7.12638e-03,-1.87219e-02,5.72453e-02,-4.98562e-02,-2.41948e-02,5.92961e-02,2.72045e-03,1.85214e-01,-4.63440e-02,-1.35258e-01,1.10006e-01,3.42051e-01,1.19831e-01,6.47364e-02,-2.29141e-01,6.80906e-02,-6.57738e-02,2.04963e-02,8.69987e-02,
2.79055e-02,7.64461e-02,-1.03207e-01,-6.53343e-02,9.46387e-02,-4.74960e-02,-1.13129e-02,4.32578e-02,1.26640e-01,-5.55934e-02,-2.26315e-01,5.07714e-02,3.82846e-02,-8.18749e-03,1.48089e-02,5.58991e-02,-5.90869e-02,1.16575e-01,5.43909e-02,2.26893e-01,-4.68663e-02,-1.19780e-01,-6.21318e-02,1.84336e-01,1.38729e-01,-8.98432e-02,1.20539e-01,1.22206e-02,5.49731e-02,-1.21193e-01,1.52747e-01,-5.04628e-02,1.59094e-01,-1.67753e-01,1.39661e-01,-2.53839e-02,1.17144e-01,3.33667e-03,-1.35591e-01,-2.13907e-01,1.56403e-02,-2.82817e-03,2.07168e-01,3.35834e-01,-5.98436e-02,3.20685e-01,6.61659e-02,3.26951e-02,-1.61895e-01,1.13601e-01,
-9.96728e-03,-9.60343e-02,1.72898e-01,-5.59904e-02,6.66277e-02,7.61411e-02,6.11025e-02,8.94743e-02,-7.20124e-02,6.25625e-02,8.91697e-02,1.20876e-01,-6.44076e-02,2.80985e-02,1.00538e-01,3.17227e-02,2.36089e-02,9.19202e-02,1.04811e-01,-1.01605e-02,-1.25659e-01,1.54165e-01,1.35422e-02,1.70377e-01,1.32081e-01,-1.24245e-01,3.84593e-02,2.29753e-01,6.13348e-02,2.02206e-01,4.25414e-02,1.69914e-01,5.54273e-02,-1.20115e-01,-5.63118e-02,8.43447e-02,2.40999e-02,-1.16202e-01,1.20560e-01,-4.05133e-02,-1.76309e-01,-8.01953e-02,7.16525e-02,-6.30213e-02,2.60936e-03,1.21960e-01,-9.51709e-02,-1.71409e-01,9.11581e-03,1.40921e-01,
1.08644e-01,9.79492e-02,1.59197e-01,-1.26473e-02,1.17685e-01,1.13538e-01,2.91638e-02,4.69510e-02,-1.58268e-01,-1.12281e-01,-1.41324e-01,6.60373e-02,2.48630e-02,-2.65200e-02,4.31237e-02,-1.53660e-03,-8.05677e-02,-1.82149e-01,3.00410e-02,-4.85238e-01,8.98069e-02,-8.44995e-02,1.03852e-03,1.45905e-01,-3.88659e-02,-7.46547e-02,3.97706e-02,-7.64658e-02,-7.54949e-02,-1.05835e-01,4.30989e-02,1.11990e-02,1.75481e-01,3.98539e-02,-2.35946e-03,1.11514e-01,1.68609e-01,4.37932e-02,1.52391e-01,-5.16633e-01,-6.01561e-02,-9.03853e-02,1.66266e-01,6.10128e-01,5.84632e-02,1.71992e-01,9.99507e-02,-4.28968e-02,-3.26473e-01,-1.95559e-02,
-1.58499e-02,-2.44579e-01,-1.08622e-02,3.48217e-02,-2.40611e-01,-3.02236e-01,4.05365e-01,3.63217e-02,4.49458e-02,1.06765e-01,-1.79615e-01,-2.36465e-01,-2.47222e-02,3.75650e-02,5.76944e-02,-9.13176e-02,1.01378e-01,-9.86791e-01,-3.94835e-02,-2.94020e-01,4.27125e-01,-3.43456e-02,-1.82485e-01,-1.59904e-01,-2.02174e-01,-1.18817e-01,8.10310e-03,2.71706e-01,5.41642e-02,1.77737e-02,1.75454e-01,3.13728e-02,-5.09689e-01,3.74230e-02,1.53436e-02,-1.19449e-01,-1.22553e-01,2.43595e-02,1.56572e-01,-1.01207e+00,1.43907e-01,-6.67662e-02,-5.07448e-01,-5.39536e-01,-1.20670e-01,3.71365e-01,2.05011e-02,1.71582e-02,-1.46505e+00,1.99373e-01,
-6.06160e-02,-1.50273e-01,-1.55467e-01,4.11071e-03,3.55540e-02,-9.54713e-02,-3.18475e-02,8.33522e-03,1.32647e-01,-9.90685e-02,2.75891e-01,5.20235e-02,1.89829e-02,-2.36112e-02,-1.87940e-01,-1.76075e-02,1.11423e-01,2.67877e-01,1.00951e-01,2.74012e-02,-1.22078e-01,2.36451e-01,2.84303e-02,-1.09475e-03,-1.56939e-01,1.19345e-01,1.50037e-01,1.35549e-01,-1.03167e-01,-5.19157e-03,-2.68359e-01,-1.52252e-01,2.89315e-02,1.43151e-01,-1.68563e-01,-1.39574e-01,-7.04583e-02,-1.67978e-01,-2.71828e-01,1.64182e-01,-2.22480e-02,1.41360e-01,4.30612e-01,2.02602e-01,8.65383e-02,-4.47500e-01,-3.14527e-02,-2.00347e-02,1.57783e-01,1.35500e-01,
1.73683e-01,-1.13743e-01,4.83194e-02,1.04134e-01,-5.57143e-03,-7.75852e-02,7.54392e-04,-6.38065e-02,-2.19423e-02,7.23426e-02,-1.07320e-01,1.94183e-02,1.80736e-01,-1.02441e-01,2.25735e-01,1.72476e-02,1.90651e-02,-6.48559e-02,8.78012e-02,1.16626e-01,1.16665e-01,1.53516e-01,-3.71255e-02,1.17231e-01,1.33830e-01,3.01696e-02,1.20974e-01,2.51294e-01,9.24100e-02,9.52573e-02,1.01647e-01,5.80003e-02,1.21295e-01,-1.07756e-01,7.03200e-02,6.20139e-02,3.24952e-01,-1.29316e-01,1.02339e-01,1.69697e-01,7.24748e-03,-1.32700e-01,1.22433e-01,-8.58020e-02,8.82294e-02,6.71215e-02,5.24387e-02,2.90473e-02,3.83130e-02,1.64428e-01,
1.67655e-01,-5.96121e-02,-3.24316e-02,-1.12750e-01,8.98611e-02,3.11813e-01,1.42799e-01,6.99399e-02,-3.86561e-02,-1.96780e-01,1.64143e-01,-7.75305e-02,1.61083e-02,1.48826e-01,-7.35859e-02,-4.41821e-02,-2.04493e-02,-9.73630e-02,-8.58979e-02,-3.43126e-01,-1.34623e-01,-2.26589e-01,-1.02253e-01,1.88695e-01,2.07637e-01,-2.35816e-01,-3.01630e-02,2.37559e-01,2.35221e-02,-1.03821e-02,-1.24640e-01,-1.40946e-01,9.87057e-02,1.34271e-01,1.08616e-01,-4.82848e-02,7.32646e-02,1.68663e-02,5.05352e-02,1.19207e-01,2.41103e-01,-2.56966e-02,2.21865e-01,3.87621e-01,1.65164e-01,8.97431e-02,4.45680e-02,4.73562e-02,4.81459e-02,9.69672e-02,
1.63995e-01,-1.55403e-01,1.83256e-01,-6.80773e-02,-1.49478e-02,-1.52423e-02,5.69928e-02,1.38845e-01,2.20597e-01,-1.06975e-01,2.11701e-02,-2.14221e-02,6.50781e-02,4.71922e-02,1.26217e-01,3.50414e-02,1.41842e-01,1.43964e-01,1.31596e-02,-1.85719e-01,1.60224e-01,1.47361e-01,1.49722e-01,3.34334e-02,6.20888e-02,5.11140e-02,6.51965e-03,7.80685e-02,-7.00282e-02,5.66678e-02,6.87436e-02,1.80452e-01,-5.17453e-02,-5.16229e-02,5.13485e-02,-5.48725e-02,1.36094e-01,-3.98628e-02,-3.37093e-02,-7.08091e-02,-1.40546e-01,8.80257e-02,-3.52988e-02,1.95640e-01,1.60236e-01,-1.05634e-01,5.66514e-02,-1.13490e-01,8.87500e-02,1.07563e-02,
-2.31860e-01,-2.22124e-03,-8.28781e-01,1.25003e-01,1.49689e-01,-1.00674e-01,-3.72984e-02,-7.15316e-02,-1.10671e-01,-2.04517e-01,-4.40421e-01,-2.98055e-01,4.71468e-01,-9.64416e-03,-3.49913e-02,5.88953e-02,-8.05534e-02,-4.94351e-01,1.92745e-02,3.40616e-01,3.64426e-01,-2.71978e-01,2.16705e-02,-1.42703e-01,-1.57463e-01,1.04369e-01,-5.02000e-02,-1.12212e-01,-1.22449e-01,6.50943e-02,-1.95250e-01,-4.84819e-02,-1.94734e-01,7.75683e-02,1.51370e-01,8.66655e-02,-2.38260e-01,6.95797e-02,-1.25027e-01,-5.26890e-01,-1.10829e-01,9.36002e-02,4.82858e-01,2.27001e-01,1.20788e-01,-2.94153e-01,5.31608e-02,3.33076e-02,-1.58996e+00,1.99717e-01,
-1.96640e-01,9.06200e-02,-1.35655e-01,-1.18447e-01,-6.48867e-02,-1.50867e-01,2.32112e-01,-1.25234e-02,2.18665e-02,5.23223e-03,-2.38404e-02,1.19215e-01,1.01458e-01,1.26174e-01,1.44454e-01,3.67771e-02,1.21435e-01,3.38223e-01,7.76676e-02,3.57752e-01,1.13284e-01,8.54641e-02,2.25804e-01,-1.35698e-01,-3.09619e-02,2.50539e-02,1.24139e-01,2.75763e-02,7.61992e-02,-9.06743e-02,2.71275e-02,-8.14300e-02,9.81388e-02,-1.36950e-02,-1.25292e-01,3.59467e-02,-2.15887e-02,7.80590e-02,-1.28345e-03,-3.41248e-01,-9.68952e-03,-8.92108e-02,-1.17147e-01,-1.65466e-01,-3.18631e-02,-5.93625e-02,-1.19034e-02,1.11087e-01,1.58981e-01,-4.64039e-02,
-8.21832e-02,7.78834e-02,2.53237e-01,-1.04344e-02,1.09910e-01,2.03870e-02,1.61480e-01,7.04802e-02,-1.06192e-01,1.69105e-02,-1.10434e-02,-1.13982e-01,4.92355e-02,1.13185e-01,6.49769e-02,1.53227e-01,-7.72897e-02,5.47474e-02,3.80206e-02,3.78013e-01,-8.81393e-02,7.84217e-02,4.41257e-02,1.22918e-01,2.98612e-02,-2.73241e-02,-1.10421e-01,-6.67004e-02,-8.91235e-02,-6.36844e-02,-1.35053e-02,4.67172e-02,9.84706e-02,1.92971e-02,1.02232e-01,1.41180e-01,-1.56620e-01,-3.03549e-02,-5.52062e-02,2.63149e-01,-1.07319e-02,1.93262e-01,-5.21879e-03,1.11419e-02,-8.18241e-02,1.04852e-01,1.09190e-01,8.87160e-02,1.68567e-01,-6.42116e-02,
-8.88873e-03,1.63539e-02,1.05848e-01,6.25487e-02,-5.53927e-02,-2.89333e-01,1.99454e-01,8.76523e-02,-1.63919e-02,-5.77363e-03,2.05610e-01,8.16854e-02,3.51198e-03,-3.32763e-02,1.19430e-01,1.80045e-01,-5.12719e-02,1.61910e-01,1.01605e-01,4.85592e-01,7.94597e-02,4.83225e-02,2.01583e-01,7.85987e-02,-6.63551e-02,2.11554e-01,1.07037e-01,1.11257e-01,-1.13528e-01,-7.38144e-02,-1.61136e-01,4.61438e-03,7.59962e-02,-2.75846e-02,-3.40169e-01,-9.65200e-02,5.87248e-03,-3.98319e-02,-9.43711e-02,2.25889e-01,-7.12406e-03,1.49913e-01,-1.01210e-01,-1.82792e-02,8.51315e-02,-8.00491e-02,8.20487e-02,1.53828e-01,1.03499e-01,-5.13605e-02,
-7.39135e-02,1.79389e-01,1.93302e-01,-9.78647e-02,1.16050e-01,4.92238e-01,1.62809e-01,-4.52683e-02,4.06402e-02,9.37853e-02,-2.88496e-02,4.25205e-02,-1.37359e-02,9.48616e-02,1.24989e-01,2.02379e-01,-2.31871e-02,1.04871e-01,8.94672e-02,3.29642e-01,-2.66601e-02,-7.62745e-02,3.79335e-02,2.03011e-01,1.33823e-01,-3.57922e-02,-1.23507e-01,-6.78330e-02,3.11930e-02,-1.28587e-01,-4.92309e-04,-2.47228e-01,4.98945e-02,-4.59835e-02,5.47748e-02,-1.29313e-01,-1.06714e-01,-1.34318e-02,-7.35854e-02,2.57422e-02,-9.51947e-03,1.61105e-01,5.79908e-01,6.89330e-01,-3.17389e-02,-1.85521e-01,5.03933e-02,1.69430e-02,6.76797e-02,-6.33901e-02,
1.34806e-01,-2.93779e-02,1.35995e-01,3.67268e-02,7.40727e-03,5.14202e-03,3.10415e-02,1.96948e-02,4.29930e-02,1.68947e-02,-1.07733e-01,3.83830e-02,-2.94785e-02,1.19714e-01,7.74846e-02,-6.79985e-04,-1.17620e-01,-3.12597e-02,4.68496e-02,-1.18513e-02,4.42267e-02,-1.98835e-01,2.30491e-01,2.20808e-01,-5.14158e-02,1.04629e-01,-1.12167e-01,8.86935e-02,1.16115e-01,-2.48805e-02,8.96762e-02,1.89965e-01,-5.12205e-02,1.67387e-01,1.39296e-01,4.15703e-02,-3.19824e-02,1.84852e-02,6.32747e-02,-1.47232e-01,1.94324e-01,-5.52222e-02,-2.57347e-01,-2.09526e-01,-2.59711e-02,1.72390e-01,-1.31812e-01,7.69414e-02,-5.26204e-02,7.83573e-02,
-8.71655e-02,-3.37470e-02,1.07596e-01,-2.63295e-02,6.59982e-02,5.30070e-02,8.60540e-02,1.24331e-04,-1.06204e-01,-2.37900e-01,7.32852e-02,1.20418e-01,-7.88556e-02,6.90546e-02,-3.90859e-02,-6.92036e-02,-1.07462e-01,7.47262e-02,-4.29735e-02,2.71033e-01,-1.06196e-02,8.46774e-02,-4.33756e-02,-3.88429e-02,3.56525e-02,-8.77828e-02,-6.42890e-02,8.12082e-02,-3.31737e-02,3.01427e-02,-6.31592e-02,8.70555e-02,1.10483e-01,1.16022e-01,5.60618e-02,8.31619e-02,1.95197e-01,2.41500e-01,1.39059e-02,2.72251e-01,2.35013e-01,1.38692e-01,1.69990e-01,1.51373e-01,1.97537e-01,7.03850e-02,1.03613e-01,-7.54295e-02,4.27738e-02,-4.60289e-04,
-8.72986e-02,2.61657e-01,2.63635e-01,-1.94202e-01,1.08770e-01,2.20492e-01,9.87824e-02,2.18896e-02,-1.99755e-01,-8.49869e-02,-1.69305e-02,9.60012e-02,9.88561e-02,-5.29771e-02,2.02389e-01,2.04010e-01,-1.02309e-01,1.00592e-01,-1.18174e-02,-1.99402e-01,1.40351e-01,3.62215e-02,9.49996e-02,3.37724e-01,7.93096e-02,-7.07256e-02,-1.06919e-01,-1.53884e-01,2.21056e-02,-6.81791e-02,1.31701e-01,-1.64103e-01,6.98039e-02,-1.67983e-01,-5.54374e-02,1.63510e-01,2.06537e-01,5.80611e-02,8.02716e-02,-2.45286e-02,-1.74171e-02,2.06402e-02,2.91738e-01,3.37526e-02,7.30490e-02,1.38487e-01,2.05880e-01,1.08436e-01,1.43898e-01,-3.27349e-01,
5.28455e-02,-1.93464e-02,1.74731e-01,-1.32201e-02,1.59985e-01,6.04387e-03,1.41448e-01,9.06435e-02,3.05947e-02,-1.64988e-02,3.83533e-02,-4.30497e-02,5.06088e-02,-1.06335e-01,-3.74453e-02,-1.69675e-01,3.29038e-02,-6.27376e-04,1.69357e-02,1.99791e-01,-4.40308e-02,9.57407e-02,-3.27236e-02,2.51350e-01,-7.14325e-02,-1.15752e-01,-1.91727e-01,7.33484e-02,6.09239e-03,-2.01271e-02,-8.26274e-02,1.29620e-01,1.20719e-01,-8.28005e-02,-9.53511e-03,-8.32482e-02,-1.15257e-01,-1.28494e-01,-1.27019e-01,4.21059e-01,1.41822e-01,9.60054e-02,-2.06701e-01,-1.18861e-02,-8.48105e-02,1.01561e-01,-9.25317e-02,-5.20550e-02,-7.05106e-02,1.96790e-01,
-5.48980e-02,-1.48476e-01,1.21245e-01,-5.80270e-02,2.86260e-02,1.24412e-01,1.10788e-01,-2.05114e-02,3.99030e-02,-1.37515e-01,-5.17291e-02,2.63953e-02,8.21429e-04,3.66821e-02,-5.18793e-02,1.64171e-01,-4.28761e-02,1.07253e-01,1.07658e-01,-1.91788e-01,-1.03959e-01,-4.89637e-02,7.66499e-02,1.73144e-01,7.62942e-02,1.03371e-01,-9.47628e-02,1.18591e-01,4.07617e-02,-6.04417e-02,1.31078e-02,2.87845e-02,1.54850e-01,-4.83257e-02,1.01819e-01,2.86985e-02,1.35745e-01,-2.49551e-02,1.90135e-01,-1.14873e-01,-4.19460e-02,-8.65646e-02,2.26105e-01,1.62411e-01,-4.65524e-04,-1.75679e-01,-1.62367e-02,1.49850e-01,1.51164e-01,-1.03115e-01,
5.31153e-02,8.88519e-02,-2.34164e-02,-1.28198e-01,1.53918e-01,1.72863e-01,-3.84489e-03,-9.11609e-02,2.36465e-01,2.27502e-01,1.61976e-01,4.56167e-02,-5.79022e-04,5.54844e-02,6.01783e-02,1.81330e-01,-1.06579e-01,6.50008e-02,9.32868e-02,2.33665e-01,-1.27979e-01,1.24143e-02,-9.78305e-02,1.07327e-02,-2.08082e-02,1.19121e-01,1.07999e-01,-3.31523e-02,-2.50993e-02,8.18835e-02,7.13662e-02,-1.19723e-01,-3.64348e-02,-5.62577e-03,-6.95469e-02,-1.71179e-02,9.17048e-02,-8.52402e-02,-4.13617e-02,8.12376e-03,-4.56899e-02,1.34795e-01,-1.31733e-01,1.97482e-01,-2.39270e-02,-1.17375e-01,3.22958e-02,2.08925e-02,7.91309e-02,-1.23189e-01,
4.26374e-02,6.61663e-02,2.46022e-01,-1.28471e-01,1.49598e-01,1.20470e-01,-7.32020e-02,3.48418e-02,-5.44265e-02,2.07105e-02,2.85285e-02,4.50599e-03,9.69577e-02,-7.93178e-02,-9.54681e-02,-3.30282e-02,1.09303e-01,1.94281e-01,-6.20034e-02,4.41763e-01,2.41011e-01,1.13815e-01,2.26341e-01,3.25209e-02,1.17958e-01,3.90579e-02,8.92045e-02,1.37355e-02,9.36579e-02,-7.77550e-02,3.67774e-02,-9.18195e-02,-1.83621e-03,2.16589e-02,4.65672e-02,1.13352e-01,1.95423e-01,8.39070e-02,7.85965e-02,3.18483e-02,1.02687e-01,-1.12972e-01,4.79540e-02,-3.09160e-02,2.09354e-02,-2.25335e-01,1.14419e-01,5.14384e-03,9.99426e-02,-9.32549e-02,
3.36452e-02,2.24788e-01,8.14186e-02,-5.89454e-02,1.08275e-04,4.86404e-02,2.27002e-01,-4.40710e-02,1.59292e-01,4.33533e-02,-2.12081e-01,1.27052e-03,2.87358e-02,7.48303e-02,7.34474e-03,2.02869e-01,7.77072e-03,1.01746e-02,1.54606e-01,-1.61870e-01,-9.60243e-02,7.77541e-02,5.56014e-02,-6.10570e-02,1.44735e-03,1.24609e-02,3.61040e-02,1.34418e-02,6.33527e-02,6.58000e-02,2.29384e-01,2.15774e-01,4.71570e-03,1.40537e-01,2.30392e-02,-1.67174e-01,-1.61079e-02,-2.18182e-02,-3.05824e-02,1.56730e-01,7.38515e-02,1.02593e-01,2.12442e-02,-6.86444e-03,-1.84779e-01,-2.86613e-02,2.85743e-03,-9.73871e-02,5.08344e-02,2.19094e-01,
1.96039e-01,1.10611e-01,-7.15076e-02,-6.78327e-02,6.44537e-02,5.13751e-02,4.38696e-02,1.12300e-01,-4.12059e-02,-2.70373e-02,1.17856e-01,3.67934e-02,7.73789e-02,-8.28413e-03,5.82170e-02,9.70334e-02,-1.23386e-02,8.90550e-02,-1.16313e-01,7.89607e-03,-1.39893e-01,1.62481e-01,-1.11937e-01,-3.73796e-02,3.66835e-02,2.93049e-02,-2.26104e-02,1.24966e-01,1.71160e-01,6.13216e-02,2.35355e-02,-7.81539e-03,1.54408e-01,2.47133e-02,-3.74031e-02,-2.35950e-02,-6.42656e-02,-3.69416e-02,1.22011e-01,-4.39926e-03,4.82561e-02,1.10452e-01,1.40805e-01,3.42530e-01,6.92294e-02,-2.24382e-01,7.23182e-02,-9.25983e-02,1.13769e-01,-9.50060e-02,
-5.08907e-02,1.84068e-01,1.11193e-01,1.11152e-01,-4.86165e-02,-8.21620e-03,1.31121e-01,-6.25903e-02,-9.65155e-02,9.23279e-02,3.11516e-03,-2.92321e-02,2.79452e-02,8.52528e-02,1.48698e-01,1.37920e-02,-3.45579e-02,7.30795e-02,-9.56784e-02,-3.62080e-02,2.79866e-02,4.72220e-02,6.36388e-02,-6.57818e-02,-3.28184e-02,8.07826e-02,-1.90283e-02,-5.88703e-02,5.25133e-02,3.01681e-03,3.90576e-02,-7.38189e-02,-1.04522e-02,5.99727e-02,9.64008e-02,6.29432e-02,-6.59841e-02,2.28371e-01,1.40999e-01,1.36405e-02,5.31758e-02,-8.38559e-02,2.61893e-01,1.78553e-01,-4.77017e-02,-1.57382e-01,1.15909e-01,-1.01230e-02,1.38138e-01,1.50831e-01,
1.06866e-01,1.36743e-01,1.17960e-01,-9.14886e-02,1.11526e-01,1.43977e-01,2.31179e-02,-1.67331e-02,4.64640e-02,1.58180e-01,1.32368e-01,6.74694e-02,2.09623e-02,9.81370e-02,-6.42585e-02,-9.68842e-02,-2.08530e-02,-1.09480e-02,8.41639e-02,5.00357e-02,-6.19088e-02,-4.84219e-02,-1.80860e-01,2.78632e-02,9.89630e-02,-5.97048e-02,1.04511e-01,-5.37257e-02,-3.57980e-02,7.78802e-02,-1.57591e-01,1.46885e-01,8.12314e-02,2.13440e-01,-2.67031e-02,-7.78331e-02,-1.42018e-01,3.43012e-02,6.89353e-02,1.50874e-01,6.90958e-02,1.62689e-01,-2.05214e-01,-1.97101e-01,-1.02875e-01,-4.10850e-02,5.43263e-02,1.03065e-01,-1.04295e-01,1.26465e-01,
1.26560e-01,2.25388e-01,1.01492e-01,-8.98177e-02,8.30318e-03,2.66483e-01,7.25826e-03,3.67362e-02,1.21067e-01,1.99984e-01,-9.71112e-02,1.67488e-01,1.17404e-02,-6.23709e-03,4.31799e-02,8.82043e-02,1.02381e-01,-6.28178e-02,-7.54157e-02,-1.32578e-02,-5.25433e-02,-3.75920e-02,-4.89090e-02,-1.23129e-01,-5.96324e-02,-1.29047e-02,5.38309e-03,-2.43737e-01,-1.72421e-02,-2.49576e-02,1.13800e-01,3.52461e-02,7.84771e-02,-4.52229e-02,-5.53654e-02,-8.68225e-02,-1.24863e-01,6.12941e-02,-5.14589e-02,-2.55555e-02,-2.37164e-01,6.51753e-02,2.48670e-01,3.39378e-01,-4.99218e-02,3.06243e-03,-8.31267e-02,1.09559e-01,6.43969e-02,-1.40496e-01,
2.36833e-01,1.31614e-01,1.43583e-02,4.39511e-02,1.86954e-01,8.53713e-02,-6.38971e-02,1.90198e-02,1.97780e-02,1.00239e-01,-1.21124e-01,6.99374e-02,1.33649e-01,1.56259e-02,5.23599e-02,1.48581e-01,4.88421e-02,-1.19116e-01,-1.54652e-01,-3.46122e-01,-1.66143e-02,3.08477e-02,-7.56751e-02,1.61994e-01,1.26451e-01,2.20630e-02,-3.68828e-02,1.04548e-01,-3.17676e-02,1.45704e-01,2.28650e-01,3.02830e-01,8.43470e-02,5.89776e-02,1.60196e-01,1.08149e-01,3.59835e-01,2.25460e-01,-3.33789e-04,2.43376e-02,3.07636e-01,3.09465e-02,-1.60538e-02,3.86453e-03,-7.01768e-02,2.22207e-01,2.72164e-02,-1.89851e-01,1.47558e-01,4.81082e-02,
9.73560e-02,3.85847e-02,3.06590e-02,-1.00555e-01,-9.58648e-02,1.57645e-01,4.52431e-03,-7.47890e-02,3.30970e-02,-1.48657e-01,5.64926e-02,-7.37482e-02,7.58073e-02,5.30204e-02,2.89223e-02,-1.41019e-02,-2.31397e-02,-1.65409e-02,6.25920e-03,3.81586e-01,-1.42180e-01,1.10888e-01,1.82050e-01,4.38687e-02,1.67299e-01,-6.33657e-02,-1.11089e-02,6.22947e-02,3.63414e-02,2.56863e-02,-9.57332e-02,1.17175e-01,3.27027e-02,-3.22750e-02,-7.10221e-02,1.57485e-01,-2.56014e-02,1.31358e-01,1.29739e-01,1.63723e-01,1.46165e-01,-5.77701e-02,-5.50520e-02,1.71426e-01,1.29219e-01,-2.93509e-02,-1.11020e-03,1.53125e-01,9.51507e-02,-5.64609e-02,
1.00481e-01,-1.05366e-01,1.74566e-01,-1.03176e-01,-2.73003e-02,-2.36690e-02,3.41314e-02,-4.90836e-03,6.79642e-02,-2.02005e-02,-8.81303e-02,3.29805e-02,-7.98763e-02,-8.24123e-02,-6.47675e-02,-1.39586e-01,4.39915e-02,-2.43993e-01,-4.30230e-02,-1.72526e-01,1.22797e-01,-1.03275e-01,1.63686e-01,4.43193e-02,-8.32244e-02,-1.00399e+00,6.47919e-03,1.36437e-01,-1.73237e-01,9.46527e-02,9.93391e-02,4.72112e-02,7.79035e-03,1.18660e-01,-2.04180e-02,-2.64146e-02,7.02563e-02,1.33675e-01,-1.57934e-02,2.10854e-01,2.33118e-01,2.51674e-02,-1.48083e-01,1.53431e-01,7.72627e-02,1.35714e-01,7.61550e-03,-4.78023e-02,7.20967e-03,2.92787e-01,
-3.41605e-01,-1.41109e-02,-4.16588e-01,1.20967e-02,2.88415e-01,-3.26698e-01,-2.28462e-02,-5.81167e-02,7.10077e-02,7.62291e-02,1.64891e-01,-9.78848e-02,4.58934e-02,5.54705e-02,1.74048e-01,1.39506e-01,-1.19630e-01,-6.53253e-02,1.06849e-01,2.29847e-01,2.35401e-01,5.58088e-02,3.17190e-02,2.16629e-01,-2.34227e-01,-4.05373e-02,5.99837e-02,-1.08751e-01,1.40453e-01,-3.00094e-02,-2.63257e-01,1.93901e-02,-7.93547e-03,-3.43517e-02,-5.13239e-01,1.38746e-01,3.12579e-01,-1.24322e-01,-1.35447e-02,-5.79841e-01,4.82415e-01,-1.14504e-01,3.30266e-01,6.45865e-02,6.67306e-02,-2.22217e-01,1.07653e-01,1.26170e-02,-4.21018e-01,-9.35751e-02,
-4.66415e-02,-4.00719e-02,-4.54399e-02,1.36531e-01,1.51126e-01,2.40696e-01,2.27280e-01,4.59906e-02,-1.27403e-01,-5.75140e-02,5.59624e-02,2.82208e-02,-3.61423e-03,-9.89009e-02,4.72595e-02,2.28052e-01,9.46522e-02,1.52603e-01,1.31405e-01,1.94539e-01,-2.35493e-01,2.03863e-01,5.11422e-02,-2.14871e-01,8.97580e-02,-2.95090e-02,-5.08765e-02,5.27861e-02,1.17060e-01,-9.44040e-02,6.06617e-02,1.84501e-02,1.91952e-01,-1.74880e-01,2.62733e-01,9.30976e-02,3.51899e-02,4.76948e-02,2.38444e-01,7.90181e-02,-1.41629e-01,-2.74502e-02,5.60629e-01,8.53448e-02,1.47700e-01,-3.19909e-01,5.86452e-02,5.18338e-02,8.86660e-02,1.51783e-02,
6.49440e-02,-1.25194e-01,1.74910e-01,-7.35551e-02,-8.64829e-02,1.27367e-01,1.06253e-01,6.15857e-02,1.05614e-01,1.12501e-02,-3.37564e-02,1.37090e-01,-3.21207e-02,2.77535e-02,1.71875e-01,-4.16998e-02,1.39227e-01,1.04604e-02,-5.06590e-02,-1.22231e-01,5.56074e-02,-4.05946e-02,-6.91518e-02,2.73379e-02,2.65117e-01,-2.42884e-02,-9.99972e-02,2.97840e-01,1.27514e-01,1.36895e-01,-3.82326e-02,1.32343e-01,2.15442e-02,1.46263e-01,9.76653e-02,-3.82848e-02,1.83561e-01,1.42322e-01,3.24908e-01,4.98971e-02,5.57549e-02,1.41747e-02,-1.73711e-01,6.09727e-02,1.32358e-01,4.39824e-01,-9.79279e-02,8.37857e-02,3.21726e-02,-5.42056e-03,
6.14817e-02,-6.55931e-02,6.18818e-02,1.11784e-01,1.37203e-01,6.66503e-02,-1.25096e-01,-5.84222e-03,1.92576e-01,6.64804e-02,-8.76161e-02,5.28075e-02,-4.05301e-02,1.41587e-01,1.09721e-01,1.88240e-01,-4.81953e-02,-5.90157e-02,1.86723e-02,5.81582e-02,-8.03438e-02,-6.96490e-04,1.87870e-02,7.39692e-02,7.49009e-02,5.83656e-02,-7.54637e-02,1.80405e-01,-1.14395e-01,7.71399e-02,1.71262e-01,8.42811e-02,7.96042e-02,-1.45444e-01,1.73792e-01,2.27843e-02,7.74341e-02,-1.13770e-01,-1.02795e-01,2.57463e-01,-1.04976e-01,-7.33278e-03,-9.63406e-02,1.22839e-01,1.07502e-01,1.43172e-01,-1.70973e-01,-5.67447e-02,-2.25447e-02,-1.13296e-01,
-5.59121e-02,1.44615e-01,7.78643e-02,-3.07228e-02,1.58645e-01,-5.27269e-02,1.08831e-02,-3.37234e-02,1.03023e-02,1.99808e-01,-1.72357e-02,1.21712e-01,3.78053e-02,4.27497e-02,-6.71557e-02,-1.56882e-01,-4.35287e-02,-8.09882e-02,-1.14042e-01,-1.72727e-01,4.96632e-02,1.96808e-01,2.34942e-01,1.53532e-01,-6.44431e-02,2.16809e-01,-5.98843e-03,1.89963e-02,-1.89140e-02,1.61778e-01,6.90050e-02,1.31175e-01,1.61133e-01,1.20005e-01,-1.67361e-03,1.75292e-01,5.57384e-02,5.47631e-02,4.19487e-02,2.67513e-02,2.32951e-01,9.86602e-02,8.87285e-02,1.27566e-01,-9.60524e-02,-2.18273e-03,1.49905e-01,-1.78959e-02,-7.32377e-02,1.28202e-01,
-2.84477e-01,-3.80068e-02,-1.13197e-01,1.18994e-01,-8.24913e-02,-1.43165e-01,-1.28396e-01,-4.00117e-02,4.21379e-02,-6.38633e-02,1.03919e-01,2.84553e-02,7.13472e-02,7.17215e-02,-2.53750e-02,-5.95125e-02,7.00236e-02,2.67074e-01,6.37938e-03,6.25218e-01,-5.33842e-02,7.28542e-02,1.57534e-01,2.94904e-04,-1.73107e-01,8.11971e-02,1.45399e-01,2.17201e-02,-1.11547e-01,7.26277e-02,-1.12625e-01,-1.86746e-01,7.23425e-04,2.18187e-02,-6.13900e-02,-8.66592e-02,1.20242e-02,-1.14818e-01,-9.72761e-02,-2.61393e-01,5.28623e-02,3.90194e-02,1.85434e-01,-6.03445e-02,4.33787e-02,-3.24051e-01,3.94205e-02,-7.21624e-02,-1.35037e-01,1.75426e-01,
-1.81117e-02,1.10490e-01,8.17200e-02,-6.51879e-02,9.36240e-02,8.33315e-02,-1.00557e-01,6.05111e-02,-1.03480e-01,1.18179e-01,-1.51941e-01,-1.14134e-01,-8.81008e-02,7.65539e-03,7.82675e-03,7.74538e-02,8.35027e-02,-6.37637e-02,-5.77451e-02,-5.47422e-01,-4.97206e-02,-1.36738e-02,2.92623e-02,1.10798e-01,2.16429e-01,-8.82206e-02,-1.07988e-01,-4.37518e-02,7.54721e-02,1.25272e-01,1.91098e-01,1.25453e-01,7.05027e-02,-6.93204e-02,8.95052e-02,6.51156e-02,4.18793e-02,1.88011e-01,2.06029e-01,-2.19810e-01,-3.03671e-02,-2.95102e-02,2.64389e-01,3.43150e-01,-9.06818e-02,2.61533e-01,6.58819e-02,-8.08738e-02,-1.16538e-01,1.86923e-01,
4.71776e-02,-4.88369e-03,3.50785e-02,-2.67039e-02,1.60863e-01,1.81435e-01,-5.04722e-02,4.18975e-02,2.78996e-02,-2.77263e-02,5.70176e-02,-7.36595e-02,7.14840e-02,-7.19892e-02,1.90365e-01,2.33341e-01,-9.67764e-02,3.24670e-02,2.25797e-01,1.29300e-01,4.35471e-02,-6.54027e-02,7.73538e-02,1.05691e-01,2.38536e-02,1.20791e-01,1.18564e-02,2.75311e-03,7.28428e-02,-4.61702e-02,1.26866e-01,-5.58361e-02,1.12454e-01,-1.47926e-01,1.08175e-01,5.47683e-02,4.93552e-03,-1.59953e-01,-5.23716e-02,1.47312e-01,-1.18653e-01,4.57697e-02,-1.19888e-01,3.70330e-01,9.76062e-03,-1.55933e-02,-1.10306e-01,1.53727e-01,-2.53683e-01,8.71247e-02,
7.20694e-05,1.00101e-01,1.14011e-01,6.98051e-02,1.45069e-01,1.66396e-01,-7.17135e-02,9.68317e-02,-8.80553e-02,2.16557e-01,1.99936e-04,6.92839e-02,-1.86406e-02,-8.07525e-02,-1.93588e-01,-1.88634e-01,1.13054e-02,7.73897e-02,-1.75477e-01,-6.96067e-02,-8.56578e-02,-4.27638e-02,-8.26068e-02,1.03860e-01,2.29157e-01,6.06134e-02,1.12018e-01,-2.49015e-01,5.36635e-02,9.18581e-03,-1.69922e-02,8.53401e-02,5.18212e-02,1.36141e-01,1.89606e-01,7.47879e-02,-1.11890e-01,1.89659e-01,4.73936e-02,3.19446e-02,7.67353e-02,1.40634e-01,9.61108e-02,1.69137e-01,-1.04643e-01,2.46652e-02,-5.83142e-02,1.04626e-01,-7.61947e-02,-7.58955e-02,
1.48195e-01,1.67051e-01,2.08857e-01,6.94589e-02,-8.30974e-03,-6.62677e-03,1.36123e-01,4.81890e-02,1.56069e-01,7.89167e-02,-2.67884e-01,-5.70040e-02,-1.67612e-02,5.23934e-02,-7.71017e-02,4.48644e-02,9.47678e-02,2.54901e-02,-5.84318e-02,-2.58566e-01,1.94677e-01,1.41616e-01,1.56820e-01,1.94324e-01,5.36307e-02,-1.83975e-02,5.79231e-02,-3.65247e-02,-4.52337e-02,6.02755e-02,1.79102e-01,4.31311e-02,1.40097e-01,5.14512e-02,4.33743e-03,-1.15550e-01,1.56265e-02,1.18148e-01,-1.73899e-01,2.46580e-02,3.17416e-02,1.39378e-01,2.02388e-01,5.37743e-02,-5.98350e-02,-1.08688e-01,-1.83612e-01,4.72057e-02,1.51291e-01,2.28908e-02,
4.20092e-02,4.59106e-02,4.88179e-02,1.17793e-01,1.86099e-01,3.04394e-02,1.21955e-01,5.24847e-02,5.40114e-02,-8.89805e-03,1.83628e-01,9.64063e-02,8.38071e-02,1.05290e-02,1.57645e-01,-1.81156e-01,4.91116e-02,1.72840e-01,-2.41401e-02,3.15356e-01,2.38000e-01,-3.17382e-02,1.55678e-01,-6.38851e-02,-5.14975e-03,-1.16715e-02,5.04941e-02,1.28531e-01,-2.62028e-02,-6.88612e-02,-6.32527e-02,3.74864e-02,-1.32749e-01,-9.60312e-03,9.74833e-02,1.15886e-01,9.15714e-02,1.35358e-01,4.89524e-02,-5.51920e-02,2.83536e-01,9.84883e-02,-7.08042e-02,5.89365e-02,6.55149e-02,1.67881e-01,1.29773e-01,-8.18100e-02,-1.38881e-01,6.12192e-02,
5.57042e-02,1.06380e-01,-1.94081e-01,7.92463e-03,2.31299e-01,1.31458e-01,6.98024e-03,-1.07481e-01,7.64873e-02,-5.92951e-02,-6.04494e-02,9.67958e-03,9.13768e-02,1.36918e-01,-9.90215e-02,8.71029e-02,-1.04593e-01,-1.48549e-01,-5.03082e-02,-4.08335e-01,-2.10884e-01,-6.70043e-02,-1.54252e-02,-9.23395e-02,2.00996e-02,-1.27567e-01,-1.99814e-02,-1.12136e-01,-8.15752e-03,3.01051e-02,9.08797e-04,1.20045e-01,-7.26371e-02,1.18150e-01,7.59974e-02,5.37886e-02,2.22201e-02,1.03250e-01,-7.62508e-02,-7.27987e-02,4.39319e-02,-7.67699e-02,-1.04574e-01,5.27922e-02,1.00180e-01,2.97589e-02,-1.27353e-01,1.16425e-01,-6.77479e-04,-1.98365e-01,
3.51256e-02,1.72286e-01,1.63265e-01,-1.25180e-01,2.16223e-02,2.15154e-01,-2.90935e-02,6.08434e-02,1.43961e-01,2.41682e-02,-1.46125e-01,7.99646e-02,-3.65071e-02,3.89293e-03,1.29144e-01,-5.95612e-02,3.60936e-02,-6.40675e-04,1.51640e-01,-5.93691e-01,1.77452e-01,1.06042e-01,-6.52091e-02,3.36891e-01,5.40236e-02,-2.22320e-02,4.25123e-02,-1.53672e-01,9.07227e-02,-2.04335e-01,4.16634e-02,-1.69139e-01,1.19899e-01,-1.25216e-01,-1.08504e-01,-1.03636e-01,3.50227e-02,7.08443e-02,1.45286e-01,1.30476e-01,-2.36228e-03,-4.07180e-02,-1.44950e-01,7.00576e-02,4.19827e-02,-9.20211e-02,8.99626e-02,-1.36761e-02,9.77354e-02,-1.72201e-01,
-1.50006e-01,-1.52468e-01,1.20454e-01,2.91572e-02,-4.64156e-02,-1.34499e-01,-5.45749e-02,2.20595e-02,-1.16206e-01,-4.47404e-02,3.98657e-02,-1.50820e-02,9.57016e-02,-1.04595e-01,-8.91842e-02,-1.35266e-01,9.05059e-02,-1.36097e-01,-1.08702e-01,5.05027e-02,-1.53930e-01,-8.59502e-02,1.16566e-01,-9.04300e-02,-8.00139e-02,-4.74452e-02,2.13804e-02,1.01112e-03,-1.32780e-01,-1.47154e-01,9.26705e-02,9.80572e-03,-1.54013e-01,-1.03361e-02,-1.33343e-01,-6.64883e-02,-4.60954e-02,-4.85304e-02,1.25213e-02,-8.78265e-02,1.18945e-01,4.56328e-02,9.70275e-02,1.39064e-02,-1.06588e-01,1.81195e-02,-1.18286e-01,-1.30041e-01,5.65913e-02,-5.76581e-02,
1.46969e-01,-8.34109e-03,-2.72662e-02,3.08122e-02,1.36177e-01,-1.63585e-02,8.43905e-02,-7.76260e-02,-1.67725e-01,-6.52692e-02,2.85123e-02,4.80343e-02,9.74427e-02,1.20058e-01,1.22488e-01,-8.68626e-02,-7.30874e-02,1.93427e-03,-5.93001e-02,-1.80420e-01,-6.60580e-02,-5.73291e-02,1.34710e-01,1.46786e-01,2.42090e-01,-9.54339e-02,-1.57298e-01,1.29626e-01,5.78116e-02,-6.95074e-02,-4.09685e-02,8.37359e-02,-4.39622e-05,2.44697e-03,-2.43201e-02,6.94819e-02,5.46590e-02,4.42272e-02,6.77439e-02,1.12258e-01,5.48644e-02,3.73356e-02,1.03226e-01,1.16137e-01,-9.08872e-02,-9.06786e-02,1.39222e-01,-5.16252e-02,-1.67388e-01,-2.76119e-02,
2.65541e-01,
-2.55230e-01,
2.52395e-01,
-8.21043e-03,
-3.25100e-02,
1.46396e-01,
-1.56708e-01,
1.92321e-01,
2.53858e-01,
4.33610e-01,
-1.12678e+00,
-4.29477e-01,
-1.93587e-01,
4.84997e-01,
2.06270e-01,
-3.66728e-01,
-1.09154e-01,
2.40248e-01,
-3.01353e-01,
4.39657e-01,
4.77991e-03,
2.39421e-01,
2.52997e-01,
3.40820e-01,
3.41097e-01,
3.56655e-01,
2.57773e-01,
1.75534e-01,
2.04409e-01,
1.42446e-03,
2.92376e-01,
5.04045e-01,
3.73738e-01,
-5.76514e-02,
-3.50755e-03,
-6.71142e-01,
2.69248e-01,
-4.98086e-02,
9.74265e-02,
-1.59227e-01,
-7.75775e-01,
2.05096e-01,
2.28086e-01,
1.85553e-01,
3.34155e-02,
5.00042e-04,
3.71683e-01,
5.20298e-01,
4.36566e-02,
3.31713e-01,
-2.50577e-04,-1.34174e-01,-4.25806e-03,3.41471e-02,-1.06325e-01,6.89642e-02,-6.93511e-02,8.86549e-03,1.40579e-01,-1.79818e-01,-3.87014e-02,1.06243e-01,5.17105e-02,-5.87047e-02,-5.91116e-02,2.65171e-01,8.45332e-02,-4.74248e-02,9.74338e-02,-5.05231e-02,5.99552e-02,1.71714e-01,7.37110e-02,3.47141e-02,1.84875e-02,-1.71161e-03,1.05731e-01,5.08743e-02,-5.53303e-02,-6.29493e-02,5.89200e-02,-3.54410e-02,1.29867e-01,9.51228e-02,9.24114e-02,2.38556e-01,6.23748e-02,9.95605e-02,4.33257e-02,-1.53325e-01,1.38901e-01,-9.36230e-02,7.29451e-02,-1.17653e-02,7.89144e-02,-2.55031e-02,1.61984e-01,2.14169e-01,-7.12417e-02,3.60084e-03,
-1.47645e-01,1.22677e-01,-2.16701e-01,-1.11271e-01,1.04787e-01,2.86042e-01,-7.20843e-02,-2.48700e-01,8.65038e-02,-5.91219e-01,4.32049e-02,-1.18552e-01,1.52464e-01,-1.69355e-01,3.24966e-02,-5.51529e-01,-4.59635e-02,-7.14609e-02,-1.00492e-01,-7.53566e-01,7.83429e-02,-1.31073e-01,3.85901e-01,2.06022e-01,-1.70938e-01,-9.38343e-02,-1.70359e-01,1.43748e-01,-1.46398e-01,-1.46467e-01,2.13991e-01,-6.07436e-01,1.86137e-01,-1.13762e-02,-1.30546e-01,-4.02117e-01,-2.37055e-01,2.43924e-01,7.48590e-03,1.47679e-01,8.50879e-02,1.13629e-01,-1.55157e-01,1.09630e-03,8.48305e-02,7.50283e-02,1.76423e-02,3.53299e-01,-6.33987e-02,-4.24950e-02,
6.13488e-02,-8.18388e-02,6.00907e-02,3.26604e-03,6.98979e-02,-5.51878e-02,-1.02557e-02,-6.84540e-02,9.48897e-02,9.53574e-03,2.59947e-01,-1.00686e-01,1.30233e-01,1.05465e-01,1.52927e-01,-7.99216e-02,7.64940e-02,-1.90016e-02,-9.32899e-02,1.36930e-02,9.26737e-02,1.45523e-02,-1.24130e-01,1.44386e-01,1.37959e-01,4.60136e-02,2.07476e-02,-1.72061e-01,-3.56092e-03,-2.50313e-02,-3.30266e-02,-7.92906e-02,5.71688e-02,1.87382e-01,6.90291e-02,-1.25341e-01,1.30225e-01,2.20378e-01,-5.83821e-03,8.82190e-03,5.47358e-02,6.90603e-02,1.39534e-01,-1.05527e-01,-1.17493e-01,6.88642e-02,8.46884e-03,6.67776e-03,5.65412e-02,7.77530e-02,
1.91945e-01,9.62106e-02,1.96335e-01,1.55944e-01,-3.84464e-02,-8.31317e-02,-8.11869e-02,2.34488e-01,-4.83522e-02,5.00266e-03,5.35568e-01,-1.49191e-01,-3.52678e-02,-1.04755e-01,-1.35760e-01,7.43053e-03,-5.98064e-02,1.32346e-02,1.31509e-01,1.52193e-01,9.21794e-03,-1.33438e-01,-1.08601e-01,8.68832e-02,-1.29583e-01,1.98346e-01,1.04026e-01,1.56366e-01,-6.84980e-03,2.48978e-02,1.81892e-01,-2.96990e-02,1.23612e-01,1.02061e-01,4.74003e-02,-3.01057e-02,-6.95752e-02,-6.82028e-02,1.86367e-02,1.83032e-01,1.03095e-01,-1.27628e-01,1.44434e-01,2.66413e-01,1.71413e-01,1.42213e-01,-7.80380e-03,-8.27749e-02,1.12440e-01,-2.06012e-02,
-8.25802e-02,4.79483e-02,1.06737e-01,1.08808e-02,8.52552e-02,-8.21024e-02,-1.27395e-02,4.92293e-02,1.18339e-01,1.93160e-01,-7.88731e-02,-1.95035e-02,-6.14900e-02,-1.82254e-01,7.42311e-02,-2.66157e-01,2.07239e-01,5.55480e-02,1.65901e-02,2.12674e-01,-7.11582e-02,9.99136e-04,1.10475e-01,-6.86777e-02,9.77625e-02,9.45161e-02,-7.37132e-02,1.80333e-01,-1.75173e-01,1.71328e-01,-7.98302e-02,1.30921e-01,1.57270e-01,5.90753e-02,-2.49305e-02,-1.75349e-01,-3.21120e-02,-9.80916e-02,5.63994e-02,1.61938e-01,-2.02044e-01,1.16329e-01,1.32464e-02,6.71401e-03,4.20173e-02,-1.56381e-01,-9.91789e-02,-1.58044e-01,-9.90447e-02,8.58444e-02,
5.34268e-02,3.80440e-02,-3.62539e-02,-8.13312e-02,-6.33289e-02,3.59719e-02,7.99160e-02,1.27357e-01,1.07569e-01,8.33695e-02,3.80251e-03,-7.61593e-03,1.41182e-01,1.10033e-01,1.68035e-01,-1.68355e-01,5.90435e-02,-1.37450e-01,3.54030e-02,6.92208e-02,4.89367e-02,1.62412e-01,1.99252e-02,2.43504e-03,6.69877e-02,-8.54147e-02,7.36080e-02,4.03825e-02,1.34280e-01,-2.61993e-02,-6.79227e-02,-3.42529e-02,-7.29871e-02,6.97609e-02,-6.63913e-02,-1.85821e-01,-9.31146e-02,-6.86428e-03,1.15755e-01,-1.25528e-01,-9.76168e-02,7.00290e-02,9.60245e-02,-1.29624e-01,-4.11879e-02,7.66107e-02,-6.87745e-02,2.80132e-02,9.33320e-03,1.08247e-01,
1.08228e-01,1.27685e-01,1.01745e-01,4.27942e-02,-1.39977e-01,3.69906e-02,1.61657e-02,-1.14246e-01,5.40442e-02,-7.91816e-02,-2.31558e-01,3.34124e-01,1.17442e-01,1.67367e-01,-8.39750e-02,8.63308e-01,-1.40264e-01,-9.52464e-02,1.38648e-01,-1.03396e+00,1.78576e-01,-8.84510e-02,-3.91553e-01,2.82478e-01,1.41399e-01,1.12981e-01,1.74509e-02,2.23999e-02,1.54579e-02,-5.91538e-02,-1.03775e-01,-3.85799e-02,1.67358e-01,-2.88462e-03,2.46997e-01,2.10451e-01,-1.73182e-01,-3.79538e-02,4.97357e-02,-7.62672e-03,-1.16516e+00,-1.65686e-02,9.48657e-02,-3.36798e-02,2.59794e-01,-3.49737e-02,2.48542e-01,2.40802e-01,-1.58780e-02,3.42792e-02,
1.19313e-01,7.21956e-03,-2.78360e-02,1.30545e-01,-1.51145e-02,-5.63582e-02,-8.43221e-02,-1.65933e-01,-2.46860e-02,1.52468e-01,-2.05042e-01,1.17807e-01,-1.00922e-01,4.04866e-02,-6.33335e-02,-7.06734e-02,-4.21368e-02,6.00023e-02,-3.34379e-02,1.32585e-01,-6.55073e-02,1.59167e-01,1.80133e-01,-6.22191e-02,-3.39980e-02,5.03730e-02,1.47900e-02,-6.92648e-05,1.35818e-01,-6.05313e-02,1.36821e-01,-1.73337e-01,2.97939e-02,6.96154e-02,-2.95431e-02,7.83806e-02,-1.69868e-02,7.19650e-02,-4.03611e-02,-5.43437e-02,-1.07053e-01,1.14242e-01,-6.15575e-02,8.61385e-02,-9.99368e-02,2.12738e-02,1.16654e-01,1.03957e-02,-1.07288e-01,1.43903e-01,
8.85542e-02,-8.22952e-02,1.39303e-01,-7.71968e-02,-1.27731e-01,2.63453e-02,7.92415e-04,1.32558e-01,3.66945e-02,-3.84816e-02,1.06647e-01,-5.60084e-01,2.26798e-02,1.54331e-01,-1.33028e-01,-1.25079e-01,-2.56595e-02,1.17215e-01,-6.98259e-02,-1.60306e-01,1.09679e-01,-1.24977e-01,-7.08988e-02,2.99996e-01,-8.94352e-03,6.77961e-02,-4.25744e-02,-1.81594e-02,-1.88443e-01,-1.30626e-01,1.33938e-01,-1.75332e-02,1.53181e-01,-4.89868e-02,3.29358e-01,3.56632e-01,-8.51595e-02,8.09278e-03,1.51274e-01,-7.60351e-02,-9.08566e-01,-9.55856e-02,1.38419e-01,5.18821e-02,-3.76016e-02,-2.73294e-02,-3.61478e-02,3.76704e-01,-1.08399e-01,2.11738e-01,
1.10688e-01,1.15107e-02,-4.75459e-02,1.46089e-01,2.02396e-02,1.01776e-01,-1.00417e-01,-8.71141e-03,6.66391e-02,-8.01693e-02,2.71280e-01,-1.58229e-01,-1.59481e-01,2.00423e-01,-1.68212e-01,2.03392e-01,-2.01729e-02,5.24633e-03,4.17323e-02,3.48509e-02,-4.72786e-02,2.07226e-01,-2.10330e-01,2.36874e-01,-3.43622e-02,7.92658e-02,1.17458e-01,2.35259e-02,1.46556e-01,1.65780e-01,2.87720e-02,5.07366e-02,1.15016e-01,1.75331e-01,1.41961e-01,9.49339e-02,-9.03205e-02,1.35111e-01,-1.59615e-01,-1.73560e-02,3.62552e-01,6.75032e-03,-6.04927e-02,1.85191e-01,5.72873e-02,1.45502e-01,-5.70656e-02,9.01831e-02,-1.06991e-01,1.37725e-01,
1.82016e-02,-5.09482e-02,-1.69599e-01,8.68812e-02,-1.28301e-01,2.27353e-02,1.16112e-01,-9.44999e-02,-6.91632e-02,2.50570e-01,-2.32817e-01,2.19820e-02,1.08157e-01,1.36107e-01,6.35893e-02,-3.07247e-01,1.10983e-02,-7.72083e-02,-8.33535e-02,1.23739e-01,-1.18377e-01,1.15830e-01,2.02406e-01,3.24408e-03,1.49642e-01,-3.89286e-02,3.40054e-02,-9.91170e-02,-3.66858e-03,1.86939e-01,2.74082e-02,-7.12370e-02,1.44525e-01,2.36865e-01,-6.93215e-02,-2.42117e-01,3.41969e-02,9.89661e-02,-1.33489e-01,1.08577e-01,-2.70799e-01,9.17327e-02,-1.27047e-01,1.50704e-01,-1.49387e-02,1.73473e-01,-4.46717e-02,-1.07996e-01,-7.95803e-02,9.03561e-02,
8.58308e-02,-6.07557e-02,3.92753e-02,3.19499e-02,1.63331e-01,-1.02591e-01,9.76965e-02,-4.25347e-02,1.48874e-01,5.73942e-02,-2.57922e-01,6.92222e-02,1.32387e-01,1.26792e-01,1.82071e-01,-1.47831e-01,8.39888e-02,2.10099e-02,-2.58069e-02,1.95909e-01,-9.42050e-02,1.55473e-02,2.15418e-01,4.31048e-02,1.86827e-01,-7.83561e-04,-1.01452e-01,-9.24709e-02,4.97606e-02,7.70574e-02,-1.51471e-01,-1.46714e-01,-1.09789e-02,1.09557e-02,-4.81690e-02,-2.73154e-02,1.35843e-01,5.82648e-02,-1.46610e-02,-1.17756e-01,-2.40882e-01,1.19751e-01,-6.83089e-02,-3.65112e-02,2.78685e-02,-5.88483e-02,-1.87449e-02,-1.91290e-01,9.17865e-02,3.78772e-03,
-9.27723e-02,-8.24231e-02,-3.08933e-02,-3.63113e-02,-1.74174e-02,-2.22274e-02,1.64436e-01,6.13992e-02,9.95164e-02,1.42333e-01,1.32979e-01,-1.23128e-01,1.00746e-01,1.33812e-01,-4.62083e-02,-4.26127e-01,9.37411e-02,-1.27044e-01,7.35327e-02,7.18332e-02,-3.22368e-02,1.35573e-01,2.91867e-02,-9.82326e-02,1.93835e-01,3.88436e-02,8.16692e-02,-8.47782e-02,4.86485e-02,1.68561e-02,-1.42979e-01,-1.96836e-01,1.27150e-01,1.11285e-01,1.97733e-02,-1.52348e-01,1.39068e-01,1.58201e-01,1.49862e-01,4.86999e-02,-4.53160e-02,1.57272e-02,-7.92151e-02,1.48651e-02,-5.47254e-02,1.72510e-01,-2.71349e-02,-1.65964e-01,6.35461e-02,-2.56761e-02,
1.36470e-01,1.10782e-01,1.72386e-01,9.53251e-02,3.53641e-02,9.51999e-02,-1.01161e-01,-1.00975e-01,-9.71228e-02,-1.35307e-01,2.85975e-01,-1.68439e-01,-1.58179e-02,2.13063e-01,-9.98688e-02,3.51288e-02,5.29415e-02,1.44607e-01,3.54908e-02,1.40114e-02,2.35373e-02,2.25339e-02,-1.77889e-01,5.26099e-02,1.30171e-01,1.86354e-01,1.29532e-01,-4.74576e-02,1.85427e-03,-5.34123e-02,-3.27314e-02,-6.00662e-02,-2.99792e-02,7.13634e-02,5.99459e-02,1.13872e-01,5.71761e-02,1.84399e-01,-1.15293e-01,3.23881e-02,2.51628e-01,-1.82525e-01,2.52521e-02,1.01437e-01,-4.37397e-02,1.87152e-01,1.30854e-01,5.87128e-02,-4.29842e-02,1.03781e-01,
-2.30626e-02,7.42811e-02,1.16108e-01,1.08040e-02,-1.21143e-01,3.57603e-02,1.37427e-01,1.34084e-01,3.30095e-02,8.41684e-02,4.30470e-02,3.42136e-02,1.22681e-01,-1.09243e-02,-1.62069e-02,8.53473e-02,-1.23291e-01,-9.10968e-02,1.54805e-01,-9.14851e-02,-4.16104e-03,2.07086e-01,-2.02137e-02,4.56056e-02,1.98979e-01,-4.31174e-02,5.79486e-02,8.09592e-02,7.57185e-02,6.69933e-03,-7.64175e-02,-1.67845e-01,1.71500e-01,4.62395e-02,-5.53512e-02,-1.67745e-01,-1.42549e-02,1.67312e-01,-4.35338e-02,-4.40365e-02,-4.44057e-02,3.01332e-02,5.64205e-02,-1.74477e-01,-1.68960e-01,1.93651e-01,8.83912e-02,2.48900e-02,7.55471e-02,1.10112e-01,
1.55860e-01,5.92558e-02,1.50633e-01,6.72769e-02,-6.14239e-02,6.38961e-02,1.11285e-01,-2.03310e-01,-1.25924e-01,-1.50056e-01,-5.04853e-01,3.95764e-01,1.25662e-01,1.64234e-01,5.72261e-02,4.56026e-01,-1.16358e-01,1.73262e-01,3.45121e-02,-1.16149e-01,-8.12815e-02,-5.98662e-02,2.55464e-01,-3.31701e-02,3.86147e-02,3.65858e-02,-1.07216e-01,1.32237e-01,-1.75214e-01,1.18607e-01,-5.27366e-02,-1.08758e-01,7.04938e-04,5.00644e-02,9.36615e-02,1.92396e-01,1.82439e-01,-6.78077e-02,-3.81775e-02,-5.99139e-02,-2.16508e-01,1.30827e-01,-1.94634e-01,-3.44005e-02,-3.34735e-02,6.66101e-02,5.56043e-02,1.17765e-01,-6.89845e-02,3.39469e-02,
1.03795e-01,2.75127e-02,1.24903e-01,1.18759e-02,-1.49625e-01,8.37075e-02,-2.33906e-02,-3.51102e-02,-9.13705e-03,1.10896e-01,1.67977e-01,-3.26148e-02,7.41175e-02,1.95076e-01,1.74076e-01,-1.02783e-01,-2.75849e-02,-1.17558e-02,1.07362e-01,1.84629e-02,1.00720e-01,2.57777e-01,8.65911e-02,1.90059e-01,1.18199e-01,-1.26890e-01,2.30293e-02,-1.13474e-01,-3.42142e-02,2.04883e-02,7.50464e-02,-2.09519e-01,6.42842e-03,3.73031e-02,-1.67861e-02,-9.59116e-02,5.31659e-02,-4.69158e-03,-1.40042e-01,1.29435e-01,1.62172e-01,2.30166e-02,-1.15395e-02,1.15709e-01,-1.06465e-01,2.04215e-01,-9.37254e-02,-8.10632e-03,1.64398e-02,8.87070e-02,
1.47573e-01,1.95228e-01,1.13155e-01,4.31267e-02,1.45803e-01,1.67127e-02,-1.36141e-01,8.68600e-02,-7.76178e-02,-1.39870e-02,9.62683e-02,-3.02964e-01,-3.15277e-03,9.29039e-03,8.56008e-02,-5.01634e-01,9.60935e-02,4.39398e-02,5.13409e-02,2.18564e-01,-5.17786e-02,8.80141e-02,-4.30581e-02,-4.16368e-02,-6.95848e-02,-8.27657e-02,-1.02113e-01,1.42739e-01,6.52392e-03,2.11269e-01,1.49076e-01,3.27075e-02,4.63167e-02,1.41648e-01,7.34697e-02,-2.25335e-01,-9.88316e-02,-1.09406e-01,-1.47883e-01,1.46814e-01,-1.16163e-01,-2.80379e-03,-2.17204e-01,2.27224e-01,3.82044e-02,1.57377e-01,-5.40396e-02,-1.42198e-01,1.26985e-01,1.78932e-02,
1.24013e-02,1.47431e-01,2.05936e-01,-1.18337e-01,-3.84316e-01,1.30375e-01,-4.79804e-02,6.89308e-03,-1.31064e-01,4.68103e-01,-1.38639e-01,-7.74590e-02,1.68452e-01,-2.25589e-01,1.32038e-02,2.01381e-01,2.13789e-01,1.75980e-01,5.76462e-01,7.41222e-02,-9.07126e-02,2.34690e-02,-3.84114e-01,3.98879e-01,-9.61973e-02,2.66634e-01,3.48631e-01,-2.30260e-01,-5.59303e-02,-1.45737e-01,-1.74580e-02,1.81307e-03,-2.74257e-01,4.97771e-02,3.43222e-02,5.40085e-01,-1.60812e-01,1.77693e-02,-3.10855e-02,-1.10788e-01,1.29328e-01,2.73768e-01,8.52748e-02,-9.75615e-02,-2.77913e-01,3.05088e-02,-2.45118e-01,-1.41512e-01,3.72500e-02,-3.74742e-02,
-6.04213e-02,1.90009e-01,-4.71966e-02,1.34869e-01,1.77874e-01,2.14429e-02,-6.87768e-02,-2.95714e-02,-1.10430e-02,9.30136e-02,5.19111e-02,9.38068e-02,7.66812e-03,-1.50038e-02,-4.65942e-02,1.80604e-01,-4.83799e-02,1.09477e-02,5.17219e-02,2.67013e-02,1.16336e-01,-1.67414e-01,-1.94119e-01,6.66033e-02,-3.76907e-02,1.09198e-01,-8.28179e-02,1.59841e-01,-1.25925e-01,1.54038e-01,-6.19348e-02,-1.35991e-02,-4.30123e-02,-5.89189e-02,1.37558e-01,-4.60948e-02,2.05673e-01,-2.00452e-02,9.76793e-02,-1.69777e-01,1.50346e-01,4.85989e-02,2.44419e-01,4.16479e-03,8.27047e-02,2.25693e-02,1.17661e-01,1.77343e-01,3.77332e-02,8.37607e-02,
6.35144e-02,-1.50912e-01,-1.94227e-01,-5.88729e-03,6.93597e-02,-1.05996e-01,1.27592e-01,2.05159e-01,2.37750e-02,1.09740e-01,-1.35250e-01,-2.31898e-01,-6.48659e-02,1.51479e-01,1.73502e-01,-5.75459e-01,-2.46934e-01,-2.09696e-01,-3.34001e-01,1.66536e-01,2.21411e-01,-6.10940e-02,2.02219e-01,-8.11107e-02,1.06651e-03,9.03824e-02,-1.04675e-01,6.23184e-02,9.04225e-02,7.41703e-02,-8.95198e-03,2.65162e-01,7.40373e-02,-1.80836e-01,1.00624e-01,-6.77083e-01,5.58760e-02,7.85597e-02,2.93607e-02,2.67898e-02,-2.85209e-01,2.17348e-01,-1.41259e-01,1.36366e-01,1.49893e-01,-1.38075e-01,2.43770e-02,-3.54407e-02,-2.64783e-02,1.36653e-01,
1.72148e-01,2.57161e-02,1.49047e-01,7.63856e-02,-3.84702e-02,1.67651e-01,-2.65568e-02,-1.89749e-01,-6.86322e-02,2.16140e-02,-1.80147e-01,3.29506e-01,-1.65373e-01,2.40128e-02,-1.05317e-01,1.35927e-01,1.69290e-02,-5.29884e-02,3.80311e-02,-8.78092e-02,1.58303e-01,2.20375e-01,1.24116e-01,-8.37897e-02,5.78146e-02,-1.33310e-01,1.47295e-01,8.60604e-02,9.75096e-02,1.68477e-01,1.06025e-01,1.42186e-02,-1.08045e-02,3.10451e-02,-1.12778e-01,1.61107e-02,4.89517e-02,9.40982e-02,-1.09729e-01,1.70315e-01,-1.07647e-01,1.40222e-01,-1.96365e-01,9.39780e-02,1.83287e-01,-5.89939e-02,1.37551e-01,2.25222e-01,-1.85095e-02,7.81666e-02,
-4.24754e-03,-1.03971e-01,-1.97477e-01,7.60092e-02,1.59504e-01,-8.27261e-02,9.83122e-02,-4.65524e-02,1.40046e-01,7.69466e-02,-2.29720e-01,4.81326e-02,8.14185e-02,1.05132e-01,-1.01185e-01,-1.41586e-02,-1.78360e-01,-8.24842e-02,-3.08829e-01,1.59389e-01,8.02346e-02,1.44722e-02,3.23507e-01,-1.17295e-01,-7.61507e-02,-1.24724e-01,-1.40093e-01,3.14270e-02,-2.55979e-02,7.70027e-02,1.99598e-02,1.33139e-02,1.92282e-01,-4.66616e-02,-1.14094e-02,-1.41707e-02,-9.55916e-02,5.15451e-02,-1.77286e-02,-1.16920e-02,2.30553e-01,1.11735e-01,9.35800e-04,1.03855e-01,2.38770e-01,-9.88586e-03,1.47438e-01,1.05640e-02,7.12908e-02,6.49761e-02,
-1.25303e-01,2.34929e-02,-2.65391e-02,-1.42413e-01,7.77087e-02,5.94756e-02,9.95793e-02,2.02533e-01,1.76271e-01,2.34034e-01,1.77414e-01,-1.85542e-01,2.06779e-01,-2.79127e-02,1.72964e-01,-5.43970e-01,-6.39580e-03,-1.10982e-01,-3.58326e-02,2.04419e-01,-1.00802e-01,8.20355e-02,1.54556e-01,-3.94608e-02,1.49499e-01,4.81190e-02,5.52960e-03,8.74894e-02,1.48423e-01,-1.62529e-01,-1.76904e-01,-6.23661e-02,9.45413e-02,1.49163e-01,5.99643e-02,-1.99529e-01,-8.52408e-02,6.61340e-02,8.12199e-02,-1.93721e-01,-4.55903e-02,1.07893e-01,1.37978e-01,-2.16189e-01,1.07406e-01,1.69337e-01,-8.25738e-02,-1.76626e-01,-3.50400e-02,5.16158e-02,
-7.89473e-02,-2.05508e-02,1.68454e-01,5.34035e-02,-4.60615e-02,-6.14147e-03,-1.61145e-01,2.29389e-03,4.23033e-02,-1.66224e-01,2.35176e-01,-5.58466e-01,1.08033e-03,1.86319e-01,5.51571e-02,2.14260e-01,-2.50976e-01,2.15171e-01,-2.02825e-01,1.18155e-01,1.17926e-01,9.72370e-02,4.34720e-02,3.89949e-02,9.28635e-02,-4.30731e-02,-1.77631e-02,-1.87109e-02,9.06081e-02,-1.35912e-02,-6.88477e-03,1.43797e-01,-2.16831e-03,-1.23101e-01,1.42704e-01,-3.07202e-01,-1.65791e-01,4.61599e-02,1.75015e-01,-4.98874e-02,2.43269e-01,-3.52612e-03,-3.09042e-02,5.58757e-02,8.11459e-03,-1.79151e-01,1.76980e-01,1.58005e-01,-6.02299e-02,-9.16349e-02,
1.88947e-03,8.72240e-02,1.28065e-01,1.55405e-01,-5.16241e-02,1.41670e-01,5.18892e-02,-2.04289e-02,-9.53012e-02,5.32524e-02,-2.67402e-01,7.25328e-03,-3.07364e-03,1.69661e-02,-5.74098e-02,-2.49921e-01,1.46716e-01,6.10418e-02,1.17118e-02,1.05536e-02,-1.00343e-01,-8.10637e-02,1.12806e-01,1.68272e-02,1.22288e-01,-2.94012e-02,9.38704e-02,-5.07196e-02,1.66591e-03,4.65942e-02,9.92097e-02,4.07076e-02,7.71899e-02,1.20397e-01,1.24207e-01,-1.25357e-01,-1.02356e-01,-1.44952e-01,-2.61317e-02,1.49281e-01,2.54735e-02,2.07818e-01,-2.21573e-01,7.81297e-02,9.84693e-02,-3.07913e-02,9.71460e-02,-1.86507e-01,-1.08302e-01,-9.39047e-02,
-1.40620e-01,-9.49033e-02,1.82669e-01,3.38953e-02,-2.20192e-02,1.38530e-01,-4.74576e-02,1.82044e-01,-1.05553e-01,-1.47170e-01,8.85874e-02,-1.21501e-01,1.00625e-01,-7.38361e-02,8.87196e-02,2.61057e-01,4.58790e-02,9.36293e-02,-1.01562e-01,2.19057e-02,9.88028e-02,7.00825e-02,-1.28662e-01,-2.51206e-02,8.27839e-03,1.38434e-01,3.38487e-02,2.23725e-01,6.29337e-02,7.55222e-02,1.93943e-02,1.08879e-01,1.61835e-01,-5.41595e-02,9.81252e-02,9.77739e-02,-1.10773e-01,1.00105e-02,4.67948e-02,4.33418e-02,7.16366e-02,-5.17605e-02,6.01712e-02,-6.00209e-02,1.19394e-01,-1.38937e-01,1.04481e-01,8.53333e-02,-5.25817e-02,-7.75298e-02,
-3.51379e-03,-1.24624e-01,-2.73902e-02,-3.61007e-02,1.09899e-01,-8.03042e-02,-7.73284e-02,-7.07546e-02,-3.79298e-02,-1.44291e-01,2.78681e-02,-1.61554e-01,-1.27511e-01,-6.16804e-02,4.77758e-03,-6.74979e-02,2.32377e-02,-1.03632e-01,1.08278e-01,-7.72515e-02,7.51297e-02,8.04859e-02,-1.06126e-01,1.23015e-03,-9.43169e-04,5.49535e-02,9.03820e-02,-6.13071e-02,-1.13833e-01,-4.41859e-02,-7.24924e-02,-1.06613e-01,6.11992e-02,-2.13124e-02,1.02054e-01,-6.25977e-02,3.63072e-02,-1.22448e-01,1.07794e-01,-2.97521e-02,1.71261e-02,1.09680e-01,4.13130e-03,-1.05712e-01,-1.32498e-01,-3.00421e-02,-1.38591e-01,1.48879e-01,-1.11752e-01,-1.19234e-01,
7.08622e-02,3.91335e-02,1.05408e-01,-1.34204e-01,-9.37175e-02,6.50560e-02,1.59887e-01,7.54067e-02,7.58745e-02,2.69565e-01,-2.12889e-01,1.53843e-01,5.05977e-03,-9.92908e-03,3.80424e-02,-2.96955e-01,-2.44497e-03,-2.10657e-02,1.12471e-01,1.34946e-01,-1.90709e-01,-1.24124e-01,7.25490e-02,-8.30855e-02,-4.07183e-02,-4.67041e-02,6.06924e-02,1.58613e-01,4.04764e-02,1.56788e-01,3.58420e-02,8.42613e-03,-1.21900e-01,-8.33687e-02,-5.89492e-02,-3.43731e-03,1.99143e-01,-6.27496e-02,-9.23061e-02,-7.81481e-02,-3.78912e-01,2.09920e-01,4.93256e-02,-5.29934e-02,1.41450e-01,-5.62695e-02,-3.16823e-01,-3.05245e-02,8.93480e-02,7.01898e-02,
2.32218e-02,9.21481e-02,1.48061e-01,1.67301e-01,9.82805e-02,-4.80510e-02,1.47218e-01,2.15148e-01,1.27758e-01,-1.10255e-02,2.36700e-01,-3.24508e-01,-5.80092e-02,-9.14174e-02,1.61905e-01,-2.57084e-01,-4.81126e-02,5.15588e-02,1.50281e-01,9.07627e-02,-2.58700e-02,-8.18556e-02,2.93475e-02,1.43974e-01,1.39842e-01,1.40011e-01,-1.06178e-01,1.67100e-01,-9.65598e-02,-1.77888e-01,-4.35931e-02,8.20448e-02,-3.76398e-02,-1.58274e-01,1.35893e-01,4.60837e-02,4.27416e-02,6.15724e-02,1.48842e-01,2.16545e-02,2.54944e-01,-1.78511e-02,1.03647e-01,-1.08786e-02,1.48862e-01,-9.56489e-02,-7.04781e-02,6.09961e-02,1.40967e-02,8.36577e-03,
-9.35207e-02,1.65519e-01,1.06049e-02,-1.18312e-03,1.93762e-01,6.85221e-02,8.09994e-02,9.24057e-02,1.02418e-01,-1.01748e-01,4.23341e-02,2.67758e-01,8.79094e-02,-1.61460e-01,1.05330e-01,4.10290e-01,-9.39732e-02,-4.01821e-02,4.29368e-02,7.82834e-02,8.66915e-02,-1.82204e-02,2.24278e-02,1.29146e-01,9.94555e-02,1.28034e-01,-4.14162e-02,1.80184e-01,4.80078e-03,-9.20470e-02,-6.78622e-02,1.58215e-01,1.27397e-01,-2.22243e-02,-1.25129e-01,1.31737e-01,-6.17533e-02,3.85628e-03,8.12600e-02,-8.93603e-02,-3.95035e-02,-6.05683e-02,1.57528e-01,-6.96248e-02,2.64693e-02,-2.36355e-03,9.68992e-02,1.77729e-01,-8.21170e-02,3.07463e-03,
5.01389e-02,-1.45038e-01,1.26462e-01,-1.16003e-02,2.27978e-02,-6.34730e-03,1.94596e-01,-7.83724e-03,2.85200e-02,1.94981e-01,-8.35895e-02,2.36123e-02,-1.32989e-01,9.91170e-02,7.83191e-02,-5.41968e-01,9.10275e-02,8.40424e-02,1.15892e-01,1.78978e-01,-2.22602e-01,-5.56250e-02,2.66780e-01,-1.42335e-01,1.04030e-01,1.04598e-01,1.28917e-01,6.77499e-03,1.39903e-01,2.12533e-01,-4.24393e-02,1.38794e-02,-1.67231e-01,-9.80402e-03,-3.42725e-01,-1.99828e-01,2.25426e-01,-9.15796e-02,-1.41578e-01,1.20042e-01,-5.09880e-01,1.60438e-01,9.36581e-02,-6.04054e-02,1.48747e-01,-9.23719e-02,-1.99272e-01,-2.14893e-01,6.56075e-02,1.15592e-01,
-8.22685e-02,1.38714e-01,1.59581e-01,-1.83901e-02,1.20794e-01,-6.96858e-02,1.79437e-01,7.57440e-02,7.73290e-02,-6.76434e-02,-3.20318e-01,3.23787e-01,1.85333e-01,6.40444e-02,7.28937e-04,2.37712e-01,1.42375e-01,-4.16098e-02,-1.09082e-01,8.01066e-02,-2.82868e-02,-1.24936e-01,8.89947e-02,-2.20551e-02,2.07765e-01,4.68586e-02,5.62175e-02,1.64941e-02,-4.23854e-02,-3.27656e-02,7.86956e-02,-3.86479e-02,2.68128e-02,3.31915e-02,-9.68748e-02,-2.88228e-02,-5.08343e-02,-1.41289e-01,7.12976e-02,6.96998e-02,-2.43256e-01,4.47372e-02,1.13153e-01,-2.19138e-01,6.46371e-02,-5.94650e-02,1.43235e-02,1.94512e-02,1.06333e-01,1.42991e-01,
2.07740e-01,-8.19255e-02,-1.54052e-01,1.88048e-01,1.82887e-01,-6.49287e-02,-7.95803e-02,2.04929e-01,-1.20870e-01,1.12222e-01,5.90367e-01,-2.98870e-01,1.01554e-01,2.19094e-02,7.24280e-02,-2.12748e+00,1.00989e-01,-1.66415e-01,-3.55150e-01,1.72412e-01,3.85963e-02,-9.78407e-02,-3.09978e-02,-2.70747e-01,9.51277e-02,-2.46932e-01,-2.77199e-01,-3.41091e-02,1.10991e-01,1.11971e-01,-2.16239e-01,-6.01094e-02,3.71662e-02,-1.45318e-01,-7.48750e-02,-1.71691e+00,-1.54028e-01,1.24186e-01,1.66517e-05,1.04529e-01,-5.57663e-01,2.55896e-01,4.46301e-02,-3.01884e-03,1.25234e-01,1.49285e-01,-3.12775e-01,-3.85101e-01,1.03373e-01,-4.79172e-03,
1.44814e-01,5.42472e-02,1.82189e-01,1.55456e-01,1.44656e-01,-4.98888e-02,-1.03617e-01,1.48751e-01,-8.15412e-02,-3.16498e-02,1.60267e-01,-1.37060e-01,8.15353e-03,-1.34221e-01,-1.11623e-01,3.63146e-03,-8.57585e-02,9.77060e-02,7.45340e-02,9.96684e-03,1.73131e-01,-1.21624e-01,-7.58068e-02,1.21018e-01,6.27798e-02,-3.13053e-02,-1.35647e-01,1.06998e-01,1.30985e-01,4.55593e-02,-3.56320e-02,2.02718e-01,-6.00522e-03,6.22753e-03,1.56518e-02,-4.38707e-02,-3.06043e-02,-9.81596e-02,-3.19919e-02,1.26250e-01,1.55411e-01,6.40487e-02,1.63733e-01,2.57372e-01,7.73035e-02,1.02691e-01,3.31276e-02,-9.98984e-02,-5.14050e-02,1.92084e-02,
1.33672e-01,1.11357e-01,7.02807e-02,1.19404e-02,7.57613e-02,-5.00244e-02,1.11849e-01,1.87968e-02,-9.19929e-02,1.40119e-01,5.34344e-03,1.18127e-01,-1.19661e-02,-1.16511e-02,8.63181e-02,-4.33930e-01,9.73506e-02,7.45950e-02,-4.65845e-02,1.22750e-01,-1.00891e-01,-2.15932e-01,1.03081e-01,5.79919e-02,8.25060e-03,-3.25996e-02,-9.65002e-02,4.57246e-02,-1.26914e-02,1.46641e-01,-9.06944e-02,1.62242e-01,6.30761e-03,-7.33735e-02,6.08092e-02,-1.48948e-01,3.55905e-02,1.21877e-01,-4.92032e-02,-1.26991e-01,-2.74499e-01,1.29694e-01,5.86820e-02,-5.58963e-02,-3.65637e-02,5.87720e-02,-6.26343e-02,-1.89147e-01,8.62512e-02,-5.39282e-02,
4.50366e-02,2.01327e-01,1.50383e-01,1.03124e-01,9.84495e-02,1.16453e-01,1.60240e-02,-1.01325e-01,1.73656e-01,-9.68241e-02,-4.31083e-01,3.38702e-01,2.16321e-02,2.33869e-03,-9.48313e-02,5.39093e-01,4.19113e-02,1.22676e-01,5.88404e-02,-2.84431e-02,-2.42977e-02,-1.31799e-01,2.87887e-01,8.66358e-02,1.03691e-01,8.68440e-02,-7.16938e-02,1.78566e-01,3.65033e-03,8.02139e-02,-2.50785e-02,1.97506e-02,9.72864e-02,3.97316e-02,-1.39176e-01,-1.76109e-01,2.14281e-02,-3.96603e-02,-6.25952e-02,1.93688e-02,-3.16305e-01,-5.49326e-02,1.23822e-01,8.31787e-02,1.80312e-01,-1.97632e-01,-1.87239e-01,2.83258e-01,-2.82071e-02,-1.09489e-01,
-7.32455e-02,-9.85944e-04,1.16066e-01,-1.74286e-01,-9.20125e-02,-2.29429e-02,1.57726e-01,-1.95953e-01,-2.04626e-01,-8.04757e-02,-7.62719e-01,5.25267e-01,4.65891e-02,-1.18573e-01,1.37942e-01,1.09346e+00,-1.30810e-01,-1.82367e-01,1.43988e-02,-1.39197e-01,-1.11866e-01,1.84932e-02,2.53664e-02,8.56214e-02,-8.70410e-02,-1.05082e-01,-4.57879e-02,4.03504e-02,7.01859e-02,5.29577e-02,6.95638e-02,-1.01231e-01,-1.13799e-01,1.44118e-01,7.73681e-02,-1.37878e-01,1.09671e-01,-1.38162e-01,1.40302e-01,2.66639e-01,5.33280e-01,2.59861e-03,9.55518e-02,2.76526e-02,1.22220e-01,5.66919e-02,-1.20975e-02,-1.81362e-01,-3.61670e-02,-4.04393e-03,
-1.05997e-01,1.10443e-01,1.02802e-01,-1.06632e-02,2.64724e-02,-2.63354e-02,-2.57026e-02,-1.99120e-01,-7.78570e-02,-1.57001e-01,5.96897e-02,1.13460e-01,-5.51868e-02,-6.51570e-02,4.13959e-02,4.85955e-01,4.66605e-02,1.30793e-01,1.02473e-01,-3.37373e-02,-1.28597e-01,-5.94262e-02,-2.81181e-02,3.72768e-02,1.86687e-02,9.35715e-02,1.19415e-01,1.14123e-01,-8.40039e-04,2.17134e-02,1.17813e-01,1.00046e-01,1.52147e-02,2.84523e-02,1.18207e-01,1.46138e-01,4.03651e-02,3.00775e-02,-1.33546e-01,1.48886e-01,-9.32762e-03,1.20581e-02,1.37196e-01,-3.38331e-02,-1.57393e-02,-4.13971e-03,1.52423e-01,3.07775e-01,-8.11661e-02,5.74018e-02,
-1.03199e-01,1.28053e-01,7.13898e-02,1.23888e-01,-7.37948e-02,-1.27347e-01,2.49729e-02,2.80968e-02,-3.91513e-02,1.44322e-01,1.88316e-01,-4.97029e-01,-4.00798e-03,1.04242e-01,-5.67606e-02,-5.55635e-01,1.01407e-01,-9.71847e-02,1.40704e-01,2.12499e-01,1.31759e-01,9.26769e-02,-1.76240e-01,-7.67591e-02,4.70434e-02,3.82778e-02,-9.99062e-02,1.29611e-01,9.80503e-02,-4.70055e-02,-6.90165e-03,-1.25890e-01,5.98938e-02,9.46171e-02,-4.10186e-02,-9.41298e-02,-6.48975e-02,3.40851e-02,-1.13724e-01,8.07819e-02,7.06525e-01,1.72604e-01,5.38339e-02,-1.05377e-01,7.58984e-02,-2.22507e-02,-1.54038e-01,-2.29083e-01,9.02202e-02,-8.27836e-02,
-8.20294e-02,-7.72710e-02,-1.37899e-01,-1.54462e-01,1.06384e-01,-6.61096e-02,-6.10111e-02,1.79199e-02,4.21953e-02,4.43370e-02,-1.24496e-01,4.46670e-02,-1.19963e-01,-7.63518e-02,-7.71511e-04,-6.61325e-02,-1.32205e-01,1.04618e-02,5.41855e-02,-5.45090e-03,-1.05192e-02,-1.31278e-01,-8.41081e-03,-1.36232e-01,5.04584e-02,-9.23620e-02,-8.82019e-02,-9.37534e-02,-1.47407e-01,2.47549e-02,-1.29474e-01,5.17453e-02,1.14796e-01,8.68492e-02,-7.20683e-02,-1.12299e-01,1.06019e-01,-1.26111e-01,-1.28342e-01,1.08402e-01,3.12151e-03,-1.11179e-01,-6.03565e-02,1.64806e-03,-4.62418e-02,-1.83854e-02,7.26271e-02,-1.42715e-01,1.32695e-01,-1.14147e-01,
1.59535e-02,-2.27220e-01,5.57470e-02,2.86306e-02,-4.66277e-03,1.12368e-01,7.17412e-02,3.46559e-02,-7.21318e-02,9.63597e-02,4.59603e-01,-6.25242e-01,-1.04735e-01,2.44135e-01,1.49504e-01,1.69268e-01,-4.69735e-02,-6.39518e-02,-3.38914e-02,1.59971e-01,8.37310e-03,-5.27229e-02,-2.94461e-01,3.15855e-01,1.47001e-01,2.41483e-01,-2.96517e-02,-1.21787e-02,1.48668e-02,-7.52824e-02,1.80779e-01,3.98363e-02,-2.22122e-02,1.44067e-02,-3.01531e-02,3.63778e-01,-8.96010e-02,-8.43311e-02,-5.99661e-02,4.96857e-02,-2.94905e-01,-2.38234e-01,1.85187e-01,-3.46663e-02,-1.49409e-02,-9.03997e-02,1.10775e-01,3.18118e-01,-7.74195e-02,9.86423e-02,
-1.16651e-01,4.98101e-02,-3.19670e-02,5.00909e-02,-5.46791e-02,-6.24024e-03,-1.19620e-01,9.84586e-02,8.21725e-02,1.29583e-01,2.21762e-01,-5.99512e-01,-3.54779e-02,1.08680e-01,1.43137e-01,3.73735e-01,1.44574e-01,-9.72475e-02,-2.63676e-01,-3.09842e-01,9.82992e-02,6.57223e-02,-5.53566e-01,-6.98227e-02,-7.79704e-02,2.85018e-02,-1.34141e-02,1.88593e-01,5.09877e-03,-1.54875e-01,1.47992e-01,8.64730e-02,1.70652e-01,-9.15556e-02,1.52632e-01,9.08730e-02,4.93215e-02,-3.79624e-02,-2.01391e-02,3.59594e-02,-9.37782e-01,1.35451e-01,1.24270e-01,1.24347e-01,-4.65438e-02,6.88657e-02,1.00739e-01,9.65653e-02,-1.74606e-02,7.40624e-02,
2.19057e-02,7.79363e-02,-3.14798e-01,8.45999e-02,5.84509e-02,-1.82371e-01,1.44581e-01,1.32411e-01,9.35141e-02,1.51918e-01,4.62761e-01,-3.75958e-02,-2.30858e-02,5.42413e-02,-8.12780e-03,-4.96229e-01,-1.52079e-01,-2.48449e-01,-3.30881e-01,2.47044e-01,1.38551e-01,-1.88418e-01,-7.13532e-02,-2.05044e-01,-4.93330e-02,-1.26660e-01,-1.04653e-01,1.15697e-01,1.24688e-01,-2.57237e-02,-6.38931e-02,-1.46060e-01,2.38038e-01,-4.94555e-03,1.65655e-01,-6.36638e-02,-1.47266e-01,8.49169e-02,-9.64767e-02,1.56833e-01,1.48717e+00,1.65956e-01,7.12223e-02,1.59988e-01,-5.93642e-03,-6.15776e-02,6.85251e-02,9.98312e-02,1.08690e-01,3.70557e-02,
8.02977e-02,1.44584e-02,9.29238e-02,-4.15056e-02,7.26000e-02,1.31512e-01,1.01165e-01,-8.31206e-02,-4.70652e-02,-1.36116e-02,1.04940e-01,3.49680e-02,-4.31883e-02,-8.35118e-02,-8.07979e-02,2.76142e-02,1.22618e-01,-1.13532e-01,-1.42549e-02,-1.39249e-01,6.68418e-02,-3.40214e-02,-3.55700e-02,3.38769e-04,-1.01113e-01,-5.15358e-02,-4.69735e-02,1.94159e-02,2.79245e-02,-2.57683e-03,-1.42701e-01,1.25041e-01,-2.51260e-02,-2.88576e-02,6.40369e-02,-5.97894e-02,-1.21205e-01,-7.86398e-02,-9.73693e-02,-4.54049e-02,-9.27738e-02,-2.03437e-02,-5.46006e-02,-8.92090e-02,-1.72359e-02,-9.38899e-02,-5.80685e-02,-6.17413e-02,2.65981e-02,5.29394e-02,
9.09680e-02,-1.10036e-01,1.96208e-01,4.37255e-02,-8.05784e-02,6.00423e-02,-1.40862e-02,-1.49726e-01,1.35186e-01,-1.27135e-01,-1.05514e-01,9.07878e-02,1.13335e-01,1.47442e-01,1.42598e-01,3.33621e-01,-2.28624e-02,1.10363e-02,7.59213e-02,-1.93799e-01,9.27475e-02,2.04762e-01,5.66599e-02,8.93477e-03,-4.20097e-02,-4.55697e-02,-3.33645e-03,-1.01803e-01,-1.68802e-03,-1.38057e-01,5.29896e-02,-6.30726e-02,-6.28400e-02,-5.66069e-02,1.08563e-01,7.89819e-02,1.70839e-01,9.86930e-03,1.44631e-01,5.75312e-02,-2.90265e-03,-5.53523e-02,4.69423e-02,6.32587e-02,4.00721e-02,-1.83369e-02,4.77059e-02,2.57628e-02,1.13142e-01,1.50050e-01,
1.49968e-01,1.27753e-01,5.68145e-02,-8.03048e-02,7.66638e-02,9.74452e-02,1.03151e-02,2.00066e-01,-3.08260e-02,4.40238e-02,-3.54915e-01,1.49279e-01,-1.72594e-02,-5.26657e-02,-1.29902e-01,-9.90371e-02,1.55862e-01,4.18083e-02,1.22106e-02,1.92318e-01,-4.68317e-02,-9.74095e-02,1.32102e-02,-4.38689e-02,-1.88324e-02,-2.34491e-03,-5.29373e-02,1.07075e-01,1.10556e-02,-4.34454e-02,-6.59849e-03,1.65773e-01,1.53450e-01,-1.46603e-01,-6.43080e-02,-1.61827e-01,1.45129e-01,-1.26704e-01,-5.61014e-04,1.27164e-01,-1.90524e-01,1.79477e-01,6.39527e-02,5.22857e-02,-3.40292e-02,-1.33789e-01,7.73172e-02,-9.43151e-02,3.14619e-03,-1.19876e-01,
2.09591e-01,-7.08041e-02,1.54168e-01,3.73146e-02,4.67516e-03,-7.15811e-04,6.51299e-02,-1.14731e-01,1.20527e-01,-3.53429e-02,4.30782e-02,2.28657e-01,-1.05292e-01,-1.32160e-02,7.39619e-02,2.41596e-01,6.40615e-02,1.79113e-01,-5.11653e-02,1.69204e-02,2.10780e-01,2.31203e-01,-5.09610e-02,8.30954e-02,-5.28392e-03,-3.96611e-02,3.03602e-02,-3.68893e-02,1.17430e-01,1.32475e-02,-8.66497e-03,-5.61874e-02,-3.55329e-02,4.87064e-02,2.65056e-02,3.53852e-02,-4.21657e-02,-5.02829e-02,-1.26111e-01,1.24222e-01,2.36852e-02,-2.82098e-02,-4.00365e-02,1.46914e-01,-3.33831e-02,1.92829e-01,-1.65224e-02,1.24429e-01,1.17942e-01,1.09316e-01,
7.87423e-02,-1.19526e-02,1.40424e-01,-1.70088e-01,-5.72656e-02,1.05802e-01,-1.40446e-01,-1.38293e-01,1.48379e-04,-2.04949e-01,2.74337e-01,-1.76617e-01,-7.35288e-02,-5.54633e-02,9.08659e-02,-4.79892e-01,1.03407e-02,3.74345e-03,2.41793e-01,2.28798e-01,1.16525e-01,1.04408e-01,-1.83963e-01,2.68358e-01,1.85892e-01,4.25806e-02,4.86069e-02,-5.68717e-02,2.71919e-01,-4.60175e-02,1.65041e-01,9.86086e-02,-8.81422e-02,1.61831e-01,-3.91010e-01,9.43660e-03,1.60220e-01,-6.72972e-02,9.52723e-02,-1.65007e-02,3.44344e-01,-2.78161e-01,1.82811e-01,9.40676e-02,3.15382e-02,-7.02488e-02,1.52138e-01,1.81942e-01,-3.43552e-02,1.18785e-01,
1.11668e-01,6.99747e-02,9.81250e-02,-1.08032e-01,-9.68267e-03,1.55431e-01,-5.28202e-02,-1.54253e-01,1.74239e-01,-5.93722e-02,-6.58489e-01,-3.78403e-02,-1.48944e-01,1.37016e-01,8.53866e-02,2.37205e-01,-1.63093e-01,1.17323e-01,1.30801e-02,8.78654e-02,-4.27620e-02,3.18434e-02,-1.73663e-01,1.30676e-01,1.58054e-01,1.99865e-01,3.61571e-02,1.92155e-01,9.88692e-02,1.22863e-01,-6.87037e-02,-3.50434e-02,-1.11315e-01,7.68987e-02,-3.09060e-02,1.29933e-01,-1.67869e-02,7.17566e-02,-9.54903e-02,-1.08282e-01,3.40764e-01,-2.18853e-01,1.18259e-01,-7.24533e-02,3.96496e-02,-1.34176e-01,1.54107e-01,3.17051e-01,-8.40720e-02,2.47334e-02,
1.72091e-01,
-1.37099e+00,
4.92494e-02,
-7.03845e-02,
7.60021e-02,
1.64576e-01,
-2.80825e-01,
2.75722e-02,
3.95868e-01,
2.38284e-01,
-1.12782e-01,
1.51379e-01,
6.99607e-02,
1.39872e-01,
-4.58642e-02,
-3.24809e-02,
-4.80208e-02,
-3.13764e-02,
-5.72324e-01,
1.29354e-02,
3.36039e-01,
-4.21742e-02,
1.26176e-01,
1.46641e-01,
3.01296e-01,
1.00651e-01,
5.92222e-02,
6.57543e-02,
1.42002e-01,
-4.77100e-02,
1.83245e-01,
7.59052e-02,
3.73222e-02,
-3.38952e-02,
6.70056e-02,
-1.03047e-01,
6.23538e-02,
-6.05314e-01,
8.73497e-02,
1.04263e-01,
6.21544e-02,
4.37946e-01,
1.03525e-01,
1.98464e-01,
4.38580e-02,
4.24010e-02,
4.76044e-02,
1.15782e-01,
2.63686e-01,
2.38856e-01,
1.71359e-01,-4.35111e-01,-8.42895e-02,-9.50961e-02,-7.14114e-02,-2.09164e-02,6.12185e-01,-8.19296e-03,5.68723e-01,1.28125e-02,-7.25554e-02,-1.46889e-02,-7.55719e-02,7.18155e-03,1.69267e-02,2.16722e-01,1.37206e-02,-9.56123e-02,-7.46165e-01,4.54277e-02,-1.90053e-01,6.75600e-02,4.95582e-03,-9.48414e-02,2.97868e-01,-6.32525e-02,2.15295e-02,8.70601e-02,5.68362e-02,-8.52078e-02,7.40813e-02,6.82782e-02,1.06572e-01,-4.96267e-01,-9.83456e-03,-4.93020e-02,1.52451e-01,6.55032e-01,1.11295e-01,-1.92837e-01,6.62208e-02,-1.89875e-01,2.49528e-01,-3.42814e-01,2.01911e-02,1.94114e-01,-9.99148e-03,3.43123e-02,-2.98533e-01,2.76162e-02,
1.01055e-01,-1.19120e+00,8.57824e-02,1.45218e-01,-8.17108e-02,1.70206e-03,-3.37121e-01,-6.81083e-02,-6.80547e-02,1.98355e-01,-1.71538e-01,-5.65458e-02,-3.04986e-02,1.72603e-01,5.52524e-02,-1.22809e-01,1.20470e-02,-2.87597e-02,-5.27960e-02,6.01003e-02,-3.56525e-01,-3.70147e-02,-1.98037e-01,-1.18653e-02,1.23115e-01,-1.49341e-01,7.47917e-02,-4.13426e-02,-1.48948e-01,1.06352e-01,4.54307e-02,-3.47224e-01,-7.59694e-02,2.93255e-01,1.50785e-02,-4.97370e-02,-9.85747e-02,1.62619e-01,7.39321e-02,2.81245e-02,9.72386e-02,4.94549e-01,2.35780e-01,1.83479e-01,7.21172e-02,6.68111e-02,-6.46234e-02,1.14528e-02,2.64245e-01,1.59179e-01,
-1.05145e-01,1.75065e-02,-1.52775e-01,2.15710e-01,1.61248e-01,-1.05416e-01,1.83885e-02,-7.48095e-02,-2.35604e-03,-1.70897e-01,-1.72968e-01,-1.22119e-01,-1.66190e-01,-1.05600e-01,-1.17018e-01,-6.42517e-02,-2.09217e-01,5.39917e-02,2.11729e-02,2.30172e-01,3.88738e-02,-9.39405e-02,-1.18077e-02,-5.24776e-02,5.20041e-02,3.21088e-02,1.36418e-01,6.99089e-03,5.28571e-02,2.16787e-01,1.57156e-01,-6.47392e-02,1.18570e-01,-1.62892e-02,1.11285e-01,1.75522e-01,1.52732e-01,1.85390e-03,5.56170e-02,3.33620e-03,-8.04195e-02,-3.20079e-02,-2.78802e-03,-1.04435e-02,1.29914e-01,-1.92159e-01,1.53903e-01,-8.76197e-02,1.28525e-02,4.89599e-02,
1.43442e-01,1.20241e-03,1.32938e-01,-1.71924e-01,5.08273e-03,1.54446e-01,1.09098e-02,-1.15473e-01,-1.49758e-03,-2.19363e-01,-1.27315e-01,1.99034e-01,1.48217e-01,-1.03139e-01,1.19679e-01,-5.80479e-02,-5.26261e-02,-1.97374e-01,1.15662e-02,1.58318e-01,2.49214e-02,-1.97561e-01,-9.13883e-02,1.99124e-01,6.92142e-02,-1.58570e-01,7.90330e-02,-5.28430e-02,5.04325e-03,1.67808e-01,1.19978e-01,-2.24606e-02,1.89335e-01,-1.39393e-02,-8.52905e-02,5.41661e-02,-5.95984e-02,1.86505e-03,-2.99786e-02,-2.49585e-03,1.52758e-01,-6.42185e-02,1.92766e-02,-1.05604e-02,9.63607e-02,1.19024e-01,-4.12734e-02,-1.50323e-01,1.72867e-02,8.19751e-02,
-2.12322e-02,
8.38818e-02,
2.10793e-02,
-1.37441e-01,
