// Neural Network File Format by Kyle Julian, Stanford 2016
2,6,4,50,
6,50,4,
0,
0
0
0
0
3.68294e-01,2.54236e-01,3.69619e-01,-9.75102e-02,2.79297e-01,7.44057e-01,
-6.20223e-02,-8.24573e-02,5.61517e-01,-8.60656e-01,-1.86587e-01,2.57111e-02,
-3.49852e-01,4.33398e-02,-4.84141e-02,-2.38611e-01,-3.10724e-03,-9.17352e-01,
-9.39659e-02,1.27611e-01,-1.87336e-01,3.37627e-01,8.48649e-01,1.21171e-01,
-5.92486e-02,2.70200e-01,-8.98971e-02,5.14056e-01,-4.26856e-01,-6.05769e-01,
4.69032e-02,-1.72587e-01,-1.04609e+00,-2.01801e+00,-6.56707e-02,-1.16811e-01,
8.67487e-02,-1.07765e-01,1.22536e+00,-4.62943e-01,-6.24091e-02,4.52409e-02,
3.65384e-01,-9.27731e-02,-2.33933e-01,4.47391e-01,6.36837e-01,-6.52766e-01,
-4.68005e-02,-2.21694e-01,7.56433e-01,-3.46548e-01,4.21878e-01,-1.73162e-01,
1.07807e-01,2.69546e-01,-1.06549e+00,-2.40141e-01,-1.24546e-01,-1.28822e-03,
-3.14169e-03,7.29523e-03,4.68782e-01,1.19738e+00,3.66542e-02,4.67977e-02,
3.72286e-01,4.92739e-02,9.50194e-01,1.25233e-01,-4.04363e-01,-2.83793e-01,
-3.46694e-01,2.65282e-02,8.36333e-01,5.30757e-01,1.12534e-01,5.49759e-01,
6.86914e-02,-3.01185e-01,1.10289e-01,-5.69496e-01,4.72354e-01,6.79857e-01,
9.39724e-02,-1.28943e-01,1.78732e-01,-3.34547e-01,-8.45163e-01,-1.18239e-01,
-1.77001e-01,-2.97645e-01,6.95400e-01,1.34737e-01,1.05839e-01,-2.70638e-02,
2.33038e-03,2.82764e-02,5.76711e-01,-1.13285e+00,3.85300e-02,-5.21427e-02,
-1.39533e-02,4.22256e-02,-4.54295e-01,-1.18580e+00,-6.95414e-02,-6.41290e-02,
-5.41414e-02,-5.07267e-02,-2.53864e-01,1.13042e+00,9.98822e-02,6.39421e-02,
-4.30257e-01,-2.91139e-01,-3.91306e-01,1.17903e-01,-3.23421e-01,-8.56471e-01,
1.60326e-01,-1.39459e-01,-8.54118e-01,1.62336e+00,-1.63598e-02,1.35876e-01,
2.38394e-02,-7.50268e-02,6.95243e-01,1.49909e+00,5.55606e-02,7.12194e-02,
7.29938e-02,-3.05132e-01,-6.82579e-01,6.24463e-01,-2.19745e-02,3.72412e-02,
-3.96120e-03,3.12578e-02,-4.25869e-01,1.23998e+00,-6.41586e-02,5.25492e-02,
-1.37465e-02,-1.67786e-01,8.75961e-01,-1.57358e+00,2.07653e-01,-1.12113e-01,
3.92494e-01,1.23010e-01,1.11737e+00,1.18499e-01,-3.99888e-01,-2.80930e-01,
3.29101e-01,-3.66125e-01,4.18276e-02,-3.62751e-01,-1.05930e-01,-1.80200e-01,
-2.06073e-01,9.30446e-02,-4.47400e-01,-1.64845e-01,9.60350e-02,-1.20654e-02,
-1.85595e-01,-5.18554e-02,-2.43746e-01,-1.20350e+00,9.08161e-02,-2.84887e-01,
-5.04813e-01,1.46600e-01,-6.52826e-01,-3.04116e-01,1.25562e-01,2.64634e-01,
1.25052e-01,-2.67305e-01,-1.40799e-01,-3.61358e-01,-3.52072e-02,-4.82240e-02,
2.49119e-02,1.75922e-01,-8.63616e-01,2.15208e-01,-4.09115e-01,1.46216e-01,
-5.13504e-03,7.42959e-03,-5.26467e-01,1.97887e+00,-3.31608e-02,1.12829e-01,
-1.82713e-01,1.59750e-01,9.58289e-01,-1.82153e+00,1.76529e-02,-1.52489e-01,
3.24393e-01,-5.62423e-02,-2.53939e-03,4.51261e-01,5.85302e-01,-5.63895e-01,
-8.40528e-02,1.92722e-01,-1.36459e+00,6.28602e-01,1.06825e-01,-3.65616e-02,
2.16331e-01,2.69044e-02,1.28812e-01,1.44421e+00,-8.47546e-02,3.18640e-01,
2.11813e-01,-8.48094e-02,-5.76640e-01,1.93292e+00,8.76789e-03,1.72364e-01,
-9.92160e-02,-1.51337e-02,-8.82643e-01,-6.70823e-01,-3.72844e-01,1.47832e-01,
2.43531e-01,-2.56157e-02,-7.89847e-01,-4.77280e-01,-1.04018e-01,-4.43376e-01,
-1.13587e-01,2.39513e-01,4.10642e-02,-1.30837e+00,-2.98375e-02,-3.72974e-02,
-4.88366e-03,1.51785e-02,9.47537e-01,1.63191e+00,9.80616e-02,8.81697e-02,
2.66801e-01,-2.88040e-02,3.70220e-02,1.82023e-01,5.94891e-03,6.99942e-01,
8.06641e-02,2.51195e-01,1.31855e+00,-1.19921e-01,9.20031e-03,-4.50217e-02,
-2.89423e-01,-9.10221e-02,-8.20175e-01,-9.08118e-02,2.95871e-01,2.07097e-01,
2.79778e-03,-1.47232e-01,1.15520e+00,-2.67084e-02,3.58406e-01,-1.10329e-01,
3.14762e-01,-1.18448e-01,-2.27864e-01,8.01574e-02,-4.54605e-02,8.23216e-01,
1.92637e-01,-9.64145e-02,-2.63477e-01,1.67181e+00,1.01601e-01,5.05894e-02,
-3.73116e-01,6.85413e-02,4.10995e-02,-5.11137e-01,-6.70186e-01,6.51601e-01,
-8.12517e-03,-1.69633e-02,-1.38870e+00,2.22832e+00,-1.17215e-01,1.25550e-01,
4.76162e-02,
-3.07286e-01,
5.98187e-01,
2.43039e-01,
6.45825e-02,
-1.90360e+00,
2.86068e-01,
-2.31805e-01,
-3.74656e-01,
-1.43844e-01,
2.91880e+00,
-1.18281e-01,
1.53276e-01,
-1.05002e-01,
-2.40225e-01,
8.74703e-02,
2.74216e+00,
2.17065e+00,
4.14978e-01,
-7.12467e-02,
-1.66820e-01,
1.61549e+00,
7.09585e-01,
2.45319e+00,
-2.40624e-01,
-1.28732e-01,
-3.15124e-01,
-8.68992e-02,
-9.54314e-01,
5.99197e-01,
1.50349e-01,
2.15221e-01,
5.70137e-01,
1.50842e-01,
-2.28991e-01,
-3.83544e-01,
1.26315e+00,
-6.13505e-01,
6.66129e-03,
-5.90801e-02,
-1.42738e+00,
-8.78846e-01,
-4.55861e-01,
1.58729e-01,
1.07921e-01,
-1.77451e-01,
-6.10211e-01,
6.59668e-01,
2.60880e-01,
-2.00388e+00,
8.96587e-02,-6.80118e-02,1.52108e-01,-2.00433e-02,3.88454e-02,3.95047e-01,-3.32734e-01,-1.03874e-01,-4.79597e-02,2.66447e-01,5.81113e-01,-1.91817e-01,-1.74432e-01,-3.18053e-02,7.20007e-03,-2.24719e-01,1.16716e+00,-1.12813e+00,1.38165e-01,-8.68945e-02,-2.50066e-02,7.39201e-01,1.57661e-01,-1.40434e+00,-2.01175e-01,8.64655e-02,-1.46864e-01,7.20916e-02,-2.01986e-02,7.30812e-02,1.78976e-01,2.56662e-01,-4.23366e-01,-1.47029e-01,-4.60252e-02,2.15482e-01,-6.41908e-03,1.45820e-01,2.49066e-02,1.74913e-01,-3.49009e-01,-4.68694e-01,-7.60233e-02,-2.08861e-01,1.26098e-01,-2.44636e-01,-1.35444e-01,1.30544e-01,1.27521e-01,6.30952e-01,
-1.12626e-01,-1.74884e-01,1.41845e-01,7.87487e-02,9.84966e-02,2.43416e-01,-3.10949e-01,-1.60185e-01,-1.68528e-01,-1.26481e-01,-1.70384e+00,3.12175e-01,3.03237e-02,-9.51493e-02,-7.99520e-02,1.20974e-01,1.10620e+00,-5.45182e-01,3.65647e-01,4.94826e-02,-7.56619e-02,6.05574e-01,5.72597e-02,4.71711e-01,-1.64497e-01,-3.27844e-01,-6.82633e-02,-6.76829e-02,-4.43789e-01,2.86876e-02,5.64280e-02,2.21360e-01,-8.03364e-01,-3.39970e-01,9.97211e-02,2.87143e-01,3.96394e-01,2.86143e-01,-1.54430e-01,-9.82058e-02,-1.70117e-01,7.59575e-01,3.75349e-02,2.40814e-02,4.64142e-02,1.09559e-02,-1.32757e-01,2.04094e-01,1.14888e-01,-2.66963e-01,
2.10552e-01,-9.42697e-03,1.04609e-01,4.14149e-01,-1.74972e-01,-7.80015e-03,-2.66924e-02,8.62279e-02,7.30773e-02,-1.87015e-02,1.90899e-02,-1.47964e-02,7.00740e-02,1.55117e-01,-4.10079e-01,8.51061e-03,-1.13063e-02,-9.76500e-03,-7.44281e-04,-1.84467e-01,-2.27924e-01,9.62939e-03,5.25865e-03,1.81050e-03,-5.20570e-03,-3.16109e-01,-5.18190e-03,3.88459e-03,-2.38597e-02,4.88746e-04,3.04165e-03,-1.24434e-01,1.92402e-03,1.97301e-01,4.45334e-01,1.91427e-02,1.50801e-02,6.95053e-03,-1.10266e-02,-9.00892e-02,-1.64823e-02,1.50526e-02,-1.26831e-01,3.65598e-04,4.37496e-01,6.91577e-02,-6.24677e-03,2.86624e-03,-4.70743e-01,5.83892e-03,
3.22240e-01,3.75432e-03,-2.47505e-01,2.91788e-02,-2.29710e-01,-1.21854e-03,1.91387e-02,-7.74849e-02,6.22538e-03,-5.19238e-03,4.69304e-03,-1.55672e-02,8.90537e-02,2.04628e-01,-2.68288e-02,3.05378e-03,-6.17091e-03,-6.83887e-04,-3.83996e-03,-2.82399e-01,1.56767e-01,9.18961e-03,1.64904e-03,-6.64807e-03,-1.86394e-04,-1.34593e-01,-3.13996e-03,1.93487e-03,-7.94919e-03,-1.38689e-03,5.48775e-03,-7.18691e-03,-3.46319e-03,-1.33963e-01,-4.02852e-01,-1.37012e-02,7.43841e-03,-3.15980e-03,-7.76955e-03,-1.11070e-01,-4.23097e-03,1.10423e-02,3.17830e-01,-2.21116e-03,1.92938e-01,6.53321e-03,8.31537e-03,-3.69101e-04,4.21849e-01,-2.97185e-03,
6.28046e-02,
8.64631e-01,
-1.26474e-01,
2.86198e-02,
