// Neural Network File Format by Kyle Julian, Stanford 2016
3,6,4,100,
6,100,100,4,
0,
0
0
0
0
-2.71575e-01,-1.08069e-01,-4.33319e-01,-6.86339e-01,-8.35791e-02,3.44915e-02,
8.63368e-02,1.76443e-01,-1.53540e-01,-5.98744e-01,1.31187e-02,3.94962e-01,
2.24348e-01,-1.74377e-02,-4.04176e-01,-1.07666e-01,-5.19714e-01,3.55339e-01,
2.35382e-01,1.42125e-01,-2.33253e-01,-5.67979e-01,1.85120e-01,-1.46097e-01,
2.16412e-01,-1.94759e-01,-4.71016e-01,3.38593e-01,-4.45910e-01,-6.61316e-01,
1.33432e-02,2.71731e-03,4.98239e-01,-9.46634e-01,6.48835e-02,8.71595e-03,
-1.27608e-01,2.81041e-02,2.41355e-01,6.23784e-01,-1.38278e-01,2.18006e-01,
4.91404e-02,1.97341e-01,2.92953e-01,-7.13344e-02,2.50815e-01,-2.40190e-01,
-1.22775e-01,1.88649e-01,1.56554e-01,-7.86303e-02,-2.47937e-01,6.47757e-02,
-1.34875e-02,-3.92525e-04,-4.29257e-01,1.19185e+00,-1.96642e-02,4.50055e-02,
-3.21773e-02,1.59055e-02,3.46329e-01,9.86563e-01,2.06116e-02,4.92267e-02,
-4.01132e-03,2.70826e-03,-3.88107e-01,1.09916e+00,-2.88245e-02,4.97873e-02,
1.22081e-02,4.81617e-03,1.12507e+00,-6.74019e-01,9.21530e-02,-3.14924e-02,
-1.83838e-01,-5.91137e-02,2.32308e-01,-7.66328e-01,7.12022e-02,-2.40741e-01,
2.39728e-01,-3.39238e-02,4.99893e-02,1.19118e-01,2.29288e-01,1.99644e-01,
1.18074e-01,2.19475e-01,-3.63098e-01,2.68873e-01,-1.03946e-01,6.56761e-02,
1.59526e-01,-1.63467e-02,-3.41322e-01,-1.37652e-03,-3.67861e-02,9.97450e-03,
-2.30180e-01,2.00230e-01,-9.26464e-02,5.58360e-01,3.67384e-03,-1.68767e-01,
-1.86068e-01,1.68379e-01,4.13837e-01,-2.92714e-01,3.83093e-01,5.72967e-01,
2.01616e-01,-1.10436e-01,5.17469e-01,6.06062e-01,-3.14208e-01,-4.28334e-02,
5.63438e-02,-7.83351e-03,-7.99865e-01,3.74825e-01,-8.02448e-02,3.72879e-02,
1.38167e-01,1.13151e-01,-4.59291e-01,-8.28019e-01,-6.76481e-02,-5.72889e-02,
-1.03446e-01,-1.46920e-01,5.26179e-01,3.80349e-01,-6.62859e-03,5.88388e-03,
-9.34251e-02,8.24000e-02,1.83237e-01,-1.36996e-01,1.91268e-01,2.77589e-01,
8.09652e-02,2.43230e-01,1.40190e-01,-6.24140e-01,-5.13857e-02,-2.65172e-02,
-7.70580e-02,-1.57553e-01,-5.44256e-01,4.90682e-01,9.83384e-02,-3.50026e-02,
-1.18883e-01,-1.27749e-01,-1.70681e-01,3.20149e-01,-1.02926e-01,-4.48567e-02,
-1.50832e-03,2.54382e-02,-1.99263e-01,-1.05235e+00,-2.64587e-02,-5.15355e-02,
1.49819e-01,4.46430e-04,3.23589e-02,3.53550e-01,-2.14972e-02,-6.00770e-03,
-3.35360e-03,8.39398e-03,-2.18070e-01,-3.77346e-01,-2.02680e-02,-1.67343e-02,
3.73879e-01,6.86179e-02,8.76281e-02,8.09347e-01,2.21223e-01,2.70032e-01,
-3.93255e-04,-1.51376e-02,4.46375e-01,-1.07982e+00,3.08093e-02,-5.45711e-02,
-9.17593e-02,-2.57970e-01,-3.82310e-02,5.13045e-01,5.94417e-02,-3.74654e-02,
-1.81976e-01,-2.99681e-02,6.25643e-01,-8.41113e-01,-2.07961e-01,1.97986e-03,
-2.08022e-01,-3.93977e-02,3.70762e-02,5.72225e-01,-2.62445e-01,2.01775e-01,
1.07487e-01,-1.03556e-01,-2.33078e-02,-1.54902e-01,-1.35786e-01,-1.72979e-01,
1.45434e-01,1.37839e-01,-1.07799e-01,1.05330e-01,2.63384e-01,3.77735e-01,
-2.31164e-01,1.81004e-02,4.15340e-01,1.12935e-01,5.34529e-01,-3.67389e-01,
-2.90988e-02,-2.33040e-03,2.49756e-01,-8.25078e-01,4.29351e-02,-4.79323e-02,
-5.88479e-02,4.90956e-02,-2.65177e-01,3.91816e-01,1.30708e-02,-4.00811e-02,
-1.21165e-01,7.99830e-02,-4.31331e-01,2.74371e-01,1.31520e-01,-8.63922e-02,
-2.33884e-04,-2.72241e-02,-4.29794e-01,-5.85744e-01,-1.88643e-03,-6.58762e-03,
1.60001e-01,2.36029e-01,-5.04562e-01,-5.62780e-01,8.96840e-03,-2.52355e-01,
-8.05247e-02,1.55768e-01,9.39471e-02,-3.29247e-01,-4.99650e-02,-1.60815e-02,
3.47443e-01,1.39060e-01,5.84361e-01,7.59886e-02,-5.43375e-02,2.61273e-01,
-3.34444e-03,7.65844e-03,1.89875e-01,-4.59285e-01,1.74524e-02,-2.00037e-02,
-2.82347e-02,2.62238e-02,-2.70227e-01,-7.73024e-01,-4.46866e-02,-4.74660e-02,
-1.12747e-01,-1.70715e-01,-2.75536e-01,6.51807e-01,4.63421e-02,-1.38525e-01,
-5.54078e-02,-2.23537e-01,-3.29812e-01,6.68280e-02,-2.79796e-01,2.79640e-01,
-1.29039e-01,2.08277e-01,-1.20611e-01,8.09338e-01,2.20526e-03,-9.12521e-02,
2.13457e-01,-1.94757e-01,5.71207e-02,-5.33524e-01,-8.97818e-04,1.66680e-01,
9.98453e-02,1.97731e-01,-8.29081e-01,-4.64043e-01,-2.24484e-02,-8.33597e-02,
-2.73844e-01,-1.96125e-01,4.29148e-01,-3.85241e-01,4.14484e-01,-1.98811e-01,
1.11227e-01,-3.88105e-02,-3.89682e-01,-2.78419e-01,-8.06520e-02,4.48699e-02,
1.44533e-01,-2.18487e-01,-1.35973e-01,1.15518e-01,2.79962e-01,-7.46103e-02,
2.37332e-01,-2.00891e-02,5.64646e-01,6.72151e-01,-1.38232e-01,-5.77275e-03,
-3.41588e-01,-2.33003e-01,-8.57217e-02,3.40054e-01,-2.18449e-01,7.77529e-01,
-3.23966e-01,-2.13361e-01,-1.70461e-01,5.93853e-01,5.51955e-03,9.00153e-02,
9.46323e-02,-8.58837e-02,4.79712e-01,6.49537e-01,1.54344e-01,-5.15513e-03,
-4.15526e-01,-2.79693e-01,-8.62718e-02,-4.25589e-01,-5.85412e-01,3.06615e-01,
-2.77884e-01,-2.04892e-01,2.27230e-01,-3.68075e-01,4.43581e-01,-1.99589e-01,
-2.56570e-01,1.39189e-01,-6.67033e-01,-7.70440e-01,3.96932e-01,4.99279e-02,
-2.85983e-01,1.52256e-02,5.33014e-02,-5.40799e-01,-2.49298e-01,-2.19468e-01,
2.44407e-01,1.64786e-01,5.68100e-02,-2.41470e-01,1.55526e-01,-5.56962e-01,
1.39702e-01,1.25521e-03,3.45308e-02,2.47427e-01,2.99867e-02,-3.26267e-03,
2.58593e-01,1.87684e-01,-3.15495e-01,3.53694e-01,-4.00188e-01,1.84667e-01,
-3.39956e-02,-2.01917e-01,-2.53298e-01,-3.55672e-01,-2.65923e-01,1.91452e-01,
-2.09225e-01,-1.78418e-01,6.64099e-01,-3.93095e-01,-1.51569e-01,4.48562e-02,
1.62805e-01,-4.88647e-02,-4.39742e-01,-5.90806e-01,-8.32892e-02,-2.52975e-02,
2.01796e-01,-1.94680e-01,8.75146e-01,-3.30768e-01,-7.58403e-03,4.73426e-02,
-1.27910e-01,-2.51282e-01,3.28767e-01,-3.14352e-01,9.42785e-02,-6.03572e-02,
4.52288e-01,1.53368e-01,4.13080e-01,-7.09558e-01,-4.23663e-02,-3.16408e-02,
2.29967e-01,-1.75030e-01,-2.72935e-01,4.14222e-01,-4.92579e-02,1.01259e-01,
-1.02910e-01,2.19279e-01,2.34283e-01,-6.10976e-01,-2.76599e-01,-3.09497e-01,
4.58700e-03,6.69523e-03,-5.58117e-01,-1.01799e-01,-5.32583e-02,-1.54989e-02,
-5.14449e-03,-1.41831e-01,9.99493e-03,-4.41397e-01,-7.67395e-02,-5.42417e-02,
3.04973e-01,1.87721e-01,1.62586e-01,4.57433e-01,2.14009e-01,-3.52595e-02,
-2.36102e-01,-1.65920e-01,-2.76744e-01,7.28104e-01,7.21679e-02,-5.40893e-02,
-6.66648e-02,7.91777e-02,1.05561e-01,6.93572e-01,1.23922e-02,2.59296e-02,
-1.05565e-02,1.62760e-01,3.62809e-01,-3.99086e-01,2.51316e-01,-2.40478e-01,
1.76892e-01,2.98062e-02,-1.92697e-02,-4.89135e-01,2.36083e-01,-1.91417e-01,
-1.12186e-01,-2.26637e-01,2.26839e-01,7.78333e-01,-2.02965e-02,-5.13965e-01,
9.49916e-02,6.06724e-02,3.74390e-01,-1.11231e+00,-1.08695e-01,4.79496e-02,
1.30665e-01,1.53832e-01,3.78888e-01,8.05553e-03,3.31012e-02,7.01045e-02,
1.29301e-01,-2.58968e-01,5.90606e-02,-6.74994e-01,-1.89710e-02,-2.74401e-02,
-1.96856e-01,-1.12009e-01,-5.17788e-01,-6.47077e-01,-8.34597e-02,-4.20709e-01,
1.45490e-01,1.30754e-03,1.61432e-01,-9.47959e-01,-1.08608e-02,1.18555e-01,
2.83421e-02,5.56399e-02,2.86040e-01,1.00365e-02,-2.81565e-03,1.64106e-02,
9.54935e-03,-2.61023e-01,2.46456e-01,7.89086e-01,3.76239e-03,-3.25347e-02,
1.36896e-01,-6.74225e-02,6.91940e-01,-2.73505e-01,6.51089e-03,6.45297e-02,
1.09332e-01,-5.63594e-02,-3.91309e-01,-5.59490e-01,1.47065e-01,-1.57014e-01,
2.75826e-01,1.85562e-01,4.18615e-02,2.80878e-01,3.91821e-01,-2.11846e-01,
-4.60773e-02,8.11917e-02,2.08037e-01,2.48705e-01,6.26383e-03,2.07214e-02,
1.47937e-01,-3.11245e-01,-3.30975e-01,8.69111e-01,3.92560e-01,4.43138e-01,
-2.37276e-01,-2.23615e-01,1.76443e-01,-1.73162e-01,-4.30754e-01,-6.12379e-01,
-1.09518e-01,7.16888e-02,8.33574e-02,-8.35911e-01,-1.17073e-01,-4.73770e-02,
-1.32140e-01,-1.92982e-01,4.48264e-01,4.70866e-01,-6.17716e-03,1.98781e-01,
2.74695e-02,1.61564e-01,1.97531e-01,2.79424e-01,2.08227e-01,-1.51877e-01,
1.85289e-01,2.59961e-02,-6.65919e-01,8.55493e-01,2.08594e-01,7.54984e-04,
-6.15673e-02,-1.96761e-02,2.18280e-01,7.18961e-01,4.99992e-02,2.43523e-02,
-1.12401e+00,
-2.92767e-01,
-4.04732e-02,
5.17073e-01,
-5.67683e-01,
5.55298e-01,
5.91032e-01,
-2.83525e-01,
9.55898e-01,
8.63355e-01,
-1.06078e+00,
-1.19756e+00,
-4.91105e-02,
-1.40583e-01,
4.27812e-02,
9.79718e-01,
8.71135e-01,
-5.15086e-01,
4.90615e-01,
3.71204e-03,
-8.55462e-01,
3.96400e-01,
1.02243e+00,
2.47254e-01,
-7.15018e-01,
7.14999e-01,
-1.09320e+00,
-1.20288e+00,
1.29405e+00,
1.21498e+00,
-3.25816e-01,
-3.12595e-01,
4.83920e-01,
4.29714e-01,
-2.67440e-01,
2.00485e-01,
-1.37444e-01,
4.62535e-02,
-7.07941e-01,
1.50483e+00,
6.86866e-01,
7.55586e-01,
-1.74030e-01,
1.08531e+00,
-3.04380e-01,
7.83071e-01,
1.20345e+00,
8.88096e-01,
3.48932e-01,
-2.07398e-01,
4.82920e-01,
-8.00915e-01,
-6.79488e-01,
1.52141e-01,
-1.11140e+00,
-1.69805e-02,
-4.81660e-01,
6.80117e-01,
-1.10629e+00,
-7.61003e-01,
-7.29153e-01,
-5.08406e-03,
2.40366e-01,
3.47910e-01,
1.52421e+00,
6.55845e-01,
-5.10075e-01,
-6.20043e-01,
-4.44948e-01,
-1.49133e+00,
-9.85514e-01,
-5.20400e-01,
-9.34722e-01,
-3.76017e-01,
2.04828e-01,
-1.26476e+00,
3.32091e-01,
-3.51725e-01,
5.95148e-01,
3.75443e-01,
2.07542e-01,
3.56094e-01,
-3.87273e-03,
9.83831e-01,
-7.68506e-01,
-7.95219e-01,
-5.15382e-01,
1.16570e+00,
1.14797e+00,
9.01787e-01,
-4.64123e-01,
5.22154e-01,
1.23510e+00,
5.43104e-01,
2.24233e-01,
-5.50334e-01,
1.35076e-01,
4.03592e-01,
-4.28782e-01,
1.01241e+00,
-2.74007e-01,-8.67653e-02,-2.35865e-03,5.15146e-02,-4.73369e-02,1.40161e-01,-1.14708e-03,-8.44776e-02,-3.31411e-02,-1.23865e-01,-3.86921e-02,-2.93377e-01,2.32613e-02,-1.21822e-01,1.26722e-01,-3.33275e-02,2.46376e-02,5.42866e-03,8.30135e-02,-1.45336e-02,4.08503e-02,7.28179e-02,-2.62850e-02,-7.11344e-02,2.24599e-02,-6.23245e-02,-8.69344e-02,9.16843e-03,6.34220e-02,7.33822e-02,2.87521e-02,-1.15929e-01,2.13882e-02,2.84317e-02,1.19393e-01,6.01458e-02,-6.72577e-02,-3.32555e-02,7.21322e-03,7.56847e-06,1.35743e-01,1.08653e-01,-7.55477e-02,-9.73330e-02,-2.24794e-02,4.77688e-02,9.07364e-02,-1.01287e-01,7.09532e-02,3.16678e-02,-1.43708e-03,-1.20175e-02,-1.60564e-01,-6.83177e-03,4.28340e-02,7.80186e-02,-4.33285e-02,-8.33366e-02,2.12963e-02,-1.09777e-01,-1.37235e-02,1.24145e-01,1.20924e-01,-6.83357e-02,-1.75310e-02,3.97007e-02,8.93356e-02,-1.77962e-03,4.70475e-03,3.34346e-02,-1.48621e-02,-9.87720e-03,1.04840e-01,-6.22169e-02,-5.89766e-02,6.41882e-02,-1.24278e-01,-7.25894e-02,-1.35186e-02,5.24706e-02,1.03651e-01,-1.40179e-02,1.43286e-02,-5.86568e-02,-5.05910e-02,-7.10528e-02,-2.11747e-03,-9.50171e-02,-2.58788e-02,-4.46701e-02,2.23954e-02,4.73402e-02,-1.23997e-02,-1.71482e-02,4.74979e-02,-7.37995e-02,6.55420e-02,1.23770e-02,9.88716e-02,-6.84306e-02,
-1.46653e-01,-3.26576e-02,3.75130e-02,-2.82867e-02,4.58276e-02,-8.27477e-02,1.74840e-01,1.01150e-01,-5.09280e-02,3.50724e-02,3.78069e-01,1.71092e-01,3.04762e-01,-1.28171e-01,1.31474e-01,-5.24574e-02,-7.56487e-03,-5.31335e-02,7.22273e-02,8.43000e-02,1.14237e-01,-1.36367e-01,2.86772e-02,-8.49312e-02,6.88638e-02,4.03950e-02,4.85389e-02,-5.61270e-01,1.24907e-02,-9.52474e-01,1.43515e-01,-2.25997e+00,5.29032e-02,8.70233e-02,1.26760e-01,7.21479e-02,-3.59019e-02,7.45921e-02,2.17945e-01,-1.55118e-02,-1.76780e-02,-1.12798e-01,-1.49389e-01,3.62759e-02,1.17894e-02,-1.07470e-01,-3.53130e-01,-2.04723e-02,3.88586e-02,3.23556e-02,-2.40327e-02,1.34364e-01,-3.11199e-02,-8.55366e-02,1.05090e-02,4.65608e-02,-3.12774e-02,2.70029e-02,4.37203e-02,-1.29496e-01,8.38405e-02,-1.56021e-01,-6.00170e-02,5.06583e-02,4.38340e-02,-8.40441e-02,4.75410e-03,-1.15368e-01,2.29273e-02,8.94288e-02,3.72110e-02,-1.49818e-01,4.25735e-02,5.34554e-02,-6.00751e-02,-2.66902e-02,1.02798e-01,1.45278e-01,1.91741e-01,-2.00568e-01,1.07503e-02,5.56940e-02,-6.76122e-02,1.06177e-01,-7.35926e-02,-1.68477e-01,-1.06773e-01,1.39956e-01,-2.09304e-02,-3.07839e-02,-6.35161e-02,1.75723e-02,2.85790e-01,-2.72957e-02,-4.35609e-02,-2.81942e-01,7.41592e-02,1.87657e-02,1.05064e-01,5.23343e-03,
-7.77010e-03,1.03984e-03,1.55057e-02,1.44966e-01,3.38479e-02,-1.43582e-02,6.51890e-03,-2.02191e-02,2.20630e-02,-9.72263e-02,-7.90058e-02,9.63080e-02,-1.52406e-01,-1.20900e-02,4.08128e-02,1.23588e-01,6.29497e-02,3.26097e-02,5.16702e-02,-6.48536e-02,5.65938e-03,-3.59391e-02,1.71995e-02,-7.01064e-02,1.00396e-01,-4.44944e-02,-3.69780e-02,-5.41133e-02,4.17482e-02,2.04610e-02,9.06561e-02,-6.83472e-02,-1.93062e-02,1.12193e-01,6.89460e-02,6.99701e-03,2.05290e-02,5.47782e-02,9.86981e-02,2.34124e-02,4.54952e-02,3.77344e-02,-6.04029e-02,8.76077e-03,9.88225e-02,-1.55002e-02,-5.64094e-03,7.64921e-03,3.23458e-03,8.30432e-02,4.73204e-02,6.22315e-02,8.87577e-05,-1.43634e-02,-2.28044e-02,9.93884e-02,6.05772e-04,-5.65329e-02,-3.19422e-02,8.58587e-03,4.91650e-02,5.89744e-02,-2.56764e-02,-6.42549e-02,-6.60679e-02,8.72291e-02,9.44830e-02,-1.24476e-02,5.35658e-03,3.97847e-02,-5.85089e-02,1.04607e-01,5.27583e-02,-2.23437e-02,-3.73466e-02,1.93233e-02,-6.90446e-02,5.14904e-04,3.05086e-02,4.72381e-02,-1.81875e-03,7.06120e-02,3.20121e-02,6.17098e-02,-3.11919e-02,-1.66376e-01,-6.99466e-02,1.00534e-01,-1.72724e-02,1.57364e-02,3.85507e-02,-1.16624e-01,-2.81162e-02,7.49991e-02,-4.76477e-02,1.97779e-01,4.48895e-02,-1.28265e-01,-6.03260e-02,-8.66303e-02,
-2.32189e-01,-5.45702e-02,-5.92280e-02,-6.67195e-02,-8.09483e-02,-3.80677e-02,-1.62679e-02,8.33604e-02,8.43654e-02,1.25509e-01,1.84469e-01,1.35690e-01,-8.76146e-02,1.53458e-01,6.95156e-02,8.62189e-02,2.84783e-02,-5.08459e-02,-1.78334e-02,1.62829e-01,-2.29851e-01,6.04652e-02,8.08528e-02,4.58653e-02,1.09473e-02,-1.34444e-01,-7.57205e-02,-2.41476e-01,1.44281e-01,9.57849e-02,8.54849e-02,2.03897e-01,-5.15823e-02,2.27256e-01,1.12888e-02,1.80017e-02,-9.93002e-02,3.45228e-02,-9.44103e-03,-4.66292e-02,-3.85331e-02,7.03818e-03,9.02992e-02,5.94979e-02,7.91856e-02,-4.30159e-02,2.44510e-01,-4.30940e-02,6.66501e-02,2.15019e-01,5.31514e-02,-8.70236e-02,-6.11358e-02,5.21775e-03,-4.45992e-02,2.19368e-01,-3.58316e-02,-6.57733e-02,1.38954e-01,-6.96495e-02,1.66369e-02,1.24947e-01,8.72912e-02,1.17059e-02,3.00892e-02,-2.98009e-02,-8.03369e-02,3.98575e-03,-5.88969e-02,-3.23719e-02,-1.03286e-01,-5.19847e-02,-1.26042e-02,1.42086e-01,5.30522e-02,-6.21219e-02,-7.67751e-02,1.01629e-02,-6.49337e-02,1.23378e-01,-7.75638e-02,2.79676e-02,3.70732e-03,-1.91939e-02,7.47923e-02,-2.28415e-01,2.07075e-02,8.28662e-03,-2.36262e-02,7.16764e-02,-1.95261e-02,-5.04384e-02,5.52482e-02,7.45745e-02,8.44619e-02,8.76148e-02,1.94960e-01,1.13021e-01,-2.05198e-03,2.47302e-02,
1.09536e-01,3.29218e-02,-3.08580e-02,1.12011e-01,-5.57740e-02,1.14379e-01,2.82389e-02,7.93872e-03,-5.57287e-02,-1.90503e-02,1.53700e-01,-4.75117e-02,-1.84684e-02,-2.28704e-02,8.39476e-02,-4.71798e-02,1.18163e-01,1.81627e-02,7.89105e-02,-1.25061e-01,6.75208e-02,2.09809e-02,-1.75570e-02,7.46979e-02,-4.26979e-02,7.98635e-02,8.22227e-02,-3.34848e-01,-2.78303e-02,-4.28765e-02,-3.41382e-02,-6.30332e-02,3.20962e-02,4.67997e-02,-8.43475e-02,-2.43724e-02,3.02298e-02,1.05755e-01,5.23619e-02,4.53763e-02,8.87082e-02,3.23950e-02,-9.16692e-02,-1.12029e-02,-2.90631e-02,-1.85543e-01,1.46840e-01,9.67142e-02,-2.00426e-02,-1.07785e-02,-4.03612e-02,2.63705e-02,8.73310e-02,8.61994e-02,-1.17128e-01,1.42143e-01,4.39175e-03,7.16436e-02,2.97461e-03,-3.34043e-02,-4.36637e-02,9.43125e-02,3.51086e-02,8.21869e-02,6.10374e-02,-1.51787e-01,-7.01858e-02,3.06949e-02,1.64497e-02,-9.07095e-02,-1.02837e-01,1.26509e-01,-4.53651e-02,6.81014e-02,-4.29435e-02,3.16064e-02,7.55247e-02,4.37871e-03,6.30812e-02,9.67872e-02,-1.69246e-02,-5.55222e-02,3.89861e-02,-4.85715e-02,-7.93826e-02,-3.79417e-02,1.14609e-03,6.57079e-02,7.61608e-02,1.88563e-02,2.80286e-02,7.53271e-02,3.25526e-02,4.02826e-02,-9.18644e-03,1.28113e-01,-1.70120e-02,7.02774e-03,6.59760e-02,6.31185e-02,
-3.46489e-02,-8.62245e-02,-7.20040e-02,8.93074e-02,1.78864e-01,5.84298e-02,4.82672e-02,2.76603e-02,-8.16934e-02,-9.25526e-03,-1.83211e-01,-8.58600e-03,-1.47438e-02,2.67616e-02,3.89487e-02,8.88418e-02,-4.02323e-02,7.99984e-02,-1.70322e-01,3.32854e-03,-6.97179e-02,9.42545e-02,-8.37709e-02,9.32853e-05,-6.08186e-02,3.54588e-03,5.24325e-04,3.58385e-02,1.95529e-02,-5.48201e-02,1.26631e-02,2.93240e-02,8.66620e-02,8.38362e-02,4.83701e-02,5.29837e-02,-2.29901e-01,-1.74836e-02,-5.37724e-02,2.56855e-03,5.63786e-02,-5.85806e-03,1.64512e-01,-5.90969e-03,4.78597e-02,1.16685e-01,2.58178e-02,1.14243e-01,-5.04748e-02,9.50819e-02,4.49562e-02,-3.58987e-02,6.53070e-02,-9.40357e-02,9.43533e-02,-1.06094e-03,-3.30636e-02,6.85959e-02,-9.47275e-02,-3.66497e-02,8.81247e-03,9.14261e-02,1.17749e-01,2.00970e-01,9.42249e-02,-1.58603e-02,3.22233e-02,5.95042e-02,4.25777e-03,-7.14560e-02,-1.08923e-01,-6.33872e-02,5.75359e-03,1.55637e-01,-2.87002e-02,-1.04437e-01,4.20078e-02,-5.91537e-02,6.52522e-02,1.01399e-01,1.11261e-01,7.77327e-02,9.99744e-03,-2.33410e-02,-1.36277e-01,-6.98619e-02,3.62074e-02,1.08904e-01,5.11439e-02,-6.92430e-02,-3.00467e-02,-1.61596e-02,2.18090e-02,-2.27849e-02,1.22903e-01,1.11250e-02,1.01524e-03,1.04614e-01,1.76807e-02,-5.68925e-02,
-3.54112e-02,-7.96047e-02,2.58252e-02,1.55011e-01,-8.63629e-03,7.86626e-02,-1.81989e-02,1.34663e-02,9.82067e-03,-2.76082e-01,-3.37038e-01,-3.46728e-01,-8.49441e-03,-2.24168e-02,6.21932e-02,6.06432e-02,-1.41749e-02,2.95194e-03,3.65684e-02,-4.43612e-02,-5.95926e-02,-1.39403e-03,1.16466e-01,-2.92258e-02,-4.48766e-02,5.81633e-02,-8.27459e-02,1.10608e-01,1.02298e-01,1.07508e-01,-1.00392e-01,-3.86129e-02,-8.52913e-02,1.44611e-01,-1.35216e-01,7.84946e-02,-9.36063e-02,6.05753e-03,-6.21324e-02,-6.22868e-02,-8.63183e-02,1.37364e-01,-4.99751e-02,7.08115e-03,-2.65132e-02,2.71773e-01,-1.31583e-02,-3.11635e-02,-1.10877e-02,-1.95678e-01,-1.05283e-02,1.17274e-01,3.71532e-02,-7.65479e-02,-7.15688e-02,-3.62262e-03,-5.62558e-02,-4.20786e-02,-3.77921e-02,4.54809e-02,3.11565e-02,3.72435e-02,1.65064e-02,1.96160e-02,5.49908e-02,-6.61894e-02,7.17228e-02,1.14253e-02,7.77750e-02,-1.64503e-02,4.62269e-02,-3.16084e-02,-2.45939e-02,3.42048e-02,-5.89419e-02,-3.72841e-02,-2.74560e-02,1.01490e-02,1.24791e-02,1.04510e-01,8.31821e-03,-3.98854e-02,8.63646e-02,1.24631e-01,-1.07804e-02,6.36430e-02,1.03801e-01,8.59297e-02,2.81376e-02,9.02793e-02,7.72856e-02,-8.14260e-02,2.31380e-01,4.72966e-02,1.01514e-01,-6.46059e-02,-1.32248e-02,-2.48859e-02,2.82587e-02,3.35593e-01,
-6.19226e-02,-5.18400e-02,-8.20077e-02,2.76615e-02,-8.66415e-03,-2.04599e-02,5.23365e-02,-4.18299e-02,8.23509e-02,2.44847e-02,-1.97423e-01,1.05947e-02,5.56548e-03,8.43238e-04,-1.66221e-02,-1.21010e-02,-8.01661e-02,2.19290e-02,-6.13271e-02,-7.03176e-02,-5.69579e-02,-4.58613e-02,6.75739e-02,7.18472e-03,-4.08039e-02,4.24797e-02,6.07336e-02,-5.59395e-04,4.31910e-02,7.99383e-02,-7.87956e-02,-9.44028e-02,7.88908e-02,-9.32450e-02,-4.85124e-02,1.20154e-02,2.42915e-02,-1.24185e-03,-2.34391e-02,-1.02161e-02,-6.47271e-03,-7.20229e-02,1.06494e-01,4.17726e-02,-1.40168e-02,7.21859e-02,6.48961e-02,3.77083e-03,4.59927e-02,6.93949e-02,7.16398e-02,1.29421e-01,9.53952e-02,-2.53951e-02,6.32102e-02,1.05570e-02,4.08803e-02,-2.62793e-02,9.98521e-03,2.34609e-03,8.06823e-02,5.93440e-02,3.66363e-02,4.32824e-02,-4.56870e-03,-1.23446e-01,-3.63487e-02,-8.62011e-02,-1.38396e-02,3.32136e-02,3.22959e-02,1.05254e-01,4.98951e-02,-2.31845e-02,6.06976e-02,-5.38337e-02,4.76723e-02,5.52769e-02,-4.94999e-02,1.32885e-01,-5.56487e-02,3.61191e-02,-1.69088e-02,1.19207e-01,2.28893e-02,7.25040e-03,-1.35563e-02,-5.56126e-02,9.01286e-02,6.19856e-02,-2.31036e-02,1.56534e-02,1.07580e-01,-1.46378e-02,4.03352e-02,-5.09627e-02,-5.83962e-02,1.09631e-01,8.84528e-02,-1.82743e-02,
7.59953e-02,-7.17061e-02,3.10349e-02,-3.59985e-02,-9.22813e-02,-7.82142e-03,9.65909e-03,-5.54212e-02,-7.90853e-02,-7.36578e-02,1.65014e-02,-8.14532e-02,7.44076e-02,-4.92331e-02,2.01457e-02,-9.87048e-02,8.64289e-02,9.26486e-02,-6.59922e-02,2.60769e-02,-9.58984e-02,-8.21661e-02,-3.59496e-03,5.44197e-02,-5.77514e-02,-1.40155e-02,5.78458e-02,4.79074e-02,6.00613e-02,-8.00810e-02,-9.36832e-03,6.52672e-02,-4.62472e-02,-1.09327e-01,-4.65144e-02,-1.95863e-02,-5.68094e-02,-2.96341e-02,-1.41313e-02,3.15383e-02,-3.13924e-02,-2.74666e-02,-3.31250e-02,6.00211e-02,2.50474e-02,8.34443e-02,7.46505e-02,-4.49215e-02,-1.82050e-02,8.30853e-02,-1.52900e-02,-4.91376e-02,-5.76282e-02,-5.59609e-02,7.71656e-03,-3.30050e-02,3.13144e-02,2.93163e-03,7.34116e-02,6.95144e-02,-3.76885e-02,-9.84268e-02,3.08147e-02,-8.82085e-02,-9.39638e-02,9.53669e-03,-1.05045e-01,-2.42290e-02,5.56382e-02,-6.62692e-02,2.12995e-02,5.26903e-02,2.70344e-02,-4.71342e-02,1.28142e-02,8.18073e-03,-7.51967e-02,-3.42368e-02,1.84035e-02,-8.44941e-03,-1.04136e-01,-1.04365e-01,3.28133e-02,-2.51483e-03,-8.57246e-02,-5.87546e-02,1.02323e-02,-5.57968e-02,-7.69525e-02,1.79430e-02,-5.26609e-02,-5.38745e-02,-8.30697e-02,5.46583e-02,-5.72957e-02,7.91491e-02,7.38771e-02,2.82697e-02,1.71154e-02,-3.03473e-02,
-5.61202e-02,-4.72078e-02,-7.32114e-02,1.06245e-01,1.03248e-01,2.64459e-02,5.42547e-02,1.77487e-02,5.31012e-02,-3.31168e-01,-7.71956e-04,4.40887e-02,7.38585e-02,8.88976e-02,8.97169e-02,-2.32404e-02,-1.48046e-02,-1.75947e-02,2.83149e-02,-1.09650e-01,3.52510e-02,7.38276e-02,4.65018e-02,-5.48967e-02,-1.32854e-01,7.70308e-02,-3.93354e-02,-2.57444e-02,-4.31272e-02,8.98355e-02,5.93662e-02,-5.34990e-02,6.29340e-02,2.85251e-02,-2.82033e-02,-2.15234e-02,-1.05439e-01,5.74742e-02,-4.64317e-02,-1.09292e-02,-3.45409e-02,-4.47658e-02,1.32156e-02,-2.19364e-02,5.07795e-02,6.81279e-02,-5.70805e-02,-3.79736e-02,-1.11361e-01,-7.74187e-02,-7.83426e-02,8.61997e-02,-4.91467e-03,-6.28647e-02,-4.47823e-02,-1.01908e-01,3.95333e-02,2.26127e-02,7.89256e-02,-4.10639e-03,1.89343e-02,-4.38725e-02,-5.12631e-03,4.28673e-02,-5.30127e-02,-9.04762e-02,1.20859e-02,-5.22066e-02,7.38249e-02,-2.09737e-02,-7.10670e-02,4.19930e-02,5.93191e-03,-3.06567e-02,1.43673e-01,-1.04957e-02,-2.77152e-02,3.83976e-02,-1.06849e-01,5.48062e-02,9.04205e-02,5.12175e-02,1.69696e-01,1.91337e-02,8.08548e-02,9.43077e-02,-2.66802e-02,4.55717e-02,4.93277e-02,1.13310e-01,9.12527e-02,-6.97538e-02,-6.36596e-04,-4.41961e-02,7.47239e-02,-8.16592e-02,-7.15779e-02,1.13355e-01,1.40338e-01,9.10280e-02,
2.19110e-01,1.61942e-01,4.32634e-02,1.29515e-01,1.60591e-02,5.04793e-02,-1.75363e-01,-7.26992e-02,-7.52703e-02,4.88344e-02,-1.71555e-01,-2.26071e+00,1.95085e-01,4.83663e-02,2.20884e-02,-3.73712e-03,1.94841e-01,-4.76135e-02,-3.94294e-02,-2.58497e-01,-1.07248e-01,6.57519e-03,-1.74932e-01,1.24812e-02,6.89202e-02,4.18408e-02,-1.00879e-02,2.06552e-01,-7.44767e-02,1.30990e-01,-1.83643e-01,2.43268e-02,5.94673e-02,7.03041e-02,-1.43308e-01,1.99476e-01,2.23771e-02,-4.34370e-02,-4.36902e-02,-5.15057e-02,1.33368e-02,2.44330e-01,-1.32897e-02,-4.51209e-02,-1.13847e-01,-9.44800e-02,3.24885e-01,-3.09268e-03,1.23409e-01,5.69896e-02,7.18835e-02,1.41145e-01,1.09314e-01,7.40167e-02,5.58543e-03,-3.11817e-01,1.33840e-02,-4.21000e-02,-5.83785e-01,1.22983e-01,-1.31173e-04,1.92041e-01,8.56036e-02,5.70367e-02,4.44107e-02,4.08079e-02,2.49195e-02,1.10530e-01,1.39334e-01,-6.92985e-02,6.90848e-02,1.29581e-01,-7.54964e-02,7.86432e-02,1.65414e-01,9.97414e-02,-8.43478e-02,-6.48634e-02,-7.36965e-02,1.09401e-02,1.00684e-01,-2.33421e-01,9.46494e-02,-1.22984e-01,1.72685e-02,1.85023e-01,1.07477e-01,-9.80966e-02,-6.09771e-02,-1.23290e-01,1.09120e-01,-1.03245e-01,-5.30359e-01,-5.55404e-02,-3.38748e-03,1.67110e-01,-2.78634e-01,-7.78491e-02,-1.88081e-01,-2.80520e-01,
1.41714e-01,-6.95680e-03,-1.27415e-01,1.54167e-02,6.80733e-02,-3.49497e-02,-4.15560e-03,6.33653e-02,-1.69935e-02,1.12713e-01,4.58580e-02,-1.63319e-01,1.69682e-01,1.11131e-01,3.94829e-02,-7.50990e-02,5.52158e-02,1.02254e-01,-6.03833e-02,-4.96502e-02,-4.06641e-02,1.82252e-02,9.33993e-02,-9.04563e-03,1.10255e-02,-2.31371e-02,-4.24351e-02,1.53019e-01,4.07293e-02,4.88259e-02,4.04435e-02,-2.87808e-02,-1.75745e-02,5.77929e-02,2.89784e-02,-4.95665e-02,1.59447e-02,9.12434e-02,3.24831e-02,8.98212e-02,3.09026e-02,-3.79390e-02,8.67697e-02,2.65604e-02,-5.48763e-04,-1.65660e-02,5.91251e-02,7.72298e-02,-2.73952e-02,-1.02272e-01,1.98654e-02,4.48461e-03,7.53366e-02,-2.66648e-02,2.30271e-02,6.15111e-02,6.63018e-03,-6.97645e-02,-8.99770e-03,-5.13993e-02,-2.02491e-03,9.63540e-02,8.08036e-02,4.00067e-02,2.34027e-02,-4.81208e-02,6.34906e-02,-1.94043e-02,-6.41280e-03,8.83922e-02,1.08918e-02,5.97875e-02,5.14031e-02,1.07262e-02,-6.82229e-03,-1.17253e-02,-5.37642e-02,3.08465e-02,8.05497e-02,9.50217e-02,6.90073e-03,1.39408e-01,8.60339e-02,-4.83958e-02,3.18134e-02,7.71917e-02,9.86123e-03,6.30275e-02,-6.56361e-02,3.05668e-02,9.12666e-02,1.03026e-01,-4.33460e-02,7.67847e-02,-5.94966e-02,1.06993e-01,-6.36549e-02,-4.38629e-03,1.35284e-02,7.55941e-03,
4.09070e-02,4.43117e-02,-7.01623e-04,-1.70530e-01,-5.57538e-03,1.72811e-03,-4.43708e-03,1.91681e-01,-5.05270e-02,2.38921e-01,5.98371e-01,4.70855e-01,3.14304e-01,1.55020e-01,5.43769e-02,-3.79258e-02,9.71848e-03,-5.42846e-02,-3.49573e-02,-6.84527e-02,3.14688e-01,-1.34190e-02,-2.30523e-01,1.77098e-01,9.96594e-02,1.74322e-02,8.55219e-02,4.89759e-01,-1.38127e-01,-1.69459e-01,-1.02804e-02,1.99068e-01,-2.71724e-03,-1.68745e-01,1.77996e-01,-2.43911e-02,2.03013e-02,6.08931e-02,4.94520e-01,-2.30351e-01,3.00640e-03,-2.12149e-01,9.27066e-02,-1.70378e-01,4.21422e-02,-1.18869e-01,-2.92924e-01,1.34908e-02,-1.88016e-02,6.95892e-03,-3.80631e-02,6.92121e-02,6.70872e-02,3.42297e-02,1.21707e-01,9.60484e-02,-1.87989e-02,-7.69798e-02,-1.79690e-02,3.96427e-02,-7.09549e-02,-4.64259e-02,2.56527e-02,-8.27712e-03,-1.02410e-01,3.26284e-03,2.06666e-02,8.25329e-02,-2.87331e-02,1.29350e-01,3.18955e-02,1.04360e-01,6.10274e-02,8.14973e-02,-7.48963e-02,1.16766e-01,-5.05187e-02,1.96370e-02,4.26475e-02,-2.85986e-02,-5.94293e-02,-8.31798e-03,-5.01445e-02,-1.03983e-01,-4.69833e-02,-7.38743e-02,1.76212e-01,-1.27583e-01,-6.65638e-02,-1.37740e-01,1.03804e-01,-4.99491e-02,-4.08790e-01,-9.43767e-02,-1.47152e-02,1.49550e-01,-1.14786e-01,-2.96477e-02,5.82114e-02,3.83590e-02,
1.01512e-01,2.07186e-01,1.13132e-02,1.56810e-02,-2.59220e-02,2.18497e-02,1.11029e-01,8.48190e-03,1.16367e-01,-1.27854e-01,3.83224e-02,-1.21138e-01,1.76432e-01,-3.86131e-02,4.89950e-02,4.98105e-02,1.97323e-02,1.40918e-02,7.92441e-02,-5.94432e-02,2.66641e-03,3.12841e-02,1.86264e-03,2.40630e-02,1.09422e-01,1.14401e-01,7.49530e-02,7.48193e-02,5.92617e-02,-2.34761e-03,1.18891e-01,-1.17885e-01,9.14496e-02,-1.61978e-03,5.41139e-02,1.73768e-02,2.39752e-01,9.02250e-02,1.06923e-01,-4.25381e-02,1.13472e-01,-1.79519e-02,2.22730e-02,9.97136e-02,8.12055e-02,1.51152e-01,-5.09590e-03,-4.73251e-02,2.43424e-02,-6.82836e-02,1.07480e-01,1.90502e-02,-3.61600e-04,4.06600e-02,-4.19554e-02,-4.39944e-02,9.52114e-02,-6.47628e-02,-6.58348e-03,2.71957e-02,6.61727e-02,1.59129e-01,-2.72994e-02,-9.90818e-02,-5.80430e-02,9.16026e-02,-6.30422e-03,-3.92879e-03,6.51637e-02,5.18896e-02,-2.15470e-02,-2.78873e-02,4.28872e-02,-1.00123e-02,5.03243e-02,-5.49368e-02,-6.40388e-02,-1.34343e-02,1.21119e-02,-2.19337e-03,-4.54551e-02,3.13831e-02,1.32545e-01,-3.07353e-02,-4.57791e-02,-6.59036e-02,-2.75182e-02,6.61147e-02,1.07094e-01,-3.25370e-02,-8.44191e-02,-6.17010e-02,-6.23834e-02,7.10260e-02,-1.58252e-01,4.11170e-02,1.62948e-01,3.89934e-02,-1.45783e-03,7.03636e-02,
4.72415e-02,-7.21142e-02,7.20783e-02,2.03127e-02,5.56742e-02,-1.68775e-02,5.94547e-03,4.80200e-02,-8.21313e-02,7.55523e-03,-1.13022e-01,-6.01107e-02,-2.07106e-01,-4.02231e-02,-4.37911e-02,1.26599e-01,-8.90188e-02,1.03297e-01,-2.97237e-02,6.09016e-02,-1.34627e-01,-8.25114e-02,-3.65721e-02,-6.61618e-02,1.81234e-02,5.92171e-02,-6.48168e-02,-7.55818e-02,-3.80006e-02,-8.18085e-02,-7.04669e-02,1.77676e-01,7.16673e-02,9.04425e-02,5.18047e-02,3.48321e-02,-1.99853e-02,5.06123e-02,4.85839e-02,-3.59511e-02,7.64730e-02,-6.06965e-02,-5.58076e-02,-1.89448e-04,-1.52860e-01,-9.25119e-03,-5.26475e-03,-5.04248e-02,4.01812e-02,3.22859e-02,-1.03913e-01,6.30739e-04,-1.79032e-02,-2.00840e-02,3.53525e-02,-7.62792e-02,-2.12460e-02,8.32731e-02,-3.49257e-03,6.57476e-02,1.20069e-01,-2.92429e-02,1.19628e-01,-1.51564e-02,9.17216e-03,4.75478e-02,-2.22470e-02,1.94433e-02,8.70380e-02,-8.50594e-02,5.79879e-02,1.14469e-01,6.32505e-03,-1.10734e-02,5.32194e-02,3.46279e-02,-1.35316e-01,-7.80903e-02,-3.72016e-02,2.28590e-02,-1.59215e-02,-2.63817e-02,6.67886e-02,-8.76280e-02,-1.04830e-02,-3.12282e-02,9.03225e-03,-1.26100e-01,7.15639e-02,-5.13524e-02,8.37621e-02,5.62638e-02,-5.84042e-02,-1.05657e-02,6.16513e-02,-6.08217e-02,-1.19629e-01,-7.19221e-02,2.46112e-02,2.11961e-02,
-1.36152e-01,-1.20655e-01,1.09955e-01,-6.29100e-02,-2.34460e-02,5.49807e-02,5.37093e-03,5.21917e-02,1.47327e-01,7.55181e-02,1.21480e-01,9.24782e-02,-7.09114e-02,1.53003e-02,1.11652e-01,-3.63280e-03,1.10774e-03,8.63001e-02,1.77947e-02,5.71106e-03,1.90117e-03,3.09562e-02,1.49100e-01,-7.91076e-02,1.07527e-01,5.36310e-03,3.73468e-02,-1.01723e-01,2.35421e-02,8.62296e-02,1.01094e-01,7.55802e-03,-5.64591e-02,1.74190e-01,4.04057e-02,3.81844e-02,-2.65723e-02,-5.74063e-02,2.36984e-01,3.29153e-02,-9.59561e-02,9.76611e-02,-5.55883e-02,7.50083e-02,-4.71159e-02,-1.79003e-01,3.52820e-02,1.12423e-01,-4.50227e-02,7.74638e-02,-2.55381e-02,1.08088e-01,-4.82056e-02,8.58020e-02,-3.83235e-02,8.40142e-02,2.09596e-04,8.30918e-02,1.90831e-01,-7.27038e-02,-9.47137e-02,3.49496e-02,1.03173e-01,7.62222e-02,-7.00734e-02,6.40924e-02,1.38127e-02,-9.71814e-02,-2.77624e-02,-8.28011e-02,-3.12526e-02,-1.03363e-01,4.86921e-02,-1.02665e-02,-1.06060e-01,-6.94724e-02,2.66297e-02,8.33162e-02,-1.11425e-02,-1.90532e-02,-8.82864e-02,1.11215e-03,4.02561e-03,9.67597e-02,-5.08450e-02,-2.69524e-02,-8.60309e-02,1.41290e-01,-5.00618e-02,-2.94421e-02,1.02789e-01,2.12719e-02,-3.03581e-02,-8.34168e-04,-1.70160e-02,-1.59784e-03,6.27901e-02,-2.45984e-02,4.05130e-02,-1.06390e-01,
-2.28807e-02,4.85797e-02,1.69497e-01,-1.34248e-02,2.75535e-02,1.09695e-01,-5.61735e-03,-2.59405e-02,1.45143e-01,1.32253e-02,-1.91495e-01,5.02835e-03,6.25157e-02,7.65681e-02,-4.77751e-02,1.47946e-02,1.56867e-02,7.10783e-02,-1.16519e-01,1.04823e-01,6.79930e-02,1.10917e-01,8.01201e-02,5.86340e-02,-2.91591e-02,-1.85209e-02,-1.98826e-02,1.79169e-02,1.73630e-03,3.83996e-02,-3.54512e-02,-1.39980e-01,-3.07527e-02,1.68548e-01,7.65038e-02,8.42852e-02,-8.65702e-02,-1.60978e-01,-6.59864e-02,4.81428e-02,7.02750e-02,6.64449e-02,9.29273e-02,7.91208e-03,-2.30836e-02,1.80875e-01,-2.69506e-02,1.11255e-01,3.71171e-02,3.62711e-02,-4.43199e-02,5.67246e-02,-8.32678e-02,-5.66540e-02,-4.53732e-02,9.72524e-02,9.12181e-02,3.86857e-03,-9.72109e-02,1.21434e-01,-2.79529e-02,-7.13499e-02,-2.57202e-02,6.12694e-02,-1.84771e-02,1.04003e-01,2.46769e-02,-6.21532e-02,-7.93074e-02,7.22940e-02,-6.10441e-02,-8.56154e-02,-2.58087e-02,1.99462e-01,7.18435e-02,4.87237e-02,1.59760e-02,-3.57181e-02,-2.01772e-02,-4.42110e-02,-6.21998e-02,1.03173e-01,5.48282e-02,3.40618e-02,2.78599e-02,-8.44404e-03,-1.84691e-02,-4.04107e-02,-7.74446e-03,-1.58067e-02,-6.95254e-02,6.54461e-02,-5.60044e-02,2.48959e-02,1.61459e-01,-3.54559e-02,-3.89333e-02,4.51602e-02,-8.91340e-02,8.19238e-02,
-4.95926e-02,7.80125e-02,1.03067e-01,3.66312e-02,-7.41782e-02,-2.45261e-02,-3.04154e-02,-7.88454e-03,5.37045e-03,2.60525e-02,5.64916e-02,-5.29509e-02,1.00587e-01,1.28773e-02,-1.06016e-02,6.42273e-02,1.20694e-01,9.16100e-02,-2.03881e-02,-2.14215e-02,-1.11778e-01,4.12972e-02,4.25724e-02,6.16874e-02,2.31713e-02,2.18813e-02,1.29201e-01,7.32644e-02,-1.46036e-02,-1.04244e-01,-2.73381e-02,6.33104e-02,5.70829e-02,2.14528e-02,1.48635e-01,1.07526e-01,-4.49476e-02,-1.02363e-01,5.55899e-02,-3.29001e-02,5.07716e-02,2.92377e-03,4.21116e-02,-1.42332e-02,-1.56589e-02,-2.67176e-02,-3.08716e-02,-5.63638e-02,-6.20788e-02,5.09118e-02,8.16125e-02,8.44986e-02,1.61018e-02,-5.06007e-03,5.82217e-03,1.52911e-02,4.35286e-02,2.53789e-02,-3.17523e-02,2.32365e-02,-1.09421e-01,5.98853e-02,5.01099e-02,-1.36764e-01,4.38503e-02,1.26240e-01,8.19716e-02,-3.41194e-02,-2.94180e-02,-2.47645e-02,9.60421e-02,1.33975e-01,4.39748e-02,2.00082e-02,-1.48071e-02,7.89267e-02,5.83274e-02,1.54728e-02,9.61040e-02,6.21315e-02,-8.11711e-02,-1.81285e-02,6.56916e-02,-1.31264e-02,1.57622e-02,3.15346e-02,7.67714e-02,1.26959e-01,2.70010e-02,8.39271e-02,-1.95702e-02,-4.89005e-02,4.96215e-02,3.84060e-02,-4.16408e-02,9.41400e-02,1.17933e-02,-1.15388e-02,-8.53420e-02,2.36520e-02,
-1.46639e-01,-6.32172e-02,-1.89785e-04,-1.13048e-01,-3.47625e-02,-1.06226e-01,9.41247e-02,1.80903e-01,4.23815e-02,6.01497e-02,3.03536e-01,3.86904e-02,-7.99427e-02,6.15008e-02,4.18279e-02,5.37671e-02,-1.49227e-01,-5.48009e-03,1.34043e-02,1.28590e-01,-1.06207e-01,-1.44421e-02,6.04476e-02,6.39247e-02,-1.15411e-01,-1.08040e-01,1.42328e-01,4.34537e-01,-3.35055e-02,-2.59563e-01,-6.96835e-02,-2.58178e-01,3.42997e-02,3.59327e-02,-7.17419e-03,-6.80525e-02,3.30027e-02,-3.86185e-02,8.29737e-02,-1.14160e-01,-1.06021e-01,-1.11524e-01,-1.28467e-01,-8.10129e-02,4.91177e-02,-2.40015e-01,1.42975e-01,-2.09364e-02,-6.52378e-02,1.38380e-01,-4.62652e-02,-1.92789e-01,8.68518e-03,-7.89902e-02,1.44814e-02,1.13398e-01,2.58063e-02,4.89399e-02,2.33359e-01,-6.82486e-02,1.41731e-01,-1.48669e-01,-5.55060e-02,1.35497e-01,-5.43151e-02,1.45191e-02,-7.36258e-03,1.00892e-02,4.83403e-02,3.93093e-02,4.23182e-02,-1.57808e-01,8.93285e-02,-1.27509e-01,-6.44981e-02,9.36774e-02,1.36090e-01,5.89079e-02,2.17140e-01,1.90825e-02,-1.03474e-01,2.30265e-02,1.90205e-01,1.42960e-01,-4.71605e-02,7.98834e-02,1.13998e-02,1.34521e-02,4.60618e-02,-2.28976e-02,-3.41910e-02,7.37536e-02,2.06430e-01,6.29565e-02,-4.72487e-03,3.83341e-02,7.36445e-02,9.25257e-02,-4.02601e-02,-2.65457e-02,
-3.26113e-01,1.00547e-01,-7.13908e-02,8.44847e-02,5.54423e-02,1.60613e-02,6.30578e-02,3.08361e-02,6.69091e-03,-1.30827e-02,-2.82041e-01,-6.38719e-02,4.97947e-02,-1.47324e-01,1.03862e-01,6.25721e-02,5.84202e-02,9.75253e-03,-4.65932e-02,-3.16244e-02,1.92875e-01,3.03642e-02,1.24067e-01,-3.09774e-02,-1.95401e-02,-1.18410e-01,-6.72285e-02,4.65287e-02,2.08275e-02,-1.09491e-01,6.78101e-02,-9.27862e-02,5.50273e-02,-1.01759e-01,1.54041e-01,7.15758e-02,-3.80877e-02,1.22054e-01,-4.23930e-02,-3.89678e-02,5.85843e-02,-3.95499e-02,5.09652e-02,4.27660e-02,-2.25766e-02,1.71679e-01,-1.81741e-01,-1.18270e-02,3.91189e-02,-5.43247e-02,-9.77839e-05,1.25690e-01,-2.66370e-02,8.96367e-02,-2.97407e-02,7.14681e-02,-2.19781e-02,4.47627e-03,8.34374e-02,-8.85711e-02,-6.52203e-02,-5.14638e-02,-3.40260e-02,-7.27828e-02,7.07815e-02,-3.42269e-02,-6.72363e-02,-4.52530e-02,2.53387e-02,7.93711e-02,-6.16717e-03,-1.83824e-02,5.33070e-02,1.73200e-02,-9.27460e-03,-1.15525e-02,-9.22947e-03,-1.11590e-01,3.15086e-02,-5.73797e-02,2.23756e-02,9.80899e-02,-1.08990e-01,9.27310e-02,4.27976e-02,-1.27058e-01,-1.16796e-02,-1.64302e-02,6.25238e-02,-1.82254e-02,8.10156e-02,-4.80887e-02,1.59726e-02,-4.84446e-02,-8.91101e-02,1.40038e-01,-8.44488e-03,2.55814e-02,6.88527e-02,1.95327e-01,
7.59967e-02,1.23189e-01,5.76480e-03,3.27432e-01,5.00810e-02,-4.82791e-01,-2.63842e-02,-2.24461e-02,-1.27967e-03,-1.67813e+00,-1.13176e-01,7.04100e-02,1.28463e-01,-3.43408e-01,-6.68450e-02,-5.51448e-01,-5.65405e-02,1.06206e-01,2.46498e-02,2.35681e-02,2.41951e-01,-1.72453e-01,-7.14881e-02,-4.87262e-02,3.03334e-01,7.31760e-02,8.39222e-02,-4.10730e-01,2.63483e-02,-9.75671e-02,1.04659e-01,-5.65888e-01,9.45939e-02,2.18696e-01,1.52875e-01,3.22767e-02,-4.30219e-02,1.33315e-01,2.93109e-01,-1.43831e-01,-2.52728e-02,6.50087e-02,3.57541e-02,1.96055e-02,1.16543e-01,1.16590e-01,-3.26798e-01,-5.99522e-02,7.82288e-02,-1.44402e-01,6.14667e-02,8.13239e-01,-8.90451e-02,8.06761e-02,-3.85182e-02,-2.21782e-02,-6.10082e-02,1.04823e-01,-1.78730e-01,-3.37061e-02,1.80980e-02,7.08593e-03,5.15979e-02,-6.38474e-02,-1.23873e-02,-3.60094e-01,2.33095e-03,-7.45781e-02,6.75589e-02,1.25867e-02,7.81829e-03,2.03698e-01,-5.48302e-02,-1.13083e-01,4.11323e-02,-1.15916e-01,-2.24716e-01,1.17567e-01,-3.55248e-01,6.87523e-02,-2.39195e-02,-7.31469e-03,4.80407e-01,-3.07647e-01,-4.93411e-02,1.44041e-01,2.99046e-02,-4.66207e-01,-1.22395e-01,1.81806e-02,4.53939e-03,-8.66966e-02,-5.22461e-02,-7.72410e-03,-4.77141e-02,4.91894e-01,2.84013e-02,-2.36231e-01,1.71265e-01,-2.44638e-01,
7.96613e-02,1.89213e-01,1.10831e-01,5.55417e-02,-3.02431e-02,1.60685e-02,-2.05542e-02,3.31921e-03,-1.04833e-02,2.48448e-02,7.69887e-02,1.01219e-02,6.52631e-02,-8.43116e-03,-5.22847e-02,6.19268e-02,1.10481e-01,4.32000e-02,1.50298e-01,6.31201e-02,7.69157e-02,-1.29128e-02,8.43706e-02,1.44752e-01,5.44492e-02,-5.44870e-02,-4.70781e-02,3.85842e-02,-1.94254e-02,-2.67845e-02,4.49998e-02,7.37897e-02,-5.95055e-02,1.61708e-01,1.23151e-02,-5.31753e-02,1.26524e-01,-1.06555e-01,-4.25549e-02,3.84394e-02,1.97223e-02,7.08179e-02,3.76985e-02,1.36569e-01,8.46715e-02,7.08503e-03,1.32067e-01,7.57497e-02,8.56559e-02,6.54300e-02,5.75549e-02,-5.76220e-03,1.36656e-02,-2.95928e-02,-9.05829e-02,3.28711e-02,1.58711e-01,3.30114e-02,4.99313e-02,1.05627e-01,-3.73970e-02,-1.13972e-01,-4.73827e-02,-3.69962e-02,3.78966e-02,8.44455e-02,3.73582e-02,-3.22813e-02,-2.85576e-02,6.00355e-02,-1.99459e-03,-2.32281e-02,-5.59610e-02,5.84316e-02,7.29772e-02,-5.54532e-02,-3.21537e-02,1.30583e-02,-3.55976e-02,-1.13215e-01,1.95359e-02,-4.14387e-02,-4.53621e-02,-7.26339e-03,1.11428e-01,-8.27056e-02,-5.60473e-02,1.36191e-01,1.19034e-01,1.06877e-01,-5.39770e-02,-2.91524e-02,8.28052e-03,-4.29438e-02,-1.42060e-02,6.21843e-03,-1.04688e-02,-1.10263e-01,-4.70656e-02,-3.55877e-02,
5.30462e-02,7.60961e-02,1.13413e-01,8.77199e-02,-8.50410e-02,-3.66708e-02,6.50709e-02,-3.82322e-02,-6.34638e-02,-2.67403e-03,-2.17707e-02,7.84583e-02,1.76834e-02,1.10552e-01,-1.71777e-02,-6.30233e-02,9.73630e-02,-6.47967e-02,1.06230e-01,1.00172e-01,-8.20513e-02,3.63527e-02,4.78540e-03,2.63835e-02,3.04579e-02,8.38267e-02,-5.62113e-02,-2.52509e-02,6.16087e-02,-6.67617e-02,-2.96872e-04,-5.45816e-02,-7.06434e-05,4.80323e-02,1.10056e-01,-4.42860e-02,-9.42459e-02,-8.43064e-02,3.70621e-02,5.49592e-02,1.26983e-02,5.14946e-02,-8.34105e-03,-9.53981e-02,-8.25394e-03,-1.24618e-01,-1.72180e-01,-1.81584e-02,1.34172e-01,6.40693e-02,1.07261e-01,-3.94943e-02,-3.13462e-02,8.55476e-02,-5.09543e-02,5.93861e-02,3.34771e-02,3.12749e-02,-5.26267e-02,4.19718e-02,-1.30305e-02,-8.86898e-02,7.73338e-03,-9.77852e-02,4.55376e-02,9.46020e-02,-5.06091e-02,-4.30561e-02,7.00545e-04,6.64055e-03,7.12790e-03,-1.00839e-02,6.26282e-02,7.59403e-02,1.23892e-02,7.41474e-02,-1.25186e-01,1.04186e-02,-8.85519e-02,3.73874e-01,8.98691e-03,-1.92117e-02,-3.42756e-02,-1.49880e-01,-4.43266e-02,-1.75158e-02,-2.60334e-02,-1.30987e-01,-2.68957e-02,-5.25951e-02,1.92618e-02,5.01365e-02,-5.33822e-02,-5.12047e-02,4.57952e-02,4.25937e-02,8.96193e-02,5.94499e-02,-1.15565e-02,1.14914e-01,
3.15974e-02,-1.74102e-01,-4.40991e-02,4.93900e-02,8.88830e-02,-4.91147e-02,2.81150e-02,-7.66199e-03,1.21341e-01,5.61181e-02,3.28802e-02,1.64863e-01,-1.44873e-01,-6.09092e-02,4.87875e-02,2.39605e-02,-6.02056e-02,-2.26888e-03,2.03925e-02,-2.84776e-02,3.14082e-02,-4.10571e-02,-7.62084e-02,-9.62689e-02,1.84042e-02,-2.94938e-02,8.83472e-02,4.11766e-02,-7.80283e-02,5.91233e-02,-4.79998e-02,2.05456e-01,4.04514e-02,8.15057e-02,6.88908e-02,-4.22891e-02,-1.07411e-01,-3.12591e-02,-3.54977e-02,1.01714e-01,-1.20665e-02,-2.77613e-02,1.13399e-01,7.60188e-02,7.19521e-02,-9.94703e-03,-2.03914e-02,2.09100e-02,9.29340e-02,9.64619e-02,-2.32737e-02,-4.27671e-02,3.07858e-03,-5.30421e-02,-1.31291e-02,7.42034e-02,-3.05011e-02,-2.77829e-03,-2.61280e-02,1.05838e-01,-1.35909e-02,-6.19012e-02,4.89355e-02,1.02607e-01,8.81252e-02,1.44230e-01,-5.78165e-02,-2.50273e-02,1.22042e-01,-8.32708e-02,5.31451e-02,-1.26241e-03,-6.45418e-02,6.81059e-02,1.03049e-01,2.63108e-02,-5.26390e-02,-6.96035e-02,4.50881e-02,-6.29114e-02,2.48532e-02,8.42595e-02,-4.21314e-02,7.82718e-03,-3.94156e-02,-7.30774e-03,7.69627e-02,5.52419e-02,8.35924e-02,3.11000e-02,7.31597e-03,5.56204e-02,8.20801e-03,2.42543e-02,8.28079e-02,1.89545e-02,-1.12545e-01,4.76666e-02,-8.72233e-03,1.23180e-01,
-1.44077e-01,-1.59777e-03,5.44955e-02,-2.43319e-02,-8.07651e-02,-7.13172e-02,1.33029e-01,1.65783e-03,8.27217e-03,5.81073e-02,2.45608e-01,-2.15881e-02,-1.87133e-02,5.75480e-02,7.71581e-02,-5.06270e-02,9.40545e-02,-4.42500e-02,1.12033e-01,1.32554e-02,2.03514e-02,1.29184e-02,1.29675e-01,6.57981e-02,-5.66609e-02,-6.99992e-02,5.68501e-02,9.40502e-02,4.09104e-03,-1.07672e-01,4.75441e-02,-1.72615e-01,4.64912e-02,-2.28103e-02,-1.65007e-01,-1.02860e-01,2.32527e-02,-4.36676e-02,1.38061e-01,5.43280e-03,6.00384e-02,-6.96736e-03,9.89695e-03,8.52927e-02,2.35144e-02,-1.71507e-01,9.04110e-02,-2.60742e-03,-3.76593e-02,-1.18370e-02,4.48503e-02,3.93407e-02,-2.42092e-02,-4.92085e-03,7.29895e-02,5.93412e-02,-1.84525e-02,-5.67113e-02,8.51732e-02,-1.04907e-01,4.48205e-03,-9.48468e-02,2.79534e-02,6.89331e-03,-8.84716e-02,4.92213e-02,3.82552e-02,-3.15593e-02,7.31736e-03,-5.11751e-02,-1.65431e-02,-2.34642e-02,5.16666e-04,-9.39580e-02,-1.27691e-01,-5.07967e-02,3.00266e-02,5.20553e-02,-1.57518e-02,4.46677e-02,-1.22180e-02,6.55414e-02,3.34007e-02,-6.72940e-02,4.95161e-02,-6.91355e-02,3.08708e-02,-6.65792e-02,5.28807e-02,1.01421e-02,6.04411e-02,6.00935e-02,5.73139e-02,9.91317e-02,9.90561e-03,6.16938e-02,1.28871e-01,2.83982e-02,1.08611e-01,1.77801e-01,
-2.73250e-03,9.75071e-02,3.10732e-02,1.93286e-02,-1.16755e-01,-4.81030e-02,-8.69685e-02,1.31305e-01,-2.85408e-02,-5.91311e-02,8.80035e-02,1.55373e-01,-1.02784e-01,-1.46316e-01,4.08421e-02,-4.28150e-02,-1.40655e-01,-1.57752e-01,-2.04612e-02,5.01711e-02,-1.38510e-01,4.64129e-02,6.71396e-02,-3.56986e-02,-2.75773e-02,2.85851e-02,-3.92088e-02,1.79930e-01,-1.13174e-01,1.74907e-01,8.38552e-02,8.07260e-02,-2.40185e-02,-2.88591e-02,2.64227e-02,-3.98098e-02,1.06029e-01,-5.68018e-02,-2.41261e-02,-9.35371e-02,-1.04667e-01,-8.35535e-02,1.04075e-03,3.89379e-02,-4.07100e-02,5.14578e-02,-1.88421e-02,-4.68203e-03,-7.28588e-02,1.35042e-02,-7.63485e-02,6.17325e-02,7.99626e-02,8.72299e-03,1.35421e-02,4.40477e-02,2.09357e-02,-2.35975e-02,-5.20362e-02,-4.45193e-02,-3.74783e-02,-2.40286e-02,6.63964e-02,6.03072e-02,3.37975e-02,1.07444e-02,8.54249e-02,-2.66159e-02,8.66202e-02,3.09251e-02,-4.70706e-02,3.23504e-02,7.35790e-02,-7.57355e-02,2.43382e-02,2.12969e-02,4.62775e-03,6.81984e-02,-1.87550e-02,-6.59469e-02,7.12624e-03,6.02654e-02,-2.94311e-02,4.45733e-02,8.32946e-02,8.79541e-02,1.10996e-01,1.51201e-01,-9.85452e-02,7.04155e-02,8.32058e-02,4.96017e-02,2.43059e-02,9.43972e-02,6.38131e-02,-5.37622e-04,-2.03119e-02,9.27577e-02,-6.27124e-02,1.73455e-01,
7.81833e-02,-6.54652e-02,1.18535e-01,4.19877e-02,1.48716e-01,3.42013e-02,6.56996e-02,3.66632e-03,5.85247e-02,2.53064e-02,1.21746e-01,-1.19070e-01,9.65271e-02,3.37958e-02,-7.03523e-02,3.35188e-02,1.13183e-01,-2.67987e-02,-4.82665e-02,1.13274e-01,5.56521e-02,4.54008e-03,5.52988e-02,-1.33006e-02,1.27577e-01,-2.40729e-02,1.94947e-02,3.18931e-02,-4.69268e-02,3.06910e-02,2.90266e-02,1.46379e-01,-3.11630e-02,4.08583e-03,-6.36952e-02,-4.53227e-02,-1.91518e-01,3.10504e-02,1.02422e-01,-5.27123e-02,8.15346e-02,-2.41201e-02,8.59791e-02,8.54348e-02,1.37279e-02,2.86818e-02,1.20689e-01,-7.90561e-02,9.32940e-02,6.93800e-02,-2.66254e-02,2.04743e-02,5.11896e-02,2.72987e-03,6.41622e-02,-7.71509e-02,-1.00990e-01,9.06658e-02,1.16918e-02,-8.10376e-02,-4.14220e-02,-4.31652e-04,-5.55027e-02,-8.48130e-03,4.76799e-02,-1.50825e-02,3.22497e-02,-3.03423e-02,6.52473e-02,-1.43922e-02,-3.91468e-02,2.67923e-02,-1.01801e-01,2.36909e-01,-4.50940e-02,-4.33763e-02,9.84404e-02,-8.29946e-02,5.61044e-02,2.83248e-02,-2.11871e-02,2.83712e-02,5.52637e-03,1.69019e-03,2.49661e-02,-7.90331e-02,-4.67956e-02,-1.60114e-02,9.96409e-02,1.70638e-02,2.75508e-02,-4.81183e-02,4.04506e-02,-3.98004e-02,9.52573e-02,9.48360e-02,4.29605e-02,-1.06098e-01,2.45280e-02,1.42700e-02,
2.98399e-02,-1.04338e-01,1.07206e-01,-2.55801e-02,8.68815e-02,1.57741e-02,-1.40600e-01,-3.89256e-02,-6.31207e-03,-1.20679e-01,5.47876e-02,2.38076e-01,1.94023e-01,-2.83989e-01,5.19318e-02,8.04384e-02,3.86919e-02,-4.40464e-02,-5.77639e-02,2.26110e-02,2.87382e-02,-2.54433e-01,-5.73668e-02,7.21094e-03,7.07974e-02,6.52703e-02,5.93325e-02,8.11462e-02,1.44654e-02,-9.89396e-02,-8.49772e-02,-3.65734e-01,-2.58438e-02,7.08114e-02,-9.75667e-02,-6.43769e-02,-3.96896e-03,-3.52321e-02,2.33545e-01,-1.29731e-01,-4.29528e-02,3.25574e-02,-2.29144e-03,8.96441e-02,6.56272e-02,3.65652e-01,-2.77305e-01,8.65703e-02,3.26919e-02,1.29813e-02,-4.91944e-02,1.45072e-01,-8.55152e-02,3.57819e-02,2.05766e-02,-1.23095e-01,1.25691e-01,-7.66287e-03,-9.51397e-02,-1.48284e-02,7.76647e-02,3.72550e-02,-2.64398e-02,-1.51911e-01,-1.13133e-02,-4.20535e-02,3.16737e-02,-6.84206e-02,-4.50968e-02,-5.32166e-02,-7.76551e-02,-6.96855e-02,7.21249e-02,-6.97826e-03,3.12194e-02,8.37963e-02,4.83295e-02,8.66700e-02,1.60399e-01,3.27922e-02,-2.30959e-01,4.61842e-02,-6.13324e-02,-3.60230e-02,-7.97981e-02,1.78534e-02,-1.05276e-01,2.26418e-01,-7.96704e-02,-9.23053e-02,-1.48930e-02,5.42744e-02,1.71752e-01,1.52228e-02,1.33142e-02,2.95712e-01,-4.40637e-02,-1.64504e-02,-4.53960e-02,-1.68458e-01,
-4.30568e-02,7.71176e-02,-2.20083e-04,-1.50671e-02,4.12742e-02,-4.59924e-02,6.01828e-02,-1.83545e-02,2.73046e-02,1.67158e-01,2.15973e-01,1.99592e-01,-1.46063e-01,1.67893e-02,-1.08039e-02,1.44774e-02,-2.35196e-02,4.09715e-02,-3.69374e-02,8.91034e-02,-4.55531e-02,4.48869e-02,-4.99064e-02,-2.03246e-02,-2.61115e-02,-4.19236e-02,9.18870e-02,1.58848e-01,-5.12678e-02,1.06393e-01,5.10835e-02,6.24530e-01,2.13366e-02,-3.32007e-02,1.26624e-02,6.06398e-02,4.26798e-02,-5.79172e-02,2.59764e-01,3.31744e-03,8.21157e-02,-8.36486e-02,1.24822e-01,-2.08557e-02,-3.99432e-03,-2.96886e-01,-1.33506e-01,-2.15617e-04,7.05595e-02,-3.34063e-02,5.85534e-03,1.62392e-01,-7.10673e-03,-6.93192e-02,4.60584e-02,7.33950e-02,5.54599e-02,-1.17302e-02,1.30176e-01,-2.75714e-02,2.48460e-02,-9.86833e-02,1.73388e-03,-3.64003e-02,-1.53811e-01,5.55813e-02,2.34927e-02,-8.44366e-02,4.26384e-02,-4.67186e-02,4.64890e-02,-9.78908e-02,-6.86665e-02,-8.73523e-02,1.27414e-02,5.69201e-03,4.39416e-03,8.50768e-02,1.27521e-01,2.77478e-03,7.85702e-02,-4.15453e-02,-1.32970e-01,-1.35154e-02,2.06497e-03,-7.78863e-02,-1.28558e-02,-5.53493e-02,-8.22585e-03,-1.04420e-01,-1.72741e-02,-5.38284e-02,4.51408e-02,7.01145e-02,4.82313e-02,-2.75572e-02,-8.05541e-02,3.05342e-02,-2.16597e-02,1.14627e-01,
6.93327e-03,6.97489e-02,4.33933e-02,1.81313e-02,1.18417e-01,2.80072e-02,9.00429e-02,-1.23689e-01,1.59709e-01,5.93185e-03,-2.57895e-01,4.36333e-02,5.04310e-03,-2.27185e-02,6.32558e-02,1.16817e-01,-6.72706e-02,1.61828e-02,-1.22552e-01,5.86208e-02,-4.16550e-02,-1.85571e-02,6.84931e-02,4.28964e-02,-4.79446e-03,7.40886e-02,1.19867e-02,5.28456e-02,5.55515e-02,1.22930e-01,2.06576e-02,-1.84218e-01,-7.41476e-02,1.08195e-01,-1.38968e-02,-6.60785e-02,-7.21433e-02,-1.15160e-01,-3.46653e-02,9.11316e-03,7.67170e-02,-5.56113e-02,1.10004e-01,9.33482e-02,5.74008e-02,1.54070e-01,-9.26011e-02,7.05836e-02,2.88439e-02,-3.01567e-02,1.71449e-02,-2.55190e-03,2.33900e-02,3.62877e-02,-5.14663e-02,1.03916e-02,8.15017e-02,-5.78651e-02,6.56695e-02,-2.41579e-02,-8.25987e-02,5.80098e-02,-8.40802e-03,4.40892e-02,-8.65821e-02,1.25029e-01,8.98720e-02,-2.91863e-03,5.77480e-02,6.01180e-02,3.68824e-02,9.87757e-02,-1.23293e-02,6.14382e-02,8.16824e-02,-9.37024e-02,-8.09007e-02,4.21329e-02,-2.25822e-02,6.90049e-02,-5.76259e-02,6.57884e-02,4.00349e-02,-4.87274e-02,2.69661e-02,2.03936e-03,4.51173e-02,1.13109e-01,6.97609e-02,5.22891e-03,-5.18713e-02,-3.02648e-02,1.85117e-01,-1.05842e-01,-3.17284e-02,4.60343e-02,-6.13058e-02,5.77671e-02,5.67259e-02,-9.55135e-04,
-6.75790e-02,-1.47776e-02,-4.23919e-02,1.30385e-02,9.39205e-03,7.71978e-02,3.64157e-02,8.88520e-02,-5.03440e-02,-3.13165e-02,-1.66025e-01,2.23602e-01,-1.79622e-02,6.67589e-03,5.37788e-02,3.45891e-02,7.51767e-02,3.45209e-02,-1.09763e-01,-4.02569e-02,-2.87326e-02,-6.64202e-02,1.04700e-01,3.54515e-02,8.98891e-02,-3.20121e-03,4.57641e-02,-6.86534e-02,8.54956e-02,-2.60282e-02,-3.73557e-02,-2.23986e-02,1.08977e-01,-4.04083e-02,1.50474e-02,7.42843e-02,-1.51531e-01,7.80399e-02,-1.65361e-02,1.21259e-01,5.63066e-02,5.98150e-03,6.79529e-02,1.99664e-03,-1.00268e-02,-4.45429e-02,-1.98842e-02,-1.86075e-02,6.93232e-02,5.09991e-03,-4.92228e-02,9.41026e-02,-2.78308e-02,6.82541e-03,4.98499e-02,7.37056e-02,-1.12178e-01,-8.20717e-03,1.02981e-01,2.82385e-02,4.44390e-02,6.45673e-02,6.63558e-02,5.70620e-02,-3.84308e-02,-3.50271e-02,-1.16110e-02,-5.89914e-02,5.70988e-02,4.18412e-02,6.02303e-02,4.85530e-02,-6.09665e-02,1.39206e-01,-2.52005e-02,-4.47048e-02,4.35643e-02,4.46183e-02,7.53027e-02,5.72013e-02,-1.21022e-02,-2.07494e-02,4.99615e-02,-2.30115e-02,-3.23843e-02,4.42670e-02,1.10294e-01,-2.37599e-02,4.94033e-02,9.56344e-02,7.19002e-02,-1.37535e-02,8.38159e-02,-1.09257e-01,1.33855e-01,-4.51862e-02,2.86518e-02,9.46459e-02,1.32502e-01,1.03442e-01,
2.72888e-02,5.13011e-02,-1.03595e-01,7.94646e-02,-1.87895e-02,7.51062e-02,2.20212e-02,1.38948e-01,1.02251e-01,1.00240e-01,1.86662e-01,4.19302e-06,6.08765e-02,-4.66766e-02,3.87197e-02,-2.41071e-02,-1.34188e-01,-6.00802e-02,5.28196e-02,1.28127e-01,-2.58382e-01,-2.48395e-01,1.38487e-01,9.12583e-03,3.44915e-02,-6.52029e-02,8.61194e-02,-3.76089e-01,-5.65593e-02,6.01660e-02,1.43116e-01,-4.79337e-02,8.85224e-02,2.69937e-02,3.43313e-02,-1.98748e-01,-1.56382e-01,3.28933e-02,-1.11528e-02,2.18216e-02,2.65596e-02,3.18175e-02,-1.18199e-01,-1.16129e-02,1.71569e-01,-1.13918e-01,-1.76695e-02,-1.12320e-01,-8.51850e-02,9.78936e-02,5.01511e-02,-1.74958e-01,4.49973e-02,-5.59714e-02,1.08918e-02,4.71802e-02,8.21603e-02,-5.75284e-02,3.93460e-01,-1.12945e-02,7.99153e-02,-1.25924e-02,-1.62732e-03,1.40827e-01,-3.95409e-02,-5.47954e-02,-5.07269e-02,-2.47769e-02,6.26275e-02,1.23963e-01,1.37647e-02,4.24323e-03,4.71196e-02,1.32218e-02,1.83581e-02,-1.74519e-01,3.22854e-02,1.63466e-01,-5.61527e-02,-6.32924e-03,1.86063e-02,7.84632e-02,-3.42938e-02,1.26197e-01,-6.66476e-02,-1.46922e-01,-5.51641e-02,-2.54020e-02,-3.71908e-02,3.65905e-02,-1.16550e-01,-9.80903e-02,7.88896e-02,-7.09643e-02,1.32470e-01,-1.45774e-01,6.71448e-02,-3.05094e-02,-2.30798e-03,3.78668e-02,
1.31433e-01,2.14371e-02,3.25522e-02,3.93038e-02,-2.40915e-02,1.32006e-01,5.74856e-02,-1.27582e-01,1.14459e-01,2.65468e-01,-1.92091e+00,-5.89393e-01,7.58667e-02,3.01469e-02,-1.06721e-02,3.94170e-02,1.09659e-01,-6.33689e-02,-1.48461e-02,-3.39949e-02,8.34342e-03,7.04346e-02,-2.57497e-03,1.31017e-01,-2.01152e-02,5.17903e-02,-8.98023e-02,-4.23478e-02,1.21514e-01,1.01978e-01,-1.44145e-01,3.43904e-01,7.81718e-02,5.23032e-02,3.79435e-02,-9.03906e-02,2.93082e-02,6.22200e-03,1.41264e-01,2.79334e-01,8.22891e-02,1.44523e-01,1.70094e-02,-4.50086e-02,-9.22815e-02,1.08038e-01,9.28700e-02,1.12455e-01,-4.62407e-02,-7.89895e-02,4.21807e-02,-2.17733e-03,2.12385e-02,8.32960e-02,4.06273e-02,-1.40623e-01,-2.17931e-02,5.63990e-03,-2.60174e-01,-2.66229e-02,-4.19790e-02,3.69160e-02,4.12208e-02,5.18749e-02,1.16842e-01,1.07468e-01,5.82410e-02,2.67697e-02,-7.40016e-03,6.46444e-02,-3.21495e-02,-7.82870e-03,5.57687e-02,5.10136e-02,1.49499e-01,4.35491e-02,-8.20753e-02,-4.83727e-02,1.14582e-01,8.62322e-02,9.55497e-02,-4.33849e-02,6.02724e-02,8.12762e-02,6.03892e-02,2.52645e-02,1.42828e-01,4.76954e-02,8.53552e-02,7.39916e-02,5.95273e-02,7.03239e-03,1.32686e-01,-4.41318e-02,2.54881e-02,-1.59802e-01,3.98877e-02,6.86434e-02,1.16124e-02,-5.32683e-02,
5.43876e-03,4.70353e-02,-6.55528e-02,-1.05700e-01,2.15079e-02,-9.23697e-02,8.20761e-02,-3.87577e-02,6.89313e-02,1.01544e-01,5.43143e-01,1.10816e-01,8.91317e-02,-9.84287e-03,-4.72470e-02,-8.04448e-03,-9.33346e-02,5.49622e-02,-1.32085e-02,7.78208e-02,-4.95830e-02,1.19004e-01,-9.26065e-02,-3.98347e-02,6.98219e-02,-1.58427e-02,4.95255e-03,2.56289e-01,-7.55911e-02,-1.20190e-01,-2.57598e-02,3.41838e-01,4.32284e-02,-3.21309e-02,-4.05503e-02,-1.10056e-01,1.15208e-03,8.21085e-02,1.21226e-01,-1.48382e-01,-1.57856e-01,-3.98214e-03,-3.92411e-02,-4.65343e-02,-2.24381e-02,-9.19980e-02,5.20648e-02,-1.26643e-01,-1.11512e-01,-3.79118e-02,1.59193e-02,9.76747e-02,8.94601e-02,-5.57547e-02,-2.49550e-02,-1.76761e-02,-2.74151e-02,-1.70268e-02,2.38619e-02,1.03703e-01,1.28420e-02,-5.34761e-02,-9.66148e-02,-3.85418e-02,-1.18684e-01,6.06147e-03,-1.21624e-02,4.27851e-02,-2.53937e-02,1.15678e-01,5.08609e-02,3.12643e-02,9.71236e-02,-2.69476e-03,1.60499e-02,3.11644e-02,8.06897e-02,3.57870e-02,6.85788e-03,2.01158e-02,7.17585e-02,3.17813e-02,-7.40201e-03,-2.04966e-02,7.86838e-03,1.32189e-01,5.29060e-02,1.25329e-03,-1.06144e-01,3.36571e-03,3.28645e-02,8.35474e-03,-8.15633e-03,6.08393e-02,-2.64269e-02,2.92761e-05,1.15892e-02,8.17044e-02,-6.63656e-02,5.26782e-02,
-4.62496e-02,-5.96075e-02,-4.56796e-02,-8.34509e-02,1.59483e-01,-6.73901e-02,3.68167e-02,9.53569e-02,1.39791e-01,4.31288e-02,1.75049e-01,1.34417e-02,2.55758e-02,-2.51275e-02,-1.65617e-02,6.44908e-02,-1.91926e-04,-5.12025e-02,1.65892e-02,-2.57973e-02,-4.95841e-02,-8.74112e-02,-5.40725e-02,-2.10461e-02,4.85239e-02,6.98758e-02,5.13724e-02,-5.75283e-02,1.26022e-01,1.82689e-02,5.95031e-02,1.84405e-01,-6.66940e-03,2.71895e-02,8.75725e-02,1.10952e-01,-2.54390e-01,-4.64352e-02,1.14946e-01,6.22181e-02,5.12189e-02,2.97760e-02,7.81067e-02,1.80969e-02,1.70686e-02,-1.35576e-01,1.94868e-01,1.71623e-02,-5.77392e-02,-4.42449e-02,-2.42003e-02,4.45214e-02,1.52735e-02,7.96839e-02,4.44249e-02,4.55259e-02,-8.87685e-02,6.39235e-02,5.22266e-02,1.40716e-02,7.59540e-02,-1.06221e-01,5.41320e-02,1.58969e-01,4.27505e-02,5.47560e-02,-3.22146e-02,-2.22540e-02,-7.84478e-02,3.99032e-02,-6.25367e-03,-3.63262e-02,2.61374e-02,1.04396e-01,6.76132e-02,-7.49274e-03,1.12037e-01,-3.93570e-02,4.68141e-02,-3.26182e-02,-3.23241e-02,1.49067e-01,5.99640e-02,-3.43897e-02,-5.10253e-03,9.45886e-02,1.06376e-01,4.62370e-02,-6.97044e-02,4.39840e-02,1.98396e-02,5.92046e-02,5.19869e-02,-5.14932e-02,2.07803e-01,2.14451e-02,-1.73674e-02,1.05493e-02,-1.36043e-01,-2.07838e-02,
1.21771e-01,9.67574e-03,-1.34204e-02,3.73606e-02,-1.57025e-01,-2.55488e-03,-9.09981e-02,-2.52825e-02,-1.40556e-02,9.39794e-02,-4.32473e-01,-1.10967e-01,1.48060e-01,-1.25661e-01,-1.06104e-01,-4.78755e-02,1.86137e-01,5.38137e-02,8.52376e-02,-1.46775e-01,3.47104e-01,9.04190e-02,-6.27779e-02,4.51782e-02,5.84462e-02,7.06179e-02,4.38024e-02,-2.25552e-01,5.92376e-02,9.30896e-02,-8.57698e-02,1.42168e-01,-5.81420e-02,-4.81214e-02,1.01391e-01,4.92728e-03,-1.73640e-02,1.08537e-01,1.63457e-01,-6.60871e-02,-6.13189e-02,-3.08318e-02,9.55484e-02,6.40933e-02,-2.00206e-03,-1.68908e-01,7.24429e-02,-1.64770e-02,-3.37903e-02,-1.15702e-02,-4.66885e-02,-1.57564e-02,-7.43883e-02,3.48744e-02,6.29950e-02,1.10941e-01,-2.60687e-02,3.93679e-02,6.13331e-03,2.28592e-02,1.01746e-01,-5.46771e-02,-5.72646e-02,6.22434e-02,1.59095e-01,-1.15568e-01,-1.52890e-02,-7.89465e-02,-1.29552e-01,-6.48459e-02,8.40234e-02,-3.69880e-02,-4.36205e-02,4.63213e-02,1.54247e-01,-5.44180e-02,-1.08015e-01,3.46269e-02,-1.77439e-02,-7.37828e-02,-1.94899e-01,-1.19180e-01,5.75145e-02,-9.69765e-02,-1.27326e-02,9.55733e-02,-9.91241e-02,4.19950e-02,4.26806e-03,-1.43426e-01,-1.72179e-02,-1.42834e-02,-1.43919e-01,-9.75831e-02,5.25046e-02,-1.37876e-01,2.46280e-02,-3.79054e-02,-5.16750e-02,-3.73539e-02,
-1.82917e-01,-1.21459e-01,-1.74954e-02,2.71930e-02,3.75556e-02,1.89610e-01,1.40536e-01,-4.74515e-02,4.78034e-02,1.47941e-02,-3.38332e-01,6.66483e-02,1.94585e-02,1.36190e-01,2.72653e-02,-2.04061e-02,4.39751e-02,5.88922e-02,3.08143e-02,3.08610e-02,-1.45898e-02,-4.64469e-02,-8.49776e-03,7.20257e-02,-3.44400e-03,-5.50653e-02,8.89083e-02,-1.20582e-01,4.89877e-02,-1.52764e-01,9.86909e-02,1.51459e-01,7.68981e-03,1.38326e-01,1.27684e-01,-8.85351e-02,-3.46215e-02,-1.60506e-02,1.90717e-01,9.48039e-02,1.10054e-02,-1.25117e-01,-5.28737e-02,-2.75052e-02,-1.01320e-02,1.65488e-01,-1.62551e-01,-3.36851e-02,5.34730e-02,1.79782e-02,3.84189e-02,-1.77074e-01,-3.93002e-02,-6.46835e-02,-3.89711e-02,-2.59001e-02,-1.81538e-02,-9.38859e-03,-5.44369e-02,-9.86438e-02,9.33033e-02,-4.40413e-02,2.89575e-02,-2.86518e-02,5.11368e-02,1.24774e-02,-9.86952e-02,9.86002e-02,-9.21012e-04,5.17313e-02,9.92613e-02,7.78442e-02,8.73184e-02,-3.23959e-02,-5.73285e-02,9.91596e-03,-7.41411e-02,1.00649e-01,9.49728e-03,8.79371e-02,3.39080e-02,1.01008e-01,1.41200e-01,-7.72137e-02,7.82397e-03,-1.11473e-01,2.27505e-02,3.51268e-02,4.25019e-02,-1.52717e-02,2.74480e-02,1.26239e-01,1.24566e-01,1.05099e-01,-5.10998e-02,2.16193e-01,5.25850e-02,-4.63609e-02,9.28627e-02,-5.22044e-02,
8.13422e-03,-3.84034e-02,-4.94788e-02,4.65725e-02,8.26850e-02,-2.82349e-02,-6.74723e-02,-9.95914e-02,-1.64019e-02,-2.45606e-03,2.54795e-02,-6.65779e-02,4.07853e-02,4.24260e-02,3.81323e-02,-1.06707e-01,2.12204e-02,8.63220e-02,2.25253e-02,-1.08495e-01,-2.95217e-03,-8.13574e-02,-3.66870e-02,-2.49814e-02,2.26041e-02,-2.12316e-02,3.77255e-03,2.81929e-02,1.73811e-02,-7.65485e-02,7.45835e-02,-3.91697e-02,2.26791e-03,-2.13767e-03,3.70726e-02,-2.28548e-02,-6.65677e-02,1.94039e-02,-2.42021e-03,-5.08674e-02,4.77992e-02,-4.60326e-02,-5.25248e-02,8.55717e-02,5.90003e-02,-8.43148e-02,-1.01671e-02,-3.71660e-02,-4.64516e-02,-8.00666e-02,4.00553e-02,2.21711e-02,-6.54929e-02,-5.95311e-02,4.33112e-02,6.20379e-02,2.53889e-03,2.26012e-02,-3.32288e-02,-4.18945e-02,-1.06430e-01,-5.05752e-03,-7.16011e-02,7.74440e-02,-9.20413e-02,8.30836e-02,5.11859e-02,4.08878e-02,2.27944e-02,-4.01606e-02,-9.21588e-02,3.53774e-02,7.34276e-02,6.58558e-03,-1.02849e-01,-5.92473e-02,2.81102e-02,9.06092e-03,-7.54002e-02,1.07181e-02,-1.31678e-03,-1.07184e-01,-8.35614e-02,-5.03819e-02,-6.80063e-02,-2.88849e-02,-5.51213e-02,-1.09429e-01,-1.05647e-02,-2.77126e-02,-4.30653e-02,-1.08890e-01,-2.83412e-03,-1.04928e-01,8.53199e-02,-8.02630e-02,-9.34467e-02,2.17960e-02,4.70633e-02,-4.65870e-02,
-1.90375e-01,-7.43832e-02,-2.25726e-02,-1.13490e-02,2.95152e-02,1.35388e-01,1.67694e-01,4.26386e-02,1.38605e-01,3.96184e-02,-2.69803e-01,1.29435e-01,6.06983e-03,-3.98852e-02,1.20504e-02,2.02207e-01,1.27524e-01,1.90328e-02,-2.84080e-02,5.75697e-03,-3.78296e-03,4.99450e-02,4.76108e-03,7.66120e-02,-1.49448e-01,-3.41889e-03,-3.43965e-02,-7.06696e-01,2.35368e-02,-2.16292e-01,-7.46451e-02,1.25117e-01,2.76559e-02,-1.33999e-02,1.35452e-02,-5.02469e-02,1.01383e-01,2.14272e-02,-1.89396e-01,2.32891e-01,1.43205e-01,-1.63394e-01,-1.07636e-01,2.05366e-01,-1.04059e-01,4.25216e-01,-5.20673e-01,9.49393e-02,-9.62676e-02,6.29310e-02,1.21311e-01,-3.21952e-01,-2.62337e-02,-5.28147e-02,1.25822e-02,-1.25025e-02,-2.55385e-02,1.72104e-01,4.26208e-02,-4.46179e-02,-2.64262e-02,-3.55529e-02,3.71069e-02,7.15901e-02,7.32788e-02,1.97438e-01,-3.67893e-02,1.39973e-01,-1.65721e-01,7.35426e-02,-8.17865e-02,-5.92203e-02,-5.33649e-02,7.86883e-03,-7.60513e-02,7.09404e-02,9.62488e-03,-6.05073e-02,-1.44386e-02,5.98713e-02,3.41168e-03,-1.40067e-02,-2.11463e-01,1.72618e-01,-6.06808e-02,-9.82274e-02,2.88449e-02,9.20503e-03,1.01396e-01,1.30228e-01,-1.76481e-01,8.34278e-02,1.52244e-01,-2.02838e-02,6.00480e-02,-2.91979e-01,1.99080e-01,-4.50432e-02,4.22043e-02,1.90647e-01,
1.08865e-01,-1.82645e-02,-1.27377e-02,-6.28495e-02,-1.04168e-01,9.34235e-03,9.81450e-02,-6.50030e-02,-3.90186e-02,1.01286e-01,1.77445e-01,1.28803e-01,3.63671e-02,-8.23601e-02,-7.72924e-02,7.88793e-02,2.13476e-02,-5.26332e-02,1.82142e-01,-7.75743e-02,-1.47289e-02,-3.96120e-02,2.62451e-02,7.86171e-02,-6.41790e-02,7.94743e-02,-5.18087e-02,6.19609e-02,-1.45470e-02,1.17592e-01,-4.60436e-02,3.00760e-01,-2.38116e-03,-7.09013e-02,-1.06431e-02,1.04584e-01,1.08115e-01,1.51993e-01,1.57730e-01,-4.79437e-02,-6.09662e-02,1.12761e-01,1.80737e-02,3.52563e-02,1.88975e-02,9.19808e-03,1.18950e-01,-3.51275e-02,-3.60954e-02,1.10181e-01,9.42087e-02,3.32772e-02,8.89871e-02,4.37925e-02,6.59033e-02,3.38658e-02,-1.25434e-02,2.43562e-02,1.33502e-05,-1.81618e-02,5.97902e-03,-6.29339e-02,-3.10562e-02,-2.57043e-02,-8.81057e-02,-7.86628e-02,-1.90134e-02,-4.62188e-02,3.35743e-03,-3.14192e-02,1.09231e-01,8.28521e-02,-2.60536e-02,-1.32579e-01,2.40079e-02,-5.93177e-02,-2.03317e-02,-2.07702e-02,-1.13744e-01,-5.74660e-02,-3.66954e-02,-9.42608e-02,-7.84697e-02,4.85926e-02,-6.59291e-02,-1.39465e-02,1.08636e-01,5.77422e-02,6.13401e-02,-2.38921e-02,-5.37206e-02,1.36055e-01,1.50704e-01,1.13454e-01,4.52275e-02,-4.96492e-02,-5.65087e-03,9.00753e-02,4.51911e-02,1.21198e-01,
9.54022e-02,1.29997e-01,3.65091e-02,-5.22978e-02,6.40639e-02,-3.72849e-02,-2.17046e-01,-4.12181e-02,-6.77325e-02,-3.32767e+00,4.45455e-02,-2.47847e-01,1.22767e-01,-1.45248e-01,4.88798e-02,-2.79403e-01,-1.10617e-01,7.35016e-02,-7.09313e-02,-9.41853e-02,1.68357e-01,-6.88735e-02,-1.68128e-01,7.50032e-05,1.53521e-01,-1.07854e-01,-3.81366e-03,1.24836e-02,2.86707e-02,-1.87161e-02,5.60311e-02,-3.97225e-01,6.16250e-02,2.13827e-02,1.64514e-01,3.26687e-02,-3.80430e-02,-3.26075e-02,6.98550e-02,-3.01611e-01,-1.99747e-02,3.19617e-03,-2.37707e-02,-9.91474e-02,-6.30943e-02,4.54047e-03,-8.27147e-02,-5.02962e-02,5.15707e-02,1.16788e-01,-1.15417e-01,4.86335e-01,4.71861e-02,-2.33160e-02,2.33893e-02,-1.06277e-01,-3.13061e-02,1.14438e-02,-1.67431e-01,8.56966e-02,1.76063e-01,1.46196e-01,-5.50066e-02,7.02746e-02,-4.78880e-03,-1.53805e-01,9.75482e-02,-7.44733e-02,3.16603e-01,7.78755e-02,1.14129e-01,6.72056e-02,-2.61669e-02,-3.13430e-02,-4.63143e-02,-6.37225e-02,-8.62981e-02,1.46609e-01,-6.67487e-01,4.41577e-02,3.45710e-03,-5.62590e-02,5.00249e-01,-3.79975e-03,2.66791e-02,1.17935e-01,1.09509e-01,-3.07067e-01,-1.81168e-01,-2.45421e-01,2.32147e-01,-1.30317e-01,-9.48671e-02,5.69337e-03,1.31147e-02,4.17715e-01,-2.04632e-01,-1.29775e-01,9.80295e-02,-1.08493e+00,
6.73801e-03,3.96698e-02,-4.53916e-02,2.60183e-02,-1.42051e-01,5.01982e-02,8.61064e-02,-4.62260e-02,1.21411e-01,4.46128e-02,-3.33615e-02,7.95139e-02,-7.55763e-02,-4.18410e-03,-7.19402e-02,-2.23834e-02,-7.11338e-02,-2.34469e-02,2.50061e-01,-8.58681e-02,-6.36224e-02,-3.78106e-02,1.04574e-01,9.10076e-02,3.27695e-02,4.96259e-02,2.35919e-02,-1.75223e-02,3.39390e-02,1.36723e-01,9.06491e-02,4.49935e-02,2.09332e-02,-4.71692e-02,3.95312e-02,5.26631e-02,2.36584e-01,2.78166e-02,-7.46773e-02,1.24471e-01,6.25824e-02,1.01032e-01,-1.09279e-01,2.94417e-02,7.41306e-02,-2.34327e-02,1.04551e-01,-2.93100e-02,7.29832e-02,2.94617e-02,1.31068e-01,7.08046e-02,6.92612e-02,-5.76602e-02,7.09008e-02,2.60926e-02,8.54488e-03,2.56609e-02,1.43462e-02,-3.25807e-02,3.73035e-02,1.61118e-01,1.46103e-02,-1.61426e-01,6.65355e-02,2.76875e-02,2.21187e-02,-1.37044e-02,5.38156e-03,-1.40225e-02,2.79670e-02,5.24983e-02,4.59547e-02,-2.13648e-01,4.29770e-02,-8.38252e-02,6.19600e-02,-3.60955e-02,-6.53855e-02,-2.33414e-03,9.39943e-02,-9.02228e-03,1.04569e-01,-3.46471e-02,-1.59056e-02,3.26407e-02,9.99267e-02,7.44701e-02,1.84976e-02,4.77627e-02,-5.06139e-02,5.30351e-02,7.40124e-02,1.83203e-01,-1.85269e-01,5.98846e-02,2.74835e-03,-4.42938e-02,6.69374e-02,9.78328e-02,
-7.91142e-03,1.03789e-02,7.03914e-02,-3.38902e-02,-2.17861e-02,1.08219e-01,1.44822e-01,8.87117e-02,-3.75529e-02,5.60199e-02,2.46465e-01,-2.66241e-03,1.41944e-02,-1.63952e-02,2.61953e-02,7.63873e-02,6.49873e-02,-9.41720e-02,9.48928e-02,-4.33305e-02,-5.31049e-02,-1.78664e-02,-6.33259e-03,6.91636e-02,9.31769e-02,1.70172e-02,4.77095e-02,-2.47212e-02,-5.91535e-02,1.47086e-01,-5.22372e-02,1.33897e-01,1.06306e-01,-6.39208e-02,5.44029e-02,6.23970e-02,1.76234e-01,1.62545e-01,9.24550e-02,1.59652e-02,5.12840e-03,8.09545e-02,1.30482e-02,-4.53510e-03,1.95156e-03,3.00393e-02,2.22710e-02,6.18084e-02,-4.99318e-02,4.83635e-02,-3.75031e-02,-5.73100e-02,1.47903e-02,1.62307e-02,3.28979e-02,2.97987e-02,-4.25546e-02,-7.38851e-02,4.17463e-02,9.16607e-03,1.01991e-01,7.46262e-02,5.92063e-02,-8.94685e-02,9.17741e-02,-1.07237e-01,4.46402e-02,4.54031e-02,-2.07121e-02,-4.51348e-02,8.83822e-02,-1.64214e-03,-6.21682e-02,-8.54936e-02,-6.46377e-03,-6.08541e-02,5.40902e-02,2.17065e-02,-3.76390e-02,-4.67790e-02,-6.62247e-02,-5.38165e-02,6.68874e-03,-7.89994e-03,9.46230e-02,-5.64351e-02,8.49608e-02,1.27370e-01,-5.70093e-02,-4.76951e-02,6.87454e-02,1.13693e-01,6.94305e-02,3.35556e-02,-1.14342e-01,-6.95027e-02,1.62224e-01,-2.02670e-02,1.05221e-01,-2.31809e-02,
1.14328e-01,-4.22790e-02,2.51666e-02,4.86112e-02,3.37513e-02,9.62155e-03,-1.34317e-02,1.05906e-01,-7.00928e-02,5.10896e-02,1.79781e-01,-1.05504e-01,6.09433e-02,1.70028e-02,-5.94408e-02,-1.87343e-02,-4.39772e-02,9.11231e-04,1.04231e-02,2.64497e-02,-9.99771e-02,9.81973e-02,3.75423e-02,-1.15362e-01,1.05836e-01,4.26169e-02,8.03202e-02,2.99533e-02,-3.60300e-02,-9.12932e-02,2.72506e-02,-1.10136e-02,-2.33610e-02,-2.65400e-03,-1.60889e-02,-3.93999e-02,-2.07610e-01,1.47917e-01,-2.20773e-03,3.89787e-02,6.97264e-02,1.69428e-02,2.16531e-02,4.28707e-02,2.79915e-02,-1.99943e-02,-1.21187e-02,8.03868e-02,3.70148e-02,5.11083e-02,-8.17152e-02,4.48514e-02,2.92877e-02,-3.30429e-02,8.00055e-02,-7.76970e-02,-1.11177e-01,-3.46311e-02,-2.81044e-02,2.95547e-03,2.44491e-02,5.35979e-02,6.06905e-02,3.18933e-02,1.24207e-01,3.30965e-02,6.95992e-02,-2.69031e-02,-9.99483e-04,-3.64702e-02,9.71579e-03,1.25910e-02,9.66692e-02,1.49928e-01,-1.11180e-02,2.67701e-03,-2.81367e-02,4.61233e-02,-3.05143e-02,8.04476e-02,7.07271e-02,9.53767e-02,8.69473e-02,2.61086e-02,1.07664e-02,-6.06281e-02,2.76203e-02,5.49858e-02,1.03167e-01,-7.18209e-02,4.48714e-02,4.19458e-02,5.13677e-02,-3.73106e-02,1.56819e-01,5.37210e-02,-3.88024e-02,-2.42824e-02,1.09391e-02,1.56438e-02,
-8.38981e-02,-2.41424e-02,7.93601e-02,-1.00361e-02,-9.02603e-02,8.67096e-02,-1.02530e-01,1.04090e-02,8.82707e-02,-1.21675e-01,-6.20788e-01,-8.49184e-01,1.26603e-01,1.90783e-02,5.96260e-02,5.02294e-02,-6.23771e-03,-1.21454e-01,3.61158e-02,7.15925e-02,3.03444e-02,4.39089e-03,1.39257e-01,7.94857e-02,7.85715e-02,9.58281e-02,1.99646e-02,1.04805e-01,1.18720e-01,1.60780e-02,-7.63866e-02,-1.92877e-01,-4.49332e-02,9.98980e-02,5.81786e-03,-7.18364e-03,-2.30103e-02,1.10712e-01,-8.20654e-02,1.44335e-01,-3.65134e-02,7.76496e-02,3.69095e-02,-5.62513e-02,-1.71502e-02,1.82059e-01,1.67473e-01,1.98418e-02,-2.11092e-02,3.00452e-02,-2.26402e-02,-9.75952e-03,8.73382e-02,-4.29436e-02,2.40342e-02,2.25387e-02,2.69309e-02,1.16947e-02,4.90280e-02,-4.62549e-02,2.03496e-02,2.14693e-02,7.36433e-02,-4.10979e-02,1.48786e-01,-1.06947e-01,1.06463e-03,6.56348e-02,8.40158e-02,4.02394e-02,-1.62245e-02,-4.98361e-02,-9.27214e-02,-9.65840e-03,5.63412e-02,-4.69292e-02,5.08148e-02,-9.02055e-02,2.47066e-02,9.75752e-02,-1.58379e-02,1.68445e-02,8.06876e-02,1.24846e-01,9.17640e-02,-3.02713e-02,8.64806e-02,2.14686e-01,4.72787e-02,8.84962e-02,6.16543e-02,-4.76836e-02,2.73172e-01,-1.22045e-03,-7.03260e-03,5.14366e-03,-5.05232e-02,5.13527e-02,-1.06566e-01,1.51605e-01,
5.60077e-02,-3.65888e-03,-1.01878e-01,2.39596e-01,-9.77855e-02,2.09578e-01,-7.94787e-02,5.66863e-02,9.13406e-03,-4.25210e-01,-3.02558e-01,-1.27421e-01,1.91246e-02,5.66403e-02,8.91033e-02,-7.27552e-02,-4.54733e-02,-3.36572e-02,7.40922e-02,5.89585e-02,-6.53331e-01,-3.19420e-02,7.19396e-02,4.89310e-02,6.53775e-02,-1.97532e-02,4.38533e-03,-2.69539e-01,1.81700e-01,-4.70952e-02,-9.68728e-02,1.61244e-01,5.60076e-02,7.32034e-02,-1.06485e-01,3.11810e-02,-5.60943e-02,-1.55636e-02,8.74950e-03,1.88498e-02,3.95897e-02,-7.52620e-02,-5.52322e-02,4.10112e-02,-8.06375e-02,2.73471e-01,9.29961e-03,-3.56866e-02,-4.06287e-02,-7.98219e-02,5.36190e-02,-1.20121e-02,3.52312e-02,6.00061e-02,-5.66269e-02,-8.61532e-02,2.58464e-02,2.59150e-02,-1.62832e-01,2.23237e-02,5.01731e-02,-1.92988e-02,1.20948e-01,-5.12449e-02,1.94608e-01,-1.70170e-02,-5.36257e-02,-2.81668e-02,-1.30202e-02,-1.17705e-02,6.34170e-02,8.62434e-02,-7.71092e-02,-1.42198e-02,6.56744e-02,1.81403e-01,-1.48804e-01,-1.21317e-01,-1.26679e-01,1.31502e-01,1.18762e-01,-5.43126e-02,2.02693e-01,-2.90808e-02,3.30122e-03,-3.87040e-02,-7.63623e-02,9.84600e-02,-1.62564e-02,1.26142e-01,-7.34812e-02,-1.72598e-02,-3.36818e-02,1.13671e-02,1.08832e-01,3.86241e-02,6.40480e-03,-2.09414e-02,-1.76247e-01,-1.70586e-01,
1.74880e-01,4.61567e-02,-2.28778e-02,-7.51292e-02,-4.90013e-02,8.98159e-02,1.46908e-01,-1.31943e-01,4.19429e-02,2.89842e-01,-1.25366e+00,-5.17278e-01,9.72473e-02,-1.13817e-02,-2.34763e-02,5.45558e-02,1.69850e-01,-3.29887e-02,-3.14472e-02,5.96536e-03,9.79667e-02,1.10735e-01,-1.01265e-02,1.16090e-02,-4.98635e-03,9.43530e-02,3.05930e-02,1.85084e-02,7.45395e-02,1.07297e-01,-1.18818e-01,2.59542e-01,-4.98110e-02,-1.19409e-01,-3.19546e-02,8.87573e-02,2.40043e-04,-1.32825e-02,-4.51468e-02,1.53132e-01,9.06246e-02,-7.92101e-02,-2.66701e-02,9.89182e-02,-1.67982e-02,-7.62848e-02,-2.55679e-03,1.44323e-01,6.92852e-02,-7.54435e-02,-6.43454e-02,-2.08523e-02,1.37631e-02,-3.26586e-02,2.05022e-02,-9.70220e-02,-2.27525e-02,-3.23000e-02,-1.58480e-01,2.30018e-02,-4.45526e-03,-6.86014e-02,1.12715e-01,-1.85350e-03,4.76428e-02,6.67766e-02,2.59332e-02,8.57183e-02,7.49868e-02,-1.02408e-02,-9.96705e-02,4.29701e-02,-8.65294e-02,-3.34082e-02,1.16772e-01,-1.25013e-01,8.34550e-02,-4.20383e-02,8.87677e-03,1.05111e-01,-4.79405e-03,-2.00645e-02,2.47884e-03,-3.50599e-02,-1.01367e-01,1.73587e-01,-2.17717e-02,8.38975e-02,1.06450e-01,2.39996e-02,1.08201e-01,2.02690e-02,4.40802e-02,4.15951e-02,-2.82553e-02,-1.35794e-01,-1.12525e-01,-1.66091e-02,-5.24098e-03,1.36997e-01,
6.78385e-02,-2.93693e-02,1.66382e-02,-2.72262e-02,-4.25976e-02,1.85439e-02,-2.20265e-02,6.16690e-02,7.39687e-02,-5.74403e-02,-4.46055e-02,-5.51930e-02,1.93816e-02,4.36976e-02,3.94346e-02,-8.22549e-02,-1.14691e-01,-8.04176e-02,3.28779e-02,2.12242e-02,5.02705e-02,-8.17657e-03,-1.57086e-02,2.59675e-02,-3.03053e-03,3.20931e-02,-5.92234e-02,-5.20946e-02,5.24164e-02,-5.97866e-02,3.85079e-02,-2.89175e-01,-2.85079e-02,1.03401e-01,-6.16168e-02,-5.08146e-02,-1.48123e-01,-9.09336e-02,3.53975e-02,6.39300e-02,-2.62975e-02,-5.74825e-02,3.81804e-02,-1.06260e-02,1.73399e-02,1.54218e-01,-5.91813e-03,8.93405e-02,4.24079e-02,-8.70461e-03,1.08150e-02,7.88784e-03,-2.74279e-02,-4.22100e-02,-4.14372e-02,1.26497e-02,7.71954e-02,-5.91737e-02,-5.69393e-02,-2.21302e-02,-7.79641e-02,8.14274e-03,1.12330e-01,-4.44190e-02,1.13366e-02,-7.00772e-02,8.45851e-02,5.22412e-02,-1.42356e-03,-3.39324e-02,-6.07013e-02,8.16482e-02,-1.07040e-01,2.76650e-02,6.74382e-02,2.98112e-02,-5.89328e-02,6.28136e-02,4.03487e-02,1.19356e-01,-3.71311e-02,6.31837e-02,1.31096e-02,5.52614e-02,7.44303e-02,-6.31255e-02,-1.16803e-01,-7.19642e-02,4.10144e-02,9.70098e-02,-3.29597e-02,5.75463e-02,1.03328e-01,5.78944e-02,3.01520e-02,1.18337e-01,1.22102e-01,-5.57136e-02,-1.06210e-01,-9.30807e-02,
-1.27900e-01,-8.50560e-02,-5.50955e-02,9.27665e-02,3.86753e-03,3.26742e-02,1.34472e-02,1.32084e-01,1.27294e-01,1.93254e-01,2.93136e-01,7.98162e-02,-6.37666e-02,5.25557e-02,-7.43448e-02,1.04922e-01,9.55904e-02,1.70427e-01,2.36648e-02,1.74034e-01,-9.93860e-02,-9.88356e-02,7.05286e-02,6.94626e-03,-3.24272e-02,2.79000e-02,-1.46890e-01,-3.65227e-01,1.71924e-01,1.91807e-01,6.58585e-02,-3.32952e-02,7.87622e-03,1.11281e-01,1.14524e-01,-4.85352e-02,-1.82358e-01,1.63561e-01,1.70467e-01,1.23422e-01,6.72457e-02,1.05922e-01,-1.16849e-01,8.90951e-02,6.45885e-02,-2.12706e-02,9.50442e-02,5.87983e-02,4.69455e-02,-2.36636e-03,-1.79790e-02,-8.95589e-02,5.55268e-02,5.60262e-02,1.24473e-04,4.06214e-02,-3.50983e-02,1.67067e-01,1.45798e-01,-7.55797e-02,-1.36691e-01,-7.40896e-02,2.45799e-02,-4.51739e-03,9.33588e-02,-1.30445e-02,-1.16058e-01,4.03851e-02,-1.20484e-01,6.46213e-02,-1.02723e-01,3.99129e-02,-4.14977e-02,8.71504e-03,3.68215e-02,-1.73556e-01,1.16102e-01,6.30034e-02,7.59273e-02,7.40598e-02,-3.98269e-02,1.05960e-01,6.32175e-02,-5.46980e-02,-3.26555e-02,-1.77928e-01,-1.55439e-02,-4.29825e-02,1.25016e-01,2.92609e-02,-2.38972e-01,5.48213e-02,-4.69281e-02,5.15056e-02,-2.89676e-02,-2.10190e-02,1.31941e-01,3.14778e-02,1.25304e-01,-2.68068e-02,
-3.13367e-02,7.90809e-02,1.47068e-01,-4.53895e-02,6.04628e-02,-7.69975e-02,8.68628e-02,4.62697e-02,7.30586e-02,1.16527e-01,2.93980e-01,1.40241e-01,1.11534e-01,-5.91264e-02,5.33232e-02,-1.69908e-02,3.28541e-02,3.38390e-02,2.00035e-02,3.77527e-02,5.22039e-02,6.03388e-02,-7.43508e-02,1.55148e-02,8.78168e-02,-6.03058e-02,7.42242e-02,-8.05319e-03,-4.21948e-02,5.38361e-02,-1.32343e-01,1.44074e-01,1.03417e-01,9.47765e-02,8.83653e-02,5.63138e-02,3.68580e-02,-4.99837e-02,1.32180e-01,8.49439e-02,1.01370e-02,-5.07075e-02,2.72822e-02,5.16152e-02,7.28968e-02,-6.94818e-02,1.25640e-01,5.03143e-02,6.90750e-02,4.26822e-02,4.77961e-02,4.66511e-02,-9.42119e-03,3.02716e-02,3.92848e-02,9.76774e-02,4.77925e-02,-9.42825e-02,2.98453e-03,-1.67513e-02,3.34489e-02,-1.12142e-01,6.21698e-02,1.35732e-02,-7.01126e-02,8.81163e-02,7.76942e-02,7.19022e-02,4.36490e-02,1.00736e-03,-2.75370e-02,-1.52647e-02,6.32327e-02,1.17750e-02,3.41236e-02,6.83891e-02,-6.13832e-02,-1.41104e-02,9.10478e-03,-3.89445e-02,-1.77410e-02,4.76911e-02,6.88078e-03,1.24198e-01,1.08595e-01,9.71419e-02,1.04047e-01,1.17931e-01,-8.20523e-02,-5.38635e-02,-5.85729e-03,-7.61995e-02,8.93373e-02,-1.05080e-02,-3.92180e-02,-1.00874e-02,-4.55978e-02,-5.39178e-03,-5.20157e-02,3.77981e-02,
-1.15996e-01,7.86596e-02,9.48523e-02,8.73043e-04,9.10927e-02,-5.21096e-02,7.50211e-02,5.47555e-02,1.08558e-01,1.55756e-01,1.41014e-01,9.40004e-02,2.45228e-02,-4.97061e-02,-9.94025e-02,3.66984e-02,5.87901e-02,7.57712e-02,-3.76148e-02,-7.03643e-02,-4.94990e-03,-1.26130e-01,-2.63706e-02,6.32704e-02,7.77272e-02,-4.94904e-02,-1.72303e-02,2.45138e-04,-3.87571e-02,6.25847e-02,-8.62031e-02,1.46216e-01,-6.71910e-02,2.70748e-02,9.78204e-02,2.90911e-02,-6.20818e-03,2.69017e-02,1.09946e-01,7.76796e-02,-1.69061e-02,-4.31558e-02,3.93348e-02,-2.76720e-02,5.87505e-02,-1.67761e-01,-1.79381e-01,5.68831e-02,-2.51527e-02,1.67161e-02,-7.94914e-02,-1.56974e-01,5.29119e-02,1.32795e-02,4.00983e-02,-2.06666e-03,9.85815e-02,5.73070e-03,-1.45512e-02,-3.95786e-02,3.90934e-02,-8.54236e-02,9.36799e-02,-6.41135e-03,-9.89241e-02,3.05257e-02,1.49671e-02,1.21534e-01,7.41927e-02,-3.22614e-02,-9.24190e-02,-7.19112e-02,4.66697e-02,6.13409e-02,4.13770e-02,2.20619e-02,9.72876e-02,-6.90814e-02,-3.01149e-02,-2.72005e-02,-2.58039e-02,1.00666e-01,-1.01470e-01,1.05561e-01,-1.88378e-02,-3.77800e-02,5.82133e-02,6.76670e-02,4.54354e-02,7.58183e-02,1.38488e-02,-7.87817e-02,2.83959e-02,1.19013e-02,5.42615e-02,-9.47749e-02,6.01126e-02,3.98100e-02,-6.57695e-02,1.29384e-01,
3.75384e-02,-9.64727e-02,-6.14438e-02,-1.01689e-01,-1.41291e-02,-2.19268e-01,-3.27949e-02,-5.88435e-03,-5.59625e-02,1.17968e-01,-2.14669e-01,-5.52985e-01,-3.09849e-02,4.87763e-02,9.92017e-02,-5.19758e-02,4.92629e-02,-6.05943e-02,-1.28534e-02,-4.37308e-02,-3.60828e-01,1.39184e-01,6.00080e-02,2.20402e-02,1.53714e-01,-5.21837e-02,-2.42512e-01,2.13328e-01,2.25808e-01,1.65552e-01,-1.76326e-02,5.24523e-02,3.11243e-02,-2.05214e-02,1.04270e-02,7.98999e-03,-7.25163e-02,1.05329e-04,-4.06461e-01,-4.15926e-02,-1.09550e-02,5.20082e-02,-2.96712e-01,-1.79387e-01,-3.77767e-02,-4.19362e-02,2.30310e-01,2.10762e-02,9.43479e-02,2.77017e-02,-4.87390e-02,5.58545e-02,6.30016e-02,2.33556e-02,3.58019e-02,-5.37640e-03,1.44170e-02,-1.46371e-02,-1.13262e-01,-1.07416e-02,1.56455e-02,1.37841e-02,2.32408e-02,-8.16519e-02,1.73375e-01,1.15249e-02,4.13007e-02,-8.90276e-02,-9.28629e-03,4.02914e-02,-5.75943e-02,4.05807e-02,-1.30087e-01,-6.37775e-02,9.29182e-02,-3.14581e-02,5.39017e-02,-1.24009e-01,3.74097e-02,-5.53516e-02,6.47982e-02,-2.33787e-02,-1.21450e-01,-3.72309e-02,-1.68717e-02,-1.72460e-02,5.74277e-02,2.22055e-02,-4.05462e-02,6.15667e-02,-4.51116e-02,1.07166e-01,3.61802e-01,-3.61067e-02,9.14597e-02,-2.00807e-01,9.56160e-02,6.53076e-02,-1.51431e-01,6.78349e-02,
-6.60011e-02,-1.47044e-01,-4.19829e-02,-4.90960e-02,-6.78313e-02,-1.10201e-01,7.33271e-02,3.94344e-02,1.96068e-01,-4.95619e-02,1.54981e-01,-2.51864e-01,-1.65826e-01,3.21563e-02,-9.39730e-02,1.31629e-01,2.54379e-02,4.29425e-02,1.52168e-02,5.92774e-02,-7.76841e-02,7.48918e-02,-1.86019e-02,3.60732e-02,-2.48792e-01,5.20701e-05,-2.78912e-02,-2.82221e-01,9.28053e-02,3.80266e-01,-4.62149e-02,-3.24541e-01,-3.91660e-02,1.72882e-02,3.21312e-02,-2.79980e-02,1.21100e-01,-6.18071e-02,-4.84785e-01,9.73484e-02,1.23519e-01,3.21890e-02,1.13215e-02,1.76845e-01,-6.01884e-02,-3.24988e-01,4.35387e-01,1.15570e-01,5.26146e-02,3.46079e-02,4.10462e-02,-1.47214e-01,-3.22136e-03,3.25421e-02,1.68848e-02,7.04674e-02,-3.10967e-02,8.77145e-02,-1.30668e-02,-8.58557e-02,-7.79291e-02,-1.75652e-02,5.11178e-02,1.64379e-02,9.61213e-02,1.62638e-01,4.61842e-02,1.93639e-02,8.63245e-03,-6.65103e-04,-4.48263e-02,-2.59519e-02,-9.12042e-02,-9.48945e-02,-1.60473e-02,-9.91261e-02,4.60738e-02,4.66839e-02,3.38313e-02,-5.45440e-02,-1.48570e-01,-1.50469e-02,-1.81807e-01,-7.56837e-02,-4.03208e-02,-7.86146e-03,-1.42461e-02,1.21675e-01,1.08223e-01,6.37867e-02,6.92309e-03,1.07005e-01,1.43320e-01,1.12541e-01,2.41369e-02,-3.36570e-01,8.85959e-02,6.04658e-02,2.62658e-02,1.58095e-01,
-2.72624e-02,6.06598e-02,1.28060e-02,5.74828e-02,-7.60870e-02,7.38543e-02,1.32722e-01,-4.01558e-02,8.62859e-02,-1.21602e-02,-6.32017e-02,-1.04451e-01,2.05187e-01,9.72433e-02,4.82686e-02,-1.69994e-02,-3.20985e-02,2.43787e-02,-4.98738e-02,-4.43000e-02,4.55222e-03,3.29152e-02,6.17390e-02,-2.11770e-02,-3.50791e-02,-5.02904e-02,6.22767e-02,1.32345e-01,1.20696e-01,-5.78322e-02,-1.79826e-02,-4.93713e-02,2.38612e-02,1.19676e-01,5.18173e-03,-1.79186e-02,2.18247e-02,6.25126e-03,1.07937e-01,1.60873e-02,-4.40980e-02,-5.64227e-02,-5.95467e-02,3.81912e-02,8.77092e-02,9.91219e-02,4.18866e-02,4.48609e-02,5.73545e-02,3.97506e-02,6.02206e-02,-1.24101e-01,6.13820e-02,-4.52552e-02,-8.10154e-02,5.38836e-03,4.98155e-02,-4.06499e-02,-1.09197e-01,-7.35642e-02,-3.61504e-02,-5.89097e-02,-7.18790e-02,-5.21422e-02,-4.47863e-02,1.26523e-02,3.15070e-02,2.35419e-02,-1.20961e-02,-9.82408e-03,-7.10826e-02,7.73906e-02,7.88814e-02,9.24382e-02,-6.24695e-02,5.61197e-02,-4.01158e-02,8.24962e-02,1.23760e-01,1.36745e-02,3.16197e-02,-1.01330e-01,1.69891e-01,-6.61349e-02,-7.29376e-02,1.66841e-03,4.41644e-02,3.36376e-02,7.83904e-02,2.05059e-02,-1.15461e-02,8.45636e-02,-2.59717e-02,5.09148e-02,6.16632e-02,1.42942e-01,-3.87264e-02,-1.69138e-02,1.44097e-02,8.18570e-02,
2.54613e-02,-3.73130e-02,5.87713e-02,-2.36384e-02,4.73588e-02,1.08834e-01,5.70220e-02,2.99775e-02,6.92640e-02,-1.31734e-03,-1.55772e-02,1.07335e-01,7.91966e-02,5.35419e-02,-4.33638e-03,2.24159e-02,-4.08529e-03,8.42328e-02,-2.92115e-02,-1.18304e-01,1.88111e-02,-7.38043e-02,-2.27245e-02,-8.74484e-02,5.47327e-02,1.04030e-02,-6.68313e-02,-1.10494e-02,-4.50699e-02,6.79099e-02,9.89282e-02,-2.69642e-02,1.93609e-02,-4.15555e-02,-1.03996e-01,-1.92148e-02,-1.37775e-01,5.68487e-02,5.79745e-02,8.23845e-02,8.42670e-03,8.41875e-02,2.99368e-02,-1.19561e-03,5.29394e-03,8.11218e-02,1.03226e-02,6.40306e-02,-7.93072e-02,1.22617e-01,-6.75956e-02,-4.76224e-02,1.36498e-01,-6.16974e-02,6.83666e-02,8.13490e-02,3.23069e-02,-6.63784e-02,9.36264e-02,2.12451e-02,-1.20501e-03,3.47078e-02,-1.20502e-02,1.08384e-01,-1.32915e-02,-3.97989e-02,2.70223e-02,2.67315e-02,-2.74489e-03,4.17616e-02,7.79601e-02,-2.51097e-02,7.52378e-02,-3.24354e-02,1.37814e-02,4.27010e-02,-1.43591e-02,8.55240e-02,-4.84386e-02,-1.79882e-02,-3.12162e-02,4.48476e-02,-8.13600e-02,6.18764e-03,4.48692e-02,-2.80663e-02,1.13973e-03,1.04107e-01,2.80142e-02,-6.29886e-02,4.75620e-02,-4.85930e-02,9.42670e-02,-2.02094e-03,9.05220e-02,-5.98755e-02,-3.62676e-02,4.81453e-02,-4.16884e-02,4.24039e-02,
7.58940e-02,-2.16346e-01,1.11821e-01,1.82860e-02,2.16576e-02,-1.25203e-01,-2.13531e-02,1.43716e-01,-7.12681e-02,1.51657e-02,2.07664e-01,2.40657e-01,-1.25621e-02,-1.41899e-01,9.55990e-02,-3.52644e-02,-3.13446e-02,-1.76482e-01,1.18517e-02,-5.74942e-02,-2.17237e-03,1.41769e-01,2.27584e-02,9.45744e-03,-1.16351e-01,1.43663e-02,1.17759e-02,1.48400e-01,9.20602e-02,1.46769e-01,-8.60947e-02,2.04444e-01,-5.51040e-02,-3.84230e-02,2.55063e-02,3.36450e-02,-1.36819e-01,5.11246e-03,-2.61059e-02,-2.94292e-02,5.41887e-02,3.45197e-03,3.58189e-02,1.01729e-01,1.12222e-02,-1.11121e-01,-6.85389e-02,2.10498e-03,5.99987e-02,-8.50567e-02,8.25743e-02,3.34658e-02,-1.31335e-01,2.94504e-02,-3.11678e-02,-2.15119e-02,2.22159e-02,-1.03819e-01,5.98359e-03,-3.01727e-03,6.47305e-02,-3.63243e-02,6.68141e-02,-7.50875e-02,-1.13800e-01,6.28664e-02,-5.84754e-02,4.50979e-02,-2.12983e-02,6.00615e-03,-9.34640e-03,9.24239e-03,-2.20938e-02,-7.64531e-02,-3.99368e-02,-2.28627e-02,4.03587e-02,-3.74714e-02,-1.92327e-02,-1.77816e-02,-1.03545e-01,1.84007e-02,-4.18503e-02,-1.67423e-03,2.74852e-02,6.36899e-02,7.76401e-02,8.91615e-02,1.99573e-02,1.01067e-01,8.24622e-03,2.65365e-02,-3.50453e-03,-9.65122e-02,7.42355e-02,-8.18719e-02,4.41514e-02,-2.36567e-02,1.22518e-02,1.77275e-01,
8.94558e-02,-9.72615e-02,8.61620e-03,-7.93810e-02,-1.98156e-02,-7.38281e-02,3.13245e-03,5.54155e-02,-5.68363e-02,7.89706e-02,3.95489e-01,1.11818e-01,-2.05821e-02,7.96651e-02,-8.58600e-02,6.69658e-02,-7.89815e-03,3.94638e-02,-4.51342e-02,-5.89481e-03,-3.00383e-02,7.08450e-02,-9.83703e-03,-3.58047e-02,-1.07669e-02,-7.63382e-03,-1.17571e-02,1.46136e-01,-9.36401e-02,-1.06156e-02,3.06763e-02,8.95915e-02,-1.73922e-02,-1.17322e-01,3.08897e-02,4.47239e-02,1.28347e-01,-4.44082e-02,5.77155e-02,-1.09013e-01,5.53973e-03,8.08308e-03,-7.92651e-02,8.43309e-02,-2.85108e-02,-1.63992e-01,5.32169e-02,-3.76638e-02,-9.43327e-02,-5.89285e-02,3.16601e-02,8.38766e-02,-2.42008e-03,8.26263e-02,5.67848e-02,1.36651e-02,-7.28266e-02,5.93369e-02,-5.45408e-02,4.44699e-02,-1.24366e-02,4.08291e-02,-4.55041e-02,-1.43348e-02,1.02883e-01,6.52728e-02,3.99806e-02,1.17344e-01,-5.37111e-02,3.05055e-02,2.93406e-02,1.20404e-02,-6.93606e-02,-1.34379e-01,-7.11254e-02,1.08087e-01,1.15983e-01,5.16494e-02,4.00989e-02,-6.49405e-02,2.07798e-02,-5.98749e-02,-1.52203e-01,-1.81060e-02,1.91714e-02,1.01792e-01,1.75284e-02,-8.69205e-03,7.94305e-02,7.81298e-02,4.08293e-02,1.70920e-01,-8.94056e-02,4.72963e-04,-8.30532e-02,-8.72445e-02,4.60780e-02,-2.95449e-02,1.02753e-01,1.23284e-01,
3.35120e-02,-1.28512e-02,-1.40388e-01,1.14656e-01,9.27030e-02,-5.72778e-03,-3.37240e-02,1.59732e-01,7.13060e-03,4.92760e-02,-1.48370e-01,7.01795e-02,3.85888e-02,6.72944e-02,-1.32505e-02,-8.40133e-02,3.18106e-02,-5.39798e-02,3.28036e-02,-1.55417e-02,2.93800e-02,-3.87971e-02,-5.95350e-03,1.24980e-01,5.54366e-02,1.35791e-02,2.56555e-02,1.16564e-01,2.42990e-02,1.60103e-01,1.01873e-01,1.68298e-02,-3.90280e-02,-8.70575e-02,3.28832e-02,5.82527e-02,1.43053e-01,2.10424e-01,2.36875e-02,1.40421e-01,1.34250e-01,2.97437e-02,8.53317e-02,5.27654e-02,3.74809e-02,1.81725e-01,-1.47679e-02,6.62782e-02,-2.90614e-02,2.07753e-02,7.76217e-02,-2.92540e-03,1.59979e-01,4.31654e-03,-6.28446e-02,3.76805e-02,4.63915e-03,-7.08969e-03,-3.40620e-02,-1.00547e-01,1.04259e-01,6.66388e-02,-3.67940e-02,5.02294e-02,3.84508e-03,-1.39153e-01,-5.83066e-02,6.78262e-02,6.13829e-02,6.97147e-02,7.03637e-02,-8.44405e-03,1.49078e-02,-1.43842e-01,-7.32052e-02,-9.41593e-02,2.49169e-02,9.76319e-02,-1.68315e-02,5.33075e-02,1.78216e-01,1.12308e-01,-5.83903e-02,5.98764e-02,7.94321e-02,-7.52705e-02,1.84049e-02,-3.65573e-02,-6.48150e-02,1.45776e-02,-4.44732e-02,1.47118e-01,1.01244e-01,2.29317e-02,4.19016e-02,3.53917e-02,7.66978e-02,2.43709e-02,8.20058e-02,3.81259e-02,
-4.48901e-02,1.37313e-01,-1.16747e-01,1.70104e-01,-1.89333e-02,9.76711e-02,-8.45107e-02,2.82262e-02,-5.27656e-02,5.95097e-02,-1.71736e-01,-2.32344e-01,9.13507e-02,1.89872e-01,4.16852e-02,-1.83247e-01,2.84098e-03,-1.23154e-01,-2.76531e-02,2.72099e-02,-5.94368e-01,-4.72469e-02,-1.62703e-01,2.29510e-02,1.78743e-01,1.89144e-02,5.44703e-02,7.36058e-03,1.21042e-02,-2.72000e-01,6.77413e-02,2.49131e-01,-1.58714e-01,1.70828e-01,-1.30948e-01,1.40830e-01,-4.35887e-03,8.93895e-02,3.02962e-01,-2.79346e-01,-1.23861e-01,-9.77297e-02,4.25072e-02,-2.26930e-02,-3.97557e-02,2.34869e-01,-1.67732e-01,2.16872e-02,-1.17282e-01,5.41797e-03,-6.31197e-03,1.46522e-01,3.27848e-02,6.23088e-02,-1.31054e-02,-7.04748e-02,1.21028e-01,-1.75387e-01,-1.95673e-01,3.82493e-02,1.10169e-01,5.01019e-02,-5.30723e-03,-1.24086e-01,3.58570e-02,-1.43419e-01,1.06310e-01,6.34933e-02,-1.82445e-01,6.70606e-02,2.41578e-01,1.57865e-01,-8.21261e-02,1.81167e-01,1.36197e-01,9.77729e-02,-1.04596e-01,-3.07380e-02,6.48121e-02,-3.01655e-02,1.67248e-01,-1.91830e-01,1.37454e-01,-1.39874e-02,9.56138e-02,-8.13292e-02,5.92992e-02,-1.02744e-01,-1.08152e-01,3.04966e-02,-4.14456e-03,-1.64510e-01,-3.13555e-01,-1.47686e-01,2.00221e-02,1.41560e-01,-8.41555e-02,2.96325e-02,-2.04370e-02,-1.54943e-02,
-9.47709e-02,-1.27208e-01,5.48601e-02,8.20432e-03,4.53330e-02,9.17452e-02,1.63419e-01,-8.87150e-02,1.55790e-01,-2.21526e-02,7.58353e-02,-1.20071e-01,-2.49697e-01,-1.79388e-01,3.44530e-03,4.14362e-02,1.09514e-01,-3.34564e-02,-1.41088e-02,-6.43677e-02,-9.85289e-03,6.88038e-02,1.17961e-01,3.90725e-02,-1.28856e-01,1.68005e-02,-4.63994e-02,-3.26158e-01,-2.70226e-02,3.22725e-01,4.28333e-02,-5.03199e-01,8.51838e-02,1.21732e-01,9.58570e-02,9.20207e-04,-8.43095e-02,-7.84151e-03,-4.73947e-01,2.62938e-01,8.15970e-02,1.88709e-01,5.42245e-02,5.18990e-02,5.94897e-02,2.27907e-02,4.00084e-01,1.34619e-01,-1.40269e-02,2.36695e-02,9.28387e-05,-1.49426e-01,-3.94467e-02,3.25340e-02,-1.31228e-02,-9.76526e-03,-2.54091e-02,3.48481e-02,-2.92397e-02,-1.14175e-02,-1.09554e-02,3.55338e-03,-1.78991e-03,5.43562e-04,9.56551e-02,9.48129e-03,-4.73198e-02,-5.47712e-02,-4.18969e-02,-7.02524e-02,-5.48708e-02,-1.55907e-01,-8.60448e-02,-1.24528e-01,8.66759e-02,-5.88931e-02,8.39004e-02,4.24833e-02,5.76215e-02,6.06014e-02,-5.80402e-02,1.14696e-01,-9.70206e-02,-8.24462e-02,2.65189e-02,-9.85775e-02,-6.45781e-04,2.18064e-01,4.21822e-02,3.74647e-02,-8.60734e-02,6.67546e-02,2.30023e-01,1.42334e-02,6.89211e-02,-3.06991e-01,2.93801e-02,1.15921e-01,7.09094e-02,1.58308e-01,
-3.42490e-02,-3.17525e-02,-1.95360e-01,1.02802e-01,-1.01936e-02,2.55939e-02,3.44337e-02,1.66657e-01,7.32025e-02,2.22416e-02,7.68885e-02,8.49762e-02,1.25368e-01,2.07938e-02,-3.11181e-02,-2.53613e-02,1.14612e-01,9.48638e-02,-2.02473e-03,-1.54710e-01,1.23785e-01,1.12315e-01,1.08747e-01,-5.91091e-02,2.23613e-02,1.37182e-02,2.20844e-02,1.26353e-01,9.20213e-02,1.13878e-01,-1.07112e-02,5.82929e-02,6.21889e-02,-7.58106e-02,-4.03456e-02,-1.20229e-02,-1.66932e-02,1.89468e-01,-2.57382e-02,-1.76373e-02,1.00798e-01,-7.26103e-02,7.14455e-03,1.02937e-02,2.42413e-02,1.37435e-02,1.55172e-01,9.66343e-02,-9.68760e-02,6.16961e-02,-2.68567e-02,7.49033e-02,1.33570e-01,1.95462e-02,7.52647e-02,4.17485e-02,-2.92548e-02,-3.52748e-02,5.27327e-02,2.85998e-02,1.23655e-01,3.90199e-02,3.10132e-02,1.22850e-01,-2.58672e-02,-1.19856e-01,-7.32179e-02,6.54351e-03,4.47502e-02,1.12175e-01,-8.71782e-02,1.21741e-01,6.67735e-02,2.96045e-02,6.15488e-03,3.98224e-02,-7.24834e-02,-1.78595e-02,5.20697e-02,6.05310e-02,1.04488e-01,1.16297e-01,3.06466e-02,-6.35192e-02,1.07955e-02,1.06142e-01,1.66311e-02,3.23292e-03,3.36742e-02,1.15519e-01,2.18640e-02,1.53322e-01,2.84315e-02,7.66903e-02,-1.34459e-02,-8.56119e-02,-2.62582e-02,7.19601e-02,9.85095e-02,9.26116e-02,
-6.38755e-02,-8.59053e-02,8.05924e-02,-1.22790e-01,8.16624e-02,-4.09291e-03,-1.97765e-02,1.33088e-01,1.28700e-01,1.48873e-01,-1.94026e-01,8.62579e-02,3.52788e-01,-6.41493e-02,-2.25315e-02,2.83163e-02,8.72412e-02,1.28423e-01,6.83499e-02,5.31899e-02,1.54335e-01,-1.31555e-01,1.14525e-01,-7.44444e-02,-1.12950e-01,5.17542e-02,9.58991e-03,-5.67228e-01,-4.03812e-02,-1.75683e-01,1.45126e-01,-1.89797e-01,-4.63637e-02,-4.04878e-02,-1.10448e-01,-8.18717e-02,6.90963e-02,-4.86362e-02,-4.30428e-02,6.07503e-02,2.43595e-02,-9.34120e-02,-2.41592e-02,1.53401e-01,9.70741e-02,1.28015e-01,-4.13520e-01,1.04434e-01,-2.45385e-02,-2.66344e-02,-6.99778e-02,-1.89421e-01,2.38128e-02,-2.41208e-02,1.96837e-02,6.39525e-02,5.21450e-02,6.36959e-02,8.30565e-02,-3.34276e-03,-3.20491e-02,-2.30559e-01,-1.32371e-01,4.05977e-03,1.40304e-01,-4.90960e-02,7.95023e-04,2.97100e-02,-1.61277e-01,-1.29162e-02,-5.11216e-02,-6.56927e-02,5.37679e-02,3.49815e-02,1.02261e-01,5.06786e-02,2.71847e-02,1.35049e-01,2.51496e-01,3.89703e-02,1.07385e-02,1.44354e-01,-6.21048e-02,1.10035e-01,4.43151e-02,8.67846e-03,-7.25037e-02,7.14175e-02,-4.40520e-02,5.86218e-02,-9.26413e-02,1.54459e-02,3.02167e-01,7.89488e-02,-6.48988e-02,-1.17814e-01,1.46051e-02,7.34496e-02,1.67428e-01,1.53684e-01,
7.83187e-02,-3.24501e-02,-2.42966e-02,1.30446e-02,1.81682e-01,-3.84935e-02,5.06339e-03,-2.89554e-02,1.45678e-02,6.42106e-03,5.51059e-02,1.63396e-01,-5.61293e-02,2.28775e-02,3.60000e-02,1.38470e-01,6.49898e-02,-2.80719e-02,-6.23694e-02,1.21387e-01,2.12515e-02,6.52263e-02,7.74844e-02,-7.78231e-02,-9.03203e-02,9.26734e-02,1.12311e-01,4.09966e-02,4.60421e-02,4.94600e-03,7.12366e-02,9.14972e-03,9.73389e-02,5.91532e-02,-5.62928e-03,1.90096e-02,-2.77313e-01,8.16218e-03,-4.15526e-02,1.08381e-01,1.19486e-01,9.20900e-02,5.12443e-02,1.27445e-01,2.40072e-02,3.25128e-02,7.01662e-02,5.49325e-02,-5.41629e-02,1.08038e-01,-7.40121e-02,-2.23936e-02,-2.25166e-02,5.71552e-02,-8.65812e-02,3.38894e-02,-1.55363e-01,-3.72994e-02,6.97542e-02,6.55261e-02,2.42779e-02,-3.32712e-02,1.20157e-01,9.89707e-02,7.20841e-02,1.40976e-01,-3.20636e-02,-1.51929e-02,-1.33641e-02,7.89433e-02,7.50014e-02,-8.21331e-03,4.12674e-02,7.78293e-02,-2.37191e-02,6.08353e-02,-2.99086e-02,5.98278e-02,-2.37369e-02,-2.61859e-02,-3.81462e-02,5.22313e-02,8.37689e-02,7.90478e-02,3.07188e-02,8.11293e-03,-1.93375e-02,8.79373e-02,-7.00693e-02,7.60298e-02,-3.94440e-02,-2.79890e-02,7.27753e-02,-3.87376e-02,1.34052e-01,-6.71368e-02,-8.21005e-02,3.07953e-02,-1.25047e-01,3.30023e-03,
-4.48287e-02,-9.10040e-02,-7.58169e-03,1.02101e-01,-3.83164e-02,7.65655e-02,2.38056e-02,1.04487e-02,1.10169e-01,-2.38893e-02,-2.74716e-01,1.47900e-01,-5.01835e-02,3.57097e-02,5.54920e-02,2.34975e-02,-2.54887e-02,2.95096e-02,1.17798e-02,-5.82096e-02,7.15141e-02,1.53576e-02,1.41469e-02,9.50784e-02,1.65452e-02,-3.24645e-03,7.27691e-02,-1.47039e-01,-3.99578e-03,-4.73515e-03,3.97216e-02,-7.16687e-03,7.39338e-02,-2.46006e-03,9.87128e-02,1.53444e-02,-2.16141e-02,1.94434e-01,2.25332e-03,7.16905e-02,1.35113e-02,1.30143e-02,1.83127e-02,3.39258e-02,-4.21636e-03,2.52984e-02,-7.17948e-02,7.83035e-04,1.21763e-02,5.07717e-03,3.82390e-03,-1.35629e-04,2.48248e-02,2.63247e-02,5.07707e-02,-2.87072e-03,6.20806e-02,-2.56312e-02,-8.31093e-02,5.26310e-03,-6.36496e-02,1.73882e-02,1.82582e-02,-2.30640e-02,9.05342e-02,-5.94578e-02,-6.85843e-02,8.50722e-02,-8.13125e-03,1.40518e-02,7.29526e-02,-3.15596e-02,9.99264e-03,-9.69456e-02,6.63089e-03,5.74548e-02,1.08677e-01,-3.80256e-02,1.19545e-01,2.27478e-02,1.24913e-01,-1.56012e-02,4.19977e-04,4.54189e-02,4.57880e-03,-8.85257e-02,-4.79309e-02,2.89615e-02,-4.88833e-03,-1.42396e-02,5.01742e-02,3.40016e-02,7.77757e-02,6.15025e-02,-3.39836e-02,-4.27954e-02,-1.16282e-02,5.31775e-02,-2.26161e-02,4.68756e-02,
-1.66582e-01,1.30223e-02,1.42817e-02,5.88960e-02,5.78851e-02,-1.67601e-01,-1.52936e-03,-8.35747e-02,6.59835e-02,-2.05272e-02,-1.02079e+00,-1.38328e-01,3.33638e-02,-3.01205e-01,-1.04549e-01,6.29608e-02,-1.34242e-01,-2.90549e-02,4.57117e-02,-1.11653e-01,-2.95162e-01,-2.99672e-02,1.57602e-01,-1.24065e-01,4.72143e-02,-1.47274e-01,2.39782e-01,-3.81331e-01,-3.65324e-02,6.21768e-02,8.99647e-02,-2.48129e-01,1.16120e-01,-4.25885e-02,8.02064e-02,7.23900e-02,-1.38708e-01,8.97337e-02,-6.85445e-02,4.50909e-02,6.85670e-02,-1.13534e-01,5.24771e-02,6.67779e-02,7.89767e-02,3.01234e-02,5.60123e-02,2.09220e-01,5.60498e-02,1.83835e-02,-6.81958e-02,2.55845e-02,-3.99842e-02,-9.02512e-02,-2.95030e-03,-8.62818e-02,1.30959e-02,-1.20239e-01,8.28970e-03,6.34775e-02,6.11617e-02,4.70572e-02,6.84362e-02,-2.93560e-02,-1.47048e-01,-4.55257e-02,-1.08670e-01,-8.82710e-02,-4.63977e-02,-9.06562e-02,-1.41966e-01,-2.73361e-02,-8.69133e-02,-3.75134e-03,-2.24486e-02,2.19349e-01,-1.15709e-01,-4.11710e-02,-5.81516e-02,1.07855e-01,-1.39314e-02,-2.33014e-02,2.60735e-02,1.77603e-02,8.36641e-03,-2.55249e-02,-5.50216e-02,6.82823e-02,-1.37914e-01,1.89474e-01,-8.11661e-02,-7.75787e-02,-4.51963e-02,9.22638e-02,1.59315e-02,4.79720e-02,-6.10131e-02,-1.03562e-01,6.12227e-02,-5.84302e-02,
2.05847e-02,-7.86368e-02,-6.27156e-02,3.91246e-02,7.84416e-02,8.63238e-03,1.21138e-01,6.48897e-02,-5.61670e-02,1.83498e-01,4.69074e-01,2.67246e-01,-1.88385e-01,-1.22919e-01,5.92931e-02,-5.64521e-03,9.66073e-02,-1.56822e-02,1.60205e-02,6.03382e-02,4.08345e-02,-1.27746e-02,-7.98044e-03,-2.21192e-02,-1.14297e-02,-9.18880e-02,1.03730e-01,1.04270e-01,-2.80007e-02,5.68633e-02,-4.30952e-02,3.35558e-01,9.55575e-02,-8.65562e-02,7.66381e-02,5.13257e-02,-1.20863e-01,-8.44114e-02,1.48434e-02,-8.10919e-02,-3.94136e-02,-2.25536e-02,-5.79933e-02,9.49920e-03,-1.66111e-03,-2.84802e-01,1.79246e-01,2.32645e-02,-2.83812e-02,4.53679e-02,4.71800e-02,3.22116e-02,6.70259e-02,-9.98032e-02,-2.37356e-02,5.77844e-02,4.82097e-02,1.32121e-02,2.36203e-02,-7.23769e-02,-1.67890e-02,6.74689e-02,4.57878e-03,-1.93648e-02,-1.00742e-03,9.67882e-02,6.09808e-02,8.06555e-03,4.84246e-03,7.05172e-02,3.93325e-02,-6.20178e-02,-7.01101e-02,-6.21989e-02,4.67848e-02,1.96949e-03,5.60098e-02,-5.49659e-02,6.32926e-02,-3.68308e-02,-7.39224e-02,6.28704e-02,4.52628e-03,4.50886e-03,-3.31916e-02,3.53874e-03,-1.14919e-02,-9.86238e-02,-7.53161e-03,8.25772e-02,-3.10640e-02,6.74357e-02,5.87013e-03,-6.49925e-02,8.80216e-02,-1.78437e-02,-1.48562e-02,-3.55661e-03,2.91648e-02,5.95111e-02,
1.15073e-01,1.22629e-01,-2.12045e-01,-2.70802e-02,3.79116e-02,1.23946e-03,-2.96047e-02,-1.88974e-02,3.43088e-02,-1.87919e-01,2.87565e-01,-1.42605e-01,5.35547e-02,-2.34687e-02,3.32797e-02,6.64027e-02,-6.15340e-03,5.93718e-02,-1.53938e-01,-6.57825e-02,-3.98405e-01,-1.09220e-01,-7.91890e-02,7.76517e-02,-2.73161e-02,-3.76977e-02,4.27168e-02,2.05603e-01,-7.62333e-02,-1.82831e-01,-1.02107e-01,1.52587e-02,3.08225e-03,2.61233e-02,7.86440e-02,2.00297e-03,9.40236e-02,-8.66701e-03,-3.91357e-02,-3.86687e-02,1.10603e-01,-6.45614e-02,2.28761e-02,-2.19372e-02,4.06176e-02,-2.33610e-02,-7.81790e-02,4.00273e-02,-3.16069e-02,1.07392e-02,-4.78906e-03,-1.28685e-01,-3.26847e-02,2.06284e-01,8.53396e-02,-2.82478e-01,-9.04446e-05,5.23432e-03,-3.60118e-01,2.03966e-02,7.23378e-02,1.05210e-01,5.22787e-02,-2.84668e-02,3.37176e-02,1.37279e-01,-1.45360e-02,-6.25223e-02,-2.58840e-02,1.52512e-01,4.19374e-02,2.33576e-02,-2.04414e-01,1.14258e-02,1.95385e-02,1.54222e-01,3.24282e-02,1.09426e-01,7.21312e-02,3.54457e-03,7.66174e-02,-1.00268e-01,-4.19094e-02,1.35426e-02,8.29576e-02,2.78273e-02,3.63934e-02,-4.70532e-02,4.84160e-02,9.00495e-02,5.09698e-02,-6.69605e-02,-1.29145e-01,-4.70204e-02,-4.86822e-02,3.04907e-02,2.94052e-02,1.09839e-01,6.16802e-02,-1.92293e-02,
9.87468e-02,1.51615e-01,1.30688e-01,-3.33611e-03,-3.17491e-02,-9.76511e-03,6.20186e-02,4.19106e-02,7.74126e-03,6.66284e-02,2.05722e-01,-4.97060e-02,1.85717e-01,1.02287e-01,-1.58464e-02,1.04561e-01,4.00305e-02,-5.40347e-02,-8.57823e-02,1.10244e-01,-9.91450e-02,-3.64032e-02,-6.43146e-02,3.59290e-02,9.69769e-02,-2.04600e-02,-4.67104e-02,7.52587e-02,-2.64694e-02,-6.23972e-02,-4.89599e-02,6.34845e-02,6.56178e-02,1.00793e-01,5.73804e-02,-6.95569e-02,8.55496e-02,-3.41163e-02,7.53952e-02,3.81810e-02,1.45379e-02,-1.05880e-02,4.06262e-05,-1.03559e-02,1.90979e-02,-4.66977e-02,1.22079e-01,4.24931e-02,-4.34238e-02,7.13613e-02,-5.23548e-02,-3.60454e-02,-1.03680e-01,-7.08242e-02,-5.49914e-02,-1.15903e-01,-3.42217e-02,1.70949e-04,1.77625e-02,7.64406e-02,5.40325e-02,-9.27421e-02,6.86499e-03,-1.02527e-01,-1.36162e-03,1.30875e-01,8.51225e-02,7.56826e-02,6.94165e-02,-7.72748e-02,-4.98312e-02,1.44449e-01,1.22668e-02,2.15327e-01,-3.27632e-02,1.28348e-02,2.50200e-02,-4.86028e-02,1.03529e-03,1.77679e-02,1.18530e-02,-3.98491e-02,9.43500e-02,3.86607e-03,7.48783e-03,7.26308e-03,1.22917e-01,1.68102e-01,-2.19624e-02,6.08886e-02,1.30146e-01,3.02681e-02,6.62167e-02,-5.08659e-02,6.21888e-02,8.09811e-02,1.13404e-01,-1.19529e-01,-5.52216e-02,1.63050e-01,
-1.78432e-02,1.30721e-01,-3.49399e-02,2.53677e-02,3.56455e-02,1.05916e-01,6.61826e-02,6.05163e-02,-2.05028e-04,2.65796e-01,-1.38773e-01,-4.20201e-01,8.02279e-02,9.92693e-02,7.37958e-03,-5.99375e-02,6.67395e-02,-1.57266e-01,-1.03590e-01,2.29784e-02,-4.48966e-03,-7.29628e-02,-8.30414e-02,4.44588e-02,4.94633e-02,-2.78083e-02,9.12739e-02,5.62329e-02,4.05828e-03,4.23732e-03,-8.98322e-02,2.43718e-01,1.45607e-02,-6.15670e-02,-6.64591e-03,7.96556e-02,7.18957e-02,-9.18161e-03,1.24310e-01,-1.93889e-02,-1.31460e-02,2.12664e-02,1.15638e-01,8.01331e-02,-3.61522e-02,-1.12128e-01,1.93180e-01,1.92880e-02,7.55159e-02,-8.67627e-02,-1.73911e-02,5.22057e-02,1.41052e-02,-9.10161e-02,8.00538e-02,-4.45738e-02,-1.27626e-02,6.62223e-02,4.01044e-02,6.01524e-02,1.13352e-01,1.65908e-01,1.43259e-01,2.78366e-02,-5.19348e-02,-2.14074e-02,-3.74945e-02,4.69744e-02,5.57874e-02,7.97310e-02,2.89638e-02,4.44847e-02,9.19627e-02,8.66887e-02,1.19391e-01,7.81103e-02,-1.01427e-01,-1.09817e-01,-1.94215e-01,1.15665e-01,1.29609e-01,2.56661e-02,7.95388e-02,2.83551e-02,5.71843e-03,-4.92875e-02,1.76248e-02,1.82652e-02,-7.80065e-02,-7.22647e-02,7.12421e-02,-9.60762e-02,-2.95176e-01,-3.63321e-02,-6.29746e-02,1.06584e-01,-1.05704e-01,-6.91439e-02,6.90176e-02,-2.56829e-01,
1.57294e-02,1.68254e-03,-1.15393e-02,-2.38540e-02,1.04938e-01,-1.35047e-02,5.70903e-02,6.43433e-02,-3.23647e-02,-3.32106e-02,2.40711e-02,-1.33584e-01,1.84395e-01,1.08769e-01,-6.78608e-02,6.53425e-02,8.11457e-03,1.47792e-01,2.83293e-02,8.45888e-02,7.49730e-02,3.15209e-02,-4.67368e-02,-5.13280e-02,5.44016e-02,9.21573e-02,-1.66582e-02,-8.69566e-02,9.17203e-02,-9.55852e-02,6.76670e-02,5.14686e-02,1.02354e-01,5.33711e-02,1.36755e-01,6.93265e-02,-1.06897e-01,1.37368e-01,5.74796e-02,8.82053e-02,-1.62948e-02,3.80845e-02,3.36110e-02,3.65843e-02,-3.54860e-02,-8.92478e-02,-5.96988e-03,-4.59934e-02,4.02162e-02,5.91723e-02,3.98602e-02,-3.92605e-02,5.86855e-02,2.97612e-02,3.12221e-02,6.28454e-02,-2.22079e-02,-3.65712e-02,4.81960e-02,-6.01568e-02,5.15167e-02,9.78004e-02,-2.04371e-03,5.58453e-02,4.27347e-02,-1.73402e-02,-5.69268e-02,-5.47990e-02,-5.85007e-03,-1.05447e-02,1.26940e-01,1.03902e-01,2.42832e-03,9.26224e-02,-6.03463e-02,3.74628e-02,2.54906e-03,7.64928e-02,-6.10172e-02,-4.55670e-02,-1.31142e-02,-4.64297e-02,3.54331e-02,-5.93889e-02,2.64050e-02,-3.52339e-02,9.65879e-03,-3.51037e-02,-3.01827e-02,1.11949e-01,-4.78080e-03,1.41365e-01,-4.64470e-02,-7.65163e-02,1.48033e-01,8.95090e-02,-1.01494e-01,8.66599e-02,-2.35529e-02,-3.20334e-02,
4.71787e-02,1.77102e-01,9.11098e-02,-7.15322e-03,-1.13608e-01,-3.30788e-02,-1.47004e-02,-7.99295e-03,1.47068e-01,-1.27872e-01,-1.30172e-01,1.23244e-01,2.31268e-02,5.96608e-02,4.20632e-02,1.32134e-01,2.22175e-02,-9.11964e-02,9.71988e-02,5.90014e-02,-2.53519e-02,-5.96704e-02,2.78033e-02,1.90730e-01,-1.99945e-02,-2.91062e-02,4.98696e-02,-6.68098e-02,-2.92155e-02,1.51844e-01,7.27778e-02,-9.82526e-03,1.80297e-02,-1.83614e-02,-3.79721e-03,7.45721e-02,1.71103e-01,-8.96713e-02,-8.27873e-02,-7.24730e-02,1.09385e-01,4.91184e-02,-1.36144e-01,1.26376e-01,1.33146e-02,2.22273e-01,-2.52183e-03,-1.43970e-02,5.70953e-02,-1.00700e-01,7.24247e-02,4.66598e-02,-6.17364e-02,-1.41246e-02,-8.66339e-02,-2.86772e-03,1.98715e-01,7.86125e-02,5.95420e-02,-2.72267e-02,3.51305e-02,1.06025e-01,3.10479e-02,-8.23481e-02,7.19771e-02,1.71094e-01,-5.12802e-02,-4.60711e-02,1.14274e-02,2.80695e-02,-3.77084e-02,-7.15980e-03,3.44696e-02,-1.75951e-01,-2.99745e-02,2.32364e-02,1.52785e-02,1.64519e-02,6.82920e-02,1.28927e-02,2.09414e-02,4.48541e-02,1.21247e-01,1.29628e-02,-5.86784e-02,-8.67974e-02,3.16642e-02,3.20744e-02,5.57769e-02,8.05281e-03,-6.34726e-02,-5.96210e-02,5.90922e-02,2.27977e-02,-8.61202e-02,-1.63625e-02,1.71577e-01,-1.20972e-01,3.33140e-02,6.40459e-02,
9.90408e-03,-8.27589e-02,-7.09580e-02,-2.56749e-03,-9.81180e-02,6.56737e-03,-1.06628e-01,6.14057e-02,-4.11447e-03,-8.11541e-02,-7.87892e-02,-3.65586e-02,7.49315e-02,-6.32588e-02,6.21282e-03,-1.09291e-01,5.87978e-02,7.98932e-02,-4.88641e-02,3.69456e-02,-1.84150e-02,-4.90767e-02,-8.57725e-02,-1.82011e-02,7.81140e-02,-9.10890e-02,-7.55561e-02,-9.69536e-02,-2.62685e-02,-7.40701e-02,3.47362e-02,8.02474e-02,7.85822e-02,-2.85688e-02,-8.19031e-02,-4.25251e-02,-1.08268e-01,-6.08906e-03,7.67293e-02,-6.95184e-02,-8.27102e-03,7.54698e-02,-7.29570e-02,-1.10181e-01,8.35499e-03,-1.15175e-01,-5.97859e-02,8.29225e-03,-1.89120e-02,-5.30422e-03,6.32882e-02,1.91992e-03,-2.76562e-02,9.32658e-03,2.35730e-02,-1.65913e-02,-9.01186e-02,-2.36529e-02,-3.26714e-02,4.06488e-02,5.34240e-02,4.33436e-02,3.38493e-02,-5.75356e-02,-1.11905e-01,7.31887e-02,-6.15503e-02,7.26918e-02,5.70002e-02,-1.53634e-02,3.03733e-03,3.45549e-02,6.22015e-02,1.00694e-02,-9.99234e-02,-7.96140e-02,-4.63761e-02,-3.33300e-02,4.50421e-02,-9.16760e-02,-6.41643e-02,6.85622e-02,3.55310e-02,3.71986e-02,-9.03625e-02,3.74751e-02,4.19303e-02,-8.82842e-02,1.12660e-02,2.49864e-02,-3.05576e-02,5.59801e-02,3.83220e-02,-8.47480e-02,-6.57838e-02,-4.74304e-02,-2.39151e-03,-1.09931e-01,-8.08401e-02,-3.25166e-02,
-2.77143e-02,1.50144e-01,-1.38262e-01,8.92877e-02,-1.31735e-01,-9.94914e-03,7.96093e-02,3.17480e-02,5.28212e-02,6.68847e-02,2.00964e-01,6.26661e-02,4.40498e-02,4.83571e-02,8.94569e-02,-1.41252e-02,-6.55626e-02,-5.60921e-02,1.84650e-01,-5.60613e-02,5.65930e-02,-7.43029e-03,-5.38543e-03,6.78666e-02,2.75462e-02,-4.08858e-02,-3.89332e-02,1.74090e-02,1.02150e-01,9.92297e-02,7.65202e-02,1.09372e-01,3.94074e-02,1.54204e-02,-6.08422e-03,-2.13711e-02,2.98284e-01,3.61406e-02,1.29942e-01,6.96437e-02,-3.53211e-03,-6.21940e-02,2.44248e-02,3.51528e-02,-5.85167e-02,3.14992e-02,1.27200e-01,4.14387e-02,2.28688e-02,8.96476e-03,6.80163e-02,-2.51414e-03,3.62328e-03,-2.91515e-02,8.11757e-02,3.46730e-03,4.56785e-02,5.93776e-02,2.38944e-02,2.25065e-02,5.08879e-03,1.01751e-01,-7.39068e-02,3.63681e-02,6.54882e-02,2.48312e-02,-5.82291e-02,6.36163e-02,9.44893e-02,9.74180e-02,6.39248e-02,-5.06849e-02,-2.10343e-02,-1.06542e-01,-3.32312e-02,7.57874e-02,1.04736e-01,-8.08222e-03,-4.33126e-02,8.37230e-02,9.30991e-02,-5.41072e-02,4.95333e-02,3.46838e-02,3.17360e-02,1.34524e-01,6.29242e-02,5.55440e-02,8.03090e-02,3.43726e-02,2.63711e-02,8.71250e-03,-4.57822e-02,1.25343e-01,-1.23382e-01,5.53300e-02,1.96392e-02,9.65101e-02,1.34763e-01,1.37636e-03,
