// Neural Network File Format by Kyle Julian, Stanford 2016
3,6,4,100,
6,100,100,4,
0,
0
0
0
0
4.87079e-02,5.35379e-02,-2.64545e-01,3.81821e-01,-1.69944e-02,-5.35300e-03,
2.71402e-02,5.96282e-02,1.43197e-01,-7.38880e-01,1.70836e-01,4.74583e-02,
1.93068e-01,-1.15996e-01,4.62003e-01,1.21814e-01,9.77463e-02,3.76787e-02,
-2.09607e-01,1.24752e-02,5.70663e-01,1.15660e-01,4.68014e-02,-3.36593e-03,
-2.17049e-01,-2.71747e-01,2.13057e-01,1.34001e-02,-1.25624e-01,-6.84000e-02,
-4.14631e-02,-4.98672e-02,5.62914e-01,-9.55252e-01,4.07596e-02,6.17653e-03,
-2.98553e-01,-2.15982e-01,2.30811e-01,7.88110e-02,-4.60240e-01,7.57876e-01,
2.43233e-01,1.77585e-01,-1.86347e-01,-6.36502e-02,3.76216e-01,-6.19496e-01,
-2.03776e-03,1.92147e-03,3.43172e-01,-5.42805e-01,3.03912e-02,-3.00485e-02,
-2.40283e-02,-7.66335e-03,2.18968e-01,9.98851e-02,1.40278e-02,2.34679e-02,
-5.20788e-02,-7.09479e-02,-1.76462e-01,1.11487e+00,-2.45734e-01,-5.30714e-02,
-1.25815e-01,5.15163e-02,4.08172e-01,-9.34574e-01,2.46411e-02,-4.59409e-02,
-6.89095e-02,1.26622e-02,-5.92203e-02,1.20107e-01,-6.01195e-02,-6.29981e-02,
3.28268e-01,1.01255e-01,-2.63792e-01,-3.57645e-01,-4.33837e-01,2.70698e-01,
-7.61229e-02,1.22690e-01,-2.16462e-01,-8.84571e-01,2.27791e-01,-2.53335e-01,
2.55727e-01,-1.03943e-01,-2.60756e-01,4.16149e-01,1.98186e-01,-1.31490e-01,
1.49800e-01,-1.25797e-02,2.02659e-01,-3.94926e-01,1.14532e-01,-3.10700e-01,
9.20968e-02,-1.77792e-01,-2.83310e-01,-9.97993e-02,-1.72514e-01,7.73584e-02,
-1.32339e-01,-8.93504e-02,-5.13705e-01,-7.44347e-01,-9.05961e-02,-4.82827e-02,
5.56416e-02,1.38324e-01,5.62966e-01,-1.65476e-01,1.47101e-01,-1.63650e-01,
-1.91681e-01,2.58374e-01,1.20722e-01,-6.27681e-02,1.58864e-01,-7.85699e-02,
-2.38207e-01,-2.71439e-01,4.26276e-01,-1.31804e+00,1.88540e-01,-1.29710e-01,
-1.77050e-02,8.86502e-03,3.65105e-02,2.35751e-01,5.10963e-04,-8.57897e-02,
1.08399e-01,-1.63131e-02,2.19470e-01,9.39019e-01,-4.15032e-04,7.12032e-02,
-2.32004e-01,-1.30011e-01,-5.87490e-01,-5.54176e-01,2.15147e-01,8.46741e-02,
-5.59169e-03,4.32743e-02,-2.26821e-01,-7.06422e-01,-2.01280e-02,-4.32693e-02,
1.56692e-01,1.26287e-01,-1.19699e-01,3.61941e-01,3.72406e-01,6.66478e-01,
3.24350e-01,-2.41895e-02,6.10241e-01,-5.02182e-01,4.06874e-01,4.11328e-01,
-2.57738e-01,-2.83089e-01,9.02947e-02,5.02446e-01,-3.21548e-01,2.57247e-02,
1.62868e-01,-1.15852e-02,3.82434e-01,-8.20929e-01,3.31145e-02,-1.19971e-02,
-1.02075e-01,-7.08112e-02,3.47064e-01,-4.72943e-01,1.63781e-01,-1.19388e-01,
6.67316e-02,-1.99942e-01,-2.56260e-01,1.10417e+00,-1.93944e-01,5.78957e-02,
-2.54778e-01,7.38828e-02,1.68349e-01,3.14049e-01,4.26328e-01,7.93086e-02,
2.23033e-01,-3.00654e-01,2.62488e-01,-3.64372e-01,1.43279e-02,-6.36747e-02,
1.86600e-01,1.21802e-01,2.31819e-01,7.48130e-01,3.52356e-01,-2.05629e-01,
2.92354e-01,-3.73694e-02,8.01307e-01,-3.04438e-01,1.44964e-02,-1.15429e-01,
-1.83079e-01,-2.30004e-02,-2.96794e-01,4.91471e-01,-1.22828e-01,3.86159e-01,
-2.25647e-01,-1.75080e-01,2.86752e-01,8.95607e-01,6.38447e-02,-1.91872e-02,
2.51571e-01,1.02232e-01,4.66087e-01,-4.08488e-01,3.92253e-02,2.36285e-02,
1.16986e-03,6.84205e-02,1.76807e-01,8.67310e-01,1.37811e-01,3.13756e-02,
1.71425e-01,-7.32068e-02,-4.24147e-01,2.59455e-01,6.14137e-02,-1.77096e-02,
1.56729e-02,-1.26124e-01,3.82476e-01,-2.82379e-01,-2.14198e-01,8.44819e-02,
-3.02937e-01,-9.47054e-02,2.35865e-01,3.31806e-01,3.98439e-01,-2.47624e-01,
-1.76351e-01,6.10509e-02,5.87403e-01,5.87590e-01,4.98958e-02,5.17172e-02,
-1.98300e-01,-2.45552e-01,-4.80679e-01,7.64783e-01,-6.18630e-02,8.61704e-02,
-2.41558e-01,8.89165e-02,1.41249e-01,-3.81069e-01,-1.74355e-01,1.29521e-01,
-3.15127e-01,-2.74617e-01,4.26901e-02,-4.57642e-01,4.63469e-01,-8.82588e-02,
-1.18414e-01,-2.15976e-01,-2.25403e-01,4.75982e-01,6.33913e-02,-2.25745e-02,
5.94864e-02,2.50621e-02,-5.88296e-01,8.74243e-01,-3.65968e-02,-1.94816e-02,
-1.10720e-01,3.27269e-02,8.47024e-02,-4.81065e-01,-1.89637e-01,-1.27759e-02,
-6.33355e-02,-3.20480e-02,-4.97472e-01,1.03093e+00,5.99091e-02,6.22183e-02,
-1.39984e-01,4.78254e-02,-4.86264e-01,1.14257e+00,-8.66790e-02,6.66994e-02,
7.11224e-02,-2.38618e-01,-1.14572e-01,6.22983e-01,2.33211e-01,-1.46378e-01,
-1.93987e-01,-1.14137e-01,-5.03021e-01,-4.13251e-01,-1.11765e-01,-2.85668e-02,
7.84800e-02,-1.65030e-01,2.18257e-02,6.32470e-02,-1.60647e-01,-8.16712e-02,
-4.58265e-02,2.44296e-01,-1.21806e-01,1.27307e-01,3.95773e-01,-4.61750e-01,
2.57064e-01,9.96365e-02,6.52633e-02,-8.87929e-01,1.98163e-01,-3.91464e-01,
2.71487e-01,1.48317e-01,6.69158e-01,6.26049e-01,-2.50610e-01,-8.86572e-02,
7.69449e-02,-2.46891e-01,-1.51637e-03,4.03330e-01,3.16693e-01,2.32746e-01,
-1.27833e-02,1.95692e-02,5.84131e-01,8.82963e-01,4.16475e-02,2.49693e-02,
-4.42707e-03,-9.57250e-03,3.33099e-01,1.14397e+00,2.81151e-02,6.31857e-02,
-1.80717e-01,1.01111e-01,3.06485e-01,6.11953e-02,-1.43220e-01,8.35863e-02,
-1.81585e-01,-5.55011e-02,-2.74573e-02,-1.02294e+00,-6.50633e-02,-7.37418e-02,
-6.39877e-03,4.98585e-04,-1.62864e-01,6.68979e-01,-2.12056e-02,3.05599e-02,
-1.73008e-01,-1.39617e-01,1.32779e-01,-3.99951e-01,-4.11574e-01,-7.36859e-01,
-2.65757e-01,-2.36120e-01,3.65669e-01,2.30363e-01,2.03005e-03,4.61006e-02,
-2.81734e-01,-1.68562e-01,-4.50796e-01,3.86965e-01,-1.38710e-01,-3.90256e-02,
-1.33318e-02,5.47772e-02,-2.88203e-01,-2.85112e-01,-2.02498e-02,1.16716e-02,
5.49852e-02,-2.97039e-01,1.48013e-01,-1.51845e-01,-4.83392e-01,5.62350e-01,
2.22174e-02,3.41031e-03,5.22027e-01,-1.22284e+00,-3.33533e-02,-4.70012e-02,
2.60133e-02,-1.70501e-03,-4.51396e-01,-1.16290e+00,-5.33151e-02,-4.53275e-02,
6.19471e-02,-9.67297e-02,1.94849e-01,7.16377e-01,-1.86357e-01,2.06978e-01,
2.25431e-01,2.98678e-02,-1.66872e-02,1.27226e+00,9.71500e-02,8.25745e-02,
1.77121e-01,-4.59646e-02,8.71022e-02,4.02621e-01,-1.29710e-01,-2.24034e-01,
1.66406e-01,1.71172e-01,-1.16823e-01,-2.79400e-01,2.25326e-01,9.13431e-03,
-2.19910e-01,-8.07208e-02,-6.14138e-02,7.60847e-01,-1.69577e-01,3.30907e-01,
-2.61135e-01,1.44082e-01,2.87899e-01,8.09932e-01,2.46169e-02,9.48227e-02,
4.06398e-02,6.67486e-02,-1.36335e-01,1.67081e-01,-5.88866e-02,4.80276e-02,
4.64864e-03,2.48566e-01,8.93354e-02,-2.34584e-01,-3.57857e-01,1.38306e-01,
2.97913e-01,-8.54230e-02,-2.02994e-01,-3.75745e-01,-4.99140e-01,-9.50940e-02,
-3.25657e-02,1.33771e-01,4.61031e-01,-2.04476e-01,1.26594e-01,-7.59093e-03,
-5.88712e-02,1.85278e-01,-7.90592e-04,-3.03111e-01,-2.36892e-01,-1.77136e-01,
-1.71764e-01,4.41024e-02,-1.02616e-01,-3.92731e-01,1.26793e-01,2.09542e-01,
-2.17964e-01,-1.50196e-01,-4.02394e-01,-1.10212e+00,-4.95387e-01,2.61716e-01,
8.35854e-02,-1.34219e-01,-3.84052e-01,9.24518e-01,-5.42820e-02,4.02659e-02,
-1.85402e-03,-2.17853e-03,2.18295e-01,-4.69324e-01,1.97287e-02,-2.39829e-02,
-2.54622e-02,3.87046e-02,1.65862e-01,-1.35121e-02,-1.96502e-01,-1.64153e-01,
5.77229e-02,-3.43137e-01,-1.88875e-01,-3.57628e-01,1.52572e-02,-3.04582e-02,
3.60365e-02,1.92196e-01,-4.45216e-01,-9.41538e-01,-4.26916e-02,-6.88893e-02,
2.11591e-01,-1.34248e-01,-4.44998e-01,4.32788e-01,-1.69617e-01,1.95362e-01,
1.96274e-02,1.58238e-01,3.94225e-01,1.50973e-01,-9.39500e-02,5.95812e-02,
-1.13149e-01,-1.74351e-01,-4.32617e-01,-9.24136e-01,1.97362e-01,-3.09213e-02,
-4.80807e-03,-2.47654e-01,-8.53302e-02,2.32613e-01,3.57670e-01,-1.33301e-01,
2.61196e-01,2.26405e-01,-3.64484e-02,3.73975e-01,-3.83646e-01,7.36840e-02,
-2.88017e-02,1.53684e-02,3.64423e-01,4.53979e-02,7.08900e-03,-1.44200e-02,
4.91841e-04,-7.92309e-02,-1.57681e-01,-8.04251e-01,-1.44552e-01,-3.24954e-02,
-3.32664e-01,2.50576e-02,-6.16886e-01,5.12941e-01,-4.15562e-01,-4.18859e-01,
-2.89995e-01,-2.19876e-01,5.45046e-01,8.50143e-03,2.01719e-01,-5.31588e-02,
1.28003e-02,-4.23158e-02,-4.95593e-01,7.91878e-01,-1.42564e-02,5.32457e-02,
-1.75033e-01,7.60064e-02,7.03470e-01,-2.64930e-01,-7.53012e-02,4.06803e-03,
1.14746e+00,
-2.67707e-01,
8.13652e-01,
-9.85424e-01,
-1.76384e-01,
1.27094e-01,
2.82908e-01,
-2.31459e-01,
1.65283e+00,
8.36939e-01,
3.98771e-01,
-5.00602e-01,
9.26893e-01,
-5.81866e-01,
-9.74382e-02,
9.69287e-03,
-2.50927e-01,
1.39631e-02,
-4.32860e-02,
7.62429e-01,
-2.13795e-01,
-1.89638e+00,
1.42065e+00,
-4.72580e-01,
-2.22165e-01,
1.13825e+00,
2.00256e-01,
-7.51270e-02,
-1.02449e+00,
-5.81895e-01,
1.20911e-01,
4.32405e-01,
2.10141e-01,
7.44524e-01,
3.22444e-01,
-7.70632e-02,
3.88786e-01,
-1.56393e-02,
4.02195e-01,
-1.68980e-01,
8.53037e-01,
6.41814e-01,
5.41568e-01,
4.58669e-01,
-1.59945e+00,
-1.80104e-01,
5.14360e-01,
1.23826e+00,
-1.72594e-01,
-4.16570e-01,
2.56108e-01,
-7.83286e-01,
-4.48020e-02,
-1.20662e+00,
4.14957e-01,
1.50815e-01,
-4.08121e-01,
3.10375e-01,
1.50712e-01,
-4.50802e-01,
-7.49277e-01,
1.10423e+00,
-1.68227e-01,
1.27540e+00,
-2.21722e-01,
1.58052e+00,
3.18116e-02,
1.09283e+00,
-1.87916e-01,
-1.95150e-01,
-7.59870e-01,
6.16267e-02,
1.43601e-01,
3.37669e-01,
5.80061e-01,
3.41772e-01,
-7.88479e-01,
1.33477e+00,
2.67622e-01,
-2.49324e-01,
6.83394e-01,
-1.15474e-01,
-3.37422e-01,
-8.66720e-01,
-8.71391e-01,
1.06362e+00,
9.98300e-01,
-1.04037e+00,
3.83946e-01,
-4.61207e-01,
5.43194e-01,
-1.37072e+00,
-2.69695e-01,
-4.27521e-01,
9.92686e-01,
2.24919e-01,
7.25939e-02,
-5.46001e-01,
4.47295e-01,
-2.67727e-01,
-8.86859e-02,6.57917e-02,1.06701e-01,2.70876e-02,-1.72228e-02,-6.90891e-02,1.53407e-01,-2.42897e-02,6.90965e-02,-5.32590e-04,-1.02774e-02,-4.39598e-02,-5.99665e-02,6.26711e-02,-2.07998e-02,5.64038e-02,-4.00326e-02,1.18337e-02,-8.42926e-02,2.55122e-02,-1.70555e-02,1.52537e-02,-1.10148e-01,2.74179e-03,8.27181e-02,9.64643e-03,2.05702e-01,-4.29266e-02,-4.57866e-02,-4.53287e-02,3.50408e-02,-5.49081e-02,1.00221e-03,-7.00213e-02,5.42992e-02,4.50907e-02,8.72785e-02,1.83536e-02,-6.46151e-02,-3.99521e-02,3.94729e-03,1.69286e-02,-6.52373e-02,-3.09694e-02,-9.09938e-05,5.60209e-02,6.92509e-02,1.45090e-03,-5.40832e-03,-1.60971e-02,1.65214e-01,8.24568e-02,4.24812e-02,3.64486e-02,5.85788e-02,-6.13370e-02,-3.25229e-02,-1.08677e-01,-2.65371e-02,-1.56135e-01,3.65532e-02,8.87696e-02,1.51738e-02,-3.56807e-02,-2.10232e-02,-1.24594e-02,-1.95886e-02,8.32260e-02,1.28192e-01,-3.80126e-02,-3.66001e-02,1.07832e-01,9.87605e-02,-4.98034e-02,6.61025e-02,1.00413e-02,-3.01266e-02,1.08261e-01,1.42556e-01,-5.51975e-02,6.87520e-02,3.22494e-02,1.78360e-02,-1.16283e-02,4.17539e-02,9.06565e-02,-5.38712e-02,6.28266e-02,4.56665e-02,1.92787e-02,9.82954e-02,-1.51317e-02,-7.88772e-02,1.59515e-02,3.86572e-02,-3.09330e-02,9.71786e-02,-5.22155e-02,-1.01277e-01,3.68617e-02,
-1.04456e-01,-4.34375e-02,-6.20372e-02,-9.36430e-02,-4.03429e-02,-5.77491e-02,-6.06217e-02,-1.04520e-01,4.03168e-02,6.10314e-02,-2.92576e-02,4.90542e-02,-3.73320e-02,1.06026e-02,8.76247e-02,7.15559e-02,-9.84360e-02,4.81150e-02,-4.05805e-02,3.78129e-02,-7.50933e-02,-2.80660e-02,2.10862e-02,-2.84089e-02,-1.00227e-01,1.01461e-02,2.34204e-04,-2.38421e-02,-1.06528e-01,8.06008e-02,-8.21240e-02,-4.92525e-02,-6.80565e-02,-1.03347e-01,-5.92348e-02,1.14529e-02,2.12771e-02,5.23874e-02,5.66876e-02,-9.56416e-02,-8.04963e-02,2.71237e-02,-9.74170e-02,3.35555e-03,-1.28150e-02,-6.50968e-02,8.27346e-02,3.66094e-02,-5.29659e-02,-8.24836e-02,-7.53057e-02,7.29117e-02,-6.83332e-02,-5.51554e-02,-5.21912e-02,-4.16390e-02,-8.67438e-02,-4.54875e-02,-8.53874e-02,-4.63813e-02,6.02341e-03,7.16483e-02,-3.30149e-02,-2.92260e-02,-5.76849e-02,-1.78704e-02,2.34404e-02,7.80535e-02,-4.27977e-02,7.22905e-02,7.70184e-02,-6.90936e-02,1.26690e-03,5.39729e-02,-1.03306e-01,-6.00587e-02,2.42815e-02,-5.06151e-02,6.03627e-02,8.10354e-02,-3.07365e-02,-9.63107e-02,-4.39349e-02,5.86250e-03,-9.12271e-02,-1.06516e-01,7.03258e-02,9.82206e-03,-4.77548e-02,6.95885e-02,-6.51675e-02,-1.08023e-01,-8.81656e-02,4.28186e-02,-8.07004e-02,-8.31603e-02,2.58475e-02,4.40099e-02,-6.72279e-02,4.69190e-02,
1.06270e-01,2.20044e-02,1.59449e-02,1.00071e-02,6.02387e-02,8.92414e-02,-4.00778e-03,-7.07810e-02,6.72676e-02,-1.46150e-01,-7.12361e-02,-4.12555e-02,-3.69006e-02,2.52782e-02,-2.30306e-02,-2.80444e-02,2.28869e-03,8.67444e-02,-6.47164e-02,-3.97370e-02,4.09343e-02,-4.79237e-02,6.23980e-02,-4.78641e-02,7.88536e-03,2.03455e-01,1.89875e-01,-3.84789e-02,-5.50090e-02,7.66216e-02,1.07294e-01,-4.37536e-02,-1.96018e-02,7.63637e-02,2.03717e-02,-7.66789e-02,1.29545e-01,-9.96386e-02,-5.13653e-02,6.51103e-02,1.14401e-01,2.45030e-02,1.03437e-01,7.49487e-05,8.61615e-04,-1.58322e-02,-4.51052e-02,9.70144e-02,-2.57725e-02,-7.19234e-02,6.75605e-02,1.22685e-01,-1.79799e-03,-6.91247e-02,9.20069e-02,-4.36175e-02,-3.34871e-02,-4.30612e-02,3.91870e-02,1.45080e-01,5.89840e-02,6.54108e-02,-9.39760e-02,1.83686e-01,-9.47948e-02,1.07101e-01,-1.87827e-02,3.06906e-02,8.16513e-03,-9.99434e-02,1.69231e-02,-6.04508e-02,4.10754e-02,4.45787e-02,9.62265e-02,7.02209e-02,-3.33272e-02,9.55970e-02,6.12736e-02,-7.37525e-02,1.12768e-01,5.32433e-02,-1.37717e-02,-3.74480e-02,5.87772e-02,1.07599e-02,4.48065e-03,3.90944e-02,-5.53109e-03,3.30604e-03,-4.75925e-02,6.59280e-02,-2.68956e-02,-1.77197e-03,2.77236e-02,-5.47598e-02,-8.34524e-02,1.92310e-02,4.11278e-02,-5.84007e-03,
-5.90853e-02,2.06988e-02,-4.74406e-02,1.18604e-02,-1.42149e-02,-5.25435e-02,7.36888e-02,-1.35220e-02,2.39363e-01,-9.15330e-02,2.76601e-02,-1.97881e-01,1.26644e-02,-4.18632e-02,5.66866e-02,5.79200e-02,-3.07344e-02,2.30409e-02,-5.54054e-02,3.51662e-03,-1.97416e-02,-2.80086e-02,-2.15525e-02,-2.02212e-02,1.14823e-01,-4.96060e-02,-3.08257e-02,-1.07317e-01,1.02524e-01,-7.27894e-02,-1.53069e-01,7.32855e-02,-3.78106e-02,-6.19547e-02,1.77498e-02,-1.29752e-01,1.70536e-02,-1.93421e-02,3.57600e-02,-1.15259e-05,5.74325e-02,-4.17177e-02,1.62701e-02,1.63507e-02,1.52696e-02,1.02825e-01,8.41516e-03,-5.37554e-02,1.04822e-01,2.98189e-02,3.37476e-02,9.96845e-02,4.92290e-02,-3.60922e-03,-6.67008e-02,-4.99283e-02,-4.37144e-02,-6.90106e-02,-8.76945e-02,-7.70585e-02,-6.01718e-02,-1.18288e-01,-1.22968e-01,-1.41956e-02,2.36137e-02,5.48085e-02,1.41849e-01,-6.33390e-05,-2.30301e-02,1.02664e-01,-1.63000e-02,9.51158e-02,8.49782e-02,6.26505e-02,2.60110e-02,1.54290e-01,5.70284e-03,-6.26043e-02,6.45860e-02,-8.89691e-02,7.25519e-02,2.93427e-02,-1.27664e-02,-1.54703e-02,5.25387e-02,1.95603e-01,-4.67632e-02,1.03507e-01,-1.22355e-02,5.54327e-02,1.40553e-02,-2.05098e-02,-1.04239e-03,1.04748e-01,1.77603e-02,-9.54947e-02,1.07040e-01,6.94329e-03,1.64506e-01,-4.11132e-02,
-1.98103e-01,9.20088e-02,1.28444e-02,2.67121e-01,1.11510e-01,-3.85497e-02,-8.59928e-02,1.38100e-01,-2.66195e-01,-3.22478e-01,-1.99306e-01,1.62755e-01,-1.73935e-01,1.32193e-01,1.60224e-01,4.14775e-02,-8.41891e-02,-4.97919e-02,1.14677e-01,-9.34759e-02,-4.75978e-02,1.80497e-01,-5.14682e-01,-3.46761e-01,1.60965e-02,-2.19818e-01,-1.33618e-01,8.11704e-02,-2.16596e-02,7.55734e-02,-7.41686e-02,-1.51230e-01,-2.14262e-02,-2.93917e-02,-4.08433e-01,-6.05018e-03,-4.36018e-02,-4.34179e-02,1.72481e-02,-2.08460e-02,-9.21562e-03,-6.12614e-02,-1.25073e-01,1.59227e-01,1.25571e-01,2.65530e-02,-8.16732e-02,-3.81074e-02,-1.76828e-01,7.32942e-02,-1.92774e-01,1.24717e-01,-1.11276e-01,2.04562e-01,6.64100e-02,-4.64929e-03,2.81617e-01,-4.08721e-02,3.56503e-02,-1.28762e-01,2.27729e-02,-4.69148e-02,8.67118e-02,-1.80627e+00,8.01776e-02,-5.95094e-02,-6.70110e-02,-8.51833e-02,4.21186e-02,-1.09723e-01,2.23697e-01,4.68184e-02,-1.07030e-01,-2.74669e-02,-9.39230e-03,-2.81469e-01,-3.24466e-02,-2.97120e-01,8.86598e-02,-1.10017e-02,6.43779e-02,-2.97357e-02,1.64322e-01,1.94005e-01,9.27470e-02,-1.75191e-01,-4.71846e-02,1.33474e-02,2.30187e-01,-6.60247e-02,-7.92038e-02,1.33444e-01,-5.16110e-02,-4.02675e-02,-1.73479e-01,2.22281e-02,-6.44808e-02,-1.06035e-02,-4.46966e-02,9.65361e-02,
-2.75906e-02,-3.68253e-02,-4.38235e-02,3.43376e-02,-3.29306e-02,2.05305e-02,1.45424e-01,-7.64075e-02,-4.06778e-02,9.67685e-02,-8.72909e-03,1.47125e-02,-2.03150e-02,-4.14388e-03,-2.22053e-02,1.99495e-02,-5.17432e-04,1.65921e-02,-1.75124e-02,5.50551e-02,3.02356e-02,6.44361e-02,1.28754e-01,-2.72550e-03,-1.91320e-02,-1.21022e-01,-5.27880e-02,-3.23436e-02,-2.65474e-02,5.10458e-03,-5.24818e-02,-8.32350e-02,-8.08609e-02,4.30319e-02,1.82262e-02,9.67768e-02,3.29699e-02,6.09070e-02,3.87274e-02,-2.80934e-02,-3.10603e-02,7.02694e-02,-6.03224e-02,-6.62303e-02,7.88316e-02,3.34663e-02,-1.15689e-01,8.26052e-02,1.10747e-01,-1.64258e-02,-1.49049e-02,-4.88739e-02,8.95577e-02,6.48076e-02,-1.36774e-02,-2.24567e-02,6.88760e-02,8.91653e-02,-5.98386e-02,-5.82305e-02,6.78427e-02,1.05426e-01,-3.92762e-02,4.61529e-02,1.45451e-01,1.03621e-01,-9.92091e-03,1.68044e-02,3.42117e-02,-2.19048e-02,1.27556e-01,1.49577e-01,8.81222e-02,6.76730e-02,-7.69393e-02,5.55731e-02,8.18765e-02,1.16491e-01,2.43487e-02,5.38322e-02,9.71933e-02,5.01032e-02,1.16416e-02,6.35704e-02,9.41794e-02,1.29610e-01,3.66659e-02,7.27646e-03,1.03700e-01,-1.17049e-02,5.49524e-02,-3.87879e-03,-9.34154e-02,4.58404e-02,1.16731e-01,2.72905e-02,4.51280e-02,-7.72514e-03,-3.59959e-02,8.48827e-02,
1.47159e-01,-2.29630e-02,-1.22909e-02,-2.01334e-02,2.28530e-02,3.55297e-03,1.76715e-01,-1.25238e-01,-9.29694e-02,6.53887e-02,-4.47712e-02,3.97372e-02,-7.31845e-02,8.49397e-02,8.30535e-03,5.99059e-02,-1.68022e-02,-4.42511e-02,-3.23913e-02,6.86258e-02,5.84179e-02,1.17440e-01,6.48420e-02,-2.67591e-02,5.46799e-02,8.83428e-03,2.57878e-02,-5.15930e-02,-4.29618e-02,-3.51771e-02,1.18780e-01,-3.51671e-02,-3.12119e-02,8.34681e-02,2.66681e-01,-1.25563e-02,2.54070e-02,1.28416e-01,-2.93662e-02,-5.62008e-02,8.69739e-02,5.59583e-02,-1.02423e-01,7.83139e-02,-2.12535e-03,9.47273e-02,-6.91239e-03,-5.59822e-02,-4.97199e-03,5.13362e-02,-6.75292e-02,8.23838e-02,-6.74682e-02,-6.14741e-02,6.05889e-02,-1.13572e-01,6.38830e-02,-1.32953e-01,-6.64049e-02,7.57433e-02,-3.49896e-02,-3.01756e-02,1.06009e-01,7.31413e-02,1.36790e-02,-5.69163e-02,2.49854e-02,3.54097e-02,7.81092e-02,-9.02104e-02,-6.89964e-03,1.15924e-02,-1.23181e-01,3.01943e-02,3.52055e-02,1.04358e-01,7.27046e-02,-8.38672e-02,1.50613e-01,-2.37270e-02,8.88745e-02,1.05690e-01,9.94886e-02,2.88937e-02,6.30529e-02,3.77399e-02,-8.77205e-02,1.43779e-02,5.70148e-02,4.28166e-03,-1.12740e-01,8.98572e-04,-8.68295e-02,9.23849e-02,-8.22799e-02,8.73433e-02,7.79088e-02,-8.08816e-03,2.39708e-02,8.13831e-02,
-1.01446e-01,1.93914e-01,-9.67755e-02,1.90819e-02,1.88503e-02,3.33098e-02,5.18768e-02,2.63415e-02,-1.05817e-02,1.05005e-01,-4.87919e-03,-2.88278e-02,-3.88913e-02,-4.06420e-02,1.01023e-01,6.92786e-02,-8.59478e-02,-5.38153e-02,-2.34239e-02,-1.92961e-02,4.81233e-02,-3.28707e-02,4.45758e-02,-5.75790e-02,2.80470e-02,1.24905e-02,8.44210e-02,8.35569e-02,8.03421e-02,2.03778e-02,-2.07193e-02,1.06488e-01,2.05425e-01,-7.42955e-02,-7.04002e-02,2.25926e-02,-5.57081e-02,2.79485e-02,-1.82975e-02,1.26477e-01,-1.47854e-01,7.56849e-02,4.07898e-02,2.00983e-02,-4.71550e-03,3.16163e-02,6.67327e-02,-5.10498e-03,1.13329e-01,5.72144e-02,9.87846e-02,-3.31278e-02,2.77490e-03,5.32789e-02,1.05909e-01,1.49839e-02,-1.25314e-03,4.12547e-02,1.61143e-02,-3.60934e-02,-5.13622e-02,-3.67478e-02,1.58046e-01,-8.63368e-03,3.85266e-03,2.46703e-02,-9.42111e-02,8.30770e-02,-7.99779e-02,-5.05818e-02,1.18973e-01,-1.37100e-01,7.50359e-02,7.16004e-02,-9.28440e-02,3.84327e-02,6.92215e-02,-7.80298e-03,5.56387e-02,9.75219e-02,-1.61890e-02,-5.68601e-02,6.28900e-02,8.55080e-02,-2.12294e-02,6.65220e-02,6.39036e-03,2.64658e-02,1.99555e-01,-1.10845e-01,6.73510e-02,2.02843e-03,-1.04576e-01,-1.35518e-01,-2.50608e-02,2.80967e-02,-1.18384e-01,7.38625e-02,1.44819e-02,1.92456e-02,
4.85586e-02,1.17351e-01,7.86100e-02,6.81972e-03,6.46803e-02,1.52223e-01,5.30273e-02,-9.06839e-02,-3.64928e-03,9.39107e-02,-1.81254e-01,-2.16434e-02,1.38655e-02,-3.06554e-02,-6.70276e-03,1.53107e-02,1.13217e-01,-6.03012e-02,3.42829e-02,1.15906e-02,-1.31658e-02,6.83501e-02,6.61097e-02,-8.88388e-01,7.60724e-02,-3.28543e-02,-1.65372e-02,1.82198e-02,1.23152e-02,2.74893e-01,-1.14576e-02,-1.07556e-01,7.29638e-02,4.38857e-02,2.93400e-02,6.52773e-02,-1.00909e-01,-5.55255e-02,1.48505e-01,-7.17979e-02,-5.55916e-02,4.64152e-02,3.92896e-02,-2.11931e-01,8.32646e-02,1.90869e-02,-6.77228e-02,-8.07223e-02,-7.73759e-02,2.23576e-02,-3.88687e-02,1.27946e-01,-6.57348e-02,-6.66321e-03,-6.00606e-02,-6.00867e-02,1.97001e-01,-4.95520e-02,-2.84298e-03,-3.29205e-01,-4.61297e-03,-5.95007e-02,1.78480e-01,9.25017e-02,9.65980e-02,-7.39323e-02,5.48238e-02,5.63727e-02,3.19513e-02,-6.23528e-02,-2.68901e-02,-1.67068e-01,-5.57205e-01,-6.55375e-02,-5.60180e-02,2.96426e-02,1.11914e-01,-1.13239e-01,5.85477e-02,4.35417e-02,4.45203e-02,-2.70584e-02,2.12605e-02,1.14988e-01,4.77776e-03,3.20772e-02,-7.82763e-02,1.95495e-02,-1.05080e-01,-1.11676e-01,-5.96253e-02,7.26689e-02,8.42179e-03,-1.09977e-02,3.58566e-02,8.41296e-02,8.10954e-02,-4.74185e-02,-8.84076e-02,-5.00660e-02,
6.35750e-02,-8.53816e-02,2.31113e-02,-1.40871e-01,3.10446e-02,-1.76072e-01,1.95111e-02,6.19993e-02,-1.10257e-01,2.11759e-01,1.50622e-02,1.39370e-02,8.90261e-02,-3.41492e-02,1.33880e-01,-3.49447e-02,-2.87317e-02,3.03255e-02,2.16364e-02,-5.33836e-02,-1.55395e-02,-2.03078e-02,8.18103e-02,-7.75368e-02,4.13618e-02,-1.35896e-01,4.49096e-02,7.86443e-03,-3.04612e-03,-4.21770e-02,6.19944e-02,-1.39435e-01,6.50979e-02,-8.71218e-03,6.78619e-02,8.83882e-02,1.05998e-01,-3.66007e-02,4.89987e-02,-1.53755e-02,-9.40612e-02,9.44693e-02,4.85541e-02,-5.67017e-02,-9.95104e-03,8.42511e-02,-3.71434e-03,-7.04075e-02,3.11395e-02,-7.22181e-03,4.13287e-02,7.92021e-02,2.59584e-02,6.56358e-02,1.21724e-02,3.94805e-02,1.16698e-01,8.35251e-02,4.62430e-02,-1.99088e-01,-1.50061e-01,-3.96641e-02,-6.45519e-02,-1.35561e-01,1.27628e-02,-1.03441e-01,3.46385e-02,-8.72574e-02,-4.10517e-02,1.34149e-02,1.84345e-02,9.68784e-02,2.54807e-02,9.58586e-02,1.06969e-02,-1.16162e-01,5.03125e-02,3.66151e-03,3.33083e-02,-1.06838e-02,-1.17219e-02,1.72066e-02,5.22569e-02,9.39927e-02,1.29764e-02,1.11652e-01,3.65777e-02,8.69195e-02,9.81473e-03,8.08831e-03,-6.18256e-02,8.56459e-02,2.20820e-02,1.92210e-02,9.73766e-02,9.31626e-03,4.59963e-02,-5.23967e-02,-6.62052e-02,-1.23757e-02,
6.92259e-02,1.06046e-01,-6.85049e-02,1.98314e-02,2.11520e-02,1.01126e-01,-3.97971e-02,8.81918e-02,-3.34126e-01,2.29850e-02,1.18870e-02,9.89344e-02,1.30498e-01,6.59629e-02,-4.63173e-02,-1.47477e-02,-7.71983e-03,2.38366e-02,-4.61262e-02,4.45184e-02,-2.71048e-02,-2.80243e-02,-1.06115e-02,-1.07298e-01,4.24905e-03,-1.20261e-01,-2.29994e-02,1.44626e-01,-8.04299e-02,5.38668e-02,1.38080e-01,8.02921e-02,9.54373e-02,-8.53552e-03,-2.22239e-02,1.13682e-01,-1.28760e-01,-6.51602e-02,2.28207e-02,4.88829e-02,-2.20111e-02,-9.56433e-03,-8.12986e-02,1.21791e-01,1.12324e-01,-1.20862e-01,-5.38013e-02,4.11042e-02,-3.16131e-02,-4.38442e-02,-4.06361e-02,-8.78121e-02,2.57472e-02,6.60499e-02,4.16917e-02,-1.07780e-01,6.52976e-02,-7.61375e-02,1.51289e-02,1.31490e-01,2.53197e-02,-1.07739e-01,1.26010e-01,2.44561e-01,-1.08389e-02,-8.08485e-03,4.13829e-02,-1.19078e-02,3.69972e-02,-3.76644e-02,6.35423e-02,-5.50458e-02,1.33432e-02,-6.20634e-02,6.20554e-03,-3.47744e-02,-1.57772e-01,-2.63668e-02,1.00992e-02,-4.22755e-02,-7.86808e-02,6.33066e-03,1.33798e-01,8.80507e-02,4.61786e-02,-9.21607e-02,6.11160e-02,-8.81313e-03,-9.04145e-02,2.66431e-02,8.95005e-02,-2.90868e-02,-9.19765e-02,1.72826e-02,1.36371e-01,2.59212e-02,-6.42116e-02,-2.33163e-02,6.69793e-02,2.05451e-01,
2.66029e-02,-1.32749e-01,-8.95676e-02,1.13947e-01,-1.58923e-02,-2.27400e-01,-3.50007e-02,-1.74170e-02,3.71211e-01,1.17358e-01,6.78445e-02,-7.69980e-02,-5.03004e-02,-1.88000e-01,-1.67932e-01,8.63264e-02,-6.03101e-04,-5.38628e-02,1.38132e-02,1.04317e-01,3.74105e-02,-8.34842e-02,1.01163e-01,1.40005e-01,-1.34866e-02,-2.43096e-01,1.24651e-01,-2.86525e-02,6.88938e-02,-2.25904e-01,-1.11224e-01,1.06893e-01,1.30892e-02,5.85727e-02,1.54369e-01,-1.24981e-01,-5.05083e-02,1.33205e-01,1.24696e-01,1.41330e-01,5.45636e-03,-7.18314e-03,-5.47137e-02,1.12482e-01,1.02710e-01,-1.93772e-01,-2.85985e-02,1.04605e-01,1.89210e-01,-2.33429e-01,9.60011e-02,1.24387e-01,1.71036e-02,-7.15315e-02,-3.98264e-02,2.06350e-02,-1.95231e-01,1.31309e-01,-2.74969e-02,1.24904e-01,1.26511e-01,1.69041e-01,-1.97508e-01,7.06759e-03,-9.09324e-02,-2.25535e-02,6.46532e-02,-2.16290e-01,-6.54673e-03,-2.09392e-01,-1.11685e-01,1.29080e-01,1.32387e-01,-4.99736e-02,-1.37554e-01,1.68711e-01,8.02776e-02,3.49842e-02,-2.04340e-02,-3.07460e-02,2.29196e-01,-1.43567e-02,-2.40565e-01,2.54845e-02,4.46660e-02,5.71387e-01,1.81926e-01,7.20091e-02,-2.93359e-01,2.86895e-02,1.32896e-01,-8.23657e-02,9.12672e-02,1.28870e-01,2.17047e-01,-8.36507e-02,-1.02786e-01,-1.44513e-01,1.35215e-01,-8.22729e-02,
-1.15540e-01,-5.81860e-01,-1.39344e-01,1.19998e-01,-1.02880e-01,-3.59670e-01,1.46774e-02,-5.24139e-02,7.74553e-02,-5.65012e-02,1.35257e-02,5.28671e-01,-2.42899e-01,6.04093e-02,1.53683e-01,5.61753e-02,-7.21915e-02,-4.01802e-02,-1.71648e-03,-1.79193e-02,2.54371e-02,2.85016e-04,-2.72482e-01,-8.75225e-02,-2.69459e-02,-2.22346e-01,4.35908e-02,-1.78790e-01,8.32254e-02,-4.98111e-01,-1.33926e-01,7.94484e-02,3.44376e-02,-8.78178e-02,2.01218e-02,-5.60396e-02,-9.52477e-02,-6.42357e-02,8.96709e-02,1.18822e-01,-5.86481e-02,-1.13536e-01,-6.79862e-02,9.49822e-02,-5.52060e-03,5.73185e-02,-6.28359e-02,-6.53084e-02,3.84847e-01,2.60173e-02,2.54083e-01,1.66843e-02,-4.77724e-04,9.88737e-02,2.79366e-02,-1.18006e-02,1.29374e-01,3.79350e-02,3.99600e-02,3.83775e-02,1.85898e-01,-7.37559e-02,-3.80385e-02,-9.25468e-02,-1.89554e-02,-6.40291e-02,7.14367e-02,-2.39013e-01,6.50628e-03,-1.17248e+00,3.36937e-01,7.79532e-02,2.44596e-02,-5.79862e-03,-9.02365e-02,8.64680e-02,-3.93618e-02,-1.03992e-01,-7.35449e-02,3.18843e-03,3.28041e-02,-5.41812e-02,-7.31492e-03,4.71320e-02,3.95830e-02,-9.17741e-02,-1.47791e-02,1.05716e-01,3.90526e-01,1.23773e-02,-8.23504e-02,7.35946e-02,1.13399e-01,2.55244e-02,1.11357e-01,-7.57099e-02,1.24788e-01,-2.09788e-02,1.63226e-01,-8.55611e-02,
8.79447e-02,-1.13393e-01,4.65753e-02,-1.62253e-01,4.84777e-03,1.93466e-01,4.96476e-02,-3.29525e-02,1.49474e-01,1.45199e-01,2.29677e-01,-3.33240e-01,7.67630e-02,-8.84755e-02,-5.99017e-02,-4.11446e-02,-1.49997e-02,-1.06502e-02,-3.88218e-02,1.06648e-02,-9.91566e-02,-2.46561e-01,1.89968e-01,1.85867e-01,-1.00403e-01,2.20673e-02,3.58716e-02,-3.19364e-03,-6.04558e-02,-1.58466e-01,9.45672e-02,8.72294e-02,6.85257e-02,6.76517e-02,1.76726e-02,3.99091e-02,1.47481e-01,8.56021e-02,2.52828e-02,1.34519e-03,1.57594e-01,2.50967e-02,9.29051e-02,1.38664e-02,1.22261e-01,-2.50049e-02,9.38648e-02,1.20439e-01,6.00682e-02,-8.07077e-02,2.03419e-01,1.11904e-01,1.30551e-01,-3.22748e-01,5.71846e-04,4.62106e-02,-1.97674e-01,2.41168e-02,3.41395e-02,-5.62746e-02,-4.83843e-02,1.39751e-01,-5.65094e-02,1.88854e-01,-4.00728e-02,1.08750e-01,9.27449e-02,1.76163e-01,-7.20973e-03,2.14775e-02,-5.19843e-01,-1.11694e-02,8.89533e-02,4.57454e-02,-3.80854e-02,1.33346e-01,7.02190e-02,1.56455e-01,-4.39477e-02,-7.62603e-02,4.43532e-02,5.12184e-02,-1.35508e-01,-2.15605e-01,1.26116e-04,2.59496e-01,9.00468e-03,-9.77527e-02,-7.85004e-02,-3.42035e-02,1.35136e-01,-2.15110e-01,-1.33184e-01,7.25265e-02,1.52560e-01,-1.15305e-01,9.13988e-02,1.02815e-01,2.08914e-01,-1.05901e-01,
9.96185e-02,4.20242e-02,-1.09217e-02,-3.21277e-01,-2.90161e-02,-2.14418e-01,4.04968e-02,3.78122e-02,3.95517e-01,-4.52608e-01,6.33185e-02,-1.08805e-01,3.09230e-01,-3.34958e-02,1.95263e-01,7.40643e-02,-8.21027e-02,-7.58628e-03,8.88777e-02,1.61322e-02,-4.46614e-02,4.93265e-02,-2.75283e-02,-2.25584e-01,7.41061e-02,5.06499e-01,-7.85055e-03,5.83587e-02,-2.64604e-02,3.83589e-02,-2.90199e-02,1.61225e-02,-1.00832e-01,7.63310e-02,-6.73904e-02,-2.32250e-02,1.26863e-01,-1.14753e-01,4.67599e-02,-2.78815e-01,7.64523e-02,9.05806e-02,1.83200e-01,2.14249e-02,-3.56234e-02,9.90728e-02,1.00086e-01,3.74374e-02,7.71096e-02,1.01069e-01,-1.01475e-02,-2.57271e-01,5.05621e-02,-9.23058e-03,6.36705e-02,-3.33109e-03,-5.24514e-02,-5.61262e-02,2.00132e-02,-4.95000e-01,-4.97231e-01,2.01714e-02,-6.87543e-02,7.22293e-02,-5.48520e-02,-1.76376e-02,-5.36176e-03,1.86836e-01,-3.49794e-02,1.24892e-01,3.24341e-02,1.13526e-01,6.03332e-02,2.66908e-02,8.44877e-02,8.13143e-04,-2.62234e-01,8.08573e-02,6.26196e-02,3.99427e-03,9.73146e-02,1.19433e-01,1.11863e-01,9.35960e-04,-1.20663e-01,-3.08542e-01,2.48885e-02,6.42262e-02,1.17363e-01,-5.97708e-02,2.35634e-02,9.52330e-02,-2.97806e-02,-1.63750e-01,4.35005e-02,-1.32631e-02,8.33471e-03,1.18939e-02,-4.31830e-02,1.03263e-02,
2.31269e-01,-5.71663e-02,-4.49733e-02,-7.24132e-02,-9.38953e-02,1.22597e-01,-7.21912e-02,2.42375e-02,-8.58545e-02,-4.23269e-02,6.02176e-03,1.45776e-01,1.12438e-01,-4.99454e-02,-2.46008e-02,-2.92573e-02,4.11246e-02,6.96690e-02,-1.05689e-01,-6.04019e-02,-1.90268e-02,1.07088e-01,1.36982e-01,-3.33667e-01,8.41610e-02,-1.69929e-01,4.92974e-02,3.02560e-03,1.05893e-01,-7.07725e-03,1.23329e-01,1.11168e-02,-2.64194e-02,9.79296e-02,2.91376e-02,4.72355e-02,-7.01425e-02,-6.31958e-02,-3.68926e-02,-1.69923e-01,-1.30035e-02,7.86560e-02,-5.22100e-02,5.17630e-02,-3.43814e-02,7.60523e-02,-3.51794e-02,4.02593e-02,-8.66859e-02,-8.20248e-02,-5.78449e-02,-5.45712e-02,6.85584e-02,1.05085e-01,-1.05337e-01,-9.09233e-02,9.42700e-02,-4.99881e-03,6.90914e-02,-1.17723e-01,-3.10684e-01,1.55834e-02,-1.00063e-02,3.09213e-01,-6.56159e-02,-1.94400e-03,8.46348e-03,1.96061e-02,3.79156e-02,-1.91443e-01,-1.02164e-01,-6.47920e-02,-2.79978e-02,-8.56992e-02,1.34028e-01,-2.06264e-02,1.32475e-02,8.06507e-02,-8.62196e-02,1.80791e-02,1.44704e-02,-8.22116e-02,1.10917e-02,7.87672e-02,-2.41957e-02,5.44296e-02,8.73452e-02,-1.00307e-01,-3.16849e-02,5.34066e-06,2.46662e-02,-3.74142e-02,2.07938e-03,5.53476e-02,-2.67708e-02,-1.14146e-01,1.50761e-02,9.12823e-02,1.37729e-01,1.38789e-01,
9.29425e-02,-2.28085e-01,-4.48625e-02,-6.35185e-02,-4.74542e-02,-6.13282e-02,-4.46758e-02,3.68364e-02,3.39919e-01,-2.91286e-01,1.01250e-01,-2.18198e-01,5.69250e-02,-2.29809e-02,1.38934e-02,6.41551e-02,4.87825e-02,8.58064e-02,4.47231e-02,3.47264e-02,-1.12693e-01,-2.09767e-01,8.04604e-03,-8.66395e-02,6.07695e-02,4.15352e-01,2.58544e-02,-9.62474e-02,-1.19382e-02,-3.14967e-02,6.82809e-02,-2.45169e-02,-6.06679e-02,1.08036e-02,-8.43711e-02,2.60898e-02,1.42326e-01,-7.98736e-02,-9.51989e-02,-1.67324e-01,1.06440e-01,5.44340e-02,9.18791e-02,-1.49517e-01,-9.11264e-02,4.17285e-02,2.64740e-02,6.70827e-02,4.39490e-02,-2.75330e-02,-1.53382e-02,1.03923e-01,8.83172e-02,-1.83586e-01,9.21436e-02,-3.51387e-02,-1.86841e-01,-4.24108e-02,3.26734e-02,-1.95646e-02,-8.43233e-02,-3.14213e-02,-5.22997e-02,8.60581e-02,-4.78375e-02,1.31126e-01,9.78135e-02,1.50608e-02,8.03465e-02,-8.10301e-02,-2.93836e-01,6.45296e-02,1.15991e-01,-4.37632e-02,1.44133e-02,3.17752e-02,-4.47288e-02,1.68337e-01,-4.64300e-02,-4.64296e-02,9.52887e-02,-2.95480e-02,4.58643e-02,-7.21267e-02,4.29658e-02,-7.76701e-02,-9.59998e-02,-7.27622e-02,7.43392e-02,3.04270e-03,6.21218e-02,-8.03896e-02,-5.35268e-02,4.00532e-02,-1.93194e-01,-5.36273e-02,1.58899e-01,6.11445e-02,7.43888e-02,-7.32688e-02,
-1.68642e-01,9.55730e-02,-3.99860e-02,3.89110e-02,9.42488e-02,1.48417e-01,2.34983e-02,2.07817e-02,-1.24308e-01,1.01820e-01,-2.83313e-01,1.00177e-01,-1.09058e-02,7.55178e-02,4.40024e-02,-9.16900e-02,-1.18176e-02,-4.77466e-02,-3.88503e-02,1.47778e-01,4.05889e-02,1.60787e-01,1.76603e-02,-9.61070e-01,8.14129e-02,-2.31634e-01,-1.10921e-01,8.96359e-02,7.34377e-02,3.96619e-02,4.34599e-02,-1.00656e-01,-8.58446e-02,6.80224e-03,-1.00590e-01,2.43483e-03,-3.25951e-02,-1.30142e-01,-1.08428e-01,-3.06125e-01,-3.36566e-02,-3.75805e-02,-1.72035e-01,9.97552e-02,9.07863e-02,4.13290e-02,1.31025e-02,-1.32651e-01,-7.17224e-01,9.19731e-02,-4.63525e-01,-4.11387e-01,5.62987e-02,1.52453e-01,4.43972e-02,-7.59970e-02,1.13857e-01,-1.32247e-01,-8.63149e-02,-2.87248e-02,2.40846e-03,-2.47693e-02,1.33931e-01,5.37888e-01,9.52224e-02,-3.58388e-02,-1.18813e-01,6.79053e-03,6.11175e-02,5.49077e-02,1.19221e-01,-8.13843e-02,-6.69585e-01,1.26475e-02,1.62676e-02,-1.95934e-01,-2.57944e-01,4.32538e-02,-3.18357e-02,9.41374e-02,1.54241e-01,-3.20096e-03,7.12922e-03,8.67913e-03,-4.39636e-02,4.48976e-02,-5.68410e-02,2.42546e-02,-1.03166e-01,8.00164e-02,1.18035e-01,6.38001e-02,-7.43157e-03,-4.64512e-02,-9.91902e-03,-4.26484e-03,-5.82001e-02,-9.82128e-02,-1.39456e-01,1.12027e-01,
-1.14829e-02,-1.30700e-02,-2.85267e-02,2.01613e-02,-4.66969e-02,-1.85056e-03,1.49065e-01,-7.03951e-02,4.27588e-02,4.97383e-02,6.92428e-02,1.03240e-01,2.10832e-02,1.66342e-01,-4.10547e-02,5.91131e-02,4.11681e-02,-4.44754e-02,4.63934e-02,5.32379e-02,-6.27782e-02,1.11922e-01,-7.41494e-03,7.20580e-02,9.18438e-03,-6.67663e-02,-4.22088e-02,-7.44783e-02,1.38113e-02,-4.08154e-02,-3.39850e-02,6.83433e-03,3.50886e-02,3.28426e-02,-2.33791e-02,9.22210e-02,5.01141e-02,1.06433e-01,-1.11006e-03,6.18285e-02,3.04740e-02,6.94782e-02,-4.96750e-02,-3.47836e-02,-3.16431e-02,6.77626e-02,-1.18301e-01,6.53005e-02,-9.01380e-02,1.54085e-02,1.31947e-01,-4.91267e-02,-5.26780e-02,-8.34691e-02,2.66998e-02,6.28507e-05,1.31982e-01,2.52383e-03,-2.87199e-02,-1.57293e-01,-4.01921e-02,4.89219e-02,-1.16925e-02,-9.15888e-02,1.22832e-01,-3.75050e-02,2.15155e-02,8.42359e-02,-1.03323e-04,1.14198e-01,1.34281e-01,7.42885e-02,-2.90388e-02,4.17861e-04,9.40168e-02,-1.73612e-02,-2.70507e-02,6.17944e-03,8.81223e-02,7.73633e-02,6.67317e-02,1.44864e-01,9.48978e-02,1.04771e-01,-2.27476e-02,4.97933e-02,6.32201e-02,-6.52426e-02,1.21469e-02,7.65876e-02,2.12761e-03,5.17888e-03,5.21275e-02,3.29725e-02,-2.14528e-02,-2.84376e-02,7.61673e-02,5.93036e-02,-1.58799e-02,5.69576e-02,
-3.09555e-01,1.02926e-01,5.21896e-03,1.32623e-01,-7.86294e-02,2.31841e-01,2.90501e-03,-2.74682e-02,-9.60795e-02,-9.52706e-02,-4.90014e-01,2.28108e-01,-2.17365e-01,1.72559e-01,9.15426e-02,-7.80912e-02,1.01477e-01,-1.62430e-02,7.55067e-02,2.80485e-02,4.22439e-02,1.45082e-01,-1.51613e-01,-1.45952e+00,-4.97617e-02,-2.51081e-01,-5.69850e-02,1.23912e-01,3.42699e-02,1.76850e-01,7.59912e-02,-1.22563e-01,-1.13723e-01,2.99323e-02,-7.43960e-03,6.04191e-02,-1.40595e-01,-1.94472e-01,5.94230e-02,-1.29205e-02,-4.43958e-02,-4.51449e-03,-1.42269e-01,9.89148e-02,6.40588e-02,5.95235e-02,5.35087e-02,-9.39867e-02,-1.19973e+00,1.93804e-02,-6.97085e-01,2.58819e-03,-5.27700e-02,2.16940e-01,2.11971e-02,2.63021e-02,2.06079e-01,7.12630e-02,-7.36420e-02,-2.54183e-01,4.48891e-02,-1.41021e-01,2.74213e-01,-1.40692e-01,4.11430e-02,4.64776e-03,-1.60462e-01,1.58577e-01,-2.65340e-02,-1.62370e-01,1.80925e-01,-1.06314e-01,-7.55676e-01,-3.18294e-02,-3.92814e-02,-2.74193e-01,-5.34300e-02,-1.17972e-01,2.47273e-02,3.88840e-02,1.92616e-01,1.25328e-01,1.54865e-01,6.38828e-02,1.22332e-01,7.29583e-02,-1.16400e-01,4.11447e-02,-9.30969e-02,6.02252e-03,2.59988e-02,1.50985e-01,7.87823e-02,-1.77656e-01,6.86819e-02,1.18652e-01,-1.47476e-01,4.44549e-02,-2.79339e-01,1.52879e-01,
-1.78156e-02,-2.99659e-03,6.80146e-02,-7.09031e-03,4.59006e-03,2.65647e-02,-6.37743e-02,1.50527e-01,1.22322e-01,-5.37165e-03,-2.99207e-02,-7.90294e-02,2.54655e-02,-7.93444e-02,1.66049e-02,-3.79825e-02,1.88589e-02,3.10394e-02,1.06068e-01,-2.58616e-02,-9.68631e-03,-1.00199e-01,9.72693e-02,4.89177e-02,6.69980e-02,1.72118e-01,-1.50165e-02,-6.58165e-02,-9.49083e-02,-1.01450e-01,9.89752e-02,-2.05549e-02,6.68162e-02,-4.68024e-03,2.46636e-02,1.46228e-02,6.42650e-02,7.79995e-02,5.79445e-02,-7.65807e-03,9.80482e-02,5.82560e-02,1.23683e-01,-7.08534e-02,-3.77142e-02,3.11351e-02,1.42102e-01,8.53938e-02,5.02575e-02,6.66518e-02,1.38826e-02,6.59474e-02,9.25764e-03,-2.56922e-02,-3.77743e-02,1.48586e-03,-8.80739e-02,-9.43941e-02,-3.84670e-02,4.62124e-02,1.11973e-01,1.28727e-01,-1.34347e-01,2.53139e-03,4.73019e-02,5.65157e-02,-4.11355e-02,1.00660e-01,-5.02562e-02,-1.23278e-02,1.15590e-01,2.37149e-03,1.31408e-02,1.02105e-01,7.49934e-02,8.23769e-02,4.48144e-02,5.11679e-02,-6.27156e-02,-8.64931e-02,7.51665e-02,-1.19187e-01,-3.77792e-02,-3.98448e-02,5.51421e-02,-6.14393e-02,6.48297e-02,9.90343e-02,4.48264e-02,9.27924e-02,-4.03971e-02,9.07193e-02,-9.14422e-03,-5.09569e-02,3.63716e-03,-7.54821e-02,2.65376e-02,-4.31878e-02,1.63702e-02,-5.69057e-02,
-3.88245e-01,-1.30492e-01,-6.95570e-02,3.59491e-01,-2.07705e-02,4.67527e-02,-2.01338e-02,-8.92317e-02,-6.79570e-01,2.85395e-01,-4.14754e-02,-6.83938e-02,-1.25978e-01,3.72254e-02,-1.53573e-01,-1.75291e-02,-1.44393e-02,-7.92958e-03,-6.84301e-03,-8.80200e-02,1.15213e-02,-3.25944e-02,1.73365e-01,2.49290e-01,-3.63235e-02,9.90445e-01,-5.67695e-02,8.21607e-02,8.90682e-02,2.60876e-02,-2.19839e-01,2.97576e-02,-4.47155e-02,-1.20717e-01,2.50273e-01,-2.15371e-02,-1.44595e-01,5.37507e-02,3.48189e-02,4.18320e-01,-5.68437e-02,-1.07743e-01,-1.13416e-01,4.11888e-01,-9.22295e-02,-3.62929e-02,-5.21331e-02,-8.53368e-02,-6.86187e-02,2.21667e-04,-6.97517e-02,1.23374e-01,2.29232e-02,-1.02087e-01,-7.66520e-03,-1.52148e-02,9.57457e-02,4.31791e-03,5.67033e-02,5.37904e-01,4.96253e-01,-2.62275e-02,2.57497e-02,-2.28382e-01,6.06477e-02,-3.20780e-02,1.01502e-01,-2.31808e-01,3.36652e-02,-5.77050e-02,-4.51464e-03,6.77751e-02,3.89546e-02,1.12713e-02,-1.30667e-01,1.36454e-01,1.80166e-01,-2.36020e-01,-1.17340e-01,3.47137e-02,-5.41645e-02,-1.90849e-01,-1.18945e-01,-1.29733e-01,-6.02856e-02,-1.10529e+00,1.37124e-01,-2.67610e-02,1.18505e-01,4.56775e-02,4.14841e-02,5.77354e-02,8.18688e-02,5.73648e-02,1.14602e-01,3.43405e-02,-1.45280e-01,2.40492e-02,-1.48940e-01,-1.26563e-01,
1.43954e-02,3.02108e-02,3.75255e-02,-2.60935e-03,4.88660e-02,9.72304e-02,-3.92222e-02,-3.10620e-02,-1.50277e-01,5.06010e-02,-5.61275e-02,1.47176e-01,8.77129e-02,2.27870e-02,3.36441e-02,-4.35210e-02,-1.26640e-03,6.31508e-02,3.43650e-02,2.26457e-02,1.08554e-01,7.85668e-02,-3.95841e-03,-4.25017e-02,-5.87098e-02,-3.75820e-02,-4.08497e-02,-7.66125e-02,-3.95724e-02,-1.31460e-02,-4.25715e-02,5.13351e-02,-4.45360e-02,1.03359e-04,-5.03997e-02,1.06951e-01,1.22624e-03,-2.67226e-02,-4.03753e-05,6.68330e-02,6.09404e-02,2.32035e-02,-4.88233e-02,5.39184e-02,1.01614e-01,7.16125e-02,4.34950e-02,3.18127e-02,5.01866e-03,1.45470e-01,-2.50972e-02,5.92170e-02,-1.56810e-02,-3.86710e-02,4.78025e-02,-7.11580e-03,3.39330e-02,1.26489e-01,-5.42576e-02,7.77485e-02,8.67468e-02,8.67668e-02,5.97868e-02,1.14211e-01,1.87920e-01,-4.78565e-02,-3.47541e-02,2.24645e-02,7.82392e-02,6.38440e-02,1.90929e-02,4.70274e-02,-1.09608e-02,-3.75082e-02,1.23895e-01,-1.56581e-03,-4.17843e-02,-7.16590e-02,-4.22913e-02,1.23704e-02,9.58643e-02,1.09621e-01,-4.79656e-02,-3.29957e-02,7.79210e-02,3.43475e-02,7.42232e-02,-3.18349e-02,-1.49834e-02,-3.17431e-02,-1.02647e-01,-4.99884e-02,-3.76457e-02,-4.24085e-02,3.51345e-02,8.13530e-02,3.28086e-02,5.22187e-02,2.68437e-02,-4.77398e-02,
1.03355e-01,-1.51507e-01,6.52356e-02,4.79648e-02,5.06941e-02,-7.50090e-02,-6.38090e-02,1.43947e-01,5.59663e-02,3.05960e-02,6.48695e-02,-5.25816e-02,4.74131e-02,-7.01823e-02,-5.29210e-02,-9.13148e-02,-2.59937e-02,7.86527e-02,-3.43273e-02,1.04966e-02,4.34630e-02,2.15845e-03,6.11928e-02,8.63609e-02,-5.96133e-03,-3.97409e-02,-8.14383e-02,-5.34557e-02,1.30378e-02,6.83077e-02,1.18583e-02,-3.14524e-02,-9.95370e-02,3.52408e-02,-4.33011e-02,5.14664e-02,1.19576e-01,1.00289e-01,-3.48620e-02,-3.03903e-02,-2.53283e-02,-3.35916e-02,5.41152e-02,8.72614e-02,-7.39218e-02,7.87658e-02,5.74679e-02,-7.21611e-02,-3.63200e-02,2.87386e-02,7.37805e-02,7.13029e-02,7.86097e-02,-9.62786e-02,-4.63227e-02,-3.46100e-02,6.66486e-02,9.57247e-02,5.30311e-02,-1.17551e-01,1.17733e-01,-8.20719e-02,2.07168e-02,-1.32149e-01,2.41616e-01,3.42597e-02,-6.23577e-02,-1.25490e-02,4.31069e-02,3.73694e-02,1.01935e-01,8.55329e-03,-2.68865e-02,9.53470e-02,1.19205e-02,-1.17281e-01,-1.00878e-02,6.09360e-02,7.31771e-02,5.07791e-02,1.79626e-03,9.49662e-02,1.48228e-02,-4.02732e-02,-3.55926e-02,1.00177e-02,1.45415e-02,-5.33113e-02,1.16712e-01,2.94914e-02,2.11313e-02,-2.56657e-02,-5.67184e-02,8.91390e-02,2.14318e-02,1.00919e-01,1.75926e-01,-6.26450e-03,1.84989e-02,4.50414e-02,
7.24106e-02,1.23798e-01,-5.29514e-02,3.34956e-02,-6.50410e-02,-1.46097e-01,-5.40929e-02,-5.86201e-02,2.66193e-03,-3.56413e-02,-3.60022e-02,1.72180e-01,-1.25727e-01,4.69229e-02,-1.76437e-02,7.53960e-02,5.28037e-02,-4.06799e-02,-5.38483e-02,1.16058e-01,-3.38571e-02,9.65063e-03,5.45607e-02,-1.79144e-01,1.02566e-01,-3.45658e-01,1.04509e-01,-4.71511e-02,-9.23832e-02,-3.78165e-02,-7.87916e-03,-9.09395e-02,-7.09333e-02,2.00424e-02,7.08175e-02,-3.51363e-02,-4.52885e-02,6.81196e-02,1.27559e-02,9.19958e-02,6.89416e-02,-3.26002e-02,-5.00458e-02,-3.12041e-02,9.85643e-04,-4.23614e-02,-3.39154e-02,3.94081e-02,-1.42491e-02,6.57663e-02,8.16905e-02,-7.00019e-02,1.98536e-02,1.50613e-01,-6.55032e-02,2.06989e-02,6.56326e-02,1.80051e-02,-4.65284e-02,-1.12912e-01,-4.48182e-02,7.31556e-02,6.48020e-02,4.19326e-02,-8.11159e-02,2.25598e-02,-1.52951e-02,-1.49736e-01,4.92451e-03,-3.97358e-01,-2.38075e-02,-3.33879e-02,-1.38741e-01,-1.27908e-01,-3.92717e-02,3.21973e-02,8.36210e-02,2.07528e-02,9.51985e-02,1.02312e-02,1.72928e-01,-1.80698e-01,-8.40559e-02,9.71225e-02,1.36039e-01,1.90479e-01,1.36924e-01,1.25491e-01,9.87641e-02,-1.39388e-03,1.24078e-01,8.09665e-02,-3.46092e-02,-4.41992e-02,3.07809e-01,-1.20897e-02,9.90021e-02,1.02594e-01,9.21574e-02,3.44622e-02,
3.93396e-02,1.09610e-02,-4.04662e-02,7.59513e-02,1.50049e-02,2.48910e-02,9.22533e-02,-3.67271e-03,2.04510e-01,1.23597e-01,1.11580e-01,-2.06634e-02,-8.16479e-02,9.69057e-02,6.61633e-02,-1.12768e-01,-5.82843e-02,8.33086e-02,1.86675e-02,7.86340e-02,9.33063e-02,-8.74944e-03,-7.51779e-02,-4.73695e-02,9.43212e-02,1.03025e-01,1.57398e-01,1.31622e-01,-4.05712e-02,3.59120e-02,-3.64402e-02,1.04019e-02,7.28202e-02,-8.95545e-02,-7.88436e-02,2.42415e-02,7.75653e-02,2.97171e-02,9.39531e-02,8.72330e-02,-6.07710e-03,-3.38522e-02,-1.08543e-01,1.15045e-01,-6.45200e-02,-2.68877e-02,-1.00780e-01,2.37601e-03,-6.38573e-03,2.38451e-02,1.72521e-02,-3.91353e-02,7.09782e-02,1.51492e-02,9.88914e-02,-1.28514e-01,-7.74172e-02,-7.09716e-02,9.70185e-02,-5.43712e-02,4.58186e-02,8.44474e-02,-4.05033e-02,4.63627e-02,-7.64648e-02,3.40297e-02,1.00671e-03,-4.65400e-02,8.58943e-02,-6.26594e-02,-6.86827e-02,2.87436e-02,1.91412e-02,-2.19423e-02,1.05216e-01,1.10465e-01,-3.12594e-02,1.12945e-01,1.47421e-01,-1.90373e-02,1.72439e-03,3.34709e-02,7.39453e-03,5.23833e-02,8.67949e-02,1.50418e-01,1.73415e-02,7.43307e-02,-1.99412e-02,4.98335e-02,-6.81918e-02,-4.22625e-02,-8.10564e-02,9.94868e-02,9.60638e-02,1.05034e-01,-3.75958e-02,-4.70757e-02,8.96742e-02,-1.07247e-02,
-8.74033e-02,-1.50632e-02,-4.52295e-02,7.50944e-02,-4.94023e-02,2.43290e-02,4.65986e-02,3.58641e-02,1.85618e-02,-1.12004e-01,1.24571e-03,-7.74315e-03,5.71982e-02,-1.50002e-01,-5.09860e-03,-7.97990e-02,-3.62524e-02,1.51332e-02,9.47098e-02,6.85253e-02,1.61544e-03,-1.47818e-02,1.40711e-02,4.24785e-02,1.97430e-02,1.47074e-02,1.56098e-01,4.70118e-02,3.12550e-02,-1.19044e-01,-1.08732e-02,1.32099e-01,1.37228e-02,-7.59176e-02,-6.17091e-02,-1.08053e-02,-2.12695e-02,-6.00699e-02,9.33305e-02,1.31911e-01,-3.57388e-02,-1.30364e-01,1.22611e-01,5.21855e-02,4.08402e-02,-5.33041e-04,1.00940e-01,1.15715e-01,-6.67110e-02,8.56550e-03,1.03303e-01,3.28201e-02,1.18444e-01,-7.01226e-02,1.69319e-01,-1.68357e-02,-3.91237e-02,-2.44165e-02,1.08315e-01,-3.55128e-02,8.91753e-02,8.44769e-02,-1.22913e-05,5.17432e-02,-1.10046e-01,-5.65867e-02,2.67393e-02,-6.35229e-02,-8.23373e-02,1.53183e-01,-2.10413e-01,-2.19733e-01,4.13504e-02,-2.46976e-02,7.24416e-02,8.07997e-03,4.71648e-02,-1.66554e-02,-6.61276e-02,1.33027e-01,-1.99519e-02,-9.01370e-03,3.69665e-02,1.43260e-01,9.14684e-02,-3.51955e-02,-1.41622e-02,-1.75440e-01,-2.39508e-02,-5.14719e-02,3.16657e-02,-1.08473e-01,-1.39683e-01,1.22382e-01,-2.77820e-02,7.09730e-02,-5.09368e-02,4.99854e-02,-8.69960e-02,-1.58811e-02,
8.20430e-02,-5.28191e-02,-9.94025e-02,2.02520e-02,8.12178e-02,1.54191e-02,5.50602e-02,7.69739e-02,4.94577e-02,1.65738e-01,6.53350e-02,4.96941e-02,-6.23676e-02,5.22393e-02,-8.07569e-02,-6.25990e-02,-2.85269e-02,9.23693e-02,-6.45612e-02,5.28143e-02,-6.05090e-02,-3.42404e-02,6.63174e-03,8.93378e-02,-6.04317e-02,-6.27811e-02,-1.14480e-01,-1.09868e-01,1.14992e-01,-6.05556e-02,-2.36125e-02,-3.17604e-02,2.28128e-02,6.79642e-02,2.98603e-02,9.09726e-02,1.07412e-01,5.99948e-02,8.95718e-02,3.88180e-03,6.01456e-03,1.06856e-01,-6.57130e-02,6.88992e-02,-9.61058e-02,5.04928e-02,4.30112e-02,-8.19374e-02,3.40862e-02,1.06655e-01,-1.39291e-02,9.60526e-02,-2.73875e-03,-3.39248e-02,4.84023e-02,-5.21743e-02,1.22376e-01,7.84733e-02,1.64751e-02,-9.83554e-02,-6.36708e-02,7.35171e-03,-2.46607e-02,2.16251e-03,2.30459e-01,7.54552e-02,1.70167e-02,1.22240e-01,1.24046e-02,3.19409e-02,5.13097e-02,1.02348e-01,4.44616e-02,-2.55985e-02,8.49887e-02,3.23535e-02,-8.70626e-02,-3.79137e-02,-2.39034e-02,3.64085e-02,-1.88929e-02,1.03170e-03,6.02557e-02,2.92732e-02,2.01807e-02,9.98881e-03,6.63045e-02,6.91362e-02,2.22053e-02,-6.63140e-02,-3.37931e-02,-2.07056e-02,4.59572e-02,1.05185e-01,2.92990e-02,-4.19965e-03,8.54107e-02,-8.05830e-02,-3.68673e-02,6.00340e-02,
1.09734e-01,-7.73568e-02,1.03533e-03,5.25818e-02,-4.03708e-02,4.42614e-02,5.00149e-02,-3.26430e-02,1.37195e-02,1.25414e-04,1.09304e-01,-3.76239e-02,1.30639e-01,1.45378e-01,2.44272e-02,-6.08762e-02,7.44544e-02,2.02550e-02,2.88531e-02,-3.97414e-03,6.04665e-02,-5.82950e-02,5.77001e-02,-3.44156e-03,1.17010e-02,1.60022e-01,-1.20924e-01,3.60562e-02,8.38263e-02,2.35826e-02,2.25501e-04,7.72472e-02,-1.25637e-01,3.39651e-02,-5.79346e-02,-2.70302e-02,2.29100e-02,5.55537e-03,-2.92193e-02,-1.17988e-01,-6.64171e-02,9.25453e-02,-4.08946e-02,-4.05041e-02,9.86014e-02,-3.92653e-02,-8.67680e-02,2.09568e-02,-8.27197e-02,1.00932e-01,2.62748e-03,1.52216e-02,-6.22473e-02,-7.43226e-02,6.96155e-02,-9.25202e-02,-2.80400e-02,8.60140e-02,-4.10730e-02,4.97930e-02,1.46451e-01,9.67452e-02,8.61466e-02,2.50736e-01,1.75056e-01,5.72042e-02,9.45204e-02,4.07644e-03,1.55035e-03,2.64499e-02,-1.64787e-01,-1.72249e-02,3.44222e-02,-3.16975e-03,2.32749e-02,-3.61719e-02,-7.47232e-02,1.00243e-01,-4.42374e-02,1.03844e-01,6.52053e-02,-7.78149e-03,-1.26779e-01,8.94760e-02,-2.01192e-02,-7.05515e-02,-3.07988e-02,-6.42300e-02,5.32854e-02,-1.79015e-02,1.14227e-01,3.74555e-03,-1.46520e-02,1.23947e-01,-9.72249e-03,5.47517e-03,5.65296e-02,5.88289e-02,8.00079e-02,-1.65094e-03,
-1.46943e-01,1.29346e-01,-9.57859e-02,1.10594e-01,-9.75202e-02,6.28783e-02,-1.15822e-02,1.15232e-02,-5.18545e-01,1.37000e-01,-4.51959e-02,1.67141e-01,-1.18834e-01,8.00822e-02,5.97966e-03,8.76465e-02,1.16856e-01,1.24576e-02,-2.99066e-02,7.26567e-02,-2.66278e-02,1.53733e-02,-6.09546e-02,-9.74313e-02,-3.96630e-02,2.21953e-01,-1.85891e-02,7.41260e-02,-2.41468e-02,4.73955e-03,8.04410e-02,-3.28494e-04,-9.28859e-03,7.63765e-03,1.68779e-02,-5.44834e-02,-7.56535e-02,6.21697e-02,-5.92595e-02,1.52141e-01,9.61689e-03,9.80990e-02,-8.06110e-02,1.99288e-01,8.57115e-02,-9.66048e-02,-1.61379e-02,-4.93313e-02,-5.18859e-02,-6.03873e-02,6.23324e-03,-3.02678e-02,6.27393e-02,5.89683e-02,7.35694e-02,-3.13720e-02,-9.05088e-02,5.11470e-02,-3.03368e-02,1.83944e-01,1.86311e-01,-1.96400e-01,1.16653e-01,2.74726e-02,-2.03466e-03,7.03843e-03,4.72136e-02,-8.75816e-02,8.10245e-02,8.11598e-02,4.28611e-02,8.93171e-02,-2.07677e-02,-5.86225e-02,4.76031e-03,-5.43085e-02,9.19596e-02,2.37782e-02,1.76613e-02,9.12229e-02,3.10076e-02,1.46793e-01,1.40042e-01,-3.18044e-02,-6.37821e-02,-4.17161e-01,4.86131e-02,1.09576e-03,-1.68010e-02,-4.68403e-02,3.31146e-03,5.72930e-02,-7.97847e-02,4.31954e-02,8.78131e-02,-6.12866e-02,-2.30418e-02,6.49737e-02,6.43167e-02,-3.99440e-02,
2.49073e-02,-7.92953e-03,4.46732e-02,1.61374e-01,-2.86500e-02,8.66742e-02,-1.11413e-01,1.66691e-01,-1.17668e-02,-4.71197e-02,4.99538e-02,8.67316e-02,7.87542e-02,-2.01857e-02,1.27604e-01,1.08580e-01,-3.68541e-02,-4.99352e-02,2.21722e-02,-4.58377e-02,-3.73473e-02,-6.60070e-02,3.91385e-02,-6.39884e-02,4.66393e-02,1.46353e-01,-8.48518e-03,6.76035e-02,-6.19909e-02,4.64440e-02,-4.59033e-02,-5.64840e-02,1.42160e-01,5.23988e-02,1.28752e-01,-1.58453e-02,-1.95046e-02,4.66875e-02,-3.80072e-02,1.06775e-02,5.24811e-02,-4.51007e-03,1.07878e-01,6.56500e-02,1.43657e-01,6.78283e-03,9.94995e-02,6.21381e-03,6.39199e-02,-8.74051e-02,6.41397e-02,6.67569e-02,7.28256e-02,9.02008e-02,7.49708e-02,1.34078e-01,1.50007e-01,-2.86609e-02,-1.25006e-02,-2.68777e-02,3.20920e-02,-2.42535e-02,3.34061e-02,2.71870e-01,-1.44715e-02,-2.25303e-02,8.33098e-02,9.27976e-02,-8.36155e-02,7.09930e-02,-3.32688e-02,1.29459e-02,2.61525e-02,8.36919e-02,8.31132e-02,-1.38631e-01,6.27417e-02,1.52596e-02,-4.42671e-02,-3.85045e-02,-1.68374e-02,-6.23034e-02,-2.09654e-02,7.57599e-02,1.78109e-02,-8.07382e-02,3.06373e-02,9.30263e-02,-2.23678e-02,6.97970e-03,-1.07526e-02,-6.33231e-02,8.13304e-02,-1.96026e-02,1.28616e-01,-3.51709e-02,1.05963e-01,2.86525e-02,1.14647e-01,6.93807e-02,
1.09905e-01,3.00339e-02,6.33117e-02,1.51388e-02,5.97362e-02,-7.11280e-02,4.23017e-02,-4.25899e-02,-3.93178e-02,-1.86472e-02,4.56231e-02,3.15519e-02,5.69796e-02,-5.03841e-02,3.55840e-03,1.48892e-02,5.12778e-02,5.70947e-02,-6.00247e-02,1.94597e-02,-5.11038e-03,-5.80589e-02,1.00578e-01,-1.80990e-02,1.45830e-02,2.88339e-01,-1.28643e-01,-7.40080e-02,8.42856e-02,7.24546e-02,-3.03872e-02,-2.22820e-02,1.53749e-02,-3.52044e-02,-2.64535e-02,9.35065e-02,1.15683e-02,-9.30705e-02,5.25067e-02,7.15724e-02,7.59289e-02,-1.46574e-02,2.11234e-02,5.70806e-02,3.83807e-02,-3.99059e-02,-6.09475e-02,6.70836e-02,1.07270e-01,1.02980e-01,-9.88704e-03,6.61019e-02,4.93148e-02,8.84842e-02,4.85961e-02,2.41987e-02,6.30989e-02,-7.36338e-03,5.17443e-02,7.36939e-02,-9.76053e-03,6.59464e-02,-2.37063e-02,2.55677e-01,7.13187e-02,-5.29979e-02,4.09421e-02,9.44549e-02,5.08389e-02,1.66632e-02,-2.14224e-02,-6.38223e-02,-9.94932e-02,1.24468e-01,-2.62785e-02,3.97628e-03,7.86831e-02,3.44547e-02,4.95036e-02,-4.00031e-02,-6.84899e-02,1.65313e-01,-7.10573e-02,4.33823e-02,8.13962e-03,-1.46359e-01,1.20556e-01,-1.03106e-01,2.54309e-02,-2.25227e-03,5.36519e-02,-4.32233e-02,-6.71057e-02,1.04126e-01,8.74713e-02,7.77106e-02,7.10671e-02,4.05397e-02,1.78256e-01,-1.56391e-02,
-1.83459e-02,1.39633e-02,-6.49033e-02,7.83737e-02,6.08079e-02,1.17239e-01,8.45137e-02,1.27172e-01,9.85463e-02,-1.30962e-01,4.64004e-03,4.92188e-02,-5.13774e-02,-1.03959e-01,-3.13165e-02,8.01041e-04,4.38643e-02,7.50722e-02,7.48942e-02,8.58356e-02,2.16069e-02,2.47737e-03,2.34623e-02,8.40232e-02,-2.20068e-02,2.55078e-01,1.60159e-01,-6.91476e-02,-2.91729e-02,4.50657e-02,9.30103e-02,-1.27915e-02,3.66471e-02,2.63428e-02,3.96950e-02,7.79976e-02,6.86833e-02,4.19994e-02,1.31589e-02,1.13175e-01,1.02258e-01,3.45965e-03,1.39196e-01,-3.84285e-02,8.62599e-02,1.21358e-02,1.49430e-01,-6.95266e-02,-1.88062e-02,-8.78068e-03,-1.28159e-02,-6.97726e-02,1.81516e-02,-1.77308e-02,-1.69568e-02,1.33133e-01,-2.34790e-02,8.23627e-03,6.08775e-02,4.45794e-03,5.08483e-02,1.04744e-02,-1.01189e-01,8.77674e-02,-3.75408e-02,1.00784e-01,7.09601e-02,6.13155e-02,-8.28890e-02,3.19153e-02,7.50239e-03,2.34823e-02,2.09579e-02,-4.64431e-02,2.31881e-03,1.34801e-01,1.18562e-02,7.44221e-02,-2.25548e-02,-1.34584e-01,-2.30511e-02,-5.47179e-02,6.24994e-02,8.43838e-02,-1.25254e-01,-4.91367e-02,-1.10211e-03,3.44781e-02,-1.12737e-01,5.06162e-02,3.54506e-02,-2.49639e-02,-2.89596e-02,-2.44750e-02,4.19936e-02,-8.91678e-02,2.66851e-02,1.86831e-02,4.05058e-02,2.50682e-02,
8.38335e-02,-1.60666e-02,-6.25633e-02,-6.36680e-02,-5.50292e-02,-7.96772e-02,-1.14532e-01,-5.54693e-04,-1.42634e-02,-5.39266e-02,-1.72393e-02,2.47513e-02,-7.21479e-02,4.03377e-02,8.54378e-02,1.34870e-02,-4.51161e-02,2.16243e-02,-7.74522e-02,-8.25855e-02,1.19084e-01,-1.76960e-02,4.07620e-02,5.31111e-02,7.08112e-02,-1.77949e-01,1.55183e-01,4.35849e-02,6.28652e-02,-2.58366e-02,2.06393e-02,-3.06453e-02,1.31615e-01,9.40443e-02,9.29214e-02,-6.82381e-02,1.20579e-02,-3.36927e-02,3.94279e-03,7.29049e-02,2.37141e-02,1.26827e-01,5.43695e-02,2.01004e-02,-4.21284e-02,7.98282e-02,1.86873e-02,-5.30231e-02,9.79725e-02,8.46420e-02,6.55470e-02,2.80854e-02,9.57326e-02,-3.40143e-02,7.10759e-02,6.87509e-02,1.61090e-02,-5.79795e-02,1.25540e-01,-1.10219e-01,-7.97917e-02,8.56688e-02,-1.51154e-01,-2.89198e-02,-9.52763e-02,-3.56079e-02,1.75661e-02,-5.49054e-02,-2.03269e-02,3.71484e-02,8.50949e-02,5.77045e-02,8.54212e-02,1.01072e-02,3.24624e-02,-3.97064e-02,-3.18692e-02,-2.95187e-02,-2.30591e-02,5.07988e-03,3.74856e-02,-1.23737e-02,5.77550e-02,4.64988e-02,-6.04701e-02,7.92815e-02,7.92347e-02,-1.26837e-02,9.16452e-03,3.30817e-02,-4.84709e-02,1.07843e-02,3.05756e-02,-3.40740e-02,-1.67441e-02,-4.02096e-03,2.42862e-02,1.03743e-02,1.22697e-01,4.82028e-02,
-7.41283e-01,7.71041e-02,-3.00783e-02,1.44623e-01,-5.88695e-03,1.88280e-02,-5.86567e-02,8.24094e-02,-5.71340e-01,-1.18834e-02,-3.48070e-01,3.26155e-01,-2.52117e-01,3.02649e-02,1.69411e-01,-3.14597e-02,2.96478e-02,1.00122e-01,1.37066e-01,1.65703e-01,-1.98607e-01,2.01771e-01,-4.04686e-01,-3.01805e-01,1.13751e-01,-1.24416e-01,-1.19412e-01,-5.92113e-03,-2.76924e-02,1.20533e-01,-6.89259e-02,-5.32725e-02,-1.28017e-01,-2.68375e-02,3.05607e-02,1.18141e-02,-1.87309e-01,-1.66457e-01,4.77810e-01,6.28113e-02,-1.22077e-01,3.29566e-02,-2.06315e-01,-4.64468e-01,-2.92583e-02,-8.43420e-03,-1.96887e-02,-1.69508e-01,-3.62807e-01,1.88170e-01,-2.56748e-01,-8.45581e-03,1.68785e-02,1.61585e-01,-7.09017e-02,5.38911e-02,1.83392e-01,-1.69371e-01,-1.16003e-01,5.80644e-02,-1.10949e-01,3.50165e-03,3.69041e-01,-2.48479e+00,-5.21653e-03,-1.61704e-01,2.55759e-02,1.28442e-01,-2.47139e-02,-1.06751e+00,2.81656e-01,-8.00074e-02,-3.83986e-01,-7.87179e-02,7.86718e-02,-3.09609e-01,-2.45203e-01,-3.98407e-01,2.61838e-01,1.16454e-01,3.62950e-01,-1.87148e-01,1.61451e-01,2.10531e-01,7.97603e-02,-4.50850e-01,7.42942e-03,1.40327e-01,5.59494e-02,4.98376e-02,1.44346e-01,6.76092e-02,7.17965e-02,-2.12175e-02,-8.74201e-02,8.58438e-03,-2.50218e-02,5.92209e-04,-1.67527e-01,1.09123e-01,
1.06845e-02,1.16362e-01,-1.45210e-02,-5.00052e-02,-3.15368e-02,8.75653e-02,1.27482e-01,3.17781e-03,1.41310e-01,-7.68683e-02,-5.99718e-02,4.08498e-02,7.19997e-02,6.33754e-02,-2.11388e-02,6.16097e-02,8.75635e-02,4.63813e-02,-1.74798e-02,-2.13793e-02,-4.97518e-02,2.47107e-02,-1.15433e-03,8.48483e-03,1.12601e-01,2.74534e-01,1.83598e-01,7.84895e-02,-6.51020e-02,-1.20212e-01,-4.79389e-02,-3.31267e-02,1.37176e-01,4.36555e-02,6.57115e-02,-2.21991e-02,1.25485e-01,-8.91518e-03,7.31066e-02,-1.58030e-02,3.66623e-02,3.42038e-02,3.52476e-02,-3.88598e-02,-5.54719e-02,3.94384e-02,1.85529e-02,1.02536e-01,8.86779e-03,-2.17612e-02,-2.04422e-02,8.09871e-02,3.34825e-02,-8.47785e-02,-1.08193e-02,4.72714e-02,-1.30967e-01,-5.16656e-02,6.43555e-02,7.88500e-03,1.44141e-01,-2.48653e-02,-5.51405e-02,7.82217e-02,-2.23716e-01,8.68433e-02,5.30755e-02,9.08775e-02,7.21513e-02,9.41503e-02,-9.14050e-02,2.87571e-03,9.11101e-02,-1.18035e-01,-6.31330e-03,4.84510e-02,2.95003e-02,1.48427e-01,1.12273e-01,-9.06633e-02,-9.01732e-03,-8.56954e-02,5.91173e-02,4.01317e-03,6.33365e-02,-1.40380e-02,8.95633e-02,-4.02078e-03,9.76226e-03,2.66603e-02,1.98074e-02,4.86268e-02,4.89944e-02,-5.06954e-02,-1.16673e-01,-3.82553e-02,-1.14866e-01,-4.93021e-02,-4.61730e-03,7.77009e-02,
-2.41818e-01,-7.85842e-02,9.87697e-02,-4.66651e-01,-1.03796e-01,-1.05464e-01,-2.52595e-02,-3.38161e-02,-9.69264e-03,-3.81862e-03,-1.02270e-02,-3.07184e-02,-1.08403e-01,4.09295e-02,3.25353e-03,1.43814e-02,1.07141e-01,4.05879e-02,1.03047e-01,8.91674e-02,-7.54249e-03,-2.61639e-02,-2.23484e-01,8.32351e-02,-6.19027e-02,6.77093e-02,-1.67908e-02,-4.00469e-02,-9.86903e-02,-1.00434e-02,-3.35426e-02,1.03354e-02,-1.14305e-03,9.03972e-02,-9.90176e-02,-1.25434e-01,2.73908e-01,3.71085e-02,1.11577e-01,-7.10978e-02,7.32690e-03,-1.92363e-02,-3.61337e-02,1.59920e-01,-9.30892e-02,-1.39316e-02,6.50296e-02,1.12713e-02,-5.22428e-02,1.25436e-01,4.58734e-02,3.14070e-01,6.73998e-02,6.02828e-02,6.24571e-02,2.42252e-02,1.22842e-01,-1.48925e-01,-6.55797e-02,2.86300e-02,-5.80366e-02,-2.19943e-01,-9.34721e-02,-7.94243e-01,6.24301e-02,-3.21257e-02,5.51846e-04,-3.11717e-02,4.25560e-02,-2.64081e-02,1.27223e-01,-4.46834e-02,-2.16379e-01,-9.39672e-02,-3.08920e-02,9.91757e-02,-5.78603e-02,-1.38321e-01,1.48065e-01,-2.05703e-02,1.59202e-01,5.70745e-02,6.23165e-02,-2.43298e-02,-1.29811e-01,-1.24865e-01,-1.33121e-01,1.03619e-01,2.09489e-01,-9.91181e-02,-9.98788e-02,4.58405e-02,-7.22216e-03,4.67619e-02,4.93570e-02,-6.29212e-02,1.78974e-02,1.07020e-02,-2.88348e-02,-9.09562e-02,
1.03318e-01,-5.28182e-02,4.86164e-02,-1.33006e-01,-3.10115e-02,1.00508e-02,3.74759e-02,-8.44301e-02,-3.17983e-02,1.25831e-02,-1.12038e-01,3.63225e-02,-4.50767e-02,2.76663e-02,5.43898e-02,3.02209e-02,2.41524e-02,5.28133e-02,4.59738e-02,-4.86778e-03,-5.97587e-02,-3.81857e-02,2.67646e-02,-7.79210e-02,-5.12757e-02,-4.45177e-02,1.50929e-02,6.07823e-02,2.47208e-02,5.78619e-02,1.67315e-02,8.35744e-02,2.77712e-02,7.75478e-02,1.69549e-03,-3.52835e-02,3.85824e-02,6.48439e-02,-7.72096e-02,2.74894e-02,-2.96443e-02,-3.96497e-02,2.53311e-02,-6.64617e-02,7.59612e-02,-5.73203e-02,5.79270e-02,-1.15333e-01,1.94766e-02,-9.09599e-02,-3.93251e-02,-9.76298e-02,6.61076e-02,-6.80899e-02,4.15006e-02,1.56058e-02,-8.28656e-03,-1.19105e-02,5.14295e-02,7.14030e-02,3.65564e-03,-4.57337e-02,1.82128e-01,1.11437e-01,7.76084e-02,3.57972e-02,-2.41967e-02,2.00450e-02,-3.93828e-02,2.18914e-03,-6.37414e-02,6.69303e-02,-1.39866e-03,5.98620e-02,3.37613e-03,-8.43370e-02,2.50869e-02,3.54581e-02,6.29463e-03,5.15406e-02,7.90637e-02,8.28359e-02,-3.01975e-02,8.51919e-02,7.13352e-02,1.58038e-03,-3.61846e-02,-1.77712e-02,1.31965e-02,4.53713e-02,-6.79294e-03,9.27507e-02,-1.35865e-01,2.52075e-02,-5.19117e-02,5.10275e-02,-8.54003e-02,-1.80184e-02,9.09588e-02,-1.00825e-01,
-4.13630e-02,9.50739e-02,-5.75663e-02,-2.86488e-02,-5.78891e-02,-1.39263e-02,9.03181e-02,-4.78161e-02,1.77624e-01,-1.09706e-01,7.59908e-02,-6.84946e-02,1.34914e-01,-4.23662e-02,1.18400e-01,2.21682e-02,-5.35619e-02,4.38083e-02,3.41478e-02,-1.35928e-02,6.27760e-02,-9.35677e-02,-1.00576e-01,-3.61498e-02,5.08423e-02,1.79840e-01,2.53213e-01,1.19544e-01,-1.16066e-02,-7.66061e-02,-1.07823e-01,-4.80636e-02,9.79963e-02,9.42722e-02,-1.13628e-02,8.26983e-02,1.56918e-01,-4.33272e-02,9.40217e-02,-3.44421e-02,2.28940e-02,-5.45803e-02,-2.30281e-02,1.55518e-01,-2.10114e-03,-4.24660e-02,1.00191e-01,1.31167e-01,5.78214e-02,9.28146e-02,5.03032e-03,6.01000e-02,2.04635e-02,-6.32492e-02,-5.75124e-02,-1.06728e-01,-8.07913e-02,4.43315e-02,1.29127e-01,-1.96748e-02,4.65569e-02,-3.42658e-02,-1.07571e-01,2.45561e-02,-1.47622e-01,-2.84451e-02,8.55042e-02,3.90459e-02,1.29914e-01,1.54258e-01,-8.33174e-03,9.37148e-02,-7.18276e-02,-7.91165e-02,-1.02696e-02,8.91780e-02,-4.40275e-02,5.48885e-02,2.55884e-02,-7.95149e-02,4.07071e-02,-1.22351e-01,-5.28128e-02,-1.92902e-02,7.81402e-02,4.47674e-02,8.34492e-02,-2.74534e-02,7.11754e-02,6.77714e-02,-1.47585e-02,-2.87776e-02,-4.40479e-02,-2.53043e-02,1.16850e-02,-9.60882e-02,-3.84717e-02,8.19487e-04,8.07771e-02,-4.45935e-02,
-1.11099e-01,-1.03023e-01,3.43488e-02,1.10735e-02,-2.22144e-02,-8.58378e-02,2.91211e-02,1.33747e-02,1.65069e-01,3.72329e-03,-1.23528e-03,5.45279e-02,-2.17092e-01,-7.34453e-02,-3.15043e-01,7.82105e-02,5.06721e-02,-9.49683e-02,2.45292e-02,8.93086e-02,-7.58402e-02,-8.69314e-02,1.34936e-01,2.05488e-01,-7.19554e-02,-4.92385e-01,-3.74047e-02,2.31859e-02,1.21671e-01,-8.20385e-02,-1.40886e-01,5.03094e-02,1.36930e-01,-6.19323e-02,5.81091e-02,2.86642e-03,1.48458e-02,1.53457e-01,-7.30156e-02,1.99112e-01,-5.65560e-02,-1.18114e-01,7.12122e-02,1.21129e-01,1.16521e-01,-1.57935e-02,-1.31233e-02,-3.11253e-02,1.70922e-01,-1.18611e-01,8.91956e-02,1.43996e-01,5.40095e-02,-1.22853e-01,4.37992e-02,3.33684e-02,-2.73772e-01,4.26402e-02,-3.89752e-02,1.19138e-01,1.23013e-01,1.10527e-01,-6.33250e-01,-6.89871e-02,-9.29837e-03,-3.36466e-02,4.28423e-02,-1.33374e-01,6.17691e-02,-2.56808e-01,-2.58096e-01,1.51398e-01,2.29457e-01,-7.88536e-02,-3.50780e-02,1.29389e-01,3.32160e-02,-1.16109e-01,-9.86071e-02,-6.24536e-03,6.62287e-02,-1.04652e-01,-1.63165e-01,-1.54790e-01,4.41183e-02,6.56115e-01,1.39554e-01,5.52092e-02,1.42833e-01,-4.12693e-02,9.05215e-02,-6.11798e-02,4.64953e-02,8.22461e-02,2.33958e-01,-4.57784e-02,3.24475e-03,-1.77653e-02,-3.10293e-02,-5.62728e-02,
-7.23999e-03,5.74941e-02,7.00774e-03,1.34222e-01,-5.57975e-02,1.29788e-01,1.31168e-01,4.42305e-02,-9.51804e-02,-4.64295e-02,1.60245e-01,8.84358e-02,-6.02484e-02,6.12965e-02,-1.11239e-01,7.85884e-02,2.64706e-02,1.48086e-03,-1.03983e-01,1.03241e-01,5.05051e-02,-5.18443e-02,1.83099e-02,-1.95940e-02,-1.31556e-01,-5.20126e-01,4.46304e-02,-1.43085e-01,7.16383e-02,-9.24059e-02,8.74275e-03,1.06907e-01,5.69328e-02,8.68243e-02,-7.02554e-03,-7.02815e-02,-9.97190e-02,1.37982e-01,3.06048e-02,-7.15002e-02,6.85150e-02,-5.71733e-02,-5.45958e-02,1.77878e-02,1.00284e-01,-8.82869e-02,3.64014e-02,1.00091e-01,9.21819e-03,-2.31236e-01,2.24550e-02,1.10752e-01,-1.30932e-02,5.81942e-02,5.92676e-02,7.20633e-02,-2.80612e-01,-7.26465e-04,7.20509e-02,-1.38829e-01,-5.51865e-02,5.87817e-02,-2.01881e-01,-2.29921e-02,-1.30887e-01,-3.58975e-02,8.52962e-02,-2.61629e-01,-1.97390e-02,-2.25947e-03,-9.20172e-02,-3.66487e-02,-1.70518e-02,-4.63757e-02,1.07064e-01,6.09990e-02,1.26947e-01,1.20793e-01,-1.00093e-02,3.46589e-02,-2.12744e-02,1.41088e-01,-2.23966e-01,-9.60870e-02,5.36931e-02,9.60396e-02,6.31068e-02,-4.74871e-02,-5.46686e-02,6.33796e-02,7.23862e-02,-1.62911e-02,-3.45307e-02,1.55851e-01,2.19068e-02,1.17766e-03,-6.53213e-02,9.06891e-02,1.76212e-01,2.52242e-02,
8.95420e-02,-6.86588e-01,7.03884e-03,-3.33310e-01,1.09043e-01,-1.45405e-01,7.61958e-02,4.27523e-02,4.02077e-02,-2.38011e-01,5.81826e-02,-2.22627e-01,-1.68469e-01,-3.86810e-03,3.50507e-02,4.32959e-02,-1.56623e-02,1.22838e-01,1.20641e-01,3.07630e-02,-1.67234e-01,-8.44223e-02,-6.76066e-01,2.24006e-01,5.41140e-02,-1.25054e-01,-2.78497e-02,-9.72108e-03,-2.15567e-02,-6.44190e-02,5.94736e-03,-1.00327e-01,-1.64911e-01,-7.16436e-02,-1.42973e-01,-1.28173e-02,-1.59449e-01,7.87918e-02,2.14469e-01,-5.37396e-02,5.86998e-03,-6.41606e-02,9.14327e-02,2.41470e-01,4.38812e-02,5.06232e-02,6.89586e-02,-1.72731e-02,5.24892e-03,1.32898e-01,1.03285e-01,-1.73530e-01,-1.85581e-02,1.07294e-01,8.91481e-02,-2.02025e-01,4.61741e-02,1.32693e-01,9.77467e-02,-5.67289e-02,-2.34880e-01,-5.53641e-01,-9.32833e-02,-1.01410e+00,-7.13818e-02,8.03476e-02,-1.64848e-02,-2.48052e-02,7.53172e-02,-2.86659e-02,1.42989e-01,-1.67000e-02,2.27901e-02,4.89999e-02,-2.55089e-02,-1.09911e-03,-8.27445e-01,-4.18892e-01,-8.19426e-02,6.19399e-02,2.31456e-01,-3.50554e-01,5.91331e-02,1.62271e-01,-1.40508e-01,-9.77961e-02,-3.28397e-02,3.16761e-02,2.36992e-01,-8.13989e-02,7.07254e-02,1.46132e-02,8.33513e-02,-1.01456e-01,1.02251e-01,4.76407e-02,1.14093e-01,8.91007e-02,-1.04099e-01,5.34221e-03,
1.43536e-01,-1.73599e-01,-4.51864e-02,1.82403e-01,-3.72766e-02,1.32833e-01,1.18051e-01,-8.09839e-04,5.56590e-02,8.44791e-02,2.63903e-02,-1.77680e-02,1.01529e-02,-1.05109e-01,-2.58271e-02,6.45391e-02,3.68161e-02,-5.01176e-02,-9.84076e-02,2.44836e-01,7.60351e-02,-6.63839e-02,1.49493e-01,-4.40188e-03,-9.84070e-02,-4.08555e-01,1.15597e-01,-2.93034e-02,7.78443e-02,-1.08079e-01,8.28293e-02,5.99643e-02,4.13571e-02,-1.33202e-03,7.99814e-03,6.71081e-02,-1.32381e-02,-1.18707e-02,2.31472e-01,6.15715e-02,1.56579e-02,2.00153e-02,-3.16052e-03,-3.84546e-03,1.09397e-01,5.88332e-03,9.92228e-02,2.81420e-02,3.17000e-02,1.03944e-01,3.06407e-02,4.39700e-02,3.32898e-02,-4.95100e-02,-7.57369e-03,-2.45460e-02,-1.08076e-01,1.54313e-01,2.02734e-03,-1.89676e-02,-3.92279e-02,5.96563e-02,-1.97945e-01,1.51241e-02,1.78660e-02,1.18590e-01,7.54394e-02,-7.51587e-02,6.49193e-02,-4.22668e-01,-5.12798e-02,-3.73959e-02,-1.00337e-02,1.00836e-01,8.91780e-02,4.46544e-02,1.23272e-01,1.69724e-01,-4.34893e-02,6.34431e-02,-6.28993e-02,-7.21116e-02,-7.91134e-02,1.54056e-02,5.27113e-03,2.26932e-01,7.78351e-02,-5.01929e-02,-1.34227e-01,8.42029e-02,8.03431e-02,-5.69113e-02,8.74271e-02,3.45983e-02,-1.12394e-02,-1.83737e-03,1.37640e-02,3.77916e-02,-1.12781e-02,1.31687e-01,
-8.68458e-02,2.33067e-02,8.51053e-02,-1.13952e-01,-2.09074e-03,-9.82371e-02,-6.23469e-02,6.20461e-02,-2.93779e-01,-9.56157e-02,1.88932e-02,1.11377e-01,-7.26162e-02,-2.10468e-02,6.81626e-03,1.07989e-01,1.09911e-01,-1.24887e-02,1.01005e-02,2.69019e-01,4.24965e-02,9.83225e-02,-1.15396e-04,-2.62460e-02,1.09706e-01,1.48987e-01,6.32804e-02,1.33917e-01,9.64628e-03,1.88461e-02,1.16919e-02,-9.17902e-02,2.46380e-02,7.93136e-02,-5.60248e-02,9.48115e-02,5.56866e-02,-5.45848e-02,-9.07403e-02,-1.02398e-01,-1.85827e-02,-1.03479e-02,-1.87393e-01,-3.23854e-01,5.38161e-02,5.46703e-02,-6.01776e-02,9.02842e-03,-8.00886e-02,-6.97323e-02,1.05704e-01,3.18096e-01,-2.32274e-02,9.90036e-02,6.75995e-03,6.97952e-02,-9.37117e-02,-4.82258e-03,-3.59477e-02,-1.14592e-01,-2.36400e-02,3.09438e-02,4.69394e-02,2.76553e-01,-2.26537e-02,-3.61310e-02,-9.47933e-02,8.18948e-02,7.55194e-04,7.18726e-02,-2.69762e-02,1.39704e-02,-4.74743e-02,-2.12149e-02,-2.60870e-02,-1.23964e-01,9.64201e-02,-2.56521e-01,-3.23795e-01,-5.25535e-02,-5.15001e-02,2.07906e-01,1.85402e-01,4.75136e-02,1.49411e-02,-1.59873e-01,1.40773e-02,-2.96144e-02,-1.96697e-01,7.74307e-03,6.99372e-02,-7.45482e-02,-4.18223e-02,-8.58642e-02,-2.70265e-01,-1.81472e-03,8.40345e-02,6.70752e-02,-5.91618e-02,-9.93205e-02,
1.21737e-01,-2.04290e-01,2.12441e-04,-1.29447e-01,-1.14865e-01,4.49828e-02,3.73580e-02,-5.48976e-02,-1.09782e-01,-8.13967e-03,2.02982e-01,-3.59910e-01,1.32682e-01,-8.64477e-02,-1.33058e-01,8.56600e-02,-6.66355e-02,-1.21217e-01,-6.88822e-02,4.27798e-02,-2.99783e-02,-1.68483e-01,9.59876e-02,2.39344e-01,1.69360e-02,1.98842e-01,-1.34528e-02,-4.12613e-03,2.74823e-02,-1.50141e-01,-6.60365e-02,1.36866e-01,2.60134e-02,2.80114e-02,-2.28101e-02,-2.20793e-02,1.51553e-01,1.70469e-01,-1.64149e-02,5.62287e-03,5.67658e-02,-7.26796e-02,1.51221e-01,-1.19620e-01,3.97331e-02,-7.02814e-02,-1.60585e-02,8.95589e-02,4.15965e-02,-1.64577e-01,1.71848e-01,1.41016e-01,-2.42943e-02,-2.50483e-01,9.61284e-02,8.48150e-02,-3.49161e-02,-4.15257e-02,-3.86052e-02,-5.48226e-02,7.71047e-02,4.65899e-02,-6.66072e-02,2.45450e-01,-7.97024e-02,1.56977e-02,1.32093e-01,1.39119e-01,-2.50962e-03,1.91211e-01,-5.21895e-01,6.75501e-02,5.09271e-02,-5.85166e-02,9.30804e-02,1.21023e-01,-1.75130e-02,9.63622e-02,9.40573e-02,-1.01773e-02,-1.01102e-01,-4.33457e-03,-5.42763e-02,-1.24829e-01,-6.03004e-02,-3.08236e-01,-2.99358e-02,-1.99929e-02,-8.24752e-03,4.09183e-02,4.08792e-02,-2.01121e-01,7.85469e-02,-2.11982e-02,-1.57965e-01,1.87571e-02,9.95024e-02,-2.92763e-02,3.00437e-01,-5.85215e-02,
1.81360e-01,1.29914e-01,7.02212e-02,5.29776e-02,2.08941e-02,6.88128e-02,-1.12178e-02,-2.97650e-03,-5.35850e-02,1.03650e-01,-2.28734e-02,1.65058e-02,-5.75048e-02,1.04058e-02,1.73366e-01,-4.89843e-02,1.79434e-02,3.15035e-02,4.54248e-02,-3.72781e-02,-4.06150e-02,1.42998e-01,-2.13708e-03,2.37291e-02,1.39554e-01,1.98228e-02,4.65302e-02,1.07976e-01,9.89128e-02,1.39589e-01,-5.72731e-02,-4.47600e-02,1.85775e-02,7.40405e-02,-4.19152e-02,4.65374e-03,5.56340e-02,1.86993e-02,7.59160e-02,-5.87220e-03,-3.04648e-02,-1.35398e-02,3.34057e-02,1.90321e-02,4.24743e-02,-7.56430e-02,5.35501e-02,-7.72891e-02,1.85935e-01,-8.97351e-02,7.61211e-02,5.39361e-02,1.98371e-02,1.60417e-02,-4.83081e-02,9.74095e-03,-1.18437e-02,1.72832e-02,-5.88531e-03,8.26362e-04,-2.01717e-02,6.48481e-02,8.72063e-02,-6.58930e-02,-7.58756e-02,3.48870e-02,-5.97526e-02,9.72781e-02,-5.58025e-02,-8.62374e-02,1.34719e-01,-1.14416e-01,-7.08367e-02,2.46637e-02,1.16799e-01,-4.38756e-03,1.80367e-02,8.88861e-02,6.35243e-02,-3.03785e-02,6.52683e-02,-9.64555e-02,7.04141e-02,-4.87911e-02,-7.58583e-02,2.05735e-02,-8.11333e-05,-4.31016e-02,7.71515e-02,-6.01259e-02,-6.88696e-02,2.31284e-02,-1.33359e-02,5.34657e-02,5.06778e-02,2.88968e-02,-1.97655e-02,2.41812e-02,-3.90101e-02,-3.33087e-02,
2.30037e-02,3.32744e-02,7.08611e-02,7.35719e-02,-6.20210e-02,4.66590e-02,1.28755e-01,-2.37658e-02,1.81492e-01,-1.12998e-01,2.79870e-02,-4.52886e-03,1.71442e-01,9.99360e-02,-2.87375e-03,-8.98141e-02,-3.33297e-04,6.95400e-02,6.90638e-02,-1.34082e-02,-1.37544e-01,-6.28946e-02,-9.92599e-02,1.03321e-02,6.73317e-02,1.95125e-01,-3.58649e-02,-7.50889e-02,-3.77678e-02,-9.93021e-02,3.19322e-02,1.03928e-01,-7.75244e-02,5.56457e-02,4.90188e-02,2.07632e-02,2.55085e-02,-1.10894e-02,8.14233e-04,2.34715e-03,-7.35563e-02,1.01075e-01,-5.75699e-02,-9.04411e-02,7.41389e-02,-2.97652e-02,2.57335e-02,-6.54021e-02,1.42813e-02,3.55761e-02,1.83284e-02,8.87085e-03,-2.75471e-02,2.58178e-02,5.52971e-02,5.40496e-02,-2.14508e-02,2.44590e-02,5.61987e-02,-7.40683e-02,4.62929e-02,1.43415e-01,6.14362e-02,1.84856e-02,2.35727e-02,2.91336e-02,6.11410e-02,2.58830e-02,-2.54296e-02,1.56515e-01,-8.87647e-02,1.18388e-01,7.07353e-02,3.45658e-02,-1.85493e-02,1.16718e-01,1.04443e-01,1.55091e-01,7.82700e-02,3.38940e-02,-1.19258e-01,3.04112e-02,6.81693e-02,8.23727e-03,-5.29178e-02,1.97751e-02,7.22195e-02,-1.04437e-01,-1.21909e-02,-1.74248e-02,7.93322e-02,-5.79878e-02,-5.23284e-02,4.07078e-02,-3.56423e-02,3.11216e-02,-1.44324e-02,-1.41091e-01,3.32218e-02,-4.38222e-02,
-2.16565e-02,-1.45460e-02,8.64851e-02,2.41111e-02,9.32389e-03,-2.24283e-01,-1.39065e-01,9.11395e-02,2.78253e-01,-4.07955e-02,3.40188e-02,-1.19585e-03,1.48074e-02,1.30475e-02,1.15182e-01,3.19480e-02,-4.78550e-02,1.45239e-02,-8.37374e-02,3.10135e-02,-3.98349e-02,-4.12633e-02,-1.43486e-02,-1.87449e-02,3.41561e-02,1.78899e-02,1.45745e-01,-2.09748e-02,4.46663e-02,1.09836e-02,-1.14872e-03,4.02121e-02,-2.19596e-02,1.01085e-01,6.68273e-02,2.43322e-02,-6.32149e-02,4.36834e-02,-3.61814e-03,-6.00276e-02,8.41309e-02,8.03779e-02,2.06325e-02,2.94783e-02,7.17556e-02,-1.09271e-02,-1.59584e-02,-6.50224e-02,-3.51700e-02,1.76314e-01,1.22957e-01,4.36556e-02,3.19957e-02,1.10915e-01,3.46927e-02,5.84933e-02,-1.38882e-02,3.83585e-02,5.89580e-02,-9.23859e-02,-9.25904e-02,1.64796e-01,-7.06460e-02,1.69979e-02,-1.12324e-01,-9.73930e-02,-5.49510e-02,-2.53331e-02,2.88108e-02,7.80185e-02,1.26504e-02,-1.19297e-01,4.93280e-02,3.83288e-02,1.20183e-01,1.11240e-01,-5.61527e-02,-1.19339e-02,2.73987e-03,-1.13766e-01,9.32143e-02,-6.94288e-02,-5.72030e-02,-7.33263e-03,8.11045e-02,5.48365e-02,-7.15653e-02,-8.05586e-02,7.83964e-02,8.53507e-02,-5.20955e-02,-1.57744e-02,1.01208e-01,2.56811e-02,4.87328e-02,-1.84414e-02,4.26992e-02,-2.46900e-02,-8.23218e-02,5.07662e-02,
4.54190e-02,-1.17700e-02,6.43376e-02,-4.35786e-03,2.83401e-02,6.83004e-02,5.13571e-02,1.48529e-03,-4.82636e-02,-3.25023e-03,-3.87378e-02,1.18755e-01,-2.33292e-02,-9.41926e-02,-3.64980e-02,8.97140e-02,-7.67710e-02,8.67617e-02,-4.65449e-02,-1.13143e-02,2.38667e-02,4.60768e-02,1.71325e-02,-1.69884e-03,6.32862e-02,1.82021e-01,-1.72538e-01,-5.17197e-02,-2.18351e-02,4.74263e-02,1.01333e-02,-5.75088e-03,-1.19430e-01,4.64073e-02,4.11723e-02,-5.40811e-02,4.53127e-02,4.68090e-02,2.16068e-02,6.39607e-02,7.87900e-02,1.97154e-02,1.39105e-03,8.21190e-02,6.84438e-02,3.26256e-02,-2.30175e-02,5.97531e-02,-2.78185e-02,9.60019e-02,3.33937e-02,-1.92263e-02,6.05778e-04,-2.57340e-02,2.14093e-03,9.00137e-02,4.53428e-02,-6.41704e-02,-1.09018e-01,1.53587e-01,1.24663e-01,-2.41404e-02,5.43704e-03,2.56153e-01,1.68985e-01,4.32183e-02,7.12983e-03,6.05685e-02,4.60924e-03,-6.58598e-02,-7.46275e-02,1.41424e-02,-8.09828e-03,-5.13361e-02,-9.00300e-02,-1.24689e-01,4.92653e-02,1.51891e-01,2.70189e-03,2.53910e-02,1.33561e-01,1.27117e-01,-6.69526e-02,-3.56822e-02,2.32457e-02,-1.23633e-01,9.07001e-02,9.13798e-03,9.84560e-02,6.55279e-03,3.34783e-02,-6.51145e-02,6.39547e-02,2.68037e-02,8.06734e-02,-7.65433e-03,6.09314e-02,-8.14477e-02,2.23069e-02,6.27159e-02,
-3.25600e-02,7.50176e-02,8.06573e-02,-4.73940e-02,2.69632e-02,3.87549e-03,-8.59479e-03,1.07171e-01,-2.61144e-02,1.84749e-01,-7.17847e-02,-1.22025e-03,-3.58336e-02,-5.86879e-02,1.38085e-01,-4.75511e-02,1.04330e-01,2.37523e-02,-1.95154e-02,8.41584e-02,1.06964e-01,1.51839e-02,-3.54775e-02,1.17438e-01,-1.12982e-01,-1.62511e-02,-1.32746e-01,2.61667e-02,-1.06232e-02,1.14088e-01,-3.83489e-02,-3.19741e-02,5.26918e-03,-1.04178e-02,7.19689e-02,1.10793e-01,1.21892e-01,-2.85903e-02,6.49625e-02,2.06559e-02,1.68570e-02,-5.29729e-02,1.07911e-01,-7.53368e-02,-3.74088e-02,2.15646e-02,1.45658e-01,2.47679e-02,8.09514e-02,6.51041e-02,6.50753e-02,-1.47022e-02,-4.62562e-02,-4.42452e-02,6.55674e-02,1.11805e-01,1.59035e-01,7.75647e-02,7.81479e-02,6.44761e-02,-4.90236e-03,8.79467e-03,1.01940e-01,-1.12769e-05,1.68662e-01,1.03509e-01,-6.92625e-02,4.16841e-02,-5.15875e-02,7.48421e-03,-3.33566e-02,-6.86267e-02,6.34802e-02,9.99840e-02,6.03534e-02,-1.62672e-01,2.95486e-02,-4.41911e-02,3.58002e-02,5.94381e-02,9.02886e-02,3.63308e-02,8.50333e-02,3.54322e-02,6.45113e-02,2.30890e-03,8.20780e-02,7.31158e-02,8.04197e-02,-5.20795e-02,1.03973e-02,8.84799e-02,1.68764e-02,7.89061e-03,1.49801e-02,-4.11620e-02,6.77219e-02,-4.04938e-02,3.72185e-02,-3.76503e-02,
1.61219e-02,8.65592e-02,7.47137e-02,1.55847e-02,3.91111e-02,1.23046e-01,3.48925e-02,1.19737e-01,-1.29354e-01,4.26868e-03,2.61351e-02,9.93039e-03,7.12357e-02,-1.38827e-01,1.25960e-01,3.54765e-02,3.82609e-02,-8.96984e-02,1.50591e-02,2.60895e-02,6.37602e-02,5.91466e-02,1.32735e-01,-1.09989e-01,8.46705e-02,1.44807e-01,-1.97308e-01,-1.34228e-02,-3.01623e-02,2.62067e-02,1.49229e-01,-4.48023e-02,9.14908e-03,-3.31809e-02,6.38381e-02,-1.26609e-02,4.57147e-02,-2.23148e-02,2.68906e-02,5.86607e-03,1.32414e-01,-7.84509e-02,5.19799e-02,2.15175e-02,5.02907e-02,-5.90908e-02,2.44683e-02,5.24563e-02,-9.78009e-02,-1.09519e-01,-1.61624e-01,9.06328e-02,4.35379e-02,-9.35394e-02,2.30631e-02,1.28290e-01,1.50331e-01,3.81136e-02,9.19857e-02,8.71383e-02,8.92089e-02,-3.02744e-02,5.88706e-02,2.21345e-01,-1.73890e-02,-6.15786e-02,9.83109e-02,6.72327e-02,1.01818e-02,4.98547e-02,-1.40570e-01,-5.37608e-02,-6.46103e-02,-1.83192e-02,9.21745e-02,-1.28902e-01,1.35089e-01,8.53562e-02,7.22860e-02,1.13509e-01,-9.46060e-02,-9.99912e-03,-9.33306e-02,-2.99943e-02,9.11560e-02,-2.22113e-01,-1.83840e-02,-8.21667e-02,2.36188e-02,-4.68079e-02,3.06704e-02,1.37557e-02,6.16331e-02,2.29235e-02,3.30196e-03,6.47984e-02,-3.04321e-02,-6.79167e-02,1.15041e-01,4.64050e-02,
-7.61975e-02,-4.42907e-01,-6.96496e-02,-5.13988e-02,-3.65771e-02,-5.59586e-02,5.45656e-02,5.67397e-02,-4.88044e-01,5.27724e-02,2.98660e-02,-1.82620e-01,3.70505e-02,-9.93438e-02,-2.12678e-01,-8.83915e-02,3.30953e-03,-7.23680e-02,3.83806e-02,9.36125e-02,-9.39189e-04,7.76952e-02,1.16695e-01,2.55677e-01,8.16263e-02,8.98153e-02,4.93768e-02,4.47004e-02,-2.14045e-02,7.26371e-02,-6.91095e-03,7.37509e-02,1.32242e-02,1.27524e-02,1.39050e-01,-1.96735e-02,-2.05414e-03,-7.67592e-02,3.20948e-02,3.47067e-01,-5.16437e-02,-4.66530e-02,1.06543e-03,1.60809e-01,-6.83936e-02,-8.50237e-02,-7.51403e-02,5.14574e-02,-1.91122e-01,-2.02958e-01,-6.71422e-02,1.05460e-01,9.10953e-02,1.39365e-02,1.24731e-02,-5.78636e-02,-1.23454e-01,1.35662e-02,1.39167e-02,5.46743e-01,1.55489e-01,-9.13940e-02,2.13363e-01,-2.31756e-01,7.88755e-02,3.17886e-02,3.89711e-02,8.36455e-02,8.25499e-02,1.12687e-01,1.00879e-02,-8.28529e-04,-1.43523e-01,4.30977e-02,4.42319e-03,1.72979e-02,7.10083e-02,7.24104e-02,-2.22179e-02,2.45560e-02,1.43130e-01,-2.24838e-02,-2.05156e-01,3.32742e-02,-1.45793e-02,-8.10055e-01,-6.58167e-03,-1.03159e-02,-8.75166e-01,-4.59324e-02,5.48994e-02,1.10580e-01,5.82428e-02,1.74411e-01,2.13571e-01,-5.58061e-02,-9.46898e-02,4.91626e-02,-1.28859e-01,4.91511e-03,
-2.25327e-03,5.72593e-02,7.06590e-02,8.41639e-02,7.42403e-02,4.36728e-02,1.91437e-02,1.14472e-02,1.06366e-01,5.23368e-02,7.89197e-03,5.44307e-02,-8.94271e-02,-1.64837e-02,4.82418e-02,4.80472e-02,4.18836e-02,-8.93379e-02,-9.31868e-02,6.34794e-02,5.39097e-02,2.14035e-03,-3.39937e-03,-5.86536e-02,1.01307e-01,4.69899e-02,2.55121e-01,9.29312e-02,-1.04408e-01,5.14417e-02,-6.21364e-02,-3.10293e-03,1.82737e-01,1.01524e-01,1.65321e-02,-6.12403e-02,1.18687e-01,1.13365e-02,-9.90364e-02,9.91452e-02,3.95789e-02,5.51947e-02,-3.06091e-02,7.68688e-02,1.82996e-02,7.07510e-03,3.16924e-02,3.82783e-02,1.57931e-02,-2.40905e-02,5.21376e-02,-5.60001e-02,8.77642e-02,-1.62185e-02,-1.36999e-02,1.10549e-01,5.18762e-02,-2.02450e-02,1.04293e-01,1.91387e-02,4.68081e-02,2.17928e-02,4.84031e-03,5.27095e-02,-2.61855e-01,3.30704e-02,-4.15414e-03,8.96725e-02,5.96911e-02,2.02026e-02,2.89464e-02,-3.03945e-02,7.56418e-02,4.03251e-02,7.38332e-02,1.44039e-01,1.06489e-01,5.24373e-02,6.86478e-02,-9.29065e-02,-3.35685e-02,-7.90105e-02,1.55145e-01,5.64474e-02,-4.72028e-02,7.12686e-02,1.91510e-03,-2.86761e-02,3.49868e-02,3.35531e-02,2.13365e-02,1.21281e-02,8.54743e-02,-1.34091e-01,-4.52114e-02,8.74992e-02,-3.19766e-02,-4.42663e-02,-1.52740e-02,4.44634e-02,
1.20798e-01,3.39946e-01,4.70237e-02,2.98941e-01,9.75451e-02,2.48471e-01,-1.16335e-02,1.29058e-02,-2.66135e-01,-8.06619e-01,-5.30186e-01,4.21796e-01,-2.17294e-01,4.22971e-02,2.55566e-02,-4.22109e-02,3.11283e-02,-9.37973e-02,-2.28247e-02,1.90318e-01,5.54421e-02,1.12076e-01,-6.57848e-01,-8.19473e-01,-1.00768e-01,-3.66870e-01,-7.83709e-02,-5.90707e-03,8.04701e-02,-3.31892e-02,8.13838e-02,1.09830e-02,8.10567e-02,6.45007e-02,-1.99730e-01,3.78968e-02,3.14293e-02,-2.34593e-01,2.01611e-02,-2.27112e-01,2.22207e-02,-1.10021e-01,-7.49772e-02,-2.58676e-01,2.34155e-01,7.44593e-02,-4.41484e-02,-1.12872e-01,-2.84213e-01,1.99871e-02,-1.01433e+00,-8.35963e-01,1.14980e-02,1.85004e-01,-2.25514e-02,-3.51039e-02,1.25004e-01,3.14464e-02,-2.91349e-03,-2.71858e-01,-1.79138e-01,-1.98089e-01,8.30972e-02,-4.29963e-01,5.89234e-02,-1.28077e-01,-1.22513e-01,-2.42948e-01,3.64130e-02,1.63402e-01,-1.57508e-02,-1.04683e-01,-6.60943e-01,-3.24658e-03,-1.97928e-02,-2.61796e-01,-3.43911e-01,1.15102e-01,1.20804e-03,-4.21382e-02,-2.40022e-01,2.78638e-02,2.12384e-02,1.29098e-01,-7.87932e-03,3.91433e-01,3.40024e-04,-3.73505e-02,-3.08205e-02,8.59522e-02,2.49831e-01,1.34172e-01,-6.01488e-02,-7.21248e-02,-2.94448e-01,-1.01506e-01,-1.06875e-02,9.40124e-02,1.73222e-01,1.39569e-01,
5.38751e-02,3.55617e-02,2.68036e-02,1.98775e-02,-5.76094e-02,8.15842e-02,7.79014e-03,-1.39647e-03,-4.61654e-03,7.99026e-02,4.38669e-02,-3.54396e-02,-2.90099e-02,1.52734e-01,-1.94917e-02,1.00255e-01,5.23866e-02,-1.79507e-02,-3.91952e-02,-4.51703e-02,2.18220e-02,2.20850e-02,2.96494e-02,1.84886e-02,5.02976e-02,8.39468e-03,-8.11310e-02,-1.09789e-01,-5.92359e-02,8.31010e-02,-2.08849e-02,5.50495e-02,1.59206e-02,6.80638e-02,-1.57921e-02,9.12553e-03,7.96207e-02,-2.28638e-02,1.00374e-01,-7.15085e-02,-6.77856e-02,8.93664e-02,-2.12416e-02,-5.64366e-02,-6.10805e-02,7.52989e-02,-1.16901e-01,-2.35326e-02,1.00904e-01,-2.53331e-02,-1.12861e-02,7.71581e-02,4.70425e-02,1.49604e-02,-5.14890e-02,-7.55809e-02,2.27998e-02,4.56193e-02,2.03265e-02,1.06085e-01,9.70717e-02,1.04386e-01,-4.40554e-02,9.74970e-02,1.03166e-01,7.58921e-02,8.74863e-02,7.02155e-02,4.87664e-02,-2.12554e-02,-7.66143e-02,7.37494e-02,4.09308e-02,-3.49864e-02,-1.03307e-02,-4.27057e-02,-7.15675e-02,1.22037e-03,1.29144e-01,2.95659e-02,-4.66029e-02,4.09727e-02,-2.27198e-02,9.22130e-02,1.98187e-02,-6.71344e-02,6.43316e-02,-6.10277e-02,9.15138e-02,-6.73396e-02,1.02571e-01,1.06523e-02,-7.95921e-02,1.40198e-01,1.02527e-01,1.20974e-01,1.29191e-01,1.02088e-02,4.49171e-02,4.45394e-02,
1.10095e-01,-6.22941e-02,1.89966e-02,-1.41301e-01,2.67319e-03,3.32477e-02,2.92577e-02,-1.70814e-03,1.01283e-01,1.34086e-01,5.50060e-02,-1.28664e-01,1.70368e-01,1.46047e-02,1.49681e-02,-6.36848e-03,3.58541e-03,6.97459e-02,6.73295e-02,3.26968e-02,-3.24768e-02,-1.34647e-01,1.24472e-01,-3.80773e-01,1.22492e-02,8.94227e-02,3.37662e-03,5.80388e-02,-1.23138e-01,-1.50004e-01,2.77783e-02,2.12481e-02,-3.23798e-02,7.21049e-02,1.26788e-02,-1.12968e-01,1.35804e-01,-9.45720e-02,3.31165e-02,-1.25334e-01,1.37408e-01,6.13497e-02,1.21756e-01,-4.15510e-02,-1.82744e-02,2.23552e-02,6.45339e-02,1.11919e-01,-2.01577e-02,-4.32043e-02,6.00025e-02,-1.09643e-02,1.14924e-02,-3.41084e-02,4.26317e-02,3.09107e-02,-9.88610e-02,6.75801e-02,-1.46977e-02,-4.39463e-01,-7.33226e-01,8.53134e-02,-1.28852e-01,1.04061e-01,-1.69388e-02,7.11063e-02,3.99058e-02,9.11974e-02,-6.37941e-02,1.66546e-01,-6.57606e-01,8.06654e-02,5.99202e-02,3.93059e-02,3.05050e-02,1.86400e-02,-1.40628e-01,2.60475e-01,6.40978e-03,1.66789e-03,1.23397e-01,1.57902e-02,-5.88175e-03,-3.50959e-02,-8.88913e-02,3.24795e-01,6.67323e-02,-2.38934e-02,-1.23763e-01,-1.31841e-02,1.98448e-02,4.14872e-03,-8.01996e-02,-7.66490e-02,6.00733e-02,-6.60434e-02,-1.49378e-02,-1.71227e-02,6.17443e-02,-1.91563e-02,
-1.51286e-02,1.83181e-01,4.98275e-02,-2.19031e-01,6.34819e-02,4.29720e-02,-7.56842e-02,1.19439e-03,-1.61427e-01,1.37734e-01,-1.06883e-03,-5.42479e-02,9.59594e-02,-4.75480e-02,2.62889e-01,-3.24169e-02,-1.10913e-02,3.13529e-02,2.95565e-02,-5.51353e-02,-1.11114e-01,-7.02520e-03,8.68914e-02,-1.37134e-01,-2.64251e-02,-3.25809e-01,3.68932e-02,-2.67029e-02,-7.67805e-02,2.10633e-02,-8.42569e-02,-6.00455e-02,-1.04035e-01,-7.92986e-02,-5.06159e-02,1.10693e-01,9.14559e-02,-8.53894e-02,1.26999e-01,-2.85525e-02,9.85080e-02,3.51009e-02,4.12220e-02,1.13863e-01,-2.27697e-02,-6.85007e-02,-9.36001e-02,1.77651e-02,8.64593e-02,1.17010e-01,1.99307e-01,1.48009e-01,4.19044e-02,5.90955e-02,-9.16913e-02,-2.65908e-02,7.77168e-02,-1.23354e-01,-3.12627e-02,-6.15873e-01,-3.06564e-01,-1.57213e-01,-6.05986e-02,-2.65162e-02,-8.42402e-02,-1.59325e-02,-1.33480e-02,1.24745e-02,8.60168e-02,-1.47511e-02,1.92092e-01,-1.62317e-02,-2.78240e-02,6.59833e-02,-2.36624e-02,-3.38818e-02,-1.29093e-02,-1.12991e-01,8.67241e-02,9.80782e-02,3.45458e-02,-7.98467e-03,1.73573e-01,1.50648e-02,3.31940e-02,-1.30956e-02,-2.92031e-02,1.72199e-03,1.39981e-01,5.11315e-02,-3.90271e-03,4.11882e-02,1.73876e-02,4.24607e-02,2.19816e-03,-1.02976e-01,1.41825e-01,-1.11566e-01,1.49978e-01,1.84330e-01,
3.68019e-02,5.54504e-02,2.42303e-02,-2.03079e-01,1.44744e-02,-4.80807e-02,-3.15706e-03,4.38790e-02,1.32041e-01,-1.90896e-01,1.16335e-01,-2.88050e-02,4.01341e-02,-4.26687e-02,1.56243e-01,1.16807e-01,-2.20265e-02,-9.10244e-02,-2.12140e-02,7.75105e-02,-5.36015e-02,-3.45537e-02,-6.91659e-02,1.35404e-01,-1.29255e-02,3.51396e-01,1.19659e-01,6.74054e-02,-3.25980e-02,-1.18434e-01,-8.99695e-02,1.09230e-01,8.88452e-02,5.06407e-02,-7.78523e-03,-1.79681e-02,9.60136e-02,4.89673e-02,1.15892e-01,2.40968e-02,1.12833e-01,7.19251e-02,9.17003e-02,-1.18641e-01,4.41618e-02,1.68714e-02,-3.58964e-02,2.90787e-02,1.00035e-01,1.40788e-01,7.22556e-02,-1.98375e-02,-1.48980e-02,-2.39047e-02,-2.75883e-02,8.53302e-04,-3.77992e-02,5.27948e-03,1.12069e-01,1.82560e-01,-1.64743e-03,-1.84926e-02,-4.77529e-02,1.35240e-01,1.35140e-02,-4.68604e-02,8.18551e-02,4.14965e-02,-1.00707e-01,6.08911e-02,-1.06508e-01,-1.87111e-02,2.26888e-01,4.67523e-02,5.71539e-03,1.04347e-02,6.86778e-03,3.51369e-02,-9.97547e-02,1.98167e-02,4.51266e-02,-1.28767e-01,1.24656e-01,-1.23761e-02,-4.00773e-02,-2.42716e-02,7.98343e-02,-6.95395e-02,1.09050e-01,-5.90090e-02,4.79129e-02,-5.75908e-02,-6.88710e-02,-6.50868e-03,-1.01124e-01,-8.69891e-02,-6.69343e-02,3.41961e-02,7.59247e-02,-7.26176e-02,
-1.70729e-01,1.34398e-02,7.46151e-02,-7.28402e-02,2.72505e-02,-6.18913e-02,-3.15207e-02,-5.85293e-02,2.37674e-01,1.10931e-01,-1.72378e-02,-5.17923e-02,-1.05184e-01,6.36702e-02,5.03867e-02,3.83495e-02,3.97088e-02,1.33846e-01,-4.05120e-03,1.80341e-02,-4.45092e-02,4.67703e-02,-2.27010e-01,1.73393e-01,3.13589e-02,6.37186e-02,1.06024e-02,-9.63996e-02,-5.44347e-02,-6.72978e-04,1.41794e-01,-7.10601e-02,-7.04812e-02,-3.31127e-02,-6.18513e-02,9.38530e-03,-2.56346e-02,-1.50876e-01,2.04381e-01,1.29105e-02,1.00042e-01,-4.38334e-02,-3.79394e-03,9.23166e-03,-1.38913e-01,1.02478e-01,1.36763e-01,-3.20878e-02,-2.53249e-01,1.44724e-01,-2.66918e-02,-1.28916e-01,-4.06753e-02,1.61788e-01,7.95323e-02,2.20101e-02,1.51114e-01,9.23388e-02,5.87900e-02,4.99458e-01,1.30844e-01,-1.76407e-02,1.61564e-01,-7.27132e-01,7.53971e-02,1.06591e-02,3.83138e-02,2.09422e-01,-5.49924e-02,8.26384e-02,2.29977e-01,3.94155e-03,-2.04247e-01,-6.01235e-02,-1.13424e-03,-1.71503e-05,-7.24632e-02,2.88700e-02,3.96351e-02,-7.63790e-03,1.13551e-01,2.83036e-02,1.65335e-01,1.90417e-01,-3.55688e-02,1.97208e-01,1.07034e-02,9.54809e-02,1.04654e-01,2.48635e-02,-5.53381e-03,-2.02537e-02,-2.72337e-02,-2.06716e-01,1.55388e-01,7.77115e-02,-1.63255e-02,6.64558e-03,-2.13783e-01,6.14653e-02,
8.79800e-02,-2.48246e-01,1.28691e-02,-2.45992e-02,4.99582e-02,9.25805e-02,8.96678e-02,-9.94944e-02,1.71797e-01,1.52007e-01,9.33354e-02,-2.04749e-01,1.24136e-01,-7.79244e-02,-1.52565e-01,-8.09889e-02,8.75083e-02,-8.17048e-02,-1.89118e-01,1.29679e-01,1.39183e-02,-1.89266e-01,1.75467e-01,-2.41571e-01,-1.06704e-01,-1.10012e-01,3.23800e-02,-1.72394e-02,1.66179e-02,-1.17286e-02,4.37410e-02,-1.01157e-02,6.92339e-03,3.92554e-02,1.53194e-01,6.78128e-02,1.18087e-01,-1.18557e-01,-1.89226e-02,1.50006e-01,1.08354e-01,1.70739e-01,1.27316e-01,-4.63464e-02,-1.42009e-02,-7.47748e-02,3.33747e-02,5.21464e-02,6.83570e-02,-6.95737e-02,5.29194e-02,8.72325e-02,2.00243e-02,-2.13309e-01,9.85856e-02,4.29942e-02,-2.14755e-01,5.25974e-02,4.15299e-02,-4.64918e-02,8.65469e-02,5.32486e-02,-6.14871e-03,1.79957e-01,-8.13138e-02,5.39866e-02,1.09804e-01,1.56347e-01,-6.65335e-02,-1.76464e-01,-4.00399e-01,5.71068e-02,9.66544e-02,-2.08131e-02,4.79767e-02,1.86466e-01,1.37561e-01,1.67479e-01,-4.90427e-02,-1.53762e-01,5.45848e-02,-4.54379e-02,-2.98373e-02,-2.73911e-01,-9.57425e-04,3.69633e-01,1.43894e-01,-2.58649e-01,-2.43585e-01,-5.81276e-02,1.31406e-01,-2.20669e-01,-1.16203e-02,9.07952e-02,5.37565e-02,-1.55784e-01,4.54565e-02,9.13388e-02,1.59879e-01,-9.77529e-02,
1.09785e-01,3.25007e-02,-8.36013e-02,-2.29279e-02,9.28947e-02,-6.05292e-03,-5.01643e-02,9.58751e-02,1.66008e-01,-1.27056e-01,9.40304e-02,-1.92563e-02,1.02241e-01,-5.01244e-02,-2.36796e-02,-7.36229e-02,1.06894e-01,-3.88049e-02,-6.94148e-02,1.35609e-01,4.47391e-02,5.88888e-02,7.51328e-02,-6.05189e-02,6.98030e-02,2.10710e-01,-8.70477e-02,-1.71287e-01,1.50779e-02,5.57288e-03,5.15910e-02,2.81371e-02,3.64054e-02,8.52554e-02,6.02596e-02,-2.76846e-03,4.73664e-02,-2.68293e-02,9.30272e-02,5.73661e-02,-3.35700e-02,-1.21467e-02,2.04652e-02,4.75188e-02,-4.62361e-02,-1.05972e-01,-5.70522e-02,-2.99268e-02,5.05583e-02,-5.38899e-03,5.60104e-02,-5.43214e-02,7.16252e-02,-8.12010e-02,-2.86132e-02,1.29289e-01,1.29286e-01,6.28713e-02,-3.58445e-02,-3.93800e-02,-2.17419e-02,2.21901e-02,-5.44535e-02,2.79896e-02,2.15089e-01,1.13966e-01,-2.31878e-02,1.05098e-02,-1.48566e-01,8.99042e-03,-1.03565e-01,7.00745e-02,5.12677e-02,3.16673e-02,-2.39178e-02,-1.15071e-01,6.25250e-02,-1.04371e-01,5.15727e-02,9.03172e-02,-2.39382e-02,1.68120e-02,-6.41822e-02,-4.49516e-02,6.77025e-02,1.65200e-02,8.29257e-02,3.93769e-02,-2.08077e-02,7.34534e-02,-3.93496e-02,-1.27638e-03,1.07476e-01,-5.42373e-02,1.16115e-01,7.15612e-02,1.34946e-01,-6.40475e-02,-5.16526e-02,2.65265e-02,
2.02185e-02,-1.09354e-01,7.78928e-02,1.75108e-01,-7.03251e-02,2.21016e-02,1.52062e-02,1.05598e-01,-6.35465e-01,1.51100e-01,-1.06483e-01,-2.73134e-02,-1.17686e-01,-4.73688e-02,-1.19369e-01,-4.03481e-02,6.58808e-02,4.02769e-02,3.46913e-02,2.02469e-01,1.44616e-01,4.28567e-02,2.40616e-02,-9.25927e-02,2.47650e-02,-2.16447e-01,4.97715e-02,-3.79424e-02,9.68381e-02,3.05890e-02,-1.02703e-01,6.57778e-02,5.28911e-02,3.39274e-02,-1.42928e-01,3.38170e-02,-5.28255e-02,-5.86201e-02,-3.94835e-02,3.66285e-02,1.85251e-02,1.41193e-02,-8.94556e-03,-1.15808e-01,7.57578e-02,-5.05823e-02,1.17777e-01,6.41512e-02,-2.40304e-01,1.42909e-02,6.89336e-02,-6.81217e-02,-2.19346e-02,3.55541e-02,4.48510e-02,1.17181e-01,-2.01018e-01,3.79917e-02,9.22246e-02,2.67827e-02,6.50535e-03,7.07752e-02,-3.19465e-02,2.79535e-01,3.13007e-02,7.05924e-02,-9.33273e-03,1.41188e-01,-5.38388e-02,-4.46010e-01,3.01073e-02,-1.55389e-02,-1.25210e-01,3.20122e-02,1.19221e-01,-2.02606e-02,2.22992e-02,7.63628e-02,9.22171e-02,9.48047e-03,3.07622e-02,-9.73094e-02,-1.17577e-01,5.45189e-02,-1.00637e-02,-3.34073e-01,7.43933e-02,-1.94121e-02,-1.24189e-01,7.00604e-02,4.75489e-02,1.13993e-01,-5.23059e-02,2.39443e-03,4.87625e-02,5.53541e-02,-4.30067e-02,6.33914e-02,4.86231e-02,9.74012e-02,
7.21254e-02,-2.98968e-02,5.32804e-02,7.97308e-02,8.45755e-02,-3.01054e-02,4.96543e-02,-1.14895e-01,-2.25868e-02,8.80596e-02,1.37487e-01,1.14330e-02,7.89758e-02,1.47468e-01,-1.10400e-02,1.14671e-02,-5.84768e-02,5.38419e-02,-3.34359e-02,4.04092e-02,-2.69902e-02,1.26732e-02,-6.91523e-02,5.67218e-02,1.28054e-02,1.06482e-01,6.53334e-03,-9.87782e-02,-8.35275e-02,6.55003e-02,8.25145e-03,4.70610e-02,1.53744e-02,-2.63396e-02,2.32303e-02,2.16564e-02,6.52874e-02,-3.43260e-02,7.86351e-03,1.27932e-02,7.40014e-02,3.85958e-02,-9.13817e-02,-5.94456e-02,5.60941e-02,9.15354e-02,1.99581e-02,9.01810e-02,-1.04878e-03,-5.13168e-02,-3.60972e-02,-5.38336e-04,-6.77039e-02,-7.28419e-02,-7.52370e-02,-1.11113e-01,-7.21450e-02,5.20846e-02,-5.57210e-02,-2.70785e-02,1.11726e-01,6.29357e-02,5.05576e-02,1.90745e-01,-8.10613e-02,4.83300e-02,1.53047e-02,6.73020e-02,1.24493e-01,7.61444e-02,1.72385e-02,4.14362e-02,7.96219e-02,6.68583e-02,4.97226e-02,1.97964e-02,9.33128e-02,7.44359e-02,1.13465e-01,7.29324e-02,9.33054e-02,6.50891e-02,-1.02416e-02,-3.28436e-02,-4.00786e-02,-1.28188e-02,2.94035e-02,8.62118e-02,-6.16468e-03,-4.24777e-02,1.44280e-02,1.18568e-02,-1.01868e-01,1.81755e-01,-1.39987e-02,1.11411e-01,9.05772e-02,-4.99941e-02,-5.77327e-02,3.58627e-02,
1.13946e-01,5.02638e-02,1.18240e-01,7.21629e-03,-5.18130e-02,-2.78543e-02,-3.26427e-02,1.87406e-01,7.58510e-02,-6.13371e-02,8.83564e-02,7.32526e-03,2.75085e-02,-6.59040e-02,-1.60785e-02,-2.45961e-02,-6.30838e-02,-3.47967e-03,7.79062e-02,2.21959e-02,-7.29336e-02,-4.79451e-02,1.40027e-02,-1.18120e-01,-1.00022e-01,2.31727e-01,-1.30367e-01,-1.36357e-01,-2.19673e-02,-3.42509e-03,1.17862e-01,9.68174e-02,6.49651e-02,3.92457e-02,-2.80267e-02,2.21014e-02,3.66246e-03,-4.17244e-02,-2.30895e-02,-4.53835e-02,-2.90900e-02,-3.52008e-02,1.09664e-01,-1.62813e-02,-3.61102e-02,-4.25197e-02,1.10567e-01,7.60877e-02,1.10805e-01,-4.53640e-02,2.06845e-02,3.29258e-02,-2.40781e-02,-1.82964e-02,6.09464e-03,6.58521e-02,1.10048e-01,1.06207e-01,-4.91691e-02,5.73081e-02,-1.18653e-02,5.05233e-02,-2.46274e-02,1.52453e-01,1.67054e-01,-2.45362e-02,1.01356e-01,9.42405e-02,-8.79879e-02,1.39690e-01,-1.30284e-01,1.86123e-03,-8.75752e-02,9.52010e-02,2.26236e-02,-1.13621e-01,-3.02613e-02,8.19994e-02,-1.18252e-03,9.48135e-02,5.53773e-02,8.01034e-02,-1.41817e-01,-9.18171e-02,8.90926e-02,4.87703e-02,-6.54524e-02,-6.22925e-02,1.95414e-02,2.04849e-02,-7.08868e-02,6.17202e-03,3.30405e-02,-3.02502e-02,3.70616e-02,1.05876e-01,4.71175e-02,6.63568e-02,1.83261e-03,-3.89688e-02,
5.37228e-02,-3.28834e-02,8.33739e-02,5.56676e-02,8.59121e-02,-1.20524e-01,5.51690e-02,1.61125e-01,1.73088e-02,1.18702e-01,-1.81555e-02,9.31993e-02,-4.97226e-02,8.73585e-03,6.18855e-02,4.85937e-02,1.18607e-01,-6.26996e-02,-8.52820e-03,-6.29407e-02,-7.71865e-02,6.08711e-02,8.05213e-02,3.01026e-02,7.06120e-02,-9.96525e-02,-5.33461e-02,-4.71585e-02,1.10050e-02,-7.14154e-02,3.96513e-02,4.02740e-02,-1.08374e-01,7.41312e-02,2.66379e-02,-4.69617e-02,2.06170e-02,-2.05544e-02,5.21493e-02,3.28259e-02,1.74915e-02,-6.33998e-02,5.59955e-02,8.77551e-02,-9.82638e-02,-1.15099e-03,-3.07068e-02,-5.33053e-02,5.59733e-02,1.60641e-02,-5.20866e-02,-4.40689e-02,-4.81947e-02,-6.90377e-02,2.59234e-03,5.08547e-02,1.45227e-01,8.88661e-03,1.05961e-01,5.87936e-02,1.08125e-01,-6.31883e-02,-4.84350e-02,-6.24514e-03,1.14562e-01,-3.88355e-02,7.92782e-02,7.40466e-02,-5.38597e-02,-2.97871e-02,1.69855e-01,3.45077e-02,1.23818e-01,-6.52796e-05,9.21783e-02,-9.82239e-02,5.69623e-02,5.14378e-02,2.31343e-02,-1.05381e-01,5.80088e-02,-1.44214e-01,-1.32221e-02,9.62611e-02,5.26091e-02,2.15983e-01,-2.18497e-02,-6.40741e-02,1.74884e-01,-2.95140e-02,-1.36840e-02,2.68917e-02,1.25352e-01,8.53241e-03,6.90602e-03,3.92131e-02,-1.14880e-01,-1.91238e-02,-2.92507e-02,-7.54317e-02,
-2.60270e-02,3.42210e-02,-1.11136e-02,-8.21040e-02,-1.28373e-02,-1.06998e-02,6.07031e-02,1.30674e-02,2.76262e-02,1.02811e-01,1.05663e-01,-1.78009e-01,-4.43053e-02,-6.47975e-02,-2.41417e-02,-9.05655e-02,6.02514e-02,2.68515e-02,5.97063e-02,-1.68716e-02,3.74068e-02,2.55684e-02,4.76480e-02,-3.36148e-02,-1.28681e-02,-6.55150e-05,3.44449e-03,-7.15960e-02,-3.80961e-02,3.71114e-02,8.34762e-02,-1.26143e-01,-5.24542e-02,-2.58570e-03,-1.91008e-01,-1.66023e-01,4.23900e-03,2.43283e-02,1.58307e-02,1.20385e-01,1.18831e-02,1.21036e-02,4.00750e-02,4.50897e-03,-7.73778e-02,5.71193e-02,1.67547e-02,1.71261e-02,1.83920e-01,-1.77605e-02,1.59731e-01,1.09260e-01,-7.49775e-02,3.76226e-02,-3.93188e-02,-5.70589e-03,1.27166e-01,-8.14413e-02,-6.86218e-02,4.92100e-02,2.41361e-03,-4.40640e-03,8.48595e-02,-1.75262e-01,-1.81981e-03,-6.58076e-02,1.11663e-01,9.41060e-03,5.35510e-02,1.13201e-01,4.45542e-01,-1.28706e-01,9.75113e-02,5.23303e-02,5.87948e-02,-5.45432e-02,4.29217e-02,-7.61980e-02,4.01619e-02,-5.88055e-02,-7.42304e-02,1.01894e-01,4.55813e-03,1.36918e-01,-1.35546e-01,7.99980e-02,-7.79131e-02,4.29480e-02,6.02313e-02,-2.97729e-02,-9.66439e-02,1.71879e-01,2.99675e-02,4.77216e-02,-6.68166e-02,4.54985e-02,2.78225e-02,-5.78742e-02,-1.05281e-01,-1.25511e-02,
-5.96556e-02,2.49978e-02,3.34166e-03,6.99442e-03,-3.20325e-02,4.15122e-02,8.00679e-04,1.17539e-01,3.67556e-02,-3.64307e-02,1.08863e-01,-7.82699e-02,6.93790e-02,-1.32794e-01,1.38761e-01,-7.17593e-03,-1.58302e-02,-3.91359e-02,-7.65186e-02,9.62966e-02,-4.69573e-02,-9.99937e-02,5.23984e-02,2.50397e-01,-5.55147e-02,2.69589e-01,-1.02968e-02,7.77594e-02,1.60367e-01,-1.60479e-01,-8.35689e-02,1.26272e-02,-9.56624e-02,1.23166e-03,4.57221e-02,-1.31927e-02,-5.88566e-02,3.61193e-01,1.10370e-01,3.56672e-02,-3.54099e-02,1.36061e-01,5.45339e-02,1.93062e-01,-2.04456e-02,3.07270e-03,1.04431e-01,3.70521e-02,2.17438e-01,1.44872e-01,2.29446e-01,3.83286e-02,6.25794e-02,-2.94618e-01,6.63869e-02,-2.73519e-03,5.63237e-02,-3.88007e-02,-8.13801e-03,3.58899e-02,1.13449e-01,2.52088e-02,1.23226e-02,1.97521e-01,-4.61662e-02,7.00324e-02,8.73406e-02,8.92753e-02,-1.94236e-02,3.06506e-01,-1.78754e-01,8.28607e-02,2.21191e-01,3.95152e-02,1.95798e-02,1.87037e-01,-2.50016e-02,-6.01581e-02,2.19106e-02,-1.22783e-01,4.17470e-02,-3.80144e-02,-3.61938e-02,-1.34706e-01,3.12148e-02,6.05997e-02,-2.01299e-02,7.55272e-02,1.94733e-01,-4.55348e-02,1.03373e-01,-2.34413e-01,3.31580e-02,-1.82738e-02,1.17374e-01,-1.58989e-02,-1.01714e-01,9.28651e-02,1.33969e-01,-2.26123e-02,
-5.35344e-02,-2.53252e-02,-2.60237e-02,9.53698e-02,-2.49600e-02,1.18375e-01,-3.52492e-02,1.12673e-01,7.11421e-03,-4.34074e-02,-5.17955e-02,1.53558e-01,-7.49382e-03,4.67655e-02,-6.20683e-02,-6.80633e-02,-8.55979e-03,2.34502e-02,6.21103e-02,-4.87215e-02,-8.85873e-04,3.69243e-02,9.25885e-02,-8.20036e-02,-3.47155e-02,6.11304e-02,6.63103e-02,1.21664e-02,2.25290e-02,3.19680e-02,6.08425e-02,1.64255e-02,-3.81547e-02,7.16978e-02,-2.19893e-02,8.40890e-02,-6.31640e-03,6.26520e-03,-4.80109e-02,-4.89013e-03,-5.85148e-02,3.45478e-02,-8.80766e-02,-4.78120e-02,8.57609e-02,3.61740e-02,-1.02786e-01,-1.31221e-02,1.35869e-02,-1.59649e-02,-8.67689e-03,4.37671e-02,-1.30852e-03,5.79831e-02,-4.52924e-02,-6.59238e-02,-6.68751e-02,-7.26596e-02,2.94332e-02,1.87757e-01,2.70947e-02,1.46787e-01,-2.69337e-04,1.86660e-01,3.12747e-02,7.76827e-02,-1.32136e-02,1.00012e-01,6.27191e-02,-1.79328e-01,1.36454e-02,5.99352e-02,-9.90948e-02,6.48901e-02,8.67856e-02,6.85773e-02,5.12615e-02,1.22224e-01,7.48784e-02,-2.95423e-02,5.00064e-02,8.78407e-02,-2.98355e-02,3.32917e-02,-6.86714e-02,-1.75398e-01,3.30886e-02,1.19482e-02,-1.39049e-02,1.03028e-01,1.17802e-01,1.87732e-02,2.84872e-02,1.33278e-01,-1.28964e-01,4.45229e-02,-5.82105e-02,4.83549e-02,9.45484e-02,-4.52794e-02,
9.08271e-04,-3.36224e-02,3.92963e-02,-1.38702e-02,1.26564e-02,1.90667e-02,3.26519e-02,-1.13931e-02,3.09366e-01,3.54734e-01,-8.45163e-02,1.29775e-01,9.67557e-02,7.18420e-02,2.12239e-01,5.90666e-02,9.35107e-02,-2.06289e-02,9.27894e-02,6.42538e-02,-6.08979e-02,8.65275e-02,1.05629e-01,1.13213e-01,1.23410e-01,1.51978e-01,-3.57225e-02,8.67763e-02,2.30015e-02,7.51566e-02,8.00964e-03,5.07023e-02,1.69358e-02,9.10842e-02,-6.98988e-02,-1.11921e-02,-2.23425e-01,2.73835e-02,6.96880e-02,2.54104e-02,1.97082e-02,4.90712e-02,-2.74165e-02,1.20054e-02,-2.11391e-02,1.97405e-03,8.68866e-02,-6.89974e-02,-1.87955e-01,1.04519e-01,-5.76198e-02,-2.06617e-01,-4.67621e-02,-3.97246e-02,7.32358e-02,2.82900e-02,1.08616e-01,-5.32505e-02,2.66612e-02,-6.51494e-02,-3.20074e-01,7.07943e-02,1.51550e-01,-3.93758e-01,6.07265e-03,8.77836e-02,-4.99273e-02,1.73319e-01,-5.97091e-02,1.99869e-01,2.33559e-01,-6.10954e-02,-1.33058e-01,-7.53581e-02,7.30545e-02,2.67789e-02,-1.90945e-01,-1.25979e-02,1.42070e-01,1.07783e-01,1.95285e-01,7.83122e-02,7.44226e-02,1.23004e-01,-1.33450e-01,2.61826e-01,1.12203e-01,3.68336e-02,1.96173e-01,-5.21361e-02,4.77940e-02,4.51829e-02,-8.95239e-02,-2.47025e-01,4.14123e-01,5.21111e-02,-1.13393e-01,-7.10785e-02,-1.87839e-01,9.46451e-02,
-1.54289e-02,-1.71896e-01,1.74931e-02,1.00683e-02,4.95715e-02,4.76974e-03,-8.23591e-02,-4.25832e-02,1.77797e-01,-1.42730e-01,1.67017e-01,7.46028e-03,1.26031e-01,-3.47200e-02,6.53578e-02,1.98554e-02,6.40969e-02,7.64826e-02,4.69906e-02,1.25345e-01,-4.48342e-02,-1.08869e-02,6.36196e-02,1.00163e-01,7.90082e-02,1.98281e-01,-1.50205e-01,-3.23748e-02,-2.82315e-02,-1.63692e-01,3.03721e-02,1.01322e-01,-6.30184e-02,7.08831e-02,3.46104e-03,-4.32864e-03,-2.01095e-02,9.44189e-02,-4.88587e-02,-3.75333e-02,-1.17636e-02,8.92427e-02,2.19347e-02,1.38049e-01,7.33862e-02,-6.03519e-02,-1.26036e-01,1.16461e-01,2.05954e-02,7.24996e-02,-6.25650e-02,-3.30020e-02,7.90595e-02,1.54993e-02,1.16772e-01,9.48933e-02,8.75744e-02,-3.17886e-02,-1.24541e-01,8.98558e-02,-3.05414e-02,1.38592e-01,-1.00263e-01,7.83350e-02,1.19032e-01,-3.68539e-02,1.87256e-02,2.81752e-02,-8.60386e-02,5.77666e-02,-1.20000e-01,3.53727e-02,-5.23921e-02,1.29549e-01,4.39769e-02,-1.05693e-01,-3.54107e-02,1.10401e-01,7.71362e-02,1.15666e-01,-3.93347e-02,1.12535e-01,4.18675e-02,3.22489e-02,-4.21973e-02,8.45314e-02,8.19489e-03,5.58367e-02,-6.16051e-02,5.57590e-03,-1.30435e-02,-2.80401e-02,9.29452e-02,-1.95826e-02,-3.05497e-02,6.92433e-02,1.50898e-01,6.86526e-02,-1.47286e-02,-5.10008e-02,
4.23761e-02,-4.69086e-02,6.07941e-02,5.91968e-02,6.75771e-02,1.29973e-01,1.82445e-01,-1.82735e-02,-1.45540e-01,1.55270e-01,-4.67347e-02,-2.32365e-02,-2.32340e-02,1.32795e-01,3.47059e-02,-6.27038e-02,-2.03901e-02,3.57925e-03,1.17309e-02,-1.15726e-02,9.89224e-02,-4.51663e-02,2.91288e-02,-1.24933e-03,1.02163e-01,1.05588e-01,1.28828e-01,-4.12534e-02,-4.47009e-03,1.28784e-01,-4.13415e-02,-6.20367e-02,-8.53573e-02,5.11978e-02,-2.43880e-02,-7.27953e-03,5.67617e-02,-5.99542e-02,6.17074e-02,1.23567e-01,-5.11827e-02,-5.09918e-02,-1.29255e-01,-8.34118e-03,2.96740e-02,8.19411e-02,5.86298e-02,8.46365e-02,-5.54974e-02,5.16874e-02,9.19514e-03,9.96266e-02,7.09904e-02,-2.45001e-02,5.56193e-02,-1.07124e-01,1.74691e-02,1.11862e-01,-6.80913e-02,1.53561e-01,-5.20388e-02,1.10484e-01,-1.31547e-02,1.12499e-01,-7.43227e-02,-1.00487e-01,1.16918e-02,-8.42586e-03,1.71287e-02,-3.45069e-03,1.34859e-03,-1.23469e-02,-9.03501e-03,-7.38828e-02,1.82118e-02,5.89069e-02,-3.58789e-02,4.53876e-02,1.17186e-01,-4.42918e-02,9.74667e-02,3.68225e-03,9.56645e-02,5.04906e-02,9.05602e-02,-6.42766e-02,1.46428e-02,1.30353e-03,1.17521e-02,8.50190e-02,1.74177e-02,-1.49375e-02,4.80643e-02,3.74164e-02,-3.99319e-02,-3.54930e-02,-5.89187e-02,7.25229e-02,-1.23981e-02,4.78661e-02,
1.30450e-01,1.76006e-01,1.03073e-01,1.16360e-01,4.98803e-02,1.07679e-01,-1.30596e-01,1.29409e-01,-1.29539e-01,1.09049e-02,-1.13062e-01,9.72021e-03,-6.73571e-02,-7.75940e-02,9.32898e-02,1.24590e-01,1.24834e-01,-3.79309e-02,-2.52987e-02,6.39089e-02,-1.67644e-02,6.24023e-02,1.83263e-02,3.14359e-02,7.18919e-02,-9.99325e-03,2.10095e-01,1.11525e-01,-7.19426e-02,-1.32364e-02,3.34930e-02,-2.30188e-02,1.54889e-01,-4.20517e-02,8.07854e-02,1.11678e-01,7.26690e-02,8.76548e-03,3.97954e-02,1.18631e-01,-1.82012e-02,7.69606e-02,7.07239e-02,4.71305e-02,7.10058e-02,-2.60600e-02,9.06534e-02,-2.57818e-02,-6.57528e-02,-8.28505e-02,-7.91421e-02,8.75705e-02,-3.87641e-02,-5.25312e-02,1.13443e-01,4.36820e-02,1.06462e-02,4.20437e-02,8.71123e-02,6.14869e-02,-4.68515e-02,4.74729e-02,4.80290e-02,6.74580e-02,-4.71305e-02,2.58611e-03,8.58830e-02,2.07717e-02,-4.18229e-02,-8.74059e-02,-6.54170e-02,-2.61958e-02,-1.43859e-02,1.48541e-02,2.85020e-02,2.24100e-02,-1.99752e-02,8.23334e-02,-2.98184e-02,-3.29250e-02,6.67231e-02,1.52402e-02,3.38596e-02,1.13656e-01,2.65066e-02,-3.42345e-02,8.24439e-03,-6.63249e-02,2.81815e-02,4.47059e-02,1.15872e-01,-3.13970e-02,1.57239e-01,-1.60911e-01,6.93188e-02,1.21273e-01,-6.44720e-02,-2.82209e-03,2.88008e-02,4.82920e-02,
6.83694e-02,1.60365e-01,9.09867e-02,-1.57296e-02,1.55415e-02,4.55696e-02,-3.06097e-03,-8.64848e-02,-1.15631e-01,1.26431e-01,-5.95197e-02,1.22204e-01,-1.38361e-01,-4.19492e-02,-6.06729e-02,-7.44382e-02,-1.26287e-02,-9.29536e-02,4.48411e-02,4.95248e-02,3.21811e-03,1.15896e-01,1.37513e-02,1.00873e-01,-4.72573e-02,-1.97803e-02,1.74905e-01,4.24579e-02,3.79628e-02,-1.17245e-02,-7.11408e-02,7.04198e-02,3.53323e-02,7.12899e-02,-2.34425e-02,6.90303e-02,-9.69776e-03,1.06135e-02,3.52671e-02,-5.26820e-03,-7.41215e-02,2.73019e-02,1.94929e-02,5.39813e-02,-6.95147e-02,2.19323e-02,1.01543e-01,3.24517e-02,-7.08624e-03,2.03254e-03,3.59942e-02,-3.24422e-02,-5.28650e-02,6.93065e-02,-1.41944e-02,1.88254e-02,-3.89884e-03,1.36540e-03,-5.07120e-02,-6.62856e-02,1.82711e-02,-3.94543e-02,-6.60407e-02,2.46857e-02,-8.83418e-02,2.78812e-02,-5.45375e-02,1.33446e-01,3.00711e-02,-1.47004e-03,-5.30159e-02,3.06866e-02,4.34839e-02,-1.04694e-01,2.53401e-02,1.38224e-01,1.21592e-01,-7.85057e-03,3.25480e-02,8.96601e-02,6.59716e-02,-1.28389e-02,1.18467e-01,2.90861e-02,-4.19191e-02,-1.03085e-01,6.32858e-03,-5.62858e-02,1.41747e-01,-2.34690e-02,-6.20358e-02,-3.57947e-02,4.63355e-02,1.84359e-02,3.74744e-02,8.12495e-02,-2.10524e-02,8.45420e-02,9.09316e-02,-3.15958e-02,
