// Neural Network File Format by Kyle Julian, Stanford 2016
3,6,4,50,
6,50,50,4,
0,
0
0
0
0
-8.68833e-03,-3.33763e-02,3.01246e-01,-1.58457e-01,-1.17690e-01,-4.34039e-02,
-4.66702e-02,3.09034e-02,-5.03968e-01,-8.16932e-01,-3.95135e-02,-6.47457e-02,
-1.48938e-01,-2.42970e-01,7.90499e-01,-4.42524e-01,-5.33608e-03,-5.98762e-02,
-1.05644e-01,-2.35510e-01,3.88780e-01,6.84553e-01,-1.42043e-01,1.24348e-01,
-2.42574e-01,9.99092e-02,-3.48191e-01,-4.71205e-01,2.79400e-01,2.09696e-01,
1.12923e-01,-2.76697e-02,1.52172e-01,1.50202e+00,1.63453e-02,6.30251e-02,
1.51936e-01,-3.24347e-02,1.92174e-01,-4.64985e-02,-3.36186e-01,2.50611e-02,
-1.46024e-01,2.22266e-01,-5.74340e-01,-2.53062e-01,-2.71740e-01,-4.24425e-01,
-9.34238e-02,1.45189e-01,2.34029e-01,1.21666e+00,-3.30441e-02,8.19190e-02,
-3.53582e-02,-1.26079e-03,4.46618e-01,-8.44986e-01,5.71130e-02,-4.58983e-02,
1.42709e-02,-1.41041e-02,-4.98175e-01,-1.43607e+00,-5.38277e-02,-7.13545e-02,
1.19912e-02,2.32389e-03,-4.73106e-01,1.07527e+00,-4.55724e-02,5.79328e-02,
3.27121e-01,1.03117e-01,1.71374e-01,-2.04875e-01,4.12655e-01,-4.66571e-01,
1.46613e-01,-2.23979e-01,5.74761e-01,2.56074e-01,2.71829e-01,4.25662e-01,
3.60129e-03,2.41802e-02,9.02259e-01,-6.93117e-01,8.95192e-02,-4.79537e-02,
-1.65596e-01,1.25758e-01,4.52103e-01,5.09577e-01,1.23872e-01,-2.35697e-01,
-5.74465e-02,-2.07661e-03,-7.58720e-01,1.09718e+00,-4.82151e-02,4.64276e-02,
2.72873e-01,7.10105e-02,6.05300e-01,5.00724e-01,2.56672e-01,-1.66207e-01,
3.22942e-01,7.40151e-02,-1.78323e-01,8.12430e-01,5.39167e-02,3.80309e-01,
-1.18981e-01,1.20162e-01,9.20565e-02,-6.25460e-02,-3.43882e-01,3.70741e-01,
-8.93045e-02,2.01471e-01,6.08689e-01,6.25378e-02,-1.29835e-01,2.30015e-01,
-1.90330e-01,7.62224e-02,2.79446e-01,-4.00534e-01,2.94794e-01,2.76374e-01,
-9.25590e-02,2.93930e-01,-3.85126e-01,4.14946e-01,-1.39851e-01,1.62850e-01,
-8.15032e-03,6.19036e-03,-1.77770e-01,4.44148e-02,2.71029e-01,6.22266e-02,
-2.09564e-01,-1.31297e-01,7.41074e-02,-8.48514e-02,-1.87889e-02,2.17159e-01,
-7.98393e-02,1.20309e-01,-3.04686e-01,-1.38709e-01,-1.45173e-01,-2.29834e-01,
-2.81020e-02,4.25974e-02,-2.36877e-01,9.60357e-02,-1.22817e-01,1.16519e-01,
2.66173e-01,-2.07898e-01,-7.45527e-01,-8.29734e-01,-1.95207e-01,3.76266e-01,
-1.73672e-01,1.50406e-01,5.39683e-01,5.91833e-01,1.21405e-01,-2.30761e-01,
3.45879e-02,-9.42843e-03,4.96307e-01,5.87866e-01,5.37949e-02,2.92493e-02,
-3.07896e-01,-7.01787e-02,1.71601e-01,-7.74390e-01,-5.11553e-02,-3.61698e-01,
-2.72200e-01,-7.08480e-02,-6.00852e-01,-4.95151e-01,-2.59170e-01,1.64948e-01,
-1.49494e-03,2.67644e-03,2.48998e-01,7.44089e-01,2.55452e-02,3.43655e-02,
-1.87833e-01,1.50823e-01,-1.59280e-01,5.96560e-01,3.86841e-02,-1.72671e-01,
-3.40553e-01,-1.14214e-01,-1.85449e-01,2.10365e-01,-4.27988e-01,4.89010e-01,
-1.82884e-01,-1.18897e-02,-8.33697e-01,-9.53816e-01,-2.06575e-02,-2.77188e-01,
8.87903e-02,-2.01104e-01,-6.13352e-01,-6.42735e-02,1.29071e-01,-2.29369e-01,
1.08903e-01,-1.10707e-01,-8.38791e-02,5.90097e-02,3.16518e-01,-3.42165e-01,
-2.09541e-01,-1.35205e-01,4.75837e-01,-9.17378e-01,-2.69536e-02,-1.71663e-01,
-1.67634e-01,3.58956e-02,-2.19807e-01,4.99401e-02,3.72710e-01,-2.87676e-02,
-1.95122e-01,-9.43029e-03,6.60307e-01,-1.28629e+00,-1.39256e-02,-5.56642e-02,
5.00171e-02,1.42704e-02,4.32621e-01,-1.16290e+00,-1.25309e-02,-2.35992e-02,
2.27436e-01,-9.14279e-02,-3.35087e-01,4.77770e-01,-3.52411e-01,-3.31062e-01,
2.17159e-01,6.19714e-02,5.58388e-01,5.62097e-01,6.17783e-03,3.10333e-01,
2.27559e-02,-1.65514e-01,-4.41835e-01,-1.10547e+00,-2.58148e-02,-9.56127e-02,
2.29142e-02,1.26566e-01,-2.72000e-01,-4.83099e-01,1.38389e-01,-5.43758e-02,
2.91349e-01,-1.20911e-01,4.15562e-01,5.69069e-01,-3.36723e-01,-2.51891e-01,
2.92964e-03,-5.26445e-02,5.86451e-01,1.12620e+00,5.14930e-02,6.14627e-02,
-5.95302e-02,-5.82080e-02,-1.37619e-01,8.68162e-01,-1.24700e-01,1.91271e-01,
5.51486e-02,2.97557e-02,5.79804e-01,-1.29491e-01,2.94129e-02,-1.98857e-02,
1.22230e+00,
-1.61470e+00,
-2.09934e+00,
-6.24065e-01,
-6.97491e-01,
1.10062e-01,
3.57613e-01,
5.30065e-01,
3.87860e-01,
1.67711e-01,
-1.60280e+00,
9.87120e-01,
-1.01466e-01,
-5.41834e-01,
1.22049e+00,
4.05772e-01,
-9.41144e-02,
6.38268e-01,
-4.10581e-01,
-2.40475e-01,
7.68319e-01,
1.79688e-01,
-4.14163e-01,
1.52380e+00,
1.89137e+00,
3.04402e-01,
2.09570e+00,
-6.76560e-01,
5.19267e-01,
1.17357e+00,
3.90733e-01,
-6.48655e-01,
1.27338e+00,
-1.52252e-01,
1.18506e-01,
1.08829e+00,
-7.74682e-01,
2.21383e-01,
2.09654e-02,
-3.94644e-01,
-1.97593e-01,
1.62835e+00,
-2.18572e-01,
-1.01371e+00,
1.28319e-01,
9.90347e-01,
8.33000e-01,
3.84299e-01,
-3.96029e-01,
1.27389e+00,
9.16014e-02,4.01355e-03,3.96487e-02,1.41193e-01,2.69006e-02,2.34543e-01,4.57032e-02,-2.62873e-02,2.06060e-01,3.10552e-01,-4.51570e-01,7.58184e-01,4.96490e-02,1.03531e-01,-2.32251e-01,1.19343e-01,4.57021e-01,4.32965e-02,4.72720e-02,1.02178e-01,-4.58678e-02,3.40809e-02,-4.73112e-06,-1.64514e-02,-7.79541e-02,-8.81552e-02,5.83959e-02,-9.37653e-02,-3.63779e-02,2.80602e-03,5.19568e-02,-4.84621e-02,1.23283e-01,4.29875e-02,-4.10964e-02,7.13211e-02,-4.30358e-02,-3.97051e-02,-1.54175e-01,-1.45444e-02,6.55846e-02,1.77323e-02,2.64000e-03,-7.68701e-02,2.92731e-02,-1.38802e-01,-2.81210e-02,1.16380e-01,4.93014e-02,-1.36259e-01,
9.10328e-02,2.34340e-01,-1.01833e-01,-4.94405e-02,-3.86077e-02,-3.68795e-01,8.77567e-02,9.73184e-02,-6.39046e-02,5.57480e-01,3.13587e-02,5.61673e-01,-3.55832e-02,-1.80826e-01,1.61095e-01,-4.38111e-03,-3.49180e-01,-4.17260e-02,-4.22533e-02,3.24457e-02,-1.24443e-01,9.81330e-03,-6.85219e-02,3.80346e-01,8.77212e-02,2.34006e-01,3.55807e-01,1.34220e-01,-2.82707e-01,2.70916e-01,1.96469e-03,1.44004e-01,-2.80478e-01,-9.53620e-03,-4.21526e-02,6.79720e-02,1.28265e-01,4.03475e-02,1.46132e-01,-9.25262e-02,-1.25872e-01,5.57354e-02,4.31071e-02,-5.87509e-02,1.04307e-01,1.45418e-01,-9.74345e-03,-4.53585e-01,-5.35716e-02,9.43402e-02,
1.22492e-01,2.15916e-01,3.08869e-02,2.26315e-01,1.02687e-01,-9.40690e-02,1.68844e-02,4.25394e-02,2.08732e-01,1.37003e-01,3.20929e-01,2.60553e-02,2.16108e-02,1.40447e-01,-1.38592e-02,1.30555e-01,6.21399e-04,1.28432e-01,-1.05034e-01,-8.42592e-02,-4.28459e-02,1.80212e-01,5.41010e-04,1.22868e-01,4.42935e-02,4.17352e-02,-3.82392e-02,1.48403e-02,1.94890e-01,-6.82615e-02,1.04152e-01,-1.40290e-01,1.40374e-01,2.38386e-02,-9.39620e-02,1.50890e-01,3.82775e-02,1.17798e-01,1.46278e-01,3.79948e-02,-1.03695e-02,2.15750e-02,-7.36681e-02,2.42016e-02,1.57398e-01,1.22441e-01,-2.81501e-02,4.99431e-02,-1.20629e-01,2.43026e-02,
-6.46547e-02,-1.27939e-01,4.67925e-02,9.69674e-02,1.33728e-01,1.66847e-01,1.70003e-01,1.71881e-02,-5.71272e-02,7.31314e-02,-1.35064e-01,-6.50092e-02,-1.16390e-02,8.64943e-02,2.08588e-01,-1.00030e-01,3.73541e-01,-7.76482e-02,2.35585e-01,1.88254e-01,6.87499e-02,1.38186e-01,5.53003e-03,3.29951e-01,-3.67894e-02,-6.42432e-03,8.44088e-02,8.58368e-02,-4.42502e-02,1.95752e-02,6.52158e-02,-5.53888e-02,-7.32569e-02,-3.90166e-02,1.73019e-01,-3.51402e-02,-1.06699e-01,-1.28896e-03,4.17044e-02,7.03665e-02,-4.20214e-02,3.38782e-02,7.03546e-02,-1.25953e-01,4.10503e-03,1.59095e-03,-6.99486e-02,1.20758e-01,1.84856e-01,-1.00919e-01,
-4.47748e-02,7.73259e-02,1.31553e-01,-2.47185e-02,2.45442e-01,-8.80180e-02,7.12115e-02,-4.66169e-02,1.23967e-01,1.40438e-01,1.49617e-01,2.34206e-01,5.10636e-02,1.50298e-01,-2.88789e-02,4.49605e-02,-2.24037e-01,6.55136e-02,-9.05468e-03,-9.66309e-02,-8.32148e-02,1.86137e-01,-7.71047e-02,1.88008e-01,1.24423e-01,8.58116e-02,1.13756e-01,-2.67010e-02,1.66027e-01,-5.18453e-02,-4.03924e-02,2.70524e-02,-6.76230e-02,1.28784e-01,7.11184e-02,-7.29757e-02,1.70574e-01,1.83312e-02,1.52068e-01,1.78824e-02,-7.63484e-03,-1.01194e-01,-5.48086e-02,1.46619e-02,3.67222e-02,1.24267e-01,-6.86862e-02,-7.28860e-02,8.30437e-03,1.86621e-01,
9.89090e-02,7.13053e-02,-2.28484e-02,1.57471e-04,-3.27827e-02,-2.85941e-02,8.08152e-02,1.81513e-01,1.89099e-01,1.07466e-01,3.03387e-01,-1.28335e-02,-2.20355e-02,-1.21022e-03,-2.89456e-02,1.08466e-01,1.07609e-01,1.37164e-01,-1.79170e-01,1.12986e-02,-1.06481e-01,-4.18785e-02,1.37047e-01,-2.32993e-01,1.17053e-02,1.98169e-01,-1.16851e-01,1.08126e-01,-1.17507e-01,2.66593e-02,1.68055e-01,-7.54276e-02,2.46986e-01,4.20152e-02,1.24730e-01,1.28027e-01,1.43908e-02,-3.55433e-02,-1.70507e-03,6.77475e-02,-6.24160e-02,9.54997e-02,2.00653e-01,3.02414e-02,1.24439e-01,2.09648e-01,1.83557e-01,-1.77584e-01,-1.07644e-01,6.31923e-02,
2.06887e-01,7.66673e-03,-4.17338e-02,7.19413e-02,-1.52247e-01,8.92112e-02,2.11835e-01,3.41955e-02,-2.91575e-02,1.10660e-01,-1.08614e-01,8.96124e-02,-4.95992e-02,-1.41383e-01,1.11811e-01,-1.57922e-03,2.30744e-01,-5.11242e-02,-9.22323e-02,2.77226e-02,1.21047e-01,-5.14694e-02,1.16266e-01,-1.24552e-01,3.63833e-02,4.10971e-02,8.38694e-02,1.12663e-01,6.55642e-02,-8.13731e-03,1.24326e-01,-1.17771e-01,1.15714e-01,-8.98280e-02,1.24211e-01,2.76543e-02,3.36135e-02,-8.87284e-02,-6.87848e-02,6.29983e-03,-3.22451e-02,1.40715e-01,1.56417e-01,4.66429e-02,6.11433e-02,7.63433e-02,1.04448e-01,2.32384e-01,2.81261e-01,7.38568e-02,
2.13516e-01,-4.83444e-02,6.70997e-02,3.35707e-03,-1.13365e-02,1.07412e-01,2.87850e-02,-4.23278e-02,6.32676e-02,1.43237e-01,-8.98226e-02,-1.36153e-01,3.91324e-02,1.65105e-01,4.33917e-01,-2.60836e-02,3.11729e-01,-8.66915e-03,3.15004e-02,1.21686e-01,-7.00576e-02,8.96407e-02,-2.91772e-02,-1.46614e-01,1.59661e-01,2.77427e-02,-8.67721e-02,-1.33546e-01,1.75741e-01,1.19195e-01,2.79030e-02,-1.68249e-01,-8.53451e-02,1.16911e-01,5.49336e-02,-9.71535e-02,-1.15431e-01,1.19277e-01,2.16571e-01,1.18899e-01,-1.20451e-01,-1.05314e-01,-1.86278e-01,-7.53137e-02,1.53227e-01,2.40924e-02,6.35417e-02,2.30771e-01,-8.23148e-02,4.89922e-01,
-1.27138e-03,-4.58544e-02,2.63501e-02,-9.30544e-02,-7.82968e-02,-2.01953e-02,1.11841e-01,1.64652e-01,-4.14003e-02,3.78628e-02,-2.26903e-01,2.29789e-01,1.56160e-01,-1.83936e-01,1.15081e-01,1.87655e-01,2.41352e-01,1.31906e-01,-5.54189e-02,1.46363e-02,-2.81710e-01,-1.63871e-01,-7.05628e-02,1.95514e-01,1.22543e-01,2.02153e-01,7.38319e-02,-1.53984e-01,1.31586e-01,7.06542e-02,1.98394e-01,-5.26204e-02,6.70469e-02,1.29488e-01,-3.88845e-02,8.50407e-02,2.38119e-01,9.18366e-02,1.27654e-01,1.42347e-01,6.17824e-02,-5.43670e-02,1.75570e-01,-5.92139e-03,2.33109e-02,2.55696e-02,1.78152e-01,-6.01728e-02,3.23889e-02,4.23769e-02,
-2.05552e-01,-1.03966e+00,7.42559e-02,1.12252e-01,-9.55292e-02,-6.67708e-02,2.16795e-02,-1.96707e-02,1.39464e-01,-1.52925e-01,-5.82433e-01,-1.32552e-02,-1.43723e-01,-1.73823e-02,3.53116e-01,2.26726e-01,6.76113e-02,1.29198e-01,9.58314e-02,-5.43392e-02,1.01966e-01,6.35834e-02,-2.21135e-02,4.10481e-02,-2.78669e-02,-1.63805e-02,5.10633e-02,-2.22519e-01,1.60059e-01,8.93134e-02,-9.03823e-02,-1.26428e-02,2.99279e-01,9.98351e-02,3.18590e-02,-2.32688e-01,-1.43072e-01,8.88751e-02,2.60627e-02,-4.05641e-02,-1.02892e-01,-2.65475e-01,-1.53730e-02,3.97778e-02,-1.33709e-02,-2.89914e-01,2.34007e-02,1.27316e-01,3.99071e-03,-6.71531e-02,
-8.24996e-03,4.58761e-02,6.51434e-02,7.54472e-02,1.10360e-01,-1.21255e-01,4.53449e-02,4.72362e-02,6.62158e-02,9.97169e-02,1.33361e-01,2.01181e-01,1.38295e-01,-7.50140e-02,9.58211e-02,1.79386e-01,-2.43293e-01,-1.21697e-01,1.57255e-01,3.73690e-02,-1.40075e-01,-7.20234e-02,1.20167e-01,-1.33979e-01,2.55854e-02,8.65012e-02,1.03263e-02,-9.55189e-02,1.91189e-01,1.39089e-01,2.07670e-01,-1.61406e-02,-1.54205e-01,1.56495e-01,3.15797e-02,5.41481e-03,2.28557e-01,1.40896e-01,1.71337e-02,4.54051e-02,1.19096e-01,5.60270e-02,1.59985e-02,1.92391e-02,-2.76681e-03,1.67568e-01,-6.22397e-02,3.46934e-02,1.06032e-02,2.10847e-01,
-9.62473e-02,1.29794e-01,-6.52463e-02,-8.57835e-02,3.44342e-02,1.79550e-02,1.93276e-01,9.24429e-03,1.61357e-01,5.23078e-02,-6.00846e-02,6.94823e-02,-2.18936e-02,9.30635e-02,6.25866e-02,-9.83057e-02,1.20065e-01,-7.36992e-02,9.08038e-02,2.40106e-01,9.89041e-02,1.95025e-01,-1.30225e-01,1.86851e-01,1.80384e-02,1.24453e-01,4.69436e-02,1.99446e-01,2.55666e-02,1.41799e-01,-1.11828e-01,2.48921e-02,-1.28742e-01,9.23361e-02,1.01042e-01,1.32766e-01,-1.94271e-01,-1.78797e-01,4.99201e-02,-1.46417e-01,1.24800e-01,-2.71477e-02,6.36244e-02,1.47031e-02,5.10210e-02,1.15048e-01,1.76151e-01,-1.47240e-02,-1.14850e-01,1.50029e-01,
1.35082e-01,-5.66921e-01,-1.75410e-02,-4.63603e-02,-1.83539e-01,-2.64789e-01,1.01051e-01,-6.89016e-02,-2.53590e-01,-2.69004e-01,-1.02098e+00,3.57539e-01,-3.39828e-02,3.64294e-02,2.59149e-01,-1.03653e-03,2.81533e-01,1.18950e-01,-9.26152e-02,-7.26793e-02,7.85677e-02,-4.71879e-02,4.17298e-02,4.49370e-01,6.81164e-02,2.24452e-02,5.23669e-01,-5.68025e-02,6.40515e-02,-8.54697e-02,1.22409e-01,-9.08411e-02,-4.05661e-01,-5.11012e-02,3.83827e-02,1.39394e-01,-3.87153e-02,3.32523e-02,9.61617e-03,-6.00301e-02,8.01276e-02,2.11853e-01,-4.41869e-02,-3.96565e-02,9.25217e-02,3.44940e-02,2.04217e-01,-4.29110e-01,5.71029e-02,2.40981e-02,
-7.99009e-02,-4.98742e-02,-6.40178e-02,-3.01845e-02,1.02229e-01,3.00504e-01,-3.40872e-02,-1.07228e-02,-1.01798e-01,4.04314e-02,-4.40430e-01,5.24778e-02,7.69328e-02,1.71253e-01,1.78799e-01,-3.23988e-02,7.67213e-02,-7.60363e-02,2.05759e-01,1.13327e-01,6.74050e-02,1.33169e-01,1.23619e-02,1.39847e-01,2.55916e-02,-8.86419e-02,1.93398e-01,1.15931e-01,7.81996e-02,-4.09548e-02,1.69268e-01,-1.46188e-02,-1.04743e-01,9.73478e-02,-7.05212e-02,-6.19033e-03,-8.32035e-02,-4.67527e-05,8.50082e-02,5.22982e-02,2.70723e-01,4.59759e-02,-2.71102e-02,1.70587e-01,-1.58663e-01,3.73442e-03,6.44358e-02,1.94530e-01,1.81675e-01,1.48333e-01,
6.57106e-02,3.07206e-02,2.77230e-02,3.91295e-04,1.02069e-01,8.30420e-02,2.43493e-02,6.72166e-02,-1.72457e-01,1.05675e-01,-2.31237e-02,-8.09014e-02,2.16733e-01,1.26782e-01,2.06639e-01,2.06428e-01,1.09929e-01,3.46523e-02,-6.14521e-02,-2.17076e-01,-8.17309e-03,-2.01197e-02,-2.23201e-02,3.48611e-01,-4.47781e-02,1.37844e-01,1.94349e-01,-5.64964e-02,3.40524e-02,6.58278e-02,9.29589e-02,3.69003e-02,-1.46000e-01,-1.51125e-01,-8.27812e-02,1.39667e-01,1.89406e-02,1.59518e-01,8.01543e-03,1.05840e-01,3.74224e-02,1.39380e-01,5.64055e-02,5.57049e-02,2.26947e-02,3.75110e-02,-5.19958e-02,1.79436e-01,5.10171e-02,-7.22550e-03,
1.85910e-02,-1.87210e-04,6.79157e-02,-9.28753e-02,3.11879e-01,2.00479e-01,6.82986e-02,1.60091e-02,1.37159e-01,-1.58675e-02,-5.20486e-02,1.96538e-01,4.17932e-02,2.22337e-01,-4.11581e-02,-1.24069e-01,9.40365e-02,-1.82030e-02,2.52848e-01,-1.08351e-01,2.81856e-02,1.27964e-01,9.58696e-02,3.90370e-02,4.01212e-02,-3.79141e-02,1.60817e-01,1.75189e-01,-3.32949e-02,2.04758e-01,-1.89655e-01,9.72536e-02,2.73373e-03,-8.90878e-02,3.41623e-02,-6.09625e-02,2.75714e-02,1.11854e-01,1.34055e-01,1.37335e-01,1.29159e-01,1.56972e-01,-1.77327e-01,5.73710e-02,1.00407e-01,1.54838e-01,-1.91832e-01,-6.61495e-03,-6.34268e-02,1.24578e-01,
-5.92843e-02,-4.17002e-02,-1.57591e-02,1.14154e-01,6.19856e-02,1.56843e-01,-2.12716e-02,-1.20548e-01,-5.16453e-02,6.87516e-02,1.62374e-01,-2.00549e-02,2.61157e-03,1.60417e-01,1.15093e-01,1.62430e-01,2.34451e-01,-1.18626e-02,2.20567e-01,-1.03920e-01,1.21580e-01,2.07382e-01,7.33827e-02,2.11987e-01,6.20102e-02,-1.16320e-02,5.64965e-02,9.96789e-02,-4.18786e-02,1.46388e-02,-4.05732e-02,7.47935e-02,9.11175e-02,5.23150e-02,-7.91695e-02,9.69452e-02,1.57217e-02,1.68927e-01,1.05335e-02,1.24643e-01,3.40039e-02,4.24642e-02,5.49702e-02,1.34356e-01,6.49293e-02,1.64403e-01,-1.01525e-01,-1.06115e-01,-8.06847e-02,-6.47306e-02,
9.51204e-02,8.72167e-02,8.36036e-02,1.52501e-01,-2.29232e-01,7.77493e-02,1.23690e-01,1.83442e-01,1.31584e-02,3.34993e-02,1.55240e-01,3.62991e-02,-6.34628e-02,-1.71013e-01,5.79743e-02,-1.78268e-01,6.31357e-02,-8.18631e-03,-2.16252e-02,3.03688e-02,1.21835e-01,-2.17370e-01,1.25220e-01,-7.83577e-02,2.47190e-02,6.62411e-02,2.16485e-01,1.21343e-01,3.42722e-02,1.79738e-02,-4.67728e-02,7.14319e-02,4.19477e-02,-6.97137e-02,2.91790e-02,9.05484e-02,-1.34885e-01,-4.79035e-02,1.56956e-01,3.93197e-02,6.83707e-02,6.98061e-03,2.21751e-01,1.07457e-01,-8.25779e-02,1.69816e-01,5.38828e-02,5.45443e-02,1.11853e-01,-5.29256e-02,
2.09177e-01,-3.27705e-02,6.05375e-02,4.93341e-02,1.83664e-01,3.84843e-02,-8.29510e-02,-1.81174e-01,4.09327e-03,4.39739e-02,7.52831e-02,1.48652e-01,5.25872e-02,3.14123e-01,-9.69304e-03,-6.76260e-02,3.62589e-02,6.78452e-02,1.53865e-01,1.58601e-01,5.29182e-02,2.57849e-01,2.35436e-01,1.40039e-01,1.84866e-02,-1.21281e-01,-2.81377e-02,3.95100e-02,-4.74583e-02,-2.75928e-02,-2.93838e-01,2.63055e-02,2.58788e-01,3.29082e-02,9.44215e-02,1.11755e-01,-1.45849e-01,3.40383e-02,1.54695e-01,2.25903e-01,-1.67461e-03,1.56799e-01,1.30144e-02,1.04180e-01,1.05653e-01,8.43741e-02,-1.61526e-01,1.23398e-01,7.87985e-02,1.33395e-01,
2.67725e-02,1.80177e-01,1.16301e-01,5.80377e-02,5.40362e-02,-3.63361e-02,-3.60910e-02,-2.46963e-02,8.53064e-02,2.39770e-01,1.81906e-01,1.00032e-01,7.16581e-02,1.45760e-01,-1.08699e-01,-8.15484e-02,1.41083e-01,1.45287e-02,-6.69293e-02,1.23082e-01,2.11610e-02,-1.89721e-02,4.21322e-03,-3.02160e-01,-1.88192e-02,4.20895e-02,-3.19014e-03,1.99955e-01,3.80307e-02,9.17526e-02,-3.14213e-02,1.84492e-01,1.75387e-01,5.86969e-02,7.16480e-02,4.86185e-02,-6.75124e-02,-1.32392e-01,8.33978e-02,1.60141e-01,3.92932e-02,1.22831e-01,1.65740e-01,1.01949e-01,8.62190e-02,8.73123e-02,2.78206e-03,-7.09607e-02,7.81027e-02,2.61653e-02,
-4.97752e-03,-5.61527e-02,-4.05091e-02,-2.65423e-02,1.98230e-01,1.77514e-01,6.94309e-02,-1.46904e-02,-1.23613e-01,1.48097e-01,-1.02975e-01,5.56580e-06,8.51145e-02,5.20135e-02,1.45799e-01,-1.67104e-02,2.21648e-01,2.24612e-01,1.55442e-01,-6.40730e-02,1.64051e-02,2.73838e-01,-1.00839e-01,3.04101e-02,-1.63942e-02,-2.69387e-02,2.25312e-01,3.61245e-02,6.65557e-02,-4.20896e-02,-4.90659e-02,-1.22711e-01,-1.78418e-01,-4.47609e-02,9.40346e-03,6.78513e-02,2.17126e-02,1.12099e-02,1.16154e-01,3.69828e-02,8.68832e-02,8.26750e-02,-7.10498e-02,-1.02242e-02,1.25120e-01,4.47753e-02,8.08027e-02,2.04555e-01,-6.87678e-02,4.10220e-02,
2.28111e-01,-3.66976e-01,-1.54580e-01,5.09446e-02,-2.50795e-01,2.44496e-01,1.80363e-02,-1.07589e-01,1.70183e-01,-3.69916e-01,-7.74191e-01,5.61243e-01,-1.00603e-01,9.72504e-02,7.25134e-02,1.28714e-01,2.72024e-01,2.57238e-02,8.99282e-02,-1.86263e-02,-2.11033e-02,7.47816e-03,5.50699e-02,4.09881e-01,2.62096e-01,-2.58736e-03,3.66723e-01,-3.28968e-01,1.23110e-01,2.59594e-01,-5.03844e-03,-2.17642e-01,2.02887e-01,1.95510e-01,1.20270e-01,1.07045e-01,-1.89956e-01,1.30302e-01,3.35058e-02,-5.22583e-03,-3.52812e-01,3.78467e-01,-5.70323e-02,6.43800e-02,-4.09845e-02,-1.78203e-01,2.11905e-01,1.08355e-01,2.51787e-01,-2.99938e-02,
2.21086e-01,-3.42820e-01,4.43075e-02,-1.60775e-01,-1.41305e-01,-3.28465e-01,1.11996e-01,4.71793e-02,-1.21045e-01,-3.06002e-01,-7.14274e-02,2.47834e-01,-8.84006e-02,-5.36572e-02,-2.14419e-01,-4.57687e-02,-1.30950e-01,8.75937e-02,-1.32393e-01,-6.91036e-02,-7.69291e-02,-6.30300e-04,-9.07616e-02,3.74236e-01,7.19369e-02,7.87746e-03,2.44043e-01,8.40523e-03,-4.32347e-02,-6.06939e-03,-3.21396e-02,3.67723e-02,8.22342e-02,-7.85211e-02,-4.66859e-02,2.14486e-02,-5.13432e-02,1.04756e-02,2.18256e-01,-1.09902e-01,-4.35156e-02,3.21704e-01,-1.70591e-01,-7.52148e-02,4.30386e-02,2.17056e-01,1.66966e-01,-9.37674e-01,7.98358e-02,-1.55614e-01,
-8.90174e-02,5.89295e-02,2.74222e-02,1.04116e-01,-1.81746e-01,1.56106e-01,2.23975e-01,2.36615e-01,1.21319e-01,-4.71886e-02,5.67308e-02,5.07822e-02,-7.65229e-03,-1.55728e-01,-4.35497e-02,1.18685e-01,-6.56152e-02,1.49703e-02,-8.38267e-02,1.66187e-01,1.42339e-01,4.72561e-02,1.12271e-01,6.66665e-03,-1.57725e-02,9.78007e-03,-4.83299e-02,1.06132e-01,1.16295e-02,1.78229e-01,8.70002e-02,3.15054e-02,-1.20059e-01,-2.58970e-02,7.35947e-02,6.22114e-02,7.56429e-03,-1.94283e-01,1.58495e-01,-1.28216e-01,1.16316e-01,-9.51822e-02,2.18216e-01,1.32811e-01,1.39477e-01,2.10274e-01,1.51773e-01,5.84199e-02,-6.11396e-02,6.83986e-03,
1.62621e-01,-1.73396e-01,-7.74748e-02,-1.14389e-01,-1.57892e-01,-7.42989e-02,-9.96652e-02,1.67349e-01,2.36629e-02,9.41712e-02,-3.82524e-02,5.40398e-02,1.18869e-02,-2.28075e-02,7.39029e-02,3.41391e-02,6.51104e-02,3.42242e-02,3.96527e-03,1.39413e-01,1.35605e-01,-1.10256e-01,7.09312e-02,9.50204e-02,1.50134e-01,-5.88464e-02,-1.88857e-02,3.83678e-02,-9.32523e-03,1.36253e-01,2.59076e-02,2.19999e-01,1.11405e-01,7.14526e-02,1.86329e-01,2.97838e-02,-5.10788e-02,-1.24923e-01,9.51467e-02,-2.93445e-02,6.15162e-02,1.40374e-01,-1.29550e-01,-6.88659e-03,4.37898e-02,-2.09775e-02,1.88634e-01,-5.51924e-02,-1.71574e-02,-3.33595e-02,
-1.61493e-03,-6.52356e-02,6.44754e-02,-1.52457e-01,-1.38727e-02,6.01910e-02,4.86877e-02,1.57001e-01,9.59944e-02,3.25394e-02,-7.42023e-02,3.95401e-03,4.15605e-02,-1.28121e-01,1.55751e-01,3.88827e-02,1.51193e-01,1.41955e-01,-1.67457e-01,1.49514e-01,-7.56566e-02,-1.93572e-01,-7.47666e-02,-1.44610e-01,8.73606e-02,1.37878e-01,1.96968e-01,-4.00379e-02,1.47445e-02,-6.61932e-02,1.77863e-01,-2.86346e-02,-1.36521e-01,-4.56852e-02,-3.73683e-02,6.00348e-03,1.20926e-01,4.67668e-02,9.39676e-02,9.44571e-02,9.90832e-02,9.87770e-02,2.48202e-01,4.76332e-02,5.58128e-02,-4.02153e-02,1.92650e-01,1.69133e-01,1.79658e-02,1.59949e-01,
-7.18819e-02,-3.15191e-02,8.42023e-02,6.87144e-03,1.92653e-01,-1.42069e+00,2.75571e-02,-6.30062e-02,1.09483e-01,2.96328e-01,2.87201e-01,-9.63338e-01,-5.04042e-02,-4.27853e-02,4.75391e-01,-1.55441e-01,-2.20573e+00,-9.44161e-02,-7.40481e-02,8.85562e-02,-6.56932e-02,-3.96753e-02,-2.74607e-02,-1.47081e-01,-7.62169e-02,2.78095e-01,-4.92160e-01,1.86805e-01,-1.19208e-01,3.24382e-01,-1.90692e-02,1.03317e-01,-2.06219e-01,-2.06939e-02,3.99357e-02,8.79276e-02,1.08063e-01,-9.28470e-02,8.83779e-02,-3.22249e-02,-1.52950e-01,-2.52298e-01,6.47063e-02,2.17143e-02,-7.56054e-02,1.36488e-01,-1.56863e-01,-2.41842e-01,-1.93600e-01,4.68179e-01,
2.03543e-01,1.79455e-01,-2.12034e-02,-1.03844e-01,-8.44061e-02,-3.12141e-01,4.87105e-02,5.46414e-02,-2.16867e-01,2.59060e-01,2.60782e-01,-5.89994e-01,-1.31197e-01,6.43659e-02,1.93495e-01,-8.80750e-02,-8.38429e-01,7.86060e-02,-2.15315e-01,5.30022e-02,1.50357e-01,1.28823e-02,-9.46544e-02,3.37320e-01,1.31009e-01,-6.41978e-02,2.48669e-01,9.75387e-02,3.34832e-02,3.73041e-01,2.05013e-01,-6.45824e-02,6.34879e-01,-9.60648e-02,2.49941e-02,8.49709e-02,5.57372e-02,1.00929e-02,6.70263e-02,-5.62534e-02,2.73788e-01,3.94423e-01,-4.68244e-02,-1.85577e-01,1.57955e-02,3.89908e-01,8.93459e-02,-1.73875e-01,-2.58464e-01,7.55209e-02,
-6.94882e-03,1.61268e-01,1.42920e-01,8.33815e-02,7.71241e-02,1.52292e-01,-3.84927e-02,5.82957e-02,-6.63524e-02,4.10183e-02,-3.48322e-02,4.54865e-02,1.45820e-01,-3.03211e-02,1.47673e-01,6.30975e-02,1.12654e-01,2.67906e-01,1.02643e-01,-5.55688e-02,-6.02026e-04,1.00021e-01,4.92039e-02,2.68891e-01,-1.16882e-02,2.20133e-02,7.58101e-03,-1.70736e-01,5.51494e-02,1.77502e-01,1.03428e-01,-3.32528e-02,-1.83941e-01,1.57727e-01,5.34659e-03,5.53478e-02,1.68135e-01,4.98800e-02,1.33122e-01,-5.22001e-03,4.51106e-02,9.34112e-02,8.07948e-02,1.05743e-01,-7.24244e-02,2.25481e-02,2.61846e-02,2.44887e-01,1.97594e-01,9.06838e-02,
-6.24057e-01,1.35957e-01,-1.60198e+00,-7.84913e-01,-1.71329e-02,3.18900e-02,-5.71923e-02,4.80298e-02,-6.65806e-01,-1.35690e-01,3.60604e-01,-1.45190e-01,1.67185e-01,-4.22249e-01,-2.39088e-02,-1.61486e-01,1.33120e-01,-1.98749e-01,7.56928e-02,3.82756e-02,3.73032e-01,-1.68437e-01,-3.75676e-01,-1.94450e-01,4.64620e-03,2.02814e-02,1.39706e-01,5.19649e-02,2.82560e-01,-1.41886e-01,-6.16702e-02,1.12470e-01,9.89969e-02,-3.48016e-02,-7.24993e-02,-1.74223e-03,3.82745e-01,-2.66061e-01,-1.30190e-01,1.87649e-01,2.64455e-01,-1.92294e-01,5.94845e-02,-3.44496e-02,-5.44342e-02,2.47964e-02,2.96462e-02,7.50177e-02,4.30827e-03,-1.26456e-01,
7.10141e-02,-1.17984e-01,1.55971e-01,1.52503e-01,-1.45189e-01,1.73306e-02,1.51654e-01,2.38131e-01,-6.70212e-02,2.55779e-02,1.74550e-01,3.46475e-02,6.05816e-02,-1.13744e-01,-8.99913e-02,-2.74163e-02,3.27195e-01,-9.84731e-03,-1.55564e-01,1.60937e-03,-4.05085e-03,-2.29113e-02,-3.01654e-02,-1.00729e-01,-6.53880e-02,1.77580e-01,3.76502e-02,-2.14060e-02,8.11773e-02,6.74981e-02,2.42463e-01,-4.14855e-02,1.53506e-01,-2.94787e-03,1.38004e-01,1.13291e-01,1.18749e-02,2.02739e-01,6.96509e-02,-1.33474e-02,-4.32315e-02,1.43686e-01,7.04167e-02,1.08854e-01,4.27364e-02,1.49737e-01,2.22320e-01,-1.19578e-01,1.79396e-02,-4.69206e-02,
2.52039e-01,-4.20696e-01,-6.22031e-02,1.16398e-01,-1.04237e-01,-3.54265e-01,4.42432e-02,1.52376e-01,-4.61122e-03,-6.79385e-01,-8.73420e-01,-4.27258e-02,-1.07860e-01,-1.97263e-01,-6.34398e-02,-1.05090e-01,-5.76796e-02,-2.78855e-02,-6.80313e-02,-5.52982e-02,-2.44980e-02,-7.18036e-02,1.43377e-01,5.21971e-01,2.71842e-02,-8.11573e-02,3.50567e-01,1.77494e-02,1.51088e-01,2.48625e-01,-1.63190e-01,1.15311e-01,-2.90501e-02,8.21214e-02,9.27367e-02,3.90500e-01,5.50977e-02,5.01677e-02,-1.34741e-01,1.10512e-02,-5.46585e-02,2.99879e-01,-5.80185e-02,1.22312e-01,2.06454e-01,-7.13166e-02,-3.79119e-04,4.39389e-02,-4.42367e-02,-1.13422e-01,
-1.18986e-01,4.38580e-02,-1.28450e-01,1.11123e-01,-5.11640e-02,-9.14259e-02,6.79786e-02,-9.23653e-02,-8.49741e-02,1.24391e-02,5.48809e-03,-5.01129e-02,-2.05470e-02,-8.74901e-02,-1.05206e-01,3.71668e-02,-1.38686e-01,-4.59001e-02,-6.04945e-03,1.19612e-01,-4.90724e-02,9.46859e-02,4.91108e-02,1.37894e-02,-1.21495e-01,-2.62414e-02,-7.77110e-02,-6.83668e-02,-4.79329e-02,4.61113e-02,7.39806e-02,4.48535e-02,-1.40985e-01,-6.39160e-02,-2.64278e-02,-1.27668e-01,-9.69854e-02,1.02780e-01,-2.76969e-02,8.88307e-02,-1.64918e-01,-1.34914e-01,-1.32034e-01,6.51299e-02,1.36911e-01,1.05741e-01,-1.76184e-03,-1.40861e-01,-3.50016e-02,-6.88467e-02,
1.46423e-01,1.83732e-01,4.79459e-02,8.56881e-02,2.53833e-01,-4.36822e-03,3.22993e-02,-1.03911e-01,1.37993e-02,-6.17116e-02,1.14675e-01,2.85215e-02,-8.31009e-03,9.31933e-02,3.18504e-02,-1.70828e-01,-9.82871e-02,-9.73947e-02,2.18856e-01,2.64608e-01,3.33480e-01,1.53850e-01,7.34968e-02,4.12091e-02,8.37953e-02,-4.22547e-02,6.84993e-02,2.35619e-01,1.28185e-01,1.80097e-02,-1.71655e-01,5.87998e-02,3.66439e-02,6.68283e-02,-1.41848e-02,9.13198e-02,-8.61779e-02,-6.34574e-02,-2.33279e-02,-6.29261e-02,-2.73837e-02,5.51293e-02,-3.46531e-02,1.57287e-01,-1.67640e-02,1.87169e-01,-8.12215e-02,1.05501e-01,1.24685e-01,-9.30750e-03,
2.46713e-01,-3.64796e-02,-8.49988e-02,1.08921e-01,-2.56408e-01,3.17609e-01,-1.43378e-02,-5.29630e-02,6.21597e-02,-8.86487e-01,-4.32485e-01,1.17716e-01,-6.20574e-02,5.63366e-02,-1.97881e-01,1.53783e-01,2.41220e-02,-5.83449e-02,7.93522e-02,-1.21886e-01,-3.43343e-02,-4.08375e-03,8.04761e-02,4.00034e-01,2.24358e-01,9.11858e-03,5.73692e-01,-2.07791e-01,1.57074e-01,-6.84664e-02,1.44203e-02,-7.52506e-03,-5.07628e-02,-7.26711e-02,1.09219e-01,2.12337e-01,1.33878e-01,1.76979e-02,-1.11426e-01,8.39687e-02,-2.70703e-01,3.47497e-01,9.71741e-02,-3.14441e-02,-1.49540e-02,-2.21224e-02,1.28276e-01,3.27917e-01,2.21800e-01,1.18007e-02,
-1.57289e-01,-8.20273e-02,-3.53530e-02,5.64628e-02,6.64633e-02,7.34416e-02,-6.34145e-02,1.54072e-02,-1.06717e-01,-1.26585e-01,1.07381e-01,-1.70212e-01,-8.02287e-02,1.83495e-02,-6.03091e-02,-2.72177e-02,-4.99595e-02,3.74336e-02,9.57419e-02,9.14330e-02,8.62927e-02,-1.37717e-01,-4.96769e-02,-1.49851e-01,1.12610e-02,1.00340e-01,-5.28083e-02,-1.29549e-01,-1.11926e-01,6.57248e-02,6.10483e-02,-1.57822e-01,-4.84287e-03,1.97814e-02,-9.72833e-02,6.51509e-02,1.04551e-01,-1.20247e-01,3.65366e-02,-8.43482e-02,-1.55893e-01,-1.19127e-01,-1.04578e-01,1.99404e-02,-5.72920e-02,-1.35143e-01,-1.23465e-01,6.28341e-02,-1.61113e-01,-1.31105e-01,
-1.15321e-01,-3.75832e-01,-1.91130e-02,1.04459e-01,-3.61877e-02,-2.99582e-02,6.01962e-02,-1.34346e-01,1.53421e-01,3.65442e-01,1.60918e-01,3.16988e-01,-1.10550e-01,1.29861e-01,2.13691e-01,1.97002e-02,7.39257e-01,5.94759e-02,9.47232e-02,-1.59081e-02,2.41338e-02,1.77802e-03,7.88470e-02,-5.68820e-02,-7.34153e-02,-3.95966e-02,-2.78783e-01,-7.42056e-02,2.12000e-01,3.69856e-02,-4.34570e-02,3.11063e-02,3.07095e-01,-4.30072e-03,2.46456e-02,2.69154e-02,7.20855e-02,3.16811e-02,-9.04344e-02,-8.44936e-02,-8.72065e-03,-1.41358e-01,1.18350e-01,1.52636e-01,-1.79094e-02,-2.45073e-01,-4.69179e-02,-1.67670e-01,7.54123e-02,1.51858e-01,
-3.43772e-02,5.84370e-01,3.11444e-02,-8.64364e-03,4.15288e-02,-1.73139e-01,-9.91384e-02,7.73843e-03,3.68638e-01,-9.12525e-01,1.38216e-01,2.66090e-01,-3.69260e-02,3.27212e-02,-4.07219e-02,-9.82776e-02,8.17558e-01,-1.60651e-01,2.19123e-01,1.10372e-01,-1.68969e-01,-2.03598e-01,9.44682e-04,-1.89463e-01,-1.70209e-02,-5.80984e-02,-8.69928e-01,-7.52477e-03,1.93285e-01,-2.80406e-01,-1.70050e-01,1.22122e-01,-1.19510e-01,-1.92922e-01,1.49441e-02,-1.24027e-01,1.60387e-01,-1.23129e-01,-3.12531e-01,8.87974e-02,7.89305e-01,-1.82739e+00,6.86494e-02,3.97834e-02,1.46802e-01,1.29006e-01,3.95105e-02,-5.38881e-02,8.63206e-03,2.36531e-01,
7.53812e-02,1.36136e-01,1.79434e-03,1.45650e-01,1.30629e-01,-2.86078e-02,-1.67642e-02,1.10496e-01,1.27504e-01,-2.23264e-02,-3.15064e-02,4.91011e-02,2.06394e-01,-9.50574e-02,-7.55989e-03,1.68196e-01,2.21878e-01,1.88087e-01,9.45010e-02,-1.33791e-01,-1.20879e-01,3.33961e-02,1.02905e-01,2.90694e-01,9.92533e-02,-1.03134e-01,-6.57242e-02,3.95109e-02,-3.36945e-03,-2.71047e-02,-1.07613e-01,-6.33358e-02,1.09123e-01,5.96787e-02,-1.11902e-01,-3.43836e-02,1.53384e-01,2.93288e-01,-1.49469e-02,1.56642e-02,1.48649e-01,1.03533e-01,-5.30543e-02,-5.68050e-03,1.96093e-02,1.43971e-01,-9.90081e-02,4.15880e-02,9.27577e-02,2.42852e-02,
1.64394e-01,6.80602e-02,-2.06384e-03,9.24391e-02,1.17522e-01,9.39618e-02,-6.31211e-02,5.20499e-02,4.66715e-02,1.81365e-01,1.09955e-01,-5.94418e-02,2.13812e-01,-4.28467e-02,-4.97913e-02,2.42404e-01,3.73530e-01,5.80434e-02,-1.16068e-01,-1.64227e-01,-2.14304e-01,1.01802e-01,2.36300e-01,1.49575e-01,-2.48508e-02,2.79210e-02,-8.57072e-02,5.32138e-03,1.43052e-01,1.08356e-01,1.54964e-01,-6.30869e-02,1.68713e-01,-1.32987e-02,-9.46574e-02,1.82417e-01,1.02792e-01,2.26547e-01,-3.65650e-02,1.44436e-01,-1.11009e-03,1.97778e-01,1.78689e-01,7.50582e-02,5.48472e-02,1.41271e-01,-2.59963e-02,1.38031e-03,1.21116e-01,-1.00566e-01,
1.26331e-01,1.12440e-01,-1.05265e-01,5.80616e-02,-6.50358e-02,2.38491e-01,1.47563e-01,7.38270e-02,-4.43126e-02,9.17130e-02,1.53819e-03,1.88182e-01,8.56503e-02,-1.99738e-01,-5.75598e-02,2.07756e-01,-2.07430e-01,9.39397e-02,-1.24930e-01,1.62712e-01,2.02577e-02,7.16268e-02,1.59999e-01,-3.95309e-02,-1.07637e-02,2.53032e-02,-7.08465e-02,1.17296e-01,7.53731e-02,-6.18590e-02,1.28338e-01,7.60328e-02,-3.77474e-03,7.39158e-02,-2.58553e-02,-5.98143e-02,-1.94124e-02,1.19004e-01,1.06716e-01,-1.17049e-01,-1.70584e-02,8.99568e-02,2.20900e-01,2.57843e-02,-2.81877e-02,1.15474e-01,9.31565e-02,1.37156e-01,4.69825e-02,3.33294e-02,
-8.55099e-02,-4.37749e-01,1.58464e-01,1.49748e-01,-5.68953e-02,-4.98800e-02,3.91226e-02,2.00394e-02,4.17997e-03,1.35818e-01,-5.46691e-02,-9.31751e-02,-6.20053e-02,-8.51729e-02,-1.13256e-02,1.41856e-01,4.68779e-01,9.32594e-02,2.54497e-02,-4.14260e-02,1.79231e-01,1.95796e-02,7.04938e-02,1.43865e-01,-1.83483e-02,-6.40490e-02,-1.78283e-02,8.78613e-02,2.19672e-01,1.39685e-01,5.61444e-02,-2.30297e-02,4.19027e-01,6.81444e-02,2.47187e-01,5.42006e-02,6.19752e-02,-4.89917e-02,-3.25712e-02,1.59250e-01,-2.51988e-02,-1.86547e-01,8.64420e-02,5.58808e-02,-7.45757e-02,6.99569e-03,-3.79943e-02,-7.92482e-02,1.19656e-01,1.45329e-01,
1.20581e-01,-2.06898e-01,1.71715e-02,1.07137e-01,2.37388e-02,5.17030e-02,2.20290e-01,9.17239e-02,-1.05542e-01,-1.01636e-03,-6.04669e-02,8.07407e-02,-7.93790e-02,-3.50278e-02,5.78443e-02,-1.65873e-01,3.56603e-01,9.34098e-02,1.49580e-01,1.54413e-01,1.48426e-02,2.08055e-02,3.05674e-02,3.99181e-02,6.12713e-02,1.09416e-02,5.61190e-02,1.27167e-01,1.81740e-02,1.89244e-02,1.53015e-01,9.77407e-02,1.68740e-01,3.70810e-02,1.15941e-03,-5.74184e-02,4.75278e-02,-1.59212e-01,1.02262e-01,-7.71370e-02,2.29065e-02,2.05154e-01,-5.19610e-02,-6.93826e-02,-6.30262e-03,4.38712e-02,1.99426e-01,4.11174e-02,8.25528e-02,-7.19814e-02,
-1.51378e-01,1.20758e+00,8.27059e-02,1.07005e-01,-4.93900e-02,1.83554e-01,-3.70252e-02,-5.92432e-02,-7.70897e-02,-6.42514e-01,-1.75766e-01,-3.59291e-01,8.50409e-02,1.55348e-01,2.50808e-01,2.42052e-02,-4.85585e-01,6.56011e-02,4.40514e-02,1.88993e-02,4.77333e-01,-1.02976e-01,-1.66357e-01,-2.96848e-01,2.16019e-01,2.68987e-02,6.16596e-02,1.06697e-01,1.83607e-01,-1.30707e-01,-2.44500e-01,-2.16207e-01,-1.99935e-01,-1.63707e-02,-1.43911e-01,-3.34329e-01,-1.53628e-02,5.70686e-02,2.43742e-01,1.69875e-01,-8.28520e-02,-4.95389e-01,9.80991e-02,-1.16260e-01,-8.93472e-02,1.31766e-01,9.05721e-03,2.67539e-01,4.85909e-02,-2.40690e-01,
-1.08289e-01,-2.91341e-01,2.49099e-02,5.38146e-02,-7.07872e-02,5.81359e-01,-1.27295e-01,-1.39870e-01,1.45763e-01,-1.79157e-01,6.84248e-03,-1.88793e-01,-1.04571e-01,1.43957e-01,-4.06812e-02,1.68639e-01,3.60914e-02,8.00216e-02,-7.50486e-02,5.43376e-02,1.16191e-01,1.23156e-01,1.03325e-01,-2.49807e-01,-3.96344e-02,-6.09114e-02,-5.84102e-01,-1.78940e-01,2.02044e-01,1.81315e-01,1.23590e-01,-5.29014e-02,7.75386e-02,2.17002e-02,1.09016e-01,-2.13597e-01,-5.09827e-02,-6.77268e-02,-6.63993e-02,7.77386e-02,8.26478e-02,-2.20634e-01,1.86655e-02,2.56414e-01,1.47135e-01,-1.06653e-01,3.02440e-02,5.91464e-01,1.67024e-02,-1.39570e-01,
-7.90466e-03,3.55797e-01,9.56461e-02,1.01108e-01,-3.42056e-02,-5.29401e-02,-3.24687e-02,-3.87479e-02,2.90586e-01,-2.93338e-01,4.24721e-01,-6.89571e-02,-5.49990e-02,1.33109e-01,-5.66721e-01,1.59515e-01,-2.78420e-01,2.46077e-02,5.13670e-02,-1.77502e-02,2.03749e-01,3.83441e-02,-1.22542e-01,-1.80759e-01,6.71411e-02,-1.37716e-01,-2.60882e-01,-5.74529e-03,1.61261e-01,2.47621e-01,-7.09367e-02,7.69605e-02,1.68874e-01,-2.69547e-02,8.52067e-02,-1.52846e-02,1.64879e-01,7.31146e-02,-3.24023e-02,6.15230e-02,-1.80309e-01,-4.20646e-01,7.41435e-02,1.37612e-01,1.04075e-01,-1.69692e-01,-3.02670e-02,5.15833e-02,-2.28829e-01,1.94146e-01,
-6.16895e-02,-1.26565e-01,-1.36005e-02,-2.35015e-02,-1.97261e-01,6.77146e-02,8.20891e-02,-9.18158e-02,1.00387e-02,3.09025e-01,-5.98115e-02,2.74517e-01,7.92224e-02,4.06605e-02,4.34105e-02,1.78536e-01,3.36739e-01,-1.03511e-01,-2.89781e-02,1.44420e-01,-2.90637e-03,5.30272e-02,1.95070e-02,1.92750e-01,-3.57381e-02,3.61340e-02,9.74225e-02,1.15417e-01,-2.30881e-01,-2.24892e-01,5.44437e-02,-1.25238e-01,-1.17430e-01,4.83221e-02,-5.17703e-02,7.90437e-02,-1.02213e-01,-5.90181e-02,-2.79582e-02,-2.13106e-01,6.89524e-02,-4.57943e-02,1.22371e-01,-6.72772e-02,-7.96078e-03,1.31727e-01,6.93026e-02,-8.03641e-02,2.06364e-02,-4.80398e-02,
7.24881e-02,2.80867e-02,9.66596e-02,5.04422e-02,-6.28502e-02,3.03589e-02,7.53431e-02,1.46484e-01,-4.51482e-02,2.87436e-02,-9.45595e-02,8.75535e-02,4.31319e-02,-1.22264e-01,2.12224e-01,-1.04336e-01,1.75772e-01,-4.24880e-02,1.71023e-01,1.28019e-01,2.23820e-01,-1.42823e-01,-2.48049e-02,-1.67843e-01,1.53985e-01,1.05290e-01,1.15005e-01,-3.75497e-02,6.10226e-02,4.68236e-02,1.08702e-01,1.30416e-01,9.01533e-02,2.98945e-02,-1.84394e-02,-2.66097e-02,-4.52995e-02,-2.43228e-01,1.01570e-01,-1.91813e-01,1.48841e-01,3.68863e-02,2.27280e-01,-8.76249e-03,7.86420e-02,8.17962e-03,1.88442e-01,9.09590e-02,-2.76895e-02,6.18397e-02,
9.10807e-02,-1.52845e-05,7.19849e-03,1.69578e-01,8.86505e-02,-2.95858e-01,1.64404e-01,-5.41975e-02,1.52448e-01,1.04549e-01,1.80507e-01,5.37589e-02,-1.30619e-04,1.25033e-02,-7.75787e-02,6.87600e-03,-1.05330e-01,3.67435e-02,1.89456e-01,1.64764e-01,1.60754e-02,1.44069e-01,1.41026e-03,1.38303e-02,-3.71699e-02,-4.90443e-02,2.11379e-01,1.85063e-01,9.91216e-02,1.33341e-01,-8.07774e-02,1.09548e-01,5.07025e-02,4.14358e-02,1.57064e-01,1.41646e-01,-1.28575e-01,4.90469e-02,-2.14894e-02,-2.88684e-02,-1.84480e-03,-3.16119e-02,-5.68974e-02,-7.32778e-02,-2.25938e-02,4.05522e-02,-2.06803e-02,-2.52989e-02,-6.28055e-03,2.97813e-02,
7.30244e-02,-1.05810e-01,-1.53759e-02,-8.63715e-02,1.27201e-01,-7.79509e-02,-2.17327e-01,3.36641e-02,1.72682e-02,1.00927e-01,5.18355e-02,8.34859e-02,-3.13113e-02,9.80251e-03,3.39781e-02,1.78437e-01,1.93801e-01,8.22414e-02,-2.45079e-02,-1.54944e-01,7.93210e-02,2.05950e-01,-7.81198e-02,3.01525e-01,3.60045e-02,4.79865e-02,-5.54897e-02,-1.18843e-02,2.37602e-02,1.27692e-01,1.49609e-01,2.31583e-02,7.45539e-02,-1.23786e-01,3.36603e-02,-3.19759e-02,1.81367e-01,2.33152e-01,1.37550e-01,9.93862e-02,1.32106e-01,1.03360e-02,5.11103e-02,6.66243e-02,-5.57776e-02,9.01577e-02,1.05601e-01,-2.11303e-01,1.22594e-01,-1.33859e-01,
2.86475e-02,
4.24395e-01,
3.07577e-02,
3.45436e-01,
-3.83753e-03,
1.28283e-01,
2.28023e-01,
-1.82546e-01,
2.01192e-01,
1.24194e-01,
-1.42059e-02,
4.44809e-02,
3.46112e-01,
1.17312e-01,
5.74757e-02,
1.13529e-01,
-3.22040e-02,
1.14152e-01,
1.30592e-01,
-9.38521e-02,
1.98834e-01,
4.51328e-01,
4.27633e-01,
2.62147e-01,
3.46809e-01,
6.17557e-02,
-7.57348e-01,
4.11316e-01,
1.10950e-01,
-1.36571e-01,
2.19514e-01,
7.28589e-01,
-5.66624e-02,
2.48659e-02,
4.78012e-01,
-8.21232e-02,
-5.25239e-02,
-6.27556e-01,
2.61823e-02,
-2.28545e-02,
1.22767e-01,
1.29247e-01,
2.59585e-01,
-4.51912e-01,
-5.54714e-01,
-3.42539e-01,
2.85570e-02,
3.00791e-01,
-6.28570e-03,
1.65855e-01,
-5.02106e-01,-5.45317e-01,-2.61476e-02,1.54939e-01,-1.26735e-01,4.54407e-02,1.05787e-01,-2.29837e-01,3.93909e-02,6.94837e-02,-1.16041e-01,-6.94456e-02,-7.08078e-01,-2.11323e-01,3.63873e-02,1.20405e-02,1.08604e-01,8.38225e-03,6.28882e-02,5.15183e-02,-5.89472e-03,4.31787e-01,3.25326e-01,-7.76979e-02,1.12921e-01,-2.37444e-02,-1.45351e+00,4.12188e-01,4.74844e-02,9.78095e-01,1.33872e-01,-1.79457e-02,-8.46032e-02,-2.52458e-02,-3.43643e-01,9.07694e-02,3.43488e-01,5.18692e-01,5.51199e-02,6.29515e-02,-1.12764e-01,1.41525e-01,1.68116e-01,-4.90864e-01,-6.11467e-01,-1.64059e-02,1.80959e-01,1.95650e-02,-1.05407e-01,1.15686e-01,
-2.47458e-01,-2.06958e-01,-1.06267e-01,1.53263e-01,-1.24131e-01,-1.19301e-01,7.49296e-02,2.69679e-01,8.42474e-02,4.53539e-01,-4.15795e-02,8.65284e-02,-1.03978e+00,2.24185e-01,7.84438e-02,2.96288e-02,-4.18885e-02,-4.65917e-02,-3.13687e-02,-2.02264e-01,1.70273e-01,-5.32670e-01,4.86694e-01,-1.41374e-02,1.12028e-01,8.34106e-02,3.89007e-01,-1.24918e-01,1.65986e-01,-2.17681e-01,-6.99540e-02,7.18370e-01,-3.18505e-02,-5.29268e-02,5.10364e-01,8.15061e-03,-3.59854e-01,9.21192e-01,-1.06703e-02,-1.95353e-02,4.00641e-02,-1.62704e-01,9.59734e-02,3.88436e-01,2.45906e-02,-3.40328e-01,2.75240e-01,7.73684e-02,-1.13796e-01,3.88412e-03,
1.68640e-05,-4.59350e-03,2.24003e-01,1.17324e-02,1.94935e-01,-1.33042e-01,-1.87113e-01,2.59507e-03,7.63224e-02,-1.73130e-03,2.65943e-02,-1.95673e-01,-4.83361e-03,-4.65748e-03,1.56860e-01,1.81881e-01,1.86515e-01,-2.63322e-01,1.91845e-01,-2.34649e-01,1.99403e-01,1.17394e-02,1.71110e-04,-2.34388e-01,-1.60693e-01,-1.73853e-01,-7.55304e-03,-2.34743e-03,1.59838e-01,-3.63531e-03,-1.44696e-01,-5.39233e-03,-1.08277e-01,-4.44767e-02,9.42422e-03,-7.12880e-02,-1.03970e-02,1.01461e-03,3.07077e-01,1.54834e-01,-1.39069e-01,-9.21458e-03,-1.92052e-01,3.75616e-02,-5.15960e-04,9.35741e-04,-1.01862e-02,-2.82576e-01,-4.94720e-02,2.01530e-01,
-2.46918e-03,8.05853e-03,-1.56005e-01,2.06149e-01,6.89489e-02,-1.58920e-01,-3.66830e-02,-7.78671e-03,-2.67605e-01,1.04133e-04,-1.73877e-01,2.79129e-01,-3.34875e-03,6.09360e-02,-8.67428e-02,2.23381e-01,1.24887e-01,2.30604e-02,3.24171e-01,1.49025e-01,5.13432e-02,-1.21713e-02,-1.23506e-02,-1.03597e-01,1.23884e-01,-2.79820e-01,4.29051e-03,-1.82374e-03,-1.24067e-01,6.28350e-04,-1.69459e-01,4.13714e-03,5.77068e-02,3.16679e-01,-8.48566e-03,-4.05118e-02,1.74315e-02,4.43099e-03,-1.54633e-01,-1.72426e-01,-2.31969e-01,1.33932e-02,1.39647e-01,-4.12025e-02,1.11502e-02,-8.77467e-03,2.68325e-02,8.56268e-03,1.76015e-01,-6.80955e-02,
1.12392e-01,
1.39012e-01,
3.70068e-02,
1.15134e-01,
