// Neural Network File Format by Kyle Julian, Stanford 2016
2,6,4,300,
6,300,4,
0,
0
0
0
0
3.75595e-01,-1.09733e-02,5.37272e-01,1.69297e-01,4.05243e-01,-1.27892e-01,
-2.20871e-01,5.65639e-02,2.66335e-01,-3.28013e-01,-1.82647e-01,1.34820e-01,
-3.03278e-01,4.76409e-02,-7.49504e-02,3.01350e-01,-3.41402e-01,-5.47967e-01,
-1.73138e-01,-2.11426e-01,2.74170e-01,5.25532e-01,-1.31558e-01,4.71624e-03,
2.37835e-01,-3.23252e-01,3.49250e-01,4.19470e-01,3.56511e-01,-3.85259e-01,
8.82775e-02,1.27507e-02,8.53214e-01,-1.06426e+00,3.18584e-02,-6.04551e-02,
-2.21130e-01,-1.09130e-01,3.98622e-01,5.21932e-01,3.38656e-01,1.19792e-01,
-1.18462e-01,3.07559e-01,2.11547e-01,2.77709e-01,-2.29236e-01,-5.87377e-01,
-2.24471e-02,-2.78128e-01,-1.67693e-01,5.29356e-01,-2.60991e-01,-1.13420e-02,
2.77459e-01,1.02828e-01,-2.86432e-01,-9.72689e-01,1.16618e-01,1.06205e-01,
8.09816e-03,7.60296e-03,5.58515e-01,-7.79198e-01,4.54086e-02,-4.34423e-02,
1.59315e-01,-1.55344e-02,3.00672e-01,-4.83535e-01,-5.69714e-02,-4.16019e-02,
3.95101e-03,2.02835e-03,4.54830e-01,9.45213e-01,4.94569e-02,4.09713e-02,
-2.92436e-01,3.22906e-01,6.88539e-02,-4.97360e-01,-3.00606e-01,-3.39877e-01,
1.41221e-01,2.39809e-01,-2.75437e-01,3.16099e-01,-3.55096e-01,2.60167e-01,
-3.59508e-01,-1.18443e-01,3.04383e-01,-5.36338e-01,3.09642e-01,1.58085e-01,
1.50481e-01,9.35682e-02,-5.91095e-01,-6.10132e-01,2.56865e-01,-3.33559e-01,
1.76112e-01,-2.51200e-01,5.33812e-02,3.96448e-01,2.79290e-01,-1.89650e-01,
1.40843e-01,-2.05082e-01,1.41370e-01,1.78376e-01,-2.68496e-01,2.57015e-01,
1.26099e-02,-2.48900e-02,-4.34339e-01,-1.15877e+00,-4.20494e-02,-5.04894e-02,
1.15446e-01,3.03787e-01,-6.20264e-01,-4.96694e-01,-1.67076e-02,-9.98783e-02,
-3.71044e-01,-2.64058e-01,3.45346e-01,1.36910e+00,-3.21931e-01,2.78154e-02,
3.00609e-02,-8.25437e-02,-3.97562e-01,6.21722e-01,-3.67356e-01,-1.07200e-01,
1.03906e-01,1.63415e-01,2.76628e-01,-2.71523e-01,1.14093e-01,3.31999e-01,
-1.63709e-01,2.44257e-01,1.93341e-01,6.86250e-01,-3.95707e-01,3.10433e-01,
-2.72449e-01,2.69196e-01,-3.48845e-01,2.01193e-01,1.84692e-01,-1.74269e-01,
8.51088e-02,-4.68431e-03,4.69389e-01,4.50575e-01,2.66659e-01,-3.29474e-01,
-4.99580e-02,3.54207e-01,1.27362e-01,-2.73125e-01,1.67488e-01,4.09783e-01,
-2.21630e-01,-1.20500e-01,1.70120e-01,4.74928e-01,-4.81786e-01,3.35963e-01,
-1.80201e-01,2.19581e-01,2.18901e-01,-6.97905e-01,3.29991e-01,2.61284e-01,
3.27960e-01,-3.17496e-01,-3.86367e-01,2.26590e-01,2.88103e-01,-5.59132e-01,
-1.57940e-01,-4.16112e-02,7.94122e-01,-1.20730e+00,-1.04537e-02,-2.42893e-01,
3.22611e-04,2.78864e-03,-4.16211e-01,1.55463e+00,-6.05514e-02,6.18482e-02,
-1.08421e-01,-1.58821e-01,2.05936e-02,-4.59230e-01,7.86628e-02,-1.35000e-01,
2.97869e-01,2.46655e-01,-1.21433e-01,1.76095e-02,-2.37575e-01,5.23856e-01,
2.37798e-02,9.11912e-02,2.82126e-01,8.60770e-01,1.73804e-01,5.64653e-02,
2.64981e-02,-6.67866e-02,6.31357e-01,1.20766e+00,5.11624e-02,6.35034e-02,
-1.37443e-01,2.58442e-01,-1.25619e-03,6.79259e-01,1.71950e-01,3.38213e-01,
2.21166e-01,2.59739e-01,-2.34900e-01,7.96077e-01,3.39203e-01,3.45133e-03,
-3.23179e-01,-2.55698e-01,1.00353e-01,1.40188e-01,4.10433e-01,-4.94307e-01,
-3.04214e-01,1.31922e-01,-6.48544e-01,-1.17902e-01,3.53390e-01,6.98236e-02,
-1.99251e-01,-1.26309e-01,-2.05994e-01,1.14177e+00,1.70904e-01,8.74910e-02,
-3.64024e-01,1.79061e-01,-2.96860e-01,5.36496e-01,-3.54731e-02,1.46728e-01,
-2.07179e-01,-1.49318e-01,2.53511e-01,1.77315e-01,-3.83402e-01,-3.94674e-01,
9.55578e-02,-1.01840e-01,3.20223e-01,4.39547e-01,3.29800e-02,8.32606e-02,
-2.55897e-01,3.00864e-01,-2.04095e-01,4.71640e-01,2.18208e-01,-3.38017e-01,
-1.58867e-01,2.61931e-01,5.21252e-01,-4.55877e-01,-3.95357e-01,5.48292e-02,
6.79024e-02,-4.30427e-03,9.00404e-01,-9.32949e-01,1.64626e-02,-6.12755e-02,
-2.25475e-01,-2.54189e-01,-2.48330e-01,2.34625e-01,4.45102e-01,3.46733e-01,
2.35060e-01,-2.69352e-01,-1.79484e-01,4.43142e-01,2.14250e-01,-2.40879e-01,
-3.47555e-01,-2.76939e-01,1.61856e-01,-1.36384e-01,3.72855e-01,1.52015e-01,
-2.53829e-01,3.09488e-01,-1.89250e-01,-4.24919e-01,-3.41310e-01,3.28654e-01,
-1.34982e-01,4.52791e-01,-1.73471e-01,-3.18635e-01,1.55768e-01,2.42546e-01,
2.61266e-01,-3.27926e-01,9.62199e-02,2.04163e-01,8.70868e-02,1.31297e-01,
2.23535e-01,-8.30919e-02,1.44794e-01,8.41914e-01,-2.13804e-01,-4.27671e-02,
2.68925e-01,-3.47564e-01,4.00687e-01,2.24215e-01,9.77151e-02,-1.75020e-02,
2.23495e-01,3.43646e-01,7.58047e-03,5.53149e-02,4.47780e-01,-2.33021e-02,
-7.92023e-02,-2.91270e-02,7.21823e-01,-1.14631e+00,4.11879e-02,-5.40028e-02,
8.04098e-02,2.31755e-01,1.39021e-01,-7.78700e-01,-8.88157e-02,-3.50788e-01,
-1.96480e-01,-1.32499e-01,2.09758e-01,4.46218e-01,3.41910e-01,-4.20984e-01,
3.44440e-01,1.92873e-01,-5.66829e-01,-1.55086e-01,3.45162e-01,-1.60924e-01,
-3.79235e-01,9.03923e-02,-4.34809e-01,-3.11092e-01,-3.92044e-01,3.51623e-01,
-3.45690e-01,-2.39464e-01,4.40139e-01,-2.56735e-01,-3.66646e-01,5.20295e-02,
-3.22404e-02,-3.19804e-01,1.34997e-01,4.80540e-01,-2.65231e-01,-2.53163e-01,
-2.78235e-01,3.04215e-01,2.82237e-01,-3.79368e-01,-2.46763e-01,3.60767e-01,
-4.03216e-01,-2.86461e-01,-2.62464e-01,-4.15161e-01,5.06046e-01,3.21087e-01,
3.53708e-01,-1.25394e-01,-1.70618e-01,-1.41737e-01,-1.71539e-01,-1.88817e-01,
1.95304e-02,1.67980e-02,1.07121e+00,-4.10041e-01,6.03661e-02,-3.16809e-02,
-6.09556e-02,1.75231e-01,-6.89112e-01,6.69293e-01,6.22801e-02,4.25995e-02,
-8.31656e-02,2.88713e-01,-1.46733e-01,-1.66694e-01,1.99268e-01,-2.58889e-01,
2.30748e-01,-2.83339e-01,-2.14663e-01,2.94269e-01,8.72676e-02,1.50356e-01,
-1.11976e-01,7.53544e-02,4.22266e-01,-8.44636e-01,3.38589e-01,-9.14896e-02,
-9.20134e-02,4.22572e-01,-1.41420e-01,-4.49346e-01,-2.45654e-01,-2.09541e-01,
-2.57749e-01,-2.05837e-01,1.24789e-01,5.42052e-01,3.94385e-01,3.50432e-01,
-1.13296e-01,9.59012e-02,-6.15037e-01,-8.86710e-01,1.02336e-03,-4.37086e-02,
2.03323e-01,2.91311e-01,-5.01055e-01,-4.45760e-01,-9.07483e-02,-3.04447e-01,
-5.54265e-03,7.16945e-03,2.05788e-01,-1.06996e+00,-3.27288e-01,-1.08818e-01,
-1.75555e-01,2.75583e-01,-3.14666e-01,2.90864e-01,-2.06874e-01,-5.93385e-01,
1.15463e-01,2.51228e-01,4.55969e-02,1.09719e-02,-3.93320e-01,2.94660e-01,
-7.29839e-02,3.14909e-01,1.04308e+00,4.33661e-01,3.12817e-01,5.08171e-02,
3.73258e-01,-2.71275e-01,2.20600e-01,5.63808e-02,-3.53791e-01,-3.86756e-01,
3.03145e-01,8.94542e-02,5.12108e-01,-1.19485e-01,1.99702e-01,-1.10426e-01,
2.53948e-01,1.82165e-01,-3.04886e-01,-2.07111e-01,4.59032e-01,4.67280e-01,
-3.31870e-01,-1.76511e-01,2.58438e-01,5.80736e-01,-3.01474e-01,1.24921e-01,
-2.72440e-01,-6.80043e-02,1.68648e-01,6.21125e-01,-4.46003e-01,3.61425e-01,
3.72323e-01,2.12115e-01,4.63295e-01,-4.03116e-01,-4.98364e-01,4.41598e-01,
1.25463e-01,-2.18624e-01,1.99209e-03,-6.53317e-02,1.70568e-01,4.79940e-01,
9.79671e-02,6.77949e-02,-5.12966e-01,-3.84916e-01,1.12607e-01,2.22171e-01,
-2.80656e-01,1.41550e-01,1.09159e-01,-6.31960e-02,-3.18834e-01,4.19141e-01,
2.20429e-01,1.69949e-01,6.31559e-02,-4.27299e-01,4.03250e-01,-2.49037e-01,
2.81847e-01,1.58363e-01,-1.54423e-01,-4.75104e-01,-3.15308e-01,1.00956e-01,
-2.67195e-01,1.90324e-01,-2.50133e-01,3.58473e-01,-7.93196e-02,-3.81231e-01,
-1.63342e-01,2.36626e-01,-3.69550e-02,2.88688e-01,-2.29315e-01,1.41718e-01,
1.83146e-01,1.56616e-01,5.37034e-01,-9.04906e-01,-2.96668e-01,3.53341e-02,
-3.43845e-01,-3.31186e-01,-3.12358e-01,-8.13247e-02,1.30286e-01,2.42102e-01,
-2.29524e-01,-1.89106e-01,1.27142e-01,-1.13617e-01,-1.60270e-01,-1.41246e-01,
-2.15397e-01,-5.22496e-02,5.25401e-01,-7.51393e-01,-2.93561e-02,1.19599e-01,
2.53722e-01,-3.65041e-01,-1.49093e-01,4.02210e-01,1.29936e-01,1.00142e-01,
-3.36081e-02,6.76939e-02,6.54945e-01,1.52720e+00,2.73508e-02,6.00270e-02,
-1.86204e-01,9.12217e-02,4.80283e-01,8.55338e-01,6.58791e-02,8.07075e-02,
-8.53437e-02,-2.78435e-01,1.12187e-02,-3.40520e-01,-3.51166e-01,1.77805e-01,
-2.98112e-01,1.14507e-01,-6.86370e-01,7.23562e-02,-1.52378e-01,1.06309e-01,
4.03361e-01,3.27100e-01,-2.70678e-01,4.20712e-01,3.74469e-01,-1.21962e-01,
2.29264e-03,-3.20672e-01,-8.69142e-02,4.08995e-01,2.48024e-01,1.19022e-01,
1.41949e-01,-3.15659e-01,-1.98623e-01,-3.67956e-01,3.62613e-01,-1.40727e-01,
3.94066e-01,2.81358e-01,1.63689e-01,2.91166e-01,-4.72147e-01,-3.88726e-01,
-9.84009e-02,-6.72290e-02,4.19891e-01,-7.16926e-01,3.82218e-02,-2.04831e-01,
1.17434e-01,8.90324e-02,-6.79784e-01,1.12199e+00,-9.32574e-03,1.75191e-02,
-2.42280e-01,-1.54972e-01,8.84077e-02,-5.09616e-01,-2.42230e-01,1.75933e-01,
1.58924e-01,9.33085e-02,-3.78264e-01,8.25707e-01,2.97904e-01,1.80719e-01,
1.80300e-01,2.44593e-01,3.97642e-01,-1.62447e-01,-4.92301e-01,-2.16175e-01,
-2.55246e-01,-1.39020e-01,2.03716e-01,-9.43127e-01,-6.66212e-02,1.56167e-01,
1.29088e-01,1.44959e-02,6.74501e-01,3.68904e-01,-3.11094e-01,-7.88400e-02,
1.39159e-01,-2.71746e-01,-8.12045e-01,8.03206e-01,-2.38358e-01,-1.42014e-02,
-2.80220e-01,2.90534e-01,-7.35819e-02,6.34641e-01,-2.61040e-01,1.59377e-01,
-7.49238e-02,-3.81345e-01,1.18232e-01,-5.39631e-01,-3.62268e-02,-1.86518e-01,
-2.90509e-01,2.72308e-01,-3.79825e-01,-4.63003e-01,4.48199e-01,2.87949e-01,
3.13205e-01,-9.12228e-03,4.34315e-01,3.14760e-01,1.87145e-01,4.70489e-01,
-2.88500e-01,-1.35915e-01,6.47479e-01,5.21788e-01,-2.47697e-01,1.68976e-01,
-1.13937e-03,-2.98770e-01,1.18252e-03,4.70536e-01,-1.27390e-01,9.41357e-02,
-1.78139e-01,-2.03539e-01,-1.34230e-01,2.11014e-02,1.46094e-01,5.35313e-02,
2.59413e-01,1.23513e-01,-3.67522e-01,-6.18693e-01,-3.72984e-01,4.68456e-01,
-2.42516e-01,1.83119e-01,-5.31306e-01,9.16107e-03,2.35694e-02,9.71932e-02,
2.75447e-01,2.07778e-01,9.15701e-02,-3.23120e-01,-2.92110e-01,-2.10816e-01,
-3.28178e-02,5.35663e-02,-6.96823e-01,7.56751e-01,-1.44368e-01,-2.11440e-02,
3.36484e-01,5.62037e-03,-8.03857e-02,4.41836e-01,1.35159e-01,2.69119e-02,
-3.13685e-01,2.42902e-01,-6.13157e-02,-1.75297e-02,3.63597e-01,3.00323e-01,
1.13200e-01,-6.45914e-02,-5.47818e-01,-1.28507e-01,-2.39703e-01,2.11710e-01,
-2.52941e-01,-1.57151e-01,-1.63579e-01,3.18237e-01,2.71419e-01,3.82905e-02,
5.66709e-03,3.07705e-01,2.27143e-01,4.88018e-01,-1.41714e-01,-3.56572e-01,
2.81710e-01,2.27505e-01,6.63713e-03,-7.47405e-01,2.16399e-01,-1.37403e-01,
3.30066e-01,4.00266e-02,-3.45594e-01,4.24501e-01,-2.66777e-01,-1.01400e-01,
2.59229e-01,-3.10338e-02,-4.13515e-02,-8.58753e-01,-8.32591e-02,-2.20586e-01,
-2.34693e-03,5.08215e-03,1.86057e-01,5.50393e-01,1.36816e-02,1.83778e-02,
1.86838e-01,-2.47856e-01,2.75021e-01,-6.03140e-01,-1.65537e-01,-3.29378e-01,
-2.57553e-01,-1.44179e-01,-1.22997e-01,-4.37198e-01,3.32720e-01,-3.23615e-01,
-3.50198e-01,-3.10600e-01,1.32528e-01,-4.18350e-02,2.76637e-01,-6.23602e-01,
-1.40861e-01,-4.28074e-02,1.19118e+00,-4.96642e-01,6.22961e-03,-1.94446e-01,
-3.59168e-01,2.93389e-01,-2.76510e-01,1.18878e-01,-2.00956e-01,2.73676e-01,
7.76922e-02,2.06685e-01,5.22641e-01,-3.31774e-01,-3.83795e-02,-3.35932e-02,
-2.49455e-02,2.35846e-01,6.99216e-01,4.16771e-01,-1.74181e-01,2.04338e-02,
-2.85757e-02,-3.43658e-02,4.68344e-01,-1.09923e+00,7.99102e-02,-7.56860e-02,
-3.53757e-02,3.64770e-02,-4.84447e-01,3.52295e-01,-3.24236e-02,2.92559e-02,
3.22255e-01,-1.28334e-01,4.09803e-01,6.95197e-01,1.35012e-01,-4.28338e-02,
3.15992e-01,-3.50443e-02,5.64434e-01,3.57636e-01,2.67445e-01,-2.46106e-01,
-2.91856e-02,4.16617e-02,-5.00188e-01,-1.07384e+00,-6.27128e-02,-5.15572e-02,
6.32812e-02,4.00759e-03,4.17006e-01,3.23596e-01,1.96408e-01,8.50292e-02,
-1.54323e-01,-2.90589e-01,2.90621e-01,1.28328e-01,-3.44809e-01,1.17216e-01,
1.00958e-01,-5.57983e-02,1.75107e-01,-1.19371e-01,-9.08019e-03,-8.24436e-03,
-2.70891e-01,-3.42936e-01,-1.94446e-04,-3.95920e-01,1.45736e-01,5.14475e-01,
-2.82515e-01,-2.01067e-01,-1.82266e-01,-1.24967e-01,3.10952e-01,3.47126e-01,
-1.51676e-01,-1.95904e-01,-3.90176e-01,1.08492e-01,3.65116e-01,1.17734e-01,
-2.70733e-01,-7.07893e-02,1.60952e-02,2.20777e-01,2.33428e-01,8.71514e-02,
2.29338e-01,-2.59313e-01,2.59290e-01,-3.45106e-01,-1.80210e-01,3.25943e-01,
7.09470e-04,-5.15667e-03,2.85637e-01,-1.11872e+00,4.44014e-02,-5.21465e-02,
-2.24535e-01,-7.79704e-02,9.68147e-02,5.07740e-02,3.55767e-01,-2.26968e-01,
1.72611e-01,2.63696e-01,-5.59296e-01,-2.34455e-01,-4.41154e-02,-6.34512e-04,
1.03277e-01,-1.25579e-02,-3.98992e-01,7.21054e-01,-8.25365e-03,-1.59702e-02,
2.85500e-01,-2.69962e-01,1.42297e-01,-5.60086e-01,1.24118e-01,5.46112e-01,
2.31210e-01,1.73912e-01,-2.77782e-01,-6.44723e-01,1.60994e-01,-3.23888e-01,
-4.20831e-02,3.30555e-01,-1.64136e-01,-6.71855e-01,3.74728e-01,-4.59508e-02,
2.66307e-01,3.34144e-01,-3.34408e-02,3.63762e-01,-1.41810e-01,-4.78479e-01,
4.77942e-02,1.85455e-01,1.74732e-01,-5.49593e-01,-1.68717e-01,1.45572e-01,
3.11843e-01,-3.51506e-01,-1.54295e-03,6.15117e-01,4.43703e-01,4.11329e-01,
3.20534e-01,6.71142e-02,3.80597e-01,9.79448e-01,-3.13584e-01,-2.23062e-01,
2.55739e-01,1.82096e-01,-1.96206e-01,-5.47011e-01,-3.85798e-01,-2.91764e-01,
9.33482e-02,-1.38195e-01,2.20904e-01,8.44424e-01,-8.13967e-02,-3.09502e-02,
3.56476e-01,1.56127e-02,9.06983e-01,1.19675e+00,3.09746e-02,8.21963e-02,
2.04491e-01,-4.86827e-02,-3.32006e-01,1.30142e+00,-4.23754e-01,2.08151e-01,
-3.54327e-02,3.95573e-01,-1.93191e-01,3.69207e-02,3.55194e-01,-1.20816e-01,
-3.03543e-01,1.88541e-03,-1.25111e-01,2.47404e-02,-2.73757e-01,-4.37293e-01,
3.57637e-01,1.50404e-01,4.60767e-01,-5.74604e-01,-3.67670e-01,8.99674e-02,
6.85371e-02,-2.67049e-01,3.67707e-03,-3.23470e-01,1.33917e-01,3.82668e-01,
2.48059e-01,-2.58359e-01,7.75837e-02,-1.08973e-01,2.09756e-01,-1.13637e-01,
1.50517e-02,3.39731e-01,7.56432e-02,-5.81060e-01,8.54284e-02,-7.69776e-02,
4.20218e-02,-2.17464e-01,2.14632e-01,1.02018e-01,-1.95675e-01,3.19352e-02,
-3.49478e-01,3.66331e-02,-8.92309e-01,1.80190e-01,-1.13015e-01,8.11054e-02,
-2.01209e-02,-1.81933e-01,-2.75230e-01,6.39431e-01,-2.56041e-02,-4.88243e-01,
3.37197e-01,-1.77330e-01,1.14990e-01,-9.39583e-02,4.09499e-01,-6.65379e-01,
3.65920e-01,7.06081e-04,2.20055e-01,2.21909e-01,-3.39018e-01,-3.50812e-01,
-4.40542e-02,5.08527e-02,-8.55356e-02,-5.70744e-01,-2.11897e-01,-1.61318e-01,
8.75005e-02,-1.52603e-01,-4.82855e-01,5.80101e-01,1.74525e-01,-1.89943e-01,
1.49979e-01,-1.68858e-01,3.98257e-01,9.98396e-01,-1.11054e-01,-8.43585e-02,
-1.13596e-01,-8.18371e-02,8.12266e-01,-4.76768e-01,-2.30666e-02,1.36747e-01,
-2.44952e-01,-2.33407e-02,-6.91525e-01,-1.53649e-01,-2.45601e-01,1.02657e-01,
2.24752e-01,-3.16476e-01,-1.54919e-02,-3.35587e-01,2.11693e-01,-2.15915e-01,
-1.20645e-01,-1.74209e-02,1.60597e+00,-5.63088e-01,4.02547e-02,-1.47147e-01,
-2.78004e-01,-5.98029e-02,-7.57553e-02,8.16916e-01,3.89566e-01,-9.99841e-02,
2.37862e-01,-2.56982e-01,4.36963e-02,-3.93976e-01,-2.79448e-01,-3.03629e-02,
4.51164e-02,-1.91545e-03,-7.84051e-01,1.27816e+00,-5.83802e-02,7.82019e-02,
2.98071e-01,-2.66265e-01,3.51440e-01,4.37968e-01,-4.50585e-01,-3.22586e-01,
3.46832e-02,-5.17037e-02,1.14923e+00,8.24656e-01,1.44717e-01,4.49267e-03,
-1.78858e-01,2.08735e-01,8.89820e-02,-4.53004e-01,-3.88862e-01,-2.30149e-01,
-1.47301e-01,1.10739e-01,2.68435e-01,-2.98048e-01,1.61500e-02,7.31399e-02,
-1.34531e-01,1.62410e-01,1.70190e-01,-5.56612e-01,-4.32056e-01,2.12770e-01,
-9.36662e-02,-7.08162e-02,-2.83409e-01,8.48851e-01,-2.80554e-01,3.45570e-02,
1.75875e-01,3.17522e-02,-5.78453e-01,-5.78458e-01,-4.55267e-01,1.15916e-01,
-2.45238e-01,2.94463e-01,8.67015e-02,-1.91847e-01,2.84831e-01,-5.73098e-01,
1.67650e-01,-1.00844e-01,9.01492e-02,5.33826e-02,-2.24884e-01,5.41988e-03,
-1.21604e-01,2.16701e-01,2.51057e-01,4.47590e-01,3.40597e-01,-2.75132e-01,
-2.21028e-01,9.99082e-02,5.04271e-01,-5.74890e-01,3.63085e-02,-6.29045e-02,
2.22408e-01,1.68078e-01,-1.65128e-01,-1.01012e+00,3.73451e-02,3.20148e-01,
-1.85112e-01,-3.74137e-01,1.24164e-01,-4.78913e-01,-5.06159e-01,-5.97282e-01,
-2.07159e-01,-2.98553e-01,-3.08816e-02,1.74608e-01,3.11390e-02,6.74219e-02,
-1.84134e-01,2.97817e-01,-4.05680e-01,-5.33664e-01,1.34502e-02,1.32282e-01,
-2.87779e-02,5.77267e-02,-6.19874e-01,-1.34224e+00,-4.02260e-02,-7.00650e-02,
-2.91187e-01,-2.44098e-01,1.69414e-01,1.02150e-01,-4.51268e-01,-2.52148e-01,
-3.10321e-01,-2.43952e-01,3.60493e-02,4.99923e-01,3.35245e-01,2.75679e-01,
1.10998e-01,2.15150e-01,-7.37944e-02,2.81976e-01,2.95064e-01,3.49099e-01,
2.33295e-01,-2.52287e-01,-2.84132e-02,-7.14400e-02,1.67062e-01,-2.02901e-01,
3.35364e-02,-3.05252e-01,-1.40659e-01,2.18455e-01,-2.27236e-01,2.74581e-01,
3.60535e-01,7.32430e-02,5.99884e-01,1.32572e+00,4.50598e-02,1.44664e-01,
-3.58696e-01,-1.62969e-01,-2.69228e-01,3.40822e-01,4.73677e-01,-4.06224e-01,
-9.56050e-02,2.61318e-01,-1.79103e-01,-3.04018e-01,-3.33793e-01,3.20683e-01,
3.08837e-03,8.27205e-04,-2.87900e-01,-9.62914e-01,-2.24021e-02,-3.95907e-02,
1.43019e-01,-3.58038e-01,-3.68549e-01,-3.14633e-01,5.31528e-02,-1.72593e-01,
2.88795e-01,2.67962e-01,9.31039e-01,2.23193e-01,-1.16723e-01,2.60655e-01,
-1.18245e-01,1.44479e-01,2.65463e-01,-8.62716e-01,7.94298e-03,-1.69339e-01,
-1.01950e-01,-1.96009e-01,-6.29072e-01,4.22844e-01,-1.03258e-02,4.45694e-02,
-2.99873e-01,-8.71332e-02,-5.32135e-01,-2.38032e-01,-2.29180e-01,-5.20099e-01,
1.65710e-01,-1.48089e-01,3.24856e-01,8.18325e-01,4.97638e-01,-4.08114e-01,
-2.49978e-02,5.20290e-02,6.05194e-01,1.22481e+00,4.47023e-02,6.51813e-02,
-1.65534e-01,-2.28913e-01,2.84121e-01,1.33349e-01,-2.06552e-01,1.22600e-01,
3.16542e-01,-2.31633e-02,6.89304e-02,3.35018e-01,4.03548e-01,-3.38155e-01,
3.40618e-02,-3.90370e-02,-2.49569e-01,1.20174e+00,3.96033e-01,1.58487e-01,
2.96498e-01,2.44383e-01,-1.26348e-01,-2.20211e-01,2.22860e-01,-1.71125e-01,
1.22566e-01,-2.30020e-01,-1.66330e-01,-3.74862e-01,-2.51911e-01,5.93933e-02,
2.51159e-01,-3.74850e-02,9.02345e-02,-2.36363e-01,2.83369e-01,4.63627e-01,
-1.50077e-02,2.98854e-01,-2.22925e-01,-6.77707e-01,-2.62673e-02,-6.28063e-02,
-2.06040e-01,-3.75589e-01,2.66551e-01,-1.79112e-01,2.99052e-01,4.80079e-01,
-1.92662e-01,-2.73253e-01,4.80112e-01,4.32139e-01,1.39297e-02,2.79027e-01,
-1.11603e-01,3.11386e-02,-4.53475e-02,1.51634e-01,-3.85257e-02,1.69980e-01,
-1.84940e-01,2.16509e-01,4.59829e-01,-1.01083e+00,-1.75132e-01,3.13023e-01,
8.11445e-02,-1.12102e-01,-1.49937e-01,3.35299e-02,-5.48518e-03,-1.19100e-02,
-1.82224e-01,-2.34797e-01,-1.37627e-01,-3.76272e-01,2.27370e-01,-5.92096e-01,
1.96289e-01,1.14111e-01,1.94258e-01,-8.57566e-01,-4.03572e-01,1.02005e-01,
-3.13389e-01,1.74307e-02,-5.79778e-02,-1.87171e-01,2.52353e-01,2.73925e-01,
1.43971e-01,3.24399e-01,-1.11493e+00,-5.11275e-01,-3.09180e-02,-1.12790e-01,
-1.77735e-01,1.62301e-01,2.33088e-01,-1.20255e-01,-1.43336e-01,3.61774e-01,
3.05640e-01,-1.41877e-01,-1.10469e-01,1.10554e-01,3.38821e-01,-3.96943e-01,
2.27913e-01,1.46289e-01,8.64711e-02,-3.97116e-01,4.88113e-01,-4.31948e-01,
-3.79380e-01,-2.42730e-01,-1.10464e-01,5.33449e-02,-2.30787e-02,-1.32648e-01,
-2.25320e-01,5.97936e-02,6.57866e-01,1.41351e-01,4.09424e-01,-3.31059e-01,
-1.45965e-01,-4.24142e-02,7.33756e-01,-1.09451e+00,-4.43333e-02,-2.84728e-02,
3.38275e-03,-3.23580e-03,1.74868e-01,-8.82492e-01,2.45488e-02,-3.50004e-02,
-1.98976e-02,7.87230e-02,-2.58363e-01,-2.76938e-01,4.51589e-01,4.39612e-02,
-7.06798e-02,-9.12504e-02,1.22780e-01,-2.15926e-01,-3.83128e-01,-1.86198e-01,
1.86939e-01,-2.06004e-01,1.26966e-01,-2.57386e-01,-2.31865e-01,-3.20741e-02,
1.87730e-01,2.69734e-01,-7.12809e-02,8.51393e-01,-9.15163e-02,2.34602e-01,
1.58410e-01,1.24709e-01,-8.03861e-02,4.86447e-01,1.13484e-01,-6.75982e-02,
-2.96399e-01,-2.34263e-01,2.10743e-02,3.03027e-01,-6.41852e-02,-3.80123e-01,
2.02341e-01,1.22468e-02,-2.78622e-01,4.64160e-02,-3.77907e-01,4.37093e-02,
-1.27088e-01,1.01824e-01,6.97434e-02,-1.03665e-01,-1.63059e-02,-4.92299e-01,
-1.12182e-01,1.79806e-01,1.36960e-02,6.40720e-01,-1.46308e-01,-2.83592e-01,
3.13672e-02,5.05299e-04,3.00770e-01,9.13945e-02,-1.12365e-01,3.93262e-01,
-3.65568e-01,7.76419e-02,-3.89925e-01,-3.70755e-01,-2.01345e-01,-5.88486e-01,
1.90346e-01,1.39042e-01,-4.81283e-01,5.96240e-01,7.50371e-02,-1.55587e-01,
-1.68126e-01,1.14214e-01,-4.17904e-01,-3.46239e-01,1.59077e-01,2.82991e-01,
9.64770e-03,3.82516e-01,8.44988e-02,-3.33315e-01,-3.00863e-01,-1.56792e-01,
1.13710e-01,-1.21008e-01,3.88903e-01,-6.35815e-01,2.00789e-01,1.32539e-01,
3.96084e-02,-3.21959e-02,1.60955e-01,1.74588e-01,-1.71652e-01,5.91524e-01,
-2.65772e-01,-1.54600e-01,1.31509e-01,-4.63791e-01,-1.86056e-01,-3.35225e-01,
1.44443e-01,2.28845e-01,-1.37730e-01,-2.63942e-01,-1.05772e-01,3.77011e-01,
2.40196e-01,-4.65301e-02,1.40445e-01,3.36861e-01,1.91142e-01,5.47560e-01,
3.70364e-01,-1.23625e-01,1.13707e-01,-8.44348e-02,-1.55031e-01,-2.13689e-01,
-1.36109e-02,3.39009e-02,-4.13501e-01,-9.95929e-01,-1.83129e-02,-5.02897e-02,
1.16728e-01,2.21483e-01,6.32011e-02,-9.22785e-01,7.03713e-02,9.01247e-02,
1.02975e-01,-3.14846e-01,1.20926e-02,4.29935e-01,-1.78645e-01,-4.62312e-01,
1.75976e-01,1.39616e-01,-7.88134e-02,-7.33629e-02,-2.59935e-01,2.79970e-01,
-1.03985e-03,6.12672e-03,-4.56713e-01,1.40964e+00,-6.55382e-02,5.71583e-02,
-2.89097e-01,-2.21300e-01,-1.19062e-01,5.06068e-01,-4.91841e-01,3.24885e-01,
3.12161e-01,9.48047e-02,-2.80331e-01,-7.10634e-01,5.66160e-01,-3.62170e-01,
3.47867e-01,-3.32030e-01,1.69242e-01,5.59265e-01,3.10032e-01,-3.08371e-01,
-2.16948e-01,-3.18503e-02,5.97065e-01,-9.84851e-01,-3.17491e-01,-2.45234e-01,
-1.35182e-01,-2.85531e-01,-1.75070e-02,-2.86487e-02,4.58791e-01,-3.18541e-01,
-1.40202e-01,-2.24210e-01,2.31218e-01,-3.00249e-01,3.37928e-01,-2.39660e-01,
2.63300e-01,1.83581e-01,-2.80110e-01,-1.75267e-01,3.20521e-01,-1.15944e-01,
-2.44442e-01,-2.78345e-02,2.20491e-01,-1.09973e-01,4.38036e-01,-5.78814e-03,
2.29012e-01,-2.77977e-01,-8.73601e-02,1.61951e-01,-2.45691e-01,5.60861e-01,
-1.12144e-01,-4.64634e-03,7.37356e-01,-9.28471e-01,-4.31290e-02,-1.10722e-01,
1.64285e-01,-1.62313e-01,9.16104e-02,-2.59764e-01,1.22373e-02,-1.18496e-01,
2.80542e-02,1.94753e-02,1.37900e+00,-6.78991e-01,4.13967e-02,-4.01630e-02,
1.43272e-01,1.34609e-01,2.63253e-01,7.88248e-01,-3.77042e-03,-8.89321e-02,
1.53382e-01,6.93744e-03,-2.85858e-02,1.37785e+00,1.07170e-01,-1.80407e-01,
2.58351e-01,1.81560e-01,1.40779e-01,4.48335e-01,-3.73169e-01,2.95712e-01,
2.64162e-01,-2.07008e-02,5.94081e-02,1.29835e-01,-1.86217e-01,5.22554e-01,
1.52497e-02,-2.00995e-01,1.09129e-01,-1.14269e-01,-2.19595e-01,1.02562e-01,
-3.16015e-01,6.10523e-02,-6.61654e-01,-8.80024e-01,-2.47649e-02,-3.21922e-02,
-2.82707e-01,-6.13437e-02,2.88623e-01,-3.29490e-03,3.90420e-01,-6.28956e-01,
2.91635e-01,-2.71262e-01,-8.40966e-02,-5.19950e-02,-4.45668e-01,-3.62365e-01,
-1.49325e-03,-3.61500e-01,-3.21751e-01,-5.84473e-01,1.87446e-01,3.13590e-01,
-2.06798e-01,-3.28775e-01,2.03782e-01,4.01999e-01,1.55982e-01,-5.27715e-01,
1.33852e-02,-3.81045e-01,1.53157e-02,1.98118e-01,4.70497e-01,-4.95824e-01,
8.21348e-02,3.03078e-01,-1.43301e-02,3.49120e-01,3.81953e-01,-2.07471e-01,
-1.74486e-01,2.67843e-01,-9.70880e-02,2.54923e-01,3.46282e-01,8.79331e-02,
-1.13755e-01,-2.24141e-02,-1.96832e-02,-9.78616e-01,-7.07304e-02,1.06390e-01,
-2.57821e-01,1.41144e-01,4.20109e-01,1.01642e-01,-6.37809e-02,1.28077e-01,
1.37026e-01,-2.10376e-01,-5.49702e-01,-1.63424e-01,-3.29168e-01,-2.69592e-01,
1.60915e-01,-1.51464e-01,-3.18007e-01,4.49287e-01,1.68073e-01,-3.21986e-01,
1.10172e-01,-5.92531e-02,-4.19549e-01,4.76789e-01,2.91906e-01,1.98215e-01,
-4.06137e-01,
-1.81804e-01,
-3.65485e-01,
-4.28871e-02,
3.24343e-01,
1.03404e+00,
1.10059e-01,
-7.87442e-02,
-4.67939e-01,
-1.43993e-01,
1.97214e+00,
6.69604e-01,
-2.31346e+00,
-3.91095e-02,
-3.03794e-01,
4.43324e-01,
2.05621e-01,
-6.94720e-03,
-5.55541e-02,
-1.99901e+00,
5.05076e-02,
6.47443e-02,
2.19561e-01,
3.58856e-01,
7.21444e-02,
2.36866e-01,
3.20345e-01,
-3.44472e-01,
-1.65679e-01,
2.93152e-01,
-2.84440e-01,
2.41745e-02,
7.05131e-01,
1.37916e-01,
-6.75099e-02,
4.29595e-01,
-6.60871e-01,
1.05037e-01,
-1.41924e-01,
1.23839e-01,
-7.53955e-02,
4.62809e-01,
2.26544e-01,
8.94506e-02,
-8.62509e-04,
2.41024e-01,
-2.65877e-01,
-1.41233e-01,
-4.57471e-01,
-7.90569e-02,
-1.23215e-02,
-2.59363e-01,
-1.78873e-02,
-3.66806e-01,
5.91242e-01,
-1.46081e-01,
-1.45120e-01,
-8.05103e-02,
-2.17138e-01,
-2.91075e-01,
-3.18255e-02,
1.24579e-01,
-1.33992e-01,
2.33360e-01,
5.42479e-01,
8.87402e-02,
6.91320e-02,
9.03764e-01,
-5.25998e-01,
-1.31298e-01,
4.94345e-02,
-5.35238e-02,
2.26665e-01,
1.01540e-01,
-2.03962e-01,
-5.75202e-03,
4.18626e-01,
3.22482e-01,
2.12573e-01,
-2.94924e-01,
-1.86208e-01,
-2.41473e-01,
-9.58734e-02,
-4.87954e-02,
-1.54516e-01,
1.30703e-01,
-1.47325e-02,
-8.94018e-02,
-1.77020e-01,
-7.02404e-02,
-1.83139e-01,
8.31316e-02,
-7.54049e-02,
-2.52631e-01,
-4.60011e-02,
4.64005e-02,
-5.99132e-01,
-2.17779e-02,
6.22586e-01,
8.20846e-02,
-1.13036e-01,
1.78435e-01,
3.54346e-02,
-7.68059e-02,
2.12521e-01,
-5.18420e-02,
3.32417e-02,
9.53172e-03,
4.85391e-01,
5.80973e-02,
8.00810e-02,
-3.42458e-01,
4.47017e-01,
3.09906e-01,
3.80831e-01,
3.21357e-01,
-4.28225e-01,
6.24504e-02,
-5.51925e-02,
3.26604e-01,
-2.69886e-01,
3.14794e-01,
1.74872e-01,
-1.24545e-01,
-7.04366e-02,
-8.76439e-02,
1.47048e-01,
1.46839e-01,
2.55051e-01,
2.82585e-03,
6.94639e-02,
-2.48035e-01,
1.47868e-02,
1.86896e+00,
-2.87277e-01,
2.83739e-01,
7.80074e-02,
-4.25334e-01,
-6.86306e-02,
9.98166e-02,
2.66406e-01,
-1.54962e-01,
1.42323e+00,
1.40778e-01,
-6.88211e-02,
1.41392e+00,
6.62880e-01,
5.75795e-01,
8.60114e-01,
-3.40720e-02,
-1.24324e-02,
9.77170e-03,
4.51838e-01,
-2.46367e-01,
-1.46109e+00,
-4.54730e-01,
1.63257e-01,
-1.30250e+00,
-1.21091e-01,
7.51431e-02,
2.73792e-01,
4.59013e-02,
1.16835e-01,
6.75370e-02,
3.06273e-01,
-9.07151e-02,
-1.03184e+00,
-1.26090e-01,
-7.27616e-02,
-5.45877e-02,
-3.01551e-01,
-3.78929e-01,
-2.35096e-01,
4.92176e-01,
9.53045e-02,
-2.47683e-02,
3.78334e-01,
-5.56585e-01,
2.06168e-01,
1.31085e-01,
-5.98373e-01,
2.29965e-01,
2.15149e-01,
-3.03408e-01,
2.67650e-01,
-2.38743e-01,
-6.84444e-01,
3.94444e-01,
-5.09497e-01,
-1.46604e+00,
2.82047e-01,
-2.81733e-02,
-6.43411e-02,
-1.14422e+00,
-3.02179e-01,
7.92042e-02,
-9.33505e-03,
-1.22322e-02,
2.76297e-02,
-2.84008e-01,
4.31154e-01,
-6.60102e-02,
8.97393e-02,
-8.30542e-02,
-1.81008e-02,
-6.22218e-01,
4.01813e-02,
1.67045e-01,
-7.07195e-02,
-7.12324e-01,
7.88980e-02,
1.12889e-01,
-2.84827e-01,
-1.17571e-01,
-2.56885e+00,
-1.09348e-01,
-1.50231e-01,
-2.23870e-01,
3.34289e-01,
-5.54749e-02,
1.40388e-01,
-1.14824e+00,
-8.81747e-01,
-2.18781e-01,
-4.81931e-01,
-5.30467e-02,
3.21616e-01,
2.83243e-01,
-4.88826e-02,
-2.80243e-01,
9.21761e-02,
4.09529e-01,
6.79159e-02,
-1.47691e+00,
-1.18108e-01,
-1.37365e-01,
-7.68671e-03,
1.90730e-01,
1.97098e-01,
1.46298e-01,
2.67313e-01,
-1.07850e-01,
-1.81487e-01,
-4.06020e-02,
-2.10631e+00,
-9.81208e-02,
3.40410e-01,
2.91847e-01,
-1.94611e-01,
6.97689e-01,
-1.61263e-01,
-8.02933e-02,
-2.57034e-02,
-3.42844e-03,
1.98679e-01,
7.37240e-02,
5.27344e-01,
1.10592e-01,
1.06349e-01,
-1.74285e-01,
2.21606e-01,
2.90540e-01,
-1.84651e-01,
-3.19179e-01,
8.86611e-02,
-1.46551e+00,
-2.46074e-01,
3.43518e-01,
-3.89888e-02,
-6.04332e-01,
1.02230e-01,
2.16519e-01,
1.38747e-01,
-2.11111e-01,
-2.74033e-01,
2.71683e-01,
-1.67858e-01,
7.03953e-02,
3.30952e-02,
-8.65516e-02,
4.03576e-01,
2.09805e-01,
1.29292e-01,
1.69270e-01,
-2.35533e-01,
-1.29754e-01,
1.39882e-02,
2.33061e-01,
2.58073e-01,
-5.56192e-01,
1.30508e-01,
2.67854e-01,
1.56715e-01,
1.16936e-01,
-8.16783e-02,
-1.54943e-03,
-5.73127e-02,
1.01955e-02,
-1.07859e-01,
2.63224e-01,
-8.98736e-02,-5.40355e-02,-1.47088e-02,-3.72307e-02,-2.76710e-02,5.04164e-01,-6.61278e-02,8.21189e-02,2.58566e-02,-1.70297e-01,1.09815e+00,-1.29096e-01,-8.49223e-01,-2.46831e-02,-2.90680e-02,-9.95314e-02,3.01868e-02,-2.08500e-02,-6.26537e-02,8.91456e-01,-1.41392e-01,9.26680e-02,1.77754e-02,-8.12242e-02,9.62443e-02,7.42012e-02,-7.62571e-02,9.59184e-02,1.42310e-01,-5.43368e-02,2.58308e-02,1.34851e-01,-4.68396e-01,1.30687e-02,4.81053e-02,1.27763e-01,-5.37224e-02,1.21878e-01,8.22654e-02,-2.41556e-02,6.31004e-02,1.16160e-01,7.20226e-02,-7.69365e-03,1.12374e-01,-4.72879e-02,2.67299e-02,1.55923e-01,-2.37945e-02,2.16709e-02,3.45023e-02,1.90801e-02,-6.20125e-02,-5.59567e-02,4.30273e-02,4.94533e-02,2.79658e-02,4.31421e-01,-9.45173e-03,8.47782e-02,1.34921e-01,1.15462e-01,-9.23129e-02,-8.28051e-03,-5.49819e-02,2.48291e-02,2.71436e-02,-2.55237e-01,2.41538e-02,-1.52669e-02,4.27379e-02,-6.59080e-02,-6.83446e-02,6.22554e-03,-1.87396e-01,-3.18608e-02,-2.96748e-01,-2.97970e-02,-6.09241e-02,-8.58699e-02,-3.29337e-02,1.03674e-01,-1.51055e-02,1.16861e-01,-4.26423e-02,-1.15559e-01,-2.15144e-02,4.31778e-02,5.77987e-02,-4.25505e-02,8.61480e-02,6.83194e-02,-5.62513e-02,-7.49311e-02,-4.24008e-02,4.40862e-02,1.29037e-01,3.36827e-02,2.56530e-01,1.52886e-01,-3.90780e-02,1.18880e-01,6.90865e-02,3.96682e-02,5.52517e-02,3.48894e-03,-1.58889e-01,-2.36854e-01,-4.47236e-02,-1.18449e-01,-3.95120e-02,-2.39085e-02,-3.70138e-02,3.12477e-02,-8.70192e-02,-3.63864e-02,-3.07395e-02,-7.50812e-02,-1.23581e-01,4.65297e-02,3.20174e-02,-1.02589e-01,-1.09739e-02,9.28433e-03,4.13687e-02,5.26191e-02,4.65328e-02,4.94475e-02,-4.92450e-02,-2.91161e-02,-6.81448e-02,6.52393e-02,-7.25109e-02,-1.98179e-01,-7.00968e-02,-6.19814e-02,-2.19470e-04,-3.22278e-02,3.30319e-02,-8.89697e-02,-8.15962e-02,-1.01749e-01,-2.64843e-01,7.05943e-02,-1.25926e-01,-6.10161e-01,-6.99007e-02,-6.19243e-02,-1.30723e-01,1.54701e-02,4.12771e-02,-9.21909e-04,-5.05600e-02,-2.39337e-02,-1.31203e+00,-9.42740e-02,-1.25489e-01,1.76695e-01,-6.23628e-02,5.38661e-02,-5.07406e-02,1.06982e-02,-1.66752e-02,-1.76846e-02,-4.18799e-02,2.74849e-02,1.06696e-01,1.62601e-01,7.64064e-02,8.07577e-02,2.09930e-02,8.94326e-02,4.32463e-02,-5.00083e-02,1.04281e-01,-1.13334e-02,-1.20718e-01,4.39893e-02,-3.45504e-02,-4.08444e-02,1.15274e-01,5.53010e-02,9.91250e-02,1.35012e-02,1.00075e-01,-4.25377e-03,1.69738e-02,-1.46753e-01,-4.77358e-02,7.27377e-01,-5.05407e-03,-9.56547e-02,6.73332e-03,-1.65938e-01,-7.27090e-02,6.11345e-02,3.93781e-02,-2.17016e-02,1.69180e-02,7.66213e-02,-1.05782e-01,9.86721e-02,-5.30919e-02,5.39270e-02,-2.17929e-02,3.07491e-01,2.57716e-02,2.01753e-02,5.94880e-02,-4.77835e-02,3.23088e-02,-9.83999e-02,1.50944e-01,-2.89579e-02,3.60476e-01,6.27438e-02,2.03965e-02,-8.39317e-02,-2.07865e-02,2.56195e-02,8.68203e-02,-4.91576e-01,-8.88710e-02,1.94815e-02,1.86946e-01,4.92484e-02,2.83938e-02,-1.11837e-02,-9.52542e-02,-4.86209e-02,-5.29457e-02,-1.27928e-02,-7.86233e-02,-1.19339e-01,-3.29043e-02,1.13734e-01,5.52019e-02,2.52780e-01,-2.13148e-02,-5.06494e-02,-5.57232e-02,-6.54374e-02,1.69708e-03,1.68839e-01,-1.46202e+00,4.38078e-02,-1.02769e-02,-5.26067e-02,4.93879e-02,2.75383e-02,3.69467e-02,-1.16321e-02,-5.74508e-02,1.32894e-01,-2.06618e-02,5.60954e-02,-1.42962e-01,7.72696e-02,9.24151e-02,-7.08124e-02,4.01365e-02,-3.67310e-02,-1.07235e-03,2.79036e-02,-3.82750e-02,8.83968e-01,-7.61496e-02,-1.16956e-02,5.50186e-02,-2.71744e-01,1.00234e-02,-6.42252e-02,-1.78137e-03,9.31163e-02,1.32341e-02,1.16893e-02,-1.31245e-01,-5.80611e-03,2.25434e-02,-1.69697e-01,-3.07642e-02,-1.76200e-01,1.01104e-01,1.40273e-01,7.90624e-02,8.29136e-03,2.65737e-02,-1.29250e-01,-3.07793e-02,-4.24598e-02,-3.00394e-02,-5.31328e-02,5.46913e-02,-2.64916e-02,-9.76305e-03,-2.10871e-01,2.82573e-02,7.30297e-02,-7.00198e-03,-5.32803e-02,
-3.41742e-02,9.47127e-03,-1.74139e-02,4.44494e-02,-1.65639e-02,4.03004e-02,-1.12048e-01,1.07468e-03,-5.02816e-02,-7.78723e-02,7.38506e-01,3.02723e-02,-1.14353e+00,-5.88860e-02,2.98567e-02,1.99103e-02,-1.22222e-01,-1.99973e-04,-3.27967e-02,-3.28672e-01,1.12872e-02,8.69585e-02,4.87094e-02,-2.36742e-02,-1.69461e-02,8.66059e-03,-3.79125e-02,-7.23967e-02,8.30985e-02,-6.94790e-02,-2.16238e-02,1.77306e-01,-4.74552e-01,-3.51367e-02,5.34263e-03,1.17456e-01,6.24270e-01,-1.47836e-02,4.06250e-02,-4.34183e-02,-1.36967e-02,9.58278e-02,3.18876e-02,-2.21386e-02,-3.60896e-02,2.59893e-02,8.29744e-02,-1.94570e-01,-1.27182e-02,-3.77788e-02,1.99393e-02,-2.05870e-02,7.07090e-02,-2.17533e-02,6.43834e-02,4.56569e-03,4.10661e-02,1.16695e-01,-9.13519e-02,7.04579e-02,1.74160e-02,2.80325e-02,2.72614e-02,-4.71737e-02,6.74342e-03,-8.73285e-03,-4.13432e-02,-7.38105e-02,8.91308e-02,8.89109e-02,-7.66428e-03,-1.61154e-01,5.79738e-02,-2.20632e-02,-1.54705e-01,4.31637e-02,-2.03079e-01,2.05078e-02,3.32410e-02,3.18680e-03,4.11450e-02,-5.37868e-02,5.91578e-02,4.20773e-02,5.56656e-02,-3.54540e-02,2.26641e-02,-1.13469e-01,1.61168e-02,-6.98376e-02,8.33543e-02,4.06966e-03,2.94661e-02,-1.08678e-01,4.03591e-02,2.12660e-02,1.73087e-01,9.55698e-03,4.22891e-01,5.99001e-02,-3.23488e-02,-2.41566e-02,-4.91137e-02,2.99480e-02,3.03443e-02,-3.15188e-02,-9.84535e-02,-1.10825e-01,-4.76645e-02,-6.79451e-02,-1.45241e-02,-1.00072e-01,-7.38549e-02,8.24545e-02,-2.71076e-02,-2.33278e-02,-5.43104e-02,-1.35587e-02,-8.28383e-02,-2.48655e-02,-4.26923e-02,-5.36996e-02,-4.52880e-02,-6.24730e-02,8.59074e-02,1.82901e-02,-2.16487e-02,6.99999e-02,4.57626e-03,2.37615e-02,-9.80291e-02,4.67996e-03,-5.04591e-02,-9.58374e-01,7.27295e-03,-5.37513e-02,1.85610e-02,-1.70395e-01,2.85195e-02,7.08119e-02,2.51302e-02,-2.56820e-01,3.82668e-01,1.75007e-02,-2.30329e-02,8.61211e-02,-1.01603e-01,7.94452e-03,1.97961e-02,-1.51337e-02,-2.71204e-02,5.44463e-02,4.24721e-02,-2.45642e-02,-3.50530e-01,4.92438e-02,1.11115e-01,2.59125e-01,-1.80298e-02,1.40438e-01,5.63403e-02,1.92884e-02,-1.14414e-01,4.70396e-02,-2.10705e-02,1.38007e-01,5.93904e-02,1.15144e-01,1.12440e-01,-4.54788e-02,5.63060e-02,-3.58934e-02,-4.23925e-02,-4.07315e-02,-5.50818e-02,8.98640e-03,1.48392e-02,2.53759e-02,1.83171e-02,4.29244e-02,9.89477e-02,8.75011e-02,2.15857e-02,-1.52382e-01,6.16153e-02,2.98845e-02,2.09503e-01,3.75935e-02,3.23889e-03,-1.77681e-01,3.43592e-02,-2.27770e-01,-6.36462e-02,-1.01495e-01,-6.48709e-02,-3.70684e-02,-4.95091e-02,-1.33069e-02,5.37314e-02,-1.94163e-02,-5.36649e-02,8.64320e-02,-2.73140e-02,1.65721e-03,-4.90487e-02,6.83927e-01,-4.18732e-02,-3.65194e-02,6.62469e-02,-3.36900e-02,-5.65167e-02,-7.99601e-02,2.53451e-03,8.56519e-02,-1.72011e+00,-1.54610e-02,3.91061e-02,-1.09326e-01,1.00106e-01,-5.20020e-02,4.23656e-02,4.34414e-01,5.78879e-03,3.22772e-02,2.01063e-01,-8.03414e-02,1.17291e-02,-2.39051e-03,1.07655e-01,2.25601e-02,-1.74399e-02,3.97051e-02,-9.23738e-02,-6.68412e-02,-1.27450e-02,6.45282e-02,-2.65382e-02,-1.13100e-01,-1.80675e-02,-4.29421e-02,-2.93971e-02,1.98631e-02,-7.09248e-02,2.43973e-01,1.41976e+00,4.64180e-02,-4.05087e-02,-2.99443e-02,6.32071e-02,-1.00901e-01,-3.24261e-02,-2.22256e-02,-4.44313e-02,-6.72177e-03,-1.18354e-01,2.35510e-02,7.96863e-02,3.95638e-02,-1.09276e-01,2.83650e-02,9.65995e-02,-4.03854e-02,2.01156e-02,4.27653e-02,1.73684e-02,3.41946e-01,-1.36637e-01,7.37795e-02,-4.38849e-02,-8.41139e-01,-2.85424e-04,-3.92716e-02,4.68779e-02,1.26108e-01,-1.48000e-02,9.26815e-03,9.13014e-02,5.07030e-02,2.51799e-02,-5.38301e-01,-3.57899e-02,7.26866e-02,7.07848e-02,1.58444e-01,-1.25735e-02,1.52894e-03,-4.40422e-03,-7.70725e-02,5.93134e-02,-4.30481e-02,-2.93563e-02,1.57837e-02,-5.24007e-02,4.11689e-02,3.01195e-02,-1.78512e-01,1.53103e-02,3.08949e-02,-2.54495e-02,-4.43175e-02,
2.11274e-02,-1.81796e-02,-2.75631e-02,-2.38797e-02,4.79139e-02,8.66118e-03,3.30339e-02,-1.11208e-02,-2.64112e-02,1.44830e-03,9.83418e-03,2.32034e-03,6.04738e-03,-4.16505e-02,-8.35555e-02,2.28255e-02,2.17828e-03,6.78021e-02,-3.95743e-02,-6.55418e-03,1.56627e-02,-8.53463e-03,-2.02524e-02,1.20789e-02,-1.41469e-02,1.52455e-02,1.49747e-04,1.55934e-02,-3.38895e-02,1.58048e-02,5.27574e-03,-1.63681e-03,-3.50701e-03,-1.49961e-03,6.59974e-03,-5.33185e-03,4.00960e-03,2.15779e-02,9.33585e-03,5.32531e-02,2.56598e-02,2.55056e-03,3.19139e-03,-1.29107e-01,2.99498e-02,1.07542e-02,-2.23632e-03,3.60373e-03,2.75272e-02,-5.73016e-04,2.06064e-02,-9.93349e-02,1.89406e-03,-1.09133e-03,-5.09792e-03,-9.28031e-03,2.18596e-02,-7.80079e-03,-6.22740e-03,2.76006e-02,8.85912e-03,-5.22916e-02,-2.25326e-02,-8.51288e-03,-2.16126e-02,4.15951e-02,1.48669e-02,-1.06938e-03,4.29840e-03,2.63733e-02,1.89539e-02,2.49921e-02,-8.69798e-03,2.87089e-02,-1.40531e-02,-2.14082e-03,-4.78912e-02,-1.05915e-02,-7.83825e-02,6.54100e-03,-4.52763e-02,2.06514e-02,1.24421e-01,-1.57454e-02,-4.80500e-02,-3.59965e-02,1.89723e-02,8.47147e-04,-6.63062e-02,1.16994e-01,-2.45541e-02,-3.47130e-03,-7.19045e-02,-2.46872e-03,-2.48231e-02,-1.73869e-03,1.11961e-02,-1.33607e-02,2.75679e-04,6.36676e-03,-8.06405e-02,1.22536e-02,1.46926e-02,4.94863e-02,3.59918e-02,-7.91089e-02,5.74192e-03,-9.97186e-03,-8.79001e-03,2.02427e-02,-7.70332e-02,-1.19502e-02,-5.55295e-03,-4.49659e-03,-7.82070e-03,-4.22739e-03,5.00745e-02,5.04932e-02,-9.51125e-03,-1.41390e-02,9.25612e-03,-1.87691e-02,-6.19962e-03,-5.00683e-02,-1.21639e-02,1.15827e-02,8.51841e-02,-4.10123e-02,4.51805e-02,1.01575e-03,1.92488e-02,-4.50977e-02,-4.64007e-03,-9.28707e-03,-2.12590e-02,5.68830e-02,-1.73448e-02,-2.08149e-03,-1.94377e-03,-5.77706e-03,-3.16265e-04,1.91632e-02,-1.23450e-02,3.01014e-03,3.66923e-02,-4.74241e-03,1.44590e-02,-1.72768e-02,-2.88839e-02,2.16012e-02,5.09620e-02,7.47498e-02,-9.50916e-03,-9.19319e-03,2.99697e-03,-1.83791e-02,5.07669e-03,-2.14859e-03,2.56643e-04,1.72241e-02,2.41222e-02,-2.41137e-02,-1.30460e-02,4.04959e-02,2.99585e-03,-5.51656e-02,-9.00917e-03,9.97432e-03,-1.15865e-02,5.65381e-02,-7.22756e-03,-1.40426e-02,1.40619e-02,2.56919e-02,2.96543e-02,-4.00899e-02,-9.82274e-03,-1.46223e-04,2.08672e-02,-4.66504e-02,-7.58087e-03,7.10207e-03,-6.09751e-03,-2.55112e-03,-4.16123e-02,4.65249e-02,3.63741e-03,1.79084e-02,-1.79898e-02,-4.30175e-03,-5.91488e-02,5.96366e-03,-3.48035e-02,3.17976e-03,-8.04099e-03,-6.35227e-03,-1.23277e-02,5.20207e-02,-5.28840e-02,2.26650e-02,1.11094e-02,4.09244e-03,-8.30797e-02,-2.67648e-03,-3.94124e-03,1.30958e-03,-1.93633e-02,3.12031e-02,1.42914e-01,1.07060e-02,-3.23025e-02,-3.06509e-03,3.96666e-02,-2.91396e-02,1.67915e-03,-1.84103e-02,5.41766e-03,7.94308e-04,3.57720e-03,-2.37763e-02,6.35762e-03,-4.80545e-04,-1.02606e-02,1.33220e-02,3.77535e-02,1.84444e-02,-3.29747e-02,3.98361e-02,-1.41971e-02,2.86008e-03,-8.27508e-03,5.51792e-03,-1.55623e-03,8.15659e-03,8.55276e-03,-5.01935e-03,5.77550e-02,-3.18482e-03,-3.37889e-03,5.50328e-02,2.24921e-02,-2.41975e-03,3.39471e-02,2.02067e-02,6.42099e-03,1.63268e-02,-1.96922e-02,-4.64106e-02,-2.12679e-03,5.22453e-03,-1.04099e-03,-6.15451e-02,-3.54978e-03,-8.17395e-03,-9.50591e-04,-4.06525e-02,2.04616e-03,1.04658e-02,-3.56714e-02,1.74589e-02,-3.28005e-03,-6.19524e-03,-1.53382e-02,2.08160e-02,-1.80952e-02,3.35467e-03,1.21535e-02,-1.93211e-02,-7.68488e-02,-1.72723e-03,-1.02116e-01,4.95333e-02,3.30109e-02,-2.79319e-02,6.51202e-02,9.79826e-02,1.27656e-02,6.86819e-02,-3.60565e-02,-9.65259e-03,1.25867e-02,5.65252e-04,-2.77853e-03,-2.57552e-02,-7.06432e-02,-4.55037e-03,-7.36805e-02,-1.63905e-02,-7.65069e-05,-1.81402e-02,-9.72309e-04,1.16061e-02,1.05947e-02,7.80795e-02,4.96372e-02,4.33989e-02,-5.18385e-03,-7.17310e-03,5.42145e-03,2.59264e-02,
2.80471e-03,8.79005e-03,-8.61580e-02,-1.22675e-02,-5.30258e-02,5.04698e-03,1.18862e-02,-3.92561e-02,3.39395e-03,-1.49483e-02,7.51758e-03,4.37036e-03,5.23774e-03,-6.32657e-02,4.72837e-03,1.37899e-02,-7.53428e-03,-2.83243e-02,9.07893e-03,2.59838e-03,-3.82186e-04,7.82394e-03,-1.78709e-03,1.62580e-02,2.85783e-03,-9.22883e-03,-1.32399e-04,2.80424e-02,3.42098e-02,1.19957e-02,-6.78132e-02,3.68268e-03,8.59494e-03,-3.36695e-02,1.00363e-01,-4.42275e-03,6.19109e-03,1.82577e-02,-2.27449e-03,-8.77791e-02,-3.00445e-03,3.98661e-03,1.17334e-02,-1.05526e-01,2.54077e-02,-5.78675e-02,6.04575e-03,1.94373e-03,1.19667e-02,-2.25726e-02,2.16488e-02,6.43035e-02,1.15095e-02,1.02259e-02,-2.51574e-03,-1.52732e-02,-1.59301e-03,-9.81723e-03,-2.89571e-03,-6.51955e-03,-1.29572e-02,3.03821e-02,1.00746e-02,-9.46887e-03,4.84876e-02,1.00903e-02,-4.10148e-02,-6.18628e-03,1.53767e-03,-1.71772e-02,1.51397e-02,7.96948e-04,-5.78856e-03,5.62068e-02,-1.13858e-02,-4.22792e-02,-3.59667e-02,-4.10078e-02,7.80958e-02,-2.42164e-03,-2.33737e-02,-5.62865e-03,9.58378e-02,5.22543e-03,3.72879e-02,2.68742e-02,5.60477e-02,4.78626e-03,8.06864e-02,-4.81949e-02,6.72668e-03,-2.68590e-02,-6.89470e-04,-9.74573e-03,1.67527e-02,1.50319e-02,7.65349e-03,-5.59115e-03,5.63073e-03,-2.35488e-03,5.74454e-02,-1.44999e-02,-5.11576e-03,1.47173e-02,-7.48082e-03,-5.59841e-02,-1.32377e-02,1.11611e-02,3.38359e-03,1.68617e-02,-8.96121e-03,8.11154e-03,2.74052e-03,-3.41441e-03,-6.37747e-03,-8.65905e-03,3.66524e-02,4.72608e-02,1.64807e-02,1.51768e-02,-2.84293e-02,9.76428e-03,1.51865e-02,-7.51326e-02,-4.17351e-03,1.05632e-02,5.08490e-02,3.79941e-02,4.45122e-02,-5.49785e-02,1.19660e-02,-2.52309e-02,-2.65431e-04,1.88387e-02,-2.51126e-02,-4.13526e-02,-5.40369e-02,4.57448e-03,5.01021e-03,-9.11272e-03,3.64268e-03,-8.92569e-03,5.00911e-03,-1.59719e-02,-1.19534e-02,-1.31362e-02,1.14823e-02,2.10090e-03,5.58647e-03,7.52810e-02,5.00665e-02,-2.71405e-03,1.48121e-03,4.84724e-02,4.65225e-04,-1.96546e-03,1.89047e-03,-2.03173e-03,3.64275e-02,-2.20246e-02,6.17885e-03,-9.34729e-02,4.76978e-03,6.84939e-02,-1.91806e-03,-6.20874e-02,-1.04618e-02,8.03538e-03,3.19629e-03,-1.92681e-04,-1.22954e-02,-1.22974e-02,5.65909e-02,2.41879e-03,-7.55153e-03,-1.75311e-02,-8.23977e-05,-1.03020e-02,-2.21404e-02,-1.86400e-02,-8.83869e-03,-6.46366e-03,-4.61181e-03,-4.24987e-03,6.59243e-03,2.56907e-02,-5.06423e-03,8.90851e-04,3.01814e-02,-2.77166e-03,-4.38206e-02,2.82630e-03,-4.52204e-02,4.55647e-03,3.01939e-04,-3.66244e-03,-5.15554e-03,-9.14589e-02,-1.47734e-02,-7.90503e-03,3.54925e-03,3.84960e-03,-6.26008e-02,2.21723e-02,9.59241e-03,-7.72216e-03,-1.32354e-02,2.72258e-02,1.13000e-01,-2.55773e-02,-9.16807e-04,1.56312e-03,-2.34875e-02,4.01279e-02,-9.18847e-03,-1.93014e-02,4.27617e-04,-3.44437e-03,-1.08811e-03,-2.11623e-02,-2.10575e-04,4.88011e-03,5.53478e-03,-1.76386e-02,2.75379e-02,-2.27889e-02,9.82959e-03,1.13728e-01,-8.78937e-03,1.23348e-02,3.99374e-02,8.43933e-03,1.43992e-02,-5.90049e-03,-1.23590e-02,5.68542e-03,3.35295e-02,1.98912e-03,8.52805e-02,-6.69862e-02,-1.53175e-02,5.40673e-03,-2.32333e-02,-2.49941e-03,4.25936e-03,2.90753e-04,-8.94045e-03,4.53461e-03,2.43051e-02,-9.67490e-04,-1.96685e-02,2.59351e-02,-2.87456e-02,-1.47731e-02,1.20396e-03,-4.65152e-02,-1.30605e-02,1.80446e-02,-1.03876e-02,1.37393e-02,1.06915e-02,-1.75304e-02,1.10330e-01,2.98753e-02,2.17686e-02,-3.00716e-03,6.56960e-03,-3.02324e-02,9.81302e-02,5.08164e-03,3.63898e-02,-4.32880e-02,7.97139e-03,-2.34506e-02,-5.88951e-02,-4.70715e-03,1.82269e-02,-2.60795e-03,9.78432e-02,9.10977e-03,-1.84062e-02,4.74152e-04,-1.26462e-02,-2.77494e-02,3.72116e-02,3.32796e-02,1.69672e-02,-7.41339e-03,-1.59653e-02,-2.17223e-02,4.32707e-02,-7.74953e-02,-1.58575e-02,-5.40747e-02,7.56286e-03,4.27923e-02,1.49937e-02,-8.38898e-03,-2.42774e-02,2.24803e-02,
-6.70412e-02,
-3.25904e-02,
7.52878e-03,
-1.62378e-02,
