// Neural Network File Format by Kyle Julian, Stanford 2016
4,6,4,100,
6,100,100,100,4,
0,
0
0
0
0
-1.15494e-03,6.07439e-02,-2.94400e-01,-5.75090e-01,-1.19601e-02,-2.56253e-02,
9.33794e-02,-9.65721e-02,-1.56890e-01,-3.24732e-01,-2.57816e-01,-2.19213e-01,
-1.82852e-01,-2.14230e-01,4.93560e-01,3.75324e-01,8.93723e-02,-2.40931e-01,
-2.20917e-01,1.64452e-01,3.63957e-01,-4.02686e-01,-4.01956e-01,-4.11594e-01,
-1.85026e-02,-3.22192e-01,-2.29122e-01,5.86850e-01,1.11903e-01,-6.15598e-02,
-2.60416e-01,-2.00518e-01,-1.09410e-01,-8.84833e-01,-2.13015e-01,-2.39103e-02,
-1.99952e-01,-1.48468e-01,2.37665e-01,3.20504e-01,3.15672e-01,1.41254e-01,
-1.80874e-01,-5.50431e-02,-2.21257e-01,-5.28001e-01,-1.96689e-01,1.33403e-02,
-3.03136e-02,-1.98741e-01,4.48146e-01,2.13755e-01,-3.88227e-02,3.64524e-02,
-2.24258e-01,-4.80255e-02,2.78363e-01,-1.94661e-01,-9.95902e-02,4.50952e-01,
-1.81765e-01,-3.65470e-02,-4.03130e-01,-7.54447e-01,2.06110e-01,-2.05092e-01,
-1.15096e-01,1.21181e-01,1.73345e-01,3.67937e-01,2.84370e-01,2.62850e-01,
9.67653e-02,-2.07919e-02,4.57043e-01,-6.43411e-01,7.81643e-02,-9.66314e-02,
1.96204e-01,5.29351e-02,-7.85517e-02,-5.16468e-01,5.46578e-02,1.86309e-01,
3.04386e-01,2.08467e-01,2.52509e-01,5.63311e-01,2.77520e-01,2.25714e-02,
2.93995e-01,-1.09890e-01,2.55011e-01,7.24158e-01,-2.01071e-01,1.64806e-01,
3.86699e-02,-2.53529e-01,1.43747e-01,-3.43229e-01,2.49196e-01,6.24874e-02,
5.31793e-03,-4.63001e-03,-2.51330e-01,4.48481e-01,-2.39739e-01,1.23577e-01,
-6.83108e-02,-1.86680e-02,-3.32087e-01,1.01321e+00,-1.88471e-02,-1.80863e-03,
1.01819e-01,1.17810e-01,4.99534e-01,-5.74683e-01,-2.97924e-01,-4.26204e-01,
-3.53814e-02,4.83248e-03,-3.46773e-01,-9.50962e-01,-9.51432e-02,-1.70339e-02,
-2.96532e-01,1.02359e-01,-1.82758e-01,-7.76143e-01,2.69372e-01,-1.52339e-01,
-2.18552e-01,-1.81688e-01,5.32496e-01,7.90390e-01,-3.04267e-02,2.35102e-02,
2.47137e-02,-2.42278e-01,-2.32224e-01,-1.00220e-02,1.24410e-01,1.19078e-01,
-1.21729e-01,-2.09264e-02,-6.47902e-01,1.80818e-01,-1.19479e-01,8.18160e-02,
8.97387e-02,8.88858e-02,3.74402e-01,2.74574e-01,1.53990e-01,-6.57016e-02,
1.77626e-01,2.93390e-02,3.95545e-01,6.57646e-01,-3.09204e-01,2.67604e-01,
3.24390e-01,1.49507e-01,-2.80593e-01,-2.88420e-01,-1.75544e-01,1.77435e-01,
1.84856e-01,-6.44192e-02,6.83106e-01,2.65559e-01,2.36002e-01,-1.27403e-01,
7.87892e-02,-3.76227e-01,1.71612e-01,-7.55329e-03,-5.95552e-01,-1.44537e-01,
6.96204e-02,-3.23444e-01,3.53427e-02,-6.01766e-03,-5.06227e-01,-1.05949e-01,
-1.79977e-01,8.07671e-02,4.20123e-01,-1.06955e-01,-6.60499e-02,1.27705e-02,
1.98133e-01,2.31526e-01,-3.97502e-01,5.52634e-01,-5.60006e-01,-6.21271e-01,
5.17044e-04,-2.19925e-01,2.73281e-02,7.91642e-01,-1.11669e-01,7.25643e-02,
7.14174e-02,1.98108e-01,-5.16280e-01,9.36565e-02,4.37391e-01,-3.23575e-01,
-5.70051e-02,-6.30924e-02,2.51507e-01,7.90357e-02,2.97611e-02,3.55461e-02,
5.42025e-03,2.47974e-01,6.97671e-03,-3.96692e-01,6.07627e-02,-1.57698e-02,
-1.19562e-01,4.09476e-02,-2.23549e-01,-2.72735e-02,-1.97136e-01,6.50570e-02,
-1.82498e-03,-1.44147e-01,-1.45724e-01,2.13797e-01,-1.52934e-01,-3.72261e-02,
1.79238e-02,-2.47442e-01,9.74015e-02,7.85257e-01,-1.09155e-01,-3.87432e-02,
1.07814e-02,-3.50705e-01,-4.14313e-01,-4.04716e-01,1.99541e-01,-3.87133e-01,
-9.15744e-03,2.53957e-02,-1.49046e-01,3.77489e-01,7.43101e-03,-2.85605e-04,
2.96926e-01,-2.20790e-01,-4.95816e-01,5.36073e-01,5.39359e-01,5.55447e-01,
-3.09857e-01,-1.30151e-01,2.28091e-01,3.28641e-01,1.46614e-01,-1.52855e-01,
-2.44155e-02,8.20092e-02,2.49202e-01,-1.17110e-01,-2.88882e-02,-1.01209e-01,
-1.11921e-02,3.20243e-01,3.88331e-01,3.68540e-01,-1.78709e-01,3.49094e-01,
3.93088e-01,1.12909e-01,-4.96185e-01,4.09742e-01,-2.07909e-01,2.43432e-01,
-4.12465e-01,-1.68300e-01,-6.61729e-01,5.85707e-01,1.10735e-01,9.81685e-02,
1.43577e-01,-9.33235e-02,3.56079e-01,-4.07051e-03,-1.80199e-01,-1.92021e-01,
-1.75062e-02,-2.84146e-02,3.89649e-01,-7.88613e-01,3.07528e-02,-4.04391e-02,
-1.10340e-01,-1.25136e-01,-5.34511e-01,6.20699e-01,3.21928e-01,4.61850e-01,
4.73544e-03,5.69485e-02,8.07920e-01,-4.33957e-01,7.97011e-02,-6.45720e-02,
2.02040e-01,-4.82862e-02,-2.81097e-01,-3.90471e-01,3.83347e-02,-9.12289e-02,
1.37636e-01,7.87837e-02,-7.09301e-02,-1.35093e-02,3.97098e-02,1.10472e-02,
-7.29192e-03,-2.06376e-01,-2.55101e-01,6.25443e-01,-1.67108e-01,3.35526e-02,
-2.31457e-01,1.52644e-01,-3.91548e-01,-3.14634e-02,-2.71484e-01,4.99971e-02,
-2.03873e-01,-2.37263e-01,4.10805e-01,-5.67545e-01,5.74064e-01,6.36086e-01,
-2.02033e-01,4.54941e-02,3.07600e-01,6.21135e-01,-6.16120e-02,7.49985e-02,
-4.24227e-02,1.60521e-01,3.65824e-01,-5.53451e-01,1.19626e-01,7.65418e-02,
-6.72549e-02,-1.41234e-02,-3.31455e-01,-6.33073e-01,-1.49358e-01,9.62846e-02,
1.42269e-01,-3.06572e-01,2.43135e-01,-8.57034e-02,4.01553e-01,-3.13835e-01,
-1.87065e-02,6.97429e-02,3.01357e-01,2.92271e-01,3.30497e-01,-4.64477e-01,
-2.75007e-01,-2.93777e-01,-3.00924e-01,2.98614e-01,-3.81753e-02,-3.70189e-01,
8.95173e-02,6.91302e-03,-3.59395e-01,1.94889e-01,4.68654e-01,-5.61038e-01,
-1.71093e-02,2.49795e-02,5.30506e-01,7.45197e-01,2.19359e-02,4.62411e-02,
-6.32897e-02,3.02635e-01,-9.22114e-02,5.60292e-03,4.79265e-01,1.08078e-01,
1.40733e-01,-2.32875e-01,5.79986e-01,7.09949e-02,2.78038e-01,3.43399e-02,
-1.64677e-01,1.66686e-01,-4.47147e-01,3.19766e-01,2.42496e-01,-4.66425e-01,
8.09914e-03,5.47420e-02,3.47072e-01,3.48851e-01,5.96583e-02,7.28931e-02,
1.55676e-01,-1.14079e-01,-2.25629e-01,3.20362e-01,2.94013e-01,2.60198e-01,
-3.06088e-01,-2.30405e-02,-2.85103e-01,1.53147e-01,-7.02981e-02,-3.87557e-01,
2.51194e-01,-9.42495e-02,4.55939e-01,5.84771e-02,3.84843e-01,-1.07455e-01,
-9.64105e-02,-6.62922e-03,3.82918e-01,-2.03702e-01,-5.01366e-01,5.98989e-01,
-2.65296e-01,-3.83271e-02,5.33446e-02,8.90204e-02,-1.68770e-01,-3.31293e-01,
-2.65977e-02,3.06197e-02,3.40212e-01,-7.74859e-01,2.64006e-02,-4.32655e-02,
-2.54130e-03,-5.27287e-02,-4.09713e-01,9.64072e-01,-2.90907e-02,5.59550e-02,
1.21166e-02,1.74725e-03,1.54054e-01,-9.15498e-01,7.50461e-02,-1.33527e-01,
-2.02089e-01,-1.27574e-01,-2.35323e-01,6.73257e-01,-1.05506e-01,-1.64406e-01,
2.53627e-01,-9.17188e-02,1.00988e-01,6.55834e-01,-2.53900e-01,1.28553e-01,
1.18457e-01,-2.95465e-01,-1.54183e-01,-6.63592e-01,2.71837e-01,-9.56220e-02,
-4.55067e-02,2.56024e-01,-1.05458e-01,2.60586e-01,-2.30390e-01,-9.62136e-02,
2.75230e-01,-1.84160e-01,-2.84092e-01,2.36804e-01,1.42848e-01,2.00412e-02,
-1.47014e-01,3.18061e-01,-2.45781e-01,8.44875e-02,-4.15389e-01,3.25924e-01,
2.92937e-01,8.19421e-03,1.56430e-01,-1.37596e-01,9.79939e-02,3.82851e-01,
-9.12600e-02,1.40964e-02,1.00389e-01,1.65603e-01,6.38320e-02,6.52422e-03,
-2.56310e-01,-1.78465e-01,4.52213e-01,-1.55589e-01,-7.88300e-02,-1.66392e-01,
5.71204e-02,9.99186e-02,-8.49603e-01,-6.11795e-02,-4.92288e-02,-1.73528e-02,
-7.41341e-02,6.64760e-02,-4.06538e-02,4.91158e-01,4.53210e-02,-1.39840e-01,
2.33474e-01,1.74187e-01,-2.79187e-01,-4.62811e-01,2.95826e-02,7.30811e-02,
1.89368e-02,-7.22200e-02,-3.15654e-01,-3.00597e-01,-3.43054e-01,4.83031e-01,
-5.94002e-02,-1.61018e-01,4.23287e-01,-8.10389e-02,-3.53353e-01,2.63609e-01,
-1.27154e-01,2.36610e-01,1.18569e-01,6.75871e-01,-2.66923e-01,1.55235e-01,
-1.32599e-01,-1.42940e-01,2.92945e-01,1.66734e-02,-3.48974e-02,5.09118e-02,
2.48279e-01,3.12326e-02,5.80663e-02,-4.94523e-01,1.78142e-02,-1.70292e-01,
1.98400e-01,-2.05831e-01,5.40447e-01,-3.96474e-01,-2.94322e-01,5.66028e-01,
8.85431e-02,-9.04859e-03,4.42605e-01,-4.25955e-01,1.83521e-02,-6.37274e-02,
-7.81945e-02,-3.32075e-03,2.29577e-01,5.95557e-01,-1.95119e-01,2.08353e-01,
2.20664e-01,2.38542e-01,2.26514e-01,-2.41134e-01,3.25155e-02,3.02510e-01,
-1.76292e-01,5.15977e-02,3.87898e-01,6.48471e-01,1.27833e-01,2.00774e-01,
-4.71717e-02,1.14511e-02,-4.02627e-01,9.54331e-01,-6.34810e-02,1.77180e-01,
-6.95338e-01,
-3.46260e-01,
9.06204e-01,
1.18839e-01,
-7.47687e-01,
-1.31987e+00,
4.69639e-01,
-1.27387e-01,
-1.44130e+00,
-4.55665e-01,
-5.15861e-01,
3.70659e-01,
3.87178e-01,
5.25337e-01,
2.28478e-01,
-2.76230e-01,
-5.77787e-01,
-5.93416e-02,
3.52897e-01,
1.75284e-01,
1.09585e-01,
4.86652e-01,
7.22280e-01,
-5.91243e-01,
6.28416e-01,
2.98421e-01,
1.22476e-03,
5.74039e-01,
4.07740e-01,
3.29705e-01,
2.73906e-01,
3.07336e-01,
-2.16989e-01,
-1.31190e+00,
1.10127e-01,
1.19248e+00,
4.23684e-01,
1.47891e-01,
-4.35921e-01,
5.66880e-01,
1.07433e-02,
1.48463e+00,
-1.49244e-01,
-5.36319e-01,
6.50490e-01,
-1.08601e-02,
-5.22424e-01,
-3.54457e-01,
-3.59369e-01,
-1.87870e-01,
-1.94149e-01,
-8.23444e-02,
5.89183e-01,
7.97548e-01,
4.15121e-01,
-1.29616e-01,
2.20958e-01,
-1.08143e+00,
5.45260e-01,
7.84800e-01,
-2.80452e-01,
3.09291e-01,
7.09437e-01,
1.57286e-02,
-2.94776e-01,
-2.62174e-01,
1.39837e-01,
-2.23085e-01,
7.92626e-01,
-1.54902e-01,
-1.37519e-01,
-3.09876e-01,
-1.41700e-02,
1.85968e-01,
-3.14876e-01,
-3.34212e-01,
-7.54456e-01,
-6.07270e-01,
-5.03197e-01,
5.00455e-01,
5.42042e-01,
-2.28254e-01,
2.80610e-01,
1.57361e-01,
9.71902e-01,
3.83936e-01,
2.46201e-01,
-2.32762e-01,
-4.46452e-01,
-3.14746e-01,
-8.98875e-02,
-2.13502e-01,
-1.00118e+00,
5.42841e-01,
2.64021e-01,
8.21997e-01,
1.17926e-01,
-5.47553e-01,
4.42906e-01,
5.18821e-01,
1.19909e-01,8.43226e-02,-1.80731e-02,4.32513e-02,-3.09678e-02,1.18472e-01,-1.47049e-02,6.92980e-02,-1.00603e-01,1.63444e-02,-6.03458e-02,-8.43318e-02,1.13204e-01,-7.68090e-02,-1.22837e-01,1.29211e-02,7.68234e-02,1.71025e-01,-2.82760e-02,-1.95075e-02,-5.14355e-02,2.86785e-02,-2.74732e-02,4.37976e-03,-5.90111e-02,6.18440e-02,5.09551e-02,-2.64787e-02,9.11061e-02,-3.53753e-02,5.16593e-02,1.15641e-02,-5.46764e-02,-3.54899e-02,-4.85541e-02,-1.62860e-01,-6.61846e-02,-4.70735e-02,9.78294e-02,1.13705e-02,-5.11718e-02,-4.90681e-01,-1.07696e-02,2.11789e-02,-7.49305e-02,8.56762e-02,4.34139e-02,2.61450e-02,-2.68570e-02,2.37139e-01,4.78266e-02,1.08600e-01,1.25894e-02,-1.88142e-02,5.57684e-02,2.20384e-02,5.64782e-02,-1.01930e-01,4.75222e-02,-1.06396e-01,7.07060e-03,-4.85200e-02,-7.70323e-02,8.70505e-02,2.61848e-02,1.73892e-02,4.46962e-02,-1.75309e-03,-1.35626e-01,-2.58990e-02,2.26780e-02,-3.46542e-02,-7.20450e-02,2.04981e-02,4.09581e-01,-1.41201e-01,1.33920e-01,7.24851e-02,-4.63532e-02,-8.80171e-02,-8.92859e-02,-5.94481e-05,-3.45662e-02,-2.92222e-02,-1.19031e-01,-7.28777e-02,1.13235e-01,3.85511e-02,9.40066e-02,2.10298e-02,-1.45201e-02,6.56270e-02,-2.50767e-02,3.21759e-03,2.19321e-03,-7.95397e-02,5.52178e-03,8.60759e-02,-2.20620e-02,-1.59295e-01,
6.17715e-02,-2.76930e-02,-4.78070e-02,-3.99609e-04,-3.66065e-02,-8.40127e-03,8.48013e-02,-6.08090e-02,-6.60227e-02,-4.07859e-02,9.10308e-02,-6.20910e-02,-4.07905e-03,8.66810e-02,1.54543e-02,-1.37854e-02,8.08522e-02,2.13574e-02,-1.16509e-02,-3.31159e-02,-5.82113e-02,7.83593e-02,1.20922e-02,5.43650e-02,1.37251e-01,8.12334e-02,-1.40877e-02,7.60228e-02,3.75281e-02,2.12312e-02,-1.65132e-02,2.07823e-02,1.01346e-01,1.02047e-01,-1.70856e-02,3.97303e-02,2.77693e-02,9.89654e-02,1.24897e-01,-1.27883e-01,5.80138e-03,1.09519e-01,3.06852e-02,-2.63166e-02,8.36145e-03,-5.79031e-02,-4.29872e-02,1.68758e-02,2.40911e-03,1.46975e-02,4.47278e-02,5.36287e-02,6.65039e-02,3.57815e-02,3.65075e-02,-8.29115e-02,-1.24686e-01,3.99570e-02,-6.02769e-02,-2.62846e-02,-4.00112e-02,-5.74934e-02,4.69293e-02,2.66814e-02,-1.06959e-01,-5.19097e-02,9.41424e-02,-7.52841e-02,-1.52978e-02,-1.69370e-01,4.69690e-02,8.26586e-02,2.58674e-02,-6.20172e-02,4.18780e-02,3.43805e-02,1.81167e-02,-3.39407e-03,-9.06569e-02,-9.03016e-02,6.69885e-02,-6.92232e-02,1.17716e-01,-2.66427e-02,-5.72868e-02,-5.60028e-02,5.38428e-03,4.66183e-02,4.85368e-02,3.86563e-02,9.50145e-02,-6.91595e-02,-7.10598e-02,-1.25977e-01,4.47963e-03,-2.19189e-02,6.24989e-02,3.00714e-02,7.91252e-02,3.52788e-02,
-6.80173e-02,6.58979e-02,1.00029e-01,-1.30249e-01,-5.80030e-02,7.69490e-02,6.86453e-02,2.76744e-02,-1.62865e-01,-1.17946e-02,1.08920e-01,3.77675e-02,3.99415e-02,9.11828e-02,1.59559e-02,2.52418e-02,-1.00139e-01,-9.06063e-02,6.23115e-02,3.24368e-02,2.40796e-01,3.83227e-02,-6.40139e-02,-3.35755e-02,7.17218e-02,-4.28180e-03,-1.08515e-03,1.17353e-01,4.46779e-02,-7.58779e-02,6.38359e-02,9.78366e-02,-3.09020e-02,-8.23637e-02,2.53320e-02,5.48557e-02,5.58758e-02,8.60099e-02,2.25395e-02,2.29560e-02,-7.47737e-02,1.19424e-01,-1.02337e-02,-9.76304e-02,5.37761e-02,-1.16886e-01,-1.79876e-02,6.39812e-02,2.08872e-02,-1.22443e-01,-1.95188e-03,2.60754e-03,-5.50005e-02,-2.54629e-02,3.40817e-02,6.71362e-02,-1.75760e-02,-3.47630e-02,-4.06163e-02,9.14305e-02,1.15656e-02,1.09178e-02,6.56605e-02,-7.35451e-04,1.23333e-01,-1.90415e-02,4.15337e-02,-2.04187e-02,2.29738e-02,1.11300e-02,-7.66957e-02,-5.52399e-02,-1.45518e-02,-4.57342e-02,-2.20731e-01,-1.11301e-01,-9.70810e-02,-7.74656e-02,-1.20984e-02,9.81050e-02,3.50511e-02,-7.99951e-02,5.12986e-02,6.65282e-02,-2.88053e-03,3.76382e-02,9.70230e-02,-1.72743e-02,4.76840e-02,8.25368e-02,-6.28217e-02,6.33447e-02,-1.97430e-01,-5.00869e-02,-3.66477e-02,-2.62325e-04,-3.12808e-02,1.06829e-02,-1.17616e-02,5.76112e-02,
-2.39768e-01,-4.88436e-02,3.18667e-02,-3.62386e-02,-3.65641e-02,-1.01042e-01,1.75388e-02,9.20731e-03,-7.32358e-02,6.21102e-02,-1.26675e-01,-3.65791e-03,3.97873e-02,5.88488e-02,1.00545e-01,6.97841e-02,9.84802e-03,-1.41217e-02,1.68862e-01,6.28665e-02,-1.67541e-01,-2.71260e-03,5.68793e-03,-4.04124e-02,8.26629e-02,3.65036e-02,2.73871e-02,-4.65993e-02,2.40618e-02,-1.95886e-03,-6.63489e-02,2.97853e-02,-3.54970e-03,-2.72908e-02,5.59212e-02,1.87664e-01,-3.65929e-02,4.05412e-02,2.89161e-02,4.94236e-02,-5.30029e-02,9.83486e-02,8.75263e-02,-1.92177e-02,1.36114e-01,3.97126e-02,-7.52798e-02,-8.44257e-02,-8.40707e-02,1.14666e-01,9.23624e-02,2.62490e-02,2.80024e-02,1.39746e-01,-1.67985e-02,-8.57867e-02,-1.21666e-02,-1.01516e-01,7.03318e-02,1.42392e-01,4.07050e-02,1.96629e-01,9.71436e-03,1.56739e-01,-7.32028e-02,-5.35850e-02,4.27241e-02,3.52064e-02,-2.81324e-02,-4.82695e-02,-4.71234e-02,2.86995e-02,-2.17266e-02,7.53006e-02,8.99442e-02,-3.02855e-02,-7.79612e-02,1.70651e-02,4.35880e-04,9.02206e-02,8.09341e-02,-8.79643e-02,-6.55036e-02,-5.36041e-02,1.09669e-01,1.10342e-01,1.07117e-01,7.19591e-02,-1.24580e-01,-1.14888e-01,-4.00331e-02,8.57372e-02,-5.93028e-02,4.36740e-02,-2.08324e-02,2.73602e-02,5.12603e-02,5.89648e-04,-3.33414e-02,1.77821e-01,
2.06099e-02,5.18645e-02,-5.86183e-02,-4.88332e-02,-5.27997e-02,3.44250e-02,1.32280e-01,-2.71752e-02,7.36538e-02,2.79109e-02,-5.18647e-02,4.39108e-02,-6.79133e-02,5.10213e-02,1.97654e-02,8.25194e-02,-4.89927e-02,8.40770e-02,8.96700e-02,7.54140e-02,-3.09950e-02,4.47669e-02,-3.13140e-02,-7.57893e-02,6.03736e-02,5.31105e-02,2.40073e-02,1.05337e-01,7.17282e-02,-8.00674e-02,2.01768e-03,2.04239e-02,-1.20340e-01,-4.15177e-02,-7.45502e-02,-2.01270e-02,7.75101e-02,6.61182e-02,1.10415e-02,1.26488e-02,5.71018e-02,3.24337e-02,6.45524e-02,-3.10146e-02,1.13387e-02,1.08623e-01,-4.19309e-02,7.37161e-03,-8.93656e-02,-1.08391e-01,1.15305e-01,-7.20377e-03,4.02903e-02,-1.16549e-02,-3.74062e-02,2.51342e-02,1.91479e-01,-1.11132e-01,7.07281e-02,1.09338e-01,2.23205e-03,-1.22506e-01,-8.17571e-03,-1.14420e-01,1.12731e-01,8.37995e-02,7.29822e-02,-9.45238e-02,1.23607e-01,-3.77737e-02,4.85339e-02,7.88091e-02,4.94055e-02,4.55427e-02,6.08655e-03,-2.81958e-02,-1.02094e-01,5.24473e-03,-8.07247e-02,9.55484e-02,-3.21381e-02,-8.67891e-02,-1.63194e-02,1.36230e-02,4.04840e-02,-7.41623e-02,1.07052e-01,9.94446e-02,-4.18208e-02,8.92945e-02,1.42149e-01,-2.26438e-02,7.00319e-02,9.34713e-03,6.65958e-02,1.11272e-01,6.23692e-02,1.00503e-01,1.97766e-02,6.54673e-02,
1.36042e-01,-1.86992e-02,-1.79544e-02,-8.70018e-02,-8.22986e-02,-6.11040e-02,-1.36288e-01,1.64663e-02,-7.02217e-02,5.44494e-02,-4.84555e-02,1.07841e-01,-5.32159e-02,1.37577e-01,2.58202e-02,4.98845e-02,3.63438e-02,8.22655e-02,1.81073e-03,4.44799e-02,-2.62241e-02,1.26088e-02,-5.04324e-02,5.26264e-02,-3.48361e-02,1.85002e-02,-7.24848e-03,-5.00831e-02,5.71791e-02,-1.14508e-02,-9.26867e-02,3.42861e-03,-1.61033e-02,4.62389e-02,-7.91021e-02,8.24029e-02,-1.61832e-02,1.32943e-02,-5.23173e-02,-1.68944e-02,7.01433e-02,5.64672e-02,8.93480e-02,-1.52088e-02,4.40159e-02,-6.08157e-02,-4.99517e-02,-1.77559e-01,1.38815e-01,1.36181e-01,7.90621e-02,-4.74730e-02,-3.99407e-02,-9.65793e-03,-6.65472e-02,-8.18111e-02,6.76447e-02,-1.09597e-01,-5.48967e-02,-6.53034e-02,2.22062e-02,-2.17271e-02,-1.32876e-01,6.09667e-02,4.59100e-02,1.14734e-01,-1.40738e-02,-5.85022e-02,1.81907e-02,-4.62082e-02,1.58691e-01,-2.24696e-02,-3.17825e-02,1.35082e-01,1.29209e-01,3.21236e-02,-1.05088e-01,6.20439e-02,-1.56546e-02,-2.47979e-02,-9.33200e-02,4.87705e-02,5.42146e-02,9.24321e-02,1.53029e-01,2.61125e-02,2.39363e-02,-2.78212e-02,6.47997e-02,7.62113e-02,2.61686e-02,4.06728e-02,-2.71639e-03,1.12566e-02,7.11965e-02,-1.38567e-02,1.73949e-02,1.06131e-01,-6.70202e-03,-5.03449e-02,
-3.71243e-02,5.49368e-03,1.19629e-01,8.73208e-03,-6.21120e-02,1.13451e-01,6.34237e-03,1.68544e-02,-2.16312e-03,-1.04925e-01,9.14420e-02,4.95144e-02,-3.24213e-02,7.25179e-02,-2.33926e-02,-8.69539e-02,-8.55633e-03,4.80119e-02,4.97638e-02,-7.06852e-02,-2.62909e-02,3.55349e-02,-3.59989e-02,-7.69564e-02,-1.15843e-02,3.58683e-03,-2.29731e-03,9.76862e-03,-4.67609e-02,5.21340e-02,3.61952e-02,-5.10802e-02,3.74189e-02,6.26143e-02,1.45442e-02,-7.27010e-02,3.93126e-02,-4.32315e-02,7.77117e-03,-1.41859e-02,8.51439e-02,-5.05094e-02,1.00371e-01,-9.02908e-02,-2.24121e-02,8.14624e-03,-7.53860e-02,5.74940e-02,3.10499e-02,1.45972e-01,1.63373e-02,-3.51383e-02,2.16353e-02,1.40123e-01,4.66713e-02,6.50665e-02,2.86538e-02,1.38455e-01,6.37025e-02,7.10419e-02,4.83784e-02,9.70708e-02,-6.28450e-02,1.12450e-01,1.12900e-01,1.13753e-01,4.51180e-02,2.19143e-02,8.31330e-02,-9.33514e-02,-5.18439e-02,-5.88413e-03,-5.46841e-02,5.56610e-02,-5.38733e-02,4.99729e-02,-3.17254e-02,3.86239e-02,-4.84825e-02,-7.75098e-02,-2.49763e-02,-9.26715e-03,2.25752e-03,2.98622e-02,-6.70986e-02,-7.44138e-02,1.02035e-01,2.81842e-03,-8.23461e-02,-3.17366e-02,-6.97169e-03,-6.27803e-02,9.21688e-02,-3.20726e-02,-8.41884e-02,-6.59722e-02,8.51202e-02,8.30486e-02,2.48031e-03,8.35782e-02,
2.13132e-01,6.59241e-03,5.62297e-02,-3.80243e-03,7.31692e-02,2.77974e-02,1.51771e-01,3.31075e-02,3.66726e-02,3.58290e-02,1.15433e-01,-8.14578e-02,7.88660e-03,-5.92643e-03,-4.57860e-03,-1.61412e-02,5.08821e-03,-4.12926e-02,-1.62831e-01,1.18258e-01,-5.73983e-02,1.02828e-01,-6.11855e-02,7.16414e-02,5.36621e-02,1.36143e-01,3.43755e-02,9.53834e-02,-5.83961e-02,1.61150e-02,-7.30205e-02,-2.19522e-02,-5.31127e-02,-7.45758e-03,4.49333e-02,-1.12244e-01,2.22987e-02,2.14156e-02,-5.17074e-02,5.08394e-02,-5.48099e-02,-2.76414e-01,1.32489e-01,1.90006e-01,-1.06443e-01,9.23158e-02,1.51946e-01,8.78441e-03,-1.08666e-01,-2.90550e-01,1.65509e-01,1.30204e-01,2.28431e-02,-9.75177e-03,-1.51729e-04,3.04353e-02,9.30125e-02,1.01835e-01,1.07974e-01,7.24045e-02,-8.67037e-02,-4.99040e-02,-1.10075e-01,5.20880e-02,3.06318e-01,3.62573e-02,7.36087e-02,3.32869e-02,-1.23385e-02,-2.67318e-02,6.16806e-02,-4.44041e-02,1.20453e-01,-7.46739e-02,7.91032e-02,1.46873e-01,-2.28625e-01,-5.14102e-02,9.20317e-02,3.43409e-02,-6.28095e-02,-1.00140e-01,2.46233e-02,7.67457e-02,-4.63426e-02,-1.27866e-01,5.97308e-02,6.31870e-04,4.10243e-02,6.91615e-02,-1.32474e-01,-8.03949e-03,-2.10550e-02,-1.39830e-02,-9.22229e-02,2.04620e-02,-4.65382e-02,5.07523e-02,8.43737e-02,4.91400e-03,
-5.82122e-02,3.88961e-02,1.46031e-02,1.18071e-01,-1.14490e-01,5.99640e-02,3.86219e-03,-4.58206e-02,-3.85644e-02,-1.36163e-02,1.07690e-01,-1.05973e-02,5.83020e-02,3.48443e-03,-1.45916e-02,7.19775e-02,-1.76762e-02,-1.78399e-02,7.85792e-02,9.65899e-02,1.40397e-01,1.04219e-01,1.05310e-01,-7.83641e-02,9.34526e-04,7.73494e-02,5.05091e-02,-1.97219e-02,-4.68589e-03,4.67145e-02,-1.46938e-02,-3.81632e-02,1.51161e-01,-6.09501e-03,8.91522e-03,1.57966e-01,9.81409e-03,-7.03424e-02,-1.04125e-01,-1.23125e-02,-6.15134e-02,8.92197e-03,-1.25731e-01,8.14443e-02,9.44104e-02,-8.57287e-02,5.05208e-02,-9.91509e-02,-9.17482e-02,5.38166e-02,7.55891e-02,-6.58948e-02,5.02140e-02,3.96203e-02,1.35835e-01,2.05651e-02,-1.96419e-02,-5.90845e-02,7.99844e-02,-1.94515e-02,1.20359e-01,1.54962e-01,1.24439e-01,1.20961e-01,-7.66480e-02,-1.43228e-03,9.71434e-02,-3.81381e-02,4.51477e-02,4.40421e-02,1.17565e-01,-7.53418e-02,-2.96450e-02,-7.48134e-02,6.35043e-03,-4.44592e-02,-3.95236e-02,-4.11364e-02,-1.06500e-01,-3.71205e-04,1.02440e-01,-6.21658e-02,-8.47007e-02,1.64192e-02,4.18535e-02,-7.68064e-02,8.37318e-03,-3.17971e-02,-4.92251e-02,-8.18476e-02,8.41023e-02,-2.28945e-02,5.14060e-03,-3.51174e-03,-3.54591e-02,1.62716e-01,-1.30510e-03,-7.44375e-02,-8.02502e-02,-1.34100e-02,
-1.72407e-01,-8.51509e-02,-2.65812e-02,-5.25521e-02,-1.54027e-02,-1.31035e-01,-8.24064e-02,-4.41153e-02,-4.81949e-01,1.37023e-01,-8.73660e-02,1.98133e-02,-4.58911e-02,-3.98618e-02,-4.36498e-02,5.54042e-03,-2.07825e-01,9.75496e-02,-2.29437e-02,4.25342e-03,1.20154e-01,7.01669e-02,-4.94525e-02,5.23388e-02,8.61683e-02,-4.95639e-02,-8.36072e-02,2.72465e-02,-1.32866e-02,-2.00464e-02,2.83264e-02,-9.43889e-02,-1.28392e-02,-3.07697e-02,1.11491e-01,-3.89482e-02,-6.95185e-02,5.47738e-02,1.68891e-02,3.17485e-02,1.10390e-01,1.49729e-01,6.83485e-02,-6.74667e-02,-3.85412e-02,1.47601e-02,4.53286e-02,1.45415e-01,1.41505e-03,-6.24621e-04,-3.61781e-02,-2.85905e-03,7.14931e-02,-1.97963e-02,9.63535e-02,6.22802e-02,-3.19561e-02,-6.37295e-02,-4.23980e-02,1.43686e-01,-1.08216e-01,-1.57347e-01,9.43802e-02,5.94420e-02,2.87078e-02,4.51727e-02,3.29882e-02,-4.40640e-02,-1.94669e-01,7.85661e-03,2.79182e-02,-4.00614e-02,-7.98510e-02,8.30001e-02,-1.60915e-01,-2.81794e-02,-2.07233e-01,2.26523e-02,3.37474e-02,8.16075e-03,8.48116e-02,4.39966e-02,6.05015e-02,-8.07642e-02,-1.15004e-01,-5.18367e-02,2.13856e-01,2.56044e-02,-4.41674e-02,5.89550e-02,-2.10092e-01,-2.98797e-02,-1.62421e-01,1.11832e-01,2.13731e-02,-1.02537e-01,6.50134e-03,-1.19396e-01,3.42022e-02,2.29543e-02,
1.25390e-01,6.89309e-02,-9.87414e-02,-8.72028e-02,6.97978e-02,2.13817e-02,-4.64793e-02,6.16966e-02,1.40692e-02,-5.79966e-02,-6.77509e-02,-1.22889e-01,2.28787e-02,1.61731e-01,4.50848e-02,-6.57146e-03,-9.80295e-02,-1.72950e-03,-9.16433e-02,1.09395e-01,5.33378e-04,-6.20880e-02,-3.63983e-02,-5.45584e-03,-2.64268e-03,5.38070e-02,3.30789e-02,-4.25712e-02,-1.05724e-01,-5.40142e-04,6.15113e-02,-3.51928e-02,-3.03673e-02,1.47105e-02,6.91064e-02,-1.27722e-01,2.61710e-02,-7.44657e-02,-7.03364e-02,-8.93060e-02,5.46611e-02,-5.88732e-02,9.94713e-02,1.31764e-01,-8.35078e-02,-5.67057e-02,5.39808e-03,1.35749e-01,-7.85740e-02,-7.15444e-02,4.13529e-02,-2.46425e-02,1.59979e-02,-6.69234e-03,6.92173e-02,3.11424e-02,6.69979e-02,-8.44676e-02,1.43435e-01,-5.91309e-02,-3.41264e-02,-5.74983e-02,2.89624e-02,-1.45003e-02,8.00860e-03,-4.70482e-02,-7.11068e-02,-1.25045e-03,-6.24583e-02,-1.02894e-01,5.23974e-03,6.01638e-03,6.41636e-02,-1.77674e-02,1.60801e-01,1.05640e-01,5.41478e-02,1.06381e-01,2.45984e-02,-8.37287e-02,6.05972e-02,3.86880e-02,8.25296e-02,5.52487e-02,-7.05226e-02,-4.45193e-02,9.57305e-02,1.11877e-01,1.37714e-01,8.11029e-02,-3.38643e-02,3.76106e-02,-3.88378e-02,-8.35888e-02,-1.56301e-02,-7.18476e-02,2.76738e-02,7.03535e-02,1.28310e-02,-3.02406e-02,
-2.24046e-01,1.45286e-02,7.86411e-02,2.20867e-01,1.64764e-02,1.08089e-02,1.17777e-01,-3.38355e-02,1.04719e-01,3.39941e-02,4.49879e-02,-7.87207e-02,3.61022e-02,8.59996e-02,-1.16784e-02,5.37850e-02,-6.40979e-02,-3.20465e-03,1.24348e-01,1.54503e-01,-4.63065e-02,-3.53852e-02,-9.68563e-03,-9.61750e-02,5.80116e-02,-2.32778e-02,4.66996e-02,2.30360e-02,-3.52401e-02,-2.24502e-02,7.01743e-02,1.14257e-01,9.26318e-02,-9.10088e-03,-1.59913e-02,9.23944e-02,3.05495e-02,1.15464e-01,-6.46992e-02,7.63663e-02,-5.71666e-02,3.25743e-02,-1.04035e-01,-3.31925e-02,3.60048e-02,2.60811e-03,3.66829e-02,-5.81009e-02,1.07498e-01,2.75238e-01,-1.14483e-01,9.94655e-02,7.29976e-02,-1.27757e-02,-3.03921e-02,-1.53541e-02,-1.06184e-01,1.47709e-02,1.06065e-01,8.37682e-03,9.71680e-03,6.42510e-02,1.59511e-01,2.94844e-02,-1.58331e-01,-8.30348e-02,-1.62545e-02,1.33563e-02,-5.68298e-02,-2.28454e-02,5.16784e-02,-1.42253e-02,-4.36653e-03,5.69031e-02,-2.51263e-02,4.56129e-02,8.76174e-02,-1.07433e-02,-4.05311e-03,1.31953e-01,3.48617e-02,1.65277e-02,5.37180e-02,-5.11170e-02,9.28211e-02,-4.33199e-02,-2.79114e-03,-7.63139e-02,-1.81332e-02,-5.74924e-02,-1.25079e-02,-4.20256e-02,4.18512e-02,1.24786e-01,8.64971e-02,7.57631e-02,-1.44257e-02,-3.27761e-02,6.00854e-02,6.09394e-02,
-1.04083e-01,6.48614e-03,-1.76157e-02,-2.83980e-02,4.21966e-02,-9.96148e-02,7.26211e-02,4.71967e-02,5.71597e-02,1.16017e-01,2.14454e-02,7.85587e-03,-6.54343e-02,2.21076e-02,9.96895e-02,6.71767e-02,1.60807e-02,8.85876e-04,2.54526e-02,-1.03931e-02,-1.23257e-01,5.51117e-02,1.15091e-01,-2.42339e-03,6.68864e-02,-5.13169e-02,9.67234e-02,-4.31902e-02,4.24364e-02,4.61621e-02,-3.71905e-02,-1.36750e-01,-4.32118e-02,-7.52669e-02,-2.45802e-02,3.65204e-02,8.32317e-02,-6.30744e-02,-1.10375e-01,2.58460e-02,-2.27846e-02,1.26967e-01,-8.17998e-02,2.34041e-02,-8.89229e-02,-5.81569e-02,-6.51921e-03,-3.50977e-02,-7.27575e-04,2.43464e-01,-7.75539e-02,-2.52697e-03,-1.03526e-02,2.26181e-03,-4.44196e-02,-4.23934e-02,4.73411e-02,-8.30241e-03,1.14691e-02,1.72888e-02,-3.52700e-02,1.04558e-01,-7.68034e-03,5.22590e-02,4.35698e-03,1.78024e-01,-9.93574e-02,2.02914e-02,9.52177e-02,5.68265e-02,-4.68911e-02,5.46629e-02,-4.61974e-02,7.11067e-02,1.89058e-01,6.52864e-02,8.52995e-02,3.39155e-02,-2.03539e-02,-4.16641e-02,2.17902e-02,-9.27962e-03,-6.39894e-02,8.23510e-02,7.97668e-02,1.33281e-01,1.25233e-01,-2.87804e-02,-3.50531e-02,2.09502e-02,-6.41667e-02,-2.61779e-02,-1.10487e-01,-6.80540e-02,-5.84995e-03,3.05528e-02,8.56177e-02,3.47208e-02,4.67700e-02,6.12676e-02,
-2.41232e-01,1.24391e-01,-1.37171e-01,-5.69171e-02,2.29416e-02,1.04310e-01,-2.16883e-01,2.49870e-01,-2.02905e-02,-2.68831e-01,2.89079e-01,-1.93968e-02,-8.33068e-02,2.17120e-02,-2.26367e-02,4.40971e-02,9.59609e-02,-2.53433e-03,-2.53248e-01,3.32109e-02,1.38853e-01,-2.33616e-01,-5.47428e-01,6.13456e-02,1.33016e-02,3.75135e-02,1.95777e-02,-4.71218e-02,-1.23158e-01,-5.06596e-02,-6.38690e-03,5.47404e-02,3.94485e-02,-1.79702e-02,2.49075e-03,-2.38620e-01,3.66483e-03,6.12576e-02,-4.61014e-02,3.47959e-02,-1.10082e-02,9.63134e-02,8.81475e-02,-5.65318e-01,-7.05809e-02,-1.64042e-02,-4.64227e-04,-7.47581e-03,-4.73657e-02,1.90039e-01,-1.57198e-02,6.45662e-02,-2.22445e-02,1.69689e-02,3.55744e-02,-6.53035e-02,5.81710e-03,1.42820e-01,1.23196e-01,4.51170e-02,-8.47296e-02,4.59294e-02,-9.09152e-02,1.15569e-01,-7.63789e-02,3.51358e-02,3.69346e-02,-9.90164e-03,9.45525e-02,-6.59621e-02,-1.00382e-01,-7.03574e-02,-5.70068e-03,-2.03257e-01,-1.54123e-02,-9.07784e-02,2.10937e-01,-5.57772e-02,5.87477e-02,8.55686e-02,7.02849e-03,2.03262e-02,6.59071e-02,9.53710e-02,1.13221e-02,-6.31716e-02,-8.07601e-02,-5.19804e-02,1.42664e-02,-2.66878e-03,-4.31664e-02,-2.66112e-02,8.46961e-02,-4.12221e-02,-6.76961e-02,-1.40243e-01,7.55738e-02,7.49699e-02,2.69883e-02,2.28146e-02,
-2.52565e-01,-4.56115e-02,7.81360e-02,4.34261e-03,7.33605e-03,-1.36810e-01,5.09774e-02,-1.66059e-02,2.37013e-02,-2.18199e-02,-1.29781e-01,1.99679e-02,3.09699e-02,-5.88116e-02,-1.99948e-02,5.89736e-03,-6.31661e-02,1.22221e-01,7.98680e-02,1.73663e-02,-3.06307e-01,-4.64916e-02,4.33305e-02,-1.33689e-02,2.37677e-02,9.36586e-02,1.51554e-02,-6.14156e-02,4.92553e-02,1.22821e-02,-5.42856e-02,-2.50418e-02,-2.60015e-02,-9.69674e-02,2.40066e-02,2.15125e-01,-3.40960e-02,3.16482e-02,-3.69495e-02,1.34321e-01,-9.87828e-02,1.66666e-01,4.95296e-02,1.33143e-02,7.53944e-02,3.71589e-02,3.39548e-02,1.09755e-03,5.23923e-02,1.24130e-01,-1.95731e-02,2.14838e-02,-5.22261e-02,1.82689e-02,2.04994e-02,-9.28684e-02,4.32519e-03,1.52932e-02,-3.71414e-03,-1.09435e-01,-7.03914e-02,7.54141e-02,4.55635e-02,-4.94521e-03,-2.68940e-01,-3.78448e-02,8.06678e-02,-9.67118e-03,4.95772e-02,-7.03344e-02,-3.32930e-02,1.10087e-02,2.12224e-02,1.53241e-02,-2.10500e-01,8.08703e-02,-1.31187e-01,1.33448e-02,5.33878e-02,-2.52164e-02,2.22847e-02,-3.39661e-02,5.85751e-02,7.55475e-02,2.15877e-01,1.64338e-02,1.22132e-02,-2.55131e-02,-9.69501e-02,-1.11160e-01,4.25001e-02,6.53514e-02,3.78558e-02,6.20112e-03,1.05644e-02,6.36349e-02,1.46959e-02,3.17849e-02,8.42407e-02,1.14745e-03,
2.28093e-01,-5.80499e-02,9.31526e-02,-2.47831e-02,1.13557e-01,-1.21457e-01,-7.17749e-02,-1.32864e-01,5.33764e-02,-5.87647e-03,1.24687e-03,-2.90695e-02,1.44723e-01,9.85758e-02,-1.48896e-01,-3.69170e-04,-1.05076e-02,-1.56287e-02,6.10325e-02,2.99745e-02,1.60940e-01,-3.20428e-02,2.01317e-02,2.95979e-02,2.97708e-02,7.64454e-02,-1.18723e-02,1.22520e-02,1.18837e-01,-8.25973e-02,-1.41901e-02,-2.44005e-02,-1.00094e-01,-1.35999e-01,-2.34779e-02,-5.08634e-02,-3.53138e-02,1.54456e-01,2.97497e-02,-5.10270e-02,-4.24047e-02,4.06058e-02,-2.10635e-02,-8.13904e-02,-5.53634e-02,5.43809e-02,4.13947e-02,-9.30549e-02,-3.01111e-02,-1.05039e-02,1.08046e-02,9.91665e-02,-1.64486e-02,8.45639e-02,-5.19041e-02,6.44536e-03,5.53847e-03,-5.51691e-01,-7.42176e-02,7.32500e-03,-6.19503e-02,-6.64629e-02,5.26397e-02,1.68561e-01,-6.29377e-02,6.51189e-02,8.88169e-02,2.12945e-02,-3.92506e-02,2.76327e-02,1.60985e-01,4.61416e-02,3.81546e-02,9.70835e-02,-1.56049e-01,4.05756e-02,9.91963e-02,-5.38526e-02,5.20044e-02,4.07693e-02,-4.72397e-02,8.70558e-02,-1.24810e-01,4.50107e-02,-1.50849e-01,-2.29223e-03,1.86710e-01,-4.78772e-03,-2.13277e-02,5.52232e-02,-9.07827e-02,-6.84918e-02,-1.41948e-01,2.54716e-02,-6.24176e-02,1.18582e-01,9.01245e-02,-1.35926e-02,-1.85413e-01,9.45662e-02,
-9.80938e-02,1.03095e-01,-8.67147e-02,5.64141e-02,3.71718e-02,-1.01620e-01,9.68913e-02,2.93013e-02,-1.36621e-02,4.39435e-02,-3.92591e-02,1.00638e-03,-3.61080e-02,-7.92086e-02,-6.05856e-02,-9.24705e-02,-3.21621e-02,-1.88512e-03,2.93092e-02,6.32702e-02,1.35981e-01,-4.31173e-02,3.71432e-02,-4.37566e-02,6.94533e-02,4.28832e-02,5.08889e-02,6.24128e-02,1.68812e-02,-1.88936e-02,3.78630e-02,7.62101e-02,7.31855e-03,-1.21120e-01,2.32343e-02,2.35841e-02,1.30755e-01,7.40749e-02,5.45443e-02,-5.12212e-02,9.55036e-02,1.45588e-01,-4.80285e-02,4.39072e-02,4.21708e-03,-3.11136e-02,-2.70237e-02,-1.43996e-01,2.58890e-02,1.70315e-01,-5.81112e-02,1.21588e-01,1.07446e-01,1.00113e-01,8.23763e-02,-6.77870e-02,-4.58574e-02,-1.44175e-01,8.81343e-03,8.41865e-02,6.21159e-02,7.63791e-02,5.61732e-02,1.06371e-01,2.44617e-02,-6.78422e-02,-5.47689e-02,1.78061e-02,1.10184e-01,-1.90775e-02,3.11409e-02,-6.60852e-02,-3.19705e-02,-5.33207e-02,-1.03491e-01,-4.19436e-04,-1.27327e-03,3.29250e-02,-3.22332e-02,5.95314e-02,4.62168e-02,6.28837e-02,-5.20619e-02,-3.87879e-02,2.93495e-02,-7.82017e-02,2.48205e-03,-1.80073e-02,-3.07958e-02,-1.72107e-02,-9.86803e-02,-3.97770e-02,3.95013e-02,9.71071e-02,2.62881e-02,-8.12145e-02,2.22771e-02,-9.71166e-02,-6.57353e-02,5.11100e-02,
-6.23904e-03,3.46195e-02,1.03648e-01,6.42789e-02,-3.37468e-02,-3.77833e-02,5.40797e-02,-7.17685e-02,-4.96222e-02,3.67811e-03,7.71207e-02,-1.03363e-01,-3.97925e-02,6.46925e-02,3.56731e-02,-7.17018e-02,4.90368e-02,-5.27068e-03,-3.22330e-02,-6.61961e-02,1.30237e-01,1.16821e-01,1.39632e-01,-9.09116e-02,-6.89466e-02,-1.20079e-01,3.52547e-02,-2.34528e-02,-3.12549e-02,8.31432e-02,-9.37819e-02,7.33668e-02,2.65189e-02,-4.56640e-02,-1.39001e-02,2.09251e-01,-6.61362e-02,-7.46424e-03,3.03280e-02,-7.21793e-02,-1.62316e-02,2.48971e-01,6.06851e-03,1.49902e-02,2.10932e-02,7.70980e-02,-2.72812e-02,1.32079e-02,-3.51606e-02,2.99137e-02,-3.32198e-02,-6.38936e-02,-3.02997e-03,4.85205e-02,4.40643e-03,-2.53413e-02,-5.15854e-02,-5.41549e-02,7.94262e-02,-5.29770e-02,7.42166e-02,2.40775e-02,4.11482e-02,-5.47800e-02,-1.50133e-01,-1.33222e-01,8.07902e-02,-2.71952e-02,1.71328e-02,-1.34819e-02,-1.88579e-01,5.17303e-02,4.45839e-02,-1.11986e-01,1.12597e-01,3.54519e-02,2.67092e-02,6.08287e-02,-8.14752e-02,1.01590e-02,-1.32368e-01,5.78808e-02,-1.13457e-01,-1.42821e-01,-2.83866e-02,-4.68482e-02,-1.09624e-01,-9.48237e-02,-5.06701e-02,-1.18577e-03,-7.61727e-02,-3.07396e-02,7.49071e-02,2.50877e-02,2.87907e-02,-1.81496e-02,7.70794e-02,-4.10680e-02,-1.27457e-01,-1.02389e-03,
2.71169e-01,8.52659e-02,8.66729e-02,-1.23726e-02,2.75691e-02,6.93177e-02,-1.37764e-02,3.64405e-02,6.75400e-02,4.52282e-02,-4.73354e-03,-6.66933e-02,1.57154e-02,2.52279e-02,-3.88082e-02,-7.65311e-02,-7.33311e-02,4.72452e-03,-1.30100e-01,-6.57291e-02,8.51962e-02,-6.44839e-02,-8.53271e-02,-4.36669e-02,-1.15563e-01,-1.96642e-02,-5.96977e-02,-1.65515e-03,2.02148e-02,5.94389e-02,8.77194e-02,-1.00878e-02,8.60183e-02,-4.60496e-02,-9.11186e-02,-1.48956e-01,-1.04321e-02,9.11999e-02,-3.83672e-02,-6.47800e-02,1.86504e-02,-1.93954e-02,-1.50684e-01,4.57535e-02,1.96551e-02,-2.60286e-02,9.37736e-02,1.87628e-02,5.14783e-02,1.45776e-01,-7.44477e-02,3.64124e-02,7.76692e-02,-3.00605e-02,-6.01779e-02,3.20416e-02,-2.26139e-02,-1.07902e-01,-1.52797e-01,8.61795e-03,1.00521e-01,4.17532e-02,-1.45354e-02,9.16670e-02,1.94944e-01,6.88697e-03,-3.10991e-02,6.38489e-02,1.27943e-01,4.69210e-02,1.85214e-02,6.87895e-02,-6.66167e-02,8.46693e-02,1.23107e-01,2.53565e-02,3.01443e-01,-4.45272e-02,-1.03305e-02,-2.20213e-02,2.91764e-02,-7.67959e-02,-7.07428e-02,-2.10350e-02,-9.68494e-03,9.74970e-02,1.20796e-01,-6.44874e-02,6.47036e-02,8.08585e-02,-1.87633e-02,9.34299e-03,-8.63582e-02,-7.20601e-02,6.61370e-02,8.57885e-02,5.09660e-02,-1.49016e-02,-2.45796e-02,-3.83919e-02,
2.85020e-01,4.50107e-02,-7.60663e-02,6.63117e-02,5.89240e-02,-4.11394e-02,6.38476e-02,4.40818e-02,-3.19887e-02,8.64229e-02,9.11509e-02,1.23059e-01,5.28843e-03,7.85956e-02,-2.93384e-02,-5.06377e-02,-5.00235e-02,-3.61375e-02,-1.43272e-02,-2.79417e-02,1.06682e-01,-3.12894e-02,-4.97173e-02,-5.43834e-02,-4.96594e-02,-6.17348e-03,-1.07355e-02,-1.73442e-02,-8.68788e-02,-1.71898e-02,1.07099e-01,4.32124e-02,4.07717e-02,2.92994e-02,5.95075e-02,-2.33926e-02,6.20535e-03,6.83703e-02,-3.27168e-02,4.62402e-02,1.37177e-02,-5.29039e-02,-4.02729e-02,-1.57877e-02,-3.78466e-02,-6.26059e-02,5.35054e-02,4.36310e-02,7.08857e-02,2.61105e-02,-8.82123e-03,-3.42120e-02,-7.10701e-02,-8.96694e-03,-7.31512e-02,8.40806e-02,-6.47951e-02,-8.42497e-03,8.43960e-02,1.11897e-01,7.49581e-02,-1.99075e-02,4.69204e-02,2.83809e-02,-4.27447e-02,-7.27340e-02,8.44714e-02,-1.06407e-01,1.77440e-01,-1.58310e-02,1.11479e-02,-2.16928e-02,1.75615e-01,5.16299e-02,1.75871e-02,5.04744e-02,4.97114e-02,-2.60024e-02,1.07013e-01,4.96434e-02,-7.20014e-02,-1.56893e-02,-7.46913e-03,-6.46970e-02,-8.79261e-04,2.03927e-02,-3.67459e-03,-9.70309e-03,2.01110e-03,1.47273e-01,1.03844e-01,-5.84586e-02,2.35762e-03,-6.66248e-02,4.34612e-02,6.55145e-02,3.30318e-02,2.53083e-02,-2.88353e-02,1.83243e-02,
-1.34609e-01,-9.46367e-02,4.76344e-02,-1.07693e-01,-1.72993e-02,-5.75512e-02,9.64748e-02,-2.52414e-02,-2.00418e-02,3.32076e-02,8.13613e-02,-2.63129e-02,7.91568e-02,6.70217e-02,-5.84466e-03,-4.46095e-02,-5.82345e-02,7.77233e-02,3.03430e-02,6.10267e-02,1.73661e-02,-4.45528e-02,-3.91944e-02,1.22558e-01,-3.21553e-02,-4.39289e-02,-3.76350e-02,-1.24921e-02,7.50213e-02,-7.00871e-02,-5.86690e-02,-3.79514e-02,-8.40403e-03,1.09918e-01,9.71581e-02,-1.41152e-02,6.67985e-02,6.86315e-02,3.74692e-02,3.72952e-03,3.76781e-02,1.84435e-01,-1.21874e-02,1.27998e-02,-4.42817e-02,-3.67793e-02,-4.64531e-02,-9.76812e-02,-1.03772e-02,2.41205e-01,1.13799e-01,-4.78821e-02,2.58904e-02,5.30346e-02,-2.61689e-03,4.82590e-02,1.67569e-01,2.18954e-02,2.43749e-02,1.26546e-01,-5.51240e-02,3.30680e-03,4.36024e-02,-7.18584e-02,-1.74666e-01,1.48885e-01,-1.31922e-02,-6.71118e-04,-1.06272e-01,-2.91507e-02,-1.43186e-02,3.88449e-02,4.26759e-02,2.50711e-02,2.97867e-02,3.46946e-02,1.56664e-01,-1.38951e-02,-6.54616e-02,5.14055e-02,1.32463e-02,-3.03258e-03,-1.06031e-02,-3.49449e-02,4.81186e-02,-8.05675e-02,9.42120e-02,4.59696e-02,-2.02263e-02,1.39789e-02,7.37996e-02,-4.90541e-02,-1.62003e-02,-5.81815e-02,9.24394e-02,7.17465e-02,1.92208e-03,4.93967e-02,6.57003e-02,1.11734e-01,
2.23098e-02,4.63306e-02,8.76532e-02,-6.99406e-02,8.15557e-02,-2.88149e-02,6.35473e-02,6.92085e-02,-1.49379e-02,1.25760e-01,-3.61486e-02,-4.33086e-02,-3.47824e-02,-1.62422e-01,1.23164e-01,7.67009e-02,-4.47454e-02,1.84114e-02,-5.69058e-02,1.28546e-01,-1.67135e-01,-1.62774e-01,5.36562e-02,2.21666e-02,8.24428e-02,2.65549e-01,2.01583e-01,-9.81771e-02,8.30057e-02,-2.99181e-02,-4.47424e-02,-1.76188e-01,-2.02335e-02,-1.89851e-03,2.12152e-02,-7.51050e-02,-1.21887e-01,-1.03839e-01,7.40251e-02,-5.36631e-02,-3.39225e-03,-3.74981e-01,6.79914e-02,9.51840e-02,7.66592e-03,-3.55430e-02,1.10714e-01,2.11357e-01,-2.35340e-03,-7.10518e-01,1.00751e-01,3.79750e-01,-6.81779e-03,-2.83295e-01,-2.87252e-03,-6.12567e-02,-9.49126e-02,1.09045e-01,1.14259e-01,3.06403e-02,6.58100e-02,1.19007e-01,-8.49836e-04,1.38378e-01,5.28300e-01,-7.25240e-02,-3.84649e-02,2.18833e-01,4.29596e-02,-4.54596e-02,1.59525e-01,1.01065e-01,-5.63066e-02,9.08061e-03,-4.23915e-02,8.73026e-02,-5.10960e-01,1.26823e-01,1.45143e-02,2.88595e-02,-2.99115e-02,4.02479e-02,2.38186e-02,-1.34690e-01,-1.11049e-01,-8.00966e-02,2.18473e-01,8.75834e-02,-1.28788e-01,-6.72632e-02,-7.95122e-02,-7.09546e-02,5.63390e-02,-4.17979e-02,-1.08882e-01,-1.14253e-01,5.85044e-02,2.28075e-01,-8.99010e-02,-6.76323e-02,
2.92792e-02,4.01275e-02,6.40667e-02,-9.95780e-02,4.94776e-02,5.02448e-02,2.89504e-02,-5.01568e-02,-5.32861e-02,3.17567e-02,1.23859e-01,-1.90104e-02,-4.99885e-03,2.31288e-02,-1.69412e-02,-8.01673e-02,6.21024e-02,2.35156e-02,6.27224e-02,-8.43104e-03,1.00103e-01,-5.58978e-02,3.95516e-02,4.41688e-02,7.87189e-02,-2.06832e-02,-6.04864e-02,-6.00681e-02,-5.55272e-03,-1.14802e-01,5.51351e-02,7.40682e-02,1.81868e-02,-4.33971e-02,7.30902e-02,9.67598e-02,5.75265e-02,2.24701e-02,-1.91733e-02,-6.83162e-02,-1.13140e-01,3.08811e-02,9.28634e-02,2.25957e-02,1.73660e-02,-4.78601e-02,2.92202e-02,2.54358e-02,8.01909e-02,1.78989e-01,3.69853e-02,1.49887e-01,6.09279e-04,7.33861e-02,7.93248e-02,-1.08673e-02,1.31928e-01,5.24865e-02,-3.94807e-02,1.20500e-01,-1.22847e-02,-5.00918e-02,1.49779e-03,-1.26766e-01,-7.53156e-02,7.25850e-02,3.67918e-02,-6.91937e-02,1.27177e-02,-2.38116e-02,-2.01458e-02,4.20860e-02,1.46486e-01,-9.80456e-02,3.80499e-02,4.11808e-02,-1.23251e-02,3.82119e-02,2.44101e-02,3.36406e-03,7.33781e-02,1.83572e-02,-3.10564e-02,1.33476e-02,-3.76925e-02,1.72888e-02,-5.00468e-02,2.75332e-02,-5.29001e-02,4.14790e-02,-3.96062e-02,6.29131e-02,-1.90615e-02,-5.09335e-02,1.11497e-01,1.51749e-02,1.64767e-03,-6.05769e-02,1.61164e-02,-2.44400e-02,
-1.55271e-01,1.88886e-02,3.25809e-02,-1.71879e-01,6.22060e-02,-5.46694e-02,7.98230e-02,7.62750e-03,5.47704e-02,6.45757e-02,-4.14065e-02,3.57021e-02,-3.53258e-02,7.23647e-02,-4.43632e-02,5.03563e-02,-7.90668e-02,4.46021e-02,7.34643e-02,-9.91285e-02,-4.80112e-02,1.21874e-01,1.54559e-01,1.44158e-02,1.18711e-01,-4.64778e-02,3.80470e-02,1.28252e-01,1.01085e-03,2.42334e-02,2.06308e-02,-3.16878e-03,-1.55082e-01,-3.45331e-02,6.06340e-02,1.83712e-01,7.47431e-02,2.48150e-02,-7.20244e-02,-7.06538e-02,-3.42730e-02,1.66567e-01,1.22894e-02,-1.04830e-01,9.16938e-03,7.98066e-02,2.80808e-02,-7.23471e-02,-4.47553e-02,-1.76055e-02,1.40207e-01,9.67324e-02,-7.44435e-03,5.76248e-02,8.69471e-02,3.31269e-02,5.04442e-02,-5.25171e-02,8.81611e-02,1.79411e-02,-3.28573e-02,-1.34016e-01,-9.88773e-02,-1.66500e-02,-1.21683e-01,6.84525e-02,-9.41002e-03,7.97054e-02,-7.83229e-03,6.10303e-02,8.42282e-02,-8.40703e-02,5.90041e-02,-3.27901e-02,3.92147e-02,-3.59471e-02,2.77326e-02,-3.26722e-02,4.75056e-02,4.46291e-02,7.34174e-02,-4.27006e-02,7.45729e-03,6.75003e-02,4.99574e-03,4.22005e-02,3.65371e-02,7.66554e-02,1.09956e-02,-3.66647e-02,2.84525e-02,-3.08093e-02,-6.42570e-02,9.89958e-03,-1.13413e-03,5.96250e-03,-2.05027e-02,-1.88713e-02,-5.55059e-02,-1.20514e-02,
5.66979e-02,1.62505e-01,-9.05537e-02,-1.42119e-01,7.79613e-02,1.69272e-01,-2.04000e-01,2.59764e-01,7.87196e-02,-4.34532e-02,2.55520e-01,2.81553e-02,-1.86994e-01,-8.02299e-03,1.44405e-01,-1.59108e-01,-4.73864e-02,1.60788e-02,-1.52425e+00,-2.36414e-01,2.07320e-01,-2.94109e-01,-2.95051e-01,-7.75214e-02,6.73508e-02,-6.54516e-02,-4.89208e-01,-7.74654e-02,-8.26206e-02,-7.46942e-02,-5.45243e-02,-6.45258e-01,3.95408e-02,1.85052e-02,5.36103e-02,-1.60242e-01,2.14479e-02,1.23216e-01,6.58289e-02,-6.31741e-02,9.22338e-02,-1.11561e+00,7.75588e-02,7.42172e-02,-8.25463e-02,2.79322e-02,-5.21714e-02,4.29885e-02,-2.50443e-02,2.30670e-01,3.38285e-02,-1.12834e-01,-3.79346e-02,1.00732e-01,-1.60506e-02,2.39739e-01,-6.41734e-02,-2.43667e-01,-1.11945e-01,1.28978e-01,5.57762e-02,-4.27004e-02,3.71361e-02,-7.62712e-02,1.96958e-02,-2.31396e-02,3.71141e-02,-6.89697e-02,9.29688e-02,-3.47191e-02,1.54315e-01,-1.27308e-02,-1.06105e-02,-4.88833e-01,-1.70605e+00,5.50735e-02,1.68709e-01,6.26867e-02,6.39781e-02,3.81417e-02,4.95368e-03,7.16697e-02,3.33150e-01,4.39497e-02,3.51415e-01,-4.90302e-02,-2.45280e-01,-1.66226e-01,1.64585e-01,-1.96854e-03,-2.51741e-03,-6.50249e-02,7.38447e-02,-1.31687e-01,-5.17167e-02,-1.42140e-01,-2.61766e-01,2.79515e-02,2.67357e-01,2.46411e-02,
1.38999e-02,-2.28872e-02,1.08670e-01,-5.86057e-02,-5.24717e-02,9.28532e-02,-2.01767e-03,-6.17050e-02,1.07921e-01,3.31068e-02,-3.64721e-02,5.02920e-02,6.01518e-02,4.62631e-02,6.13574e-02,-4.09412e-02,-4.30223e-02,-8.86411e-02,5.91032e-02,2.27385e-02,-8.45237e-03,9.57537e-02,-6.74852e-02,1.71876e-02,1.37182e-01,-3.05287e-02,5.48786e-02,-2.86449e-04,5.74494e-02,-9.70129e-02,-9.88326e-02,-8.45532e-03,1.22681e-02,-9.71884e-02,1.14487e-02,7.81226e-02,2.50141e-02,-3.07499e-02,-5.35758e-02,-3.46450e-02,7.37642e-02,-6.85766e-03,6.16296e-02,-4.83658e-02,8.42240e-02,-1.13779e-02,-1.18914e-02,4.98775e-02,7.40688e-03,1.20830e-01,4.23084e-02,-1.25621e-01,-2.93193e-02,6.45520e-02,-3.48903e-02,-1.24467e-01,6.63426e-02,-5.13580e-02,-8.69307e-03,3.00079e-02,-8.29663e-02,-7.74108e-03,8.38213e-02,7.87386e-02,-1.76102e-02,9.15109e-02,8.22296e-02,-1.23499e-02,2.90108e-02,9.11917e-02,-6.01962e-02,9.35774e-04,-4.98203e-02,-2.79517e-02,1.06684e-01,2.79777e-02,3.91577e-02,7.90168e-02,5.07843e-02,-5.72489e-02,-2.74885e-02,7.66022e-02,-3.78751e-02,-7.22936e-02,8.85144e-02,4.01827e-02,5.21533e-02,-1.51730e-03,-1.80114e-02,1.02382e-02,6.81616e-02,6.26201e-02,-9.79146e-03,8.71728e-02,7.96695e-02,-2.03134e-02,4.54429e-02,-4.24930e-02,-9.93201e-02,1.01905e-01,
1.26050e-01,2.41336e-02,9.17542e-02,1.02809e-02,6.73204e-02,-2.91051e-02,2.76294e-02,2.69978e-02,-8.39278e-03,3.66900e-02,-9.92176e-02,-7.08905e-02,1.25724e-01,-4.26843e-02,2.70728e-02,5.29826e-02,1.48696e-02,6.90065e-02,-3.40956e-02,8.68862e-02,1.34908e-01,3.96318e-02,5.17156e-02,-1.01289e-01,-4.91339e-02,-5.36796e-02,-1.56864e-02,1.58761e-01,2.03433e-02,-3.47912e-02,-1.83800e-02,-1.31861e-02,-7.06094e-02,7.16679e-03,4.58296e-02,1.92474e-01,6.17814e-02,8.62955e-02,3.99198e-02,5.58789e-02,6.81929e-02,2.17651e-01,-9.16172e-02,-2.61666e-02,4.63412e-03,-3.75536e-02,1.12706e-02,-9.79061e-02,4.84856e-02,-8.19797e-02,-4.43430e-02,-1.91125e-02,8.04767e-02,-5.24246e-02,-2.98764e-02,-3.31276e-02,6.33030e-02,-1.81672e-01,-6.02984e-02,-3.53568e-03,-1.24200e-03,5.88635e-02,-7.29373e-02,-6.27619e-02,-8.50083e-02,-3.81427e-02,-4.29553e-02,-3.68805e-02,-1.79789e-02,3.92745e-02,-6.54935e-02,2.70513e-02,8.77108e-02,7.10108e-02,-7.66935e-02,-1.40017e-01,-7.23079e-02,-3.78142e-02,-1.28179e-03,-2.05332e-02,1.55934e-03,7.41226e-02,3.58499e-03,2.86845e-02,2.66582e-01,8.31559e-02,2.84798e-02,2.40957e-02,-4.90550e-02,-9.96080e-03,-4.04618e-02,-3.75934e-02,-2.22113e-02,-1.61649e-02,8.45597e-02,5.32960e-02,-3.79831e-02,4.97156e-02,2.70741e-02,-5.14367e-03,
-2.56769e-01,-3.81493e-03,1.22690e-02,-1.66677e-01,-3.01885e-02,-2.65618e-02,5.81540e-02,5.99111e-02,-2.74701e-02,-9.51805e-03,-6.89361e-02,8.67304e-02,4.72631e-02,5.73567e-02,-5.43943e-02,-4.92230e-03,3.60995e-02,4.20893e-02,5.15042e-02,5.37684e-02,1.73311e-02,4.41033e-02,-5.89328e-02,-4.85287e-02,4.81682e-02,4.97363e-02,9.23311e-02,1.00847e-01,-3.53226e-02,2.82589e-02,-1.03683e-02,1.12097e-02,-1.34461e-01,-5.37916e-02,5.90947e-02,6.84270e-02,3.48631e-03,2.88766e-02,-1.11285e-01,1.01377e-01,-9.34527e-02,1.49421e-01,1.20613e-01,3.24666e-02,6.85823e-03,1.31660e-01,6.30965e-03,2.84233e-02,2.63499e-02,1.23890e-01,5.38643e-02,-3.43953e-02,4.31544e-02,3.02855e-02,-2.67091e-02,-1.00885e-01,2.97978e-02,1.27720e-02,1.05689e-01,6.36366e-02,-2.56710e-02,-1.73094e-01,4.35574e-02,-9.59857e-02,-1.69311e-01,-5.69452e-04,2.97628e-02,-2.72026e-02,-3.36206e-02,-9.36733e-02,-7.60049e-02,1.45986e-02,2.54066e-01,6.24470e-02,3.45640e-02,3.67102e-02,-1.10278e-01,-6.05876e-02,1.94481e-02,-3.38589e-02,-7.23390e-03,4.17199e-02,1.53697e-01,2.06223e-02,1.35900e-01,6.79156e-03,1.09452e-01,-4.38042e-02,-2.94993e-02,1.56481e-01,8.97504e-02,-4.75941e-02,-1.45144e-01,-6.12202e-02,1.10354e-01,4.91760e-02,1.68243e-02,9.07598e-02,8.87931e-02,1.33199e-01,
2.74877e-01,2.26953e-02,4.34135e-03,1.38800e-02,-5.91640e-04,-9.53956e-03,6.68069e-02,-5.84592e-02,-4.41453e-02,5.06837e-02,6.57198e-02,1.89100e-02,1.40938e-01,1.27310e-01,-3.73563e-02,9.22655e-02,-1.00516e-01,2.42853e-01,-2.49123e-02,3.54448e-03,-1.59136e-01,8.15220e-02,6.43692e-02,-2.67623e-02,-4.26229e-02,-1.40776e-02,8.37154e-02,-1.89532e-03,6.20425e-02,-7.28955e-02,-2.98714e-02,-5.88543e-02,1.01537e-01,-2.20832e-01,-6.05550e-02,1.49347e-02,7.45535e-02,4.54522e-02,1.34602e-01,-6.65734e-02,2.02156e-02,-1.28285e-01,-9.61771e-02,-6.05408e-02,-4.17508e-02,-5.83514e-02,1.00113e-01,4.27261e-02,-3.45841e-02,3.08599e-01,3.02280e-02,-4.40721e-02,4.98073e-02,1.14472e-02,5.38978e-02,-4.86374e-02,-1.34355e-01,5.46643e-02,-1.29733e-01,-4.06136e-02,-4.38065e-02,-4.82966e-02,4.48437e-02,-3.63260e-02,-4.63082e-01,1.49696e-01,7.76807e-02,6.05899e-02,-1.02219e-01,-2.59420e-03,-7.81022e-02,4.85058e-02,3.83669e-02,4.11712e-02,2.49505e-01,-3.44587e-02,6.65940e-02,7.49659e-02,5.40021e-02,-6.14467e-03,-3.45801e-02,1.45380e-01,-8.23809e-02,-1.92625e-02,-1.50602e-03,7.62022e-02,2.26472e-01,-9.66949e-02,3.50803e-02,4.56777e-03,8.27329e-02,-2.30029e-02,3.04134e-02,5.35617e-02,-1.13691e-01,2.37772e-02,-2.62620e-02,-5.19062e-02,-2.31624e-02,1.13723e-01,
-1.98713e-03,-2.62793e-02,9.94929e-02,-1.32828e-01,5.54764e-02,1.36653e-02,5.14071e-02,8.29078e-02,-2.08737e-02,-1.16920e-02,-4.63052e-02,-7.68623e-03,9.70755e-02,9.64301e-03,9.80271e-02,-2.89079e-02,-1.38500e-02,-1.63869e-02,1.95745e-02,9.71391e-03,-8.52920e-02,4.90439e-02,1.38183e-02,1.98445e-02,-2.69458e-02,6.54282e-03,5.75865e-02,-5.03954e-02,4.85173e-02,-6.45746e-02,-1.00227e-02,1.68170e-02,-1.20720e-01,-6.85009e-02,1.38033e-01,-6.36080e-02,-4.57942e-02,6.62849e-02,1.41738e-04,-7.26878e-02,4.28637e-02,1.62358e-01,3.42608e-02,-1.23487e-02,3.92208e-02,8.70609e-02,-1.38743e-02,4.03225e-02,4.55021e-03,5.47463e-02,-4.91232e-02,3.60678e-02,2.27037e-02,7.80886e-02,-8.62349e-02,6.59000e-02,1.52930e-01,-3.83412e-04,-9.53927e-03,-6.59173e-02,4.35591e-02,1.24927e-01,7.57226e-02,1.29531e-02,3.81639e-02,1.67391e-01,4.79463e-02,2.76468e-02,1.30003e-01,-3.68328e-02,-7.43891e-02,-2.69321e-02,-1.10773e-02,4.60508e-02,1.00427e-01,7.75430e-02,9.33637e-03,-4.43704e-02,2.32427e-02,4.20817e-02,3.08686e-02,9.35267e-02,6.42338e-02,-8.37142e-03,1.24333e-02,4.22286e-02,1.43559e-01,2.66688e-02,1.29603e-02,4.64851e-02,-1.23373e-01,-9.87210e-02,-3.75064e-03,1.02862e-03,1.49757e-02,-2.21496e-02,-5.18182e-02,5.08668e-03,-1.97926e-03,7.93500e-02,
-4.52110e-02,1.42191e-01,3.15334e-04,1.48816e-01,-1.86072e-02,-6.41161e-02,-5.57279e-02,-2.87816e-02,-2.79717e-02,6.13155e-02,2.46182e-02,-5.31679e-03,-2.35202e-02,-5.33755e-02,-2.35600e-02,-2.31133e-02,7.54448e-02,5.72210e-02,5.51943e-03,6.89733e-02,1.80900e-01,-9.31392e-02,9.85634e-02,3.65824e-02,-4.31264e-02,-9.64709e-02,6.85553e-02,1.28986e-01,5.72250e-02,3.86508e-03,1.94451e-02,-6.73482e-02,1.83563e-01,-3.79582e-02,3.95390e-02,5.09661e-02,-6.99840e-02,5.80885e-03,6.53550e-02,3.86930e-02,-1.37385e-02,1.10525e-01,-1.52749e-01,-4.27830e-02,1.01804e-01,6.08634e-02,-6.17463e-02,6.08891e-02,-1.00946e-01,-3.86564e-02,1.09257e-02,2.76356e-02,1.01204e-01,1.14229e-01,4.27085e-02,-5.94316e-02,-6.24034e-02,-5.09659e-02,5.89489e-02,1.20166e-01,-2.38060e-02,-6.77907e-02,2.06434e-02,5.51303e-02,5.66272e-02,-1.15172e-01,2.11622e-02,-9.21434e-02,9.20938e-02,-6.40948e-02,-3.74876e-02,-6.10474e-02,4.61765e-03,1.15355e-01,1.30953e-01,2.54899e-02,-1.10115e-01,4.29106e-02,-9.30761e-02,-4.46531e-02,7.46627e-02,8.38772e-02,-3.91213e-02,-4.42251e-02,1.53781e-02,6.00291e-02,1.13146e-01,1.19203e-01,-8.47732e-02,-7.70096e-02,6.44592e-02,8.02442e-03,-8.72067e-02,-2.66205e-02,1.15429e-01,1.37421e-01,-2.66354e-02,2.71638e-02,-4.83228e-02,6.56083e-02,
-7.53208e-02,7.46457e-02,4.25092e-02,1.58578e-01,-6.61262e-02,-1.48404e-02,1.09122e-01,-8.00981e-03,3.74731e-02,-7.68481e-02,-2.31539e-02,-4.08123e-02,9.11107e-02,2.40392e-02,-5.21454e-02,3.65422e-03,-7.76506e-02,6.71792e-02,3.73210e-02,1.22766e-02,1.13050e-01,2.91030e-03,-5.41587e-02,6.13466e-02,2.67375e-03,1.35153e-02,5.11838e-02,-5.09919e-03,3.06278e-02,9.87618e-02,6.58959e-02,6.51061e-02,5.03708e-02,-6.66899e-02,-8.24933e-03,-5.12730e-02,-7.09919e-02,5.61770e-02,6.90230e-02,-9.71410e-02,5.21326e-02,5.83352e-02,8.18394e-03,-8.40792e-02,7.74902e-02,8.06577e-02,3.15573e-03,1.70287e-02,9.28655e-02,2.43655e-02,-1.00335e-01,-6.90207e-02,7.34122e-02,1.23185e-01,-4.98001e-03,2.82983e-02,-2.75253e-02,6.70885e-02,5.97878e-02,4.29054e-03,-6.72283e-02,7.36054e-02,3.49094e-02,-3.78832e-02,-5.04606e-02,-1.12946e-01,6.03965e-02,6.32078e-03,1.76639e-02,-6.99988e-03,2.67768e-02,-5.28110e-02,1.03513e-01,6.18975e-02,-1.15684e-01,-1.43177e-02,2.20951e-02,3.08713e-02,4.27038e-02,-2.01693e-02,2.46317e-02,4.45078e-02,1.06711e-01,-3.11401e-02,-6.14914e-02,-8.28973e-02,-4.98080e-02,4.13471e-02,-2.30483e-02,-3.58792e-02,1.09164e-01,7.21181e-02,4.09052e-02,-1.20252e-02,2.96330e-02,9.57603e-02,-1.55096e-02,-3.44015e-02,3.03774e-02,1.37971e-01,
1.23565e-01,7.64087e-02,-1.84492e-02,-6.28333e-02,-9.56228e-02,6.38431e-02,3.31303e-02,5.04707e-02,4.37526e-02,-7.14936e-02,-5.61543e-02,-5.53307e-02,5.56007e-02,4.66848e-02,-7.13184e-02,7.21708e-02,6.99837e-02,-6.02270e-02,5.72656e-02,1.07487e-02,8.84599e-02,-1.11705e-01,3.02505e-03,-8.80277e-02,6.94504e-02,7.96865e-02,7.66102e-02,2.56803e-03,-1.22866e-02,-1.12701e-01,6.13914e-02,-6.15473e-02,-8.45598e-02,4.94716e-02,-3.99301e-02,1.05768e-01,8.02653e-02,-6.66737e-03,3.58684e-02,-6.14749e-02,4.80316e-02,1.32423e-01,1.32026e-01,4.59553e-02,3.67178e-02,-4.94297e-02,-6.70215e-03,-1.00155e-01,3.51565e-02,1.04418e-01,1.38890e-01,-5.20082e-04,-6.49515e-02,2.52912e-02,1.20502e-02,-1.00261e-01,9.68315e-02,2.60840e-02,9.55047e-02,6.36189e-02,2.24894e-02,-2.37882e-02,-6.03587e-02,1.82546e-02,3.84897e-02,9.59773e-02,-6.77507e-02,3.37185e-02,1.53318e-01,6.03496e-03,-5.48235e-02,-6.12506e-02,5.87089e-02,9.55165e-02,1.05097e-01,5.69932e-02,-1.29891e-02,4.70585e-02,-6.96439e-03,4.58978e-03,-3.79062e-02,3.12550e-02,7.62768e-02,7.22317e-02,9.43747e-02,-4.86685e-02,-2.15483e-02,4.23580e-02,4.29101e-02,5.47363e-02,-3.85550e-02,-1.52519e-02,7.22814e-02,-6.15425e-02,3.02040e-03,1.83063e-02,8.34769e-02,7.86061e-02,-6.24288e-03,7.31431e-02,
3.23986e-02,1.19580e-01,7.49497e-02,5.52899e-02,-9.18914e-03,1.27402e-01,-6.71345e-02,-6.06089e-02,9.56159e-02,-1.30008e-02,-3.33628e-03,8.35007e-02,9.97744e-02,-3.01963e-02,9.07424e-03,-3.72765e-02,1.78566e-02,-8.92371e-02,1.08373e-01,-2.27519e-02,1.96499e-01,1.56097e-01,-7.37551e-02,4.72108e-02,-1.48437e-02,1.13075e-01,-1.47651e-01,-8.45671e-02,3.66009e-02,-4.74221e-02,1.30937e-01,-3.29901e-02,4.75868e-02,-3.24418e-02,-5.63874e-02,7.59263e-03,3.78967e-02,-1.40625e-02,9.77763e-02,5.18318e-02,6.55215e-02,9.46798e-02,1.05781e-02,1.08028e-02,1.01854e-01,5.26150e-02,-8.44706e-02,-2.65461e-02,-6.08853e-02,3.79933e-01,-5.36909e-02,7.34712e-02,5.47770e-02,6.43419e-02,-1.76733e-02,-4.26365e-02,7.08105e-02,-4.80927e-02,5.80488e-02,1.02616e-01,3.94142e-02,-3.73830e-02,1.61216e-02,-1.35536e-02,-3.31337e-01,-7.77319e-02,-4.84326e-02,-6.81166e-02,9.52646e-02,-2.45770e-02,4.26525e-03,-1.24694e-02,5.90746e-02,3.72952e-02,1.03046e-01,8.57104e-02,2.81431e-01,-4.53932e-02,-4.23394e-02,-3.67866e-02,-2.51821e-02,-1.42683e-02,7.15426e-02,3.77595e-02,-7.57012e-02,1.07073e-01,9.28533e-02,4.72689e-03,1.09011e-01,4.50569e-02,2.59086e-02,-6.40095e-02,-6.73384e-02,2.25964e-02,1.05893e-01,3.00489e-02,-6.65491e-02,-2.06060e-02,-7.45764e-02,1.42838e-01,
-2.30237e-01,-9.16727e-02,-3.44649e-02,-8.11173e-02,4.51584e-02,5.70805e-02,2.57223e-02,2.85274e-02,6.29842e-03,2.15616e-02,2.41747e-02,6.27852e-02,7.61862e-02,-3.93853e-02,3.91946e-02,1.05901e-02,1.30812e-02,1.17640e-01,2.63924e-02,-1.49763e-01,-2.74459e-01,-1.23863e-01,-4.50914e-02,1.84634e-02,-9.09491e-02,-3.26629e-02,-5.19321e-04,-1.52820e-01,2.81662e-02,-5.66137e-02,-1.07178e-01,7.84818e-03,1.87478e-01,2.32571e-01,1.49914e-02,-1.88390e-01,-2.12524e-01,2.21530e-02,1.45432e-01,1.39387e-02,-2.28369e-02,-7.93939e-02,6.99039e-03,1.30160e-01,-1.86705e-01,3.37971e-02,6.28970e-02,2.11964e-03,-2.40283e-02,1.95281e-01,1.27474e-01,3.50678e-02,-7.92123e-02,-9.89227e-02,4.40651e-02,3.53275e-03,-1.69280e-01,9.91247e-02,-2.06629e-02,-7.60335e-02,-6.00495e-02,-4.26038e-02,-1.28550e-01,3.09452e-02,-8.18610e-03,1.16663e-01,2.34360e-02,7.26154e-02,-1.56111e-01,1.04766e-01,5.12012e-02,-2.22841e-02,-2.55716e-02,4.75458e-02,-6.16439e-03,4.12578e-01,3.48727e-02,8.87096e-02,1.26953e-01,-2.61153e-02,-3.00377e-02,-3.29688e-02,6.07905e-02,-9.87388e-02,-1.80955e-01,-5.05072e-03,-4.03652e-02,4.73494e-02,3.54275e-03,4.18004e-02,-3.17503e-02,1.13740e-02,-1.08786e-01,-3.67290e-02,-5.39815e-02,3.43610e-02,-4.00972e-02,9.50341e-02,3.93600e-02,3.54693e-02,
-1.96249e-01,3.35621e-02,7.60662e-02,-9.27461e-03,-5.12483e-02,-5.65635e-02,3.25006e-02,7.35872e-02,-4.20840e-02,-3.96000e-04,-5.69316e-02,4.45904e-02,8.83560e-03,-2.98132e-02,8.86588e-02,1.10783e-02,-8.70741e-02,1.20234e-01,1.58902e-01,1.19924e-01,3.74644e-02,6.55136e-02,-3.57982e-02,-1.92490e-02,1.09703e-01,-1.37320e-03,8.52608e-02,1.19542e-01,1.97451e-02,-2.98133e-02,6.71563e-02,-1.04763e-01,1.49728e-01,-2.15850e-02,-5.45012e-02,-1.04608e-02,-4.49297e-02,-2.53530e-02,2.84357e-02,7.87489e-02,-3.38768e-02,-7.75517e-03,-3.92668e-02,-5.53005e-02,-1.94729e-02,-5.70362e-02,-3.24823e-02,-4.06643e-02,-9.07126e-02,5.62290e-02,-4.23577e-02,2.50284e-02,-3.57883e-02,-6.93039e-02,7.34521e-02,-1.68170e-02,-5.80614e-02,1.00062e-01,-2.23955e-02,1.28632e-01,8.71954e-03,6.31248e-02,-1.55811e-02,-3.60091e-03,1.08286e-01,-2.76267e-02,1.23159e-01,1.16428e-01,-1.09760e-01,6.83012e-02,-1.18682e-02,-1.84707e-02,4.31419e-02,1.01569e-01,7.35358e-02,5.25732e-02,-9.72444e-03,5.55983e-02,1.08150e-01,4.34664e-02,-2.11442e-02,-3.73413e-02,3.39874e-02,-5.86771e-02,3.56086e-02,1.09834e-02,8.56342e-02,4.68407e-02,4.21661e-02,2.31339e-02,5.28483e-02,3.49265e-02,-8.55160e-02,-1.01340e-01,2.83094e-02,-6.63581e-02,1.23231e-01,6.81081e-02,-5.00965e-02,5.34276e-02,
-1.14287e-01,-1.04011e-02,3.50091e-02,2.31812e-02,-6.96557e-02,-1.99510e-02,4.27858e-02,1.00745e-01,5.62223e-02,-1.13289e-01,7.64631e-02,3.58804e-02,1.10318e-01,-1.08481e-03,1.13156e-01,8.61533e-02,3.38512e-02,1.12612e-01,1.37374e-01,4.14001e-02,1.40308e-02,-3.40041e-02,7.50208e-02,5.10280e-03,1.02347e-01,8.32461e-02,3.24447e-02,-7.00424e-02,9.48387e-02,-6.65814e-03,8.71963e-02,-8.34353e-02,7.22199e-02,-6.28027e-02,1.91776e-02,5.81134e-02,2.83407e-02,8.47373e-02,-1.03744e-01,9.31815e-02,-2.78800e-02,7.45773e-02,-6.57217e-02,-3.05768e-02,9.19767e-02,1.13598e-03,4.34259e-02,-9.35104e-02,2.69220e-03,3.20965e-03,-5.71186e-02,3.01185e-02,-9.96121e-03,1.99436e-02,-5.53165e-02,-8.56219e-02,-1.13534e-01,-1.03986e-01,5.80975e-02,9.49829e-02,3.79275e-02,-8.67952e-02,7.90925e-02,-1.90218e-01,1.92261e-02,-9.86719e-02,-6.29515e-02,-1.77585e-02,-3.49195e-03,2.46670e-02,-3.21532e-02,-7.97949e-02,9.26609e-03,-1.23584e-01,-2.36125e-01,-1.31312e-02,-1.27732e-02,-6.43131e-02,-1.93138e-02,8.32178e-02,1.07233e-01,-8.90147e-02,8.05177e-02,2.90899e-02,1.24577e-01,-1.65990e-03,6.84645e-02,-5.25836e-03,2.74475e-02,7.82328e-02,-1.10807e-02,-5.15673e-02,-1.69621e-02,-5.65552e-02,8.55299e-02,1.38475e-01,9.69748e-02,8.45598e-03,9.15918e-02,1.44136e-01,
-1.00102e-01,9.62586e-02,1.08996e-01,6.24007e-02,7.85709e-02,1.00292e-01,3.35729e-02,-4.34332e-02,-1.07529e-02,-3.09300e-02,-3.36447e-02,1.94948e-02,-3.42374e-02,-5.02881e-02,-3.68177e-02,5.00875e-02,-1.83836e-02,6.29559e-02,-4.50138e-02,1.16172e-01,7.12504e-02,-2.30795e-02,-3.78518e-02,5.64823e-02,-5.91624e-02,9.81038e-02,-5.65204e-02,-3.05391e-02,-2.55712e-02,5.21440e-03,5.53117e-02,-9.27368e-02,7.52252e-02,-1.35148e-02,3.91087e-02,-7.59237e-02,-9.32967e-02,2.99280e-02,3.29115e-02,7.01739e-03,1.01808e-01,7.84539e-02,-2.61366e-03,-8.67632e-02,-7.60867e-02,-1.33559e-02,4.05806e-02,3.24505e-02,9.40210e-02,1.62265e-03,-8.52956e-02,5.30093e-03,-6.30926e-02,7.88960e-02,6.70455e-02,5.39686e-02,-3.70946e-02,-1.23763e-02,8.87461e-02,6.46113e-03,-8.02494e-02,-6.72251e-02,2.51478e-02,-5.41583e-02,-7.71628e-02,-2.46032e-02,-2.73261e-02,7.15584e-02,-4.44358e-03,-8.40686e-02,-4.82543e-02,4.98481e-02,9.84174e-03,-5.53372e-02,-5.34791e-04,3.04376e-02,4.37416e-02,2.11497e-03,4.81939e-02,4.62158e-02,-1.14472e-01,-7.84868e-03,3.03278e-02,-7.24671e-03,5.65284e-02,1.18731e-01,4.78439e-02,-5.06273e-02,1.22549e-01,-3.29329e-02,5.08715e-02,-2.98703e-02,-2.91405e-02,8.45890e-02,7.29391e-02,-8.30225e-02,3.92568e-02,2.70348e-02,5.01119e-02,3.48335e-02,
-2.71816e-01,-5.09389e-02,1.68841e-02,2.88080e-02,-7.65162e-02,-7.15615e-02,1.25236e-01,3.58150e-02,-9.02528e-02,-2.36365e-02,-3.92415e-04,-1.55537e-02,-2.79966e-02,-3.53001e-02,6.98360e-02,9.23066e-02,-1.33616e-01,2.57062e-02,8.92843e-04,-7.70511e-02,-2.09244e-01,1.53385e-02,6.31299e-02,-9.61856e-02,2.17354e-02,9.29280e-03,3.86223e-02,1.79221e-02,1.74169e-01,-2.60074e-02,-1.60503e-02,5.62735e-02,3.66986e-02,1.23582e-02,-6.10971e-03,1.02122e-01,5.00438e-02,-5.60427e-02,-2.67290e-02,8.72623e-02,-8.79114e-02,4.88355e-02,-1.71163e-02,6.10122e-02,-9.19717e-02,2.18400e-02,-2.09978e-02,4.62583e-02,2.00879e-02,1.08386e-01,-4.23814e-02,-5.59859e-02,6.13600e-02,-5.31657e-02,1.39768e-01,1.11819e-01,1.50452e-02,5.32025e-02,-1.08913e-02,-5.95653e-02,-3.64922e-02,5.76889e-02,3.87269e-02,5.85273e-02,-5.51538e-02,-7.59845e-03,-2.70610e-02,-7.34854e-02,3.69704e-02,-2.60925e-02,-4.67477e-02,8.70457e-03,-1.30769e-02,-4.62814e-02,2.91596e-01,1.59691e-01,1.73161e-02,6.22175e-03,-5.18611e-02,2.10186e-02,7.62268e-02,6.67056e-02,4.09165e-02,1.07487e-01,-6.33268e-02,6.08182e-02,9.46772e-02,-4.22420e-02,-2.03056e-02,-1.27228e-01,-1.69445e-02,5.96436e-02,-1.12747e-01,-3.74780e-02,9.74586e-02,1.39834e-01,6.31587e-02,-8.67769e-02,5.26415e-02,3.97931e-02,
-4.55263e-02,1.37961e-01,5.20095e-02,9.27881e-02,5.40750e-03,-3.42605e-02,2.03893e-01,-6.32681e-02,-1.33921e-01,3.69700e-02,-4.82033e-02,-2.89143e-02,4.80975e-02,8.89275e-03,-6.91983e-02,-1.99870e-02,-8.58887e-03,7.00967e-02,-2.21948e-02,3.54734e-02,1.00382e-02,6.05287e-02,1.10267e-02,3.80298e-02,-2.72729e-02,5.66536e-02,8.91885e-02,9.70208e-02,-2.95382e-02,9.42108e-02,-3.85013e-02,2.28031e-03,1.61816e-01,4.24046e-02,1.56958e-02,-6.95852e-02,2.66600e-02,1.35879e-01,-3.09609e-02,-1.93264e-01,2.87392e-02,3.10690e-02,5.79618e-02,3.21306e-02,-3.23339e-02,6.33587e-02,9.53132e-02,-2.96523e-02,6.48766e-03,4.39992e-04,-4.08942e-02,7.23450e-02,-1.89714e-02,-5.23007e-02,-1.04155e-01,-6.88501e-02,-8.09454e-02,-2.37552e-02,-7.70070e-02,7.89069e-03,-4.08647e-02,-8.10008e-02,-4.15455e-03,1.50340e-02,1.58341e-01,-7.53529e-03,1.66728e-02,8.11719e-03,-2.15437e-02,5.03642e-02,-1.58553e-02,1.06734e-02,3.51865e-02,8.46597e-02,2.01749e-01,-4.18951e-02,-6.36942e-02,1.19281e-02,8.42880e-02,-4.98084e-02,6.40298e-03,1.14742e-02,3.68619e-02,-2.90883e-02,1.16167e-02,4.27786e-02,3.28985e-02,-4.82346e-02,9.81047e-02,7.76676e-02,1.07997e-01,-1.27936e-02,3.49813e-02,-1.75406e-02,-1.29666e-01,5.10738e-02,5.23946e-02,8.85737e-02,-5.23813e-02,-3.92468e-02,
-1.06643e-01,8.61227e-03,8.46099e-02,-4.34791e-02,5.80553e-04,-7.61677e-02,-7.07755e-02,-7.37776e-02,-7.62874e-02,-2.86159e-02,8.09253e-02,6.27991e-02,7.28351e-02,-5.38335e-03,7.54389e-02,-1.11820e-02,-2.54730e-02,2.14649e-02,-4.21241e-02,3.65695e-02,-3.81673e-02,-7.99043e-02,8.49923e-02,-4.60055e-02,7.69023e-02,1.82564e-03,9.60947e-02,5.43372e-02,-4.47421e-02,5.63576e-02,-5.52166e-02,8.85030e-02,1.47804e-01,-6.72006e-02,1.83316e-02,3.33996e-02,1.27076e-03,7.26544e-02,8.02323e-02,8.68480e-02,5.58998e-02,1.14273e-01,-4.99107e-03,-2.93337e-02,1.09467e-01,-1.44846e-01,-4.84917e-02,9.59357e-02,-8.47495e-02,-4.52567e-02,1.29082e-03,-4.80201e-02,-2.78354e-02,8.33229e-02,3.49078e-02,-1.77795e-03,-9.15734e-02,-1.25764e-01,9.12211e-02,1.07850e-01,8.53314e-03,2.16228e-02,6.74612e-02,3.66801e-02,-4.39251e-02,-1.85285e-02,2.20525e-02,2.72828e-02,1.01298e-01,1.57245e-02,-1.49230e-02,-6.11677e-02,6.45739e-02,1.14244e-02,-7.84555e-02,-4.01921e-02,5.93205e-03,5.83802e-02,3.69344e-02,-6.23797e-02,5.00834e-02,1.04701e-01,-8.08084e-03,-1.17112e-01,3.92445e-02,8.26388e-03,2.19288e-02,6.13145e-02,-2.18258e-02,-1.10770e-01,-8.96973e-02,6.22483e-02,-3.82987e-03,1.00824e-01,-8.99775e-04,5.83330e-02,9.61764e-02,-9.17709e-02,6.07234e-02,-6.14277e-02,
7.90008e-02,-6.96046e-02,6.54094e-02,-1.13940e-01,-1.00629e-01,7.75904e-02,7.99986e-02,4.05658e-02,-2.31753e-02,6.26580e-02,-1.62721e-02,-3.01262e-03,3.94367e-02,-7.38568e-02,2.91855e-03,4.59098e-02,4.01666e-02,-7.46855e-02,1.38216e-02,-3.95893e-02,5.72417e-02,6.44838e-02,-9.83356e-03,-2.77598e-02,7.07179e-02,4.26505e-02,2.80880e-03,-4.14731e-02,-1.50793e-04,1.46455e-02,7.39840e-03,-3.48637e-02,9.36242e-03,-2.60950e-02,3.91956e-02,2.13271e-02,2.27580e-02,-2.83603e-02,-7.72117e-02,-4.10845e-02,7.22076e-02,-6.73582e-02,1.06713e-01,-5.11240e-02,1.10408e-01,1.60635e-02,7.89419e-02,3.91138e-02,6.20807e-02,-1.02629e-01,8.21878e-02,4.87777e-02,-1.06513e-02,3.52157e-02,-7.22303e-02,-2.06401e-02,8.03873e-02,-8.11669e-02,1.13585e-01,4.82660e-02,7.88338e-02,4.47557e-02,5.74066e-02,-2.97470e-03,7.85633e-02,5.44395e-02,2.78701e-02,2.78988e-02,3.33812e-02,3.29748e-02,4.89724e-02,-7.18769e-02,-1.01164e-01,2.68228e-02,-5.31001e-02,-3.59702e-02,3.10895e-02,-4.41216e-02,-1.12458e-01,-7.31183e-02,5.95532e-02,-8.61071e-02,-3.06919e-02,-3.15893e-03,1.13694e-01,1.05423e-01,4.98822e-03,7.21801e-02,-7.67940e-02,-6.43351e-02,-2.10005e-02,2.59300e-02,1.24098e-02,-6.11160e-03,1.16268e-01,-2.20996e-02,4.91434e-03,9.73844e-03,1.82166e-02,5.40006e-04,
-3.65067e-01,4.25766e-02,7.80550e-02,-2.42443e-02,-1.05595e-01,-2.11791e-01,7.33837e-02,2.71997e-02,-1.98011e-01,1.78197e-02,-1.41643e-01,4.60733e-02,8.30847e-02,3.74728e-02,-4.77612e-02,1.05883e-02,-2.91786e-02,1.10443e-01,1.10950e-01,-6.47521e-03,-6.03734e-02,-5.40605e-02,1.79766e-01,-1.03661e-01,1.64936e-01,9.01100e-03,6.12968e-02,7.07983e-02,1.87898e-02,-2.98451e-02,3.62326e-02,1.58643e-03,6.98142e-03,-1.10674e-01,-3.36933e-02,2.73128e-01,6.76249e-02,6.99804e-02,-5.32218e-02,2.36262e-01,-7.53051e-02,2.95411e-01,7.69141e-02,-1.79154e-01,1.17301e-01,-1.48654e-02,1.47317e-01,3.13644e-02,-5.80081e-02,1.11678e-01,9.36326e-02,-6.62454e-02,-4.51250e-02,-3.17419e-02,1.79292e-01,1.43116e-02,2.30887e-03,-1.35181e-01,1.66994e-02,-2.96155e-02,-1.01411e-01,3.72845e-02,1.49164e-01,1.62838e-01,-2.53224e-01,-1.45515e-02,5.78828e-02,-3.65851e-03,-8.16197e-03,8.39686e-03,-5.70076e-02,-7.31017e-03,5.93911e-04,8.38326e-02,8.73606e-02,1.93340e-01,-9.07049e-02,-6.99828e-02,-4.79388e-02,4.83218e-02,-1.82798e-02,-1.83659e-02,6.90167e-02,-5.38255e-02,1.75954e-01,1.14567e-02,6.72161e-02,1.99768e-02,-7.32015e-02,-7.22358e-02,7.97313e-03,-1.27348e-03,-1.68510e-01,-8.36704e-02,-6.84632e-03,1.07247e-01,-8.31790e-02,-1.04458e-01,8.78715e-02,1.94538e-01,
-6.89456e-02,-6.05407e-02,1.42271e-01,7.39107e-02,-1.27993e-01,-6.94095e-02,8.83267e-02,4.25236e-02,-9.58059e-02,-6.11953e-02,-3.84155e-02,4.60650e-02,2.45328e-01,7.15680e-02,6.25376e-03,-4.62084e-02,-8.08301e-02,-8.33901e-02,-8.69798e-03,1.56047e-01,1.25054e-01,4.66566e-02,2.48681e-02,-9.14556e-02,-1.29646e-02,4.12386e-02,-9.45140e-02,5.77768e-02,6.51218e-02,-1.72194e-02,8.99543e-02,-3.04219e-02,-9.29694e-02,-2.58565e-01,-5.95685e-02,2.52820e-01,1.46410e-01,-1.90139e-02,-2.34285e-02,1.52711e-01,4.20866e-03,1.93378e-01,-5.64080e-02,-4.13899e-02,1.08914e-01,2.60795e-02,-8.86718e-02,-4.00678e-02,5.31263e-02,8.02983e-02,-1.16232e-01,1.34567e-02,1.35647e-01,1.20123e-01,2.44236e-02,2.84757e-02,1.76531e-01,-1.79136e-01,1.15817e-01,1.41011e-01,-4.44906e-02,1.10546e-01,7.54510e-02,-5.09437e-02,-1.78051e-01,2.83902e-02,5.40322e-02,-9.75750e-02,7.19368e-02,-8.02666e-02,-5.12087e-02,4.58621e-02,6.22823e-02,-6.40381e-03,-1.80046e-01,-1.44310e-01,1.61843e-02,-1.19566e-01,-6.87917e-02,6.78212e-03,7.47931e-03,-4.59048e-02,-3.38021e-02,2.19560e-02,2.98082e-02,4.79579e-02,-1.23212e-01,-9.47828e-02,1.93604e-02,-2.67924e-02,1.05803e-01,-5.04221e-02,-7.59392e-02,9.76252e-02,1.58976e-01,2.53981e-01,1.29258e-02,-7.15058e-03,3.72718e-02,1.29923e-01,
-4.73868e-02,7.65611e-02,-3.19390e-02,4.27385e-02,-1.44322e-02,-6.11236e-02,2.50674e-02,-7.33487e-02,9.03513e-02,9.58729e-02,-3.93226e-02,-5.76862e-02,-1.61945e-02,1.37686e-01,6.55962e-02,-5.18517e-02,-1.04726e-02,2.22956e-02,1.13172e-02,4.50776e-02,3.17158e-02,1.12965e-01,-1.55656e-02,8.51472e-02,3.88985e-02,5.38777e-02,1.48298e-02,6.48632e-02,7.05590e-02,2.59583e-02,-3.17677e-02,2.46785e-02,9.55831e-02,5.57486e-02,8.32656e-02,1.86706e-02,-7.19111e-02,9.69939e-02,-8.58401e-02,-1.69461e-02,1.14115e-01,-9.40829e-02,4.17208e-02,1.18770e-01,-2.10621e-02,5.09170e-02,-3.39516e-02,-6.10962e-02,-2.02689e-04,1.29677e-02,-3.12368e-03,-3.01351e-02,4.19159e-02,-3.75952e-02,8.72424e-02,1.57996e-02,-3.51768e-02,6.69772e-02,6.03752e-03,6.10269e-02,3.08694e-02,2.11787e-01,4.01416e-02,1.67576e-01,1.90036e-02,8.38285e-02,-4.27527e-03,1.95287e-02,1.08301e-01,7.45025e-02,-6.08387e-02,4.44568e-02,-3.19029e-02,2.09232e-02,6.51279e-02,-8.48558e-02,-2.16331e-02,1.13794e-02,-4.54927e-02,-4.94750e-02,-7.30223e-02,7.88471e-02,-1.95214e-02,-8.00611e-02,6.14930e-02,2.96566e-02,-3.44654e-02,-4.33864e-02,6.57482e-02,-5.86077e-02,-5.83879e-02,-2.56350e-02,-7.83944e-02,-8.81505e-02,-1.76339e-02,4.31802e-04,-4.56772e-02,4.33665e-02,4.14286e-02,4.25130e-02,
8.13615e-02,-3.82492e-02,-5.87164e-02,3.21224e-02,-2.01434e-02,-4.84200e-02,1.11585e-02,8.19571e-02,3.79753e-02,2.47101e-02,5.23685e-02,6.71227e-02,1.22104e-01,-7.13172e-02,-8.86681e-02,-4.59459e-02,-4.01366e-02,8.72120e-02,-1.16696e-01,3.47652e-02,2.30580e-02,-1.02915e-01,6.86378e-02,1.16994e-01,9.23607e-02,5.95677e-02,8.47789e-02,-4.12084e-02,-3.02914e-02,1.08206e-03,1.19285e-02,-8.17596e-02,-1.48409e-02,-4.27781e-02,-3.81070e-02,-1.96434e-02,-1.01061e-02,1.08952e-01,-4.54340e-02,-2.61292e-02,2.57794e-02,-1.17317e-01,-2.08526e-02,1.01839e-02,-5.22076e-03,5.95601e-02,-5.73562e-02,1.02138e-01,-6.19206e-02,-1.99791e-01,5.03141e-02,-1.77560e-02,5.76797e-02,-3.13425e-04,8.67348e-02,-9.31059e-02,4.74188e-02,1.23432e-01,-3.10357e-02,-2.88627e-02,1.31355e-02,8.39500e-02,-3.90301e-02,-4.48909e-02,1.77630e-01,2.56640e-02,-1.85613e-02,4.04083e-02,8.33657e-02,9.86429e-02,5.34419e-02,6.76044e-02,1.43744e-01,4.09616e-02,-5.30146e-02,-8.10558e-02,-1.26598e-01,4.02202e-02,4.91256e-02,2.03790e-02,-9.62552e-02,-6.65995e-02,-5.61514e-03,3.76889e-02,9.51887e-02,-2.83149e-02,1.29235e-01,-3.19695e-02,-4.54923e-02,2.61648e-02,-4.53749e-02,-5.38325e-02,-2.37906e-02,7.66374e-02,-4.02086e-02,1.20980e-03,5.84882e-02,1.20430e-01,8.75365e-02,5.78503e-02,
-1.20434e-01,-1.13465e-01,-3.95410e-02,-6.80181e-03,-2.28895e-02,8.77056e-02,3.82443e-02,-2.26918e-02,-4.67006e-03,7.64359e-02,6.56179e-02,1.80299e-02,-5.27888e-02,-1.31309e-02,7.05762e-03,-3.68680e-02,5.81182e-02,4.82516e-02,-8.60025e-02,-6.01470e-02,-3.88115e-02,-1.07099e-01,-3.40575e-02,3.28041e-02,1.21476e-01,2.12413e-02,-8.35567e-02,2.37916e-02,3.06442e-02,-2.08379e-02,-6.86670e-02,4.18441e-02,8.15285e-02,1.05631e-02,-5.90238e-03,-1.35339e-01,-5.70124e-02,4.13493e-02,1.05878e-01,7.57351e-02,-7.16874e-02,-3.43391e-03,-2.57951e-02,4.07374e-02,-1.02768e-01,5.11550e-02,2.04370e-02,1.01673e-01,-3.64405e-02,6.87181e-02,1.50867e-01,-5.05928e-02,1.62376e-02,5.31106e-02,8.97110e-02,4.20770e-02,-1.61128e-02,-2.40637e-02,2.78630e-02,2.98706e-02,-4.88498e-02,-4.70025e-02,3.73154e-02,7.88691e-03,6.32501e-02,1.36887e-02,-1.33863e-02,4.32183e-02,-6.70538e-02,8.51412e-02,-1.64691e-02,-1.81878e-02,-2.25519e-02,-3.41320e-02,1.78134e-01,2.91586e-02,1.04858e-03,3.13145e-02,2.30988e-02,-9.33836e-02,3.71316e-02,4.36296e-02,3.45802e-02,8.41803e-02,-5.14455e-02,-3.15869e-02,-2.44222e-02,8.43315e-02,-8.08203e-02,5.04692e-02,1.32279e-02,-2.03581e-02,8.69060e-02,1.53117e-02,4.97053e-02,4.63600e-02,6.31193e-02,5.18588e-02,4.23261e-02,1.42991e-02,
9.20704e-02,8.24105e-02,-6.65528e-02,6.01789e-02,1.76016e-03,2.06716e-03,-2.83591e-02,9.11819e-02,-1.04091e-02,4.29604e-02,-1.28526e-01,-1.01359e-02,-4.20626e-02,5.27664e-02,-2.19478e-02,5.14007e-02,5.39897e-02,-4.77160e-02,4.28102e-02,-3.49938e-02,-5.47469e-03,-3.04626e-02,1.02415e-01,8.97172e-02,4.88615e-02,8.07450e-03,-1.04360e-01,-5.13602e-02,1.07270e-01,1.10283e-01,4.95937e-03,-5.27491e-02,1.02353e-01,6.53793e-02,5.70052e-02,-2.15048e-02,-1.37769e-02,8.02810e-02,-3.50268e-02,-3.90874e-02,8.72354e-02,9.47146e-03,-8.44728e-03,-6.24218e-02,1.04302e-02,1.11931e-01,3.64827e-02,1.38416e-02,-7.93660e-02,-9.15306e-02,6.72602e-02,6.61829e-02,-1.22070e-02,7.53288e-02,-4.35811e-02,7.33493e-02,-3.46760e-02,3.47134e-02,1.02542e-02,9.28478e-02,-7.26126e-02,-5.12672e-02,2.43196e-02,-7.82684e-03,-5.56606e-02,-7.54584e-02,2.98020e-02,8.61380e-02,1.04666e-01,-7.87716e-02,6.72768e-02,7.85607e-02,7.18257e-02,1.22592e-01,1.95465e-01,-4.27768e-02,6.75523e-02,1.33081e-02,1.29223e-02,-3.60710e-02,-1.78043e-02,1.15950e-02,8.75729e-02,9.14171e-03,-1.08224e-02,2.65946e-02,1.77665e-01,4.73395e-02,-2.79005e-03,6.02228e-02,-4.99723e-02,-6.09190e-02,-2.71866e-02,-9.24595e-02,-8.13351e-02,-1.34826e-01,-5.44615e-02,-6.99133e-02,5.99677e-03,2.21662e-02,
-6.48180e-02,-3.79503e-02,3.85069e-02,-8.12834e-02,8.07738e-02,-6.01127e-02,3.80568e-02,-7.45775e-02,-4.07187e-02,3.49522e-02,-6.63588e-02,8.36224e-02,-5.45307e-02,-6.71588e-03,-4.55429e-02,5.69200e-02,-2.14135e-02,5.13804e-02,-2.28593e-02,-6.25365e-02,1.09994e-01,9.48859e-02,-5.89593e-02,5.62141e-02,7.45102e-02,4.40115e-03,3.32529e-02,1.78647e-02,7.83051e-02,-7.67941e-02,-6.20954e-02,6.93903e-02,2.58681e-02,-4.94890e-02,-4.11098e-02,5.34922e-03,-4.44687e-02,4.55266e-02,-1.56872e-02,-6.52797e-02,9.24236e-02,1.13590e-01,2.30731e-02,-6.55834e-02,1.07751e-03,2.67870e-02,-3.73567e-03,5.54585e-02,-5.10327e-04,1.24801e-01,2.72476e-02,4.90596e-02,5.22373e-02,7.94026e-03,6.86247e-02,-7.16002e-02,3.25891e-02,-7.55372e-02,-1.60562e-02,9.07735e-03,-1.12001e-02,5.27242e-02,6.57966e-02,1.00907e-01,-3.65620e-02,9.22606e-02,4.80131e-03,4.27517e-02,1.31516e-01,6.53765e-02,-3.65201e-02,-2.08185e-02,-9.16951e-02,5.51143e-02,8.32688e-02,-4.06530e-02,1.10823e-01,6.14446e-02,-7.73814e-02,6.18163e-02,-1.00758e-01,-7.23613e-02,-1.58024e-02,4.89356e-02,6.80572e-02,3.02384e-02,2.22288e-03,-4.57119e-02,5.87803e-02,-8.18441e-03,-4.26801e-02,1.97925e-02,-5.33126e-03,8.08351e-02,-4.69001e-02,4.42971e-02,1.72239e-01,1.08749e-01,5.75751e-03,4.57039e-02,
-8.58837e-02,5.11519e-02,5.71028e-02,-4.53135e-02,-4.23170e-02,1.77897e-02,-3.01390e-03,5.77335e-02,-2.49670e-02,-2.34152e-02,-5.22248e-02,1.12544e-02,7.72028e-02,-8.31754e-02,2.59589e-02,-7.33369e-03,-6.66319e-02,-2.49180e-02,7.86201e-02,2.91033e-02,5.58591e-02,-9.37561e-03,-6.51279e-02,-4.02839e-02,4.67667e-03,-1.29676e-01,-7.85464e-02,6.04198e-02,3.22737e-02,3.86183e-02,-2.35429e-02,7.49375e-05,3.35393e-02,5.66216e-02,-2.90179e-02,-2.07558e-02,-2.40586e-02,1.51755e-01,3.79971e-02,-2.56655e-02,-3.59148e-02,-3.19511e-03,-3.79975e-02,-3.99043e-02,-1.97880e-01,1.57465e-03,-3.76035e-02,1.10561e-01,1.06164e-01,-6.86131e-03,-1.36942e-01,4.24381e-03,6.06216e-02,-5.13810e-02,8.23981e-02,-2.24942e-02,-5.30255e-02,1.60241e-02,6.93405e-02,6.14804e-02,5.91086e-02,-9.92743e-02,-5.55584e-02,3.70981e-02,4.67927e-02,1.76857e-02,-2.90638e-02,3.73431e-02,-5.69628e-02,4.87767e-02,6.23954e-03,-4.86024e-02,-7.43968e-02,7.75974e-02,-1.68644e-01,-9.75006e-02,7.70649e-02,9.66145e-02,5.94325e-02,6.13281e-02,-9.72508e-02,-2.78962e-03,-3.87356e-02,1.91566e-02,4.48085e-03,4.99924e-02,5.42603e-02,5.15748e-02,1.36730e-02,1.73202e-02,-1.96539e-02,-3.60124e-02,4.65904e-02,7.48049e-02,2.33145e-02,-4.30653e-02,3.71968e-03,-4.08799e-02,5.16502e-02,5.69393e-02,
-4.96145e-02,-4.85124e-02,-4.88756e-02,-6.14945e-03,1.15994e-01,-1.43395e-01,1.16602e-02,-1.08262e-02,9.34406e-02,7.89009e-02,-9.39465e-03,7.87722e-03,-1.17959e-02,-1.32028e-01,1.02554e-01,1.71228e-01,-1.02280e-03,8.06627e-02,-5.28471e-02,-6.27495e-02,-8.37841e-01,-1.50560e-01,8.17733e-02,-4.48850e-02,9.73551e-02,1.21878e-01,6.82424e-02,-1.49760e-01,1.27150e-01,8.09160e-02,-7.62032e-02,5.95200e-02,2.61154e-02,8.91312e-02,-2.79854e-02,5.68156e-02,-1.23986e-01,-7.20687e-02,-6.35525e-02,3.76026e-02,-6.52335e-02,-6.63291e-02,-1.24400e-02,1.51027e-01,-9.15589e-02,1.96869e-03,7.03692e-02,-1.13324e-02,6.58694e-02,-6.25113e-01,2.39642e-03,1.09382e-01,-1.43953e-01,-5.01763e-02,3.27871e-02,9.37267e-03,-2.54791e-02,1.88178e-01,-4.51550e-02,-4.18973e-01,1.00137e-01,-4.73627e-02,-1.05454e-01,3.65010e-02,4.04794e-01,2.10508e-02,3.72573e-02,5.04089e-02,2.21326e-01,8.39699e-02,1.33354e-02,9.51197e-02,-1.58886e-02,-1.79461e-03,-1.38622e-01,1.04715e-01,-1.08942e+00,7.23324e-02,-7.05966e-03,-9.17030e-02,-2.17559e-02,-8.80165e-02,-5.78992e-02,-3.78149e-02,-2.53477e-02,-2.10276e-02,6.80497e-02,9.35872e-02,-5.99816e-02,2.89150e-02,3.71243e-03,1.18470e-01,1.49157e-02,-1.17306e-01,-3.93512e-02,-5.29368e-02,-2.68522e-02,1.09756e-01,-1.85658e-02,7.29587e-02,
1.55354e-02,2.99140e-02,-6.27617e-02,7.32920e-02,-7.73376e-02,-5.90451e-02,5.55060e-02,1.55460e-02,-2.40829e-01,-6.69609e-02,3.76471e-02,-6.86027e-03,1.78752e-02,1.86861e-01,5.01666e-02,-4.62678e-03,6.72567e-02,-1.30706e-02,3.67548e-02,6.46308e-02,9.96141e-02,-1.01958e-02,9.54633e-02,-3.11406e-02,-9.03811e-03,4.82875e-02,5.49839e-02,1.26260e-02,8.20867e-02,6.93164e-03,5.87046e-02,3.89003e-02,-7.03816e-02,-2.67134e-01,-8.75718e-02,1.20283e-01,-7.49942e-02,-9.99349e-02,-7.81677e-02,5.26963e-02,1.11576e-01,2.90385e-02,-1.18788e-01,5.51937e-02,6.05767e-02,-4.11267e-02,3.52800e-02,-9.05217e-02,-4.54817e-02,-8.67845e-02,-9.64978e-02,3.49749e-02,1.11463e-01,-3.30186e-02,2.78923e-02,-5.80183e-02,1.33448e-01,2.04346e-02,-1.99215e-02,8.79002e-02,-6.78417e-02,-1.26611e-02,6.93884e-02,1.45873e-02,-2.22218e-02,4.52327e-02,-1.08429e-02,-6.20193e-02,1.31694e-01,-2.00471e-02,5.50971e-03,8.73827e-02,9.54464e-03,5.14615e-02,-4.67493e-03,-1.89203e-01,2.29371e-02,-5.73140e-02,-7.50328e-02,9.60638e-03,-1.10236e-02,-7.80140e-02,6.69561e-02,-5.59834e-02,1.12340e-01,1.37368e-02,7.00519e-02,1.57719e-02,-3.74837e-02,-6.28313e-02,-5.25087e-03,5.32671e-02,-1.07285e-01,1.08806e-01,1.10495e-01,4.72118e-02,6.71659e-02,8.94054e-02,1.72159e-02,-6.43207e-02,
8.56975e-02,8.88103e-02,5.83982e-02,1.30961e-01,7.97012e-02,-1.03594e-03,3.17540e-02,4.09519e-02,5.63280e-02,-5.77896e-03,4.21525e-02,-3.73943e-02,2.23791e-02,1.15167e-01,1.79435e-02,4.85465e-02,-5.32810e-02,5.17808e-02,-2.98911e-02,9.91104e-02,-2.30818e-02,4.85610e-03,4.02506e-02,-1.15832e-01,1.10816e-01,1.08761e-01,-4.77120e-02,-8.61246e-02,3.99976e-02,-2.05219e-02,3.05515e-02,2.10617e-02,2.13185e-02,-4.64642e-02,9.88046e-02,6.85841e-02,2.78442e-02,-2.47747e-02,9.40059e-02,5.80748e-02,3.95272e-02,-1.55672e-01,-5.44870e-02,8.91057e-02,4.30894e-02,-6.96894e-02,-5.32020e-02,-3.36935e-03,1.68364e-02,5.08269e-03,-5.00925e-02,3.01284e-02,1.12624e-01,1.43867e-03,-5.38842e-02,5.64329e-05,-1.22040e-02,2.08239e-01,1.43144e-02,-3.14761e-02,9.36653e-02,9.96505e-02,-6.11524e-02,1.79350e-01,1.99658e-01,-8.23460e-02,-5.17440e-02,-9.67180e-03,1.88340e-02,-6.30527e-02,7.44686e-02,1.16378e-01,-3.90354e-02,-6.55454e-02,-1.05898e-01,9.83670e-02,1.00877e-01,1.15088e-01,-4.69525e-02,7.65717e-02,7.14151e-02,-3.55302e-02,-4.16829e-02,-7.96864e-02,-8.00262e-02,8.47776e-03,1.06059e-01,3.41484e-03,2.89022e-02,5.03931e-02,-1.41491e-01,-1.09478e-01,-1.17434e-02,-5.48830e-03,8.55834e-02,-9.54615e-02,3.58750e-02,1.18862e-01,9.60420e-02,8.95747e-02,
7.96655e-03,8.09712e-03,4.82982e-02,1.81305e-02,-1.00084e-02,-5.50339e-03,8.60226e-02,1.09277e-02,1.01390e-02,4.27238e-02,4.13480e-02,-5.36501e-02,1.38938e-01,1.03431e-01,-3.16262e-02,2.96667e-02,-5.54317e-02,-2.18609e-02,-3.40781e-02,2.39432e-02,-9.20937e-02,-3.64607e-02,-1.44279e-02,-7.72055e-02,4.64492e-03,-1.87118e-02,-1.26525e-01,7.01505e-02,-8.73811e-03,5.48754e-02,8.97709e-02,1.08461e-01,-1.61179e-02,-1.44111e-01,-4.86957e-04,7.78178e-02,4.87167e-02,9.53506e-02,-5.91636e-02,-7.71895e-02,1.04309e-01,1.49293e-01,5.41656e-02,-1.62591e-02,-2.19902e-02,6.98429e-03,-3.90635e-02,-7.23457e-02,1.06339e-02,3.27575e-01,8.37032e-03,1.04844e-01,1.20299e-01,-5.34883e-02,-8.52046e-02,1.91858e-02,-2.33363e-02,-1.31782e-01,9.78247e-02,-7.35164e-03,-1.06156e-02,-2.73260e-02,9.61624e-02,-1.39679e-02,-2.73172e-01,-5.44818e-02,-4.68701e-02,-2.15439e-02,-1.31571e-01,-5.53209e-03,1.01731e-01,-6.50366e-02,-4.36487e-02,-5.71632e-02,4.73139e-02,7.96608e-02,1.84193e-01,-8.37771e-02,-3.85609e-02,8.07388e-02,1.13420e-01,-6.07016e-02,2.51419e-02,-3.00057e-02,-4.38195e-02,-7.56871e-02,6.94559e-02,-2.32168e-02,6.18469e-02,1.10723e-01,1.02278e-01,-5.35455e-02,9.21668e-02,1.02895e-01,5.87304e-02,1.20255e-01,-3.06650e-02,-4.53844e-02,3.08029e-02,3.59594e-02,
-6.95349e-02,5.92395e-02,-2.48550e-02,-5.61467e-02,2.44485e-03,5.87637e-02,-6.25877e-02,1.33228e-01,-3.72471e-02,4.79827e-02,4.74342e-02,-8.81197e-02,-1.58934e-02,-5.79653e-02,-1.24000e-01,-8.51994e-02,-9.05121e-02,-7.04556e-02,2.46996e-02,-7.25507e-02,4.58000e-02,-5.13509e-02,-7.68041e-02,-3.89643e-02,6.56347e-02,9.14681e-02,7.52882e-02,-1.16868e-02,7.67517e-03,-1.16410e-02,8.25654e-02,-4.97758e-02,5.83169e-02,5.26786e-02,-5.65393e-02,-1.12147e-02,1.47720e-02,8.13902e-02,-8.59626e-03,4.20730e-02,7.71168e-03,-9.91311e-02,1.20315e-02,1.00021e-01,-2.84616e-02,-1.59424e-02,-8.24956e-02,1.15715e-01,5.64265e-02,1.50462e-01,6.51524e-02,-1.22470e-01,2.62889e-02,-5.54170e-02,-4.98908e-02,3.80362e-02,2.75206e-02,-6.53479e-02,2.95829e-02,1.45527e-01,-9.02648e-02,-2.61115e-05,5.51530e-02,-8.79737e-02,-1.62713e-01,-5.01938e-02,2.80493e-02,1.99743e-02,-1.56243e-01,6.04764e-02,7.55348e-03,-1.07256e-01,1.18737e-01,3.31149e-02,-1.56177e-01,-5.19210e-02,1.03971e-01,1.04802e-01,-2.08847e-02,3.76176e-02,-7.15562e-02,2.95772e-02,6.20467e-02,-2.68888e-02,2.52904e-02,-7.30108e-02,-3.74059e-02,-7.84684e-02,3.15455e-02,-2.09144e-02,2.42797e-02,-7.35243e-02,-3.73158e-02,6.11609e-02,1.39346e-02,2.99884e-02,6.39893e-02,-9.43189e-03,5.13961e-02,-9.28498e-03,
-2.33745e-01,3.45110e-02,6.77624e-02,-1.81152e-01,4.81152e-02,-6.50354e-03,3.56824e-02,-1.12905e-01,6.93117e-02,-1.40194e-01,-1.32242e-01,-4.25362e-02,-7.53441e-02,-7.68142e-02,2.38750e-02,-2.53146e-02,-6.78135e-02,2.25436e-02,7.08366e-03,1.78678e-02,-2.73562e-01,-1.41453e-01,3.41774e-02,-3.58908e-02,3.35014e-02,1.66270e-01,1.33299e-02,-7.78966e-02,6.78198e-02,-5.51547e-02,2.98871e-02,-8.25703e-02,2.46786e-02,-1.21172e-02,2.61255e-02,7.70255e-02,-1.59593e-01,-1.46699e-02,-7.94703e-02,9.22762e-02,2.03041e-02,-5.97790e-02,8.27048e-02,-8.60075e-02,7.59925e-02,1.08672e-01,8.37759e-02,-1.28982e-01,-1.76895e-02,-2.86276e-01,-5.87177e-02,5.32725e-02,5.39223e-02,3.38477e-03,5.53719e-03,3.59605e-02,-6.65048e-02,7.24410e-02,-6.07923e-02,-1.32521e-01,-6.81567e-02,1.22503e-01,-2.92761e-02,-9.66252e-03,2.04024e-01,6.09800e-02,8.86496e-02,3.14148e-02,-7.40499e-03,7.15134e-02,-6.29800e-02,1.12279e-02,8.45283e-02,-1.32405e-02,1.02189e-01,1.16578e-02,-2.89845e-01,1.87674e-02,1.05236e-01,-6.15095e-02,-1.06326e-01,8.72026e-02,9.75082e-02,4.13581e-02,-1.31940e-02,4.79532e-03,5.87336e-02,1.28019e-01,-2.78100e-02,-4.30397e-02,-7.38085e-02,7.51224e-02,-2.69997e-02,1.63179e-02,-6.95127e-02,3.57725e-02,1.48061e-01,4.89037e-03,8.73826e-02,-9.08270e-02,
8.76519e-02,9.77003e-02,-4.26168e-02,1.43180e-01,1.84347e-02,2.85107e-02,-2.83431e-02,-1.65620e-02,-1.50626e-01,-2.98968e-02,-1.37009e-02,-8.42545e-02,2.95446e-02,-1.31221e-01,9.84327e-02,-2.02844e-02,1.39194e-01,1.41693e-01,-5.48105e-01,4.15466e-02,-1.62964e-01,-1.16548e-01,2.21750e-01,3.73158e-02,1.78003e-01,1.10380e-01,-1.19779e-03,-1.00764e-01,-1.79749e-02,-6.22322e-02,2.93533e-02,1.24591e-01,-9.67928e-02,-6.11235e-02,-9.99114e-02,7.09664e-02,-1.20546e-01,-2.37280e-01,1.97811e-01,-1.56573e-01,-1.60816e-01,-2.17749e-01,-5.98087e-02,1.30177e-01,8.01252e-02,4.21415e-02,2.62285e-02,4.17469e-02,3.15321e-03,2.07377e-02,-4.17092e-02,2.44402e-01,-3.45046e-02,-1.47768e-01,8.97034e-02,-8.16514e-02,5.45900e-02,-3.85195e-02,5.23904e-02,-1.91298e-01,1.06619e-01,1.68466e-01,6.47345e-03,-1.56797e-01,-3.41231e-03,1.60798e-01,-2.20651e-02,-9.83966e-02,1.89620e-02,-6.82495e-02,-4.85286e-02,1.65891e-01,1.62179e-01,-3.09350e-02,2.34740e-02,-3.38922e-01,-2.51777e-02,5.51646e-02,2.89810e-02,-5.23457e-02,-2.50206e-02,1.70069e-01,-7.52752e-02,-1.40629e-02,4.25552e-02,-9.27841e-02,1.95351e-01,1.61861e-01,-1.57548e-01,-4.32350e-02,-3.63151e-02,6.05780e-02,-2.88297e-01,-1.66156e-02,3.68030e-02,1.56605e-01,4.95764e-03,1.01329e-01,-4.38397e-02,-1.46894e-01,
-3.31841e-01,3.52926e-02,-2.98761e-02,-5.39233e-02,-3.86382e-03,-7.61427e-02,1.41087e-03,8.93197e-02,-4.61324e-02,-9.93003e-02,6.72204e-02,5.00493e-02,-1.70692e-01,4.00315e-02,1.09735e-01,-1.91205e-02,-1.32324e-02,4.58732e-02,1.40874e-01,-7.71254e-02,-1.09449e-01,-5.73469e-02,5.83153e-02,1.52851e-02,1.71449e-01,4.21457e-02,7.46335e-02,2.88871e-02,1.75297e-02,-6.20663e-03,-4.22363e-02,-1.07914e-01,1.44953e-01,9.62212e-02,1.99840e-02,-8.63341e-03,-1.14049e-01,6.20233e-02,-4.99230e-02,1.33491e-01,-2.23205e-02,1.40530e-01,-7.71980e-02,-2.18869e-03,-1.41002e-02,-1.11256e-02,-7.01792e-02,-4.53387e-02,3.53496e-02,-1.98438e-01,6.17772e-02,-2.07026e-01,6.93130e-02,-3.08595e-02,5.05862e-02,-6.73261e-02,-2.09586e-02,2.72631e-02,1.43251e-02,1.32930e-01,4.01428e-02,3.50579e-02,2.65401e-02,7.16617e-02,3.07994e-01,-2.65755e-02,3.12700e-04,9.24493e-02,-5.28022e-02,3.68934e-02,5.42063e-02,-6.05080e-03,-3.93409e-02,-3.12599e-02,-3.02187e-01,1.09024e-01,-3.85659e-01,1.00507e-01,1.58557e-02,3.62820e-02,1.22470e-01,-3.05858e-02,6.41266e-03,4.12165e-02,4.05101e-02,-3.50988e-02,1.93513e-01,2.86114e-02,-2.38341e-02,5.11227e-02,2.64150e-02,1.64055e-02,-7.82932e-02,-4.38093e-02,-4.80453e-02,-1.43579e-01,7.18566e-02,1.33462e-02,2.45696e-02,1.47079e-01,
1.62261e-01,-1.05966e-03,3.07030e-02,2.93273e-03,3.38803e-02,1.15016e-01,-7.22527e-02,-9.07361e-03,1.95642e-02,2.22032e-02,1.61976e-01,-3.36487e-02,-2.89539e-05,8.80280e-02,3.22936e-02,1.02529e-02,2.56141e-02,1.06684e-01,-4.74740e-02,4.37174e-02,7.09153e-02,5.59745e-03,9.99399e-02,1.56859e-02,-1.68358e-02,4.04185e-02,2.11203e-02,-1.44299e-02,-1.42835e-02,8.39165e-02,2.08613e-02,4.34595e-02,-3.54907e-02,-9.66144e-02,-6.04356e-02,2.13292e-02,-5.18551e-02,7.29845e-02,-7.55969e-02,-6.07467e-02,-1.12990e-01,1.30413e-01,7.14263e-02,1.05472e-02,3.82932e-02,6.94684e-02,6.25556e-02,9.43406e-02,-6.01668e-02,1.16096e-02,-3.80316e-03,8.09442e-02,4.19203e-02,-4.45987e-02,5.53112e-02,3.60152e-02,1.29790e-01,-2.71487e-02,8.69950e-02,1.02977e-01,-9.95806e-02,1.36863e-03,-7.31123e-02,-8.09731e-02,6.91733e-02,2.59787e-02,-1.34467e-02,-3.81052e-02,1.44422e-01,1.15388e-01,3.39529e-02,-9.43442e-02,2.04904e-02,-2.02678e-02,-1.03645e-01,-4.34979e-02,4.38401e-02,6.54742e-02,4.91500e-02,5.22846e-02,-2.52892e-03,7.34945e-02,-2.13449e-02,-4.56784e-02,7.28669e-03,-3.59527e-02,7.02417e-02,2.59417e-02,7.25333e-02,4.84514e-02,9.55588e-02,2.96798e-02,-4.29905e-03,6.94893e-03,-8.18932e-04,6.91948e-03,4.31250e-03,2.38832e-02,4.83409e-02,1.64835e-02,
-1.39896e-01,-7.06713e-02,3.53520e-02,-1.00574e-01,7.83040e-02,1.95150e-02,1.50332e-01,3.30980e-02,1.00122e-01,3.12482e-02,-3.06408e-02,2.84131e-03,5.40382e-02,-3.02600e-02,1.87001e-02,8.85823e-02,7.01661e-03,-1.70661e-03,8.03791e-02,6.61445e-02,-2.32731e-01,-6.41149e-02,-5.34509e-02,4.30217e-02,-9.09926e-02,2.22470e-02,4.86340e-02,-6.01181e-02,3.32588e-02,-3.03634e-02,3.03987e-02,-1.18066e-01,2.54476e-02,-4.69115e-02,8.98340e-02,-9.55086e-02,-2.52169e-01,7.41097e-02,3.84974e-02,-5.71973e-02,-4.16026e-02,-1.53541e-01,2.18869e-02,3.11280e-02,-5.06357e-02,1.63127e-01,1.68716e-02,-5.74725e-02,-3.95769e-02,1.48134e-01,-5.03004e-02,-8.59073e-02,4.53426e-02,-1.24274e-01,4.34991e-02,-6.02443e-02,-5.61213e-02,2.30928e-01,-1.63700e-01,-1.90051e-01,-6.30243e-02,4.31920e-02,-7.80499e-02,6.88128e-03,1.73607e-01,-1.73554e-02,8.41814e-02,3.60170e-02,1.84974e-02,-6.86104e-02,5.01675e-02,4.36455e-02,-5.81197e-02,-8.42259e-02,5.43794e-01,1.67457e-02,7.23828e-02,1.03865e-01,-5.80871e-03,-2.14212e-02,-1.49102e-01,3.03816e-02,-4.50846e-02,-3.14350e-02,-1.56093e-01,-4.11761e-02,-1.10561e-01,4.63521e-02,-5.02467e-02,-3.64848e-02,2.81015e-02,8.98178e-02,4.17344e-02,3.26057e-02,5.31864e-02,-1.16152e-01,9.00047e-02,1.40212e-01,1.19173e-01,3.07672e-02,
3.69613e-02,4.36920e-02,4.39101e-02,-7.24623e-03,1.10480e-02,-4.80166e-02,8.36560e-02,1.03753e-01,-6.31313e-02,-7.19885e-03,7.33836e-02,8.12473e-02,-2.86729e-02,-3.65328e-02,1.27371e-01,5.55951e-02,7.44379e-02,-7.05620e-03,-1.73653e-02,5.93439e-02,4.36354e-02,-4.18972e-02,9.12612e-02,-1.77526e-02,-5.06603e-02,4.84512e-02,3.21362e-02,4.68092e-02,4.30617e-02,-1.43299e-02,-6.03254e-02,-4.56885e-02,-1.17394e-02,-4.41089e-02,1.21207e-01,-5.15464e-02,-3.24331e-02,-2.62478e-02,-6.02015e-02,6.31426e-02,5.57787e-02,-1.88148e-02,6.70945e-02,-5.60583e-02,-5.13641e-02,-1.99480e-02,1.96384e-03,6.92282e-02,3.05696e-02,-1.33670e-01,2.13952e-02,8.59884e-02,2.08854e-02,-3.10776e-02,-6.75407e-02,-3.91344e-02,3.93233e-02,-1.17413e-01,2.52622e-02,9.75908e-02,-5.09145e-03,1.65949e-01,-1.84595e-02,1.45712e-01,5.87799e-02,1.57398e-01,-5.72319e-02,2.43462e-02,1.50020e-01,3.57466e-02,-4.99884e-02,1.23982e-02,9.25718e-03,3.09362e-02,-1.16329e-01,4.66535e-02,-8.71882e-04,-4.83472e-02,-5.69009e-02,-9.53350e-02,2.70369e-02,3.71368e-02,-1.44032e-02,3.68765e-02,3.10666e-02,-3.48435e-02,-2.96003e-02,4.06450e-02,-5.11773e-02,-2.95990e-02,-3.63662e-03,7.08628e-02,-5.00639e-02,-4.29563e-02,-4.01981e-02,1.26746e-01,3.15180e-02,-5.78536e-02,1.08318e-01,-9.25941e-03,
-5.90249e-02,-3.33368e-02,2.49087e-02,-1.83863e-02,1.45639e-02,3.27056e-02,-1.97197e-02,4.96419e-02,-9.70245e-02,-5.84849e-02,1.75561e-02,-1.60586e-03,7.10002e-02,-6.79840e-02,9.08866e-02,-1.56087e-02,4.66531e-02,1.00738e-01,-7.97276e-02,-5.56273e-03,1.64952e-02,-1.27032e-01,2.73266e-03,-6.08180e-02,8.00668e-02,-5.83885e-02,5.98236e-02,2.74143e-02,-7.08440e-02,1.09426e-01,3.57195e-02,-4.11143e-02,1.29951e-01,-1.10492e-01,2.14190e-02,1.28344e-02,-5.24856e-02,1.22018e-02,1.97352e-03,-7.26175e-02,7.51882e-02,8.34041e-02,3.43932e-02,-7.03211e-02,6.90835e-02,8.31992e-03,-7.07199e-02,2.89441e-02,1.66725e-03,1.59949e-01,-4.28676e-02,2.12822e-02,9.16653e-02,1.41053e-01,-1.98701e-02,-7.12743e-02,8.11259e-03,2.83864e-02,5.89046e-03,3.08260e-02,-5.31867e-02,2.19799e-01,3.80378e-02,1.28437e-01,7.69674e-02,2.98512e-02,-2.11394e-02,-1.91291e-02,-4.51179e-02,-5.52601e-02,7.03718e-02,7.89506e-02,-6.26269e-02,6.65588e-02,7.99853e-02,-3.80482e-02,8.01142e-02,5.48501e-02,5.14603e-02,-3.48040e-02,-2.00663e-02,8.18390e-02,-1.06101e-02,-9.12662e-02,-1.58364e-02,5.14869e-02,2.13550e-02,8.49078e-02,-5.62846e-02,-4.10370e-02,8.14493e-02,4.61245e-02,2.13321e-02,-8.70647e-02,-1.14943e-01,9.03153e-02,7.46813e-02,3.43405e-02,4.79096e-02,-7.15208e-02,
2.09958e-02,9.34070e-02,-6.13604e-03,-4.08494e-02,1.24268e-02,1.20374e-01,-2.64634e-02,1.17626e-02,4.80315e-02,-2.19333e-03,-6.03077e-02,-8.75073e-02,5.96077e-02,-9.16367e-02,-1.00457e-01,5.24448e-02,1.47048e-01,-8.68847e-02,4.72155e-01,4.98230e-02,5.93484e-03,-8.17755e-02,-1.80320e-01,5.99048e-02,-7.32802e-02,-1.74747e-02,-3.40353e-03,-9.94846e-02,-1.80540e-02,-7.92293e-02,-5.34624e-02,6.99812e-02,-5.81660e-02,-5.21909e-02,-2.63792e-02,-2.51122e-01,-3.81707e-02,-5.28057e-03,1.38627e-01,1.70999e-02,-3.79635e-03,-2.62506e-01,1.33992e-02,1.48350e-01,-1.35865e-01,3.54187e-02,3.89145e-02,-5.59181e-02,9.96748e-02,3.02641e-01,-3.81727e-02,1.37442e-01,4.18693e-02,2.96043e-02,-1.75707e-01,1.17132e-02,4.42339e-02,1.12765e-01,-6.63936e-02,-1.93873e-01,-5.28041e-02,1.86189e-02,-6.56498e-02,-2.08553e-02,-7.42059e-02,1.06209e-01,-7.46406e-02,3.15967e-02,-1.16941e-01,-9.56886e-03,-1.64756e-02,7.12038e-02,7.55088e-03,2.70224e-02,3.38383e-01,5.56868e-02,3.11710e-01,1.85103e-01,1.20209e-01,-1.00336e-01,-9.44369e-02,-1.63858e-02,-8.27469e-03,-1.28638e-02,-1.06843e-01,-4.63454e-02,1.75358e-02,-7.75100e-02,2.51484e-02,1.12647e-02,3.29091e-02,6.26157e-02,2.97589e-01,-5.77004e-02,-1.06451e-02,-9.11600e-02,5.63385e-02,1.04007e-01,-3.05827e-02,2.41294e-01,
4.28364e-02,4.54095e-02,-8.22497e-02,-1.60028e-01,7.37530e-03,5.23808e-03,-1.25061e-01,3.58153e-03,4.21677e-02,5.44298e-02,1.32365e-01,2.63503e-02,-4.66786e-02,-4.40814e-03,2.62848e-02,-4.62657e-02,-6.64498e-02,4.99191e-02,-7.26070e-02,3.96839e-02,7.34807e-02,-8.64322e-02,-8.78412e-02,1.86350e-02,1.94661e-01,-8.67542e-02,-7.02880e-02,1.72424e-01,-8.64744e-02,-7.08112e-02,-3.96031e-02,1.11451e-01,1.37777e-01,1.48036e-02,-5.46180e-02,-1.28558e-01,3.76995e-02,-8.11828e-02,3.30672e-02,-4.93645e-02,-3.10757e-02,-1.98085e-01,7.46273e-02,1.38764e-01,4.81348e-02,-2.33833e-02,-5.57272e-02,1.34484e-01,-8.10869e-02,-1.37440e-01,6.54143e-02,2.61553e-02,-4.81396e-02,-1.17473e-01,8.09636e-02,-1.75167e-01,-1.13032e-01,-1.31006e-01,1.68196e-01,1.65274e-02,3.08228e-02,-7.96963e-02,-3.45983e-02,2.50380e-02,-2.23927e-01,1.52592e-01,-7.42277e-03,1.34028e-01,6.26852e-02,2.20202e-02,-5.16815e-02,4.54848e-02,3.17350e-03,9.00865e-03,2.01073e-01,-1.35405e-02,-1.09932e-01,1.19105e-01,-4.88901e-03,9.30846e-02,9.21656e-02,9.19786e-02,6.62886e-02,-7.36019e-02,-1.56218e-01,-1.27771e-01,-3.32909e-02,1.58727e-01,-1.56063e-02,-2.86098e-02,6.34069e-02,8.42467e-02,3.90588e-02,6.61563e-02,-2.30969e-02,8.73512e-02,6.82825e-02,8.11561e-02,-2.56020e-01,3.30788e-02,
1.82220e-01,2.78188e-02,-1.41948e-02,-2.51134e-02,1.56144e-02,-1.44893e-01,1.37950e-02,1.61614e-02,-1.47790e-02,5.79301e-02,9.68040e-02,7.70727e-03,-8.03478e-02,9.79844e-03,7.62360e-02,-5.74436e-02,7.47918e-02,5.27651e-02,2.50681e-03,-3.88961e-02,-4.48585e-02,1.04726e-01,5.05606e-02,7.56438e-02,6.66603e-02,-7.30635e-02,8.42134e-02,1.04125e-01,2.46157e-02,-2.48049e-02,-7.96425e-02,-7.64830e-02,-9.33984e-02,-7.03299e-03,7.90149e-02,6.22937e-02,-4.62203e-02,-9.11762e-02,-8.40301e-02,8.20455e-02,-6.42380e-02,-2.64447e-02,5.11379e-02,5.08330e-02,-9.87899e-02,5.33704e-02,1.08347e-02,8.75295e-02,-3.44373e-03,-1.42561e-01,3.61153e-02,6.03608e-02,1.91456e-02,4.65869e-02,3.58919e-02,4.30071e-02,1.04145e-02,-2.32265e-02,-8.39053e-02,5.36047e-02,-1.86130e-02,4.03107e-02,2.62211e-03,-7.99197e-03,1.02035e-02,7.17931e-02,-6.60608e-02,1.80536e-02,4.76460e-02,9.67586e-02,1.59757e-03,-7.76769e-02,3.89106e-02,1.62863e-02,-1.59825e-01,-7.96061e-02,-4.47112e-02,-7.99704e-02,-1.45080e-02,8.11053e-02,1.82516e-02,3.95178e-03,4.50118e-02,9.17559e-02,4.80231e-02,-4.54159e-02,-1.93222e-02,-9.08658e-02,4.19437e-02,7.20420e-02,1.95883e-02,-5.27012e-02,-8.79746e-02,8.34393e-02,1.54185e-02,6.17050e-02,-3.07919e-03,-3.18335e-02,1.20212e-02,9.19942e-02,
-3.72264e-02,1.94685e-02,-7.49705e-03,-5.48188e-02,-6.88073e-02,1.25436e-01,1.03123e-01,-2.35953e-02,-4.77259e-02,-8.39488e-03,-7.37380e-02,4.18159e-02,-3.35756e-02,-8.24822e-02,-1.10671e-01,-8.13287e-02,4.52075e-02,7.12849e-02,-6.65523e-02,2.98916e-02,2.59998e-02,1.08839e-01,-7.57356e-02,-2.21572e-02,-4.01804e-02,3.46868e-02,1.79949e-01,-1.05650e-01,7.78151e-02,-7.88468e-02,1.11283e-02,6.48925e-02,1.43700e-02,-1.06790e-01,-1.08189e-01,9.60098e-03,5.00080e-02,7.19625e-02,-8.25304e-02,-1.06594e-02,9.32549e-02,-3.70175e-02,1.02993e-01,6.20846e-02,4.46613e-02,-1.38575e-01,9.77713e-02,7.26866e-02,-2.10200e-02,9.04496e-03,-6.05508e-02,6.83138e-02,8.86069e-04,1.47922e-03,7.34202e-02,9.28868e-03,-3.78905e-02,-1.39970e-02,2.24980e-02,4.75990e-03,3.10032e-02,6.86430e-02,8.52835e-02,8.46298e-02,-2.65125e-02,1.04222e-01,-3.03646e-03,6.47252e-02,-1.10888e-02,3.36688e-02,-3.59771e-02,-5.02011e-02,5.85736e-02,7.03532e-02,-9.83439e-02,-2.05825e-03,6.11910e-02,-5.31634e-02,-8.13926e-02,2.90534e-02,4.19581e-03,7.59599e-03,-8.83075e-03,-3.74696e-02,8.78431e-02,8.39150e-03,3.95225e-02,-5.53837e-02,-3.92670e-02,-6.47465e-02,7.05933e-02,-8.14865e-02,9.94200e-02,-3.95861e-02,-4.64607e-02,6.94761e-02,1.10700e-01,9.59027e-02,6.38440e-02,-9.46007e-02,
-7.24415e-02,-4.39950e-02,-1.81715e-02,1.11571e-01,-8.58784e-02,3.25795e-02,-5.94646e-02,-2.15249e-02,1.97719e-02,-3.37268e-02,-7.63030e-03,-8.39569e-03,1.17093e-01,6.50794e-02,2.43113e-02,-3.69361e-02,3.85198e-02,-4.15265e-02,1.53928e-02,-1.58266e-02,7.63470e-02,-1.31204e-02,-9.59493e-03,2.63847e-02,-1.00466e-01,1.85455e-02,-8.39145e-02,-2.00706e-02,-1.42858e-02,-4.75278e-02,-7.28356e-02,5.45947e-02,-1.17589e-03,-1.13658e-01,-1.30571e-01,1.32223e-01,6.25638e-02,8.12685e-02,1.92500e-02,4.66604e-02,5.71661e-02,1.60003e-01,-7.47568e-02,-1.91723e-01,3.02736e-02,3.94733e-02,-7.78204e-02,5.38076e-05,-2.56078e-02,2.32966e-01,-4.14791e-02,-5.14884e-03,1.17087e-01,-6.15449e-02,5.60751e-02,5.56531e-02,7.46499e-02,-1.24978e-01,8.51830e-02,-9.43839e-02,5.87702e-02,1.49491e-01,-4.66322e-02,-3.88497e-02,-9.96851e-02,-4.59443e-02,-3.05127e-02,6.89925e-04,3.47020e-02,1.20002e-01,-1.50706e-01,9.04034e-02,1.00852e-01,4.01947e-02,3.52950e-02,-1.40556e-02,2.18549e-01,-8.17071e-02,4.08145e-02,3.16987e-02,-1.16029e-01,-7.81373e-02,-9.88049e-02,5.93180e-02,1.31371e-01,1.25039e-01,1.43699e-02,-2.56194e-02,3.78660e-02,5.47416e-02,1.09059e-01,4.14349e-02,8.82670e-02,8.69022e-02,2.45894e-02,-6.39382e-02,-7.15970e-03,-2.07280e-02,1.72699e-02,8.50056e-02,
2.35374e-01,-1.87818e-02,-3.84104e-02,1.24590e-01,1.29929e-02,1.43548e-01,1.73941e-02,-1.41304e-02,8.51858e-02,9.92389e-02,8.04641e-02,3.50918e-02,1.87729e-01,4.56203e-02,-1.93027e-02,-4.70789e-02,6.68704e-02,-8.31093e-02,-3.61681e-01,1.66758e-01,-7.76447e-02,8.41528e-02,-1.66777e-01,9.16377e-02,-1.52218e-01,-1.56005e-02,4.37852e-02,7.95174e-02,4.65099e-02,-7.40348e-02,-3.26585e-03,6.45156e-02,-1.25100e-01,-1.41320e-01,-3.54732e-02,-5.49235e-02,-7.43531e-02,2.04418e-02,3.28407e-02,-9.29894e-02,2.32457e-02,-3.13657e-01,-1.05499e-01,8.01545e-02,-6.27634e-02,7.25119e-02,-1.05352e-01,-5.95986e-02,2.53125e-02,8.29443e-02,-1.14982e-01,1.19409e-01,-1.69183e-02,1.00032e-01,-9.16559e-03,1.24385e-01,1.39772e-01,-5.72631e-02,2.89869e-02,-1.99071e-03,1.17640e-02,2.11865e-02,-5.26014e-02,-7.55423e-02,-2.45314e-01,9.73092e-02,8.13323e-02,-2.25218e-02,2.36799e-02,-8.09176e-03,1.67453e-02,-2.35900e-02,1.02783e-01,1.24034e-01,1.21701e-01,-9.77617e-01,8.97353e-02,4.97259e-02,-2.52956e-02,-1.03359e-02,-1.41868e-01,-9.21918e-02,-9.25753e-02,-4.93935e-02,-2.08737e-02,2.05125e-02,-1.27198e-02,-1.63076e-01,7.55452e-02,-1.76162e-02,9.47266e-02,2.26657e-02,7.04489e-02,4.40471e-02,6.03995e-02,2.54493e-01,-1.88532e-01,5.04356e-02,-1.65692e-01,-2.26849e-01,
-6.75666e-02,-7.11924e-02,7.37068e-02,5.49397e-02,-5.42793e-02,5.37105e-03,2.39598e-04,4.49926e-02,-8.75925e-02,1.16227e-02,-1.32208e-02,-6.57533e-02,-1.04528e-01,1.28956e-01,6.89967e-02,-6.85520e-02,-7.75303e-02,2.74580e-02,7.66307e-02,2.70881e-02,1.18277e-01,1.79413e-02,6.33666e-02,4.56474e-02,-2.41345e-02,3.77016e-02,4.22814e-02,8.39743e-03,-5.55415e-02,1.26519e-01,1.11337e-01,1.38977e-01,-4.67637e-02,-8.02418e-02,-1.09108e-01,1.75633e-01,5.67392e-02,1.66988e-02,-7.65913e-02,-9.18008e-02,-1.76890e-02,1.45067e-01,-9.75460e-03,-8.99215e-02,1.19365e-01,-3.15104e-02,-7.99711e-02,3.44329e-02,-1.52780e-01,-7.78724e-02,1.88698e-02,9.47180e-02,-5.35347e-02,9.80448e-02,3.23315e-02,-8.17387e-02,-1.60366e-02,5.08053e-03,5.17567e-02,4.87821e-02,4.43792e-02,6.65124e-02,5.69543e-02,3.18860e-02,7.02925e-02,-1.57628e-01,-3.03518e-02,-5.34642e-02,-5.06934e-02,-3.14768e-02,-9.90156e-02,-5.56552e-02,-5.70293e-02,6.76860e-02,6.24493e-02,-4.34122e-02,-1.72014e-01,7.80269e-03,-9.33002e-02,5.96716e-02,8.83256e-02,-2.89893e-02,-4.18239e-02,-9.18324e-03,4.98797e-02,7.61810e-02,-9.56334e-03,-4.76436e-02,1.45160e-02,-8.39207e-02,8.78730e-02,-5.59423e-03,-3.41253e-02,-8.65058e-02,5.70821e-02,8.54164e-02,-7.97528e-02,-8.13348e-02,8.33099e-03,9.05561e-02,
1.69917e-01,9.94520e-02,1.05484e-01,2.34237e-02,8.21556e-02,-1.08760e-01,-6.92299e-02,9.91171e-02,7.20375e-02,9.21905e-02,-1.99948e-02,2.89412e-02,5.86114e-02,-5.14160e-02,1.29519e-03,3.21428e-02,-2.27800e-02,8.03621e-03,6.87467e-02,3.99254e-02,-1.29319e-01,-2.00843e-02,-1.99094e-02,-1.04497e-01,4.66515e-02,-3.40738e-02,7.75259e-02,1.04855e-01,1.10694e-01,-3.61911e-02,-3.02861e-02,4.10749e-02,-8.86157e-02,7.00933e-02,9.05880e-02,-3.65150e-02,6.39455e-02,1.52010e-01,7.76600e-02,1.59236e-02,-7.50774e-02,-6.68765e-02,4.48669e-02,5.75055e-02,-6.19855e-02,3.53798e-02,-7.54270e-02,-4.16099e-02,-1.55204e-02,-1.35999e-01,-1.23682e-02,6.46567e-02,1.22140e-01,6.33970e-02,-1.11707e-01,-3.39093e-02,-1.88750e-02,-1.04688e-02,-1.09474e-02,-8.50202e-03,-1.64575e-02,7.48301e-02,2.48888e-02,1.18256e-01,-3.98216e-03,3.28095e-03,4.03954e-02,8.91030e-02,-7.19111e-02,-7.94007e-02,9.70232e-03,9.99992e-02,-1.00919e-01,1.30851e-01,-1.45194e-01,-6.65721e-02,-7.83009e-02,3.42893e-02,3.18957e-02,7.19803e-02,7.74314e-03,-1.13324e-02,-8.86026e-02,-7.35789e-02,-2.28651e-03,-9.64275e-03,-3.52131e-02,1.04307e-01,6.76236e-02,-7.72450e-02,1.15856e-02,1.85449e-02,-3.75557e-02,-8.44266e-02,1.17972e-02,7.45556e-02,-2.64874e-02,-6.64488e-02,7.34450e-02,-5.32628e-02,
-7.39916e-02,-6.47922e-02,1.01160e-02,1.76899e-02,1.76199e-02,7.35245e-02,-2.98351e-02,3.42001e-02,-1.51855e-02,8.83573e-02,4.74037e-03,8.68822e-02,1.70325e-02,1.75047e-02,-2.07541e-02,2.56203e-02,-7.83655e-02,-1.09503e-02,1.80209e-02,-8.63619e-02,6.44622e-02,-3.15253e-02,9.29904e-02,-6.81387e-02,3.30322e-02,-3.88175e-02,3.25924e-04,8.30986e-02,-6.53138e-02,3.64535e-03,-6.75521e-02,-4.13833e-02,-3.31585e-02,-3.46391e-02,4.00380e-04,-1.77714e-02,-4.59207e-02,-5.12123e-02,-3.96315e-03,9.23720e-02,-9.82082e-02,1.15236e-01,-5.78958e-02,-1.18728e-01,-1.93534e-04,-7.02178e-03,6.64622e-02,-7.22994e-02,-4.75726e-02,-8.36490e-02,6.06440e-02,7.88993e-04,1.22149e-01,4.17307e-02,6.64192e-02,-4.52893e-02,8.79713e-02,7.47993e-02,5.46198e-04,7.84156e-02,-2.80435e-02,-7.12731e-02,3.23119e-02,3.13737e-02,-5.80944e-02,6.29642e-02,6.16314e-02,-4.98200e-02,2.90231e-02,-5.87488e-02,-1.28851e-02,6.52142e-02,2.22211e-01,-3.05874e-02,6.27707e-02,2.82506e-02,-3.27700e-02,1.17674e-02,8.26470e-02,5.08685e-02,7.85026e-02,-6.51174e-02,1.37246e-01,7.04534e-02,7.31396e-03,6.42716e-02,-7.73038e-02,5.06269e-02,2.89172e-02,1.54675e-01,1.15536e-01,-2.87750e-02,-7.22637e-02,-1.28547e-02,-1.88976e-02,-4.23987e-02,9.92934e-02,2.98889e-02,-1.16677e-02,-8.54844e-02,
-1.89410e-01,-4.41120e-02,4.97742e-02,-7.21206e-02,4.98261e-02,-6.99147e-02,1.31484e-01,6.30154e-02,-5.76649e-02,-3.55272e-02,4.10363e-02,4.92769e-02,1.42982e-01,-1.72618e-02,3.74452e-03,-3.71908e-02,3.08680e-02,-6.35982e-02,9.60812e-02,8.32444e-02,5.04134e-02,-2.94490e-02,1.36561e-01,4.71606e-02,-1.37011e-02,2.31362e-03,5.43742e-02,9.75348e-02,-1.59751e-02,-8.32341e-02,-5.37701e-02,8.91068e-02,-9.92073e-02,1.43556e-02,5.33805e-02,3.28163e-02,-3.36869e-02,3.42039e-03,-1.12793e-01,-3.26380e-03,6.10921e-02,-2.09899e-02,2.84812e-03,6.63877e-02,-8.39862e-02,2.88703e-02,9.33220e-02,7.80985e-02,-1.35956e-02,3.73053e-02,4.08868e-02,1.98470e-01,4.56548e-02,-1.98966e-02,-6.26279e-02,-3.73454e-02,7.08141e-03,-7.01817e-02,3.07364e-02,6.65963e-02,1.03342e-01,4.61838e-02,2.59112e-02,-1.41738e-03,-1.07379e-01,1.20403e-01,7.95485e-02,-3.17829e-02,1.02785e-04,-5.58879e-02,2.27256e-02,4.07988e-02,-2.19410e-02,-6.10918e-02,8.13911e-02,1.49277e-01,-3.61025e-02,9.45879e-04,-4.77725e-02,1.35641e-02,1.15622e-02,-9.29472e-03,5.10593e-03,-6.24909e-02,-6.01535e-03,7.71595e-03,5.54521e-02,-1.96941e-02,8.37527e-02,-9.50415e-02,1.38284e-02,-8.78260e-02,-9.80125e-02,1.28202e-02,-4.10008e-02,1.26479e-01,-6.39205e-03,2.85507e-02,7.40509e-02,9.35938e-02,
